#pragma once

#include "parameters.h"

#ifndef KERNEL50_H
#define KERNEL50_H

static float bias50[FEATURE_MAP50] = {0.7038324,1.3002264,0.7006028,0.64234245,0.0800761,0.52637815,1.2543757,1.7819232,0.7804532,-0.9132705,0.5205858,-0.0041927546,-0.27064574,0.3344417,1.5445864,0.5443407,0.24506709,1.0813223,0.9745038,0.18258864,-0.050718904,0.70612556,0.39761835,1.5746181,1.4941384,0.8552467,1.0117251,0.6055695,0.6567993,0.64986914,0.0595477,0.81952995,0.78536594,2.3139253,0.38546965,0.04370761,0.3124858,0.18384266,1.9894371,0.8114787,0.5696029,0.61969566,0.33390817,-0.063889116,0.4552241,0.7405298,0.7504389,1.4531868,0.5304915,1.3187242,0.6898739,0.7941367,0.47164088,0.88859236,0.21239407,1.0705659,1.9840728,1.4058867,0.15590177,1.2960527,0.35458273,2.3645241,0.8876609,0.8232862,0.25727406,1.6684706,0.5123568,0.93699205,2.0823412,0.13974856,1.5977435,1.0086169,0.43469542,0.73158187,2.69054,0.12762234,0.23923561,1.8090887,0.2930497,-0.376992,0.5301434,1.4967861,1.4915456,0.36402482,0.35521388,-0.16264977,0.77906895,0.19411194,0.3403831,0.08006105,1.1302537,0.4297889,0.9320209,0.8049006,0.15631524,0.6125128,0.1020073,1.2595624,-0.4852468,1.3954946,1.060321,0.5078601,2.0427024,2.002631,0.14636667,0.86443806,0.40724355,0.5701343,-0.102206856,0.4991347,0.045309156,1.6573298,1.5877081,-0.0027612,0.62798584,0.53305966,0.5010271,0.5424217,1.8584157,0.5497327,1.0449275,0.57252717,-0.09689288,0.8397354,0.5886195,1.2411928,0.9764498,0.6440417,-0.15807068,1.4608327,0.16535479,0.77542734,2.4521441,0.32522833,1.0219566,-0.1925027,0.7541314,-0.043276817,1.7140408,0.30602485,0.45899296,2.6120987,2.8409076,0.7392462,1.110172,1.6707404,0.61618394,1.1038584,1.0146791,0.782977,0.5596806,0.9889548,1.7840074,0.4679451,0.8645236,0.534088,0.028260887,1.0431796,0.030763626,0.39458612,-0.43000346,0.48442015,1.0075948,1.1265719,0.97848636,0.7943719,0.03483568,0.27177787,0.5771113,2.4455023,1.2826303,1.7397573,0.47938448,0.7647813,0.6389504,0.7991384,0.6939938,1.150592,-0.09097028,0.5413808,0.2752597,0.81986237,0.15437949,0.0023711547,-0.7843092,0.49966574,1.783897,1.1473575,1.9186537,1.000933,1.1743802,-0.012093939,0.7541049,0.25893772,0.54812694,0.55010456,2.670278,-0.018825322,0.7042912,0.99757075,1.7777121,0.43814203,0.086281486,0.65144575,-0.15102984,1.1581252,0.29612026,-0.19481945,0.8151001,1.5553927,1.2835665,-0.011774182,0.5096581,0.3960032,1.1371971,1.1581272,0.50924325,0.18474151,1.6888021,1.1371604,1.2741618,1.3213173,1.0333577,-0.15210979,-0.14315468,0.21648964,0.041078188,0.82980525,-0.29431674,1.1273028,0.8365044,0.99816823,0.38196257,-0.04590863,0.61554366,0.28012246,0.75791186,0.14937349,0.106004626,0.9527872,0.4049812,1.4264522,0.68206406,2.4369931,0.7540211,1.5297881,1.187752,0.24885806,0.53870153,0.78666186,0.4005317,0.21921378,-0.013749629,0.11575937,2.0982575,1.390978};

static float kernel50[FEATURE_MAP50][IN_CHANNEL50][KERNEL50][KERNEL50] = {-0.0698564,-0.052357942,0.043494195,0.1268867,0.06811571,-0.09033234,-0.014097249,0.03898216,-0.062069125,-0.09738669,-0.02979776,-0.009264561,-0.035913058,-0.046196837,0.0031693045,-0.007460892,0.009762717,-0.03282105,0.0833696,0.000823103,0.0833696,0.059961982,-0.025056686,-0.13174228,0.04321935,-0.14988205,-0.035042714,0.02409473,-0.058267105,-0.142278,0.06875701,-0.055930924,0.07636105,0.015895193,-0.073658414,-0.07136804,0.04690685,-0.00937908,-0.127528,0.054877352,-0.12789446,-0.0041427133,0.0069741877,0.007231855,0.007369277,-0.0015860837,-0.058587756,0.07828497,-0.007054351,0.14924075,0.023567945,0.06793248,-0.013123841,-0.09885252,-0.0010550034,0.056480613,-0.08291152,-0.080071464,-0.07058931,-0.04814365,-0.040058635,-0.031492636,-0.0028429262,-0.033622686,-0.03561531,0.043310966,-0.01630746,0.114976756,-0.03201942,0.05854195,0.03217975,0.0041112206,-0.025881222,-0.07993404,0.016719727,-0.111587,-0.118091665,-0.055335425,-0.044043884,0.0999519,-0.03572983,-0.03286686,-0.15794416,0.019422367,-0.030553583,0.002125753,0.07159708,-0.07287969,-0.032340076,-0.048464306,-0.031882,-0.047227502,0.098486066,-0.106639795,-0.09188979,-0.045578435,0.123680174,-0.06999382,-0.016089875,-0.033668492,-0.15345503,-0.023751175,-0.026385104,-0.1441103,-0.085980624,0.054785736,-0.06275623,0.017097639,-0.016467785,-0.0527244,-0.16930442,-0.04328806,0.021907423,-0.05034241,-0.028034173,-0.14017086,-0.0294313,0.019353656,-0.099585444,0.06408466,0.085751586,-0.04947207,-0.005714482,0.06834475,-0.07585717,-0.029522916,-0.008886649,-0.11580129,-0.05057145,-0.054602508,-0.14447677,-0.04709008,-0.0312636,0.111678615,0.019239139,0.0088580195,0.12789446,-0.08309475,-0.0950047,-0.096470535,-0.041341245,0.04010444,0.00032440995,-0.061107166,-0.03071391,0.014394998,0.061840087,0.022754861,-0.024369575,0.08740066,0.08662193,-0.13146745,0.071139,-0.11699228,-0.09601246,0.08217861,-0.08565997,0.050479833,-0.128719,0.02230824,-0.10251712,-0.042807084,0.079705,0.10682303,-0.15107304,0.090790406,-0.010524266,-0.0032065231,-0.08309475,-0.029339686,-0.016582305,-0.04633426,-0.065092415,-0.100318365,-0.014394998,0.037974395,-0.052083097,0.06174847,0.05034241,0.15840223,0.01489888,0.22922058,-0.04942626,0.0077643665,0.039188292,0.030507777,0.042463526,-0.10691464,-0.047823,0.21236344,-0.012574151,0.107922405,-0.021999039,-0.110396005,0.021598224,-0.07081835,0.016215846,0.08547674,0.008308331,-0.069673166,-0.00036789125,0.065504685,-0.061107166,-0.0735668,-0.030026797,0.048464306,0.060282633,-0.10508234,-0.11900781,0.0041283984,-0.074528754,-0.028148692,-0.022857929,-0.07058931,0.08570578,0.16884634,0.020876756,0.0035872976,-0.10004352,0.09051556,-0.04516617,0.07956758,0.102883585,0.004709581,-0.08593482,-0.008273975,0.10315843,0.05849614,-0.08291152,-0.07210096,0.042394817,0.17434324,-0.08181214,-0.0134215895,0.056388997,0.003046197,0.08552255,-0.050983716,-0.049380455,-0.07210096,-0.04855592,-0.0386157,-0.09161495,0.040974785,-0.030187124,-0.07883466,0.00922448,0.03341655,-0.06284785,-0.007730011,-0.10526557,-0.06142782,0.042944506,-0.09156913,0.049746916,0.009648199,0.031744577,-0.011526305,0.024438286,0.00026876104,0.049197223,-0.07819335,-0.014818717,-0.054327663,-0.0149904955,-0.00588626,0.025308628,-0.09028653,-0.118549734,0.061152976,-0.00048133632,-0.093905315,-0.03962346,-0.053045053,-0.03488239,0.03213394,-0.1158929,-0.08648451,0.017887818,0.061015554,-0.033943336,-0.06426788,-0.14127025,0.07571975,-0.10315843,-0.11149538,0.01728087,-0.06431369,0.050663065,0.010489911,0.0772314,-0.082545064,0.046082318,-0.13449074,0.026385104,-0.037264377,-0.06165686,0.03776826,-0.066054374,0.008577449,0.025468955,-0.0760404,0.030187124,-0.102059044,0.038478278,-0.11543483,-0.024323767,-0.025583474,-0.014154509,-0.051899865,-0.0006649241,-0.023590848,-0.010163533,-0.07017705,-0.018162662,0.0029517189,0.07379584,-0.009144316,-0.051670827,0.14026248,-0.046151027,-0.06234397,0.04431873,0.053182475,0.049930144,0.025904125,-0.0072662104,-0.041180916,-0.06596276,0.048601728,0.05565608,-0.12303887,0.018357344,-0.028079981,0.03948604,0.03272944,0.027140927,-0.13806371,-0.026591238,0.106639795,-0.06229816,-0.045211975,-0.10929663,-0.04768558,-0.13284166,-0.121114954,-0.018929938,0.060603287,0.04260095,-0.061473627,-0.11002955,0.058358718,0.08506448,-0.006888299,0.025491858,0.043081928,0.022113558,0.022938091,-0.09298917,0.13650626,0.011749617,0.13210875,-0.037195668,0.04237191,-0.023499234,-0.069260895,-0.024438286,-0.0741623,-0.11745036,0.06875701,-0.025789607,0.11745036,0.017395388,0.054281853,0.004426147,-0.111770235,-0.027186735,-0.03261492,0.04518907,0.005565608,-0.03550079,0.030507777,0.10627334,-0.09949383,-0.021140149,0.102242276,-0.05922906,-0.025789607,0.18872678,-0.117358744,0.0846064,-0.079109505,-0.10132613,0.0040367832,0.017383935,-0.07544491,-0.0625272,0.1158929,0.010862097,-0.05405282,0.019765925,-0.0337143,-0.048281074,0.090469755,0.12761962,0.06468015,-0.07274227,-0.085751586,0.0027985503,0.07649848,-0.07704817,0.004157028,-0.036577266,0.09986029,0.11332768,0.08634709,-0.10618172,0.13045968,-0.08653031,-0.07013124,0.02446119,-0.01520808,-0.027278349,-0.12954353,-0.09949383,-0.00916722,0.028560959,-0.07933854,-0.014257575,-0.00061840087,-0.03937152,-0.04873915,-0.05222052,-0.030988755,0.016788438,0.049151417,0.082132794,-0.11461029,-0.06843636,0.01023797,0.04113511,-0.15024851,0.071826115,0.033370744,-0.033943336,0.030874236,0.05528962,-0.007850256,0.13247521,-0.054327663,0.009986029,0.041295435,0.06344335,-0.050617255,-0.10618172,-0.08698839,-0.059870366,0.1213898,0.04131834,-0.018460412,-0.08685096,0.011245734,0.034309797,-0.11745036,-0.1011429,-0.14731683,0.02544605,-0.0090240715,0.039279908,-0.068940245,0.0026954834,0.029339686,-0.044593573,0.00028898072,-0.017601522,-0.14236963,0.08263668,-0.15492088,-0.100226745,-0.034401413,-0.07924692,0.0007608335,-0.0502508,0.07370422,-0.1305513,0.040677033,-0.12340533,0.070222855,0.0074723437,0.05780903,0.015677607,0.1005016,-0.05217471,0.13439912,-0.0021042807,0.13559012,0.0570303,0.09802799,-0.11653421,-0.054465085,-0.0067165205,0.18497057,0.1330249,-0.10764756,-0.019513983,0.042005453,0.029820664,-0.055701885,-0.052128904,0.0034155196,-0.042463526,-0.075673945,0.010015502,-0.0006421577,0.08918017,0.04624015,0.03681944,-0.09892706,0.02463583,0.06335476,0.039448027,0.06527344,-0.01530146,0.07548081,0.050960097,-0.072564416,-0.049501903,-0.023810798,-0.025499236,-0.02333113,-0.017690215,-0.07479008,-0.0743296,0.06627115,-0.13906582,-0.032521598,0.045204062,0.046969246,0.036627572,0.03708805,-0.04505057,-0.060476743,0.022103176,0.061589576,0.0028900094,-0.079433285,-0.0006577469,0.040906224,-0.026592882,0.0011655971,-0.059747644,0.06826658,-0.059133667,-0.05794409,-0.029451713,-0.020126937,-0.044666834,-0.03269428,0.09347801,-0.046969246,0.0776681,-0.040906224,0.035936847,0.00299074,-0.10890418,-0.06558043,-0.024463149,0.0602465,-0.0057656285,0.069724776,-0.14205895,-0.058903426,-0.1660808,0.077399485,-0.10829021,0.0051708384,0.065119945,-0.03238729,0.07148996,-0.10698551,0.044244725,0.0582127,-0.010562325,0.103301644,-0.011041994,-0.19463074,-0.054375347,-0.10813671,0.045472678,-0.013670583,-0.09969453,-0.07352375,-0.039639894,-0.069839895,0.0033960608,0.011886213,-0.037068866,0.07152833,0.07678551,0.012183608,-0.112127565,-0.13714713,0.064237356,0.013277254,-0.0195993,-0.114813715,0.0184385,0.07367725,0.049194913,0.03572579,-0.05721499,0.12878169,-0.052034557,0.033903047,-0.010005908,-0.1607085,-0.14152172,-0.055027697,0.07682388,-0.081505455,0.04098297,-0.042786527,-0.07755298,0.044935446,0.030084876,0.14674053,-0.0015145567,-0.018198665,-0.019369058,0.13185158,-0.07889605,0.09355476,0.036589198,-0.024846885,-0.022870647,-0.073216766,0.06688513,-0.014390088,0.036339767,-0.09478271,0.08933367,-0.035399616,-0.05184269,0.08526607,-0.022275856,0.021777,0.00029304816,-0.0060198535,0.10145971,-0.09762236,-0.06761423,0.02636264,0.19677965,-0.054989323,0.11780685,0.01589625,0.1663878,-0.05053799,0.06323964,0.107369244,-0.039985258,-0.0563324,-0.091559336,-0.059824392,-0.0724493,0.06335476,0.036896184,0.08910342,-0.06799796,-0.061244216,0.030641293,0.028012704,-0.055104442,-0.06569555,0.026113212,0.025326556,-0.01133939,0.011761499,-0.035706606,0.019436212,0.08549631,-0.046854127,0.071873695,0.082119435,0.008936245,-0.02398348,0.038507875,-0.101152726,-0.17897432,0.040100377,0.094398975,0.039332908,-0.047813464,-0.013814485,0.0831939,-0.013958385,0.028147012,0.04251791,-0.0317925,0.030334305,-0.076632015,0.01923475,0.0042762547,0.016068932,0.01252897,0.029547647,0.13975653,0.014888944,-0.017814929,0.009425508,0.0756343,-0.13108411,0.11166708,-0.03198437,0.07644015,-0.090408124,0.014639516,-0.13991003,-0.0791263,0.03990851,-0.17482997,-0.018208258,0.04194231,-0.09401524,0.068420075,0.0448587,0.0043793833,-0.13737737,0.045894787,0.043937735,-0.0050749043,0.09954104,0.017488753,-0.0030650888,0.00596709,-0.15932706,-0.07590292,0.065772295,-0.05387649,-0.022736339,-0.0046072267,0.012183608,-0.012912706,0.022141548,-0.061819818,0.025288181,0.043362133,0.0274371,-0.0448587,0.08257992,-0.055795167,-0.047237862,-0.1634714,-0.035706606,0.102687664,-0.0063556223,0.02881855,-0.032310545,-0.00357114,0.22011079,-0.05648589,-0.06258729,-0.15218957,0.088259205,0.055680048,-0.101920195,-0.09838983,0.047583222,-0.048273947,-0.09194307,0.018908575,-0.084268354,-0.0033337036,-0.013872045,-0.023638118,-0.043822613,-0.022064801,0.06488971,-0.045088943,-0.016644536,-0.14689402,0.0046911687,0.106755264,0.0031322425,0.014179033,-0.04670063,0.067153744,0.09746886,-0.023522997,-0.031427953,-0.044167977,-0.002839644,-0.1273235,0.018160291,0.10552731,0.077284366,0.008461372,-0.08112172,0.0011811864,-0.076593645,-0.11128335,-0.08871969,0.042210925,-0.0062069246,0.035246123,-0.061512828,-0.10138296,0.016040152,-0.020011816,0.0073101646,-0.12578855,0.12855145,-0.051574074,-0.094398975,-0.06412223,-0.077399485,0.0038157715,0.073178396,0.037625283,-0.06335476,-0.14743125,-0.054029983,-0.077284366,0.008499745,0.0039572744,-0.12348614,-0.061512828,0.020146122,0.011070774,-0.1444381,0.1273235,-0.034996692,-0.0033265087,-0.009272013,0.03866137,0.05000076,0.09063837,-0.0047103553,-0.101152726,-0.060361624,0.047045995,0.016443074,0.034325156,0.11389275,-0.055219565,-0.0053291293,0.09010114,0.08465209,0.07168183,-0.05936391,0.07927979,-0.09524319,0.109978646,-0.06485133,0.023350315,-0.07271791,-0.02553761,-0.067767724,-0.06669326,-0.06339313,0.0041467436,-0.10422261,0.012164421,0.03198437,0.02118221,-0.008375031,0.039678268,-0.002205281,-0.12356289,0.037490975,-0.04666226,-0.08856619,-0.12855145,-0.10445285,-0.09823634,-0.03419085,0.07206556,-0.010514357,-0.0008508139,-0.05207293,-0.023158448,-0.12218144,-0.023427064,0.0099099735,-0.0589418,0.0026501745,-0.008207147,0.026650444,-0.041712068,-0.05345438,0.06899568,-0.07306328,-0.05656264,-0.078128584,0.0030794789,-0.0030578936,-0.10230393,0.00029394752,0.057291735,0.027609782,-0.106678516,-0.036301397,0.0025758257,0.09332452,0.03204193,0.06815146,0.015618042,-0.07759135,-0.09670139,-0.07544243,0.006552287,-0.0152439,0.05441372,0.049194913,-0.0844986,0.007554796,-0.07951003,-0.1193418,-0.024098601,-0.0468925,0.032847773,0.01697071,-0.09401524,0.04163532,-0.07989377,-0.0448587,0.0115216635,0.07858907,0.12985615,-0.06926429,0.11051588,-0.14228919,-0.12678626,0.038450316,-0.02958602,0.095780425,-0.056102157,0.07045387,-0.031830873,-0.11228106,0.05656264,-0.06665489,0.03979339,-0.018735895,-0.026113212,-0.0072957748,-0.10138296,-0.10245743,0.035322867,0.03102503,0.023753239,-0.03823926,-0.0076459334,0.15917356,0.008336658,-0.012490597,-0.11734637,-0.006768138,-0.024981193,-0.013536276,-0.048887927,-0.15994103,0.105220325,-0.05756035,0.10084574,-0.017603874,-0.10491333,0.0020158114,0.04462846,-0.016500635,0.06926429,0.020664167,-0.02452071,-0.056409143,-0.06523506,0.090408124,0.11711613,0.08035425,-0.07889605,0.024194535,0.02689987,-0.08925692,0.030468613,-0.11028563,0.13192832,0.019608893,-0.0415202,-0.0029571631,-0.08572655,-0.13492146,-0.009411117,-0.080814734,0.014006352,0.06980152,-0.06546531,0.07640177,-0.015378207,-0.05207293,0.1299329,-0.017805336,-0.012039707,0.061167467,-0.0010348872,-0.0843451,-0.004129955,-0.038392756,-0.15226632,-0.06630953,0.087108,0.050883353,0.04643202,0.08296365,0.03609034,-0.016961116,-0.07076086,0.0057224585,0.083424136,0.021719439,0.006485133,-0.109978646,-0.06216518,-0.09869681,-0.12555832,-0.018793454,-0.075082764,0.16776623,-0.058702923,0.09578648,-0.08927524,-0.06394244,-0.019775355,-0.2036798,-0.040797003,-0.008285302,0.03130992,0.062772445,-0.14599426,-0.03591357,-0.1466047,-0.016939405,-0.1809922,-0.12188232,-0.101229474,0.028969944,-0.03400598,0.00040615784,-0.025142044,-0.058957268,0.008698613,0.08546006,-0.06918195,-0.082407914,0.0056528267,-0.071165845,-0.08856307,0.024709657,-0.018007655,0.006625698,-0.016303541,-0.033700768,0.046901293,-0.09370085,-0.007274279,-0.059160743,-0.13012311,-0.077931434,-0.0062505384,-0.076456234,-0.03410772,0.06551938,-0.04245025,-0.0666385,-0.06373896,-0.022840219,-0.05371775,0.07431973,0.064400256,-0.06348462,-0.033344682,0.0898348,-0.012971616,-0.057787277,-0.07559146,-0.01663419,0.029224288,0.06836805,-0.016252672,-0.12798661,-0.079711854,-0.060025517,-0.028079733,-0.13419265,-0.06908021,0.1100807,0.0027548787,0.099347316,0.033751637,-0.08546006,0.04300981,0.12178058,0.05325993,-0.0017820075,0.01677408,-0.07823665,0.0014060532,-0.0017597523,-0.092327386,0.047918677,-0.012564664,-0.07259018,-0.11394674,-0.058448575,-0.07213236,-0.060686816,-0.17743136,0.084442675,0.026248448,0.14558731,-0.073098876,0.06607894,-0.0031252692,-0.13877086,0.15871154,0.19106427,-0.13022485,-0.024442594,-0.12941095,-0.042017862,-0.013238679,-0.050029743,-0.006975423,-0.07269192,-0.10046644,-0.030674057,-0.09059784,0.0526495,-0.062925056,-0.020131439,-0.0835779,-0.04339133,-0.22301006,-0.119949296,-0.03573553,0.00066606706,0.10947026,-0.043645673,-0.17041142,-0.13124223,-0.060178123,0.053666882,-0.13042833,-0.07681231,0.0048103076,0.06526503,0.041076783,-0.052064504,0.10885984,-0.0533108,0.0033541801,0.014434102,-0.027901692,0.11079286,-0.08154314,0.075642325,-0.022865653,-0.12676576,-0.07030107,-0.14355256,-0.19167471,-0.036880083,-0.14467168,-0.039398104,0.045553263,-0.018325588,0.10458683,-0.04962279,-0.106825076,-0.08871568,-0.10977548,-0.082153566,-0.16156021,0.020182308,0.022954674,-0.0022986466,-0.00904198,-0.12808836,-0.010917777,0.08708787,-0.09375172,0.020322198,0.025994102,0.018986885,0.07691405,-0.012456567,0.022306092,-0.06419678,-0.08693526,0.035939008,0.0056401095,-0.11771106,0.092581734,-0.0059516826,-0.049749963,0.011763476,-0.15586287,0.101789035,-0.08286574,0.059720304,-0.01808396,0.056719027,0.11964408,-0.048579972,-0.060330734,-0.05722772,-0.00054763746,-0.057990756,-0.04178895,-0.044230666,-0.04659608,0.122391015,-0.07096237,-0.016570603,0.011108536,0.0653159,-0.07777883,-0.17315836,0.002297057,-0.0821027,-0.06526503,-0.019368403,-0.08683352,-0.051326904,-0.02609584,-0.024836829,-0.15769416,-0.08683352,-0.05712598,-0.05763467,0.066435024,-0.13419265,0.08790178,-0.055294693,0.0017613419,-0.05727859,0.0427809,-0.040262878,-0.11689715,-0.14782555,0.04407806,0.030394277,-0.14701165,0.039448973,0.047588028,-0.020576544,0.016786797,-0.062925056,-0.09385346,0.09929645,-0.043315023,-0.06363722,0.04542609,0.054480787,-0.058499444,-0.078084044,0.012253091,0.04929214,0.06612981,0.015184421,-0.058499444,0.025180196,-0.07548972,0.044103496,0.036269657,-0.028944507,-0.07462494,-0.15454027,-0.026808007,0.09044523,0.06974151,-0.06582459,0.03517597,-0.050563868,-0.07498103,-0.029427765,0.062009413,-0.022980109,0.027621912,-0.11771106,-0.048808884,0.11415022,-0.06592633,0.09410781,0.0147266,0.032734256,0.15504897,0.06694371,0.03560836,-0.14711338,-0.07981359,-0.05666816,0.0043206927,0.0058308686,-0.056464683,0.061653327,0.012869878,-0.030292539,-0.0069309124,0.17203924,-0.058550313,-0.06897847,-0.045222614,-0.08367964,-0.096091695,0.052446023,0.13785522,-0.101127736,-0.042628292,0.05534556,-0.11923713,-0.0821027,0.04300981,-0.04756259,-0.06760501,-0.075082764,-0.04700303,0.04133113,-0.12757966,0.05768554,0.06099203,0.071725406,-0.06094116,-0.08952959,-0.1500638,0.021123387,-0.03517597,0.029351462,0.1306318,-0.04570587,0.04603652,0.031996652,-0.029758414,-0.05936422,-0.012227655,0.1151676,0.0040281955,-0.04888519,0.019622749,0.01197331,-0.050614737,-0.015998326,-0.005055115,-0.108961575,0.064552866,0.06109377,0.11069112,0.04532435,-0.0052713086,-0.034489237,-0.014586709,0.06211115,0.03209839,-0.13978824,-0.03499793,0.02818147,0.11242067,0.03993223,-0.004664059,-0.24274726,0.0037388776,-0.11476065,0.08657918,-0.021682946,0.029809283,-0.087443955,0.10204338,0.086070485,-0.105705954,0.047181074,-0.0010658662,-0.10590943,0.17794006,0.11364153,0.036422264,0.09604083,-0.09166609,-0.008081825,0.07365843,-0.055192955,0.052039072,-0.12178058,-0.10824941,0.12106842,0.010256479,-0.014408668,0.034438368,-0.048656277,-0.10814767,0.08362877,-0.015502353,0.022445982,-0.006253718,-0.08332356,0.035989877,-0.0014402309,0.05931335,-0.06328114,-0.058092494,-0.1658332,-0.06297593,0.13958476,0.06404418,0.04234851,0.054684263,0.12961443,-0.041203957,-0.046850424,0.06348462,0.074014515,-0.03080123,-0.034082286,-0.020767303,0.017295487,-0.05219168,-0.083374426,-0.057431195,-0.16705407,0.005442992,0.26594356,0.06485808,-0.12941095,-0.07879621,0.07411625,-0.05504035,0.10885984,0.09868602,-0.01663419,0.0055097574,-0.08612136,-0.03746508,0.13693957,0.03339555,-0.06755414,0.046494342,-0.13480307,0.059567697,0.03616792,0.00034336632,0.00050153735,0.032912295,-0.25678712,-0.07391278,0.0023336192,-0.06892761,-0.15270899,-0.0077003073,-0.09085218,0.027138656,-0.06150072,-0.022369679,-0.08250965,-0.10947026,-0.11526934,0.05987291,0.043849148,0.020576544,-0.10133121,-0.1087581,0.17794006,0.029936455,-0.007833838,-0.089326106,-0.002031584,-0.13429438,-0.0060502416,0.055701647,0.041483738,0.11699889,0.069283694,-0.040873308,-0.019164927,0.038431592,0.10651986,-0.06989412,0.10173816,0.0019838943,0.0047880523,-0.030089062,0.041254826,-0.08479876,0.0234888,-0.14568906,0.03410772,-0.10997896,-0.055091217,-0.01985166,0.07045368,-0.0090737725,-0.04054266,-0.015158987,-0.034133155,-0.12808836,-0.063433744,0.10107687,0.074167125,-0.06368809,0.12371361,0.101127736,-0.03143709,0.0121132005,0.10438336,-0.0932939,-0.08912263,-0.027062353,0.02940233,-0.1895382,0.02539639,-0.027749084,0.03830442,-0.031182747,0.079711854,0.031844046,-0.09848254,0.0133277,0.05023322,-0.06333201,-0.028359514,-0.0016580141,-0.0012423184,-0.13368395,-0.03209839,-0.072793655,0.059720304,0.002101529,0.14111084,0.07106411,0.04115309,-0.13097745,0.0857822,-0.0826959,0.0020161355,0.09326542,-0.2619549,-0.006859617,0.002597459,-0.0049993815,0.02234396,-0.09816968,-0.0032501265,0.00048091303,0.0031867095,-0.016710406,-0.010136167,0.012852533,-0.045913983,-0.051579244,-0.049507618,0.005194918,-0.096901335,-0.037120145,0.026360376,-0.0032765502,-0.026867712,0.053735424,-0.01840153,-0.009782088,-0.004457694,-0.08996773,-0.015124979,-0.018169,0.087092824,0.016287627,-0.176215,-0.112797886,0.045279812,-0.07204183,0.023083825,0.09301175,-0.048535224,0.06447405,0.09326542,0.054792378,-0.07047754,-0.040988587,-0.027544161,-0.11423534,-0.018464947,0.04172845,-0.033589926,-0.124212965,0.008994659,-0.025324563,-0.028516557,0.046717267,0.028262889,-0.041876428,-0.0048249844,0.11516546,-0.03348423,-0.032511834,0.010807332,-0.09199708,-0.08387969,-0.13063923,-0.114150785,-0.07521269,0.18636173,-0.012461461,-0.092673525,-0.16868949,0.03348423,-0.1729173,0.0040005622,0.12751065,0.027396189,0.13368325,-0.10561062,0.04680182,0.012588295,0.031222353,0.034477767,-0.08827661,-0.023739135,0.061641425,0.067983136,-0.041030865,-0.05102963,-0.0070657223,-0.05170608,0.0049042557,-0.016731545,-0.043461856,-0.13199213,0.03439321,-0.012567156,-0.053989094,0.107555404,0.027649857,-0.03741609,-0.13647361,0.05280531,-0.22644134,-0.08937584,-0.1019747,0.026783157,0.024669252,-0.028136054,-0.1393485,-0.024796087,0.113897115,-0.028601114,0.032131333,0.03530219,-0.10239748,0.04291224,0.015558329,-0.032955755,-0.030017428,-0.088699386,0.076523304,-0.11660291,0.008170237,-0.051748358,0.072802834,-0.045152977,-0.074789904,-0.081258446,-0.049169395,0.09123607,0.020156069,-0.01311677,-0.05318581,-0.019194243,0.08954495,-0.03805026,-0.034456626,0.076650135,-0.06489684,-0.12928633,-0.060711306,-0.03834621,-0.0875156,0.1378265,-0.010643504,0.022386238,-0.034541182,-0.13884118,-0.040861752,-0.06434722,0.025493676,-0.0048434814,0.006859617,0.06899781,-0.017608816,-0.06257154,-0.03525991,0.03147602,-0.0771152,-0.013211897,0.08011694,0.0040560523,-0.0850212,0.114150785,-0.053101253,-0.0007577023,-0.04680182,-0.046252206,0.04773194,-0.07834126,-0.07622736,-0.06324799,0.04532209,-0.016900659,-0.049803566,-0.0190357,0.04705549,0.26280048,0.036253445,-0.06967425,-0.064854555,-0.14315353,0.035661552,-0.033737898,0.13647361,-0.09605577,0.010379266,0.0017717154,-0.06895553,-0.17266363,0.026444932,-0.06582695,0.0056969696,0.036485974,0.00898409,-0.05250936,-0.03394929,-0.008809692,0.057709564,-0.24944061,-0.032131333,-0.16868949,-0.044138305,-0.052593917,-0.04312363,-0.0389381,-0.06430494,0.04773194,0.013941193,-0.028854782,-0.03170855,0.019003991,-0.052424803,-0.021244729,-0.04439197,-0.08214629,-0.011932985,0.061387755,-0.058386013,-0.011668747,-0.09816968,-0.018961715,-0.13410604,0.060034856,-0.025155451,0.014765616,-0.06937831,0.04052353,0.0033426099,0.032532975,-0.06176826,-0.055637937,0.035344467,-0.06806769,-0.07187272,0.08294957,-0.078256704,0.10205926,-0.032659806,-0.05276303,0.0533972,-0.012482599,-0.13951762,0.06409355,0.07462079,-0.071323104,-0.012049249,-0.122099064,-0.0021905324,0.06878642,0.0372047,-0.013000506,-0.045152977,0.027861247,0.0019949963,-0.030397931,-0.1363045,-0.010490246,0.006135605,-0.068236805,-0.15583695,0.079736434,0.04010075,0.01573801,0.0433773,-0.073056504,0.013655816,0.071957275,-0.12387474,-0.026402654,-0.06984337,-0.15042537,-0.05073368,0.081258446,-0.061599147,-0.08320324,-0.039107215,0.049338505,-0.046886377,0.030693877,-0.08320324,-0.010638219,0.1164338,6.242621e-05,-0.12632687,-0.011985833,-0.08083567,-0.10104458,-0.08586676,0.10789363,-0.11000753,-0.12142261,-0.09132063,-0.09191252,0.025747344,0.016477877,0.020515433,-0.024352167,0.043546412,-0.050437737,0.09326542,-0.07436712,0.03853646,0.031391464,-0.16048755,-0.049296226,-0.1393485,-0.03107438,-0.1268342,-0.013687525,0.0155054815,0.045279812,0.022914713,0.01819014,0.10907742,-0.03764862,0.061852813,-0.034541182,-0.034245234,-0.034245234,-0.029362118,0.082357675,0.007588913,0.09436465,0.0120703885,0.016456738,0.14180064,-0.007847866,0.032575253,0.06849047,0.056568056,-0.06464317,-0.0076681846,0.05491921,-0.028537696,-0.09199708,0.05559566,0.06481228,0.08430247,-0.037965704,0.0771152,0.0038684432,0.067983136,-0.006653511,0.020187778,-0.09394187,0.0042304494,-0.14349176,-0.020673975,0.04333502,0.025430258,-0.12116894,-0.0070392983,-0.09791601,-0.03506966,-0.023358634,0.085105754,-0.08011694,0.08396424,-0.019955248,-0.17706054,-0.063882165,-0.10222837,-0.1412933,0.04730916,-0.033399675,-0.041411366,-0.062275596,-0.08256907,-0.0144591,0.18145747,0.035429023,-0.034308653,-0.038219374,-0.044983864,-0.018760893,0.0643895,-0.1447601,-0.019088548,-0.13258402,-0.051283296,0.09301175,-0.036908753,-0.05145241,-0.05453871,0.05889335,-0.07834126,-0.052255694,0.06172598,-0.021635802,-0.049930397,-0.016150223,0.037542924,-0.02407736,0.0034192388,-0.0036887615,-0.06789858,0.016942935,0.048450667,-0.0792291,-0.031560577,0.009269467,0.01313791,-0.051579244,0.047182325,0.053608593,0.09884612,-0.051114187,-0.05039546,-0.12108439,0.06663024,-0.017651094,0.020642268,-0.09909979,0.050480016,-0.034752574,0.058259178,-0.006827908,-0.08239996,-0.10561062,-0.05073368,-0.10586429,0.049930397,0.046463598,0.048281554,-0.05914702,-0.002792995,-0.020208918,-0.04900028,0.075170405,-0.011975263,0.06493911,-0.01924709,-0.05948524,-0.079398215,-0.06641885,-0.14738135,-0.06295204,-0.009311745,-0.049169395,0.033801317,-0.12844077,0.011097993,0.10146736,-0.05098735,-0.06405127,0.096901335,-0.04443425,0.0778762,-0.038219374,-0.0034165964,-0.0420244,-0.20733164,0.08294957,-0.04179187,-0.103243046,0.04022758,0.036697365,-0.066503406,-0.06937831,0.03236386,-0.017006353,-0.050902795,-0.114404455,-0.0029964582,0.018169,-0.046928655,-0.03060932,-0.0004951158,0.037986845,0.059908025,-0.02452128,-0.08108933,0.09360364,0.008614156,-0.07462079,0.0041406085,0.06498139,-0.05381998,-0.046886377,-0.18061191,-0.14298443,0.048196997,0.07500129,0.011024007,0.04113656,0.06083814,0.13461336,-0.18145747,-0.05775184,-0.0014718053,0.02974262,0.04536437,-0.06354394,0.04246832,-0.017492551,-0.11262877,0.023739135,-0.071957275,0.03086299,0.022597628,0.045448925,0.045829426,0.049761288,0.0850212,-0.07508585,0.07686153,-0.10205926,-0.0025313993,0.028558835,-0.035642184,-0.15191752,0.0050649755,-0.05782011,0.049157254,-0.2887957,-0.02494699,0.0851551,-0.04430504,-0.15588057,0.042374317,0.091252126,0.020323412,-0.08967706,-0.08916897,-0.04997019,0.04793785,0.002027578,-0.048979424,-0.1399267,0.08469782,-0.043187253,-0.099178255,-0.03645512,-0.074332885,-0.18738186,-0.06061458,0.09912745,0.05675313,-0.08545995,0.12722456,-0.10049928,-0.064221986,-0.03645512,-0.07346914,-0.11147392,0.10385264,-0.096485406,-0.13454099,0.15273045,0.04001172,-0.030739162,-0.02072988,-0.02756363,-0.056803938,0.0051157842,-0.11503052,-0.028198736,-0.10547851,0.086577736,0.051824704,-0.19225949,0.03434657,-0.0075895246,-0.032390438,-0.12813912,-0.0970443,-0.05675313,-0.036658358,-0.06666079,-0.17518783,-0.17752501,0.036023248,-0.14124772,-0.054111086,-0.10923834,-0.08383408,-0.03221261,0.04984317,-0.11594507,0.06381552,-0.00934877,-0.055889387,-0.099178255,0.04161219,-0.12834235,0.0123845795,0.18382527,-0.032238014,-0.031221842,-0.10608821,-0.034143332,0.08540914,-0.095672466,0.044228826,-0.012873611,-0.097654,0.003375592,0.016347645,-0.078753226,-0.018430796,-0.09739996,-0.049284276,-0.107206,0.11624992,-0.10166787,0.02567101,-0.019637497,-0.07169084,-0.074993394,0.012409984,0.060665388,-0.03889393,-0.017478134,-0.013705602,0.0033501876,-0.08713663,0.06996335,-0.120416224,-0.058277387,-0.13931699,-0.0025674186,0.049106445,-0.042958613,0.12407444,0.042044062,0.018202156,0.14836091,-0.14571887,0.12681809,0.06305339,0.1309844,-0.14307682,0.06086862,0.080429904,-0.08744148,0.015991986,-0.10669792,-0.051113382,-0.027462011,-0.20729882,0.06970931,-0.05233279,0.020793391,0.051723085,-0.010892079,-0.031094821,0.047302745,-0.03043431,0.033965506,0.07199569,0.0273858,-0.014734474,-0.04013874,0.06203722,0.07392641,-0.14998679,-0.06290096,-0.13261028,0.0654922,0.049360488,0.030104056,0.014328006,-0.15862423,-0.006770237,-0.052739255,-0.012321069,-0.12631,0.06366309,-0.060055684,0.09435144,-0.11523375,0.011419218,-0.0032009375,0.20374222,-0.0070877904,-0.021403095,0.0042901454,0.105884984,0.0010320483,-0.08424055,0.06401875,-0.041307338,-0.087695524,0.05995407,-0.030205673,-0.091912635,-0.052078746,-0.06406956,-0.17823634,0.063155,-0.07346914,0.054873213,0.049563725,-0.019396158,0.037903164,-0.011222335,0.105783366,-0.03388929,0.037318867,0.022647902,0.1220421,-0.120314606,0.0786008,0.060309727,-0.056346662,-0.0732151,-0.084088124,0.0104221,-0.06981093,-0.15974203,-0.16360347,-0.10334455,-0.03924959,0.002141897,-0.03894474,-0.03178074,-0.058734663,-0.019548582,-0.1328135,-0.06655918,0.042044062,-0.059395175,0.008669206,-0.0315521,-0.006649567,0.033482824,-0.088406846,-0.09440225,-0.002640456,-0.027919289,-0.00881528,-0.18860127,-0.08530752,-0.02375299,-0.09724753,-0.014836092,0.07509501,-0.013121303,0.03178074,-0.03541355,0.0152679635,0.046845466,-0.110660985,-0.10923834,-0.14063802,-0.06803262,-0.039503634,-0.16522935,-0.039757676,-0.07484097,-0.09938149,-0.0069861733,0.076568455,0.15384823,-0.040900867,0.0044997307,-0.13718304,-0.00015857819,-0.08733987,-0.045524444,-0.100194424,-0.1107626,-0.032949332,0.053907853,-0.087847956,-0.07900727,-0.119501665,0.014988517,-0.0958757,-0.011292196,0.13657333,-0.0117304195,-0.07519663,0.08485025,0.059141133,0.19612093,-0.084291354,0.06767696,0.02554399,0.044203423,-0.035515163,0.02048854,-0.13301674,0.07118275,-0.03376227,-0.16045335,-0.053450577,-0.12214371,0.12691972,0.02173335,-0.0014575698,-0.14378814,-0.10075332,0.037598316,-0.022000095,0.10400507,0.015737943,-0.05073232,-0.0654922,0.035565972,0.075704716,-0.0416884,0.04488934,-0.05883628,0.007418046,0.0019958226,-0.19754358,-0.02483267,0.029519757,-0.1524256,0.026420437,-0.068286665,0.030078651,-0.0637139,-0.068642326,0.020577455,0.08540914,-0.027538225,0.07870242,0.06528896,-0.013222921,-0.02809712,0.0018688013,0.105783366,0.06833748,-0.048496746,0.12946014,-0.10558013,0.14023155,-0.089423016,-0.07036982,0.13748789,-0.034575205,-0.024146754,-0.08530752,-0.045397423,-0.030053247,-0.007056035,-0.1673633,-0.002762714,0.036531333,0.032339633,-2.619815e-05,-0.01810054,-0.06356148,-0.010390345,-0.17539105,-0.052790064,-0.12986661,0.010225217,0.092928804,0.044863936,-0.04128193,0.049284276,-0.002021227,0.07189407,-0.0285798,0.10832379,-0.11807903,0.015966581,0.0152679635,0.10217596,0.08251306,0.04102789,-0.1500884,0.037191845,0.08982948,0.102023534,-0.08439297,-0.0046712095,0.03221261,-0.09856855,0.056905556,-0.040214952,0.038004782,0.02506131,-0.07905807,-0.01155259,-0.0268015,0.04842053,0.027207969,0.05985245,0.08637451,0.038487464,0.01000928,-0.049411297,-0.02631882,-0.008446919,-0.17041181,-0.07357076,0.034727633,-0.11309979,-0.119298436,-0.07001416,-0.011984463,0.028833842,0.0571596,0.07606037,0.0068210457,0.120517835,-0.053399768,-0.100550085,0.13382967,-0.09358931,0.03637891,-0.06391713,0.08485025,0.091811016,-0.03805559,0.0038487464,-0.024781862,0.16157113,0.09069323,0.013578581,-0.04913185,-0.06539058,-0.085002676,-0.047251936,-0.06401875,0.043085635,-0.10115979,-0.019142114,-0.121330775,-0.05573696,-0.045880105,-0.09424983,-0.0042266347,-0.04750598,-0.13261028,-0.11320141,-0.16279054,-0.12813912,-0.052739255,-0.01495041,-0.06630514,0.098517746,-0.03287312,-0.0017163757,0.0007712576,-0.07910889,0.097654,-0.052129555,0.10436072,-0.06539058,-0.14561725,-0.03101861,-0.03167912,-0.20557132,-0.031044014,-0.12570031,-0.06427279,-0.18809319,-0.0112794945,-0.020882307,0.09501196,-0.016817624,-0.10527528,-0.10994966,-0.19083685,-0.09094727,-0.075704716,0.041408952,-0.063307434,-0.16644876,-0.20496161,-0.019751817,0.10187111,-0.04974155,-0.033609845,-0.11726609,-0.017325709,0.061427515,-0.044279635,0.17752501,-0.0297738,-0.03203478,0.09084566,-0.09211587,-0.06894718,-0.07900727,-0.18098,-0.059649218,-0.05098636,-0.012956176,-0.1351507,-0.067270495,-0.0026595092,-0.050808534,-0.01214959,0.009806046,-0.013591282,-0.057870917,-0.051519852,-0.104055874,-0.011057206,-0.1250906,-0.036023248,0.13240704,-0.0069226627,0.04994479,0.00839611,0.06427279,0.11330303,-0.032110993,0.16563581,0.2036406,0.11330303,-0.12285503,0.059293557,-0.018138645,-0.007957886,-0.1303747,0.15730321,0.15354338,0.018532412,0.022940053,-0.115538605,0.035743803,-0.11238848,0.03460061,-0.061173473,0.021100542,-0.035003364,0.058785945,-0.06579209,-0.14636277,0.09502085,0.031664494,-0.049727216,-0.092284076,-0.035085466,-0.08960204,-0.021702632,-0.1496469,0.011172887,-0.05115034,0.0059148567,0.045430478,0.016174344,0.11822871,-0.13213153,0.16519178,0.07750549,-0.016885906,-0.12654851,-0.0009057017,-0.025424646,-0.006061958,0.079147555,0.101753324,-0.028106688,-0.0016796961,0.0752066,-0.09989232,0.06425949,0.042310555,-0.020758444,-0.036098074,-0.05807438,-0.022728924,0.14264075,-0.024261517,0.04882408,-0.024808872,-0.010769213,0.021880522,-0.12304544,0.047154646,0.089383096,0.0819938,0.015271209,-0.002204815,-0.033416033,-0.07082776,-0.08730315,0.03319709,-0.0019345584,-0.068145715,-0.011426039,-0.03128135,0.116258234,-0.09321459,-0.12983264,0.0005529142,-0.09140831,-0.047400955,-0.00013641117,0.0761371,-0.043651573,0.18292609,-0.14362599,-0.10301224,-0.016160661,-0.011384987,-0.10153438,-0.09047781,-0.109033145,0.004826988,0.049809318,-0.051834535,-0.06644892,-0.073290855,-0.029858224,0.01819956,-0.0602638,0.14110816,-0.11220781,-0.06650365,-0.12830006,-0.054653414,-0.1094163,0.037028577,-0.052792404,-0.007964018,0.09649871,0.057417557,-0.060318537,-0.060099598,0.20624343,0.059661712,-0.048495665,0.13651037,0.12118443,-0.10678899,0.10547534,0.0016625912,-0.099618636,-0.16092242,0.1103468,0.0010374091,0.10646058,-0.041954774,0.013950715,-0.050137732,-0.06300058,0.05076719,-0.1590614,-0.11193413,-0.120199196,0.108376324,-0.054899722,0.13935663,-0.049781952,-0.13826191,-0.0005789991,0.024877291,-0.067434154,0.16683385,-0.04346,-0.040559016,-0.05884068,0.10569428,0.0042385813,0.005285398,0.025534118,0.091463044,-0.013204943,0.0801328,-0.049234595,-0.04627888,-0.0020235036,0.07832652,0.08566108,-0.061194308,0.1288474,-0.08905468,0.007574027,0.0795307,-0.044883125,-0.012890214,-0.10821211,0.009305038,-0.056213375,-0.03245816,0.06633945,-0.080023326,-0.036317013,-0.0793665,0.06152272,-0.09721027,-0.05002826,0.04625151,-0.08659159,-0.17482524,-0.008244537,-0.15512045,-0.08593476,-0.017091164,-0.05260083,0.093652464,0.15741934,-0.14680065,-0.12457804,0.033990756,0.039217997,-0.049453538,-0.002723092,0.047592532,-0.2199273,0.030542418,-0.06579209,0.14920902,0.06940463,-0.018705862,-0.16694333,-0.063931085,-0.00010091861,-0.09901655,-0.098195516,-0.10410695,-0.023426801,0.010050809,-0.08620844,-0.054270264,0.0602638,0.0066845748,-0.0007419228,0.12435909,-0.063876346,-0.025520435,-0.18993224,0.16201712,0.085058995,0.04638835,-0.0518619,-0.08440217,-0.066722594,-0.09288617,0.104763776,-0.0978671,-0.08681053,0.010994997,0.021428954,-0.026724616,0.054543942,-0.033142354,-0.07060882,-0.09704607,0.031308714,-0.055583917,0.050000895,-0.05774597,0.014929112,0.09688187,-0.10454483,-0.068255186,-0.06497106,-0.12589169,-0.01093342,-0.017761676,-0.052381888,-0.18763335,0.011384987,0.09868813,-0.089985184,-0.004844093,0.04209161,0.004953564,-0.031965543,-0.115601406,-0.054023955,0.00087405776,-0.053066082,-0.11023733,-0.13256942,0.10427116,-0.16048454,-0.13245995,0.060701687,0.14691013,-0.055994432,-0.26010317,0.08484005,0.0844569,0.018473236,-0.055337608,0.044855755,0.061577454,-0.05955224,0.025082551,-0.069678314,-0.029091926,0.074002415,-0.13322625,0.07219615,0.04956301,0.07361927,0.027846694,-0.018445868,0.016160661,0.025027815,0.011166045,0.0042762123,-0.09835972,0.095239796,0.18413028,-0.11669612,-0.0024613878,0.023084704,0.0038725378,0.042502128,-0.09841446,0.11582035,-0.0058567002,0.061467983,-0.062070075,-0.1356346,-0.08330745,-0.017337475,-0.084237956,-0.10399748,-0.06929516,-0.046415716,0.01770694,-0.09923549,-0.15949929,0.09321459,-0.16738121,0.03404549,0.007471398,0.071977206,0.010960787,-0.07153932,-0.041708462,0.015722778,-0.038916953,0.050219834,0.0032926833,0.06798151,-0.16442549,0.117134005,0.009510295,-0.11384987,-0.025657274,-0.06885728,-0.010399748,0.030624522,-0.016489074,0.11297411,-0.0693499,-0.013143365,0.10312171,-0.073290855,-0.17296423,-0.04671676,-0.03210238,-0.0016189739,-0.10602269,-0.074002415,0.02141527,-0.18314503,-0.041817933,0.09726501,-0.13059895,-0.033416033,-0.05287451,-0.11735295,-0.015462783,-0.08670106,0.043377895,-0.040860064,-0.1470196,0.021292116,0.095130324,-0.0015727908,-0.005405132,0.14012292,-0.13957557,0.008969783,0.1345399,-0.1145067,0.14253128,-0.043542102,-0.019868992,-0.02021109,-0.16354972,-0.022564717,0.0010622111,0.019362688,0.07903808,0.016680649,-0.059114356,-0.06343846,-0.12381174,-0.20547713,-0.20284982,0.04882408,0.021880522,0.041571625,0.09118937,0.020607922,-0.25747585,-0.00532645,-0.025903583,-0.08752209,0.12096549,0.12173179,0.11680559,-0.17274529,0.035085466,0.042912643,-0.104709044,-0.09507559,0.05333976,0.051451385,-0.17066534,-0.008011911,0.09272196,-0.056213375,0.023399433,0.049508274,0.111113094,0.090915695,0.022427877,-0.10662478,-0.053777643,0.016105926,-0.1428597,0.090149395,-0.06497106,-0.047702003,-0.099563904,-0.034346536,0.17033693,0.02409731,-0.015271209,0.031062406,-0.11319305,0.097374484,0.041024268,-0.06486159,-0.24565299,-0.022167884,-0.038533803,-0.100987025,-0.05796491,0.0969366,0.07383821,-0.06425949,0.10744581,-0.0409969,0.0027573016,0.09934496,-0.015353312,0.043022115,-0.04625151,0.0121718105,0.019075327,-0.14866166,-0.010810264,-0.15599622,-0.11516353,-0.18872806,0.015011216,-0.0861537,-0.13311678,-0.10454483,-0.06568262,-0.05577549,-0.08172013,0.103340656,-0.10750055,-0.14767642,0.049371436,-0.12523486,-0.008312956,0.061467983,-0.104654305,-0.01692696,0.08801471,0.12534434,0.02642357,-0.117243476,-0.040230606,0.19442055,-0.040860064,0.047702003,0.12348332,-0.054215528,0.028270895,0.021538425,-0.113302514,0.0029676913,-0.04671676,-0.018993223,-0.004881724,-0.10914262,0.09053254,0.14373547,0.06513526,0.0013555592,0.051451385,0.07230562,-0.1254538,-0.1485522,-0.012862846,-0.00066153,-0.013047579,-0.006099589,0.06803624,-0.08987572,0.0067461524,0.076958135,-0.06289111,0.2146727,-0.12162232,0.0035920183,-0.0769034,0.061960604,-0.02497308,-0.101041764,0.004190688,0.11220781,0.009332405,-0.06343846,-0.16606756,0.077012874,-0.22791868,-0.17088428,0.032293953,0.12611063,-0.011296042,0.024152046,-0.028216159,-0.04518417,-0.037083313,-0.005541971,0.2513455,-0.021743683,-0.14844272,0.07761496,0.15763828,0.03139082,0.101047404,0.05536778,0.032019336,0.10753846,0.087483995,-0.115870275,0.043063827,-0.20480749,0.008010889,0.07876466,-0.1497788,0.05473805,0.044081084,0.008131991,-0.00900998,-0.015125624,0.0025507084,-0.07939439,0.03824397,-0.14958504,-0.0028867659,0.017148025,-0.024196155,-0.19976966,-0.10191934,-0.01669995,-0.00970026,0.0958158,0.0025446531,-0.077020794,0.13204949,-0.11044491,0.10463202,0.02328789,-0.0790553,-0.017838307,0.031098962,0.05691788,-0.01191037,-0.060260292,-0.10182246,-0.051347196,0.0712079,0.13156508,0.0048864605,-0.073193975,0.08762932,-0.01067513,-0.046672665,0.015537371,-0.057644494,0.20325738,-0.121876925,0.015416268,-0.051976927,-0.054544285,-0.020490438,0.016554626,-0.02966996,0.013369647,0.054108318,-0.048779834,-0.044395946,-0.080653846,-0.036524326,0.046042934,0.026981497,-0.033133473,0.09198898,-0.053430147,0.088646576,0.04841653,0.0019497402,0.11858296,-0.124880254,-0.078667775,-0.1162578,-0.03947921,0.0003534661,-0.11063867,0.039697196,-0.22805905,0.042506758,-0.02577048,-0.06210104,0.09780187,0.065637216,-0.03802599,0.07968503,0.030202808,0.04454127,0.037323598,0.023457434,0.14212516,0.16886446,0.08646674,0.11490146,-0.032576405,0.011710552,-0.13534346,-0.11228566,-0.07895842,0.0040387474,0.018189501,-0.1539447,0.086951144,0.020817412,0.19589439,0.06258545,0.04061757,-0.0032031445,0.13447152,0.08544948,0.2555734,-0.007048129,-0.061471313,-0.121876925,-0.083850935,-0.01361185,0.047350835,-0.06631539,-0.098673806,-0.047496155,0.03429605,0.04059335,-0.031341165,-0.04526788,0.0058825235,-0.035967257,0.02331211,0.036475886,0.059097715,-0.02135026,0.03565239,-0.008331809,-0.050620586,0.026133785,-0.016506186,0.058467984,0.1057946,-0.030178588,-0.048731394,-0.09518608,-0.11800167,-0.103760086,-0.044807695,-0.07145011,-0.073484614,-0.038825262,0.008822272,-0.007744465,0.121780045,0.045631185,-0.11083244,0.072661124,0.04270052,0.026327549,-0.017208576,0.084286906,-0.050717466,0.040932436,-0.01356341,-0.09465323,0.043063827,-0.03344834,-0.11616092,0.0994973,-0.043499794,-0.048513412,-0.061083786,0.06897963,0.039721414,0.05938836,0.0322131,-0.10191934,0.101144284,-0.09227963,-0.06195572,0.02586736,0.064813726,0.11616092,-0.027901873,0.074647196,-0.12846486,0.003327274,0.09969106,-0.024050832,0.060211852,0.0139630465,0.12836799,0.068543665,-0.033642102,0.013224325,0.061761957,-0.024438359,-0.064087115,-0.12982121,-0.04257942,0.08201019,0.068737425,0.113642,-0.031171624,0.022367517,-0.0027293335,-0.04836809,0.05619127,-0.057935137,0.07842557,0.01288524,0.020478327,0.10124117,0.004383888,-0.18785323,-0.08041164,0.05372079,-0.033303015,-0.09886757,0.03749314,-0.093829736,0.043548234,0.0119830305,-0.008168321,-0.048925158,0.038219754,0.042482536,-0.02007869,-0.02962152,0.046309356,-0.07832869,-0.010087786,-0.18417174,0.04650312,-0.08036321,-0.09198898,-0.016058108,-0.0024841023,-0.044856135,-0.027296362,0.12846486,0.102209985,-3.065391e-05,-0.047568817,-0.046139814,0.048804056,-0.029209772,0.017390229,0.018891893,-0.05948524,-0.0152951665,-0.096687734,-0.020829523,-0.04313649,-0.0070057437,0.0079987785,-0.08888878,-0.07852246,0.04020582,0.121780045,0.07876466,0.005855276,-0.07043285,0.062488567,-0.0106387995,0.1419314,-0.015888566,0.058613308,0.017923078,0.02132604,-0.097317465,0.03502266,0.08341497,0.0017453808,0.088307485,-0.094217256,0.068301454,0.057692934,0.013369647,-0.06689668,0.039091684,0.08612765,-0.07430811,0.07580978,0.060405616,-0.03679075,0.03296393,-0.046963308,-0.05963056,-0.019775936,-0.01873446,0.047375053,-0.05536778,-0.028773805,-0.039576095,0.0033757149,-0.15995136,-0.03952765,0.0033908526,0.039043244,-0.15200707,0.019037215,0.011662111,-7.1147355e-05,-0.074114345,-0.021798337,-0.035628174,0.06752641,0.023408992,-0.009785032,-0.076294184,0.044323288,0.008664839,-0.025310293,0.025940021,-0.013466529,0.011486513,0.040375367,0.032673284,0.0025370843,0.05357547,0.16372974,-0.073097095,-0.05672412,-0.005164995,-0.008828327,-0.070190646,-0.07571289,-0.021144388,-0.16576424,-0.05100811,-0.051976927,-0.08724179,-0.073387735,0.035264865,0.018516477,-0.08162267,0.12759294,0.05173472,-0.16062953,-0.050572142,-0.0074598757,-0.12613972,-0.034610916,0.004904626,-0.07343618,0.08351185,-0.0019467126,0.04853763,0.06287609,0.089663826,-0.017886747,-0.017281238,0.09261871,0.024232484,0.04730239,0.11528899,0.016542517,0.035289086,-0.10172558,0.013987266,0.05686944,0.062246364,0.02458368,0.0054162815,0.08680582,-0.0079624485,0.030590333,0.06137443,-0.099303536,-0.12265198,0.00094383775,-0.04587339,0.016651507,-0.022391737,-0.0048622405,0.09208587,0.01614288,0.07130478,0.06432932,-0.05536778,0.090342,0.07188607,-0.036330562,-0.0515894,0.097026825,-0.03037235,-0.04652734,-0.019606393,0.07048129,-0.10637589,-0.03419917,-0.11829231,-0.018940333,0.01550104,-0.034610916,0.083754055,0.061180666,-0.05691788,-0.06306986,0.046793766,-0.096300215,-0.09959418,0.03686341,-0.21372059,0.17990895,-0.0322131,-0.009821362,-0.031559147,-0.013999376,-0.03686341,-0.0009900079,-0.036451664,-0.04318493,0.011480458,-0.04662422,-0.04076289,0.03490156,0.042143453,0.07353306,-0.06452308,-0.060938463,-0.062246364,0.17622745,-0.09227963,-0.043063827,-0.087580875,0.08680582,0.06723576,-0.05372079,-0.010784122,-0.031462267,0.057983577,-0.05958212,-0.029960604,0.05822578,-0.042506758,-0.025722038,-0.038994804,0.13321206,-0.021507693,-0.002585525,-0.081671104,-0.014604886,-0.078667775,0.24859793,-0.088307485,0.09363597,-0.12226445,-0.035289086,0.013405978,-0.03361788,0.024971208,0.034150727,-0.046091374,0.0033091088,-0.03216466,0.09799564,0.06350582,-0.023675418,-0.103663206,0.0026354797,-0.13534346,-0.029839503,0.11054179,-0.02906445,0.09605801,0.09000292,-0.015149845,-0.022294855,0.051201873,-0.082930565,-0.0052951793,0.022706602,0.037178274,-0.0054223365,-0.18756258,-0.13272765,0.008089606,-0.14406279,-0.06839834,-0.09145614,0.24840416,0.045534305,0.038946364,0.024716893,-0.046333577,-0.12216757,0.115870275,0.03296393,-0.074647196,0.056481916,-0.032503743,0.047060188,0.049942415,0.015246726,-0.13137132,-0.15937006,0.034950003,-0.12391144,0.07178919,-0.026012683,0.11528899,0.02845894,-0.00741749,-0.011014216,-2.8383252e-05,0.11674221,0.10782911,0.004317282,0.06384491,-0.012085967,0.120229945,-0.06607319,-0.015125195,-0.12216663,-0.03316308,-0.037760973,0.12141766,-0.052802946,0.016602345,0.0005315013,-0.011421914,-0.07760244,0.0033053856,0.0145946685,-0.106105216,0.057671305,-0.039675027,0.00324037,-0.096118845,-0.04402326,-0.102609985,0.0034640231,-0.07843464,0.019556647,0.13514891,-0.034910697,-0.020607296,-0.0030453238,0.08113928,-0.027358502,0.07685346,0.02579813,0.023551196,0.040007908,-0.08871228,-0.026484694,0.041901156,0.12191697,-0.010012379,0.005331267,-0.0048007406,-0.094038345,-0.03341274,0.09320615,-0.08155538,0.061873905,0.022406925,0.00031955095,-0.093039714,0.0277746,-0.10602199,0.08201309,-0.007885074,0.06374635,0.15270829,-0.11542583,0.046145365,0.029314166,-0.045479607,-0.07835142,-0.025215592,0.027088037,0.098948315,0.10402472,-0.071444176,-0.15470557,-0.14313802,0.069863,-0.025153177,-0.057088766,0.035784505,0.166606,-0.06848988,-0.040923323,0.005705756,0.03303825,-0.027400112,-0.004415849,-0.010241234,-0.05209558,-0.13140403,0.062414832,0.05584047,-0.06624294,-0.008223155,0.029064506,-0.093039714,0.006319502,0.018401973,-0.061624244,0.052636508,-0.12374781,-0.09070956,-0.09695104,-0.11883784,-0.10152813,0.0061582634,-0.012836651,0.068156995,-0.109933324,-0.09145854,-0.005840988,-0.14513528,0.008592442,-0.14205615,0.038718,0.07481458,0.04731044,-0.06033434,-0.14288835,-0.08937804,-0.026796767,0.06586845,0.0559653,0.040007908,-0.022240486,-0.046561465,-0.024695469,-0.050347965,-0.12599474,0.1309047,0.077560835,-0.09453767,0.03016717,0.11609159,0.0016773986,0.019140549,-0.031831566,-0.006080245,0.002222228,-0.019556647,-0.010693741,-0.04423131,-0.045854095,0.056797497,0.18424858,0.087713644,0.06811539,-0.113178894,-0.08663179,0.009658695,0.0525949,0.092623614,-0.08679823,0.02390488,0.035514038,-0.031415466,0.06482821,-0.0017723212,0.018297948,-0.17725812,-0.06362152,-0.054217685,-0.18824314,-0.0072661266,0.033870447,0.0639544,0.06903081,-0.08147216,0.02125225,0.03000073,-0.08887872,-0.15986519,-0.16460872,0.09412157,-0.022719,0.026110206,0.0025252001,-0.018714048,0.027961845,-0.03291342,-0.041547474,-0.058337063,-0.03131144,-0.028440358,-0.054009635,0.013419189,-0.13814484,-0.025236398,-0.11883784,0.057005547,0.0820547,0.032434907,0.089960575,-0.010163215,-0.022531755,0.17825677,-0.13398384,0.019140549,-0.05675589,0.0294598,-0.0055445177,0.13082148,-0.054092854,0.117007,-0.049557377,-0.00042130012,0.07543873,-0.054800224,-0.14030854,-0.12948997,-0.068781145,0.1334013,-0.018443583,0.04572927,-0.105273016,-0.0841768,-0.0416515,-0.023780052,-0.0047357255,0.0593357,0.025257202,0.008462411,0.028981287,0.029418191,-0.017236896,-0.03299664,-0.016009405,-0.029730266,0.07398238,-0.003268977,0.024508225,-0.039883077,0.01603021,0.010324454,0.05987663,0.021169031,0.0770199,-0.06391279,0.03588853,-0.09270683,-0.021429092,-0.076978296,0.06778251,0.058295455,0.056797497,0.05226202,-0.07302535,-0.006740802,-0.0740656,-0.04431453,0.05683911,0.016820798,0.017372128,0.008701668,-0.09911475,-0.021470703,0.004896964,-0.08072318,-0.06661743,0.02983429,-0.07011266,0.025049152,0.064287275,0.13722941,-0.03875961,-0.05317744,0.12682694,0.086298905,-0.020420052,-0.10211067,0.023530392,-0.10186101,0.08126411,-0.060167897,-0.15287472,-0.079974204,-0.040548835,-0.061374586,-0.006589966,-0.05633979,-0.14288835,0.02810748,-0.061041705,-0.118504964,-0.10402472,-0.009721111,0.064287275,0.006537954,-0.033891253,-0.16252822,0.05251168,0.024050515,0.012004453,-0.010459686,-0.057255205,0.1477151,0.050597623,-0.04552122,-0.01742414,-0.02921014,-0.07398238,-0.03476506,-0.11917072,-0.0488084,-0.007255724,-0.09645172,-0.030666487,-0.094454445,0.0013308662,0.09378869,-0.022198875,0.059252482,0.05704716,0.07082003,0.077144735,0.066950314,0.037386484,0.015073182,-0.13115437,-0.04077769,-0.07173545,0.16011485,-0.05871155,-0.016082222,-0.08513383,0.060833655,0.15512167,-0.027878625,-0.041547474,-0.039487783,0.07801854,-0.08238758,-0.06757446,0.00858724,0.106105216,-0.06873953,-0.043523945,-0.06453694,-0.0006696591,-0.027400112,-0.03233088,-0.10086237,0.00811913,-0.026879989,0.012784638,-0.03678314,-0.036346238,-0.007859068,0.028690018,0.12175053,-0.018401973,-0.12291561,-0.028835652,0.037677754,0.0896277,-0.035742894,-0.00027631567,-0.053676754,0.0044418555,0.06715836,0.039612614,-0.038239487,0.03547243,0.024466615,0.033932865,-0.102193885,-0.01931739,0.0029543021,0.013252749,-0.029168531,-0.01329436,0.029314166,0.009195785,0.14213938,0.016123831,-0.16078061,-0.0039399364,-0.05296939,-0.07768566,-0.10069593,-0.03749051,0.056880716,0.122000195,-0.15354049,-0.020888165,0.1178392,0.020170392,-0.06249805,-0.03341274,-0.041817937,-0.011505134,0.06328864,0.0021273056,-0.024092125,0.09470411,-0.02226129,0.023509586,0.04826747,0.021345872,0.10793605,-0.059959847,0.017777825,0.012878261,-0.03892605,0.0083479835,0.005945013,0.079599716,-0.13240266,-0.016394297,-0.12965642,-0.017278505,0.0824708,-0.035493236,-0.048974838,-0.055008274,0.005508109,0.06757446,-0.027275281,0.010022782,-0.054384124,-0.07618771,-0.028419554,-0.11842174,0.003526438,0.016945627,-0.057920966,-0.01619665,-0.019254975,-0.043856822,-0.038613975,0.002824271,0.065327525,-0.05571564,0.07830981,-0.09745036,-0.025673302,0.048974838,0.05222041,-0.109101124,-0.06749124,-0.07930845,0.079974204,0.030666487,0.09287327,0.02074253,-0.0073545477,0.057213597,-0.039383758,-0.0416515,0.023572002,-0.05954375,-0.0660765,0.024466615,0.06632616,-0.049807034,-0.018464388,-0.062414832,-0.039987102,0.054009635,0.02461225,0.010891388,-0.013991325,-0.08097284,-0.00197777,-0.02625584,-0.07498102,0.028981287,-0.07739439,0.06070883,-0.24100447,0.004569286,-0.13365096,-0.09279005,0.19706443,0.012420552,0.045438,-0.018901292,-0.06382957,-0.0585035,-0.023072682,0.022198875,0.10086237,0.06928046,-0.038239487,0.1241639,-0.023488782,0.05267812,-0.06012629,-0.03678314,0.054051246,0.10460726,-0.042150818,0.018870084,0.061208144,-0.058378674,-0.0053416695,0.052927777,-0.09437123,-0.031873174,0.10801927,0.016425503,-0.05683911,-0.09470411,0.07847625,0.09911475,0.17992115,0.011754793,-0.08434325,0.024841104,0.04889162,0.004608295,-0.043565553,0.06840666,0.049141277,0.00206229,-0.043815214,-0.11650769,-0.01834996,-0.007822659,-0.06861471,0.06570201,-0.05592369,0.08480095,-0.151766,0.04728095,0.11536339,-0.018625828,0.013836708,0.076201394,-0.019302407,-0.15219052,-0.018280905,-0.0037211857,-0.016728753,0.081189506,-0.017060408,-0.06548225,0.13191968,0.1906096,-0.0030578726,-0.085646965,-0.010307883,-0.12258023,0.14635336,-0.16078706,0.045052215,-0.04499915,-0.059061386,0.03751698,-0.014473489,-0.0036548544,-0.012344254,0.009352713,-0.065163866,0.010294617,-0.047466673,0.052879307,-0.05049138,-0.10246859,0.1235354,-0.006852023,-0.15961963,0.11653082,-0.005216956,-0.061183985,-0.13690779,-0.15441926,-0.06776405,0.010049191,-0.049721938,-0.030379733,-0.07673204,0.01591951,0.08506325,-0.021929126,-0.0052534384,-0.013664247,0.043699056,0.032581933,-0.072592966,-0.006911721,-0.02769995,-0.099496946,-0.060228817,-0.009664469,0.14125912,-0.03098998,-0.026081465,-0.21533792,-0.06208609,-0.013246359,-0.08150789,-0.07445025,0.044946086,-0.1842418,-0.014181631,-0.016516492,-0.07567074,-0.16344032,-0.028734718,-0.007833726,0.035712767,-0.11462048,-0.057840887,0.06659662,-0.013259626,0.1030523,0.16895908,-0.1789353,-0.062298354,-0.01676855,-0.11653082,-0.0651108,0.10082357,0.037888434,0.007973022,0.12724996,0.028018339,-0.1192902,-0.07084183,0.06028188,-0.052879307,-0.025909003,-0.060759466,-0.10613007,-0.14592884,0.09429657,0.114302084,0.123853795,0.18816862,-0.060228817,-0.09281075,-0.05330383,0.09917855,0.14306334,0.0067790584,-0.040382493,-0.04311534,-0.013942839,0.017843118,-0.009233316,-0.02053617,0.06150238,-0.024250722,0.015786849,0.0090873875,-0.15643573,0.020363707,-0.08309985,0.064686276,0.07784641,-0.029053107,-0.016357297,-0.103954405,0.08034047,-0.05383448,-0.10995075,-0.05226906,-0.038392555,-0.01343872,-0.0069050877,-0.06325352,-0.122686364,0.06606597,0.045158345,-0.06553532,-0.021411741,-0.0029699837,-0.09599465,0.011787071,0.083895825,-0.08835328,-0.15261504,-0.1757514,-0.08235694,0.115257256,-0.18052725,0.029344965,-0.107562825,0.022632238,0.080977246,-0.027142765,-0.0725399,-0.128099,0.00075866416,0.10565249,-0.064208694,-0.019196277,-0.0044740457,0.07200925,0.039904907,0.033961624,0.20270844,-0.09790499,0.10888945,0.0015247907,0.0035255083,-0.061396245,-0.00031942665,-0.03637608,-0.15250891,-0.10910171,-0.1496434,-0.030698122,-0.052109864,0.042823482,-0.027461156,0.056514263,-0.11016302,-0.02369354,0.075087026,-0.024940567,0.11844116,-0.06924987,0.09408431,-0.13563423,0.03499639,0.021464808,0.06664968,0.07344201,0.050836306,-0.03454534,-0.0036979697,-0.13361776,-0.03603116,-0.092227034,0.03621689,0.06813551,-0.1030523,-0.012151893,0.090422824,-0.104644254,-0.03897627,-0.003223701,-0.061714638,0.14338173,0.10544023,0.115257256,0.009346079,0.1746901,0.0050643943,-0.10278697,-0.048262652,-0.036933266,-0.14359398,0.08617762,-0.04499915,-0.105334096,-0.027169298,-0.048236117,0.12640092,0.035447445,-0.015309263,0.14550433,0.049987264,-0.032369673,-0.0049217823,-0.034226947,-0.1051749,-0.033032984,-0.14497368,-0.09344753,-0.09281075,-0.08437341,0.003734452,0.0065236827,-0.0017760204,0.09286381,-0.13574035,-0.14836983,0.047121752,-0.053118102,0.1725675,0.05057098,-0.078695446,0.04866064,-0.09663143,0.18763797,-0.09551706,-0.031016514,-0.028230598,0.14561045,0.011236521,-0.11196723,0.029875616,-0.10161954,-0.08692053,0.04449503,0.008172016,-0.010752303,-0.032847255,-0.03961305,-0.04836878,-0.0325554,-0.12311088,-0.098276444,0.22287315,-0.13181356,0.031228773,-0.12077602,0.05911445,0.037039395,-0.12990321,-0.11854729,-0.092439294,0.1432756,0.12841739,-0.039666113,-0.06749873,-0.0041125403,0.090210564,0.022831231,0.1457166,-0.04876677,-0.09636611,-0.13987944,0.10496264,-0.093129136,-0.03223701,0.06436789,0.020629033,0.063571915,-0.058106214,0.050968967,-0.081826285,-0.013757111,0.09795806,-0.012934603,0.042160172,-0.13372388,-0.09912549,-0.093818985,-0.05555909,0.0009319547,-0.023295552,0.0014485096,0.22435898,-0.030326668,0.0059731333,0.05394061,-0.14518593,-0.08978604,-0.00032626707,0.024157858,0.021212747,0.0509955,-0.023255752,0.022260783,0.06208609,0.008570003,0.032475803,0.028840847,-0.093394466,0.050624043,-0.058318473,-0.07943836,-0.049058627,-0.09657837,0.00716378,0.00455696,-0.16524452,-0.07222152,0.03528825,0.12979707,-0.016781818,-0.055771355,-0.10830574,-0.0119462665,-0.053011972,0.032741126,-0.08474486,-0.05152615,-0.08888394,-0.012602946,-0.060812533,0.123429276,-0.009100653,0.073919594,0.01585318,0.09445576,-0.16736713,0.13361776,0.024741573,-0.010632906,-0.07471557,-0.019833056,-0.13032773,-0.06856003,0.048209585,0.07073569,0.032794192,0.10676685,-0.0090873875,-0.07084183,0.06436789,-0.07317668,-0.12852351,-0.1107998,-0.049934197,-0.13223808,0.20111649,0.08745118,-0.06702114,-0.1432756,-0.033961624,-0.064898536,0.14815758,-0.00856337,-0.0596451,-0.03510252,0.0017942615,-0.050040327,0.031759422,-0.08373663,0.07996901,0.14868823,-0.05985736,0.06251061,-0.16535065,0.06426176,0.049483147,-0.024489515,0.010155321,-0.07561768,0.12629479,-0.06606597,0.12194345,-0.085434705,-0.17426558,-0.040753946,0.15410087,0.028681653,0.18413568,-0.102150194,-0.03305952,-0.051791474,-0.07524622,0.12587027,0.0705765,-0.034306545,-0.023866,0.09074121,-0.010234918,-0.22075056,-0.05932671,-0.050066862,-0.02138521,-0.063996434,0.028177533,-0.07206232,-0.16248514,0.16290966,0.012277923,0.01485821,0.18668279,-0.22542027,0.06049414,0.06431482,-0.016251167,-0.02145154,-0.034147352,-0.10634233,0.08209161,0.0043413835,0.09875403,-0.09429657,-0.061183985,0.048076924,0.055877484,-0.049615808,-0.07264604,-0.075883,-0.16025642,0.003024707,0.05975123,0.047572806,0.029000042,-0.023348616,-0.09429657,-0.059273645,-0.02216792,-0.0063545383,0.11483274,-0.039002802,-0.0953048,0.11111818,-0.00335968,0.015030672,-0.08007514,-0.16609356,-0.102840036,0.07519316,0.12799287,-0.054312065,0.02212812,-0.062669806,-0.009485375,-0.13775684,0.06553532,0.11791051,0.13733232,-0.083418235,-0.15781541,0.038790543,-0.050730173,0.011634509,-0.07540542,-0.047785066,-0.08034047,-0.0065203663,-0.05269358,0.05868993,-0.11737986,-0.001074567,0.0726991,0.047891196,-0.06452709,-0.050066862,-0.0012702442,-0.025988601,-0.1549499,-0.044946086,-0.05667346,-0.0034160616,-0.048342247,-0.01829417,0.1294787,-0.004367916,0.07036424,-0.023070024,0.030406266,-0.0008332869,0.0509159,0.0119462665,0.09657837,-0.11026995,0.041552946,0.0029500574,-0.049083576,0.11070027,-0.061751172,0.048922203,-0.17245145,0.029046718,-0.0068515292,-0.032812033,0.11091543,0.1572826,-0.06831358,0.003237499,-0.002476031,-0.10914036,0.0089022815,-0.11231398,0.026545474,-0.06099811,-0.004888186,-0.08972209,-0.047819506,0.013662715,-0.013514793,-0.03800279,-0.051073812,0.14760037,-0.006589302,-0.0076583824,0.10381512,0.0139720095,0.13017233,0.07342365,-0.029907363,-0.07245543,-0.10440682,-0.124040246,-0.09278813,0.012822243,-0.035071224,-0.06863632,-0.038755853,0.062665604,-0.062826976,-0.02639755,-0.06309593,-0.047550555,-0.18654448,0.07014245,-0.045560315,0.111883655,0.025267955,-0.025348641,-0.028024705,0.039132386,-0.14609423,-0.08627951,-0.14587907,0.17298935,-0.13953184,-0.01996962,-0.0357436,-0.111991234,-0.048491884,-0.030983167,-0.11511107,0.080201216,-0.06621576,-0.04273633,-0.07390776,-0.0781034,-0.097306505,-0.04300528,0.055726666,0.007819753,-0.014509912,-0.1468473,0.009594831,-0.051181395,0.043085966,0.091819905,0.06917422,-0.094509415,-0.010240313,-0.06648471,-0.017199423,-0.079932265,-0.18116546,0.10478335,-0.08703258,0.03130591,0.033914734,-0.11500349,-0.0924116,0.052364778,-0.056910053,-0.039535813,0.004861291,-0.11360494,0.057770696,-0.00089174096,0.013124813,-0.10048013,-0.028078495,-0.040288873,0.0330003,-0.014711625,-0.092196435,-0.09741409,-0.10316964,-0.08880765,0.03283893,0.028966034,-0.001554033,-0.0139316665,0.004525102,-0.054247435,-0.13361491,-0.13651958,0.06782947,0.034479532,0.20644686,-0.06621576,-0.060729157,-0.081599765,0.05021317,-0.05578046,0.034479532,-0.007960953,-0.09827473,-0.013555136,-0.07514494,0.09795199,-0.052821998,0.054408807,0.055403925,-0.055672877,0.10031876,-0.170515,-0.20128301,-0.030230103,0.026047913,0.06605439,-0.086709835,-0.13221636,-0.10817213,0.14275925,-0.12393267,-0.1424365,-0.09343361,-0.021247137,-0.062396653,0.016809443,0.02953083,-0.1562068,0.038191058,-0.051611714,0.046609227,-0.05911545,-0.025563803,-0.15082778,-0.039912343,-0.061697382,0.096069336,-0.0030458712,-0.08886144,0.111238174,0.044403825,0.04147226,-0.08289073,0.03636219,-0.15577647,0.008592987,0.18342465,-0.08751669,-0.030929375,0.15061262,0.16481324,-0.041875686,-0.017750772,0.052768204,0.025657935,-0.21602152,-0.04378524,0.22097023,-0.08805459,-0.027728857,0.028347446,-0.15642196,0.09978086,0.027217852,0.06605439,-0.023412192,0.010637016,-0.006253113,-0.035232592,-0.02832055,-0.07896404,0.04036956,-0.12005977,0.114573166,-0.13296942,0.07896404,0.062235285,0.17223628,0.111991234,-0.05621078,0.03695388,0.075467676,-0.123287186,0.064494476,-0.014577149,0.02150264,-0.008512302,0.02815918,-0.050697282,-0.012633977,0.02249776,-0.021973304,0.060083676,0.015639506,-0.223337,-0.016984262,0.056587312,-0.047039546,-0.040611617,-0.013185328,-0.1374878,0.039186176,0.09563901,0.031440385,0.011242156,0.13243152,0.0929495,-0.0026861492,-0.014119932,0.018288674,0.10290069,0.016728759,-0.10413787,-0.09090547,-0.026491683,0.023291165,-0.09526248,-0.099619485,-0.103976496,-0.030848691,0.010280656,0.09138958,-0.17019226,-0.19160077,-0.03488296,0.008055085,-0.008055085,-0.100641504,-0.0258462,0.013104642,-0.16115549,-0.03426437,0.026720291,-0.21752764,-0.108710036,-0.045237575,0.023936648,-0.019337583,0.005389108,-0.06863632,-0.06368762,-0.055511508,0.08256799,-0.101018034,-0.06298835,0.18622173,0.071648575,-0.0030391475,0.0011959919,0.118015744,-0.0139316665,0.050186276,0.033645783,-0.14179102,-0.09698377,-0.03090248,-0.04168742,-0.08100807,0.031279013,0.011833848,-0.00031118482,-0.20504832,-0.009480527,-0.14889133,0.1408228,-0.09235781,-0.014200618,0.08461201,-0.022175018,-0.017804563,-0.139747,-0.10693496,-0.0709493,-0.08676363,-0.08590298,-0.02415181,0.048034668,-0.07320849,0.061374642,-0.02655892,0.22021715,-0.1067198,0.0038863434,0.018234884,-0.075898,0.039535813,-0.022201912,-0.050320752,-0.04679749,-0.11726268,-0.0428977,0.08068533,-0.11349736,-0.12769797,0.088377334,0.18299432,0.01744148,0.027150614,-0.15997212,-0.13436797,0.073800184,0.09402531,0.09381014,0.026437894,0.12285686,-0.1281283,0.08036259,0.026478237,0.08638709,-0.1495368,-0.06648471,0.052929576,0.17094532,0.062665604,0.19654946,-0.040396456,-0.1132822,0.018329017,-0.15803567,-0.0022860842,-0.049702164,-0.12221138,-0.10596673,-0.032139655,0.13705748,0.19493575,-0.1760016,0.008196285,-0.108333506,0.008781253,-0.055350136,-0.1864369,-0.089022815,-0.024864528,0.15556131,-0.19611914,-0.079179205,-0.043032177,0.044376932,-0.09477837,-0.087731846,-0.15814325,-0.14512601,-0.1650284,-0.06551649,-0.007806306,-0.025267955,-0.12436299,0.08294452,-0.03733041,0.03321546,0.015034366,-0.07218648,-0.13565893,-0.037733838,-0.10989342,-0.059276823,-0.022363285,-0.057824485,0.13221636,-0.13114056,-0.044081084,-0.1303875,0.15448551,-0.05274131,0.02491832,0.12511605,0.056910053,-0.046286482,0.08482718,-0.15717502,-0.18783544,-0.18363981,-0.14394262,-0.084665805,-0.07557526,0.025200717,-0.06551649,-0.05231099,0.009083823,0.06890527,-0.15050504,0.03426437,-0.16244647,-0.14921407,0.01744148,0.14351231,-0.11887638,-0.09504732,-0.014402332,-0.09542385,-0.0068717008,0.04174121,-0.020561311,-0.14867617,-0.16341469,0.13684233,0.0373842,-0.031144537,-0.07794203,-0.08063154,0.112529136,-0.052418567,-0.06481721,-0.1528718,-0.12640701,-0.1122064,-0.041956373,-0.11285188,0.052230302,0.068206,-0.16298437,0.012627254,0.024514893,0.058093436,0.024851082,-0.18740512,-0.036900092,-0.019216556,-0.028078495,-0.0808467,0.09526248,-0.12565395,0.030041838,0.05131587,-0.035985656,-0.038755853,0.11059269,0.08810838,-0.03227413,0.0280516,0.018866919,-0.02789023,-0.11640204,-0.0951549,-0.04047714,0.00093544554,0.04601753,-0.0060581234,-0.04141847,-0.0043435604,0.099727064,-0.01776422,0.011114405,-0.064871006,-0.05621078,-0.0495139,-0.13049507,-0.07729655,-0.06578544,-0.030445265,-0.047254708,0.1489989,-0.13383007,-0.08407411,-0.057286583,-0.02415181,0.013622373,0.13006476,-0.077888235,-0.085956775,0.053655744,0.06417173,-0.023573564,0.085042335,-0.13329217,0.05873892,0.07057277,-0.14351231,-0.116617195,-0.10731149,0.009978086,-0.069228016,-0.017979382,0.08956072,-0.03057974,-0.10150214,-0.08982967,-0.033269253,-0.030687321,-0.10198626,-0.14340472,-0.07396155,-0.07278966,0.03331632,-0.069186665,-0.14156586,-0.02014714,-0.15707242,-0.018208817,-0.1400152,-0.012279835,0.05267673,-0.085194916,0.06845695,0.05678141,0.06302965,-0.06161581,0.0022490227,0.019360408,-0.104532525,-0.012895537,-0.007394125,-0.062026277,0.090166144,-0.041730914,-0.15698121,-0.01315778,-0.08273211,-0.032883048,-0.008203659,-0.1001542,-0.0009727237,0.01889293,-0.039952222,-0.04688457,0.10234336,0.030807905,-0.16099468,-0.09842111,0.05828646,-0.06968835,-0.08551417,0.042027365,-0.18170051,-0.08984689,-0.06727115,0.0047346344,0.0045351014,0.0030215008,-0.010278803,-0.12286676,-0.09805625,0.077350415,-0.041890543,0.09135194,-0.0033379032,-0.014617222,0.054911498,-0.05523075,-0.06380498,-0.07689434,0.014411989,-0.106174394,-0.013921707,-0.0034006136,0.025357801,-0.011595721,0.0002895011,-0.12377891,-0.061205342,-0.005364589,-0.027204908,0.09978934,0.03776306,-0.048617657,-0.07821696,-0.059335433,-0.13144098,-0.006795526,-0.037489414,-0.07023564,-0.06143338,-0.11073515,-0.029394072,-0.066359,0.0015164512,-0.05185579,-0.07037246,-0.073382564,-0.013271799,-0.0020893964,0.07826257,0.07497883,-0.00862553,-0.01755891,0.11128244,0.054865893,-0.061387774,-0.00073898496,-0.097235315,-0.021800412,0.009093007,-0.088068195,0.013020958,0.003506081,0.020728635,-0.13499837,0.06302965,0.07830818,-3.2958586e-05,-0.017228255,0.09130633,-0.0700076,0.04423933,-0.11091758,-0.0893452,0.09842111,0.03650885,0.0706005,0.027068086,-0.017365078,0.1303464,-0.022153871,0.09034857,-0.022131067,0.03397763,0.007747584,-0.12952547,0.036417633,-0.11255945,-0.019314801,0.11520469,0.12733631,-0.01303236,-0.18024106,0.05824085,-0.06257357,-0.0037426702,-0.014548811,0.021093495,0.0344109,-0.049621023,0.05263112,-0.05787599,-0.009708709,0.037421,-0.0018314285,0.029667716,0.027022477,-0.05956347,-0.0615702,-0.0446498,-0.024308829,-0.010107775,-0.041913345,0.0057294494,0.087292865,-0.04617765,0.040887177,0.039017264,-0.006310946,0.07055489,-0.02528939,-0.04870887,-0.041616898,0.037466608,-0.037557825,-0.0742035,0.030557064,-0.012576284,-0.07329135,-0.09705288,0.042050168,-0.030853514,0.0446726,0.016669562,-0.023214247,-0.119765446,0.049712237,-0.008847866,0.009514877,-0.002618159,-0.074842,0.035323054,-0.040499512,-0.05842328,0.0742491,-0.08633511,0.004312765,0.0004136748,0.10124878,0.019463025,-0.081865564,-0.09376914,0.0923097,-0.091032684,0.10653926,0.10745141,0.12049517,0.02510696,0.029439678,0.02014714,-0.1291606,0.011664133,0.0063394504,-0.17431208,-0.039997827,-0.097326525,0.062892824,-0.03023781,-0.031127159,-0.019474426,-0.031834077,0.051217288,0.061478987,0.082777716,0.03940493,-0.06512759,-0.04478662,0.0029559399,-0.1448496,-0.07288088,0.045060266,-0.022416115,-0.035254642,0.13353893,-0.06868498,0.045767184,0.019588446,0.018995548,0.11876208,0.008061136,0.019713867,0.10051905,0.036052775,-0.06745358,0.027592573,0.10225214,-0.046610925,-0.2450038,-0.04487784,-0.014195353,-0.15926158,-0.056142904,-0.04665653,-0.08756651,0.021732,0.00068660756,-0.033270713,-0.0149592785,0.025380606,0.10435009,-0.040476706,0.10124878,0.033886414,-0.061524596,0.090804644,0.018619286,0.06800087,0.094042785,-0.07552612,-0.028253881,-0.19702464,-0.11228581,-0.038173527,-0.024992941,0.07771528,0.04615485,0.033635575,-0.028892389,-0.021606581,0.03523184,0.025722662,-0.07146704,-0.107268974,-0.20322728,-0.027455749,0.09860354,0.07397546,-0.07091975,0.027866218,0.025517428,-0.06946031,0.07634705,0.0046291673,-0.06125095,0.088934734,0.09066782,-0.09285699,0.004289961,0.012473667,-0.07584537,0.031765662,0.052175045,-0.006573189,-0.076483876,-0.05076121,0.011048431,-0.056234118,0.17595395,-0.008693941,0.028390706,0.013534043,0.019941906,-0.0035516885,-0.17850798,0.005450103,0.0011373385,-0.04332718,0.16272777,-0.0019725268,0.12469106,0.030146595,0.009018894,-0.038720816,0.0009107259,0.09969812,-0.037443805,-0.023852753,-0.07880986,0.037261374,-0.011686937,-0.013363014,0.046747748,0.04934738,0.026178738,-0.027729396,0.07689434,-0.06955153,-0.023670323,-0.1690216,-0.033225104,0.0057665054,0.033589967,-0.01297535,-0.024103595,-0.12633294,0.1079987,0.0076734717,-0.011960582,-0.041662503,-0.08820502,-0.015289933,0.071603864,-0.03548268,0.05696384,-0.082777716,0.11000543,0.15424477,-0.07283527,0.13828212,-0.038059507,0.15360625,-0.017581714,0.014252362,0.009668802,0.05714627,0.068958625,0.06772722,-0.13600174,-0.0045465035,-0.07114779,-0.010136279,-0.0034661745,-0.09541101,0.020546205,-0.068639375,0.034844175,-0.023647519,-0.0058377674,0.04911934,-0.035391465,-0.06371376,-0.00058078376,0.020329569,0.022313498,-0.18005864,-0.11593441,-0.11994787,-0.020626018,-0.0033379032,-0.1001542,0.11712021,-0.11429254,-0.014936475,0.031104354,0.02884678,0.0023259853,-0.03639483,-0.045881204,-0.040636335,-0.0097600175,-0.020169942,0.018493865,0.013682268,0.007109078,-0.03108155,-0.07210555,-0.12323162,0.021207515,-0.048982516,-0.11839722,0.07675752,-0.07169508,0.049985882,0.012713106,0.13180584,-0.14676513,0.06850255,-0.08966446,-0.078445,0.03313389,-0.074066676,0.077350415,-0.051810186,0.04109241,-0.017159844,-0.03571072,-0.07917472,0.20176783,-0.033932023,-0.09550223,0.029941361,-0.06125095,0.08984689,-0.04533391,0.020512,0.0005380267,-0.06161581,-0.07744163,-0.06243675,0.0012805747,0.03888044,0.0543186,-0.05208383,0.050989248,0.025608644,0.056188513,0.046314474,0.038903248,-0.048298404,0.02492453,0.11839722,-0.016464328,0.049621023,-0.0060258987,0.10307308,-0.045037463,-0.09696167,0.045767184,-0.10279944,-0.029052014,-0.115113474,-0.04640569,0.0042985124,0.047340646,-0.04097839,-0.053680096,-0.10234336,-0.1785992,-0.024354436,-0.10170485,-0.053908132,-0.11739385,-0.046793353,-0.060703658,0.090166144,-0.023020415,0.04332718,-0.16108589,0.05472907,-0.06594853,0.12423499,0.0020737187,-0.0085001085,0.023237051,-0.11374525,0.084100336,-0.06307525,-0.011658432,-0.12113367,-0.048115972,-0.13800848,0.02752416,-0.059837114,-0.047112606,0.011926376,-0.08592464,-0.07219677,-0.04606363,0.006909545,0.0024528315,-0.07657509,-0.022826582,-0.02661201,-0.03251819,0.044034097,-0.021139104,-0.01798078,-0.12998153,-0.015540775,-0.028755564,0.06462591,-0.08104463,0.053634487,0.014925073,0.048298404,0.048891302,-0.10854599,0.100336626,-0.04127484,-0.02690846,-0.19209903,0.10097513,-0.17254294,-0.024791747,-0.1376156,0.031096749,0.077039994,-0.0830357,0.008595027,-0.036307298,-0.07328079,0.020877887,-0.02502967,0.044444323,-0.04173198,0.061479725,0.084653586,0.05976667,-0.025053464,0.05457991,-0.049631078,-0.07094912,-0.070473276,0.014442025,-0.030168843,-0.06290727,0.053295117,-0.094694,-0.06152731,-0.02512484,-0.021520283,0.10973084,-0.019307584,-0.02983575,0.076278634,-0.00078886887,0.042326793,0.118867144,0.011182458,0.0045800493,0.0009457504,-0.020354452,0.042279206,0.036949694,0.094694,-0.064192064,-0.024482444,-0.005606099,-0.0378776,0.11448933,-0.06733267,-0.052391004,-0.057435006,0.04725183,0.114965186,-0.02560069,-0.14560987,-0.057006743,-0.113061786,0.03730658,0.02411366,-0.24039905,0.031096749,-0.0022751542,-0.06999743,-0.019141037,0.05948116,0.006275262,0.04630013,0.027218578,-0.037639678,0.03595041,-0.120009184,-0.035593525,0.08013301,-0.0012253119,-0.08175091,-0.18301162,-0.057101913,0.01748746,0.15598339,-0.048774548,0.071044296,0.1638825,0.0013331214,-0.07033052,-0.08122747,0.0011375771,-0.10649507,-0.058672216,-0.036569014,0.04568153,-0.059243232,0.08493909,-0.067427844,-0.020033253,-0.026052747,-0.0017651033,0.06433482,-0.010040419,0.039971337,0.0080002155,0.041755773,-0.058386706,-0.011456071,-0.038805507,-0.03254809,-0.04028064,0.088127285,-0.123625636,-0.15417516,-0.092552684,-0.11791545,-0.20023736,-0.06290727,-0.06257418,0.0034112444,0.03740175,0.045848075,-0.11877198,-0.00058997876,-0.10849363,-0.008636665,-0.08608113,0.09388506,0.037806224,0.07927649,0.097929776,0.018165546,0.057149496,0.019271895,-0.06847471,-0.049060058,-0.007661173,0.0032982302,0.099071816,0.09283819,-0.0811323,0.0045622047,0.06871264,0.12610005,0.0094753485,0.09712084,0.023816256,0.002972571,0.045943245,-0.05543644,-0.048060775,-0.03920998,-0.08179849,0.029193353,-0.083321206,-0.040042717,-0.19043487,0.02955024,-0.045253266,-0.05110621,0.04132751,-0.2032828,0.0062336256,-0.025767237,0.07979992,-0.0032536194,-0.058196366,-0.12648073,-0.041303717,-0.038900677,-0.06024252,-0.052628927,0.049202815,0.034284938,-0.04106579,0.01067092,0.009671636,-0.14475335,0.035593525,0.028146485,0.071805656,0.020794613,0.03759209,0.018522432,-0.0015494842,-0.003904938,0.121722244,0.048346285,0.0013851675,0.1313344,0.026695143,0.1095405,-0.06771335,-0.059719082,0.03940032,-0.061289385,-0.040994413,0.11753477,-0.09612155,0.07175807,-0.04630013,-0.15455584,-0.04537223,-0.1480843,-0.03388047,-0.120009184,-0.028336823,-0.090078264,-0.099071816,-0.029288523,-0.05477025,-0.14637123,0.118296124,0.11467967,0.069521576,0.060385272,-0.16083705,-0.11667824,0.010837467,0.17168641,-0.072376676,0.062003158,0.06481067,-0.013050166,-0.03595041,-0.0647155,-0.08498668,0.14865531,-0.06414448,0.06799886,0.04537223,-0.04249334,0.024815539,-0.05186757,0.08674732,-0.20271179,0.008844848,0.1155362,-0.054341987,-0.112681106,-0.014691846,-0.060670782,-0.06985467,-0.038139317,-0.050677948,-0.043587793,-0.050773118,-0.055484023,0.037068658,-0.026933068,-0.11620239,-0.15569788,-0.05486542,0.07694483,0.0596715,-0.07042569,0.17320913,-0.018189339,-0.024982087,-0.057577763,0.10868397,-0.069331236,0.099833176,0.014156516,-0.09245751,-0.002719776,0.043968473,-0.012717072,-0.06500101,0.06114663,-0.07803928,0.07756343,-0.0757552,-0.13466534,-0.030097466,0.061765235,0.027218578,-0.08993551,-0.08322604,-0.04851283,0.07037811,-0.0077266023,0.024648992,-0.028598541,0.0070663616,-0.1998567,0.010694712,-0.002364376,0.017558837,0.08822245,0.12295945,0.10963567,0.06538169,0.13123922,-0.038044147,0.0271472,-0.118105784,-0.030430561,-0.10716125,0.024137454,0.05410406,0.22669458,0.061289385,-0.073375955,-0.030359183,0.097739436,-0.028075106,0.066856824,-0.01588147,-0.030382976,0.009820339,-0.04470604,-0.023851944,-0.10344963,0.06580995,-0.040685114,0.053533044,-0.03052573,0.119818844,0.09436091,0.020651858,0.031453636,-0.18110824,0.015798196,0.02187717,0.006816541,0.10992118,0.07994267,0.099833176,-0.099642836,-0.047180455,0.014703742,-0.03302394,-0.028408201,-0.025838615,-0.049916588,-0.14275478,-0.08984034,0.060575612,-0.09036378,-0.097739436,0.12486285,0.030192636,-0.05467508,0.08788936,0.027694426,0.06347829,-0.09483676,-0.05629297,0.1423741,0.029193353,0.0065012905,-0.0065310313,0.0019732874,-0.1104922,-0.041398887,-0.052105494,-0.090839624,0.02235302,-0.0052581346,-0.012800345,-0.11030186,0.048346285,0.0044313464,0.19233827,-0.026314463,-0.042636093,-0.031215712,-0.043825716,-0.08398739,0.020104632,-0.07751585,-0.12552904,0.0280989,-0.028622333,0.026124125,-0.057625346,0.16188392,-0.15588821,0.026552388,0.024815539,0.017166262,-0.114394166,0.04760872,-0.06804644,-0.027194785,-0.07908615,0.10268827,-0.120009184,0.12686141,0.028527163,0.084891506,-0.11667824,-0.011456071,0.027979936,-0.099262156,0.03873413,-0.031905692,-0.04296919,-0.065143764,0.06538169,0.06385897,-0.05515093,-0.024625199,0.13942383,0.019497924,-0.025719652,0.030549522,-0.028646126,-0.04201749,-0.13019235,-0.003901964,0.021103915,0.055864703,-0.003946575,-0.013728252,-0.08060887,-0.03292877,-0.15541238,-0.058481876,-0.062193498,-0.0059897527,-0.118486464,-0.044253983,0.037258998,-0.052391004,-0.063763805,0.03816311,-0.005823205,0.06561961,-0.10497235,0.053866137,0.002209725,-0.14922632,-0.040423393,0.027860975,0.012372081,0.014941667,-0.1357122,-0.14941667,-0.100975215,0.03737796,-0.040708903,0.0079050455,0.10402065,-0.045800492,0.0036075322,0.0413513,-0.0141684115,0.088936225,0.055484023,0.006114663,-0.059719082,0.10887431,0.071234636,0.07109188,-0.0044521648,0.034189768,-0.1373301,-0.015619752,0.062288668,0.021020642,-0.018106064,-0.13238126,-0.10297378,-0.053675797,-0.0035212846,0.0144063365,-0.041184753,-0.0040952777,-0.17063954,-0.012193637,0.09821529,-0.078372374,0.07637381,-0.027932351,-0.15664957,-0.06509618,-0.13828179,-0.0046276343,-0.091410644,0.008291674,-0.051724814,-0.08117989,0.10011868,0.027789596,-0.052105494,-0.08646181,0.013252402,0.008684249,0.10373514,0.10297378,-0.1392335,-0.053818554,-0.08455841,-0.08003785,-0.0018379678,-0.06538169,0.02414935,-0.098310456,-0.018819839,0.03573628,0.06600029,0.100213856,0.013109648,-0.070473276,0.008279777,0.035236638,0.016880753,-0.0075600552,-0.001492977,-0.08189366,0.14085138,-0.09269544,-0.13885282,0.05044002,-0.076421395,-0.040155146,0.05166816,0.048860107,-0.08893867,0.016631328,0.016388813,-0.06892492,-0.2565028,-0.036759954,-0.00906235,-0.0071158595,-0.06826119,0.059734926,0.020460488,-0.09593327,-0.1468356,0.07418363,-0.011244972,-0.051821325,0.013019151,-0.008902801,0.0636662,-0.02968877,-0.08633484,0.06688269,0.11681497,-0.005255525,0.13182528,0.0021411397,0.041303895,0.08674328,0.15714881,-0.093942106,-0.027978411,-0.112219974,0.042503696,0.033900846,-0.012712818,-0.09889449,-0.16807468,-0.042529225,-0.09986454,-0.075715296,-0.0050959764,0.039593536,-0.014933731,0.052382935,0.10864609,0.13550128,0.07198825,-0.014078552,0.23158771,-0.040487006,-0.019643601,-0.01608248,-0.045464918,0.036223873,-0.1654198,0.14070894,0.022336777,0.013529706,-0.046766832,-0.11558963,0.12447329,-0.16480713,-0.06387042,0.1078292,0.08812178,-0.18390189,-0.007454102,-0.07872757,0.09424844,0.0156868,-0.2119824,-0.113343194,-0.19094755,-0.0013840825,-0.09797549,0.013185081,0.03407954,-0.06050076,-0.0878665,-0.021098683,-0.16133536,-0.047047637,-0.06540208,0.094758995,0.02462151,-0.019133046,0.014627399,0.02600001,-0.14336382,-0.07336675,0.007754053,0.025412872,0.06831225,-0.077757515,0.08592639,-0.08199512,-0.10517432,0.12937462,-0.03252235,-0.023115374,-0.09312522,0.073826246,-0.055139933,-0.041942086,-0.14663137,0.045745723,-0.009470794,-0.02501719,0.009406975,0.0032356419,-0.1357055,-0.09894554,0.023077082,-0.12508596,-0.077757515,-0.012163972,0.008264608,-0.111607306,0.12896617,0.03377321,-0.076736405,0.07101819,-0.051591575,-0.005874573,-0.027927354,-0.08766228,-0.055701543,-0.062491924,0.0040748664,-0.02316643,-0.08204617,-0.08761123,0.046664722,-0.07469419,0.007568977,-0.011327937,-0.008628379,-0.08735595,-0.14346594,0.0508768,0.029867463,-0.12038885,-0.108033426,-0.21177818,-0.0056033405,-0.14612082,0.038802173,0.034385875,0.013287192,-0.02662544,-0.23220038,-0.038827702,0.06877175,-0.10093671,0.025757495,0.027263634,-0.10507221,-0.14356804,-0.025553275,-0.07045658,0.03737262,0.0318331,-0.0050130114,0.10650176,-0.092410445,-0.06014337,-0.1412195,0.01818852,-0.00869858,-0.0029021858,0.075306855,-0.058356427,0.16194803,0.04033384,0.09537166,0.15112425,-0.061930314,0.12957884,0.01282131,-0.063257754,-0.16940212,-0.08465001,-0.1311105,-0.06387042,-0.05447621,-0.10369371,-0.10813554,0.01222779,-0.09057245,-0.021162502,-0.036070704,-0.027901826,-0.22178505,-0.12089941,0.079136014,-0.094861105,-0.09072561,-0.11834663,0.015699564,-0.029484548,-0.10057932,-0.112628415,0.028310271,0.019528726,0.07163086,-0.077757515,-0.10558276,-0.023179194,0.076889575,0.013038296,-0.04347375,-0.09874132,-0.0822504,-0.06575947,-0.025821315,-0.12998728,-0.030199325,-0.10292787,0.16838102,-0.016439868,0.00023274125,-0.009011295,-0.054118823,0.022630347,-0.004419491,-0.03739815,-0.0627472,0.027952882,-0.027110467,0.047583718,0.075970575,-0.14173006,-0.07275408,0.02418754,-0.25078458,0.038138453,0.0038802174,-0.12988517,0.03568779,0.05018755,0.010000494,-0.026804134,-0.058969095,0.07520474,0.02043496,0.06892492,-0.11293475,0.049191967,0.13509284,-0.06718903,-0.13213162,-0.1654198,-0.053965654,-0.055293098,-0.043448225,0.15755725,0.06841436,-0.112424195,-0.13519494,0.15316647,0.050672576,-0.16613458,-0.037423678,-0.061675034,-0.13784984,0.15592347,-0.15622981,0.12447329,0.10144726,-0.02049878,-0.041048616,0.04408642,0.027621021,0.1283535,-0.10308104,0.10415321,-0.03351793,0.0063085444,0.05131077,-0.074847355,0.028616603,-0.12968095,0.039542478,0.039542478,-0.0679038,-0.025808552,-0.0076838518,-0.1599058,0.05891804,0.015865494,-0.16838102,-0.05937754,-0.012814929,-0.14356804,0.0794934,-0.09675016,-0.1069102,-0.010389793,-0.04053806,-0.15531081,-0.06361514,0.04814533,0.02356211,-0.1096672,0.03604518,0.13233584,-0.030990684,-0.1096672,0.058050096,-0.21627107,-0.06402359,-0.06356409,-0.08424156,-0.14142372,-0.052382935,-0.047226332,-0.08801967,-0.012246937,-0.10466376,-0.03318607,-0.15316647,-0.027135994,0.07939129,0.07489841,0.04191656,-0.12477963,0.07826807,-0.004563085,-0.05708004,-0.042427115,-0.15245171,0.029535603,0.004764116,-0.10022193,-0.06376831,0.111505195,-0.028208159,0.009726072,-0.16021213,-0.034819845,0.038751118,-0.011347083,-0.08306729,-0.07096714,-0.08623273,0.07546002,-0.040487006,0.017473742,-0.12518807,-0.01914581,-0.111607306,-0.01841827,-0.08674328,-0.009049586,-0.05932648,-0.19380665,0.06540208,-0.16327547,-0.0136573445,-0.112015754,-0.056569487,0.004027002,-0.055548377,-0.054323044,-0.020128628,-0.16245858,-0.2063663,-0.10558276,0.03683654,0.019273449,-0.005730979,-0.19595098,0.055701543,0.016159063,-0.07510263,-0.10650176,-0.030429075,-0.059173316,-0.17889845,-0.092002,-0.095167436,-0.058713816,0.04712422,0.08015712,0.18502511,-0.09914976,-0.09863921,-0.14438494,-0.031194907,-0.13396962,-0.0008168879,-0.05166816,0.018265102,-0.03479432,-0.07060975,0.096443824,0.111913644,0.0078114904,0.047992162,-0.010568487,-0.095320605,0.1282514,-0.008494358,-0.20289452,0.081586674,0.07198825,-0.029050576,0.020843405,-0.0053416807,0.04957488,-0.005730979,-0.022451652,0.097567044,-0.025157593,-0.04043595,-0.042733446,-0.06489153,-0.13274428,-0.06295142,-0.092920996,0.013453122,-0.10287682,-0.05876487,0.011002459,0.20932752,-0.11303686,0.08613062,-0.032445766,-0.06397253,0.0702013,0.013338247,0.022592055,-0.111913644,0.0009692566,0.022885624,-0.06305353,-0.01789495,-0.1413216,0.05200002,-0.04099756,-0.018099172,-0.058815926,0.017652437,-0.052638214,0.0052714795,-0.0132489,-0.0752558,-0.16062059,-0.08715173,-0.0033919993,-0.026076593,-0.13927938,-0.00016074502,-0.08643695,-0.059888095,0.0697418,-0.1059912,-0.10420426,0.076532185,-0.19207077,-0.056773707,0.033594515,-0.14857149,-0.14418072,-0.14877571,0.012349048,-0.053097714,-0.06080709,0.18982433,0.06698481,0.17175068,0.060347594,0.06586158,-0.045362804,-0.03298185,-0.17767312,0.060194425,-0.08761123,-0.039670117,0.01762691,-0.14081106,-0.00332818,0.031016212,0.04893669,0.046128638,-0.03783212,0.2575239,-0.0004993865,-0.013363775,-0.042325005,-0.10711443,-0.05212766,0.062798254,-0.057131097,-0.15571925,0.018865004,0.046052054,-0.046843413,-0.027161522,0.13151895,-0.046281803,-0.028488966,0.076072685,-0.0040780576,0.113241084,-0.029918518,0.15796569,-0.027621021,0.06621897,0.08863522,-0.028052105,-0.045354832,-0.09995035,0.05270967,0.014721462,-0.035642672,-0.106645145,0.08123323,-0.019718979,-0.011898571,-0.08788088,-0.005124224,-0.017125927,-0.06327046,0.03656203,-0.04483622,0.07637716,-0.055868477,-0.013472082,0.04469478,0.023797141,-0.07368981,-0.061620336,-0.010820097,-0.009853596,0.043633986,0.03066873,0.059027284,-0.012028224,0.033191063,0.11805457,-0.05921587,0.005138957,0.0060583116,0.01093207,0.020367242,-0.119280376,0.06647641,-0.02699131,0.00057938497,0.066052094,-0.06996525,-0.05374689,0.21083868,-0.02868858,0.036090564,-0.0035389261,-0.0010637405,-0.052898254,-0.14964265,0.02993796,-0.019990072,-0.06510917,-0.046910662,-0.057424307,0.014320717,0.018634612,-0.029254338,-0.08057319,-0.018669972,0.10249626,-0.11390569,0.086230755,0.09509428,0.15511164,-0.0073135844,0.068173684,0.023549624,-0.0009834443,-0.119468965,0.16350369,-0.0075552096,-0.20122081,-0.07548138,-0.019141436,-0.107022315,0.031022327,-0.046816368,-0.057047136,0.056717113,0.02283064,-0.07939453,0.023325678,0.0063529764,-0.10617368,-0.11513149,-0.03946153,0.057471454,-0.072794035,-0.043681134,0.008898882,0.060488824,-0.17840195,-0.001217703,-0.103722066,0.16708682,0.028405702,0.10362777,0.07453845,0.11428286,0.018104214,0.1189975,0.059687335,-0.15256573,0.1045707,-0.019601112,0.001385662,-0.08976673,0.07076674,0.05832009,0.10145904,-0.043256816,-0.06614639,-0.0024191993,0.0024000462,-0.025906943,0.028570715,-0.06958808,0.017538458,-0.005651674,-0.0817047,0.031682376,-0.022276672,-0.035241928,0.047452845,-0.059168722,-0.029490069,0.019942924,-0.03198883,0.01448573,-0.07406698,-0.07491562,0.012505581,-0.054784108,-0.015841188,-0.027910665,0.06826798,0.018033495,0.0022615537,0.059310164,-0.10400494,-0.0051360102,0.12446648,-0.041630264,-0.023266746,-0.014697888,-0.10636226,-0.12833248,0.004272642,-0.021604834,-0.04172456,0.033379648,0.0960372,-0.083307676,0.06468485,-0.13549873,0.05544416,-0.052568227,-0.14275928,-0.11352851,-0.0077084354,-0.114848614,-0.052568227,-0.071851104,-0.05728287,-0.05190818,-0.056952845,0.17453595,-0.050258055,-0.03281389,-0.032130267,0.03052729,0.03877791,-0.13276425,-0.02522332,-0.078074425,0.019565754,-0.088776655,-0.0561985,0.038070712,-0.10636226,0.022135232,-0.08095036,0.011727666,-0.038023565,-0.014214638,0.004378721,-0.043586843,0.032318853,-0.044294037,-0.018045282,0.15209426,0.061620336,0.0027595374,0.093019836,-0.06355334,-0.034911904,-0.0059905387,-0.027816372,0.07368981,0.017620964,0.16925555,-0.07218113,-0.08670222,-0.034039695,-0.057848625,0.106833726,-0.22535977,-0.050210908,-0.19235729,-0.007166252,-0.010602045,0.0796774,-0.022995653,0.1072109,0.0043080016,0.04012158,-0.05450123,-0.023325678,0.001968362,-0.060724556,0.05280396,0.15775183,0.0036008058,0.0018475493,-0.14077914,0.056339942,-0.11117119,-0.09334986,0.039626542,-0.019377168,0.02245347,-0.14313646,-0.025671212,-0.1437965,0.028877165,-0.09075681,-0.08354341,0.022736348,0.033733245,-0.06284614,-0.11088832,-0.054454084,0.119091794,-0.2053697,-0.07024813,0.04823076,0.026213394,-0.06553349,0.17981635,0.06595781,-0.012116623,-0.015723322,0.0031764882,-0.043893293,-0.102967724,0.036892053,-0.009635544,-0.10909676,-0.0194361,-0.15228285,0.13276425,-0.020485109,-0.03774069,-0.045472696,-0.04636848,-0.018622825,-0.115791544,-0.09250122,-0.03267245,0.05006947,0.049456567,0.12352355,0.12918112,-0.094999984,-0.17170717,-0.013990692,-0.046203464,-0.20423818,-0.08665507,0.07227542,-0.12060048,0.037764262,-0.15030271,-0.11277417,0.019942924,0.017467739,0.080808915,-0.11645159,-0.04712282,-0.108813874,0.039791558,-0.028853593,-0.020661907,0.010737591,0.0016707503,-0.17604463,-0.0460856,0.044388328,-0.0954243,0.036797762,0.025058309,-0.124372184,-0.043303963,0.12342926,-0.039131507,0.0758114,-0.051766742,-0.046910662,-0.07265259,0.0119103575,-0.07057815,-0.1490769,-0.06826798,-0.04262034,-0.09424564,-0.04167741,-0.24761286,-0.042879645,0.025459053,-0.12135482,-0.07779155,0.048655078,0.010189515,0.035807688,-0.0035890192,-0.23196025,-0.09759303,-0.030362278,0.002417726,-0.0483722,0.064826295,-0.030032253,-0.10909676,-0.050682373,-0.05737716,-0.00086336833,-0.13153844,0.081751846,0.09033249,-0.07109676,-0.018186722,0.10834241,-0.04566128,-0.10890817,-0.034251854,-0.13747889,0.06562778,-0.09627294,-0.000690621,-0.0027123909,-0.056905698,-0.025011161,-0.058932994,0.0038777909,-0.014356077,-0.07326549,-0.12531511,-0.14558807,-0.010472393,-0.10211909,0.042832498,-0.056434233,-0.05567989,-0.06864515,-0.018552106,-0.18886845,-0.150397,0.14096771,-0.040970217,-0.015405084,-0.18141933,0.05737716,-0.105702214,0.16284364,-0.012823819,-0.09881884,0.11088832,0.06459056,-0.09438708,-0.025199747,0.019966498,-0.1373846,-0.03531265,-0.13936473,-0.07152108,-0.09099254,0.23950368,-0.0863722,-0.0415124,-0.13531014,-0.023254959,-0.0588387,0.09188832,0.22215381,-0.06902232,-0.028311409,0.01773883,-0.13512157,0.100421816,-0.053228278,-0.080384605,-0.10673943,0.12041189,0.01836352,0.005003411,-0.024233246,-0.08024316,0.043044657,0.06741934,-0.02086228,-0.006582815,-0.074585594,-0.15407442,0.14162777,0.054312646,0.08514639,-0.18009922,0.106267974,-0.032389574,0.03901364,-0.0018210295,-0.008727976,-0.13625307,-0.035359796,-0.019459674,-0.09198261,0.0115862265,0.023584984,-0.023891434,-0.0415124,-0.08887095,-0.12569228,0.032978904,0.00977109,-0.028075678,0.04101736,0.065816365,0.1400248,0.012529154,0.04219602,-0.050682373,-0.050635226,-0.14615382,-0.051719595,-0.10777666,0.11748882,0.124372184,-0.032035973,-0.15963769,-0.034086842,-0.009122827,0.05200247,0.060630262,0.018799625,-0.052332498,-0.15379153,-0.019624686,-0.0333325,0.052756816,0.0017208434,0.031588085,0.071662515,-0.06256326,-0.03901364,-0.04940942,-0.14869973,0.06746649,0.027344909,-0.021581262,0.0070601725,0.05082381,-0.14662528,-0.13370717,0.07543423,-0.034157563,-0.03342679,-0.08547641,0.05685855,-0.07015383,-0.024468979,-0.07251115,0.022264885,-0.17877913,-0.02279528,0.029607935,0.02786352,0.13295282,0.032978904,0.04566128,-0.010560792,-0.07920594,0.09985606,0.09268981,0.03222456,-0.090521075,-0.057471454,-0.059168722,-0.02377357,-0.056528527,0.06751364,0.17576176,0.024398258,0.034110416,0.17585605,-0.032483865,0.08005457,-0.08920097,0.08995532,-0.009140507,0.0902382,-0.03808716,0.014835448,-0.057670765,-0.0068216566,0.010235032,-0.14688723,-0.03772035,-0.055347633,-0.042020183,-0.04988623,-0.028978031,0.06023844,-0.0963489,0.099690944,0.0763781,0.03584554,0.10621202,-0.0056549953,0.01554869,-0.056937143,-0.06276535,-0.031647597,0.08016848,-0.06459941,-0.057996817,0.084529445,0.019369634,-0.018218257,-0.02051082,0.01955304,0.008487588,-0.096837975,-0.08542609,0.0751554,0.06671876,0.0684713,0.077967614,0.003976328,0.040980887,-0.006954116,0.10710867,0.012359477,0.012165882,-0.049315635,0.07389194,-0.05722244,-0.041714508,-0.041225426,0.0013054889,-0.057793036,-0.020266281,-0.08942025,-0.042101696,-0.103033,-0.06435487,0.11102132,0.06671876,0.027816463,-0.0017181507,-0.038270563,-0.0010214654,0.010668073,-0.044873152,0.049723204,-0.15862517,-0.049356394,0.001294026,-0.06549606,0.0021843056,0.17851445,-0.01965493,0.031138137,-0.053065255,-0.09219171,0.035886295,-0.018595256,0.052331634,-0.007830386,-0.01765785,0.011829639,0.22725949,-0.001257727,0.013001395,-0.0135516105,-0.030750949,-0.06117584,0.010128046,-0.12536769,0.08624123,0.01766804,0.010133141,0.011850017,0.03146419,0.0054817796,-0.046014342,-0.06867508,-0.00615936,0.06182795,0.028203653,0.04193867,-0.028346302,0.102380894,-0.11175494,-0.048582014,0.027164357,-0.052087095,0.0012418064,-0.024474412,0.051801797,-0.0015882386,-0.024902359,-0.060401466,0.07621507,-0.01776993,-0.08004621,-0.08265464,0.039126456,-0.08000545,0.040226888,-0.03246273,-0.057385467,0.039615534,0.058567412,0.0006616599,0.11265159,-0.02463744,0.04890807,-0.048826557,-0.09528922,-0.055062335,-0.09594133,0.10327754,-0.00018977349,0.035886295,0.03348165,0.047114775,0.025330303,-0.005644806,-0.038637374,-0.09781614,-0.0070763864,0.063825026,-0.05261693,0.050334554,-0.09537073,0.015324528,-0.049723204,-0.0054461174,0.0201542,-0.02164182,-0.027979491,0.028448194,-0.086485766,0.154631,-0.039085697,0.12096596,-0.01504942,-0.05881195,-0.036477268,-0.054084174,0.015823798,-0.07372891,0.06655573,0.062806115,0.024331763,-0.034439433,-0.0010023607,-0.026349222,-0.113548234,-0.14582756,0.060931303,0.1460721,0.0418164,-0.00037891016,0.013205179,-0.08836058,-0.00064319203,-0.073565885,0.079108804,0.017515203,-0.04764461,0.0298543,-0.010128046,-0.040899374,-0.019491903,-0.106782615,-0.077356264,0.022905279,-0.06777843,0.00061007723,-0.08477399,-0.009562546,0.0067095757,0.101973325,0.023598144,0.010235032,-0.07491086,-0.011034883,-0.072954535,0.12398195,0.023659278,0.06843054,-0.050375313,-0.07853821,-0.06023844,-0.047848392,-0.04389499,0.08884966,-0.11248856,0.0090479925,-0.0021919475,-0.069979295,-0.08004621,-0.043691207,-0.09268079,0.03124003,0.0061746435,-0.0027026802,-0.05363585,0.008263426,-0.004394084,0.053676605,-0.0228849,0.072954535,0.09594133,-0.0047328747,-0.098060675,-0.049560178,-0.059953142,-0.015518122,0.0071477103,-0.12919882,-0.034174513,-0.0010991578,0.07621507,-0.017240094,5.0627492e-05,-0.058159847,-0.031403057,0.062154002,0.004908638,0.040165752,-0.12406347,0.01890093,0.14460486,-0.000594475,-0.012736476,-0.028020248,-0.036497645,0.08387734,-0.05212785,-0.051353473,0.066678,-0.035193432,0.06207249,0.019675309,0.03121965,-0.03358354,-0.08171723,-0.17786235,-0.02573787,0.024780089,-0.012379855,0.11680877,-0.016608365,-0.008752506,0.03256462,0.036640294,-0.10050608,0.026145438,0.02414836,-0.027999869,-0.018972255,-0.06378427,-0.016475907,-0.06378427,-0.034113377,0.1084944,0.05909725,-0.107190184,-0.04964169,0.05807833,0.012002856,0.04927488,-0.054817792,0.03209592,-0.11452639,0.03623273,0.019868903,0.018890742,-0.09928338,0.026858682,-0.003752166,-0.074054964,0.20313151,-0.010790342,-0.027449654,-0.02975241,0.0049646785,0.037781484,0.2109568,-0.09276231,-0.052453905,-0.022029009,0.06541454,-0.033929974,-0.016272122,0.042101696,0.09357744,0.018493364,-0.091621116,0.086893335,-0.039228346,-0.08016848,-0.04466937,-0.027347762,-0.023190577,0.06317292,-0.041979425,0.05013077,-0.10458175,0.03022111,0.07389194,0.053065255,-0.011554531,-0.008507966,-0.0104031535,-0.08518156,0.10352208,0.095696785,0.03521381,0.069979295,-0.023679657,-0.0065720216,0.067411624,0.023068305,0.05200558,0.04267229,-0.047726125,-0.065251514,0.07703021,-0.029263329,-0.031015867,-0.102380894,-0.032646134,-0.12137353,-0.018248823,-0.023109062,-0.04589207,0.15838063,-0.11794996,0.04715553,-0.0457698,-0.044750884,-0.098060675,0.0669633,0.13506779,-0.06264309,0.006082941,-0.13139968,0.08322523,-0.119906284,-0.016740825,-0.084447935,-0.07927183,-0.057711523,-0.056937143,-0.12699795,0.077560045,-0.0022785557,-0.096837975,-0.06549606,0.098060675,-0.09789765,-0.013225557,-0.023088684,-0.06569984,-0.01891112,-0.015355096,-0.00826852,-0.002570221,-0.05147574,0.02251809,0.047481585,-0.09854976,0.08615971,0.037740726,-0.021519551,-0.04792991,0.11297764,0.02810176,0.060401466,0.11183645,-0.008166629,0.15968485,0.03855586,-0.009883505,0.0405937,0.05909725,-0.010922802,-0.11534153,-0.009893695,0.03845397,0.019359443,-0.055632927,-0.114281856,-0.0004967226,0.0016175325,-0.031199273,-0.033379756,0.127324,-0.047481585,0.06248006,0.052290875,0.012349287,0.035927054,-0.021580685,-0.084121875,0.066392705,0.045443747,0.111510396,-0.09773462,-0.09080598,-0.038637374,-0.010056722,0.062154002,-0.024861602,0.07556297,-0.030689813,0.13139968,-0.11061375,0.010657883,-0.1472948,0.05681487,-0.0045520165,-0.058322873,0.013989746,-0.07042762,0.062276274,-0.02563598,-0.048092935,0.04654418,0.008421358,0.07128351,-0.04128656,-0.06186871,0.03619197,0.032075543,-0.16938494,-0.008813642,-0.033379756,0.0019232079,-0.007891521,-0.069775514,-0.09129506,0.06561833,0.0010864214,0.07140578,0.042713046,-0.04752234,-0.001536019,0.00927725,-0.010148425,-0.010031248,-0.060686763,-0.11134737,-0.04418029,0.023435116,-0.075196154,-0.04081786,0.0010800532,-0.03172911,0.011931531,0.018574877,0.116727255,-0.023863062,0.10580446,0.09349593,-0.11102132,-0.07026459,0.08326599,0.046095856,-0.020561768,0.10344057,0.041857157,-0.027836842,0.009847843,-0.07246546,0.012614206,0.059301034,-0.039350618,0.009251776,0.032279324,-0.054165687,0.1236559,-0.046707205,-0.028550085,-0.07107972,-0.110369205,-0.008589479,-0.05824136,0.060156927,0.00901233,0.05449174,-0.060686763,-0.017983904,-0.055958983,0.038637374,0.003856605,-0.0015462082,0.00083487603,-0.058322873,-0.092227764,0.018703867,-0.09978585,-0.11308425,-0.07361957,-0.08294758,-0.050849643,0.052619573,0.14226419,0.12255577,0.038675386,-0.021047829,0.039416846,0.0549157,-0.039536435,-0.14111613,0.041545544,-0.18703866,0.013417991,0.040780168,-0.023571176,0.079455554,0.09141455,0.033269923,-0.07916854,0.045204997,0.04410477,-0.18675165,-0.067353055,0.09031432,-0.105239145,-0.0070677656,0.011456716,-0.07849884,0.010691341,0.051328003,0.010117309,-0.16905233,-0.032026187,-0.11518903,-0.13174027,-0.048577435,-0.110022746,0.0069003394,-0.14073344,-0.0065116724,0.09328015,0.071466945,-0.14982228,-0.09643733,0.024994297,-0.004735762,0.062569454,0.008030465,-0.034035295,-0.03731206,-0.0741936,0.0972027,0.06926649,-0.05539406,-0.054485176,-0.01878758,0.05893392,-0.11423231,-0.016383821,0.043889508,0.031308647,-0.06099087,-0.010326591,0.020497715,-0.026788147,-0.12973116,-0.06338267,0.0067089954,-0.0416173,-0.012628698,0.0506583,0.04912755,0.15058765,-0.095528446,-0.08514804,-0.06864463,0.014051818,0.075293824,-0.06811843,-0.033246003,-0.047501124,0.02996924,0.05587242,0.07055806,-0.12341682,-0.01128929,-0.058072876,0.044152606,-0.0173525,0.04443962,0.17173116,-0.02937129,0.04424828,0.023846233,0.0639567,-0.06539178,0.07692025,0.17087011,-0.05348062,-0.023690768,-0.17794983,0.042239167,-0.07931205,-0.0470706,0.018500565,-0.05625511,-0.005919702,-0.11404097,0.003019646,0.056063764,0.060177658,0.04362641,0.03805352,0.024898626,-0.085387215,0.14025508,-0.06524827,0.07122777,0.13126191,0.06271297,0.06132572,-0.07758995,-0.012760246,-0.09151022,-0.030615024,0.0013536087,0.01307118,-0.059029594,0.11652844,-0.18598628,0.011671978,0.1582414,0.011068049,-0.11490201,-0.042837117,-0.005955579,0.11729381,-0.10026421,0.030519353,-0.057929367,-0.10782229,-0.02449202,-0.13690656,-0.005910733,-0.048314337,0.040780168,-0.03814919,0.06520043,0.02817539,0.17335758,0.025974935,0.088353045,0.018010246,0.008353357,0.023511382,0.050610464,0.018261384,0.043578573,-0.030399762,0.14503868,-0.07376307,0.18923911,-0.09476307,-0.063813195,0.032050103,0.06299998,0.07840317,-0.033820037,0.023248285,-0.044033017,0.07735077,-0.089788124,0.10562184,0.020497715,-0.032743726,-0.13355805,0.021920836,-0.057451006,-0.02079669,-0.08089063,0.12906146,-0.08471751,-0.078307495,0.060799524,-0.014805235,-0.016491452,0.09447605,-0.017304664,0.11777218,0.03910591,-0.050466955,0.064100206,0.0096568875,-0.07969473,-0.06505693,0.030973794,0.0017146207,-0.015761955,-0.032002266,0.041904315,0.07878585,0.07433711,-0.0995945,-0.1074396,-0.022961268,-0.026022771,0.028103637,-0.04802732,0.04446354,-0.095145755,-0.08141683,0.020174824,0.024683364,-0.050084267,0.0021406598,0.19143958,-0.045587685,-0.044535294,0.03700113,-0.074480616,-0.010763095,0.026309786,0.047835976,-0.03437015,-0.02129897,0.07763779,0.024874708,0.0027954148,-0.11241455,-0.04312413,-0.13594985,-0.10303869,0.036953293,0.013047262,-0.02982573,-0.11710247,-0.046376977,-0.010499997,0.07022321,-0.09969018,-0.074097924,-0.010266797,0.009794416,0.062473785,-0.13700223,0.035733473,-0.012879836,-0.09328015,-0.06921866,-0.10543049,0.015749995,-0.11212753,-0.060177658,-0.040110465,-0.04410477,-0.17680177,0.046927094,-0.06405237,0.10619587,0.030351928,0.03719247,-0.04185648,-0.1067699,-0.17555803,0.028629832,-0.013752843,-0.07715943,-0.1978496,-0.037479486,0.036809783,-0.038603634,0.19010016,-0.010798971,-0.043004543,-0.054963537,-0.0140279,0.030208418,0.054820027,0.087204985,-0.057929367,0.0004529469,0.07663324,0.093423665,-0.012198174,0.059986316,-0.015319471,0.10485646,-0.18617763,-0.021944754,-0.083617285,-0.038220946,-0.04039748,0.15852843,0.05577675,0.09366284,-0.013107058,0.001865603,-0.03889065,0.04087584,0.09308881,-0.10954439,0.0152477175,0.06419588,-0.012820042,0.009387811,-0.008150054,-0.057738025,-0.01759168,0.112031855,0.07280636,0.0027789713,0.13154894,-0.14283822,0.060321167,-0.16799995,-0.023929948,-0.10323004,0.23898853,0.11863322,0.038555797,0.10839632,-0.04219133,-0.015116168,0.17995894,-0.047955565,0.10619587,-0.02520956,0.010996295,-0.10045555,-0.039512515,0.12150338,-0.0020614315,-0.0034292415,-0.05764235,-0.06625283,