#pragma once

#include "parameters.h"

#ifndef KERNEL38_H
#define KERNEL38_H

static float bias38[FEATURE_MAP38] = {-0.21887873,0.03852939,-0.03758608,-0.13468091,-0.59070754,0.44957286,0.18286465,-0.20746817,-0.24066573,-0.03371026,0.010536692,-0.20544119,0.051071435,0.33794814,-0.008554207,-0.67330754,-0.73309636,0.42196545,-0.122992866,-0.31152654,-0.12198902,-0.1329463,-0.39875928,-0.21834204,-0.47299737,0.3214438,0.10499526,-0.34387624,0.012440013,0.043665614,-0.013671833,0.1908166,0.00278184,-0.08654405,0.0900724,-0.028565118,-0.13301887,-0.23898932,-0.58724016,-0.08164552,-0.22643267,-0.16701613,-0.42516685,-0.115342416,-0.0493823,-0.21486756,-0.19855838,0.058651887,-0.0069538727,0.5427911,-0.14585964,0.0066942545,-0.028573629,0.023439389,-0.04135249,0.31068817,-0.10951478,-0.41965368,0.14965245,0.11730607,0.016187977,0.16024542,0.01175449,-0.25532955};

static float kernel38[FEATURE_MAP38][IN_CHANNEL38][KERNEL38][KERNEL38] = {-0.115022935,-0.12387085,0.038498975,-0.20613542,-0.33980218,0.0027090167,-0.06546406,0.057827465,-0.058775455,-0.22583258,0.20929539,-0.18696493,-0.12660949,0.07652396,-0.12787348,-0.09938108,0.22498992,0.0088742515,0.03878864,-0.09722177,-0.010566152,-0.04115862,0.075891964,0.10770234,-0.05577348,-0.042810585,0.048757266,0.056135554,0.026071785,0.0005708365,0.29116705,0.25768945,0.058585804,0.25636795,0.14822648,-0.0061325133,-0.13302942,0.091953285,0.17135246,0.15582502,-0.0006220268,-0.22949778,-0.08005992,0.19745179,-0.07246139,-0.016036762,-0.002581024,-0.035101928,-0.023057148,-0.040140085,0.024625348,0.27365336,0.14728351,-0.04436755,-0.009192888,-0.012861411,0.17017016,0.076946504,-0.028164394,0.17490533,0.117096804,0.2022312,0.073148504,-0.18753245,-0.052382816,-0.11265758,0.05623014,-0.0705343,0.028435681,-0.10318724,-0.04456485,-0.19749604,-0.30758873,-0.039213125,-0.26773438,-0.10298719,0.05392016,0.32698748,0.27631325,0.067061424,-0.088049635,-0.2493374,-0.45505968,-0.054960117,-0.12126521,0.14798893,0.01786834,-0.027070379,-0.15328325,0.016056295,0.023351746,0.16160291,0.37362793,0.033247087,0.011274071,-0.053825617,0.042260043,0.36530828,-0.014764228,-0.09372212,-0.0043559456,0.04470844,-0.029117206,-0.21373948,-0.22374581,-0.08627536,-0.18302244,-0.1527708,-0.09372192,0.10105212,-0.34719577,-0.05750721,-0.041974153,0.00020157157,-0.22956343,0.027968226,0.0017934643,0.2403842,0.032869574,-0.18244068,-0.0013007843,-0.036098354,0.18488407,0.049217097,-0.15311985,0.04832625,0.19300178,0.09968474,0.23772724,-0.058749557,0.1610117,0.24470139,0.045218207,0.5542926,-0.3326362,-0.30868155,0.4539256,-0.118636206,-0.10218633,-0.3456748,0.24273044,-0.04950124,-0.08065746,-0.104157284,0.23378533,-0.02732802,-0.09172512,-0.051851224,0.09634928,0.26880765,-0.20568009,-0.09359841,-0.08688211,0.010470717,0.025924932,-0.15603317,-0.23899294,-0.120463625,-0.117132336,-0.19976974,0.13959165,-0.20267119,-0.19826528,-0.01128339,-0.06619589,-0.11852933,0.08978355,0.20062943,0.16699417,0.1628032,0.014238563,0.104344495,0.095478974,0.07393307,-0.03745011,-0.07769457,-0.031348616,-0.31688833,0.23718022,0.09366397,0.12518616,-0.23745795,0.12650537,0.048810802,-0.19954799,-0.0021469723,-0.015361863,-0.12025648,-0.34604985,-0.40742785,0.20718554,0.18524498,0.15136209,-0.3127224,-0.14303023,-0.03881257,0.24592867,0.13157393,0.11609055,-0.3410507,0.0717806,0.11540614,-0.018211883,-0.041165672,-0.114220664,0.023665074,-0.09720907,-0.24989845,-0.076285414,-0.19418105,-0.1843416,0.13870075,0.17722873,0.02572484,0.019619636,-0.1793626,-0.010898975,-0.04869345,-0.28641114,0.055065382,-0.069646746,-0.010165461,-0.303482,0.022449961,-0.059155278,0.083847366,0.119330965,-0.0016800647,0.23260067,0.18044862,0.060139015,0.055372093,-0.30281022,0.024292374,0.15468828,-0.23487364,0.0586237,-0.36493808,-0.1990112,-0.1498898,0.1858785,0.10329389,-0.15077372,0.046469625,-0.18120627,0.058907825,-0.09653812,-0.12217218,-0.035988703,-0.14433365,0.10003158,-0.06154966,0.13037823,0.11303729,0.0853667,0.1330543,0.18282925,0.17201792,-0.074715935,0.09612451,0.14129661,0.07733849,-0.17918979,0.09205688,0.2751002,0.08210189,-0.13102049,-0.048089016,-0.15831642,-0.016444463,-0.11046825,-0.0022897143,-0.3637317,-0.2990778,-0.22500414,0.13312328,0.19841376,0.009338563,-0.13266104,-0.1327766,0.16386181,0.21805869,-0.06430825,-0.1913647,0.02732956,0.06349934,0.16744411,0.0125164185,-0.13936342,0.098513536,0.16478628,0.26624656,-0.056652505,0.15473269,0.21667199,0.059223678,-0.03538976,-0.10602483,0.11168719,0.029756287,0.17034039,-0.03881412,-0.13564742,-0.24414378,-0.09077279,-0.09583667,-0.09933829,-0.2566419,0.010713614,-0.0697092,0.09912281,-0.00746788,-0.0750963,-0.31331426,-0.08253051,0.03886799,0.24737605,0.08576278,-0.06464531,0.13133772,-0.0038416823,0.09001859,0.3003852,-0.12304158,0.10310927,0.028649341,0.10580613,0.25253433,-0.19916447,0.09740388,0.15085153,0.44251856,-0.022367103,0.0028129064,0.3949058,-0.12198824,0.13801475,-0.13288005,0.31866315,-0.024895558,0.35164976,-0.20896709,-0.520006,-0.17878123,-0.08192195,0.15458585,0.17224614,-0.084878296,-0.28536534,0.17535809,-0.085489206,-0.08025203,-0.10525698,-0.053244628,0.012303514,-0.1610175,-0.16317399,-0.31998122,0.0018885285,0.12979983,-0.14787322,0.04723728,-0.049753178,0.09883887,0.16594662,-0.17960435,0.094731286,0.08133027,0.1971643,0.106386565,0.11963354,0.21030858,0.24789302,0.16933538,0.09283152,-0.10512429,-0.022705844,0.18227398,-0.28350943,-0.17223825,-0.13949667,-0.103681654,-0.2694594,-0.44357935,-0.041805096,-0.2019691,0.18541014,0.2412339,-0.16772217,-0.020714378,0.01359528,-0.21526645,0.0049786638,0.24236292,0.1537976,0.080285855,-0.23270354,-0.14162926,0.09220329,0.11409373,-0.20491686,0.07987024,-0.18476333,0.022943249,0.06313198,-0.019494154,-0.37385494,-0.3811589,-0.33949924,-0.009349754,0.33030164,0.24292454,0.26605377,0.056436673,-0.14418572,-0.23535006,-0.1360702,-0.19883022,-0.28837144,0.13694939,0.098333046,0.050620552,-0.10374339,-0.060426805,0.13106564,0.0071889334,0.10176791,-0.17527305,-0.063153066,0.04116178,0.09174448,-0.11535157,-0.22204904,-0.10620451,0.28547597,-0.07985878,0.12466295,0.0403128,0.0667133,0.40926257,0.042120304,0.26290956,0.08643152,-0.011290049,-0.022237768,0.11622794,-0.090594254,0.22248723,0.08834857,0.025976013,0.13946635,0.13097891,-0.004017778,0.092837855,0.18840007,0.22570287,-0.11463275,-0.114947096,0.38685933,0.2117667,0.010078828,0.113060996,-0.24435426,-0.08031627,0.17718828,-0.12207235,-0.19982143,-0.15790819,-0.29108754,-0.16429995,0.07717278,0.21260497,0.11442318,-0.07135731,0.108764894,0.032220997,0.023614468,-0.09781491,0.029950056,0.35202837,-0.14152224,-0.3936293,0.027925959,0.38757348,0.165219,-0.057464615,0.11018988,-0.11117724,0.16864187,-0.047656793,0.29278648,-0.18536124,0.26263896,0.03475523,-0.13888927,0.18351816,0.26882645,0.20352873,-0.28620407,-0.02947283,-0.15237258,0.22603463,0.10687881,-0.19712055,0.10016661,0.26825836,0.1225406,-0.07239992,-0.011588577,0.23268946,0.15351996,0.25035918,0.18782674,-0.042883474,-0.10469878,0.23200102,-0.0060811345,-0.1470946,-0.24737597,0.23349261,0.030434357,-0.1378008,-0.044661917,0.058258418,-0.22523145,-0.07680196,-0.22601159,0.30773255,-0.18954541,-0.1821997,-0.11864624,0.18298674,0.0030620766,-0.29251644,-0.0024881933,-0.11208758,0.020627,0.120220326,-0.19925223,0.07050564,-0.024972115,-0.16265488,-0.2946152,0.0115022585,0.016757388,0.05227256,-0.41975453,0.07044006,0.012740206,-0.1984652,-0.015563619,0.061583407,0.087083995,-0.089045584,0.14071783,0.22485945,0.13452336,0.121927924,0.24860494,0.16797352,-0.026584623,0.17251614,0.14309238,-0.016905755,0.17747171,0.18913798,-0.11583669,0.016828325,0.04034152,0.072681844,-0.017912358,-0.03536013,0.074798286,-0.20049451,-0.19275142,0.14689955,-0.30657297,0.2128979,0.012280765,0.031684216,0.073261924,0.2662476,0.15591641,0.06468339,0.026361769,0.12329293,-0.009752602,-0.055917006,0.1213518,0.19824551,0.09874705,-0.09442648,-0.20087543,0.08259186,-0.14076309,0.32310387,0.28152618,-0.32936558,-0.0029840928,0.2617392,-0.0052300068,0.046709247,-0.11767697,0.24934922,0.0045229536,-0.06706072,-0.10636412,0.3043973,0.24141857,0.14531766,-0.30649662,0.18742011,-0.052890494,0.2073634,0.1084051,-0.035483863,0.08852014,0.10659738,-0.27337447,0.1049646,0.027086698,0.059771504,0.20071563,-0.1412357,0.0725422,-0.22607715,-0.12293443,-0.021468695,-0.152622,-0.29541457,0.29886815,0.05323174,-0.12758349,-0.118816696,0.18503259,-0.029023418,0.32596552,0.17347635,-0.05004381,-0.10467027,-0.18503259,-0.15474729,-0.29886815,-0.15873219,0.062363822,0.09570422,-0.058777403,-0.32915345,0.008355855,-0.2776153,0.008567342,0.028183544,-0.21336178,-0.49311438,-0.08494116,-0.079994395,-0.16103022,-0.13063365,-0.27233243,-0.124645464,0.10954481,0.110781506,-0.13356265,-0.05597655,-0.19643864,-0.063429244,0.3051373,0.10023708,-0.0865033,0.030087397,0.19656882,-0.10739687,-0.09502996,0.15439114,-0.12047976,0.099556215,0.061783116,0.008702378,0.012092915,-0.089359485,-0.0630891,0.15450802,0.10809534,-0.009141892,0.0009637915,0.34678915,0.40907457,0.005374629,-0.08785258,-0.042821225,0.12457084,0.105483375,-0.1707826,-0.14134772,0.17198813,-0.11603171,0.030816214,-0.08740051,-0.15521125,-0.028530741,-0.07320771,-0.250539,0.05393548,0.118243165,0.19580051,-0.10827246,-0.30166396,0.2930985,0.01853614,0.28399774,0.08612278,-0.17438692,-0.29925492,0.31344143,-0.069728,0.12674169,0.2390292,-0.04493508,0.23755702,0.028490113,-0.15846057,0.25763226,-0.21119153,0.41381764,0.13075674,-0.18255375,-0.11320039,0.24414432,0.060652208,-0.08803527,0.0061526587,-0.4674741,-0.39138162,0.30078718,-0.21974696,-0.3335445,0.15158786,0.029174479,-0.040093582,-0.108167365,0.36237773,0.043100603,0.34668154,0.3103414,-0.23817295,-0.18374804,0.20746297,-0.20899846,0.3838747,-0.005758121,-0.016381428,-0.17982545,0.009733414,0.17179517,0.1724534,-0.48655555,-0.30383393,-0.25275612,0.11183142,0.15586628,-0.11130484,-0.048477836,0.29040626,0.018495956,0.29988462,0.1565245,0.24143475,-0.10735553,-0.20681243,0.104985945,0.20984024,-0.2391968,-0.107618816,0.17929888,0.001633206,-0.089680016,-0.17981787,0.15429312,0.099409185,0.14021444,-0.25318724,-0.06066421,-0.21369827,-0.18771566,-0.35185242,-0.07806225,-0.03030349,0.008298406,-0.16333553,0.012762376,-0.11938259,0.040948343,0.14456396,-0.03602653,0.17295022,0.021361241,0.08470097,0.21839115,0.050162435,0.12441886,0.20029467,-0.19093783,0.017416133,0.047113106,-0.082895674,0.22441775,0.21520711,-0.27719614,-0.34269395,0.104094744,0.2671083,-0.052047372,-0.121054,-0.17427099,-0.40819177,0.2407922,0.12639032,-0.3029274,0.24459341,-0.062098656,0.17324758,-0.07514705,-0.105849154,0.30438942,0.34795716,-0.14210206,-0.09562424,-0.124459766,-0.271899,0.014445561,0.020032907,-0.06838245,-0.046885528,-0.0041488134,-0.058078755,0.05326048,-0.27308503,0.010980109,-0.42015365,0.3608518,0.116231635,-0.12594232,0.11637989,-0.15374006,0.17360617,-0.18502179,-0.25766656,0.38279346,-0.12171706,-0.16159755,-0.055355035,-0.14239314,0.19780841,-0.001580201,0.15925866,0.07475038,0.14853701,0.09565157,0.24250203,0.040206186,0.06414919,-0.26960734,-0.2335874,0.22732307,-0.0923387,0.1538376,0.19997683,-0.40043554,0.014380864,-0.106132284,-0.10450596,0.19274876,-0.30743426,-0.21033707,-0.34670684,0.0435788,0.20156729,-0.057665184,-0.09912642,0.06628887,-0.36655292,0.010150484,-0.33119887,-0.24993362,-0.15872502,0.23066074,0.28528768,-0.0731019,-0.26638308,-0.17848894,0.048888046,0.066227496,0.3591875,-0.038515065,-0.0088692065,0.0773984,-0.09384786,0.3162225,-0.05293903,-0.0047031343,0.0779407,-0.066129595,-0.010547891,-0.09183613,0.122974515,0.22636911,-0.16598716,0.14274392,-0.26957124,-0.3610284,0.21019989,0.04329688,-0.03574914,-0.23735912,-0.16219752,0.15739727,0.02401698,-0.28119287,-0.10105764,0.29913062,0.109900184,-0.10977386,-0.19061998,-0.14602828,0.2143685,0.12921037,0.026602134,0.27221444,0.38340855,0.0140048275,0.04947434,-0.0968374,-0.14497459,0.3268262,-0.05447104,0.05172637,-0.20479421,-0.26813263,0.11717606,0.17945884,0.2826301,-0.14581911,0.028484693,0.12801397,0.12245427,-0.10880132,0.23364837,-0.31950712,-0.25419816,0.14208917,-0.16264504,-0.23970911,0.26086396,0.28325513,0.28572777,0.13434699,0.3434228,-0.05031144,-0.11147504,0.05000236,0.12150299,0.3879304,0.022322481,-0.18201408,0.17830512,-0.08159725,0.14107808,0.009220902,-0.119236395,0.22185113,-0.14519916,0.14066598,-0.19369046,0.09732602,-0.0057952595,-0.11515749,0.061506983,0.31284335,-0.2191319,-0.08309459,0.1664723,-0.19917221,-0.48780912,-0.3609731,-0.15146714,-0.04430768,0.13695744,0.33549264,0.33973938,0.25706947,0.06200244,0.030930439,0.046077155,0.2593344,0.15628012,-0.21276179,0.10970751,-0.068903394,-0.06387808,0.17680603,0.15875913,0.1175928,-0.09006982,-0.22242816,0.020760356,0.19183396,0.060272954,-0.0042709336,0.1925427,-0.17151657,-0.09668478,0.07583584,-0.039630722,0.17045344,-0.1663191,0.017777715,0.13194491,-0.2206563,0.08977451,-0.15934975,-0.11830154,-0.26318106,-0.2523136,-0.1876996,-0.24215493,0.00239859,0.1749325,0.08196262,0.10255684,-0.04820112,-0.3015751,0.07610392,-0.29423693,-0.07480199,0.020668192,-0.022058893,0.07178387,0.12865469,0.29636738,0.12829961,0.051100884,-0.32122245,-0.28902918,0.022192044,-0.041780222,-0.1104868,-0.23375621,-0.109776646,0.07267155,-0.22760162,-0.052366838,0.12816499,0.11764857,0.25977394,0.24206209,-0.021248082,0.032256495,-0.10584067,0.43836853,0.28289777,0.021816952,-0.012261466,-0.19679844,0.10036721,-0.05076785,0.10811615,0.096677236,-0.30897355,-0.17625761,-0.15879175,-0.28289777,0.23701914,-0.13431494,0.19187848,-0.059162535,0.17917311,-0.07953007,0.030965604,0.14229931,0.013188666,-0.119253196,0.057782907,0.7099881,-0.035553876,-0.07517225,0.14087464,-0.037146155,0.056525845,-0.46796194,-0.33990932,-0.09453099,-0.1562946,-0.5363461,0.25560242,0.028011512,-0.32448936,0.4099695,-0.14665712,-0.17163074,0.27906755,-0.056189433,0.053533554,-0.33380875,-0.20287073,0.004403799,0.12940209,0.29848236,-0.2910587,0.25675628,0.03414244,-0.0076876488,0.30053025,0.15192905,0.25880417,-0.053693544,-0.30488208,-0.13285793,-0.23448528,-0.23064546,-0.2557323,0.08076431,0.05798135,-0.105787165,0.06300512,0.09823551,0.16119099,-0.19416766,-0.3638893,0.11796481,0.055512853,0.13980071,0.1722681,-0.35523134,-0.0814231,0.08861685,-0.18067142,-0.34759194,-0.16806644,-0.08358759,0.14693081,-0.16755715,0.0017457185,0.20689997,-0.29284304,-0.15227838,0.08537011,0.18245395,-0.1313974,0.20180705,0.14884065,0.16634725,0.15364017,-0.21905276,-0.3534879,-0.12533803,-0.24749929,0.18844025,0.1386227,-0.0860616,-0.13660112,-0.20750086,0.24923208,-0.049853634,0.3422248,0.366195,-0.15465096,-0.23638059,0.0755927,-0.21746437,-0.281433,-0.20721208,-0.047507156,-0.14432645,0.3104571,-0.26396075,0.18641126,0.0070685926,-0.22379996,-0.17669818,-0.123276256,-0.27329674,-0.09925967,-0.18122208,-0.24628639,-0.26664394,0.0017255682,0.07810379,0.197721,0.018977093,-0.08209547,0.08615367,-0.044773296,0.2498789,-0.31268126,0.11688957,-0.09686466,0.006640319,0.22207023,-0.05022859,-0.25879365,-0.14781192,0.05798564,-0.102041,-0.115902655,-0.06477922,0.12098069,-0.0033067255,0.049476504,-0.21341461,-0.027860556,0.20517996,-0.051535167,-0.09277702,-0.19173004,-0.34832558,-0.19529837,0.3126421,-0.0188196,-0.2986432,0.24676493,0.07335698,0.326641,0.47953096,0.14232215,-0.0771312,0.09933507,-0.25018716,-0.34003934,0.049432144,-0.054644376,0.032921135,-0.38496542,0.1733824,0.13390394,-0.17459299,-0.29807246,-0.16598439,0.18279804,-0.16369773,0.029138062,-0.2156183,0.30372185,0.20310894,-0.088170804,-0.19732504,0.08386651,-0.23821585,-0.041697863,0.07976397,-0.10606053,-0.2603483,-0.24191803,0.46158692,0.23477837,0.06911351,-0.27396345,-0.17550266,0.0902419,0.36030346,-0.007928336,-0.34569207,-0.43767738,0.35100532,-0.0462002,0.043626606,0.20372918,0.2784465,-0.46789637,-0.049064364,0.111162744,0.16379695,0.20920846,-0.17085357,0.36296007,0.13175152,-0.041772872,0.08146173,-0.10188505,0.03843845,-0.015850073,-0.17153737,-0.05080359,0.008781796,-0.057981856,-0.0029291953,0.07307937,-0.046126142,0.02096748,0.25119296,-0.0071956315,-0.12643008,-0.2354471,-0.1362481,0.1874685,-0.23155694,0.009325955,0.026837448,0.017737262,0.24341264,0.14569563,0.021979468,-0.304629,0.2468298,0.14772497,-0.05984296,0.11839511,-0.20997027,0.15045,0.32929763,-0.072105564,0.15030658,0.18429767,0.17798708,-0.15518294,-0.04550073,0.08648365,-0.23363493,-0.10943122,-0.5341047,-0.15102369,-0.052922834,0.18759638,-0.120618165,-0.3097922,-0.10204497,-0.22484362,0.011976145,0.3047562,0.23329316,-0.13927415,-0.091870815,-0.17973168,0.45398363,0.3574584,-0.22484362,-0.05567386,-0.16569686,-0.034299392,0.15381022,-0.009998023,0.31678605,0.23787597,-0.013032338,-0.27210376,-0.012199915,0.09222885,0.32337382,0.1361951,-0.09545113,-0.033654936,-0.10804082,0.20761809,0.33645207,-0.09492754,-0.043049145,0.009371287,0.030588925,0.30280685,-0.04513891,0.10626452,-0.1347898,0.121310815,0.015111608,-0.20385651,-0.2775207,-0.053080015,0.13876034,-0.10919019,-0.14889571,-0.24617423,0.114414595,0.066715725,0.20249817,0.021720488,-0.15077649,-0.19317701,-0.20473228,0.24116538,0.14505269,-0.16082224,-0.32218826,0.27311233,0.32925737,0.07089501,0.018862287,0.24809855,-0.08680051,-0.16299735,0.26984966,0.10569678,-0.073070124,0.11147442,-0.003052377,0.06270436,0.08911157,-0.020085787,0.266587,0.17061023,-0.08938345,0.026475174,0.0796723,0.08334868,0.32415125,-0.10798039,0.035634577,0.13434525,0.07300231,0.50208783,0.1588194,0.08791789,-0.055355705,0.05945224,0.08870568,0.0015731275,0.045140635,-0.01649117,-0.118694395,-0.23402753,-0.11291724,-0.19022615,0.22226314,-0.047556538,-0.0025915161,0.0035450761,0.17089893,-0.1856014,-0.041441098,-0.02566555,-0.2113667,-0.16257223,-0.10756445,-2.1821417e-05,-0.13977107,-0.19665995,0.13931505,0.21045466,0.29527494,-0.108989514,0.0454313,0.08225516,-0.085561335,0.2251614,-0.02786016,-0.21227875,-0.19586192,-0.026606098,0.23827207,-0.049678016,-0.28455842,-0.16553637,-0.057258174,-0.0064564412,-0.16749506,0.06895899,-0.009994449,0.14658526,-0.1323926,-0.37659302,0.094148256,-0.11245787,-0.089381255,-0.15871944,-0.048401304,-0.095340006,-0.04314677,0.18699642,-0.2552512,-0.17616233,-0.14051817,0.11245787,-0.12567545,0.005159736,0.08298914,0.003392425,0.010075705,-0.0743171,0.018979752,0.06796668,0.028162118,0.28010508,-0.047685374,-0.05229086,-0.2656879,-0.10801438,0.08987849,-0.08982128,-0.281707,-0.33914685,-0.09559959,0.22998825,0.1476044,-0.117053725,-0.22392388,-0.17209071,-0.040476788,0.18181658,-0.061387412,0.1803291,0.051060826,0.14714672,0.00083760533,0.12923539,-0.07264211,-0.15481699,-0.05240006,0.28067368,0.1713485,0.11644458,-0.21756433,-0.17484787,0.19789545,0.34583437,-0.25436807,0.099068396,0.14166418,-0.010762074,0.18812135,-0.26643485,0.06401435,0.03897575,-0.12205564,0.14335354,-0.25557473,-0.16278107,-0.13732013,-0.04606143,0.13773122,-0.31382182,-0.32922596,-0.1052617,0.2657971,-0.19964987,0.1496619,-0.024389906,0.13342713,0.29041356,0.15630682,-0.34916076,0.3301321,-0.2679114,0.0490441,-0.12889649,0.2384623,0.38087517,-0.19874375,0.116361745,0.055613514,0.3310382,0.023521533,-0.025012868,0.03452988,0.20659304,0.03450057,0.046635855,0.09415108,0.210814,0.2677971,0.23801582,-0.11156259,-0.037402485,-0.15242392,-0.06278693,0.027524242,0.09790306,0.1776325,-0.09602707,0.11935965,0.15770014,0.012040024,-0.12580836,-0.20307556,-0.17974298,0.26451412,0.17962572,-0.0806088,-0.016749408,0.20903261,-0.25295693,0.022370672,-0.35400894,0.03722454,-0.07274962,-0.16615413,0.15321214,-0.06967754,-0.18327938,0.14641434,-0.19046937,0.1988359,-0.25321835,0.17491284,0.36420566,0.13987799,0.2875996,0.097130224,0.108372755,0.110595115,0.09608441,0.03722454,0.020883651};

#endif
