#pragma once

#include "parameters.h"

#ifndef KERNEL73_H
#define KERNEL73_H

static float bias73[FEATURE_MAP73] = {0.629932,0.5160763,0.08733696,1.0003525,0.9708913,-0.6863578,1.4120247,0.69651306,0.413218,1.0500098,-1.5217937,0.736821,0.8586786,0.21973309,1.1451491,0.21870859,2.091992,-0.22969867,-0.34087822,-0.038273454,0.17174314,0.7905085,0.014318287,-0.5764188,-1.2735616,0.21780379,0.7442157,0.5000847,0.34710032,-0.7386782,1.0128644,-0.8168503};

static float kernel73[FEATURE_MAP73][IN_CHANNEL73][KERNEL73][KERNEL73] = {-0.011301642,-0.12117466,-0.089594394,-0.334283,0.21462886,-1.1191112,-0.09772339,-0.90530103,0.2722921,0.018275619,-0.102635875,-0.057750955,0.04424162,-0.18106021,-0.38481143,-0.18924768,-0.43955055,0.68353736,0.16889596,-0.18059236,0.23848951,-0.119244754,0.05707841,0.043656796,-0.1398889,-0.0950917,0.08398012,-0.03476754,0.11673003,-0.04143448,0.2404779,-0.5520699,0.08661181,0.05228289,-0.0046091108,-0.64985174,-0.042428676,0.06000251,0.18375038,-0.07128953,-0.06234179,0.003753812,0.27603495,-0.049855888,0.5866912,0.39089355,0.19170393,0.80798703,-0.014350016,0.011667155,-0.15719956,-0.24539039,-0.08789841,-0.16269687,-0.01358244,0.4374452,-0.09936088,0.08830779,0.73359793,-0.4124149,0.077956475,-0.14445049,-0.11848449,0.5338235,-0.3527633,-0.0048722797,0.50809145,-0.12199341,0.029138645,-0.15872009,-0.045937594,-0.0073102475,-0.061932415,0.044475544,0.03228205,0.05798488,0.04465099,-0.10333766,0.018538788,0.89126533,-0.3780275,0.057429302,-0.34551153,-0.17182006,-0.441422,-0.05973934,-0.26691175,-0.0053620664,-0.09608589,0.089126535,0.20796192,-0.09789883,-0.030790761,0.06608464,-0.01593634,0.11363049,0.12573625,-0.16503614,-0.034972224,-0.037925564,0.2216467,0.028773135,-0.13895318,-0.39346674,0.5413092,0.2865617,-0.3066795,-0.08286896,-0.28469026,-0.7761728,-0.19462803,0.4692594,-0.0025457935,-0.032135848,0.032691427,0.15614688,0.2664439,-0.38434356,-0.19579767,-0.69289446,0.21100298,0.12023895,0.1998914,-0.2966206,-0.0060163336,0.12608714,0.23603326,0.27767244,0.19009848,0.15631415,-0.01949002,0.13484187,-0.38354585,0.093719535,-0.14419906,0.16892171,0.025215136,0.05318818,0.09834888,-0.11799896,0.3173561,-0.19354586,0.25668222,-0.07928978,0.06786417,-0.12686366,-0.24899946,-0.16202694,0.07648263,0.08199844,-0.0321099,0.31203732,-0.121938825,-0.25668222,-0.10667185,-0.042796783,-0.2393468,0.13779677,0.030484706,0.058260754,0.09564022,0.0040599075,0.17768791,0.12390875,0.15158631,-0.1197719,-0.056832552,-0.03767496,-0.09746241,-0.23678589,0.03755184,-0.25195438,-0.04688439,0.0372071,-0.08194919,-0.05141524,0.034449194,-0.11652151,-0.03038621,-0.23304302,-0.14498703,0.05348367,0.114256084,0.07643338,0.13927422,-0.25609124,-0.16468635,0.09687143,-0.042205803,-0.10627786,-0.05629082,-0.16153446,0.07111456,-0.079043545,-0.27500257,0.08436236,-0.10814929,-0.04461897,0.39142558,-0.02903188,-0.023405261,-0.11908242,-0.063875064,-0.15316226,0.32287192,-0.059639707,0.38256088,-0.09800414,-0.0035797367,-0.28209433,-0.5484292,-0.028367028,0.13356142,0.0992846,0.049100567,0.20211507,0.00042361242,0.2885951,-0.33587348,0.38334885,-0.03021384,-0.12144634,0.11740798,-0.067519434,-0.048189472,0.34079832,-0.21708655,0.16537583,0.13336442,-0.07411871,0.07751685,0.14666148,0.24545358,0.15572317,0.2891861,-0.013186236,-0.031617418,0.073675476,0.13562985,0.15749611,0.025559874,-0.098742865,0.34808707,-0.032799374,0.2513634,0.18241575,0.14479004,0.2948989,-0.06653447,-0.046982888,-0.22634524,-0.14518403,0.38886467,-0.25806117,-0.3878797,-0.3380404,-0.21999489,-0.106360555,0.109255224,-0.056594502,-0.56973034,-0.30965543,0.08713698,0.07941786,0.2762554,-0.057336725,0.08350009,0.07039985,-0.1421357,0.54360414,-0.035162814,0.12884991,-0.109255224,-0.110294335,0.017980352,-0.023528468,0.09656321,-0.13441658,0.19950953,-0.09463343,-0.042789154,-0.2623016,0.15453082,-0.055740945,0.045795158,0.038150262,0.057114057,0.32004654,0.2499807,-0.1327837,-0.123209015,-0.07704274,-0.39100307,-0.076077856,0.18199308,-0.37853372,0.025291247,0.0632374,0.04234382,0.06253228,0.22281533,0.2523558,0.00939376,0.046351824,-0.014751682,0.056223392,-0.16744551,-0.1714535,0.050248496,-0.10903256,-0.11177878,0.07062252,0.2602234,0.11081389,-0.017618518,-0.35329813,-0.15171038,-0.11497034,0.010446789,-0.03002292,-0.03518137,0.16254683,-0.09077387,-0.20366599,-0.2775914,-0.33607855,0.20232998,0.19757976,0.09144187,-0.3734866,-0.045646712,-0.29510787,0.1554215,0.52282184,-0.092109874,0.124545015,-0.7659741,0.09893832,-0.092109874,0.13738547,-0.16655484,-0.752911,-0.20663488,0.25577003,0.02276769,0.2655674,-0.050471164,-0.5551828,-0.12202146,-0.14206147,-0.4560218,0.19743131,0.28441983,-0.07726541,-0.02276769,-0.14369437,-0.10435655,0.19965798,-0.019780243,-0.08966053,-0.033771146,-0.0682474,0.3435008,0.14235836,0.0011585637,-0.2617078,-0.12261523,-0.03852137,0.022582134,0.065501176,-0.1508197,0.39901906,0.12684591,0.52519697,-0.2060411,-0.08364853,-0.14963216,0.2113851,0.20143932,-0.029002363,-0.30995232,-0.15497616,-0.13790503,0.016950518,0.15333773,0.10489841,0.04221065,0.072177805,0.20669584,-0.18766229,-0.17162277,-0.18370588,-0.0656016,-0.02583698,0.0048486106,0.09212026,0.10345485,-0.050470997,-0.05747492,-0.25321043,-0.05178089,0.24679463,0.13751207,0.46493196,-0.14585263,-0.1312032,0.151413,-0.32677832,-0.029245377,0.06549467,-0.053705633,0.031490907,-0.04996308,0.06741942,0.01729594,-0.06421151,0.009322966,-0.12104485,-5.6806603e-05,-0.039724525,0.15269615,-0.10815977,0.17247821,0.055603642,-0.05592443,0.00092728424,0.065227345,0.03595524,-0.19343652,0.22904423,-0.044375982,0.25556287,-0.02276274,-0.022508781,-0.084849015,0.046327457,-0.09682518,-0.1784663,0.028523598,0.18766229,0.0623937,0.12500127,0.4444014,-0.020784535,-0.18359895,-0.15611792,-0.121258706,0.20487803,0.028309738,-0.015959315,0.37874633,0.35094452,-0.12852995,0.09789449,0.09944497,-0.010860086,-0.01947464,0.5021436,0.17974946,0.09308263,-0.29961807,-0.18530983,0.035260193,-0.0034685445,-0.106502354,0.28315085,-0.18039104,0.050257135,-0.21204235,0.14104077,-0.06854218,0.1347319,-0.053892758,-0.13216558,-0.26048166,-0.109336,0.4841794,0.038441364,-0.07613421,-0.019501373,0.07474413,0.14638728,-0.0019698525,0.08335199,0.004945516,-0.10265288,0.024259761,-0.122328006,0.38687304,0.019942459,-0.26090938,-0.09709251,-0.14991596,-0.21631955,-0.087789595,-0.06479963,-0.009663805,0.20167013,0.043761134,0.1891593,0.37061965,-0.062607564,-0.16370995,-0.38687304,0.2286165,0.12104485,0.048225466,-0.14799123,0.13708436,0.18285044,0.4841794,0.085918315,-0.014016498,-0.16729577,-0.016970165,-0.09511885,-0.14590046,-0.21171893,0.08515157,0.22666986,-0.032372203,-0.04833275,0.03303812,-0.16678022,-0.14040127,-0.10414097,-0.16678022,-0.24007414,-0.010584872,0.1208104,0.07385244,-0.17511493,0.18731625,-0.25382212,0.5619488,-0.24797924,0.1353317,0.41759497,-0.027302634,0.21876477,-0.21257818,0.094861075,0.15646923,-0.22048327,0.09606402,-0.13206656,-0.019290138,0.12124002,-0.29833123,-0.25141624,0.18353556,-0.17356828,-0.46124482,-0.13000436,-0.28492695,-0.13816722,0.41793868,0.102594316,-0.20707898,0.16334322,0.17554455,0.21790552,0.004272078,-0.034498844,-0.14615823,0.11823265,-0.1163423,0.17717713,-0.14736119,0.13825315,-0.024875255,0.15380555,0.29540977,0.49664587,0.23869935,-0.030460374,0.17820822,0.29317573,0.056882277,-0.0481609,-0.051254198,-0.21103153,-0.21721812,0.066978455,-0.20742269,-0.45815152,-0.12579404,0.022791578,0.11823265,-0.2278728,0.3113918,0.16368692,-0.3856309,0.09451738,0.020954933,-0.25004143,0.16377284,-0.022383435,-0.42103195,0.51176864,0.1415183,0.040298775,-0.26103982,0.08012496,-1.076467,-0.1912688,0.046141665,0.22907576,0.09683735,-0.2319972,-0.0966655,-0.11385048,0.034026258,0.10053212,0.24333929,0.0031040367,-0.13172285,-0.088674486,0.17855193,-0.18903476,0.006041594,-0.011782451,-0.3175784,0.02126641,0.14203385,-0.28578618,0.23955859,0.35194835,-0.35916606,-0.47980458,-0.16471802,-0.42309415,-0.12751254,-0.41381428,0.010391542,0.15320408,0.014671675,-0.22151437,-0.049492735,-0.02601376,-0.13068768,0.68139017,-0.3537744,-0.124148026,0.08258955,0.076471806,0.37001806,0.09429765,0.010290733,0.11560428,0.24871796,-0.23289621,0.02697609,-0.31896654,-0.375292,0.18690765,0.2520933,-0.10658588,-0.1311096,-0.2651726,-0.058909662,-0.2149649,-0.060017183,-0.06529111,0.07568072,0.102894135,0.018854257,0.020027703,-0.20135818,-0.13880952,0.26981363,-0.25504667,0.2246689,-0.2114841,0.2480851,0.07082871,0.31622413,-0.16391337,0.24998371,0.11750289,-0.16085449,-0.01333642,-0.23943587,0.0977257,0.17878582,0.03918521,-0.04696424,-0.077579334,0.25694528,-0.47634026,-0.122882284,-0.14566562,0.02527525,0.35904834,-0.11634263,0.04480193,0.21085124,-0.5244384,-0.09846405,0.022756955,0.122882284,-0.050840568,-0.038631447,0.18690765,0.15610796,-0.42170247,0.11360019,-0.013019985,0.22698942,-0.3811988,-0.06882463,-0.43457082,0.31369263,0.106902316,-0.09804213,0.24892892,0.004446572,-0.060017183,0.12446446,0.12594116,-0.10410714,0.06397262,-0.13343012,-0.06154662,-0.026989274,0.15526414,0.047201566,0.11043584,0.24998371,-0.46072945,0.45102546,-0.06439453,0.08026903,0.0015080109,0.13912596,0.18279399,-0.011464179,0.28690112,0.15906136,0.031063376,-0.3430156,-0.13859856,0.2110622,-0.63919884,0.21127315,-0.0565364,-0.07130337,-0.14661491,-0.046120413,-0.064025365,0.17973512,0.052501854,-0.10458179,-0.45819798,0.070195846,-0.06028088,-0.121827506,0.21021837,-0.29723802,0.2626411,0.15020119,-0.20209654,-0.07267459,0.07631359,0.15420936,0.19808835,-0.24407692,0.16591746,-0.0015413315,-0.080639236,0.029636642,-0.1421525,0.14077404,-0.18936436,0.05039952,0.20383807,0.09304527,-0.07525467,0.17023839,0.3246246,-0.22244711,-0.06371016,-0.10717437,-0.21245337,0.0023261318,0.078399256,0.25552988,-0.768485,-0.24846533,-0.14465094,-0.062676325,-0.40423,-0.010769129,0.12845416,-0.015227548,-0.03829502,-0.15679851,0.07348853,-0.07271316,0.3010187,0.12182038,-0.096836,0.023196703,-0.16162308,0.1324172,-0.15180163,-0.09692216,0.13586332,-0.02397208,-0.09028837,0.030735092,-0.07973463,0.080251545,0.08563611,-0.33737525,-0.00883607,0.021915177,0.047125705,0.14008482,-0.0059553282,-0.13250336,-0.04264575,-0.024876688,0.041374993,-0.18247211,-0.111223556,-0.032845844,-0.035365816,0.18574592,-0.13233104,0.049107227,0.18367825,0.27379432,0.06103942,0.24432999,-0.019416738,0.08115615,-0.3299661,-0.004991491,-0.13698332,-0.056516387,-0.19608429,-0.48865998,-0.31101242,-0.2756897,-0.39320242,0.16885993,0.0193952,-0.35460585,-0.2529453,-0.006822243,-0.78089106,-0.18057674,0.056731768,-0.20245962,0.1278511,0.69473803,-0.08137154,0.4752201,0.0034757361,-0.05462102,0.018447516,0.46798325,-0.17084146,0.2103857,0.24898225,0.4983091,0.6619999,0.056904074,0.12078655,0.023067473,-0.1580908,-0.1681707,-0.5972128,-0.010483746,0.03433198,0.04635033,-0.11734042,0.19212125,0.03495659,-0.4607464,0.23450854,-0.11871887,0.23967773,-0.1962566,0.23106243,0.16593073,-0.035775043,-0.5176074,-0.82155526,-0.1038144,-0.1350018,-0.19556737,0.16903225,0.39285782,-0.3106678,-0.24477957,0.050544955,-0.3064478,0.0009862817,-0.118806,0.54960454,0.24356245,0.20488456,0.19041418,0.25668046,-0.21083501,-0.33565906,-0.23666534,0.0304284,0.032913387,0.101225145,0.18892656,0.036108367,0.28291652,-0.4998372,-0.44709465,0.1804066,0.19541796,-0.54852265,0.11975266,0.4059825,0.057205394,-0.17743139,-0.20785978,0.18811513,-0.16174385,0.07072913,0.28480983,-0.23517773,-0.07241959,0.25641,0.44060326,-0.032541484,-0.106837496,0.5049762,-0.42248145,0.35053518,0.039725967,-0.45061082,0.08526714,0.38894257,-0.20840074,0.05629254,0.07695004,0.13429068,0.1119089,-0.36568177,-0.3394457,0.017217403,-0.30509543,0.19717604,0.44357845,0.20758931,0.048685443,0.11894124,0.11583078,0.17526759,0.38921306,-0.12002314,0.27236798,0.13435829,0.46954402,-0.30482495,0.43600518,0.075868145,-0.13787447,0.068091996,0.35729703,-0.27412608,-0.23355488,-0.111029856,-0.05581921,-0.014808488,0.18513991,0.49713245,-0.4249157,-0.047164023,-0.3372819,0.17905423,0.10920415,0.22557588,0.124080256,0.3662227,0.194877,0.39462253,0.007847992,-0.432489,-0.048584014,0.005827884,0.34945327,0.0058743716,0.49388674,0.42383382,-0.16539526,0.29238313,-0.40490058,-0.28021175,0.026455805,-0.025728904,0.08154812,-0.33187243,0.389754,-0.0036366165,-0.587471,-0.08607856,0.64048404,0.38055786,-0.041315008,0.07383958,0.06772009,0.6913333,-0.10365942,0.6675315,-0.43005472,-0.19257797,0.1782428,-0.045372125,0.12915166,-0.17905423,-0.63236976,-0.017766805,0.21124072,0.23842342,0.18844733,-0.19925433,0.29494146,0.3206081,-0.29043853,0.39197943,-0.19475141,-0.23099995,-0.19171193,0.015000362,0.20364468,-0.36721337,-0.23662859,0.20893562,0.3079999,-0.11307965,0.39535663,0.0109969815,0.15625142,0.19385083,-0.15321195,0.2737777,0.67994136,-0.025455585,0.15129821,0.21310082,0.06242177,0.055160806,-0.14060377,0.63851446,-0.5678186,-0.31295314,-0.34897652,-0.35392973,0.04564838,-0.14724557,0.31745607,0.038640708,-0.15602627,-0.26116952,-0.20994878,-0.10947731,-0.16401896,-0.21591514,-0.11944003,-0.35302916,-0.3766695,0.10581869,0.049194433,0.26094437,-0.10486182,0.06928872,-0.06304092,-0.33299115,0.1442061,0.03394078,-0.055442236,0.55385953,0.096081115,-0.06776899,-0.23235081,-0.3064239,-0.046633396,0.013747986,0.16604528,0.1354254,0.04322806,-0.04916629,-0.04435379,0.4041373,-0.06529238,0.44714025,-0.023161909,-0.14600727,0.049138144,0.23685373,0.2019561,-0.06805042,0.39288002,0.22705989,0.12720756,0.15839031,-0.25891808,0.028283983,0.42034784,0.45209345,0.186421,0.1388026,-0.36135957,0.34537417,-0.321959,0.14657013,-0.020699373,0.39355546,0.117638856,-0.029522289,0.08172805,0.20961106,0.019995792,0.15332451,0.118201725,-0.30102038,0.25801748,0.08544296,0.10007746,0.15478797,-0.23370169,-0.36293557,-0.09208477,0.00630761,0.13474996,0.24000579,-0.204883,-0.0071659796,0.25283912,0.06467323,-0.04401607,0.095011674,0.08780699,0.05124889,-0.17561398,0.013178085,-0.01300219,-0.10384866,-0.26904964,-0.43565777,-0.2805321,-0.13520026,-0.07316843,0.22739774,0.079518,0.17529565,-0.0853335,0.03907657,-0.11933634,0.027059857,-0.16259651,0.01984983,0.12248146,0.29077476,0.20366102,-0.36364648,0.0031451148,0.08432468,0.007818281,-0.06497926,-0.55686337,-0.20081262,0.12983984,-0.017283296,0.17031094,0.17529565,0.23558691,-0.114648335,-0.24662448,0.057591207,0.25398287,-0.19131793,0.21018863,-0.07589815,-0.32210723,-0.096311726,-0.021615246,-0.10177117,-0.06040994,0.17529565,-0.005477989,-0.19772685,-0.07334645,-0.064741895,-0.12331224,0.088419266,-0.079518,-0.37622696,0.07138817,0.0066351537,0.16235913,0.29955736,-0.10509431,0.2682249,0.24128371,0.38714585,0.3007442,-0.21624148,-0.51081413,0.054357078,-0.17588906,-0.041420568,-0.4011505,0.17422749,0.14336976,-0.16948014,0.07346514,0.1517963,-0.47259802,-0.29552212,0.21196887,0.3771764,-0.0010134465,0.00048307926,0.04877895,0.014590663,-0.06456387,0.16283387,-0.16781858,0.26205334,0.10277998,-0.107171275,0.0975579,-0.13672349,0.10295801,-0.14764237,0.24971025,-0.023172969,-0.09791395,-0.2565939,-0.017253626,-0.39141846,0.010421902,0.049698748,0.045633838,0.12924641,-0.04916467,0.27226013,-0.47141117,-0.18146719,0.01010294,-0.57585275,-0.26988646,-0.11150322,-0.39141846,-0.032608315,0.20259286,-0.13304429,-0.052754853,-0.045604166,-0.097973295,0.08752914,0.09743922,-0.44648764,0.36245966,-0.06895516,-0.18407823,-0.20425443,-0.4495734,0.08729177,-0.21897121,0.31688514,-0.15049078,-0.047592115,-0.26039177,-0.034981985,0.35106602,-0.28887585,-0.33658662,0.10194919,-0.185461,-0.076833844,0.27149564,-0.25376844,0.11561205,0.12775132,-0.08882859,0.24085845,0.10058249,0.2547319,0.46283358,-0.38595158,-0.19702221,0.07567772,-0.07851985,-0.1794877,0.05279617,-0.02538648,-0.00021526724,-0.29481074,-0.054578524,0.49096584,-0.09094815,-0.12187437,0.22737037,0.036755,-0.03535802,-0.002929441,-0.20733094,0.37361962,0.23045336,-0.0063526416,0.06252685,0.24374874,0.4204425,0.22158977,-0.31388673,0.19210869,0.053181544,0.55532324,0.04937598,0.16831188,-0.18420854,-0.08757613,0.2955815,0.26417354,-0.24606098,0.047039654,0.36976588,0.30059135,0.094898224,-0.20463334,-0.01747428,-0.17573032,-0.17881331,0.10607406,0.042222485,-0.09287502,0.10087152,0.10087152,0.08815419,0.31234524,0.3753538,0.049809527,0.18931474,-0.100486144,0.1958661,-0.2838276,0.2853691,-0.27881774,-0.191916,0.48672673,0.43123296,-0.029553331,-0.06358663,0.070619695,0.45551148,-0.15386038,-0.12303049,0.15019932,0.058913976,-0.18661712,0.3406702,-0.28729594,-0.22351664,0.060599983,-0.030564936,0.052651655,0.15964098,0.19181967,-0.06281588,0.013403772,0.44317955,0.23777546,-0.1863281,0.11628646,0.29847178,0.2556953,0.6855795,0.17226195,-0.23353635,-0.0050971666,0.39250293,-0.258971,-0.07664116,-0.28575447,0.17640473,0.10703749,-0.036899514,-0.07967597,-0.059684724,0.1425882,0.13189408,0.049713183,0.2283338,-0.033142123,0.26147592,0.08786516,-0.5965582,-0.09672875,0.38961262,-0.30791342,-0.0110433595,0.46437508,-0.11435959,-0.015258382,-0.04937598,0.1774645,0.0434421,-0.17162868,-0.104114644,-0.08857346,0.14550148,-0.91715485,-0.15597488,-0.41555762,0.07415845,-0.031448364,0.032771617,0.093866475,-0.49281305,-0.11385603,-0.14032109,-0.15056926,-0.23942426,0.31375164,0.23401862,-0.103664175,-0.053859197,0.019848788,-0.08958702,0.22973917,0.10631068,-0.13108647,-0.031194976,-0.21115734,-0.080183476,-0.043723643,0.22883824,-0.1391949,0.058223113,0.20394982,-0.103438936,-0.33109468,-0.001133211,-0.13682996,0.07365168,0.20732835,-0.050902992,0.13007292,0.11678408,-0.08305521,0.45542413,0.48245227,0.10563497,0.46128023,-0.018342534,-0.017497905,0.0284077,-0.23762238,0.11154738,-0.19358905,-0.14595194,0.24865887,0.11267355,0.008467409,0.55948246,-0.65092766,0.1404337,-0.20417506,-0.10726792,0.30068803,-0.15856507,0.16239406,0.36735743,0.07826898,0.24640653,-0.30519274,0.06250257,0.013415529,0.07973301,-0.13266312,-0.37861916,0.43447733,0.12376635,0.19899467,-0.058223113,0.49101117,-0.39731362,0.121401384,-0.15856507,-0.1364921,-0.33492368,0.14403746,0.007277889,-0.37388924,-0.028717397,-0.008382946,0.1985442,-0.034911346,0.03992281,-0.1058039,-0.15192066,0.21318445,-0.05166316,0.09031903,-0.0920646,-0.08457555,-0.06413552,0.20259842,0.15721367,-0.3651051,0.20777881,0.2403252,-0.24865887,-0.043216866,-0.438982,-0.8284124,0.028252851,0.16442117,-0.2423523,0.06588109,-0.27523655,0.14887999,0.037051074,0.2788403,-0.20721573,-0.20924284,-0.20946807,0.061038546,0.2122835,-0.008312561,-0.018821158,-0.13570377,-0.029562026,0.085194945,-0.12168588,0.0710604,-0.26854017,0.06274789,-0.21670246,-0.28955236,0.08306735,0.12722754,0.048864845,0.09420842,0.029165935,0.012447115,-0.04248615,-0.31148815,-0.13761818,0.15643679,-0.14131263,0.32672775,0.07238809,-0.5440075,-0.2544551,-0.61004573,0.03835876,-0.1966139,0.42901775,-0.17040642,0.14061992,-0.03622291,-0.124572165,-0.6650006,0.37406287,0.402233,0.33573297,0.104714505,-0.39438233,0.003744958,-0.11458561,-0.44379556,-0.15863036,0.14893243,-0.07879565,0.12226313,0.08393324,-0.07741023,0.15493591,0.004899473,-0.23829189,-0.05905344,0.22016601,0.14073537,0.2680784,0.08629999,-0.31818432,0.28885964,-0.03434682,-0.022209981,-0.103040464,-0.6728513,-0.46988758,0.088089496,0.3311149,0.043005683,0.13923451,-0.065922804,0.0598616,-0.15389685,-0.07954608,-0.20688908,0.227324,-0.4606515,0.2235141,-0.37221563,-0.03665585,-0.12018501,0.05253043,-0.2930159,0.29532492,-0.3239569,-0.25953496,0.19245765,0.064017855,0.34496906,0.16682741,-0.25191516,0.2694638,-0.542622,-0.24314085,0.05463742,0.30663916,0.113719724,0.0124182515,0.13796455,-0.2623058,0.2934777,0.25607142,-0.0006074733,0.33203852,-0.10407952,0.06303652,0.59064984,-0.39091876,-0.21035263,0.2528388,-0.35189617,0.005512809,0.19315036,0.27338916,0.21300802,0.05934207,0.16451839,0.005541672,-0.2844725,-0.2844725,-0.03746401,-0.054579694,0.36921388,-0.26092038,0.21554795,-0.022354295,-0.08122013,-0.08503003,-0.43040317,0.049182337,0.2775454,-0.20631182,-0.09709471,0.1656729,0.3172607,0.18386331,-0.04064826,0.058684878,0.21193624,-0.03849249,0.35527107,-0.16565903,0.085655965,0.36945125,0.09538089,-0.20273829,-0.30046657,-0.031162867,-0.22822429,0.17073706,0.13614891,0.26060876,-0.41352478,-0.20637915,0.06687681,-0.020240294,0.12982532,-0.21998446,0.045390956,0.18846229,0.23876362,0.19459426,-0.06543963,-0.123884976,0.20676239,-0.14831704,-0.14544268,0.16489252,-0.118040435,-0.31522164,0.33687514,-0.11813625,-0.25486004,-0.051594786,-0.24355422,-0.23358977,0.33706677,-0.19986393,0.2489197,-0.4629638,-0.7055599,-0.37596646,0.01638386,0.08575178,-0.14314319,-0.079092845,0.10606393,-0.19478588,-0.15282021,-0.0970576,0.15847312,0.009275803,0.17418629,0.02063552,0.14592174,-0.039354797,0.16594645,0.27018997,-0.13212481,0.23991336,-0.25045267,-0.2673156,-0.10644718,-0.03755832,0.04575025,-0.19344452,0.1455385,-0.027617821,-0.13892746,0.07837425,-0.12551378,0.14429294,-0.34894747,0.06055321,-0.30104145,-0.1161242,-0.3723256,-0.19928905,0.037989475,0.27383083,0.44801712,0.29816708,0.35680404,0.11420795,0.011946565,-0.11794463,-0.08254208,-0.28283715,0.17437792,0.2466202,-0.15550295,-0.0018818084,0.12369335,0.26539937,0.22975728,-0.15780243,-1.0439681,0.0509241,0.005221756,-0.67106754,-0.13691542,0.047810208,-0.09432696,-0.12503472,0.10730949,-0.35297155,0.37347534,0.094374865,0.02673156,0.58522,0.33131805,-0.20657076,-0.10970479,-0.05470868,0.2736392,-0.102135636,-0.15262859,-0.19679794,0.45568207,0.09739294,0.34645635,0.4223395,-0.029581968,-0.3528614,0.018579245,-0.2132483,-0.23684931,0.13017271,-0.21094064,0.3260087,-0.08155462,-0.011249818,0.068128265,-0.23852761,-0.22615018,-0.17045179,-0.28384155,-0.12356443,-0.00759166,0.3786652,0.1878641,0.3423721,-0.08150218,-0.38076305,-0.12838952,-0.116117,-0.13730547,0.116012104,0.19824854,-0.10961361,-0.070803046,-0.65495443,0.06094307,0.30293214,0.15031224,0.18566133,-0.07499879,0.09760331,0.10793532,-0.072009325,-0.018907037,-0.012574097,1.0346686,-0.4820901,-0.060995515,0.082131535,-0.5085232,0.6629263,0.18681516,-0.103896916,0.11664147,-0.14454311,0.089369185,0.1432844,-0.04827719,-0.36460948,0.07966654,0.0890545,0.015602894,0.39209154,0.1478997,-0.07158975,-0.52069086,-0.012646211,0.05538372,0.5211104,-0.074684106,0.1733888,0.08464898,-0.037761625,0.07499879,0.23202421,-0.09797044,-0.35223207,0.09398449,0.18482219,0.13269016,-0.17139582,-0.195836,-0.18817878,-0.07394985,-0.23139486,0.70446414,0.11359956,0.24377228,-0.21419233,0.12545252,0.39565793,-0.49425772,-0.30649853,0.14118652,-0.05931722,0.09209641,0.19101089,-0.24587014,-0.30649853,0.11852955,0.41495833,-0.27565986,0.030523982,0.23181443,0.02887191,0.71663177,0.13447335,0.17233987,0.34761676,-0.28111434,0.16321415,-0.047778945,0.21754892,-0.13762015,0.14160609,-0.09167684,0.5378934,0.1766405,0.033460997,-0.04890655,0.051843565,0.52614534,-0.15734011,0.37425968,-0.29055473,-0.53159976,-0.24230377,-0.17779432,-0.0031041892,-0.23097529,-0.14391376,0.09078524,-0.22069573,0.23726888,0.09541217,-0.06190171,0.0824728,-0.05973468,-0.019189216,-0.071543425,-0.08360343,-0.15652873,-0.013135662,-0.034923743,-0.15200622,0.05671968,-0.25325996,0.14459436,-0.032631088,-0.0017518796,-0.05756765,0.07763624,0.035489056,-0.11884123,-0.16268435,-0.03162609,-0.25853622,-0.14296123,-0.031406246,-0.08705811,0.01453324,-0.16054873,0.17775935,-0.028328434,-0.11821311,-0.23315996,-0.3313987,-0.08322655,-0.074432805,-0.08065124,-0.3319012,0.0537989,0.03938343,0.012790194,0.06190171,0.08310092,-0.013316248,0.13843873,0.024685308,0.06934499,0.0059554093,0.082598425,-0.10031155,-0.032411244,-0.08567624,-0.22398934,0.16054873,0.0714178,0.39194995,-0.0764428,0.0051466986,0.14924248,0.13215747,-0.26305872,0.06431999,-0.055934522,0.08975905,0.08580186,-0.11972061,0.15753372,0.058572646,-0.014313396,0.12838873,-0.012052147,-0.07430717,0.089696236,-0.09572624,0.2721037,-0.120223105,0.11871561,0.071543425,0.46305367,0.1729856,0.079269364,-0.3771262,-0.13366498,-0.14044873,0.020602496,0.060111552,-0.01956609,0.025627496,-0.3379312,-0.0653878,-0.19446747,0.006481464,-0.029961558,0.015184919,-0.047988743,0.056154367,0.099934675,-0.15024748,-0.07707093,-0.09773623,0.014980779,0.08354061,0.06366046,0.080525614,-0.01915781,0.06664405,-0.15753372,-0.20589934,0.0864928,-0.1920806,-0.038189996,0.12304967,-0.4600387,0.039414838,-0.029192105,-0.31707746,-0.18994497,-0.2771287,-0.2156981,-0.062404208,0.078201555,-0.04893093,0.021513278,0.19873872,-0.022612497,-0.0019265768,0.16607623,0.079080924,-0.073427804,-0.057271622,-0.14226998,0.15354249,0.019567804,-0.10117986,-0.09863446,0.24181351,-0.003948787,-0.1797238,-0.15681516,0.03302209,0.23163189,0.20890506,-0.49962673,0.028840352,0.15290613,-0.36053848,0.2241775,-0.13290653,-0.030022148,0.17508753,-0.22817741,0.36490205,0.0693623,0.051862635,0.2552678,-0.0390447,0.12417942,0.029272161,0.35217503,-0.16272412,0.2292683,0.13608828,0.18763274,-0.10072533,-0.011181602,0.17163305,-0.06863504,-0.037885632,0.07636216,-0.016533772,0.10645249,0.11017969,-0.061907895,0.11372507,0.01110774,0.0291358,-0.0904528,-0.18136014,-0.046203654,-0.042317364,0.14363359,-0.055498928,-0.0687714,-0.14990619,0.027363108,0.12772481,-0.0112611465,0.020079158,0.41999188,0.34672058,-0.13436104,0.13054293,-0.020272335,0.013079293,-0.20345062,-0.1983598,0.11145239,0.31672114,-0.13090657,0.008215751,-0.16881493,-0.2009052,0.14908803,-0.13854277,-0.08377111,0.00014594888,0.08663469,0.20417787,0.16163324,0.055317115,0.16008782,0.0009822253,0.0861347,-0.079953,0.1748148,-0.022590473,0.18890545,-0.22872286,0.18354191,0.0508172,-0.09999807,0.07118044,-0.06427149,-0.15790604,-0.022397295,-0.23744996,-0.112725094,0.15217888,-0.032999363,0.2714493,-0.13672464,0.108452454,0.14417903,-0.07458947,0.20308699,0.064453304,-0.1338156,-0.027294928,-0.07149862,-0.22399567,-0.0780894,-0.06668053,-0.2505406,-0.05836251,0.07636216,0.2663585,0.3332663,0.3185393,0.1090888,0.16263323,0.033772074,-0.22599563,0.45926386,-0.014795169,0.13554284,-0.15899692,-0.18081468,-0.090889975,0.51706296,-0.30015114,-0.12100302,-0.013602894,0.05768606,0.18214718,0.21960486,0.13514146,0.16660102,0.17835245,0.11353596,-0.2940306,-0.3417708,0.6003023,-0.012279327,-0.10606891,0.18618673,0.25853148,-0.07754721,-0.19671406,-0.08483064,-0.33565024,0.021590194,-0.19561236,0.016709067,0.12755199,-0.36062205,-0.08623837,-0.03614177,0.16317351,0.0065528,0.07283439,0.22058415,-0.012577703,-0.0797506,-0.09027792,-0.17027333,-0.1252874,0.20136566,-0.24812657,-0.05049443,0.15974602,0.15435994,-0.4125242,-0.07271198,-0.108945556,0.042384718,-0.04045675,-0.41986883,0.06861122,-0.11794275,0.07381368,0.15925637,0.4068933,-0.19157282,-0.089115016,-0.26856917,-0.061695013,-0.14150682,0.020901633,-0.37751472,-0.13881378,0.15974602,-0.03681503,-0.571903,0.21238263,-0.069896534,0.0058680647,-0.31630936,0.03975289,-0.50065994,0.26244864,-0.33222276,0.046332464,0.14750494,0.117697924,0.0991527,0.34519827,-0.050433226,0.08519787,0.27787238,0.07669033,0.29476506,-0.15766503,-0.22486854,-0.017718954,-0.11812636,0.004422088,-0.021115853,0.4641815,-0.09358301,0.0991527,0.07093702,-0.21054648,-0.16696826,-0.0786489,0.09970355,0.04936213,0.22095138,0.03678443,0.103987925,0.3530326,-0.28644112,-0.0398753,0.14101717,-0.2279288,-0.18557468,0.11898324,0.056217134,0.1652545,-0.1811679,-0.061572604,0.17920932,-0.11782034,0.06634662,-0.19194004,0.13465181,0.089727074,0.4259894,0.11078172,0.11298511,0.38681793,0.03066389,0.07650671,0.023992505,-0.1287761,-0.06959051,0.12629557,0.068343826,-0.22056657,-0.00911958,-0.12449286,-0.15376034,-0.023329156,-0.024164233,-0.04700295,-0.15651743,-0.007688017,-0.0047619315,-0.0076018586,-0.050157685,0.034622587,0.011724226,0.046631802,0.01674132,-0.08896892,-0.11484307,-0.011949565,0.12364452,-0.056944348,-0.088226624,0.023130327,0.05768664,-0.06431424,-0.024442593,0.2642557,-0.017417336,0.08520444,-0.06998747,0.032475244,0.06887403,0.073221736,-0.033350088,-0.07984934,-0.17263575,0.0107963625,0.14103535,0.06760153,0.10535235,-0.056732267,0.17443846,0.018795878,-0.06219341,0.044882115,-0.067071326,-0.08064465,-0.09241527,-0.01306963,0.03342962,0.0012832693,-0.043079406,-0.028551705,0.028525196,0.11569141,0.06510955,0.028207071,0.040348835,0.0059582135,-0.3314861,-0.165637,-0.22099073,-0.042257585,-0.106306724,-0.005189412,-0.046790864,0.18398221,0.09877776,-0.18058887,-0.13318828,-0.045518365,0.10535235,0.18652721,-0.028949361,-0.09771735,0.1378541,-0.07820569,-0.18832992,0.050131176,0.06532164,0.033138007,-0.0015649423,0.12555328,-0.018756112,-0.039659563,0.16966659,-0.20646302,-0.0037048291,0.18239158,0.037459202,-0.19448033,-0.1416716,-0.082712464,-0.1536543,0.026377853,-0.019591188,0.21176511,0.07147205,0.051668778,-0.07391101,-0.18143721,-0.019021215,0.058534972,-0.04066696,0.01309614,0.034198422,0.044961646,0.026019963,-0.05498258,-0.18239158,-0.22247532,0.0073102443,-0.07242642,0.00011888259,-0.46912813,-0.25831738,-0.059489347,-0.042390138,-0.1877997,-0.060867887,-0.014501192,0.03194504,0.021897594,0.14050515,-0.095384434,-0.36414692,-0.31156752,0.2467282,-0.51286197,0.2051448,0.12151595,0.11612551,0.35022467,0.3493006,0.30355886,0.4118297,0.18774137,-0.1293706,-0.5285713,0.049361043,-0.19867627,0.21761982,-0.0027192852,0.2576631,0.25843316,0.1868173,-0.42230257,-0.1574779,-0.056715142,-0.72385925,0.5322676,0.14515689,-0.14908421,-0.08817222,-0.3517648,-0.7423408,0.30817923,-0.019540349,0.5544454,0.0696522,-0.34005985,0.08932731,-0.19266978,-0.01789434,-0.049322538,0.62190294,-0.33020303,0.32127032,0.013784128,-0.24503407,0.121592954,0.66533446,-0.696137,-0.0023944147,0.598185,-0.1929778,0.27922487,-0.15655382,-0.27907085,0.13229683,-0.33790368,0.29000574,0.32373452,-0.7706791,0.089481324,0.036327723,0.048590977,-0.146543,0.29585823,-0.07284796,0.10549864,0.19575003,0.29847643,-0.23348312,0.6043455,-0.7096901,0.1258283,-0.26551774,0.22301026,-0.48544773,-0.16802776,-0.549825,0.17649846,-0.39766055,-0.39304018,0.14030549,-0.2769147,0.32958698,0.31911412,0.33605552,0.14461784,0.18851143,-0.3687062,0.11704958,0.18512316,-0.07331,0.8877287,-0.23240502,-0.19251576,-0.35361296,0.69552094,0.049977094,0.41829824,0.37794694,0.36993828,0.34159997,-0.33297527,-0.019626983,0.2393356,-0.5895603,-0.26443964,0.078931466,0.27891684,-0.17234011,-0.1868173,-0.20714696,0.29755238,0.1269064,-0.56245404,0.081780694,0.12120792,0.31572586,-0.0019516286,0.21638772,-0.4053612,-0.5362719,-0.033594,-0.17126203,0.019549975,0.0525568,-0.026490169,0.012619408,0.42199457,0.30217275,-0.21491008,0.14726597,-0.063378654,0.010555928,-0.15708944,-0.19491844,-0.01708337,0.24076132,0.011557664,0.15174685,0.46325442,-0.0013531515,-0.049332805,-0.048471097,-0.31814274,-0.1300318,0.120553,0.037979797,0.0049359733,-0.014422844,-0.3981093,-0.030806076,0.15372878,-0.17561617,0.049979087,-0.14967875,0.022145906,-0.14554255,-0.107024185,0.014616729,-0.27195516,-0.09659751,-0.41672218,-0.039078474,0.07035849,0.3196938,0.2745403,-0.27109346,0.009171809,-0.049806744,-0.25179118,-0.06691166,-0.08349954,-0.24696563,-0.09754539,0.07294361,-0.14692128,-0.005073308,0.5032377,-0.05493391,-0.093753874,0.07458086,0.21818456,0.12615411,0.28384674,0.25506568,-0.18543965,0.06966912,0.009564963,0.37363675,0.18836945,0.28643188,-0.20215678,-0.05364135,0.1876801,0.031581614,0.31848744,-0.094357066,-0.07608885,0.11900193,-0.13192755,-0.22128671,0.07453778,0.303149,0.031344645,0.18285452,0.08069899,0.15579687,0.0026861066,-0.15002343,-0.029255,0.1914716,-0.33451518,0.035588555,0.07083243,0.1563139,0.13261692,-0.13373715,0.33330882,-0.13494353,0.13571908,0.24696563,-0.20612065,-0.07763993,0.11615829,-0.06811805,0.2145654,0.19388439,0.033585086,0.16906719,-0.118226394,-0.21146324,0.24937841,-0.0020465574,-0.039466243,0.057346694,0.27764246,0.06570526,-0.05635573,-0.08798043,-0.009990431,-0.018752929,0.06936753,0.06833348,0.12839454,0.10573162,0.2700594,0.118226394,-0.093581535,0.07957877,-0.0048336457,-0.24506986,-0.024494061,-0.2704041,0.1356329,-0.24472518,-0.032163266,-0.012236259,0.11807913,-0.24728614,0.18917389,0.04157498,0.33836988,-0.100202404,-0.12869182,-0.13250415,-0.069549225,-0.2293579,-0.03884453,0.34166703,0.050023925,-0.16145724,0.09772954,0.15723278,-0.1828887,0.038535424,-0.11921252,0.1475474,0.14321989,-0.0086034965,-0.26521438,0.12827969,-0.27139655,-0.1182852,-0.016717574,0.06491261,0.15475991,-0.059812333,-0.2893248,0.2738694,-0.020169275,0.0031764032,-0.14260167,-0.22956397,0.07856487,-0.23615827,-0.055639382,0.24955292,0.03243055,-0.13363755,0.19133765,0.21802394,-0.12281878,0.021032201,0.04587673,0.08541676,-0.44305432,-0.058988046,-0.10401473,0.07470102,0.020452624,-0.03186385,0.09901749,-0.06764306,0.16454832,-0.19071944,-0.04033855,-0.13425577,-0.107672505,-0.3511463,-0.120758064,-0.020349588,-0.42121074,0.009897885,-0.30951983,-0.012183994,-0.160736,0.19566515,-0.10066607,-0.1039117,-0.12621896,0.05641215,-0.13425577,0.07042503,-0.2746937,0.065118685,-0.065067165,0.13621345,0.06120332,-0.23595218,-0.038509663,-0.030266793,-0.0053095683,-0.2161693,-0.013240112,-0.06790065,-0.2635658,0.08129532,-0.2139025,0.059297156,-0.15888134,-0.089795776,-0.25099543,0.022616377,-0.20730822,-0.27716655,-0.23718862,-0.22317573,0.37216565,-0.1610451,0.10859983,0.14600186,-0.116327524,-0.011353267,-0.13126773,-0.0073992647,0.14435329,-0.00013000231,-0.19216193,-0.20792642,-0.16269366,-0.07042503,-0.17588226,-0.071300834,-0.12529165,-0.14115918,0.1372438,0.008803129,0.014656856,-0.10308741,0.09056855,0.23059432,-0.07897701,-0.19587123,-0.11818217,-0.26562652,0.059245504,-0.021066055,-0.013760294,-0.09184386,0.016387999,-0.798704,-0.44080314,-0.7475415,0.3062646,0.0071318145,-0.030496188,-0.018727027,-0.3654805,-0.098535255,-0.12459025,-0.21980941,-0.47135854,0.49267626,0.14756602,-0.036565818,0.25794446,-0.0458035,-0.2946583,0.19055676,-0.10753607,-0.063005716,0.10481214,-0.022798121,0.061880615,-0.08373128,0.11416825,-0.38893002,-0.10812823,0.020888409,0.013553038,-0.4656738,0.04376055,0.0793493,0.105049,0.02331626,0.016269568,0.08728423,0.16841002,-0.0031088346,0.31502858,0.33208275,0.08633678,0.7266975,0.0028442135,-0.0007494512,-0.18972774,-0.29821125,-0.0028775225,-0.16604137,0.14507894,0.17184454,-0.054093722,-0.0007665683,0.6551647,-0.43796077,0.07478968,-0.10125919,-0.29134223,0.49409744,-0.17539749,0.11002314,0.44009256,-0.15040839,-0.03662503,-0.0024278518,0.19233324,0.07129594,-0.11973455,-0.085093245,-0.29513204,0.10096311,0.1948203,-0.10558195,0.23437652,0.5679989,-0.081066564,-0.027920296,-0.47585896,-0.12482711,-0.39390415,-0.009452337,0.045833103,-0.48888645,-0.080770485,0.0023778884,0.024633814,-0.051458616,-0.093442686,0.057528246,0.034907773,0.30010617,-0.22205962,-0.044056628,-0.11890552,-0.10191056,0.13394636,-0.058090795,-0.034315612,-0.241364,0.53246933,0.20915055,-0.33421454,0.00089887885,-0.3486632,-0.73238224,-0.1538429,0.29323712,-0.1922148,0.028216375,0.0020059384,-0.07277634,0.20974271,-0.18984617,-0.032746393,-0.36074325,-0.030200107,0.09077797,0.27381432,0.04864586,0.1016737,0.11558943,0.29323712,0.19683364,-0.22330797,0.107052855,-0.8815757,0.024405137,0.17929053,0.3361889,0.15030344,0.0963169,0.1510703,0.02983063,0.04194693,-0.6736048,-0.26011696,-0.06667798,-0.21456583,-0.09915426,0.36502263,0.025152821,0.13465962,-0.098694146,-0.42299682,0.21318549,0.058395952,-0.34661815,0.27668104,0.22284785,-0.08328038,-0.22284785,-0.1794439,0.14171468,0.12292674,-0.08688459,0.00020010104,-0.12676102,-0.1384172,-0.06640958,0.2967726,0.21993381,-0.019315142,0.21180515,-0.19616133,0.06817335,0.1536776,-0.5009092,0.18327817,0.45980582,-0.49968225,0.03147937,0.31594396,-0.04279047,0.60980254,-0.023408227,-0.110733755,0.0045987293,0.006738732,0.12561072,0.16824783,-0.263031,0.036904864,-0.093402855,-0.25597596,-0.050382327,0.30566812,-0.028642008,0.37974623,0.18757255,0.21932033,-0.16380008,0.9030476,0.016084768,0.08305032,-0.22392145,0.5193137,-0.060236406,-0.37698558,-0.11725202,0.14639248,-0.22622201,0.2714664,-0.004694586,-0.31962487,0.029217148,-0.20091583,0.0615784,0.031249313,0.38710803,-0.051801007,0.26901248,0.25382876,-0.07944611,0.25520912,-0.25275517,0.20919785,0.30766195,0.40305862,0.20306301,0.22284785,0.6588812,0.44600245,0.33956307,-0.5217677,-0.06299708,0.47759685,-0.22898269,-0.0017781433,0.06652461,0.42759794,-0.043825723,-0.50336313,-0.0100074485,0.5518283,0.3015271,-0.45857885,0.018270303,-0.052529518,-0.102144994,0.4141013,0.361035,-0.49293393,-0.06652461,0.46287325,-0.15038012,0.104445554,-0.100074485,-0.31318328,-0.08558094,0.03222705,0.34477767,-0.17756553,0.10575148,-0.20980608,0.09350976,-0.21113935,0.100176044,0.34058642,-0.062481247,-0.049694106,-0.11878103,0.08163166,0.033907138,0.36628193,0.3141637,-0.37331182,-0.0141885765,0.17550504,-0.06417812,0.12375044,-0.108963415,-0.19647352,0.037603892,0.7315942,-0.23925894,0.06411751,0.1439917,-0.12181116,0.28046867,-0.007878334,0.12811382,0.28968027,-0.18447421,0.056057375,-0.105145454,0.16253608,0.103266776,-0.09744893,0.026331816,0.040694624,-0.37719038,-0.24241027,0.27877182,-0.08587384,-0.6346301,0.0125826085,-0.036694854,-0.3636154,-0.08660107,0.014226452,-0.12047791,0.017847456,0.25671247,-0.27052987,0.06308727,-0.09569146,0.27877182,-0.16096042,0.14665821,0.09490362,0.73935133,-0.10775136,0.10890281,-0.0873889,0.1132056,0.0047686645,0.104600035,-0.07569261,-0.067814276,0.018241374,-0.20883645,0.17792913,0.08775252,0.103691,-0.27974147,-0.13356806,0.028755918,0.02222599,-0.085328415,-0.20871525,-0.18217131,-0.017892908,0.1673843,-0.112235956,0.048239645,-0.028422603,-0.51778835,-0.36482745,0.18556507,0.20459427,0.027407512,0.22447191,0.04145216,-0.14193122,0.12835623,0.2690754,-0.038664438,0.0236047,0.14690062,-0.035331298,0.12871985,-0.06478415,0.59051144,-0.29380125,-0.21283622,0.43779296,-0.26010624,0.17114165,-0.049148683,0.12665936,0.019377671,0.053936284,-0.020877585,-0.093873374,0.026574226,0.18920122,0.09423699,0.037422087,0.22725964,0.03584642,-0.11253897,0.06272366,-0.11847802,-0.12344743,-0.010711504,0.16447537,-0.27731735,-0.010628175,0.20932128,-0.041365758,-0.14924976,-0.16108106,-0.14828572,-0.41400814,-0.26852685,-0.025152484,0.2460912,-0.042220242,-0.05494985,0.14381611,-0.03599785,-0.02124158,0.018765768,-0.10025938,0.12444783,0.43258768,-0.03867085,0.13207245,-0.10271328,-0.07729788,-0.20612767,-0.011513615,-0.08912919,0.028636146,-0.039306235,-0.08395846,-0.037027612,0.015479295,-0.11542098,-0.1103379,0.40804866,0.38701522,-0.17300001,-0.17773253,-0.06949798,0.13855776,-0.04509043,-0.08908536,0.27711552,0.01290489,-0.05402964,0.24766871,0.093774065,-0.14854865,0.066342965,-0.11682321,-0.0824686,-0.1337376,-0.1994671,-0.16257094,-0.09999646,-0.22926445,-0.029600179,-0.2215522,-0.14320265,-0.024736198,-0.32181156,-0.14416668,0.32040936,-0.45993114,0.023005322,0.10937387,0.072872095,0.04618592,-0.19508512,-0.12698936,-0.10183689,-0.0719957,-0.3067376,-0.035143368,-0.23154308,0.06844631,-0.0064853095,-0.08930446,-0.01932447,-0.15608563,0.029140074,-0.059901472,-0.37474573,-0.27203244,-0.16441137,-0.07090021,0.08601799,0.13119605,0.008769409,-0.008227141,0.080058515,-0.015030143,0.10025938,0.47851068,-0.11945239,-0.39227358,0.0043326686,-0.33373052,0.13785665,-0.18018644,0.24311146,0.1448678,-0.14548126,-0.063144125,0.1694068,0.0563959,-0.24889566,0.06073405,-0.22102636,0.17072138,-0.31076902,0.22733639,0.14618239,0.0073233605,-0.2124377,0.13180953,0.22628471,0.023684526,0.1176996,-0.52197975,-0.00400676,-0.23592505,-0.14609474,-0.09219656,0.12769048,0.31637794,0.058104865,0.052320674,-0.25134957,0.18071227,-0.4781601,-0.12583144,0.7842904,-0.42934394,-0.11066101,-0.23711589,0.09772458,0.12894864,0.17570682,-0.12437674,-0.14100187,0.13029943,0.098815605,0.040315934,-0.29987574,-0.2329596,0.14276828,-0.3863264,-0.025314355,-0.37780604,-0.2508316,0.122610316,-0.09336048,-0.16032858,0.120843895,0.038627446,0.043692913,-0.08416471,0.104010954,-0.051563874,0.15513322,0.50291014,-0.27784744,0.060525857,0.07554042,-0.017846035,0.057148878,0.0094815185,-0.22963458,0.2508316,0.03938077,0.04499175,-0.15108085,-0.11450557,0.05255099,0.114089936,-0.07195563,0.1313385,-0.08868466,0.0943476,-0.32252747,-0.380092,-0.16282235,-0.01748236,0.4114719,-0.07185172,0.089515924,0.045355428,-0.06883842,-0.02992523,-0.06307158,-0.007124127,-0.20241094,0.20417735,0.235869,-0.053616036,-0.5336666,-0.033328187,-0.41957667,0.031379927,-0.14110577,0.014157335,-0.8977569,0.74231195,0.24501282,0.45428163,0.16344579,-0.0011332362,0.1533668,0.13663776,-0.040082145,-0.1517043,-0.10224453,-0.15980904,-0.15108085,-0.15617229,0.026210552,-0.13871591,0.014858708,0.25000036,-0.5016632,0.4438909,0.028470531,-0.009436059,-0.022690702,0.119908735,0.051226176,-0.031327974,-0.2578973,0.03821182,-0.05021308,-0.73981816,-0.16157547,-0.13061117,-0.39256084,0.29987574,0.10806333,-0.13341665,0.380092,-0.190046,-0.06426651,-0.14630112,-0.09185383,-0.24563627,-0.36596063,-0.09668551,-0.3318791,-0.014079405,0.18069436,-0.20833363,0.036887,-0.268288,0.010975182,-0.033328187,0.042160284,0.3110977,0.03579598,-0.11918139,0.15378243,-0.15268835,0.43333498,-0.107296675,-0.19050145,0.4011061,-0.20151034,0.04810401,0.099797875,-0.03288703,-0.045710776,0.04686751,-0.19624522,-0.15205015,-0.0076184627,-0.335691,-0.050776456,-0.2473009,0.01850768,-0.30106887,-0.17247243,-0.010859301,-0.10745622,-0.009203981,-0.21124282,-0.18013078,0.03326596,0.026525015,-0.08280591,-0.0057038753,0.11312021,0.0028020786,-0.49715456,0.27394557,0.074668914,0.043756302,-0.11000901,-0.08862945,-0.21251921,0.1841195,0.07458914,0.169441,-0.12955375,-0.17023873,0.21602929,0.22273035,0.06944369,0.03163058,-0.13577616,-0.04088442,-0.055164054,-0.4295058,-0.069842555,-0.10490344,0.32643718,-0.055842135,-0.07618463,0.025807044,0.05420676,-0.03894989,0.072036356,0.120858334,0.13210654,-0.14096151,0.1997553,0.013751126,-0.20230807,0.104345016,-0.32181025,-0.0276618,-0.30234528,0.14822099,0.07151782,0.3656862,0.11216292,0.15053444,0.13713233,0.047505703,0.27937022,-0.16609047,-0.0099568525,-0.12325157,0.034841504,-0.21890117,-0.07179703,0.03364489,0.038870115,-0.07239534,0.05101578,0.08336433,-0.029556444,0.038670678,-0.065056086,0.019415114,-0.077620566,-0.023693021,-0.13434023,0.09732486,-0.23916389,-0.0105601465,-0.36281434,-0.5364036,-0.095011406,-0.16178265,-0.45024717,-0.09166088,0.096846215,0.02297505,0.07163748,-0.056560107,-0.08918787,-0.17183423,-0.09668667,-0.22751682,-0.71988493,0.07123861,0.046907395,-0.161304,0.15651754,-0.1218954,-0.13306384,-0.26086256,-0.0048512854,-0.08759238,0.15524113,0.08133008,0.32484168,0.07514756,-0.119262844,0.17659949,-0.010729267,0.042300664,0.05740254,-0.055591855,-0.15186632,0.30743104,-0.041915413,-0.04834912,-0.03879487,-0.08398493,-0.08020946,-0.08860795,0.05212459,0.1275184,-0.19231777,0.066533014,0.011104887,0.12482163,0.007888034,-0.23947261,0.08521773,0.20849836,-0.2356201,-0.18260942,0.012761471,0.008528515,0.01549676,-0.08167341,-0.24717765,0.1579533,0.01854025,0.17028137,-0.03128246,0.05732549,-0.030954994,-0.15055646,0.18214712,0.0172015,0.07261999,-0.05355002,0.06553136,0.3148279,-0.18923576,-0.24517435,0.019474486,-0.03812068,0.03151361,-0.092075214,-0.13044631,-0.15949431,0.012713314,-0.07342902,-0.3356315,-0.011268619,0.11357228,0.13275783,0.03307388,0.0111819375,-0.0051527447,0.11904285,-0.29094228,-0.13406768,-0.10124421,-0.10394098,-0.12620854,0.029452512,-0.0026173054,-0.035616543,-0.083060324,-0.009130471,0.14685804,-0.0051912703,-0.029741451,0.14970891,-0.28169623,-0.1755208,-0.070655204,0.19278008,-0.12328062,-0.030203752,-0.038582984,0.1556418,0.34426114,0.13499229,0.0042064697,0.1507876,0.007916927,-0.13753495,0.06060013,-0.47278118,0.03276568,0.036502622,-0.033478394,0.043109693,-0.13322012,-0.06171736,-0.08506363,-0.22098053,-0.031051308,0.4314822,-0.23269218,-0.11989041,0.31220818,-0.14778265,-0.12120026,-0.107947595,-0.32946748,0.036945663,-0.14115632,0.07774384,0.02269134,0.13445292,0.7439986,-0.1986359,-0.2591975,-0.30080473,-0.42346895,-0.06487643,0.033497658,-0.1795274,0.20372123,0.11888875,0.20711145,0.22714455,0.12590034,-0.05035243,-0.22575764,-0.4453851,-0.39350787,-0.24040672,-0.061366983,-0.15499908,-0.34837887,0.17513841,0.23239318,-0.1261081,0.009173415,0.2916513,0.18726419,-0.18188667,-0.24293733,-0.02119375,-0.17819622,-0.035138395,-0.017345134,0.09900961,-0.023618907,-0.10881568,-0.13633592,0.034874793,0.0060332334,0.15394466,0.17556018,-0.02991904,-0.2052947,-0.27140653,-0.18758051,-0.43357563,0.068589725,0.02794201,0.08551309,0.2644474,0.115353055,-0.08082095,0.052061763,-0.045155343,0.107392214,-0.031184338,0.27288273,0.21678782,0.20782529,-0.2595971,-0.08567126,-0.014801357,0.101698376,0.3367803,-0.022564491,0.13359444,0.114931285,0.0050677843,0.18504992,0.1066014,-0.07776314,-0.25411412,-0.6140916,-0.0059113167,-0.0842478,-0.12589721,0.5073847,-0.053432506,0.111557156,0.09152326,0.39962345,0.12083601,-0.08234985,0.43948036,0.07507438,-0.26887596,-0.8447977,-0.104439855,-0.11788365,-0.041201286,0.004616363,0.15373378,0.25031823,-0.02180004,0.029681796,0.057518363,0.19432877,-0.18389006,0.08488045,-0.16839015,0.03321409,-0.04995293,-0.3854943,0.3989908,-0.38718137,-0.23471288,-0.0026393337,-0.11630203,-0.013259275,0.133489,0.024752403,0.19696482,-0.29671252,0.079450205,0.18547168,0.1342271,-0.029787237,0.021483716,-0.52172476,-0.06590097,-0.10881568,-0.13243458,0.6162004,-0.24968559,-0.03339861,0.4027867,-0.35217476,0.21404634,-0.03735267,0.100591235,0.0018320469,-0.079766534,0.0071370746,-0.15057053,0.083193384,-0.025121449,0.024449259,0.1915873,-0.39350787,0.3669366,-0.13749579,-0.06057617,-0.11640747,-0.074045934,-0.030448794,-0.025132837,-0.018149747,-0.073102266,0.1348806,0.070900396,0.16834912,0.174766,0.36916018,-0.069201805,0.13878107,-0.00526091,-0.032053016,-0.21377066,0.083545454,-0.02483401,0.010136492,0.020194344,0.108143546,0.10990505,0.0047183046,-0.19439416,0.15023082,0.07278772,-0.028734475,0.041552536,0.13639046,-0.15274726,-0.2081087,-0.08870413,0.14469469,0.008563723,0.09178676,-0.11871255,0.038438458,0.10600458,0.14985336,-0.18973877,0.022584952,0.05300229,-0.14570126,-0.0041678357,-0.22597535,0.2350345,0.32411608,-0.18244112,-0.041395262,0.18835473,0.10858392,0.09983933,0.03513564,0.004120653,0.026642695,-0.18734816,0.22849177,0.18533501,0.17124301,-0.018904675,-0.013069704,-0.18898383,-0.24384199,-0.021641292,-0.008980507,0.05756332,-0.04919619,0.05517271,-0.073479734,0.31782502,-0.100279704,-0.054480694,-0.11978203,0.23956406,-0.119467475,0.19200355,0.1266393,-0.120222405,0.031942923,0.1149379,-0.006106273,-0.18269277,0.07278772,0.026862882,0.025620395,0.24019317,0.4290512,0.13878107,0.21251245,0.20836034,0.118397996,0.014618881,-0.08813793,0.2556692,-0.05822388,0.014618881,0.2087378,0.048283987,-0.06092904,-0.07410884,0.2409481,-0.08813793,-0.08109193,-0.042936575,-0.070711665,-0.32789072,0.23151149,0.27076778,-0.020823453,-0.34424752,0.040608875,-0.030260062,0.25994715,-0.007529628,-0.096190505,-0.048283987,-0.0027425147,0.31606352,0.26296684,-0.023387063,0.09166093,0.08505531,0.103676885,-0.25478846,-0.011135199,0.014029093,0.24774246,-0.0051193605,-0.08096611,0.07499862,-0.13811526,0.08099038,-0.027826162,-0.37778586,-0.0054205162,0.023141922,0.10429733,-0.032980096,-0.09023192,0.13781059,-0.076978944,0.15091123,0.15334855,-0.028181605,0.032345373,0.20158733,-0.053925883,-0.07510017,-0.091298245,-0.08332615,0.24474835,-0.028994048,-0.22240618,-0.01675663,-0.10099678,0.0461569,-0.11648397,0.33635128,0.0058203903,-0.48584074,0.02132662,-0.15994966,-0.26343453,-0.45253056,-0.13943547,0.044557404,-0.08297071,0.17670628,0.14827079,-0.086575925,0.082615264,0.10907043,0.13496704,-0.36072454,-0.4035809,-0.14827079,0.01830535,-0.050244503,-0.037550084,0.15964499,0.10886732,-0.10038745,-0.20839155,-0.1637072,0.0051761484,-0.008422745,-0.1161793,-0.11049221,0.0033195901,-0.23763949,-0.092618465,-0.054382883,-0.26424697,-0.34589747,-0.059612982,-0.053468883,-0.04090141,0.05423055,0.1075471,0.03892108,-0.092110686,-0.053418107,-0.044151183,-0.01362111,-0.17721406,-0.07596339,0.6755461,-0.15517655,0.071545735,-0.05874976,-0.01362111,-0.00094970106,0.10013356,-0.11242176,0.08581426,-0.030212712,-0.014890551,-0.256935,-0.17284718,-0.41068977,-0.011818502,-1.0846109,0.06905763,-0.20250134,-0.018571932,-0.39647204,-0.06159331,-0.051310834,-0.071951956,-0.19041625,-0.02874016,0.17822962,0.2853705,0.055246104,0.063878305,-0.32903928,-0.2930887,0.1380137,0.2492168,-0.1950878,-0.28293318,0.03828636,-0.34549126,-0.2644501,-0.08398626,-0.19204114,0.020641122,0.004785795,-0.06453842,-0.22890572,-0.083732374,-0.041891575,-0.31319666,-0.2246404,-0.4435937,-0.28801093,-0.89937407};

#endif
