#pragma once

#include "parameters.h"

#ifndef KERNEL32_H
#define KERNEL32_H

static float bias32[FEATURE_MAP32] = {0.91281486,0.058949232,-1.3046362,-0.2538064,0.2050796,-0.35990578,0.5020668,0.8538604,1.3962854,-0.14257735,0.4415963,-0.20524587,0.72862905,-0.2661978,-0.4582619,0.09225261,0.94578743,0.32434744,0.49353826,0.788012,-0.27862972,-1.1495532,-0.50089526,1.195534,-0.6357906,0.54282105,0.7518922,-0.49760637,-0.43209696,0.95205355,-0.16549374,0.53052986};

static float kernel32[FEATURE_MAP32][IN_CHANNEL32][KERNEL32][KERNEL32] = {-0.31125683,-0.2215351,0.16409421,0.050676156,0.08347126,0.00020243511,-0.074965894,0.13197163,-0.2577719,-0.17975992,-0.35002548,-0.09866224,-0.08315478,0.0070020915,-0.28293198,-0.0052218987,-0.22644052,-0.16536014,-0.21884504,-0.015082189,-0.050161876,-0.02233153,-0.1636195,-0.11828392,-0.09826664,0.16829593,0.40386793,0.44723773,-0.109059155,-0.16015089,-0.41486907,-0.32241735,0.21684895,0.13550414,0.4315823,0.056380726,0.019529628,-0.14026424,0.28074005,0.34843925,0.24265926,-0.48447227,-0.55894136,-0.5644419,-0.21610849,-0.13148451,0.1690364,-0.36515248,-0.3945593,0.04976948,0.08041438,0.15634777,-0.16901144,0.23028418,-0.029905772,-0.30840936,-0.20456716,0.027080797,0.15420468,-0.23242727,0.40835503,0.4231618,0.38653454,0.50031286,0.069893785,0.34172457,-0.4360203,0.21294467,0.47420618,-0.011823495,-0.02929694,0.18109065,-0.33003503,-0.123617016,0.1852794,-0.22263402,0.14685968,-0.21306844,0.09312366,-0.050359927,-0.35073766,-0.008956002,0.54955155,0.093545675,-0.39687747,-0.30891174,-0.5094136,-0.09621841,-0.40400478,-0.42501152,-0.1231333,0.2670858,0.33423236,0.337796,0.2580829,0.22525986,0.01607157,0.385999,-0.09921937,0.0717418,0.05488139,-0.0209806,0.052810393,0.1460052,0.043961592,-0.39838427,-0.018591894,0.117670216,0.25605038,0.15993735,-0.7892377,-0.4751994,-0.028029045,0.32891178,0.4371684,-0.18403621,-0.28862152,-0.104961835,0.48084757,0.12567179,0.11851744,-0.23458734,-0.12642488,-0.34849212,0.05761134,0.21164952,-0.057321746,0.063166715,-0.0334975,0.029344495,0.11430168,-0.08811894,-0.11683109,-0.16748752,-0.13228095,0.2997001,0.5288504,-0.04132498,0.015962586,0.08176125,0.13173406,0.6158071,0.11129374,-0.13576743,0.04737504,-0.019790871,0.22422817,-0.04583689,-0.047956116,0.15860042,0.055769306,-0.02204503,0.1776382,0.12133641,0.030050108,0.06730656,-0.1261643,0.18615802,-0.1588946,-0.18317609,0.012060867,-0.24608074,0.2852719,0.37600794,0.26454034,-0.14838682,-0.2993296,0.29024178,0.6895372,0.2896738,0.26908424,-0.1584686,-0.0042022225,-0.009442798,0.24650672,-0.10562897,-0.15206093,-0.10047816,-0.13840008,0.020080702,-0.2594815,0.09547664,-0.09129628,-0.046282656,0.3123333,-0.32158983,-0.057890646,0.3009866,-0.19871683,0.13384646,-0.20916775,-0.46670836,0.050500352,-0.07237264,0.14459598,-0.3505538,-0.30725712,-0.25052354,0.33263794,-0.1619893,-0.2550028,0.002430755,0.10192726,-0.039699927,-0.13110209,-0.042954396,0.11014421,0.051656067,0.10045005,-0.4280206,-0.1813271,-0.20920938,-0.18806687,-0.09186378,-0.29858038,-0.064581625,-0.069336385,0.0004464799,-0.1892671,-0.3680091,-0.14448927,-0.287686,-0.3513905,-0.34031147,0.054102693,0.07290832,-0.16161805,-0.44687533,0.09834307,-0.09092748,0.2551791,-0.06611648,0.30992967,0.4529741,0.27624768,0.10520421,0.3631555,0.22981368,0.033248827,-0.15995476,0.033248827,0.10915457,0.23217003,-0.40418378,-0.028293556,0.07526467,0.3695315,0.15163821,0.19710195,0.05409215,0.046238218,0.03967559,-0.12678866,0.14484422,0.07009021,-0.24464948,0.22292951,0.29155394,-0.13711564,-0.32246825,0.14804225,0.10973249,-0.007537029,-0.11912671,-0.13085282,0.26663595,0.37470278,0.1816216,0.31713822,0.39015996,0.14937477,0.09900575,0.28116035,0.16496517,0.01056017,0.13779071,0.28312668,0.2306692,-0.15898928,-0.01923366,-0.055915724,-0.47355452,0.06399992,-0.25222707,0.15970787,0.4480444,0.5288864,-0.07688973,-0.26462284,-0.034447677,0.65248483,0.76746017,0.29857647,-0.42145634,0.14830017,0.14425807,-0.428283,-0.1337486,0.20372187,-0.14497668,0.109410204,-0.17579809,0.036235176,0.22490287,0.014019341,-0.24181509,-0.28009012,0.1769849,-0.19033666,0.2659966,-0.016198274,-0.104885444,-0.18366079,-0.36613476,-0.07113518,0.054445483,-0.18796302,-0.30234304,-0.44891563,0.16274305,-0.086415514,-0.032656163,0.011478799,-0.111264616,-0.29566717,-0.09746301,0.34603903,-0.3092026,0.14776425,-0.72556573,0.22450678,0.38901484,0.015409551,0.0853935,0.10653258,0.91811967,1.3863887,-0.14357829,-0.66472983,-0.36752695,0.47831523,0.10695118,-0.15739195,-0.6753342,0.008371912,-0.3295743,0.041022368,-0.072975166,0.3376671,0.3147839,-0.05476094,0.056467094,0.0916729,-0.19961986,-0.016676001,-0.009917012,0.2840088,-0.02997251,0.00848975,0.13170187,0.020785533,0.35172993,0.21589394,-0.66513705,-0.26878467,0.19502638,-0.29319578,0.5031838,0.5559433,0.44071236,-0.08478267,-0.031088071,-0.10138484,0.3047451,0.06778676,0.28824082,-0.20223348,0.7002178,0.15779933,0.1763955,-0.12632887,0.47992453,0.55788547,0.0891365,0.16209075,-0.32239342,-0.23352513,-0.4223479,-0.15019993,-0.20241228,-0.11524268,0.23549204,-0.2349556,-0.04774212,-0.17737897,-0.1478754,-0.14260052,-0.3579765,-0.38587075,-0.14376278,-0.2044693,-0.01652872,-0.3136138,-0.2999511,-0.037847236,0.06976611,-0.09414696,-0.2903715,-0.1105579,0.23572074,-0.22331439,-0.22331439,0.12861778,-0.23572074,-0.07483073,0.10977268,-0.13913962,0.077500455,0.08739413,-0.14526428,-0.2858173,-0.13694103,0.017402269,-0.056221202,-0.25079682,0.21828552,0.35762477,0.015405884,-0.38924113,-0.26334357,-0.11472769,-0.045957338,-0.44187197,-0.22813013,-0.09522777,-0.28984833,-0.23759612,-0.37125576,-0.035355438,-0.1766352,-0.147196,-0.44793022,0.09182002,0.14085379,0.23267381,0.13981254,-0.183924,-0.051589597,0.44300792,-0.26504746,0.052235622,0.083264105,-0.4599516,0.054017372,-0.07909221,0.049628187,-0.12950262,0.0598841,-0.16496375,-0.23154026,0.08943503,0.37686133,-0.1844326,-0.3245388,-0.32384348,-0.25361654,-0.1042105,0.1454949,-0.48394,-0.37199414,0.029572664,0.27308542,-0.1191598,-0.12107192,0.14471267,-0.48657057,-0.11010756,-0.3346126,-0.21335128,-0.102862395,-0.26521146,-0.51707655,-0.4499634,-0.042732224,0.038847476,-0.21773653,-0.15596189,-0.25472504,-0.04711746,-0.16492303,-0.19638233,0.12087999,-0.1566292,-0.25110245,0.4636911,0.17378883,-0.2234564,-0.038346987,-0.045187,-0.103529714,-0.0832273,-0.34537104,0.14776184,0.10196951,-0.13559671,0.21580744,0.35170087,-0.76709557,-0.07165559,0.35051402,0.3414149,0.3918557,-0.3414149,-0.530914,-0.17021292,0.4177684,-0.011472806,-0.16566336,-0.3977899,-0.27297366,0.1073103,-0.087282345,0.32123858,-0.03652012,-0.14924538,-0.16179793,0.019348506,0.7929321,0.2883834,-0.16571042,-0.014437511,-0.5285127,-0.0696913,-0.22594653,-0.14940836,-0.026042538,0.2590397,0.39809626,0.1323727,-0.048091073,0.23507568,-0.2970235,-0.12006466,-0.07584532,0.096345164,-0.116315186,-0.41015977,0.9539964,0.46982533,-0.28887248,0.28844374,0.23364908,-0.240209,-0.068830974,-0.11074696,-0.15820995,0.2417525,0.37758154,0.12811147,-0.13389963,0.21609163,0.29635423,-0.15637702,0.2541006,0.36600518,-0.40054128,-0.6721993,0.1052482,0.83195275,-0.21628457,-0.030508472,-0.013867487,0.7424291,0.07481208,-0.053974673,0.20040585,-0.19094178,-0.080693655,-0.1014482,0.0575731,0.08119177,-0.4121022,-0.1731759,-0.21053407,-0.012764043,-0.35797435,-0.40811732,0.010865003,-0.25038278,-0.0025022195,-0.071810715,-0.31746146,-0.29239,-0.31380868,0.12635365,-0.2065492,0.036527995,0.0069942805,-0.306171,0.28458628,0.08351062,0.10250868,0.5655763,-0.14244503,-0.032882813,-0.09078647,0.20437062,0.87504256,0.13031861,-0.31172988,0.3206226,0.23783955,-0.25368473,0.14454694,0.012742848,0.12619562,-0.11948567,-0.44883928,0.2449537,-0.0017191728,-0.21843727,-0.22846177,0.042967953,-0.21682042,0.11835387,-0.5369097,-0.38861582,-0.032245576,-0.3457012,-0.03820594,-0.33711827,0.06663688,-0.6341829,0.0125763705,0.15473108,0.037162878,-0.0040567736,0.6255999,0.24461338,0.094412185,0.2303085,-0.4846969,0.25915667,0.28657436,-0.4393981,-0.46633896,0.023588145,-0.14948596,0.30445546,-0.44750422,-0.045136843,-0.3432729,-0.021214062,-0.39694092,-0.37709388,-0.02360634,0.05731341,0.039845984,-0.12718311,-0.079084404,-0.17102888,-0.25821412,-0.22844355,-0.4811896,0.10045036,-0.25092337,-0.028226348,-0.044478647,0.0022071612,-0.04888348,0.08921045,0.10313376,-0.22257045,-0.2841368,-0.01837877,-0.3616474,-0.093724646,0.58746994,0.48780987,0.08737511,0.6923753,0.20967267,1.0115085,0.045205925,0.30671012,-0.45882288,0.53777796,-0.35778245,-0.5032696,-0.5259071,0.08716807,0.206912,0.016581258,-0.104422234,0.45716646,0.0413755,0.32106557,-0.1539072,-0.14590126,-0.07364079,0.1643616,0.34298107,-0.18125981,-0.056041364,-0.099739105,0.21056767,0.32529074,-0.28040484,-0.017079744,-0.013606038,0.1926133,0.19644181,-0.48027912,-0.23578298,-0.069243096,0.13716602,0.5127554,-0.3363802,-0.07947444,0.029621392,-0.16832212,0.18508832,0.05244389,-0.18931288,-0.039539196,-0.087746434,0.06482876,-0.44893524,-0.49759606,-0.011949369,0.24864104,0.13271844,-0.47122502,-0.41502964,-0.15885401,-0.23263007,-0.1519473,0.050544456,-0.16073765,0.018542124,-0.20610209,-0.45898134,0.09378979,0.21614818,0.021308726,-0.23372887,0.11152744,-0.1557146,-0.016933177,-0.044304885,-0.20096923,-0.51418805,-0.18669695,-0.77996117,0.44784123,0.3035754,-0.095036075,-0.0051803337,-0.6503534,-0.15940602,-0.17753568,0.39210215,0.26693034,0.013814224,0.31167588,-0.47715726,-1.1047522,-0.99674565,0.043082055,-0.4177537,0.83936477,1.278334,1.4850893,1.3022498,0.78150415,0.3028752,0.1976592,0.16796242,0.014638835,0.19063415,-0.18919721,-0.34422716,-0.36785686,-0.28435463,-0.25833002,-0.31884122,-0.32027814,-0.10577481,0.06577996,-0.21138996,-0.17466815,-0.20133138,-0.1676431,-0.04227001,-0.08222495,-0.23230544,0.24555722,-0.27269945,0.18919721,0.040872984};

#endif
