#pragma once

#include "parameters.h"

#ifndef KERNEL37_H
#define KERNEL37_H

static float bias37[FEATURE_MAP37] = {-1.5345596,-0.51589537,-0.05691863,0.7465628,0.033802688,-0.9487551,0.022333339,-0.4388027,-0.388044,0.2550512,0.0592252,-0.33069602,-0.55258495,-0.30928355,-0.04051666,-0.38362384,0.39663196,-0.7985057,0.5054079,0.15192272,0.4157188,-0.34888038,0.2817219,0.13174027,-0.076664865,-0.25235444,0.02915169,0.615284,-0.16976734,0.32461363,-0.16058907,0.7275045,0.18380158,0.1528424,0.07553232,0.019356303,-0.39140278,-0.13596907,0.5979346,-0.08179507,-0.94647944,-0.50804794,0.8627016,-0.6180327,-0.39383113,0.08744216,0.23423693,-0.4106172,-0.023873538,1.5901077,-0.030666381,-0.030367747,-0.23428018,0.3818289,0.28056225,-0.03854662,-0.46164674,-0.1534642,0.17052151,0.53951716,-1.0531424,-0.8169938,-0.36811388,0.6231625};

static float kernel37[FEATURE_MAP37][IN_CHANNEL37][KERNEL37][KERNEL37] = {-0.1417395,0.26161286,0.1960144,-0.12117491,0.2362325,0.27462843,0.2996183,0.23701343,0.37510857,-0.05954621,-0.010192814,0.10523084,-0.026193824,0.18534164,0.139657,0.26200333,0.3045642,0.44825605,0.25900975,0.021622106,0.06449212,-0.14967899,-0.21358542,0.4011397,0.09364699,-0.016676193,0.14069825,0.04223551,-0.12956995,-0.13926654,-0.14069825,0.24104826,0.060489837,0.011339811,-0.10933074,0.07529504,0.013861576,-0.08342977,0.36443582,0.07086975,-0.08661858,0.26083192,0.10854981,0.17271654,0.052810654,-0.028536625,0.24690527,-0.064134195,0.17740215,-0.28425995,-0.00822421,-0.16152316,-0.16230409,0.0771823,0.06615161,0.06579368,0.39957783,0.23779437,0.1761006,0.062246937,-0.040868875,-0.06101046,0.05710579,0.11154339,0.17693333,0.1559902,-0.27124962,0.051707864,-0.41655162,0.15223488,0.31891328,0.30158105,0.16350085,0.07131496,0.19672097,0.30620298,0.2638834,-0.11894253,0.288293,0.24091819,-0.0013845484,0.23932941,0.45237157,0.18834372,-0.015905945,-0.29349267,-0.10724326,-0.15339036,-0.07373425,0.39517516,0.020437606,0.029464815,-0.0053486223,0.027876027,0.007014143,0.045461033,-0.3862202,-0.12717535,-0.08305034,0.0829059,0.13201393,0.27558267,0.5630091,0.07575635,0.10637665,0.48241413,0.13938013,-0.46970382,-0.3899755,0.20206508,0.056077033,0.09576065,-0.088683315,-0.14407428,0.017458625,-0.3348012,0.1837218,0.05524653,0.03433951,-0.2732717,-0.04715815,-0.08673344,0.024391523,-0.13165283,0.20350944,-0.13042514,0.034195073,-0.05336887,-0.060194407,-0.11205781,-0.12695974,-0.2527461,-0.085539415,0.04819659,0.11458058,-0.069288105,-0.11375921,-0.13611211,0.05447418,0.34497377,-0.1351734,-0.23714015,-0.1700228,0.24993,0.13611211,0.06383188,0.061778467,0.03399869,-0.05538355,0.3780631,-0.10214275,-0.055559553,0.17718041,0.29146764,0.07926183,-0.054708853,-0.03816419,-0.28137657,0.011711801,0.10026534,-0.10102804,-0.08882488,-0.09651052,-0.059138365,-0.07181087,-0.060898434,0.010237742,-0.19360773,-0.16884941,0.066354655,0.18339933,0.06107444,0.057994317,-0.40035734,0.026987744,0.25016466,0.038574874,-0.102436095,-0.0035164738,0.040540285,0.025755696,0.05729029,0.018656746,0.07650439,0.25626624,0.12825046,-0.1694361,0.04218302,0.241951,0.029437177,-0.23432404,-0.3046095,0.2406233,-0.28910267,0.5332732,-0.052026656,-0.3195501,-0.09644146,0.3242798,-0.29604942,0.31836766,-0.19583897,-0.019879503,0.13716118,0.3547272,0.013930433,-0.02141296,-0.37985373,-0.03671057,-0.013801105,-0.08594745,-0.030336566,0.14129966,0.29767525,0.26944488,-0.017514655,0.074899174,-0.15933163,0.12415452,0.06259457,-0.007893604,0.3455634,-0.04389749,-0.09459392,-0.29368457,-0.17825042,-0.121346265,-0.06758292,0.06045143,-0.0467427,-0.17632899,-0.3242798,0.14203869,0.18800542,0.17751141,-0.2313117,-0.21446216,0.13863921,0.1773636,0.03715398,0.16125308,-0.20721981,-0.12925373,-0.053837243,0.058899496,-0.27964327,-0.116468765,0.09636756,-0.07434491,0.21520117,-0.029542126,-0.08195677,0.37660205,0.13693948,-0.07408626,-0.2512651,0.0425618,-0.24966873,-0.29813623,-0.0965956,-0.019227479,-0.18816796,-0.23894343,-0.06723678,0.008379142,0.028832734,-0.17717113,0.25727147,-0.09265846,-0.16821074,-0.33397776,-0.08736369,0.0041556302,-0.1569424,0.13230135,-0.17187636,0.11438059,-0.08043976,0.22061539,-0.30058,0.27478495,-0.041543573,-0.38774002,0.104537755,0.22265184,-0.19590646,-0.16780345,-0.14051503,0.16685311,0.12327309,0.025964733,-0.1432303,-0.055934485,0.06761013,0.040762935,0.12401979,0.34348118,0.1528695,-0.0138139175,-0.35054088,-0.056239955,-0.2656888,-0.25333434,0.2886328,0.34918326,0.1058275,0.13474509,0.3415805,0.01676677,0.13813917,-0.04704199,-0.16793922,0.04873903,-0.2757353,-0.113158725,0.18368776,0.007810633,-0.2405726,0.2498045,-0.105623856,-0.32388896,-0.27778134,0.19851258,0.14263834,-0.06109827,-0.025183162,0.30049446,-0.021577455,0.062063575,0.01605533,0.16762276,0.026105883,-0.043069735,-0.20544009,-0.041536603,0.3184378,-0.04534105,0.23530783,0.059338003,0.18477115,-0.012634168,0.42087394,0.07892806,0.006278046,-0.04820858,0.11532582,-0.039151724,-0.021236759,-0.11674539,0.0956222,-0.17648087,-0.07904162,0.12935117,0.09119314,0.041451428,-0.09607646,-0.1507015,0.22565475,0.17920645,-0.08091546,-0.3225262,-0.044688046,0.14218408,0.2343993,0.11021537,0.15354063,-0.18942735,0.15762898,-0.20952845,-0.29822314,-0.08659373,-0.044943567,0.14513677,-0.029413478,-0.026219448,-0.110328935,0.2241784,0.066946894,0.1572883,0.123218626,0.10686519,-0.04190569,0.04659027,-0.19794476,0.08391522,0.05699957,0.15527572,0.14651111,-0.212601,0.016152347,0.24825165,0.17623971,0.112577856,0.18370149,0.05640737,-0.04050671,0.067866504,0.05288376,-0.0022337171,-0.0066030673,-0.19909877,0.005681451,-0.37545693,-0.0777563,-0.036183625,-0.35887524,0.120868705,0.1511303,0.07497294,-0.030069126,-0.113347724,0.12744217,0.16285592,-0.0013870513,-0.078763045,-0.064135626,0.09102166,0.014020414,-0.06958389,-0.094752535,-0.23652603,0.08083576,0.11245942,0.069406234,-0.07544671,0.15764454,-0.02897355,0.35271633,-0.13881247,0.12566556,0.2108244,0.04785003,0.20253354,-0.011081605,-0.3136309,0.13916779,-0.057266064,-0.063247316,-0.07935525,0.1994541,-0.12779748,-0.025953311,0.14366853,-0.058776185,0.029254846,0.15882894,-0.08924504,0.22018121,0.20984502,0.05694569,-0.18768667,-0.08309388,0.08685289,0.02072401,0.11389138,-0.3869801,-0.010634039,0.21947336,-0.4004334,-0.25482124,-0.15695511,-0.010749447,-0.14191908,-0.060506854,0.040623676,0.13506053,0.3331669,-0.35374254,-0.19480899,0.20509681,-0.06838758,0.048636302,0.04309671,-0.007654035,0.26906592,-0.09997645,-0.0006744165,0.29702765,-0.0034601842,-0.1677705,0.12800415,0.22052853,0.035084084,0.12747657,0.23398182,0.14046822,-0.06924491,0.2983466,0.37352678,-0.10043808,-0.14271045,0.0114996,0.17093599,0.06545292,-0.016025249,-0.23173961,-0.13064206,-0.12239861,0.20127185,0.027021999,-0.28937775,0.08803995,-0.06541995,0.02949503,-0.2822554,0.3437185,0.23543267,0.1760799,0.1544491,-0.24400584,0.102548406,0.014162231,-0.09571138,0.024597041,0.37318298,0.10792013,-0.13220707,0.072142616,-0.11738681,0.119345434,0.17562321,0.114318304,0.048312705,-0.022311982,0.041914534,0.22276074,-0.041914534,0.075864,-0.09009666,-0.27002883,-0.08644056,0.30632865,-0.21087842,0.042795915,0.28178057,0.020826692,0.120585896,-0.22458878,0.34471768,-0.06594031,0.18398,0.02879176,-0.057387657,0.24717824,-0.18267424,-0.14768018,-0.003343941,-0.18045448,-0.006704204,0.31259626,-0.4671969,-0.2427387,0.16152112,0.07906309,0.24208581,-0.037638206,0.24091065,0.015954617,0.39276922,0.010519438,-0.02632716,-0.17732067,0.092577584,0.003827476,-0.11810497,-0.21022555,-0.15460065,0.004961845,-0.1724894,-0.050271325,-0.09120655,-0.013881741,-0.14846364,0.011645647,0.14532983,-0.26467526,-0.10730761,-0.023162402,0.02277521,-0.052409258,-0.16162518,0.048509676,-0.057912923,0.025748296,-0.10686511,0.3033376,-0.2316517,0.03150087,0.083246365,-0.3037801,0.01887563,-0.021931684,-0.07843412,-0.04256351,0.085790776,0.016082313,0.05050095,-0.12688848,-0.05639181,-0.19702563,0.0909349,0.21992528,-0.0370875,-0.037723605,-0.22313346,-0.02180723,-0.07174122,0.0018633634,-0.20797764,-0.08225073,-0.0037059844,-0.12578222,0.010537165,-0.25798076,0.016912011,-0.19226868,0.0511094,-0.022318877,-0.015363242,-0.034874972,0.17766601,-0.027476832,0.057525728,0.1814273,0.09912126,-0.28386736,-0.012113591,-0.012293359,0.0611764,-0.29736376,-0.11914463,0.14193368,-0.0060567954,0.22357596,-0.12124654,-0.15067317,0.12268468,-0.07898725,0.11825962,0.09336869,0.09320163,0.33072314,0.021636093,-0.17035452,-0.20387857,0.14324996,0.2206406,-0.06371948,0.06883131,0.22254267,-0.14146677,0.09153732,-0.16179518,-0.109904215,0.23122089,0.11477828,-0.09207227,-0.18806757,-0.14324996,-0.047403254,0.024786403,0.21457773,0.15169041,0.09593586,-0.058399618,-0.08636605,0.21683645,0.12553689,-0.08678213,0.02927411,-0.21754973,-0.33904472,-0.15073937,-0.028382512,0.08999188,0.13730597,-0.11370837,-0.09302331,-0.20352192,-0.36757582,0.42107165,-0.07661792,-0.10687279,-0.12850888,-0.07055506,-0.024414904,0.3216883,-0.121316664,0.07168442,0.3350028,-0.14669746,0.056527264,-0.19210948,0.14515203,-0.007727176,-0.046868294,-0.26747918,0.010780896,-0.06865299,0.13088648,0.08589053,0.03842784,-0.011835953,0.1564456,-0.19627301,0.12644382,-0.16555086,-0.011202185,-0.15468407,0.0064311945,0.25704655,-0.28226823,-0.19063838,-0.31178296,0.20754229,0.29863548,0.084251165,0.18983343,-0.022152824,0.085928135,-0.07579922,0.2903177,0.15039101,0.10766172,0.14958607,0.28468308,-0.022236673,0.12805372,-0.15213506,-0.08646477,-0.10665553,0.0895504,0.1475737,-0.37591046,0.17601517,-0.03776545,-0.14703706,0.108131275,0.29407412,0.09947809,0.16447759,0.012854004,0.1475737,-0.07304898,0.03266745,-0.2282026,0.2536926,0.18849185,0.072646506,-0.14515886,0.027334673,0.023242857,-0.16514838,0.030822778,-0.015855787,-0.19989528,-0.011914899,0.11906514,0.18715027,0.08579398,-0.17373449,-0.047927912,0.24537481,0.22766596,-0.058023293,0.0026391374,-0.0066366238,-0.27743855,0.022429598,0.23523147,-0.22033484,0.28764057,0.23523147,0.1885102,-0.203136,0.039137535,-0.42116863,-0.37349936,0.27287936,0.38460416,0.037851006,0.16250879,0.15302911,0.37187427,0.06100851,0.05633638,0.14002842,-0.13291866,0.037681725,-0.5219241,0.20110463,-0.09642188,-0.3583319,0.1416535,-0.10603699,0.09229145,0.097031295,-0.15993574,0.4217103,0.3166213,0.19257292,0.071977854,-0.08484313,-0.07014963,0.006043296,-0.11301132,0.24322149,0.06764428,0.36104035,-0.10678182,-2.9095e-05,0.1952814,0.14260146,-0.028388254,0.08423372,0.30605823,0.11653235,0.077597946,0.18823935,0.049599037,-0.03571808,0.0014103139,-0.012289727,-0.27667123,-0.21965772,-0.08443686,0.14530994,0.106307834,0.186208,0.122829564,-0.18160358,0.07455091,-0.2789935,-0.03297196,0.038099706,0.013860077,0.0953871,-0.008435969,0.34692234,-0.041683614,0.07399393,-0.09963266,0.08209907,0.00522079,-0.012309347,-0.12460974,-0.007519316,-0.23356056,-0.20555094,0.0726155,0.18724543,-0.15901527,-0.13332139,0.1541632,-0.03570124,0.1635365,0.1337625,0.084084004,-0.16860911,-0.0073883655,0.15405293,-0.39279637,0.021255335,-0.09781314,-0.30479765,-0.017519798,-0.33501273,0.05461325,0.037741315,-0.16463925,0.03352333,-0.062415145,0.09648985,-0.0958282,-0.05017472,-0.013605068,0.056625754,-0.046811357,-0.017326819,0.06588878,0.27502364,0.21580642,-0.02133804,-0.055081915,0.01164081,-0.18294474,0.08595867,0.020331789,-0.011103224,-0.047031906,0.09064531,0.13530633,0.098915875,-0.12174261,0.25076333,-0.2257311,0.06040152,0.044065166,0.016090695,-0.12166285,0.04759652,0.043512434,-0.026085965,0.14358796,0.16704844,0.012060344,0.062059723,0.2667862,-0.10802875,0.12006606,0.15120341,0.2412376,-0.06577532,0.13351592,0.28177142,0.15218604,-0.19382532,0.28570196,0.11257345,-0.04817996,0.37733293,-0.19861569,-0.38028085,0.19775587,0.13118215,-0.3345882,-0.084998176,0.32844672,0.082173094,0.12405803,-0.076891415,-0.096974075,0.10446669,-0.19505362,0.26039904,-0.20721376,-0.11091525,-0.0050053117,-0.09390333,0.06331873,-0.14186834,0.18866646,0.07578594,0.017334346,0.12676029,-0.014555323,-0.10802875,0.22318162,0.023690784,-0.021740863,-0.26285562,-0.021249544,0.16594297,0.21900542,-0.244554,-0.13683233,0.16139828,0.005661683,0.0053277398,-0.42941275,0.045296416,0.013081169,-0.0021174424,-0.023924768,-0.32679972,-0.17395659,0.075044595,0.004184683,-0.16833398,-0.16844873,-0.005590335,0.068446636,-0.355716,0.09099444,-0.19243087,-0.1656948,0.27837643,0.11015721,-0.073266014,-0.0041810973,0.118419,-0.23867396,-0.11210791,-0.11910748,-0.15972795,0.21377383,0.073495515,-0.073266014,0.057488292,0.3394219,0.07556096,-0.16133441,0.16305561,-0.2999489,-0.037809167,0.10556732,0.107518025,0.02541648,-0.0010085193,0.17326811,-0.0399033,-0.22674026,-0.09432211,-0.06408625,0.12163191,-0.19541429,-0.45072657,0.078257516,0.16844873,0.015992876,-0.04994367,0.07022522,-0.22754347,-0.022935074,0.024369413,-0.14412235,0.19713551,0.13895872,-0.093748376,0.015562574,-0.13586056,-0.079232864,0.038153406,-0.15754776,0.028233161,-0.061323013,0.01658881,0.12849745,0.11328373,-0.01764207,-0.06799365,0.014350638,-0.14476444,-0.14476444,-0.13165723,-0.15845679,0.11392739,0.1515521,-0.099825434,-0.44587916,-0.34710696,-0.05172666,-0.11720419,-0.08601606,-0.17343646,-0.03970197,0.2471645,-0.35319245,-0.0099766925,0.24341959,0.15798868,-0.25137752,-0.047776945,0.28414556,-0.3426599,0.14078547,0.1364554,0.14534958,0.081686,0.14640284,-0.277826,-0.077355936,0.0455534,0.012280694,0.2332381,-0.10397995,0.16524445,-0.29538032,-0.29772088,-0.12627392,0.024517503,0.32042444,0.049737174,0.042715456,-0.07366954,-0.053599123,0.14230683,-0.031392936,-0.07279182,0.30825347,0.073259935,-0.22282255,-0.099532865,-0.042101055,-0.019412126,0.06419022,-0.065828614,-0.12884854,-0.069812894,0.09308386,0.13747877,-0.1256355,-0.30972546,0.4961702,0.12667438,-0.19918837,0.0655881,0.102641575,-0.22896966,-0.011393076,0.05284448,-0.21927343,0.263045,-0.11116041,0.012570476,-0.021331716,-0.13747877,0.08338762,-0.13138399,-0.18090405,-0.13948727,0.15735604,0.3570985,-0.247254,0.19891134,-0.067527354,-0.2638761,-0.20001948,-0.038057722,0.14211911,0.05703464,0.13214584,0.026145205,0.06001277,-0.1978032,0.45793933,-0.05596113,-0.17314705,-0.042421028,0.29642776,-0.05928555,0.09329163,-0.23229408,-0.11940221,0.3579296,0.39920786,-0.21151644,-0.021245144,-0.084287986,0.02086422,0.0018721526,-0.047442295,0.09827827,-0.1444739,0.3274557,0.10631229,0.104857855,-0.13318472,0.08802796,0.04810025,0.25805837,0.27191013,0.24888812,-0.32742268,-0.061212674,0.036043845,0.15511551,-0.098396115,0.26907527,0.06385003,0.22075634,-0.31465918,0.01421241,-0.083483666,-0.04776542,-0.3269017,0.11845303,-0.2612609,0.1704838,0.21294196,0.12535574,-0.11545752,0.10191259,0.14013794,0.106601216,-0.13883555,0.10744777,-0.12913269,-0.23586415,-0.2645169,0.08139983,-0.32507837,-0.40113837,0.10907577,0.0059788176,-0.07899039,0.14052866,0.20304374,-0.054798365,0.0051159794,0.19132216,0.26217258,0.18780568,0.005783458,0.1242487,0.15967391,-0.030997055,-0.025347907,-0.14352418,0.08999565,-0.10145675,-0.084069744,0.25722346,-0.111745685,0.212421,0.009938919,-0.11780184,-0.27141958,-0.38863534,0.06391515,-0.1324538,-0.15212001,-0.25696298,0.011786696,0.008359763,-0.31908733,0.07183307,-0.10444516,-0.1407014,-0.0870891,0.10314809,0.24533185,0.2326082,0.19666079,0.12013355,0.035700355,0.22507283,0.058553524,0.22643167,-0.19876081,0.048424013,-0.15638979,0.016352369,0.38516855,0.13057189,0.013094248,0.171337,-0.1435426,-0.074241914,0.23643765,-0.00062778656,-0.16701342,-0.10018335,-0.058646172,-0.32710913,-0.08511261,-0.18294887,-0.01869945,0.13897197,0.098824516,0.022281839,-0.12272769,0.03298268,0.112412885,0.43927497,0.06244474,-0.01788106,0.1318072,0.16318397,0.06096237,-0.016661195,-0.1423073,0.097774506,-0.054384366,-0.17936648,-0.18776657,0.18430771,0.093080334,0.095921546,-0.010075468,0.24335536,-0.022544341,-0.11852765,-0.030542951,-0.20370203,0.05478584,-0.12390123,0.056916744,-0.14934854,0.20975503,-0.13236901,0.22631201,0.2309002,-0.08379165,-0.012345074,0.0849387,0.15611285,0.032231968,-0.12319265,0.015140996,-0.04407521,-0.03251873,-0.06291543,-0.073984414,0.25785574,0.16827153,-0.25212052,-0.20669754,-0.31635505,-0.012180186,-0.18696837,-0.32277852,0.07685203,-0.04837663,0.22963844,0.1775626,0.15508051,0.08883865,-0.029536413,0.045164905,0.04398918,0.022467747,-0.11757213,0.07564763,0.022797523,-0.09044451,-0.020116305,-0.034784146,-0.20405933,-0.056262568,-0.2108269,-0.0901004,0.14143068,-0.23445603,-0.037364997,-0.06377571,-0.0056205215,-0.22780317,-0.19178596,0.08912541,-0.19063891,0.020546447,0.09927676,-0.014424093,-0.17148325,0.22137973,0.09377094,0.10220172,0.25074407,-0.25579107,-0.079547584,-0.12456911,-0.119980924,0.18880364,-0.051891685,0.12541156,0.14401072,-0.16462924,0.00075393065,-0.016327415,-0.0381283,0.025534004,-0.0133515475,0.08167693,-0.102720566,-0.1760013,0.11860957,-0.021508612,-0.030024376,-0.09703453,-0.13146956,0.07673486,-0.089648,0.13603964,0.24402112,0.018027911,0.17546989,0.00669238,0.066159904,0.013750101,0.07535321,0.25890046,-0.11775932,0.15060014,0.0069481186,0.18801105,0.17185634,-0.11350808,0.13327634,0.14762427,0.3029008,0.12764345,-0.08194263,-0.025560575,-0.2223398,0.28419533,-0.033159666,0.08842577,-0.15857121,0.20586625,-0.17972113,-0.11212643,0.07987015,0.017204233,-0.0027848936,-0.0465245,-0.07482181,-0.015331031,0.059570488,-0.030555781,-0.13327634,-0.06631933,-0.06371544,-0.25188592,0.016486837,0.072271064,-0.27951896,0.2329679,0.052835368,0.19493851,0.20386529,0.004578461,0.12017675,0.09730188,0.21814814,0.051580038,-0.0048155785,-0.17764288,0.12586758,0.043015912,-0.3126604,-0.33787856,-0.05068736,0.12865719,0.29860073,0.029318888,0.0068066684,-0.082740076,0.0613716,0.12397063,-0.09970095,0.066225536,-0.13100047,-0.21100672,-0.17362583,-0.20888661,0.019820238,0.13256265,-0.031187931,-0.1965007,0.082237944,-0.28030083,0.16815819,-0.1760807,-0.16090518,0.24057667,0.08552969,-0.21926399,-0.102992706,-0.28163984,0.11950724,0.112086855,0.14483698,0.0861992,0.12854561,0.0840233,-0.103773795,-0.17485327,0.18210627,0.07727242,0.012748555,-0.10706554,-0.003147038,0.32850543,-0.043964382,0.031187931,-0.3126604,-0.17440693,0.11035729,-0.19538486,-0.12821086,-0.071358435,-0.13635972,-0.332434,0.024709478,0.0044757333,0.16221315,-0.012104498,-0.28026956,-0.085453615,0.04878978,-0.17845735,-0.16953447,0.43927962,0.16175556,-0.109476715,0.03143023,0.16484426,-0.14562577,-0.0643476,-0.18646504,-0.05468116,-0.07555838,0.033317756,0.19390076,0.051049095,-0.0937473,0.039294936,-0.28530297,-0.13624533,0.2441205,0.33472192,0.1742247,0.17296635,0.070353374,0.054395173,-0.12091629,-0.0884279,0.038780153,0.19916297,-0.054023385,-0.19424395,0.013563044,-0.054538168,-0.018360516,0.1797157,0.17605503,-0.31847772,0.13372861,0.116454855,-0.10295616,-0.1419651,-0.063661225,-0.26082227,0.12308981,0.03643504,-0.06520557,0.20682749,0.17902933,-0.17067844,-0.042726807,0.10101143,-0.09409049,0.12983915,-0.057855643,-0.009845183,-0.057371512,0.07768054,0.41389447,-0.124023706,0.1940507,0.18440843,-0.068821706,0.121733665,0.15753059,0.16669075,-0.13704078,-0.18356472,0.1144417,-0.08207983,-0.04739779,-0.25455594,-0.08611753,0.41003758,-0.16331597,0.044294182,-0.09190289,-0.11715359,0.014636666,0.21550475,0.12095024,0.024843913,0.039563444,0.044746164,0.08424934,0.14547776,0.15801272,-0.12438529,0.053876188,0.11757544,0.10865634,0.13306333,0.09774852,0.10582392,-0.15560214,0.07020778,-0.06888197,-0.10913845,0.03308504,0.017973796,0.23671775,0.21960272,0.015179044,-0.14427248,0.16657023,-0.37170953,0.18296209,-0.057009924,0.24262364,0.08310432,0.13487126,0.0836467,0.15451738,0.14330825,0.21140678,-0.21658951,0.29360715,0.20043871,0.098471686,0.11727412,-0.0017756802,0.27252904,0.017490871,-0.026593124,0.18818507,0.117844574,-0.103033215,0.32057172,0.3817561,0.067916825,0.13928065,-0.023253836,-0.037917085,0.044461012,-0.022553664,-0.056660186,0.09576218,-0.07691136,-0.059191585,0.1946482,0.054963615,0.20854396,0.29622722,-0.13701855,-0.122045614,0.24753824,0.24150597,-0.09834743,0.20369661,0.12872419,0.28502443,-0.087844834,-0.11428985,-0.3789554,0.040044535,-0.14305082,-0.19841838,-0.03420078,0.074002944,0.13540277,-0.10960407,-0.18032159,-0.021557262,0.15069887,-0.11342809,0.19044717,-0.104110405,0.2826546,-0.06947875,0.0059582065,-0.15274553,0.17105775,-0.061238244,-0.02381936,0.0011150598,0.039667517,-0.13206348,0.28696337,0.122153334,-0.024856156,0.06845542,0.010105387,-0.033527534,0.18172193,0.077499084,-0.2650165,0.036105458,0.070205055,0.03492018,0.15086488,-0.18575467,0.020727206,0.05440132,-0.15572758,0.08315196,-0.43545368,0.015621385,0.15074332,-0.048110217,-0.021061517,0.29954156,-0.3053768,0.20727207,0.030361407,0.033035886,0.017612047,0.2579656,0.016685097,-0.22502087,0.23061296,0.084063716,0.1004145,-0.12497108,0.09056756,-0.2475108,0.06321494,0.20240937,-0.042639695,-0.01578854,-0.29711023,0.09567338,-0.09147932,0.1771234,0.079991214,-0.16800587,-0.0426093,0.08716368,-0.17311169,0.03349176,0.15353936,0.11433395,0.35521933,-0.12813182,-0.071238376,0.21711901,0.061573785,-0.028659467,0.24726768,-0.327502,-0.21979348,0.14891982,0.024191871,-0.07695203,0.14028855,-0.27255365,0.17967631,0.035801537,-0.05072391,0.0013839795,0.14247999,0.40141928,0.05767047,-0.124213316,-0.29942417,-0.11340243,-0.12764297,-0.2299363,0.1235423,-0.40380514,-0.48492402,-0.3205986,-0.05562013,-0.4196114,0.09588135,-0.17625467,0.29688922,0.08246094,-0.4017175,0.122647606,0.0066962237,-0.18445604,0.15761521,0.23888324,-0.18669277,0.4237866,-0.054688156,0.115191825,0.07686911,-0.437207,0.20309548,0.33819425,0.421699,0.14523862,-0.0025163263,0.18326311,0.12905958,0.3423695,-0.048648976,-0.20846365,-0.10259155,0.058192376,-0.4282601,-0.08507047,-0.14180896,-0.27124134,0.13823019,-0.26154882,0.06288952,-0.13435318,0.33044022,0.005377482,0.16596569,0.35370228,0.08193904,0.10564842,-0.108854406,0.38770065,0.2794427,0.1087053,0.09580679,-0.22471726,0.061957546,0.100311644,0.3028047,-0.0088562295,0.03522278,0.09965469,0.23104526,-0.19334626,0.1472585,-0.08535333,-0.21244843,-0.08343301,0.10081699,-0.0029404955,-0.003439527,-0.08115894,0.09722902,-0.07580225,-0.11552263,0.074892625,0.08373622,-0.31210312,-0.063118,0.17272806,0.033428792,0.075246364,0.17909545,0.02749095,-0.028223705,0.116735466,0.48432583,0.03580393,-0.027541483,-0.013922347,0.034843765,-0.0027999457,-0.06973807,0.04146383,0.05141919,-0.25004634,0.15251413,0.113804445,-0.19941045,-0.056093663,0.17565908,-0.008780427,0.016537525,0.2225554,-0.12401248,-0.082270704,-0.14766277,0.048083894,0.07175946,0.11906006,-0.07322497,0.08100734,-0.022071088,0.03393414,-0.06786828,0.031179992,0.1022825,-0.060945008,0.04295461,-0.05184874,-0.16322751,-0.25984058,-0.046967704,0.12785295,-0.246532,-0.0059799836,-0.121715486,-0.06405568,-0.42225713,-0.04273609,0.20195468,0.3230241,0.040248804,-0.043769766,0.24058835,0.07881788,-0.22211137,-0.041734714,-0.14923714,0.24420622,0.25829008,0.065153964,0.07455397,-0.07759039,0.0007424507,-0.08476152,-0.049907226,-0.061859116,0.09173884,-0.017863233,-0.13760827,-0.15388869,-0.024339866,-0.3310351,-0.16228731,0.115578026,0.04196083,0.25945297,-0.045901727,-0.01078093,0.2638461,0.24885777,-0.060373206,0.01467337,-0.2343863,0.15918627,0.3338777,-0.06912716,0.02480825,-0.24872856,0.17314091,-0.17766325,-0.21267907,0.26720554,-0.11176634,-0.009262716,0.19135948,-0.106985584,-0.18683714,-0.20001653,-0.042283855,0.24756567,-0.18606189,0.049778014,-0.046838496,0.13965076,-0.09072338,0.052710097,0.14349549,0.19285695,-0.061453775,-0.0250528,0.047873173,-0.13245738,0.14151111,0.276573,-0.023595521,-0.013247288,0.013014743,0.10728055,0.08408811,-0.12824057,-0.051221814,-0.07367011,-0.22163047,-0.02009185,0.09469214,0.083902076,-0.39290726,-0.27012375,-0.03460263,-0.29567266,0.100335225,0.23837367,0.15850237,-0.11509405,-0.19260891,-0.107404575,-0.20786382,0.28723904,0.004813672,-0.08359201,0.0757165,0.1185047,0.22634336,0.19868606,0.3162606,0.20129056,0.20463921,0.121233225,0.03788926,0.18020652,-0.05745401,-0.09735865,0.01518516,-0.25796944,-0.030463336,0.06945331,0.26764327,-0.14994472,-0.13803844,0.020432916,-0.17995848,0.3308954,0.0053524002,0.18206689,0.042292103,0.12960483,0.07739083,-0.18197072,-0.04962316,0.14479637,-0.0714803,-0.027048925,0.022215687,-0.085592784,0.12437342,-0.19918105,0.009035431,0.3168998,-0.0365433,0.12242292,-0.0047400156,-0.051803138,-0.1848391,-0.09081325,-0.12988074,0.1474353,0.10790886,0.09792686,0.050110787,-0.07222608,0.18529804,0.10245892,-0.12379975,-0.1748571,-0.012491842,-0.07526658,-0.19619793,-0.3384701,0.22843865,-0.15753202,-0.06453879,-0.034478057,-0.050254207,-0.07876601,-0.22063662,-0.049537107,-0.10297523,-0.25195944,-0.006098916,-0.023994088,-0.22602919,-0.23865011,-0.11135093,-0.18300334,-0.10957253,-0.20181997,0.0048332387,-0.32516077,-0.12288186,0.22557025,-0.12563552,-0.11421932,-0.1481237,0.03949774,-0.05564678,0.12379975,0.044201903,-0.18747802,-0.11008884,0.06379301,0.2283239,-0.25770435,-0.081224866,-0.2712418,-0.09076263,-0.043227628,-0.25204322,0.15149668,-0.11051504,-0.23961335,0.07439459,-0.49990213,-0.0055611343,0.06417995,-0.1844789,-0.06774892,0.37412664,-0.10897669,-0.03009012,-0.2094617,0.38052619,-0.26188865,-0.12934445,0.1806638,-0.24416687,-0.19690876,0.12288337,0.27148795,0.08596298,-0.09039343,-0.14817384,0.07033335,-0.06805659,-0.11229953,-0.2282911,0.13931295,-0.057780415,-0.02046005,0.1910015,0.061810892,0.21733804,-0.10208489,-0.061287854,-0.1660187,0.029874751,-0.05682664,-0.02235222,-0.26878047,0.10780755,0.102700226,-0.098146714,0.05978027,-0.19026309,-0.05159625,-0.05987257,-0.06073405,0.09710063,-0.07636368,-0.009168564,0.024229009,0.16884926,-0.07008721,-0.0968545,-0.079686515,-0.14829691,0.12774237,-0.23162425,-0.33176208,0.051972672,0.1473511,0.115177535,0.21195205,0.1319941,0.20179866,0.23454335,0.18466482,-0.17374991,-0.105468355,-0.119302355,0.13922839,-0.19684888,0.008662112,-0.021877386,0.34090012,0.37897533,-0.14189366,0.13808613,-0.18428406,0.0019840759,-0.012771063,0.05657343,-0.100708954,0.10470685,-0.12825003,0.1794612,0.041279882,-0.1583929,-0.14100523,-0.1064837,0.09525151,-0.0501641,-0.22895898,-0.29013318,0.19494513,0.17641518,0.1226022,-0.1954528,0.10331076,-0.13427861,0.023289341,0.1642311,-0.22603989,-0.13174026,-0.21550573,-0.028366039,0.21842484,-0.012318919,-0.079767585,0.045658533,0.22972049,-0.08433661,0.14633575,-0.1911376,0.09353812,-0.012747266,-0.22565913,0.23581252,0.27414158,0.13542086,0.14727104,0.12297193,0.26255336,-0.09221357,0.13189185,0.15772888,-0.117373906,0.105562694,-0.0021530853,-0.0077934,0.27805558,0.09006048,0.0371561,0.17581479,-0.07572708,0.08489308,0.10291748,-0.20731136,-0.028451484,0.048936553,-0.13398342,0.117189355,-0.0056749177,-0.08741526,-0.41979012,0.0868001,-0.34203297,0.1460407,0.24323712,0.10396326,0.01745537,-0.2218293,0.1133138,-0.3464622,0.020792652,-0.19796081,-0.18897937,0.1501008,-0.18541141,0.026836671,0.07006755,-0.18565747,0.058071785,0.2674747,0.1475171,-0.022330571,-0.007920278,-0.07369703,-0.08390881,-0.043492325,0.07646529,0.025298752,-0.12943119,-0.2741185,-0.11854272,0.0908602,-0.22527424,-0.07068271,-0.076219216,-0.058287095,0.16363448,0.38903177,0.08704616,0.39592162,-0.09386856,0.16282032,-0.04093473,0.1664947,-0.2001381,0.08531418,0.09042384,-0.10001164,-0.12676561,-0.07228166,-0.023237491,-0.08841442,-0.23309256,-0.04842699,0.17568061,-0.1977268,0.10202105,0.18681853,0.07090377,-0.15237135,0.18635923,0.19428208,-0.14146307,0.08186946,-0.048828874,0.21104637,-0.33092254,-0.16729845,-0.12906209,0.20829059,-0.006914553,0.187163,-0.13239199,-0.22815514,-0.020768777,-0.19933434,0.07452073,-0.051441118,0.08663465,-0.3610064,0.16098315,-0.037662245,0.2677694,0.30129796,0.15409371,0.03387306,0.22436595,-0.056694314,-0.015558641,0.012386631,0.024098672,0.01708006,-0.22195464,-0.17361377,-0.18693335,-0.15730877,-0.33275974,-0.1963489,-0.120565124,-0.116259225,0.030227398,-0.03301188,-0.033586,-0.16304997,0.2725478,-0.010609452,0.012927352,-0.051336057,-0.20409971,0.037521992,0.19314803,-0.07081265,0.014047412,-0.034597393,-0.013604055,-0.24827984,-0.24715978,0.09053814,0.05687413,-0.01323848,-0.036681946,-0.034068476,0.029697131,-0.068945885,0.1553149,-0.086244576,-0.26532963,0.09875191,0.038922064,0.12214871,0.08182657,0.16489764,0.086804606,-0.0853112,0.14100304,0.15568826,0.113312684,0.20198405,0.15755503,0.020612204,-0.32332382,0.027612576,0.21268684,-0.029401561,0.22314073,0.11779292,-0.18244524,0.19949503,-0.12830903,-0.008968254,0.17584933,-0.3569256,0.2313545,-0.090289235,-0.039139856,0.05093159,0.108707994,0.07697298,0.2596049,0.03581079,-0.062443312,0.025450239,0.17423147,0.1187263,-0.04075772,0.24653754,0.1718669,-0.3459739,0.1479605,-0.0336146,0.10098445,0.095246054,-0.054345947,0.110885985,0.07381147,0.09935294,0.047257345,-0.09372707,0.17147665,-0.099803016,0.020450054,0.22661023,-0.16562575,-0.25001386,0.027046392,-0.014810114,0.018860744,0.15842463,0.10621651,0.009254564,0.14616022,-0.1685512,-0.031533025,0.08376927,0.31369877,-0.15572421,-0.116793156,-0.35240477,0.2464133,0.04160334,0.02749646,-0.004982415,-0.017721504,0.080618784,0.16517568,0.27094212,0.06526014,0.23381135,0.057299532,0.015963418,-0.15606175,-0.040056225,-0.07167364,-0.11848091,-0.07533046,-0.08202525,0.03454287,-0.10278472,0.2116454,0.11656812,-0.09608994,0.2792684,0.14199707,-0.0059739756,0.16585077,-0.11133605,0.123994276,-0.14053434,-0.061040737,0.21670869,0.10154703,0.02064696,-0.11564656,-0.18898602,-0.10630464,-0.04483049,-0.101633675,-0.044025153,0.12552537,-0.0425487,0.098143876,-0.2701641,0.16998005,0.060346674,-0.1408805,-0.0024411813,0.23301117,0.14173952,-0.081446536,0.045313694,0.013140434,0.005385699,0.27746585,-0.124773726,-0.058413863,-0.085473225,-0.015006134,-0.17459731,0.14914863,-0.004063602,-0.12069335,-0.026240602,0.16783248,-0.11317686,0.008952676,0.113928504,0.11972694,0.09707009,0.01806642,-0.17513421,0.1856573,0.042172875,-0.21926674,-0.22871605,0.21851508,-0.061044633,-0.064910255,-0.048749804,0.039488416,-0.36508664,-0.0024311147,-0.044481512,0.32320905,-0.2025157,-0.038951524,0.10437182,0.13347138,0.060829878,-0.011261312,0.038548853,0.028294215,0.19596562,0.3165516,0.00850974,0.061098322,-0.04195812,-0.17453733,-0.12427854,0.01438409,-0.07650781,0.02917249,-0.17864262,0.07999109,0.13510159,-0.049698975,0.35280675,0.16682434,-0.2918493,0.34310332,-0.1481639,-0.14517823,-0.18287233,0.10045537,0.31498826,0.13360876,0.19481501,-0.10636451,-0.22268127,-0.0036407297,0.011763853,0.20339881,-0.26871035,-0.017851822,0.052591342,-0.013311115,-0.14741749,-0.18100628,0.18660441,0.28513154,-0.20526485,0.26945677,0.027975112,0.039155826,-0.047957335,0.19605903,-0.35479718,0.4224724,-0.018536039,0.14629786,-0.10686213,-0.08154613,0.11445071,-0.06431632,-0.048454944,0.17478614,-0.08260355,-0.05200043,0.111527234,0.005629233,-0.039995544,0.051969327,0.056572236,-0.062325872,-0.19792508,-0.09765631,0.014687322,0.10661332,0.020526486,0.14144614,0.20514046,-0.10252533,0.08041776,-0.19557598,0.19674571,0.19464022,0.2044658,0.22201149,0.008348825,0.124574415,0.120480426,-0.1772115,-0.00096409925,-0.04640836,-0.115509145,0.10515718,-0.077668935,-0.0023449087,0.0022279373,0.18118852,0.38319793,-0.036758225,0.039653264,0.19662873,0.28447416,-0.032722715,0.20025484,-0.12153316,-0.007954047,-0.2554653,-0.07135248,-0.22657338,0.16960837,-0.18294309,0.17042716,-0.25265798,0.1030517,0.0831081,0.09702768,0.06725849,0.16013369,0.091237605,0.028219322,-0.14223708,0.13065693,0.03947781,-0.06369086,0.081528984,0.020908616,0.27675405,0.08129504,0.21347259,-0.33266634,0.083400525,-0.13498487,0.09135457,0.034565013,-0.056965016,0.28634572,0.11755614,0.14001463,0.3221389,0.14048252,-0.06538695,-0.2154611,-0.0964626,0.09627283,0.123155855,0.22278117,-0.21746781,0.124547444,-0.04497371,0.40330854,-0.0782454,0.235685,0.07944723,0.31095746,0.2598481,0.18267803,-0.12151125,0.21531717,-0.16117162,-4.249889e-05,0.07426039,0.18432263,0.054019056,-0.051488888,-0.029286677,0.0003202242,0.20899175,0.15762937,0.19381076,0.20507,0.21569669,-0.0013036288,0.18052739,0.11879132,0.0030144562,-0.10164944,0.0078909565,0.014342882,-0.13422534,-0.060407724,0.15231602,0.18103342,-0.01297501,0.06894704,-0.18672629,-0.06863077,0.003670718,-0.18811788,-0.15864144,0.20178078,0.054335326,-0.21999799,-0.0022158725,0.17888278,0.25453475,0.06553131,-0.0066575008,-0.136882,0.12385165,-0.11708345,-0.10354707,0.079257466,-0.2661735,0.08476058,0.013433603,-0.16357526,-0.23511374,-0.089016385,-0.08343488,0.11490997,0.061914433,0.053024303,0.23499866,0.085448824,0.14166667,0.12716627,0.10904076,-0.21796642,-0.03771832,-0.15029787,-0.07250203,-0.06916464,-0.03196419,-0.08677228,-0.033143785,0.1843623,-0.21957758,-0.1996683,0.08849851,0.2506499,-0.25295153,-0.1791836,0.41890064,0.12451936,-0.23016518,-0.51741135,-0.18654889,-0.12509477,0.019923674,0.10794747,0.113644056,-0.0773355,-0.24489576,0.13591254,0.18620363,-0.12981316,-0.13832928,0.045169916,0.09810791,-0.082917005,-0.2955321,0.13107908,-0.0002638808,-0.07934945,0.114622265,0.01867215,0.011047929,0.049169037,0.014112003,-0.17170323,-0.022196556,-0.36251017,0.04295458,-0.121412136,-0.046579678,-0.08245668,0.083089635,-0.053944964,0.041918833,0.31440565,0.43335703,0.1943305,-0.24096982,0.034320157,0.01906868,0.24999231,0.3125945,-0.044175487,-0.10722879,-0.025488527,0.16906753,-0.22695027,-0.008909707,0.17975572,0.028386135,-0.03499684,-0.14769119,0.19557977,-0.1703168,0.067980975,-0.13665599,-0.023996348,-0.388661,0.3772788,-0.0629492,0.13846049,-0.017533123,0.04084411,-0.2091829,-0.15935102,0.16518094,-0.12742528,0.07481725,0.23916532,0.19308123,0.12922978,0.1703168,0.19308123,0.0610753,-0.13158952,0.09029428,0.15657486,-0.2810852,0.0979981,-0.39338046,0.35756811,-0.34257692,0.35840097,0.2794195,-0.08918382,0.12700887,0.11521023,-0.017281534,-0.054551348,0.0161971,-0.03938663,0.15143898,-0.19766189,-0.21015456,0.094042085,0.009378182,0.0869629,0.03182162,-0.19322005,-0.03031007,-0.008205705,0.08204135,0.041994367,0.007538256,0.12010954,-0.21860942,0.09328592,-0.11420458,0.19863304,0.13204512,0.20692512,-0.02142121,-0.10811115,0.037597053,0.2784129,-0.014518995,-0.25127518,-0.31886822,0.1089278,-0.16182123,0.17564136,0.34198555,0.057887524,-0.19825613,0.048998665,0.010302283,0.122622296,0.2289117,-0.15930848,-0.011833492,0.24248056,0.0059324503,-0.00825282,0.04130336,-0.16458525,0.26057237,0.08706686,0.026572352,0.25655198,0.31359145,0.062096383,-0.12676834,-0.0064742626,-0.083549,0.003863356,-0.09711786,0.16910821,-0.17086713,-0.12626578,0.109995715,-0.121680014,0.040832218,0.3648516,0.23129882,0.04815061,-0.109116256,0.036340676,-0.059363764,-0.08668994,-0.21107116,0.0772043,0.21169935,-0.27916673,-0.22770916,0.09409284,-0.0049264,0.11553882,0.028182939,-0.13900588,0.10745447,0.07393811,0.1725784,-0.11733534,0.026358346,0.09398055,-0.060464192,0.06456251,0.12822676,0.13238122,-0.09330686,0.09796659,-0.09179104,0.08477338,0.104815826,0.22445296,-0.2571272,-0.049853485,-0.11430371,-0.019298576,0.03466726,-0.042470902,0.0046281493,0.014765165,0.10060523,-0.31259483,-0.11256333,-0.029221551,-0.068773106,-0.012687936,-0.01757223,-0.23624264,0.15719567,0.018400315,0.118907295,-0.05527112,-0.00026031147,-0.14888676,-0.0040035774,-0.15349035,-0.18829796,0.04407093,0.06372039,-0.23017937,0.1724661,0.106893055,-0.21816513,0.022596877,-0.055355333,0.2526359,0.09218403,-0.05313775,-0.18683828,0.3069807,0.26004654,-0.063158974,-0.16572915,-0.29305765,-0.056230858,0.13454531,0.00668114,-0.12602979,-0.02348866,-0.088447936,-0.062106572,-0.2000581,-0.1634981,-0.0770939,-0.3272233,0.06999762,-0.14147128,0.0395972,0.10315141,0.082316756,0.06942993,0.22094952,0.18711449,-0.32018378,0.060800858,0.32495248,0.2459284,-0.1654283,0.11660594,-0.12671103,0.012446861,0.17712295,-0.037581857,0.13023078,-0.20675698,-0.17587401,-0.17610109,0.05864359,-0.13250159,-0.13738382,-0.029832726,-0.30860266,0.114732526,0.014114485,0.23082754,0.13749737,0.09367079,-0.14169836,-0.25478455,0.10474098,-0.21549958,-0.21459126,0.02935018,-0.016633661,-0.025972355,0.15203053,0.053761356,0.001226768,0.10803364,0.0013518397,-0.15350655,-0.18030208,0.21663499,-0.15759401,0.33494404,-0.07147365,0.13238806,0.15566382,-0.083346315,0.3442787,-0.23738664,0.103885025,0.24646452,-0.04226889,-0.22047909,-0.09219725,-0.012368616,0.28141436,0.17247978,-0.10269355,-0.09599861,0.053105615,-0.13843772,-0.008453778,-0.088849775,-0.28844973,0.04331852,0.23216686,0.075459905,-0.17724566,-0.0523113,-0.12062237,-0.096282296,-0.1035446,0.093331985,0.13049456,0.016567137,0.03531864,0.11540259,-0.102466606,0.057644557,-0.079828635,-0.2718826,0.084708,0.27074787,-0.08765831,-0.2877689,-0.04334689,-0.051857404,-0.12164363,0.15636653,0.20845088,0.23284769,-0.02947475,-0.24532978,0.073076956,0.18745828,-0.008049529,0.17213935,0.1595438,-0.10411197,-0.30728632,-0.06292108,-0.17826693,-0.05245314,0.053814825,-0.18518881,-0.017503293,0.16714652,0.13616824,0.1376434,0.32498822,-0.13533941,-0.027770113,0.009868498,-0.112782836,-0.16481191,0.017196722,0.1551296,-0.2804675,0.26089013,-0.080969565,-0.010247544,0.18939005,0.1645991,-0.1932204,-0.01059999,-0.24067432,-0.05250786,0.14300013,-0.079213984,0.032504864,-0.15810877,0.20673306,0.054582637,0.31557915,0.1854533,0.026506627,0.11022926,0.008624962,-0.096876204,-0.081820756,-0.20715867,0.03410085,-0.33515656,0.002799621,0.3298366,-0.08208676,0.032797463,-0.054689035,0.035457436,-0.291533,-0.032584663,0.104909316,-0.031653672,0.18109094,0.2127978,0.09591861,0.020468488,0.1070373,-0.027876513,0.06500973,0.01839371,0.124167524,0.15800238,0.13087066,-0.1067713,0.057721406,-0.04737411,-0.11576201,0.0071353763,0.012847668,0.10576051,0.007201876,-0.08464033,-0.11139965,0.071417846,-0.2117868,-0.19158307,-0.07030194,0.10971097,-0.15399472,-0.040055074,0.071594045,-0.09168031,-0.21202172,-0.055207875,0.1350831,0.05743968,-0.123571664,0.1334386,-0.31926596,-0.09567407,0.15951551,0.06865745,-0.2927192,0.1585758,-0.17596042,-0.027280912,-0.2797982,-0.07206389,-0.116347656,0.013442236,-0.24620363,-0.10002022,-0.0010360653,-0.29835746,-0.19992298,0.008486742,-0.111707844,0.07964029,-0.12110493,0.08598333,-0.10971097,-0.14283569,-0.10918238,0.10653945,-0.20638348,0.10924111,-0.1628045,-0.069303505,-0.010189964,0.15928058,-0.025548324,-0.16339181,0.12227957,0.13684505,0.27932835,-0.16726811,0.046926692,-0.16809036,-0.0057557146,-0.27110592,-0.2269396,-0.15881073,0.06031754,0.14318809,-0.14682946,-0.23445727,-0.19522443,0.16628698,0.063746974,-0.058625422,0.045848787,0.09801778,0.056555007,-0.046802267,0.22142538,-0.12182755,-0.34172738,0.35458574,-0.110331304,0.007069376,0.2294891,-0.09175205,0.09071685,0.18154266,-0.012102391,0.12280827,-0.28135845,-0.04530394,-0.43653056,0.06625327,0.15680666,0.08935473,0.09131618,-0.09981578,0.115507334,0.067451924,0.20856702,0.17282513,0.01316484,0.12880158,-0.1729341,-0.048191622,-0.052169,-0.010365694,0.10591805,-0.025594138,0.18731803,-0.08902782,-0.10738914,-0.121282704,-0.1326155,0.10864228,0.15789635,0.09627428,-0.027242297,0.10542769,-0.05786264,0.03950133,0.09551149,-0.010481474,-0.0047742124,0.0071919663,-0.23079674,0.14089715,0.14100613,0.14928779,-0.10313933,-0.24953943,-0.09387696,-0.27852523,0.23646313,-0.15590508,0.1496851,-0.31424406,-0.05834609,-0.022986872,0.03196189,0.08660642,-0.17429458,-0.065106936,0.0026325039,-0.06774366,0.26921684,-0.1417073,0.013656906,-0.060949013,0.11716544,0.16212505,0.17956804,-0.15117249,0.05949543,0.008336967,0.19930969,0.18511193,-0.107227,0.18159628,-0.008831353,-0.076397546,0.026046153,-0.18484148,-0.27719462,-0.27083942,-0.19430667,-0.1617194,-0.19079104,0.1496851,0.12561649,0.17118458,-0.13596058,-0.016521813,-0.18186672,0.1688859,0.21661747,0.073287554,0.07815536,-0.051754266,0.44459313,-0.11520479,0.14725119,-0.12703627,0.1688859,-0.24271432,0.07565385,0.030136464,0.007183397,0.12068108,-0.2185105,0.36616734,0.1264278,-0.082549915,-0.10350853,0.1304843,0.018930364,0.03914529,-0.22648829,0.16293527,0.034760244,-0.06319553,0.35722503,0.21926524,0.23050961,0.1335269,0.17645013,-0.045193724,-0.14779861,-0.09595557,0.2789469,-0.21396741,-0.09828013,-0.038571436,-0.120228276,-0.027408155,-0.09460408,-0.20131749,-0.055681262,0.093631014,0.01006182,0.2869477,0.119147085,-0.14509563,0.0040240525,0.12585047,0.23375317,-0.01267019,0.2315908,0.04941036,-0.1619622,0.26251283,-0.11017322,-0.1865052,-0.08541398,0.13395938,0.122823134,0.09519874,0.040895995,-0.07060168,0.055005517,0.12963463,0.13720295,-0.076223865,-0.13850038,-0.041679855,0.12293125,-0.112119354,-0.061627805,-0.1237962,-0.03813896,0.15655625,0.13049957,0.11001103,-0.18412659,-0.07292624,0.14833921,0.04127441,-0.15363704,0.1562319,0.122823134,-0.05573532,0.14671741,0.0031049552,-0.051688556,-0.27105096,-0.11020864,-0.0847411,-0.30380213,0.18676196,-0.22021635,0.056309883,0.08534388,-0.016011396,-0.10719473,0.0014967517,-0.1896754,-0.102673866,0.0132988775,0.09564141,-0.048498835,0.03747295,-0.5204018,0.1305023,-0.02915958,-0.098153,-0.30400306,0.045911893,0.078763515,-0.0032069886,-0.18927355,0.15411127,-0.037498064,0.024990337,-0.05701313,-0.0154462885,-0.119049445,-0.064296745,0.123469844,-0.04681607,-0.14145283,0.050081138,-0.07198221,0.06947062,0.018510431,-0.16355485,-0.07077665,-0.069269694,-0.083234146,-0.16084233,0.09197448,-0.17259657,0.13371713,0.015094666,-0.045786314,0.029837709,-0.22765067,-0.12678514,0.16023955,-0.012834233,0.051588092,0.028154941,-0.017593699,0.05430061,0.021838289,0.033981834,-0.1739026,-0.08315599,0.24085325,-0.018037073,-0.051359296,-0.008943756,-0.002570582,-0.12371697,0.034877658,-0.16308147,-0.28069633,0.31228366,-0.42212135,-0.15422745,-0.0070705027,0.16188498,0.3721081,-0.21656452,0.13891238,0.18940422,0.021806015,-0.33669204,-0.017364047,0.071968816,-0.035924584,-0.020654393,0.019966412,0.06431129,0.014634557,0.121443644,0.14656991,0.15075763,-0.02001128,0.06033296,-0.09883,-0.09278773,0.07382338,0.08100231,0.19335264,0.24049431,0.0315574,0.30462614,-0.19514737,-0.05037219,-0.1761232,-0.10594911,-0.1264689,0.12431522,-0.16080813,0.087882124,0.06203796,-0.20112982,0.17528565,0.23750308,-0.008151082,-0.0030454386,0.02940372,-0.01658633,-0.12587066,-0.14058746,-0.0017302354,0.12174276,-0.25748447,0.19383124,-0.12778504,-0.1045416,-0.105628684,0.14204612,-0.09644883,0.070660695,-0.10333372,0.30196878,-0.2158473,0.089865915,0.005341073,-0.3029351,-0.21548493,-0.08147118,-0.028943708,0.03243145,-0.07343881,-0.010365079,0.016049642,0.18081892,-0.14530738,0.04481217,0.19024034,-0.0072246036,-0.20654665,-0.09620726,0.09596568,0.25027174,-0.12380721,-0.09832104,0.00851552,0.08545717,-0.2630752,0.059578445,0.106293015,0.20751296,0.010772737,0.26210892,-0.067761794,-0.06860731,-0.17622899,-0.1790071,-0.019507185,-0.16028504,-0.08328299,0.009527115,-0.045657683,0.13020894,0.23070416,0.06667471,0.19712523,0.01731791,-0.104722776,-0.22985865,-0.062145177,-0.06613117,0.04749969,-0.036326844,0.23263676,0.18625435,-0.054384578,-0.08104842,-0.25099647,-0.13334942,-0.2968957,0.045545414,0.13051182,-0.21363287,0.23599105,0.47626114,-0.05153612,0.0544245,0.16656303,-0.13072577,0.1444188,0.0044696284,-0.0870792,0.005920503,0.04923612,-0.36414936,0.09034199,0.11831645,0.39388895,0.2708655,-0.06038846,-0.019657005,0.11938622,-0.058890782,0.39624244,0.0045832917,0.24005616,-0.003098987,0.095583856,0.14527462,-0.28498647,-0.08499315,0.06889312,-0.015618627,0.24711664,-0.032948885,-0.053969845,0.27578646,0.009306991,0.13543275,0.058837295,-0.37014008,-0.15543744,-0.10986528,0.104409456,-0.018533748,0.07135359,0.1403537,-0.046481464,0.05616287,0.18774445,-0.09954201,0.15960953,-0.02741283,-0.041934945,0.12655367,-0.33419582,0.16677698,-0.15746999,-0.15222813,-0.05525357,0.04824658,0.16677698,0.06557684,0.13821416,0.12074171,-0.14623092,-0.14825489,0.28360704,-0.0127208885,-0.06318542,-0.025995204,0.23945947,0.24300139,-0.12074171,0.004510421,-0.22099085,0.22453278,-0.26007852,0.15597121,-0.31472537,0.21643695,-0.11011594,-0.2323756,-0.36987823,-0.20214275,-0.044590313,0.48574978,0.118654504,0.15457974,0.18240917,-0.30055767,0.1950589,-0.05531096,-0.023212261,-0.008190703,0.043103967,-0.18633059,-0.12516911,-0.1662175,-0.043451834,-0.16963293,-0.1385146,-0.116693795,-0.19278194,0.1854451,0.2997987,-0.17709628,-0.07551891,0.24148342,0.19796833,-0.16836795,0.2183344,0.16419354,-0.05543746,0.03655773,0.26893336,-0.20188975,-0.12244943,-0.16444655,0.04281935,-0.16533202,0.014570912,-0.021109244,0.10866121,0.17342785,0.08114804,0.014286294,0.08873788,-0.101179086,0.08824642,0.0031014988,0.013013128,-0.10861098,-0.025265511,-0.37498876,-0.07964415,0.11967104,0.009823851,0.06782334,0.107791714,-0.19486776,-0.19931519,0.21289156,-0.08959235,-0.03909059,0.03859318,0.10603615,0.2862742,-0.16712983,-0.27059114,0.03736428,-0.028279232,-0.030078687,-0.09468349,-0.12113401,-0.41407937,-0.030049428,0.0701641,0.21312563,0.036954653,0.25326955,-0.3253648,-0.022134753,0.04772212,-0.06138627,0.033882413,-0.11393619,-0.11662806,-0.20633745,-0.06975447,0.13119926,-0.2698889,-0.13272074,-0.014483415,-0.19369738,0.019589184,-0.25373772,-0.12160216,0.10995691,-0.020993637,0.0012480973,0.02688941,0.09187459,0.12324069,0.07320708,-0.22892572,0.07180262,0.16853428,0.17672692,-0.07812266,0.40331188,0.01678028,-0.30077484,-0.017142108,-0.24880177,0.024619667,0.20737769,-0.10188779,0.11513835,0.07596558,-0.16145098,-0.06753926,-0.12748839,-0.10832011,-0.35737917,0.048403136,-0.22937618,-0.04373971,0.053806275,-0.2374809,-0.14125353,-0.1144308,-0.13314882,-0.38465217,0.21561104,-0.1898818,-0.023365367,-0.2889394,0.054674637,-0.24468508,0.064966336,-0.117775604,-0.11012115,-0.13340612,-0.18293491,0.1879521,0.14884366,0.18692294,0.028655943,0.17097081,0.055928938,-0.028141357,-0.012100784,-0.12510844,0.35017496,-0.14704262,0.09500522,0.09609871,-0.039301418,0.0364712,-0.14048165,-0.13166939,0.111857876,0.25729242,-0.23452203,0.060881816,0.0039679315,-0.15887806,0.052133877,-0.07512938,0.3895407,0.018123034,0.051940907,-0.056089748,-0.0993792,-0.16080776,0.22337313,0.3437076,0.43546107,0.28556433,-0.16522989,0.2438582,0.0017422277,0.20436004,0.051151343,0.009997205,0.0017153947,-0.026265662,-0.0016186043,0.10819061,0.14462215,-0.17565641,0.30936137,0.3309504,0.2287704,0.18068568,0.06611648,-0.0052822656,-0.0010761946,0.29709485,-0.008011564,0.12708104,0.03379423,0.21319193,0.18718693,0.34346226,-0.026326995,0.3405183,0.08322827,0.12352375,0.07366039,0.03250625,0.20828533,-0.0646445,0.22177848,-0.07789233,0.14793411,-0.103406675,0.15296337,-0.18387498,0.027108986,0.034284893,-0.047195394,0.10677996,0.07022577,0.13480894,-0.03226092,0.181667,0.17344844,-0.11726783,0.27599645,0.0039099497,-0.1268357,0.23821561,0.06550316,0.09242815,0.1946695,0.08917752,-0.024287688,0.016559787,0.052168563,-0.15966387,-0.07439284,-0.17791118,0.07363254,-0.16165237,-0.08339952,0.10889895,0.048074618,-0.19323424,0.012588883,0.1665651,0.015732449,-0.014613924,-0.01576169,0.08369195,0.23557733,0.06544464,-0.13404748,0.21557547,-0.114396535,-0.03509096,-0.20352758,0.16598025,-0.17639057,0.082990125,0.27441132,-0.15054023,-0.11603411,0.17136087,0.24961372,0.006729423,0.44799462,0.1172623,-0.20645183,-0.048484012,-0.09889803,0.19124575,0.07275526,0.23557733,0.08492013,-0.058572665,0.31113985,0.22610277,-0.08608983,0.02118617,0.06632192,-0.1715948,0.07573799,0.09041771,0.16340691,0.027078526,0.032663837,0.06304676,0.10047712,-0.16364086,0.1459784,-0.062344942,0.31979564,-0.13814142,-0.1809524,-0.056935087,0.024183521,-0.15989782,0.20344363,0.058967557,0.14469817,0.14492027,0.13525891,-0.17712477,-0.16835183,0.26962945,0.25630343,0.18201098,0.17867948,0.09183836,-0.12726332,-0.024750272,-0.086008236,-0.01507504,0.15646948,-0.10771851,0.13414842,0.14458711,0.02305676,-0.15535897,0.21043979,0.025097303,0.040672068,0.05069433,0.15180537,-0.092504665,0.06712973,-0.09172732,0.09961186,-0.38067946,-0.032870803,-0.120711364,0.17701373,-0.18301043,-0.09544749,0.027526522,-0.07795711,0.31493786,-0.10766299,0.031316105,0.18800768,0.11427046,-0.12737437,0.24453214,-0.03714623,-0.11660252,-0.060910933,-0.008634139,0.14058933,-0.24031223,-0.05247113,0.10483122,-0.16812973,-0.09311544,-0.038173445,-0.09178284,0.15813522,0.12137767,0.11749092,0.061355133,0.0031562496,-0.03256542,0.03274682,0.03836502,-0.23970985,0.06903103,0.0152419675,-0.24616039,-0.012491391,-0.26447156,0.061384033,-0.13369235,-0.078238636,-0.21536432,-0.21193098,-0.14638531,-0.078758836,0.083752796,-0.30379894,0.1976774,0.15283585,0.15543686,-0.14971462,-0.004789125,-0.02114628,0.14836209,0.035920065,-0.07288054,0.020743122,-0.049809504,-0.20371176,0.004324193,0.057586547,0.14076711,-0.16823387,-0.09415687,0.04650621,-0.031680405,-0.15512474,-0.08333663,0.1312994,-0.1938279,-0.06414112,-0.02474869,-0.06492142,-0.03235667,0.06211232,-0.22868153,-0.11714987,0.103364475,-0.0003651586,-0.16219951,0.13275598,-0.08739422,0.19070667,0.055765834,-0.037844818,-0.1780137,-0.12880243,-0.08874675,0.17000256,-0.030249843,-0.15949444,-0.08739422,-0.08026743,0.22743306};

#endif
