#pragma once

#include "parameters.h"

#ifndef KERNEL30_H
#define KERNEL30_H

static float bias30[FEATURE_MAP30] = {-0.021312645,-0.30145764,-0.20340034,-0.8866164,-0.094348766,-0.29518327,0.4213278,0.6693538,-0.2244364,0.2764076,1.4594803,0.29262733,-0.008268472,-0.65472454,-0.22162586,-0.47603258,-0.66533804,0.25673637,0.0296568,-0.0013119996,-0.12953313,0.06864472,0.11723169,-0.0011366738,0.3239603,-0.04546091,-0.06827605,0.3713876,0.5607329,0.027353503,0.24249867,-0.20035017,0.0692915,-0.13145539,-0.86241543,0.15829946,0.0033055842,-0.18799743,0.06330412,0.15582626,-0.082465425,-0.12773569,0.606024,-0.0021492345,0.42675322,0.16845548,-0.13286039,-0.06367199,0.09827069,0.7179448,-0.17052457,0.13093306,0.104085915,0.750917,-0.58168334,0.112246245,0.026038723,0.3058091,-0.46367246,-1.1865461,-0.037855014,-0.9085785,-0.22751002,0.17083284};

static float kernel30[FEATURE_MAP30][IN_CHANNEL30][KERNEL30][KERNEL30] = {0.11360536,-0.002437941,0.33632538,0.033345897,-0.062869914,0.032103784,0.07309344,0.2591234,-0.23179698,-0.0057955217,-0.20408835,0.029882317,0.20924789,-0.09784011,-0.021020336,-0.047892924,-0.32791725,-0.19252716,-0.22854838,0.21727383,-0.13567671,-0.20504382,0.0037054312,-0.037621625,0.048299,-0.016313681,-0.06668482,0.027701478,0.25254425,0.145446,0.21779823,-0.02673484,-0.038586095,0.23326446,-0.05381396,-0.19290398,0.017346527,0.21366686,-0.15169606,-0.18644208,0.109428786,-0.32669735,-0.25000188,-0.2472476,-0.09925922,0.23601872,-0.07134587,-0.19671758,0.18093355,-0.070816204,0.06378712,0.093656905,-0.05313031,-0.13413227,0.0507479,-0.05038926,0.12726682,0.3117115,-0.1593397,-0.10697791,0.026180897,0.3563881,-0.14940019,-0.5283315,0.00892123,-0.013577177,0.31417075,0.18198541,0.014729956,0.032098494,-0.036683995,0.18290763,-0.05973958,0.027897255,-0.025425185,-0.06033232,0.14787234,-0.17113543,0.035602644,-0.16011076,0.010639071,0.10963996,-0.034237202,0.13674651,0.11216856,-0.16486451,0.23465379,0.0024527388,-0.36067906,-0.19338709,-0.1270367,0.38798788,-0.14878264,-0.40862125,0.051128227,0.050824795,-0.025323898,0.007870258,-0.16911255,-0.15242381,-0.09245603,0.025439944,0.02238715,0.030455248,0.024652518,-0.0069838706,-0.031690903,-0.041236937,0.18985467,0.042593736,0.28628418,0.122790135,0.17376694,0.1886917,0.17376694,-0.0054817023,0.13073708,0.16204034,0.24112222,-0.11503701,0.052382056,-0.09991841,-0.073800065,-0.061928093,-0.15952057,-0.017717853,-0.11152597,0.047827482,-0.15432525,-0.1290651,-0.14860597,-0.122964524,0.2916833,0.025903573,-0.046635963,0.094225146,-0.0064163175,-0.08188103,-0.25241092,-0.18397018,0.16986263,-0.010699821,-0.2434507,-0.1759632,-0.04701725,0.032242443,0.0754945,-0.10818972,-0.010419814,-0.06391296,-0.028100511,-0.05679148,0.24241051,0.21052569,0.12528479,-0.16962294,-0.14697076,0.19238248,0.04839085,-0.17670846,-0.33216038,-0.2456312,-0.050886884,-0.2215834,-0.24541649,0.13151146,-0.13677192,-0.2655995,0.23210432,0.16092709,-0.095010325,0.2948004,0.14106618,0.0060723405,0.031079648,0.11501421,0.038700476,0.18792748,0.17673141,-0.024474062,0.13527818,-0.089661114,-0.15831803,0.0292162,0.043049365,0.053343274,-0.11399639,-0.07545783,-0.34920645,0.051862802,-0.008622596,0.15850309,-0.13675864,-0.33329138,-0.178582,0.06296635,0.002135408,-0.02368756,-0.139442,-0.15711515,-0.026250051,0.072919495,-0.052742038,0.05622592,-0.06701626,-0.17158099,-0.36058134,-0.104516335,-0.12900025,-0.061451733,-0.13993576,-0.29419413,0.07674208,-0.14312932,0.04889526,0.024604887,0.11545184,0.29341993,-0.18251649,-0.048604935,-0.048145257,0.048701707,0.13596801,-0.14680675,-0.097258255,-0.0026965064,0.13543567,-0.01101949,-0.083086416,0.040075723,-0.04885396,-0.061154164,-0.2710848,0.0048026834,-0.034365866,0.13885091,-0.12433613,-0.17182933,0.34067032,0.050294764,-0.0058399295,0.00798446,0.7415343,0.44270065,-0.1517648,0.0035253027,-0.23799963,0.06867837,0.087782376,0.17278987,-0.014755039,-0.095445134,0.094032936,0.01868728,0.01535157,0.06627593,0.26335067,-0.14219376,-0.20920014,-0.13829805,-0.11326805,-0.06768813,0.369509,-0.07421346,-0.19838953,-0.12992226,-0.17082731,-0.08833545,-0.24309291,-0.093205094,0.092669435,-0.18933198,-0.21445937,-0.1318701,0.029777907,0.14107125,-0.03746702,0.047256187,-0.05857407,0.015515155,0.12851967,-0.13238169,0.05350516,0.1283051,0.23021969,0.27806592,0.15512474,-0.098106205,-0.28879377,0.029930705,0.2716292,0.07766964,-0.4188153,-0.5788749,0.12208295,0.076221384,0.14836618,0.2506026,0.17861873,0.008159872,-0.003607796,-0.26801097,-0.23693193,-0.0008033988,-0.05365704,-0.035283845,-0.019492954,-0.0778347,0.15841167,0.032930065,-0.15320136,-0.3440632,-0.12632713,0.19616355,0.07299003,0.055256695,0.17431682,0.1291608,0.28738967,0.16938074,0.034963913,0.13766184,0.21152025,0.1639876,-0.12641855,-0.11833826,0.021765787,0.22127376,-0.053252216,-0.13862482,-0.028340135,-0.009033858,0.05428533,-0.2034291,0.0022966194,0.14688972,0.06165799,0.013723951,0.24738331,0.2648523,0.038154695,0.04397769,0.14031537,0.09823954,0.20136288,-0.10979161,0.14576268,0.2272846,-0.12378558,0.12848154,-0.048171654,0.12024949,0.2031306,-0.1068352,0.039476324,0.14822786,0.062424332,0.54385346,0.26790243,0.076509334,0.078042395,0.14832367,-0.12686081,-0.016923558,0.0022157524,-0.23973244,0.0698501,-0.11497959,-0.09543306,-0.18099703,-0.038781658,0.052698977,-0.023546861,-0.1626003,-0.037727676,0.017784294,-0.15941074,-0.25344932,-0.2509106,-0.2578921,0.04061959,-0.15391017,-0.33574632,-0.050589375,-0.09197587,-0.22108059,0.26973948,0.123974375,0.49082005,0.060559157,-0.06082361,-0.13434084,0.10842469,-0.022650182,-0.17496042,-0.114665724,0.05664529,-0.033426538,0.052916538,-0.07071406,-0.17284344,-0.050762538,0.19508953,0.05479737,0.014285483,-0.092419446,0.009228313,-0.23990887,-0.22638674,0.09749024,0.050271817,-0.004689128,0.15779461,-0.089202486,0.18952802,0.090129405,-0.1185368,-0.50511724,-0.17644207,0.2774219,-0.10386964,0.015566815,-0.2139551,-0.22922203,-0.03974854,-0.0567536,-0.044166014,0.3412878,0.09900411,0.026899127,0.15083213,0.19800822,0.4750446,0.18706249,0.02635184,-0.13517974,-0.09468055,0.003446194,-0.3846329,-0.08603342,-0.080724746,0.36777645,-0.19023675,-0.0017025737,0.11876115,0.03324765,-0.05396244,0.13933912,-0.21048635,0.05998259,-0.08363269,0.14754969,-0.005511914,0.1404478,0.09121157,0.21941656,-0.19355297,0.28598353,0.47063264,0.00928148,0.018682208,-0.1860271,0.048043747,0.447313,-0.18348312,-0.09311954,0.2679638,-0.26944777,-0.28004763,0.028010061,0.03773541,0.04266433,0.10048643,0.053343665,-0.10806531,0.17315318,0.062348697,-0.034675814,-0.07703227,-0.12921542,0.20579588,0.4556425,-0.009205469,-0.28147274,0.08194561,0.10617351,0.14548029,-0.30474055,-0.103236794,0.1678445,-0.06681024,-0.30496645,-0.065285414,0.44728413,0.18241513,0.14627095,0.11199046,0.0029031818,0.25526822,-0.034365203,0.009871315,0.22513144,0.033719853,0.18997803,-0.114186265,0.09966367,0.0146083,-0.4223396,0.29518896,0.24881637,0.053665053,0.16230406,0.010494603,-0.34131223,-0.08408148,-0.24781911,-0.13874379,0.933934,-0.16492186,-0.07722532,-0.07965614,-0.040887658,0.1563205,0.05890067,-0.090439014,0.06517566,0.25647607,-0.25128892,0.0063038357,-0.1005732,0.08251421,0.20863895,-0.12939073,-0.11680707,0.059220035,0.35061336,0.11719131,-0.32198793,0.094425455,-0.05720281,0.12141788,0.1040313,-0.18596916,0.043178275,0.042505864,-0.08904619,-0.075982235,-0.0869329,0.1017259,0.07636647,0.027887482,0.042292934,0.24167392,0.048413936,-0.11102226,0.12073142,-0.0718162,0.74000764,0.12062589,-0.06453432,0.01985367,-0.04894161,-0.20906377,0.07508777,-0.24188499,0.19196719,-0.09872749,-0.456331,-0.3090049,0.080470026,0.03450977,0.070813626,-0.13898888,-0.06601181,-0.20431472,0.10068311,0.04456856,0.25104573,-0.20359068,0.038212974,0.13219623,-0.24744423,-0.0028583596,-0.10232497,0.19225654,-0.037286118,-0.041072987,-0.17753276,-0.331338,-0.19787064,-0.048832104,0.10105385,0.7647891,-0.014154424,-0.37053078,0.0350087,-0.05651177,0.28261182,0.042450033,-0.079285964,-0.042164415,0.032584555,-0.13781095,0.19429085,-0.07737746,-0.003961739,-0.061606534,-0.2146236,-0.2502494,-0.2323496,0.12025873,0.25407264,0.13581243,-0.1384192,-0.3463521,-0.02296125,-0.046139732,0.17899783,-0.06208444,-0.06655939,0.05213529,0.15588452,0.105747744,0.028848194,-0.08593634,-0.010777233,-0.04451212,0.048955534,-0.11693201,0.026972316,-0.046824776,-0.12296051,0.5479694,0.27855805,-0.017916583,-0.037859987,0.16651118,0.07384906,0.29996958,0.02284072,0.02591993,-0.20444912,-0.66396594,-0.1718121,-0.039704915,-0.056543123,-0.0056192325,-0.27169803,-0.15227146,0.14073417,-0.14922751,-0.15101027,-0.17250827,0.020619718,-0.040584013,0.1419916,0.104081735,-0.16327986,0.20952676,-0.20680018,0.05987977,0.29447004,0.022245176,-0.34166074,-0.4052109,-0.24014829,0.30768344,0.3246721,0.064546406,0.068741135,-0.0022759687,-0.17963931,0.1919089,0.043284368,-0.0118435575,0.013857931,0.07993223,-0.12733884,-0.098905504,-0.044138107,0.19993687,-0.007287704,-0.25786647,-0.019770471,0.17910346,0.0900832,-0.05638836,-0.19026421,-0.5327398,-0.10076563,0.065848425,0.121492736,-0.06824002,-0.17867829,-0.14168838,-0.04977163,-0.010443273,0.14976664,-0.1547624,0.024952248,-0.16903913,0.12292783,-0.063871115,-0.2599779,-0.29036215,-0.13983174,-0.0963951,0.28608268,-0.012163061,0.19225527,0.014871164,-0.16508062,0.42174193,-0.08002612,0.08377066,-0.13619418,-0.2850128,-0.0034269209,-0.16497363,-0.23472902,-0.019110516,-0.14325532,-0.030598223,0.10431212,-0.028806195,0.0061884886,0.079719424,0.30581853,0.038690235,0.14101957,-0.16499387,-0.16947687,0.24422602,0.2364295,0.14959575,-0.13010444,-0.1167529,0.08717485,-0.11636308,-0.071386896,0.14384581,-0.059058648,-0.14667206,-0.011944514,0.12094353,-0.1189944,-0.041297197,-0.2736579,-0.26722574,0.027872562,-0.02877407,-0.04999767,-0.045351222,0.25032714,-0.02238521,-0.07797313,-0.25439277,-0.23387098,0.15033181,0.027733458,-0.04840045,-0.11887151,-0.15720467,0.5668661,-0.0852332,0.057112534,-0.09767211,0.16785277,0.037123147,0.17327362,-0.06756703,-0.13958691,0.02790286,0.24761671,-0.1292292,0.024603713,0.13078816,-0.038824845,-0.031009002,0.095085025,-0.27582055,-0.17620328,-0.09434506,0.026754225,0.11904127,-0.19664471,-0.5368419,-0.11894877,0.28691998,0.052860983,-0.0021216078,-0.043125868,-0.1261634,0.08033205,-0.049531158,-0.074088626,0.018938385,0.02038362,-0.06294296,0.10868181,0.032483675,-0.011279764,-0.13709645,0.087117635,0.074993804,-0.04716527,-0.36463565,-0.3233021,0.12921852,0.046142165,0.19940372,-0.0639954,-0.20994173,0.16666427,0.34826592,0.080211654,0.3083647,-0.10517549,-0.22508372,0.14446282,-0.08670839,0.17321216,-0.09560943,0.06251189,-0.011842473,-0.16558656,0.06199441,0.10985479,-0.12858526,0.052370626,0.0988808,0.1967274,0.033439063,-0.217871,0.12651686,-0.2284428,0.29049468,0.096295305,-0.28612804,-0.05547322,-0.33048365,-0.1617945,-0.29647005,-0.09543347,0.037259847,-0.20293258,-0.047113456,-0.10204085,0.11249774,0.00807967,-0.055922937,-0.20045853,0.0154568115,0.063123316,-0.14045537,-0.1256706,-0.10214936,-0.046970464,-0.13747922,-0.035761878,0.004674245,-0.28359887,0.2515332,-0.33409753,-0.05678698,0.07281982,-0.2551814,-0.15111193,0.03847402,0.05491488,0.0076444014,-0.010734564,-0.117990196,0.027937466,-0.0914928,-0.10387897,0.00256252,0.048709415,0.15564618,0.06925265,9.118211e-05,-0.25409862,-0.09724656,0.17631862,-0.030276498,0.1132677,-0.17950562,-0.14901377,0.13307877,0.1758018,0.15900545,-0.1135261,-0.13256197,0.07743548,0.21688825,0.12618797,-0.18053924,-0.06834822,0.13798848,0.15418188,0.10634568,-0.1999366,-0.30521938,0.24189307,-0.06360602,0.27344432,-0.18080445,-0.29268837,-0.06287877,0.13750535,0.47573048,0.28396142,-0.099856414,-0.28530404,-0.019985268,0.0807802,-0.054990955,0.14388274,-0.07719991,-0.20978238,0.051047046,0.01405542,0.16793779,-0.0015008181,0.020586643,0.10375077,0.064049296,-0.3038026,-0.16044122,0.029662546,0.100661874,-0.24783897,-0.07608693,-0.1348215,-0.062323146,-0.15471767,-0.0711356,0.08794286,-0.2874496,-0.2814535,0.092667066,-0.10029847,-0.05782607,-0.021077216,0.22876047,0.0698637,0.018624263,0.030025946,0.058916267,-0.008397953,-0.16204208,0.2639956,0.2691179,0.032408416,0.08308966,-0.014172525,0.14785723,0.26970893,0.34280026,0.075159945,-0.04816935,-0.18154623,-0.22754845,0.030241286,0.011020339,-0.07870615,0.14371999,-0.007898935,0.053931937,0.055754296,0.082941905,0.041988105,0.015256089,-0.1406663,0.0072278646,-0.07944557,0.13133645,-0.13675705,0.1758305,-0.01494898,-0.095312096,-0.17865372,0.69699794,0.32117015,-0.096046135,-0.04254601,0.010742374,0.19931974,-0.11117862,-0.006585174,-0.043223586,4.808306e-05,-0.43974563,0.13415968,0.0785986,-0.05132624,0.10666146,-0.15505154,0.07346033,-0.16724789,0.001131337,-0.05347601,-0.24524297,0.28814998,0.1508055,-0.055947367,0.14596795,0.18729748,0.24356034,0.115785815,-0.22000356,0.33273962,0.0402779,0.19918104,0.022991529,-0.071616836,-0.31801662,-0.061573654,-0.20591155,0.13008815,0.101588644,0.045325782,-0.21348338,-0.07855768,-0.022202797,-0.18119422,-0.39786214,0.1909321,0.074888974,-0.095060304,-0.19568512,-0.07100541,0.10781229,-0.056427564,-0.2664007,0.10242168,0.15569022,-0.20530707,-0.21666794,-0.27080593,0.012831692,-0.06103567,0.1611388,0.2582858,-0.11818778,-0.10879768,0.008868431,0.2872676,0.21400161,-0.052109275,0.055590585,-0.104889594,-0.10965322,0.050197806,0.042288393,0.012032643,-0.12888747,-0.017155785,-0.08614968,-0.07118471,0.18551168,0.1314041,-0.18587118,0.10102477,0.18146709,0.28833404,0.049478766,0.18569143,0.04597346,0.13419037,-0.08965499,0.1986341,0.36203536,-0.013740357,0.06898266,0.10134866,0.07563133,0.27085945,0.07482626,0.050405975,-0.049198378,-0.09338747,0.112619564,0.24438177,0.04557559,-0.09410308,0.069101356,-0.04597812,0.12451662,-0.15654029,0.10447947,0.15519853,1.4326232e-05,0.02900468,0.09146426,0.01018071,0.17523567,0.09115118,0.14965253,0.053715684,-0.09634603,-0.12791395,-0.19889615,-0.25619283,-0.013662706,-0.19159721,-0.17052153,-0.20911467,-0.17882407,0.14223813,-0.090826206,0.0722139,-0.09744087,-0.17827664,0.0028297654,-0.07850924,-0.06979613,0.05570005,0.19177969,-0.043177802,0.0779162,0.06418507,0.093882635,0.06099178,0.014940021,0.016491601,0.094826706,-0.09827187,-0.014656063,0.054331917,0.0068938565,0.22930104,0.14944102,-0.17858371,0.09008255,-0.22286253,-0.0007430398,0.36168566,-0.651983,-0.28126088,-0.14752077,0.20919482,0.036174215,-0.20264336,-0.18174648,-0.1149329,-0.15791273,0.20072311,-0.0055030836,-0.002446207,0.009661984,0.047770105,-0.3637224,0.12732226,0.10801042,0.17710604,-0.14673114,-0.5663511,-0.1431405,0.10674884,-0.00893415,0.01983345,0.19554447,-0.10626362,0.012882644,0.03546973,0.06880448,-0.23775879,-0.030593248,0.07579168,0.10102322,0.07195842,-0.14217004,0.22417256,0.15779419,0.029825348,0.15876749,-0.047774743,-0.018671887,0.07631315,-0.0012495433,0.09654292,0.21277373,-0.17890693,0.037163153,-0.03750182,-0.014653029,0.062314883,-0.16554084,0.0979879,-0.18251939,-0.29513773,-0.38906163,-0.006716912,-0.111353986,-0.07319741,-0.09871039,-0.24691144,0.09762665,-0.038472667,0.043017495,0.008750123,-0.015099875,0.0051909513,0.046966877,0.18729994,0.12212334,0.14548853,0.31405848,0.05018314,0.01798505,0.115217835,-0.015218119,0.42606005,0.19694872,-0.07165641,0.039777588,-0.31311253,-0.054014273,-0.015714748,-0.061818436,-0.021449625,-0.11039344,-0.05552781,-0.035426173,0.084779255,-0.28377038,-0.14473811,0.10451195,-0.06785193,-0.02419038,-0.42755753,-0.11021779,0.112975605,-0.16461344,-0.043221727,0.18363291,-0.079691544,0.071941115,-0.29042718,-0.039750677,0.033117637,-0.03345048,0.048095465,-0.113260895,-0.07279699,-0.030122073,-0.20712194,0.06927839,-0.0038692718,-0.09446745,0.011749063,0.0507721,0.11864238,-0.053811777,-0.05029715,0.07841416,0.49128774,0.19406436,0.25894246,0.046972506,0.2171469,-0.32125583,-0.26920137,-0.006227775,0.040394455,0.06573301,-0.09897947,-0.06815525,0.13574056,0.028829433,0.14827923,-0.01922358,0.12605159,0.0013216954,0.03156279,0.06384785,-0.06866292,0.14320022,-0.063944146,0.038111288,0.07212976,0.2095519,0.07973758,0.03334437,0.022053026,-0.3971471,-0.09076409,0.18846188,0.016864788,-0.11816185,-0.005898462,0.51733124,-0.03941136,4.1755695e-05,0.0019531132,0.01871859,0.30161607,0.06548497,0.03977249,0.07655695,-0.05105575,0.096136324,-0.08674676,0.17135952,0.1757342,-0.07991799,-0.090587944,0.21425276,-0.06103216,-0.007802407,0.28787547,-0.0630061,-0.1294266,-0.22598971,0.1279328,-0.05863142,-0.3277811,-0.30217323,-0.054470137,0.030062607,-0.2026225,-0.28659508,-0.08397257,0.017712131,-0.010007654,0.07351031,0.03035426,-0.06035847,-0.0077385856,0.052907422,0.20722908,-0.2856401,0.034379825,-0.19762772,0.06795953,-0.11031548,-0.24463433,0.26403704,0.100964166,-0.15552182,0.11631632,0.33484697,0.51847273,0.016739849,0.0051288446,-0.07396038,-0.014176989,0.25883633,0.03835538,-0.005957642,0.14084534,-0.055634353,0.05287268,0.12632428,0.08325109,0.049531948,0.13122402,0.0012903585,0.111803226,0.06904183,-0.14815041,0.18601206,-0.18423034,-0.10057836,-0.23322776,-0.13959813,-0.38592157,-0.23500949,-0.14957578,-0.06267217,-0.054520775,-0.23215874,-0.0657011,0.042961836,0.06779579,-0.07072222,-0.19034034,-0.17668363,-0.0793796,-0.10498592,-0.29630172,0.11132654,0.24155298,-0.24252845,0.12400776,0.21643439,0.22192146,-0.034172248,0.36653623,-0.021567231,-0.29849657,-0.35824466,-0.33873507,0.121325195,-0.009968176,-0.27045155,0.13449416,0.022390291,-0.12443454,0.01500207,-0.005095757,-0.09142581,-0.02699565,-0.024814999,-0.009701877,0.13956165,0.2915611,0.23114899,0.022190142,-0.036606666,0.16209504,-0.098452345,0.02869171,0.18301314,0.08448003,0.124700926,0.22016497,-0.047247436,-0.10717495,-0.09619093,0.120743446,0.10394436,0.04215925,-0.13721947,0.11613248,0.07106728,0.10431335,-0.0731261,0.06809344,0.08921537,0.2583433,0.18559846,0.006633963,0.10034823,0.10812598,0.13351804,-0.016241772,0.06843658,0.17172052,0.034027655,-0.0044369395,0.023600133,0.0221704,0.05566429,0.008130417,0.047543403,0.05776123,-0.019806573,-0.14739598,-0.026155684,-0.101073585,-0.10904631,-0.013643648,0.0689255,-0.1732396,-0.14104009,-0.14896138,-0.26253414,-0.20842248,0.21624088,0.24134211,-0.13733663,0.45676002,0.19844371,-0.091866374,0.21953285,0.4028541,0.3174688,-0.006403899,-0.00789557,-0.15348783,0.17704594,0.00090336124,-0.11861358,0.024288425,0.06981834,-0.027487708,-0.059937567,-0.07996029,0.12396673,0.07390994,0.19274041,0.14076841,0.15513253,0.08339897,0.13580625,0.06215748,0.3092204,0.18751709,-0.0020934078,-0.25629076,-0.046705164,0.09880775,-0.04213476,0.027008904,-0.07743568,0.057978824,0.1423354,-0.05284256,0.03493455,-0.020710029,-0.25789437,-0.048096318,-0.009115138,-0.1396292,-0.16360924,-0.60647684,0.02891229,-0.08354862,0.087036625,0.21974431,0.10714715,0.33593848,0.06463709,-0.021377655,0.123606175,0.22955433,0.012882455,-0.08692762,0.010600265,0.26443437,-0.07826211,0.1335252,-0.08109611,0.04346589,0.2582327,-0.08451701,0.13000342,-0.027893076,0.15178564,0.103391655,-0.0034219532,-0.17928447,-0.01910873,0.116993226,0.06845138,0.10861544,-0.015585134,0.0004770252,-0.24265991,-0.34477025,-0.27065155,-0.2580356,-0.2294526,-0.03967125,-0.023753468,0.004727901,-0.09964629,0.003880883,0.16164182,0.16003744,0.06422555,0.07420282,-0.028101811,0.031059897,0.06497761,-0.17307307,-0.09811819,-0.1311585,0.016131593,0.17708403,-0.27475098,-0.34233573,0.124941505,0.15953606,0.32488802,-0.08412995,-0.23704793,0.13637276,0.061217327,0.16785881,0.03980881,0.07691022,0.14419413,0.093694724,0.1503124,0.15832905,0.20582777,0.20682986,0.0382044,-0.1067218,0.17075488,0.015895536,0.18468383,0.091339834,-0.21725152,-0.05902267,0.06964474,0.10501826,-0.16634572,-0.3042323,-0.21925569,0.3128502,0.09239202,0.0054738764,-0.12686366,0.16404092,-0.07545682,-0.02715644};

#endif
