#pragma once

#include "parameters.h"

#ifndef KERNEL64_H
#define KERNEL64_H

static float bias64[FEATURE_MAP64] = {6.3588915,4.5527935,0.4556462,-1.8590245,3.0714498,4.6024528,4.078372,5.3726273,0.3308259,-2.2196643,-6.3765917,-8.760528,-0.7072674,-4.7499814,0.59071326,2.3338833};

static float kernel64[FEATURE_MAP64][IN_CHANNEL64][KERNEL64][KERNEL64] = {1.2896311,0.048795786,-0.30231375,-0.44094005,-0.73106194,-0.67958504,-2.0121136,-2.2559514,-0.034741245,1.1424253,-0.79969776,-0.16538075,-1.901935,0.722934,-0.5287668,0.25648126,1.279697,1.2598287,1.2878249,1.0927547,1.1460377,-0.43619877,-0.048062015,0.609143,1.1144291,1.6165544,-0.8633665,-0.9098763,0.8904596,-0.77937794,0.9301961,0.6565559,0.38404456,-0.41971713,0.77125,1.9272219,-0.1722669,2.033788,0.99973506,-1.2399604,-0.22611442,2.0590749,0.88052547,-0.27680108,-0.6118523,-0.26393187,0.88639563,2.3715487,0.9229713,-1.4648331,0.69177693,0.4497453,-2.743627,-0.920262,-1.1252664,-1.3438174,0.7897636,1.2435728,-0.50167376,-0.23412946,0.11305721,-0.0360959,2.2722073,0.0721918,0.012706685,-0.28472686,0.319043,0.026728552,-0.4075851,0.9375429,0.6160719,0.044797134,-0.89027727,-0.7199915,0.16672465,0.6953875,-0.28521246,-1.0469661,-0.6740208,0.04103369,0.6261077,-0.61833805,-0.5283391,-0.13006142,0.034073338,-0.3959306,0.09169856,-0.55747545,-0.24879202,-0.33021194,0.77826416,0.13677897,1.2774669,-0.32600334,0.51409465,-0.37391645,-0.6063597,-1.4089042,-0.89869446,-0.95567214,0.35028362,0.0017464104,-0.9958156,-0.97898126,-0.47815982,0.19019559,0.2947627,-0.22434987,0.47039014,0.43057045,0.89998937,-0.4046715,0.37909624,-1.7676051,-0.035004083,-0.27938518,0.8449541,-1.0773973,0.6720784,0.5597416,-0.7549551,0.12423415,0.06515211,-0.17870292,-1.5021405,0.54193604,-0.38168615,-0.5879067,1.6084223,-0.39430457,-0.16500276,-1.3795933,-0.40234196,0.42976364,-0.88505775,-1.7530951,-0.22161904,1.6509732,-0.070268005,-0.41439804,-1.4836065,0.29903796,-0.58200115,-1.3691919,1.3909402,0.48011547,0.2855635,0.23911217,0.092370816,-0.84534365,-0.9805608,1.0391865,1.0060914,1.0656625,-0.43425512,-0.69357896,1.0571524,0.93422765,1.186696,-0.8571633,-0.13923585,0.10690902,0.33378783,1.0609347,0.24301265,1.0193293,0.72998357,-1.7360749,-0.101235576,0.031676747,0.45623973,0.14951898,-0.56687194,-0.7058714,0.8094118,0.21027213,2.422562,1.9762508,0.9257175,1.0372952,-1.542232,-0.29620123,-0.7635515,-0.2226828,0.20814459,1.3209677,-0.8954591,0.73329306,0.15460144,0.7035075,1.3720287,-0.04234401,-0.35414132,0.64089006,-0.47802472,-0.10249286,-0.19457951,-0.7433004,0.59497064,0.17938316,-0.32952982,-0.9236746,0.11405531,0.112899065,0.31152543,-0.57085466,-0.1873117,-0.2319097,-0.3657038,0.07048965,-0.61644375,-0.2327356,-0.34885564,-0.041315112,0.19590095,-0.8377821,-0.61644375,-0.8840319,0.09126077,0.55764043,-1.4205296,0.87676406,-0.5437655,-0.32275754,-0.88601404,-1.4839579,-0.48231936,-1.2507267,-0.26164174,-0.6970506,-0.5176674,0.12190126,-1.3544585,-0.27502114,0.34588245,-0.32919946,0.36603412,-0.23323114,-0.43012315,-0.44333738,-0.93226385,-0.8536392,-0.5843993,-0.6019081,1.3650298,-0.0054973257,0.38453406,0.9183889,1.0340134,-0.77765733,-0.10166697,-0.7109255,0.0447632,-0.020471731,-0.7069612,-0.39345366,-0.658973,-0.5277525,-0.54497516,-0.8529333,-0.032369435,-0.62001693,-0.6581529,0.313494,0.50970966,-0.2929908,-0.35819098,-0.50068825,-0.32538587,-0.06760932,0.9078819,1.4278432,-0.07473418,0.35880607,0.9398669,0.050489143,0.6671743,0.11666323,-1.7042264,-0.66430384,0.56219786,0.2443982,0.7725608,-0.33030662,-0.38997096,0.15192875,-0.28560963,0.8504729,0.5675287,-0.47895485,0.8287395,0.16617848,-1.7255497,-1.0153188,0.54169464,0.052693237,1.1489996,0.80946654,-0.17171434,1.3679738,0.5339035,-0.81848794,-0.59705335,0.6610233,-0.41683015,-0.7327845,0.5220116,-0.76681983,-0.6191968,0.32866636,0.68111646,-0.63764966,-0.5121701,-0.02242538,0.6745554,-0.47034353,-1.2523358,1.0136784,0.4076037,0.934126,0.29065,0.2913224,1.5519265,0.9628937,-0.83446306,0.27535263,-0.07274655,-0.11456216,0.19987442,-0.58499825,-0.073965296,0.054465357,-0.35099897,0.17003614,-0.7578081,0.44311938,0.48749855,0.29384395,0.28678364,-0.13700391,0.52616227,-0.38461956,-1.3972718,-0.29233104,0.30678788,0.7705839,-0.5416277,-0.21853384,0.2617363,-0.15255342,0.682498,-0.4612745,0.49153304,-1.0160142,1.8356843,0.34427485,-0.31014994,0.40613672,0.628705,0.2158442,-0.49186924,0.22139159,-0.42294702,-0.32158095,0.042445995,-0.54801565,0.5137226,0.11758801,0.3758782,-0.011157834,0.5813,-0.18071067,-0.48817098,-0.785377,-0.71948063,0.122210845,1.2372377,0.18457705,-0.7786529,-0.99449706,0.30393013,0.45286936,0.052868377,-0.13498667,0.42642003,-0.60721934,0.15706062,-0.6363014,-0.41345575,0.3686063,0.42116424,-0.15741101,-0.7680466,-0.49544612,-1.527684,-0.09933449,-0.10861973,0.94814515,-0.4453409,-0.111860804,0.69867015,-0.09057484,0.07507025,0.14716221,-0.36720476,-0.015460792,-0.2543804,1.0427494,0.06723036,0.28153533,-1.2340603,-0.080501236,0.50911117,1.6874601,0.5623699,0.20795423,-0.22232006,-0.65031683,0.1956907,-0.3153476,0.726701,0.803786,-0.28118494,-0.7554327,0.58584577,0.29029498,0.29590118,-0.1958659,0.40539685,1.1646838,0.93202734,0.24894941,0.96846753,-0.28854305,0.026563656,0.50420576,0.79257363,-0.59951085,-1.0672765,0.32866228,0.49894997,0.29922983,-0.24124092,1.0616703,0.8640524,0.97337294,0.24439439,-1.3756163,-1.043397,0.32962757,-0.7372133,-0.10090784,-0.13444963,0.99198973,0.26762822,-0.21636222,-0.11955002,-0.93493336,-0.110511385,0.16551992,0.18486825,0.28740022,-0.006205232,-0.56547934,0.12809435,-2.1285975,-0.196449,0.07463932,-0.60558826,-0.37256107,-0.56830394,-0.1851507,-0.21410257,0.33047494,0.39995942,0.11093507,0.61180234,-0.35165924,0.008376622,-0.19602531,0.39233306,0.9501861,-0.15902342,-0.41154015,1.1529903,0.5925952,0.32510826,-0.07146168,-1.4247142,-1.2111765,-0.5208511,-0.57451797,-0.22172892,0.7903153,0.4270753,-0.29545024,0.030046387,-0.94962114,-0.6151918,0.30731344,0.6699885,-0.587511,-0.3273679,0.6948447,0.119196944,-1.1795413,-0.2542115,0.28160983,-0.23147368,1.0931094,-0.49994928,-0.23726407,0.13307883,0.032248165,-0.25817105,-0.25055593,0.96656275,-0.9309017,-0.21155168,-0.24052627,-0.035312787,0.1393938,0.26820073,-0.1842487,0.19966467,-0.040606223,0.96730566,0.98067856,-0.6664157,-0.13707212,-0.10856186,-0.13057141,0.5118845,0.4736232,-0.14998066,0.43461892,0.6370696,0.17728366,0.92792994,-0.11552691,-0.57280546,0.31667745,-0.34788087,0.7173069,0.17737652,0.3959861,-0.6719877,0.7087631,-0.149052,-0.15425257,-0.110697806,-0.20802273,0.70021933,0.35735333,-0.18629178,-0.74999624,0.8632943,0.13382177,-0.77042705,-0.042324267,0.4947969,0.08353413,0.55237466,0.59286475,-0.73662335,0.9182718,0.12332776,-0.81277454,0.24554111,-0.06918613,0.6649298,0.1342861,-0.13985814,0.8506644,0.49219662,0.1200774,0.3791442,0.47706637,-0.7126038,1.2162571,-0.90245676,1.094182,0.45946658,-0.15980224,0.2387204,-1.4364415,1.012549,1.7225316,-0.7893688,-0.33327243,-2.0011322,-1.0110512,0.9758516,0.34357014,-0.05008448,0.14913005,0.12787925,-0.13490044,0.66804266,-1.4454287,-0.12722394,0.30387703,-0.051254675,-0.06248858,0.19032101,0.32503423,0.49878523,-0.2870262,1.1398666,0.61187315,0.72271436,-0.5429719,0.09979449,0.85452545,-0.26549456,0.061505612,-1.7449994,0.31286415,0.86051685,0.2911453,-0.49017256,0.9039546,0.7148506,0.3349575,-0.4785642,-0.06716937,-0.28814957,0.06543747,0.706238,-0.7107315,0.6575577,0.15858525,-1.9142568,0.95787734,-0.6111243,-1.533802,-0.03562083,-1.8019178,0.15680654,-0.30275366,-1.1376611,-0.16354541,-0.00454753,1.5840313,0.38514015,-0.19879912,0.13889432,-1.3210864,-0.24730611,-0.11179137,-0.12650251,-0.4034297,0.5598183,-0.28627074,0.05718788,0.17746134,-0.866234,-0.6154821,-0.08024858,0.15281026,-1.8607597,0.3387537,-1.3921239,-0.072495416,0.28547552,-0.036976635,1.2670131,-0.35068163,-0.7310506,-0.3856703,-0.58844537,-0.5513362,0.33398253,-1.019972,-1.8777239,0.12511091,-0.09191146,0.6292655,0.16301528,-0.31304234,-1.113275,0.015232982,3.1065676,0.72627944,0.6939415,-0.006941403,-0.1050322,0.18567838,0.5372878,0.5277454,0.14340043,-0.85139036,-0.32709083,-0.78406376,0.080049776,-0.54868555,1.1959755,-0.6011685,0.81693184,0.67114586,-0.08574869,0.26890895,0.26983666,0.42993623,-0.11393269,1.9889764,0.08233984,-0.3772828,0.0699011,1.702046,-1.6080306,-1.1025449,0.30280304,1.9779875,-0.8723902,-2.13061,-0.36690447,0.91817695,-0.3318013,-0.28876176,-0.09615217,-1.0219603,0.9316077,0.63796204,-0.61048996,0.39132407,-0.8479706,0.84919155,1.2856919,1.1764143,0.59339625,-0.5848494,-1.4834907,0.56073505,-0.91573495,2.0781078,0.044146057,-1.6031467,-1.277145,1.0933876,-1.9438001,1.1666464,0.55524063,-0.27563623,-1.0982715,0.794858,1.6934992,-0.9047462,-0.37361985,-0.5378417,-0.8217195,1.3748235,1.0451589,0.86811674,0.578134,-0.5103696,-0.79974186,0.31714955,-0.57966024,-1.1892345,-0.33882195,0.14628866,0.7972999,1.1202492,0.12408209,0.28097802,1.3809283,1.6251243,1.426273,1.1438107,0.06480923,-0.5230383,-0.77650255,-1.0229857,-0.35254073,-2.0502675,-0.7174325,-0.25561216,-0.4352388,0.20634238,-2.0169733,-0.7641515,-0.80764854,-0.1562671,1.356463,-0.04433609,-0.3025997,0.2224524,0.5869414,-0.5923114,-0.8715516,0.50075287,1.0874257,0.9016236,-0.5627764,-0.25695467,1.1072948,0.2640699,0.7614665,-0.34206924,-1.324243,-1.1405888,-0.6105694,0.54639786,-0.77650255,0.6014404,-1.2888008,-3.8857346,1.1824749,1.385461,0.52491784,1.4166069,-0.36435476,-0.85114557,1.446679,0.38851976,1.3156509,-0.24487217,0.66319543,0.9467316,-1.412311,-0.4312113,0.06360098,-0.68037945,0.33589372,1.368277,-0.63956743,-0.6132544,-1.1298487,0.21130964,1.1728088,-0.53324133,0.63424563,0.11130932,0.7137241,-1.3610184,-2.0783012,0.008933907,-0.7675005,-1.1435401,-0.042754248,0.031954475,0.34737208,-0.059361678,-1.814164,0.06588603,-0.27619737,-0.6828817,1.0984628,0.7330994,0.91340864,0.39185625,-0.095937565,-0.92210776,0.37030613,-0.5318332,-0.072954066,1.3989782,0.8509331,-0.30189934,0.7054204,1.0826463,0.6911854,-0.17556426,1.4314023,-0.43851525,1.428239,0.548836,0.34717438,1.3554826,0.64175856,-1.051804,0.09504788,0.5595122,-0.021525403,0.71332866,-1.0217524,0.08486594,1.1451218,0.9845834,0.06331582,0.2787676,-0.5156212,0.6484806,-0.29023463,-1.7809491,-0.26690513,0.2639395,1.423494,1.5492359,-2.0545764,-0.35508266,0.10626778,-0.43337485,0.5369736,0.10982652,-0.35559183,0.73258114,-0.35249484,0.09424732,-0.22185777,0.06369965,-1.7849978,-1.1025318,0.8356267,2.5068803,1.9212657,-0.30040893,-0.21284832,0.011261815,0.28239003,-0.80409366,-1.0259514,0.54704267,0.34967938,0.5419749,0.030178146,0.10846536,-0.40035754,-0.7156884,0.34827164,0.6346033,0.48453963,-0.30969992,-0.8958774,-0.024617625,-0.8052198,-2.1780353,0.5906822,1.4133579,0.23903205,1.6926509,0.6537484,0.28323466,1.6284585,-0.6182737,-0.77762836,-1.048475,-0.5839251,-0.55661523,-1.6419728,-2.1667733,-1.4865596,0.47158852,-0.36938757,-0.5400041,-0.041176014,0.08368937,-2.376243,0.55661523,0.5608384,-0.29562265,0.22960027,-0.3865618,-0.26451188,-0.72357166,-2.9370816,-1.2297903,0.20327577,0.9172749,0.30744293,0.27317685,0.030478574,-0.8807653,-0.7398937,-0.7716215,-0.50415564,-0.45021832,0.20210646,-0.71451133,0.37089866,-0.94866294,-0.56221765,0.9905437,0.0061918898,-0.8414228,0.23637255,0.8845727,0.26825905,0.034722175,0.36423582,-0.13349496,-0.53715265,0.106526285,0.2103557,0.70562756,-0.034504045,-0.19163626,-0.7259334,-0.2773015,0.32283095,0.032640032,-0.9105895,0.6313844,0.35503474,0.3674086,0.43498895,0.8401537,0.8687087,-0.18402158,0.9372409,-0.3480546,0.40833753,-0.3585248,-1.3477994,-0.22304684,-0.08233379,-0.44419003,0.088124126,0.46290946,-0.081302635,0.13801618,-0.4337198,-0.030220784,-0.84332645,-0.24462178,1.0882655,-0.11707579,-0.5907727,-0.111206144,1.1003221,-0.9689688,0.10803336,-0.24192491};

#endif
