#pragma once

#include "parameters.h"

#ifndef KERNEL29_H
#define KERNEL29_H

static float bias29[FEATURE_MAP29] = {0.26173395,-1.2243459,0.0031929016,-2.4367683,-0.38148406,-1.0408225,2.1619055,0.5009512,0.009480283,-0.21701387,0.8689813,-0.045553178,-0.33734515,1.0845108,-0.52755386,-1.0413855,-0.19715986,0.18067932,0.42524377,0.14296803,0.24189743,-0.20691322,0.53287524,0.5392369,0.78109676,0.53822523,0.03188488,0.646477,1.273702,-0.34001535,-1.6052186,0.5348405,-0.47265595,-0.8525984,0.43582803,-0.3803634,0.18625733,-0.2835768,0.20752242,-0.34239262,0.50871396,-1.5576227,-0.9691459,-0.72420895,0.0030266643,0.22635797,-1.6513186,0.07499444,0.77198833,-0.71107364,-0.9236386,0.21616727,-0.23903802,0.39187813,-0.77425677,-0.030576795,0.31982002,0.21040225,1.2381858,-0.06993866,0.41970152,-0.6951356,0.97650045,-0.39944357};

static float kernel29[FEATURE_MAP29][IN_CHANNEL29][KERNEL29][KERNEL29] = {0.11356176,0.117413074,0.09904125,-0.23191163,-0.13937598,-0.22608262,0.25168866,0.4186484,-0.17747277,-0.041323572,-0.31164426,-0.06672143,0.22670716,-0.021611603,-0.020648776,0.24481875,0.11720489,-0.22400083,-0.36577088,0.064327374,0.11751716,-0.23087074,0.12084803,0.02958747,0.08092967,0.03739419,0.07026048,-0.14999312,-0.0044465777,-0.04608567,0.03460979,0.2802092,0.15176263,-0.003317856,0.17466235,0.26584485,0.041479707,0.07978468,0.13188152,-0.41427663,0.1036212,-0.03260607,-0.06916754,-0.08030513,0.19912341,0.010161747,0.13635738,0.012887594,-0.0061998367,0.13958415,-0.1671679,-0.17695232,0.09789627,-0.2722984,-0.11939077,0.053502057,0.13989642,0.2113019,-0.09565835,-0.5450131,0.13052836,0.08092967,0.0018231944,-0.038617242,0.10905537,0.409631,-0.1975948,0.21008775,-0.27713704,0.121376395,-0.346364,-0.11174881,0.008467121,-0.13753699,0.100402005,-0.078625314,0.2347298,-0.032006003,0.041261096,0.14865457,0.1554168,-0.03401175,0.30579057,0.104470804,0.1498007,0.2217784,-0.121949464,0.07902646,-0.17100433,-0.1975948,0.31702277,-0.0408886,0.22842602,0.19163488,-0.013975764,-0.09833895,-0.008080298,-0.1424654,-0.14624767,-0.2347298,0.068252735,-0.1595429,-0.11931334,-0.10269429,-0.015515892,0.062407408,-0.23656362,-0.24985887,-0.25765264,0.24733736,0.08515832,-0.38579127,-0.18487264,-0.06504353,0.15736523,0.18005884,-0.118625656,-0.25856954,0.07971415,0.19919941,-0.3236704,-0.029828334,0.26728022,0.05570248,-0.067450434,-0.24802504,0.2137554,-0.14865457,0.1192264,0.050463933,-0.22472891,0.29315782,-0.2050961,0.16840373,0.29029867,0.0034637367,-0.0128304195,0.02367135,-0.3259427,0.19118159,-0.05194116,-0.020383332,0.22320403,-0.27771842,0.08849058,-0.12532592,0.10331049,0.12751792,-0.10483537,-0.072336406,0.20566793,0.18403372,0.19575623,-0.0713357,-0.025422577,0.049892105,0.27867147,0.011889284,-0.06394958,0.15163006,0.072431706,-0.0634254,-0.10531189,0.045055382,0.27085647,-0.07433781,0.09025372,-0.011365107,0.118273355,-0.0615193,0.17669524,-0.08768049,-0.011049409,-0.18841775,0.02868677,-0.16516335,-0.07948427,-0.01639244,-0.07143101,-0.06361601,0.024028743,-0.059994422,-0.17050043,0.024004918,-0.060232684,0.04417381,0.05289421,-0.08467839,-0.16306666,-0.17116757,0.17145348,-0.038979694,0.08540389,0.18206416,0.42092654,-0.12867382,0.06929384,0.107606836,-0.3075366,0.20065267,0.0953694,0.103785865,-0.13703865,0.053648513,0.030257968,0.122580916,0.05633352,-0.02216422,0.06929384,0.22719294,-0.066247396,-0.099913254,0.0020282778,0.0857137,0.0026656443,-0.23772642,-0.15149638,0.18289031,-0.017981805,-0.040610738,-0.019724477,0.35586676,0.0015877688,0.051841296,-0.041436892,-0.11297685,0.29101348,-0.0242167,0.20974039,-0.13321768,-0.1690522,0.12247764,0.2556953,0.42072,-0.050886054,0.07419915,0.2201706,0.0074805855,0.04017184,0.030593595,0.16760643,0.08917323,0.19807093,0.1473656,-0.016884565,0.06351075,0.09154843,-0.012347162,0.06955202,0.2645765,-0.12919016,-0.27242497,0.16244295,0.17421567,0.029276907,0.03950059,-0.25598925,-0.13984598,0.026542095,-0.23840974,0.20038666,0.074959815,0.035949107,0.09708235,0.022060802,0.009246525,0.3403314,-0.26230997,0.26290256,-0.0064071384,0.002043124,-0.05061516,0.12562436,-0.043257445,-0.34171405,-0.11189654,0.24512552,-0.029899979,0.0036603403,-0.0145672895,0.1058721,0.11584699,-0.06691077,0.083996475,-0.051652152,0.3928724,-0.074021585,0.32275188,-0.0074070967,-0.104785725,0.044812933,-0.011487172,-0.2064111,0.09130481,-0.14122865,0.16374621,0.35731834,0.09678606,0.04318337,-0.057232168,0.12759958,0.06992299,0.23880479,0.0024505144,-0.0049504098,-0.20759623,0.03389981,-0.5570137,0.091057904,0.11426681,0.14241378,-0.057725973,-0.2247807,0.059256773,0.29904917,-0.111402735,0.104785725,0.012863657,0.008863825,0.005505942,0.2376628,-0.09900961,-0.33284718,0.10551752,0.11932819,0.18063168,-0.105716236,0.06791076,0.12201084,-0.2024903,0.010457362,0.29568753,0.21938106,-0.034849595,-0.11267125,0.19831729,0.13035686,0.1659268,0.46459502,-0.0692024,0.09657536,0.004604593,0.10631238,-0.17784968,-0.08142336,0.0778465,-0.17745225,-0.14337267,-0.10482202,0.1962308,-0.18490405,0.13929902,0.15241419,0.06741397,-0.01356228,-0.07367349,-0.16821201,0.1011458,0.07566063,-0.28932863,0.031471446,0.14446561,-0.029533977,-0.110187314,0.116546184,0.18490405,-0.10670981,0.1565872,-0.0051634777,0.051020008,0.13234401,-0.22951551,0.12946264,0.10005286,-0.18092977,-0.13274144,-0.07933685,-0.072679915,-0.086888015,0.3413919,-0.0011542531,-0.15181805,0.042425595,-0.09260106,0.034170445,0.10550225,0.089674264,-0.07135827,-0.24287221,0.1029613,-0.10666685,-0.1518216,-0.34387487,-0.18146598,-0.07395215,0.118365794,0.032158863,0.049363192,0.28945625,-0.33561677,-0.13287036,-0.25367123,-0.10370241,-0.2786572,0.00053101825,-0.041713882,0.12164785,-0.22995572,0.18188947,-0.16367935,-0.12429467,-0.24583665,0.15753873,-0.18559502,0.094914965,0.0026914852,-0.029088553,0.009541786,0.024258105,0.19978197,0.002703065,0.35403866,0.020486386,0.3008905,-0.16039729,-0.289668,0.024218403,-0.09645012,0.26870516,0.1669614,0.12630625,0.0102762785,-0.10687859,-0.057383057,0.18633613,-0.0018196888,-0.028506251,0.0961325,0.18008964,0.12196547,0.10814907,-0.004846989,0.039172936,-0.23503762,-0.066223435,0.12927069,0.14610447,-0.13244687,0.05915701,0.18512665,-0.056621708,-0.16921887,0.37065098,-0.17110792,-0.2851467,0.009507377,-0.24796233,0.121594995,0.15042782,-0.18840761,0.22986723,0.03830292,0.09783277,0.22171451,0.011930825,-0.024657039,-0.26208046,0.257507,-0.10399703,0.40127343,-0.07566132,0.013496746,-0.22907186,0.055627473,0.33366543,-0.3428124,0.06462531,-0.17747103,-0.075909875,0.16981542,0.03944629,-0.07630757,-0.18870589,0.15957479,-0.011707122,-0.030100478,-0.18234278,0.13084139,-0.007649399,-0.017858954,0.044442326,0.047623876,0.027938016,-0.22489606,0.07933999,0.09027658,0.13770162,0.102803946,-0.1773716,-0.07869373,-0.10166057,-0.06616637,-0.010793668,0.034425404,-0.10777512,-0.19009782,0.12099846,0.23404303,-0.0038961603,-0.20352,-0.052644767,0.024570044,0.026076296,-0.13993472,0.11808337,0.1381048,0.39095607,0.6049485,0.035844814,-0.21958986,-0.2751332,-0.1030673,-0.28223756,0.09553235,0.06716866,0.023761991,-0.06377794,-0.1511295,0.38040715,-0.103713155,-0.0015969713,-0.37201107,-0.38794208,-0.051183812,-0.25274363,-0.25683403,0.010616201,0.0037237436,-0.09876162,-0.15338998,-0.1618937,-0.24865322,-0.019698502,-0.003915481,-0.07771759,-0.019738868,0.1312157,-0.12723295,0.09919219,0.24520868,0.21539181,0.078686364,0.17115092,-0.04644756,0.038428225,-0.0069294595,-0.12734058,-0.09854633,0.24305584,-0.15285176,-0.17610246,-0.06835273,-0.06184038,-0.12023621,0.052502427,-0.160602,0.07691027,0.17244263,0.14025764,0.16964394,-0.10505868,-0.27362618,0.087405376,-0.06442379,0.24499339,-0.20193656,-0.038753908,0.029430443,-0.20624255,-0.21892412,0.045970727,0.23944826,0.41382,0.061906137,-0.10954549,0.2719865,-0.07425399,0.2923438,-0.04223717,-0.01804205,0.14533758,-0.28216517,0.15743515,-0.019648107,-0.11438452,0.28283262,0.3570866,0.115802854,-0.52428323,0.016435996,0.047263917,-0.0647428,0.11571942,-0.18188056,-0.27098534,0.13966425,-0.11121412,-0.007837342,0.0015056769,0.013745331,0.023590242,-0.013964339,-0.038065597,0.053980146,0.106708825,0.21842353,-0.12356198,0.053729855,-0.10420588,-0.21191588,-0.07834213,0.12539747,0.021421025,0.037126996,0.033351723,-0.028366692,-0.022860218,0.13173826,0.0642005,0.031078214,0.018605214,0.14133288,0.009333894,-0.25713572,-0.053020686,-0.14066543,-0.27515692,0.010116063,0.16152328,0.03260084,-0.06599827,0.0050276867,-0.4170974,-0.09999443,0.061134726,-0.23306094,0.2781946,0.28967258,-0.19687618,-0.31943744,0.106608845,-0.08433382,0.24434435,0.13734643,0.13919458,0.4493913,0.3141848,0.20971593,-0.17022398,-0.1147796,-0.1488244,0.1607887,0.18306373,-0.15067254,0.00084808015,-0.16545771,0.0054562865,0.3853871,-0.07937301,0.12188037,0.06351786,-0.1948335,-0.061134726,0.06940275,0.03355844,0.21380131,0.004152249,0.083312474,0.06380967,-0.0018238283,-0.06225334,0.059432484,0.18102103,0.10514978,0.13121837,-0.0033832015,0.09323411,0.04175351,0.08336111,0.10544159,0.051164463,-0.19609801,-0.29531428,-0.15573062,-0.13559556,-0.14824076,0.07061863,0.06721415,-0.14824076,-0.021521173,-0.17022398,-0.0041583288,0.08807875,-0.23228277,-0.1070543,-0.3881501,-0.010899952,0.023052001,-0.029357204,0.2541757,0.109826796,-0.1209168,0.06613755,0.26830652,-0.072129734,-0.10043607,-0.24523215,-0.013661273,-0.13120188,0.26240376,0.02924541,-0.13397439,0.033068776,-0.05951933,0.13236454,-0.060637273,-0.07798776,-0.11036341,-0.1690331,-0.09265518,0.07199558,-0.22877602,0.045276724,0.19890456,-0.004728902,0.030251559,0.0028144235,0.07512582,-0.083622195,-0.027322546,0.061978802,-0.00040735077,0.006400228,-0.087065466,-0.06913365,0.10195647,0.027881518,0.1496256,0.041453354,0.11698164,0.040245976,-0.00034009948,0.07324768,0.051380698,0.12082736,0.059921786,-0.089346066,-0.086171106,-0.020122988,-0.1453327,-0.25328135,0.17189504,0.12270551,-0.18584697,-0.0123868175,-0.061799932,-0.086484134,0.06551151,0.008443943,-0.01077294,0.26357013,0.1637742,-0.12046976,-0.015579819,0.23141083,0.025587061,-0.26357013,-0.18342711,0.02803304,-0.24076936,0.17730153,0.009448921,-0.012208623,-0.0041422113,0.16360405,0.011995929,0.29555926,-0.24264106,0.14395115,0.23311238,-0.21728796,-0.015367125,0.015813783,0.097583905,-0.011581176,0.07457044,-0.031393602,0.12506394,-0.19499765,-0.03860392,-0.13059399,0.15756355,0.2523399,-0.02699084,-0.11213216,0.056491468,0.1607965,-0.13893157,0.01952529,0.023119813,0.14863041,0.061766274,0.00057194685,-0.049812883,0.059724413,-0.0112195965,-0.10047654,0.12965813,0.199762,-0.14352576,-0.0046101375,0.16709223,-0.15790386,-0.1134934,-0.098604836,0.049430035,0.079760164,0.044835847,0.09043739,-0.06423352,-0.084226735,0.117917426,0.11548227,-0.03307216,0.038305715,-0.06240957,0.15204346,-0.17681073,0.062016435,0.08118158,0.1803489,-0.29504493,-0.076758854,-0.2266401,0.20020203,0.09263153,0.34556228,-0.032605313,0.035504654,-0.017396053,0.16364084,-0.14477055,0.058773104,-0.27224332,0.12992984,-0.025823802,-0.10378662,-0.2689017,0.054792654,0.008237326,-0.2152393,-0.14231347,0.027003195,-0.39411396,-0.0050922767,0.07612002,0.25435585,0.08506375,-0.27774715,-0.20521446,0.11145268,0.0254061,0.29052392,0.17720386,0.1894892,-0.002742704,-0.15735073,0.09607142,-0.10752136,0.23764777,0.057348005,0.27578148,0.1524366,0.075284615,-0.2700811,0.0406645,-0.02648721,0.45131454,0.032507032,-0.061328456,0.22919545,-0.08580087,-0.12855388,0.0013598345,-0.18349396,0.14251004,-0.15988742,-0.14718942,0.21407746,0.17267483,-0.1053397,-0.22337739,-0.019985927,-0.3374805,0.14817308,0.096486874,0.049942464,0.1911853,-0.049942464,0.11025794,0.23035234,0.07846824,0.18886031,-0.036081977,0.090584986,-0.20692365,-0.042296838,0.110526204,0.05562079,-0.28650966,0.06125441,0.12921551,0.23231964,0.10274644,-0.06881061,0.049316507,0.112672344,0.17795077,-0.0632217,0.1479048,-0.122866504,0.37199757,-0.07086733,0.18233247,0.13529624,0.26021945,0.11651751,0.2138986,-0.005879529,0.10829064,0.07815526,-0.05910827,-0.038272828,-0.11311945,0.014262888,0.18313727,0.07569614,-0.35554382,-0.029889468,-0.07341587,0.17625174,-0.15550572,-0.20424098,0.030917827,0.11526559,-0.13824718,-0.008143036,-0.11463964,-0.072655775,-0.13243471,0.22609009,-0.3366401,-0.13540456,0.099226296,-0.0042703776,0.1902957,0.06276015,0.05968932,0.064247586,-0.25295988,-0.005481917,0.03037246,0.055466924,0.110837884,0.19355845,0.2097763,-0.010172135,0.15910754,0.10152942,-0.0134229,0.12705572,0.14068255,-0.023906916,0.14413723,0.17513345,-0.1258082,-0.039249085,-0.20363462,-0.08627122,0.27733463,0.019228693,0.049853057,0.01747736,-0.06410364,-0.20113957,0.036562108,-0.19461405,0.2771427,0.104408324,-0.0776345,-0.0030573383,-0.116691664,0.00075046485,0.34681222,0.008852636,0.23952499,0.056330595,0.1694716,0.025982127,0.16064297,0.13722786,0.13502069,-0.12820728,-0.22244348,0.17350207,-0.13655612,-0.018269058,0.14298567,0.072548434,-0.16534518,0.17839621,-0.2900018,-0.14471301,-0.017813232,-0.21047702,-0.0022505214,-0.4657548,0.12347264,0.10945887,-0.12650265,0.027445879,-0.2770289,-0.27031958,0.036711738,-0.12055085,0.032139678,-0.011179901,0.12985729,0.12585336,0.2739989,-0.090467244,0.12130835,0.004666746,0.17747162,-0.12163299,-0.27919316,0.12953265,-0.10426458,0.086787954,0.19749129,-0.19543523,0.090304926,-0.23980314,-0.10220851,0.41814047,-0.34217396,0.15128374,-0.17260198,-0.09993601,-0.07623705,0.24153456,0.46662053,-0.031355124,0.13710766,-0.058165245,0.07115097,0.10718637,0.3012689,-0.060654175,-0.06498275,0.09279385,-0.108484946,-0.32788965,-0.00318218,-0.02621494,0.19218878,-0.1171962,0.042230673,0.07234133,0.05180765,0.10523851,-0.15431374,-0.23222812,0.046234608,-0.23309383,0.20690595,0.048344787,0.1704377,-0.25342175,0.01657468,-0.09732792,-0.20573057,0.16183074,0.07722379,0.22309095,0.012116103,-0.07906958,-0.36456814,0.041954268,-0.15444759,-0.26539442,-0.12311907,-0.13678788,-0.071985744,0.16362664,0.021276452,0.11044798,0.2117169,0.1951547,-0.15883757,-0.056870233,-0.15634325,-0.13100109,0.19425675,0.24783449,0.038287636,0.26319942,-0.113341376,0.19375789,-0.20293693,-0.3509991,-0.02288528,0.024706125,0.17190774,0.24663723,-0.028235571,0.019779867,-0.1096498,0.051133323,0.08740057,0.050310202,-0.0699903,0.15424804,-0.1031646,0.17949045,0.0439996,0.10356369,-0.14287399,-0.13499197,0.005833564,0.10456141,0.17051093,-0.16133188,-0.02329684,0.040208254,-0.0021934325,-0.18797109,-0.04065723,0.067047015,0.113940015,-0.4274247,0.056171827,0.17488757,-0.040723566,0.26868603,-0.11814309,-0.11134091,0.22787295,-0.032713104,-0.113488965,0.059877064,0.10203267,-0.10221167,-0.071020104,-0.25006953,-0.029200139,-0.09442497,0.36105245,0.10355421,-0.1491109,-0.459326,-0.11339947,-0.16656385,0.16369978,-0.13684908,0.17828867,0.07486871,-0.1951151,0.09648352,-0.07173613,0.041931845,0.06654499,0.008396438,-0.11689006,-0.06198037,-0.036606457,0.19672614,0.041171078,0.021816196,0.2178487,0.13219495,0.23127405,-0.1645053,-0.0066903,-0.10158516,0.047301985,-0.14248772,0.0065560467,-0.03624845,0.032108966,-0.10364371,-0.008245403,0.18473282,-0.44786972,-0.031661455,0.17676713,0.0668135,-0.036584083,0.047615245,0.059966568,0.2028123,-0.024411764,-0.044102278,0.049539544,-0.074465945,-0.108387336,-0.18292049,-0.037654936,-0.11796792,-0.0346048,0.08983643,0.12165441,-0.15456957,-0.009885518,0.2483997,0.2838603,0.088475935,0.14465113,-0.044764612,0.05204983,-0.08478944,0.06065166,-0.2771895,-0.12569201,0.08579884,-0.14289565,0.06565476,0.21943437,-0.022930892,0.009227215,-0.06741024,-0.2136413,-0.11480806,-0.01991367,-0.089090355,0.08830039,0.17440644,-0.15000534,0.027363466,0.2036351,0.15053198,-0.03912515,0.018037505,-0.13552266,0.06236325,0.14903982,-0.04406242,0.1119993,0.14017467,0.07162338,0.16440023,0.14377339,-0.12577978,-0.032629892,0.047661144,0.15140972,0.21767889,-0.029096996,0.07987411,-0.13982359,0.07693369,-0.01748892,-0.1053285,-0.11419365,0.1223566,0.20205517,-0.06749801,0.010900402,-0.15316519,0.0708773,0.11299737,0.18684681,0.12082695,0.14924546,0.14305912,0.04697752,-0.4589491,0.07984245,-0.3193698,0.42569754,-0.23856074,0.10323455,-0.0108683845,-0.08602879,-0.05514542,0.10690769,-0.0041473852,0.017121179,-0.070949584,0.20820901,-0.051472284,0.0027488132,0.24397378,-0.19322646,0.05258389,-0.23682083,0.08979859,-0.013508453,0.016323721,0.0073100305,-0.073124476,0.14576563,-0.030448392,-0.30081078,-0.047895804,0.32961592,-0.2457137,0.11725047,-0.09390671,0.088155344,-0.08370891,-0.09690322,-0.061041776,0.087333724,-0.1274966,-0.040428698,-0.019175237,-0.032454118,-0.013460123,-0.08467553,-0.123243496,-0.065923184,0.20492251,0.16577458,0.12710996,0.0051140008,-0.14663559,-0.06350665,0.27799866,-0.08235565,-0.30583718,-0.1345529,-0.030907534,-0.022896707,-0.16960874,-0.1807792,-0.13883296,-0.1873903,-0.14191054,0.13803507,0.0722091,-0.153081,0.18704835,-0.23936717,0.05847398,0.30228654,-0.052375816,-0.0016937364,0.3011467,-0.05853097,-0.1625417,-0.1261807,0.17587788,0.021158349,0.18431272,0.2924839,-0.04208873,-0.097057685,-0.05622279,-0.086229175,0.09643077,0.21702623,-0.041917752,0.3054781,-0.32257575,-0.28610075,-0.044510894,-0.29635936,0.13233586,-0.11552315,0.26854718,0.42014638,-0.16698709,0.22329538,0.21189694,-0.2573767,-0.29841107,-0.07910515,0.022967849,0.17804357,-0.17120452,-0.010066245,0.15000343,0.1655053,-0.11478226,-0.33123857,-0.042459175,-0.04462488,0.13233586,0.1655053,-0.054911967,0.052689273,-0.23640357,0.19137976,-0.26216406,0.1297142,0.08451941,-0.18784623,-0.13385859,-0.026658278,-0.09920087,-0.030472191,0.00031171407,-0.018834865,0.08081585,0.031469677,-0.083084635,-0.2079463,-0.0057110908,-0.11469123,-0.20732042,0.027421061,0.28289458,0.14426373,-0.07228833,0.26912537,-0.16663869,-0.015509915,-0.07999439,0.17915614,-0.13612737,-0.14872307,-0.023372443,0.18447606,0.07283597,0.07788207,-0.23595412,-0.03145012,-0.25848556,0.075535044,0.19902761,0.047722816,-0.1251746,-0.012419667,0.065442845,0.049326614,-0.012175186,0.09528916,0.17117625,-0.0028237628,-0.11664708,0.17227153,0.09450682,0.09364624,-0.060083807,-0.042911418,-0.009392984,-0.053433906,-0.16382225,-0.11117069,-0.21561325,0.18729249,0.096697375,0.024154786,-0.029572498,-0.035048887,0.14176023,-0.1719586,-0.020653808,-0.049170148,0.122984044,0.0013862109,-0.07101302,0.13727717,-0.060811765,0.031307288,-0.114148475,0.092338905,0.19962792,-0.01189413,0.103771344,0.03099949,0.20648739,0.19276845,-0.0065956363,-0.120480284,-0.053512596,-0.3106105,0.3243294,-0.028647047,-0.02858109,-0.107904606,-0.13639775,0.039507862,0.023194654,0.31324875,-0.05377642,-0.25397596,0.01955606,-0.114236414,-0.14484017,-0.10992727,0.36161673,-0.3178217,-0.05905293,0.043729067,-0.018753592,0.08877726,0.06358193,0.13674952,-0.27156433,-0.079235576,0.14739048,0.036671735,-0.12267883,-0.12461355,-0.08161,0.20349737,-0.08394046,-0.01970996,0.040980887,-0.04377304,-0.16876034,-0.051577874,0.08956874,0.21299508,-0.03772704,0.14985286,-0.12452561,0.15293081,-0.19259258,0.029812275,-0.1312092,0.1331439,-0.14009131,0.012993403,-0.0030307325,0.08634566,-0.027469432,-0.103246376,-0.004418019,0.11411442,0.17683591,-0.03357119,-0.14782377,-0.22141328,0.2720694,-0.05977422,-0.117890604,-0.0075638792,0.30577874,-0.20262447,-0.05880715,0.08740483,0.059451863,0.14846848,-0.19525631,-0.13299534,0.107114665,-0.37025017,-0.028068094,-0.006855845,0.08247737,-0.025397135,-0.007281817,-0.2534648,-0.127285,-0.076030225,-0.047386497,-0.13999508,0.06147811,-0.20925581,-0.0071091256,-0.06456353,-0.0429656,0.10987773,0.01509322,-0.036564507,-0.38830218,0.033847496,0.121758886,-0.2309919,-0.050932422,0.21607137,-0.23670222,-0.0030623926,0.22049227,0.011961752,-0.077365704,-0.023474505,-0.1313375,-0.12590347,-0.010856527,0.13842936,0.060925495,0.12304831,0.0034969992,-0.042758368,0.20575593,0.07400399,-0.04610396,0.17217429,0.1712936,-0.43224114,-0.20889895,-0.17296691,-0.11572226,0.120654106,0.08657152,-0.08128741,0.022941895,-0.23708092,0.0464122,0.0023145552,0.11043814,0.2289786,0.20097275,-0.046192028,-0.06455435,-0.03527151,-0.25434238,-0.04183263,-0.050903704,0.3288485,0.051916495,-0.09634715,0.20220572,-0.08296071,-0.20784211,-0.358968,0.3519225,0.027521467,0.12778768,-0.026310522,0.17349532,0.061560016,0.014586377,-0.024725286,-0.0015879886,0.25310943,0.13315986,0.027543483,0.09370509,-0.062484737,0.029657133,-0.025980264,0.023778547,-0.030097475,-0.1158984,-0.31599048,-0.23479113,-0.022314405,-0.12109445,-0.009847181,-0.052444905,0.082124054,0.04284542,0.17164588,0.23250134,0.16266288,-0.039542843,0.1232081,-0.15649807,-0.08643942,0.11999093,-0.35647172,0.07049865,0.13558656,-0.08498032,0.023353672,-0.10948774,-0.10991211,0.2539861,0.29727197,-0.11330708,-0.27711433,-0.11076086,-0.0019461394,-0.03299485,-0.17950897,0.011988483,-0.123598084,0.019892395,0.07325706,0.09267204,0.22788729,-0.08078965,-0.11298881,-0.23064569,-0.10423615,0.07723554,0.11203397,0.05323205,0.23701125,-0.061586857,0.0785617,-0.098454095,0.1380267,0.028194156,0.04052744,0.17314342,0.01038383,-0.08105488,-0.18470752,-0.032358296,-0.12900881,-0.15256141,-0.15341015,-0.11288271,-0.27371937,0.1145802,0.26926348,-0.121051855,-0.007148001,-0.14131558,0.12932709,0.01029763,0.17547745,0.11118523,0.029944686,-0.26523194,-0.024215676,0.29599884,0.24889365,-0.22491668,0.093786016,0.025528574,0.11786907,0.27577317,-0.11677754,-0.036722954,0.21883686,0.026144225,-0.18184762,0.18165396,0.1967595,0.14311543,-0.16383715,0.06182625,0.0051017553,0.0043936823,-0.0011665046,-0.24226983,-0.026773624,-0.046769116,-0.105351545,0.049093045,0.097556695,-0.4024274,0.32593134,0.0016203973,-0.007274389,-0.085065566,0.1770061,-0.28584355,-0.3607903,-0.12994649,-0.067587666,0.17293921,0.09295725,0.09552325,-0.09818609,0.15599388,-0.40784994,0.053063095,0.08027246,-0.11803634,0.076108746,-0.14582668,-0.23665366,-0.05451555,0.083322614,0.056548994,0.55193365,-0.10021953,-0.09668522,0.15686536,0.036093555,0.01601334,-0.007873528,-0.012575856,-0.15347628,-0.12752573,-0.06618363,-0.071993455,0.18058883,-0.16916282,-0.21651292,-0.27112532,0.0015409661,0.06095478,0.032631867,-0.3765536,0.20320058,-0.30420786,-0.11108825,-0.01895122,0.102983944,0.057916116,0.087664835,0.08119128,-0.069331326,0.016813958,-0.2640817,-0.05673012,-0.015998585,-0.440795,-0.16169073,-0.007993116,-0.15882458,-0.085836425,0.07768271,0.2575587,0.12818636,0.06962782,0.010581304,0.06270952,0.18046899,0.16346972,-0.13767432,-0.14093581,-0.019741884,0.15072027,0.17869,-0.015146151,0.2117002,-0.24589641,-0.33425307,-0.087566,-0.010080962,0.1604059,0.17948066,-0.13984865,-0.21624653,-0.08435393,-0.077336796,-0.034047958,0.10476294,0.048378736,-0.053023886,0.11286724,0.10219328,0.16119656,-0.20320058,-0.114250906,-0.21328153,-0.18807913,0.017999953,0.06765116,-0.069924325,-0.013923094,-0.016702771,-0.14785412,-0.11257075,-0.07283989,-0.049540024,0.06178379,0.2750041,-0.060920082,0.08297338,-0.09754123,-0.16801967,0.13612011,-0.34041545,-0.047849327,0.036246873,0.30218205,-0.04240798,0.42010674,-0.035095267,0.16859546,0.035124056,-0.048540294,-0.26417896,0.18080251,0.12494951,0.18828797,-0.2984969,-0.028962951,-0.16249195,0.08827078,0.21155046,0.07520003,-0.1599584,-0.24368033,0.08055501,-0.04413539,0.45880076,0.21108982,0.17573544,-0.24851708,-0.036534775,0.10358717,-0.07980646,-0.18080251,-0.15477617,-0.015618688,0.051707216,0.047331106,-0.02070016,-0.18690604,0.2849079,0.087176755,-0.080151945,-0.077618405,-0.2775376,0.33396643,-0.02458684,0.17757802,0.03290721,-0.07917307,0.15270327,0.12713757,0.34502187,-0.4687046,-0.19220343,-0.03699542,0.19036086,0.19508246,-0.026415017,0.0367626,0.059261218,-0.13278642,-0.11261039,0.1629097,0.099847876,0.051988464,-0.077888854,0.22897446,-0.042346198,-0.121994585,-0.21245827,0.12602979,0.04617026,0.032821238,-0.009161324,-0.16422348,0.34008336,-0.26163146,-0.06568939,0.20232333,-0.008621733,-0.16244048,0.35003063,0.060528085,0.24436454,0.07253986,0.112328865,0.14695656,0.25919157,-0.101161666,-0.19331451,-0.15878065,-0.06944308,0.17707984,0.022674572,0.0838009,-0.1756722,-0.05836972,-0.16675721,-0.10491534,0.21940258,0.07723196,0.12283917,-0.10088014,0.081689455,-0.21846415,-0.10669834,0.068223126,-0.19500366,0.120305434,0.2447399,-0.07624662,-0.07535512,0.19059308,0.02123175,-0.016093902,-0.05269228,0.027167257,-0.025196575,0.025196575,0.09947251,0.019003004,-0.11505028,0.039601948,-0.15968117,0.24075268,-0.15008841,0.03070955,0.098134734,-0.0067223567,-0.032216378,-0.08234489,0.25942886,0.01998137,-0.2061169,0.022284055,-0.102888666,-0.14270285,-0.121479936,0.2385455,-0.209173,-0.20373993,0.107982166,-0.058405448,-0.08905133,-0.29287615,-0.2774259,0.066257924,-0.05849034,-0.020363381,-0.12861083,0.04354941,-0.037819225,0.36605275,-0.22903764,0.15985096,0.039389722,0.092362106,-0.03924116,0.12928997,0.01677671,-0.058914796,-0.06871978,-0.11265121,0.034232553,-0.025403824,-0.054457985,-0.07831254,0.050170958,0.047284644,-0.053948637,0.13489282,0.2760676,-0.28268915,0.24907207,-0.060145725,-0.059466593,-0.039771732,-0.16817033,0.09321102,0.13217628,-0.17207535,-0.17742352,-0.13676043,-0.097285815,-0.17300916,0.14083523,-0.23154682,0.4174697,0.26217696,0.10468872,0.12894651,-0.06731137,-0.116416,0.20894904,-0.17317817,0.07491536,-0.17692661,0.096709885,0.0063790507,-0.112774655,0.048836887,0.3142268,-0.22147956,-0.061956447,-0.043107122,0.24247086,0.27245843,-0.12637615,-0.0022992697,0.27652815,0.15261528,-0.1365505,-0.18303123,0.03020176,0.081234165,-0.31958175,-0.27845594,-0.26196277,-0.3846976,0.22447832,0.14083445,0.3217237,0.06297388,0.045972005,0.17253558,-0.30608734,0.1922417,0.18967134,0.13333756,-0.35406744,0.004290631,-0.06918559,0.04096515,0.018983198,-0.016774293,0.121342525,-0.01892965,-0.14040606,-0.06629393,0.07523665,-0.023414396,-0.09274725,0.02125904,-0.010696457,-0.08969494,-0.11491662,0.20487931,0.053709865,-0.082519345,-0.10131512,0.068131156,0.089326456,-0.00020820013,0.21491936,-0.07640833,0.022893792,0.1627684,-0.061576404,0.24190389,-0.08301093,-0.15406063,0.07918333,-0.23539698,0.071528144,0.0073142913,0.04459146,0.012308104,-0.060093213,0.10210105,0.0033192409,0.047342543,0.2229573,0.23654526,0.0729635,-0.15635718,0.037199423,0.061193645,0.08133636,0.07191091,0.041027013,0.15453908,0.028180655,-0.20305382,0.16745721,0.17530377,-0.062437613,-0.1796098,0.07363332,-0.097795,0.1411425,-0.03729511,-0.18047102,0.27673498,-0.063250974,-0.016123736,-0.119516596,0.19520725,-0.029950917,0.08712559,-0.06765271,0.13425283,-0.072485045,-0.012726747,0.16602185,-0.20267107,0.00016652273,-0.0687053,0.058944933,0.12076057,0.031003505,-0.10133553,0.24726252,0.19023138,0.12200453,0.044414584,-0.25988346,0.02539305,-0.32443574,0.10259537,-0.39847556,-0.063296594,-0.15868331,0.10399059,0.00022854036,0.00066454744,0.15691604,0.1510561,-0.0067784563,0.07157492,0.09134057,-0.17793739,0.111710824,0.20035397,-0.04990246,0.02299792,-0.30397248,-0.11571046,-0.0072551575,0.091666125,-0.12054723,0.05283243,-0.38508144,-0.029183405,0.0021800352,0.0601806,-0.20965545,0.02927642,-0.13170901,-0.0789696,0.036182772,0.06055266,-0.11003655,-0.00061658665,-0.034368984,0.17877452,-0.18063481,0.044833153,-0.13142997,-0.20612088,-0.07362124,0.11273398,0.22993268,0.11068766,-0.19849366,-0.05083261,-0.09933985,0.21263193,-0.07366775,0.21542236,-0.16500832,0.08255067,-0.075249,0.05366956,-0.33150488,-0.15747412,-0.07376077,0.014510315,0.17086826,0.13617086,-0.06027476,0.04745348,0.28098747,-0.14619209,0.29061574,-0.22380751,-0.23481122,0.21496525,-0.01053089,-0.14756756,0.050450027,0.013582699,-0.12723035,0.035811167,0.0935315,-0.1573923,-0.116717875,0.010340536,-0.12634613,-0.08640856,0.10541943,-0.029474212,0.15591858,0.116816126,0.38336125,-0.15395363,-0.29611757,0.17861372,-0.09205779,0.2204671,0.020103868,0.28079098,-0.008547521,-0.039348073,-0.035025187,-0.07628909,0.16761002,-0.094022736,0.28236294,-0.14265518,-0.11848633,-0.29710007,-0.18411557,0.07869615,0.19718248,0.079089135,0.21889515,0.021123186,-0.07432414,0.09564382,-0.19236836,0.104928195,0.043892015,0.20572999,0.07849965,0.019661756,-0.1872595,0.01826173,-0.15542734,0.023616211,-0.0955947,-0.09372799,-0.17075393,-0.049537033,-0.12027552,0.18478419,0.14971639,-0.0126229,-0.2045789,-0.24939334,0.28355682,-0.20940198,0.0404184,0.22809142,-0.10731349,-0.13524716,-0.06702069,0.053204585,0.020900007,0.15614717,-0.083901465,0.35047704,-0.088825025,0.008936511,-0.06968343,-0.28717414,-0.19714333,-0.025183,0.06400627,-0.0067196535,0.37660202,0.05046648,0.1952342,0.16056831,-0.13635245,0.022382097,0.011404571,0.18106641,-0.13303658,-0.07661661,0.019242072,-0.11756253,-0.22507699,-0.26346067,-0.049059752,-0.14871158,-0.14680246,0.23432122,0.079882234,0.117361575,-0.12791206,-0.047376696,-0.29601642,0.18870294,-0.18970776,0.14830966,-0.08636325,-0.05164713,-0.027983902,-0.17805198,-0.20015775,0.029013831,0.10007887,0.10198801,-0.06300146,-0.081188485,-0.022319298,-0.011828626,-0.14986311,0.16943872,-0.068555266,0.027515516,0.11404217,-0.20501597,-0.09885279,0.02554577,-0.14888838,0.17951082,0.43537465,0.104213744,-0.03441978,-0.032612488,-0.17983572,-0.101695724,0.12443917,-0.1300438,0.030236607,-0.13085608,0.017473876,0.006421979,0.044634026,-0.020408187,0.06055444,-0.043781146,-0.16220956,-0.20030484,-0.30070093,0.024043078,0.20062974,0.050888475,0.13329287,-0.26626083,0.08496304,-0.06648398,-0.14685772,-0.25846308,0.2157379,0.13101853,-0.064656384,-0.16009766,-0.094629005,-0.009269987,-0.06392535,0.13800402,-0.08232317,-0.11306745,0.104213744,-0.13353656,-0.03033814,-0.0662403,-0.13759789,0.059336044,0.091055036,0.048207995,0.1382477,-0.09389797,-0.102751665,-0.28461805,0.009127841,0.1410094,0.10754404,-0.102162845,-0.2239418,0.31025273,0.047237724,-0.19732751,0.16806239,0.068338305,-0.40716693,0.032631673,0.176439,-0.13900933,-0.046018347,-0.18311909,-0.14187223,-0.2941357,0.22669867,-0.07872954,0.06855037,0.22266941,-0.10757054,0.34694016,-0.39592743,0.11886305,0.028761465,-0.17484851,-0.107252434,-0.07379901,-0.063831896,-0.09601293,-0.110168345,-0.28183585,-0.02290314,0.053838283,0.15979181,0.06955768,-0.19107157,-0.0047416654,0.2604172,-0.25956893,0.060067724,-0.104071446,-0.04257227,0.2585086,0.07310979,0.2566,-0.010146038,0.20337139,-0.28628924,-0.056250535,-0.100201234,0.12755777,0.32297668,0.017402675,-0.24705702,-0.082970865,-0.1905414,-0.10603306,-0.2489656,0.03666093,0.19584306,-0.103170164,0.06770211,0.08737124,0.0018141593,-0.05687319,0.07406973,-0.11344731,0.05727195,-0.3838068,0.19559193,0.110655986,0.25161776,0.06868646,-0.1758533,0.0384056,-0.13129184,0.15581559,-0.009782089,0.029059658,0.16528615,0.08119757,-0.25361156,0.20954855,-0.008174586,0.27893284,0.24005371,0.092911154,0.2902975,0.03374509,0.007975206,0.111353815,0.4318574,0.068337545,-0.34213635,-0.16259451,0.10626962,-0.23726238,0.05288559,0.049795195,0.15312396,0.055926133,-0.29488325,0.17146693,-0.042966425,-0.26397932,0.21712498,-0.0077695954,-0.15850723,-0.044735923,0.035763815,0.057122413,0.054480627,-0.11284917,-0.2241033,-0.19210277,0.19200309,0.16847624,0.053882487,-0.07013197,0.05966451,0.015302427,0.16099948,0.105272725,0.29408574,-0.11464359,0.13537912,-0.10607024,0.12690547,0.27710733,-0.40517113,-0.3723903,-0.118448086,0.14237809,0.08523017,0.120633475,-0.0035683305,-0.030732034,0.008966925,-0.13156042,0.0016219685,0.14893426,0.08457456,0.1466396,-0.054962534,-0.23296247,0.27448487,0.056765478,0.19417182,-0.009192293,0.27317363,0.11320315,0.18750638,-0.2432338,-0.20083725,-0.061682604,0.2954646,0.25263098,0.06425044,0.11200119,0.16401345,0.017196279,-0.07321053,-0.0105854785,0.40713796,-0.037943818,-0.13068627,-0.16816568,0.007737643,-0.20356898,-0.064086534,0.2757961,-0.1330902,-0.08555798,0.24279672,0.10118351,-0.21591644,0.09364392,-0.3870324,0.028027615,-0.012094762,-0.17264573,-0.09211415,-0.08320869,-0.133418,-0.06162797,-0.009233269,-0.13516632,0.086923845,-0.09774152,-0.099653736,-0.030923255,-0.25022703,0.28901574,0.23658757,-0.00020135552,0.0045502908,0.20442577,-0.21400823,-0.017416392,-0.21312708,-0.064103335,-0.11509964,0.3335136,-0.029766198,-0.020624314,0.16840895,0.022854712,0.06950036,0.032189347,-0.07671473,-0.10083609,-0.03714579,0.03505307,-0.033593673,-0.018173628,0.11008812,0.15849605,0.21577051,-0.02377716,0.085085616,-0.41656154,-0.0926855,-0.025470613,0.36787826,0.044855814,-0.2685291,0.23526585,-0.035796538,0.25465107,-0.26610595,-0.21632123,-0.13988185,-0.1659858,-0.04634275,-0.002724323,-0.13404426,0.18757385,-0.11262141,0.19946931,0.13239212,0.17832182,0.096485436,0.056668673,-0.074071296,0.28394914,-0.11928508,-0.09940423,0.21819367,0.33791932,-0.009128117,0.0013234393,0.3072995,0.009906003,-0.004030552,0.06933514,-0.25487134,-0.06668113,-0.015287598,-0.0355038,-0.13300546,0.0055363183,0.05673472,-0.16110519,-0.00050003885,0.32524338,0.33844578,0.042350326,-0.07997276,0.14977609,-0.03204709,0.12809914,-0.052452855,-0.108295515,0.1289912,0.034143418,0.0033898102,-0.17502126,0.008703114,-0.067885414,0.13746573,0.06338053,0.28188947,0.063157514,-0.121319525,0.07921451,-0.2610154,0.39250433,-0.033006046,0.12114111,-0.0060213734,-0.17707299,-0.00487564,0.1612836,0.33095253,-0.03626205,-0.19874993,0.3065102,0.14263965,0.1305969,0.09411184,-0.16806322,-0.034923967,-0.041012242,-0.009846061,-0.075021856,-0.030196073,0.07359456,0.062176257,-0.21498533,0.34130037,-0.18287134,0.13514638,-0.036373556,0.026159523,-0.1015159,0.021877658,0.08514668,-0.38964978,0.053121895,0.05276507,0.239291,0.2580473,-0.014190627,0.29180866,0.11184682,0.149162,0.13119543,0.063475296,-0.16209398,-0.055824693,-0.12754288,-0.257455,0.2505448,-0.14284408,0.17729646,-0.14876713,0.1293198,0.038944017,-0.06816437,0.012845603,-0.16199526,0.112340406,0.09881613,-0.07235986,0.10582506,-0.16229142,0.10473917,-0.38085175,0.055676617,-0.034180902,0.032996293,0.32754436,-0.013277492,-0.051036898,-0.051974714,-0.19516431,0.14600304,-0.027196646,0.08435402,-0.1497543,0.03477321,-0.023099873,0.051579844,0.4434386,0.051974714,-0.021211904,0.053504836,-0.21283473,0.009711325,-0.14866841,-0.115992956,0.054985594,0.18805666,-0.1452133,0.04827281,0.100247525,-0.13850053,-0.17147213,0.10592378,-0.027221324,-0.21303216,0.11184682,-0.089191176,-0.3567647,0.114371255,0.078439616,0.074531935,-0.07462724,0.03552657,0.21501796,0.014713385,0.025090193,0.111226045,0.12456936,0.36598802,-0.22512075,0.14467964,0.12838173,0.014010479,0.11637275,-0.20339021,0.19843413,0.066144705,-0.029831834,-0.073626496,-0.31318662,-0.0069575845,-0.013212263,0.09221182,-0.19709979,-0.2256926,0.009858564,0.24437325,-0.011633701,-0.10150449,-0.1280005,-0.14363123,-0.00668357,0.053230286,0.14410777,-0.1767989,0.3650349,-0.1961467,0.08172779,0.18823601,0.050371006,-0.07357884,0.17365368,0.05094286,-0.009167571,-0.024780437,0.09459455,0.08291916,0.2296956,-0.2031996,0.16850698,0.1117979,0.038242888,-0.34730735,0.12418812,-0.19176246,-0.22988622,0.022778941,-0.26133832,0.1881407,0.28821555,0.023410365,0.042722426,0.07310594,0.0056574354,-0.012070395,-0.24407023,0.03002908,0.42175028,0.13335598,-0.0076631717,0.008946364,-0.38989836,0.032883283,-0.12241887,-0.020591026,-0.046122942,0.15235202,0.0377762,-0.27112517,-0.062408682,0.22910365,0.21375333,-0.06202492,-0.15916373,0.015266381,0.2607637,-0.2296793,0.18199733,-0.065670624,0.27419525,0.28359732,-0.0828438,0.10303908,0.02998111,-0.013191689,-0.046386775,-0.10821982,-0.19418167,0.038016047,-0.12270669,0.07747119,-0.04645873,-0.14438903,0.010085646,-0.1644404,0.15590177,-0.15388705,-0.089703485,0.05871501,0.049121052,0.17566532,0.11474371,0.04950481,0.052862696,0.29280752,0.19514105,0.042813025,0.17067647,-0.26747948,0.20550252,-0.17873539,-0.0036666899,0.10668478,0.11695032,-0.17547345,0.0060531865,0.016400581,-0.005785003,-0.102740616,0.13941143,-0.23955496,0.15260461,-0.0042397385,0.19779386,0.009654657,0.075679004,0.15447451,0.1259066,0.38561493,0.015257864,0.46581283,-0.028334178,0.14003472,-0.06477126,-0.23830836,0.15572111,0.06284942,0.23768505,-0.4703837,0.12788038,-0.07396493,0.45417792,-0.3029238,-0.03560601,0.16964148,-0.07396493,0.12632212,0.19571619,-0.31746745,-0.0077912495,0.07848386,-0.07474405,0.24287923,0.15177354,0.030100195,-0.06653727,0.0673164,-0.21316859,0.070744544,0.07812026,-0.08534016,0.10762313,-0.16829099,-0.051396277,-0.071523674,0.27362868,-0.06404407,0.022854332,0.0937547,0.13909978,0.12393281,-0.22127149,0.36753923,-0.059213497,-0.19343075,0.11884253,0.2655258,-0.16995312,0.17971815,0.14657937,-0.24251567,-0.044046007,0.10454987,0.004111336,0.08108868,-0.23871386,-0.013093745,0.13646509,-0.34316367,-0.2987425,0.20149611,-0.07418539,-0.21530269,-0.13226308,-0.17358279,0.021797897,0.1861888,0.26632702,-0.061229207,-0.123658985,0.17168188,0.32635567,0.022273123,0.058627963,-0.027763242,0.13086241,-0.17828503,-0.21090059,-0.2545214,-0.009629593,0.11435454,-0.13976666,0.055676557,0.021172598,-0.28413552,-0.13046223,0.14326833,-0.0345915,-0.07698672,-0.086441234,-0.036617465,-0.009929736,0.08849221,0.35616988,0.23471195,-0.12155798,0.19989535,-0.0067094504,0.08048839,-0.105450295,-0.095045336,-0.094895266,-0.17998585,0.007466061,-0.023173554,0.12535979,0.16838032,-0.06908295,0.060428824,-0.21270145,-0.38478354,-0.24231558,-0.0526251,-0.11295388,0.18426284,-0.10628583,-0.019545352,-0.30761573,0.1375584,-0.34502017,-0.17424746,0.36648175,0.005614498,0.18487604,0.026826954,0.15288809,-0.20991452,-0.046295658,0.15145731,-0.15135512,0.16106392,-0.33459598,-0.16341448,-0.3977543,0.4169675,-0.009102002,0.24425302,-0.18477383,0.033009928,0.014128862,0.21625079,0.052376434,-0.088299,-0.048492912,0.28738055,0.11435947,0.18252549,0.15534084,-0.31027287,-0.018548923,-0.17782438,0.01937928,0.12979136,-0.3534004,-0.15993974,-0.3392971,-0.16045073,0.049284946,0.19366506,0.12815619,-0.030991519,0.009363884,0.16709359,0.08651054,-0.10127814,-0.071538545,0.060296774,0.17424746,-0.29596516,-0.12161552,0.12611224,-0.10710342,-0.025843298,-0.11538145,0.15360348,0.18303648,-0.28165746,0.16464084,0.17706217,0.0992665,0.16165708,-0.0102961315,-0.08987903,-0.15886492,0.18813457,-0.057528354,-0.21663398,0.0741851,0.14798507,-0.17975806,-0.055506438,0.023071518,-0.23415725,0.31811494,-0.1468297,0.15925004,0.29269657,-0.16358271,-0.3406449,-0.15135494,-0.08857922,-0.0069744103,0.05829861,0.05237728,0.15443595,-0.18312791,0.037477676,0.23839365,0.080010146,0.23935647,-0.0042725033,-0.0029320805,-0.08756827,-0.028066134,0.18206882,-0.19554827,0.00022415599,-0.13970484,0.17186294,0.295585,0.010825681,0.2297283,-0.13209859,0.14037882,0.14711854,0.13604613,-0.01767974,0.29057837,0.021603221,-0.06446064,-0.11573068,-0.0004772717,-0.058539312,0.35547227,0.0067096353,-0.268241,-0.081791356,0.11573068,0.10619879,-0.16069427,-0.0612352,0.1388383,0.13641922,-0.07826378,0.10562171,0.37719017,0.098372124,0.13271506,0.15737423,0.2910418,-0.18393841,-0.15165924,0.30585846,-0.09350379,-0.17314342,0.0084799,0.19325176,0.0068659405,-0.077470034,-0.07143753,-0.14245173,-0.38608018,-0.10191754,-0.12985756,-0.08249712,-0.0043490906,0.13514923,0.1413934,-0.10064755,-0.21346593,0.18531425,0.25738677,0.02636574,-0.19028842,-0.09144004,0.0050866166,0.37973017,-0.18954758,0.06535211,-0.082550034,-0.23643178,0.20002508,-0.23791344,0.114405885,0.088212125,-0.040825225,-0.33993682,0.03130022,0.2247901,0.17568341,-0.011152192,-0.007163597,-0.29019514,0.1547284,-0.0008632035,-0.01166813,0.12308422,0.039740436,0.096043795,0.059107944,0.19166425,0.23452677,0.4298952,-0.17589508,0.0063698464,0.114194214,-0.27633175,-0.18213691,-0.09369058,-0.08990867,0.028540833,-0.122029714,0.33764914,-0.3545921,0.1564199,0.08476526,-0.016615203,0.18818797,0.060813155,0.11517184,0.028087003,-0.12031525,-0.12838332,-0.34208658,-0.2924679,0.14683905,-0.09575803,-0.10821313,0.23760496,-0.044903908,-0.0071162987,0.14643565,-0.22146879,-0.007891591,0.028994663,-0.13715737,0.23881517,-0.057888474,0.03723923,-0.25757346,0.1654965,0.22106539,0.06757017,-0.0061645173,-0.110734396,0.024166422,-0.1516799,0.11981099,0.33482534,0.051181883,-0.1403846,0.08108421,0.05940124,-0.028036578,0.05894741,0.22570454,0.09283335,-0.22973858,-0.19615519,-0.09142143,0.22449432,0.13009779,-0.08466441,-0.22025858,0.2708858,-0.113558225,-0.00359912,-0.19494498,0.00032855364,0.19726455,-0.33887404,0.06682996,-0.20330319,0.10849915,0.3792162,0.17315274,0.40936664,0.15107073,-0.28855252,-0.050693095,0.2295256,-0.0024517144,-0.16041312,0.025651768,-0.089071214,-0.10266015,-0.05122391,0.1430023,-0.3142441,-0.00024052679,0.186954,-0.41573647,0.1790979,0.031105919,-0.099103674,-0.05409033,0.3040524,0.17580684,0.04819825,0.089389704,-0.28812787,0.19236834,0.120814115,-0.26349792,0.25033364,0.24927202,-0.037289947,0.24481314,0.18153967,-0.06444127,-0.084453106,0.07341209,-0.14682418,-0.07675625,-0.10802141,-0.31530574,-0.085143164,-0.048914853,-0.17463903,0.0406341,-0.13896808,0.18833414,0.10685361,0.11412582,0.05358605,-0.028186422,0.2201832,0.17644382,0.49472213,-0.07500455,-0.24927202,0.072509706,-0.107119024,0.08726644,-0.114626504,-0.18742858,-0.009657536,-0.34893522,0.0659539,0.25425574,-0.2103171,-0.12767941,0.09504715,-0.035229035,0.0017738037,-0.3254032,0.13576852,-0.051246412,-0.34985444,-0.036401037,-0.02286555,0.121612564,-0.09541485,-0.14348996,-0.09826442,-0.31363723,-0.39379305,-0.06645947,0.02785231,0.11269614,0.117476076,-0.13310279,0.22943684,0.1748353,0.23440063,-0.05005143,-0.02835788,0.33735305,-0.07349149,0.094081976,0.033643384,0.09716136,0.08553325,-0.25682956,0.11526996,-0.2165678,-0.28624454,0.043318156,-0.019590836,-0.06921712,0.06190934,-0.09789673,-0.07114749,-0.17851217,0.17805256,0.11094963,0.04922413,0.036056332,-0.0037745396,-0.17667373,0.044306315,0.16003588,0.029024312,-0.06880348,-0.049453937,0.14974064,-0.102492824,-0.051384293,0.033766564,-0.111835964,-0.12524159,-0.0054116026,-0.10265403,-0.15581743,0.19612613,-0.30373842,0.16757031,-0.104490414,-0.1043986,0.06211579,-0.280049,0.043086227,0.15545015,-0.14645186,0.055963892,-0.030782437,-0.07946964,-0.01618316,0.24075033,0.28831276,-0.06610993,0.057065725,-0.09076343,0.0882843,-0.11541692,-0.2749071,0.19006605,0.37792844,0.058351196,0.08406061,0.11275416,0.17280401,-0.050500643,0.048434705,0.016734077,-0.35497358,0.16977397,-0.07983692,0.19575885,-0.06266671,0.102103114,0.14277908,0.064411275,-0.047378782,0.23175204,-0.038311623,-0.14250363,0.0070012254,0.055412978,0.17868045,-0.05637708,0.04108916,-0.15150192,-0.04815925,0.050133362,0.1157842,0.1129378,-0.18143503,0.35644272,0.30355477,0.038173895,-0.15526652,-0.034558002,0.063009374,-0.0002656473,0.06539651,0.01902772,-0.23049772,0.022844367,-0.15211073,0.2804611,-0.0862701,-0.13945334,0.010658855,0.10547824,-0.06256525,-0.034918852,0.13234743,-0.011831606,-0.107032664,0.07316859,0.28690082,0.1654343,-0.12946066,-0.05221173,-0.37772316,-0.01286557,0.074445434,0.00757084,-0.044078805,0.15710707,-0.23405068,0.6337577,-0.21406533,0.23982422,0.004378735,-0.02042947,0.29045376,0.032531712,-0.31687886,0.41836002,-0.47343078,0.11969005,-0.12002314,0.018888934,0.11341687,0.15466441,-0.013795444,0.10425692,-0.17942405,0.17287329,0.11169591,-0.005343306,-0.1251305,0.26469487,-0.017098578,-0.03211535,-0.029311849,0.018833417,0.20063072,0.06567409,0.08965651,-0.06650681,0.023996301,-0.023704847,0.05645862,-0.009599538,0.17447771,-0.318498,-0.023452241,-0.008946878,-0.0044489643,-0.0988562,0.16681984,-0.25149158,0.15629026,-0.029543733,0.27307284,0.10207599,0.1449775,0.085150346,0.03496081,0.285952,-0.2675035,-0.26315242,0.08745641,0.038724482,-0.11747876,-0.04435911,-0.17386857,0.0014208948,0.13340366,0.014423781,0.099117264,0.044815972,0.08902279,0.04383698,-0.37593204,0.15837878,-0.12409238,0.25723496,-0.27185455,0.22364475,0.07879779,0.22399284,-0.04855789,0.20798092,-0.10303322,0.088326626,-0.04342363,-0.15420175,0.14341111,-0.14323707,0.1928392,-0.36897033,0.11469408,0.014902398,0.043619428,0.033176873,0.06796364,-0.09563641,-0.1662107,0.07814513,0.0018492027,0.05334406,-0.015674712,0.1340128,0.25880137,-0.027020115,0.008207196,0.019400192,0.23606768,-0.2552758,0.14406084,0.06266646,0.049556926,0.00911785,0.21474667,-0.014586159,-0.2387568,-0.28927416,-0.26660857,0.15433717,-0.055175297,0.100074254,-0.15625797,0.17296903,-0.047660124,-0.069821484,0.10939019,0.1276379,-0.094744004,0.09359152,-0.50094754,-0.13397656,0.15414509,-0.12994286,-0.28139883,-0.19880395,-0.025930949,0.1473262,0.2266557,-0.008613637,0.010924613,-0.37782353,-0.1264854,0.18007603,0.22838444,-0.007185034,-0.014069941,0.19102466,0.054983217,-0.017875548,-0.052774284,0.23837265,-0.023001712,0.12177942,0.13157555,-0.11851404,-0.05546342,0.11323181,-0.052486163,0.05858474,0.0653556,-0.05767235,-0.23107357,-0.031573333,-0.048068296,-0.10718126,-0.043890532,-0.21628332,-0.15923524,0.06295458,-0.2216616,0.1213052,-0.035703447,0.040565543,0.22283237,-0.04845615,0.045448244,-0.026741533,0.022971347,-0.19102272,-0.336556,0.08751774,-0.1253432,-0.08294407,-0.024701923,0.03562104,0.16061401,-0.18756156,-0.25085124,0.13391368,0.1321831,-0.09542895,-0.10366979,-0.5214805,-0.19168198,-0.030800147,-0.15088981,-0.113393985,0.03807269,-0.44401658,0.1722336,0.2739256,0.11767922,0.054760396,0.13284238,0.14297861,-0.13976468,0.17058542,0.05892202,0.10441147,0.023960248,0.1869023,-0.07948292,0.17635402,-0.08104868,-0.1761892,-0.082078785,-0.23436955,0.049898297,-0.014318463,-0.10457628,0.31562424,-0.05080479,-0.13976468,-0.031067975,-0.034405515,-0.07519768,-0.037454627,-0.0890011,-0.12179965,0.07235459,-0.030079074,0.048208926,-0.10597723,0.09798361,-0.010352279,0.15797588,-0.46486577,0.1814247,-0.06833789,-0.05796809,-0.2485014,-0.018754382,0.048719354,-0.0038974315,-0.036130797,0.12761387,0.11518881,0.044445317,0.10397822,-0.09725186,-0.078380704,0.14041263,0.053483855,0.2974543,-0.39050218,0.057781246,0.36042044,0.14788637,0.1480732,-0.16535619,-0.0597431,0.06413391,-0.2051538,0.13630208,0.21655121,0.1926353,-0.060677316,-0.08996498,-0.107341394,0.24102767,0.060443763,0.16507593,-0.26830676,0.3510783,0.24065399,0.07118724,-0.1372363,0.026274819,-0.057267427,0.0018100431,-0.10201637,-0.08080967,0.20384589,-0.05637992,0.24065399,-0.0047966144,0.044772293,-0.18123786,0.17544572,-0.11574934,0.28568318,-0.040942006,0.16227329,0.056613475,0.25223827,0.22271705,0.07029974,-0.12369017,-0.18294002,-0.27528954,-0.002428985,0.09999035,0.021850558,-0.04510285,-0.120823964,-0.11510709,-0.17128639,0.15875325,0.27001244,-0.03169018,-0.07387962,0.082509905,0.2770486,-0.04779638,0.11785559,-0.30057573,-0.10433298,0.019555563,0.036719933,-0.13434657,0.58488035,0.052523796,-0.018236283,-0.044470698,-0.43404278,0.019610532,-0.215922,-0.09658222,-0.11950469,0.12346253,0.17304543,0.02797971,-0.2164717,-0.06766802,0.17942195,0.12005439,0.16436018,-0.22603647,0.3401541,-0.28474438,0.021300858,0.002492544,-0.035290714,0.1952533,0.003475132,-0.19976082,0.0475765,0.25989795,0.27638894,0.015020541,0.07937662,-0.19712228,-0.24296722,0.09894592,-0.082564875,0.022015467,0.29156065,0.094933115,-0.19866143,-0.24670517,-0.10284879,0.042574234,0.18350075,-0.098455034,-0.0971051,-0.0357057,0.0872056,-0.009680137,-0.2595469,0.06380678,-0.2102294,0.1071846,-0.06511172,-0.23362821,0.18017091,0.065336704,-0.026503664,-0.13184334,-0.056472152,0.16532166,0.10664462,-0.034040783,0.16361175,-0.11555417,0.009893876,-0.0614219,-0.11573416,-0.103944756,-0.27862594,0.15911198,-0.034783244,-0.034445763,-0.19385022,0.1943902,-0.14210284,0.106014654,-0.14921248,-0.0813559,0.0054447255,-0.0055740937,-0.067091614,0.0971051,-0.4222587,-0.1664916,-0.08293082,0.14147286,-0.014185535,0.17594112,0.20698956,0.002983912,-0.04742761,-0.031610906,0.3587219,-0.08423575,0.2003299,0.10664462,-0.11429424,0.22228879,-0.018359074,0.24748752,-0.118254036,0.22462867,0.18593062,0.1487625,-0.1130343,0.070826426,0.035341866,-0.1380289,-0.29671517,0.1155979,0.12644824,-0.13166475,0.040114973,-0.08925451,-0.34491575,0.09415804,0.02447848,0.033724748,-0.24830595,0.029108135,0.02181806,-0.019144598,-0.061137516,-0.14230643,0.2687547,0.0454619,0.014006333,0.13625528,-0.27104995,0.022861362,-0.19822744,0.20573922,-0.00012654116,-0.01804913,-0.069275275,-0.14679264,0.11225933,-0.22451866,0.043505706,-0.09426237,0.08122109,0.3388646,0.019614084,-0.15190482,-0.034715883,0.06687568,0.33928192,-0.29421127,-0.2716759,0.026891118,0.14960955,-0.37976205,0.05456471,-0.013419476,0.325093,0.15993825,-0.16932797,-0.1390722,-0.2263966,0.007935618,0.018531658,0.14522769,-0.06317195,0.041445184,0.26166022,-0.41252175,0.013797673,-0.17673542,-0.2211801,-0.0974966,0.07192766,0.18780823,-0.2775756,0.0009760133,-0.12844594,0.06949732,-0.18305098,0.03790293,-0.1615399,0.19194497,0.045452487,0.022183295,0.15533479,0.12534338,0.0063214637,0.095972486,0.045426633,-0.07311697,0.40023008,-0.35327804,0.21573126,0.21511075,0.25192776,-0.07880499,-0.16122964,6.0596853e-05,0.29681146,-0.26764742,-0.0002175427,-0.1315485,-0.23331243,0.08857805,-0.006007976,-0.18605012,0.23083037,-0.17756979,0.11179554,-0.0018324488,0.024781689,0.07166911,0.026862988,0.44718215,0.14561343,0.0016482344,0.051942006,-0.3896814,-0.03242174,0.27074996,-0.12751517,0.016857237,0.17229544,-0.11613912,0.032964688,0.02965529,-0.0076723695,0.11893142,-0.07373748,0.22235005,0.033662762,-0.36858398,0.18553302,-0.13227242,-0.13113482,0.10517675};

#endif
