#pragma once

#include "parameters.h"

#ifndef KERNEL39_H
#define KERNEL39_H

static float bias39[FEATURE_MAP39] = {0.6968882,2.1448007,-0.6305716,1.4500461,2.0949917,0.56041163,2.2248864,2.0916443,1.6616204,0.4842277,-1.5286005,-0.6190917,1.0450065,0.35473803,0.9425235,-0.61374444,0.21128169,0.73938644,1.0815094,0.5083435,0.16486123,1.3175398,-0.4571962,0.103510275,0.49280483,2.0257006,1.375104,0.19113374,1.2061374,1.119878,0.24395764,-0.15240514,-0.9365587,0.268426,1.6296675,0.77228844,1.4853462,0.60631245,0.58426183,-0.17969379,0.4587088,1.9984151,0.67255247,-0.9858037,-1.5323005,-1.8670317,-1.541354,-2.3650978,-0.023096595,0.90335226,0.963643,0.88797915,0.95734227,0.89202964,0.65616065,0.15481696,1.9122036,-0.37851074,-1.3713129,1.1937761,1.1291122,-1.0979644,0.8298488,1.1926117,0.5637257,0.31825197,2.2356226,1.4687178,0.12732211,-0.5964538,0.114538975,-0.65273786,1.5510731,1.7112797,0.5090077,-0.49400198,-0.22637653,0.50675404,-0.6781549,1.1863338,1.526345,0.5701877,1.401423,0.22894385,0.5983212,-1.2164655,-0.23538417,0.5241966,2.0832248,-0.4010366,0.9981049,0.9241903,1.3873101,-0.21526784,1.5167202,1.7362123,0.7357422,-0.26501864,1.9443225,2.1358721,1.1143684,0.011007428,0.47680017,1.3652651,2.455244,0.8877423,1.0765215,0.63411015,1.415518,1.4598743,-0.48077565,-0.5515012,0.55022824,1.0616547,0.52812773,0.15002161,0.94714606,1.5719855,-0.7433964,0.4039317,1.6032737,0.18368994,0.12014195,0.9106165,-0.2690224,-2.3045824,1.3110175,1.1820619};

static float kernel39[FEATURE_MAP39][IN_CHANNEL39][KERNEL39][KERNEL39] = {-0.002161124,0.018095214,-0.07393358,0.11448359,-0.12141112,-0.24246393,-0.010421172,-0.16434993,0.24915259,0.13162328,-0.011257254,0.06730464,0.117469594,0.08181664,-0.0408486,-0.013018999,-0.025231777,0.224309,-0.17927998,0.17677173,0.02696366,0.028785126,-0.110362895,0.06252703,-0.094596766,0.09495509,-0.17569678,-0.10259927,0.06557276,-0.058645215,-0.008808726,0.0935218,0.12159029,-0.2642021,-0.06640884,-0.11967924,0.008390686,0.20794566,0.057659835,-0.0025661015,-0.014302983,0.08695258,-0.12433741,-0.010346521,-0.01651263,0.0045760586,0.14261179,-0.028382014,-0.08796783,0.0538676,-0.14058131,-0.14667276,0.005994413,0.09835914,0.10952681,-0.072619736,-0.043983914,-0.021947166,-0.11508079,0.12278469,0.027904253,0.10528668,0.0849221,-0.13711753,0.088505305,-0.3172336,-0.10331591,-0.0399528,0.1473894,-0.23099765,-0.037683435,0.020931924,0.040699303,0.020976713,0.064199194,-0.2642021,0.16351385,-0.2130816,-0.08725118,0.13520649,-0.06879765,0.010727237,0.0050127627,-0.117708474,0.088266425,0.0338912,0.22502564,-0.015810918,-0.15825848,-0.097045295,-0.26109663,-0.09746333,-0.062288146,0.3198613,-0.091431595,-0.22144243,-0.05031425,0.010473426,-0.0671852,0.17987718,-0.24401665,-0.03642931,0.0867137,0.06831989,0.06449779,-0.014332843,0.083130494,0.318428,-0.2651576,-0.0124143325,-0.04738796,0.038788255,0.02338045,-0.01966287,-0.008816192,0.20961782,-0.08563874,0.047835864,-0.13377321,-0.1932545,0.005733137,-0.02950177,-0.052046135,0.08617622,0.023962721,0.20269029,-0.02320129,-0.13305657,-0.022245767,-0.036011267,-0.037743155,-0.032666937,-0.085101254,-0.022350278,-0.25058588,-0.10319647,0.044909574,-0.13663977,-0.13281769,0.052434318,0.026112648,-0.13687865,-0.034488402,-0.06402003,0.22490619,0.11579743,-0.21343993,0.074829385,-0.11938064,0.06867821,0.016841091,0.024530064,0.07411274,-0.063960314,0.064915836,0.2713685,-0.04923929,-0.007584463,0.09041635,-0.06252703,0.10104655,0.107197724,0.051598236,-0.12033616,-0.05001565,0.01966287,0.16948587,0.12863727,-0.18274374,-0.014235798,0.1059436,-0.1630361,-0.040340982,-0.04726852,0.09316348,-0.14022298,-0.19409059,0.05315096,-0.3196224,0.06915597,-0.0075658,0.07548631,-0.027844533,0.034309242,-0.0015172658,-0.11179618,-0.19409059,0.070887856,0.045088734,-0.06533387,-0.018707346,-0.20782623,-0.18776025,-0.055300888,0.057809133,0.28713462,0.10224095,-0.03932574,0.03008404,0.10492836,0.08683314,0.057301514,0.18847689,0.023843281,0.13711753,-0.2577523,0.10068823,0.04302839,-0.14297011,0.034846723,0.021932237,-0.21678425,-0.077755675,0.062228426,-0.15467526,-0.00207341,-0.008913237,0.11520023,-0.0097941095,0.021947166,-0.22813109,0.07685987,0.022245767,0.03293568,0.0045573963,0.19695716,0.055032145,0.04240133,0.0793084,-0.11764875,0.00835336,-0.025052615,0.046940062,0.021797866,-0.0045611286,-0.07602379,-0.07924868,-0.11412527,-0.02684422,-0.12815951,0.10074794,0.037952174,0.14846437,0.093999565,0.18214655,0.11675295,-0.0020491488,0.009211837,0.13484816,-0.33252198,0.09513424,0.02977051,-0.014579189,0.10821296,0.083847135,-0.10224095,-0.03862937,0.053070486,-0.09560351,-0.14168096,0.16744983,-0.12644953,0.11399616,-0.04605349,-0.031324998,0.077450335,0.1447464,-0.14608753,-0.047011442,-0.044041798,0.07175053,-0.047346726,-0.08564082,0.24427749,-0.047801755,-0.3163154,-0.2051931,0.074768074,-0.16888675,-0.10661995,-0.14685388,0.16869517,0.050531913,0.05489059,-0.08065947,0.041000303,-0.12874861,-0.057956032,0.01580619,0.071415246,-0.05378895,0.08961631,0.047442522,0.18737522,0.11706161,-0.074768074,-0.0039784904,-0.12462942,0.03403121,-0.012441388,0.056231722,0.022116693,-0.03185187,-0.101159625,0.0858803,-0.121276595,0.013626853,-0.0016824014,-0.043946,-0.12932338,-0.16706665,-0.10709892,-0.032953512,-0.08391651,-0.15767874,-0.08659877,0.047083292,-0.041143995,-0.023900878,0.061260965,0.026104163,0.0024008646,-0.04866391,0.051441967,-0.032091357,0.22684279,-0.09397499,-0.15375113,0.060686193,-0.07261268,-0.0332409,-0.052352022,-0.07074468,0.08075527,0.04322754,0.0021928097,0.047945447,-0.033935413,-0.09349602,-0.32589492,-0.109972775,-0.026152061,-0.01730299,0.01523142,-0.30596954,0.09090955,-0.15355954,-0.020164868,0.055848543,0.08463497,-0.2168801,-0.073187456,-0.13641222,-0.04258092,-0.22799233,0.34888574,0.033719875,0.08133004,-0.05259151,-0.013854366,-0.0150518045,-0.027612938,-0.01738681,0.110930726,-0.14522536,-0.09632197,0.05805183,-0.07074468,-0.15662499,0.14781183,-0.04416154,-0.09718413,0.26286176,0.068924576,-0.11457094,0.019697867,0.03949153,-0.08674246,0.07524705,0.04040158,-0.020033149,-0.021110844,0.12597056,-0.0028409234,0.013758571,-0.07869567,-0.09014319,-0.1366038,0.0042748563,0.019961303,0.095028736,-0.0060680206,0.016368987,-0.081904806,-0.11734899,-0.058674496,0.014740471,-0.11878592,0.09201119,-0.061069373,-0.06121307,-0.058530804,-0.040736865,0.027660834,-0.09287335,0.10824846,-0.15183523,-0.0821922,-0.007759403,0.06097358,0.018284889,0.15260158,-0.022032872,0.079270445,-0.024391826,-0.057908136,-0.13267621,0.004744851,-0.07543864,0.11457094,0.08520974,-0.022248412,0.115145706,-0.019877482,-0.033719875,-0.105470404,-0.10920641,-0.06983463,0.15355954,0.085449226,0.078073,-0.15164363,-0.032690078,0.029792275,-0.11476253,0.08655087,-0.018225018,-0.047969393,-0.06858929,-0.0059063663,-0.023014773,-0.09828577,-0.16361803,-0.059632447,0.11361299,0.18306443,-0.05819552,0.12549157,-0.02101505,0.03676137,0.07457648,-0.05570485,-0.017937632,-0.0644701,0.004137151,-0.007112786,0.13535847,-0.012429414,0.11370878,-0.030367047,-0.06097358,-0.2209035,-0.15710396,0.05944086,-0.04981345,0.05958455,-0.0009325054,-0.09397499,0.07893516,-0.06092568,0.13047293,-0.06629021,0.020081047,0.13746597,0.023817057,-0.10786528,-0.074001715,-0.06317687,-0.042269588,0.05728547,0.10853585,0.03671347,0.09732782,0.102117576,-0.07524705,-0.072277404,-0.039347835,0.100201674,-0.02893012,0.008370097,-0.027708732,-0.03690506,-0.025505444,-0.082814865,0.10709892,-0.040186044,-0.007855198,0.1310477,-0.11217606,-0.083533324,-0.06001563,-0.026894474,-0.0094956895,-0.1034587,0.11543309,0.11016436,-0.16160633,0.008867034,-0.1466623,-0.11581627,0.09809418,-0.011357706,0.33182594,0.016253754,-0.14669432,-0.13063823,-0.095485106,-0.47097877,-0.1882942,-0.013410488,0.03320692,-0.079429016,-0.036034986,0.028508691,0.30165997,-0.10205351,0.19571406,-0.0016668082,-0.13100314,0.010795291,-0.042664208,0.039714508,0.13878791,-0.09518102,0.021362511,-0.12352245,-0.21614909,0.36953345,-0.0007987185,0.109838285,0.05704779,0.13404407,0.115676865,0.016421005,0.12309673,0.088795066,0.4057813,0.099681586,0.15447909,0.10260088,-0.00928243,0.121515445,0.100533046,-0.02561981,-0.13708499,-0.0066634314,0.1463294,0.26224956,0.07419862,0.1482756,0.07669218,-0.17248137,0.22952917,-0.12869203,0.09262664,0.33085287,0.023475956,0.042725023,-0.091957636,0.02561981,-0.108257,0.07419862,0.054432593,-0.020906374,-0.018017493,-0.17868488,-0.09566756,0.07650972,0.17065683,0.038133226,0.0022027716,-0.11354821,0.084598586,0.024859577,0.16785917,0.24205779,-0.0057967673,-0.023658412,0.010065468,-0.032750785,-0.28584713,-0.23184027,0.028660737,0.077178724,0.10679736,0.2489911,-0.024905192,-0.030318042,-0.11306167,-0.12309673,-0.1738194,-0.11494704,-0.2936319,0.0974313,-0.17552231,0.14742415,0.02443385,0.107588,-0.07340798,0.0246011,-0.0042268885,0.014573643,-0.103148244,0.06501502,0.23694903,0.024920397,-0.08180094,-0.02079994,0.066048935,0.14584287,0.19766025,0.30068687,0.019492341,0.09232254,0.028204598,-0.17564395,0.13854463,0.041812748,-0.044823263,-0.031868916,-0.08088866,-0.08338222,0.06617057,-0.15520892,0.016481824,-0.092991546,0.07711791,0.22527187,-0.04080924,0.00672425,0.11354821,0.04004901,-0.1817258,-0.14012592,0.0698805,-0.10941255,-0.14815396,0.04299871,0.03670399,-0.17686032,-0.067751855,0.022487655,-0.036916852,-0.0065037827,0.050144885,0.13757154,-0.15897967,-0.0915319,0.054037273,-0.11585932,-0.029968336,-0.09366055,0.22296077,-0.031017456,0.022974204,0.053946044,0.089646526,0.07000214,-0.3174728,0.038467728,0.10655408,-0.016953168,-0.18951057,0.016770713,0.156182,-0.0017048197,0.19632225,0.08240912,-0.0061654793,-0.005028933,-0.020936782,-0.039744917,-0.027201092,0.0019100823,-0.03335897,0.08338222,-0.08490268,-0.06969805,0.14049083,-0.0018739713,-0.019249069,-0.0724957,-0.06677876,0.008347345,-0.0076897442,0.12054235,0.04366771,-0.005123962,-0.10929092,0.055983465,0.14754578,-0.016573053,0.06702203,0.10588508,-0.11421722,0.12267099,0.1010196,-0.15107325,-0.06957641,-0.059450123,0.053946044,-0.16360188,0.19048367,0.079672284,0.09408628,-0.038163632,0.09566756,-0.034757797,0.11999498,0.15228963,-0.10886519,-0.02108883,0.009921025,0.12449555,0.081375204,0.089464076,0.039288778,-0.10710145,-0.047316823,-0.06878577,-0.0037916559,-0.04120456,0.023856072,-0.11287921,0.0019918073,-0.04290748,-0.13586862,0.0967623,-0.0038619773,-0.031808097,0.005036535,-0.019005794,0.12686747,-0.0734688,0.09378219,0.028067756,0.07073196,-0.046100453,0.14718087,-0.022639701,-0.2515455,-0.0360958,0.0008372052,0.10326988,0.10746636,-0.055953056,-0.10995992,-0.093174,0.12589438,-0.041447837,-0.003614902,0.031443186,-0.02561981,0.07000214,0.06750858,0.11105465,-0.04245134,0.09037635,-0.07838794,0.05316913,-0.069812275,0.028347341,-0.104496084,-0.10837101,-0.110975474,-0.20594303,0.22245914,-0.07006637,-0.14635804,0.0016158778,-0.025488786,-0.11529507,-0.20607008,-0.061871845,0.0915373,0.11637497,-0.085375525,-0.088932835,0.08169116,-0.14457938,0.106719404,-0.0666361,0.33921525,-0.2526963,-0.08480381,-0.026219305,-0.06600087,0.033858,0.023614844,-0.18142298,-0.15525132,0.097317934,0.2868719,-0.19793908,-0.26070026,0.077498615,0.028172651,0.025822284,-0.09979535,-0.10525836,-0.06457159,0.21013558,0.11548564,0.15614066,0.1502965,0.07762566,-0.1275551,0.28280643,0.13416153,-0.014221313,-0.16770191,-0.010529012,-0.038908117,-0.07190855,0.045069892,0.041861955,-0.16376346,-0.14584985,-0.10430551,-0.14534166,-0.17240265,-0.099731825,-0.0045538377,-0.2589216,-0.026997468,-0.28458506,-0.13339925,0.0014431735,-0.16948058,0.09242663,-0.09528518,-0.10735463,-0.11656554,0.02574288,-0.059108574,-0.1725297,-0.06425397,0.079531364,-0.11942409,0.037034173,0.15639475,-0.006511154,-0.07654576,0.13149355,-0.12634815,0.12583996,-0.13225584,0.03160292,0.015332974,0.117645435,0.2950029,0.015904685,-0.14102207,-0.16338232,0.026552804,-0.106719404,-0.16096844,-0.10627474,0.14025979,0.17265674,-0.04433937,-0.020724528,-0.043672375,0.27035582,-0.08766237,0.19768499,-0.009790552,0.24342187,0.10093877,-0.13060422,-0.12596701,-0.037764695,-0.021423284,0.1332722,0.17456245,0.15448904,-0.08404153,0.0004900735,0.119678184,-0.061998893,-0.007372691,-0.044625226,-0.09147377,0.03417562,-0.06822419,-0.17583293,0.026441637,-0.036335416,-0.013252581,0.18777533,0.04376766,0.05237509,-0.048150778,0.13530496,-0.118153624,-0.10208219,-0.057869866,0.0053240596,-0.0893775,-0.16134958,-0.06631848,-0.092553675,-0.11021319,0.08956807,-0.06714429,0.11821715,-0.053391464,-0.16617736,0.0467215,-0.009242662,-0.036176607,-0.07667281,-0.03160292,-0.088932835,-0.085693136,0.023519559,0.07711747,0.0049389484,-0.042528953,-0.18968104,0.0404962,-0.0801666,-0.12901613,0.067398384,-0.09515814,-0.021105668,-0.014324538,-0.041131437,-0.13200174,0.20962739,-0.04611803,-0.12876204,-0.03770117,-0.10100229,-0.11370698,-0.019978127,0.034302667,0.15906273,-0.008162764,-0.07565644,0.09020331,-0.1790091,0.02906198,0.061395418,0.14508757,0.08404153,-0.16998877,0.025488786,0.09401471,-0.058314532,0.110657856,-0.11751839,-0.10201867,0.054471362,-0.020089293,0.14902602,0.07279788,-0.064508066,0.049548294,0.039829206,0.10862511,-0.11154719,0.03620837,0.038368165,-0.012601465,-0.056408826,-0.018358279,-0.054344315,-0.2155986,0.15575951,-0.090965584,0.05590064,0.034683805,0.08753532,-0.11872534,0.03954335,-0.09846135,-0.1129447,0.18015252,-0.07635519,0.0026580596,0.09776259,-0.11396108,-0.100748196,0.048468396,0.02059748,0.06816067,-0.04376766,0.067716,-0.05612297,-0.004621331,-0.07127331,0.06936761,-0.16592327,-0.0820723,0.21318471,-0.12895261,-0.082453445,-0.13924341,0.04614979,-0.14483348,0.0069955206,0.0385905,0.048055492,0.090647966,-0.044402894,0.039003402,0.026441637,0.043450043,0.17329198,0.1519481,0.04980239,-0.094586425,-0.116629064,-0.02383902,-0.26063555,0.2694417,-0.29467723,0.22107364,0.077612355,0.24262898,-0.022278229,-0.020635292,-0.11717428,-0.28521392,-0.37642977,-0.113231234,0.04442502,0.10646233,-0.07044915,0.11704285,0.029770022,0.014835724,0.14510421,0.18440327,0.237503,0.014745362,0.097721905,-0.14037256,0.3412052,0.2288283,-0.017201552,0.01882806,-0.066111796,-0.050832476,-0.08694424,-0.038313296,-0.1544361,-0.23198274,0.15062448,-0.1153342,-0.20766726,0.100876346,-0.2739105,0.20661579,-0.2524866,-0.094436035,-0.06644038,-0.16771103,-0.22462238,-0.032004416,0.059310034,-0.18966067,0.09496177,0.07150063,-0.20227844,-0.14234409,-0.082475446,-0.052869722,-0.00032165632,0.037393253,0.26142418,-0.21226749,0.039101906,-0.0920702,-0.0219825,-0.24473193,0.14957301,-0.11750287,0.16442516,0.068083316,-0.10777669,-0.091741614,-0.072092086,-0.11290265,-0.06358167,-0.13104068,-0.039693363,-0.18348323,-0.083329774,-0.06223446,0.022869686,-0.15522471,-0.15824771,-0.099299125,-0.04061341,-0.11401984,-0.08654993,0.33962798,-0.08687852,0.0039040297,-0.03844473,-0.09292453,0.08543274,-0.07334072,-0.07097489,0.034600258,0.13695525,-0.059605762,-0.037327535,0.034895986,0.21713059,-0.09713045,0.03169226,0.11908009,0.02406903,-0.11355982,0.058948588,-0.1683682,-0.09607897,-0.029079989,0.12177451,-0.06525747,-0.0067196134,-0.08871861,-0.11467702,-0.113428384,-0.12315457,-0.07044915,0.0066087153,-0.11454558,-0.4008767,0.22462238,0.0533626,-0.13064636,0.096210405,-0.09634184,-0.22330803,-0.009405816,-0.10015345,0.11822576,0.089112915,0.09239879,0.10961677,0.056155596,-0.065093175,0.008674708,-0.08037249,-0.1240089,-0.09607897,-0.20503856,0.17743722,-0.16968256,0.10357077,-0.11185117,-0.028685683,0.29152277,-0.10626518,-0.0021378722,0.1168457,0.15864202,-0.0033536456,0.0360789,0.05050389,0.022146793,-0.13163213,-0.3525086,-0.0559913,0.07767807,0.04481933,0.08280404,0.14155547,-0.00726589,-0.08687852,-0.07268354,0.1153342,-0.0019653637,-0.2551153,-0.13721812,-0.0022282337,-0.023773301,-0.05027388,-0.16849965,-0.070251994,-0.03617748,-0.143527,-0.12131449,0.10002202,0.07504937,-0.030000035,0.14142404,0.0014478385,0.028685683,0.057502802,0.0090032965,0.12039444,0.039627645,0.033581637,0.08037249,0.05339546,-0.07695518,0.20635292,-0.10961677,0.107053794,-0.19886112,0.048368074,0.050898194,-0.0108269565,-9.498231e-06,-0.09384458,0.010334075,0.07150063,0.14523566,0.091807336,0.17191695,-0.103045024,-0.13590378,0.14655,0.06354881,-0.3648635,-0.078729555,-0.16508234,-0.020783156,-0.033055898,0.040120527,-0.20727296,-0.0059638624,0.12006585,-0.20162126,-0.3419938,0.21844493,-0.21739346,0.2626071,-0.14037256,0.049419552,-0.1762543,-0.12131449,-0.111719735,0.056517042,0.07945245,0.13288076,-0.04554222,-0.3122895,0.1093539,0.15483041,0.015197169,0.14694431,-0.04343926,-0.064994596,-0.1635051,-0.053756908,0.18545476,-0.046232253,0.022196082,0.0060377945,0.2378973,-0.034337386,-0.21765633,0.123483166,-0.0366375,0.00031985933,0.1364295,0.06821475,0.05214683,0.083789796,-0.07498366,-0.065356046,-0.2134504,-0.15036161,0.18203744,0.19916372,-0.005772923,-0.13681445,0.038798127,-0.3139245,-0.08379034,0.048259426,0.17248149,-0.028673178,0.06847529,0.17534031,-0.13504471,0.06891772,-0.020181833,-0.17602098,0.23796184,0.12701282,-0.09529364,-0.15614544,0.12973548,-0.121567465,0.032416858,-0.13429597,0.10924736,-0.09801632,0.12463047,0.17956045,0.17547645,0.048055224,-0.016012736,-0.08310967,-0.16594708,0.24980548,0.07997859,0.00965699,0.37817964,0.13463631,0.08603655,-0.10598014,-0.01946713,-0.12013806,0.049927063,-0.13143717,0.10686502,0.15709838,-0.16118239,-0.31256315,-0.12633215,-0.28669775,0.08215673,-0.2253014,0.20420067,0.09440877,-0.21563591,0.15042782,0.22448461,-0.19194862,0.07310384,0.13354723,0.41248536,-0.03057905,-0.2277518,0.14008166,-0.27825743,-0.08168027,-0.14294046,-0.106456615,-0.089984424,0.058231223,-0.073171906,-0.14484634,0.0048157326,-0.054487545,0.10652468,-0.049144294,0.039887197,-0.03442483,0.07167444,0.04754472,0.10189613,0.07854919,0.018190876,-0.016625337,0.009997324,0.012626408,-0.16826135,0.28560868,-0.14049006,-0.08596848,-0.02440198,0.07603072,0.11537338,-0.32290933,0.07296771,0.11850446,-0.21577203,-0.14089847,0.106456615,-0.08419874,-0.057142153,-0.2345585,0.08433487,0.13994552,-0.017297499,0.16458574,-0.021696322,-0.12354141,-0.16608322,0.20079732,0.021321952,0.055168215,0.065276146,-0.038287625,0.0057856855,0.07575845,-0.01946713,0.11408011,0.16553867,0.058945928,-0.04523045,0.06823706,-0.085560076,0.038798127,-0.022989592,-0.011664963,-0.07596265,-0.03961493,-0.18486968,0.07603072,0.019739399,-0.13041615,-0.08174834,0.047885057,0.064833716,-0.1430766,-0.21944766,-0.13783544,-0.010439759,-0.0512884,-0.07160637,-0.046727918,0.16703615,-0.058741726,0.07167444,-0.005513418,-0.024487063,0.17302603,0.042780038,-0.105027206,-0.03260404,-0.19698557,0.0032906088,0.0064663542,0.05554258,0.027124655,-0.025048615,-0.04179307,-5.9824415e-05,0.015238475,-0.16458574,0.0616686,-0.11408011,0.015808536,0.13926485,-0.08978023,-0.02710764,-0.10107933,-0.029830314,-0.06234927,-0.11088096,-0.0505737,-0.11598598,-0.0414187,0.005683585,0.07916179,0.09944572,-0.044107344,0.03801536,-0.036722086,-0.0005450669,-0.14756902,-0.044413645,-0.043801043,0.1749319,0.22271486,0.042711973,-0.0148470905,-0.08610462,-0.01676998,0.0505737,-0.0044158394,-0.0063642543,0.0032310502,-0.05009723,-0.041350637,-0.05799299,0.01614036,0.12115906,0.13150524,0.092162564,0.12946323,-0.067454286,-0.07358031,0.14280434,0.09658691,-0.067147985,-0.05227537,-0.14198753,-0.05601905,0.060851797,-0.04594515,-0.16022946,-0.009325163,-0.04863379,0.044413645,-0.05503208,-0.0122265145,-0.012907184,0.2660054,0.06799882,-0.045672882,-0.13797158,-0.08133993,0.058537524,0.11101709,0.018718395,0.15614544,0.07650718,0.118776724,-0.015757484,-0.09542978,-0.07677945,0.15696225,-0.0063982876,0.077732384,0.15328664,-0.052513603,0.1640412,-0.06728412,-0.027141672,-0.2176779,-0.27458182,-0.012115906,-0.040635932,0.018973645,-0.1233372,0.15423957,-0.013111385,0.026086636,-0.090665095,0.19957212,0.14362113,-0.039444763,-0.062485404,0.058163155,0.051696803,-0.3132721,-0.17173637,0.18252234,0.050334457,-0.011759687,-0.16238855,-0.042874172,-0.0058686086,0.051113445,-0.06819121,0.116907775,0.10636151,-0.0940775,0.04335355,0.0766402,0.020238647,0.09443703,-0.2187152,-0.009954538,0.03942866,-0.09605493,-0.023564316,0.1308696,-0.07256551,0.34347275,-0.20948723,0.055997085,0.23597273,-0.17904685,-0.12691474,-0.16274808,0.035953186,0.07406356,-0.38350064,0.1475279,0.21775645,0.119364575,0.10738018,0.14129601,0.09533586,0.108578615,0.041825537,0.059083067,0.22818288,0.00042343303,0.011729727,-0.20145768,-0.13602288,-0.07849779,0.123319425,-0.12691474,-0.26653296,-0.21152458,0.033556305,-0.0069958908,-0.07406356,-0.08233279,-0.23513383,0.025361976,-0.20037909,0.19762267,0.19570518,0.051472977,0.14776759,-0.10072884,0.22147162,-0.17305467,-0.11157472,-0.12415833,-0.04488156,-0.13015053,0.100069694,0.09491641,-0.22147162,-0.05425935,-0.124997236,0.011242861,0.11091558,0.019939037,-0.07148691,-0.12068286,0.006610143,0.07616083,-0.12140192,0.17257528,-0.06633363,-0.031129466,-0.18012546,-0.119963795,0.20960706,0.012785851,0.08137404,-0.1554376,-0.19402735,-0.010493835,0.058663614,-0.045061324,0.22374865,0.0021478282,-0.018935343,0.24016728,-0.22326928,0.07705966,0.038709596,0.004793758,0.1060619,0.0036646032,0.031998336,0.08221295,-0.09210008,-0.0067524575,-0.06801144,0.10114829,0.04035745,0.07466278,0.14884618,-0.08131412,-0.2591026,0.06447604,-0.06153987,-0.08305186,-0.03424541,-0.10042923,0.10923776,-0.04065706,-0.09605493,0.024717815,0.063816905,-0.1237988,0.0334065,-0.109597296,-0.034395214,0.07652036,-0.17473248,-0.040297527,-0.1963044,0.015062886,0.07909701,0.09929071,0.09809227,-0.0708877,-0.13122912,0.23956805,-0.03553373,-0.00819433,0.014433705,-0.02852286,-0.100369304,-0.0826324,-0.036582366,0.21931443,-0.06585425,-0.06849082,-0.22290975,-0.04398273,0.13937852,-0.1742531,0.004370559,-0.094556876,0.1085187,0.06759199,0.012276514,-0.037631,0.205053,-0.058843378,-0.13554351,0.09521602,-0.06525503,-0.049645357,-0.18731609,-0.048207227,-0.022950117,-0.09743313,-0.10995682,-0.094257265,-0.14009757,0.07376395,0.1406968,-0.18863438,-0.30416393,0.017826788,-0.1039047,0.07040832,-0.022365877,0.008306684,-0.17413326,0.007565149,-0.103245564,0.041196357,-0.033795994,-0.061779555,-0.050034847,-0.09126117,-0.16886012,-0.016957918,-0.0011048114,-0.21368176,-0.0053817425,-0.083291546,-0.023039998,0.12128208,-0.15447885,0.1278735,-0.055068295,-0.12230075,-0.12511708,-0.10821909,-0.10558252,-0.110076666,0.07058809,-0.06159979,-0.024103614,-0.027848737,-0.12403849,0.09293898,-0.11271323,-0.18671687,-0.1761706,-0.07412348,0.07759896,0.036822055,-0.11924473,-0.13302678,-0.006280572,-0.015669597,0.15783449,-0.05620681,-0.10360509,0.09371797,-0.0136697,-0.15387963,0.039937995,-0.14908588,0.06711261,0.05497841,-0.0068947724,-0.04482164,-0.09174054,0.15340026,0.021422107,0.0698091,-0.04760801,0.0028781274,0.015287594,0.0028219505,-0.05608697,-0.040267568,0.03454502,0.007164421,-0.050034847,0.024103614,-0.040207647,-0.04700879,0.09096156,0.084669754,0.086347565,-0.08714295,-0.037714478,0.0044042333,0.016284754,-0.08893451,0.19587642,0.11364875,-0.008469679,-0.020648792,-0.061464034,0.009371198,0.04083821,-0.17134593,0.029239057,0.22013128,0.028389217,0.07175398,-0.14277296,-0.14148672,-0.30079708,0.11015751,-0.030640144,0.23685244,0.10317505,-0.10528817,-0.1487448,-0.04499553,0.060315605,-0.034567777,-0.13854674,0.032661382,-0.09265543,-0.13808736,-0.21425131,-0.12154995,-0.1487448,0.28701591,0.16803844,0.15030667,0.20653386,-0.122836195,0.07620989,0.021464178,-0.17492904,0.05085253,0.11668061,-0.07699082,0.020154966,0.15444101,0.038104944,0.058110617,-0.110341266,0.113464996,-0.100878194,-0.09674384,0.03918447,0.05668656,0.05383845,-0.075842395,-0.22968623,0.080941424,0.05641094,-0.12265245,0.11906934,-0.0723971,-0.04841786,-0.12761366,-0.014608044,0.01334477,0.14378358,-0.18347336,-0.048463795,-0.07382116,0.025885638,0.039620876,-0.057054058,0.059442796,-0.008733819,-0.021935035,-0.15159291,0.020775119,-0.17015156,-0.22068253,0.017593965,0.18181962,-0.17961463,-0.18246274,0.048601605,0.09357417,-0.041894767,0.12954304,-0.12044746,0.074785836,-0.09729508,-0.024806112,-0.33185068,-0.18485148,0.030249676,-0.23152372,0.13229927,-0.017329825,-0.054114077,-0.01883427,-0.053057518,0.06275028,-0.057329684,0.022314018,0.24162991,-0.0825033,-0.028182501,-0.08158455,0.08075768,-0.14157858,-0.16381222,0.11144376,0.113832496,-0.11190313,-0.17750151,0.22105002,0.14148672,-0.038472444,-0.02517361,-0.0082055405,0.07184585,0.011478569,-0.012667196,-0.061234348,-0.041573208,-0.0759802,-0.05089847,0.06798712,0.06334746,0.0262072,0.048280045,0.09375792,-0.00059108314,0.07561271,0.011421148,0.04072337,0.0149985105,-0.08507578,0.0026356494,-0.009595143,0.041756958,0.15756476,-0.005759382,-0.00035888475,-0.14203796,0.07556677,0.021303399,0.1797065,0.122468695,-0.08011456,-0.13909797,0.010743573,0.0013601731,0.06899774,-0.00017441798,0.044283506,-0.032638412,-0.027057039,0.037737448,-0.027769065,-0.11052501,0.1462642,0.034246217,-0.030640144,-0.06683869,-0.073315844,-0.01401086,-0.031467013,-0.013781174,0.056916248,0.100878194,-0.059856232,0.032477632,-0.057421558,0.15150103,-0.08025237,0.02567892,-0.21829379,-0.020901447,-0.20873885,-0.061601847,-0.07244304,0.0763477,0.0062072705,0.16519034,0.054114077,0.10675816,-0.07106492,-0.046327714,0.048188172,-0.07464802,-0.010697636,-0.075474896,0.055813752,0.11530249,-0.13964923,-0.06008592,-0.10060257,-0.13248302,0.16151536,-0.0003757523,-0.036106676,0.0018547163,0.053976264,0.008429484,-0.02804469,-0.03034155,0.029606555,0.07625583,0.054343764,-0.05291971,0.1909152,0.006523089,0.052000962,-0.029974053,0.03454481,0.032339823,-0.17419404,0.067160256,0.004498979,-0.10528817,0.07212148,-0.005977584,0.01608952,-0.01163935,-0.2348312,0.02650579,0.02436971,-0.041297585,0.08149268,-0.031467013,-0.13974111,0.071937725,-0.03321263,0.0048521217,0.024645332,-0.0050932923,0.06729806,0.09352823,-0.024806112,0.018639037,-0.2340962,0.08838326,-0.0031840254,0.02245183,0.040608525,0.10253193,0.034315124,-0.006017779,-0.07083523,-0.010186585,0.07253491,0.0950901,0.009197305,0.03282591,-0.035034474,0.0327654,-0.38362443,-0.079205744,-0.08144456,-0.093727805,0.044141013,0.10831037,0.2191621,-0.13989586,-0.0067883073,-0.11647903,-0.02963408,-0.19677393,-0.07884269,-0.09554306,0.040177703,-0.10135189,-0.1662776,0.072973356,0.037001003,-0.2768873,0.008834254,0.15260266,-0.13590229,0.071037084,0.2923775,0.011602522,-0.28003374,-0.064804696,-0.08828203,-0.081928626,-0.060417823,0.2507476,0.058723584,-0.066498935,0.025186699,0.043808218,-0.18188882,0.052884504,0.06728555,-0.045048643,0.09590611,-0.00019878017,0.2916514,-0.040782787,-0.010346969,0.0930017,0.039693635,-0.16518845,-0.26188117,-0.12428464,0.05727138,0.15272367,-0.20100953,-0.021011608,-0.027773442,-0.11303004,0.10703969,-0.28729478,0.1605898,0.019967834,-0.1098836,0.07593828,-0.35627457,-0.1507874,0.18334103,0.35772678,-0.07067403,-0.022720974,0.0669225,0.11309055,-0.08519609,0.07472811,0.20137258,-0.022857118,-0.29140937,0.00083719305,-0.25098962,-0.15296571,-0.118778355,0.22460788,0.088826604,0.010422604,0.083743885,-0.11490581,0.1648254,-0.097600356,-0.15381283,0.2931036,0.14473654,0.014506934,0.13832264,-0.09481696,-0.05699909,0.25534624,-0.16119488,-0.035034474,-0.12658396,0.009999044,-0.16785082,0.11702361,0.17486982,-0.140864,-0.0894922,0.14183213,0.16288912,0.10467986,0.07224725,-0.24421266,-0.12694702,0.034973964,0.121380225,-0.20609225,-0.10558748,0.14146908,0.05981274,-0.06861674,0.034066334,-0.25873473,-0.22448686,-0.23441027,-0.17172337,-0.09753984,-0.06686199,0.02815162,-0.011307542,0.07146064,-0.1084919,0.056454513,-0.066740975,-0.16797183,0.10080731,-0.054972053,-0.22606008,0.14751993,0.05466951,-0.2029458,-0.15937962,-0.1325138,-0.12131972,-0.04247703,0.16288912,-0.10752376,-0.22218753,0.055425867,-0.03191828,-0.054064423,-0.0273045,0.03312845,-0.24505979,0.08446999,-0.09566408,-0.13904874,0.045986526,-0.14025891,-0.1670037,0.01564147,-0.01585325,-0.039058294,0.018349228,0.0859222,0.20657632,-0.03225108,0.1500613,-0.0029554663,-0.0824127,-0.095301025,-0.016322192,0.033219215,-0.1642203,0.05636375,-0.31996942,0.12634194,-0.10407477,0.06438114,0.004700761,-0.069221824,-0.042295504,0.0065500545,-0.09324373,-0.017955923,0.03975414,0.02783395,0.039633125,0.09245712,0.33158708,-0.16772981,0.3599051,0.06220283,0.24336554,-0.2810019,0.15962166,-0.09923408,-0.009658683,-0.04819509,0.031524975,0.14316332,0.01595914,-0.052400436,-0.0098629,0.303027,0.041387875,0.17922644,-0.01919635,0.07926625,-0.15102944,-0.09124695,-0.2191621,-0.080476426,-0.026759923,-0.14570469,-0.058572315,0.018197957,-0.05454849,0.07563573,0.07841913,-0.005423082,0.0036966966,0.11956497,-0.07805608,0.03400583,-0.19011799,0.010331841,-0.09923408,-0.012714367,-0.16071081,0.07938727,0.13566026,-0.11871785,-0.15090843,-0.20040445,0.13965382,0.007162704,-0.0359421,-0.14207417,-0.36014712,0.04798331,-0.042719062,0.03896753,0.06171876,0.014128755,-0.17232846,-0.06450216,-0.070250474,-0.08483304,-0.012956401,-0.045351185,0.06304995,0.10038374,-0.07618031,0.033824302,0.07642235,0.24663301,-0.1645998,-0.12967423,0.08247281,0.0023593504,-0.15295795,-0.07111911,0.1717463,0.24205855,0.09682342,0.012081315,0.23053195,0.025257656,0.029407231,0.0094157895,-0.022793846,0.021727636,-0.11780183,-0.16794252,0.15975864,-0.0032904835,-0.20471238,0.060457002,-0.057027843,-0.06852562,-0.089446396,0.31260133,0.024969492,-0.10368174,-0.017650103,0.07405839,-0.09982034,-0.2459776,0.07261757,-0.091982245,0.019465541,0.16240975,0.0066962326,0.0054571237,-0.026669664,-0.0087097855,-0.012182172,0.15099843,-0.14281455,-0.07158017,0.17797066,-0.09255858,0.20793982,-0.02868682,-0.12679258,0.05163916,-0.07394312,-0.1775096,-0.01612283,0.0013858932,-0.19041939,0.022087842,-0.12252773,0.2581958,-0.014350614,-0.08074381,0.08731398,0.042648412,-0.011562618,-0.1284063,0.14339088,-0.093480706,-0.07763164,0.08564262,0.02211666,-0.110828236,-0.013053872,0.08051328,0.38060826,0.24113642,-0.044694383,-0.064664215,-0.24228908,-0.087141074,-0.043282375,0.14673358,-0.27594674,-0.055097137,-0.14592673,-0.0782656,0.0034291628,0.015618539,-0.025761945,-0.047691297,0.07348206,-0.060802802,0.05941961,-0.09970507,0.25727364,0.1284063,-0.10742789,0.06927485,0.10875345,0.31652036,-0.093653604,0.15145949,0.03798014,0.108465284,0.17428215,0.08621895,-0.08915823,0.049218573,0.15768385,0.022534499,-0.043167107,-0.010013731,-0.28078791,-0.051581524,-0.25934845,0.047950644,0.11572704,0.012484746,-0.047230233,0.07469235,0.091175385,0.03017087,-0.13071162,-0.0127080735,0.14788625,0.02383124,-0.089619294,0.17981492,0.05359868,-0.02103604,-0.10489204,0.17163104,0.07619081,0.067257695,-0.19318578,-0.13324746,0.045991123,-0.13762757,0.06841036,0.012304643,0.09739975,-0.07970642,0.031842224,0.022376008,-0.026943421,-0.07244466,-0.07745873,-0.14811678,0.039997295,-0.054780155,-0.07590265,0.006645804,-0.12045294,0.029018208,-0.21958168,0.32205313,-0.024955085,-0.1727837,1.3732861e-05,-0.035876535,0.026972238,-0.029147884,0.09474863,-0.14511986,-0.10126116,0.057949968,0.04858461,0.0030761608,-0.12529412,-0.07140727,-0.013781488,-0.08160831,0.016540667,0.07947589,-0.06356919,0.044002786,0.16425401,0.0475184,-0.2222328,0.11048244,0.009278911,-0.38729367,0.083855994,-0.016209278,-0.17047837,0.06789166,-0.108292386,0.14984576,0.035213754,0.12460252,0.05169679,0.19629796,-0.12575518,0.035674818,0.061609663,-0.09555549,-0.121605605,0.14546566,0.0055183587,-0.025833987,-0.06598977,-0.015071026,0.25104928,0.08990746,0.21450998,-0.04578941,-0.1105977,0.08777504,-0.17289896,-0.008846664,-0.18477136,-0.0036020617,0.021497104,-0.049333837,-0.044723198,-0.010258672,0.053886842,-0.1341696,0.04947792,0.08425943,-0.11376752,-0.19779642,-0.18223551,0.1544564,-0.0882361,0.013248383,0.019739298,0.10719736,-0.0939994,0.051466256,-0.009422993,0.09567076,0.07820796,0.45483953,-0.09970507,-0.06852562,-0.096881054,0.11284539,-0.18442556,-0.15676172,-0.35271388,0.094402835,-0.10575653,0.01914856,0.020171545,-0.032476187,-0.18407977,-0.1456962,-0.13002002,-0.04898804,-0.24689972,-0.17935386,-0.042129714,0.04091942,-0.028701227,-0.05976541,0.0415822,0.045587692,-0.0577914,0.04563269,-0.22540148,0.09937119,0.12873222,0.2586653,0.019273808,-0.031162323,-0.0040791724,-0.09835046,-0.017772732,0.020204473,-0.053858582,-0.004060409,-0.08568138,-0.11210031,0.09732973,0.09228611,0.29445094,-0.05355837,0.14242204,-0.11216035,-0.06400585,0.11065927,-0.17124267,0.03779708,-0.0034524733,-0.05556981,-0.05896224,0.11804456,0.077755705,0.0004174866,0.13281515,0.07187149,0.28052098,0.13725834,0.1916573,0.040499013,-0.24785756,-0.1735243,0.109278284,0.30453816,-0.03452473,0.026974324,-0.0470437,0.32207072,-0.1735243,0.0233117,0.053318195,0.053438284,-0.061424002,-0.1683606,0.0700702,0.27547735,0.1391797,-0.035755616,-0.045782797,-0.13953996,0.08093798,0.026193764,0.17292388,0.06304517,0.20582744,-0.072051615,-0.08928396,0.0075203874,0.059742797,-0.13113394,0.07715527,-0.24269386,0.06952981,0.060313206,-0.16968156,0.20943004,0.07499372,-0.06634753,0.081778586,-0.12621042,-0.0489951,-0.23356733,-0.112280436,-0.13017325,-0.07505377,0.1546708,-0.1916573,0.060673464,0.28556457,0.20090392,0.18289103,-0.011183011,0.037977207,0.0018472609,0.4909117,0.09666925,-0.03146254,-0.11095949,0.013914969,0.055870023,0.07745549,0.08231897,0.16944139,-0.12777153,0.0062557315,0.030351743,0.12368861,0.18205042,0.006841151,0.034314584,0.5278982,-0.10939837,-0.22744294,0.18373162,-0.12573007,-0.31054246,0.19105688,0.033624087,0.042720605,-0.33648106,-0.09420749,-0.09907097,0.11288086,0.0013425243,0.011911033,0.043711316,-0.06370564,-0.22035787,-0.026403915,-0.04323097,-0.13185446,0.11366142,-0.16655932,0.038997937,-0.13017325,0.11594306,0.26082686,-0.03491501,0.13245489,-0.065206714,0.13725834,-0.041789938,0.057311058,0.021210195,0.043501165,0.17832775,0.016887099,0.006236968,0.20150435,0.031642668,0.25218067,-0.029991485,-0.008601162,0.015626194,-0.04581282,-0.05259768,-0.05454908,-0.18325128,0.07487364,0.009486796,-0.007730538,0.056890756,0.08009738,-0.08406022,0.0470437,-0.0076142047,0.14518401,-0.207989,0.17724697,0.1726837,-0.0034656078,0.14674513,-0.10945842,0.0924062,0.024812775,-0.05418882,-0.11792448,-0.048154496,0.030366754,-0.1581533,0.04028886,0.13341558,0.050736345,0.09835046,0.0932468,-0.073612735,0.15827338,0.071271054,0.14026049,0.04497222,0.033924304,0.12536982,0.008090796,-0.16752,0.19958298,0.15154856,-0.09474788,0.04142968,0.12038624,-0.029496131,-0.08273927,-0.066767834,-0.012473936,-0.0466234,0.19562013,0.0020264518,0.0021577957,0.09066495,0.15322977,-0.14638487,-0.058511917,-0.027709851,0.0020076882,-0.067668475,-0.05253764,0.1099988,-0.064426154,0.06928964,0.056920778,0.018538281,-0.0034824947,-0.1203262,-0.049085163,0.010537549,0.0016896479,0.03287355,0.047794238,-0.060643446,-0.31870833,0.051727057,0.043321036,0.04446185,0.0016005216,-0.22107838,0.06862917,0.21699545,-0.09877076,-0.0025818497,0.03761695,0.08958418,-0.22564165,0.052657723,-0.09696947,-0.17340423,0.007753054,-0.18012904,0.09600878,0.033954326,0.1513084,0.027199484,0.20150435,-0.17700681,-0.016391743,0.02831028,0.11246057,-0.117203966,-0.14902677,0.07667493,-0.014448349,-0.047693,-0.004142508,-0.034514673,0.2365525,0.31580177,0.14594775,0.027029023,-0.018183704,-0.15610792,0.07488638,-0.090544984,0.12299774,0.038339674,0.064068794,-0.15204385,0.13841727,0.000404819,-0.051727183,-0.18814231,0.03872815,0.007993658,-0.0028444722,-0.029584004,-0.20224701,0.15048994,-0.044166826,-0.35620338,-0.061857462,0.0018405957,0.0059952433,-0.052145544,0.06508481,-0.24527828,-0.07823326,-0.05833129,-0.12311727,0.114212185,0.15897667,-0.124671176,0.058899064,-0.095744595,0.07584263,-0.0637102,-0.025549822,-0.13674384,-0.1434376,-0.017287219,-0.26033923,-0.10990906,-0.08211803,-0.20308372,0.22292593,-0.10345437,-0.13471182,0.020798452,0.08630162,0.029912716,0.07530474,0.047334407,0.06849145,-0.014567881,0.0012307991,0.14965323,-0.039803933,-0.069328174,0.30695647,0.032661937,-0.12395399,0.04631839,-0.004344217,0.026909491,-0.1846759,-0.20081264,-0.22196968,0.10010749,0.1606501,-0.12275868,0.054984413,0.111702025,0.057016443,0.12945244,0.16531183,0.08731764,0.08863248,-0.07494614,-0.04111878,0.09921101,-0.005334086,-0.047424056,-0.22364312,-0.045003545,0.5665785,-0.13566805,0.1763087,-0.015778136,-0.01824347,0.2170689,-0.003268435,0.074527785,0.22938062,0.05531312,0.30145803,-0.1930431,0.039624635,0.01571837,-0.005782328,-0.012573202,0.07219692,0.23452047,-0.04536214,0.0546557,0.0358594,-0.04356917,0.033169944,0.1293329,0.0938321,0.31771427,0.06855122,0.116841875,0.19005482,-0.08331334,0.07560357,-0.030121895,0.17009309,-0.07500591,-0.1094907,-0.005520853,0.047065463,0.29691583,-0.025236052,-0.09233795,0.018303234,0.14642587,0.10201999,-0.046258625,-0.044136945,0.019289369,0.10470945,-0.060692035,0.20499623,-0.16029151,-0.08660045,0.009779157,0.05166742,0.030256368,0.17236418,-0.12837665,0.031406857,-0.09682038,0.0067161666,-0.0067908736,-0.011019294,0.21515639,0.07542427,-0.11307664,0.06908911,-0.10058562,0.041865848,-0.04482425,0.09909147,-0.11469031,0.00032567617,-0.13052821,-0.2491033,0.16041104,-0.13530947,0.08409029,-0.1923259,-0.05136859,-0.15288058,0.03311018,0.041298077,0.016211437,0.081161775,-0.09646178,-0.19806342,0.034783617,0.042612918,-0.23643297,0.065443404,0.10411179,-0.25436267,0.26751113,-0.07279458,-0.14869697,0.083791465,-0.18479544,-0.10967,0.019991616,0.05620961,0.09454928,-0.037323657,0.13279931,1.5408335e-05,-0.026207244,0.13184306,0.06896958,-0.082416855,-0.018497473,-0.13781962,0.022068473,-0.23475954,0.058271524,-0.009196442,-0.0955653,-0.06633989,-0.11265828,-0.01878136,0.14451338,-0.22256733,0.05077093,0.12216102,-0.1114032,-0.0008680029,-0.031526387,-0.004041653,0.15610792,-0.111343436,-0.08534537,-0.10925163,-0.07632075,-0.023577554,0.020514565,0.10602429,-0.09580436,-0.23762828,-0.041925613,0.35692054,-0.10554616,0.020738686,-0.28759238,-0.09705944,-0.075782865,0.015113243,0.02797033,0.000358594,0.005662797,-0.0892899,-0.039385572,-0.034425024,-0.10160163,-0.005801005,0.042612918,-0.14164463,0.043300226,0.09460905,0.12909384,0.020663979,0.08701881,-0.08283521,0.05340062,-0.060931094,-0.011034236,0.19160873,0.15969385,-0.12016318,0.18312776,0.04635854,-0.14380373,-0.028902013,-0.049068555,-0.071555905,0.2043466,-0.07553444,-0.1353854,-0.13307899,0.22464287,0.117395505,-0.3148229,-0.08210766,0.01859531,-0.117683806,-0.013629354,0.04128447,-0.019056588,0.01842233,0.018782705,0.18716396,-0.049039725,0.15106888,0.10840057,0.08412576,0.17470942,-0.26408222,-0.029002918,-0.06861525,-0.08845025,-0.07974361,-0.18474224,-0.06878823,-0.03211655,-0.04076553,0.076456994,-0.21507134,-0.08654747,-0.10251926,0.04203405,-0.099174984,0.021535963,0.040217765,0.08245362,-0.21887688,-0.04624322,-0.077494875,-0.06838461,-0.1267364,-0.10557523,-0.16894343,-0.0639448,0.07835977,-0.033327408,0.32058892,0.099347964,-0.09156388,-0.2806883,0.017615093,0.026278488,-0.100328185,0.1623702,0.123738095,-0.066251196,-0.088796206,0.0636565,-0.11341698,-0.1477246,0.015308697,0.013240149,0.055843588,-0.127313,0.1856648,0.29383472,0.070979305,0.06521332,0.047944188,0.004558734,0.052470487,-0.15625827,0.3789407,-0.2615452,0.004057814,-0.13307899,-0.1751707,-0.122008294,-0.2417102,0.0826266,0.17759241,-0.035230186,-0.08187702,-0.19846529,0.019200739,-0.14184329,0.11422422,-0.07968595,-0.28161085,-0.14991568,0.06002393,-0.083318524,-0.112090796,0.06498268,-0.013593316,0.037911367,0.0022559427,-0.11924063,0.18727928,0.06313756,0.36787,0.019330474,0.24609235,-0.10863121,-0.11451251,0.17367154,0.059389673,-0.017067323,0.17297962,-0.053911984,0.06821163,0.048895575,0.06302224,0.33719495,0.09871371,-0.013939275,-0.14368841,-0.010090479,0.19212271,0.10724737,0.0642331,0.05085601,0.117856786,-0.046992797,-0.00537318,0.10153904,-0.123853415,0.11670359,-0.09121792,0.09317836,0.0069408077,-0.26292902,-0.08279958,-0.13169515,0.058582433,-0.002893805,-0.08821961,-0.07478486,0.10799695,0.044686403,-0.05128846,-0.099463284,0.13861434,-0.048549615,0.04232235,0.13111855,0.014205952,-0.003675817,0.029089408,-0.09790647,-0.07011441,-0.022645917,0.117914446,-0.17609327,-0.18554948,0.09802179,0.24101828,0.050625373,0.004414584,0.095542416,0.03690232,0.007949855,-0.10378778,0.00021352172,0.117164865,-0.0023874792,0.08078149,-0.099405624,-0.021190004,0.044945873,-0.021247664,0.0058524776,-0.14841652,0.17297962,0.2148407,0.050337072,-0.21530198,0.10153904,-0.058582433,-0.09242878,-0.04186107,0.041688092,-0.034019325,-0.038660947,0.04128447,0.057602216,-0.023654964,0.03776722,0.038660947,-0.045464814,-0.011250883,0.10280756,0.21091983,0.18981631,0.13976754,0.11128356,-0.03347156,0.11445485,0.13088793,-0.083203204,0.25024387,-0.16064042,0.029867815,0.12742832,-0.0033028298,-0.18439628,-0.050221752,-0.16790555,0.11629997,0.2428634,-0.009081431,0.00687594,0.14241989,-0.07495784,0.034624755,-0.049328025,0.027691156,-0.08072383,-0.10557523,-0.15533571,-0.09162154,-0.12800492,-0.1296194,-0.2230284,0.2901445,0.0053479536,0.057861686,0.10205798,-0.23848125,-0.09611902,0.035143696,0.014299649,-0.10730503,0.07507316,-0.05494986,-0.020238616,0.21195771,0.15475911,-0.3358111,-0.049241535,0.2428634,0.009384145,0.04220703,0.10793929,-0.06757738,0.16248553,-0.02296101,-0.088281125,-0.09415334,-0.12694535,-0.012552679,0.090326495,0.098639965,-0.11711434,-0.12747319,0.058161292,0.046515837,0.036025032,-0.10457816,0.33517796,0.08504811,-0.063538656,-0.09250384,-0.30456328,-0.18711902,0.09026052,0.007995941,-0.09639665,0.09995957,-0.06485825,0.053278778,0.109658614,-0.0005582519,-0.049847823,0.033583775,0.09659459,-0.0906564,-0.056148905,0.042359103,-0.1363145,-0.06782735,0.18962626,-0.0913162,-0.010894933,0.09461519,0.09435128,-0.100751325,0.018672315,-0.06881705,-0.083860464,0.25824538,0.0052206605,0.19173762,-0.2082326,0.15294144,0.11124213,-0.05793036,0.03127448,0.054796316,-0.17445089,0.29902095,-0.091184236,-0.17484677,0.086367704,0.06749745,0.015777446,0.0024000192,0.30271584,0.08214499,0.069080964,0.01310526,0.10207092,-0.17709008,0.0446684,0.006119637,-0.031686854,0.08913886,-0.02650743,0.11665248,0.09487911,0.024313597,-0.076998554,0.131366,-0.3116891,-0.0011226895,0.06693662,0.03061468,-0.12602164,0.11058233,0.09633067,-0.049286995,0.05308084,-0.16270646,-0.36025032,0.054961268,-0.21641411,-0.17590244,-0.30957773,-0.12391027,0.04519624,-0.13123405,-0.048924103,0.03589307,-0.2913673,-0.02111357,-0.03277552,0.06861911,0.1691725,0.15914355,0.017270241,0.09692449,-0.11599269,0.0047175637,0.03191778,0.36473694,-0.06835519,0.05261898,-0.28054658,-0.15426104,0.064792275,-0.22393581,-0.10602972,0.39112893,0.08122127,-0.10068534,0.108009115,0.060668528,0.23634005,0.028239403,-0.08300273,0.16508174,-0.06670569,-0.11242977,0.1592755,0.20269029,0.019530054,0.15584455,0.023307404,-0.11018645,0.011521742,-0.012255768,0.09039248,-0.11355143,0.14726716,0.020635217,0.24306999,0.041402396,0.13156395,0.049682874,-0.037476588,0.013608357,-0.08194705,-0.09144816,0.11196791,-0.1901541,0.062911846,-0.21694195,0.077856295,0.0063299476,0.05997574,-0.06047059,0.011010398,0.05994275,0.09765027,0.034936365,-0.17075601,-0.01087019,0.28582498,-0.023604313,0.0037319888,-0.03576111,-0.032082733,0.18923038,0.09547293,0.050408654,-0.15214968,0.05957986,0.012899073,-0.0742274,0.041633323,0.23436065,0.04717564,0.0939554,-0.070136644,0.10253278,-0.03566214,-0.016709413,-0.09289972,0.08821514,-0.17233953,0.1396135,-0.087225445,0.120281376,-0.0896667,-0.011752672,0.14014134,-0.123844296,0.2929508,-0.16772093,-0.0738975,0.022878535,-0.14700325,0.18711902,0.13387324,-0.030383749,0.049748853,0.023142453,0.0029752816,-0.09507705,-0.06921293,0.0226641,0.1865912,-0.12595566,0.042919934,0.11104419,0.1340052,0.102400824,-0.13149796,-0.042557042,0.03787247,-0.17260344,-0.19041802,0.029971374,0.018474376,0.12470204,0.13354334,0.10187298,-0.23462456,-0.032478612,0.086829565,-0.05136536,-0.010111421,0.048099354,-0.093427554,0.061823178,-0.07178614,-0.11817002,-0.14990635,0.09355951,-0.14951047,-0.098442025,-0.032808512,0.042557042,-0.05994275,-0.067464456,-0.10174102,0.10563384,-0.08696152,-0.14555168,-0.08254087,0.018276436,0.24702878,-0.010086679,0.025352782,0.15821983,-0.057105612,0.04503129,0.043414783,-0.18104887,0.054367445,0.013492892,-0.039917845,0.07625848,-0.04470325,-0.16026738,-0.0882993,0.056236595,0.08087182,0.11524119,-0.04936272,0.003710854,0.013816948,0.044726316,-0.06430994,0.013159548,0.09706464,-0.08128702,0.0317167,0.19136128,0.15842204,0.032777768,0.23712559,-0.0932817,0.14430523,-0.0069892076,0.08534676,0.10435371,0.2112909,0.07487448,0.174661,0.0097802775,0.10795212,0.007225641,0.054022193,-0.036237773,-0.12169987,0.0029150532,-0.08534676,-0.012075413,0.0601118,-0.12852761,0.07229101,-0.009791811,0.010541478,0.13009614,0.19191487,-0.08493156,-0.018384153,0.07049181,0.055175528,-0.1920994,-0.12742041,0.007248708,0.10712172,-0.00303327,0.029456165,0.14762683,-0.024727494,0.0031832035,0.09632651,0.11708653,-0.07768862,0.012040813,0.06855421,0.048993655,-0.12889667,0.10398465,-0.12695907,0.10896705,0.046064183,-0.23952453,0.035176706,-0.006372174,-0.10610678,0.03912111,-0.08391663,-0.100570776,-0.014681949,0.13747749,0.02392016,0.10029398,-0.015927551,0.021348223,-0.113395855,-0.113303594,0.05508326,-0.059189133,-0.03556884,0.020471688,0.019825822,0.13028067,0.180197,-0.04498005,0.09558837,0.072475545,-0.048578452,-0.064586736,-0.08908357,0.057851262,-0.0011591013,-0.14753456,0.07778089,-0.100570776,0.06366407,0.032800835,-0.21608877,0.08700756,-0.03736804,0.028579632,-0.110351056,-0.17890526,-0.001295339,0.077319555,0.092543565,-0.082671024,0.07958008,0.121054,0.10186251,0.06749314,0.035038304,-0.085116096,0.052407525,-0.12981935,0.2745859,-0.26074588,-0.26443654,-0.13092655,0.07086088,0.00016362935,0.017323086,-0.00062424236,-0.039098043,-0.118562795,-0.035822574,-0.05494486,-0.03263937,0.014774216,-0.006804674,0.19412927,-0.040389776,0.05466806,-0.10712172,-0.10269291,0.06846194,-0.111642785,0.103523314,0.10066304,-0.0034455871,0.009457343,0.08197902,-0.054852594,0.051346455,0.056052063,0.095311575,-0.01795742,0.030840168,0.24118534,0.22180931,-0.032408703,-0.12972708,0.09798731,-0.017069353,0.07182968,-0.04080498,-0.025119627,-0.20575489,0.10149345,0.056928597,0.1177324,0.14947216,0.0078080753,-0.051208057,-0.114503056,0.11588706,0.10536865,-0.08590036,0.12419107,0.008073342,-0.053007256,-0.050931256,-0.048347786,0.026941895,0.061680336,-0.06228007,0.058820065,-0.005319756,-0.033631235,0.1551927,0.2101837,-0.027610831,-0.0012484847,-0.010697179,-0.09139023,-0.0004905276,-0.051069655,-0.05702086,-0.011100845,-0.13092655,-0.14541243,0.07169128,0.009872545,0.056974728,0.19505195,-0.029802166,0.047794186,-0.10186251,-0.0921745,0.086961426,0.02671123,0.07012274,-0.030032832,0.082255825,-0.065786205,-0.0121100135,-0.009711077,0.0012484847,0.08013369,0.06306434,-0.07593555,-0.002120694,-0.3076174,-0.07007661,0.11062785,-0.031901237,-0.05711313,0.026319096,-0.06278753,-0.17456873,0.03584564,0.11699426,-0.0026843862,-0.09194384,-0.036030173,0.034992173,0.1202236,-0.041889112,-0.19080767,0.10647585,-0.052868858,0.017023219,-0.0050256555,0.13784654,-0.07076861,-0.07547422,0.06703181,0.1218844,-0.048301652,0.12400654,0.021567358,-0.01568535,-0.10250838,0.05466806,-0.13600121,0.16727965,0.08304009,-0.0094746435,-0.025696294,-0.006625907,0.03816287,-0.1693953,0.14417084,0.0724116,-0.06414841,0.19005325,0.012816091,-0.04726868,0.061375894,0.019244524,0.07262905,0.20918906,0.12329542,-0.0834473,0.06947599,-0.022492716,0.011946282,0.20701453,-0.06099535,-0.04599115,0.03003559,-0.08719835,-0.11492351,-0.16058847,-0.01492266,0.029084237,-0.08339293,-0.017178727,0.029192964,0.055559047,-0.028703695,-0.052161355,0.015072159,0.15286893,0.27790397,0.016268145,0.24876536,0.020644372,-0.14145268,-0.19374995,0.19701172,-0.03816287,-0.08437147,-0.12601358,0.1436272,-0.0038597772,-0.04707841,0.052215718,-0.042348824,-0.011069678,-0.1311237,-0.009962031,0.18950963,0.25289696,-0.096548796,0.024232334,0.028649332,-0.043327358,0.35727403,0.0080117555,0.22245364,-0.042212915,0.072792135,-0.13960433,-0.005161093,-0.02291403,0.15874013,0.017097183,0.021813178,-0.076651916,-0.1161195,-0.05349325,0.078772075,-0.20201313,-0.07996806,0.04582806,-0.037619237,0.13982178,0.059092645,-0.12818809,0.16428517,0.0099756215,-0.07469484,0.13101497,0.012666593,-0.09513535,-0.025537048,0.11459733,0.10421398,-0.10029984,-0.21669115,-0.08545873,0.19679427,0.09796223,-0.016118648,-0.076815,0.026175814,0.14645408,0.18842237,-0.020712325,-0.0657793,-0.039250128,0.023946928,0.07648882,0.08072914,0.017002046,0.104431435,-0.020997731,0.094754815,-0.11688058,0.061267167,0.02613504,-0.06936727,-0.13036261,0.21125485,-0.032182932,-0.00079803274,0.10323545,-0.1415614,-0.1477588,-0.17156981,-0.017110772,0.034765176,-0.102039464,-0.05757048,-0.008901951,0.22571543,-0.00024760675,0.026733035,-0.079098254,0.13003644,-0.13579892,0.046507597,-0.10981338,-0.0359068,0.024082836,-0.029383233,-0.06985653,0.13645127,0.058385927,-0.027222302,-0.07833717,-0.07442303,0.08986214,-0.07203105,0.1502595,-0.07502102,0.06610548,0.05167209,-0.0451757,-0.2289772,-0.12818809,0.04512134,-0.10187637,0.069204174,-0.14210504,-0.019475566,0.077304274,0.0778479,0.034901083,-0.06893236,0.03196548,0.08246876,0.1265572,0.1511293,0.10638851,-0.022329627,-0.057135575,-0.039657854,-0.14612791,-0.05648322,0.023783838,0.1099221,-0.0018228614,0.16830803,0.047024045,-0.14612791,-0.13960433,0.04229446,0.043463267,-0.045692153,0.12742701,0.076706275,-0.08839434,-0.10394217,-0.102039464,0.053248618,-0.03177521,-0.025319595,-0.015004205,-0.015547835,0.15895759,-0.013475243,-0.11851147,-0.110465735,-0.05740739,0.12742701,-0.05406406,-0.196903,0.08768761,-0.036640704,-0.002278152,-0.13384186,0.12057727,0.012455936,-0.030416131,0.089644685,0.006306115,0.109215386,0.02754848,-0.1652637,-0.069204174,-0.20212185,0.22680268,0.0041417857,0.08176204,-0.038489047,-0.12503503,-0.020209467,-0.04710559,-0.23289135,0.13797344,0.046833776,0.05561341,0.064365864,0.028024158,-0.064909495,0.025469093,-0.16200192,0.008840793,-0.086980894,0.28399262,0.019067843,0.052351627,0.018361123,0.004807733,0.041451834,-0.10372472,0.040989745,-0.09644007,-0.030334586,0.108345576,0.13188478,0.06757329,-0.0838822,-0.025971951,-0.022329627,-0.17700613,-0.09132994,0.05708121,0.055830862,0.10714959,-0.15797906,-0.08975341,0.17711484,0.11106373,0.3221613,0.051273286,0.019799229,-0.17758533,-0.03934257,0.007112849,-0.1024826,0.35465887,0.061252866,-0.029123098,0.08501834,-0.12327339,-0.039438527,-0.02309377,0.12896687,-0.05459981,-0.1934503,-0.15212461,0.15174077,0.05930173,0.12065055,0.08700146,-0.045004062,-0.189612,-0.08162784,0.13715523,-0.09416629,-0.006449143,-0.06416357,0.14355241,-0.048586477,-0.071776204,0.09710898,0.08092415,0.052456763,0.07491081,0.042829026,0.030162638,0.19229881,-0.047658887,0.024005365,-0.047818817,0.10261054,0.11610857,0.2855695,-0.1088158,0.3144847,0.033233277,-0.2108506,-0.01645671,0.019271463,-0.070112936,0.036399875,0.08565805,-0.086425714,0.10177891,-0.055559386,0.05021775,0.020183058,-0.11655636,0.10548927,-0.029426964,0.0354403,0.14790247,-0.017912066,-0.08738529,0.0076166256,0.08636174,-0.17169994,-0.029586893,-0.14828631,-0.04027016,-0.18257512,-0.07228798,-0.13382871,-0.13779496,-0.045036048,-0.09205522,-0.086553656,0.3541471,-0.056646906,0.068001874,-0.07286372,0.29247844,-0.1320375,0.104913525,0.15698646,0.043052927,-0.012842311,0.0046379454,-0.08930444,-0.050985415,0.057702437,0.072160035,0.051529173,0.06928131,0.0871294,0.054791726,-0.07247989,0.026964055,0.024773026,-0.027731715,0.20163867,-0.029474942,-0.08380287,-0.08572202,-0.008364295,-0.20048718,0.111950405,0.11681225,-0.18513398,-0.066146694,-0.03636789,-0.045611795,0.035632215,0.05658293,0.013178162,0.06774599,0.05085747,0.09282288,-0.075614505,-0.01607288,0.2191669,-0.17528234,0.0015623079,-0.101075225,0.075422585,0.11751594,0.0104913525,-0.13101396,-0.0027467832,-0.023237705,-0.005645499,-0.099539906,0.09320671,-0.11438133,0.0020930727,0.0077365725,-0.12525651,-0.09627735,0.017512241,0.24884976,-0.051881015,-0.21213003,0.11156657,-0.040494062,0.24641883,0.21340945,0.014497577,-0.102674514,-0.14508772,-0.08341905,-0.10133111,0.25972494,-0.015025344,-0.031905867,-0.036879662,-0.055431444,-0.10708856,0.09979579,-0.08674557,-0.18078391,-0.20151073,-0.10184288,-0.013993801,0.03806314,0.040430088,0.08879267,0.036112003,-0.02358955,-0.01119504,0.06736216,-0.06851365,-0.11681225,-0.019575328,0.19971952,0.0024429178,-0.104337774,-0.15404376,-0.14201708,-0.00065520976,0.055655345,-0.0068249763,0.023605542,-0.11789977,-0.04669931,0.020454938,0.06723422,0.09710898,-0.03889477,0.054439884,0.0129382685,-0.099539906,-0.0025488709,-0.062948115,-0.040078245,-0.1925547,-0.030146645,-0.0510174,-0.009267895,-0.26919276,-0.0060373256,-0.12576829,0.013426052,0.068449676,-0.06928131,0.06563492,0.052328818,0.023749478,0.05130527,0.18794873,0.015808996,-0.0943582,-0.16914107,-0.056135133,0.19089143,-0.17310731,0.12973453,-0.08738529,-0.1408656,-0.048746403,-0.008748124,-0.0012134624,0.203174,-0.022502031,-0.038766827,-0.18551782,0.10568118,0.14278474,0.0018791675,-0.066466555,0.070240885,-0.12410502,0.06205251,-0.16530277,0.011634845,0.11175849,0.05792634,-0.2539675,-0.030514482,0.019335434,-0.2221096,0.0055335485,-0.05482371,0.037615336,0.06972911,0.093910396,-0.15724234,-0.10152303,-0.07107251,0.20138279,0.11943509,0.029666858,-0.088216916,-0.023509584,0.08514628,-0.10876433,0.20014796,-0.05592052,0.102125116,-0.07778134,0.18924454,0.13775016,-0.120045595,0.1133524,0.0029232102,0.15847746,0.07734952,-0.040833853,0.08231544,0.042048343,0.18557408,-0.114000134,0.13310811,-0.06779553,0.09138363,-0.055434722,-0.09170749,0.13062516,0.00935832,0.039133567,-0.04353272,0.10935808,-0.3443754,-0.18006839,-0.09149158,0.10601149,-0.18071611,-0.0071047666,0.19442636,0.037811123,-0.06218189,-0.072221674,0.0826393,-0.04331681,-0.047095224,-0.013534817,0.0038290173,-0.123284236,-0.026246479,-0.0012018391,0.24484119,-0.15869337,0.047850907,-0.34135267,0.08890067,0.20986389,-0.16851725,0.015410529,0.09753705,-0.008481189,0.034977313,0.01843326,-0.015046182,-0.022629999,-0.21709685,-0.042048343,-0.114000134,-0.10703706,-0.01398013,0.020754285,-0.21882412,0.04860659,0.08846885,0.13559106,-0.05775575,-0.021617923,-0.19464228,-0.027137106,-0.030632138,-0.08242339,0.058295522,0.041265674,-0.024843069,0.021280564,0.07929271,-0.03141481,-0.17758544,-0.043856584,-0.15642633,0.087605216,-0.08539215,-0.16322747,-0.03910658,0.34696633,0.017056838,-0.26211393,-0.05467904,-0.057647794,0.13828993,0.06828133,0.020295478,-0.24656847,0.018406272,-0.1398013,-0.050900627,-0.0062276353,0.034329586,0.17780134,0.0011613561,0.028877875,-0.08517624,-0.07729554,-0.09273306,-0.10304274,0.06277564,0.12036946,-0.042884994,-0.1938866,-0.093380794,0.009297596,0.1640911,-0.10325864,-0.09721318,0.2148298,-0.12339219,-0.032872196,-0.03586794,-0.2150457,-0.16916497,-0.12835811,0.21893208,-0.021429002,-0.161932,-0.011213792,0.03727135,0.1374263,0.102125116,-0.09742909,0.24332982,-0.027771339,0.09564784,0.05065773,-0.054220233,0.1121649,-0.0035422626,-0.06531258,-0.0072936877,0.058673363,0.07227565,-0.030308275,-0.037865102,-0.16927293,-0.016233684,0.020794768,0.020619342,0.12738651,-0.032332424,-0.108278535,0.04884949,0.055191826,-0.11000581,-0.08258532,-0.0112880105,0.058403477,0.08992624,0.11518764,0.09251715,-0.04879551,0.23750028,0.054463133,0.06223587,0.061102346,0.15210813,-0.004331681,0.13839789,0.022049742,-0.007010306,0.08792908,0.10881831,0.048768524,0.1467104,-0.17628998,-0.15038085,0.12134105,-0.08587794,-0.12274446,0.038944647,0.16797747,-0.005296526,0.0012836485,0.030902024,-0.10039785,-0.08274726,0.08042623,0.009452781,0.09095181,0.07967055,-0.061426207,-0.12727855,0.12274446,0.055542678,-0.0042169793,-0.18276726,0.12781833,0.09116772,0.07141201,-0.13019334,-0.17704566,-0.13181265,0.018122891,-0.059806887,-0.1340797,0.10023591,0.31436402,0.003619855,0.09159954,-0.2631935,0.020133546,-0.066931896,0.09877852,-0.0034882852,0.1045541,-0.057161998,-0.078267135,0.05527279,-0.015828853,0.058835294,-0.10450012,0.09904841,-0.13148879,-0.038350895,-0.033304017,-0.110869445,-0.017110815,-0.008568902,0.03136083,0.114216045,0.035894927,0.10649728,0.0030800817,0.08209953,0.045475904,0.052843813,0.09429841,0.008231544,-0.105471715,-0.040024195,0.069738716,0.11896605,-0.042237263,-0.08069611,0.00017015512,-0.00017943246,0.018176869,-0.019202437,-0.14282402,-0.0416705,-0.13062516,0.1919434,0.05365347,0.031306855,0.0009799461,-0.24717072,-0.09068138,0.04317315,-0.061615013,0.081158414,0.06136628,-0.029617136,0.13346367,-0.2882474,-0.20310923,-0.16359603,-0.072132915,-0.067300364,0.05973174,0.26678517,0.12749404,-0.029563835,-0.02601049,0.15563653,0.22386077,-0.17468247,-0.0026783342,-0.0962246,-0.1368038,-0.13261086,0.23835842,-0.055432193,-0.09778807,-0.2962069,-0.11001158,-0.25314033,0.055823058,0.32179096,-0.016247673,-0.19756602,-0.040792406,-0.31127307,-0.24944486,-0.054010853,-0.32093817,-0.0091232145,-0.10553437,-0.20154576,0.12223509,-0.39598483,-0.30473492,0.1264991,0.21249007,0.20751539,-0.029475002,0.05696013,0.0886915,-0.060335808,0.012321226,0.10361556,0.025441954,-0.05141691,-0.13950434,-0.27389187,0.11299639,0.32036963,0.1844897,0.08911791,0.3979747,-0.035533454,-0.031731375,-0.38916242,0.079452805,-0.22400291,-0.15847921,0.13644847,0.022474911,-0.039193403,0.18093635,-0.2429067,0.27417615,-0.24319097,-0.084285356,-0.1353114,-0.10723997,-0.015510353,-0.2605313,-0.022279477,0.1458293,-0.19401267,-0.11804214,0.16501737,0.11519946,-0.108519174,-0.06538156,-0.037700996,-0.109940514,-0.028213564,0.014755268,0.24475445,0.0028582225,0.057102263,-0.12728085,0.11150399,0.36585248,0.13524033,-0.076041594,-0.025388654,0.53129625,-0.24916059,-0.07334106,-0.19785029,0.28838953,0.12337216,0.076041594,0.09167632,0.12394069,0.11434666,-0.2008351,0.177383,-0.18349476,0.25910997,-0.12941284,0.109656245,0.12856004,-0.08918898,0.11740254,-0.14838772,0.08947324,-0.093595125,0.055467725,0.01267656,-0.088549376,-0.120742686,0.12450923,-0.06698056,0.028480064,0.02617039,0.03148264,-0.024589151,-0.19713962,-0.1368038,-0.10127035,-0.05461492,0.029848102,-0.1355246,0.0055076857,0.080945216,-0.011521723,0.030310038,0.010047085,-0.2218709,0.027520662,-0.07781827,0.029315101,-0.04626456,-0.08535136,0.061543945,-0.05006664,-0.11527053,0.020165237,-0.12443816,-0.14995119,0.19657108,-0.044985354,-0.25072408,0.07916854,-0.24191177,-0.33770996,-0.19159639,0.035089288,0.14355516,0.22897759,-0.06086881,-0.012072491,-0.08250868,0.19102786,-0.027911529,-0.24901846,-0.037452262,-0.1844897,-0.29734397,-0.19486547,0.10745317,0.16117975,-0.0488585,0.23551574,-0.0482189,-0.24603365,0.032886215,0.06865064,-0.059767272,0.16530164,0.36926368,-0.044772156,-0.1626011,0.001172604,0.05219865,-0.010855471,-0.054152988,0.048076767,-0.11754467,0.008998848,-0.37466475,-0.09117885,0.26294756,-0.013307279,0.03610199,0.077249736,0.2038199,-0.2151906,-0.03670606,-0.013689264,0.17382966,-0.027431829,0.019561168,-0.028799865,-0.062148016,-0.12998138,-0.08798084,0.20609404,0.18505824,0.28725246,0.033543583,0.18989079,0.07909747,0.11775787,0.07433599,0.17482461,0.1282047,0.044061486,-0.11377813,-0.003884251,-0.033419214,-0.06573689,-0.13268192,0.006635873,-0.07195525,0.0030003563,-0.0063071884,0.17326114,-0.092458054,0.088762574,0.059198737,0.059767272,0.01716266,-0.12052948,0.39740616,0.19060145,-0.21675408,0.18548463,-0.033365916,0.027325228,-0.030150138,-0.08016348,-0.1063161,-0.046619896,-0.20410417,-0.09544286,0.015137252,0.08417554,-0.058418173,-0.21719727,0.0047678687,0.001172932,-0.039506234,-0.16080952,0.14189757,0.28193876,-0.254325,-0.03889711,-0.0018581998,-0.052907027,-0.08353741,-0.03866506,-0.0047461144,0.14340588,-0.17821315,-0.11793858,0.10622014,0.100418925,-0.056822844,-0.1496712,0.09490778,-0.029818214,-0.28333104,-0.01439425,-0.05865022,-0.05354516,-0.101811215,-0.062014926,0.08951265,0.35480195,0.013596584,0.05586564,0.19445653,-0.08168102,0.05882426,-0.11399376,-0.23471692,-0.2575737,0.15199168,0.21069992,0.06781613,-0.21452871,-0.17276001,-0.022624716,0.0710068,-0.21174413,-0.055749618,0.010884519,0.11051303,0.059056308,-0.12751058,-0.13412395,-0.034285147,0.09670615,-0.2489879,0.026816089,0.08986073,0.09421164,0.12020105,-0.12890287,0.50308084,0.1611576,0.09856254,0.26546332,0.034952283,-0.05653278,-0.17786507,-0.025017714,-0.015329695,-0.24597126,0.22439076,0.043509066,-0.24829175,-0.060506612,-0.008136196,-0.016968537,-0.12298563,0.008078184,-0.020478267,0.044350244,0.113877736,0.18459447,0.032457765,0.103087485,-0.14178155,0.2101198,0.12263756,0.10784448,-0.045887563,-0.09363151,0.0044125444,0.029136572,-0.009978079,-0.072631136,-0.093457475,-0.13354383,0.19584882,-0.12843877,-0.14038926,0.2561814,-0.10140514,0.0018047199,-0.060332574,-0.13992517,-0.04788898,-0.12170937,-0.11300755,0.249452,-0.03776587,0.29145274,0.21661715,0.0035695564,-0.047859974,-0.2231145,-0.1117893,-0.06137679,-0.21023582,0.04443726,0.0935735,-0.02005768,0.063175164,0.05867923,0.17009145,-0.10476983,0.14189757,-0.26592743,-0.018520359,-0.006823672,-0.16162169,0.065669686,0.031413548,0.09670615,0.0070122113,0.067294024,-0.12344973,0.11799659,0.121013224,0.12820671,-0.13145539,0.02625047,-0.06021655,0.15582047,-0.09496579,-0.08707615,-0.16788699,-0.020275226,-0.09044085,0.04884618,0.1765888,0.068454266,-0.015416713,0.14375396,-0.04884618,-0.083769456,-0.2053628,-0.080926865,0.03219671,0.07466156,0.027512234,0.10134712,-0.123681776,0.08858446,0.036431592,-0.07106481,-0.0945017,0.09566194,0.011254346,-0.20513076,-0.10384164,0.0030166288,-0.1981693,-0.096184045,-0.01789673,-0.026163453,-0.031123487,-0.04957133,0.0925873,-0.2231145,0.010239134,-0.25014815,-0.028121362,0.00059915613,-0.12414587,-0.037359785,0.07489361,-0.080810845,-0.079418555,-0.16417421,-0.19422448,-0.02801984,0.0801147,-0.06253704,-0.006011503,-0.037301775,-0.08353741,0.13598034,0.014118693,0.24225849,-0.022943782,-0.1842464,0.065901734,-0.07419746,-0.14595842,-0.21429667,0.01785322,0.04980338,-0.13830082,0.19538473,0.03724376,0.16788699,-0.055198506,0.11927286,-0.05725793,0.09171712,-0.086380005,0.14085336,0.1146899,0.070136614,-0.042522863,-0.12147732,0.12507407,0.03396608,-0.035677437,-0.05142772,-0.011471891,0.07239909,0.089280605,0.035068307,-0.11016496,0.005315358,-0.10099905,0.056822844,0.085103735,0.057954077,-0.052849013,0.18737905,-0.06369728,-0.007911399,0.076808006,0.14479817,0.12449395,0.045336448,0.16672675,-0.06613378,-0.10662622,0.0561267,0.11503798,0.19352834,0.06503155,-0.07657596,0.02321934,-0.18737905,0.19770521,-0.1155128,-0.07978442,-0.010658071,-0.14312842,0.08650029,0.2963575,0.34428188,0.046769254,0.15634523,-0.18331614,0.1075075,0.036614873,-0.035325427,0.039919075,0.0073135723,-0.0144391,-0.02855584,-0.033686757,0.025600862,-0.20555906,-0.14011972,-0.07537882,-0.0103760045,-0.013243677,-0.12378675,0.05375375,-0.025238205,0.05455965,0.1061106,-0.020819169,-0.06586916,-0.0012533475,-0.15903158,-0.030382555,0.042954646,-0.07838753,0.14173153,0.009610397,0.032236133,0.002160828,-0.014909211,-0.40789452,0.0015815853,-0.01935511,-0.07747417,-0.18331614,-0.08580184,-0.112074286,0.114438266,-0.09074471,0.06903905,0.0045130583,-0.013438437,-0.16010612,0.18030743,-0.018320868,-0.13066378,0.040160846,0.13571411,0.025090456,0.0733372,0.17267822,0.036856644,0.29721713,-0.0661378,0.12314203,-0.020107288,-0.11035503,-0.13625139,0.16096576,-0.116909705,-0.010268551,0.07425056,-0.1936317,-0.06753469,-0.053485114,-0.047628883,-0.011235635,0.04980482,0.10460625,-0.13926008,-0.16752043,-0.14205389,0.41176286,-0.08478103,0.051765855,0.077527896,-0.027118646,-0.2175939,0.059636842,-0.013310836,0.11239664,-0.008905231,0.047387112,-0.118628964,0.12894453,0.029791558,-0.18019998,-0.03594329,0.26369154,0.105680786,0.023586104,0.05243744,-0.026379902,0.10224226,-0.029657241,-0.03285399,-0.031725727,-0.034976203,-0.08778973,0.12991162,-0.10084537,0.08590929,-0.06828687,-0.042497966,-0.101758726,0.0013381352,0.049885415,-0.17429002,-0.13012652,-0.048810877,0.06952259,-0.06731979,-0.13603647,0.12067059,-0.11476063,0.084297486,0.059636842,0.07118812,0.027145509,0.14592223,0.04781693,0.0015522033,0.22629765,0.01310936,-0.15870923,-0.02863643,-0.062753,0.09703076,0.016816515,0.045211174,0.084834754,-0.13130851,0.07188658,-0.03613133,0.00018846385,0.076721996,0.14054954,0.045909625,-0.04948246,0.016615039,-0.057004225,-0.047897518,0.00086634606,0.04703789,-0.0030741852,0.08096642,0.06560053,0.055714782,0.049912278,0.10234972,-0.018683525,0.05313589,-0.14044207,0.1652639,0.025157614,0.11701716,0.05203449,0.016480722,-0.05727286,-0.068662964,-0.13549921,-0.024660641,-0.10245717,0.019475996,-0.034546386,0.11121465,0.044136636,0.02550684,-0.10793731,-0.0004797643,0.10122146,0.19696276,0.047951248,0.045426082,0.085640654,0.052625485,-0.023115993,-0.032961443,0.020926623,0.049025785,0.08854191,0.23381941,-0.019381974,-0.056896772,0.09547268,0.06533189,-0.0427666,-0.07758162,0.099072374,-0.04744084,-0.054398473,-0.10578824,-0.046688665,-0.0035258268,0.036399964,0.06339773,-0.07527137,-0.04905265,-0.102295995,0.023263741,0.04102048,-0.03736705,-0.042471103,-0.04220247,-0.02372042,-0.1466744,-0.0068165986,-0.012316888,0.06484835,-0.036614873,0.03183318,-0.072423846,-0.11411591,-0.07016731,-0.011094602,0.12400165,0.026702262,-0.21426283,0.11766188,-0.09047607,-0.027212668,0.021638503,0.07134931,-0.08671519,0.062914185,-0.026863443,0.09262515,0.23553866,-0.06667507,0.03994594,-0.15140237,0.03854904,0.022242932,-0.11583517,0.08284686,-0.07763535,0.085103385,0.026151562,-0.0002316972,-0.032316722,0.05727286,-0.23446412,0.13743338,0.099448465,-0.044566453,0.14790337,0.006865054,-0.121940985,0.049134698,0.025668694,0.12476043,0.15471703,-0.020455658,-0.054832324,0.14108971,0.023084203,0.16258797,-0.06737298,0.016901983,0.12757987,0.08957611,-0.062380213,-0.022526188,0.06290886,-0.19924076,0.0046440074,-0.0095817065,0.009706526,0.14731598,0.12053126,-0.013957719,-0.11976766,0.04640336,0.15777142,-0.18396877,0.088695034,-0.040353302,-0.21404284,-0.025933018,0.0096991835,0.056829434,0.014045827,0.10308595,0.11330643,-0.10320342,-0.20499712,0.032218028,-0.051777925,-0.10337964,0.03776881,0.02418555,-0.12311575,-0.11318896,0.017371891,-0.011174986,-0.23131195,-0.084172174,-0.03823872,0.058944017,-0.30473498,-0.17785996,0.08564063,-0.20241264,-0.20734666,-0.07113224,-0.086932875,0.09527373,-0.15530442,0.15706657,0.04822425,0.04258536,0.046638314,0.027063733,0.065610826,-0.06055932,0.05574277,-0.008531757,-0.0027625419,-0.009860714,0.011747686,-0.12605268,-0.0587678,0.018370444,-0.046990745,-0.1329838,0.0557134,0.031131368,0.35806948,-0.2610336,0.27583566,-0.22109145,-0.052923325,0.1517801,-0.035448644,-0.06437732,0.07430412,-0.18725812,-0.3869688,0.07606627,-0.13897513,0.092689246,0.05618331,0.18843289,-0.25093058,-0.20640685,0.2528102,-0.1109569,0.013260201,-0.16047339,-0.044376884,-0.08857755,-0.028311923,-0.15589179,-0.22473323,0.36347342,-0.07301187,-0.013832901,-0.063848674,0.20570199,0.006039045,-0.1954815,-0.13521586,0.39072806,0.15072282,-0.059208337,0.11324769,0.15072282,0.11412877,-0.007988427,0.04052952,0.1766852,0.08763774,-0.023054834,0.13368867,-0.09439266,0.124408,-0.015198569,0.080295436,-0.073951684,-0.022511505,-0.03967781,0.18960765,-0.13239643,-0.042967163,0.0345382,-0.14837328,0.15424712,0.041498702,0.099914074,-0.13392362,0.11125059,0.0293839,0.01870819,0.058944017,0.16505499,-0.04787182,0.047636867,0.0014170647,-0.04931091,-0.0166964,0.21439527,0.057005648,-0.06367246,0.04079384,0.011476021,0.06572831,0.09398149,-0.11330643,0.16141321,-0.20276506,-0.039530963,0.10584665,-0.11835794,-0.06314381,0.033539645,0.0845246,0.02475825,-0.14602374,0.13615568,0.12123612,-0.0044200667,-0.014368889,-0.01571253,-0.1467286,-0.27654055,0.06167535,-0.1655249,-0.17539296,-0.12464295,-0.11706569,0.042203564,-0.014383573,-0.054861695,0.044406254,0.13380614,-0.17351332,0.22884493,-0.12041378,-0.16916668,-0.01813549,-0.14296934,0.31178358,-0.037328273,0.037886288,-0.00033820487,0.106140345,-0.03594792,-0.024024019,-0.16470256,0.065023445,0.04936965,-0.11606714,0.004155744,0.02121926,-0.0045999535,-0.15260245,0.005091888,0.08781395,0.1056117,0.004673376,-0.020220704,-0.13462849,0.19630383,-0.12012009,-0.15459955,-0.1233507,-0.04158681,-0.08041291,0.03891421,0.089752324,-0.029178316,-0.098151915,-0.16106078,-0.047431283,-0.0009086101,-0.08105904,-0.24411692,-0.015345415,-0.1508403,0.11031077,0.11465742,-0.08898872,-0.0067292214,-0.319772,-0.12617014,0.00044604496,0.12523034,-0.0010398538,0.20840396,-0.004559571,0.17186865,-0.01281232,0.1109569,-0.0280476,-0.11947397,-0.030984523,0.07776968,-0.012276332,0.15730152,-0.02467014,-0.018341076,-0.28343093,0.0835225,0.12476417,-0.10917677,-0.05471828,-0.028885406,0.083067864,-0.039033454,-0.06800004,0.035331447,-0.09313473,0.12599817,-0.055140436,-0.079755545,0.020848151,-0.074819535,0.065532036,-0.047541577,-0.047931265,-0.0900822,0.009076415,0.050301846,-0.09521305,0.026547296,0.03779945,-0.12476417,0.0781968,0.25602308,0.08715956,0.016456075,0.073520586,-0.069363944,0.10846234,0.030346725,-0.066636145,-0.3003173,0.073715426,0.0015425034,0.13060945,0.025816636,-0.036955133,0.11352825,0.19198485,-0.006636824,-0.039423138,-0.04614521,0.0077043986,-0.09222547,0.23108324,-0.19886927,-0.037994295,-0.080469966,0.09794085,0.005833098,-0.28836694,0.09988927,0.14950918,0.09229042,-0.13976705,-0.37981305,0.096512005,0.13327229,-0.03104491,0.03442218,-0.06871447,0.07553396,0.19692086,0.068259835,0.04877558,0.04383957,-0.26186836,0.07085773,0.2790145,0.1589915,0.09365431,-0.10229233,-0.046112735,0.08793893,0.08417197,-0.26940227,-0.17302017,0.0913162,-0.16483678,-0.2764166,-0.074819535,-0.06884436,0.13288261,-0.034714445,-0.26654458,0.04494368,-0.13677946,-0.060758397,0.16977279,-0.3863078,0.21107942,0.08111944,-0.08235344,0.17574796,0.029307565,-0.06407072,0.13911757,-0.020718256,0.084886394,-0.13002492,-0.052282747,-0.15210707,0.024533922,0.09443368,-0.33409,0.12080237,-0.13132387,0.096706845,0.0058168615,0.18847768,0.02589782,0.103461385,0.06007645,-0.061342925,0.16613573,0.1120994,-0.110215925,-0.07488448,0.00086359895,-0.07787207,-0.1280765,-0.09885011,-0.08254829,0.2221205,0.15509465,-0.02032857,0.12391985,-0.25173655,0.0061131846,0.047541577,0.12145185,0.21978238,-0.023283683,0.036110815,0.0072944174,0.1618492,-0.054913122,-0.20510425,-0.039877772,-0.17185111,0.052899748,0.017487118,0.0094661,-0.08508124,0.0032859382,-0.018217778,-0.10865719,-0.044261727,-0.2844701,0.09371926,0.014320926,-0.033512916,-0.120932266,0.1044356,-0.095083155,0.15873171,0.04783384,-0.11969826,-0.06475267,0.10586444,-0.10079854,0.102357276,0.19796002,0.09885011,-0.21211857,0.23056367,-0.017698197,-0.17327996,0.30915016,-0.046469945,0.091965675,-0.14989886,-0.025508136,0.009149481,0.24965823,-0.032571178,0.06761036,0.2009476,-0.062836714,0.051405955,-0.11645089,0.10683866,-0.1514576,0.027781298,0.0874843,0.035558764,0.047866315,0.13073935,0.024501448,-0.15158749,-0.0794308,-0.043904517,-0.15158749,-0.21081962,-0.09313473,-0.057543494,0.08261324,-0.013931241,0.12210132,0.07085773,0.003245346,-0.055984754,0.1331424,-0.011211564,0.22601734,0.0065799947,0.0011954402,-0.18042418,0.04455399,-0.03948809,0.18133345,0.112748876,0.00048076382,0.1070335,0.026190083,-0.066084094,0.10300675,0.02398187,-0.01737346,-0.06618151,-0.1904261,0.19458275,0.010813761,-0.057705864,-0.17405933,0.08689977,0.015920259,0.07468964,0.05507549,-0.18393135,-0.0044854376,-0.061959926,0.0036208238,0.05004206,-0.12866102,-0.073910266,-0.05429612,-0.009149481,-0.07228658,0.277196,0.16275847,-0.09352442,-0.026336215,0.036175765,-0.07468964,0.036987606,-0.008922164,0.024257895,0.023072604,-0.2427738,0.03640308,0.2061434,-0.0046639075,0.12864412,0.1303024,-0.13738197,-0.08253123,-0.27195764,-0.061994094,-0.0626,0.08087295,-0.17883892,0.32655326,-0.037821498,0.17029242,0.0125168115,-0.14452532,-0.07098706,0.099114016,0.0230405,0.10166521,0.14529069,0.06550199,0.2597119,0.06722405,-0.060495265,0.059857465,-0.010786781,0.177946,0.23483771,0.15319939,-0.09318248,0.13776465,0.08878166,-0.032942336,0.05523342,0.22208172,0.14503556,0.089674585,-0.11614326,-0.09700928,-0.1077243,-0.06894611,-0.114612535,0.0052977204,0.00056006754,-0.035047073,-0.034122262,-0.034664392,0.020967653,-0.23075579,-0.095032096,-0.14631116,0.10255813,0.050194807,0.11831177,0.06677759,-0.039511666,0.04518808,-0.1248811,0.08533755,-0.019723944,0.03667346,-0.0934376,-0.13355517,-0.026787572,0.09822109,-0.047133368,-0.056923587,0.106703825,-0.008793658,-0.2742537,-0.01935721,-0.095223434,0.14375997,-0.124243304,0.03804473,0.123733066,-0.16442466,0.08355171,0.056604687,-0.022546206,0.18126257,0.17373653,-0.13100398,-0.010412074,-0.089483246,-0.26200795,-0.104025066,0.086995825,-0.047930617,-0.060909834,-0.043848705,-0.033643913,0.032878555,0.11486766,0.053351913,0.24886928,0.22042345,-0.07475008,-0.016582781,0.13750952,-0.06920122,-0.035365973,-0.068563424,-0.00940754,-0.18547204,-0.024172595,-0.039001428,-0.17080265,-0.028238565,-0.076727256,0.23598574,0.053033013,-0.14720409,-0.10428019,-0.067287825,0.011847123,0.00851462,0.18126257,-0.11971493,0.04668691,0.016917627,-0.07698238,0.10255813,0.32757372,0.42758065,0.08425329,0.07098706,-0.03874631,0.14057097,0.050928276,-0.0162878,-0.09968803,-0.018751299,-0.20702966,0.07156108,-0.034345493,-0.053415693,-0.061037395,0.03263938,-0.08323281,0.24606298,-0.18355864,0.100389615,-0.18891616,0.12073541,0.030375192,-0.08304147,0.19975874,0.2011619,0.15651596,-0.21238717,-0.1109133,0.0043888567,0.259967,0.14975528,-0.058326747,0.094266735,0.113209374,-0.04668691,-0.15294428,-0.37324014,-0.05679603,-0.049780235,0.16391443,0.025129292,0.072326444,-0.19529416,-0.09146042,-0.12717718,0.026070047,-0.049014878,-0.020744422,-0.03823607,-0.077556394,-0.17960429,0.058039736,0.09573368,-0.13176934,-0.14401509,0.1757775,-0.14044341,0.12532757,0.14503556,-0.06393938,0.041488845,0.16098055,-0.14835212,-0.03839552,0.09324626,0.08055405,-0.16697586,0.1693995,-0.16008763,0.19529416,-0.03578054,-0.089674585,-0.041680183,0.19146736,-0.0112412125,0.061420076,0.13074885,0.08705961,-0.16888925,0.10179277,0.089802146,-0.106257364,0.058741316,0.00049927726,-0.10523689,-0.14465289,0.0322567,-0.10510933,-0.11627082,0.22603607,-0.08469975,-0.048568416,-0.08788875,0.03155512,0.06476852,0.08055405,-0.024013145,-0.11531412,0.17960429,0.15766399,-0.034983292,-0.15345451,0.0066410853,0.25282365,-0.20039654,0.12092675,0.22144392,0.2717025,0.104535304,0.029753339,-0.04627234,0.044040043,-0.053894043,-0.043210905,0.17093022,0.03702425,0.052267652,-0.043370355,-0.20345798,0.04732471,-0.12099053,-0.13942292,0.12526378,-0.027887775,-0.08406195,0.07583434,0.08986592,0.14044341,-0.07857688,-0.13202445,0.053256243,-0.005321638,0.033591494,0.045219973,0.2098915,0.057989165,-0.19313832,0.0027964534,0.07933926,0.15772508,0.24489611,-0.020413684,0.010947456,0.025129773,-0.13041604,-0.18006265,-0.10732933,0.18864356,0.060372747,0.30891234,-0.0014418548,0.04293854,0.06544638,-0.12510405,-0.09752259,0.17979024,-0.113254234,-0.105490565,-0.103719905,-0.101063915,0.31790185,0.041542444,0.24407887,-0.12033688,0.11161978,0.32716376,0.0892822,0.053903025,0.13463838,0.22650847,-0.18850735,-0.06244987,0.010215355,-0.103515595,-0.08110992,-0.13668145,-0.025793772,0.22637227,-0.092891626,-0.10909999,-0.0067123394,-0.11093876,-0.048012167,-0.059351213,0.16072159,0.13382114,-0.08110992,-0.15132345,-0.015450724,-0.08587708,-0.021877885,0.072392814,-0.003432785,-0.10228975,0.13157377,-0.0950028,0.0057163425,-0.21384144,0.2390393,0.029369146,0.26668885,0.15500098,-0.24217202,0.11005343,-0.118974835,-0.0044351667,-0.053119846,-0.028568942,-0.10235786,0.042495877,-0.07252902,-0.16712321,0.11734038,-0.03830758,-0.27867487,-0.11536541,-0.096432954,-0.08969082,0.069294155,0.40970385,-0.23495317,0.065071814,0.08601329,-0.011151763,0.029709658,-0.10242596,-0.15445617,-0.01814928,-0.07688757,-0.25470287,-0.14723732,0.24952707,0.30019525,-0.09350455,-0.034749232,-0.08458314,0.18973319,-0.08424263,-0.09125717,0.13538751,-0.37211132,0.096841566,-0.28984368,-0.12435492,0.2681871,-0.038682144,-0.055741787,-0.1872815,-0.05523102,0.22868775,0.12605748,0.11713607,-0.10698882,0.067693755,0.0459691,0.023222907,-0.23468076,0.12129032,0.05557153,-0.13845211,-0.0777048,-0.028994583,-0.10249406,0.19490898,-0.09650105,0.03468113,0.094253674,0.046820376,-0.14328738,0.036434766,0.015433699,0.044777308,-0.003849912,0.03864809,-0.016753182,-0.09929325,-0.21275179,0.013509807,0.03260401,-0.23113944,-0.19899511,-0.12408251,-0.14424081,0.02746228,-0.02444875,-0.065071814,-0.1930021,0.01467606,-0.13783918,0.10501385,0.048727244,0.06531017,-0.058533985,-0.09963376,0.24625815,-0.016284978,0.14001846,0.057512447,0.12278856,0.012607451,-0.12564887,0.11856622,0.012999039,0.058772344,-0.030118272,-0.019102713,-0.160994,0.06742134,0.05836373,-0.012113708,0.029709658,-0.0036945534,-0.08880549,0.00031683562,0.21343282,0.094253674,0.22119649,0.18578325,-0.04205321,0.110325836,-0.11339044,-0.06210936,-0.050974622,-0.009636485,0.12524025,-0.28466788,-0.20893806,0.002781556,0.109508604,0.05121298,0.14819075,0.0690558,0.073891066,0.010002535,0.06874934,0.08866928,-0.053903025,-0.12755573,0.0026283257,0.08267628,-0.18333156,0.2158845,0.14873557,-0.076751366,-0.031037653,-0.12442303,0.2071674,0.1582699,-0.012539349,-0.14056328,0.18632807,0.08587708,0.21070872,-0.12524025,-0.0446411,0.08703482,-0.24012895,-0.038716197,0.05066816,0.19136766,0.007593414,0.059657674,-0.1785644,-0.11093876,0.10841897,-0.05700168,0.044164386,-0.02487439,-0.1208136,0.03294452,-0.19708826,-0.0806332,-0.00057408167,-0.08975892,-0.03158247,-0.17992646,0.012658527,-0.15500098,0.13375305,-0.038682144,0.15486479,0.021230914,0.14601147,0.16044918,0.022831319,-0.24407887,0.07273333,-0.06255203,-0.14191481,0.049126428,0.057982646,0.02655519,-0.17701666,-0.07989438,-0.04398498,0.108966455,0.1039596,-0.101967625,-0.073918454,0.14094575,-0.036017075,0.10304437,-0.00011019798,-0.18455386,0.072464846,-0.12662505,0.12361017,-0.09443042,0.03324446,-0.05561381,0.049718637,-0.037739865,-0.20318152,0.20188944,0.041939165,-0.035963237,0.005518311,0.020471588,-0.008412059,-0.21879432,-0.11510389,0.07386462,0.03345981,0.0024697809,-0.039651085,-0.070419036,-0.024818942,0.02464397,0.039247304,0.17454015,-0.047968928,-0.11456552,-0.015437812,0.22783895,0.23106919,0.12490226,0.32237706,-0.14040737,-0.044388756,0.11779576,0.028049173,0.12748645,-0.13642342,-0.119949244,0.05004166,0.13211645,-0.025370773,-0.1902606,-0.08630101,-0.106328435,-0.106005415,0.059382413,0.07553357,0.089854255,0.24700499,-0.2780152,0.053917937,0.11693436,-0.051656775,0.14148411,-0.09087716,-0.0066051492,-0.01585505,0.019448683,-0.11295041,0.12920924,-0.046111546,-0.005774038,-0.07849461,-0.083770655,-0.2390371,-0.24829708,0.026339842,0.19478293,-0.38827375,0.08247856,0.11079692,0.009603207,-0.20167409,0.033082947,0.07547973,-0.12479459,-0.14299156,-0.000104940445,0.039247304,-0.2066271,-0.14568342,0.20188944,0.1822927,-0.18250805,-0.068480894,0.08070194,-0.1285632,-0.08043275,-0.24678965,0.087216236,-0.22999245,-0.06681194,0.057228927,0.03265225,0.20630409,-0.13836156,-0.071011245,0.085493445,0.014562958,-0.09959879,-0.074241474,0.09868356,-0.13448527,-0.06514299,-0.021131095,0.10132158,-0.209642,0.13082436,0.14546807,0.012362363,-0.10465948,0.09437658,-0.074779846,-0.065250665,-0.017981619,0.07418764,0.120272264,0.017672054,-0.0047141183,0.042908233,0.034671146,-0.10638227,0.05238358,0.06998834,-0.0111106485,0.02141374,-0.09879123,0.06654276,0.21954803,0.028372195,-0.032517657,0.12188738,-0.32862216,-0.08974658,-0.012496956,-0.019341007,-0.09286914,-0.080917284,-0.1533283,0.010666491,-0.072141826,-0.024603592,-0.09190007,-0.0004349035,0.08102496,0.0821017,-0.22697756,-0.020511966,-0.11488855,-0.05413329,0.0041185445,-0.062935665,-0.018412316,-0.17454015,-0.07031136,0.06740415,0.09233077,0.025343854,0.097660646,-0.072141826,0.014980196,-0.23946778,-0.16528015,-0.03881661,-0.2032892,-0.07720252,0.064120084,0.17841642,0.1659262,-0.21470268,-0.002577455,0.10767437,0.06094369,-0.27952266,-0.0508223,0.052895032,-0.01718752,0.079409845,0.009683963,-0.08269391,0.15515876,-0.07359543,-0.086408675,-0.033782832,0.12177971,-0.12102599,-0.010094471,0.025747633,-0.14966737,0.008647597,0.24872778,0.028560625,0.015747376,-0.03873585,0.05582916,0.15063643,-0.036824632,-0.15558946,0.11144297,0.12522529,-0.015720457,0.046946023,0.07327241,0.041939165,-0.017335573,-0.0016580169,0.107243665,0.041400794,0.008142874,0.082317054,0.122210406,0.044469513,0.0122143105,0.13976133,-0.023473011,0.15558946,-0.0321408,0.22633152,-0.05841334,0.03862818,-0.11628831,0.009259995,0.053029623,-0.010565547,-0.14492969,-0.08856217,0.00821017,-0.110366225,0.12037994,0.12500994,-0.051441427,0.021373361,-0.047861256,0.09819902,-0.071926475,0.059113227,-0.02541115,-0.0019129023,-0.028149445,-0.09418702,0.013808068,-0.09673763,-0.28511167,0.12938541,-0.1556335,-0.021865672,-0.030305868,-0.1242842,-0.041598108,0.002815814,0.1250262,0.00949522,-0.011616862,0.035847645,0.14413257,0.027871195,-0.052310664,0.006567817,-0.022503324,-0.11296877,-0.17316313,0.01580218,0.12419145,0.12604643,0.07869787,0.12864342,-0.1406081,-0.018306414,-0.012231328,-0.0696548,-0.114731014,0.093723275,-0.121594466,-0.09831437,0.039789494,0.10545607,-0.22834903,-0.04199229,0.04920356,-0.050641175,0.092563905,-0.06153923,-0.008619898,-0.09896361,-0.043870468,0.0131588215,-0.083474465,-0.10035486,0.032856476,-0.23966447,-0.060379863,0.026943702,0.18791029,0.043963216,-0.0052490365,0.15980722,0.071788035,0.15424226,-0.002628866,-0.08097023,0.10091135,0.1781716,0.03948806,0.024926402,0.014457313,0.1864263,0.1321679,0.002228884,0.008654679,-0.14051534,-0.0428966,-0.2622953,0.04864706,0.04349947,0.0098488275,0.036265016,-0.047325384,0.39585444,-0.08161948,-0.055881515,-0.08532945,0.10499232,0.052635286,0.09562463,-0.014631218,0.0329956,-0.014422532,-0.011234271,0.22890553,0.12567544,-0.3407613,0.21165414,-0.2485684,0.07188079,0.16500118,-0.0430821,-0.21610612,0.005941759,0.035036087,0.029007375,0.028056694,0.023685878,-0.19662873,-0.038560566,-0.056438014,-0.12938541,0.024277156,-0.14923379,0.10554882,0.07355028,0.19996771,0.06339422,-0.018526694,0.01598768,0.0427111,-0.014016754,-0.07215904,0.031186987,0.06432171,-0.11324702,0.112412274,0.09191466,0.07220541,-0.016741266,0.054119278,-0.07160254,-0.054675773,-0.054490276,0.050131053,0.02302504,-0.15869422,0.05820025,0.043522656,-0.008556132,0.11881199,-0.11806999,-0.07081417,0.04482115,0.07137067,-0.040601052,0.079486236,-0.008793803,0.032346353,-0.10768206,0.14784256,0.07586901,0.011808159,-0.04421828,0.0696548,0.007101126,0.019720841,0.113339774,0.018573068,-0.18011934,0.021877266,-0.017100671,0.028103068,-0.045632705,0.075498015,-0.108516805,0.01725139,0.013239977,0.026688641,-0.13903135,-0.040716987,-0.0125907315,-0.010927039,0.014631218,-0.07401402,-0.0032839086,-0.037517134,-0.09720138,-0.2814017,0.15016128,-0.14450358,-0.14710055,0.012915354,-0.009008286,-0.027453823,0.053191785,0.106198065,-0.0031476829,0.06390434,-0.025668398,0.009443048,0.10721831,0.115936756,0.048415188,0.17613111,-0.08106298,0.096552126,0.06603757,-0.10425033,0.011895111,0.11500926,0.031813044,-0.075219765,0.09952011,-0.10387933,-0.023210539,0.17325589,-0.03343616,-0.016799236,0.015013809,0.053794656,0.12122347,0.0047070323,0.07484877,0.030421805,0.057551004,-0.18299457,-0.18049034,-0.05857125,-0.06255947,0.14663681,-0.040067744,0.03174348,0.0075358893,0.067243315,0.15516976,0.030955113,0.06288409,-0.06603757,0.067243315,0.11398902,-0.033923093,0.013031291,0.08310346,0.04744132,-0.042131416,0.03264779,-0.017610794,0.08106298,-0.041714046,-0.12456245,0.004460667,0.09488264,0.081758596,-0.047719568,-0.0072228597,-0.033668034,-0.032439105,0.044334214,-0.030885551,-0.0014108054,-0.04822969,0.09924186,-0.005582355,-0.14070085,0.048090566,-0.07911524,0.059823364,-0.07341115,-0.08421646,0.18273517,0.12352755,0.04390043,-0.067589425,0.14980242,-0.103435,0.23290709,-0.039858144,-0.040987607,-0.15158577,0.054927554,0.055522006,0.07062114,-0.16965719,0.059118453,-0.11241126,0.09338873,-0.17393725,0.032605805,-0.0043952446,-0.2276759,-0.082688555,-0.11877192,0.092972614,-0.04315736,-0.101829976,0.044167936,-0.1002844,0.16192928,-0.033200257,0.0653305,-0.092378154,0.028786436,0.036380585,-0.070323914,0.028533794,-0.16454488,-0.16775493,-0.11211403,-0.058018714,-0.055165336,-0.16692269,-0.020746445,-0.09124869,0.015351775,0.23290709,-0.03254636,-0.13030432,-0.099095486,0.06735164,0.315774,0.10848786,-0.020478942,0.052876685,-0.00979363,-0.032397743,-0.026899045,0.09939271,-0.18285406,-0.055432837,0.035191678,-0.06699497,0.114789076,0.053263083,0.009102577,-0.23825717,-0.040006757,0.10890398,0.046813253,0.09873881,0.090832576,0.049339686,0.074306756,0.21067451,-0.15420137,-0.024684703,-0.044524606,-0.23231263,0.07597122,0.10854731,0.058999564,0.024996793,0.054749217,-0.002299794,0.23635492,0.03771811,0.058375385,0.042770967,0.32266966,0.07935961,0.046159357,-0.02969298,-0.24336948,0.021207148,-0.12970987,0.18546966,-0.07484176,-0.023793023,-0.028266288,-0.10581282,-0.18689635,-0.044049043,0.062298782,0.10902287,-0.1370811,-0.089584224,-0.10177053,0.21019894,-0.0013282333,0.29366028,-0.12233864,-0.10527781,0.055432837,0.018740164,-0.03554835,-0.07680346,-0.18261628,-0.13387105,0.06051542,0.05546256,-0.051420275,0.02903908,-0.14124228,0.008173743,-0.108012296,0.18475631,-0.018101126,-0.15717365,0.10153275,0.028296012,-0.069016114,0.044821832,0.16240484,-0.24420172,0.0853636,-0.027240856,-0.015232884,-0.061585438,0.023183707,-0.07620901,-0.008508123,0.009905091,0.18439963,0.07121559,-0.02333232,0.048031885,-0.037777554,-0.01804168,0.055522006,-0.037569493,-0.07751681,-0.10242443,0.079181276,0.015589557,-0.06455771,-0.082748,0.041344278,-0.017878205,0.055195056,0.050974432,-0.13672443,-0.03798561,0.04764549,-0.04607019,0.1759584,0.07198838,-0.08524471,0.22470362,0.1487324,-0.05314419,-0.12614314,-5.8980986e-05,-0.097787686,0.09933327,-0.07079948,0.049607188,-0.022574391,-0.0057587735,0.11740467,0.18713413,-0.03400277,0.07626845,-0.014014253,0.1668038,-0.07983518,-0.16085926,0.05246057,-0.063547134,-0.008463539,0.0031989058,0.14683014,-0.096420445,-0.16537711,0.062358227,-0.027746143,0.05290641,0.18380518,-0.025368325,0.051301382,0.034686394,0.048923567,0.18535076,0.13173102,-0.007891377,0.05772149,-0.07977573,-0.10973621,-0.069610566,-0.04708076,-0.0074975514,-0.033259705,-0.0052311956,0.007757625,-0.075138986,-0.008931672,-0.1590759,0.094458744,0.109438986,0.06072348,-0.25133517,0.09416152,0.07555511,-0.07876516,-0.053025298,-0.082034655,0.103137776,0.0066950386,-0.1707272,0.008344648,0.016184011,0.035370015,0.20734556,0.07662512,-0.029053941,0.0034961328,0.12792651,-0.035132233,0.1370811,0.09202149,-0.091724254,0.14885129,0.121863075,0.13803223,-0.10783396,0.0006065289,-0.05246057,-0.10242443,-0.10569393,0.016927078,-0.22910258,0.069670014,-0.06521161,0.08768197,0.25133517,-0.09998717,0.0077130413,0.031952124,0.21324138,0.061745707,-0.030276414,-0.24221131,-0.17677335,-0.09560076,-0.21710405,-0.0020236347,-0.055042863,0.03686565,0.08191105,-0.06566517,-0.06810773,0.056888986,0.024397224,0.31605622,-0.007782118,0.22619265,0.083331145,-0.036752045,0.021060001,0.13791957,-0.06089365,-0.05788305,-0.20574328,-0.16177717,-0.01127555,0.018915659,-0.045329414,-0.051123403,0.17745501,-0.08236548,-0.0016526349,0.09241975,-0.15087084,0.0886707,0.105200596,0.043369684,0.16007306,0.09724807,0.10440534,-0.018560635,-0.057741042,-0.13496578,-0.06594919,-0.04598266,0.049078465,-0.079014055,0.03561597,0.15087084,-0.07929808,-0.12667243,-0.12917179,0.007867323,-0.05907593,-0.021400824,-0.19404171,-0.1354202,-0.03729168,0.09281737,-0.11150582,0.110824175,-0.09236295,-0.14871229,-0.10429174,-0.20119898,-0.09855456,0.08645535,0.05981438,-0.09628241,-0.04041589,-0.023814984,-0.114005186,0.12599078,-0.06254096,-0.14382717,0.07577624,-0.061404884,-0.051634636,0.16598064,0.12871736,-0.18165849,-0.31219357,0.36149925,-0.12871736,0.20812905,-0.16018666,-0.13167116,-0.0300776,0.18802051,-0.18347621,-0.3726328,0.071004726,0.20846987,0.09383985,0.06339302,-0.1367835,-0.10008826,0.019029265,0.010125274,-0.16439013,0.122014515,0.15132527,-0.13723794,-0.080490954,0.031753313,0.07037988,-0.118492685,0.2271015,-0.010863723,-0.07890045,-0.04674951,0.06827814,-0.09270377,0.037944924,-0.22471575,0.12746768,-0.06413147,0.0586215,-0.062768176,0.07980931,0.02870011,-0.16120912,-0.1414414,0.17995438,-0.0026928543,0.14950755,0.1322392,-0.08355836,-0.050441757,-0.013157176,0.09139728,-0.017268348,0.18074962,0.12099205,0.03859817,-0.022806717,0.05529848,-0.01623168,0.12235534,0.07912766,-0.08486485,-0.12121926,-0.0074838977,-0.05396359,0.013760716,0.0737313,-0.05274231,-0.05651976,-0.15450628,0.03805853,-0.021727446,-0.34968406,-0.023871789,-0.0028188876,-0.0013996806,-0.01635949,0.017495563,0.0345935,0.032349754,0.17700058,0.1247411,0.10230361,0.14496325,-0.075662635,0.03348583,-0.040075067,-0.20574328,0.017907392,0.0068768077,0.18438506,0.0015168384,-0.035786383,-0.026016131,-0.29424357,0.009081504,-0.0015230513,-0.032860987,0.3128752,-0.015493231,-0.115822904,-0.11394838,0.019710911,-0.0857169,0.035701174,0.103723705,0.005020034,-0.195405,0.22766955,0.031923722,-0.22278443,-0.05987118,-0.0736745,0.1983588,-0.09560076,0.06776691,0.05785465,-0.008378558,0.1307623,-0.19495057,0.08174064,-0.057371818,0.276748,0.00062306644,0.09730487,0.13746515,0.0055774213,0.0225511,-0.1442816,-0.011800985,-0.21267335,0.011005732,-0.012354822,0.0856601,-0.12712686,-0.051322214,0.06560837,0.052827515,0.05935995,0.2871999,0.03964904,-0.10735914,0.04087032,-0.05470204,-0.06867577,-0.11616373,0.16109551,-0.06714207,-0.18143128,-0.018759448,-0.0856033,0.11235788,-0.023119139,-0.009535935,0.07912766,0.009784451,0.17177463,0.31628343,-0.19267842,0.11917433,0.06657403,-0.031668108,-0.0040614703,0.2808379,-0.02750723,-0.10270123,0.015677843,0.03200893,0.13939647,0.09480551,-0.0100471685,-0.0465791,-0.060496025,0.0029342703,0.07128874,0.29127103,-0.14252217,0.16777487,-0.2043279,0.13641077,0.08855746,-0.0777184,-0.05730867,0.06687933,0.0010990407,-0.11484796,-0.11698118,-0.13468114,0.13445053,0.067917116,-0.19475722,-0.024142863,-0.09161316,-0.038772717,0.22923468,0.26521114,-0.0050123464,0.22612134,0.075412214,-0.06526501,-0.32401884,0.08734672,-0.14010067,0.04929468,0.032805465,0.04277971,-0.17330971,-0.060883254,-0.14655799,-0.02784717,0.087519675,0.09760923,-0.22300798,0.0194296,-0.05898065,-0.020784482,-0.15220813,-0.18783867,-0.046325468,0.1555521,0.058317624,0.12856975,0.06342006,-0.082100146,-0.011502092,0.053820565,0.044624656,0.010269725,0.040271737,0.3085674,-0.039637536,-0.10671866,0.12960753,0.06935848,-0.008150918,0.034246832,0.066072166,0.058923,-0.32125142,-0.047305595,0.013736208,0.0608256,0.048516344,-0.06197869,-0.0013710983,-0.071261086,-0.08728906,0.044336386,-0.2170119,-0.18657027,0.16604523,-0.14632736,0.08135064,-0.039666362,-0.024546444,-0.09922356,0.017901752,-0.12245836,-0.13906288,0.0020503416,-0.25529456,-0.12407269,-0.065783896,0.09818578,0.029980391,-0.022499707,-0.14448242,-0.11946032,0.26175186,-0.05186031,0.12430331,-0.05751046,-0.09391934,-0.23269396,0.14402118,0.13468114,0.084233366,-0.022802394,0.080831744,-0.0020413331,-0.048516344,0.19533378,-0.053013403,-0.031421755,0.006370833,-0.16996576,-0.02176461,-0.010428275,-0.08763499,0.00095670595,0.2661336,-0.01713783,0.10049196,0.029101158,0.13825573,-0.0665334,0.035140477,0.20870964,-0.15382247,-0.043298602,-0.102394566,0.098474056,-0.09097896,0.0815236,0.08947994,-0.018319748,0.15474494,0.0845793,-0.07921742,-0.086597204,0.041223038,-0.00056033063,-0.047536217,-0.265903,-0.21804969,-0.0061221975,-0.075758144,0.03617826,0.104181856,-0.05315754,0.06497673,-0.01888188,-0.08832684,-0.09680207,-0.121997125,-0.011127337,0.030297492,0.09069068,-0.023869004,0.20997804,-0.12268899,-0.012741666,0.016316252,-0.019645805,-0.11888378,-0.0061041806,-0.00046213763,-0.006489746,0.04324095,0.1365261,0.10066493,-0.023566317,0.048746962,-0.08982586,-0.08792326,0.2045585,0.05655916,-0.09126723,-0.15082443,0.12072872,-0.022341156,-0.03744666,0.10366297,-0.04096359,0.05932658,0.04001229,0.07841025,0.0934581,0.009174287,-0.048487518,-0.051773828,-0.071549356,-0.23799817,0.052119754,-0.029692117,0.19913898,0.041684274,0.19498785,0.11086979,0.32125142,-0.081465945,0.026694078,0.11830723,-0.07143404,0.10723755,-0.053301673,0.051572036,-0.27374402,0.07990927,-0.035572886,-0.015134332,-0.21897216,0.010478723,0.014759577,-0.047622696,0.016618937,0.12695542,-0.08924931,0.15036319,-0.025771605,-0.15266937,-0.28688928,-0.29127103,0.111446336,0.020481795,-0.07789136,-0.052235067,0.00944094,0.037936725,0.020280005,-0.047536217,0.06520735,0.07864087,-0.069704406,0.14309871,-0.11709648,0.14355995,0.124418624,-0.17688431,-0.14563552,0.10106851,0.0028106617,0.016258596,-0.04502824,-0.15912668,0.047247943,0.08186953,0.13744856,0.08221546,-0.021216892,-0.014197445,-0.14252217,-0.02678056,0.013721794,0.14033128,0.16212472,-0.100261346,-0.020784482,-0.14978664,0.18115075,0.06232462,0.06963229,0.10447928,-0.05874647,-0.09239077,0.016421257,-0.07339454,-0.1371676,-0.024454566,0.17281638,0.046627115,-0.06155273,0.22598116,0.016637122,0.18046421,0.06765866,0.07376459,0.07320951,0.22659792,-0.17256968,0.10929002,-0.1544369,0.20587476,-0.17676365,-0.068090394,0.016960923,0.07376459,-0.205258,0.22215724,-0.006132915,-0.17084274,-0.03398352,-0.22795479,-0.18761864,-0.08178248,0.24744444,-0.03349011,-0.035001177,0.009721693,0.2284482,0.009536664,0.14173163,0.055508472,0.11804802,-0.057728812,-0.013237229,-0.17935404,-0.10552777,-0.037684087,-0.20969868,-0.0406137,-0.19501977,0.30690017,-0.024069091,-0.1449388,-0.17392655,-0.022789313,0.14937946,0.101765536,-0.13642749,-0.090663835,-0.11891148,0.13445386,-0.046966337,-0.12853295,0.05510758,0.14913276,0.09726318,-0.055724338,-0.100470334,0.22709133,-0.05288724,-0.08141243,-0.15209322,-0.08807344,-0.14777589,-0.15011959,-0.04184722,0.09202071,0.24756779,-0.008349399,0.006013418,0.07561488,0.10392419,0.019859698,-0.22351411,-0.051684555,0.116814494,0.07598493,-0.16196139,-0.19995385,-0.15591714,-0.10250565,-0.07536817,-0.008272304,0.31158757,0.029342396,-0.108488224,0.012335217,0.0711742,-0.08172081,0.05692702,0.0046179965,0.03740654,0.08338606,0.045331918,-0.15764406,-0.062231164,0.10558945,-0.034661956,-0.06340301,-0.09072551,-0.22992843,0.07728013,0.035032015,0.15937099,-0.16800565,-0.07795857,0.045177728,0.08036394,-0.08227589,-0.06469821,0.15530038,0.2310386,-0.048107345,-0.21389265,0.12779284,0.028448092,-0.43567982,-0.13223352,-0.037344866,0.0941177,0.106391236,0.0071698446,-0.19033238,0.053750705,0.03962688,0.07018738,0.014987288,-0.06263206,0.038794253,-0.22881825,0.08776506,0.0781436,-0.11151035,0.14530885,0.04890913,0.1797241,0.007933086,0.0023051435,0.10922834,0.1539435,-0.06568503,-0.08258427,0.05806803,-0.022172552,0.13864782,0.0021567354,0.005385093,0.050574385,-0.051838744,-0.08091902,0.02265054,0.124524005,0.13655084,-0.10916666,0.14641902,-0.060010828,-0.036080506,-0.20057061,0.0080872765,-0.11977495,-0.04119962,0.14407532,-0.0941177,-0.03796163,-0.036049668,0.02909569,0.07586158,0.14123823,0.1820678,0.09652307,-0.050759416,0.05242467,-0.018163607,0.0642048,-0.15308003,-0.015002707,0.024593337,0.15739736,-0.24041337,0.115457624,-0.012096222,-0.032349106,0.12951978,0.03176318,0.14765254,-0.21253577,0.04752142,0.088135116,-0.015226282,0.05708121,-0.035957154,-0.17355649,0.10651459,0.122427024,-0.19859698,-0.015850753,-0.012936558,-0.06876883,-0.07703342,0.1214402,-0.050142653,0.15295668,-0.18872881,-0.020029306,0.028787311,-0.020353107,0.13827777,0.09936017,-0.22474764,-0.05190042,-0.12261205,-0.2305452,-0.03275,-0.2624934,0.21549623,-0.16171469,0.07234604,-0.13334368,-0.08196751,0.05553931,-0.026351105,-0.018641595,-0.13420716,-0.0714209,0.020044725,0.015041254,0.023637358,0.14173163,-0.1601111,0.045547787,0.021848751,0.112928905,-0.10824152,-0.10528107,0.1085499,0.06710358,-0.051653717,-0.12304378,0.0591782,0.14185499,-0.23942654,0.20488794,0.17108946,0.002149026,-0.07777354,0.09359774,0.056891937,0.079714626,-0.06368931,-0.12276464,-0.105544634,0.1178211,0.06982754,0.07749003,0.01913563,-0.32050633,-0.11790349,-0.0025979346,0.07707807,-0.066078685,-0.16066514,0.22839166,0.09952999,-0.08062094,0.15226111,0.061464712,-0.16379604,0.33632568,0.16396083,0.19609386,-0.03318353,-0.12367096,-0.24915455,0.17763796,0.013656536,0.08082692,-0.05330787,0.030546974,-0.020350916,0.097882144,-0.050712507,-0.1544857,0.01588113,0.08132128,-0.07110462,0.22493118,-0.038394846,-0.124989234,-0.022431325,0.12606034,-0.10439114,-0.07423553,0.07703687,-0.10570942,0.034110446,0.26859915,0.061135143,0.002659729,0.0723405,-0.097882144,-0.038868602,-0.16890438,-0.09417449,0.020515703,-0.14253882,-0.1825815,-0.08799506,0.06496639,0.21240754,-0.0024395867,0.01967118,0.39284685,-0.33978617,0.04873509,-0.19411644,-0.22460161,0.07040428,0.38394848,0.037447333,-0.17170571,0.18983203,0.19724736,0.0013414508,-0.07699568,-0.08144487,-0.12622511,0.019763872,-0.0007190022,-0.2539333,0.11716196,-0.120869614,-0.27436662,-0.084616974,0.0497238,-0.038415447,-0.04992978,-0.16041796,0.11213602,-0.17137614,-0.2745314,-0.107604444,0.029187499,-0.14006704,-0.054008204,-0.045109827,-0.06183548,-0.043420784,0.15918207,-0.09796453,-0.1913151,0.22410727,0.04028987,-0.25376853,0.029578863,0.18192236,-0.021010056,0.1156789,-0.15860532,0.17978017,-0.05536768,-0.120540045,-0.02259611,0.1697283,-0.12770818,-0.051948395,0.12688427,0.026715728,0.120869614,-0.11979852,-0.07085744,-0.022657903,-0.038250662,0.08020898,-0.049435426,0.29331687,0.014202386,-0.16346647,0.114690185,0.075800985,0.17631969,-0.08667678,0.12334139,0.114607796,0.061670695,0.120540045,0.018146921,0.3005674,0.12202311,-0.17549576,-0.058416195,0.12161115,0.026715728,-0.018064529,0.27321312,-0.019506395,0.16396083,0.09277382,-0.093762524,-0.01987716,-0.08486415,-0.056727152,-0.21586803,-0.057221506,0.04519222,-0.14014943,-0.020999758,-0.0054327473,0.12556598,-0.20004869,-0.38658503,0.026530346,0.11147688,-0.010175458,0.004755585,0.29150423,0.073494,-0.020917365,-0.008161995,-0.034645993,0.07687209,-0.1708818,0.15333222,0.08066214,0.038518436,0.106945306,-0.07716046,-0.038930397,-0.088159844,0.07061027,0.083834246,0.094009705,0.40438178,-0.103732005,-0.14797671,0.02463532,0.3803232,-0.2531094,0.029599462,-0.16272494,0.16190103,0.111394495,-0.05133045,-0.28474805,-0.103732005,-0.023749603,0.31721064,0.061011557,-0.022781491,-0.10150741,0.0475404,-0.08333989,-0.013440256,0.08939573,0.19971912,-0.05013576,-0.0864296,-0.039053988,-0.08774788,0.18818419,-0.08914855,0.039589535,0.08218639,0.22427204,-0.0027112241,0.010453532,-0.02085557,0.0540494,0.0950808,0.2443758,0.11147688,-0.03944535,0.012348558,-0.09030204,-0.11205363,-0.13874876,-0.030670563,0.013872816,-0.090219654,0.17582533,-0.012770819,-0.003102588,-0.021010056,0.093185775,-0.07332922,0.122929424,0.043956332,0.049559016,0.09302099,-0.102001764,0.22081158,0.1352059,-0.035902478,-0.11839785,0.05133045,-0.008548209,-0.041360974,-0.020721683,-0.2712357,-0.22344813,0.018085126,0.07942625,0.12272687,-0.0020999736,-0.19452387,0.07297592,-0.0036989008,0.2269445,0.04376787,0.057001386,0.180023,-0.03878688,0.02869227,-0.0060751867,0.035426922,-0.019997643,0.028412273,0.005139409,0.2288308,-0.04037844,0.18615344,-0.0008515024,0.029384892,-0.07592326,-0.20808159,0.082643166,-0.17542516,-0.015488226,-0.22965606,0.122137405,-0.0049257274,0.11653748,0.094609335,-0.08111056,0.16163164,0.09366619,0.098028235,0.31854758,0.050222524,-0.27115446,-0.08629786,-0.08953992,0.01458929,0.022664977,-0.002939963,-0.052609865,0.05213829,0.052020397,0.16646527,-0.025111262,-0.2989773,-0.11105544,-0.025332313,0.14925286,0.16611159,0.13380884,0.12520263,-0.1902797,0.29331842,0.017418727,0.12803207,0.13133308,-0.0017628726,0.19711752,0.046744674,-0.061363436,-0.21692358,0.04394471,0.06431077,-0.04930885,0.02393233,-0.0848242,0.07038227,-0.16516845,0.17742935,-0.21032156,-0.062070798,0.05997819,-0.04733414,-0.04562469,0.1520823,-0.034719564,0.19322704,0.2115005,0.024403904,0.18403137,-0.09614195,-0.017610304,-0.023254443,0.043561555,0.16210322,0.029045949,0.26997554,-0.09879454,-0.022635505,0.058032952,-0.0951988,0.06448761,-0.082878955,-0.092133574,-0.22965606,-0.1310973,-0.035485867,-0.060538184,-0.31312448,-0.017300835,0.13545935,