#pragma once

#include "parameters.h"

#ifndef KERNEL60_H
#define KERNEL60_H

static float bias60[FEATURE_MAP60] = {-0.59117633,-1.4092617,-1.9554833,-0.26830965,-0.054403633,-0.6938244,-3.895739,-0.1702534,-1.1848086,-1.9510914,-1.9440799,-1.6655607,0.9390501,-1.3071451,-0.59414554,-0.17267685,-2.416144,-1.1737784,-3.258252,-0.8193161,-0.34167743,-1.2016861,-0.85185736,-0.045933396,-1.089514,-0.5517572,0.5871074,0.024231657,1.2692152,-3.3797019,-0.1464459,-0.28006658,-1.5383322,-3.1632318,-2.4139843,-0.52421355,0.24908215,-1.4229971,-1.8968383,-0.9931159,-1.667333,-2.6613293,0.20121264,-0.80443144,-1.0411668,-2.4095244,0.40091962,-0.43953454,-0.26219434,-1.3988167,-1.9499116,-0.9573773,-0.25351602,-0.92861027,0.13123363,-2.8580155,-2.614723,-1.7470777,-1.5826887,-2.3922672,-0.8601342,-2.044475,-0.66080856,-2.202808,-1.2607024,-0.45610017,-1.1995155,-0.28808862,-1.3202841,-2.339916,-0.83641976,0.4647962,-2.1619349,-0.17953217,-1.0022008,-2.9037993,-0.503711,-1.829047,-3.1977355,0.15846057,-2.2714267,-0.028970718,-0.16361701,0.23391804,-4.1838455,0.09191626,-1.2828577,-1.5085905,0.8730502,-2.0277784,-1.6988335,0.24032804,0.032080695,-2.4523404,-1.4901199,-1.05128,-1.116425,-0.8147776,-0.5736362,0.31257218,0.47324234,0.5182432,-0.05999899,-0.5502101,-1.4450048,-0.768543,-0.5755239,0.45419356,-2.217153,-2.2307603,-1.6444333,-0.92866087,-1.4987342,-1.2665633,-1.128112,0.20388076,0.22991891,-1.4495494,-2.7897885,-1.116803,-0.5088588,-1.7942324,-1.9707329,-1.6417208,0.2558448,-2.8653533,-2.6912136,-2.4167976,0.16786838,-2.809258,-1.9670433,-1.7594019,-0.081395864,-2.0271804,-0.7661119,0.58894783,-0.7208301,-2.141728,-0.84174275,-1.1150019,-0.49076608,-0.4355195,1.0088671,-0.030401386,-1.1662449,-2.328813,-2.7776146,0.016331213,0.2163943,-0.07483694,0.08832458,-1.5816071,-1.9971862,0.20887807,-2.0574446,-1.5228271,-1.0871619,-2.7708004,-0.80951583,-1.4245732,-0.9244256,-0.7131539,-1.9585725,-0.28403175,-1.3774161,0.4521377,-0.7181372,-1.1689534,-4.342598,-2.6110277,-0.58740735,-1.8643157,0.28144336,-0.8113062,-0.8666023,-3.2732744,-0.61990076,-0.58750415,-0.34189922,0.14454502,-1.8673782,0.13019654,-0.37850016,0.18192923,-0.051110864,-0.39958227,-1.7164731,-0.72295797,-0.6599677,0.087374926,-3.4167538,-0.63012373,-1.1391954,-0.49166125,-1.0809826,-0.20029336,-0.38522768,-0.5345466,-1.0524977,-1.8807325,-1.8256223,-2.3391933,-0.6984451,-1.1447487,0.4458027,-0.13441986,-0.6606793,-1.1616997,-0.030032635,-0.7802836,-0.50403374,-0.65743846,-1.2210283,-0.58066326,-0.9193406,-2.9589891,-1.0603997,-4.522786,-0.5803878,-2.715365,-3.6282985,1.3387507,0.077448666,-0.7531215,0.24031833,-2.9181519,-0.12984385,0.47335446,-1.1288311,-2.0946195,-1.4265143,-2.6957188,-0.9154432,-2.6539114,-1.197249,-1.789731,-0.16154155,0.37860608,-1.6052067,0.54497135,-1.8716409,-1.5821573,1.2228198,-1.2864729,-1.4025524,-2.5420332,-0.7311268,-0.07529096,-0.84979296,0.06298232,0.6017542,-1.4010801,-2.5220947,-0.92318946,-2.0374987,-2.928804};

static float kernel60[FEATURE_MAP60][IN_CHANNEL60][KERNEL60][KERNEL60] = {-0.00969612,0.0006727097,-0.11271326,0.08908518,0.046660513,0.027284816,0.13071562,-0.0019328124,-0.00013237025,0.0067302,-0.18955418,0.0021654945,-0.13164221,-0.0085627,0.106690414,0.09901294,-0.1245604,0.087430544,-0.10119705,-0.10887453,-0.03158685,0.044641864,-0.023594996,0.03216597,-0.0043351254,0.12972283,-0.119530335,0.07280363,-0.04844751,-0.02687116,-0.11628726,-0.097093575,-0.08901899,0.0956375,0.0707519,-0.047719475,0.09974098,-0.13753268,-0.035475224,0.05543004,-0.05734941,-0.10993349,-0.08465077,-0.20120278,-0.08359181,-0.13144365,-0.10245457,-0.0071934955,0.06836923,-0.050797082,-0.08776147,-0.0036215673,-0.04328507,0.06876634,0.05579406,-0.03888376,-0.033919875,-0.04636268,0.09682883,-0.08425366,0.025514364,0.17102236,0.016223628,-0.046693604,-0.049043175,0.038685203,-0.0055885063,-0.00756165,0.033324208,0.037129853,0.018300187,0.005795335,-0.06916346,-0.034184616,-0.013443853,-0.09338721,0.023048969,0.027979761,-0.00084489444,-0.021079961,0.014684824,-0.049043175,0.006564737,0.11575778,0.05195532,-0.17552294,-0.081672445,0.078495555,-0.1379298,0.024769783,0.08015019,-0.049671933,-0.13898876,0.04728927,0.10344735,0.005919432,-0.097755425,-0.04533681,0.045138255,-0.0978878,0.1250237,0.15209341,-0.030445157,-0.047520917,0.011574123,0.05993063,0.12072166,-0.030230055,-0.020897953,-0.24832658,-0.112978004,-0.12714162,0.11939796,-0.083657995,-0.010920545,0.10841123,-0.10530053,0.05903713,-0.07631145,-0.07909122,-0.14375408,0.028079038,-0.084121294,0.036765836,0.070884265,0.060791034,-0.0016691061,0.01930951,0.1677131,0.16082984,0.22105831,-0.077171855,-0.017472873,-0.040075094,0.10073376,-0.0011054984,0.15447608,-0.076708555,-0.1090069,-0.10702135,-0.1539466,0.104241565,-0.05132656,-0.01930951,-0.025894929,0.06790593,0.1654628,-0.076708555,0.016554553,0.14070956,0.14626913,-0.1788322,0.06254494,-0.054337986,-0.01765488,0.022089284,0.020782128,0.10821267,-0.08326089,0.05655519,-0.04199446,-0.0064654592,0.29597986,-0.14110668,-0.09034269,0.06635059,-0.055231486,0.02371082,-0.17975879,-0.11939796,-0.106955156,-0.025150348,-0.19233397,-0.059732072,-0.026258947,-0.00110343,-0.018829668,-0.09133547,0.007681611,-0.14428356,0.12667832,-0.15910904,0.0028811211,-0.034118433,-0.008579247,0.21629298,-0.187701,0.014535908,-0.05893785,-0.12601647,0.12072166,-0.02468705,-0.15540268,-0.082532845,-0.07525248,-0.0030527888,-0.17565532,-0.04222611,0.060162276,-0.11496356,-0.07690711,0.04381455,0.13912113,-0.06757501,0.028327232,0.012178062,-0.068832524,0.07869411,0.051889136,-0.04616412,0.21788143,-0.16056511,0.020517388,0.19193685,0.055396948,-0.0037849618,-0.0010610302,0.115029745,0.010457249,-0.106491864,0.06280968,0.102917865,-0.10761701,-0.21973461,-0.095108025,0.006180036,-0.07108282,0.08829095,-0.106094755,0.2131161,0.012153243,-0.13084799,-0.004024883,-0.0502676,-0.13031851,0.0059525245,0.10735227,-0.1477252,0.0015491456,-0.099542424,0.01725777,0.012020873,0.076443814,0.033175293,-0.12793584,-0.0043061697,0.058342185,-0.027648835,-0.27480063,-0.27215323,-0.12052311,0.026887706,0.0060973046,-0.056124985,0.05996372,0.032149423,-0.1884432,0.013185903,0.06810583,0.029031746,0.14360829,0.039913315,0.03553224,-0.13666683,-0.054251384,-0.049614273,0.14235654,0.039742626,0.004615777,0.13245645,-0.003822774,-0.03846244,-0.04196161,0.07715247,-0.083183564,-0.012844521,0.018022157,-0.1433807,0.09365263,-0.15032214,-0.00072499353,0.080509394,0.05078066,0.022773065,-0.015888516,0.14303932,0.018676473,-0.0529712,0.25580937,0.08517496,0.01137942,0.22633667,-0.06344027,-0.033028767,-0.06224543,0.0035560688,0.1118028,0.010220142,0.03652794,-0.13268404,0.047822013,-0.020027779,0.010085011,0.038121056,-0.18002243,0.009430694,0.055645365,-0.1392841,-0.050581522,0.18207072,-0.070779994,-0.09746473,-0.07220242,-0.010504628,-0.1511187,-0.03590207,-0.20346403,-0.061562665,0.2175745,-0.019316565,-0.008129173,-0.028235186,-0.11754941,0.08671118,-0.013825996,0.04352628,0.15009455,-0.069186874,0.19026391,0.2100641,0.04827719,-0.027908027,-0.02661362,-0.013377931,-0.09149054,-0.07169035,0.014622555,0.023242466,0.14781867,0.032687385,-0.04927289,0.043867666,-0.04420905,-0.16238433,-0.08790602,0.15100491,0.021734692,0.0431849,-0.14542899,0.07994042,-0.19094667,0.07874559,0.039913315,-0.03061064,-0.059002295,0.1784293,-0.053170342,-0.016613953,0.18946734,-0.07049551,0.081192166,-0.1452014,0.1296116,-0.03809261,0.12858745,-0.088759474,0.11436317,-0.21416068,0.033654634,0.06895929,-0.042103853,-0.015362217,-0.074421406,0.018420435,0.061676458,-0.09564403,0.019473033,-0.15532908,-0.016571281,0.17342237,-0.20551233,-0.17046371,-0.12688054,-0.08102147,0.07095069,0.105259635,0.034365848,0.041591782,0.022104524,-0.1354151,0.045631476,-0.064123034,-0.12585638,0.06179025,-0.04039694,0.16306709,-0.053454828,-0.09370953,-0.019259669,0.041819368,0.029501148,-0.14998075,0.05157722,-0.12187359,0.067821346,-0.041705575,0.039600383,-0.10907174,-0.08597152,0.0090822,-0.14793245,-0.017481634,0.12301153,0.13882893,-0.19834329,0.0019487257,-0.090921566,-0.17922586,-0.03001322,-0.0055510234,-0.0648058,-0.10571481,-0.091376744,-0.29950634,0.20380542,0.14690831,-0.045659922,0.15919809,-0.009885871,-0.16181536,-0.010689543,0.029273558,-0.16010845,-0.101788916,0.17148787,-0.018861389,-0.22588149,0.1433807,0.04551768,-0.14952558,-0.16227053,0.06998344,-0.023768764,0.22474355,-0.02611577,0.0053447713,0.091945715,-0.053454828,0.0034813914,-0.076071426,-0.07112138,0.1784293,-0.18218452,-0.15555668,0.09479057,0.05334103,-0.059116088,-0.1587429,0.13803236,-0.08204562,-0.17763275,0.04765132,0.066285126,-0.16739127,-0.034650333,0.06992654,0.066285126,-0.0016117882,-0.05570226,0.010333936,0.120166674,0.18150175,0.0559014,-0.08762153,0.123921886,0.055417776,-0.008072277,-0.00537322,-0.08278528,-0.2512576,0.07299898,0.017239822,-0.2119986,0.023498503,0.0041179275,-0.20187092,-0.038746927,0.0014144264,0.15737738,0.104349285,0.027737336,0.0038974513,-0.07681108,0.23532641,-0.14804626,0.07106448,0.11641147,-0.16431883,0.01453721,-0.03706846,0.039372794,0.07766454,-0.019913984,0.14850143,-0.16158776,-0.044379737,-0.16158776,0.0024643557,0.11720803,-0.051178943,0.039571933,-0.04745218,0.05251587,-0.043873224,0.0046866722,-0.02715363,-0.022926588,0.05974427,0.08919213,-0.064081304,-0.09026068,0.08674076,0.026179368,-0.07580388,-0.092649184,0.051573038,-0.14230514,0.00580236,-0.22590311,0.13815665,0.033093486,-0.065998405,0.026807923,-0.06606126,0.20000659,0.04541319,0.12413985,-0.19196106,-0.027703615,-0.0062305634,0.018746689,0.06882691,0.08548365,-0.15173347,0.016138181,0.022376603,-0.09654623,-0.041421857,-0.067381226,-0.08196373,0.015588194,0.03519915,0.073855355,0.018102419,-0.032087795,-0.054118693,-0.09000925,-0.026132226,0.029573571,0.09767764,-0.016216751,0.048461687,0.020459505,0.009554055,0.079198085,0.03994475,-0.14041947,-0.07234682,-0.04007046,0.04575889,-0.03101925,0.07278681,-0.06562127,0.04997022,0.071906835,0.03793337,0.13928805,-0.13124254,0.007931594,-0.11188301,0.008579792,0.16920733,-0.01907668,-0.04484749,0.038970485,0.05399298,0.121122785,0.034916297,0.064144164,0.00017432614,0.0070673293,-0.092397764,0.023068013,-0.045884605,-0.10302036,0.0635156,-0.046890296,-0.022832304,-0.036204837,0.016358176,-0.10685456,0.017615288,0.12545982,-0.08076947,-0.13463674,0.108174525,-0.08234087,0.07668386,-0.094094865,-0.18944685,0.020129513,0.08447795,0.13840808,0.0584243,-0.055187237,-0.04924738,-0.0013317536,0.024749402,-0.025205106,-0.07611816,-0.104528904,-0.0815866,-0.1575162,-0.07460962,-0.008564078,-0.033942036,0.07178112,-0.17084159,0.018118134,0.005884858,-0.08630077,0.0366134,-0.033250626,-0.019893805,0.07203254,-0.041956127,-0.11169444,-0.0159889,-0.09987758,-0.105094604,-0.045004625,-0.064081304,-0.24174273,-0.061504226,0.07680957,0.089066416,0.08491795,0.030202126,-0.029746423,0.031993512,-0.0074641053,0.055092953,-0.032166366,0.1352653,-0.017049588,-0.07567817,0.10716884,-0.050033074,0.03645626,0.059492845,-0.06756979,-0.08014092,-0.10465461,0.1798928,-0.12709408,-0.08227801,0.07636958,-0.113202974,-0.06175565,0.00407383,-0.18542409,0.012217562,0.103146076,-0.09566626,-0.043181814,-0.12696835,-0.23193724,-0.065935545,-0.03991332,-0.1778814,-0.08982068,-0.015541052,0.10214039,0.09899761,-0.009813334,-0.032496355,0.06706695,0.05286158,-0.23520574,0.028065035,-0.0025672594,0.2717877,-0.22301175,-0.21245201,0.003910798,-0.08366083,-0.11961425,-0.08171231,-0.026210794,-0.12376272,-0.21672618,-0.030217841,-0.030343551,0.05223302,-0.028520739,-0.0804552,0.05427583,0.06914119,-0.05185589,-0.107357405,0.017929567,-0.049498804,0.09308918,0.085043654,0.26399362,-0.0844151,-0.1487164,0.03233922,-0.14657931,-0.14494507,0.049498804,-0.044093218,0.041421857,-0.1195514,-0.050347354,0.028897872,-0.028662164,-0.071906835,-0.02482797,0.28109035,0.049467374,-0.03730481,0.06345275,0.053081572,-0.0045059626,0.14406508,-0.056601487,-0.1688302,0.0012571125,-0.23218867,-0.29014155,0.098306194,-0.12784834,-0.021763759,0.0043881084,-0.0014368403,-0.18089849,0.08982068,-0.11980282,-0.06370417,-0.030532118,-0.10308322,-0.0013828237,-0.0005342728,0.01983095,0.036990535,0.0939063,-0.059084285,-0.1386595,0.0449732,-0.11980282,-0.056758627,0.120305665,0.008336227,-0.18378983,-0.11389439,0.07335251,-0.016153894,0.22659545,-0.025054684,-0.00041247954,-0.17909385,-0.17171185,-0.01674993,-0.09676845,-0.09323793,-0.25756776,0.17460045,0.1505287,-0.1249324,-0.017000677,0.28581196,0.1101684,0.18069863,0.058173407,-0.0065144184,-0.019026715,-0.05187463,-0.07787213,0.026840005,-0.07442184,-0.044693224,-0.14707842,-0.054402165,-0.08035954,-0.13070962,-0.19674647,-0.026037615,-0.03895612,-0.17460045,-0.035004344,0.21102904,0.26591265,-0.063870385,0.021042725,-0.095163666,0.033760637,-0.0050224713,0.026840005,0.07402065,-0.004761694,-0.012908478,-0.020290483,0.06736079,-0.008741056,-0.05259678,0.022968465,0.03695014,0.008650786,-0.03428219,-0.087460704,0.01377105,-0.10294687,-0.02840467,0.015024787,0.016378822,-0.017762948,-0.05684946,0.036849845,-0.112334855,0.068524264,0.08296731,-0.04296808,-0.074582316,0.061503332,0.08360922,0.027883116,0.085695446,0.0011910503,0.08705951,0.14226407,0.10992768,-0.10005826,-0.28517005,0.10824265,0.0076728715,0.026218152,0.13287608,-0.08473258,0.04312856,0.14122096,0.041764494,-0.030731605,0.0782332,-0.05315846,-0.20749852,0.08473258,-0.018204264,-0.17540285,-0.0313334,0.0039442573,-0.04312856,0.08585592,0.085454725,-0.20637517,-0.018926417,0.103267826,-0.062867396,0.114902504,-0.032797765,-0.11442107,0.055645872,-0.02557624,-0.035084583,0.094361275,0.059256636,0.15526281,0.023770858,-0.0023495036,0.2365451,-0.033660337,-0.080239184,-0.13825211,0.14338742,-0.009909539,0.079797864,0.083047554,0.1912902,0.043329157,0.11706896,-0.088905014,0.13616589,-0.110890545,-0.0052656964,0.15654664,-0.11225461,-0.12589528,-0.026699588,0.07943679,0.116988726,0.079035595,-0.048624944,0.069166176,-0.07562543,-0.015566401,0.12276594,0.15518257,0.1249324,-0.094361275,-0.053439293,-0.14940536,0.04794291,0.030972324,0.13223417,0.02361038,-0.0823254,-0.065114096,0.050992,-0.10960672,0.02044093,0.011664771,-0.039577976,-0.1642496,-0.32079625,0.0064191343,-0.13664733,-0.03622799,-0.060420103,-0.014422992,-0.034803744,0.0430082,0.13865331,0.11426059,0.07719009,-0.1609598,-0.03440255,-0.07430148,0.05861472,0.14443052,-0.04722076,-0.14892392,-0.084652334,-0.031794775,0.059376992,0.06423146,-0.029869035,-0.008169351,-0.15101014,-0.06828354,0.022908285,-0.07121227,0.105033085,-0.116748005,0.018194234,0.033860933,-0.046378247,0.06314824,0.030169932,0.20236321,0.12878388,-0.011253545,-0.003583181,-0.108884566,0.10094089,0.034522906,0.0808811,0.22675592,0.03033041,0.0784338,0.029828915,0.1157049,0.048705183,-0.057330895,-0.04421179,-0.004006944,-0.099817544,0.10816242,0.13399944,0.10479237,0.068885334,-0.08320803,-0.15983644,-0.0045159613,0.1038295,0.050350085,-0.10575524,0.1431467,-0.13279584,-0.0802793,0.011113127,0.003086701,-0.09845348,-0.045335136,0.019929407,0.048504584,0.10398998,0.14924487,-0.050269846,-0.28468862,0.019648569,-0.14820176,-0.10736002,-0.018404862,-0.12573479,-0.09893491,0.006865465,-0.07694937,-0.14563411,-0.04316868,0.032938182,-0.10037921,0.032536987,0.09957682,0.050630923,0.019889288,-0.083689466,0.060139265,0.14410956,-0.056769222,-0.15068918,-0.004641335,-0.094361275,0.092756495,0.0058975797,-0.08730171,0.1107213,-0.00627155,0.070026875,-0.07993962,0.12799613,-0.067128405,-0.12046013,-0.073562995,-0.05550557,0.026810784,-0.06422994,-0.11918481,-0.097910084,0.023738414,0.027941186,-0.060461942,-0.13228586,0.109851755,0.21147187,-0.110663325,-0.06422994,-0.06446182,0.07107032,0.00036457233,-0.024984753,0.11906887,0.051099908,0.10498234,0.01727484,0.09762024,0.031680204,-0.08104103,0.26828176,0.015883578,-0.04973763,0.020608073,-0.0281006,-0.15906766,-0.07136016,-0.14747381,0.09535944,-0.07472238,0.01821684,0.039448082,-0.052172337,-0.039998792,0.07066453,-0.0059853266,-0.029999094,-0.16440083,0.039998792,0.0569548,0.053795476,-0.027622355,0.0040723407,0.11205459,0.0062425653,0.09460584,0.0064056036,-0.036143836,0.04002778,-0.19964615,-0.004075964,-0.022825398,0.25529665,0.003280698,0.029390417,-0.11501102,0.01314453,-0.12069201,-0.015999516,0.015985025,0.056983788,0.071244225,0.15025634,-0.16289364,-0.12173545,-0.010253314,0.06927327,-0.029549832,0.07060657,0.2067184,0.09106971,-0.14330003,0.016579209,0.1269527,0.05767942,-0.15072009,0.049853567,-0.013832916,-0.06341837,-0.06144742,0.01995592,0.06828779,0.013977839,-0.022810906,-0.010673591,0.104518585,-0.033332326,0.010231575,0.013919869,-0.008231635,0.11814136,0.058606926,0.008956252,0.050027475,-0.13286555,0.03991184,-0.13448869,0.099996984,0.015695179,-0.039390113,0.12950334,0.000841913,0.027709309,0.0975043,-0.042665377,0.049041998,0.08817125,0.03234685,-0.073736906,0.15176353,0.028520878,-0.23176111,0.060403973,-0.021564566,-0.148981,0.18028441,0.03127442,-0.05112889,-0.13147429,-0.046201505,-0.0088548055,-0.120112315,-0.11385164,0.122431085,0.17692219,0.027854232,-0.1329815,0.14330003,0.2082256,-0.10515624,0.048462305,0.08022946,-0.09379427,0.08724374,0.036868453,0.12718457,-0.07489629,-0.14190876,-0.02446303,-0.04767972,0.05686785,0.00869539,0.034636635,0.14190876,-0.052027415,-0.04249147,0.025274599,-0.12486579,-0.004452764,-0.126373,0.20277649,0.07362097,-0.20486338,-0.08051931,0.058143172,0.21124,-0.24068838,0.06127351,-0.06202711,-0.09651882,-0.08950455,-0.08649014,-0.081388846,0.025636908,-0.06805591,0.07414269,0.12498173,-0.21379064,-0.08979439,0.02257903,0.006999789,-0.020115335,-0.10017089,-0.19268984,-0.14445941,0.023665952,-0.19524048,0.23639865,-0.1844582,-0.0136879925,0.107532986,-0.018390749,-0.032143958,0.03379608,-0.09350442,-0.12869176,-0.04585369,0.06817185,-0.18190755,-0.010673591,-0.012144561,-0.10590985,-0.14967664,-0.1308946,-0.103707016,-0.03875245,-0.03936113,-0.09454787,0.05675191,0.28845507,0.11153287,0.025187645,0.08828719,0.14967664,-0.112866156,0.01652124,0.14701006,0.044085626,0.26294857,-0.15211135,0.035245314,-0.13251774,-0.093968175,-0.11953262,-0.1048664,-0.043332025,-0.2344277,-0.09089581,-0.05999819,-0.010644606,-0.020129828,-0.23836961,-0.031796142,0.07112829,-0.083823554,-0.030433863,-0.12822801,-0.19605204,-0.033332326,-0.06718638,-0.012412669,0.06463573,0.03034691,0.08115697,-0.07518613,-0.0041484255,0.018187856,0.0028549863,0.09385224,0.07025875,-0.08689593,-0.0068584885,0.17680626,-0.032263156,-0.05929644,-0.067841016,-0.1897486,0.027014868,0.053145815,-0.09546358,0.023755405,0.06611001,0.022760993,-0.1629363,-0.03896623,-0.053845584,0.027162189,0.053477284,0.007738922,0.034344055,0.02997969,0.2302617,0.13008386,-0.18709683,-0.019961907,-0.19829318,0.12514864,0.12433837,0.07734318,-0.1407646,0.07830077,0.12139197,-0.06946154,0.004055913,-0.091117635,-0.04721617,0.020256547,0.16190507,-0.016555123,0.115499154,-0.028801128,-0.026591321,-0.054177057,-0.08861319,-0.12352811,0.094947964,0.1621997,-0.10665993,0.26149362,-0.03147131,-0.16897644,-0.07034546,-0.24705622,0.101061754,0.0030914254,0.04706885,-0.19166377,-0.040918227,-0.19136913,-0.026167776,-0.14312172,0.066920266,-0.09465332,0.1104166,0.105628684,-0.022337448,0.10901705,0.0691669,0.005869795,-0.0763856,-0.09892561,-0.018663647,-0.07579632,-0.1017247,0.06006987,-0.08036325,-0.04202313,-0.097231425,-0.013875735,-0.12662184,0.105776004,-0.061874546,-0.1470257,0.044822216,-0.14975113,0.0010721008,-0.11697236,-0.11711968,0.07918469,-0.07310772,0.14857256,-0.0019865227,-0.13870211,0.1266955,-0.052040912,0.03848744,0.05988572,-0.07023498,-0.050604537,0.04662689,0.08095253,0.066957094,-0.0069562825,-0.17310141,0.058044218,-0.08920247,0.11130052,-0.0760173,-0.028524902,0.15571761,-0.048505224,0.053698264,-0.110342935,-0.13155706,-0.1126264,0.058523007,-0.012255211,-0.042059958,0.004926024,-0.040549926,0.0039362153,0.017245688,-0.15719081,-0.0182401,0.007513338,0.03395734,0.05064137,-0.04268607,0.18783344,-0.08559312,0.10128274,-0.118077256,0.17648977,0.19210573,-0.13590302,-0.011454157,0.101503715,0.101798356,0.14290074,-0.029187843,0.2598731,0.0046267794,-0.08036325,-0.29051572,-0.17148088,-0.2114047,0.010036198,-0.16028453,-0.12595889,-0.07793246,-0.097084105,-0.09023371,0.024841893,0.02808294,-0.12455935,-0.065557554,-0.0319501,-0.2715114,-0.15034041,0.037493028,-0.029114183,-0.057749577,0.03443613,0.16691396,0.17855226,-0.11203712,0.092811815,-0.21228862,0.23099831,0.04253875,-0.053956077,0.30009153,0.1255906,-0.2572213,0.19829318,-0.12699014,-0.025118118,0.067546375,0.034270395,-0.0639002,0.09531626,-0.25677937,-0.08006861,0.02366333,-0.07933201,-0.032760363,0.2818238,-0.09332744,-0.09575822,0.13663962,0.025210194,-0.20035566,-0.21685554,0.08493018,0.1364923,-0.095242605,0.099367574,-0.11866654,0.15866402,0.040807735,-0.21199398,-0.014271659,0.10511307,0.081836455,-0.13361955,-0.13310394,0.1795835,0.03480443,0.099367574,0.1788469,-0.07233429,0.016628783,-0.22908314,0.0063716047,-0.15586492,-0.0009921105,-0.3164441,0.021858657,0.03554103,0.09244352,-0.2844756,-0.22554745,0.020164473,-0.011233176,-0.08375162,-0.07248161,0.039997473,-0.16691396,0.10224032,0.09104397,0.06482095,-0.048542053,0.105628684,-0.2259894,0.09465332,0.028764298,-0.046405908,0.04375414,0.112921044,-0.19888246,0.05056771,0.019814586,0.13229367,-0.15527564,-0.11247908,-0.110932216,-0.30731025,-0.014492639,-0.084119916,0.025468005,0.104671106,-0.17324872,-0.11896118,-0.022447938,-0.08942345,-0.18415043,-0.13177805,-0.049720615,0.12183393,0.030623514,0.01873797,0.056149267,0.22430153,0.23183736,-0.057552997,0.109564945,-0.059843294,-0.154706,-0.09153808,0.10816122,-0.039378367,-0.47697324,-0.18056421,0.04824404,0.0022164183,0.024934707,0.073030986,0.048982847,-0.13328062,0.13372391,-0.03723583,0.12426719,-0.08466718,-0.041594785,-0.1063142,-0.09316345,-0.2046493,0.090355985,-0.22016422,-0.05308322,-0.08259852,0.05799628,-0.16238959,-0.13475823,-0.21484482,0.046249263,-0.20405824,-0.11022987,-0.18337168,0.13616197,-0.028499447,-0.08562763,0.19401048,-0.17125526,-0.101068676,0.10446718,0.11015599,-0.048908964,0.02162855,0.12640972,0.20612691,-0.023530975,-0.0006187501,0.112150766,-0.043995906,-0.10468883,0.11281569,-0.1306948,0.23257616,0.073141806,-0.19696571,-0.13195077,0.017851403,0.08873062,-0.13690077,-0.19327168,-0.35226277,-0.3117762,-0.01149767,0.013723324,0.19844332,-0.06734218,-0.014018846,-0.07823957,-0.10513211,0.18026869,0.021259146,-0.24528363,0.043552622,0.013141514,0.2000687,0.03745747,-0.02166549,0.17967765,-0.001780061,0.18071197,-0.13800898,-0.11857838,0.058919787,-0.13941272,-0.20775229,0.0034954764,0.03274758,0.20937766,0.021887131,0.07646643,-0.30616125,-0.06675113,-0.12936495,-0.21233287,-0.42171052,-0.048096277,0.10808734,0.09405002,-0.12411943,-0.07713136,0.01144226,-0.14266346,-0.07690971,0.22533587,0.30586573,0.07210748,-0.053526502,0.10757017,-0.055779863,0.11643585,-0.0697433,-0.16564034,-0.08252464,0.017602056,0.05300934,-0.26641348,-0.017334238,0.12751794,-0.057589937,0.030586574,0.05662949,-0.058328744,-0.16475376,0.23390602,0.13970824,-0.0630571,0.15367167,-0.21839109,-0.13564481,-0.073400386,0.13254182,-0.07218136,-0.13697465,-0.09405002,0.046544787,0.045030233,-0.19386272,-0.022644408,-0.16889107,0.0360168,-0.024528364,-0.13815674,0.10417166,-0.073215686,-0.017158773,-0.042776875,-0.16504928,0.11865226,0.23612243,-0.15514928,-0.17952989,-0.04336792,-0.007549675,0.17746124,0.23641796,0.10247241,-0.040191054,0.11340674,0.21321945,-0.07476718,-0.02779758,0.041631725,-0.064830236,0.0013333142,0.20937766,-0.036681723,0.032008775,-0.1272963,0.008436242,-0.06593844,-0.2888732,-0.37058514,0.16667466,0.0796433,0.056998894,0.04473471,0.1672657,0.19903436,0.005536428,0.0011139811,0.057294413,-0.013630973,0.05814404,-0.2034672,-0.04100374,-0.0024218988,-0.07831345,-0.12175525,0.18425825,-0.021277616,0.05529964,0.20258063,0.11119032,0.05795934,0.070666805,-0.25858214,-0.06372203,0.167709,0.026818663,0.0060351226,-0.02901661,-0.07594927,-0.10513211,-0.13135973,-0.2519329,-0.3741314,-0.27956423,0.040449634,0.002200257,-0.046803366,0.21011646,0.032452058,-0.06656643,0.123158984,-0.068228744,0.010103174,-0.037752993,-0.047579113,0.090282105,-0.118061215,0.164606,0.17391495,-0.058513444,0.01686325,0.09368061,0.079052255,-0.1402254,0.1612075,0.089691065,0.23937318,-0.08400226,0.00029667682,0.038048517,-0.0038233218,-0.0769836,0.050238818,-0.076097034,-0.08607091,-0.1947493,-0.08289405,-0.18854332,0.1501254,0.117322415,-0.070555985,0.08289405,-0.03860262,0.070445165,0.029755417,-0.09537987,-0.0324841,0.26614383,0.11952643,0.079705186,0.0785764,0.03373831,0.17872524,0.059982702,0.041922044,0.13369903,-0.016618313,-0.04455589,0.05772512,0.09237273,-0.072995156,-0.06628512,0.12868218,0.011436848,-0.124355145,0.022089813,-0.10328438,-0.020208495,0.17446092,-0.005863442,-0.04894563,-0.2186092,0.031104464,0.014674284,0.08810841,0.10228101,-0.04537113,0.06446651,0.050513398,-0.07945435,0.13269566,0.013506298,0.06829186,-0.0023398898,-0.037312813,-0.153641,0.017527616,-0.14749536,-0.016414503,0.007897618,-0.079078086,0.019816553,-0.031543437,-0.07475105,-0.17107455,-0.0655953,0.018719118,-0.10021156,0.02638549,0.07719676,-0.05919882,-0.12560935,0.041075453,0.13344818,-0.12661272,-0.0809594,-0.040009372,0.016179338,-0.05825816,0.05311589,-0.07130197,0.0017441389,0.097953975,0.047127027,-0.01509758,-0.033017136,-0.17320672,0.09343881,-0.07757303,-0.1217213,-0.062020797,0.008740292,-0.14937668,-0.13269566,0.069232516,-0.052802335,-0.0797679,-0.10209288,-0.087794855,-0.04148307,0.008701097,0.001088617,-0.024159264,-0.029568054,0.0868542,-0.1660577,0.06057845,0.015277873,-0.07343413,-0.008269962,0.021211864,-0.13382445,-0.1288076,0.07895266,0.049729515,0.10717244,0.04129494,0.043803364,0.022387689,-0.27341828,0.13206854,-0.10491486,-0.2711607,-0.10453859,0.084157646,0.024535527,0.14511237,0.07042402,-0.078074716,-0.20380948,0.08202548,0.046876185,0.043458454,0.00868542,0.011922855,-0.00193717,-0.059481017,0.092874415,-0.16618313,-0.0125578,0.10598093,-0.054903142,-0.0034686807,0.1087402,-0.12554665,-0.08052043,-0.038190763,0.1760914,-0.033957798,0.13068892,-0.06722578,-0.0992709,0.07318328,0.090554126,-0.21597534,0.19578253,-0.30703115,0.0020851279,-0.021886004,-0.17985404,0.06634783,0.20569082,0.10629449,-0.0042995964,0.009579046,-0.022889374,-0.14461067,-0.07744761,0.14912584,-0.06979691,0.14599031,-0.0019469686,-0.11193845,0.058352225,-0.13633287,-0.045621973,0.17696935,-0.13307191,-0.0005717444,-0.031621825,0.098330244,0.028987981,-0.0534608,0.03386373,-0.19791469,0.28420448,0.027827835,-0.12285009,-0.21196187,0.027953256,-0.04182798,0.15602401,-0.08635251,-0.05719208,-0.121282324,0.12799236,0.20769756,-0.05358622,-0.13495325,-0.05800732,0.12755339,0.057756476,-0.006220109,-0.09607266,0.056000575,0.105730094,-0.1442344,-0.026040582,0.033706956,-0.004127142,-0.055059917,0.080081455,0.059763215,0.011068423,-0.08321698,-0.06747662,0.0011846427,-0.17094913,-0.16066459,-0.1329465,0.08327969,0.052676916,-0.18236247,-0.0026162083,0.015356261,-0.022748275,-0.01155443,-0.10014885,0.100713246,-0.11331808,0.008269962,-0.19791469,0.13231939,-0.02177626,-0.06361992,0.27743176,7.005951e-05,-0.085098304,0.10648262,-0.022763953,0.022121169,0.22350062,0.022905052,-0.009814211,0.21823293,-0.09312526,0.07105112,0.14724451,-0.058414936,0.22663616,-0.0067649074,-0.10253185,0.2061925,-0.0037547979,-0.041639846,0.11770782,-0.06691223,-0.006666922,0.148875,0.091557495,0.0066238083,0.19816554,-0.013812012,-0.01375714,-0.047910906,-0.17207792,-0.030759556,0.015889302,0.062302995,-0.04142036,-0.09243544,0.06772746,0.002875218,0.10530076,0.079133,0.06471974,0.03774735,-0.011483381,-0.11943415,-0.064789705,0.039041743,-0.01719446,0.015235376,0.0667138,-0.09403603,0.059437204,-0.09620501,0.08284126,0.047227915,0.26965392,-0.043554634,-0.021305038,-0.12978931,-0.1785565,-0.021637382,0.048872147,0.18891166,0.08494028,-0.14707123,0.18569316,-0.02852916,0.1663822,-0.0703521,0.00196783,-0.03045326,-0.03410905,-0.07668414,0.0680082,0.23341085,0.047227915,0.021340022,0.03494866,0.10117269,-0.12328235,-0.06520951,-0.12454176,-0.108659185,-0.03227241,-0.16554259,-0.13776557,0.04100083,-0.12230281,-0.04922198,-0.032324884,-0.02382386,-0.042260237,0.2315917,0.024698451,-0.067658365,0.14084414,-0.026185255,-0.032832146,-0.20822263,0.1486105,-0.16036502,0.18527336,0.14294316,0.0030129661,0.10278194,-0.05331507,0.028161831,0.041945387,-0.20500414,-0.15420789,0.14972998,0.07007223,-0.025135746,0.21354015,-0.116145685,0.0034174644,-0.14210355,-0.16876109,0.039041743,0.012690316,-0.12384209,0.09172711,-0.046283357,-0.022127153,-0.0720663,-0.022984251,-0.020098101,0.035123575,-0.07311581,0.09172711,-0.025310664,0.03536846,0.1696007,0.046668176,0.17295912,-0.029438734,0.09214691,-0.100542985,0.14693129,0.02852916,0.11173775,0.08431058,0.052895267,-0.22375537,0.14833064,0.014282071,0.017588025,0.060206845,-0.14986992,-0.14749102,-0.036278035,-0.08543005,-0.08871851,0.10760968,-0.06206098,0.0624458,-0.09025779,0.013661112,-0.0649996,0.0034677533,-0.12887973,-0.03124039,0.0079369135,-0.01729941,-0.022546956,0.03277967,-0.026605058,-0.1289497,-0.0949456,-0.17421854,-0.19744767,-0.051705822,0.0759145,0.08794887,-0.01685337,-0.12139323,-0.08529012,-0.09004789,-0.098863766,-0.26405653,-0.23858844,-0.08822874,-0.12992924,0.14007449,-0.16246402,0.10446115,0.21465962,0.267275,-0.038936794,-0.039426565,-0.027269749,-0.099283576,-0.009052017,-0.08494028,0.11110804,-0.01306639,-0.0004567005,-0.2525819,-0.088438645,0.0101714935,-0.2153593,-0.263077,0.054889333,-0.075774565,-0.0528253,-0.10544069,-0.2040246,-0.19171035,-0.002029051,0.098793805,-0.18191493,-0.028091863,-0.08186172,0.021217579,-0.023893828,0.3000197,-0.028109355,-0.1465115,0.1169853,-0.15812606,0.0026653162,-0.14245339,0.03545592,-0.18317434,-0.032727197,0.19926682,-0.11817474,0.03582325,0.13160846,0.293023,-0.050971165,-0.13223816,0.06891777,-0.3210099,-0.056463595,0.04908205,0.0044188714,-0.00119491,-0.088438645,-0.11292719,0.034651298,0.08850861,0.02363145,-0.05244048,0.2307521,-0.19129054,0.046738144,0.21969727,0.17645748,0.26489612,-0.03883184,-0.21703851,-0.13671607,0.045408767,0.0716465,0.029631143,-0.028476683,-0.21633883,-0.11348693,0.06506957,-0.06017186,-0.08536009,-0.043204796,-0.11999389,-0.05964711,-0.026640043,-0.056743465,-0.22529465,-0.22697386,0.27385193,0.14105403,-0.21242067,-0.04806752,0.26027828,0.29050416,0.12957941,-0.05254543,-0.0018410141,-0.094105996,0.022442006,0.016486041,0.09578521,-0.12629095,-0.10488096,-0.105160825,-0.22613426,-0.16484292,-0.056953367,0.04757775,-0.020727808,0.042050336,-0.114956245,-0.2910639,-0.019678298,-0.24294536,0.015979758,-0.1008515,-0.03181033,0.074660614,0.15316698,0.011553829,0.09296108,-0.1316175,-0.010153114,-0.07810853,-0.012656167,-0.06454894,-0.0070698825,-0.06720118,0.0701518,-0.035606347,-0.017239572,-0.1074158,-0.072538815,0.27212003,0.10549293,0.0083048325,0.1338056,0.009987349,-0.060139585,-0.03792706,0.14666899,0.027400974,0.017289301,0.0064855604,-0.11272028,0.12657824,-0.014413278,-0.07578781,0.21138369,-0.108344086,0.07996509,0.08745768,-0.007310242,0.01763741,-0.008429157,-0.19043097,0.16457161,-0.07366602,0.008420868,-0.14056882,0.023687836,0.10211132,-0.058481935,-0.05997382,-0.07035072,-0.020869829,-0.20130517,0.12903157,0.12704238,-0.23207118,-0.09634269,-0.080164015,0.11802477,-0.0800314,-0.2410888,-0.18260686,-0.10098411,0.041109752,-0.022825858,-0.020803522,-0.19361366,-0.0674001,-0.22491013,0.040181465,-0.010294015,-0.03326906,0.074660614,-0.054569878,0.027964577,-0.08646309,-0.060040127,-0.10608968,0.14414935,0.055398703,-0.19321583,-0.122599885,-0.01725615,-0.034876984,-0.08646309,-0.10900714,0.008536904,0.04419298,-0.055763386,-0.03693247,-0.005312772,0.0640848,-0.043695685,0.034810677,-0.01663453,-0.08957947,0.11053219,-0.099127546,0.09548071,-0.1819438,-0.08871749,-0.10602337,-0.018333623,-0.15581922,-0.090176225,-0.068361536,0.018433081,-0.01825074,0.027782235,-0.24493454,0.10967021,0.24824984,-0.09541441,-0.115438834,0.11112894,-0.04233641,0.06050427,0.075058445,-0.18605478,-0.01582228,0.08235212,-0.03255627,0.052879073,0.013584452,-0.037462916,-0.10091781,0.05148665,-0.11789215,-0.2763636,-0.077975914,-0.12578258,0.12286511,0.15794101,-0.10860931,0.11212353,0.0008158752,0.3638876,0.03275519,0.17743498,-0.15847145,-0.17146744,0.08951317,0.10357005,-0.07863897,-0.073467106,0.028892862,-0.01763741,-0.07817483,0.0031826904,0.0055779964,0.038424354,-0.22292094,0.030815735,-0.031064384,0.034910135,-0.11577036,0.04919909,0.11484208,0.014214359,0.24254753,-0.0050185393,-0.031196997,0.1544931,-0.015407868,0.104100496,-0.016543359,-0.031313032,0.40234512,-0.18578956,-0.09634269,0.14998429,-0.0013944991,0.13440236,-0.13725352,-0.22132958,-0.09461873,-0.013816523,0.15210608,0.006792226,-0.019593438,-0.12551735,-0.071743146,0.23366252,-0.1654999,0.029605651,0.2652242,0.06759901,0.06494678,0.11020065,-0.13247949,-0.021068746,-0.0942872,-0.15343219,0.010542662,-0.075920425,-0.16311288,-0.11908566,0.05927761,-0.01254842,0.10516139,0.1325458,0.038855344,-0.17186528,-0.07737916,0.020239921,-0.11769324,0.03825859,-0.0443919,-0.1950724,-0.27981153,0.0005130949,0.15038212,0.014885708,-0.15343219,0.114245325,-0.085998945,-0.06803001,-0.24705634,0.18512648,-0.12637933,-0.07200837,0.06948874,-0.0400157,-0.09786773,-0.12525213,0.08825335,0.13022508,0.016518494,0.06935613,-0.16947827,-0.028395565,-0.09720467,-0.10131564,-0.028461872,-0.1875135,-0.16815214,0.017305879,0.030981502,0.07035072,-0.13062292,-0.039849937,0.0069497027,-0.22676669,0.07359971,0.17292617,0.07651718,-0.18990052,-0.029671958,-0.11020065,-0.06282498,-0.017886057,-0.06630605,-0.313495,-0.06272552,0.11828999,0.1688755,0.16352886,-0.010049396,0.19182692,-0.15374844,0.039936773,0.22455879,-0.050727855,0.103803016,0.009796735,-0.088806346,0.09956483,-0.18413298,-0.068332635,-0.16313764,0.09050162,-0.2522048,0.01598286,-0.19978167,-0.24933589,-0.07380968,-0.03915434,0.077330634,-0.20395467,0.10210774,-0.08567661,-0.020750822,-0.093044534,0.1688755,0.024891207,0.17370053,0.0989128,0.26002917,-0.06608313,0.013570353,0.003298859,-0.06562672,0.10706316,-0.15687817,-0.18061203,0.13875176,-0.08156882,0.3711349,0.07348367,-0.27541703,-0.22794934,0.028216554,-0.09134926,-0.108758435,0.11319223,-0.25481293,-0.0029157922,0.1507491,0.16352886,0.062170964,-0.09337055,0.068984665,0.095000625,-0.018175308,-0.051836304,-0.031819016,-0.21973376,0.07974315,-0.08456816,0.002502161,0.016594138,0.074331306,0.10530268,0.058095783,0.024842303,-0.20069452,-0.052944753,0.2317311,0.035274766,-0.0003237222,-0.002518462,0.037948087,-0.113583446,-0.048869573,0.027760133,-0.11377905,0.080069155,-0.16026872,0.07002791,0.25689942,-0.07987355,0.12864532,-0.03173751,0.07283164,0.05333597,-0.03889353,0.14096867,-0.15635654,0.07361407,-0.12708044,-0.15061869,-0.19847763,-0.122581445,-0.10667194,-0.054411817,-0.10386822,-0.026504979,0.04479439,0.11097533,-0.09858678,-0.16574576,0.114822306,0.099890836,-0.12212503,0.0035861593,0.23564327,0.010171652,0.16522413,-0.05669392,-0.008199264,-0.063149005,-0.117821634,0.0031888292,-0.10901924,-0.16313764,0.06337722,-0.25585616,0.037719876,0.07120156,0.2250804,0.034981355,-0.12792808,0.062986,-0.10269456,0.06592013,-0.07257082,0.10686755,0.0009240473,-0.12355949,-0.017180964,0.07609178,0.026928797,-0.17617823,0.049162984,-0.13705648,0.05516165,-0.08443775,0.0652681,-0.009136556,0.04567463,-0.04606585,-0.055259455,-0.2205162,0.10282497,0.0011665206,0.10425943,0.18087284,0.011907679,-0.049880218,0.00041847015,0.24346761,0.22534122,0.043359928,0.17487417,0.06171454,-0.076678604,-0.05327077,-0.056367904,0.06846304,-0.30436713,0.11860407,-0.06614834,-0.053368572,0.014727704,0.03644842,-0.23355678,-0.12486355,0.13588284,0.0051428787,0.12688483,0.09330535,0.040132385,-0.01889254,0.12714565,0.13940379,0.02365235,-0.05490084,0.02630937,-0.07120156,-0.0315582,0.14227273,-0.16770186,-0.12545037,0.06807183,0.09487022,0.27098325,0.030025935,0.075830966,-0.011793574,0.00188579,-0.052683942,-0.010668824,-0.2158216,0.07250562,-0.07048433,0.09884759,0.09591346,-0.015689448,-0.043751143,0.09473981,0.05529206,-0.025119416,-0.042447086,-0.03468794,-0.23759936,-0.08365532,0.1594863,0.058454398,-0.079938754,-0.15466127,-0.061975352,-0.037002645,0.14488083,-0.12232064,-0.111562155,0.21034455,-0.1868715,-0.07941713,-0.031427797,0.020131394,-0.111431755,-0.27385217,-0.028265456,0.047826324,0.13523081,0.030629061,-0.018615426,-0.14383759,-0.06657216,0.083329305,-0.10367261,-0.52136236,-0.19313098,0.033612095,-0.14435922,-0.023799058,-0.06608313,0.0039549633,0.031166986,-0.1147571,-0.10419423,-0.27098325,0.1508795,-0.04815234,0.0921317,-0.19743438,0.032324336,0.07850429,-0.075113736,-0.24359803,-0.24438046,0.08485423,0.029985594,0.06717989,0.07629933,0.17005588,-0.08845858,-0.093452565,-0.43634358,-0.12497978,0.009846826,-0.16267347,0.020649021,-0.018173745,-0.10179034,0.061056834,0.21261327,0.023753975,0.119768664,0.09996645,0.16380255,0.068916924,0.076950714,-0.012810645,0.019443952,-0.12697737,-0.010443932,-0.014373977,0.1618918,-0.07703757,-0.14443459,-0.049418688,-0.22755179,-0.009645981,0.124719225,0.05449952,-0.058711834,0.105524965,-0.20670734,-0.073042385,-0.15068792,0.013299186,0.2188666,0.11351533,-0.027575454,0.016501848,0.17057699,-0.053457297,-0.15320662,-0.10891219,0.021484971,0.043230496,-0.17335625,-0.11768422,0.086678125,-0.034436747,0.13661793,0.07078424,-0.06466118,-0.012246108,-0.055628594,0.0003860835,0.07525711,0.0571485,0.102919415,0.038757626,-0.14061311,0.06448748,0.0020505174,-0.056801096,-0.2141766,0.13140681,-0.013603168,-0.001977236,0.16588698,-0.020421036,0.05441267,-0.009054303,-0.033807073,-0.117857926,-0.04833304,0.1811729,0.029399343,-0.04889758,-0.017316082,-0.223904,-0.13279644,-0.12949607,-0.010937902,-0.014091709,0.32430473,0.07200016,-0.13210163,0.1665818,0.051155724,0.01670812,-0.009260576,-0.11768422,-0.08494108,0.06448748,-0.041384894,-0.019769646,-0.02740175,-0.120029226,-0.16493161,0.12011608,-0.24040586,-0.18534179,0.015904741,0.04320878,0.09458164,0.081249885,0.11950811,-0.05471665,-0.053066466,0.26055548,-0.008435483,0.0019853786,0.06735359,-0.025295595,-0.08871914,-0.19367957,-0.11004126,-0.11351533,-0.17083754,-0.05875526,-0.07186989,-0.17874105,0.29772806,0.219214,-0.005173112,-0.0904996,-0.2904325,-0.2428377,0.16032846,-0.11681571,-0.03708573,-0.14990625,0.16779773,0.10674089,-0.17804624,-0.19889069,0.06791813,-0.064140074,-0.016111014,0.054673225,-0.2756677,0.19090031,-0.14634533,0.13201478,0.00918458,0.48150653,-0.027076056,-0.037129156,-0.00249699,0.07899173,0.06266359,-0.00739869,0.0149059445,0.18464698,-0.060405444,-0.0066713057,0.08785062,0.25933954,-0.02056217,-0.436691,-0.1308857,-0.12411126,-0.035348695,0.12723793,-0.12880126,0.14269754,-0.21539253,-0.071044795,0.19732735,0.16128384,-0.23380512,0.1572018,0.008473481,-0.0012695295,0.15841773,-0.061795074,-0.037932534,0.103006266,0.25499696,-0.17622235,0.028661102,-0.17240088,-0.09440793,-0.12037663,0.008185784,0.013418607,-0.067483865,-0.106914595,0.080511644,-0.38770655,-0.06648507,0.09249719,-0.12975663,-0.07208701,-0.18395217,-0.0045542927,0.0053006755,0.13175422,0.16588698,-0.12758534,-0.07013285,-0.14895087,-0.115773484,-0.1994118,0.09909793,-0.0762559,-0.27827325,0.0030750975,-0.35122877,-0.18638402,0.03797596,0.15381458,0.16519217,-0.0066387365,-0.16831884,0.009803399,0.07499655,0.07938257,-0.08711238,0.08585303,-0.18134661,-0.082639515,-0.05897239,0.059927758,0.35331324,0.001905312,-0.17596179,-0.07082766,-0.14973255,-0.12923552,-0.15807033,-0.17856735,0.07226072,-0.0760822,-0.08672155,-0.13722588,0.042296838,-0.26889324,0.034197908,0.12871441,-0.10656719,0.035522398,-0.2909536,-0.085245065,-0.40889838,-0.20583883,-0.024622492,-0.16996902,-0.11829218,-0.18690513,0.0760822,0.013780767,-0.023843748,-0.034944557,0.04642634,-0.0037637653,0.025788032,-0.013465478,-0.0047851712,0.050236084,-0.05890654,0.022490632,-0.01523898,-0.052863497,0.056384224,0.051339597,-0.06347823,-0.033499483,0.029400721,-0.011081103,-0.055490907,-0.0033088948,0.028087016,0.047661223,0.0029821107,-0.014227427,-0.028323483,-0.006213825,-0.07598471,0.0032809786,0.006512693,0.0070611653,-0.027876824,0.04366756,-0.018339325,-0.035312396,0.009754261,-0.006923226,0.06626329,-0.016762879,0.019797537,0.028507402,-0.045375377,-0.0761949,-0.034366526,-0.018838532,-0.006929795,-0.0011962928,-0.01671033,-0.025499018,-0.08370929,0.057908125,-0.007245084,-0.026274104,0.063215494,-0.003484603,0.060535535,-0.007048028,-0.020467527,0.06363588,0.063793525,0.016670918,0.026786448,-0.026208417,-0.024027668,0.06621074,-0.008322322,0.031528924,-0.011008849,-0.022845333,0.029243076,-0.05270585,0.03560141,-0.053861912,-0.038386464,0.010805225,0.007159693,0.056752063,-0.005198988,0.026812723,-0.006157993,0.04986825,-0.019836947,-0.040409572,0.08265833,0.0108314995,0.007691744,-0.010371702,-0.031896763,0.029164255,0.074986294,0.10131294,-0.029610915,0.00851281,-0.020401841,-0.040094282,-0.017235812,0.038071174,0.10656776,-0.00869016,0.043325998,0.022530043,0.003335169,0.028665047,0.0005472403,0.047477305,-0.050262358,0.054702684,-0.03413006,0.014293112,0.035128474,-0.004138171,-0.015055061,-0.061376303,-0.032238323,-0.08518064,-0.03347321,-0.07966308,0.006785287,-0.019429699,0.0069495,-0.047424756,0.10141804,0.06731425,-0.06768209,0.0380449,-0.04655771,0.03912214,-0.07398787,0.043063257,-0.019324603,0.041092698,0.012545885,-0.06090337,-0.01274294,-0.028454853,0.019994592,0.07740351,-0.05769793,-0.0047950237,-0.025630388,0.041118972,-0.0076983124,-0.0042169937,-0.050682746,0.031607747,0.0061809826,0.03604807,-0.037729613,0.009984159,0.05136587,-0.03213323,0.021006146,-0.06184924,-0.029085433,-0.060010053,-0.044061672,-0.05775048,-0.034366526,-0.023357678,0.010128667,-0.08859628,0.003724354,-0.024868438,-0.018772846,-0.010135235,-0.057330094,0.08050385,-0.011593448,0.043772656,0.004072486,0.0060299067,-0.04414049,0.0024664814,0.0006814845,0.012079519,-0.009662301,-0.05110313,0.0034320548,0.0745659,0.018654613,-0.021413393,-0.008302617,0.054597586,0.071728304,-0.028402306,-0.023147484,-0.088070795,-0.01238824,-0.03079325,-0.037125308,-0.021662999,-0.033341836,0.020769678,-0.022004561,0.04085623,-0.057592835,-0.07319965,0.048239253,0.02503922,0.059747312,-0.003622542,-0.08271088,0.00016647107,-0.00072130625,0.030714426,-0.0409876,-0.041434262,0.0031578187,0.03920096,0.011278159,0.026589392,-0.012939996,-0.03244852,-0.011113945,-0.040462118,0.0062663737,-0.06678877,-0.0615865,0.0600626,-0.030819522,-0.08917431,-0.013780767,0.04892238,-0.031239908,-0.051313322,-0.007383023,-0.027377615,-0.090015076,-0.060167696,-0.036205713,0.077666245,-0.0075603733,-0.03707276,0.06558016,-0.056804612,-0.0028540245,-0.052075274,-0.0022743521,-0.038465288,-0.07876976,0.03857038,0.033446934,0.01665778,-0.027272519,-0.032185778,0.010686992,0.011153357,0.010207489,-0.027798,-0.04219621,-0.038439013,0.030267768,-0.038833123,0.0003222683,0.004643948,0.04214366,0.03930298,0.051007174,-0.023986375,-0.056690693,-0.10731254,-0.029236406,-0.054667745,0.017580375,-0.0019597302,-0.095656514,0.17850102,-0.03231899,-0.028080435,-0.09459687,-0.0021162678,0.09811295,-0.0033234134,0.078365125,-0.13110626,-0.017086681,-0.080917895,0.04385461,-0.07976192,-0.06516781,-0.06584212,-0.050573684,0.07663117,-0.01850756,0.04575714,0.019880274,0.019952523,-0.06068842,-0.036629796,0.02107237,-0.016641151,0.020855624,-0.100473054,-0.074415565,0.07807613,-0.016954225,-0.042819053,-0.00057234056,0.06940636,-0.047900505,-0.046720453,0.05461958,-0.11713828,-0.010199026,-0.042602308,0.045660812,0.007393391,-0.089539506,0.036991037,0.08231469,-0.19420294,0.046937194,-0.18572584,0.055245727,0.03925481,-0.08554178,0.031644676,0.004735262,-0.04050711,-0.064011835,0.16597801,-0.024528237,-0.019735778,-0.003166876,-0.089587666,0.012089519,0.08587893,-0.07663117,-0.120317206,-0.021228906,0.022842446,-0.068298556,-0.12542273,-0.0795211,-0.03282473,-0.038098842,-0.08689041,-0.03282473,0.00782688,0.04378236,-0.05230764,-0.08448213,-0.021144617,0.17994599,0.12108785,-0.20711128,-0.049995698,0.004340908,-0.084385805,-0.12821633,0.11858325,-0.016075207,0.008338637,0.075282544,-0.026828134,0.14931278,-0.0125109665,-0.03995321,0.10943182,-0.116078645,0.122532815,-0.03870091,0.009229697,0.0007089347,0.05081451,0.0628077,0.1856295,-0.0935854,-0.09103263,0.059917774,-0.10422996,-0.09556018,0.16443673,-0.057172347,-0.16183579,0.04291538,0.04127776,-0.038773157,-0.2065333,0.03451052,0.069599025,-0.18081295,-0.02909191,0.12773468,0.043493368,0.014136549,-0.15730824,-0.036196306,-0.166845,0.029260488,-0.009193573,0.04903239,-0.08197753,-0.025864827,-0.22348751,0.00534034,0.081255056,0.037858013,0.0703215,-0.061362736,-0.15701924,0.15557429,0.09743863,0.03426969,0.003594344,-0.07451189,-0.107794195,-0.01867614,-0.020121101,-0.10615657,-0.04833399,0.063144855,-0.07643851,0.06415633,-0.016015,-0.18948273,-0.20364337,0.0017339549,-0.0027649957,-0.006297628,0.014076342,0.008434968,-0.13322553,-0.03855641,0.05091084,0.049562212,0.037569024,-0.06897287,0.110009804,-0.13640445,0.06911737,0.061940722,-0.071332976,0.058520976,-0.0795211,0.14517055,0.009609,-0.024179038,-0.0061772144,-0.07908761,-0.07586052,0.113477714,0.08433764,0.001418622,-0.030440541,-0.091225296,-0.036870625,0.008314555,-0.08534911,-0.032800645,-0.08549361,-0.100858375,-0.09763129,0.089684,0.05274113,-0.01307691,0.03747269,0.19680388,-0.059580617,-0.009855848,0.11078045,-0.0020515455,0.08862436,0.19767086,-0.112129085,-0.12128051,0.022047717,-0.113381386,0.06844305,-0.09806478,0.061892558,-0.111358434,-0.03364354,-0.10143636,0.01949495,-0.06675726,-0.07239261,0.039399307,-0.06627561,-0.13409251,-0.120895185,-0.039977293,-0.054667745,0.043108046,-0.040290367,0.008254347,0.09922075,0.089539506,-0.032800645,-0.021963429,-0.055486556,-0.03051279,0.089972995,-0.06377101,0.13862006,0.16000551,0.0075017633,0.080050915,-0.18745978,0.033065557,0.024492113,0.047346603,-0.06887654,-0.064830646,0.057461336,-0.08814271,0.028610256,-0.0781243,0.03470318,0.024311492,-0.11550066,-0.019976605,-0.054414142,0.012551507,0.065808415,-0.08429175,-0.056485828,-0.13582495,-0.026478743,-0.011709885,-0.012082141,0.15382272,-0.105073355,-0.02515157,-0.064934425,-0.08947096,-0.02374347,0.11614393,0.053086966,-0.0888883,0.020360794,-0.042048763,0.01643592,-0.0324834,-0.023694916,-0.19214892,-0.06341303,-0.08668713,0.16379271,0.14773715,0.045156293,0.10494387,0.05405807,0.17220895,0.02995853,-0.11549652,0.13647234,-0.09309641,-0.20328425,-0.100217834,-0.015610482,0.15913142,-0.058266185,0.13776715,0.33405945,0.019956168,0.042501945,0.09911726,0.032904208,0.012956133,-0.06257141,0.0016872915,-0.1533048,-0.13699028,-0.106627114,-0.026705334,0.07140844,0.1935732,0.069854684,0.21027619,-0.026365448,0.20367268,-0.2273676,0.071084745,0.13194054,0.105073355,-0.118668795,0.028760836,-0.09937622,0.15058571,0.15887246,-0.040106557,-0.07872409,-0.16819505,0.28977716,0.033923868,0.027789732,-0.37368047,-0.014275216,-0.07885357,-0.07516338,-0.065290496,-0.11730925,0.14954987,-0.1943501,-0.2980639,0.022124965,-0.1804957,0.112971656,0.017350376,-0.048555154,-0.24899083,-0.16249791,0.09743401,0.13478911,-0.040268406,-0.15149207,-0.095944986,0.10843984,-0.17350374,-0.040138926,0.078270905,0.036610585,0.12352431,0.10131842,0.05671242,-0.058945958,0.21195944,0.0331308,0.05671242,-0.015464816,0.13336483,-0.025556196,0.026122672,-0.05347541,-0.10228952,-0.1375082,-0.056744788,-0.11264796,0.008934149,-0.012527229,0.070566826,0.1275382,0.005163031,0.09885829,-0.002093941,-0.095232844,-0.1017716,-0.10073576,-0.038747013,-0.03499208,-0.06998416,-0.094197,-0.23578383,-0.34338206,0.013223187,-0.07153793,0.20250736,0.042922758,-0.10766296,-0.065549456,-0.28149042,0.1843801,-0.094197,0.030994372,0.09076577,-0.18075465,-0.3125657,0.4619861,-0.1017716,-0.2405746,0.019939983,0.07516338,-0.00014237787,-0.13983884,-0.08694609,0.25145096,-0.1008005,0.070372604,-0.17661127,0.0063971416,-0.026656779,0.23384161,-0.15084468,0.0932259,0.045447625,0.06830092,0.11562601,-0.041595582,-0.09160739,-0.14048624,-0.058686994,0.16508752,-0.11562601,-0.099958874,0.23293525,-0.010496005,-0.11167686,0.006267661,0.05706849,-0.12954515,-0.2517099,-0.337167,-0.13310586,-0.22646123,-0.1381556,0.035380524,-0.04803723,0.21416059,-0.084680185,-0.1843801,-0.20639177,-0.032094955,0.0816374,-0.31903973,-0.029877605,-0.026155043,0.11070575,0.020781606,-0.17505752,0.12514281,-0.16780661,-0.048101973,0.27061406,0.1278619,0.032094955,-0.17492804,0.073803835,-0.03188455,-0.29961768,0.10701556,-0.12844457,-0.087075576,0.032645248,-0.040009446,0.069854684,0.03534815,0.06998416,0.18515699,0.04130425,-0.26142094,0.114913866,0.0826085,-0.013635905,-0.36435786,-0.032451026,0.3483023,-0.13375327,-0.27527535,-0.07794721,-0.23345318,0.13673131,-0.015675223,-0.13828507,0.074839674,-0.019794317,-0.35581216,0.07050208,-0.28666964,-0.020911086,0.06700611,-0.11141789,-0.040721588,0.18891191,-0.09846985,0.090053625,-0.102613226,-0.05334593,-0.008480967,-0.029780494,0.2682834,-0.009087906,-0.017285634,0.19227841,-0.033600166,-0.06635871,-0.22762656,-0.31645012,-0.12173048,0.077010244,0.0072331047,0.059960354,0.029289609,0.025170013,-0.08577331,-0.15868777,-0.0018573898,-0.18526272,-0.07310496,-0.013894705,0.05791246,0.04407729,-0.056578953,0.12868378,-0.015871158,-0.0420294,-0.14801969,0.0874402,0.016668884,0.05286417,-0.051530663,0.06424664,0.075581476,-0.11506292,-0.037552614,0.15468724,0.0051405644,0.018311959,-0.038886122,-0.023110216,0.09158361,0.015192497,0.02309831,-0.039981507,0.08572569,-0.05791246,0.15944977,-0.09763203,-0.05762671,0.013656578,0.006197253,-0.004381535,-0.022633962,0.019062059,0.07210483,0.0017219551,0.03469509,-0.17707117,0.14801969,0.08796408,0.01977644,-0.08263004,-0.05957935,0.053530928,0.021526672,0.07877238,-0.012055174,-0.10296607,-0.1251595,0.25946307,0.0405292,0.013108886,-0.044744045,-0.1441144,-0.05867447,0.034147397,0.10572834,-0.03840987,0.08758307,0.14982945,-0.08810695,0.07358121,-0.01234688,-0.094869755,-0.060246106,-0.02150286,-0.09482213,-0.14611466,-0.001716002,0.07562911,-0.038647998,-0.08482081,-0.1315413,-0.06734229,-0.04302953,0.0820109,0.09687003,0.09858454,-0.018990621,-0.017347544,-0.006477052,0.0140733,-0.15554449,0.07577198,0.067818545,0.06881867,0.017061792,-0.032361448,-0.037743114,-0.022014832,0.05072103,-0.06948543,0.029789675,0.21012318,-0.02974205,-0.03955288,0.033861645,0.05338805,-0.036433417,-0.034385525,0.20955168,-0.059245974,-0.023312625,0.053245176,0.031051748,0.0011675659,0.0042267526,-0.029408673,-0.080915526,-0.04583943,0.07872476,0.02840854,0.021645736,-0.21660024,0.045482237,0.013489889,0.063532256,-0.10801436,0.047411066,-0.04443448,-0.060674734,0.09610802,0.027456032,0.025455765,0.13201755,-0.03505228,-0.050340027,0.10734761,0.095917515,0.1814527,-0.2381269,0.037385926,0.14344765,0.06434189,-0.08939284,0.0008676749,-0.11887295,-0.12858853,0.09163123,0.16087854,0.026836902,0.1578305,0.05815059,-0.1491627,-0.03595716,-0.011144339,-0.069628306,-0.052245043,0.03938619,-0.08134415,0.00814394,-0.12896954,-0.10429958,0.13535133,-0.028479978,-0.093440995,0.07982014,-0.0060811657,0.10858587,0.13658959,-0.17964293,0.0750576,-0.09991805,0.04224371,-0.056245577,-0.0070842756,-0.314137,0.022002926,0.060722362,0.08363017,-0.08467793,-0.026955966,0.124588,-0.11706319,0.22745882,-0.05824584,-0.01859771,0.13982812,0.019943127,-0.033313952,-0.20269363,0.032028068,-0.10172781,-0.006613975,0.030051615,-0.21926725,-0.058007713,-0.002193744,-0.07891525,0.000685359,0.13039829,0.16916536,0.069104426,-0.036171477,-0.042077024,-0.08558281,0.037576426,0.036242913,-0.13639909,0.072723955,-0.070771314,0.0684853,-0.049816146,-0.188025,-0.08877371,0.05476919,-0.25508153,0.053959556,0.030670745,0.10229932,-0.031766128,0.14506692,0.03424265,0.007756984,0.011209824,0.07224771,-0.009352434,0.17221338,0.18897751,-0.1063951,-0.116110675,-0.108109616,-0.12344499,-0.024884261,0.057055205,0.08820221,0.039695755,-0.03000399,-0.11992071,-0.1808812,-0.05415006,-0.29108632,-0.1688796,-0.09829879,0.06881867,-0.121444725,-0.007072369,0.057483833,-0.096584275,-0.17649966,0.0053013004,0.061389115,0.077915125,0.056340825,-0.06125948,-0.19672698,-0.11411376,-0.007908265,0.058344163,0.03587352,0.21686916,0.12683514,-0.035400253,-0.015646156,0.15492818,-0.026635379,-0.14334263,0.08662651,-0.0963947,-0.037936956,0.01734991,0.18158248,-0.08624789,-0.23413387,0.05452018,0.21929227,-0.07882709,-0.10275539,0.0060057384,-0.036895774,-0.14531142,0.15167211,0.21717204,0.21429458,-0.13266577,-0.15068771,0.044827703,-0.08284038,0.005352632,0.00046025062,-0.013696302,-0.08367333,-0.107980244,0.08670223,-0.12410913,0.013989726,-0.057511214,-0.10116522,0.027089713,-0.24443214,-0.056526825,-0.048992436,-0.00980606,-0.17249578,-0.021429459,0.08314327,0.044335507,0.116688326,-0.17204145,0.10116522,0.17082989,-0.0053478996,-0.014671229,0.011131203,0.056564685,-0.06671149,0.070005424,0.1152496,0.029986098,-0.16340908,0.062206008,-0.12100451,-0.07928143,0.18930617,-0.0015724244,-0.037350107,-0.23246798,0.08798951,0.06440196,-0.15750274,-0.16265187,-0.040284354,-0.07610108,-0.12562358,-0.103361174,-0.12585075,-0.018959014,0.1496276,-0.04925747,-0.091624185,0.05516382,-0.038126264,-0.088443846,-0.03210633,0.034283347,0.051794168,-0.03742583,-0.16431776,-0.15932007,-0.23913155,0.008741213,0.01363951,-0.060312945,0.1988472,-0.20248188,-0.09692476,-0.13183282,0.04448695,0.015097167,0.08662651,-0.2521558,0.09556176,-0.07674472,-0.06871814,-0.061827395,0.04013291,-0.029039567,0.016195143,-0.039640713,0.07435946,-0.030875837,0.030800115,-0.02483697,0.07545744,-0.021088708,-0.24291769,-0.12085306,0.0063322918,-0.072087795,-0.17143567,0.058760636,-0.15250506,0.39315107,-0.45372903,0.21762638,-0.33287597,-0.120020114,-0.12592646,0.11063053,-0.15553395,0.012058803,0.1482646,-0.40981,-0.20944835,-0.19627264,0.1142652,0.079887204,-0.39103085,0.09344153,-0.020255761,0.051983476,-0.0404358,0.03859953,0.11434093,0.097530544,0.20914546,0.16719522,0.044411227,-0.05823058,0.09488025,-0.26033387,-0.28032458,-0.07625253,-0.066181436,0.3316644,-0.03187916,0.20778246,-0.03956499,-0.05701902,0.06565138,0.371343,-0.041571636,-0.11873283,-0.11767272,0.01565562,-0.04138233,-0.051415555,0.007382941,0.11721838,0.022830324,-0.26639163,0.096016094,0.039148517,0.13410449,0.10563285,-0.04967394,0.07011901,0.079584315,-0.04687221,-0.052513532,-0.16689232,0.033923667,0.13281721,-0.47856602,0.12327618,0.015371662,0.36134762,0.15719984,-0.020766888,0.0062613017,-0.09366869,-0.05122625,-0.013705767,0.05944214,-0.12728947,0.004441596,-0.14250968,0.020634374,0.43434408,-0.24034312,-0.0020800016,0.029172082,0.028414857,-0.07435946,-0.07890281,-0.17809924,-0.113962315,-0.0041245082,0.05149128,0.005324236,-0.0460014,0.31470257,-0.1688611,-0.01025093,-0.16552933,-0.3501407,-0.0062944302,0.5600434,-0.12206462,-0.085414946,0.1317571,0.24806681,-0.033563986,-0.16961834,-0.2510957,-0.22292694,-0.03492699,-0.0520592,0.14394842,-0.38194415,-0.14296402,0.09707621,-0.05728405,-0.04142019,-0.088519566,-0.08367333,-0.009919643,-0.09048835,0.28789684,-0.103436895,0.013516461,-0.15810852,0.27123788,-0.06864242,-0.14288831,-0.05452018,0.16219753,0.010714729,0.08503633,-0.22413851,0.06300902,-0.22444636,0.11259601,-0.0032040463,0.09261208,-0.05611159,-0.12363191,-0.002474689,-0.04869218,0.0968624,-0.1436904,-0.24875516,-0.15330954,0.101187274,0.12079837,0.028894672,-0.033722878,-0.10953877,-0.121171206,-0.049997102,0.04336065,-0.06151769,-0.003481342,0.15554655,-0.14488348,0.011473981,0.020244911,-0.03640729,0.13138688,0.0054200813,-0.048617616,-0.22578856,0.11363995,0.019611094,0.07191977,0.2523344,-0.029714908,0.0488786,0.17761834,0.015183684,-0.21505092,-0.075834535,-0.005494648,0.09805547,-0.013608458,-0.0054433835,-0.007908751,0.027664319,-0.018641723,0.007866807,-0.028652329,0.114758454,-0.10484105,0.048804034,0.19283,0.15703788,-0.06077202,-0.054135565,-0.111701205,0.00024321624,0.16210844,0.07441776,-0.09000224,-0.07255359,0.0075638792,-0.13190883,-0.15316041,0.043397933,-0.11356538,0.06725934,-0.06394111,-0.0270305,-0.044740137,-0.009647092,0.07150965,-0.11311798,-0.006836852,0.022836111,-0.08112878,-0.058572296,0.22474462,-0.035717543,-0.12020183,-0.07091311,0.047424544,0.036854688,-0.14488348,0.17389,-0.12064923,0.14674765,-0.093730584,-0.027160991,0.08948027,-0.0023197294,0.05655899,0.1085694,0.033051778,0.18015362,0.20312022,0.03914762,0.16181016,0.09484909,-0.07769871,-0.051973127,-0.014671037,-0.087839805,-0.07881721,-0.044404585,0.176127,-0.074455045,0.002964034,-0.021102432,-0.19089125,-0.2741079,0.04716356,-0.019256901,-0.14965576,0.010905408,-0.049326003,0.07464146,-0.016609777,-0.05581332,-0.056409854,-0.08232185,0.20312022,-0.07740044,0.06602898,0.00908318,0.17896055,-0.035102367,0.11237231,0.06513418,-0.118113965,0.04477742,0.26322114,0.044516437,-0.1189342,-0.0711741,-0.019499242,0.23428918,0.099845074,-0.13638285,-0.0021484587,-0.2299643,-0.06271076,-0.10081444,0.23130651,-0.114460185,-0.15189277,-0.12750939,-0.07874264,0.13944009,-0.049027734,0.19745314,-0.2268325,-0.32451513,0.049698837,0.026527172,0.11632436,0.014820171,0.107749164,-0.014260919,-0.055738755,0.046529744,0.02250056,0.07896634,-0.18567157,-0.053949147,-0.04995982,0.14913379,0.122215144,0.279775,-0.024905343,-0.06643911,0.045187537,-0.045485806,0.019741585,-0.1633015,-0.12340821,0.18373282,0.077624135,0.016814835,-0.0024257542,-0.15405521,-0.17329346,-0.20073408,-0.15823095,0.1090168,-0.021885384,0.07061485,0.04682801,-0.04533667,0.06651367,0.02304117,0.03601581,-0.17985535,0.05126474,-0.12020183,-0.1522656,-0.07150965,-0.1398875,0.18477677,-0.016181016,-0.025874713,-0.0984283,0.18775944,-0.007041911,-0.044143602,0.07844438,0.0040149614,0.02574422,0.11975443,0.038252816,0.19804968,-0.08910744,0.02822357,-0.054918516,-0.029230222,0.06218879,0.098801136,0.04630604,0.13861986,-0.01688008,0.057826627,-0.0040965187,0.11147751,-0.060622886,-0.06293446,0.03299585,-0.24487768,0.0639784,-0.19804968,-0.12460128,0.23831579,0.058535013,0.066811934,0.17761834,-0.23727186,-0.10267861,-0.36716738,-0.115354985,-0.1392164,0.017066497,-0.09947224,-0.024886701,0.018464627,-0.11095554,0.258598,-0.028428629,0.032492526,0.09112074,-0.0601382,0.07740044,-0.1308649,0.034263488,0.078369804,-0.2231157,-0.1048167,0.0416595,-0.11805238,0.29496652,-0.073618315,0.065808445,0.12651992,-0.031445008,0.10341914,0.157595,-0.009202289,0.0070340224,-0.11747691,-0.037405174,-0.08278464,-0.04854452,0.08771719,0.1146818,-0.03387018,-0.011992264,-0.10868053,-0.07185082,-0.13918014,0.061451357,-0.036172036,-0.34100366,0.12232725,0.105967626,0.05224393,0.11016029,-0.1325212,-0.07115204,-0.070124425,-0.1612944,0.02400508,0.113530874,-0.2694817,-0.344292,0.067206,0.2194985,-0.009428365,0.08697731,-0.031856056,-0.018199056,-0.03251373,-0.24416125,0.12347818,0.17198159,-0.00084392854,-0.14033106,-0.023614585,0.17395462,0.19204064,-0.061697986,-0.024827171,-0.3485669,0.10415903,-0.22607523,0.100212984,-0.15849929,0.032760356,-0.08035947,-0.043159816,0.038103953,-0.18464181,0.121176325,-0.015064831,-0.18102461,0.014725719,-0.15110046,-0.070741,-0.22147152,0.04883225,0.07172751,0.06128694,-0.01133459,0.12561563,0.03187661,0.04706475,0.052819394,0.07152198,-0.17148834,0.061697986,0.050394226,0.017592764,0.030705126,0.13605618,-0.12462911,0.012074472,0.00075272773,0.13630281,-0.18036693,-0.059190605,-0.092238694,-0.32439741,-0.058286306,0.030314634,0.15545756,-0.04801016,0.07156309,-0.016030788,-0.12651992,0.042707667,-0.04542057,-0.23528266,0.083360106,0.060793687,-0.0412279,-0.1200254,-0.35876083,0.010024381,0.11542168,-0.05187399,0.084182195,0.010656364,-0.17148834,-0.033089194,0.08467545,-0.037754565,0.0073782736,-0.17033741,-0.19779527,-0.05606666,-0.033726316,-0.026676876,0.10243263,0.042255517,0.04373528,-0.20141248,-0.03781622,0.08730614,-0.28279957,-0.16918649,-0.0340346,0.010378908,0.038556103,-0.16269195,0.18414855,0.14468814,-0.08015394,0.18661483,-0.1282463,0.09429392,0.23429614,0.15586859,-0.04451627,0.35021108,-0.0064174538,0.034651168,-0.17674972,0.25780797,-0.23100778,0.05170957,-0.14107095,-0.32275322,-0.1398378,0.0824558,-0.2716191,-0.072796226,-0.10991367,0.21818314,-0.0134000955,-0.20716712,0.028588241,-0.15932138,0.1290684,0.08664847,-0.08615521,-0.08804603,0.045749407,-0.04755801,0.07152198,-0.17411904,-0.069877796,0.388685,-0.25780797,-0.08031836,-0.17247485,-0.02813609,0.0037996054,-0.08183923,-0.026759086,0.113530874,0.1935204,0.19450691,0.047722425,-0.024231154,-0.18760134,-0.37914872,-0.28888303,-0.18201111,0.1487986,-0.31239486,-0.27490747,-0.0537648,0.16630916,0.23429614,0.074440405,-0.09511602,-0.121258534,0.37618917,0.335249,-0.05582003,-0.28773212,-0.23840661,-0.11616156,-0.14690779,-0.1818467,-0.18135343,-0.08969021,-0.1737902,-0.05450468,-0.015218973,0.0020205474,0.12791748,0.07234407,0.36204922,-0.27211237,0.259781,-0.009798306,0.6458353,0.4005231,0.13005492,-0.3636934,-0.016863158,-0.042461038,-0.15249802,-0.34725156,-0.15455325,-0.05187399,-0.120847486,0.17411904,-0.18283321,-0.029513095,0.092896365,-0.17543438,-0.2150592,-0.1236426,-0.1676245,-0.438997,0.55408984,0.18283321,-0.0032549696,0.19006762,-0.3528418,-0.2589589,0.0941295,0.05976607,-0.1765853,-0.19204064,-0.063054435,-0.20634504,0.2615896,0.25682145,0.2931579,0.048908997,0.07442674,0.06756125,0.06792579,-0.013389218,-0.123457246,0.06968773,-0.0945979,0.06324754,-0.056655455,0.002572659,0.05641243,-0.124550864,-0.14326388,-0.005228858,0.026444275,0.053283468,-0.011513361,0.07436598,-0.020869864,-0.100430526,0.05498465,-0.15006861,-0.016161235,-0.0032049064,-0.07576338,-0.0384285,0.016859934,-0.04884824,0.022419157,-0.14411446,-0.15772392,0.11045536,-0.0314415,0.05234174,-0.038671523,0.2237055,-0.16720194,-0.07886196,-0.034114785,-0.04994186,-0.05726302,-0.045081336,-0.016966257,-0.06683217,0.00063794345,-0.06109068,0.03715261,-0.112521075,-0.08639577,-0.009979258,-0.07904423,0.08554518,0.039370224,0.063855104,0.019366141,-0.071267396,-0.18324167,0.039825898,-0.030302314,0.004621293,0.031988308,-0.11185275,-0.16270596,-0.050762072,-0.010465311,-0.08013785,-0.20572157,-0.0047693867,-0.016297936,0.0806239,0.00056484574,-0.0070249727,0.09702816,-0.006238935,0.073636904,-0.056625076,0.17558634,-0.03268701,0.051582284,-0.0070249727,-0.16720194,0.0107614985,0.16853859,0.058265503,0.015211914,0.047936894,0.040099304,0.031198474,-0.056230158,-0.20985302,0.14192723,-0.012705707,-0.18421377,-0.102739275,-0.07211799,0.059207227,0.035998236,0.0876109,-0.054407462,-0.12552297,0.031866796,0.15699485,-0.051400017,0.05115699,-0.122363634,-0.031092148,-0.023619097,-0.027689785,-0.015287859,-0.10571635,-0.03162377,-0.053374603,-0.10571635,0.083540216,0.05307082,-0.0035124863,-0.029633993,-0.09854708,-0.08518064,-0.02269256,0.0342363,-0.038884174,-0.3234677,0.010845039,0.18299864,-0.090709485,0.045263607,0.053313848,0.08876528,0.02462158,-0.078436665,-0.046509117,0.019259816,0.03736526,0.07278631,0.19344875,0.056139026,-0.023862123,-0.0918031,0.010981741,0.048939377,0.19041093,-0.087064095,-0.18773764,-0.011672846,0.01081466,0.061212193,0.013024679,-0.06774352,0.1780166,-0.09994447,-0.021371106,-0.10498726,0.05711113,-0.0150448335,-0.15128374,0.062700726,-0.1464232,-0.019062359,-0.08445156,0.21665774,-0.033598356,-0.1193258,-0.0524025,-0.2040204,-0.023284936,0.040980272,-0.030120045,-0.12746719,0.005080764,-0.1435069,0.040372707,0.03593748,-0.18044686,-0.14253479,-0.08281114,-0.07886196,0.06306527,0.29163128,-0.3224956,0.075034305,-0.13682368,-0.21070361,0.1011596,-0.08019861,-0.25857976,0.00926537,-0.025183577,-0.010715931,0.018637063,-0.07211799,0.107660554,0.073636904,-0.122302875,0.095448494,-0.006987,-0.12303195,-0.020474948,0.2600379,-0.102860786,0.022935586,0.016905501,-0.061759003,0.14545111,-0.09356504,-0.042924482,-0.13864638,0.13487947,-0.004906089,0.007435079,0.08123147,0.028236592,-0.09471942,-0.12685962,0.06163749,0.07898348,0.03961325,-0.25760764,-0.03961325,-0.075034305,0.025624063,-0.1556582,-0.08256811,-0.17959628,0.10668845,-0.1360946,0.027036652,0.03387176,0.15116222,0.060969166,0.11081989,-0.10261776,-0.025426604,0.13645914,0.09447639,0.17692299,0.16890313,-0.02931502,-0.09386882,-0.033051547,0.066467635,-0.037122235,0.02951248,0.09234991,-0.10456197,0.08360097,0.062214676,0.0973927,-0.15918209,0.0025384834,-0.0009516939,-0.0032618656,-0.07764683,-0.12291044,-0.054012544,0.08207063,-0.11748726,-0.0252525,0.0016976388,-0.09185597,-0.09267668,0.013596893,-0.013391716,0.043623693,-0.13560593,0.044981018,0.012949797,-0.1291034,-0.061521403,0.04056183,-0.011205797,0.07986103,0.0737373,0.07518932,-0.052619897,0.01761362,-0.050410304,-0.07619942,-0.19356042,0.009722212,-0.10227262,-0.020785965,-0.019886345,-0.01868685,0.054924186,-0.2595957,0.020517657,0.1363635,-0.036679257,-0.10441909,-0.11685594,0.07159084,0.08421709,-0.141414,0.045296673,0.080618605,-0.11395191,0.04005678,0.08800496,-0.048895154,-0.053124946,-0.057701964,0.07588376,-0.10138879,-0.14621198,0.11237363,-0.12638876,0.020501874,-0.023153387,-0.0383838,-0.16199479,0.14595945,0.06773983,0.045738593,0.112752415,0.07095952,0.04185602,-0.2161614,0.0181818,-0.20315637,-0.17285337,0.123105936,0.040372435,-0.02002839,0.024242401,0.26085833,-0.1333332,-0.10656555,-0.11452009,-0.19621192,0.039583296,-0.07013882,-0.045075715,0.13308068,-0.20277758,0.2939391,-0.025110455,0.21641393,-0.015806487,0.041982282,0.13901502,0.060037818,-0.11843423,0.048674192,-0.027619923,-0.14797965,-0.20328262,-0.020754399,0.16679277,-0.20757554,-0.05022091,0.04842167,-0.06672973,-0.18055537,-0.16691902,0.35757542,-0.24797955,0.002298372,0.19924222,-0.085479714,-0.10479788,-0.3141411,-0.03221272,0.18952002,0.04100375,-0.034090877,-0.14722207,0.05157823,-0.22487351,-0.05662873,-0.025473459,-0.0059619574,0.036805518,0.06025878,-0.0034051419,-0.18712103,0.10877515,0.08207063,-0.027035957,0.15606046,0.09684334,0.05347217,-0.09255041,-0.23308058,0.051041614,-0.07550497,0.0007255162,0.012720947,-0.062026452,-0.12695694,0.009895824,0.07525245,0.031739235,-0.099747375,-0.03289138,0.11805544,-0.05931181,-0.094570614,-0.02233268,-0.03109214,-0.15126248,0.15176752,0.09141405,0.0103929825,-0.030318784,0.12594685,0.027446311,0.15416652,-0.21982302,0.0108191185,0.2272725,-0.21275231,-0.18939376,-0.24999975,-0.0045375586,0.00819128,-0.08068174,0.16729781,-0.1434342,0.07619942,0.1949493,0.04466536,0.12304281,-0.101199396,-0.0024443632,0.12992412,-0.05448227,0.0050465544,-0.076010026,0.014433382,-0.042424202,-0.16426751,-0.045422934,-0.016366776,0.06912872,0.021006923,-0.10959585,0.01560131,0.062468372,-0.09949485,-0.08440648,-0.23017654,-0.058775194,0.01587751,-0.090909004,0.048232276,0.06622468,-0.014275554,-0.10227262,0.017850362,-0.01655617,-0.015672334,0.10877515,0.064520136,-0.040151477,0.10416656,-0.1367423,-0.0074100303,0.06401509,0.14305541,0.024952626,0.0034209245,0.027241135,-0.07916659,0.022190634,0.044223443,0.09955798,0.14797965,0.14128774,-0.06470953,0.09684334,0.051672928,0.03199176,0.009611733,0.03731057,0.0026298112,-0.0020399285,0.009698538,0.0666666,-0.18118669,0.056723427,0.052114848,0.08497466,0.05801762,-0.05662873,0.020249348,-0.004281088,0.15694429,-0.06982316,-0.062436808,-0.03607951,0.08743678,-0.0068891975,0.0019304353,-0.003695151,0.0989898,0.030113606,-0.076325685,-0.014820061,-0.14861096,0.16350994,-0.049558032,0.05874363,-0.108206965,0.017108569,-0.015798595,-0.28232294,-0.0068694693,-0.08497466,-0.0383838,-0.04264516,0.037196167,-0.01792744,0.044426028,0.114434645,0.08355234,-0.15048581,0.056268606,-0.06948519,-0.04308474,-0.075177476,-0.20544584,-0.07543919,-0.2012584,-0.14760695,0.015539295,0.0012288311,-0.061731897,0.003177377,-0.18764926,0.12765123,-0.13144608,0.11214464,0.06624647,0.07916862,-0.08715091,-0.007687862,0.023178086,0.057937037,-0.12680066,-0.09578749,-0.051950317,0.08427205,0.047893744,-0.048744317,-0.02522273,-0.049594887,0.09794663,0.07458862,0.0027827607,0.018074654,0.034677163,0.034840737,0.08067348,0.025811588,0.05257189,-0.042495884,0.0043714494,-0.16370238,-0.012832186,-0.15336467,-0.0688309,0.19419213,-0.09231977,-0.112929784,0.060096182,-0.004993021,-0.037785023,0.014173473,0.010983828,-0.06055418,0.040238596,-0.065657616,-0.10376978,0.08073891,0.13530637,0.14276524,-0.071840614,0.09624549,-0.016079081,-0.13347436,0.08211291,0.12398722,-0.03928988,0.019988442,-0.0459636,-0.018434511,0.044720456,0.124183506,-0.010534006,-0.17534868,0.14250351,0.00022797783,0.11077064,0.0028686358,-0.008374862,-0.00982247,0.096049204,-0.08865577,-0.03425188,0.04861346,-0.15454239,-0.027594518,-0.0224093,0.031683806,0.10121806,0.16959096,0.047501173,-0.07897233,5.7761197e-05,0.008865577,-0.05888575,-0.062451612,0.0008413711,-0.06588661,-0.004003413,-0.053291604,-0.14747609,0.0683729,-0.34677166,-0.04612717,-0.026564017,-0.009707971,0.018189155,0.089179195,0.007078558,0.15611267,-0.17338583,-0.03860288,-0.011343686,-0.1820224,-0.06817661,-0.123071216,0.211727,-0.016651582,0.067587756,-0.027823517,-0.03119309,0.027022017,-0.12673523,-0.088459484,-0.044426028,0.024666587,-0.075504616,-0.04923503,0.011417293,-0.13883951,-0.028575946,0.035266023,-0.046323456,-0.0055736997,0.0416126,-0.03039159,-0.0651669,-0.0039768326,-0.10357349,-0.15886067,0.0057945214,0.071513474,-0.08832863,-0.18463954,0.22324243,0.09716149,-0.016864225,0.10193778,0.1342595,0.22481272,-0.19445384,-0.033826593,-0.1271278,-0.10893864,-0.062059037,0.06372747,-0.08715091,-0.034088306,-0.0149504375,-0.08191662,-0.03178195,0.10272292,-0.065592185,-0.035756737,-0.12516494,-0.13282008,0.07543919,-0.074850336,0.053357035,0.14642924,0.007217594,0.057871606,-0.016995082,0.0030178947,-0.006882272,0.13975552,0.0246993,-0.09565663,0.12470693,-0.018369082,-0.12771665,0.16056181,-0.015285759,0.013723652,-0.07177519,-0.088852055,-0.06811119,0.13000666,-0.037196167,-0.029148446,-0.087085485,0.026302302,0.088786624,-0.08662748,0.030244377,0.08715091,0.102853775,0.07543919,0.16265553,-0.03320502,0.012464151,0.117313504,-0.14551324,0.2499373,0.027103802,0.08819777,0.05590875,0.03327045,0.00416494,0.005328343,0.017796583,-0.004898967,0.041220024,-0.10233035,0.006538772,-0.071971476,0.022213014,-0.12941779,0.14682181,0.1657961,-0.039911453,0.104293205,-0.018107368,-0.03785045,-0.1113595,0.10324635,0.0738689,-0.11757521,-0.06673718,0.062484324,-0.020495513,0.03470988,0.03263252,0.16501096,-0.19406126,-0.006882272,0.09860092,0.03372845,0.16226296,-0.062091753,0.09107663,-0.06915804,-0.07844891,0.0905532,-0.22703728,-0.071971476,-0.007974112,0.06477433,0.011057436,-0.014721437,-0.022938363,0.014518791,0.16494407,-0.04372211,-0.12993987,-0.094140105,-0.023750488,-0.06613011,-0.015596098,0.0012927691,0.07146692,-0.038551036,-0.09758749,-0.06974323,0.011626635,0.07557727,0.023999097,0.04647339,-0.2203674,0.018430246,-0.058870714,0.025341587,-0.0071682385,0.020800322,0.0047277226,-0.0013870335,-0.19278833,0.19623572,0.047070052,0.06112477,-0.043987297,-0.06762177,-0.036926787,-0.016640257,0.14956343,-0.10136635,0.06854991,0.15433674,0.2203674,-0.06669363,0.0957975,0.009239984,-0.12483508,-0.13643685,0.036794197,0.10667002,0.13424909,-0.037291415,0.12503397,0.023286417,0.23044437,0.047998194,-0.20803638,-0.021131802,-0.0011829665,0.032766722,-0.0145519385,-0.17926398,-0.03818641,-0.10415078,0.027429907,0.12801728,0.14121015,-0.071931,-0.018546263,-0.0017454454,-0.079488724,0.033529125,0.0191595,0.08525646,-0.019988198,-0.13351984,-0.014825409,0.07040619,0.0068450463,-0.1054104,-0.08843866,0.01353264,0.059135895,0.09228382,-0.09168716,0.10627224,0.017999323,-0.033065055,-0.103686705,0.028672954,-0.13590649,0.018629134,-0.071002856,0.011933252,0.053202417,-0.07259396,-0.22805771,0.003138694,-0.18774985,-0.078162804,-0.15553007,-0.27035448,0.07060508,0.20021346,-0.05161132,-0.07670429,0.17979434,-0.041567497,-0.02698241,-0.19544016,0.098316744,0.06705825,-0.019457832,-0.08644979,0.041003983,0.02012079,-0.21307486,-0.07789762,-0.025242144,-0.09486936,-0.10773075,0.061655138,-0.06722399,-0.1502264,-0.032766722,0.06947805,0.029833132,-0.17608178,0.024380298,-0.08896903,-0.04358952,0.07955502,0.03154025,-0.0051089237,0.17449068,0.04358952,0.34208658,-0.09109049,-0.1758166,0.39963138,0.30257425,0.13279058,-0.06530141,-0.022739476,-0.25497383,-0.38902405,-0.17170624,-0.20618008,-0.11615033,-0.023733914,0.039876953,0.104217075,0.054561485,0.43463558,-0.07643911,-0.57863015,0.06854991,0.03384403,0.014038146,-0.22089776,0.026452044,-0.2824203,-0.0072096735,-0.16494407,-0.2824203,-0.051346134,-0.09665935,-0.088637546,-0.26916113,-0.16414852,-0.032020893,-0.01995505,-0.04985448,-0.21055561,-0.0097703505,-0.19517498,0.012977412,-0.20551713,-0.18072248,0.08525646,-0.24158207,-0.07080396,-0.12065844,-0.10680261,-0.28029886,-0.185098,0.12039326,0.016971737,0.4375526,0.24741611,0.2106882,0.2092297,-0.24343835,0.1022945,0.13424909,0.0031345505,0.035070505,-0.20140679,-0.19132982,-0.15274563,0.11780772,0.09142198,-0.06994212,0.15420415,0.0263526,-0.14425977,0.1931861,0.0734558,-0.049953923,-0.09056013,0.114028856,-0.007818767,0.094670475,-0.036131237,-0.25563678,-0.23879765,-0.028324902,0.033230793,0.061555695,-0.12045956,-0.013491205,0.12543175,-0.21426818,-0.09539972,-0.113763675,-0.058870714,-0.21440077,0.027181298,-0.19703126,-0.1389561,0.063511424,-0.22394738,-0.11840439,0.13119948,-0.40652615,-0.07047249,-0.12589581,-0.17846842,-0.17435808,0.13670205,-0.24476427,-0.12152029,-0.35985386,-0.15460192,-0.046904314,0.118205495,-0.048959482,-0.35852796,-0.27048707,-0.19437943,-0.07405246,0.12543175,0.1276195,-4.920395e-05,-0.14783974,0.10885778,0.001838674,0.020352826,0.04852856,0.25802344,-0.05898604,-0.074259214,0.016407518,-0.058864504,0.022281814,-0.12923452,-0.014574332,0.015789704,0.008872214,-0.049789727,0.08864111,0.013439985,-0.12777607,0.027285095,0.077783786,-0.017582377,-0.1323945,-0.08920828,0.045697976,-0.052666105,0.076608926,-0.069073625,-0.055339925,-0.031052748,0.03465835,-0.055299412,-0.0077378666,-0.0034081049,-0.041565713,0.01868634,-0.005504621,-0.03220735,-0.03018173,-0.0024193493,0.012893069,-0.044361066,-0.04237596,0.004901999,-0.014868047,0.040492132,-0.053273793,0.00785434,-0.059715264,-0.057851695,-0.05015434,-0.033139136,0.00015904279,0.018271089,-0.017703915,-0.09925535,-0.09261132,0.021856435,-0.0010197728,-0.17274483,-0.0066896086,0.025583575,0.015779575,-0.029898144,0.0820781,-0.037352424,0.09172005,0.01836224,0.010512965,0.018858518,-0.07770276,-0.13093604,-0.016113803,-0.13158424,0.056514785,0.07575817,0.0007456812,-0.0015698551,-0.040694695,0.0274674,-0.008137926,-0.14762715,-0.08187554,0.030060193,0.00894311,-0.034273483,0.0010982655,0.022261558,-0.051653296,-0.0020939843,0.10371172,-0.0387501,0.025360756,0.07592022,0.0549348,-0.035893977,0.06599468,-0.056798372,-0.020347347,-0.016478416,0.0418493,0.018230576,-0.040633928,-0.037089095,0.05610966,-0.05238252,-0.07871557,-0.06599468,0.011566288,-0.007464408,0.097877935,0.067250565,-0.118134126,-0.100065604,0.001149539,0.06137627,0.069235675,0.0454549,0.008897534,-0.023659237,0.042173397,-0.15175942,-0.022585658,0.013652676,0.007464408,0.008021453,0.020641062,0.1559727,-0.03599526,0.06514392,0.06729108,0.12980169,0.012963965,-0.113272645,0.065711096,0.038142417,0.07373255,0.041768275,0.16569568,0.044361066,-0.03299734,0.07515048,0.044806704,-0.11862028,0.043793894,0.054003015,-0.062064983,0.046751298,0.08005248,0.045130804,0.011637184,0.115298264,-0.066399805,0.020641062,-0.07037002,-0.09998458,-0.04529285,0.056352735,-0.07413767,0.14770818,-0.0149592,-0.1680454,0.015090865,-0.038203184,-0.12996374,-0.056352735,0.03040455,-0.022808475,-0.05149125,-0.020681575,0.015506118,-0.023841541,0.018453393,0.04966819,-0.04221391,-0.038628563,0.13263756,0.0738946,0.016093547,0.07195,-0.036866274,0.0053425715,-0.030364037,-0.049182042,0.017734298,-0.06785826,-0.06328035,0.048331283,-0.054610703,0.021106955,-0.05935065,-0.0317212,0.056676835,-0.09074775,-0.08856008,-0.07555561,0.053638406,-0.08005248,0.105899386,-0.020134658,0.0011267508,-0.052868668,-0.09115288,-0.1219423,0.00079442264,-0.15483835,-0.025482293,0.05392199,-0.027750988,-0.07673047,0.0021357625,0.07555561,0.04270006,-0.02667741,-0.020154914,0.04812872,0.0186357,-0.1611583,-0.081470415,0.03157941,-0.046143614,-0.07968787,-0.0063756374,0.026171004,-0.009474835,-0.11602748,0.061983958,0.0061832033,0.034192458,-0.13579753,-0.057406057,0.03392913,-0.020266322,-0.13758008,0.042578522,0.09779691,-0.09763486,0.0716259,-0.113110594,-0.08977546,0.019020567,-0.054327115,0.07186898,-0.17436533,0.059431676,-0.08904623,0.009464707,-0.04079598,-0.10614246,-0.110436775,-0.029776607,0.06348292,0.035286292,0.10047073,-0.10914038,-0.002080058,0.024368202,-0.0021952651,-0.0074441517,0.06275369,0.07369204,0.044847216,0.05102219,0.050473284,-0.009017754,-0.010435763,-0.029693242,0.028935228,-0.020819249,-0.07533092,0.059020545,0.014323853,0.0755923,-0.032516193,-0.044592142,-0.0067502465,0.010435763,-0.084322535,0.015513151,0.009808442,-0.09796679,-0.079565346,-0.09305277,-0.031183133,0.05797501,-0.05065625,-0.069057696,0.09368009,-0.02428259,-0.12901923,-0.04182147,0.023041015,-0.14480683,0.075174086,-0.15473942,-0.015669981,-0.07716061,-0.045297876,-0.026726533,0.06529377,-0.06858721,-0.009553592,0.09561433,0.06853493,0.0047506574,-0.01403633,-0.054733846,-0.0023720614,0.018218476,-0.06665296,-0.02773286,-0.13393325,-0.021707956,-0.05583166,-0.06633931,0.014167022,-0.00916805,0.098803215,-0.034162913,0.021943202,-0.05865461,-0.16509025,0.03680289,0.1663449,-0.04297156,0.096555315,-0.035234585,0.09692125,0.06806444,0.02281884,0.03586191,0.11751833,0.02411269,-0.089968435,-0.1394746,-0.018061647,0.0012652627,0.104971886,0.020557866,-0.011161104,-0.046134308,-0.12211869,-0.020531727,0.039756533,0.07747427,0.008494985,-0.046343416,-0.052956432,0.05698175,0.011572785,-0.089445665,0.051126745,0.07977445,0.027837414,-0.054420184,-0.026818017,-0.021106772,-0.032019563,0.016584827,0.117204666,0.019028768,0.12786914,-0.09624165,0.039390594,-0.048617456,0.015081867,0.11469538,-0.03515617,-0.032960545,0.062209435,-0.15473942,-0.027105538,-0.010207052,0.03664606,-0.11992306,0.13424692,-0.05253822,0.036280125,0.0042540273,0.0106775435,-0.0005468647,0.07235114,0.07423311,-0.05104833,-0.019094113,-0.12609173,-0.1083176,-0.080558605,0.07141016,-0.017761055,0.07428538,-0.034293603,0.062993586,0.048016272,0.12013217,0.014010192,0.10842215,-0.15693507,-0.040200885,0.049976654,0.17376819,-0.022662008,-0.012167433,0.053243957,0.05891599,-0.041350976,-0.11908663,0.024060413,-0.09310504,-0.0598047,-0.035574388,-0.07757882,-0.048643596,0.015735328,0.029954627,0.15358934,-0.014689791,-0.17209534,0.035260726,-0.14208844,-0.08625678,-0.039495148,-0.06179122,-0.054367907,0.047467366,0.005459662,-0.017042248,-0.14783889,0.116891004,0.0008887062,-0.11323162,-2.5525798e-05,-0.15766694,0.0015454339,-0.099901035,0.09739175,0.09713036,0.014232368,-0.13058753,-0.021890925,-0.097809955,0.003956703,0.11218609,-0.008213998,0.03617557,-0.05499523,-0.106749296,-0.1891376,0.11500904,0.11762288,0.00054849836,-0.15620318,-0.11270886,0.0019473122,-0.1595489,0.015369389,-0.15264836,0.04974141,0.12222324,0.066287026,-0.13550156,0.05452474,-0.050603975,-0.1040309,-0.08672727,-0.114904486,0.023511507,-0.07449449,0.06226171,0.067018904,-0.054629292,-0.018035509,-0.027941968,-0.08672727,-0.06785533,-0.072873905,0.041533947,0.003600567,-0.054629292,-0.124314316,0.12305967,0.015330181,-0.18903303,-0.06790761,-0.04474897,0.13884728,-0.10408318,-0.012121691,0.035417557,-0.1593398,-0.16163997,-0.111035995,-0.038684856,-0.08447936,-0.1521256,0.023302399,-0.12943745,-0.1123952,0.15285747,0.15484399,-0.07486043,-0.09660759,-0.11521815,0.075174086,0.15672596,-0.113336176,-0.0077369716,-0.18286437,0.016388787,-0.020074304,0.06393457,0.016323442,0.06335952,-0.07167154,0.04098504,-0.05750452,0.077265166,0.03782229,-0.0076111853,0.043687522,0.17092744,-0.09433775,-0.08095844,0.041946847,-0.08239194,-0.061333187,-0.20983663,-0.033311736,-0.076794475,0.07542924,0.03542785,-0.19468252,3.4664172e-06,-0.059455987,0.035257194,0.1870372,-0.15304285,-0.12942429,-0.13372478,0.17051786,0.06563368,0.34704277,0.122734636,-0.026536757,-0.11037926,0.14567058,-0.09734126,-0.027014589,-0.026366102,-0.150995,-0.062152326,0.11788805,0.010862151,0.08123149,0.016621737,-0.027134048,-0.014283772,0.026314907,-0.19249815,-0.042595334,0.036042206,-0.14430535,-0.08082192,-0.16355516,0.024198791,-0.023499109,0.018208822,-0.0987065,0.19713995,-0.13215476,-0.088194184,0.032748576,-0.09044682,0.07522445,-0.08143627,0.20574093,0.09754605,-0.020051891,-0.08403022,0.073313124,-0.11447496,-0.04477971,-0.0917438,-0.117819786,0.08696547,-0.03413088,-0.032270744,0.026997523,-0.053722,0.073040076,-0.017475009,-0.21816456,0.047305394,-0.033499457,-0.07276703,-0.029574405,-0.02431825,-0.039864864,-0.05993382,-0.01402779,-0.063893005,-0.027082851,0.08751157,0.046110816,0.122120276,0.007751975,0.010409918,0.06679413,-0.040342696,0.014241109,-0.08293803,0.07474662,-0.0477491,0.016246296,-0.06624803,0.07556576,-0.026946327,0.0058790436,-0.09358686,-0.09071987,0.10969664,0.016032979,-0.16792391,0.070992224,0.10560093,0.043448605,0.011920209,-0.026058925,-0.04836345,-0.12546511,0.033840764,0.01795284,0.050889138,0.027099917,-0.15427156,-0.015247969,0.076180115,-0.047237135,-0.16150731,0.11822936,-0.18771982,0.005610263,-0.047339525,0.22963254,-0.010589104,0.073313124,-0.07181136,-0.080207564,-0.43687522,-0.05065022,0.14184792,-0.033055753,0.05949012,-0.06802284,-0.11734196,-0.081641056,0.017901644,0.041230097,-0.038090058,-0.13747917,-0.3287486,-0.013814473,0.028738199,0.17570576,-0.11276842,0.14799148,0.00035917416,-0.084576316,0.026946327,0.1550907,0.031366277,-0.064439096,0.15481766,0.04911433,-0.16041513,-0.050274782,-0.043721654,0.11051578,0.11194928,-0.11938981,0.08839897,0.048841286,-0.117751524,0.09160727,-0.11570367,-0.08375717,-0.09891128,0.03344826,-0.044609055,-0.021536583,-0.11106187,-0.025086194,-0.03737331,0.11679586,-0.047714967,-0.011638629,-0.010205132,-0.0037799946,0.021980286,-0.08921811,0.048841286,-0.06222059,0.23127082,-0.018533066,-0.013293977,-0.007662382,0.22826731,-0.0690809,0.016843587,-0.021843761,0.0749514,-0.21543409,-0.089695945,-0.03959182,0.0078629,0.41612366,0.012227386,0.05952425,0.17188309,-0.0024616895,0.033635978,-0.1574116,-0.015367427,-0.12450944,-0.046486255,-0.052425027,-0.20109913,0.6034339,-0.09699995,-0.37898925,-0.16396473,0.12730817,-0.02140006,-0.2502476,0.044472534,0.06143558,-0.05413157,-0.16505691,0.03621286,-0.1904503,-0.14676277,-0.04791975,0.033277605,-0.053960916,-0.008647911,0.016741196,-0.22594641,-0.034659907,0.056691386,-0.10594224,0.0028221968,-0.09194858,-0.07515619,-0.13556784,-0.11857066,0.02394281,-0.13263258,-0.07843275,-0.023072474,0.18785635,-0.06041165,0.012696686,0.17256571,-0.035188936,-0.09433775,-0.111471444,-0.17570576,-0.044131223,-0.13863963,-0.04242468,0.29652905,-0.07290355,-0.091675535,0.19085987,-0.02327046,-0.25420597,0.0077851713,0.042775914,-0.018258013,0.0074563,0.037468616,0.10142836,-0.04889972,-0.118212126,0.1055109,0.028396312,-0.13671963,-0.03225204,-0.1055109,-0.042186216,0.13445155,0.023474587,-0.018995138,0.088046715,0.08273941,-0.0811064,-0.038579974,0.07153512,-0.013268245,-0.023429226,-0.05896998,-0.06409583,-0.013211543,-0.038625333,0.07280524,0.12156887,-0.14098361,0.1433424,0.059741125,-0.031798426,-0.049081165,-0.09598498,0.047901765,0.04980695,0.046336792,0.0052165748,0.08056206,0.07543621,0.09752727,0.09870667,-0.0202766,-0.069947466,0.06627318,-0.089906536,-0.049943034,-0.1554993,0.128736,0.005511425,0.12828238,-0.016556956,-0.060784437,-0.013279585,-0.106962465,-0.02447254,-0.054751355,0.026014833,0.031231407,-0.018405437,0.017747695,0.04449965,-0.07552693,0.010070258,-0.005726892,-0.025651941,0.049081165,-0.052574,0.041846003,0.05851636,0.09770872,0.04980695,-0.008011979,0.039033588,0.03252421,-0.022397252,-0.11730489,-0.048219297,0.016148701,-0.08999726,-0.0066001015,0.001462909,-0.12755659,0.015933234,0.035132498,-0.07906513,0.06500306,0.011005839,0.06364221,-0.023905521,-0.16693039,0.11866574,-0.11004705,0.010461501,0.06663608,-0.11086356,-0.032410808,0.109956324,0.038307805,-0.027874654,-0.09144883,0.039691333,0.058471,-0.12029875,-0.040054224,-0.041006815,-0.036447983,0.081832185,-0.13299999,-0.101246916,-0.08341984,0.010177991,-0.090269424,-0.008193425,0.15087242,-0.030619027,0.04744815,-0.11893791,0.011964101,0.01941473,-0.008885188,-0.015309514,0.031412855,0.008437243,0.21646518,0.25057703,-0.16175918,-0.09934173,-0.009480558,0.04477182,-0.06659071,0.046858452,0.12084309,-0.08605081,0.03898823,-0.041596513,0.09031479,-0.00034942548,-0.021138469,-0.00092565856,-0.069176316,-0.0781579,-0.10650885,-0.0625989,-0.14025782,-0.123927675,0.020696195,0.071308315,-0.10061185,-0.037377894,-0.031480897,0.081560016,0.15304977,-0.03751398,-0.1941473,-0.14951158,0.015286833,0.10678102,-0.041347027,-0.045202754,0.13535878,-0.060013294,-0.07652488,0.11349452,0.0948963,-0.030233454,0.00032497276,-0.026287,-0.042775914,0.030188093,0.018586883,-0.098525226,0.04436357,-0.020594131,0.023191078,-0.028849928,-0.031753063,-0.18253475,-0.14043927,0.1988649,0.042276938,-0.13617529,-0.08269405,-0.18235332,-0.031979874,-0.0033510823,0.071308315,-0.036538705,-0.092083886,0.11739562,0.096710764,0.171648,-0.09988607,-0.21610229,0.024041606,0.041868683,0.103152096,-0.012100186,0.043116126,0.041891366,-0.062099922,-0.026128236,-0.041278984,0.022828186,0.003756501,0.05066882,-0.029983966,0.03222936,-0.03613045,0.022499315,0.13907842,-0.0017336606,0.09598498,-0.065955654,-0.11603477,0.005210905,0.021988997,-0.011397082,-0.16956137,0.17926873,-0.08165074,-0.02327046,-0.012587822,-0.14633627,-0.104512945,-0.099160284,0.061600946,-0.034315992,-0.096438594,0.043070763,-0.059106063,-0.0070196954,0.1366289,0.07598055,0.0728506,-0.033499483,0.0037990273,0.23733148,-0.069992825,-0.026581852,-0.052619364,0.022442613,0.025425132,-0.16439015,-0.017135315,0.090224065,-0.014595069,-0.069992825,0.023769436,0.123111166,0.05701943,-0.16284786,-0.009845677,0.07099051,0.05203599,-0.05432273,-0.04863129,-0.03691811,0.0350125,-0.027821979,0.0049641267,-0.008048047,0.011446393,-0.13151284,-0.089030325,-0.04797068,-0.058743756,0.052544154,0.058947023,-0.05813396,-0.05630457,-0.041288324,-0.0601158,-0.039662197,-0.03427566,0.08156032,0.0028806545,-0.036130458,-0.038290154,-0.105596475,0.019907324,0.059607636,0.06611213,-0.0074446024,0.11118628,-0.031506166,0.03033739,0.07063479,0.061437026,0.007019015,0.107019335,-0.06346968,-0.06992336,0.28314897,0.0068856217,0.026170446,-0.043219347,0.031531576,-0.07012663,0.024684066,0.040094137,-0.026627792,0.08811563,-0.1385255,-0.09594136,0.06306315,0.028406367,-0.053001504,0.037959848,0.016185023,-0.05417028,-0.08394869,-0.040246587,0.033767495,-0.010125168,-0.09619544,-0.018713139,-0.0076224594,-0.02364233,0.02066957,0.002173989,-0.07114296,-0.06956765,0.033056065,-0.1807031,-0.05757498,0.014851092,-0.033640455,0.052239258,0.008950038,0.011446393,-0.10478341,0.07068561,-0.055237424,-0.04332098,-0.025255749,0.03104882,-0.047462516,-0.04700517,0.03539362,-0.054983344,-0.061182942,0.06900867,-0.077393375,0.011141495,-0.19269578,0.09223176,-0.09314646,-0.04921568,0.020072477,0.034351885,0.0753099,-0.060420696,-0.18802068,0.07663113,-0.07637705,0.02129207,-0.030388206,-0.14025326,-0.039382707,-0.15102634,-0.029473512,-0.11057648,-0.033615045,0.056202937,-0.08059481,0.039713014,-0.08466012,-0.079680115,-0.065349884,0.06814479,-0.062402535,-0.037273828,0.042634957,0.012202287,0.030413615,0.08084889,-0.05134997,-0.10397035,0.009991774,0.016540738,-0.06865295,0.061996005,0.042711183,0.040170364,0.09721177,0.025027076,0.077342555,-0.014152367,0.042787407,-0.033132292,-0.08923359,0.0010806425,0.1527541,-0.112100974,-0.029295653,-0.0753099,-0.16434023,0.025738506,-0.026068812,0.0092485845,-0.046598636,-0.006803045,-0.05884539,-0.010646035,-0.15194103,-0.15336388,-0.0359526,0.024531616,0.06494336,0.05615212,0.07215928,-0.044388123,0.11321893,-0.007558939,-0.16840555,0.01623584,0.069364384,0.061030492,0.09827891,-0.06799234,0.11677608,0.024074268,0.030820144,-0.0026202204,0.07083806,0.11687771,-0.0021517568,-0.031938106,-0.08034073,-0.10854383,-0.067941524,0.015918236,0.0059423423,-0.0077495007,-0.07007581,0.091062985,-0.009426442,0.004589356,-0.028304733,-0.006228185,0.09009747,0.024963556,-0.09182523,0.042558733,-0.028863713,0.087658286,0.0471068,-0.01601987,0.11199934,-0.05828641,-0.0331577,0.01748084,0.120638125,0.0007169876,0.085930526,-0.029397286,0.057066813,-0.0474117,0.022549776,-0.07403949,-0.0129518295,-0.091876045,-0.0023232622,0.01227216,-0.015194103,0.009991774,-0.026627792,-0.0036270204,0.045379043,-0.05813396,-0.093298905,0.05828641,-0.034910865,-0.0722101,0.055542324,-0.00432257,-0.05996335,-0.016185023,-0.1311063,0.020999877,-0.008206848,-0.03303066,-0.08100134,0.08425359,-0.011656011,-0.05869294,-0.015105174,-0.03552066,0.017963596,0.045912616,-0.050714765,-0.026602384,0.08547318,0.14604633,-0.025789322,-0.0064854426,0.008213201,0.012202287,0.03402158,0.055339057,-0.032573313,0.017023493,0.07261663,0.006815749,0.07668194,0.037680358,0.09711014,-0.00010855846,-0.020826278,0.049244236,-0.045685638,0.018047182,-0.042059254,0.04629568,0.02729954,-0.0087016225,0.07245986,-0.010591069,-0.022741145,-0.016691525,-0.036839977,0.032874677,0.034772597,-0.032891624,-0.032484926,0.0037725389,-0.03148513,-0.030231148,-0.11048603,0.0044440124,0.01967397,0.083779596,-0.038263414,0.012065346,0.025571078,-0.009625164,-0.06127569,-0.06727447,-0.01596286,-0.01305667,0.15861185,0.021673564,-0.05290451,-0.006951978,0.019724807,-0.011650176,-0.0031709662,0.108588114,-0.029146623,0.035891015,0.014395381,0.013166817,-0.05246392,0.19467233,0.06829122,-0.047244642,0.003160375,-0.106215715,0.034247283,0.012480516,-0.049244236,-0.0019762935,-0.056869805,-0.04910867,0.032925516,-0.16661023,-0.018030236,0.062427998,0.002148928,0.030078636,-0.026248906,-0.024910195,-0.011667122,0.020317907,-0.029044949,0.05978447,-0.03528097,0.028112935,0.050125413,-0.015945913,0.03460314,-0.0139717385,-0.09842069,-0.014802079,0.013819227,0.058699943,-0.021741347,0.06239411,-0.012565245,0.0620213,-0.026503092,0.044024955,0.022622524,-0.032146014,-0.0762557,0.00031323088,0.028095989,-0.02014845,-0.0076594613,-0.019809537,-0.028756872,0.00910832,-0.032620493,-0.008921917,0.019453676,0.028536577,-0.082898416,-0.045617852,0.009065955,0.023995126,-0.029604157,0.033789746,-0.037856717,0.04026301,0.037348345,-0.044431653,0.0045456868,-0.055209126,0.028095989,-0.045583963,-0.083779596,-0.10994377,-0.056598675,0.052599486,0.015920496,-0.07361217,-0.052023333,0.04477057,0.06927407,0.02038569,-0.031383455,-0.0008102168,0.038771786,0.09516711,-0.013700607,0.06435981,0.0576832,-0.004310565,-0.06578325,-0.04429609,-0.03504373,-0.06764728,0.052565593,0.027689291,-0.028994111,0.086016424,0.03694165,-0.048532516,-0.05361623,0.033315267,-0.00028039856,0.03721278,0.039619073,0.00088170654,0.00881177,-0.028180717,0.012294113,-0.024503497,0.011184169,-0.005138787,-0.08913444,-0.016683051,-0.06405479,-0.037111107,0.05198944,0.051345505,0.05195555,0.047481883,-0.089744486,0.014810551,-0.050972696,0.018589444,0.004960857,0.030349769,-0.016335664,0.007718771,-0.02157189,-0.037314456,-0.084525205,-0.003594609,0.0039165774,0.0011417173,0.012505935,0.0246899,-0.0073459656,-0.106215715,-0.01453942,-0.03839898,0.014497056,-0.023723995,0.020877115,0.008392363,0.048261385,0.012853322,0.013692134,-0.013522677,0.067376144,0.030858139,0.014166614,0.0004710378,0.102623224,-0.046194006,-0.03236631,-0.022724198,0.054226276,-0.009209994,0.012133129,-0.044906132,0.039212376,-0.034704816,-0.042974323,0.00227708,-0.0072739464,-0.035213187,0.00940487,-0.041923687,-0.022758089,0.015327395,0.05578528,0.034552306,-0.05032876,-0.03860233,-0.0016712707,-0.015979806,0.051819984,-0.010989293,-0.04202536,-0.07523896,-0.028706035,-0.017310044,-0.014615675,0.020453474,-0.02121603,-0.043753825,0.072053164,0.033366103,0.02346981,-0.03812785,0.004668543,-0.106961325,-0.037924502,-0.024639063,-0.039686855,0.06029284,0.051176045,-0.051548854,-0.01572562,0.018860577,0.04338102,-0.050837133,0.10228431,-0.006062328,-0.00940487,0.058056004,0.008392363,0.066935554,0.011023185,0.04646514,-0.008964281,0.026282797,0.05558193,0.015505325,0.049074776,-0.057361763,0.069137044,-0.12342062,-0.1228343,-0.095716946,0.2564178,-0.039332382,-0.3060597,0.023660505,-0.058778703,0.020789973,-0.2437142,-0.105146945,-0.27244395,-0.024943084,-0.050032746,-0.11618932,0.077834144,0.08956057,-0.20423523,-0.10504922,0.17149897,0.05208487,-0.010578212,-0.044535983,-0.030268835,-0.25270444,0.06591228,-0.043754224,0.040138576,0.044951294,-0.012349391,0.14677575,-0.022353498,-0.17296477,-0.08887653,-0.3103594,0.14140114,-0.12899068,-0.026457746,0.07763871,0.026873058,0.021559522,0.10368114,0.08540746,0.3684052,0.18205275,-0.070016526,-0.026824197,-0.22592913,-0.012899067,-0.12654766,-0.062687516,-0.05159627,-0.10329026,0.002395672,-0.09869741,-0.058534402,-0.21557078,0.012850207,-0.01426715,0.10465834,-0.06806213,-0.00048249352,-0.07231295,-0.04404738,-0.019983782,-0.3056688,0.0028796922,0.3969395,-0.005716632,0.25211814,-0.10993523,0.15772042,0.073290154,0.004980677,-0.32658094,0.29746032,0.13289948,-0.05272005,-0.107589945,0.09449544,-0.1968085,-0.19553813,0.025480544,-0.09131953,-0.20364891,-0.06972337,0.10788311,0.034739535,-0.019458536,-0.097720206,-0.03239425,-0.12009814,0.0018551571,-0.083648495,-0.035448004,0.009747591,0.11794829,0.07573316,0.04385194,-0.1851798,0.18791595,-0.058338962,0.10768767,0.019373031,0.053501815,-0.017186541,0.012666982,0.02848544,-0.16524488,-0.11198736,-0.17482145,-0.24254155,0.11032611,-0.08960943,0.07656378,-0.0466614,0.005405149,0.09263875,-0.2181115,0.025407255,-0.081645235,-0.07158005,-0.026042435,0.21889326,-0.053892694,-0.011182856,-0.08013057,-0.3267764,-0.0062235557,-0.09547264,0.017797293,-0.14296466,-0.07187321,0.16485399,-0.08931627,-0.20247626,-0.20482156,-0.043314483,-0.043070182,-0.14931647,0.03224767,-0.10192218,-0.009167377,0.17257388,-0.06532596,-0.28456125,-0.030488705,0.0860915,0.031368185,-0.13661285,0.06728036,-0.21752518,0.15351844,0.10876259,-0.26931688,0.04856694,-0.21674342,-0.03701153,-0.024454482,-0.370555,-0.0020353287,0.34749305,0.19074984,0.055602796,-0.018750064,-0.05193829,0.18439803,-0.021278575,-0.060635388,0.19446321,0.018237034,-0.11325772,0.16016342,-0.18781824,-0.12449554,-0.11403948,-0.012837992,0.061026268,0.03632749,-0.074169636,0.24234611,0.06581456,0.006919812,0.27166218,0.12693855,-0.034373082,0.09249218,-0.24351875,0.2663853,-0.025382824,0.16563575,-0.26482177,0.01090191,0.033957772,-0.11951181,-0.5093177,0.1213685,-0.12097762,-0.049202126,0.08482114,0.025724845,-0.3289262,-0.02826557,-0.117068805,-0.11560301,-0.065472536,0.01166535,-0.014670246,0.4569397,-0.24332331,0.145994,-0.026873058,0.0143770855,0.09830653,-0.062492073,-0.07030969,0.04263044,0.042899173,-0.3670371,-0.0057868687,0.47843814,-0.19495182,-0.23687378,0.22592913,0.030268835,0.073339015,-0.008391723,0.23589659,-0.14140114,-0.085309744,-0.121270776,0.0030766597,-0.17423514,-0.064593054,0.055895958,-0.19807886,-0.12547274,-0.07260612,0.22065222,-0.012935712,0.058143523,-0.3027372,0.2712713,-0.35570157,0.13231316,0.021535091,0.16846964,-0.14648259,-0.13680829,0.022536723,-0.28514758,0.3037144,0.12351834,-0.17960975,-0.09422461,0.04877346,0.07129139,-0.006142826,-0.0038471972,-0.006333167,-0.027732119,-0.009742003,0.06483133,-0.06755378,-0.08070462,-0.027778262,-0.07272183,0.052049637,0.025332669,0.10437613,-0.06095529,0.066677056,0.037629858,-0.046027936,0.057356115,-0.030085428,-0.04621251,0.1196957,-0.0070310845,0.053157076,0.09810064,-0.04621251,0.033638462,0.07553657,0.069537945,-0.10169982,-0.074613705,0.07438299,-0.021445096,-0.10539129,0.027155329,-0.028585771,-0.059755564,0.031977303,-0.04692773,-0.015008106,0.07872046,0.0464663,-0.16205525,0.08065848,0.05454137,0.031054437,-0.13575357,-0.042659476,0.08407308,-0.04738916,-0.021514311,0.016692337,-0.022114174,0.010924425,-0.03576105,0.0019409023,0.099669516,0.06686163,-0.030316144,0.004770063,-0.009909272,0.037860572,-0.071106814,0.013370019,-0.06879965,-0.007382927,-0.058924988,-0.096716344,-0.28110495,0.03292324,0.14092162,0.11111305,-0.079643324,0.119418845,-0.0046806606,0.06644634,-0.08010476,0.026878469,-0.03322317,0.028239695,-0.032138806,0.0072387294,-0.0619243,-0.02060298,0.10409927,0.09754692,0.08268878,0.038621936,-0.030223858,0.14599738,0.01576947,-0.018688034,0.04487435,0.112035915,0.0863341,0.054402944,0.019345576,-0.0646929,0.006719617,0.085503526,0.08448837,-0.018076636,0.0018962009,0.08287335,0.033938393,0.0054593286,0.035322692,-0.08342707,-0.014269814,-0.033569247,0.071199104,-0.016992267,0.06409304,-0.14202906,0.053480078,-0.075352,-0.029185634,-0.022021888,-0.027639832,-0.09893122,-0.04676623,-0.07484442,-0.041528963,0.023048576,0.09260959,0.056064103,0.08365779,0.033684604,-0.14073704,0.023740724,0.11120534,0.036383986,-0.04665087,-0.14415164,0.009511286,0.032577164,0.072260395,-0.06293945,0.023025503,-0.20579909,-0.11978799,-0.11222049,-0.005940949,-0.021398952,-0.078628175,-0.06589262,-0.12477147,0.043882273,0.017995885,0.03908337,0.09002557,0.076967016,0.0017563291,-0.03936023,0.096070334,-0.04738916,-0.13538443,0.06413918,-0.06903037,-0.03548419,-0.072906405,0.017026875,0.079689465,0.0024643403,-0.1712839,-0.03908337,0.07184511,0.065062046,0.10096153,-0.08218121,-0.10834445,-0.049142607,-0.06427761,0.01743063,-0.041713536,-0.09062543,-0.14424394,-0.045035854,-0.16334726,-0.02339465,0.075167425,-0.042659476,-0.15365717,0.07004552,-0.09514747,0.07378313,0.046904657,-0.0818582,-0.050203905,-0.10945189,-0.13584585,0.022990895,-0.11895741,-0.092701875,-0.029923925,-0.11249735,-0.015527219,-0.020776019,0.0008392311,-0.028032051,0.059017275,0.05587953,-0.008980638,-0.13335411,-0.017603667,-0.09763921,0.03269252,-0.14839683,0.032161877,-0.064462185,0.017096091,-0.1190497,-0.043490056,0.021583525,0.026186319,0.040583026,0.11138991,0.10548357,0.06275488,-0.00469508,-0.026209392,0.100223236,-0.01919561,-0.14055248,0.041113675,-0.031123651,-0.020476086,0.022610214,0.196755,-0.040006235,-0.018388102,0.04845046,-0.049142607,-0.07018395,0.024017584,-0.16011722,-0.051219057,-0.043328553,0.021814242,-0.08799526,0.02941635,-0.23791482,0.0484966,-0.05564881,0.09140986,0.04794288,-0.00299643,-0.02311779,-0.026855396,0.037053064,0.012966266,-0.022541,-0.03068529,-0.075352,0.0038158644,-0.086578816,-0.19522674,-0.04604805,0.013770457,0.018779963,-0.03449814,-0.16200182,-0.037468985,-0.22238873,-0.079242654,-0.083668604,-0.13217214,-0.028617088,-0.1273218,0.069845095,0.07063328,0.047685042,-0.09640078,-0.17812924,-0.11895493,-0.035801675,-0.03198202,0.0023474954,0.18625359,-0.11410458,-0.123502135,-0.096158266,0.10543457,-0.13580991,-0.019219527,0.00911715,0.12004626,-0.098098405,-0.07481671,-0.073058456,0.040076047,-0.006673026,0.13302095,-0.087609515,-0.060386907,0.014975468,0.006949648,-0.01576365,-0.016657934,-0.16357818,-0.16030419,-0.088822104,0.025176369,-0.035831988,0.008472962,-0.27210486,-0.0059075793,0.037620556,0.025494672,0.01467232,0.06390341,0.13411228,0.08815518,-0.075423,-0.01827977,0.019840978,-0.015399873,0.10513142,-0.07008761,0.092763014,0.026813362,-0.18867877,0.024327556,-0.08269853,-0.101918064,0.093248054,0.07020887,-0.20529123,0.06766243,-0.20759514,-0.04665434,0.16078924,0.059719983,-0.077120624,0.04877637,0.06002313,-0.021174826,-0.021417344,0.019613618,-0.10761723,-0.07827259,-0.094763786,0.07724188,0.044865772,0.12313836,0.025994865,-0.06917817,0.16636714,-0.0863363,-0.064691596,-0.22978552,0.14648068,-0.057931416,0.03634734,-0.04459294,-0.01341426,0.022523832,0.09003469,0.10852667,-0.11355891,-0.07099705,0.007389211,0.008238023,0.04231934,-0.003186834,0.028874762,0.058113303,-0.19098268,0.008094028,0.05108029,0.1355674,0.019249842,0.04607836,-0.0729372,0.007950033,-0.105737716,-0.140539,-0.009541555,0.018476816,-0.11434709,-0.1147715,-0.08494182,-0.17922057,0.027161982,0.07251279,0.10003855,-0.008753373,0.13593116,-0.111921914,0.026449585,-0.00080523454,0.07111831,0.045441754,-0.04917046,-0.058325507,-0.0636609,0.076393075,-0.060083758,-0.06493411,0.101918064,0.06948132,-0.018764807,-0.020795893,-0.07524111,-0.03443751,0.06626796,-0.12586668,0.04013668,0.18746617,-0.05198973,-0.0816072,0.10082673,0.046745285,-0.0072565842,0.07063328,0.06760181,0.0034824025,0.018082725,-0.047200006,0.016991396,0.09634016,-0.017264228,