#pragma once

#include "parameters.h"

#ifndef KERNEL55_H
#define KERNEL55_H

static float bias55[FEATURE_MAP55] = {0.39651337,-0.6627487,-0.59892964,0.029584378,-0.96989644,-1.9826478,0.5522901,0.24605863,2.6500268,1.0898583,-2.942085,0.108287096,0.121977925,0.9103074,2.259633,0.121479094,0.5761855,-0.36685985,-2.0873532,-1.6080279,-1.6064074,0.40087244,-0.35130423,-0.1657876,1.9849885,-1.5459948,-1.6959544,-0.5730975,0.93970925,-0.9722002,0.6476783,0.9060124};

static float kernel55[FEATURE_MAP55][IN_CHANNEL55][KERNEL55][KERNEL55] = {0.16650912,0.1188779,-0.0399762,0.04390377,0.003927574,0.3526311,0.6456231,-0.12668301,-0.118577704,-0.16320695,0.21093823,-0.28738832,-0.7376834,0.16931096,0.16620892,0.260971,0.44469142,0.29819542,-0.42427805,-0.10096616,0.35303134,0.16430767,0.2305511,0.36123672,-0.2871882,0.020713573,-0.051733904,0.16020499,-0.07224735,-0.48832002,-0.05903869,0.15470138,0.103768,-0.09070945,-0.3276147,0.19913049,-0.5575654,-0.35223082,-0.55116117,-0.14059213,-0.1584038,0.12708329,0.5287465,0.0049188486,-0.041502196,-0.063491605,-0.146496,0.1811187,-0.20613508,0.13739003,0.47391057,0.035148032,-0.14669614,0.2055347,-0.18842348,-0.022239573,-0.11777718,-0.069145314,0.06209069,-0.14499502,-0.2947932,0.37204382,-0.2961941,0.034572657,0.19072498,0.44228986,0.080702886,-0.55676484,0.016385738,-0.5119355,-0.27357927,-0.16210623,-0.46430427,-0.12968498,-0.053735215,-0.016523328,-0.36503923,0.09045928,0.34142375,-0.2409579,-0.17921744,-0.0064980085,-0.20853665,-0.099215016,-0.1191781,-0.2133398,0.3950589,0.0039213197,0.42828065,0.29059044,-0.11377456,-0.20133194,-0.28578728,-0.1776164,-0.23655502,0.27417967,-0.026792558,0.30620065,-0.12007869,-0.39285746,-0.16690938,0.4522964,0.09090958,-0.34402546,0.334219,0.11987856,0.014396935,0.21614164,0.39485875,0.1773162,-0.025429165,0.23095135,-0.06048964,0.43468487,-0.48231608,0.14729653,-0.14259344,-0.058188133,0.3096029,0.098814756,-0.34162387,0.43988827,0.35803464,0.074698955,0.17251305,0.087257184,0.15510164,0.36563963,-0.070565194,0.13120328,0.040060017,-0.18613328,0.05596407,-0.2718373,-0.13782135,0.091825746,-0.40932775,-0.27779356,0.16297002,0.26075202,0.1498166,-0.16669269,-0.18265879,-0.22815803,-0.009161893,0.18166608,0.35141963,-0.3373562,0.008851672,-0.01611087,0.013629092,-0.004893754,0.0919912,-0.0785896,-0.16851266,-0.4228948,-0.40337148,-0.049966443,0.32064557,0.17306258,0.3075749,0.63897485,-0.45565426,0.2887134,0.04669877,0.04512698,-0.06527074,-0.2794481,0.20168574,-0.21806547,-0.03757824,-0.26654285,-0.07321242,0.16164641,-0.028478391,-0.45399973,-0.18150063,-0.19754945,-0.17091171,-0.43580005,0.5734559,0.32957998,-0.20052758,-0.12930058,0.04500289,-0.03340058,-0.5162096,-0.12251706,0.11747078,-0.43646184,-0.11556808,0.19076592,0.26422653,-0.36631027,0.007822768,0.10729549,-0.2117783,0.15122294,0.15196748,-0.096954755,0.5933102,0.08342907,-0.31617838,0.10721277,0.17157352,0.36134672,-0.0074453307,0.07482558,-0.029843368,0.078093246,0.14104766,0.00322631,0.08040957,0.01529395,-0.06746297,-0.14352943,-0.14030312,0.23609972,-0.046574682,-0.06072081,0.29466966,-0.32726365,0.53076935,-0.22799258,-0.262572,-0.049346,-0.21922363,0.35505956,-0.3497651,-0.31402752,-0.26488832,0.050462797,-0.16619633,0.19556403,-0.21343282,0.09240483,-0.059686735,-0.31832927,-0.012977625,0.0018729661,-0.5810667,-0.35439774,0.10233194,0.2258417,0.2289853,-0.18232788,-0.12847333,0.001569207,0.15808919,-0.2954969,0.015480083,0.4056878,0.21376373,0.10084287,-0.25893205,-0.060472634,-0.2599628,-0.5041583,0.5392405,-0.2808544,-0.12199922,0.30549076,0.22074172,-0.40167108,0.03897471,0.0002147982,0.047104705,-0.29011768,-0.001472022,-0.14752248,-0.08908505,-0.11450977,-0.17196174,0.21344936,0.06420233,0.13500722,-0.61925936,-0.8569509,0.3198784,-0.16220574,0.14850794,-0.15915084,0.16979374,0.16003774,-0.07893487,0.5747168,0.06139379,-0.035821255,0.36855984,-0.06962233,0.10081195,-0.26094824,0.16575338,-0.2020181,0.03013026,-0.12840466,-0.31002387,0.1480152,0.13136104,0.27573004,0.3047024,-0.1558003,0.2985926,0.4548856,-0.1427923,0.050405975,-0.3910282,-0.25582388,0.45646232,0.10406395,0.39201364,-0.04276871,-0.216997,-0.29011768,-0.17876138,0.17639628,-0.0023897262,-0.35515764,0.1115534,0.12722212,-0.37920272,0.047868434,-0.4682878,0.20458028,-0.10554213,-0.17462246,0.1406243,0.13254358,0.4075838,0.03559953,-0.23650898,0.23946534,0.366786,-0.27573004,-0.34313512,0.0065224743,0.21206972,-0.057304155,0.41113144,-0.15442066,0.3628442,0.18063374,-0.3238202,0.01600131,-0.70322007,0.25148788,-0.27198532,0.39950308,-0.013180449,-0.24202752,0.13944176,0.22074172,0.0416108,0.6807517,0.1911781,-0.08366505,0.29090604,-0.20300354,-0.42374527,0.10938541,-0.13885048,-0.2534588,0.40679544,-0.17412974,-0.72529423,0.09553978,-0.05484052,-0.2254719,-0.08011742,0.10485232,0.46316344,-0.5640739,-0.05971852,-0.6697146,0.49430376,0.11470686,0.5148012,-0.031830166,-0.40955472,0.13983594,-0.032125805,-0.27435043,0.22941372,-0.20556572,0.05868748,0.17983477,-0.07779647,0.37451145,0.5862564,-0.47593135,0.04180478,0.46974722,-0.37574828,0.16091129,0.28694406,-0.067530796,-0.468263,0.10939742,0.14891407,0.12015782,-0.13617474,-0.10451195,-0.06363479,-0.314649,0.40469006,-1.0077673,-0.028307896,0.2118686,-0.1257854,-0.2953545,0.18366893,0.035373274,-0.2277,0.6906446,-0.23685253,0.1594271,-0.25169447,-0.24501559,0.18094791,-0.027596721,-0.2636917,0.18478207,0.13555633,-0.3067333,0.04675209,0.2765547,-0.18614258,0.15868501,0.04134097,0.29708603,0.19900559,-0.42794243,0.06363479,0.7638649,0.018985307,0.027055608,-0.44154754,-0.15274824,0.5338149,-0.41062683,0.07136496,-0.1724138,-0.2829862,-0.20964232,-0.27853364,0.11861179,0.17080592,0.2844704,0.24291298,-0.06901499,0.1701875,-0.2025924,-0.11193292,0.3361698,-0.36115372,0.32874882,0.5521199,-0.114901304,0.003339435,-0.06660318,0.10834612,0.05197769,0.6104982,-0.14161679,-0.30005443,-0.4878049,-0.014192599,0.27185476,-0.16994014,-0.44847375,-0.6010983,-0.17340326,0.0808267,0.20024243,0.070066296,-0.31860685,-0.6916341,-0.4165636,0.813338,-0.30450702,0.2965913,0.17711374,-0.56448823,0.31069115,0.09690546,-0.056770395,-0.04570079,-0.32850146,0.3225647,0.13184585,-0.46306834,0.13271162,0.35793796,-0.1910899,-0.2671548,-0.07730174,-0.038898233,0.30722803,-0.40741107,-0.033332508,-0.24328403,0.09962648,-0.5214466,-0.017702099,-0.15868501,0.32850146,0.21446595,-0.059738785,0.119106516,0.038960077,0.32009104,-0.054575026,0.14575958,0.069584034,-0.030579044,0.11995318,-0.15371916,0.09420895,0.6004499,0.06271269,-0.4619037,0.25035328,0.3427589,0.056432094,-0.04278268,0.34922606,-0.29823506,-0.26813793,0.0787251,0.26689425,-0.25445744,-0.25918344,0.065293334,-0.5041889,0.37584084,0.09078882,-0.7596413,0.19637747,0.4449896,-0.26266575,0.38952136,-0.23294173,0.029055532,0.07605118,-0.5041889,0.06852691,-0.056027897,-0.16055942,0.36763254,-0.11106084,-0.58055097,-0.22038054,0.0048037237,-0.28530076,0.15546031,-0.4499643,-0.35594192,-0.37385097,-0.09277871,0.15645526,0.07605118,0.13655634,0.1253632,-0.17187692,0.0971316,0.34599248,0.45891884,0.45817262,-0.026490437,-0.053011965,0.06765633,-0.24214499,-0.39001882,-0.16341987,-0.17809533,0.28156972,0.08643594,-0.29450402,0.1414067,-0.24624914,-0.16292241,-0.030889964,-0.06753196,-0.17983648,0.2984838,0.05307415,-0.43130907,-0.1703845,0.26415816,-0.33106828,-0.12094812,-0.27783868,-0.8073987,0.26963037,-0.09483079,-0.011457425,0.17585671,-0.6128867,0.21963432,-0.4046943,0.032055914,0.54224557,0.59945494,0.17262313,-0.35594192,0.11696834,-0.38479537,0.108138196,-0.006743091,-0.3435051,0.19028342,0.22983253,-0.017240549,0.07704613,0.26938164,-0.051457364,0.5377683,0.07536716,-0.21963432,0.5974651,-0.14439154,-0.038056683,0.455934,0.13929243,-0.14103359,-0.020567399,-0.08457041,0.12349767,0.26565057,0.051612824,-0.39076504,-0.2733614,-0.4969755,-0.081709936,0.18182638,-0.0059580165,-0.20918739,0.17971212,-0.46240115,-0.119206965,0.22068195,-0.07024145,-0.0489268,-0.14360474,0.33758956,0.25448397,0.48485437,-0.2837647,-0.16384289,0.17363901,0.12304364,-0.16911772,-0.6730261,0.64073116,0.04168736,-0.0889725,-0.13671516,-0.14468123,-0.0770772,-0.43296722,-0.3184279,0.19366187,0.10576586,-0.3619184,-0.41229847,-0.009964328,0.33866605,0.028204229,-0.023696396,-0.11863,-0.5016477,-0.2719232,-0.07400919,-0.6381476,-0.013234189,0.6213542,-0.26158884,-0.06787315,0.20378093,-0.10081397,0.3879696,0.018865615,-0.3184279,0.31046182,0.36902326,-0.8293335,-0.34017316,0.35136873,0.004238708,-0.58776754,0.13606925,0.18558814,-0.05056846,-0.11313987,-0.16524233,0.4710752,-0.5955183,0.2826882,-0.11636936,-0.37096095,0.26589483,-0.13908345,0.08956458,0.087250106,-0.2779516,0.57441896,0.06184477,-0.3985193,-0.4355508,0.011727092,-0.11335517,0.09160992,0.065235734,0.26266533,-0.64073116,-0.25060856,-0.65321857,0.24264249,-0.3978734,-0.17406961,-0.13693045,-0.40476298,0.25685224,-0.38064945,-0.17503846,0.14080584,-0.26029703,-0.26374182,-0.18031329,0.29452965,1.0093238,-0.34490973,-0.14123644,0.22240435,-0.03797344,-0.3511534,-0.14015995,0.037327543,-0.10479701,0.60929745,-0.15307792,-0.5012171,-0.10398964,-0.21239291,0.36450198,-0.25857463,0.13434686,0.49088275,0.37311396,-0.009392438,-0.7531175,-0.05565491,-0.09537766,-0.06356716,-0.20388858,-0.6303968,0.18838702,0.5950877,0.017089395,-0.004366542,0.008363038,-0.4762424,-0.26029703,-0.016295478,0.24199659,0.41122195,0.2680478,-0.13230151,-0.21984208,0.19688827,0.34826466,0.2869226,-0.060550563,-0.47846818,0.19510737,0.24675344,-0.34687954,0.06500281,-0.36943758,0.26179215,0.16770132,-0.012973354,0.09448658,-0.06079791,-0.20460549,-0.018860213,0.21232273,-0.14811143,-0.51566917,0.11100937,-0.2178633,-0.22894445,0.02790075,-0.040416513,0.63874906,-0.44720352,-0.13910799,0.4293945,0.363897,0.2071779,-0.11862765,0.21093757,-0.0017468887,-0.0068762484,0.14761673,0.08192135,0.0540206,-0.21766542,0.046748597,0.36706305,-0.120903246,0.058670726,-0.35439888,0.3631055,0.12317884,-0.12317884,0.04823268,-0.030027933,0.04699594,-0.3870487,0.3268939,0.03435651,0.74441576,-0.44047567,6.492861e-05,0.13445787,0.1248608,-0.36963546,0.38210174,0.059264358,0.34252623,0.39714044,0.0763313,-0.2346829,0.3745824,0.0030284557,0.2089588,-0.23982772,0.33005995,-0.26337516,-0.28316292,-0.15256368,-0.5730537,0.06930665,0.095179155,0.29266104,-0.26179215,0.054465827,-0.46105495,-0.34905618,-0.046006557,0.50933707,0.28652686,-0.15177216,-0.18363047,0.09750421,0.18877529,-0.02748026,-0.052833334,-0.02827177,-0.44759926,0.28019476,0.130995,0.1783867,-0.101214424,-0.38724658,0.3567734,0.15404776,0.1651289,0.05248705,0.035964265,-0.1398995,-0.21687391,-0.250711,-0.15018915,-0.0894407,0.25783458,-0.48677903,0.13287485,0.23923409,0.22716355,-0.23765106,0.12921411,-0.34945193,-0.086324126,0.15899469,0.12683958,-0.2400256,0.06134207,-0.13366635,-0.06302404,-0.31047004,-0.11546161,0.15048596,-0.10200593,-0.5568277,0.14838766,0.1403667,0.08560826,-0.2681878,0.049385425,-0.008239474,0.8695537,0.26037252,0.31302288,-0.030155703,-0.290811,-0.061134066,-0.14221768,0.015759118,0.18191113,-0.10674039,0.042161427,-0.0558896,0.02374151,-0.12535311,0.4142103,0.21245246,-0.018599873,0.15939076,0.292662,-0.051287834,-0.059334494,-0.046428986,0.0672012,-0.8099107,-0.13337407,0.026633682,0.07954113,-0.292662,-0.13018626,-0.07763872,-0.42572758,-0.25337988,-0.03645421,-0.31076056,0.35004267,-0.3714319,0.08848758,0.008760065,-0.12617578,0.42367092,0.55694216,0.13429956,-0.0379967,0.17450717,0.54789287,0.11435001,-0.21080713,0.17975163,0.18869808,-0.30788124,-0.17892897,0.08504268,-0.07537641,-0.0022832083,-0.3253628,0.14879899,-0.25543654,0.26304618,-0.056146678,-0.10632906,-0.12679277,0.0797468,0.40865734,-0.38911912,0.19713037,-0.2801164,-0.18283662,-0.17759216,0.07984963,0.052958865,0.4779666,0.20484284,0.30068296,-0.4298409,0.10632906,0.2716841,0.27332944,-0.13615055,-0.17347884,0.17882614,0.076456144,0.38603413,0.29060534,0.18335079,0.0071018864,-0.2766201,-0.43354285,-0.06704695,-0.25646487,0.40495536,0.04452658,0.19270857,-0.31816453,0.33811408,0.039487775,-0.07650756,-0.001405113,0.20515133,0.08175203,-0.053524446,-0.08658517,0.33050445,0.6227551,-0.17450717,0.26263484,-0.09229239,-0.25050056,-0.48084593,-0.3033566,-0.0964057,0.082574695,0.41729528,0.047868643,0.14777066,-0.2574932,-0.45616606,0.23569265,-0.20803064,-0.14982732,0.07074893,0.1579511,-0.11980015,-0.5463335,0.18414249,0.5354704,-0.07325956,-0.05150028,-0.35715693,1.512353,-0.0060980637,-0.28349993,0.18255275,-0.11651318,0.12360067,0.08955418,0.2848247,0.41491672,-0.011061797,0.20692846,0.035338134,0.09763526,0.3606013,0.06915279,-0.14241235,-0.09896003,-0.16745043,-0.12095114,-0.07882358,0.07140489,0.31132004,-0.09591306,-0.600384,0.2061336,0.008470223,-0.016857648,-0.0049057743,-0.19553547,-0.1274425,-0.11816913,-0.29091862,0.25448754,0.010473931,0.16241632,-0.2763462,-0.11207521,-0.17486912,-0.07590909,-0.10028479,-0.5084452,0.2044114,-0.23567589,-0.107107334,-0.48274475,-0.04106775,-0.3545074,-0.75670636,0.049877442,-0.23660322,0.14108759,-0.02147777,-0.178446,-0.0646817,-0.31052515,0.13618594,0.02927733,-0.36033636,-0.12591901,0.14983104,0.04139894,-0.021875199,-0.22097097,-0.37305412,-0.19580042,0.003670016,0.3550373,-0.24826115,0.16466843,0.18917659,0.34788355,0.42551485,0.073855706,-0.15566002,-0.3256275,0.12724377,-0.19354832,-0.11439355,0.37013963,-0.10194075,0.02959196,-0.23117168,0.11532088,-0.12194472,-0.0226535,-0.39001113,0.13446376,0.3494733,0.054878432,-0.01643538,0.20335159,0.07299461,0.062727675,-0.25117564,0.31847376,0.08008211,0.06239648,-0.11830161,0.42657468,0.17486912,-0.51930827,-0.22401793,-0.16957006,0.08425512,-0.07451809,-0.005121049,-0.37861815,-0.2673378,0.22574013,-0.23236397,0.1341988,-0.1489037,0.2491885,0.34682375,0.28058544,-0.08153935,0.2922434,0.082930356,-0.09505197,-0.39027607,0.084453836,0.23580836,-0.23808298,-0.071633905,-0.047075063,-0.040519707,0.10745086,-0.1484931,0.03118545,0.06023328,-0.078711785,0.3632998,-0.05063776,0.12094159,-0.25784406,-0.3211175,0.37698054,0.2992663,-0.4001618,0.27228484,0.07068385,-0.14345782,0.12521683,0.050875273,0.14013264,-0.083984576,0.2825454,0.11628634,0.2772251,-0.16407394,-0.104410686,-0.35075912,0.11875647,-0.17138934,-0.37185025,-0.37014017,-0.087974794,-0.31313705,0.018466631,0.042348556,-0.054057945,-0.41802278,0.21034145,0.11229612,0.13595241,0.12521683,0.20825134,-0.15191327,-0.10403067,-0.038619604,-0.5559703,-0.10792588,0.0009893898,-0.08284451,-0.20977142,0.19951087,0.06275092,-0.026268931,-0.20407112,0.30515662,0.5236685,-0.13633242,0.015355212,0.2551839,0.1411777,-0.116761364,-0.5343091,0.1892503,-0.052062836,-0.40092185,-0.17205438,0.065031044,-0.44728437,0.24834353,0.020960517,-0.15428841,0.52442855,0.14630798,0.31769732,-0.02349003,0.28577557,0.08369956,-0.6296943,-0.44652432,-0.1522933,-0.3910413,-0.38344088,0.05814317,0.114671245,-0.24720347,-0.17043929,-0.059425738,-0.2958461,-0.422203,0.24321325,0.2789352,-0.3340382,-0.11894648,-0.049117677,0.46666542,0.09676277,0.2768451,-0.6490754,0.31332707,-0.28425547,-0.10973098,0.10868592,0.037859563,-0.07381902,-0.20863137,0.293756,-0.19381055,0.6695965,-0.27304488,0.1156213,0.09776033,-0.3836309,-0.13158217,-0.2055912,0.045958754,-0.2276324,0.16226885,-0.28577557,-0.008479212,0.49022672,-0.24929358,-0.24112314,0.2914759,-0.09058744,-0.15590349,0.0998557,-0.065816835,0.32606968,-0.32707453,-0.26150888,-0.1108461,-0.22307387,-0.27406934,-0.042328767,-0.3800797,-0.002847693,0.40821514,-0.14180765,-0.4160026,-0.028936172,-0.31175074,-0.006723774,0.12987521,0.07467197,-0.55115324,-0.15223284,-0.2294797,0.19393358,-0.06669607,0.026675288,-0.22269705,-0.10776879,0.05451242,-0.17195277,0.7385554,-1.027446,-0.02670669,0.030474829,0.32732573,0.50593555,0.2130255,0.43032154,-0.084594734,-0.09081216,-0.15286086,-0.04615971,-0.23701598,0.2456827,-0.16655177,0.10676395,-0.16969189,-0.06788932,-0.32757694,-0.13125686,0.058751576,-0.45217675,-0.15424252,-0.31376043,0.06707288,0.3537027,0.4936263,0.19003984,-0.27406934,0.1886582,-0.09571075,0.11442584,0.055014838,-0.21440715,0.114111826,0.52804196,-0.03104005,-0.15311207,0.64058375,-0.018919202,-0.25233975,0.13088004,-0.34742248,0.05890858,-0.41650504,-0.51799357,-0.13602984,-0.56773305,0.291654,0.6018975,0.17760497,-0.23312223,-0.43308485,-0.1215225,0.3670168,0.09822284,-0.3675192,0.07906813,-0.0836527,0.12026645,-0.3559636,-0.42228284,0.30597293,0.10029531,-0.46348116,-0.07643043,-0.464486,-0.12861916,-0.05721292,0.1809963,0.492119,0.36777043,-0.4160026,-0.04455825,-0.4619739,0.45242795,-0.13376896,0.15047437,-0.15009756,-0.232243,0.024665613,-0.33008903,-0.32205033,-0.021996515,0.23400147,0.42454374,0.21516077,0.28838828,-0.40067884,0.21264867,0.47327834,-0.078000486,0.68931836,-0.24631073,0.0032303946,0.2513349,-0.11191375,-0.1753441,-0.10582192,0.027831703,-0.05154114,0.07445685,-0.23535328,0.21896662,-0.31298503,0.5542785,0.17175259,-0.17820483,0.074354425,-0.3555903,0.23555811,-0.13938895,0.015068037,0.015708141,0.048750285,-0.054331988,0.14410011,0.005168836,-0.1934649,-0.0040326524,-0.43752357,-0.010190449,0.11757422,0.07312543,-0.021251438,0.2484626,-0.23576294,-0.19981472,0.3418665,0.3691093,-0.10282624,-0.07512255,-0.25214958,0.4686582,-0.10682048,-0.34289068,-0.353542,0.37853163,-0.035512947,-0.23965476,0.26484925,-0.064983316,-0.033285383,-0.37689298,-0.106001146,0.14410011,-0.087873414,-0.06913118,-0.1378527,-0.16304718,-0.17103566,-0.15936019,-0.049339183,0.61040276,0.18127732,-0.029188722,-0.20503797,-0.18527158,-0.23146145,0.023389384,-0.10123878,0.049851265,0.02354301,0.2707894,-0.002960479,0.0015618526,-0.1081519,-0.044295166,-0.20800805,0.011278625,0.3045869,-0.10723015,-0.1736985,0.05179718,-0.119520135,0.14194937,-0.17410816,-0.32691368,0.033976696,-0.117983885,0.018409379,-0.15464902,-0.11583314,-0.13856962,0.03369505,-0.049415994,0.058991943,-0.10907365,0.22019562,-0.35948217,-0.43424624,0.171855,-0.022890104,-0.2404741,-0.2689459,-0.25583658,0.016604286,-0.1997123,0.15731186,0.5075765,-0.045600977,-0.15987226,-0.0055240938,0.16345684,0.087873414,-0.08111392,0.39532796,0.2560414,-0.21507479,-0.25665593,-0.041197065,0.23719677,-0.030571345,0.039814442,-0.00902546,-0.2533786,-0.048417434,-0.33408284,-0.2824649,-0.00086013915,0.08910242,-0.2107733,0.3035627,-0.076812424,-0.015797757,0.10031703,0.07553222,0.29089183,0.14745864,-0.12849665,-0.26144248,-0.58729213,-0.05587962,0.029211005,0.017637832,-0.042452622,-0.45720652,-0.27648494,-0.024642648,-0.426486,-0.1393018,-0.17277661,0.061705932,-0.10593293,0.35381597,-0.40360445,-0.20953533,-0.1399374,-0.09417438,0.45720652,-0.124471195,-0.75975096,-0.088824764,0.026403783,-0.3406803,0.15773413,0.09708753,0.042002406,0.017346518,0.06700258,0.1907852,-0.35572278,-0.030217368,-0.02833706,0.2531797,-0.16589096,-0.49788478,0.14332725,0.33729044,0.20699294,0.015333791,-0.5089018,-0.035302147,-0.29618847,0.11207704,-0.009368444,-0.23813723,0.4300877,-0.013625623,-0.42161307,0.033209972,0.7737341,-0.17203508,0.017187618,0.039380565,0.31207842,0.4983085,-0.15127222,0.08988409,-0.22457781,0.06594325,0.5610208,-0.32606155,0.28686637,0.3394091,0.04661049,-0.040519346,0.14809424,-0.44576576,-0.295341,-0.63008904,-0.23199311,-0.0394865,0.07902597,0.32245985,0.10005365,-0.004982158,0.5690717,0.009348581,-0.2730951,-0.0792908,-0.25360343,-0.32860395,0.70169973,-0.14936543,0.27415442,-0.24534066,-0.16716217,0.040916596,0.33495992,0.2425864,-0.26356113,-0.11959828,0.08845399,-0.5610208,-0.9474641,-0.13326363,-0.09592227,0.19311573,-0.12775512,-0.039512984,-0.17828512,-0.2828409,0.18612416,-0.21334893,0.35487533,-0.099100254,0.37563816,0.625428,0.3741551,-0.37585002,-0.4610201,-0.19947171,0.20084883,0.27097642,-0.34089217,-0.5572072,-0.046478074,-0.12976784,0.14205606,0.21154806,0.08527601,-0.012844368,0.34046844,-0.2538153,-0.2908681,-0.073177986,0.36485276,-0.2973216,-0.22034064,-0.32221362,0.18749699,0.04361869,-0.33926928,-0.09945292,-0.24154498,-0.18208066,0.16548596,0.22460456,-0.041515544,-0.34111315,-0.054220855,-0.03370797,-0.1295308,0.06764642,-0.1256126,-0.5904945,-0.39274108,-0.30746278,0.16202874,0.25837016,0.40864432,0.29478627,-0.27750015,0.6273716,-0.01622016,-0.33373773,-0.2512252,0.2329019,0.5443981,-0.19487241,-0.19786866,-0.53149116,0.0022273909,0.08176344,-0.2781916,-0.1340252,-0.07093079,0.0717951,0.29939592,0.3378864,0.055603746,0.020282403,-0.10993984,-0.27012473,-0.36139554,-0.10907553,-0.34848857,0.1892256,0.5042943,-0.3339682,0.3058494,0.029170359,-0.17136325,0.17044133,0.11420376,-0.520889,-0.083780155,-0.4923092,-0.0061113704,0.016349806,0.06597543,-0.19325903,0.28464508,0.040276702,0.10365921,0.14577977,-0.34226555,-0.110919386,-0.35471156,0.20190209,0.51397455,-0.1872665,-0.16629265,0.058830492,0.030913377,-0.32152218,0.1923371,-0.09599569,0.31253338,-0.10694358,-0.5443981,0.32313555,-0.17286138,-0.15603621,-0.11437662,-0.18876463,-0.10792313,-0.5476249,-0.44851768,-0.15534477,-0.020772176,-0.058830492,0.005419925,0.2050136,0.4863167,-0.35494205,-0.43077058,0.59003353,0.106252134,0.032872472,0.1706718,-0.2881023,-0.13471664,-0.07738428,-0.11892863,0.20524408,-0.3339682,0.1574191,0.061596274,-0.16709934,0.11938959,0.26136643,-0.100144364,0.5821971,-0.06436206,0.47801936,-0.27980497,-0.49184826,-0.004209895,-0.24546316,0.24223642,-0.28556702,0.25395775,0.31175506,-0.37750113,0.006643656,0.295588,-0.2821154,-0.20276204,0.09875387,-0.23199749,-0.25665227,-0.13479297,0.024317972,0.20532182,0.057527833,-0.0069383685,-0.048669625,0.09888859,0.021286646,0.23644343,-0.2747055,-0.017379602,-0.198855,0.12185931,0.09127659,0.14712036,0.15089267,-0.10555751,-0.26271492,-0.048972756,-0.054968048,-0.0644662,0.4710007,0.21327063,0.13822848,-0.3661842,0.037150584,0.10057266,-0.28238487,-0.31822187,0.052778754,-0.028275536,0.014466162,0.03240151,0.042606972,-0.37399828,0.29397127,-0.14375222,-0.2893906,-0.051566225,0.03408558,-0.43651095,0.26460108,-0.30124646,0.04981479,-0.24587423,-0.16315271,0.31929967,-0.110407636,-0.08662856,-0.09451001,-0.0143061755,0.055473268,-0.09127659,0.22243197,-0.47234797,-0.13849792,0.20639962,-0.034691844,0.24075465,0.10138102,-0.16948481,-0.25530502,-0.23374893,0.20532182,-0.049882155,-0.2073427,0.081711076,0.116402924,0.3656453,0.28346267,0.5620752,0.33007774,-0.07645678,0.001984045,-0.38154292,-0.40741023,0.1383632,-0.19723828,0.09087242,-0.1816101,-0.1968341,0.13742012,0.00081309007,0.1742002,-0.16476941,0.31364122,0.38369852,0.21124975,0.09855178,0.15277883,-0.18821166,-0.41279924,0.0744359,0.034338187,-0.1254969,0.14388694,0.08797582,0.27726528,-0.13553396,-0.13176164,-0.23752125,0.01082857,0.079420745,-0.20222314,-0.1499496,0.46426442,-0.037386354,0.07881448,-0.35917845,-0.28427103,0.20613018,-0.32819158,0.21919855,-0.10858884,0.26810396,0.1488718,0.29477963,0.17231405,-0.616968,0.07320536,0.35456362,0.14652422,0.3105269,-0.06701979,-0.013811127,-0.75044006,-0.36659428,-0.14788617,-0.09686942,-0.20043513,0.18034622,0.48939767,-0.11202122,-0.23879701,0.014995749,0.0957912,0.22347496,-0.115482874,-0.34321398,-0.7204769,-0.10322523,-0.17319593,-0.30280915,-0.37385806,0.512097,0.03475836,-0.17977874,0.48304188,-0.032630295,-0.28623864,-0.14765918,0.0016705293,0.4716922,0.016230024,0.17523888,-0.069119476,0.34752685,0.41221994,0.3958764,-0.15004261,-0.36137342,0.044887938,-0.29304844,-0.3116619,-0.005834439,0.2844227,-0.26830617,-0.061969187,-0.22960378,0.0650336,-0.09953659,0.2120118,0.19532779,0.096245185,0.05456353,-0.02170624,-0.016698198,-0.2971343,0.4617045,-0.30893797,-0.04554054,0.18034622,-0.21291977,0.24424486,-0.11139699,0.29985824,-0.112645455,0.13608252,0.05036415,-0.071956895,-0.40450218,-0.16195977,-0.22835532,0.2667172,-0.048150968,-0.08824367,-0.036631055,0.017464302,-0.18284315,-0.13120216,0.4278825,-0.112985946,0.34798083,0.07774523,0.30507907,-0.1914689,-0.7726854,0.49075964,0.54433006,-0.0056429133,0.1262083,-0.06253667,-0.10367922,-0.089208394,-0.15753339,-0.25809145,0.08603048,0.0158186,0.42334262,-0.1367635,-0.19090141,-0.4862198,0.11667459,-0.13971442,0.20974186,-0.28510365,-0.11190773,0.2560485,-0.3250545,-0.2251774,-0.37907892,-0.24356388,0.14289232,-0.024926709,-0.29963124,-0.30190116,-0.01053391,-0.020216595,-0.13426657,0.22483693,-0.077064246,-0.20066214,-0.20213759,-0.19101492,0.07314861,0.13778497,-0.0879285,-0.5077646,-0.10853518,-0.19366276,-0.015655074,-0.37792248,-0.14434677,-0.07702496,-0.25068125,0.009740657,-0.5689844,-0.114136994,0.10453388,-0.13274302,0.1496485,0.06792201,-0.3955282,-0.28069097,0.10763488,-0.16795443,-0.06937248,0.15134905,0.4023304,0.53057194,-0.33250776,0.19666374,0.4665512,-0.100532584,-0.10533414,-0.28169128,-0.1055342,-0.0564683,-0.17105544,-0.29949707,0.10033251,-0.07267355,-0.09573103,-0.54777753,-0.26328534,0.20096514,0.018218404,-0.10683462,0.36611864,-0.2702876,0.10573427,0.29789653,-0.3841245,0.29169452,-0.30749965,0.022344742,0.025120642,-0.20316584,0.44134304,-0.13324319,0.07602464,-0.11953874,-0.14184597,0.12053906,0.046640117,0.219071,0.42293707,-0.07767517,0.23747696,0.3955282,-0.08212662,-0.3307072,0.11933868,-0.48975873,-0.19056176,-0.096431255,0.1894614,-0.0043670405,0.11223637,-0.24567962,-0.21186866,0.11513732,0.3197036,-0.1601519,-0.4745538,-0.2912944,0.87708426,-0.08447738,-0.027633956,-0.14184597,-0.066721626,-0.4217367,-0.14214607,0.09868198,0.09553096,0.32850647,-0.13944519,-0.552179,-0.25848377,0.09438059,-0.13414347,-0.3231047,-0.052166905,0.13984533,0.10513407,0.5125661,-0.19406289,0.19696383,0.5569805,-0.28169128,0.3931274,0.029859677,0.065621264,0.19796416,-0.14444682,-0.096681334,0.43254018,0.26828694,0.10753485,-0.07382393,0.002855613,-0.22047146,-0.17025518,0.12964201,-0.19366276,-0.10783495,-0.23827723,0.49536055,0.20126523,0.25568286,-0.15995184,-0.0014621926,-0.09483074,-0.27208817,-0.34076583,-0.10718682,0.20503047,-0.11380489,0.36152843,0.07987105,1.400436,-0.20788532,-0.2558988,-0.4741654,-0.47598213,-0.4393881,-0.082336605,-0.23993756,-0.26913494,0.032976817,-0.5089427,-0.13794139,-0.05346364,0.087073065,-0.3373919,-0.07656201,-0.23357902,-0.22306797,0.1593528,-0.27640185,-0.19438966,-0.237472,0.020389501,-0.60626733,-0.5611087,-0.23111346,-0.46378413,-0.021265423,-0.47312728,-0.15507051,-0.52840763,-0.75939137,-0.1734973,-0.09291254,0.28470686,0.37528363,-0.42355663,0.08090918,0.17648193,0.4225185,-0.13417818,-0.44146433,0.50427115,-0.28600454,0.25719646,-0.0907714,-0.5419033,-0.038021475,-0.7656201,0.21398434,-0.032181997,-0.24084592,0.19815287,-0.28392828,-0.15870397,-0.08454263,0.28237107,-0.003846349,-0.016788492,-0.4554791,-0.1463762,-0.281852,-0.26602054,0.3581545,0.0013270613,0.5330792,-0.39786294,0.13508654,0.110301204,0.17297824,0.3454374,0.21242714,0.024298707,-0.094339974,0.12438083,-0.0027352266,-0.17946655,-0.014063403,-0.167009,-0.047137544,0.31014103,-0.40694657,-0.05914091,0.2121676,-0.24331148,-0.087462366,-0.098622255,-0.09057675,-0.31818652,0.75368166,-0.19698498,0.25187606,-0.20061843,-0.05508572,0.12814404,-0.59588605,0.16545181,0.03649672,-0.021265423,0.25719646,-0.030251727,-0.33116314,-0.114129305,-0.06465597,0.3563378,0.21099971,0.07059277,-0.11893065,-0.3485518,0.31974372,0.17985584,-0.09258813,0.19361106,0.14222367,0.24331148,0.34751368,-0.044380013,0.21138902,-0.17570333,-0.33609426,0.07954663,-0.04833788,-0.102241956,-0.013825809,-0.19961138,-0.0788132,0.030676648,-0.16566607,-0.2126048,-0.15291628,0.22072569,0.3235361,-0.017023407,-0.17216279,-0.19961138,-0.15746398,-0.050917957,-0.75751626,0.092496894,-0.16436674,0.14122221,-0.060459998,-0.4573683,0.024809306,-0.0824676,0.13212682,0.13253286,-0.30031037,-0.6071175,-0.12498044,0.07052989,-0.08059979,0.12506165,-0.06464225,-0.20821953,-0.18759248,-0.23323186,0.4960237,0.06744396,-0.12197571,-0.13180198,-0.080884025,0.06403319,-0.2575945,-0.23712988,-0.21942635,-0.35277128,-0.43300566,-0.08843645,-0.2199136,0.37680912,-0.08908612,0.05343543,-0.28569278,0.12156966,0.16079354,-0.29722443,0.11799648,-0.20399666,0.10500306,-0.12303142,0.006882451,0.463865,0.20870678,-0.39987242,0.25142264,0.045883007,-0.6022449,0.039162975,0.016241772,-0.16387948,0.0063342913,-0.046289053,0.2978741,0.026778622,-0.12457439,0.5158387,0.13188319,-0.44762325,-0.40929267,-0.032544453,0.01869834,0.013094929,0.24476351,-0.5697614,0.06188115,-0.5317556,-0.036320664,-0.43235597,-0.26506573,-0.019307407,-0.27367386,-0.13789265,-0.14089738,-0.7003452,0.021946695,-0.55124575,-0.036686104,-0.22657272,-0.20529601,-0.11109372,0.44989708,0.060500603,0.18271995,0.09314656,0.17979643,0.24703735,0.11434208,0.17800982,-0.13172078,-0.14991155,-0.13764901,0.14097859,0.15527135,0.39987242,-0.009846575,0.051445816,0.37356076,-0.15031761,-0.06586039,-0.24979846,0.18369445,0.12831,-0.2933264,-0.3170394,0.11556021,0.26100528,0.25061056,-0.33620468,0.1869428,-0.26937872,-0.024759928,0.33986384,-0.10590213,0.1726071,0.076591484,0.3801078,0.6964766,0.02824929,-0.45198864,-0.087292194,-0.62855035,-0.1235234,0.2306468,-0.022593617,0.3077617,-0.034137588,-0.513634,0.18656453,0.09741134,-0.17295602,-0.37522268,-0.3375376,-0.36545247,0.08089504,0.049258154,0.4324482,0.05652766,-0.3387007,-0.40220708,0.31520566,0.35196027,0.116195746,-0.6155234,0.4903716,0.34219006,-0.50619006,0.45036027,0.33428085,-0.3056681,0.24820992,-0.15725389,0.16446525,0.27821845,0.12503546,-0.7164823,-0.09805106,0.18830922,-0.07222979,-0.24890779,0.31916028,0.06397163,-0.15795177,0.22855319,0.35428652,0.014560815,-0.3049702,0.15830071,0.43058723,-0.56574184,-0.2654241,0.37894467,-0.08170922,0.5406184,0.33823547,-0.59784395,0.0018046543,0.2972936,-0.6299461,-0.6155234,0.071822695,0.6583262,0.38755175,0.0887461,-0.30264395,-0.34847093,-0.7323007,-0.14783262,-0.391739,-0.47734466,0.2768227,-0.2844993,0.076824114,-0.1804,-0.17958581,0.15329929,-0.24239433,0.61784965,-0.33451346,0.055248227,-0.10956596,-0.6373901,-0.3184624,-0.5094468,-0.078801416,-0.11549787,-0.389878,-0.05047943,0.40941843,0.12794326,-0.12212766,0.6308766,-1.178939,-0.11526524,0.24867517,0.5248,0.09543404,-0.22041135,0.28031206,0.027318794,-0.46175885,0.2603064,-0.15295035,-0.07275319,-0.5587631,0.36894184,0.1486468,-0.61319715,0.20389503,-0.6322723,-0.907234,0.50712055,-0.25425816,-0.395461,-0.25309503,-0.51782125,-0.13608511,0.38964537,-0.059533987,0.28288716,-0.025102828,0.04521608,0.16512083,-0.073820904,0.88014853,0.15036903,0.11962582,-0.03632162,0.20082262,-0.269499,-0.09632048,0.53602284,0.2320617,0.40858725,0.339415,0.39445528,0.06619708,0.14999714,-0.007643191,-0.22239245,-0.08367609,0.0041721826,-0.2180537,-0.12625793,-0.17677349,-0.17243473,-0.9431225,-0.30420908,-0.08857269,0.027830048,-0.35503456,-0.41354585,0.32255584,-0.36346415,0.077911735,0.17516194,0.06384176,-0.1900377,0.17516194,0.4108186,0.11714653,0.09979149,0.14912939,0.40759555,-0.07084576,-0.05708569,-0.018641174,0.8657686,-0.19425249,-0.13524535,-0.2026821,-0.2054093,0.16809598,0.5538737,-0.019059554,-0.17739332,-0.28263924,-0.6515578,0.12991488,0.70263124,-0.29032505,-0.06948215,0.21854955,-0.20764066,-0.18433534,0.34759668,-0.19127734,0.029147172,0.32974577,0.35404283,0.039575692,0.1973516,-0.044193372,-0.19028562,0.36346415,-0.10543188,-0.24086317,0.17305455,-0.49635416,-0.054792345,-0.24036732,0.5151968,0.77353895,-0.49189144,-0.5290808,0.49015594,-0.21111168,0.5548655,0.20491345,-0.39594287,-0.048284203,-0.40238902,0.20181434,-0.12080348,-0.37957954,0.3054487,-0.13028677,-0.012504927,-0.8022988,-0.098365895,0.3503239,-0.62974006,-0.34536532,0.6451117,0.3689186,-0.055846043,0.025226792,0.073820904,-0.18731047,0.30569667,-0.6778383,-0.24135904,-0.23516081,0.50751096,-0.3783399,0.0070776027,0.24594572,0.22412796,-0.30123392,-0.2722262,0.48569322,-0.57370806,-0.17565781,-0.20280606,0.55635303,0.3332168,-0.34465605,0.15329795,0.29479018,-0.4091469,-0.24721496,-0.093212195,0.7372397,-0.14871663,-0.23435202,0.34500846,-0.09153825,-0.23223756,-0.23576166,0.30289558,0.5529298,-0.17312095,0.070481814,0.09779351,0.16880395,-0.3550521,-0.18034534,0.083829306,0.04024071,-0.098674536,0.295495,-0.013556736,-0.037487514,0.008149459,-0.318754,-0.381659,0.23858093,-0.55574906,0.27822694,-0.17426628,-0.18342891,-0.26941672,-0.2028114,-0.2919709,-0.002786234,-0.037091054,0.24827218,0.11092075,-0.2414002,0.11814514,0.2098596,-0.32809284,-0.136118,-0.12149302,-0.39786983,0.118057035,0.12995084,-0.07907178,0.019955162,0.05827965,0.2769935,-0.233471,-0.31029618,0.1285412,0.17576402,-0.5092311,0.08255182,0.12325507,-0.1478356,0.3430702,0.2764649,0.1130352,0.119642876,-0.17743796,-0.11180177,0.06065841,-0.14501633,-0.25443935,0.39505056,0.13215339,0.18589577,0.52050817,0.18977228,0.10087709,-0.099907964,-0.43698722,0.26430678,0.15920079,-0.06924838,0.13136047,0.0565176,0.078631274,-0.73864937,0.2022828,-0.107660964,0.37989697,0.16845153,-0.62376404,-0.4472071,0.071671195,-0.4711709,-0.17206372,-0.38306865,0.09796972,-0.16554415,-0.21708398,0.3658006,0.32826903,0.32932627,-0.17453058,0.43804446,-0.04198073,0.3145251,-0.14607355,0.23012312,0.22043186,0.21637917,-0.044447593,-0.17118269,0.20193039,-0.14078742,0.29320434,-0.3696771,0.06929243,0.06365389,-0.18184307,-0.10774907,0.043346316,-0.29831427,-0.19593944,0.29408535,-0.08929165,-0.25972548,0.1052822,-0.14540206,-0.2088738,0.13039769,0.104922645,0.16904204,-0.49827462,-0.023059774,-0.255614,-0.0051240195,-0.3572983,-0.37392187,0.5064784,0.36981994,0.027269633,-0.10470676,-0.2933948,-0.057534743,0.5012971,-0.050734203,0.08954047,-0.46027794,-0.39615855,-0.19246612,-0.23683158,-0.029954769,-0.058668166,0.20595928,-0.26554498,-0.09213115,0.27266935,0.4831623,-0.06363364,-0.2741806,0.27072632,0.07933965,0.15263438,0.09531553,0.04617352,0.14259548,0.39723802,-0.05726488,-0.18523382,-0.07248514,-0.13266455,-0.07890788,0.0068545146,0.12651166,-0.23380911,0.2074705,0.00076995225,0.03168189,-0.29728085,0.32340354,-0.0016680893,0.112694696,-0.28497508,0.46545932,-0.6014702,-0.049789682,-0.4922297,-0.0006839335,-0.511228,0.030899288,-0.30893892,0.38946596,-0.37672845,-0.23229788,0.4987064,-0.1459418,-0.10335744,-0.41904292,0.22560528,0.22236693,-0.14000481,0.44020015,-0.34542435,-0.2452513,-0.09526156,-0.024368608,0.44516563,0.40069225,0.34909448,0.023505047,0.10826895,0.51554585,0.01693389,-0.5120916,0.22949131,-0.4460292,-0.42724675,-0.081444584,0.19872695,-0.21599817,-0.39205664,0.053108994,-0.2821685,-0.49093437,0.17217246,0.16623548,0.121870026,-0.24244472,-0.0947758,0.044203524,0.15544096,-0.17433135,0.023397103,0.067897476,-0.32750547,-0.6006066,-0.15598069,-0.73186785,-0.38687527,0.2914518,-0.121870026,0.9300551,-0.16850232,0.30893892,-0.2227987,-0.26424962,-0.3113137,0.28367975,-0.13881741,-0.8130426,0.4170999,0.044338454,-0.065792546,-0.19300586,-0.2196683,0.031269465,-0.008503338,-0.101333715,0.42141786,-0.0694394,-0.3940333,0.025958275,0.005660969,-0.0856854,-0.27210683,-0.02609411,0.2408102,-0.35121778,-0.19832067,0.8615267,0.17789093,0.31774777,0.008435421,0.09383556,-0.16952343,0.21896777,0.08117564,-0.04721662,0.36099797,0.33209205,-0.35752055,-0.67026955,-0.023540393,0.1727835,0.1284466,-0.08459871,-0.27601892,-0.04860215,-0.06253893,-0.21657705,0.0972043,-0.025007423,-0.030264279,0.08144731,-0.42576462,-0.15746118,-0.0075389026,-0.2418969,-0.40403083,-0.018215619,-0.3681701,-0.2523291,-0.39207727,-0.014086202,0.279279,0.692438,0.1451816,0.05063969,0.07992595,0.08595707,-0.35556453,0.14985436,-0.1448556,0.016069409,-0.25298113,0.46814546,0.04001731,-0.3842531,0.28884184,-0.1434429,-0.82457936,-0.18647577,-0.25298113,-0.61941254,-0.20581883,0.050884195,-0.06166958,-0.08095831,0.30036074,0.5502991,-0.19592996,-0.32578924,0.313401,-0.055366788,-0.2418969,0.0060854563,0.10736484,0.29688334,0.20516682,0.27275884,-0.06031122,-0.5468217,0.062321592,-0.46336403,0.3186171,0.17876028,-0.19712532,-0.8111044,0.02906892,-0.26450002,-0.24407028,0.016069409,-0.45901728,-0.037001748,0.1797383,0.061071903,0.3399162,0.5311734,0.39881474,-0.0032821393,0.12572987,-0.09573727,-0.06194125,-0.007029517,-0.011267602,-0.63506085,0.17582622,-0.072645135,-0.15452713,0.53291214,-0.4837938,0.027805645,-0.12562121,0.38490513,-0.2240752,0.16669804,-0.6728776,-0.10176839,0.09524826,0.3249199,-0.4816204,0.2125563,0.48944455,-0.20617531,0.18451336,0.07523658,-0.19553775,-0.60614765,0.060440697,-0.046998687,-0.51911306,-0.32725012,-0.35703528,0.017962975,-0.04204255,-0.5326518,0.30404088,-0.45412722,0.027464254,0.12910134,-0.19621468,-0.30384746,-0.3307315,0.123395726,-0.2624577,0.1267804,-0.109857015,-0.56978655,0.5318781,0.14621814,-0.1701043,-0.47733647,-0.25974995,-0.0916281,-0.22261518,-0.25974995,-0.09032258,0.19389376,0.11914071,0.13064861,-0.20017959,-0.11981764,-0.32028735,-0.021480624,-0.1209781,0.1456379,-0.1078262,-0.15279408,-0.586033,0.26806659,-0.08543897,-0.56437105,-0.2231954,-0.0025808178,-0.24988602,-0.3535539,-0.1493127,0.14051254,0.10598881,-0.21758652,0.14882918,0.6158182,-0.034451198,-0.19747184,0.07238378,-0.026618084,0.46263728,-0.28760102,-0.008757857,0.411577,0.13596739,0.15830627,0.64985836,0.060779165,-0.027415901,-0.094287485,-0.17242523,-0.010323271,0.6127236,0.42279476,-0.48352557,-0.48584652,0.028528009,-0.045693167,0.061891273,-0.13828832,-0.637867,0.27483594,0.3061684,0.22261518,0.17136146,0.114305444,-0.034813844,-0.17348897,-0.96086204,0.1494094,0.1455412,-0.5218208,0.05647579,0.5763625,-0.07799268,-0.50402707,-0.13906196,-0.28837466,0.26806659,-0.05067348,0.13403329,0.5067348,0.013840919,-0.09622159,-0.046007458,0.52452856,0.09438419,0.4726946,0.12977827,0.06406714,-0.10995372,0.012752987,0.49010152,-0.32241485,0.033169854,-0.43207845,-0.13558057,-0.21333149,-0.09245009,-0.09757546,-0.41119015,0.3189335,-0.37850383,-0.12987497,0.305975,-0.061984982,0.035096657,0.06421813,0.19072302,-0.22488417,-0.116184115,-0.12928124,-0.3913443,0.47053057,-0.31867644,-0.23526528,0.06421813,-0.2735306,0.372272,0.26314947,0.19253367,0.20569116,-0.7517867,-0.037239272,-0.07103829,0.26049384,-0.09210232,0.3674436,-0.05483287,-0.23055758,0.8961568,-0.09379227,-0.14630145,-0.22222853,-0.16078675,0.20907106,-0.024096888,-0.17672057,-0.14328368,0.4886372,0.121555746,-0.010358493,-0.4582181,-0.21896935,-0.27328917,0.028321765,0.17563418,0.2476985,0.044421565,0.22898833,-0.39472422,0.34354284,0.18275611,-0.6726004,0.026511103,0.45338964,-0.04550796,-0.09729288,0.17720342,-0.5079509,0.7686862,-0.12095219,-0.17611702,-0.048586085,-0.16271812,-0.025817016,0.38241172,-0.19784495,0.12445281,0.7290931,0.53740436,0.3744448,-0.20110415,-0.13205758,0.043606766,-0.58713716,-0.181549,-0.39641416,-0.2926029,-0.22850549,0.3474056,0.14437008,-0.12203859,0.08624785,-0.19470647,0.18348037,0.046081338,0.14919852,-0.3920686,-0.12059006,0.006050627,0.11443381,-0.30056983,0.2229528,0.23140255,-0.120227925,-0.58086026,-0.06747732,-0.16525304,-0.094878666,0.28536028,0.5166421,0.52147055,0.20991603,0.609348,0.36116663,0.27980757,0.63493866,0.106225476,-0.11177818,0.29381,-0.22017644,0.17285782,0.011316635,0.13664459,0.44180143,0.18987805,-0.022029717,-0.39593133,-0.17442706,-0.21329594,-0.18070403,0.35923526,-0.057971347,-0.3012941,-0.12240072,-0.030509647,0.09536151,-0.36816785,-0.099465676,-0.28294605,0.06820159,0.3754105,0.14940773,0.29792148,-0.0154771665,0.36742905,-0.09398048,-0.10470834,1.0307682,-0.07196603,-0.23355435,-0.43537214,0.090013415,0.10359085,-0.01243202,-0.04050883,-0.15544215,0.21768607,0.09006929,0.56723535,-0.22640245,0.08247039,0.03874879,0.0705133,0.14773151,-0.19511287,0.042715862,0.17242792,-0.15387768,-0.44252405,-0.31513074,-0.1481785,-0.369217,-0.11146912,0.06587574,-0.19544812,-0.2664084,0.016454965,-0.32295313,-0.13745065,-0.3564777,-0.19991806,0.2156746,-0.32205915,0.13990912,-0.18427327,-0.2673024,-0.48767042,0.19880056,-0.24741116,-0.34977278,0.07744171,0.61372274,-0.33748046,-0.016063847,-0.33301052,0.3263056,0.15667139,-0.019402333,0.111525,-0.03506109,-0.2260672,-0.29322806,0.22807868,-0.18427327,-0.11415108,-0.14002086,0.4751546,-0.49884528,-0.23511884,-0.2364598,-0.11621843,-0.2534456,0.15141921,-0.007703662,0.045761008,0.23377785,-0.296804,-0.2373538,0.53236985,0.11264248,-0.03251881,-0.01437365,-0.09124265,-0.3866498,-0.17566863,0.042687923,-0.7513969,-0.24316472,0.39089623,0.28495866,0.19623035,0.08409074,0.040927887,-0.2818297,0.20740521,0.41860986,0.12962826,-0.40296507,-0.28250018,0.49392834,0.53505176,0.6222156,0.20639947,0.037826866,-0.2892051,-0.26372644,-0.16527602,-0.113815844,0.124487825,-0.042967297,0.12638755,-0.6141697,-0.44632348,-0.023928147,0.070233926,-0.39938912,-0.11610668,0.13007525,0.18427327,-0.13890338,-0.0136193475,-0.4747076,-0.37301648,0.05428183,-0.20673472,-0.33725697,0.05534344,0.45012292,0.22193252,0.34341243,0.20121959,-0.45917535,0.43979344,0.017190443,-0.09823111,-0.15734597,0.21390593,0.097966805,0.16809413,0.040063314,-0.19117624,-0.301477,0.41124913,0.17972328,0.061185203,0.11241515,0.18078047,-0.040702038,-0.79994476,0.5610185,0.1994576,0.20650557,0.38552403,0.33054987,-0.0501287,0.16016516,-0.23099726,-0.32544008,-0.075853795,-0.24756001,-0.009294513,-0.28967163,-0.2998912,0.16923942,0.099905,0.4207639,-0.07765984,-0.09453092,-0.11118175,-0.4690425,-0.10580768,-0.0496882,0.4930056,-0.26165596,-0.0493358,0.053740785,0.1506504,-0.20298158,0.7964208,-0.0874389,0.058410063,-0.13153277,0.39116243,-0.23875004,0.086205505,-0.60823995,0.24051203,-0.06862962,-0.41336355,-0.8344798,0.50886357,-0.14571682,0.023412481,-0.06567828,-0.16148666,0.11637963,0.019525085,0.036341105,-0.40420118,0.19998619,-0.09153553,0.10439808,0.068893924,-0.5638377,-0.59942997,-0.3420028,0.22007291,0.23469746,-0.21232015,-0.56207573,-0.3700185,-0.46622333,0.2951338,-0.95006657,-0.45424178,-0.7421514,0.5909724,0.4944152,-0.14139993,-0.26835153,-0.5444558,-0.63819385,0.37953326,0.25284597,-0.16298434,-0.43133587,0.1265992,-0.29971498,0.06462109,0.1230752,0.37847608,0.18589026,-0.09197603,0.0029898817,0.13364716,0.16351295,0.48137647,0.15276478,-0.1488884,-0.1232514,-0.10994836,-0.25566518,-0.39362922,-0.7477898,-0.10765777,-0.18465686,0.348346,-0.3485222,-0.17690408,-0.4204115,0.008809964,0.5148543,-0.00098355,0.2722279,0.5740573,-0.33019748,-0.3513414,-0.056222104,-0.21119551,0.2590046,0.18589847,0.20237637,-0.21490884,0.45209765,-0.05056508,-0.5045484,0.027951494,-0.35926446,-0.37156487,-0.019973641,0.332807,-0.13495626,-0.23161882,-0.043863684,0.23127069,-0.48644593,0.4049848,-0.23811714,-0.54075336,-0.10658411,0.3026362,0.08534852,-0.44652766,-0.20608969,-0.4339952,-0.17069703,-0.17081307,0.08140311,-0.05210263,-0.15851268,0.058629964,-0.567675,-0.06469313,-0.27849957,-0.29242456,0.29265663,0.17696327,-0.28174874,0.15317477,0.113546595,-0.0020107816,-0.15108602,0.6261599,-0.46254137,0.0033579506,0.05520674,0.70924556,-0.019219372,0.10983327,-0.030750996,0.00630613,-0.06353272,0.008383998,0.20759822,-0.38409734,-0.40962645,-0.22755736,-0.30333245,-0.43840474,0.10310286,-0.11615753,0.36483446,-0.4142681,-0.05311799,-0.24902503,-0.68139565,0.22303174,-0.32236326,0.1616458,0.09596631,0.16628745,0.060109492,-0.007448413,0.27316168,0.22778945,0.45163348,-0.031273182,0.18508618,0.052508775,-0.2866225,0.15166622,-0.04426983,-0.3806161,-0.51336753,-0.22013071,-0.16791204,0.23486798,0.20771427,0.41774938,-0.38386524,-0.46532637,-0.1574683,-0.2696804,-0.29103205,0.010661312,-0.046329565,0.15236248,0.06057366,-0.6707198,0.13890167,0.17371412,-0.0964885,-0.45766765,0.2903358,-0.3325749,-0.52543586,0.17835577,-0.6331224,0.2508817,-0.04197801,-0.27664292,0.08354987,-0.13077876,0.11035546,-0.5449308,0.48783842,-0.30890244,0.08465227,0.33605614,0.091208614,-0.4611489,-0.2905679,0.66468567,-0.30611745,0.06765219,-0.6172754,0.17095202,0.34970728,0.09959368,-0.31685162,0.5026914,-0.102057844,-0.42260572,0.17126004,0.0554439,-0.39488378,0.8267302,-0.35340354,-0.59016955,-0.29816496,0.043148704,-0.7031108,0.29713824,-0.081061035,-0.0672514,-0.46162182,-0.2406676,0.19046007,-0.6185075,-0.5708668,0.09779688,0.38071477,0.16068465,0.2264986,0.004825673,0.14302473,-0.14497553,-0.01975189,0.15288143,0.6086508,0.04322571,-0.32670832,-0.5412967,-0.63986367,-0.051003255,0.41706133,0.1356322,0.17074668,-0.16325149,-0.32342276,-0.20853066,-0.021291997,-0.34518963,0.022562588,-0.005958294,0.44560468,-0.67189795,-0.122387275,0.473532,-0.53431493,0.123105995,-0.2948794,-0.16058196,-0.24189968,0.21951678,-0.08814553,-0.5347256,0.175367,0.049155124,-0.22814138,0.29159385,0.75485843,-0.42342713,0.21602586,-0.21561517,0.24641734,-0.42219505,-0.355457,0.1918975,-0.2634612,-0.6944862,0.53226143,-0.8567109,0.0073540173,-0.65998775,-0.9511709,0.23697133,-0.16848785,-0.42712337,-0.26489863,-0.21253495,0.14302473,-0.025527297,-0.45176512,0.0057144435,-0.464086,0.41254368,-0.25298846,0.6525952,-0.4117223,-0.6086508,-0.02411553,-0.2064772,-0.10503539,0.017878091,0.18727717,0.56265295,0.011813914,-0.14990388,-0.096770145,-0.12413273,-0.020945475,-0.87396014,-0.07402787,-0.10996374,0.37332228,-0.008457761,0.644792,0.0019844938,-0.29159385,0.18019268,-0.46655017,-0.710914,-0.19210285,0.015657768,0.6230252,-0.122284606,0.42794478,-0.16099265,-0.10955304,-0.1879959,-0.14292206,0.33594897,-0.046380825,-0.3893391,0.14987373,-0.38102433,0.21847057,0.133556,0.64938354,0.010620819,-0.16338523,-0.21410532,-0.1747141,-0.3959909,-0.08501852,-0.05726798,-0.21722336,-0.23406078,0.35919806,0.020981802,-0.24258341,-0.16764654,0.11703039,-0.010822193,0.27251658,0.088292465,-0.48724553,0.113808416,0.128775,0.21348172,-0.13043796,0.010737746,-0.011231435,-0.17045279,-0.32926488,-0.020059383,0.5367184,-0.16806228,0.09244985,-0.39703026,0.0016808178,-0.11037857,-0.028608005,-0.102843314,0.22948766,-0.043106884,0.1575649,-0.3731253,0.2758425,0.107988074,0.3124275,0.4277949,0.16380097,-0.34048983,-0.005203227,0.22824043,0.2446621,0.08086114,0.18500364,-0.11661465,-0.08834443,-0.031388257,-0.3737489,-0.45648086,-0.2548477,-0.029049728,0.015174455,0.5063695,0.23967324,-0.13875273,-0.31450617,-0.24279128,-0.049862634,-0.19123971,-0.15475866,0.19716398,-0.31450617,-0.13220485,-0.0014177333,0.08257606,-0.17845576,-0.6103041,-0.61903465,-0.024320703,-0.34256852,0.20599842,0.4277949,-0.07135112,-0.11609498,-0.12025236,-0.026893085,-0.19196725,0.27750546,0.09348919,-0.27023003,-0.32469177,0.06688193,-0.3845581,0.13584255,-0.06916849,0.4685373,-0.08543426,0.1530957,0.13220485,0.33986622,0.23239782,0.08553819,0.017954707,0.18926495,-0.051811412,0.13740158,-0.2311506,-0.44608742,-0.21493681,0.20485514,-0.3631476,0.013017812,0.2824943,0.23489225,0.17876755,-0.12181138,0.048979193,-0.2594208,-0.5832811,0.18469183,0.48017797,-0.5870228,-0.014226052,0.3063993,0.08086114,0.007608764,0.06385791,0.5011403,-0.3540797,-0.20823452,-0.30100825,0.44401756,-0.10675058,0.0005613995,-0.24834195,0.23942919,-0.092064776,-0.08613981,-0.0571227,-0.02415561,-0.06021178,0.3579284,-0.05448938,-0.1588092,-0.13723627,-0.108269796,0.34233108,0.13359015,-0.1898013,0.24165738,0.39519995,-0.11556206,-0.030511016,-0.24611376,0.58459616,-0.01824331,-0.10366149,-0.2623188,0.14311059,0.30566722,0.27730843,0.26535723,-0.36076427,0.3856795,-0.05661629,-0.1142454,0.102395475,-0.14918748,-0.19425769,-0.0044532157,-0.03595489,0.12315816,-0.10300317,0.23679587,-0.22018573,-0.27771354,0.106649294,-0.08983658,-0.2811571,0.2655598,-0.4950634,0.029675445,-0.09454617,-0.06152844,-0.12619661,-0.062034845,-0.08796288,-0.14939004,-0.13895805,0.1349068,-0.18909234,-0.35023102,0.12832351,0.35326946,-0.30728772,0.01824331,0.0050387485,0.41646904,0.086241096,-0.30404672,0.13257733,-0.577709,-0.17815395,0.018142028,0.120524846,0.3046544,-0.22930105,0.2442907,-0.14807338,0.13348886,-0.09611603,0.14351572,0.14604776,-0.27021873,0.19952431,0.3498259,-0.052159913,0.37008217,-0.26859823,-0.3155928,-0.044184003,-0.12862736,0.16194893,-0.37109497,-0.009083674,0.22342673,0.5270683,0.36035916,-0.5011403,-0.022016041,-0.015660634,-0.20225891,-0.1115108,0.23882149,0.17612833,-0.015268168,0.10244612,-0.13733755,0.26191366,-0.2426702,0.20580377,0.23375742,-0.06005986,0.23132667,-0.38669232,-0.12001844,0.21005759,-0.42295104,-0.11191592,-0.20225891,0.080873184,-0.085380204,0.21552677};

#endif
