#pragma once

#include "parameters.h"

#ifndef KERNEL9_H
#define KERNEL9_H

static float bias9[FEATURE_MAP9] = {3.7204561,3.2474854,2.279387,1.4596984,2.2387776,0.12485051,0.23420769,4.1062956,2.2293987,0.57304364,0.16154778,2.6185944,4.181649,4.048558,1.9952215,2.3742852,0.29132587,2.8392034,0.05782461,0.5771255,0.7894991,0.47387487,1.6975842,-0.37789214,-1.4916036,1.5507002,0.4497378,-0.6731193,2.0650213,4.052207,0.1061368,3.7908945};

static float kernel9[FEATURE_MAP9][IN_CHANNEL9][KERNEL9][KERNEL9] = {-0.25579265,-0.3498019,-0.121155344,-0.011181818,-0.02295575,-0.11538605,-0.010764304,-0.016002223,-0.15692502,-0.018446585,-0.08307795,0.028922424,0.01694353,0.031548973,0.07245029,0.15401,-0.22518498,-0.02102759,0.14295724,-0.19567044,-0.01285188,-0.037044995,-0.120912425,0.14332162,-0.28834364,-0.1282607,-0.16518423,-0.31044918,-0.008046659,-0.002522172,0.0161085,-0.010354379,0.039049067,0.13214739,-0.05766266,0.21170303,-0.21583264,0.16469839,0.03312794,0.10263285,-0.113746345,-0.087389745,0.047672655,-0.09892835,0.13226885,0.05007147,0.33887058,-0.00278217,-0.2550639,-0.15413146,0.06273357,-0.123463064,-0.039990373,-0.02199926,0.09619553,-0.01752046,-0.1350624,0.06261211,-0.10038586,-0.28008443,0.22178413,0.043391224,0.04624551,-0.07961637,-0.13079649,0.017858192,-0.05238403,-0.33473432,-0.21666123,0.037515838,-0.10716733,-0.21302597,-0.5185328,-0.029281983,0.14904547,-0.31641263,-0.41790897,-0.2547587,0.019266853,0.098660834,0.0044213794,-0.17245652,0.047730904,0.22858486,-0.3018716,0.051293455,-0.13937569,-0.030227149,-0.031917542,0.14751866,0.08070267,0.10411371,-0.042096257,-0.023883628,-0.21971484,-0.11262021,-0.022538584,0.093062535,0.18976033,0.31990248,0.1453375,0.06616165,-0.12432574,-0.025519492,-0.22175059,-0.11152963,0.13886675,0.15733385,-0.039478872,-0.17609178,-0.10513159,-0.14061168,-0.10091469,0.10622216,-0.01537713,0.09342606,0.3830105,0.16416813,-0.1081125,-0.30216244,0.38620955,0.019539498,0.17580095,-0.29474652,0.01650406,-0.026537364,0.07190535,0.19397722,-0.108463116,0.075955585,-0.020284487,0.04624863,0.04122331,0.06203127,-0.13254276,-0.09511461,0.030230429,-0.012039824,-0.06360168,-0.065852605,0.07742131,-0.032586046,-0.04883981,-0.1282503,-0.124690704,0.072971806,0.024576945,0.04530638,0.14835158,0.077526,-0.06778944,-0.20289722,0.21713561,-0.044861432,0.013989752,-0.07208191,0.3258081,0.14290749,0.25566307,0.01800739,0.06648077,-0.028293587,0.07056384,-0.19483577,-0.10129157,0.08752429,0.13023949,0.08977521,0.04316015,0.22048582,-0.11600109,-0.12521417,-0.026108097,0.041563567,0.06935986,-0.25252223,-0.4493472,-0.02112204,-0.15264404,0.001686557,0.09767962,-0.07941049,-0.0962139,-0.11170863,0.09993054,0.13830094,0.050645784,0.026265139,-0.17211714,-0.025322892,0.09317777,0.016201416,0.08277657,0.6943786,-0.17333937,-0.24686182,0.04292,-0.25298867,0.3768025,0.19822977,-0.1494701,-0.045791972,0.11264506,-0.5299743,-0.09873196,-0.05957743,-0.0071719484,-0.028623972,-0.11232595,-0.11711257,0.33340386,-0.12911102,0.075564735,0.2826019,0.04741942,-0.29230276,0.11819754,-1.3816092,0.12879191,0.21507867,0.01817319,-0.45798355,0.17155236,0.72909755,-0.16797836,-0.20129322,-0.08015989,0.14296031,0.13223828,0.048759677,-0.13632286,0.007335491,0.046557833,0.036218736,0.04812146,0.35561377,-0.10939016,-0.022066306,0.044834647,0.06516182,0.10900723,0.23767151,0.08015989,-0.11685728,-0.2610302,-0.0016364248,0.31655496,0.16478728,-0.12304798,-0.5258897,0.03510186,0.0216036,-0.023326783,0.22988528,0.007901907,0.70510066,0.033729754,0.049873274,-0.17451915,0.024003845,0.04124184,0.007325526,-0.16078845,-0.026665412,-0.028481247,-0.03253578,-0.087458566,-0.10467169,-0.0406946,0.15432109,0.15123667,0.15939549,-0.020956725,0.15322661,-0.2630722,-0.1676538,0.3034683,-0.16994224,-0.030968692,0.14586379,-0.055121783,-0.28595668,0.15103766,0.1044727,0.39500627,0.123277776,0.15969397,-0.21093534,0.12516823,-0.14009291,-0.07293189,0.04163983,-0.13432203,0.16009197,0.11870088,-0.22904395,0.013879944,0.065469556,-0.054524798,-0.14825173,0.16019146,0.0017116731,0.1545201,0.21710421,0.21790019,-0.2308349,-0.16118644,0.005391537,0.014961982,0.0140665015,-0.015235601,-0.06671328,0.097756594,-0.0050899344,0.03800816,0.070046455,0.12049184,0.09397568,-0.014054065,-0.1903393,0.040981155,-0.05002716,-0.29056874,-0.03447077,-0.013414818,0.032260668,0.09347541,0.101767585,0.0038826733,-0.16940705,0.16762526,0.04893068,-0.07428691,0.1331545,0.91611385,-0.40624797,0.17091472,-0.0005862558,-0.024311146,-0.028148845,0.119379885,-0.120956086,0.08031758,0.043037068,-0.045058712,0.12698676,0.018537462,-0.652409,-0.11232126,-0.00038789253,0.22217543,0.08819857,-0.031266976,-0.009320129,-0.10073963,-0.07668547,0.007174272,-0.07072333,-0.03361414,0.075520456,0.003994035,0.11814634,-0.03618403,0.06541223,-0.0107164355,-0.09724458,0.32812336,0.12705529,0.120681964,0.1430914,0.03577285,-0.00606922,0.090185955,-0.025390498,-0.07757637,0.05496135,0.11526807,-0.04749154,0.066954166,-0.20819524,0.030975724,-0.01336342,0.100328445,0.1160219,0.14115176,-0.15577263,0.52371264,-0.06898188,-0.072719544,0.045429103,-0.14477949,-0.22777762,0.13774389,0.46962643,-0.24492688,0.059307925,0.040866952,0.13598499,0.8838475,-0.054855708,0.07480823,0.026452214,0.1286196,-0.1518151,-0.05760399,-0.23239473,0.08602123,0.029461583,-0.23239473,-0.2730693,0.030560896,-1.6392952,-0.11223984,-0.003182854,-0.14170142,0.04386258,-0.039932538,-0.07953528,0.0068981876,0.040124916,0.04229606,-0.028499683,0.042515922,0.12202372,0.09932291,-0.27328917,0.10234602,-0.10795251,-0.006351967,0.023772638,0.30385005,-0.07904059,0.11751654,-0.07090568,0.03146783,0.13268705,-0.06354028,-0.17589004,0.042268578,0.04845221,-0.03226483,0.034985628,0.04064709,0.054553397,-0.3728869,0.02737289,-0.12367269,-0.05202498,-0.14825435,0.02798586,0.0810153,0.35854742,0.23082061,0.10081296,-0.09515648,-0.11276454,0.06477574,-0.6711132,-0.1385836,-0.29340675,-0.031794854,-0.8510256,-1.0853131,-0.4590867,-0.6740327,0.12571968,-0.1972467,0.018554602,-0.31767485,-0.04547987,-0.080057345,0.18584253,-1.5998696,0.09095974,-0.1956045,-1.0291133,0.7597921,0.014757009,-0.29888076,-0.2127564,0.06254052,-0.23319268,0.18055098,0.46383083,-0.2872029,0.08138023,0.21202652,-0.012350728,0.37843633,0.33063,0.12061061,-0.050634563,0.19961877,-0.061536957,-0.7940959,-0.25965038,-0.115410306,0.24249849,0.0712077,0.22260961,0.122252814,-0.06618986,0.24943224,0.13265343,-0.3289878,0.09880582,0.1923201,0.30325997,0.43062186,0.09771102,0.17288737,-0.073671006,-0.079132415,0.061327618,0.032772273,0.09662484,0.21147096,-0.06788728,-0.040685512,0.09370943,-0.022334082,0.13390037,0.074603125,0.08699359,-0.03269418,0.06408684,-0.40440828,-0.07944477,0.3277748,-0.0626812,0.034282036,0.020551,0.14431253,0.11973983,0.0010517908,-0.119531594,-0.39670327,-0.008791767,0.01287854,0.22302845,0.059609614,0.005824302,-0.041388333,0.013835157,-0.13015199,0.3298572,0.037041258,-0.16617806,-0.014824312,-0.020720197,-0.08532765,-0.12744483,-0.13327564,0.1494145,-0.010568342,-0.041596577,-0.19481151,0.0046073804,-0.06153586,-0.092876464,-0.011394807,0.084442616,-0.04771372,0.001916488,0.041388333,0.07434282,-0.10693288,-0.0100867795,-0.07845562,-0.06913674,-0.033553183,0.11703267,0.111514226,-0.08470292,0.16534509,-0.0107896,-0.056840055,0.055796053,0.12029212,0.48488048,0.1013261,0.00124972,0.1006881,0.04408004,-0.03039203,-0.25311226,0.04399304,0.028565027,0.008663759,0.036540035,-0.2900003,-0.42247242,-0.27190426,0.08468008,-0.054288052,-0.057014056,0.02053202,0.05121405,-0.014964014,0.0002947581,0.28884026,0.1057341,-0.01070101,-0.03364003,-0.35194433,0.01073001,0.19569218,-0.02259102,0.007859007,0.13050012,-0.023359522,-0.111882105,-0.008221508,0.05283805,-0.045414045,-0.13989614,-0.03198703,0.037381034,0.091640085,-0.0123902615,0.02008252,0.04216604,0.18235217,-0.059305057,0.04225304,-0.03091403,0.1022541,0.107358105,-0.12365612,0.0031918157,-0.01054876,-0.015210515,0.012557012,-0.01979252,-0.11182411,0.034916032,0.13978013,0.0999921,0.11263611,0.10973611,-0.047338672,0.27429345,-0.038608532,0.04053896,-0.11663234,-0.13230625,-2.1703758,0.09098936,-0.13564849,-0.1520139,-0.29158086,-0.4471675,-0.18578196,0.15892886,0.055262063,0.42780557,-0.085515015,-0.10418541,-0.39784077,-0.14671242,-0.19788313,-0.18071099,-0.08159654,0.2466336,-0.035554424,0.43449005,0.6043676,0.13518749,-0.21586204,-0.04512012,0.527381,-0.038291596,-0.03906953,-0.23176645,-0.009788992,0.14625143,0.008550061,0.0973857,-0.22969195,0.0118130585,0.021522816,-0.07059023,-0.029590271,0.26484302,-0.049153846,-0.11530697,0.0021681285,-0.013793906,-0.06989873,0.15927461,-0.21655352,-0.026305664,-0.22335324,-0.08724376,-0.036706917,0.0009291979,0.01398839,0.036850978,0.11974408,0.054311257,-0.028322527,-0.16319308,-0.022790559,-0.20548959,0.024391342,-0.13273615,0.17032325,0.067388296,-0.023559056,-0.04419169,0.00072489405,-0.26203576,-0.033882085,0.07528159,-0.00022673914,0.031412076,-0.08714837,-0.20039293,0.041131023,-0.11039867,0.014122009,0.006003868,0.06797895,0.030123373,-0.070771135,-0.12908484,-0.010987514,-0.160658,-0.14863013,-0.108358234,0.09074599,-0.25688097,-0.23475827,0.05154802,0.3483787,-0.045748867,0.01168556,-0.05638065,0.15217406,0.1217822,-0.072167225,0.09627666,-0.035654046,-0.047816157,-0.058474787,0.08730946,-0.104062565,-0.046903327,-0.018538494,0.113405645,-0.32324904,-0.061965015,0.020337304,-0.18299547,-0.23518784,-0.122748725,-0.1334879,-0.14830795,-0.0075845392,-0.2837289,0.2708419,-0.018108927,0.040620912,-0.23798002,0.09906885,0.035841983,0.08387292,-0.07834225,0.29591942,0.047565885,-0.015488074,0.30317745,0.10866278,-0.03649742,0.20913437,0.057597492,0.10866278,0.03582346,0.14391597,0.07268378,-0.11934242,-0.16537893,0.08450397,0.18850088,-0.18134655,-0.035927147,0.066358946,0.08787376,-0.064285226,-0.12058665,0.19689943,-0.29177198,-0.11986084,0.015099253,-0.10897383,-0.2565188,0.00089591055,-0.048991565,-0.22624253,-0.033412766,-0.059049092,0.008417995,-0.08859956,-0.13499898,0.14132382,-0.09176198,-0.017574752,-0.27601174,-0.06495918,0.120068215,0.09974579,0.016939675,-0.15884672,-0.05329453,-0.018663453,-0.018935628,-0.05863435,-0.0751204,0.010005685,-0.09005116,-0.0089234635,-0.044714525,-0.033231314,0.10306374,0.07522409,-0.17979127,-0.10498192,-0.14132382,-0.23246369,-0.13873167,-0.084970556,-0.078075446,-0.10190448,-0.032990903,0.06355551,-0.0008161373,-0.25503078,0.040808972,0.1462518,0.044044033,0.02712735,-0.052805662,-0.20637006,0.0011173183,0.19545172,-0.17792846,-0.0059520104,-0.23049824,-0.008138205,-0.0037637092,0.07103659,-0.007662213,-0.458031,0.04219061,-0.054355796,-0.0065417355,0.1722671,-0.031794604,-0.007822281,0.021112155,-0.5035915,-0.021078456,-0.38335496,0.082022324,0.14288194,0.04107856,-0.12960471,-0.08303328,0.078180686,0.007881254,0.2925036,-0.26392722,-0.14018606,0.31326193,-0.079259045,0.0921319,0.14503865,-0.088829435,-0.015189632,0.29789537,0.19882157,-0.062477153,-0.038551167,-0.014001757,0.029065019,-0.13418771,0.03612487,-0.0023631123,0.07528261,0.1321658,0.060522635,0.17860243,-0.23063304,0.030800495,0.14773454,0.022813933,-0.11907403,0.07691457,-0.23573032,0.04795198,-0.1409345,-0.09021218,-0.28730893,0.08341227,-0.27058616,0.20329222,-0.1871739,-0.3715271,-0.12501766,-0.027250022,0.123808786,0.4843553,0.031153675,0.0131842755,0.3544014,-0.09696172,-0.34714815,0.1810288,-0.030524055,-0.03906172,-0.021054545,-0.028660374,-0.8663593,0.12904724,-0.7382187,0.21195582,0.7861707,0.060191825,0.021041954,-0.012302806,-0.035535842,0.07046725,-0.18364802,0.27723497,0.09041366,-0.21538095,0.23472293,0.21840313,0.115648896,-0.34130526,0.09615581,-0.027149282,0.103963114,-0.14899366,-0.14254633,0.11484297,0.05570892,0.05545707,-0.6709248,0.23129779,0.061803654,-0.25990778,0.0035353252,0.04923641,-0.34311858,0.14063227,-0.09837208,-0.06830135,0.35863245,0.050092693,0.49110478,0.32589072,-0.13605471,-0.4080974,0.49430764,0.0297432,-0.14386167,0.15000048,0.07593441,-0.12504488,0.15587239,-0.008983013,0.15907525,0.090480715,-0.043905836,0.3248231,-0.26663786,0.007369074,-0.3234886,0.18176214,0.2975988,-0.0013147146,-1.2843457,0.69128335,-0.11737137,0.06238899,0.2491556,-0.045940984,-0.13111697,-0.047575776,-0.4871012,-0.00013501628,-0.006447418,0.013637166,0.033263005,-0.43905833,0.09008036,0.105093755,-0.22233167,0.08947983,-0.47242144,0.05828533,-0.027107516,0.06615902,-0.06238899,0.0269407,0.12704667,-0.053414315,0.07867018,0.12978244,0.30373764,-0.03393027,-0.25329262,0.21819465,-0.04710869,-0.68060714,-0.018583244,0.062322263,0.010893051,0.05374795,0.2463531,0.14252715,0.068194166,-0.038067292,0.0741715,-0.19543038,-0.04173253,0.0576201,0.021519028,-0.022680724,-0.030912166,0.003048068,0.08045572,-0.028699413,0.06925918,0.115594245,0.130995,-0.017336924,0.019062871,0.27986905,-0.26606148,0.15276851,0.20481247,0.02774793,0.016263738,0.031509608,0.06970174,-0.10461899,-0.17100158,0.02648666,0.062886454,-0.26199,0.105150044,0.09718414,0.058151163,0.10833641,0.023034764,0.1326767,0.06594005,-0.18047218,-0.06784302,0.11506318,0.06784302,0.0076395315,0.011185469,-0.057487335,0.06709068,0.11727594,0.0951484,-0.051999707,-0.02575645,0.061912842,0.011793976,-0.047352925,0.21065414,0.14108516,-0.13674816,-0.09877732,-0.030181957,0.03520491,0.02287987,0.106300674,0.10939854,-0.029208345,-0.13126054,0.12196697,0.029673025,0.19366018,-0.24966446,-0.17928155,0.10173425,-0.3060625,-0.12769797,-0.07422302,0.04502099,0.06212954,-0.105459735,-0.069580495,0.24232812,0.24003552,0.008002616,-0.14317305,0.032411672,-0.20816834,0.03874499,0.1699965,-0.016306138,0.07095606,-0.0047105826,-0.0037613015,-0.29918468,0.00936385,0.19613218,-0.23201141,0.0018860241,0.13400264,0.1327417,0.1532605,0.17274763,0.089010306,-0.06510992,-0.019186221,-0.19028604,0.028471261,-0.22685306,0.1867325,0.17137207,0.14775826,-0.08597261,0.15314588,0.105173156,-0.11761053,0.011763918,-0.05221403,-0.1486753,0.23430401,0.117725156,0.11612034,0.09153217,-0.038458414,0.15348977,0.050895784,-0.10081721,0.025906412,-0.056312058,0.10775234,-0.12448834,-0.022539152,-0.0039762333,0.13640986,0.02779781,-0.059836935,0.39269248,-0.15463026,0.037517786,-0.36381802,-0.11223041,0.18221296,0.20318492,0.18282084,0.09969283,-0.24512886,0.12940311,-0.031989846,-0.36412197,0.19269894,-0.0010311455,-0.02256766,-0.21640638,-0.19695412,-0.07427572,0.039664373,-0.39026093,0.07089437,-1.97562,0.4653345,0.13350633,0.053379733,-0.24832024,-0.030641107,-0.013211959,-0.011777735,0.03406045,0.0016135022,0.17598216,-0.09627348,-0.03996831,0.19178711,0.45348078,-0.23616259,-0.17962946,0.14118084,0.03780273,0.026708864,0.0037351567,0.05277185,-0.086167425,0.3004462,-0.12955509,-0.014066795,-0.043805577,0.73857796,0.05398762,0.079556696,0.13130274,-0.058888674,0.20288098,-0.19148317,-0.016773773,0.016165892,0.16762376,-0.015937936,0.17400654,-0.17400654,0.0665632,0.066335246,-0.006160288,-0.19756153,0.28229252,-0.14773884,0.18351175,-0.26564893,0.07187003,-0.3992299,-0.53086555,-0.15627679,-0.05144381,0.32271266,0.035664827,0.35772902,-0.020264106,0.1466581,-0.07635515,-0.10650814,0.075814776,0.16427435,-0.35708058,0.010976391,-0.07884088,-0.34670535,0.99429214,-0.38193786,0.20620754,0.024654662,-0.30369142,-0.04849876,-0.31363434,-0.072464444,-0.17162347,-0.29266775,-0.015441249,0.20869328,0.31795734,0.072410405,-0.36810425,0.320335,-0.06338613,-0.23192945,-0.12547535,0.18621363,-0.02834273,0.2933162,0.0068560224,-0.016589548,-0.14201085,0.09602485,-0.22155423,-0.2883447,0.16978619,0.06235941,-0.14287546,0.19745345,0.0215475,-0.22025733,0.24900533,-0.12666418,0.12558343,-0.15206185,-0.43143633,-0.14330776,0.008704623,0.19376333,-0.25519535,-0.015857667,-0.3664883,0.12118098,-0.08383788,0.060117126,-0.20691231,0.1413778,0.3431357,0.112450056,-0.16536154,0.3098951,-0.08247039,-0.0167255,0.27938947,-0.06385144,0.1582085,0.06548191,-0.7864141,0.06085347,-0.017698525,0.36627793,0.20722789,0.1735665,0.22805586,0.11981349,-0.6955283,0.17440805,-0.18429607,0.14337645,0.14842567,0.056593202,0.02290552,0.09898551,0.09188506,-0.077526376,-0.36354294,0.009270029,0.1607331,-0.21690553,-0.15284371,-0.07852569,-0.13359362,0.1685173,-0.044838015,0.18050916,-0.03923655,0.16546674,-0.021827303,-0.35681066,-0.19418411,0.113922745,0.107716426,-0.044154268,0.07179342,-0.041577067,-0.1827182,0.030216351,0.28591138,-0.10061598,0.20933172,-0.11928753,0.044236466,-0.10318671,-0.046297666,0.06215303,0.049183343,0.01764702,-0.16679844,0.09088295,0.090502426,-0.016996952,-0.19457704,0.11834444,0.03440614,0.16946214,0.16007577,0.03164731,-0.0071507697,0.010916418,0.13787825,-0.4173132,-0.0070278905,0.019676508,-0.004792284,0.09386376,-0.046202533,-0.027794454,-0.37215713,-0.011344514,0.14142986,0.050990853,0.11295362,0.097922735,-0.15170413,-0.1864591,-1.1354978,0.012390967,0.0452195,0.052195862,0.06995387,0.046424508,0.046741616,-0.081877105,-0.01583951,-0.10210855,0.030553289,-0.07090519,0.04474384,0.04566345,0.16121735,-0.08517502,0.014460092,-0.2846355,0.09621035,0.08397001,-0.043633964,0.0774376,-0.6788633,0.01782143,-0.060662627,0.122783944,0.10451856,-0.008783872,-0.1078799,-0.002124619,0.011633952,-0.044056986,-0.49047685,-0.102524206,-0.045048516,0.078396976,-0.11693444,-0.04759344,-0.041181546,-0.008535421,0.05284855,0.14000404,0.07112575,0.065969795,-0.9185534,1.1126289,-0.0062425076,0.09479027,0.06861388,-0.40983242,-0.13960743,-0.22871293,-0.0032761805,-0.018293729,-1.3273282,-0.13656674,0.06491216,-0.5425652,0.21258403,-0.05271635,-0.10741575,-0.019334836,0.058136713,-0.14661424,-0.012088404,0.055294324,0.037545938,-0.038107805,0.06520963,-0.108142875,-0.09340213,-0.06355707,-0.061640117,0.049807858,0.16789909,0.10642422,0.034207787,0.055558734,0.004490805,-0.18297035,0.107680164,-0.024507318,0.062334187,-0.014922527,0.16234651,0.17450929,0.14159049,0.029580645,0.06438335,-0.22276375,-0.101995386,0.01252633,-0.25290626,0.018541612,0.048458885,-0.07668291,0.13463712,-0.4507986,-0.31197044,-0.03076157,-0.32794878,-0.370645,-0.39893448,-0.006499384,-0.13489905,-0.055564005,-0.18165533,0.15192515,0.13856621,0.09600098,0.06286558,-0.1142058,-0.4953284,-0.18637025,-0.03248055,-0.35283306,-0.071640566,0.25696304,0.04079714,-0.31380403,0.2603683,-0.084803045,0.11289611,-0.26599997,-0.06299655,-0.3287346,-0.064109795,0.09128606,-0.14066173,0.4560374,0.038603395,0.06469916,-0.15952142,0.43403444,0.40260166,-0.121867545,-0.29049137,-0.17825012,0.028747905,-0.14511472,-0.16279566,-0.3457607,-0.14249532,-0.32690102,-0.07380157,-0.0470837,0.15140127,0.09704874,0.0418449,-0.56788576,0.07995716,0.09279221,0.6249886,-0.19383554,-0.086440176,0.27870408,0.17969078,-0.084017225,0.05776331,-1.6624023,-0.04366851,-0.86515784,-0.012560751,0.20724663,0.5857532,0.101039656,-0.27442187,-0.022157213,-0.19562015,-0.4000986,-0.15612704,0.73855835,-0.032549534,-0.45251003,-0.8570377,-0.38238204,1.1323823,0.0523653,-0.2729455,0.072388686,-0.08890567,-0.22607046,-0.09734871,1.9015756,-0.33403063,-0.15169789,0.21592036,-0.18685415,0.25375256,-1.1279532,-0.21149123,0.38090566,-0.028351082,0.206693,0.20244841,-0.26685542,0.1870387,-0.008275794,-0.11847938,0.14283963,0.27091545,-0.46911928,-0.105468795,0.007722152,0.0025505016,0.18251729,-0.036448095,-0.51414883,0.8179137,-0.027428346,0.03852425,-0.44143718,0.26685542,0.21333669,-0.12798357,0.15788023,0.14902195,0.0033824062,-0.48609763,-0.19875745,-0.042607363,-0.15704976,0.22710498,0.3139213,0.14232183,0.17871556,0.00092286814,0.14720143,-0.32571366,-0.09240753,-0.016125571,-0.019137204,0.078480326,0.23788077,-0.23544097,-0.0004066338,0.15421587,-0.36190408,0.10277669,-0.36271736,-0.14476164,0.11375581,-0.23889735,-0.05647127,-0.012847086,0.75267917,0.04414518,0.78886956,0.17363264,0.01745984,0.47982788,-0.6693192,-0.39951771,0.12260009,-0.090018556,-0.008113615,0.011925807,-0.14079696,0.11487405,-0.18308687,0.18725486,0.18755984,-0.51642495,0.076548815,-0.09576226,0.4489237,-0.14252515,-0.18115535,-0.061808337,-0.055302195,0.015325012,0.3358795,0.10785962,-0.020649374,-0.2561793,-0.022326738,-0.28322044,0.2236486,0.035300896,-3.8060923,-0.49771976,-0.0899169,0.42655885,0.24967316,0.029633438,-0.27834085,0.08701196,0.12148964,0.011391698,0.019119734,0.07301154,0.021802058,-0.09747957,0.016609145,0.12305978,-0.06856281,0.040660102,-0.032024328,-0.040823657,-0.16564985,-0.11599415,-0.49459434,0.06653471,-0.032564063,-0.11010612,-0.013575175,0.3182152,0.00756448,0.12567668,0.23552111,0.3336549,0.20490336,0.0008397595,-0.2558021,0.11599415,-0.06316545,0.096629076,0.1013395,0.09878802,0.22557688,-0.034346826,0.100161895,-0.12731224,-0.020837076,-0.16879013,-0.044029362,0.012266724,-0.05047348,-0.10958274,0.036309503,0.10990985,-0.124302804,-0.19875364,0.03702915,-0.1971835,0.07333866,-0.17467815,-0.3176918,0.07824534,-0.029260226,0.06470288,0.19391237,0.22950223,0.000693581,0.17808013,-0.16996773,-0.102320835,-0.01318264,0.018449154,0.18737012,-1.5036594,0.06015574,-0.119258165,-0.5533392,-0.056586187,0.15074046,0.0106794,0.23933558,0.35227388,-0.01429284,0.020700479,-0.11153389,-0.0993623,0.08683961,-0.023070429,-0.11305534,-0.04377091,-0.022924135,0.14371838,0.05178777,0.051904805,-0.02428466,1.112296,0.48779985,-0.022573031,0.06249643,-0.08046123,-0.0036902444,-0.0018624945,-0.21347095,-0.067762986,-0.025674446,0.19930978,-0.012639727,0.035929594,-0.18503156,0.54959404,-0.24951757,-0.19579874,0.2584122,-0.2623914,-0.0034634902,0.028161429,-0.044004977,-0.1715726,0.02175379,-0.0067404564,0.12253513,-0.008046123,-0.072444364,0.08233378,0.023772635,-0.14348431,0.12124775,-0.16162467,-0.22295074,-0.03177487,0.05073446,0.1620928,0.015243745,0.05055891,0.1027563,0.042103168,-0.049359307,0.28035426,0.14404555,-0.024177566,0.3443589,-0.25559643,-0.049796995,0.15431441,0.38149562,0.17302346,0.15220438,0.053770907,-0.21184823,-0.007653299,-0.0433262,0.04290419,-0.10381407,-0.07659453,0.0029188916,-0.33620006,0.12055375,-0.23843476,-0.1848397,-2.2000706,-0.045225237,-0.011605232,0.20762815,-0.14488956,0.027782222,0.13419868,-0.18357366,0.18976313,-0.027817389,-0.048952978,-0.018498037,0.015482435,-0.5373574,-0.23998213,0.026955789,-0.017724354,0.03636306,-0.16402061,-0.13757475,-0.007143372,0.0038574208,-0.014137283,-0.11802169,-0.01159644,0.046280257,-0.011816236,0.20172003,-0.40175202,-0.07863424,0.16627133,-0.056619465,-0.18244831,0.44310886,0.021751018,0.04065348,0.07884524,0.03720708,0.09776529,-0.00128251,0.05651396,-0.06284409,-0.15751559,-0.006268974,-0.09575909,-0.13771455,-0.06853267,-0.12984283,-0.086670086,-0.03363741,-0.03016817,-0.0036467575,0.010098323,0.3440835,0.23176944,-0.25497887,0.010793185,-0.37979028,0.30139765,-0.025887413,-0.18210457,0.067193665,0.2200836,-0.15743443,-0.014820342,0.17820928,0.13170932,-0.10728264,0.008363704,0.02799736,-0.13690303,-0.16701034,-0.30886364,0.041062795,0.16595536,-0.16238469,0.2892249,0.049908336,-0.09462296,-0.033170786,0.13219623,-0.18681137,-0.102738135,-0.05335729,0.15524334,0.17723545,0.17269096,-0.02661778,0.1147486,0.013785657,-0.039480336,-0.26682702,-0.025055608,0.147047,-0.20904696,-0.19557576,0.09113344,0.016331794,0.17788467,-0.03818191,-0.6933607,0.08626433,-0.045282688,-0.029052332,-0.12886901,-0.10963604,0.039606877,0.048597656,-0.012106293,0.34686738,0.078265086,0.0973678,0.024730042,0.29184467,0.2476885,-0.06752789,-0.05804121,0.07252996,0.24906838,-0.09685034,0.23544207,0.6764863,0.30219376,0.1821442,-0.39602563,-0.04553605,0.08188727,0.09495301,0.014833713,0.006026196,-0.012203316,-0.23354474,0.03604937,0.5443628,-0.8375873,0.18921608,0.016332176,-0.16118726,0.14738846,0.24268644,0.035230067,-0.18645632,-0.2613148,0.03190973,0.11789352,0.30064142,-0.005627324,0.22371309,-0.20318736,-0.15230428,0.13902293,0.19663294,-0.48537287,-0.49986163,-0.587484,-0.24958584,0.23561455,0.034367643,0.09434931,0.10150744,-0.06886465,-0.023910737,0.041719817,0.055583302,0.19387317,-0.783082,-0.115392484,0.04424241,0.06657922,-0.18800868,0.031445894,-0.027224217,-0.10876845,0.077049665,-0.011244436,-0.1642442,0.6194793,0.11788599,0.08237894,0.15178785,0.10530121,0.15666765,-0.036245447,-0.19236733,0.017255915,0.33542287,0.18491921,-0.02183074,0.021461543,-0.11525346,-0.3243791,-0.14228505,0.027464995,0.24360536,0.038621146,-0.15564033,-1.3817574,0.17066501,-0.22755335,-0.04789921,-0.16000648,0.16193272,-0.035282325,-0.34235737,-0.11069469,0.18530445,-0.27558097,0.15255834,-0.15769498,0.082828395,0.11673024,-0.13239701,-0.39654896,-0.19262417,0.21650957,-0.22151779,0.03563547,0.0044423947,0.035892304,-0.20816252,-0.15679607,-0.2917614,0.7124526,0.14061564,-0.031670623,-0.18761595,-0.07281194,-0.17015135,-1.4999002,0.03173483,-0.01722381,0.031686675,0.08841449,-0.29047725};

#endif
