#pragma once

#include "parameters.h"

#ifndef KERNEL1_H
#define KERNEL1_H

static float bias1[FEATURE_MAP1] = {-2.0384536,-1.8396358,1.1511768,0.7990634,1.3549492,1.5939387,1.6374388,2.0031443,-0.3972393,-0.42779398,1.5973272,1.6143978,1.7572296,1.7930216,-0.90113604,1.2273586,-0.06098409,2.3698225,1.2350053,1.3920565,0.8890027,-0.44631633,4.8535275,2.0855296,1.2848773,-1.7119019,-0.674848,2.5794067,2.529849,-10.700998,2.0588028,3.013524};

static float kernel1[FEATURE_MAP1][IN_CHANNEL1][KERNEL1][KERNEL1] = {-0.4527108,-0.059461657,0.078433014,-0.1746449,-0.12304281,-0.091062516,0.3729227,0.61445516,0.80091655,0.67949986,0.24608561,-0.05919064,0.82129717,1.5064342,2.0658183,1.9409325,1.4682747,1.0528562,-0.2010964,-0.35037386,-0.56155217,-0.16814044,-0.0740967,0.22548814,-0.4834986,-0.5784638,-1.1890163,-1.0303073,-1.0693341,-0.6751635,-0.044040654,-0.5966763,-1.2141669,-1.3173711,-0.7306683,-0.47699413,-0.64871204,-0.21443054,0.074801356,-0.37530765,-0.10726948,-0.13334155,-0.0003828149,0.24998829,0.7211284,0.59364086,0.17865598,-0.181583,0.46311796,1.2930877,1.9409325,1.8125777,1.3572651,0.7653588,-0.06802587,-0.038511857,-0.42365754,-0.009133354,0.16803202,0.33974993,-0.32804188,-0.32999322,-1.1742729,-0.83213794,-0.7081195,-0.28684694,-0.06022051,-0.6105525,-1.2072288,-1.2531937,-0.55244595,-0.11686356,-0.4327638,-0.1494943,0.13063136,-0.14017123,0.30484262,0.041330457,0.024784723,0.20857653,0.5377025,0.58887094,0.29617,-0.31394887,0.494773,0.9921478,1.5827533,1.5497973,1.1699365,0.3757413,0.18743701,-0.07442193,-0.41433445,-0.07973391,-0.18646134,-0.2695017,-0.089219585,-0.16239482,-0.8061201,-0.64914566,-0.7701287,-0.7423763,-0.018429318,-0.40457776,-0.9401121,-1.1838127,-0.5303308,-0.5463751,-0.035409395,0.3296552,0.059580542,0.18095359,-0.2857012,0.08869295,-0.07263831,0.9327387,0.03473153,-0.38217172,-0.5482837,0.39273208,-2.1942763,-0.22219618,0.90762216,1.7170613,0.4635152,0.27028874,-5.27905,-3.1487067,0.5537066,4.6100354,1.6405698,0.10481894,-2.9637573,-2.1977015,-0.3367906,2.7011747,1.6713947,0.38959253,0.7534976,0.9612803,-0.17153488,0.11545068,-0.7169644,-0.29212305,0.5157463,0.104890294,0.20150353,0.18509212,-0.6444688,-0.14984328,0.2841314,0.72038937,0.6176397,-0.33536354,-0.8214266,-0.36105093,-2.0766852,-0.8265641,1.0937132,1.9168522,0.08969191,-0.092117935,-4.895451,-3.758355,0.66673124,4.740185,1.8038276,0.42840907,-2.5299253,-2.7354248,-0.1701078,2.5322087,2.1166434,1.111409,0.52031296,0.5049005,0.15883388,0.09161846,-0.49177137,-0.12772356,0.38788003,-0.01953314,-0.32194898,-0.048235264,-0.6381897,-0.17838486,0.66501874,0.8231391,0.46408603,-0.63933134,-0.9846844,-0.04498866,-1.0303509,-0.21292016,1.0018094,1.2718127,-0.19793583,-0.12001733,-3.0505238,-2.219393,0.87793887,3.6647384,1.3083459,-0.0050705895,-1.9476771,-2.3221426,-0.40129456,1.7341862,1.8118193,0.5146046,0.34306976,0.095614284,-0.18309422,-0.23404093,-0.2119212,-0.16068907,0.2133205,0.4539486,1.0704577,1.2645022,0.7883863,0.43403012,0.40832883,0.6945767,1.138566,1.2458688,0.9702227,0.65377593,0.2803044,0.39001667,0.4828625,0.53972656,0.36527923,0.48928782,-0.004384776,-0.21010783,-0.16754012,-0.23356023,-0.4783648,0.008714335,-0.29411885,-0.7543321,-1.1083671,-1.1996065,-1.3441762,-0.4292111,-0.41089895,-0.8539245,-1.2343032,-1.321045,-1.2150273,-0.33122504,0.060960185,0.27853745,0.8217979,1.0409012,0.63578504,0.1845672,0.37491718,0.6630926,1.0621047,1.1649098,0.98435843,0.5516134,0.31291288,0.43081746,0.4745096,0.53201616,0.44688073,0.45908883,-0.03784913,-0.24882036,-0.28833607,-0.31708935,-0.45202097,-0.13605607,-0.2484991,-0.73955387,-1.1462764,-1.2124572,-1.2336607,-0.5146678,-0.26777506,-0.6797984,-1.1404936,-1.240086,-1.0049194,-0.33700782,0.051482845,0.21669379,0.629681,0.8519969,0.45973137,0.21540873,0.25861898,0.49571314,0.77874833,0.9156076,0.732486,0.4565187,0.16497,0.2528362,0.30889708,0.37973619,0.28769353,0.38391262,-0.093648985,-0.20464632,-0.15742025,-0.15027209,-0.38776782,-0.0700761,-0.20930468,-0.5769934,-0.834006,-0.8070197,-1.0004218,-0.3823063,-0.104411386,-0.4388491,-0.7826035,-0.85906476,-0.7446941,-0.18858303,0.11200392,0.52495104,1.1560198,1.5307479,0.78460777,-0.08452109,-0.4480157,0.49576867,1.4896274,1.7177804,1.1221948,0.6788217,-0.3012748,-1.2581581,-6.2238035,-9.863641,-4.722238,-0.07917376,-1.2826978,1.6779863,5.7409678,5.937286,3.472702,0.61647755,-0.41618037,-0.3717436,0.58961654,0.9543961,-0.46923923,-0.8111372,-0.35847887,-0.4274554,-0.6396908,-0.5007429,-0.22566594,-0.41982818,-0.06321465,-0.4702341,0.031918216,1.06383,0.9590388,-0.116729476,0.37472814,0.34090313,-0.338416,-0.14068887,0.43939364,0.3458774,0.34853035,-1.1447448,-7.773122,-11.938242,-5.677297,-0.6771636,0.39363036,3.2949548,6.3299212,6.701333,3.650449,1.2482095,0.60520256,-0.21140637,1.1739272,1.3092272,-0.36511123,-0.6413489,1.0824006,0.32498547,0.06375353,-0.08870777,0.32266414,0.64400184,-0.06296594,0.05222981,0.37273845,0.62543124,0.29480827,0.083236076,-0.24788433,0.51765543,2.175413,2.3597925,1.080411,0.36776417,0.7938931,-0.3664377,-4.114714,-6.3723683,-2.8970134,0.064416766,-0.084894165,1.2429036,3.883908,3.7300375,2.12766,0.83965635,-0.3030987,-1.0724521,-0.5342363,-0.80251515,-1.4843215,-0.77200633,-0.18305305,-0.45298997,-0.48416203,-0.22268137,0.029140918,0.2694395,-0.30098644,-0.3234256,-0.014118854,-0.052564748,-0.23107992,-0.09153656,-0.24359405,-0.1975291,0.28329405,0.17163779,-0.06489009,-0.123523116,-0.13236931,0.09169838,0.5765131,0.5514849,0.2074541,0.0968227,-0.0968227,0.21608454,0.88461965,0.7512795,0.21317177,-0.06855802,-0.15362176,0.26387557,0.8634751,0.61491853,0.18415193,0.13129051,-0.2141427,-0.041507002,0.3096169,0.054290835,-0.45655006,-0.44446746,-0.05307718,-0.18059187,0.10410463,0.05019138,-0.16322312,-0.12708317,0.19159567,0.1048598,0.4513718,0.31199026,0.030476227,-0.01560221,0.15782909,0.20572801,0.5631359,0.50574356,0.22935383,0.16009459,0.13992094,0.16602801,0.6908664,0.4811468,0.242731,0.032687776,0.07735028,0.25697124,0.6925925,0.41339788,0.28458863,0.3659305,-0.0010602626,-0.08333765,0.20961171,-0.09579784,-0.32989842,-0.22158644,0.3922533,0.2168397,-0.01922969,-0.1103617,0.010228415,0.48416746,0.3691669,0.10410463,-0.22266525,-0.45482397,-0.18382828,0.3592419,-0.0195803,-0.3150109,-0.9795545,-1.0762154,-0.76249903,0.0059300535,-0.13096687,-0.6183707,-1.1116002,-1.3334024,-0.8725371,-0.17476633,-0.09342447,-0.3646359,-0.8233436,-1.0503241,-0.50919574,0.34608048,0.23366906,-0.086412236,-0.4237544,-0.63865227,-0.3900957,0.25761852,0.3256097,0.12438015,-0.052773606,-0.10465041,0.31043297,0.6236254,0.113411516,-0.39983767,-1.0712007,-1.0678895,-0.22585724,0.24489713,-0.3269894,-1.2936088,-2.1755145,-2.4017856,-1.2803636,-0.41749787,-0.55050117,-1.602662,-2.4702187,-2.4481435,-1.5419551,-0.40563244,-0.40121737,-0.82285434,-1.5276062,-1.7395284,-0.8162318,-0.12382827,0.03288865,-0.3043623,-0.7814633,-0.7925009,-0.04228787,0.37638274,-0.15990748,-0.31015703,-0.070571765,-0.20571359,-0.32423002,-0.17342857,0.16335674,0.15369882,0.3807978,0.4266039,0.22171813,0.036389645,0.37003613,0.40425274,0.8857688,0.69095486,0.63521487,0.32809317,0.38134968,0.31760743,0.7395204,0.88687253,0.5767155,0.43846935,0.16294283,0.3747271,0.7615956,0.6423893,0.4975206,0.5673335,0.20060869,0.16556425,0.24186179,0.17591202,0.3603782,0.45585358,-0.32312626,-0.23592907,0.20778315,-0.012796737,-0.20695533,-0.13534878,-0.069088586,0.21702714,0.7720813,0.70695937,0.30132696,-0.29580814,0.38797224,0.84548146,1.8267256,1.5265025,0.8305807,-0.16515034,0.50552285,0.8057461,1.7483586,1.7218683,0.64128554,-0.19771132,0.091267295,0.4177738,1.3675607,0.9569614,0.24282758,-0.34382176,-0.029698089,-0.056636773,0.38548878,0.06384572,-0.08305807,-0.37693462,0.57733357,0.8632086,0.53294474,0.23213387,-0.032262143,0.28894594,0.44388798,0.3093257,0.18118446,0.029557634,0.0078648785,0.46454692,0.38079447,0.28894594,0.106365606,-0.042294987,0.21147493,0.5862671,0.22808583,0.02116494,-0.116695076,-0.10748231,0.15536079,0.69123685,0.22389822,-0.14140205,-0.30904654,-0.090662025,0.14880018,0.52373195,0.39894083,0.039398547,0.11502003,0.26703072,0.47655144,0.7453968,-0.27931443,-0.76047224,-1.0385303,-1.0251299,-0.67225295,0.14461257,-0.79844,-1.7174835,-1.8995055,-1.7465177,-1.4718097,-0.5187068,-0.8458997,-1.7431676,-1.9933083,-2.069244,-1.5823629,-0.9045264,-0.91122663,-1.6158639,-1.8626544,-1.778902,-1.548862,-0.7465135,-0.51256496,-1.2272525,-1.5723126,-1.3791237,-1.1250745,-0.71803766,0.23478603,-0.30457973,-0.48632255,-0.3171426,-0.16010676,0.036711488,-0.15298781,0.3835862,0.8883343,0.8922427,0.5446701,0.26605362,0.22320028,0.68118656,1.4472423,1.4662262,0.84980816,0.25977218,0.8453414,1.4584093,2.2546158,2.0435598,1.4137414,0.48436832,0.6677862,1.4126246,1.983258,1.882755,1.0413221,0.5178693,0.48213494,1.0301551,1.2987213,1.2406529,0.6130679,-0.045296114,-0.27512679,0.11013447,0.3425475,0.3037422,-0.017396081,-0.45058817,0.3603186,0.2272055,-0.2017452,-0.454411,-0.2353694,0.19704057,0.50754553,0.072437316,-1.1141648,-1.5375807,-1.1080766,-0.4923247,0.05936124,-0.46299002,-1.9338758,-2.548244,-1.7977185,-1.016198,0.056663003,-0.6984978,-1.8929179,-2.5017512,-1.6139616,-0.6818932,0.2065882,-0.18071277,-0.8584549,-1.3571447,-0.6127076,0.094991826,0.41151592,0.53383607,0.17130354,-0.10668419,0.26249015,0.39712533,0.20257543,0.32600254,0.818604,0.89941275,0.060399026,-0.72451156,0.19136736,0.6326331,1.5730038,2.1353443,1.0521746,-0.027362904,0.08710466,1.1053091,2.4862535,3.0109572,2.2560039,0.9542078,0.0012334494,0.92431957,2.360059,2.4596863,1.7313004,0.7920367,-0.18901505,0.33126065,1.4988368,1.4700556,0.7538463,0.3525698,-0.93926364,-0.32102117,0.48208523,0.39269745,-0.12889276,-0.23287871,-0.6387214,-0.62986565,-0.6437028,-0.24962163,-0.14487463,0.19288944,-1.0233934,-1.1036487,-0.8246923,-0.07811054,0.16964309,0.1479188,-0.8213714,-0.6259913,-0.36197904,0.32074443,0.49785957,0.38245797,-0.08530584,-0.29860502,0.1416921,0.2800633,0.116854474,-0.05856561,0.13892467,-0.3257258,-0.20091498,-0.36779064,-0.5927822,-0.49785957,0.18112789,-0.26207504,-0.08599769,-0.35367677,-0.5659382,-0.799232,-0.04635327,-0.5053647,0.6365229,-1.0269551,-0.056494366,0.08881912,0.04711385,0.28209153,-0.54525304,-0.08387533,0.5209144,-0.2991624,0.24490751,2.0444453,-4.7730765,3.4885378,1.0938864,-1.1472962,0.8471197,-0.107749164,-7.712643,9.562379,0.23104802,-2.8286903,0.81263995,-2.0917704,-3.2721941,9.886894,-2.7827172,-2.8340988,-0.25606272,-1.08983,0.7693713,4.240331,-2.9314535,-0.48812485,0.32569826,-0.3630513,0.21161091,-0.8363025,0.5364641,0.6628898,0.018592013,-0.09101635,-1.2047625,-0.24930198,0.2651897,0.097523555,0.5337598,1.3352445,-5.7601438,3.8644345,1.3041452,-0.4786598,1.3873022,-0.5743242,-8.729457,10.070786,0.415785,-1.7172259,0.43606722,-2.3581433,-3.5750751,9.6543255,-3.3398015,-1.4467967,0.027824637,-0.9573196,0.55776036,3.5885966,-3.9320416,0.13944009,0.18930049,-0.34378323,0.89174056,-1.0634631,0.15997581,0.029726094,-0.5932542,1.0472374,0.41713715,-0.79370993,0.6338186,-0.037585445,-1.10876,2.2148159,-3.26949,1.60635,1.2216643,-0.2650207,-0.20620233,1.2149035,-5.338274,6.182013,-0.341755,-1.5116997,-0.48947698,-1.3054973,-1.7942983,6.355088,-2.613699,-0.8153443,-0.5746622,-0.60170513,0.8998534,2.6393898,-2.447385,0.6510585,0.18674086,-0.052842364,-0.9221694,-1.7171429,-0.47947818,-0.16195638,0.49755993,1.4265879,1.8942194,0.10404801,-1.2251946,0.27699375,-1.8069283,0.28385234,6.299932,10.325304,5.3970914,0.20108156,0.43053275,-3.302102,-9.462368,-7.018214,-1.7769998,0.7450929,-0.2041991,1.3679781,-0.8436073,-2.2708187,-2.0563316,-0.6952122,-0.057362802,0.3003753,1.7408363,2.3493807,0.45391434,-0.824902,0.13966595,-0.7731508,-2.220938,-2.720992,-1.6136405,-0.7301287,0.7519515,1.7957051,1.9877458,-0.18331157,-2.0912483,-0.40247488,-0.74010485,1.3455318,7.9809113,12.121009,6.3398366,0.86418307,0.49194837,-3.8882003,-9.626974,-7.601818,-1.8979605,0.8610655,0.17193252,1.5288434,-0.26919988,-2.5688558,-1.7408363,-0.39312223,-0.035871234,0.22477488,1.4664925,1.8169044,0.2840082,0.06702719,-0.33388892,-0.72576416,-1.7021787,-1.5525367,-0.66091925,0.45391434,0.57269275,1.1441385,0.8030792,-1.1416445,-2.2483723,-0.6989533,-0.4903896,0.8666771,5.6963754,8.195398,3.795921,0.0030055067,0.6362906,-2.507752,-6.3248725,-4.4368877,-0.8030792,0.90658164,0.0746262,1.5275964,0.6160266,-0.6758834,-1.1048574,-0.30770156,-0.5196945,-0.5281119,0.26577058,0.8018322,-0.46326697,0.08892793,-0.035229836,-0.059909564,0.118981816,-0.06932931,0.10240307,0.3096374,-0.57472986,-0.6698483,-0.100560986,0.17650504,0.4434396,0.48564005,-1.5419909,-1.2479274,-0.1559072,0.67319757,1.3510841,1.4482121,-2.0470564,-1.8327051,-0.6604705,0.26224563,1.4281167,1.7804569,-1.3062043,-1.2539561,-0.7361633,0.115130186,1.1675457,1.4522312,-0.2548773,-0.3506656,-0.3352591,0.14284515,0.8131959,0.7247759,0.00017465772,0.053629734,0.12735492,-0.02290044,0.1318764,0.12626642,-0.53554374,-0.56133294,-0.10968766,0.25688684,0.5308548,0.36908644,-1.6344299,-1.2023778,-0.089927144,0.781713,1.440174,1.3048645,-2.1394956,-1.7858157,-0.61592555,0.4779368,1.6330903,1.72285,-1.3048645,-1.157498,-0.66850865,0.24717404,1.1668758,1.2157748,-0.24817881,-0.34698144,-0.35568947,-1.2101752e-05,0.534539,0.33057016,-0.0047281873,-0.03813949,0.01194214,-0.103575304,-0.0034434393,-0.014537803,-0.22741352,-0.30796278,-0.04117474,0.08984341,0.29624042,0.104580075,-1.01549,-0.71874726,0.1121996,0.6082223,0.97328967,0.80984664,-1.5379719,-1.2452481,-0.3714309,0.3978899,1.1213261,1.1454407,-0.86075515,-0.7020011,-0.34195757,0.30344132,0.8781712,0.81252605,-0.104747534,-0.17399311,-0.2438248,0.079753816,0.45884612,0.23293976,-0.22436345,0.028605638,0.7310719,1.1854008,1.1445056,0.3148371,-0.16960308,-0.107980154,0.981485,2.0369174,1.7512113,0.9456317,0.1508361,-0.010565179,-2.0122683,-2.7136493,-1.3276938,0.52015346,-0.6554438,-0.31819832,-3.7959716,-5.924763,-2.863785,0.17814626,-0.8246267,0.8520769,3.0184026,2.6934817,0.47813782,0.38402283,-0.7574017,0.0048930696,1.9719334,2.4514718,0.6840144,-0.46469283,0.5638497,0.21946162,0.3299627,1.4890338,1.3926779,0.79661626,-0.12618692,0.1123918,0.4246379,1.7657766,1.8834205,1.3411387,0.24943276,-0.37141812,-3.240245,-4.396515,-2.0021846,0.41175312,0.055600677,-0.49970585,-5.256995,-8.179042,-4.7416034,-0.17254417,0.1333996,1.7500908,4.264306,3.213355,0.23836865,0.5184728,0.12030474,1.2134112,2.6576283,2.7607067,0.7652446,0.20979802,0.66272646,0.31315646,0.2686199,0.42127666,0.09537547,-0.38738406,-0.63415587,-0.09187417,0.8380717,1.4218087,0.7422761,-0.0578065,0.11337216,0.16302063,-0.71258503,-0.83359003,-0.09166409,0.089843415,-0.14047225,0.0145128975,-1.98986,-3.9236991,-1.7366458,0.009724867,-0.30055177,0.23304667,1.80163,1.5159237,-0.23458724,0.11617321,0.055915795,-0.15517771,0.83359003,0.48682106,0.04369625,0.64311916,0.56822896,-0.0901868,-0.3173046,-0.15604575,-0.4198291,-0.6735338,0.58282566,0.41670126,-0.21443258,0.17655066,-0.07042042,-0.13110971,0.18871458,0.6266158,-0.07154993,-0.09557368,-0.10660809,0.21721292,0.28550464,0.4212193,0.35066852,-0.09930974,0.062383547,0.20122604,0.18245885,0.6648453,0.57205194,0.21773422,0.19861948,0.44728482,0.15943427,0.39272094,0.71871406,0.16586378,0.12572283,0.57205194,1.1336776,0.59151417,0.8055992,0.8966549,0.9821499,0.7145436,0.38646522,0.18715064,-0.15430805,0.33746198,0.3708259,0.29141283,-0.37152097,-0.30079645,-0.5564126,-0.6259207,-0.50810444,-0.31904233,-0.44937006,-0.80976975,-0.70794034,-1.1315924,-1.0384514,-0.85286474,-0.56927156,-0.68396,-0.9369696,-1.4666215,-1.4200511,-1.1871989,-0.80420905,-1.19693,-1.1489694,-1.7488246,-1.718241,-1.2184775,-1.2879857,-1.6251001,-0.85842544,-0.6787469,-0.41218323,-0.79517305,-0.8702418,-0.49976346,-0.01715982,0.3378095,0.32964233,-0.4580586,-0.59047157,0.16143264,1.0155138,0.97311383,0.78335667,0.051522903,-0.24571124,0.5991601,1.8016508,1.6348312,1.2407202,0.24692763,-0.02306801,1.085022,2.1019258,1.6362214,1.2017956,0.24154076,-0.5115799,0.2658686,1.3317758,1.0815465,0.64607805,0.29940626,-0.514067,0.035575572,0.35626394,0.5412569,-0.046756465,-0.14293756,0.5595529,0.68762493,-0.5793736,-0.5641269,-0.2828258,-0.40454507,1.5317824,1.9058342,-3.4884388,-3.594149,2.4313362,1.1140236,2.1650276,1.873308,-5.1920004,-5.1025534,4.574002,2.0278075,1.1201222,1.4311544,-2.5777042,-2.9395585,2.232113,0.49780387,0.08747779,0.50593543,0.26148045,-0.25258654,0.8024832,-0.1960468,-0.01090296,0.30950746,0.04323067,0.747087,-0.0467247,-0.38218328,0.62155604,0.69423187,-1.0560862,-0.57886535,0.35677215,-0.21891682,1.439286,1.3833815,-5.037501,-4.4682918,3.079828,2.00138,2.06135,1.8743243,-6.907759,-5.9075775,5.2082634,3.2587223,0.8665193,1.3925295,-3.0147755,-3.1631765,2.896868,1.1414676,-0.051171646,0.21307226,-0.09440232,-0.13544127,0.96155685,-0.26402155,-0.15907362,0.06962647,0.12114752,0.1766073,-0.79231876,0.17165212,0.0026582417,0.6617056,0.28028467,0.50873065,-0.4302103,-0.35473925,0.36337903,0.49678743,-1.9027848,-1.4128584,1.7716634,0.97477067,0.62765473,0.81213945,-3.7689776,-2.7139077,2.9293942,1.2370135,0.41318485,0.35677215,-1.5541443,-1.1201222,1.549062,-0.030175706,0.23695871,-0.32195893,0.40429094,0.40835673,0.32195893,-0.26097223,0.75608504,-2.8763602,-1.2335516,1.6855841,0.37833154,0.034213137,-4.2682967,-4.233614,6.0995483,4.4532714,-0.2800636,-0.5745784,-2.1098702,5.7943397,11.875391,-0.15910734,-5.7665935,-1.9341441,2.2578502,4.6474953,0.6890316,-11.486943,-5.798964,2.6335807,0.7531948,0.11618738,-4.548071,-5.775842,3.4821532,4.099507,0.33497804,-0.48469213,-2.0474412,0.92198443,3.3966022,-0.56099427,1.9133345,-3.419724,-1.5283554,2.0081341,0.43064475,-0.038801383,-2.6104586,-4.1596236,6.316894,4.7908506,-0.76648986,-1.0728546,-1.3445365,5.6787305,11.486943,-0.7630216,-6.41863,-2.476352,2.515659,3.791986,-0.22962904,-11.856894,-5.9608173,2.9526622,-0.26113257,-0.98961586,-5.0451913,-5.378146,4.7538557,4.3677206,0.0010928694,-0.46157026,-1.7676667,1.8300958,3.4174118,-0.23324183,1.449741,-2.279816,-1.9503294,0.40694484,-0.4818019,0.6167758,-2.686761,-4.5041394,3.0821447,3.1538227,0.5809369,0.7693801,-2.1191192,2.8786724,7.768947,0.7716923,-2.4948494,-1.0508888,1.1266129,2.430108,0.5277566,-6.700717,-2.8000581,1.8844321,-0.09205393,0.5190859,-2.8393652,-2.6590147,3.2763684,1.5318236,0.120089196,0.6034807,-1.3086976,1.4520532,1.6983011,-1.9977293,-1.1862783,-1.0013251,-0.49952555,-0.40212184,-0.6590857,-0.8717062,-0.985407,-0.5480379,0.99829304,1.4379362,0.3418604,-0.28861055,-0.37824467,0.83759594,3.1745265,3.3230956,1.826793,0.31855175,0.108300015,1.4705304,3.9234357,3.823379,1.4386942,-0.25961685,-0.30111763,0.36422157,2.0936108,1.7403803,0.1834373,-0.94220066,-1.1112359,-0.46048826,0.4081859,0.34868246,-0.46465728,-1.0111792,0.71593606,0.6882689,0.21489452,0.5525859,0.9209765,1.2886091,-0.05618715,-0.57153606,-1.1552001,-0.68334186,-0.15624386,0.42751503,-0.6795518,-1.5440569,-2.1269631,-2.4741294,-1.5235908,-0.54690087,-0.7508043,-1.9253336,-2.6181505,-2.5681221,-1.5304128,-0.38241372,-0.3520935,-1.5266228,-2.5059657,-2.383169,-1.3219614,-0.26928142,0.067320354,-0.57039905,-1.2590469,-1.0126952,-0.52491874,-0.11616432,0.9740369,0.88383424,-0.08309634,-0.36043155,-0.28861055,-0.061919563,1.0786417,0.7360232,-0.283115,-0.6806888,-0.3649796,-0.40515387,1.003599,0.8224358,-0.14032574,-1.0930437,-0.44646516,-0.15861262,0.6408935,0.30566567,-0.6545376,-1.003599,0.032523166,0.43168405,1.0809157,0.7655854,0.07058925,0.12156511,0.94220066,0.9732789,0.97100484,1.0793996,1.0051152,1.3674417,1.6660957,1.2082605,-0.96789724,-2.7911127,-5.372644,-4.491836,-0.8793916,2.0887322,-0.2639237,-3.0304317,-6.672614,-7.2956934,-5.4802666,-2.0589943,2.1921067,1.6582409,-3.160712,-6.2194657,-6.168486,-4.517326,3.0389283,7.3353443,8.275627,3.7101548,-0.5593554,-1.3155472,1.0471983,3.763966,8.020732,9.872976,4.9053345,0.9509042,-2.7684553,-1.5407054,0.97143745,3.4524264,3.1182294,-0.08947916,0.09514352,1.8862313,3.4156082,3.7922878,2.3351316,2.1113896,-0.49244517,0.117358424,2.6155174,4.851523,4.3049126,2.9539628,-1.2284577,-1.8423326,-2.2997296,-0.4729739,2.100061,2.4724925,-2.4526672,-2.305394,-2.9313054,-3.9792118,-2.513559,0.26764095,-0.2511789,-2.5886118,-3.7214835,-2.9624593,-2.6141014,-0.88718015,1.7432063,1.6015973,-0.4018154,-1.6653214,-0.36889133,0.5136865,0.5133325,1.802682,2.291233,0.5505048,-3.3787897,-4.098163,0.6779529,2.0193439,4.9704742,6.270445,2.514975,-1.4302505,-0.20161575,0.26321566,1.7715281,4.6051235,5.4717703,2.9341376,-1.8706543,-2.468244,-2.386111,-1.6200064,0.87868357,1.9145532,-0.6726425,-3.712987,-5.0950904,-3.8007846,-2.8052735,-0.91621,1.0981774,1.026665,-1.6978915,-2.9313054,-1.8933117,-0.29313055,0.22027256,0.4021621,1.0437883,0.71266335,0.55311614,0.13469853,0.77052426,0.11658118,0.18446752,0.5273365,0.8404157,0.33198425,1.0283206,-0.81005305,-2.3041253,-2.1929865,0.15396163,0.7665141,1.1549271,-1.0483713,-4.0537024,-3.9162111,-0.93665963,1.0168629,0.6931854,0.17659041,-0.87650716,-1.2534626,0.021823166,0.85072756,0.6714159,1.1463339,2.0486207,1.3840793,0.32138595,0.4597366,0.55769914,0.6009516,0.40244853,0.5173111,0.32797408,0.18246244,0.65308374,0.14837605,0.062229145,0.38698077,0.4477061,0.41476548,0.6926125,-0.28443515,-1.2889811,-1.2030491,0.1480896,0.5963686,0.59178555,-0.65365666,-3.130219,-2.7383687,-0.87020546,0.7945852,0.022736195,-0.3096419,-0.98879176,-0.95671046,-0.018547006,0.63360584,-0.15252943,0.06362554,0.73615146,0.4562993,0.24948946,0.12209515,-0.8043242,-0.5095772,-0.6937583,-0.9315037,-0.70063287,-0.3159436,-0.7550565,-0.4717671,-0.70120573,-0.3907045,-0.3010487,-0.19263107,-0.3950011,0.030756522,-0.37237233,-0.26524368,0.13648878,-0.4597366,-0.6381889,0.15138367,-1.1348763,-1.0541002,-0.1466574,-0.4895264,-0.8427072,0.16842687,0.075906664,-0.26481402,-0.31766224,-0.5399399,-0.91546303,-0.3282605,-0.07171748,-0.4597366,-0.65823966,-0.71896505,-0.45532864,-0.20611528,-0.15210272,-0.84852886,-0.5266924,-0.2944104,0.11439188,0.41698813,-0.5001059,-0.6962862,-0.70076394,0.33806822,-0.21577036,0.21563044,1.5951895,2.5903637,0.10452689,-0.14986385,-0.6123289,0.99181604,4.0590577,6.546434,2.5478256,-0.3898419,-0.18680508,-0.88379097,-3.0560472,-1.6690719,-0.51913625,0.6990848,-0.14902428,-1.0046896,-3.0694804,-2.44036,-1.0718554,0.42342487,-1.147417,0.022406116,0.06293303,-1.4619771,-1.482127,-0.5776265,0.097950235,0.13636072,-0.45812723,-1.2089857,-1.8929582,-0.84684974,-0.47911656,0.17309205,2.2590122,3.1523182,-0.3389078,-1.2828681,-0.6766962,1.0802511,5.207594,8.203192,3.2150066,-0.67165875,0.19156267,-1.2336133,-3.159035,-1.7250435,-0.3999168,0.37836775,1.1104758,-0.54292417,-3.1142576,-2.6082747,-0.6263218,0.20163755,-0.62856066,-0.0242077,0.1549013,-0.23158233,-0.62856066,0.1631571,0.5905,0.49254975,-0.47463885,-0.769609,-0.8250208,-0.13412185,-0.13076356,0.22738446,0.12446676,0.6347175,-0.8350957,-0.42538387,-0.48835188,0.6733379,1.5504123,3.8956206,1.2951819,-0.54824144,0.55887604,-0.210593,-2.0933363,-0.8765147,0.049010098,0.651509,0.9134559,0.33722866,-1.4519023,-1.0606611,-0.07752061,0.3945995,-0.30688724,-0.84025824,-1.1354659,-1.4611421,-1.1855699,-0.5504673,-0.23105408,-0.92827886,-1.2160385,-1.6087458,-1.3013508,-0.48377478,-0.10647108,-0.55486834,-0.45296758,-0.56671727,-0.42182183,-0.022343691,0.13059211,0.2104031,0.5111966,0.46007693,0.4648165,0.39812398,0.5128893,0.8375499,1.3148924,1.3284341,1.0968722,0.7177065,0.3767959,0.7996333,1.3047363,1.4895794,1.0298411,0.45195195,-0.018556267,-0.57314956,-1.0548931,-1.2878091,-1.0156224,-0.26372328,-0.012441374,-0.7603626,-1.2410905,-1.5505168,-1.2146844,-0.2630462,-0.0022864728,-0.48174354,-0.50171745,-0.5596079,-0.34344962,0.120520525,0.1346546,0.20938748,0.43705615,0.44247282,0.43773323,0.45906132,0.4191135,0.6601545,1.1517158,1.1842157,0.92015386,0.63476396,0.21700464,0.49867058,0.970935,1.15307,0.68588364,0.22749941,0.067454256,-0.34666577,-0.77390426,-1.0339036,-0.722446,-0.06923159,0.07968404,-0.4956237,-0.9194768,-1.2478614,-0.87546647,-0.07596009,0.042190645,-0.30976483,-0.36799383,-0.42351452,-0.24848895,0.1729097,0.07943013,0.11078747,0.25509048,0.2373171,0.3128117,0.30451745,0.25644466,0.48986852,0.8070812,0.80572706,0.6232536,0.4682019,0.021529078,0.36731675,0.6506754,0.76645637,0.3859365,0.05480129,0.594103,2.3115191,3.2893836,3.3990297,2.2455077,1.011989,0.13356128,1.6592367,2.7769558,3.4012675,2.4457798,1.7006338,-1.4824603,-0.6237522,-0.672981,0.46963224,1.1535219,1.3985474,-2.2902613,-2.879889,-3.5579047,-1.8818855,-0.25397623,1.1893247,-1.630147,-3.0275755,-4.5827603,-2.6404576,-0.1563576,1.5417588,-0.23173931,-1.3873591,-3.2065897,-2.092227,-0.47718439,0.6774564,0.038285237,-0.090975516,-0.01736821,0.35243395,0.36166438,1.1283481,-0.2033488,-0.19495751,-0.0095363455,0.37397158,0.012586927,1.1177192,-0.3882368,0.16628729,0.09027624,0.29649207,-0.22516614,0.4150889,0.1489453,0.37257305,0.5845928,0.6125638,-0.652842,-0.19425824,-0.121044286,0.23649438,-0.07335381,0.20390822,-0.5510277,-0.35103542,-0.33537167,-0.123002246,-0.5331263,-0.46096125,-1.1546408,-0.7708794,-0.89115447,-2.230963,-4.1732655,-3.7123044,-3.2155404,-1.9232825,0.2447458,-1.2788318,-2.6986372,-3.432595,-3.2580562,-2.3920755,1.166948,1.0091919,0.004088566,-0.9890528,-1.6480483,-2.2242498,2.6986372,3.4258819,3.4482586,2.4189277,-0.07761938,-1.809161,1.6402165,3.1954012,4.119561,3.46616,0.8760501,-1.339249,0.45061198,2.4189277,3.4952497,2.7993326,1.5842745,-0.4243193,-0.35253417,-1.0117663,2.6301882,2.4508877,-0.5008277,-0.8560581,-1.3070053,-3.3837888,-0.36635244,4.3760076,3.2516727,-0.55239344,1.3757596,-2.3133793,-6.7675776,-0.33770484,4.127953,2.2163143,1.829403,3.3379526,-3.6992497,-5.7268267,0.8115701,1.566519,-1.0535582,2.9200346,1.7296419,-3.0413656,-1.1870223,0.2549638,-0.72798645,0.017441342,1.271954,-0.4303883,-0.9544711,0.46206918,0.23929185,-0.93290114,0.74551207,0.6696801,-1.7646931,-0.8412288,-0.10987203,-2.1543007,-0.49577227,3.2166216,1.6999832,-1.7215532,1.9318603,-0.83381414,-5.9533114,-0.4863354,2.7771335,0.42566985,1.4829354,4.1117754,-2.5142496,-4.4434137,0.39466304,0.32489765,-1.1789336,3.2058368,2.7636523,-1.7876112,-1.2005036,-0.33821037,-0.3415807,0.306698,1.9830891,0.62485504,-0.6703542,0.23710114,0.24232513,-0.49846852,1.1984814,0.6036221,-0.887065,0.60834056,-0.11113589,-1.5436009,0.067026995,2.685461,1.11692,-1.1095053,1.0771503,-0.5968815,-4.171093,0.2760282,2.7960072,0.711809,0.35455638,2.7137718,-1.9547784,-3.386485,0.80819976,0.5335197,-1.850973,1.3305975,1.8671504,-1.7606487,-0.63260674,0.28243178,-0.66664684,-0.73068273,1.11692,-0.08729097,-0.854036,0.39904442,-0.22338066,-0.11389983,-0.10252089,-0.08213823,-0.008299442,-0.057668,-0.21531597,-0.1872553,0.063744135,-0.09594762,0.06849456,0.10484087,-0.12384259,0.0025719984,0.4644373,-0.27176875,-0.16284029,0.10229994,0.019982183,-0.035407268,0.08456869,-0.084679164,0.10218947,0.17013165,0.110309385,-0.026362121,-0.07600687,0.19189525,0.22327018,0.16913737,0.100642815,0.07280309,0.120970234,0.10207899,0.119865485,0.2253692,-0.12008643,-0.081420146,-0.111414135,-0.08280109,-0.04617859,-0.011820836,-0.12572066,-0.1494728,0.120417856,-0.1078237,0.004974832,0.13986148,-0.025008801,0.07280309,0.545747,-0.31087694,-0.25541842,0.10312851,0.115115054,-0.0052717337,0.09307527,-0.09644476,0.06241843,0.14317572,0.20007041,0.028447337,-0.10484087,0.21465312,0.16405553,0.088435315,0.2591746,0.20912936,0.17234115,0.18869147,0.090976246,0.164166,-0.058551803,0.050155696,0.010405374,0.052171867,0.04802905,0.13234916,-0.09534001,-0.032148253,0.04164911,0.0698755,0.096886665,0.22304922,-0.118760735,-0.033501573,0.22890441,-0.092578135,-0.05385661,0.20769319,-0.055817544,-0.052889954,-0.028102104,-0.037285347,0.051923297,0.15510704,-0.042063393,-0.12085976,-0.13334344,0.057060387,0.028502576,0.05631468,0.029496852,-0.0135193905,0.037975814,0.068107896,0.05926989,0.12748827,-1.1180166,-1.2478873,-1.050258,-0.12321576,0.63886666,1.1777087,-2.3892968,-2.2812057,-1.3551717,-0.05389429,1.4584228,1.7843094,-3.8428795,-3.4072888,-1.2737,0.81874955,2.5603065,3.1846533,-3.8848255,-3.1362543,-1.257567,0.9736263,2.6103187,2.9797645,-2.4586685,-1.6036198,0.11192266,1.9262797,2.752289,2.4441488,-1.7165508,-0.73808455,0.6570163,1.5802269,2.0472772,1.6762183,0.23513842,-0.04895356,-0.6545963,-1.2591803,-1.179322,-0.82842934,1.2099746,1.0091189,0.31015685,-0.8179429,-1.0518713,-0.9768529,1.690738,1.5165017,0.83407587,-0.16395158,-0.81390965,-1.1575425,1.8101221,1.2293342,0.54973185,-0.5295656,-1.2672468,-1.322099,1.1978749,0.97604626,0.6336234,-0.08016083,-0.5767546,-0.9615266,0.734858,0.9607199,0.8231861,0.07915251,0.27728587,0.02199381,1.4172837,1.5689338,1.2011015,1.0026656,0.4043332,-0.2851507,1.6237861,1.7859226,1.2180412,0.70339864,-0.48479652,-1.0776842,2.0876098,1.964999,0.9268406,0.27063102,-1.3825978,-2.55224,2.2586195,1.8230286,0.35734585,-0.7772071,-2.0327575,-2.8281143,2.0634103,1.2132013,-0.22485363,-1.0865573,-2.1231022,-2.1231022,0.590871,-0.11051102,-1.6124929,-2.1311688,-2.0488906,-1.9666122,0.0452535,0.49367455,0.1917504,-0.06702735,-0.19124871,-0.27212304,0.7184369,0.97932184,0.30443263,-0.22135082,-1.0178525,-1.0234716,1.9265348,1.743514,0.5201644,-0.32088846,-1.769201,-1.9458001,1.7948883,1.5452415,0.20890862,-0.3120585,-1.4232275,-1.4746019,0.65221226,0.7814507,-0.033889953,-0.46317106,-0.8019201,-0.7208451,0.24262297,0.3515926,0.067579225,-0.22395967,-0.09221278,-0.06306391,-0.28356183,0.25948015,0.15893912,-0.06256221,-0.23981345,-0.21894264,0.2931945,0.71923965,0.3341334,-0.11709719,-1.0218662,-0.99296814,1.3525879,1.5484523,0.5338107,-0.22957872,-1.8382353,-1.9233239,1.343758,1.4986835,0.476416,-0.015151394,-1.3429552,-1.3260981,0.24422842,0.76178396,0.20499533,-0.12823497,-0.64819866,-0.55187196,-0.200179,0.2069018,0.15171461,-0.064318165,-0.1414799,-0.13224858,-0.24824204,0.32630682,0.20128274,-0.010328785,-0.0790682,-0.02874751,0.043522626,0.5201644,0.22516376,-0.027568512,-0.653015,-0.5506679,0.93276393,1.091703,0.32771158,0.018224316,-1.2072951,-1.2795402,1.066016,1.1791998,0.34597352,0.14639658,-0.7132192,-0.8171718,0.036498804,0.5940149,0.13586083,-0.0701379,-0.32169116,-0.21392563,-0.33312997,0.18934225,0.11308358,-0.081075005,-0.03855578,-0.06878331,0.22014643,-0.25177172,-1.5554225,-2.8017294,-1.5219514,-0.09672169,-0.47819397,-0.55621123,-1.4008647,-2.1874359,-1.6637114,-0.6074023,-0.22765282,0.25226393,-0.016012607,0.66646904,0.33864895,-0.04100827,0.5153568,0.59460455,1.3624713,2.079147,1.9649515,0.96918577,-0.1609567,0.19701198,0.63841236,1.5800337,1.3093114,-0.34234062,0.1468053,0.012290176,-0.33323452,0.28721172,0.70486236,-0.29951727,0.39746952,-0.2601395,-1.6194115,-2.721005,-1.6085825,-0.116225995,-0.46022788,-0.5547345,-1.2423692,-2.0594583,-1.8438648,-0.58082235,-0.11714891,0.20759477,0.4366012,1.1163602,0.45309064,0.039993063,0.3799956,0.4966523,1.7119492,2.5615249,2.0299249,0.75753015,-0.45973563,0.0024995664,0.6285679,1.5071847,1.0061024,-0.46244287,-0.1069353,-0.005787458,-0.22703755,0.2581706,0.5596568,-0.21436282,0.6128168,0.17621559,-0.9071657,-2.0299249,-1.0917491,0.21682394,-0.039593134,0.0066949925,-0.31477618,-1.2364625,-0.92340904,-0.16464837,-0.0016929756,0.24561894,0.38787118,0.8456379,0.44595343,0.054082926,0.22199227,0.024426533,0.93374574,1.518998,1.2847003,0.33791062,-0.7211057,-0.29730228,0.2800745,0.60395676,0.2913956,-0.8549902,-0.39303952,-0.17030892,-0.01587417,0.11782572,0.0921071,-0.36350617,-0.4005493,0.4691282,-0.49704525,-0.21832971,0.3777908,-0.0009802742,-0.07297887,1.240489,0.0044782055,-3.8040044,1.0808762,0.87149817,-0.23168135,2.582936,4.697351,-9.32673,-1.739355,3.4811375,-1.4213431,1.5111632,10.516239,-6.5495877,-5.6853724,3.1485603,-0.73434037,-1.9287056,7.540037,-1.7587755,-4.3987594,1.3934261,-0.2699156,-0.4961349,2.4785504,0.3444117,-2.0209532,0.36777708,0.5880792,0.44030076,-0.8569327,-0.032677386,0.30299127,0.080489166,0.21908833,0.91580135,-0.33348763,-4.277381,1.0432488,1.4383361,-0.5331554,2.362027,4.9376802,-9.6277485,-1.9954637,3.7797287,-0.7980641,0.49947283,9.953043,-6.7437935,-5.3503675,3.546682,0.4060113,-3.0126162,6.6758213,-1.2538407,-4.165713,1.7563479,0.7968503,-1.0663108,1.3266678,-0.08185467,-1.8048993,0.50099003,0.107875206,0.21514352,-0.87938774,1.0044076,1.3642951,-0.9692079,-0.50432795,0.40176308,-0.61994106,-1.6009834,2.4409232,-0.021127459,-0.87271196,0.6335961,2.621777,-5.326092,0.47823158,1.9857534,-1.2793301,-1.1433861,6.180597,-3.007761,-2.4421368,2.1836004,-0.23107445,-3.4058828,3.9496589,0.2339572,-2.3778062,1.2143927,0.17402653,-1.223496,0.4351422,0.41572163,-0.5313347,0.5452932,0.057534672,-0.113798864,-0.047643065,-0.3221579,0.08965971,-0.048822798,-0.8007665,0.042651888,0.5513891,0.077181764,-0.13448957,-0.36934718,-0.1186993,-0.6439527,-0.68569714,0.30364513,0.07949586,-0.4250669,-0.5521151,-1.9296803,-3.9319596,-2.1924884,0.2226973,-0.40582818,-0.21870436,-0.23975806,-1.8077141,-0.36753222,-0.26317123,-0.30527863,-0.26171926,-0.9648402,-0.89659715,-0.20581804,-0.44466862,-0.73905736,0.19801366,0.072689705,0.23667261,-0.082626686,-0.1360323,-0.009579659,0.279506,0.56881285,0.85884565,0.24030255,0.23195367,0.37388465,0.7906026,-0.6871491,-1.5899172,-0.418896,0.40836912,0.6711774,0.40945813,-2.0516465,-5.305532,-3.3395522,0.10127555,0.5677239,0.6748073,0.16343841,-1.9325843,-0.5822436,0.58115464,0.835614,0.51109666,0.5931335,0.8769954,0.9917018,0.4515655,-0.1293169,-0.09029496,-0.29039583,0.51073366,-0.1705168,-0.08040334,0.10735571,0.051273014,0.6406858,1.5507138,0.41599202,0.0590774,-0.4377717,0.5789767,-0.38513747,-0.12369047,0.54630715,0.75502914,0.72707856,0.58079165,-1.8425616,-3.8158011,-2.4930482,0.3279658,0.64576775,0.902405,-0.063206464,-1.395352,-0.87481743,-0.10254603,0.8515858,0.68823814,0.49294692,0.902405,0.91692483,0.07972273,0.12623143,0.062779814,-0.27279323,0.26830897,-0.06684369,0.21412401,-0.17983802,0.29726988,0.2952146,0.06782462,-2.2331676,-1.322113,0.4286217,1.1165838,1.1561949,-0.2752222,-5.4289594,-3.9790444,0.80642164,0.13611636,0.5048543,0.46188006,-1.5949062,-0.31389907,1.3520081,0.063714035,-0.3144596,0.4745855,1.4663571,0.4674854,0.6098611,1.3123971,-0.11191997,0.14994286,0.8617277,0.3010068,0.32398868,-0.7802634,0.09487039,0.2860592,-0.39797917,-0.52092296,-0.6502195,-0.56389725,0.285125,0.69730437,-1.2787651,-0.76830536,-0.42525852,-0.4779487,0.46188006,-0.13322026,-4.562,-3.6143236,-0.1547074,-0.47159597,0.7167362,0.069319375,-2.058281,-0.90657043,0.08767687,-0.619577,-0.62966657,0.008542306,0.4536589,-0.0066621806,-0.7869898,-0.04276408,-0.5829554,-0.82435876,-0.9185285,-0.71299934,-1.2645649,-0.009604985,0.26868266,0.63153505,0.68123573,1.0179298,0.8579908,0.15751007,0.40246347,0.48056453,-0.6853463,0.17843668,0.50111747,0.5414759,0.69693065,0.23299532,-3.6501977,-2.6756158,0.6390088,0.01856769,0.6950622,0.6569459,-1.3482713,-0.50186485,0.3449153,-0.35463122,-0.18656442,0.67338824,0.970845,0.72533107,0.13116497,0.1835749,0.2546693,0.35481805,0.84528536,0.90208614,0.64984584,0.34832367,0.05611752,0.20890124,0.082026854,-0.12013564,-0.24468634,0.11049226,-0.0026377703,0.40223366,0.41431692,-0.1458126,-0.11641771,0.2804714,0.3787642,0.55768967,0.930877,0.35483003,0.14836869,0.45242572,0.4470812,0.6538911,0.7477689,0.31532702,0.3218334,0.44731358,0.1625433,-0.018139437,0.4589321,0.30022293,0.27466214,0.29464602,0.108981855,0.2972021,0.38550296,0.42314702,0.03883495,-0.2735003,-0.36156878,-0.2862807,-0.3685399,-0.33345193,-0.32415712,-0.3931712,-0.32345998,0.09742141,-0.0455737,-0.31904495,-0.17207049,-0.09486533,0.2855836,0.46311477,0.69246465,0.21389721,0.0020386898,0.12977903,0.26722628,0.48379576,0.40293077,-0.010877852,0.02283042,0.055275176,0.119089976,-0.0475779,0.3018495,0.14767157,-0.029772494,-0.17857687,0.05652417,0.21575618,0.3622659,0.3724902,-0.11060844,-0.53863525,-0.20669372,0.23016317,0.2291175,0.14674209,-0.045777027,-0.48565474,0.11118937,0.9527198,0.9392423,0.38410875,0.20808795,-0.40874004,0.40107182,1.0596104,1.428615,0.5725614,0.03360661,-0.22900131,0.19670178,0.8467588,0.8964861,0.15255135,-0.12094894,-0.48054257,-0.28163326,-0.06645802,0.32415712,-0.16196238,-0.3313606,-0.85419464,-0.6743397,-0.38480586,-0.27559164,-0.4082753,-0.72174335,0.13298823,0.1136037,0.093068756,0.28116196,-0.0036849303,0.124705225,0.1146966,-0.009555653,-0.024575789,0.09082544,-0.118262894,0.18625255,0.25608286,0.03986196,-0.017658904,-0.09467934,-0.3432845,0.03865402,0.1397757,-0.09962613,-0.19591606,-0.2682773,-0.5503596,-0.13229798,0.2230659,-0.18153584,-0.3554789,-0.5351741,-0.8108141,-0.4670694,0.43071622,0.007650275,-0.03382227,-0.25056088,-0.52044874,-0.46522874,-0.0031169117,-0.018607998,-0.107679054,-0.02139776,-0.23859653,-0.039746914,0.022763882,-0.06988785,-0.16105841,-0.1069888,-0.26229513,0.04141502,0.20166814,0.07011793,0.0013418539,-0.20822552,-0.37135467,-0.023037106,0.20350881,-0.015559393,-0.1312626,-0.2558528,-0.47075072,-0.09525455,0.38147834,0.05150993,-0.088179484,-0.36491233,-0.5742883,-0.29818815,0.672764,0.24664946,0.17969517,-0.15956287,-0.34811625,-0.29772797,-0.026143232,0.029134316,0.12343977,0.31107283,0.1215991,0.27172855,-0.035720456,-0.022476276,0.07218868,0.17118208,0.050963484,0.2779408,0.040954854,0.022188673,0.0934714,0.020419905,-0.083980456,0.18280129,0.011914008,-0.050215714,-0.09289619,-0.1273512,-0.2724188,0.040437166,0.24641937,0.010461607,-0.12896177,-0.2848433,-0.4546449,-0.21558818,0.37457585,0.05392581,-0.0681047,-0.2947369,-0.47903374,-0.37204492,0.02394606,0.16319405,0.6321104,1.8408943,1.0680599,0.476297,0.44546232,1.0654356,2.1820438,2.674086,1.1684365,-0.7078849,0.93488044,1.7582313,2.3631153,1.9432392,0.3742802,-1.545669,1.289151,1.4931844,1.336387,-0.35263035,-1.0536267,-1.5902809,0.8686187,0.49597868,-0.47924924,-1.2930872,-1.7070589,-1.7739767,-1.1205444,-1.8461429,-3.0965865,-3.033605,-2.5638685,-2.4221604,-1.976042,-1.464318,-2.3171914,-2.2109103,-0.9250396,0.6193173,-3.1123319,-3.1779375,-2.9575024,-1.5272994,-0.38871345,1.7109952,-4.416572,-3.579444,-2.4116635,-0.1651622,1.848767,3.5715714,-3.6555464,-2.6229136,-0.2985057,0.3523023,2.3486822,3.3327668,-2.1439924,-0.64555955,1.0477221,2.06789,2.7606854,3.369506,-0.19780102,1.5705992,2.5297537,3.7526429,3.8812299,4.2013855,2.6347227,2.2752037,1.1028309,0.23306406,-0.6137408,-1.3108008,2.9837446,1.9445513,-0.17270686,-1.0464101,-1.4406999,-1.208456,3.023108,1.661135,0.15359922,-0.790548,-1.0752765,-1.464318,1.9353665,0.6724579,-0.07261725,-0.8436886,-1.30096,-2.2122223,2.1426804,0.5173005,-0.13555767,-0.34902203,-1.2169847,-2.1767952,1.487936,0.118500195,-0.313923,-1.0614994,-1.5286115,-1.8408943};

#endif
