#pragma once

#include "parameters.h"

#ifndef KERNEL83_H
#define KERNEL83_H

static float bias83[FEATURE_MAP83] = {0.7503791,0.27753523,0.27549052,-0.11219108,-0.04103011,0.70392513,0.8955141,0.12738237,0.05918084,0.66114587,0.24040863,0.08447637,0.76715034,-0.37563998,0.30642608,0.10688055,0.05145361,0.02917945,0.18631631,0.2829714,0.5330929,0.40515947,-0.115478426,-0.47135863,0.6307318,-0.032824103,-1.3419812,-1.172591,-0.011076457,-0.8423314,0.07593417,0.018100627,-0.42120388,-0.09251292,-0.16546135,-1.2240489,-1.0032063,0.36338747,-0.074483946,0.480694,0.79113203,0.0369457,-0.4256058,0.051438645,0.017271996,-0.09083765,0.11276251,-0.86239094,-0.40544996,-0.57537913,1.5652311,0.7472454,0.16569318,0.34904745,-0.5347231,-0.02601701,-0.2869162,0.33107674,0.6961378,-0.67517996,1.4229943,1.0697732,0.71321774,0.694411};

static float kernel83[FEATURE_MAP83][IN_CHANNEL83][KERNEL83][KERNEL83] = {0.026683541,0.03215338,-0.067432374,-0.016684448,0.050096758,0.058489628,-0.018391963,-0.12595095,-0.12757164,0.08086097,-0.016322687,-0.21717277,-0.89230686,-0.147483,-0.022805456,0.013045127,-0.10968614,-0.17387713,-0.07142623,0.027363654,0.024252502,0.06164419,0.03475806,0.016944917,0.04098036,-0.10998026,-0.21968472,0.10377448,-0.20975547,-0.37427768,-0.0866741,-0.25581616,-0.029305086,0.029891187,-0.2370609,-0.47660413,0.3094617,0.4404727,0.10570517,-0.55245256,-0.2964985,0.23940532,0.24285297,-0.041268457,-0.22933815,-0.083157495,-0.022771776,-0.3108408,-0.40489286,-0.031701207,0.14343072,0.43651628,-0.26915738,0.10878329,0.35629466,0.3800845,0.7894914,-0.5067794,-0.083264515,0.52227044,0.0589214,0.36763635,-0.12351364,-0.47524396,0.28907448,-0.51535475,0.69931126,1.0816088,0.95104116,-0.24605909,-0.19018057,-0.14868663,0.29211736,0.02401462,-0.2525598,0.25422525,0.12130054,0.34033036,0.29404888,-0.14573285,0.07340459,0.084221534,0.10757754,0.09385455,0.2897436,0.2759668,0.26003736,-0.0652246,0.16812018,0.07496524,0.18953882,-0.26025262,-0.07657971,-0.10111966,0.18749382,0.057851855,0.0696913,0.23011585,0.13690709,0.06054264,-0.9126014,-0.27526677,0.21938106,0.4955396,-1.1646816,-0.3156947,0.13845085,-0.25579596,-0.6878696,-1.1973807,-1.391197,0.109913476,-0.41438645,0.23364975,-1.1878682,-0.17300783,-0.41498098,0.21388167,-0.34720472,-1.09096,-1.5291276,-0.40903568,0.056331586,0.2477698,-1.2366196,-0.30782938,0.22013496,-0.2578895,-0.23751403,-0.2866549,0.036580957,-0.10517337,0.0931878,-0.06801811,0.04439655,-0.088593334,0.115760624,-0.021299357,-0.23172101,0.012241512,0.042249132,0.23391837,0.06292424,-0.19866082,0.12754644,0.07341161,-0.33819282,-0.34937936,-0.15211685,-0.3310015,0.2503798,0.0029407516,0.07298825,-0.21407379,0.19450992,0.5045219,0.26674572,-0.20184638,-0.047216628,-0.076938644,1.3800046,0.41686073,-0.1954505,0.15745147,0.04491223,0.47479987,0.25846872,-0.086532466,-0.045382515,-0.1076953,0.0826291,0.0068544056,0.11531391,-0.021997586,-0.012415527,0.14631057,0.08151301,0.14610918,0.016023172,0.17521018,0.18115121,0.16423437,0.179238,0.35767043,-0.11821652,0.58645064,0.6186732,0.82167536,0.7628692,0.47689393,0.36693442,0.26805145,0.48253286,0.33249655,0.15527247,0.2261621,-0.055281833,0.0615753,0.08443318,-0.033330213,-0.28531256,0.16643234,0.28273684,-0.0998594,0.091141514,0.0076776817,0.170395,0.09758086,0.034475267,0.052208237,-0.11026142,0.14226002,0.16781926,0.2732264,-0.16464913,-0.11531383,0.14334975,0.4941455,0.29046404,-0.19218971,0.020915492,-0.122644775,0.025274433,-0.14245816,0.18753357,0.013873946,-0.07008912,-0.09146527,0.006628663,0.019063829,-0.1567242,0.061507825,-0.004993978,0.04205861,-0.15939622,0.15405218,0.26781854,0.6474508,0.37942672,0.25630832,-0.121987954,-0.14593336,-0.2857005,-0.09012926,-0.260008,-0.22259976,-0.14058931,-0.6305965,-0.35065114,-0.13226496,0.14514469,0.24899943,0.08090032,0.15508227,0.16991867,0.40366182,-0.027013429,-0.30036694,0.19357291,0.42661622,0.31044447,0.015072583,-0.24969926,0.07460185,0.72446376,0.26355588,0.107633814,-0.53998864,0.25739738,0.06609892,0.13037829,-0.2606166,0.06228485,0.108263664,0.21680726,-0.034342438,0.013097607,0.07931404,0.0905367,-0.021339253,0.17125356,0.086274244,0.07203009,0.15528286,0.09042879,0.07051935,0.21722333,-0.26718578,-0.024657492,0.16024673,-0.023322104,0.32243583,0.5455942,0.280135,-0.18981414,-0.022310445,0.23071212,0.41977087,0.057084523,-0.12819737,-0.19993308,0.24274704,-0.10112777,0.12864381,-0.0865367,0.17317437,-0.23264942,-0.14086194,0.1312692,0.28495514,-0.06664436,0.08259862,-0.20982876,-0.11026613,-0.25163296,-0.25466225,-0.15459472,-0.054880623,-0.3166617,-0.3039387,0.08885915,-0.3307984,-0.16691384,-0.2974762,0.087950364,0.46190912,0.14257483,-0.03946516,-0.3323967,-0.4652442,0.32461482,0.22345062,-0.22150515,-0.1914894,-0.16119573,0.50220805,0.3854801,0.09880186,-0.22400646,-0.7020351,0.28181458,0.21302848,-0.08803232,-0.107000604,-0.46607795,0.36602545,0.30932903,-0.031648558,-0.240265,-0.44745708,0.20594363,0.18322153,-0.36696842,0.21605693,-0.14276832,0.29788274,0.014800557,0.15800394,-0.1149239,-0.44051972,-0.12812373,0.29604396,-0.39638895,-0.3908726,0.10993292,0.48281172,-0.10467926,-0.076966174,-0.39166066,-0.1149239,-0.14237429,-0.2755547,7.131438e-05,0.22406878,-0.102906145,0.093970366,-0.13644472,0.25023645,-0.033534974,0.24760237,0.095550805,0.14935164,0.5810754,0.37166697,0.07329293,0.25010473,-0.10332131,-0.17016079,0.26340678,-0.026702862,-0.11662335,-0.38615432,-0.42066061,-0.053471576,-0.093970366,-0.37904236,-0.12366948,-0.075466044,-0.13078147,0.13420576,0.15812287,-0.12188403,0.055399276,-0.41730934,-0.37769422,-0.27325433,0.2626753,-0.12447252,0.13977838,-0.27460486,-0.26515123,-0.30139008,0.07225259,-0.12661085,-0.2962131,0.13640209,0.329976,-0.2847337,-0.28225777,0.18918473,-0.32547426,0.25749832,-0.122334205,-0.23904127,0.14731875,0.0480676,-0.19860898,0.26895484,0.07376373,-0.19624755,0.23328477,0.16815892,0.2808863,0.32761782,0.24148765,0.345515,0.0022254956,-0.07724373,0.34601215,-0.19686899,-0.0983102,-0.29903206,-0.31866923,-0.10614022,0.17971751,-0.027187556,0.101914495,-0.21687903,-0.45215237,-0.11502667,-0.108949676,0.051227994,0.24547748,0.046938952,-0.4948031,0.12321976,0.1898402,-0.10454038,0.12193705,-0.18246466,0.12201723,-0.17540978,-0.35787442,-0.51692975,0.6573858,0.2493256,-0.21340989,-0.08441796,-0.1246628,-0.1368485,-0.0030990331,-0.1699583,-0.14181897,-0.21966307,-0.3116971,0.117712714,0.29650092,0.32935715,0.20071442,0.039314855,0.17249517,-0.0017409327,0.22482665,0.16507602,0.11850762,-0.036433313,-0.094527885,-0.1178452,0.061506055,0.09499158,0.031017996,-0.084061585,0.04978115,0.09585273,0.0002678159,0.08902977,-0.09426291,0.15354985,-0.0589226,0.107312664,-0.44484246,-0.4228689,-0.14172944,-0.07873858,-0.41261458,0.2013022,0.41017306,-0.25001025,0.05038659,0.26929817,-0.24769083,0.044374377,-0.2240082,-0.13464908,-0.2834589,-0.023835206,0.19214655,-0.00086930976,0.06689727,-0.119023435,0.2003256,0.07178029,0.0054056477,0.24647006,0.090763,0.05963323,-0.3115366,-0.27513644,-0.38433692,-0.062327657,-0.0776808,0.06888579,-0.28815103,-0.29303148,0.1009647,-0.23812622,-0.3284149,-0.41605997,-0.035357982,-0.3149936,-0.23426251,0.17132479,-0.18372932,0.11316587,-0.23161893,0.01567088,-0.17203653,0.14295708,-0.24402344,-0.13187434,-0.49599758,-0.014489638,-0.11325845,-0.62871736,0.22034883,-0.9069184,-0.48366144,-0.42304423,-0.292026,-0.49344528,-0.02826144,0.4185777,-0.021920562,-0.33541518,-0.053359088,-0.24693532,0.3430721,0.27330914,0.27777565,-0.7086895,-0.30989215,-0.4343169,-0.774624,-0.6508373,0.1422909,-0.008429859,0.13803668,0.09917199,0.04233476,-0.21519174,0.04180827,0.2732016,-0.07035851,0.35954633,0.24544111,0.05207487,0.36509842,0.22189255,0.3878812,0.21863787,0.23854885,0.023668218,0.08399944,0.14617339,0.091513924,-0.0008570456,0.0070119193,0.24850433,-0.029172456,0.055329546,0.07218617,0.41680917,0.512258,0.053180344,0.3988226,0.76982594,0.4633345,-0.03831143,0.45829824,0.45566022,0.23478492,0.42664185,-0.104621984,0.3163241,0.8585598,-0.12272848,0.5698151,-0.28178987,0.087774545,0.26835987,0.94585466,-0.02510628,0.49882802,0.22063547,0.75975347,0.10555892,-0.07741276,0.29612008,0.07919087,0.16219817,0.06938959,-0.053950407,0.11006924,0.26316002,0.14068739,0.016480029,0.052649353,0.23904714,-0.07246876,-0.16592786,-0.21354647,-0.12134505,0.0893391,0.21580163,0.10460481,-0.03053142,0.0091887,-0.08556604,0.25379243,0.18388242,-0.197271,-0.11887114,-0.0943447,0.06261394,-0.070030145,0.038617227,-0.13063112,0.04841721,-0.18169697,-0.059011787,-0.13433921,-0.010727008,0.08682255,-0.075751215,-0.19388074,0.1435565,0.23308067,0.111772776,0.26041466,-0.028075626,0.2023564,0.4445484,0.6360983,0.38479498,0.3350005,-0.10771765,0.067893304,-0.0050080307,0.04537216,0.0060951035,0.026224688,0.30084172,-0.27397227,-0.05292919,-0.11959297,0.8118408,0.9442687,-0.78209245,-0.7225959,-0.36105803,0.14382344,0.45438135,-0.24386412,-0.22779043,-0.14022486,-0.11065649,0.03130769,0.042223398,0.04588196,-0.046571687,0.23528863,-0.076475866,-0.4022221,-0.0048989044,0.03426585,0.25251865,-0.10345073,-0.48385283,-0.158036,-0.22907452,-0.101049826,0.33923367,-0.61463153,0.29065067,0.11510218,0.28613132,0.36973926,0.08353735,0.20294704,0.27935228,0.4355523,-0.097519085,-0.22399026,-0.28203565,0.0062008654,-0.2345059,0.46983656,1.8309605,0.56220937,-0.37086573,-0.28179199,0.43739614,-0.3194559,-0.08398776,-0.16069016,0.38681105,-0.18680747,-1.1194701,-0.4973285,0.31478226,-0.3934091,-0.14625691,0.2806923,-0.19051887,-0.19175601,0.041031662,-0.14886864,-0.9754126,-0.3197308,-0.14708167,-0.08395516,0.06206564,-0.21372877,0.016434139,0.029146379,0.07137889,-0.15621778,-0.39591488,-0.2538369,0.12046037,0.03732096,-0.25818762,-1.0561355,-0.3600215,0.007146386,0.0054553864,-0.15730546,-0.2849717,-0.21427262,0.04316723,0.11631359,-0.031899564,0.018575504,0.08735416,0.17498024,0.23214269,-0.19873224,0.32611787,-0.029650105,0.16864952,0.34688294,0.47253814,0.5252494,0.5084777,0.34954512,-0.26448825,-0.31999484,-0.57982427,-0.39560094,-0.0058360123,0.036305573,0.14788447,-0.32318947,-0.0474202,-0.122527145,0.05128037,0.1481507,-0.28884727,0.11234428,0.15347506,-0.4763293,-0.24979512,-0.5134774,-0.29544914,-0.45133242,0.021459987,-0.057935458,-0.147117,-0.08818341,0.0008008167,-0.08254176,0.10892734,0.35082415,0.035216946,-0.011749832,0.07872279,0.20726573,0.18886526,0.17298183,-0.004689626,0.31523833,0.17272145,0.20309958,0.30517015,0.2110847,0.47667745,-0.033737678,0.17450522,-0.24319452,-0.35669878,0.41759858,0.24744335,-0.6664582,-0.13343327,-0.7866392,0.03806237,-0.1726843,-0.43580782,0.115224026,-1.0439965,0.39311728,-0.067222446,0.10763685,0.39777073,-0.6648396,0.040212072,0.23267363,-0.40930328,0.11249264,0.20586558,0.1846096,0.06976847,-0.16434352,0.2666706,-0.14806421,0.10387751,-0.054015197,0.019864636,0.14584933,-0.051744953,-0.21927235,0.053156935,-0.36501095,0.2156178,-0.20376824,0.12713367,0.48682892,0.06218254,0.2567037,0.1726493,0.36678284,0.32913002,0.10542792,-0.1777435,-0.1810658,-0.60363495,-0.41471958,-0.261128,-0.07735471,0.07534259,-0.25442097,1.5837593,0.050610323,-0.6291218,-0.049660154,0.33132854,0.1008294,-1.252878,-0.14185423,-0.21786751,-0.40644756,1.7268431,-0.22613955,-0.2108251,-0.14084816,-0.78427833,-0.24234827,-0.66981125,-0.026059704,-0.049296856,0.33600202,-0.15146375,-1.0049396,-0.7022311,-0.23940691,0.049967706,0.33687818,0.5554766,0.38594234,-0.65754765,-0.109244466,-0.09517137,0.8713273,0.26350093,-0.5550385,0.31869814,0.233931,-0.0100619905,0.3009562,-0.67200404,0.4120077,0.01631822,-0.50597435,-0.42624506,-0.13886915,-0.1469314,-0.13064808,-0.14451434,-0.09712737,0.04621024,0.0034148826,0.2806326,-0.030674312,-0.29640704,0.3638301,-0.28419456,-0.03406137,-0.34983665,0.30963722,0.5032559,-0.19171047,-0.50351036,0.064942405,0.10571427,-0.13866252,-0.35568845,-0.18942064,0.05148959,0.16792159,0.15532747,0.41171825,0.13577798,-0.043775417,0.2630572,0.32187408,-0.08201989,-0.4540772,-0.3798816,-0.3480449,0.28086415,-0.07959167,0.037907217,-0.12599765,0.11068638,-0.52125794,-0.32484192,0.28922802,-0.34291866,0.00504193,-0.06748429,-0.15877862,-0.17550637,0.2649458,0.18414004,-0.36342365,-0.15777798,0.009726685,0.18466584,0.09131118,-0.07345764,-0.27339578,0.2961967,0.2002608,-0.08163155,-0.045144722,-0.52140945,0.62293804,0.31211433,-0.31297472,-0.18348278,-0.44956508,0.31297472,0.19079627,-0.03108237,-0.16337065,-0.19208689,0.07313499,0.2594141,0.022249706,-0.054824352,-0.15039943,-0.11777254,-0.31300765,0.16608138,0.4433047,0.043046445,-0.25280577,-0.5944409,-0.7817824,0.6319092,-0.1818686,-0.0745156,0.93039256,-1.2663443,0.481194,0.16597614,-0.3628952,-0.2302827,-0.082619704,0.25869966,-0.37005207,-0.06351718,-0.015168873,-0.34079313,0.3315313,-0.08100224,-0.02671924,0.13914849,0.1837105,0.14849213,-0.079996005,-0.066699274,0.13584226,0.07007736,0.037805837,-0.1078832,0.14921087,-0.16516694,0.21016021,0.22094133,0.11693935,0.00039671198,0.11327376,0.09631145,0.24954727,0.076330416,0.028210629,0.033655103,-0.03606289,0.19636036,0.039308187,0.18454158,0.3467396,0.22798748,0.38811663,0.18640356,0.27350223,0.3181894,0.3494291,0.03711003,-0.15412946,-0.18681733,0.24888289,-0.19509274,-0.26584747,-0.025227062,-0.026817493,-0.39908153,-0.18640356,-0.11554538,-0.101322025,-0.24557272,-0.33536088,-0.33577466,0.018697249,-0.010259613,0.008902728,0.31956106,-0.06973804,0.14509885,0.12744957,0.26255238,-0.014027653,-0.031374305,0.10675464,-0.15978053,0.21600829,0.059390567,-0.10355278,0.20288849,-0.24021746,-0.06637999,-0.093322456,-0.12932384,-0.22444245,-0.23256424,-0.1839897,0.109097466,-0.18523921,-0.030359084,-0.04871319,0.017133934,0.12701702,-0.0125998845,0.11327169,0.027967926,0.1136535,0.15768947,0.26167032,0.07642657,-0.0056596072,-0.100417264,0.05774947,0.20019816,-0.0038996802,0.1360533,0.03802238,0.208089,0.15361677,0.0021099239,-0.040090542,0.018915735,-0.060390357,-0.13401695,-0.11906254,0.20546226,-0.19991216,-0.76700103,0.47926682,-0.2983991,-0.10664884,-0.19316499,-0.34279984,0.40678915,-0.0071280603,-0.19566798,-0.25552192,-0.30645218,0.5005966,-0.47404322,-0.02666221,-0.18837668,-0.66296405,0.618128,-0.2052446,0.16715574,-0.1717264,-0.70562357,0.47970214,-0.13352871,0.14866325,-0.048438728,-0.094895996,0.05226777,0.031756956,-0.35644907,-0.22577964,0.40593207,-0.481549,-0.116103,0.13131207,-0.53895783,-0.1268136,-0.3024676,0.4558435,0.120922774,-0.5912256,1.5577509,-0.5119671,0.21913905,0.02393821,0.19461177,-0.045600418,0.124028854,0.16312258,-0.16715002,0.009715757,-0.057449695,0.07928578,0.069732495,-0.2942672,-0.09585781,0.024630582,0.17767814,0.22966881,-0.31142414,-0.110870115,0.1143145,0.17481865,0.4226842,-0.30752483,-0.078180976,-0.036815897,0.17962778,0.26749203,-0.2765904,-0.12367282,-0.031405617,0.11074014,0.18742639,-0.085255496,-0.46448156,0.3486628,-0.37158525,-0.15140893,0.31930596,-0.41863665,0.5831154,-0.1778502,0.3922959,0.47775248,-0.27969432,0.47895893,0.31166512,-0.18699908,0.6088529,-0.10626776,-0.04810702,0.27245563,0.11350643,-0.41039258,-0.6603279,0.07791628,-0.79544985,-0.32171884,-0.0026569106,0.07568647,0.07328974,0.10747479,-0.056512564,0.097572476,-0.07297438,-0.011889083,0.087922454,0.057584792,0.17622334,0.11024996,-0.00017196992,0.23134832,0.20309204,-0.0046042604,0.22441038,0.17218673,0.12608105,0.08218289,0.004793477,-0.021476036,0.03954618,-0.1009153,0.10041072,0.27100867,0.32298928,0.3612421,0.053484496,0.38407034,0.30309168,-0.042301726,0.22103326,0.04488533,0.03042485,0.21933657,0.33224398,-0.12586401,0.31234637,0.28658745,0.26514736,0.38746375,0.26267943,0.1941946,0.3754326,0.30864447,0.38098544,0.66757286,0.39640996,0.17491397,-0.122781925,0.07984307,-0.34235036,-0.13148575,-0.21353379,0.13171785,0.086341925,-0.43635166,-0.17906664,0.13334256,0.38180768,0.084253006,-0.47580898,-0.042590708,0.20459786,0.076013386,0.24974169,-0.5384765,-0.31310552,0.09730874,-0.10902989,-0.03652704,-0.34235036,-0.098527275,-0.15237492,0.09762648,-0.30647886,-0.35069144,0.21157226,-0.19571592,-0.1575218,-0.029687246,-0.36041358,0.28379387,0.29629377,0.06602953,-0.3421267,-0.36874685,0.097394995,-0.15335517,-0.41573718,0.1292813,-0.17522998,-0.029253222,0.24259052,-0.3770801,-0.1371516,0.08686268,-0.18078549,0.1575218,-0.19359328,-0.22087169,-0.064995006,-0.1592169,-0.1597736,0.08461877,-0.009568323,-0.0718842,-0.1260931,-0.16882001,-0.058906075,-0.07898216,-0.111340486,0.07605947,0.039386697,0.0033750085,0.22351603,0.07571153,0.08148732,0.038308088,0.084340416,0.24689753,0.1774489,0.22908305,0.019884715,0.4950118,0.37277916,0.74190956,0.3417649,0.6452181,0.14093241,-0.07776368,0.25601962,0.18593349,0.043138698,-0.016020231,0.14397302,0.10376092,0.033256706,-0.037437547,-0.029398927,0.001827931,0.2538912,-0.030349119,0.1602403,-0.5789327,-0.6066023,-0.44697013,-0.5409251,-0.7619776,0.13616152,-0.06924606,0.20491457,0.0020686982,-0.006700509,-0.06888751,0.1375061,0.020729,0.063867725,0.16403922,0.2482998,0.043250777,0.33040905,0.3485161,0.12800437,-0.011311311,-0.23485397,-0.165832,-0.17829181,0.014913674,-0.16161896,-0.079778634,-0.14315335,0.012997643,0.04210788,-0.303518,-0.058885653,-0.12953965,-0.10257784,0.23870425,-0.05835871,-0.22816543,0.047863804,-0.5069172,0.6193313,-0.58385056,-0.092302494,0.08979952,-0.05032286,1.0798776,0.19935933,0.12462154,-0.20656085,-0.5009452,0.15720405,0.02931109,-0.059412595,0.21674839,-0.28735846,0.04406544,0.055218264,-0.018221127,-0.35776398,-0.0597473,-0.08956096,-0.23359035,0.1868003,-0.3877576,0.15296748,-0.2389892,0.03566242,-0.409353,-0.01501181,-0.20827574,-0.05731782,-0.34120747,0.0014162615,-0.4393466,-0.35608432,0.10419785,-0.023095092,-0.15872626,-0.3834385,-0.16724445,0.042920876,0.18172407,-0.28856105,0.7899287,0.26080367,-0.13958201,0.38310963,0.5239205,-0.20644549,0.50396985,0.17232704,0.39814487,-0.14832848,-0.38426617,1.2687434,0.8263602,-0.2897176,0.7216918,0.6436242,0.3437867,0.93160695,0.45018995,-0.17767613,-0.032040253,0.5794352,-0.037407402,-0.19510357,0.1490564,0.3994166,0.0009999538,-0.11818774,0.036283467,0.27696523,0.5491552,0.43591323,-0.1546844,0.26161617,0.251554,0.67160654,0.20192538,0.30169424,-0.30817497,-0.37315264,-0.7169715,-0.798151,-0.12748244,-0.28498083,-0.32386512,-0.42840925,-0.38270319,-0.08825708,-0.14722338,-0.10894987,0.007543197,0.11619287,0.020394746,-0.07830057,-0.04040828,0.47727516,0.32723084,0.30923772,0.11619287,0.3132023,0.28712752,0.46599135,0.5995674,0.0030925677,-0.15370394,0.45806217,0.36474192,0.36352205,0.18267593,0.38944432,0.04563086,0.0716294,0.1599558,-0.030024003,0.09719937,0.034189053,-0.120897844,-0.17212574,0.09078474,0.0034885085,-0.0757282,-0.2471412,-0.3773937,0.08717652,-0.13265799,0.21952268,-0.09942667,-0.32019663,-0.09011655,0.20419887,0.171413,-0.2940036,-0.41837603,0.031805843,0.1446854,-0.056617964,-0.24927941,-0.0378641,-0.27903163,0.16254614,0.010025754,0.10190257,-0.035190172,-0.0815843,-0.25857997,0.077093825,0.23919538,-0.20700626,-0.3848467,-0.1477854,-0.092743784,0.10368097,-0.14138314,-0.30143952,0.23955105,0.048772737,-0.20789546,0.07518204,-0.19580232,-0.17019328,-0.09701195,0.13782632,0.042459402,-0.4669841,-0.08516176,-0.1566811,-0.43391156,-0.41175297,-0.45375508,-0.3859564,-0.45739305,-0.24192554,-0.3165041,-0.046425562,-0.15998836,0.23382278,-0.44449478,-0.36346707,-0.46103105,-0.16792576,-0.25912327,-0.45739305,-0.2579657,-0.19645081,-0.15014927,-0.33651298,-0.007415481,-0.14841297};

#endif
