#pragma once

#include "parameters.h"

#ifndef KERNEL71_H
#define KERNEL71_H

static float bias71[FEATURE_MAP71] = {-0.17452522,0.2156556,1.6507614,1.9815205,1.3811945,0.35419434,0.5677451,0.65145123,1.8734845,0.53946304,-0.0033321083,0.4037146,0.07049894,1.0479534,0.18636873,1.717537,2.2320468,-0.55035496,0.7509609,0.6737407,0.8376657,-0.37781122,0.7160078,3.6764755,1.088957,0.014477462,0.17363538,0.18093063,0.31294572,2.3367982,0.8571623,1.3931739,0.2116471,0.50281143,-1.2573905,-0.49246758,2.0076125,0.83083165,-0.52136886,1.3280989,0.51187736,0.61545044,0.7252251,1.473685,1.2902182,-0.39116597,0.12851396,0.26462483,0.5911853,0.90390414,1.0530028,-0.61663294,-0.19663186,0.8841549,0.8585562,0.010967478,0.60831726,0.7882633,1.55094,1.6664982,0.3005757,0.6112188,0.62997174,1.0151703};

static float kernel71[FEATURE_MAP71][IN_CHANNEL71][KERNEL71][KERNEL71] = {-0.01851936,-0.37975335,0.5960254,-0.24068074,0.0633277,-0.06446299,-0.17653705,0.7782389,0.13836305,0.05949611,-0.070423245,-0.817974,0.40728405,0.5369905,0.014128995,0.04140248,-0.22890215,0.69763356,-0.12984839,0.21315004,0.015512626,-0.5191098,0.33547717,-0.13637629,-0.015512626,0.12563524,-0.23529474,0.07471259,0.114782155,-0.08864795,-0.19413987,-0.01448886,0.07080548,0.09194728,0.06885193,-0.38133377,-0.3743878,-0.28079084,0.3412208,0.57616824,-0.2464083,-0.1772959,-0.27158743,0.36744183,0.33219102,-0.1660087,-0.049967572,-0.019492129,0.18875673,-0.1230305,0.05095826,-0.19315183,0.121587746,-0.273973,-0.3122473,0.04873301,-0.14384027,0.24264143,0.32346258,-0.41799125,-0.070006415,-0.19831443,-0.104319796,0.6483493,-0.5949433,-0.09773305,-0.20365502,0.4927597,0.46107212,-0.67469627,0.15105008,-0.39734092,0.20899563,-0.19190569,-0.27557516,-0.06337113,-0.12499903,-0.12007701,-0.05947452,0.0036658864,-0.04906648,-0.11669311,0.00063528144,-0.084135935,-0.15360832,-0.118743956,-0.016393946,0.15186511,-0.1600685,-0.032608442,-0.14099562,-0.1154626,0.022482393,-0.046092752,-0.11423209,-0.038837887,-0.084135935,-0.17114305,-0.07331773,-0.04188852,0.035981778,0.063818544,0.19068904,0.1312784,0.07105323,0.029825108,0.09821923,0.75087404,0.5481112,0.083031185,-0.09371552,-0.13894428,-0.59640634,-0.4871674,-0.08442063,-0.0021605236,-0.044150744,0.040150106,-0.046306774,-0.02524953,-0.0025258514,0.022722181,-0.01142098,-0.0008070147,0.017356057,-0.03769492,-0.08543876,-0.20501631,-0.0726826,-0.13196664,-0.06763519,-0.099387944,-0.3188123,-0.14141904,-0.07020478,-0.19088359,-0.28650892,0.013272374,-0.35809025,-0.2654016,-0.11443838,-0.17665909,-0.28045204,-0.18491848,-0.1620675,-0.17243762,-0.07433447,-0.33312857,-0.20263027,-0.09709367,-0.05576913,-0.072060265,-0.24525775,-0.10383804,-0.17423184,-0.04487964,-0.18859792,-0.4410962,-0.24203974,-0.050511144,-0.19641307,-0.4668402,0.14710867,-0.4079967,-0.29306808,-0.064360045,-0.10464254,-0.53051066,-0.20261922,-0.097229645,-0.01837422,-0.055481806,-0.011263008,-0.050626073,-0.04223628,-0.20156541,-0.039022848,-0.31579185,-0.16385086,-0.17386596,-0.1361514,-0.14679809,-0.034917556,-0.18586606,-0.1237904,0.009197437,-0.21076849,0.24469356,-0.031105496,-0.18108407,-0.222137,-0.056075606,-0.14120406,-0.22809194,-0.018823449,-0.09717366,0.08070737,-0.28150588,0.021755802,-0.13299347,0.012049869,-0.0237754,-0.019841036,0.006599577,0.012451766,-0.00096420106,-0.057873216,-0.014736235,-0.030769823,0.035282355,0.000459626,-0.15838985,-0.5545901,-0.061031986,-0.03446446,-0.018487277,0.1927979,1.4169348,0.19426447,0.027075188,0.0063633746,-0.06351388,-0.05764759,-0.12770464,-0.0050237165,-0.043202564,-0.009746774,-0.26331174,-0.24197246,0.032128036,0.063255794,-0.052681405,-0.24597357,0.009877764,-0.07192488,-0.039963562,0.040558964,-0.53843635,-0.17519186,-0.022434847,0.01058034,0.16328378,0.4885176,0.43631253,0.057111215,0.029936947,-0.0035158645,0.3837264,0.101075895,0.1124124,-0.040056463,-0.18842886,-0.108315945,-0.19466214,-0.078426875,-0.08139023,-0.118840985,-0.2656806,-0.019606719,-0.20518719,-0.32024732,-0.090484686,0.0022368901,-0.04884436,-0.3474285,-0.20457408,-0.042534444,-0.24156499,-0.23277709,-0.18505676,-0.1032067,-0.21806248,-0.09518519,-0.13978888,-0.13427089,-0.10751398,-0.036314562,-0.03520654,0.046215285,-0.010642383,0.21417014,-0.022517888,-0.20773645,-0.06326454,0.022357047,-0.18285955,-0.34341568,-0.98649794,-0.54900753,0.019765701,0.15212084,0.034187872,0.46865803,0.16470227,-0.019283175,-0.28108042,0.027682705,0.9384598,0.23919001,-0.10501199,-0.17286006,-0.20211159,-0.17683385,-0.50599647,-0.11336352,-0.18257377,-0.07605401,-0.21105263,-0.16281518,-0.4697908,-0.20696846,0.25432283,-0.11104547,0.013011416,-0.30068377,-0.015853783,0.06341513,0.53513765,0.25145286,0.122856475,-0.1324598,0.15762718,0.18610603,0.2217598,0.0056122947,-0.070803106,0.030854257,0.5230403,-0.0075535667,-0.054163367,-0.016942894,0.035772074,0.2066831,0.06595266,0.0491445,0.036041543,-0.16949631,-0.61007893,-0.32417178,0.06484109,0.037220474,0.027890092,0.42414498,0.11230141,-0.04998659,-0.0036441537,0.08036927,0.5642691,0.095931135,0.0056209653,-0.009193149,-0.09540998,0.10579736,-0.18209969,0.01633447,-0.13913955,-0.19697544,0.087651506,0.07309636,0.17632893,-0.4865396,-0.38856483,0.048442364,0.32264987,0.3008492,-0.21018408,-0.30392694,0.07950831,0.22813757,0.25122064,-0.021784637,-0.0526422,0.21069704,-0.14003722,-0.024285302,0.15864679,-0.15265833,-0.081367075,0.015196918,-0.04652942,0.22870232,0.09914236,-0.09320142,-0.002313995,0.0063746255,0.49960905,0.5383915,0.13840008,0.24505177,-0.02447666,0.13260172,0.23554628,-0.035930786,0.056129973,-0.022147814,0.16948305,-0.18801878,-0.13051051,-0.12689842,-0.081034385,0.058866173,-0.057242565,-0.4732607,-0.34870088,0.030411413,0.031722788,0.025374068,0.116067104,0.059490636,0.06411167,0.01500796,0.3453704,0.48058775,0.2719334,0.024437372,-0.123477414,0.15778132,0.56518185,0.21614793,-0.044961434,-0.013436391,-0.59748745,-1.0397748,-0.6254635,-0.14046285,-0.031971075,0.12222275,0.022965332,0.13099259,-0.026711944,-0.043738205,0.13032654,-0.13154764,0.16251963,0.032498375,0.09352649,-0.01956563,-0.06582933,0.04853942,0.015374978,0.11289786,0.091528304,0.17806113,0.13498898,0.13054855,0.08847551,0.050593115,0.25199422,0.2120304,0.007063054,0.023259453,-0.08515325,-0.29015183,-0.113712884,-0.025800034,-0.11353767,-0.10179844,-0.2605409,-0.20622505,-0.06509142,-0.1209842,-0.42576626,0.11327485,-0.25581017,-0.28033993,-0.04884047,-0.13377471,-0.3714504,-0.27473313,-0.045642845,0.041700564,-0.09312542,-0.2421436,-0.057644896,0.0071125305,-0.060925797,-0.09704056,0.11915829,-0.113771684,-0.058518145,-0.04643909,-0.055824842,0.013619548,-0.14878464,-0.06867925,-0.17286114,-0.14992724,-0.22329937,-0.4671658,-0.16053723,0.04141975,0.06190518,0.49915898,0.4008942,0.07888116,0.07153578,0.10095809,0.3083425,0.209588,0.065088175,0.14396392,0.4133603,0.25682408,-0.024545085,-0.01765938,0.0759426,0.6057967,0.35696656,-0.09861637,0.0037653358,-0.21162187,-0.50463676,-0.98136735,0.034319516,-0.0068584527,-0.0068993308,-0.07826812,0.239092,-0.048654135,0.006390624,0.01898565,-0.014252864,-0.07623329,0.047309697,0.013871334,0.111676134,0.049588244,-0.11192865,0.109592855,-0.18042418,0.16047525,0.0707682,0.16767202,-0.18042418,-0.1868634,0.23105407,0.2944361,0.1520159,-0.124743946,-0.5388736,0.18257059,0.21287276,0.13017309,-0.09084339,-0.36892894,0.1736062,-0.055964325,-0.004202059,-0.0044940333,-0.12000923,0.025716985,-0.019000895,-0.20367852,-0.19845599,0.048308365,-0.0336299,0.16712083,-0.30923685,-0.094005466,-0.036043342,-0.07541011,-0.044391472,-0.79192483,-0.46243095,-0.06682459,-0.21713048,0.09661673,0.0077942247,0.13127531,0.07196799,0.06437159,-0.58903766,1.5699229,0.8400354,0.07283841,-0.046017807,-0.13971037,0.09452103,-0.13782747,-0.06959158,0.007832819,-0.0488798,0.053172786,-0.0337602,-0.051628817,0.010506521,-0.2187164,0.22278343,-0.30849254,-0.14174388,0.076257005,-0.028563427,0.18422186,-0.3455478,-0.07380925,-0.0371494,-0.068650134,0.0067736935,-0.110261984,-0.03780841,0.010839182,0.031407896,-0.16930996,-0.1600468,0.020681288,-0.104982466,-0.03341813,-0.29050294,0.17561404,-0.038628656,0.005684942,-0.14357896,-0.7647252,0.41504097,0.13187136,-0.09346785,-0.14061989,-0.5588772,0.34376612,-0.04638012,-0.04940351,0.045415208,-0.15721639,-0.31314623,-0.094947375,0.02516368,-0.07478791,-0.10679117,0.06750088,-0.089148894,-0.011836092,0.008906366,0.23949176,-0.14309846,-0.08974549,-0.06383606,-0.14054161,-1.1216055,0.981831,0.08671988,-0.051904086,-0.69785,-1.5150198,1.8777518,0.465347,-0.2054004,0.0112608,-0.16474646,-0.08846706,0.1762523,-0.10691847,0.15652864,0.42449686,0.27713266,-0.15102997,0.06463985,0.14980805,0.7981616,0.38857225,0.13453399,0.2844642,-0.4733739,-1.1789136,-0.107162856,-0.0425841,-0.10838478,0.09915924,-0.6041199,0.11064534,-0.05434513,-0.08706218,0.041484367,-0.04463082,-0.026546327,-0.04692193,0.12737322,-0.015530224,-0.1275425,-0.035651807,0.027484687,-0.0070563075,-0.008997586,-0.1420148,0.05886251,0.041195292,0.48613408,0.26676437,-0.6286567,-0.09682058,-0.057000577,0.7427425,0.6631871,-0.7095662,-0.5111856,-0.049468204,0.1734984,0.015985128,-0.26896486,0.061740045,-0.10325272,-0.3130308,-0.07946983,-0.15409116,-0.35151574,-0.36666727,-0.3306066,-0.49212202,-0.21515186,-0.03721597,-0.14409114,-0.19045486,-0.26924285,0.5078796,0.33575812,0.17636393,0.097045615,-0.019365562,-0.6721223,0.2756065,0.23454584,0.05496221,-0.23424281,-0.31697023,0.07121224,-0.14159115,0.06199881,0.1062729,0.15929621,0.06931497,0.0264928,0.062979326,0.089528695,0.27499717,0.10235084,0.09842877,0.11351364,0.22974256,-0.28887525,0.30893812,0.14496559,0.07089888,0.1623132,0.28902608,0.14134522,0.051288553,0.045405455,0.08123202,0.12181032,0.070521764,0.033073574,-0.11927983,-0.5106072,-0.6687628,-0.43633705,-0.1501152,-0.0125786755,-0.048325326,0.13693556,-0.013417945,0.078456126,-0.008169922,0.09847425,0.29442805,0.23756498,-0.1338686,-0.101541206,0.12060609,0.063660115,0.015096483,0.073524125,0.28962037,0.06805333,0.11430638,0.15135856,0.2282812,0.010594722,-0.0037118832,-0.03223183,-0.0438711,-0.07416306,-0.022961449,-0.094307944,-0.30948526,-0.083862446,-0.101545185,0.09363645,-0.38469285,-0.25979453,-0.16653112,0.055920735,-0.00837039,-0.16682957,-0.29128024,-0.02861321,-0.12750971,-0.09438256,-0.24308172,-0.13332935,0.005087518,0.04700475,-0.12562965,-0.18948424,-0.29309505,-0.1897289,-0.19107449,-0.15755694,-0.10654666,-0.39413702,-0.083488055,-0.24257408,-0.33737737,-0.3102208,0.21553986,-0.34961006,-0.32710192,-0.112357184,-0.30728498,-0.30801892,-0.2034295,-0.27841583,-0.07498634,0.07712706,-0.17345943,-0.13113435,0.05721837,-0.04826376,-0.053349108,-0.014243694,-0.04736911,-0.015397316,0.26255485,0.356163,-0.32357907,-0.21603328,0.35446787,0.5868873,0.06502658,-0.5138089,-0.29664552,0.7887946,0.47576293,0.0628606,-0.49911788,-0.14493254,0.68708754,-0.03515014,0.030794632,-0.24560367,-0.09492657,0.019022983,-0.020628834,0.015757045,-0.059366953,0.0143496385,-0.02527426,0.02277439,-0.015471626,-0.03310849,0.04755655,-0.0006132797,-0.030273996,0.111253984,-1.300089,-0.12652877,-0.0026007488,0.032577023,-0.13282765,2.1756334,-0.09070388,0.04086399,-0.034545425,0.056099407,-0.10164819,0.019162377,-0.00555581,0.32218498,0.07794798,-0.3414427,-0.05899592,-0.37506732,1.1860319,0.58262295,-1.0973853,-0.36742538,-0.2914643,0.6584312,0.5028409,-0.71100783,-0.20511018,-0.4603516,-0.43864843,0.2278832,-0.17714061,0.23155135,0.028561821,0.09155066,-0.05005483,-0.27220657,-0.120666526,-0.09445461,0.093225546,0.058236375,0.111264616,-0.0070368955,0.12404821,0.033521425,0.02151905,0.1537819,0.16457695,-0.012594208,0.19734082,0.1341804,-0.55793285,0.1750879,0.30415484,0.06548041,0.12243842,0.22840022,0.19677266,0.04647073,0.05520619,0.08115215,0.155297,0.09715532,0.051087033,-0.1997396,-0.053100683,-0.12384531,-0.20345412,-0.114812285,0.020049939,-0.1696858,-0.19518088,-0.15879552,-0.07783598,-0.32856575,-0.15837342,0.20159686,-0.24363843,-0.30087572,-0.081170596,-0.28432924,-0.2561327,-0.20277876,-0.1331316,-0.044954073,0.04189382,-0.17221843,-0.03999435,-0.06673464,-0.21315458,-0.25681275,-0.5039573,-0.37313384,-0.35409948,-0.055176977,0.037275616,-0.10657729,-0.15015993,0.0052306717,0.036331452,-0.024170613,0.13082343,0.065562785,-0.12402546,-0.10982522,0.040825676,-0.0055233627,0.1314277,-0.03340454,0.21149287,0.25666168,0.44534352,0.31391582,0.37071678,0.06300737,-0.021609025,-0.3016165,-0.020002564,0.07415307,0.07932787,0.041654237,-0.43422768,-0.06613499,0.14182344,-0.017855879,0.14364314,-0.37849912,-0.22291414,0.16218142,0.23007925,-0.17526056,-0.71014076,-0.49723503,0.19959915,0.030906592,-0.0198604,-0.5063336,-0.21040367,0.06738604,-0.07035532,0.029652374,0.05189677,0.096262775,0.050423358,0.22019291,0.15781857,0.04137826,0.0029979798,0.032926615,0.14161105,0.38013974,-0.3676976,-0.5569489,-0.20775078,0.09241554,0.0276469,-0.1931804,-0.1890876,-0.06364312,-0.010538973,0.16305736,0.15716371,0.058649898,0.007208453,-0.39588657,-0.10375773,1.13259,0.36516103,-0.4407931,-0.035334352,-0.21212429,1.3434144,0.3809965,-0.23599567,-0.10363956,0.044227026,-0.48002723,-0.12963808,-0.13625588,-0.0048636436,0.14795521,-0.7558479,-0.31150955,0.11297539,0.15622747,0.058230776,-0.4738821,-0.1114982,0.31694558,-0.15676688,-0.016329883,-0.21448001,-0.2536376,-0.04045377,0.02510453,-0.16495314,0.09523349,0.048742358,-0.257185,-0.11133313,-0.16727258,-0.029146496,0.085887514,-0.2676907,-0.055052597,0.042943757,-0.17927909,-0.20288281,-0.035848998,-0.087524764,-0.1781876,-0.13889354,-0.06255667,-0.13193522,-0.029461248,0.041508887,-0.07729063,-0.013208546,-0.016626773,0.10577156,0.06526879,-0.09323376,0.13260141,0.04148309,-0.036013927,-0.10422368,0.060676757,-0.20524842,-0.042953573,0.030131996,-0.0028942064,-0.12558438,0.15200147,-0.06877731,0.085287996,0.375618,0.9807345,0.49284387,0.079251274,-0.38189867,-0.5334458,-0.78590536,-0.604762,-0.56482494,-0.28972238,0.30915606,0.5822974,0.28776118,-0.102428004,0.1311328,0.07439179,-0.016937615,0.46462554,0.49564812,-0.05571584,-0.16072905,-0.059058793,-0.15778726,-0.12319887,-0.013115509,0.10171484,-0.070692256,0.107241854,-0.0077667884,-0.047357507,0.54839927,0.6284965,0.48378748,0.15138383,-0.07956328,0.30276766,0.09024292,0.31558323,-0.038413312,-0.016820425,-0.18902954,-0.4861904,-0.19476984,-0.06437818,-0.011622447,-0.004040323,-0.40048632,0.011272022,-0.14884742,0.00970345,-0.031655107,-0.1903645,-0.16833775,0.014225608,0.1328564,0.1007251,0.9097491,0.33219138,0.23811413,-0.17223991,-0.11915779,-0.1773769,-0.047290433,-0.29512453,-0.061945934,-0.26430267,-0.32675222,-0.45366585,-0.0058420557,0.0033522572,-0.020761961,-0.1504833,-0.22763872,-0.06703255,-0.09704863,-0.054441914,-0.023066048,-0.08032826,-0.017752798,0.0924773,0.02145092,0.003662964,0.034246206,-0.13136493,0.13106386,0.1491278,0.10637649,-0.18134181,-0.28922364,0.18415175,0.5306782,0.32796073,-0.42751306,-0.87108296,0.40041718,0.2561064,0.26915258,-0.29123074,-0.95377564,0.16107006,-0.022404294,0.14431074,-0.0032097977,-0.23984888,0.047846835,0.06150488,0.020268654,-0.00392778,0.057078395,0.007058355,0.005733321,0.15539302,0.050817244,-0.007979327,0.11485571,0.26325953,0.016235309,0.21887816,0.102508135,0.008445272,0.19395006,-0.107517056,0.22831358,0.033810213,0.112001784,0.041702174,0.09959597,-0.016162504,0.06459177,-0.10984112,0.24389304,0.26352945,0.27401707,0.17884746,-0.12852918,0.19167806,0.19134335,0.11859941,0.10894856,-0.021031033,0.16311602,0.31306672,0.08206008,0.08367785,0.13633911,0.065603435,-0.22001696,-0.12886389,0.005149674,-0.09578324,-0.9354068,-0.965754,-0.87471247,-0.45654634,0.0017912496,0.08893107,0.16511633,0.05688547,0.023644947,-0.023699261,0.09429011,0.19234604,0.119999014,-0.024423456,0.08661365,0.24332932,-0.5069361,0.28359452,0.1252132,0.018937683,0.16497149,0.27316612,0.1627989,0.02529249,0.05170748,0.06322217,0.17945537,0.042256743,0.12376482,0.047481988,-0.0044701714,-0.087709785,-0.32637873,0.08063545,-0.020518575,-0.075179815,-1.0273376,0.12146276,-0.2269783,-0.14352511,0.32781756,-2.0393274,0.7261387,-0.033782955,-0.17446034,0.30551544,2.5055141,0.8282969,-0.28441232,-0.08321338,-0.32326123,-0.009322537,-0.5318942,-0.04664266,-0.07157806,-0.026501795,-0.053600624,0.079538554,-0.015473201,-0.017811595,-0.055657085,0.16464944,-0.2902925,-0.09552587,-0.049985237,-0.029636238,-2.7999694,1.7937635,-0.2023291,0.06985329,-0.4383576,1.3925549,0.74350965,-0.12604107,-0.025689162,-0.07628802,-0.019105174,-0.24757122,-0.014245958,-0.1372487,-0.082493454,-0.24298677,-0.17985459,-0.06396432,-0.011178501,-0.04518555,-0.35127676,-0.041718274,-0.085711084,-0.2986851,-0.33640906,0.20149039,-0.34240052,-0.25829825,-0.12482197,-0.23499815,-0.15611067,-0.13436392,-0.21968666,-0.12748484,-0.008106493,-0.34151292,-0.1433511,-0.10884476,-0.0027548312,0.32977584,0.39652938,0.046710853,0.23086525,0.15801297,-0.15978715,-0.19660139,0.23530072,-0.04684946,0.1885067,-0.015870601,-0.5047544,0.044105023,0.35771918,0.12164226,0.20491786,-0.17830516,-0.027874041,0.06497937,-0.018919975,0.05425112,0.39608583,0.23086525,0.10118374,0.034949433,-0.0965224,-0.029697338,-0.10271842,-0.0035397194,0.049350344,0.012089503,-0.5258873,-0.23060818,0.15577185,0.0709154,-0.1667117,-0.39460912,-0.055764195,-0.05436041,-0.03417493,0.23060818,0.66878307,0.29005125,-0.055328537,-0.05934627,0.039935295,0.28482336,0.17639299,-0.055861007,-0.080972634,-0.12513278,-0.14153512,-0.20142964,-0.097374976,-0.068132795,-0.14368747,-0.059894517,-0.17055465,-0.03126464,-0.05395702,-0.17782809,0.32626554,0.060005847,-0.34496868,-0.19742183,-0.0831992,-0.047314443,-0.13055076,-0.14205466,-0.07741014,-0.20039058,-0.16624996,-0.25293744,0.025958002,0.0050522806,-0.03427513,0.4494233,0.14111938,0.0092792595,0.0111164525,-0.017525097,0.466647,0.102079034,0.2562884,-0.038236577,0.045614056,-0.35342997,-0.4170428,0.027457422,-0.002079401,-0.059019823,-0.6770056,-0.14433447,-0.010499271,-0.015558727,-0.10690166,0.2815498,-0.011181042,-0.054168485,-0.043266505,-0.022221372,-0.032553196,-0.031440537,-0.029374173,-0.01073715,-0.13555354,-0.20752662,-0.1506857,-0.1021738,-0.07597865,-0.2421144,-0.2759392,-0.2688182,-0.13962269,0.005082463,-0.013582376,-0.14801532,-0.0852614,-0.014083073,0.006822978,-0.006743503,-0.06974777,0.061037242,-0.06329435,0.015455398,-0.019726394,0.009129793,-0.020945137,0.07213238,0.0020182075,0.05366787,-0.1410723,0.38447595,0.18688844,-0.015962308,0.05043227,-0.31217098,0.62848353,0.42727217,-0.005716232,0.02853802,-0.066567145,0.51148415,0.09560129,-0.015466183,-0.0647552,0.018475294,-0.07355604,0.005689269,-0.026983637,-0.057894286,-0.22380088,0.011771319,-0.053539578,0.06376536,0.055522524,-0.10855664,-0.0039415937,0.058399744,-0.036354035,-0.098680794,-0.47373,-0.2620601,0.003355944,-0.100858144,-0.21260306,0.040747624,0.029413719,-0.19456212,0.17294411,0.31478316,0.6367205,0.36392915,0.18056485,-0.11066316,0.15144856,0.18886638,0.10897936,0.0035196124,0.046702098,0.11777254,0.0839562,0.07394694,0.038516954,0.25406688,-0.041931327,-0.7603298,0.13629435,0.28194317,0.16697696,0.17773457,-0.07305826,0.09943782,0.27913684,-0.08554646,0.24471244,0.22880988,0.17679913,-0.04616422,-0.51092106,0.24407753,0.031221129,0.0020607724,0.07130785,-0.2836991,0.26903254,-0.24626657,-0.03669372,-0.025611723,-0.4312401,0.5511993,0.25611722,-0.07491976,-0.021151561,-0.27056488,0.41898152,-0.19766997,0.060745753,-0.010480011,-0.5170503,0.21496335,0.025091827,0.01725234,0.07125313,0.058839213,-0.18746947,-0.19305274,0.06952261,-0.21688907,-0.011193409,0.24888557,0.24351704,0.05177958,-0.56520003,0.008213868,0.38481703,0.030734899,-0.18897265,-0.5647705,0.12669757,-0.060771886,0.007126739,0.29612875,-0.4685663,0.15837197,-0.20164241,0.14892334,0.3051479,-0.10382759};

#endif
