#pragma once

#include "parameters.h"

#ifndef KERNEL12_H
#define KERNEL12_H

static float bias12[FEATURE_MAP12] = {-0.55062306,1.9577088,-0.1713033,0.8763029,-0.05911439,1.2062349,-0.42341468,0.1623193,0.17358074,0.15649182,-0.2069493,2.099626,-0.35065436,-0.037020653,0.30291814,-0.24701458,0.42902127,0.4015347,0.070889175,-0.44285297,-0.30355936,0.83651745,-0.18382648,0.20609295,1.4258252,1.7546171,-0.20827693,-0.048653796,-0.4502414,0.080394626,0.5075269,0.0013277233,-0.6816417,-0.44766316,1.9431287,-0.11928082,0.46784037,0.27989903,1.4965227,2.2715569,0.41959193,0.61432564,-0.27495918,-0.025184318,0.28570503,1.181103,1.6455793,2.8317807,-0.17935047,0.91190493,-1.462455,0.14095601,-0.17038247,1.2033012,0.04962387,2.128304,0.49434453,-0.5576841,0.94903827,2.6906953,0.059120953,0.15002337,0.31324822,1.7797769};

static float kernel12[FEATURE_MAP12][IN_CHANNEL12][KERNEL12][KERNEL12] = {-0.15534757,-0.0983002,0.09923541,-0.019405458,0.03088767,0.00077649433,-0.0673346,0.25437516,0.2211235,0.018236455,0.15399672,0.47342044,-0.077985525,0.11638079,0.0380056,-0.0059586708,0.13477312,-0.23982756,0.33979034,-0.024146417,0.012618743,0.07762183,-0.05793062,0.039694164,-0.062035117,-0.0046351166,-0.047298085,-0.07320699,-0.17531483,0.06722312,0.019813633,-0.090267405,-0.042109936,-0.15596272,-0.050512824,0.002874568,-0.23018825,-0.036730815,-0.59176713,-0.14055742,-0.093195684,-0.083901584,-0.13826573,-0.3200737,-0.030110355,-0.0898218,-0.047775522,0.03424814,-0.28722605,-0.058597423,0.042068753,-0.06662391,-0.098870605,0.022623241,-0.005515882,0.09525955,0.20323001,0.16379732,-0.24222936,-0.24367379,0.11317037,0.4229264,0.42610413,-0.5139249,-0.51508045,0.1315145,0.26664007,0.18286367,-0.4469038,-0.21550758,-0.061099,0.031289764,0.12508684,-0.12046469,-0.15498635,-0.028913034,-0.07985078,0.047157384,-0.017332878,0.016316812,-0.038550712,-0.047635533,-0.33207405,-0.038072564,-0.15037766,0.010833049,-0.34402776,0.13639182,0.8869652,0.16472211,-0.07321647,-0.06646262,0.16041878,0.07303716,-0.016047854,-0.014986963,-0.005173715,-0.040254116,-0.083675966,-0.02629816,0.10216996,0.041035477,-0.024305334,-0.0032403942,0.010192253,0.15097097,0.41690215,0.2596122,0.13802841,0.020327406,0.16642588,0.870957,-0.1760186,-0.1956608,-0.19413815,0.0054815477,0.20388313,-0.8338043,-0.5810441,-0.1120672,0.05786078,-0.112447865,-0.061134484,-0.014255831,-0.12577108,-0.051101312,0.060699318,-0.063634485,-0.1225727,0.052157972,-0.040652104,-0.10889481,-0.27167934,-0.2848289,0.012078225,-0.09703672,-0.27496672,-0.6039406,-0.65043366,-0.102965765,-0.020032536,-0.02415645,-0.10513779,-0.21849406,0.008401924,0.022923678,-0.002892977,-0.09920875,-0.07672535,-0.024479318,0.06074663,-0.03175264,-0.0021868646,0.047628958,-0.024250796,0.030260716,0.25379592,0.18972765,-0.19682133,-0.147616,0.21753936,0.7197265,0.65126693,-1.3529778,-0.19175442,0.076904446,0.036200263,0.06744621,-0.06738991,-0.1643931,-0.0069423714,0.003550356,-0.012287258,0.037635885,0.010724961,0.02743136,0.0286021,0.021973906,0.040093374,0.0136436345,0.0144811645,-0.04207463,0.03620291,0.039949283,0.0040142904,0.039517008,-0.0045141065,-0.2435141,0.18270762,0.081483565,-0.025522152,0.070820816,0.41786444,0.3005742,-0.0038499364,-0.014219999,0.050143734,0.105834976,0.061274778,-0.01409392,-0.036101907,0.051850542,0.07742756,-0.015197239,0.056648653,0.019724488,0.022539508,-0.06589662,-0.039739184,-0.04415035,0.017006204,0.25600237,0.22396338,-0.21359327,-0.122119635,0.16251662,0.6302549,1.0196757,-0.13581747,0.054520458,0.06856654,0.27333748,0.40335077,0.07340334,-0.015835697,0.015008434,0.057700995,0.10579659,0.03999962,0.008237486,-0.0133103365,-0.0019478803,0.012487017,0.13866077,0.030119782,0.04658618,-0.039553653,-0.23889996,0.32548574,-0.0060376786,0.05176623,0.02728962,0.3669262,0.2837709,-0.030943101,-0.033275843,0.029828189,0.14078768,0.07965619,0.07526515,0.11655783,0.42915305,0.25716144,0.21806408,0.19640453,0.22522277,0.25055343,-0.20044275,-0.07952548,0.0137552,0.12766294,-0.48642242,-0.22522277,-0.50698066,-0.20906986,0.2966259,0.051028464,-0.55176824,-0.21824765,0.23843877,0.064565696,0.077231035,-0.0574988,-0.1009556,0.028290512,0.006792163,-0.022934837,0.06930615,0.027068324,-0.059835244,-0.041976973,0.0027740519,-0.069667324,-0.02027616,-0.021429926,-0.025824266,-0.22633855,-0.0040356684,-0.29391906,-0.06481148,-0.08038229,-0.097116895,-0.26486427,-0.3810835,-0.19856793,-0.006265444,-0.022152284,0.06485161,0.0021570385,-0.053855732,-0.015572094,0.080275215,0.1507208,0.17215484,0.053755723,0.048670262,-0.06419969,0.45107025,0.16096,-0.09365442,-0.036519762,-0.1914045,0.054882035,0.16410002,-0.08833004,0.03302137,0.055393994,0.5488204,0.3754368,0.0020649023,0.05112767,0.007559932,0.34922448,0.110719725,-0.10491752,-0.07457722,-0.043431282,0.02086129,-0.08777099,-0.071203075,-0.09958049,0.047324523,-0.2600686,-0.13323541,-0.045507677,0.18895203,-0.12190174,0.55924267,0.3612929,-0.025284447,-0.014340109,-0.12190174,1.0478878,0.14041628,-0.03661811,0.018146835,-0.14283875,0.3855175,-0.12311298,0.06108065,-0.11433433,0.016448898,-0.07463745,0.002614445,-0.080003545,-0.03600769,-0.44538558,0.1464699,0.034818616,0.010373935,-0.1262251,-0.22147322,1.3395715,-0.13220097,-0.13988425,-0.0012586304,0.28415892,0.034239322,-0.43026295,0.004016946,-0.029986084,-0.040550575,-0.09189431,-0.09329681,-0.10530954,-0.055450454,-0.042825073,-0.04664924,0.08317568,-0.09386086,0.042515762,-0.07142198,0.051879354,-0.0067942273,0.0192755,0.048842516,-0.24384703,-0.03928209,-0.6622561,0.034333166,-0.016112125,0.60691816,0.84626615,-0.027725227,0.011985677,-0.04389359,0.20110631,0.2816388,-0.013384593,-0.05407263,-0.1376368,-0.06846571,-0.055416223,-0.028523704,-0.039368883,-0.073623784,-0.18939388,0.13375722,0.057664614,-0.12300021,-0.12829055,-0.5152783,0.6253172,-0.22466275,-0.10571846,-0.109245345,-0.19450785,0.86549824,-0.16638093,-0.069347434,-0.13384539,-0.15624113,0.11682816,-0.24176815,0.049552772,-0.029040972,-0.05196339,0.018023137,-0.034006756,0.12795763,0.078610145,-0.32437214,1.1513526,-0.025737839,0.09993641,0.06805785,-0.30716923,0.01192675,-0.30965212,0.028774947,-0.113769665,-0.102241956,-0.19792198,-0.08237882,-0.15172245,-0.12512003,0.014642414,-0.070762426,0.01879904,0.024562897,0.012099876,-0.08545016,0.06639847,-0.04909276,-0.051942807,-0.054946914,0.022569317,0.45148903,0.08904482,-0.08801777,-0.04085072,0.2002738,-0.2158849,0.10213964,-0.08596368,-0.0739986,0.15118104,0.6708659,0.2366312,-0.018153023,0.048271123,0.021195645,0.16134879,-0.1413214,0.04382915,0.12384831,0.07578978,-0.1275503,0.16988757,0.0569433,0.224677,-0.12855993,-0.5874718,-0.08689574,0.21727301,0.2406965,0.3446214,-1.0252486,-0.45123863,-0.09786709,0.16127203,0.4792391,0.076395564,0.2719278,0.069866605,0.050885502,0.15615657,0.31177467,0.06485209,0.15736812,0.021394813,-0.056940228,-0.4161854,0.019536842,-0.047293797,-0.050259043,-0.043164972,-0.4381057,-0.34892312,0.034344304,0.057615854,0.40087122,0.33721226,-0.68403345,-0.10382114,0.074656636,0.23706953,0.7603041,0.016205633,-0.040725213,0.08700557,0.040274795,0.2034384,0.1334736,-0.066811875,0.03682133,-0.0075736768,0.09577036,0.09549115,0.0048469785,-0.0046332055,0.06334665,0.24947761,0.16403815,0.028479816,0.04104444,0.2673473,0.03947386,0.29066166,0.059786674,0.008337152,0.08271711,0.2995965,0.109451845,0.0140654,0.006164519,0.014353339,0.049002036,0.03922955,0.044290304,0.0072691585,-0.0014201503,0.02720656,-0.032635808,-0.028111434,-0.088717915,-0.2203872,0.11510003,0.36516714,-0.09869164,-0.4842084,-1.0990405,0.0688509,1.3113843,0.09603734,-0.09515258,0.07074108,-0.104482844,0.11316964,0.038406894,-0.016368175,0.09113091,-0.20751788,0.22392628,-0.06309991,-0.008685009,-0.013003588,-0.020755496,0.018638076,-0.08302198,-0.12307351,-0.07517438,0.046272196,-0.0029129472,-0.05909634,-0.07383454,0.018422745,0.011651789,0.5160283,0.12001103,-0.09493696,0.18671572,0.4861691,0.26796722,0.0014489968,-0.083644055,0.009271187,0.10326308,-0.09598968,0.042085208,0.0692205,-0.01966725,0.14131662,0.011725035,0.08380405,0.08038068,-0.09407415,0.31494984,0.09030844,0.057444114,0.1522714,-0.19841841,-0.19595358,0.014001574,0.09421109,0.16322619,0.10920543,-0.5178871,-0.037246242,0.14693095,0.12063949,-0.04306597,-0.04056691,0.048269488,0.11112252,-0.015266268,-0.021870604,-0.042384893,-0.07484402,0.0034832675,-0.020807128,-0.046854574,-0.3923454,-0.5597888,-0.12058888,-0.06695272,-0.055115774,-0.526744,-0.5040566,-0.19185714,-0.011736762,0.027943203,0.028066505,-0.034431946,-0.029361172,0.034709375,-0.05033784,-0.08279696,-0.03612734,-0.0108351195,0.023774348,-0.025798976,-0.21809858,-0.103997745,0.08218788,-0.14954185,-0.5863003,-0.15515469,0.52087075,0.014793819,-0.6385798,-1.3906991,0.20158082,1.6921884,0.28625438,-0.0653093,-0.4336313,0.0028815875,0.62446755,-0.016467646,-0.028966218,-0.06811571,-0.1642154,-0.09806418,0.06563003,-0.050050754,-0.028078932,-0.033382475,-0.046882406,-0.064285375,-0.014544566,-0.038548265,0.08380058,-0.13444827,-0.0856373,0.0691527,-0.08324956,-0.50656873,-0.3521002,-0.027275367,0.05556093,0.2718353,0.62742525,0.121591195,0.08618832,0.035907973,0.091974005,0.24575381,-0.09991784,0.007318201,0.005667211,-0.072922096,0.12694553,-0.07005866,0.013541652,0.006016192,-0.07926937,0.27546224,-0.13276784,-0.031975,0.010445565,0.03137845,0.3285312,0.3079145,-0.03834614,0.09205937,-0.07182445,0.67729735,0.31860465,0.047890916,-0.06318642,-0.18717307,0.28977942,-0.12780456,-0.08819374,0.033980004,0.1357257,0.035874527,-0.022284955,0.109008044,0.03281414,0.11542028,-0.037331853,-0.31847447,0.07616962,-0.11221416,-0.09477482,-0.40882874,-0.20266558,0.00180496,0.026644792,0.11201985,0.52463764,0.6641524,-0.04235963,0.00932082,0.030385263,0.17225602,0.25551796,0.013103797,-0.04028394,-0.047289845,-0.03957501,-0.0017201994,0.00017250862,-0.020423457,0.016732847,-0.02821127,-0.014449675,-0.076689616,-0.005697509,-0.067390114,-0.20016865,0.11009276,-0.011103105,-0.058007207,0.055171482,0.5494629,0.49641824,-0.063928865,-0.082194254,0.058382522,0.13836658,0.12877516,-0.047998775,0.052293617,-0.013892212,-0.04422939,-0.04973398,-0.09528448,-0.039550487,-0.12110101,-0.046789024,0.1401469,0.035559658,0.0044174343,-0.0063818856,-0.3553764,0.78297305,0.08003675,0.0065711057,0.018536711,-0.09396337,0.6068261,0.034651402,-0.037293606,-0.03721104,-0.11152302,0.09946796,-0.08075235,-0.018520592,-0.046341665,0.39204407,0.1734253,-0.0022634047,0.0021270548,0.4592831,1.0030743,0.36026168,0.035043303,0.049924076,0.39167663,-1.0170366,-0.6007423,0.2384598,-0.18702008,-0.10278756,-0.7139097,-0.331235,-0.041013982,-0.024181256,-0.0018098626,-0.043585967,0.17645657,0.041702908,-0.05934922,0.058976892,-0.119219705,0.110432744,-0.027961899,0.0058595254,-0.26658747,-0.18110076,0.24499239,-0.010788229,-0.40985963,-0.900738,-0.6999783,1.7657324,0.34522334,-0.105815865,-0.19271742,-0.38603058,0.770274,0.08511438,0.062327854,0.00087613636,-0.09144397,0.026156103,-0.028036363,-0.039281867,-0.058678545,-0.22724286,0.013570491,-0.09367877,0.007859247,-0.05362104,-0.030919742,-0.121609986,-0.10563287,-0.041149694,0.008297468,0.49563542,0.07620739,-0.22080603,-0.112299584,-0.19770244,-0.31586415,-0.16207002,-0.21172552,-0.08833391,-0.059598092,-0.28299037,-0.17344941,-0.068506196,0.0039497735,0.020688118,-0.04304966,0.035699718,-0.050301164,0.027677124,-0.08629619,0.030006794,-0.74444413,0.032057557,0.111102246,0.67619467,0.57487047,-1.001692,-0.32602242,0.09653361,0.2908477,0.509246,-0.26827288,-0.013649892,-0.0073007233,-0.020556869,-0.09725548,0.082489975,-0.02401856,0.046867117,0.073981576,-0.30659032,0.029310884,0.031234646,-0.044807024,0.059833586,-0.3618493,0.087978095,-0.05698581,-0.0029045797,0.2147344,-0.3819655,0.24406044,0.20431276,0.014897806,0.10530711,-0.4711554,0.11566817,0.17438082,0.027674926,0.099005654,-0.06495352,0.048230413,0.036475766,0.13356382,0.101440124,0.10927948,0.08711708,0.090123154,0.24402215,0.20193717,0.004295438,0.1827219,0.21407934,-0.23199786,-0.49040198,-0.3369156,-0.41424823,-0.23400192,-0.038224243,-0.004582783,-0.011302234,-0.02590525,-0.12189319,-0.010123382,-0.018714258,-0.13191342,0.03235946,0.017815385,0.012229061,-0.046531882,-0.15141912,-0.095866,0.04667937,0.054815687,-0.14915767,-0.25642926,-0.15613867,0.09621014,-0.031660363,-0.120643675,-0.333712,-0.09689841,0.051816802,-0.0053648087,-0.19733648,-0.33626842,-0.28749967,-0.026670413,-0.038518466,-0.10324031,-0.0895241,-0.10471517,0.017169846,-0.0603675,0.0038485385,-0.07950697,-0.0013326118,-0.06659004,-0.11560361,-0.071544476,0.1283436,-0.052169077,-0.05022269,-0.20596316,-0.3446875,-0.0749654,-0.26895535,-0.16880487,0.0071478123,-0.18614541,-0.31566864,-0.47539034,-0.15653673,-6.888847e-05,0.0013740831,-0.07585012,-0.051343337,-0.033383492,0.0612166,-0.045637395,-0.029222015,-0.02992616,-0.04774983,0.009335422,-0.0036252462,0.18237354,0.12489771,0.0011084782,-0.01821975,0.08722595,-0.5249401,-0.06368111,-0.0021977024,-0.06601359,0.24275397,0.6097895,0.14047691,-0.024623068,-0.0393441,0.032104608,0.34714347,0.007811608,0.048806045,-0.0048395563,0.00089778967,-0.030004533,-0.009299399,0.027554307,-0.013698345,0.09686277,0.15933639,0.15211467,-0.017882358,0.03800001,0.1413394,0.11245252,0.41656724,0.063963816,-0.029775273,-0.050867286,0.17034093,0.2845129,0.047628973,-0.021708151,-0.009084467,0.008905357,0.034933645,-0.040751144,-0.027441721,-0.0031722004,-0.2515276,0.036914553,0.0580902,-0.09635011,-0.27600217,0.08411284,0.34883606,0.062329013,-0.27570727,-0.807955,-0.47091395,1.154727,0.23648903,-0.11986632,-0.32554102,-0.14360368,0.49037564,0.099667445,-0.07932113,0.067268156,-0.11662271,-0.030298313,0.01944326,-0.039519157,-0.061665267,-0.00075568794,-0.14568023,-0.24720398,-0.06519417,-0.025403555,0.04958557,-0.06293205,0.1312027,-0.14948058,-0.34836578,-0.27778777,1.2609936,0.30963835,-0.040446624,-0.011525478,-0.19508484,0.82449585,0.09356109,0.020834083,-0.08035034,-0.033026885,-0.022247905,-0.15925293,0.09215803,0.28062788,0.19290526,0.03921468,-0.15728116,0.036785766,0.5153527,0.6353201,0.17643087,-0.038792264,-0.12095301,-0.052837737,-0.029058995,-0.5015537,-0.15094484,-0.060054082,-0.21078773,-0.6972751,-0.3396259,0.004725827,-0.0059666866,-0.06339824,-0.21965855,-0.09032754,0.002853537,-0.26926532,-0.022407869,-0.2967111,-0.23724525,-0.14736651,-0.06836718,0.055942405,-0.210294,-0.12956384,-0.13141829,-0.21523917,-0.2967111,1.0053561,1.2006909,-0.46336383,-0.16393287,-0.260364,0.69924915,0.29349673,-0.26135302,-0.2032471,-0.01489737,-0.6102358,-0.34616295,-0.060578514,0.049478322,-0.052368898,-0.04541589,-0.011855266,0.0044432837,0.016184619,-0.0050324663,-0.17291372,-0.18760096,-0.039165996,0.030963013,-0.22687112,-0.4031181,-0.31520295,-0.079581976,0.011959431,-0.097498335,-0.44540906,-0.31395298,0.034660865,-0.02175744,0.03281194,-0.13937262,-0.08640477,0.02026007,0.04176976,-0.058597255,-0.11130062,0.06086085,-0.005346679,0.008018684,-0.04294427,-0.29093623,-0.11616948,0.028871534,-0.052532524,-0.019902566,-0.1427347,-0.27265662,0.06756622,-0.02989656,-0.007025691,-0.3208328,-0.4035181,-0.026138134,0.023511508,0.00984451,-0.13760959,-0.1531558,-0.0014054052,-0.062465202,-0.09816739,-0.08186975,-0.15785272,-0.072876066,-0.077836215,-0.0692786,-0.07625551,-0.07478382,-0.03760994,-0.028997807,0.24331994,0.26730308,0.35059002,-0.01824627,-0.02414667,0.28016677,0.66847575,0.30131555,-0.071949445,-0.13703099,-0.017374156,0.16493866,-0.025032412,-0.12743773,0.08499724,0.08779846,0.11148884,-0.06814986,-0.05994626,0.06366789,0.2769213,0.6678125,-0.039077118,-0.18568134,0.015196657,0.34158963,0.11709129,0.12605523,-0.15486784,-0.069750555,-0.005207281,0.067029364,-0.10220477,-0.107327014,-0.06658917,-0.10996817,-0.23962498,-0.10348533,-0.06903024,-0.08779155,-0.047671754,0.18446776,-0.0060804393,-0.053252432,-0.078296065,-0.043673657,0.33517382,0.009606539,0.035927344,0.12571794,0.017922025,0.39914337,-0.20679046,-0.0072604334,-0.12405207,-0.15659213,0.4739966,-0.079739824,-0.024557756,-0.04953198,-0.06807871,0.25232434,-0.037732042,-0.03875933,-0.016118616,-0.19703943,-0.30620253,-0.08903617,-0.033055954,-0.0343011,-0.32858098,-0.79143256,-0.34904906,0.06256411,-0.026386771,0.31084198,-0.14436822,-0.36324027,-0.18980736,0.20740992,0.47868025,0.7581378,0.12546936,-0.031060318,0.073889785,0.15214609,0.32012084,-0.07539078,-0.030719182,-0.113804035,-0.0078010834,0.043781243,-0.017709648,0.037730727,-0.08837829,-0.20136653,0.027567226,0.11033689,0.04520889,-0.47071633,-1.2324011,0.12026245,1.3509641,0.11332815,-0.055644326,-0.6776575,0.33257428,0.4998132,0.045684773,-0.03919237,-0.034943413,0.09449678,-0.12502128,-0.016876854,0.06553419,0.05385543,-0.10347504,0.074005835,0.0072576245,0.113035895,-0.1264695,-0.20138301,-0.27690163,0.09234089,0.10559295,-0.1094657,-0.32845762,-0.60366493,0.053552873,0.15224749,-0.0138118,-0.57800794,-0.3153871,0.17221636,0.12429107,0.07678937,-0.055943087,0.062085025,0.1068637,-0.0802862,-0.11187,-0.3927005,-0.031048847,-0.048702396,-0.1604868,-0.19532314,0.19070111,-0.053110432,-0.00851115,-0.1677622,-0.045278676,-0.1994316,-0.044679526,0.10442341,0.22271289,0.8052586,0.7819773,0.038966194,0.07395232,-0.016615734,0.06393794,0.023174293,-0.011843926,-0.055464238,-0.036902457,0.029913357,-0.17805125,0.0048651914,0.028577661,0.0029334812,0.059298646,-0.13617876,0.111949876,0.09101364,-0.15282837,-0.28801313,-0.45003602,-0.28006107,0.086105734,0.06423761,-0.026341148,-0.59540933,-0.36977008,0.067343876,0.03413788,0.036902457,-0.1497221,0.0063911453,0.037679024,-0.038493555,0.08995735,0.14282437,-0.048846994,0.03451146,-0.043840937,0.0027163555,0.38167402,-0.07387728,-0.15238139,-0.020327631,-0.1925057,-0.29869482,1.1717211,0.4927175,-0.00029747174,0.027893607,-0.18507247,-0.15928368,0.10163815,-0.15260893,-0.12386202,-0.09883173,-0.048884917,-0.23361605,0.085015714,0.055145327,0.28792545,0.16384846,0.06337535,0.12758623,0.21857601,0.4912947,0.38334358,-0.06053453,-0.14020282,-0.05894701,-0.32251662,0.23812754,0.22258659,0.018632436,-0.38802257,-0.9271099,-0.2635278,-0.102687284,0.0751564,-0.0269669,-0.15457402,-0.20470613,0.084597945,0.015368272,0.027130185,0.06708298,0.085138336,-0.01620504,0.0049823136,0.08740115,0.12775464,0.14397147,0.05086615,0.08065985,0.2087445,0.112857796,0.4333287,0.161414,0.12879178,0.12190905,0.35827872,0.23721823,-0.022852054,0.015226846,0.03938709,-0.05449608,0.014437218,-0.04695337,-0.01765797,0.031232951,-0.064259365,-0.07093715,0.047431346,-0.07498198,-0.0768136,-0.04269966,0.057390787,-0.017829685,-0.08326243,-0.15812993,-0.11890272,0.03527778,-0.07914128,-0.029916473,-0.24879517,-0.50766426,-0.18209364,-0.08677304,0.013450965,-0.050713003,-0.021578783,0.035048828,0.010646296,0.01728777,0.048242155,-0.028410599,0.018774139,-0.031961925,0.22920011,0.38721412,-0.35944197,-0.26000488,-0.021447608,0.62471396,1.3534937,-0.5672543,-1.2826269,-0.39519462,0.26192018,0.5477819,-0.1532257,-0.6071569,-0.24244775,0.062247943,0.01587123,0.012170271,0.0031024215,-0.015492156,0.07147255,0.11444153,0.23913702,-0.0440371,-0.018158056,0.044769526,0.43750235,0.69140995,-0.21972774,-0.11749331,-0.026977684,0.0039215297,-0.44702387,-0.031707935,-0.057220764,0.028564606,-0.08917284,-0.21704218,0.11554017,0.016998382,-0.012802193,0.034881778,-0.018341163,0.028061064,-0.0049782065,0.039673094,0.06711836,0.02798394,-0.0994386,-0.09868446,0.058984436,0.15987745,-0.022920435,-0.1385461,0.031997036,0.037410676,0.3563845,-0.12130863,-0.20221697,0.15039684,-0.023661109,0.23335212,0.32557255,-0.13876157,0.059146035,0.084301956,0.21449865,0.089796394,-0.123032376,0.0023701508,-0.040679216,-0.031006232,-0.023140945,-0.042858034,-0.009050467,-0.02342826,0.08336965,-0.107935205,0.059666045,-0.13570912,-0.050184604,-0.31892124,-0.30129915,0.27658996,-0.20035532,-0.11492657,-0.0009659518,0.84279484,0.13762456,-0.12335452,-0.0722122,-0.08916386,-0.094670765,-0.16070566,-0.06613067};

#endif
