#pragma once

#include "parameters.h"

#ifndef KERNEL31_H
#define KERNEL31_H

static float bias31[FEATURE_MAP31] = {0.1380052,-0.56358546,0.35020953,-0.4254403,0.3339026,-0.028579026,-0.31953034,0.18607318,-1.0019886,-0.8302575,-0.54528666,-0.06219338,-0.08052799,-0.6474259,-0.28891253,-0.4027487,0.5305925,-0.34584782,-0.20830901,-0.90806586,-0.1487417,0.14626588,0.014465582,-0.021931313,0.20403713,0.0769887,0.1083982,-0.6657911,0.7790872,0.5546434,-1.7070489,-0.41241276};

static float kernel31[FEATURE_MAP31][IN_CHANNEL31][KERNEL31][KERNEL31] = {-0.05029353,0.09665739,-0.12264396,0.084234536,0.01638422,-0.07605827,-0.08106544,0.033592403,-0.08252323,0.04183205,0.029710263,-0.0038227204,-0.09849546,0.15566593,-0.06876935,0.12023545,0.060688164,-0.041483447,-0.14869392,0.010426321,-0.088290974,0.022769945,-0.042656016,0.037712228,-0.026525322,0.045318052,-0.023292845,0.13589078,-0.024734784,0.112122566,0.09367844,0.10553085,-0.14590512,-0.07605827,0.03777561,-0.14539807,-0.105657615,-0.03352902,-0.032673366,-0.053272482,0.014300539,-0.07960766,-0.053114027,-0.02866446,0.031532492,-0.05292388,-0.018602585,-0.045983564,0.038979866,0.018792732,0.085628934,-0.039930593,0.003543444,0.10223499,0.057835978,-0.03951861,0.13918664,0.03644459,-0.020741723,-0.027713733,0.0080495,-0.0010329267,-0.09405873,-0.12340455,-0.0039811754,-0.01464914,-0.08791068,0.016352529,0.060624782,-0.05786767,-0.0125179235,0.059547286,0.051751316,-0.0150532,-0.07200183,0.055490848,-0.057772595,0.057138775,-0.008350564,0.18330044,0.052987263,-0.06445938,0.059769124,0.085945845,0.06255793,-0.07371314,0.026414404,-0.0048764446,-0.10736892,0.068389066,0.038092516,-0.065727025,-0.11960163,-0.10052368,-0.08429792,-0.047726564,0.029425044,-0.04487438,-0.07935413,-0.04617371,0.05152948,0.06157551,-0.086896576,-0.042307414,-0.0542549,-0.009903421,-0.079480894,0.015037354,0.031849403,-0.08886141,-0.010996758,0.18418778,0.0136191845,0.017937075,-0.10312234,0.10698863,0.06661437,0.095072836,-0.039993975,-0.048265312,0.018000457,-0.05492041,0.08664305,-0.082776755,-0.024291111,-0.13246815,-0.03349733,-0.039423537,-0.07219585,0.0042964085,0.098311536,-0.16985989,-0.04249195,0.026533863,0.18421273,0.0227568,-0.029838791,0.05557677,-0.039848007,-0.05212346,0.028678695,-0.12065016,0.0018581797,0.021623682,0.0624834,-0.025589596,0.08325724,0.0025613203,0.071116686,0.03704219,-0.03205107,-0.003212189,0.02196092,-0.0072843344,-0.011263739,-0.011283973,0.059569668,0.03326513,-0.04516287,0.025090486,-0.120326415,0.07424625,0.019681193,0.11201687,0.0047112107,-0.016673032,-0.020989675,-0.09895903,0.104570664,0.039605197,-0.038310204,0.032239925,-0.12658554,-0.05314866,-0.047267236,0.02003192,-0.0041446513,-0.08293349,-0.049560454,0.016902354,0.065720886,-0.038013432,-0.06442589,-0.032266904,-0.07964206,0.035504386,0.03590907,0.04850827,-0.033966582,0.010616243,0.069443986,0.03348096,0.12356389,0.06733962,0.09108116,-0.030810036,-0.09642301,0.043436214,-0.012578966,-0.02660131,-0.008012768,-0.017158654,-0.046403907,0.051772732,-0.10597358,-0.087088265,-0.05859842,-0.005544188,-0.06696192,-0.03423637,-0.0058308397,-0.028975463,0.015054291,-0.037123125,0.016281836,-0.12518263,0.0006082925,0.09232219,0.08568536,-0.119355164,-0.12658554,0.019370934,-0.03450616,0.18086733,-0.12529056,-0.11827601,0.024308093,0.06431797,-0.021569723,-0.07618874,-0.012457561,0.058004886,-0.12593804,0.08886888,-0.013233207,-0.01303761,0.06113445,-0.003928819,0.00876818,-0.011580743,0.04829244,-0.023404296,-0.08093705,-0.014973354,0.016942821,-0.051017318,0.09275386,0.003864744,-0.08368891,0.13208926,0.055199068,0.048157543,0.0860091,-0.04200633,0.03944332,-0.009435911,0.043116186,0.009528976,-0.106173605,-0.05688941,-0.091262594,0.0225312,-0.15461943,0.11234161,-0.011535076,0.058146965,0.07653123,0.016737463,-0.023878582,-0.06305742,-0.06952485,0.015360141,0.004307876,0.07820797,-0.022471318,0.022141958,-0.09473584,0.15210432,0.008226508,-0.06105132,-0.018054903,0.0032374565,-0.07060275,0.015255345,0.0901248,-0.083118424,0.009454122,0.1043771,-0.0124108745,-0.06772834,0.042128105,0.009963132,0.03949323,-0.007290827,0.020584984,-0.06431498,-0.10587419,0.07617193,0.020944286,-0.09258003,-0.1047364,0.070303336,0.006643336,0.13198343,0.054314416,-0.00015742835,-0.0025487954,-0.007275856,-0.051559772,0.034103706,0.036109805,0.06401556,0.03398394,0.0057226256,-0.0620394,-0.118809044,-0.035061844,-0.08287889,0.066830084,-0.026932646,0.040271714,-0.06718939,-0.0390441,-0.025046311,-0.07665099,0.13186367,-0.00021777977,-0.047607455,-0.080064364,-0.08425621,0.039642937,-0.12886949,0.08856783,-0.09533468,-0.041888572,-0.1397683,-0.00038503276,-0.170788,-0.012732749,0.09258003,0.10994627,-0.048415884,0.06491381,-0.089825384,0.018039932,-0.050960936,0.124797404,-0.102341056,-0.065931834,0.036079865,-0.026154159,-0.16887173,0.09767014,-0.18887284,-0.040481307,-0.08838818,-0.054583892,-0.14791247,-0.01567453,0.1404869,0.014057673,-0.011692271,-0.13413924,-0.0963527,0.09515502,0.10132304,0.051320236,0.07683065,0.056799587,-0.1485113,-0.08760969,-0.07760914,0.018923214,0.13785203,-0.115036376,-0.044313855,-0.1047364,-0.031798188,0.0048243715,-0.07365682,0.1470741,-0.1624043,-0.07120159,0.14180434,0.047020346,-0.10780419,-0.041024663,-0.0016438292,0.008742476,0.04276725,-0.044007737,-0.10006591,0.0021191644,0.016554588,-0.025754863,-0.13503581,-0.07206636,-0.008513577,-0.1730774,-0.10355109,0.01602295,-0.029387716,-0.0040315813,0.014922758,0.06893561,0.0040500406,0.06787233,-0.010581055,-0.0015136889,0.027881412,0.0029923045,-0.020246511,0.04911736,-0.04758152,-0.084707506,0.006564241,0.09841193,-0.09256392,0.01387425,-0.017750772,-0.015624223,0.07330684,-0.042235613,0.009879589,-0.08429401,0.050416917,-0.109162815,-0.0016881323,0.009318417,-0.0058184722,-0.105618566,0.101956174,0.053311385,-0.040847447,-0.008247758,-0.069526315,0.03691924,-0.053488597,-0.09953427,0.034408733,-0.061256405,0.09959335,-0.025799166,0.05212997,0.009392255,0.021427928,-0.07265706,-0.06657278,-0.078800425,0.06816769,0.05396116,-0.13149157,0.11306149,-0.0025843468,-0.065745786,-0.0065753167,-0.027837107,0.09185507,-0.06028174,-0.1233398,-0.071062155,-0.11063958,-0.0373032,-0.08901967,-0.013999776,0.16268094,-0.0061101345,0.054079305,0.023392031,0.049737602,-0.144369,-0.0026323418,-0.015742365,0.041024663,0.059838705,0.05585143,0.20379421,-0.023480637,-0.06255596,0.13420883,0.018961722,-0.030111333,-0.030864486,0.0032839666,-0.00439339,-0.03352267,-0.038307406,0.0006668538,-0.14637741,-0.04758152,0.004367546,-0.08565264,-0.09994777,0.12936503,0.008705557,-0.15252078,0.105618566,-0.038543686,-0.06988074,0.110994,-0.0026194202,0.010595822,0.07708737,-0.088015474,0.014546181,0.016894246,0.0597501,-0.014664323,0.05103716,-0.032075435,0.020556634,0.08441215,-0.0038257372,-0.017889194,-0.056921247,-0.02127396,-0.05782703,-0.07298696,0.054489937,-0.06578837,-0.048459336,0.09010147,0.014814303,-0.09906395,-0.016232567,0.08118667,0.0625943,-0.11279369,0.052487683,0.08757482,-0.08056693,-0.020070221,-0.03031986,0.024694478,-0.0054913033,0.054728303,0.049341284,-0.06168852,-0.03582606,-0.09753842,0.0031612983,0.034848772,0.03308488,0.012335321,0.011352071,-0.058446776,0.056682885,-0.032512806,0.044550173,0.024980513,-0.08852827,0.056158483,-0.088385254,0.03556386,0.066312775,-0.048340153,0.014087293,-0.022859078,0.0071985833,0.03801901,0.11946788,-0.03630279,-0.14387631,0.11775166,0.06659881,0.007121115,0.008801579,0.022084394,0.04547979,0.0031881141,-0.02986697,0.002750121,-0.032250606,-0.031130297,0.05820841,0.10592882,0.07618103,-0.029509423,0.017758094,0.013801257,0.03413368,0.0064179422,-0.115749404,0.090435185,0.04016428,-0.025028186,0.040927045,-0.06288034,0.0128358845,0.0017400549,0.025933968,0.024694478,0.015612821,-0.046647772,-0.10716831,0.0062510874,0.091627,-0.004508053,0.06454889,-0.073654376,-0.11203093,-0.006274924,0.014254148,-0.012955066,0.027316477,0.048816882,0.015529394,-0.0021884765,-0.010940893,0.011316316,0.04383508,0.008890965,-0.043620553,0.050580774,-0.019283623,-0.04495539,0.03773297,0.0038227576,0.030582061,-0.006400065,0.03339475,-0.07446481,0.047291353,0.002803753,-0.0047821715,0.008086488,0.103259146,0.057970047,-0.08128201,-0.074417144,0.025767114,-0.027983896,0.012609439,-0.01804413,-0.06502561,0.07608569,0.0842854,0.048244808,-0.082330815,-0.068410374,-0.15129763,-0.057102066,-0.06107637,0.00049428974,0.018124195,0.051620267,-0.11091505,0.009804425,0.055914342,-0.06907066,-0.017690219,0.036887933,-0.00059457525,-0.017872946,0.0176788,-0.031474657,0.048239823,0.006195574,0.023149177,0.087251954,-0.055640254,0.08332334,-0.015634546,0.049838684,-0.01134047,-0.007440399,0.11265095,0.10388008,0.04175303,-0.107717335,0.00011241969,0.007868664,-0.13138044,0.027386151,0.010124196,0.11082369,0.03951463,0.014115631,0.060162738,-0.0806738,-0.0403369,0.045179155,0.03542612,-0.053538896,-0.02512491,-0.049518913,0.036956456,-0.019643111,0.0071491785,0.11045823,0.03375874,-0.07578586,-0.11575731,0.049336184,-0.05358458,-0.012048536,-0.044425406,-0.0008493932,0.061259095,-0.00017353674,-0.0056245537,0.01409279,0.05883797,-0.009421841,-0.05088936,0.00082155596,-0.07478087,-0.0050735185,0.019677373,0.04892505,-0.025330476,-0.005062098,-0.028688077,0.18354888,0.029670233,0.016102783,0.015999999,-0.08021698,0.08652105,-0.05559457,0.030675229,-0.093144886,-0.028642396,-0.02574161,-0.060345463,-0.04259814,-0.06262954,0.07542041,-0.028071376,0.002059957,0.037618842,0.007685938,-0.035791576,-0.023640255,-0.18555887,0.023457529,0.103240535,-0.0059043537,-0.06336045,0.0052419696,-0.06537045,-0.020374017,-0.027020697,0.04421984,0.053447533,-0.0403369,-0.07432405,-0.03622555,-0.027660241,0.17112347,0.029761596,-0.026107064,-0.08373447,0.022840826,-0.03841827,-0.038600996,0.03316488,-0.0074118483,0.0520314,-0.013293361,0.011123482,-0.046069946,0.062035684,-0.027865808,-0.038829405,-0.018969307,-0.044722337,-0.041707348,0.057088654,0.007900232,-0.050831042,0.010499547,0.030084662,-0.0030174914,0.094201095,0.04197412,0.085969925,-0.0127679305,0.003303296,0.06782286,-0.020818586,-0.08351502,0.042262934,-0.0021059264,-0.02182943,0.004666131,0.043947674,-0.024934167,0.025535861,-0.0013477928,-0.00011215938,-0.1125407,-0.10743834,0.005210663,-0.0655605,0.023309596,-0.04948325,0.011781153,-0.07278081,0.03612566,0.022960614,-0.00020062708,0.021047229,0.04693207,0.070855394,0.022346886,0.03362262,-0.0016320929,-0.0024353534,-0.023080952,-0.062961176,0.055596456,-0.022310784,-0.03593312,0.014813688,0.047196817,-0.074706234,-0.0016155463,0.11359968,0.06507914,-0.067871,-0.017990628,0.022972647,-0.03350228,-0.037329048,0.013249285,-0.008014554,-0.056751706,-0.08053062,0.02406773,0.0324433,0.047028344,-0.072492,-0.02008452,0.17328764,-0.11485121,-0.010451411,0.005950746,-0.09453804,-0.036221933,-0.08611433,-0.07172183,-0.021612821,-0.05882153,0.057906955,0.015716227,-0.023417901,0.12495965,-0.02173316,0.09063907,0.05988051,0.009609041,-0.15682532,0.020975025,-0.19417843,-0.039182264,0.19774047,0.16404565,-0.052130703,0.0013222209,-0.047509696,-0.03278025,0.1284254,0.025271116,0.041252088,0.03263584,-0.087077044,0.09227567,-0.20640485,-0.003504863,-0.020108588,-0.02669111,0.009013364,0.0339355,-0.1334315,-0.029121952,0.116680354,0.06387575,-0.031095507,-0.09357533,0.03954328,0.110519014,-0.05795509,-0.018977404,0.09506753,0.020228926,-0.044573434,0.046354447,0.15047145,0.025945012,0.02936263,-0.17646459,-0.022828242,0.046378516,0.028351786,-0.017605543,-0.123838305,0.08695963,-0.04452723,-0.059239727,0.055050075,-0.08091874,-0.025064835,-0.021362351,-0.059921764,-0.106202796,0.029010901,-0.051883478,0.012453252,-0.02420011,0.0018299278,-0.019718157,-0.06722929,0.060603797,-0.06742416,0.085985295,-0.14917108,0.022994367,-0.050519403,0.09153902,-0.0029001767,0.05558596,-0.070054874,-0.004280996,0.07687524,0.08087002,0.009804272,-0.004561118,-0.013190095,0.009737287,-0.02672121,-0.041141406,0.051250156,0.08642375,0.009024802,0.01467596,0.108248904,0.0346377,0.05982433,-0.10337722,0.03587998,0.07463426,-0.006686392,-0.015114412,0.07672909,-0.017854737,-0.055537242,0.028060922,-0.027866056,0.04481953,0.006357553,-0.03061856,-0.015845165,-0.15589401,-0.014006103,-0.015979137,0.08885959,0.0015383877,-0.025868664,-0.040142708,-0.055975694,0.032689027,-0.091003135,0.04840022,-0.04808356,-0.058216672,0.058606405,0.09952859,-0.048960466,0.11068475,0.108443774,0.05353985,0.11282829,0.040264502,-0.021179663,-0.026404548,0.011783395,0.035563324,0.07102921,-0.028913468,-0.090759546,-0.037390206,0.04859509,0.07984696,0.0060774307,0.053637285,0.054124452,-0.039144013,-0.08155206,0.008007837,-0.01653938,0.09972345,0.035660755,0.009030892,-0.10688484,0.022239255,0.065378055,-0.044283643,0.009444986,0.14137639,0.051542457,-0.040240142,0.10971041,-0.08379304,-0.029473713,-0.07609577,0.08959034,0.03186084,-0.051591177,0.003714662,-0.15667349,0.024723817,0.026501983,0.015845165,0.054368038,-0.056560297,0.008373214,0.01780602,-0.015382355,-0.008147898,-0.019766875,-0.0073258006,0.07575475,-0.06055508,-0.018223496,0.074370034,0.016790029,-0.03607798,-0.016165547,-0.014803043,0.025433416,0.08771122,0.011645155,0.048113436,0.036674075,-0.0074653886,-0.04581421,0.012702514,0.00053755054,-0.014512091,-0.071304396,-0.06290229,0.040733203,0.010821975,0.027874568,0.0009633332,0.023503201,0.052399646,0.10326648,0.05654393,-0.041556384,-0.0014884651,0.060517903,-0.07964973,-0.01224125,0.014661115,-0.19813085,-0.036191523,0.008515652,-0.10411804,-0.016009426,0.02184265,-0.05333637,-0.05858769,-0.10451544,0.0021040759,-0.061823636,0.07845754,-0.042890504,0.010055566,-0.13273063,-0.0078060147,0.0765841,0.043202743,0.030599577,-0.026100475,0.052371264,0.01835123,-0.06721688,-0.034914173,0.03045765,-0.03695793,0.079309106,0.079706505,-0.02736363,-0.092934154,0.030656349,0.02710816,-0.008018906,-0.05384731,0.02148783,0.016378438,-0.015697185,0.013745682,0.01329861,-0.043259513,-0.040534504,0.032785263,0.118878506,0.04694963,-0.11405297,0.11785663,0.027008811,-0.14374422,0.01917441,0.024936669,0.10338002,-0.08742736,0.12126289,-0.04782958,-0.13784003,-0.103209704,-0.12909728,-0.00044662823,0.03948424,-0.025845004,0.07692473,0.01283025,0.052683502,-0.042805348,-0.010353614,0.071815334,-0.07243982,0.06886324,-0.08214766,0.01747128,-0.06585438,0.04303243,-0.039853252,0.087200284,-0.06398094,0.09605656,-0.08856279,-0.05529497,0.16486304,-0.05566398,-0.0059254747,0.011858046,-0.04643869,0.005854511,-0.14874007,-0.016676486,-0.011453552,-0.030230565,0.10599149,0.03287042,-0.015753957,0.03874622,0.04121576,0.13091396,0.02710816,0.090947166,0.08366365,-0.09102563,0.12305025,0.012738856,-0.1658549,0.0086569,-0.016958848,-0.078299925,-0.045223594,0.07824734,0.06930779,-0.064101815,0.042594317,0.021270866,0.035127163,0.027975526,0.03265564,0.008472851,-0.12220888,0.0011848188,0.008006154,0.035021994,-0.034575015,-0.013271284,-0.03809825,-0.033549596,-0.14681892,-0.033628475,-0.07120087,-0.036073703,0.036941368,-0.024163073,0.08324297,-0.01720863,0.053242896,-0.06273459,-0.031814273,-0.09423335,-0.071411215,0.059737213,0.121683024,-0.038729277,-0.046038672,-0.032997448,0.0863981,0.0054327473,-0.026397958,-0.0055609248,0.116108954,-0.08403175,-0.110114194,0.013987763,-0.016459284,-0.0954954,-0.007828678,-0.030420756,-0.042962417,-0.031682808,-0.11526758,0.05297997,-0.11516241,-0.0710957,0.055477783,0.10916766,0.16143772,-0.09533765,-0.11053488,0.053610995,-0.015552184,-0.14397931,-0.0004786109,0.044066712,-0.083137795,0.116108954,-0.009603441,-0.16238426,0.09097305,-0.027449671,0.0011281249,-0.07987749,-0.06310269,0.030263,-0.00241072,0.03715171,-0.09386525,-0.09870312,0.0922351,0.003344114,0.08213867,0.15754639,-0.019535542,-0.15039475,-0.08913255,-0.036389217,0.17921165,-0.05884326,0.1188434,-0.0973359,-0.053058848,-0.036178876,0.08008783,0.019456662,-0.073304296,-0.14965855,-0.008643754,-0.012627112,0.09044719,-0.04056977,-0.011647705,0.00078221044,-0.094548866,0.08603,-0.012679697,-0.027975526,0.060473412,-0.070832774,0.04869424,-0.091867,-0.1188434,0.05931653,0.027318206,0.019916788,-0.059684627,-0.09234027,-0.035153456,-0.071253456,0.03291857,-0.09980743,-0.07617531,-0.05914841,-0.058301523,-0.089814655,0.029618777,0.05433452,-0.03773107,0.017907215,0.09404909,0.027768997,-0.13362995,-0.006451946,-0.12694399,-0.02308883,-0.045642782,-0.019901857,-0.01806322,0.0031228978,-0.11437439,0.034053795,-0.0060117873,-0.09449482,-0.11107599,0.08901234,0.013059897,0.02654324,-0.09752579,-0.0043793,0.09164215,-0.08691741,0.010703099,-0.087229416,-0.0006720777,-0.0041341484,0.0413192,0.041787215,-0.037374485,0.14619954,0.0892352,-0.09654518,0.010374373,0.045999367,-0.032961756,-0.09253361,-0.017773496,0.036237873,-0.09699091,-0.018820962,-0.034432665,-0.09930871,0.042656388,0.08731856,0.077735364,0.036661316,-0.022553952,0.015823426,-0.114285246,-0.10421174,-0.13942443,-0.010619524,0.05134813,0.052462455,0.013817639,-0.013539057,-0.07608616,-0.058791827,0.030955968,0.046890825,-0.00061914726,-0.07546214,0.054691106,0.011633561,-0.03688418,-0.032894894,0.0069088195,0.026832964,-0.026676958,0.033273768,0.006479804,-0.04272325,-0.07555129,0.027479272,0.007443696,-0.028237013,-0.0041285767,0.04738113,0.06365029,0.04392672,-0.031758282,-0.1325602,0.023378555,-0.037686497,0.05683061,0.006273654,-0.038154513,-0.035658423,-0.019300122,-0.03164685,-0.090527825,0.0548694,-0.043793,-0.04591022,0.08647168,0.0018093864,0.011126542,-0.008056575,-0.06365029,-0.046400525,0.07827024,-0.0537105,0.112591475,0.031691425,-0.040650602,0.007153971,0.006697098,0.038355093,0.021840785,-0.058078658,-0.03472239,-0.044439312,-0.08691741,-0.04129691,-0.13576944,-0.11063026,0.009666775,0.07621988,0.080097735,-0.004872389,-0.113382585,0.12228848,-0.07967425,-0.03758671,0.06564507,0.044337954,-0.023461768,-0.031050932,-0.034019563,0.006858976,-0.024012402,-0.05410571,-0.0032978149,-0.023377975,-0.022240799,-0.050131574,-0.044290073,-0.0069667087,-0.07818993,0.052334107,-0.028225943,0.0011050074,-0.06626753,-0.007265966,0.06957132,-0.06066543,-0.011323894,0.047689635,0.09092632,-0.025041847,-0.022133065,-0.015393793,-0.052525632,0.017428743,0.037682474,0.02435954,0.16375357,-0.03095517,-0.06516626,-0.017704058,-0.0132152,0.018003317,0.0022324591,-0.104285166,-0.01528606,-0.042279065,-0.035455998,-0.041034155,0.017835733,-0.046061676,-0.016519,-0.045534983,-0.044457655,0.040722925,-0.014280556,0.040172294,-0.040675044,-0.038185224,0.014651635,0.021007858,-0.019667186,0.111275814,-0.08135009,-0.058941707,0.1115631,0.06712939,0.0025421903,0.057505272,-0.03375622,0.0810628,-0.014292526,0.0372276,0.15475191,0.14756973,-0.038640097,-0.0050574476,-0.051759534,-0.063298896,-0.036868494,0.10524279,0.013143378,0.055637907,-0.067799725,-0.023761025,-0.072156906,-0.05702646,-0.03641362,-0.1278427,-0.13042828,-0.10332754,0.046181377,0.018051198,0.10696651,-0.11328682,-0.029231448,0.18213993,-0.081637375,-0.02480244,-0.026621925,0.10916904,0.1072538,-0.062053982,0.00948047,-0.006021056,-0.020373434,-0.07924332,-0.06119212,-0.027890775,0.112903774,0.061718814,-0.023904668,-0.049748525,0.09456529,0.17342556,-0.050562505,0.08671278,-0.0040010693,0.028680814,0.05319597,-0.10371059,0.051759534,0.036700908,0.062053982,0.122863054,0.047713574,0.005111314,-0.07905179,0.0022519107,-0.045141958,-0.015307915,0.034423895,-0.0905361,-0.024046289,-0.1141915,0.057448816,0.033162948,-0.118226536,-0.053766847,0.032935977,-0.08377742,-0.024109336,-0.050791007,-0.04095561,-0.03871112,-0.0018126136,0.08488706,-0.12791063,-0.072126254,-0.024374135,0.025042439,-0.027009519,0.03555875,0.13557719,-0.033490792,-0.03502915,0.03089324,-0.0058255824,0.03871112,-0.0017196186,0.024311088,0.058659326,-0.048874367,-0.016581474,-0.033162948,0.08766115,-0.095025085,-0.014450471,-0.0010308254,-0.024197603,0.04070342,0.03132196,0.059516773,0.059516773,-0.045974184,0.11288012,-0.007912452,0.0602229,-0.06854516,0.11136698,0.0348274,-0.011140481,0.022848388,0.035155244,0.067839034,0.032935977,0.03840849,0.01690932,0.024159774,0.002045889,-0.070613116,0.032204628,-0.044738457,-0.042998347,0.013567806,-0.01766589,0.0744464,0.045167178,-0.0061565815,-0.009696694,0.047159474,0.15302871,0.02622773,0.012685142,0.054725166,0.01470266,-0.014627003,0.018094612,-0.0838783,-0.019052932,0.038358055,-0.12427909,-0.08211297,-0.015093554,-0.105314426,0.036718823,0.1250861,0.014311766,-0.07979283,-0.15716463,-0.033768203,0.009614733,0.037904114,-0.043300975,-0.15121295,0.106020555,-0.025332456,-0.011203528,0.07197494,-0.0069982647,0.0113737555,-0.058760203,0.058154948,0.070209615,-0.029304445,-0.094268516,0.08332348,-0.018561162,0.06728421,0.009097744,-0.12034493,-0.0529094,0.0038805692,0.05071535,-0.03795455,-0.04582287,-0.07767443,0.08357567,0.076917864,0.01519443,-0.018725086,0.03500393,0.01569881,0.018510725,0.038131084,0.046428125,-0.021713534,0.0070467596,0.015694203,-0.018620454,-0.08443607,-0.031663522,-0.06797904,0.045019228,0.030688107,0.05352286,0.0557238,-0.027661815,-0.018182766,-0.11584948,-0.0849863,-0.08908805,-0.060775958,-0.015644182,0.072631024,-0.019070646,-0.03666566,0.013230651,-0.02217197,0.07363145,0.09358998,-0.02402276,0.022309529,-0.025273295,0.048420683,0.067278735,0.04324347,-0.034489732,-0.017157327,-0.017544994,-0.025223274,0.04179285,-0.085686594,-0.0013130609,0.04296835,-0.04759533,0.030012818,0.028061986,-0.011661231,-0.0746819,0.034489732,0.027261645,0.0030606822,-0.050796695,0.031713545,0.07348138,0.022584647,0.008147229,-0.0030325453,0.039116707,0.010873394,0.0055086026,-0.07763316,-0.0030294189,0.050046377,0.080084205,0.110947385,-0.031313375,0.010310654,-0.011961359,-0.040467285,-0.08463615,-0.037466,-0.09959254,0.017632531,-0.050171427,0.001874238,-0.06407737,-0.043893747,-0.062426664,0.08083452,-0.010654551,-0.09674132,-0.005436697,-0.012499088,0.04359362,-0.056123972,-0.0075844894,0.047420252,-0.006349587,-0.0061807646,-0.04041726,-0.0019383279,0.07318126,-0.09363999,0.057174418,-0.038066257,-0.020358695,-0.05817485,0.0026902114,0.0023541304,0.027186612,-0.05132192,0.023485031,0.065828115,-0.065728076,-0.019720923,0.04656989,0.0043862485,-0.049346074,0.0071217916,-0.06352713,0.027536761,-0.041267626,-0.049696226,-0.008222261,0.033764422,0.032513887,-0.042318076,0.027661815,0.01559416,-0.08683709,-0.04321846,0.071330465,0.002602674,0.11494909,0.11484905,0.013555789,-0.03368939,0.052972626,-0.0120426435,0.029187467,0.020683834,0.15116456,-0.097741745,-0.041563533,0.031040829,-0.05735905,0.07386525,-0.07932147,-0.05992668,0.0038485813,0.02149245,-0.01649474,-0.01185237,-0.08363142,0.058138512,0.021114184,-0.06400738,0.093764395,-0.022191672,-0.06391568,-0.11801934,0.08152229,0.06542875,0.079183914,-0.07482811,-0.032370497,-0.08642831,-0.10884923,0.03413574,0.049335204,-0.05561673,-0.04546083,-0.057909258,-0.04983956,0.11031645,0.043695584,-0.044864774,0.053461753,-0.029023405,-0.009599961,-0.022822116,-0.014030271,-0.04594226,-0.075561725,-0.0613939,0.009210232,-0.055249926,-0.045094024,-0.16854666,-0.02101102,0.008000922,0.075103216,0.050939973,-0.10894093,-0.06717107,-0.04823479,-0.065749705,-0.02149245,0.062906966,-0.010528435,-0.06414493,-0.019245772,-0.06382398,-0.06217336,-0.05401196,0.008591249,0.02001377,0.06707937,-0.017950494,-0.010935359,-0.05653374,0.040531896,0.015394325,0.04754703,-0.17569935,-0.006058005,0.006442004,0.062861115,0.030949129,-0.09248058,-0.0614856,-0.06593311,-0.06304452,0.047730435,0.074094504,-0.017480526,0.024254946,-0.024805153,0.1307658,0.038835425,-0.055249926,-0.20944536,0.115818515,0.08619905,0.12572223,-0.034663025,0.0449794,0.0026435715,-0.08221006,-0.07657044,-0.035442483,-0.054287065,0.061669003,0.039110526,-0.031705663,-0.061852407,-0.01636865,0.007909222,-0.024461273,0.028335646,0.072718985,-0.044360418,-0.011124492,0.016884468,-0.012058698,-0.0164145,-0.022203134,0.051994536,0.017159572,0.015864294,-0.070839114,-0.06689597,-0.018569477,0.06322792,-0.0691885,-0.012585979,-0.032920703,0.033356283,-0.02105687,-0.049472753,-0.008195788,-0.038359437,0.0197002,-0.011339976,0.03414354,-0.04283557,0.026752714,0.028574398,-0.095612325,-0.0027146328,-0.023356577,-0.044006653,0.06188517,0.13376357,-0.01001275,0.06027168,0.017462132,-0.044214845,-0.09556028,0.050877,0.079633564,0.07614634,-0.052776754,-0.09087595,0.052620612,-0.04791026,0.013038045,0.10170195,0.036615826,-0.056888554,0.028027892,-0.09155258,-0.010754435,4.503379e-05,0.034664024,-0.08957475,0.02607609,0.1464633,0.031046681,0.08577524,0.023317542,-0.014391295,-0.017631289,-0.052698683,-0.013922862,0.026128137,0.004840472,-0.05131941,-0.020793209,0.008509861,0.03737052,0.026479462,-0.07817622,-0.059022527,0.045437977,-0.06474782,0.0060538426,0.06620516,0.0200255,0.116379514,0.028886685,0.004895773,0.055014823,-0.05202206,0.004895773,-0.00040032296,-0.09472751,0.07479309,0.02106646,-0.0896268,-0.045464,-0.041820634,0.033961374,-0.12293757,-0.09706967,0.0016175568,0.0059204693,-0.082912594,-0.011762867,-0.001598852,0.0061774566,-0.030708369,-0.0066101067,0.050772905,0.07031696,-0.044839423,-0.018021649,-0.15916304,-0.021326702,0.051501576,-0.046530984,-0.060583968,0.0007912935,0.07890489,0.02228959,0.05397386,0.0896268,-0.12335396,0.10669857,-0.09071981,-0.0018639719,-0.050330497,0.041950755,-0.02737729,0.06370685,-0.03200957,-0.0006119716,0.04424087,0.012439492,0.07354394,-0.022523807,0.0041117985,-0.08983499,0.067506365,0.076666825,0.008666006,-0.034533903,0.0230573,0.08504657,0.012270335,0.07281527,-0.038307387,0.036017273,0.07900899,-0.16894807,-0.07167021,0.0021860194,-0.04249726,0.031983547,0.06403441,-0.08672025,0.03835918,0.020255212,-0.03981197,0.0009874416,-0.022113103,-0.052803244,0.040314857,-0.08102085,-0.007361722,0.08135611,0.036878455,-0.07928868,-0.015785096,-0.057888,0.13477398,0.08292065,-0.04559518,-0.098230794,-0.15690106,-0.0761596,-0.009024046,-0.032017205,0.033274423,-0.10772979,-0.057776246,-0.0026558775,0.06397853,0.112814546,-0.04481291,0.06213461,-0.0028968446,-0.015156486,-0.09493408,0.08856417,0.028971938,-0.049171273,0.099962965,0.04389095,-0.08040621,-0.039700218,-0.03760485,-0.031234935,0.047746424,0.08917881,-0.0015977172,0.045036417,-0.0676105,0.022462333,0.0544516,0.0056889206,-0.07370103,0.06906329,0.05193716,0.060178936,-0.059731923,0.09024046,0.1354445,0.012202019,-0.05783212,0.08945819,0.02641559,-0.028301422,0.09867781,0.15745983,-0.003967228,0.099907085,-0.12471623,0.059620168,-0.077780016,-0.11689353,-0.035788864,-0.0024603098,0.11588775,0.00079580286,-0.023943057,-0.09454295,-0.14505526,-0.060961206,0.062861,0.05710573,-0.10862382,0.11018836,-0.027155954,-0.029027814,-0.074650936,-0.040035475,0.021889599,0.15567179,-0.050428495,-0.045706935,0.14583753,-0.030787922,-0.029446889,0.022252796,0.05691016,-0.03458752,0.06057007,-0.035285976,-0.04405858,0.101695135,0.10208627,0.055569127,0.038023923,0.07856228,0.07487444,0.2197062,0.0032827414,-0.0022961728,-0.07236,0.13633853,0.030312972,0.055401497,-0.055150054,-0.026639096,0.014332308,0.04391889,-0.11359682,-0.046740647,-0.07582434,0.1504194,0.0132846255,-0.00054654153,0.08767015,-0.12505148,-0.037828356,-0.072751135,0.01731645,-0.039797664,-0.013008455,-0.040787175,-0.0686383,-0.033184834,-0.016580349,-0.018474901,-0.036829133,-0.03465703,-0.051792473,-0.008561687,-0.032653876,-0.051889013,-0.047737893,0.034343287,-0.10503301,-0.08427741,0.0818157,0.072837695,-0.0026653456,0.042621393,-0.044696953,0.030843794,-0.03709461,-0.041873224,0.04735174,0.06675582,-0.08133301,-0.019681623,0.030095628,-0.11111489,0.11681061,-0.025872102,0.02744084,0.06680409,-0.14133118,-0.057343394,-0.12781592,0.026523732,0.045131374,-0.12202365,0.071148284,-0.020960748,0.000635037,0.033233102,0.014782335,-0.025510086,-0.003062055,-0.04320062,0.036949802,-0.098371916,-0.029830148,-0.013660084,-0.021033151,-0.033184834,-0.06685235,-0.11333526,-0.03987007,-0.0070351847,-0.07312731,0.027199496,-0.04527618,0.007994528,0.042959277,0.04056997,0.052275162,-0.1039711,-0.03704634,0.017618129,-0.05613667,-0.02449644,0.018402498,-0.073368646,-0.018281827,-0.123085566,-0.036756728,-0.018245624,-0.09286927,-0.066611014,0.077230155,-0.015301225,0.057584736,-0.09798576,-0.07085867,0.08046417,-0.122506335,-0.082491465,-0.12993973,0.10821876,0.053481884,0.0046458766,-0.053144,-0.033643387,0.023856878,0.00033750484,-0.03907363,-0.039628725,0.04363504,0.046120886,0.047110397,-0.05198555,0.015361561,-0.084422216,-0.04288687,-0.09895114,0.021358965,-0.101654194,-0.028864771,-0.061060093,0.01084239,-0.019235136,-0.02722363,0.0058525978,0.068976186,0.03600856,0.009677904,0.05285439,0.027923528,0.024484374,-0.050634023,-0.08447049,-0.13582854,0.06429411,0.006214614,0.014613394,-0.008911636,0.032412533,-0.026669731,0.03623424,0.03215893,-0.017826026,-0.038313482,0.087439016,-0.010216004,-0.06936348,-0.016633928,-0.077957675,0.09808473,-0.018422076,-0.01208039,0.028610356,-0.020432008,0.08732812,0.0500404,-0.050345358,-0.037648123,-0.09653223,-0.055889998,-0.037980802,0.15902035,0.037038215,-0.012537823,0.06404062,-0.02847174,0.05028991,-0.04674134,0.039644197,0.036650088,-0.033351026,-0.09531241,-0.063098036,0.040947188,0.051121607,0.007914977,0.027834106,-0.008677366,0.025311295,0.048598792,-0.15037072,0.06343071,0.104239285,-0.001465865,0.03052326,-0.0054857307,-0.024770692,0.037564956,0.06082473,-0.092983656,-0.12375642,-0.07901116,0.07512991,0.03701049,0.03795308,-0.04521656,0.08272607,0.0006497628,0.11810089,-0.0071387277,0.050317634,0.0078110155,0.053505804,-0.021554798,0.0072773434,0.007072885,-0.020113192,-0.023592455,-0.06359705,-0.10945125,-0.029137097,0.030661875,-0.09741937,0.0493196,-0.10684527,-0.08522116,-0.052563213,0.06442875,0.017728996,0.05139884,0.021374598,-0.10728884,0.09897187,-0.055335537,-0.11183544,0.03615107,-0.040531337,-0.027168749,0.060103927,-0.0016763881,0.02795886,-0.024576629,0.090045,-0.13950321,0.021416184,-0.01905971,-0.0045327456,0.12187125,0.11577214,0.055363256,0.011920982,-0.014831919,-0.02389741,0.0939817,0.029386606,-0.002321819,0.009557578,-0.041529376,-0.02363404,0.0019354268,0.066868395,0.023911271,-0.094314374,-0.16190358,0.012780402,-0.02226174,0.046879955,-0.03595701,-0.029469777,0.01889337,-0.049236428,0.03770357,-0.033351026,-0.053616695,-0.07135955,0.07252393,0.039949153,-0.020116223,0.006176147,-0.021878984,-0.091559924,-0.04158044,-0.019895878,0.047283493,0.059156213,-0.04997948,-0.033777628,0.12805946,-0.10804693,-0.11530536,0.015890779,-0.024652742,-0.05749714,0.04743903,0.054749306,-0.0765246,-0.13096283,0.015151975,0.02488605,0.0382623,0.0061891084,0.054282695,-0.0117042195,-0.045209654,0.012702254,-0.008548099,-0.024237974,0.04194336,-0.030278025,0.06019313,-0.006383531,0.050264634,-0.057445295,0.03937699,-0.0042610876,0.011490355,-0.034970082,0.0041541555,-0.010064592,0.0043323757,-0.011276491,0.011626451,0.10441771,-0.06428896,0.022228945,-0.007498218,-0.07642091,-0.043835737,0.035462618,-0.03432201,0.0037815128,-0.06226697,-0.017835002,0.05941544,-0.07854659,-0.10898016,0.054127157,-0.030174334,-0.014024326,0.020543952,-0.08456072,-0.022423366,-0.0036648596,-0.04246182,-0.017446157,-0.1300296,0.030148411,-0.01940334,-0.02235856,-0.059830207,0.032896247,0.07273985,0.025547083,0.04850187,0.06916248,-0.074917376,-0.00045729734,0.10659524,0.079272434,-0.027582036,0.017796118,0.059985746,-0.041813746,0.015164936,-0.07865028,-0.09181915,0.041658208,0.052027397,-0.005667409,-0.022682596,0.0270895,-0.057186067,-0.0017352186,0.06226697,-0.09804066,-0.0599339,0.041191597,0.0028077813,-0.09425591,-0.080309354,-0.094722524,-0.025184162,0.039947294,0.04471712,-0.040413905,-0.031055715,-0.045313347,-0.005826187,0.032559246,0.032611094,0.04186559,0.05537146,-0.024134282,0.09721113,0.029370721,0.0071741813,0.037277225,-0.13936187,0.021088334,-0.0637705,0.05786006,0.014970514,-0.038910374,0.035955157,-0.0829535,-0.002997695,0.012323509,0.028376088,-0.091255486,0.12626103,0.040052973,-0.004752367,0.04145922,-0.0023165434,0.011224877,0.022336751,0.007759479,-0.09949209,-0.09140616,0.04655687,0.090200804,-0.06604346,-0.112298995,0.071568005,0.045351516,0.02296454,0.023052432,0.07900104,-0.11109364,-0.007087744,0.08999991,-0.03113836,-0.010239247,0.035758894,-0.051629413,0.05715396,-0.095223114,-0.07829791,0.018846242,-0.019310806,0.095876016,0.024107119,-0.010653589,0.00984374,0.025676591,0.06046869,-0.010013243,0.08080907,-0.041484334,-0.00052812794,0.024358233,-0.041484334,-0.06584257,-0.023881115,-0.06458699,-0.044999953,-0.041358776,-0.008525382,0.07985483,-0.05825887,-0.020691942,-0.08728786,-0.09868851,-0.041383885,0.057907306,0.060719803,0.022198638,-0.11290167,-0.043443035,-0.09426888,-0.14253333,0.081562415,0.0017075875,0.015092061,-0.072522245,0.061674044,-0.06654569,0.049444705,-0.16091502,-0.05730463,0.02174663,0.011821277,0.017314436,-0.021520626,0.0066734026,-0.017515328,0.07237158,0.048942473,-0.0100509105,0.0015059102,0.050775617,-0.17397304,-0.040203642,0.09266174,0.028777873,0.01986326,0.03829516,-0.027748298,0.006604346,0.038496055,0.09898985,-0.12947531,0.016812203,-0.03781804,-0.006955908,-0.025814706,-0.042991027,0.042915694,0.04758645,-0.028928543,-0.05559704,0.045828637,-0.048942473,0.068203054,0.07151779,-0.08316956,0.05049939,0.049746044,0.00921595,-0.028677426,0.07428006,-0.056400612,0.058158424,0.034051307,0.0058604153,-0.03781804,0.046581984,-0.063281186,-0.0023761834,-0.031339254,0.0509514,0.08929679,-0.0800055,-0.12585114,-0.09466274,-0.030593902,0.014622421,-0.030090863,-0.09420544,-0.039900117,0.10646129,-0.041157715,-0.06649257,0.008808894,-0.004141495,0.106186904,-0.024283051,0.07787954,0.0654865,0.04550214,0.05711776,-0.07307781,0.115515985,0.028261632,-0.05748361,-0.06969373,-0.016474519,0.0461881,-0.048611835,-0.0570263,-0.015651364,0.012758892,-0.025403457,0.050532527,0.083321504,-0.016280163,-0.019355558,-0.06649257,-0.12319876,-0.050395336,0.03054817,0.014096517,-0.025266264,-0.02071605,0.003206872,0.042255253,0.06480054,0.07316927,0.05117276,0.019389857,0.07344366,-0.018349482,0.042643964,-0.07655335,0.04943499,-0.069602266,0.016657442,-0.01733197,0.075181425,0.014919671,0.0020721767,-0.11789399,-0.015091162,0.03159998,0.08505928,-0.009260486,0.007396956,0.048474643,-0.012507373,0.0014848217,-0.041889407,0.11981468,0.045936584,-0.100882135,0.047605757,0.04159216,-0.07687347,0.023985801,0.018017933,-0.019927194,0.117162295,0.022979723,-0.061782304,-0.10362598,-0.0035612856,-0.018418077,-0.057529338,-0.037590712,-0.01788074,-0.0029553527,-0.059084184,0.026020821,-0.000900325,0.036195923,-0.020155847,0.085928164,-0.052636143,0.20304473,0.05396234,0.00588784,0.0042986944,-0.010026476,0.06480054,0.008117216,0.022991156,-0.015937181,-0.042049464,-0.0034155187,-0.071477234,0.13508877,0.12822914,-0.11734522,-0.00036941908,-0.061828032,-0.110668525,-0.039465677,-0.17935617,0.005719207,-0.03322342,0.08867201,0.16536255,0.018269453,-0.020087251,-0.07605031,-0.0666755,0.008826043,-0.062422533,-0.14725316,-0.0438101,0.010369457,0.03770504,-0.03772781,0.06736413,0.04404015,-0.021934774,0.01942446,0.057810318,0.033194624,-0.022592818,0.011064875,-0.026638566,-0.012588123,-0.056201767,0.10440952,0.0021965238,-0.19244109,-0.019485392,-0.073213406,-0.04189542,-0.0033054487,0.0022285122,-0.045794934,-0.022909652,0.032658443,-0.012033661,0.02294621,-0.0012269764,-0.06517065,0.089883834,0.030343104,0.11757039,-0.0091760475,-0.10587184,-0.018985765,0.0062635965,-0.0025087898,-0.010534785,0.033413973,0.00035472642,0.032439094,0.076333016,0.024420716,0.0019177696,-0.050986163,0.046452977,0.0016085501,0.011442641,0.07823403,-0.014842531,0.029782549,0.073652096,0.019461019,-0.10840653,-0.033462718,0.01681666,-0.033560205,-0.033170253,-0.046209257,0.05132737,0.09904769,-0.03536373,0.060052536,0.104019575,-0.0837421,-0.03436448,-0.014452579,-0.039458223,0.04501503,0.06044249,0.06804655,-0.015549318,0.017084751,0.07896519,-0.041602954,0.10694421,0.0070922435,0.079355136,-0.04613614,-0.019180741,0.0748707,0.011308595,0.01793777,0.050255004,0.080524996,-0.013392398,-0.050986163,-0.042260997,0.031488586,0.03151296,0.016463267,-0.025224991,-0.0073725213,-0.04379643,-0.049109522,-0.0486952,0.09314968,-0.030562453,0.011235479,-0.0054654144,0.09709793,-0.027296608,0.033097137,0.011070968,-0.053472105,0.11045378,0.02707726,-0.040384356,-0.14827907,-0.033706438,-0.048524596,0.1110387,0.06868021,0.0015948409,-0.06590181,-0.038751435,-0.04277281,0.046014283,0.013197423,-0.08812905,0.078916445,-0.019083254,-0.048646454,0.02619987,0.041773558,0.07872147,0.012106777,-0.108698994,-0.012411427,0.024603505,0.081954956,0.034993805,-0.01080534,0.0188459,0.047922816,-0.06539301,0.0047882744,0.09632646,0.027540926,0.14168485,-0.06849169,-0.05192974,-0.086549565,0.04370219,-0.06785058,-0.0061673243,-0.080993295,0.04730842,0.014959184,-0.071269825,0.078428864,-0.07362056,0.026031652,0.12148995,-0.08211523,0.13345729,-0.0003562406,-0.060584694,0.04741527,0.016895864,-0.006674868,0.00856814,-0.0032172264,-0.027594352,0.0031521139,0.071804084,-0.12608455,0.09830321,-0.08366458,0.13912041,-0.038386334,0.054707874,0.008741774,0.06897252,-0.061866913,-0.00894212,0.027540926,0.05457431,0.006828467,0.03729111,-0.017390052,-0.043515198,0.036703426,-0.002220504,-0.027914906,-0.00424734,-0.042980943,-0.00021766781,-0.07025474,-0.020956215,-0.13612857,-0.03902744,0.06833141,-0.020769224,0.06939993,-0.048964616,-0.0978758,0.10834724,-0.008922085,-0.052090015,-0.019647285,-0.044022743,-0.06384366,0.0043107825,0.032696504,-0.099318296,0.08868659,-0.05334552,0.037237685,-0.07212464,-0.0909839,0.06368338,-0.02130348,-0.16604695,0.04722828,0.01582735,0.021557253,0.020047978,0.014037591,-0.0068718754,-0.0151996,-0.051422197,0.12319957,0.061118953,-0.15226312,-0.021316838,-0.017056141,-0.01907296,0.01199406,-0.014264651,-0.11048426,-0.07597128,0.056631196,0.0065179304,-0.03237595,0.00927603,-0.02648577,-0.0056831543,-0.10861436,0.036302734,0.20600934,0.004006924,0.09253324,0.05572296,-0.011206032,0.033738304,0.03616917,-0.06624781,-0.009803608,0.054707874,-0.02715359,-0.09605933,-0.072284915,0.0098971035,-0.024281962,-0.042793952,-0.09680729,0.01642839,0.033459727,-0.01924327,-0.00089203496,-0.040663328,0.062296577,0.0774219,-0.06651551,-0.049550015,0.025762418,0.06817616,-0.00038921335,0.13482632,0.11328283,0.0047911815,-0.09972838,0.11364189,-0.1353649,0.03936174,0.10412685,0.10188273,-0.07787073,0.11624505,-0.080339245,0.05457683,-0.091021225,-0.11328283,0.10439614,0.013767634,0.023473423,-0.0006802468,0.0046172626,0.059424113,-0.039810564,0.053724065,-0.03408808,-0.067547806,-0.0012237428,-0.088687345,0.038576305,0.06844545,-0.0261888,0.022553336,-0.048742134,0.0044938363,0.039586153,0.14317441,0.032651845,-0.02816362,0.07288879,-0.024303744,0.07980066,-0.08630859,-0.04847284,0.07638961,0.036646366,-0.0010729666,-0.021723015,0.011265447,0.044209026,-0.083256595,0.026099036,0.12127187,-0.013217825,0.05673118,-0.1171427,0.019097403,-0.0051530446,-0.022800189,0.05040278,-0.024124216,-0.04582479,0.031709317,-0.01805389,0.03630975,0.07396597,-0.11247495,-0.022463571,-0.06153358,-0.14030194,0.014485749,-0.042750355,0.087879464,-0.0047911815,-0.059468996,0.0013015856,-0.06799663,0.026772268,-0.014788705,0.029240793,-0.094342515,-0.067547806,0.060007583,0.05345477,-0.076075435,-0.04488226,0.081281774,0.043558236,0.021487383,-0.051120896,0.012028446,-0.05179413,0.04409682,0.01903008,0.07849907,0.05098625,-0.0104295155,-0.08612906,0.11947658,-0.015787335,0.06108476,-0.0094925985,0.004510667,0.011792814,0.0015596586,-0.0032792103,-0.04281768,-0.0115123,0.04340115,0.04028183,-0.0012069121,-0.061354052,-0.054891005,-0.10313944,0.021924984,0.02284507,-0.051839013,0.042727914,-0.09034799,0.037579432,0.021436801,-0.017014792,-0.031198885,-0.0137480125,-0.08758333,0.0314284,0.03197924,0.10698509,0.10674027,-0.03816087,-0.026103629,-0.083054215,-0.027174704,-0.021161381,-0.04767814,0.015760103,0.050921965,0.012240857,-0.09798806,0.05643035,0.027939757,0.0771174,0.019126339,-0.037610035,-0.016678168,-0.016173232,-0.015760103,-0.03243827,0.07313912,-0.050065108,0.06873241,0.06340764,-0.009394858,0.056583364,0.014360055,-0.00943311,0.063897274,-0.04244517,-0.028230477,-0.12693769,-0.027863251,-0.0043914076,0.030602142,0.027358316,-0.0328667,0.08158531,0.081034474,-0.08727731,0.037610035,0.028444692,0.060898263,-0.007554904,0.08788935,-0.040915065,0.04685188,-0.06879362,-0.067447126,0.05581831,-0.15190904,0.013304282,-0.0342438,0.0628568,-0.083911076,0.08378867,0.002163189,-0.010244068,0.03984399,0.011843029,0.11212625,-0.06830398,-0.08519637,-0.05095257,-0.027174704,0.08831778,0.05499205,0.118430294,-0.002362103,-0.093887374,0.037763044,-0.08042243,-0.017489124,0.021115478,-0.05612433,-0.0370898,0.018774414,-0.09707,0.08097327,0.05070775,-0.0121414,0.03458042,-0.038619906,0.015316373,0.008124869,-0.03314212,-0.09976298,0.1369752,-0.037334614,0.041527107,0.0079795085,-0.063224025,-0.14615583,0.0018437791,0.006900783,-0.17688039,-0.023196423,0.13464943,-0.086420454,-0.070874564,-0.083727464,-0.046637665,0.07503645,-0.037763044,0.011865981,-0.048902225,-0.16182414,0.0049039936,0.037365217,0.11610453,0.026945187,0.06799796,-0.06622304,-0.00065268634,-0.112554684,-0.016096728,-0.055481683,-0.052758094,-0.09437701,0.012441571,0.07688075,0.04090253,0.047427237,-0.014311269,-0.01289553,-0.054567482,0.0011368226,-0.18663126,-0.01294939,-0.013595706,-0.0050089443,0.05019716,0.13369495,-0.0352088,0.16447188,-0.032469653,-0.08568295,0.15462326,0.035054915,0.044226438,0.010987361,0.022036277,-0.018681591,-0.11498258,0.03613211,0.022559484,0.09411583,0.03499336,0.090853475,0.10531863,-0.017173523,0.03477792,0.050874252,0.046442375,0.07035604,0.0005578317,-0.12704714,0.05219766,0.031546347,0.08469809,0.062538706,-0.14329734,0.04228749,-0.11787561,0.011179717,-0.08740646,-0.024082942,-0.10236404,0.09393117,0.025437126,-0.00026112294,-0.042164385,-0.052628536,0.01989728,0.054690592,-0.075526565,-0.08968395,0.19611055,-0.08525208,-0.027329907,-0.022267103,0.07669609,-0.07965068,0.08629849,-0.04699636,0.033793062,0.04730413,0.030269103,0.051151246,-0.109134965,0.06746301,0.09066881,0.08432877,0.06069209,-0.047858115,-0.05890703,0.12556985,0.009925557,-0.011056609,-0.070171386,-0.017942946,0.09947101,-0.06684747,-0.04788889,0.024636926,0.09393117,0.15474637,-0.008917613,0.046873253,0.020374322,-0.009587011,0.020220438,0.10039432,0.049920168,0.04170273,-0.16028622,0.0044241827,-0.10285647,0.0045549846,0.062046275,-0.097747505,-0.03779406,-0.009448515,-0.067339905,-0.05330563,-0.108580984,0.07571123,0.023067303,0.022420987,-0.026514318,-0.025252465,0.034624036,-0.09466981,0.027529957,0.09263854,0.032469653,-0.19955756,0.13492602,-0.0968242,0.04998172,0.030130606,0.037147745,0.04659626,-0.0144189885,0.0018658509,0.029915169,-0.073679954,-0.06695357,0.010893454,-0.039443213,-0.12623988,-0.041279037,0.09049531,0.073594935,-0.11738473,0.1134971,-0.049432255,-0.020734008,-0.007977734,-0.026039,-0.11068937,-0.038714282,0.091197245,-0.016468419,-0.07208308,0.035366606,-0.026362969,-0.030129107,-0.0016704646,0.041899975,-0.012904761,0.019141162,-0.09260111,-0.0036176527,0.10350806,0.028887227,0.032207906,-0.0646318,0.102752134,-0.081154205,-0.0354206,-0.08045228,0.10426399,0.15172543,-0.041710995,0.03655449,-0.00968532,0.05250996,0.043681808,-0.016522413,0.0011769183,0.014889071,0.01854722,0.05988025,-0.04959424,0.0021935394,0.02270482,0.071921095,-0.03947021,-0.11155329,0.07148913,-0.028347278,-0.036176525,-0.08072225,0.018155757,0.034043733,-0.010555986,-0.06338991,0.102752134,-0.022650825,-0.14222234,-0.06392986,0.049027294,-0.010879955,0.040442117,-0.06835744,-0.004417451,-0.025431558,-0.021233462,0.05539868,0.0019050046,0.03199193,-0.11014943,-0.0791564,1.9615305e-05,-0.06500976,0.032369893,0.045679614,0.08315202,-0.077968515,-0.05259095,-0.061014142,-0.024000695,0.041198045,-0.028077304,0.02217837,-0.022893801,-0.014362621,-0.026659941,-0.020450536,0.116520815,-0.065981664,-0.0018594465,-0.01344471,-0.008976638,0.010151026,0.037742376,-0.020248055,0.015361525,0.09362701,-0.05075513,-0.03947021,-0.041360028,-0.027105398,0.08871348,0.1082596,0.073702924,-0.095678814,-0.00833545,0.0090508815,-0.042142954,-0.061716076,-0.079642355,-0.01594197,-0.025499051,-0.05062014,-0.019532625,-0.09654273,0.06695357,-0.055452675,-0.035744566,-0.064307824,0.047353454,0.0037965104,-0.0026828675,-0.05116507,-0.011848422,0.06935151,-0.032433875,-0.026001576,0.00067177723,0.09026172,-0.015755992,0.052925047,0.04223947,-0.07886377,0.07048292,0.02128735,-0.024807306,-0.0351367,0.04856701,-0.062898256,-0.064113475,-0.015871229,0.058833543,-0.04226042,0.006065638,-0.14884384,0.07035721,0.023110185,-0.0841437,-0.014781718,0.06524489,0.013116025,0.054559313,0.013346499,0.06226969,-0.03949474,0.009763686,-0.057702128,0.10383869,0.008139897,0.004499467,-0.015116952,0.004313517,-0.037252862,0.08112659,0.008113707,-0.0062489687,-0.04066806,0.02434636,0.0040987576,-0.04957271,0.013430307,0.01073796,0.07798378,0.041087102,-0.00084397744,0.008537987,-0.016405508,-0.021538775,0.06838771,-0.028075837,0.048776526,-0.030569138,0.06838771,-0.004688036,0.077732354,-0.015483614,0.0018058106,-0.02113021,0.019684514,-0.06805248,-0.0811685,0.03385862,-0.10610152,0.048986048,-0.056109767,0.012843648,0.062018264,-0.07094387,-0.03920141,-0.011649377,-0.06369443,-0.02495397,-0.047770828,-0.023571132,0.10417392,0.10258156,-0.025603486,0.00051692803,-0.05879164,0.09721782,0.025854912,0.13317165,-0.0712372,0.030024383,0.027007278,-0.0702734,0.10937005,-0.02968915,-0.037043344,-0.07463144,-0.06511918,0.0067780097,-0.043706115,-0.07940852,-0.051374592,-0.058749735,-0.013964586,0.030925324,-0.1158233,-0.039536644,-0.030925324,0.040647108,-0.09319501,-0.0584145,0.060803045,0.112890005,-0.001706288,0.03672906,0.046346083,0.0148340985,-0.066376306,-7.2759496e-05,0.0871608,-0.07136291,0.048944145,-0.012843648,0.05472693,0.051542208,0.04198804,0.040353775,0.054818675,0.004489357,0.043126583,-0.015717244,-0.00010519591,0.008840949,-0.07245266,-0.0540999,0.04657671,0.06670245,-0.0876428,0.10503718,-0.049355976,-0.029709423,-0.08510312,-0.04257552,-0.09540558,0.12842138,0.0941597,0.079448745,-0.08299471,0.09645978,-0.015729222,0.05405198,-0.12305451,-0.008972725,0.0668462,-0.026930153,0.04406099,-0.14011347,0.04650483,0.02428266,0.013896343,-0.024186824,0.04190466,-0.021443494,0.0076130396,-0.035938818,0.07067967,-0.007924509,0.051176876,-0.03553151,0.037927434,-0.14576784,0.056112476,0.012237167,-0.0060227467,-0.055441618,0.013692689,-0.05017059,-0.1100207,0.03428563,-0.05160814,0.0764778,0.031146975,0.06560032,0.0058789914,-0.054770757,0.03155428,-0.03708886,-0.053668633,-0.005351889,0.083378054,0.021551311,-0.10474967,0.019958023,-0.031410526,0.055297863,-0.031123016,0.054147817,0.024965499,0.06296481,0.02037731,0.015477651,-0.03778368,-0.082275935,0.034237713,0.040203556,-0.061000153,-0.024749866,0.009332113,0.040778577,-0.07940083,0.06430653,0.18295254,-0.07082343,0.10292877,0.049044505,0.02309668,-0.06670245,-0.026331173,-0.019850207,0.023144599,-0.0075291824,0.011602248,-0.055058267,-0.015884958,0.037064902,-0.061862685,-0.08534271,-0.03704094,0.0613835,-0.034261674,0.069481716,0.02401911,0.014327609,0.02640305,0.09607644,-0.015321916,0.066223264,0.07345894,-0.03399812,0.035962775,-0.0022087398,-0.08553439,0.09487848,0.02640305,0.032057427,0.032752242,0.038143065,0.014830752,-0.019227268,-0.06603159,-0.01911945,-0.046289198,-0.049787242,-0.070871346,0.029757341,0.013399433,0.10727974,0.06821913,-0.13761808,-0.18320987,0.05246005,-0.032002736,-0.051027402,0.02479738,-0.017339204,0.03404636,-0.01045514,0.0060307984,-0.1774793,-0.048414934,0.023996785,-0.065690935,0.017918583,0.06514316,-0.02467097,-0.008390447,0.084652394,-0.03326683,0.009306918,0.033372175,-0.08317762,0.014895283,0.0816607,0.13037059,-0.09227912,-0.10003225,0.09750406,-0.087307,-0.06649153,-0.028758219,0.07622508,0.07635149,0.056420885,0.09522868,-0.028294716,0.083093345,0.053007822,0.004448043,0.03697485,-0.13778663,-0.041989107,-0.06585948,0.11865662,-0.020594256,-0.053134233,0.01849796,-0.10331891,-0.005193334,0.032719057,-0.020151822,-0.018171402,-0.12640975,-8.6577515e-05,0.031160004,-0.033540722,-0.16138312,-0.07420252,-0.003997708,-0.010039041,-0.0029047907,0.010381401,-0.05427192,0.04626597,0.011650765,-0.12101627,0.10862812,-0.06472179,-0.04108317,0.024481356,0.080944374,0.014663531,-0.026103614,-0.14621395,0.026251093,-0.13728099,0.061603684,0.067292124,0.056800116,-0.13761808,0.05549388,0.043147862,-0.013978812,0.0037422553,-0.010871239,0.16972616,0.17250718,-0.18253568,-0.0319606,0.010286594,0.073106974,-0.052965686,-0.034004223,0.09632423,-0.0017697365,0.042220857,-0.16180448,0.004611322,0.015864424,-0.11444296,-0.02502913,0.06421615,-0.19652502,0.10129635,0.0609295,-0.04182056,0.044538368,-0.21371676,0.044454098,-0.04689802,0.0038370627,-0.061477277,-0.09126784,0.09067793,0.017497217,0.0643847,-0.15337716,-0.01714959,0.016812498,-0.10727974,0.014642463,0.27742726,-0.1906259,-0.24405509,0.09812374,-0.14425129,-0.06619831,0.06021229,0.028668327,-0.04700784,0.028624313,-0.08996632,0.070541106,-0.06414428,-0.043662716,0.0052707763,-0.040112186,0.0060226964,-0.06567013,-0.02576335,-0.05328729,0.01803141,0.11960297,-0.03662034,0.08544746,-0.043339938,-0.031191844,-0.012778973,0.01766462,-0.035446614,-0.033862077,0.05727797,0.0018577927,-0.11267798,-0.037588667,0.13615255,0.18462755,-0.0012791811,-0.051233266,0.058451697,-0.0252205,0.01811944,-0.036092162,-0.050441,-0.002226417,-0.051614728,-0.066550426,0.006708594,0.088675216,-0.02822818,-0.06314661,-0.05727797,0.03964269,-0.0426357,-0.16303094,0.041139197,-0.09295933,-0.025147142,-0.030986443,0.10252522,-0.095776275,-0.039760064,-0.09254852,0.024648307,-0.03996547,0.105342165,-0.0023236163,-0.03714852,0.09237246,0.08756018,-0.0848606,0.032453604,-0.03060498,0.011795975,0.04618623,-0.044572353,-0.00393566,-0.12746696,-0.021669969,-0.05082246,0.03641494,-0.10939153,-0.13615255,-0.04017087,-0.021200478,-0.02458962,-0.16514365,-0.15223263,-0.13110551,-0.075059965,-0.023459906,0.016652279,0.021992745,-0.11197373,0.075646825,0.016960382,-0.032013457,-0.12852332,0.028154822,-0.0069616796,0.038292903,-0.122889414,0.036590997,0.010101404,0.048210915,0.039554663,0.06502458,0.088675216,0.026687661,0.061151274,-0.06567013,-0.021449896,-0.021273836,-0.026893063,-0.057894178,0.021376537,0.08345212,0.092196405,0.114908054,-0.035828073,0.099649586,0.010306807,0.09982564,0.05463708,0.094191745,-0.0710106,0.038645025,-0.048386972,0.14061272,-0.087208055,-0.052436337,0.18932247};

#endif
