#pragma once

#include "parameters.h"

#ifndef KERNEL21_H
#define KERNEL21_H

static float bias21[FEATURE_MAP21] = {-0.99432653,-0.032130267,-1.1155189,0.97714365,-0.8862074,0.017095145,0.02240313,-0.13882676,-1.0229306,-0.17655592,-0.36490253,0.21892029,-1.0653286,0.19504584,-0.04383894,-0.25345415,-0.30821168,0.012152906,0.12439424,-0.24421158,0.066776976,-1.2701749,-0.10947018,-0.26433676,0.15645589,-0.43316844,0.008893245,-0.3792329,0.69185233,-0.80063236,-0.0034216628,-0.33199772};

static float kernel21[FEATURE_MAP21][IN_CHANNEL21][KERNEL21][KERNEL21] = {-0.00046583492,0.14724603,0.03542008,0.15927781,0.03161411,0.07620126,0.030938856,0.06625663,-0.009514926,0.003468344,-0.09158884,-0.13513242,-0.082380846,0.080007225,0.06036351,0.07448243,0.15182957,0.17515649,0.29629275,0.19676457,-0.11843525,0.043420803,-0.09240732,0.06854839,-0.09903708,0.016636318,-0.21026781,-0.17417833,0.090477854,0.037699103,-0.04443411,-0.2646562,-0.1755338,0.45340586,0.16833286,-0.051423274,-0.20044063,0.23636068,0.29837358,-0.14486623,-0.0931888,-0.10581164,0.031154709,0.060318567,-0.017557617,-0.053032897,-0.11496109,-0.008768219,-0.037932076,-0.036830753,-0.012188355,-0.17441453,-0.17823832,-0.032163076,-0.042493496,0.07098696,-0.076969355,-0.20611504,-0.051590435,-0.1231633,-0.022002257,-0.042740192,-0.029541923,-0.020707099,-0.1572691,-0.06105742,-0.016544094,-0.023436181,-0.13210605,-0.042555172,-0.013868976,0.060163144,-0.04795166,0.0070809643,-0.03419832,-0.013335419,0.03738138,0.11512516,-0.12683816,-0.030337747,0.044767965,0.13454132,-0.0308126,0.03170954,0.15195255,-0.086053684,-0.37967032,-0.43306476,-0.20376414,0.05326253,0.046113376,0.12346145,0.82054377,0.3039051,-0.20218131,0.020985808,-0.13253638,0.41428173,0.081357926,0.018769832,-0.047379658,-0.004925472,0.1560053,-0.11400387,0.023836175,-8.0319034e-05,-0.12607744,0.10441817,0.04474542,-0.18498188,-0.07946611,-0.42381924,-0.049684614,0.08210035,0.088173725,-0.06538027,-0.14854163,-0.052574955,-0.05663607,0.001414301,-0.08912498,-0.025299639,0.1404194,0.008419493,-0.063989975,-0.054895286,0.06528224,-0.048597883,-0.009565278,0.010010612,-0.13738875,0.043755658,-0.10346808,-0.00705008,-0.05108172,-0.017386852,-0.25811824,0.02719675,0.47288224,0.05374118,0.05173404,-0.22821185,-0.5632036,0.14411268,0.1251452,-0.12002699,-0.0031314525,-0.29023248,0.027999608,0.077826865,0.04014574,-0.017987553,0.28306514,0.09164638,-0.06371657,-0.042190697,0.0763092,0.683231,0.30372998,-0.21708837,0.0645776,-0.29339758,0.15573965,-0.2682123,-0.17877233,-0.08545769,0.034414478,-0.113764204,-0.35087162,-0.06177924,-0.044128027,0.12097537,-0.16908568,-0.15713882,0.06371657,0.07403666,0.104836755,-0.29000777,-0.019752812,0.12066017,-0.10182025,0.1660665,-0.6477546,-0.5728183,0.08102225,0.030879479,0.3488561,0.1435221,-0.39754352,-0.03659496,0.16670156,-0.22734916,0.07578306,0.32726425,0.118437484,-0.00679375,-0.04326302,-0.03273172,-0.004458605,0.011371427,0.05067789,0.0055995444,-0.22527088,-0.104175694,0.044272657,-0.11319943,-0.2143135,-0.335167,-0.24863589,-0.052208703,0.08081069,0.06352864,0.35611492,0.14164028,0.12995778,0.024976386,-0.07855476,-0.27909097,-0.03057593,-0.021552203,0.029266683,-0.047414847,-0.20335612,0.023969272,0.0068533993,-0.07525905,-0.106399246,0.030112186,-0.08344031,-0.04827373,0.028163247,-0.09277809,0.171421,-0.36939898,-0.037351105,-0.073417194,-0.15625784,0.17005032,-0.35123745,-0.045746535,0.004941954,0.011715054,0.3820778,0.14460702,0.07286035,-0.028720086,-0.04223416,0.29898018,-0.05002992,-0.13441257,-0.017699983,0.09136067,-0.053635385,-0.12936133,0.027444918,-0.060152404,0.2332665,-0.13927454,-0.26900303,0.10727077,0.2366933,0.11014683,-0.56248313,0.40485078,0.2699821,0.087995075,-0.3820871,-0.19532704,0.5546505,0.18210942,-0.052870475,-0.060917314,0.51548713,0.16546501,-0.10580215,0.02139413,0.11197836,-0.053586558,-0.10333972,-0.022743916,0.032637857,0.06290009,-0.3567758,0.21207859,0.022554947,-0.05782489,-0.26326254,-0.3662783,0.7571767,0.2012803,0.05960661,-0.02557847,-0.123856485,0.23777854,-0.08287694,0.049213246,0.03217893,0.005635362,0.07391436,-0.107065134,-0.04207814,-0.048516765,0.02570106,0.0664701,0.035399072,0.1061705,-0.2395916,0.048650347,-0.11477314,-0.101201266,0.01623014,-0.6749601,0.6270845,-0.20475356,-0.25198793,0.12022326,-0.17322835,-0.13625303,-0.15206906,-0.19075423,0.15602307,-0.008014884,0.046406176,-0.012863888,0.12342921,-0.09237131,0.064297676,-0.15017228,-0.086780205,-0.09000887,-0.059848417,0.036204353,-0.04665814,-0.14489616,-0.11709815,-0.09685993,0.011831874,-0.18537259,-0.1382026,-0.02671523,-0.024746532,-0.11906685,-0.10819963,0.006860912,-0.067880705,0.03075106,-0.04358697,-0.31467667,-0.006841225,0.010178168,-0.0073509417,-0.03630465,-0.16395946,0.071963064,-0.09356583,-0.048144627,-0.3940197,-0.31388637,-0.03258879,-0.08654955,0.079717904,-0.012890113,0.08451852,0.081148855,-0.19885625,0.0770868,0.25572506,0.3679856,0.31000894,-0.08714963,0.13977174,0.017909987,-0.023160659,0.200518,-0.016998332,-0.053795896,0.10405365,-0.14056088,-0.07944745,-0.1134619,-0.10019385,0.08644333,-0.21711348,-0.19668873,-0.07828147,-0.20312172,0.2444537,0.13428871,-0.07184848,-0.26375267,0.060872186,0.263431,0.2023176,0.09721859,0.06364641,0.055243317,0.050096925,-0.2724372,-0.08459385,0.07088353,0.113042414,-0.23123188,-0.00089772046,0.12861228,-0.21205907,0.14334576,-0.1865811,0.013060677,0.29878712,-0.15286782,0.27639738,-0.045776706,-0.4287505,0.40533134,0.400699,0.13176486,0.58058894,-0.30058858,0.11400749,0.0685203,0.08827216,0.21115834,-0.2591547,-0.028164094,0.0140177095,-0.069457926,0.040590987,-0.10249476,-0.020567443,0.12747383,0.15583716,-0.04141691,-0.19386981,-0.11861029,-0.098385304,0.045566656,-0.21901004,0.16566764,0.38935116,-0.030538928,-0.06861186,-0.08363959,-0.22481163,-0.14350878,-0.22384469,-0.10531498,-0.005489352,-0.09951339,-0.12102762,0.009231176,0.16568732,-0.1132357,-0.019108523,-0.14485623,0.15820949,0.003481864,-0.60249937,-0.049647443,-0.3969659,-0.0087998025,0.08198905,-0.0013470107,0.48669982,0.01056911,-0.006616543,0.04919343,0.060784064,0.17765185,-0.14368114,-0.03250185,0.044012364,-0.1344941,0.00078366976,-0.24890487,-0.02171241,0.05428425,-0.07264038,-0.04373393,0.045017075,-0.061804917,0.023898615,-0.13109486,-0.17778715,-0.018516526,-0.042379495,0.14927277,-0.09502417,-0.15483308,0.39634988,0.20159666,0.009445388,-0.0046335864,0.13116615,0.19019091,-0.013223543,0.056743614,0.062482134,0.11284565,0.11583967,-0.036052868,0.09361944,0.02638541,0.12790263,-0.09037793,0.047002017,0.02832208,0.006421228,0.036288522,-0.1499889,0.10153095,-0.10971715,-0.21273151,0.01557577,-0.6359969,-0.20954493,0.07664268,-0.010789037,0.64346886,-0.17471235,-0.008653206,0.0062495377,-0.04285397,0.2091054,0.015713124,-0.01808932,-0.020363182,-0.06990227,-0.052436695,-0.106711864,-0.0064396816,0.0053605726,-0.12685522,0.0409262,-0.114705265,0.1300526,-0.03812851,-0.052156925,0.087607644,-0.19903561,-0.031593908,0.091604345,-0.039007783,-0.16098705,-0.309984,0.06066989,-0.058911346,-0.059311017,-0.04288458,-0.21134545,-0.029235855,0.048928034,-0.10197223,-0.11633999,-0.15051195,-0.01571716,-0.11051522,0.1060884,-0.11043756,0.029084997,0.027881213,0.038132798,0.41720855,0.10663205,-0.095293164,0.06007275,0.01647438,0.25970688,-0.13645485,-0.12496064,-0.030599436,-0.09280793,-0.10228288,-0.14554147,-0.21885586,-0.04236546,-0.015176847,-0.008678197,-0.023135193,-0.0104678245,0.041111458,0.021075621,0.039911706,-0.1737239,-0.10989717,-0.09749974,-0.024854835,0.17964268,0.015126857,-0.072344966,-0.10669783,0.078943595,0.30521658,0.33657005,0.19307987,0.038472004,0.050989404,0.17148437,0.0375322,-0.06106731,0.016826503,-0.003334695,0.020404184,-0.08277335,-0.026375834,0.005013043,0.08553917,-0.27798972,-0.25767353,-0.27195522,0.05913819,-0.1781186,-0.29850706,0.3962661,-0.21482854,-0.11877926,0.10399471,0.022679698,-0.21764463,-0.17962722,0.227501,-0.07382216,0.021422507,0.009391205,0.14160982,-0.06190401,-0.099002905,-0.01214958,0.18355568,-0.10212726,-0.03414819,-0.004546176,-0.017232755,0.25307253,-0.4604514,0.04913532,-0.11696793,-0.0086774,0.077767074,-0.58620656,0.09929582,0.04693851,-0.13844785,0.31712174,-0.24467582,0.060680777,-0.13483532,0.038541812,0.4862273,-0.15475306,-0.032854516,0.07640197,-0.07441516,0.17748858,-0.11053902,0.09097193,0.15172023,0.23853791,0.17231083,-0.1785723,-0.0049896087,0.05523941,0.2160207,0.29886475,-0.00097553246,-0.21048172,-0.24877301,-0.13389912,-0.011326336,-0.2600918,-0.121014945,-0.113007486,-0.27670878,0.4498625,-0.063879035,-0.19615258,0.011124053,-0.094273485,-0.12761837,0.015570401,0.006028484,0.058964577,0.17623904,0.25436383,0.010120216,-0.09532097,-0.05883364,-0.13599823,0.290502,0.054381836,-0.21962231,-0.10125671,-0.23358876,-0.46403506,-0.009170934,0.09453536,-0.10029652,-0.11819102,-0.13582365,0.07685908,0.0020035845,-0.112546764,-0.028971681,0.13582532,-0.027428214,-0.024923237,0.03623358,0.12519816,0.28845167,0.15050094,-0.03633479,0.043014724,0.25424233,0.2131506,0.28986865,-0.016864302,-0.05399613,0.022810455,-0.4862182,0.16608745,0.09989537,-0.0055855885,0.11841701,-0.118113376,0.22590321,0.041547164,0.104373395,-0.104484074,0.3791975,0.09070413,-0.05871695,-0.18251508,-0.4442787,-0.3455501,0.15816498,0.12374279,-0.10935409,-0.34400052,0.31987178,-0.11035024,-0.08323307,0.21162452,-0.15528724,-0.32252818,-0.013143521,-0.12861282,0.009179711,-0.12518166,-0.082015574,0.057665467,0.031876497,0.080071,-0.05435789,-0.083002664,0.11317435,0.015574452,-0.13778809,-0.3156422,-0.32077262,0.073474765,0.070665255,0.44512394,0.20020805,-0.42435798,0.09674483,0.039882813,0.34618035,0.6723277,-0.14023113,0.009703494,0.20436123,0.12233579,0.16588318,0.009237788,0.027346903,0.14487293,0.03472569,0.08082476,-0.01434837,-0.107415326,0.03451507,0.063975304,-0.11499758,-0.3928031,-0.122579835,0.14669563,-0.026432594,-0.11910464,0.18418568,-0.43977097,0.114155106,-0.1382709,0.014703789,0.58130646,-0.52106965,-0.029117977,0.0030770015,-0.029407578,0.3477308,-0.11362856,-0.091566294};

#endif
