#pragma once

#include "parameters.h"

#ifndef KERNEL66_H
#define KERNEL66_H

static float bias66[FEATURE_MAP66] = {1.4509292,-0.6723925,-0.60551196,-1.9084389,-1.6184921,-0.60653687,1.0948925,0.20538825,-0.7748059,0.7208744,-2.4580507,-1.8910613,-0.07636005,1.2503948,-1.1238425,-1.0978317,1.7970494,0.013231933,0.46817806,-0.023769438,-1.3176323,3.8853755,0.48713708,-0.46798095,2.3497338,-1.0043645,-1.0920714,2.0256026,1.2388358,0.80742604,-0.21988896,-2.6067512};

static float kernel66[FEATURE_MAP66][IN_CHANNEL66][KERNEL66][KERNEL66] = {-0.114917144,-0.09731801,0.20875017,0.16771457,0.25753987,-0.027509544,-0.10237122,-0.13356178,-0.16849868,0.08085149,0.22756906,0.13059954,-0.12023174,0.01955944,0.4432892,0.05427853,0.14872143,0.95348996,-0.11822788,0.1265047,-0.3410051,-0.8203638,-0.48685142,-0.078760505,-0.48266944,0.06486415,-0.49939734,-0.022565233,0.008766898,-0.04469484,0.09235191,-0.77784705,-0.54275864,0.106483735,0.16241641,0.5843605,0.054481458,0.19132002,-0.08955276,-0.6095151,-0.037580717,0.3869937,-0.18454762,0.0842316,0.13012664,0.053755846,0.13085225,-0.15068567,0.106544204,-0.46922988,-0.25710896,-0.28613347,-0.030778093,-0.1943434,0.120996,0.08695265,0.048011407,0.34539187,-0.025169708,0.11966571,0.14609012,0.06343069,-0.23981516,-0.17898458,-0.01926149,-0.1271548,0.09000764,0.021343324,0.21361427,-0.4729927,0.09341098,-0.0054263454,0.037979893,-0.2224485,0.10999325,-0.094714396,0.049819194,-0.051810514,0.107169196,0.07385985,-0.1321512,0.24084105,0.036604073,0.011196647,0.1526437,0.9761086,-0.06850139,0.06600319,-0.7820455,0.44084194,0.27458486,-0.035735134,0.16727084,-0.41738057,-0.015324108,-0.26777816,-0.35729337,0.3458473,-0.05956357,0.13814522,-0.017818445,0.010824237,0.39163157,0.012326534,0.043098845,-0.31643972,0.016299639,0.11586942,0.16121346,-0.24653067,-0.21906011,-0.20039421,-0.26008984,0.034690388,-0.060620133,0.055381354,0.2798123,0.0029743265,-0.28157324,0.07422334,0.08117903,0.073342875,-0.11278778,0.024454962,0.086021595,-0.1900047,-0.0535764,-0.05758252,-0.08844699,0.05544998,-0.097318985,0.75070745,0.16147035,-0.14754814,0.02748613,-0.067734286,0.0025059127,0.48290962,0.18767686,0.29728016,-0.062684074,0.061830997,0.018750625,0.25155523,0.23312879,0.24131833,0.17607503,-0.38736504,0.047055706,-0.026513623,-0.09281474,0.42121512,0.33986574,0.25469455,0.079984464,0.17348167,0.11478999,0.494102,-0.059817735,0.1112412,0.24061817,-0.22176926,-0.349883,0.30393875,-0.10609877,-0.45885327,0.53866667,0.5410228,0.043588117,-0.0677751,-0.15933223,-0.7451212,0.69151956,0.65205467,-0.122297056,-0.16154109,-0.062657915,0.06368872,0.20439292,0.11913103,-0.008158966,0.18996172,-0.12273883,-0.42380607,0.042557314,-0.13753818,0.1731744,-0.0296355,-0.20247857,-0.10536249,0.024058137,-0.015323947,0.0033802555,-0.15584023,0.13137694,-0.040458523,0.19528817,0.17117335,0.11193176,0.16866429,0.16922186,0.30052912,-0.4429877,0.35879496,-0.059729464,0.32422575,-0.025351917,0.1459434,-0.023034524,-0.05544316,0.007305011,-0.07436562,-0.36910996,0.16253105,-0.1547251,-0.00011135024,0.3423467,0.34318307,-0.039587323,-0.10217432,-0.49177492,0.5469741,0.1043349,0.45386028,0.44270346,0.35054302,-0.19658509,0.08775482,0.20801584,0.18217759,-0.057540733,0.02914246,0.47842455,0.029603858,0.06971567,-0.11240238,0.16777007,-0.18944088,-0.33601645,0.1637217,0.123475924,-0.14014576,-0.8673082,0.2683845,0.26695564,-0.8158698,0.16241191,0.76157373,-0.6644124,0.1403839,0.13062014,-0.033994578,-0.14776626,-0.1612212,0.020480094,0.28815016,-0.20717958,0.0424649,-0.11219027,0.40790877,-0.04795539,0.46166182,0.19596823,-0.08201178,0.102975465,0.2704546,-0.5320015,0.26676866,0.17569564,0.23313461,0.023881707,0.068688706,0.09698584,-0.0036259305,-0.030332072,0.07993845,0.1158762,0.06039538,-0.07168352,0.03311571,0.39162928,-0.53630173,0.5470524,-0.08308684,-0.23113807,0.44845393,0.0064839604,0.38579324,0.45864394,-0.35842898,0.029903974,0.35061276,0.235882,0.10796138,-0.02285543,0.09365492,-0.5007956,-0.33888847,0.6833599,0.025367783,-0.1111716,-0.29282865,0.13022362,-0.5055412,0.46925163,0.48600066,0.07474249,-0.056458145,0.16986296,0.14962456,-0.28836226,0.1252687,-0.17851661,-0.16246547,-0.0141756,0.11389332,-0.10321582,-0.03027036,-0.049723648,0.116824396,-0.1068576,0.101889655,0.09410968,0.44055325,0.48479605,0.055819035,0.3155111,0.22065157,-0.18981284,0.14856955,0.29545188,1.2380484,0.4090584,-0.15231894,-0.047312606,-0.35900405,0.164317,0.19365597,0.15672448,0.028331324,0.13047875,0.23902358,0.4398034,-0.015618551,-0.11454385,-0.05628771,0.30126345,0.60815096,-0.31232414,0.20471667,-0.119886726,0.21765205,-0.34994325,0.12625527,-0.049303778,0.5852229,-0.07225216,0.16447647,0.08693756,0.3762595,0.08599769,-0.33145922,-0.013050424,0.19094934,-0.22964047,-0.23496638,0.0053650658,0.084274605,0.17387512,0.28101978,0.08020186,-0.28587577,-0.22807403,0.40978137,0.0188071,-0.59242857,0.113645405,-0.20504732,0.30279332,-0.05153596,0.12617694,0.09116695,-0.028470093,0.16541633,0.26176953,0.14466211,0.035079814,-0.020179316,0.09022663,0.15327296,0.11194093,0.26102078,0.031991143,0.41302082,-0.14024438,0.28348383,0.043952726,0.012251728,-0.2541321,-0.08670742,0.5726583,0.25757644,0.00036999705,-0.094868995,0.11471137,-0.06585421,-0.13320595,-0.499878,0.56846523,0.53791547,-0.32855973,-0.0660414,-0.39025825,0.5759529,0.029145822,-0.05005519,0.587013,0.0878793,3.9790633e-05,-0.14813446,0.23169748,0.16781665,-0.061751463,-0.2569045,0.08983601,0.20349784,0.19014616,0.03030023,0.032832444,-0.093806975,-0.38075274,-0.21949682,0.40952787,0.18784416,-0.16079552,0.35681182,-0.11958951,0.018358544,-0.033407945,-0.6510089,-0.034789152,0.2137418,0.1769096,-0.03640056,-0.15365928,0.015955819,0.07423988,0.031393684,-0.1516941,0.08152888,-0.14847797,0.30874842,-0.16552345,0.03883476,0.074989416,-0.22748755,0.033956964,-0.19768475,-0.10790113,-0.15448141,0.100718446,-0.052905325,0.044677395,-0.08581705,-0.14976442,-0.04931398,-0.00093636266,0.019685391,-0.056711078,0.22041206,-0.06893237,0.04001401,-0.25686154,-0.77187103,-0.34198174,-0.0026918333,0.20744033,-0.22384259,-0.05676468,-0.12060485,-0.35261604,0.12140032,-0.10728119,0.45736304,-0.22614731,0.14082919,-0.02632251,-0.24545552,0.22868152,-0.014933688,-0.6439285,-0.29396737,0.15169007,0.06775972,0.054243978,-0.20961466,-0.01517504,0.08586116,0.0094655445,-0.004529131,0.116874956,0.13479538,0.031134475,0.13201983,0.20901129,0.347789,-0.418988,-0.03623305,0.31858534,-0.11204791,-0.048783377,-0.13805364,0.08319598,-0.082030766,0.24282971,-0.49684545,0.18025795,0.095780246,-0.076437764,0.17035367,0.05354139,0.19074483,-0.19295874,0.15975025,-0.04174364,0.085351616,0.039558873,0.05933831,0.16394502,-0.036558457,-0.016225547,-0.08972115,-0.041248426,-0.27755296,0.041452337,-0.0864003,0.32789004,0.7494629,0.3083145,-0.04436536,-0.33091956,0.11285056,0.09158549,0.22814807,-0.14803351,0.03472435,0.23782434,-0.052140057,-0.036455214,0.08850605,-0.01820084,0.006927918,0.15788338,0.36030528,-0.12005418,-0.0040282747,-0.08379525,-0.1350431,0.031012807,-0.10556488,0.017442472,0.36772838,0.028621715,0.029281942,0.14610636,-0.42511454,0.0009178488,0.1303323,0.26880145,1.4686295,0.2441054,-0.0054067206,0.19685459,0.04350358,-0.0084223505,-0.21170077,0.23186342,-0.11616735,0.10870562,0.0022360643,0.10281478,-0.0430424,-0.08789132,0.08773423,-0.105171114,0.075167105,-0.030220006,0.05105394,-0.028118938,0.040254068,0.0069953715,0.06110764,-0.055020437,-0.004388675,-0.28747296,-0.16321552,0.1254356,0.5177655,-0.17656809,0.8677599,0.33899817,0.014373648,-0.2510283,-0.10053699,-0.33585638,-0.2997259,0.037092652,-0.21002805,0.15950248,-0.5076736,-0.5173957,0.6209963,0.08742255,0.19823879,-0.094106466,-0.12129784,-0.12061425,0.066459365,-0.054990377,-0.09987894,0.1941373,-0.19079535,0.2366713,-0.20932801,0.06273764,-0.22922786,0.17119932,0.03681849,0.16162919,-0.09668888,-0.115297504,0.83366627,-0.42108655,-0.08658706,-0.2770786,0.03292587,0.44478405,-0.2067456,0.061636314,-0.38098305,-0.2551123,-0.05272214,0.010203426,0.34228098,0.008858065,0.35080603,0.2583092,0.053175036,0.25809607,0.20172413,-0.20161757,0.08493087,0.08876714,0.2038554,-0.090152465,0.10954697,-0.12510519,0.34910104,0.1890431,-0.023870155,-0.15622164,0.62701786,-0.21493797,0.1844609,-0.13661401,-0.047980078,0.11412918,-0.05434723,-0.016610539,0.44884416,-0.021845454,0.2096098,-0.11779632,-0.436097,0.22702943,-0.2610734,-0.010469044,-0.060307957,-0.20791885,6.322871e-05,-0.4482108,-0.015063935,0.044617444,-0.07868753,-0.51295704,-0.15184028,-0.64119625,0.13878661,-0.22097252,-0.32644618,-0.31057292,0.08563208,0.28342128,-0.54428583,-0.9072823,0.4108251,-0.22598514,-0.0036093397,0.08223812,0.18995701,-0.15100485,0.042241678,-0.25480765,-0.07257841,0.18866682,-0.2700065,0.36494973,-0.11107982,-0.3733933,0.043507826,0.04744816,0.37207985,0.059245694,-0.2844544,-0.13941267,0.14569844,0.2673796,0.07425648,0.09006472,-0.23810859,-0.06815835,-0.10404351,0.19438969,0.13247019,0.19532785,-0.025823243,-0.09447414,0.24148601,-0.22816394,-0.09991554,-0.19908056,-0.04278074,-0.16821462,-0.101416625,0.09813301,-0.0689558,0.04840908,-0.14908642,-0.47555995,0.13473296,0.19133434,0.07562649,-0.036425292,-0.061645407,-0.071225666,0.01697703,0.025186261,-0.18903238,-0.03287078,-0.06438746,0.09174028,-0.06195008,0.24251933,0.06340574,-0.18361597,-0.13574854,0.45958158,-0.32525486,-0.026083354,0.8969559,-0.33662927,-0.053486954,-0.10020341,-0.010595833,0.44576976,-0.15220085,-0.08747487,-0.0615777,-0.016481485,-0.25169623,0.22213924,-0.5378756,0.20551343,-0.5147842,-0.10083243,0.05641998,-0.10529677,-0.49292436,-0.3793147,-0.117304295,-0.1312361,0.21921432,0.18919551,-0.13647015,0.036907747,0.0067782872,-0.05730515,-0.08513028,-0.030345945,-0.30803922,-0.20766863,-0.19766235,-0.38331717,0.5169394,-0.15278807,-0.04256514,-0.022687297,-0.8035806,0.045913395,0.06538714,-0.09120294,-0.1980505,0.18962647,0.3778776,0.16908216,0.119913384,0.13117407,-0.2530645,-0.0029467961,0.5515156,-0.19168949,0.112434916,0.023789268,0.19942585,-0.18120244,0.09146082,-0.1944402,-0.04878197,-0.20527108,-0.15919684,-0.25478372,1.0390774,-0.21507046,0.48446727,0.015698338,0.29363737,-0.28435373,0.18240587,-0.351574,0.54670185,0.11252087,-0.05587362,0.13791643,0.09616876,0.110053584,0.4976174,-0.17845267,0.30677086,-0.06797975,-0.10586018,0.14816697,0.5479382,0.3015524,0.23259419,0.25458628,-0.97286993,0.02930724,-0.12524302,-0.21712519,0.13726412,0.013453841,0.009604062,0.3207489,-0.38691148,0.15086938,0.0655569,0.3248491,1.087676,-0.37311986,-0.032429,0.3811339,0.04750196,0.018695597,-0.39138445,-0.08647211,0.6470351,-0.33900508,-1.7208381,-1.1021967,-0.38331667,-0.53991294,-0.10765993,0.02391696,-0.30523366,0.8423502,-0.080072746,0.47193983,-0.081793584,-0.76319164,0.642733,-0.5954099,-0.05305021,-0.33706915,-0.14100116,-0.3990193,0.34137124,-0.05512059,-0.8186887,0.40396672,-0.44569704,0.14153893,0.04401581,0.1833768,-0.15390745,-0.3351332,0.12744957,0.13547051,-0.47348917,0.18365641,-0.12973125,0.091290146,0.011755026,-0.22610304,0.2733324,-0.23208143,0.11400806,-0.0660613,0.46201065,-0.38357407,0.0500392,0.29126757,0.14945997,-0.04588421,-0.27787596,-0.010208116,-0.19656974,-0.09924142,-0.029563181,-0.26854968,0.26950622,-0.22227687,0.14431854,-0.2907893,-0.015543836,-0.025961196,0.038351428,0.17887369,-0.4132269,0.017842384,-0.2977195,0.054220058,-0.24413462,-0.2517566,0.033923626,-0.096487455,0.05176601,0.14562619,0.03966899,-0.1711483,0.19955753,-0.25452825,0.037936717,0.12610927,0.17207217,-0.0124723455,-0.8966231,0.08753739,-0.044317245,0.021018213,0.19124264,0.34206563,0.52568626,-0.1251854,0.11288628,-0.0769128,0.030747797,0.021335796,0.116466306,0.14239262,0.40835384,0.46452808,-0.15498224,-0.24013457,0.6028483,-0.6306463,-0.48227862,0.39151645,-0.2471678,0.04529735,0.070499755,0.49165624,0.6061974,-0.335753,-0.49065152,0.56600755,0.13522221,0.22271894,0.138069,0.1400785,0.038808357,-0.3036011,0.33826485,0.0063790977,-0.39386088,0.06451314,0.5532808,-0.06551789,0.3129787,0.27362612,0.015563115,0.30912718,0.11554592,-0.88790005,0.7292308,0.88790005,-0.16789794,0.21792732,0.06371055,-0.12313056,-0.44718817,0.41869247,0.0068405867,0.072089255,-0.057031874,0.06634155,-0.41124472,-0.20319375,0.767441,0.059339054,0.09803492,0.30066198,0.079537,-0.29175708,0.2176035,-0.12143053,0.023031324,-0.40250173,-0.07856555,-0.42937836,0.014510948,0.17307898,-0.13810699,-0.1933174,-0.100382574};

#endif
