#pragma once

#include "parameters.h"

#ifndef KERNEL85_H
#define KERNEL85_H

static float bias85[FEATURE_MAP85] = {-0.0005179049,0.0879163,0.066507496,0.32605585,-0.038619414,-0.13634741,0.031663775,-0.41883308,-0.038761508,-0.009962594,-0.11719314,-0.049551975,-0.12001052,-0.33276245,0.015629144,-0.7043478,0.48810467,-0.07184493,0.023091821,-0.3233379,-0.052382678,-0.039843187,-0.09922588,-0.45592967,0.016877886,0.33574596,-0.0023941738,-0.12161556,0.12218503,0.26129502,0.8909512,-0.5862716,0.7650164,-0.02231604,-0.24025422,-0.15147862,0.046689965,0.023501048,0.09744759,0.1935735,-0.17333554,0.06800707,-0.18548879,-0.047478642,-0.013666971,0.09293134,0.24999122,0.026215645,0.054425087,-0.44889063,-0.31733084,-0.47352755,-0.15411507,0.6983398,0.20274927,0.072188094,0.21153964,0.015903616,0.1816908,0.05843579,0.0063291215,0.09428832,-0.23498654,0.10935895,-0.11490432,-0.75856286,-0.29463357,0.343489,-0.12554623,-0.33410895,-0.021649675,-0.035071284,-0.35393757,-0.018226368,0.08622918,0.0039107786,0.19700375,-0.2814088,0.06471175,0.79629564,0.07914682,0.3152694,-0.114488736,-0.018531073,-0.30596802,-0.42594242,-0.08214858,0.40206575,0.10156708,-0.05826058,0.013562612,0.098565705,-0.058754772,-0.36343986,0.020684939,-0.101389945,-0.014024584,-0.18022221,-0.037622638,-0.10356398,-0.05053122,-0.55789256,0.13763846,-0.01528194,0.08355723,-0.18462017,0.21904387,0.40208045,-0.047878064,-0.020847498,-0.016613813,0.08762412,0.5719767,-0.45781627,-0.5809345,0.31237513,0.19306543,0.073835716,-0.23361677,0.16750818,-0.25659427,-0.5492321,-0.21427216,0.14891896,0.047567427,0.09025186,0.111615494,-0.34699994};

static float kernel85[FEATURE_MAP85][IN_CHANNEL85][KERNEL85][KERNEL85] = {0.014555031,-0.20779213,0.016914327,-0.23195131,0.2861933,-0.117834054,0.2940915,0.35960004,0.5222099,-0.14867185,-0.24507625,-0.102444194,0.023418719,0.20175233,-0.007709448,0.18293606,0.04256893,0.15784769,0.2943238,0.098785475,-0.10377992,-0.19524795,-0.37005353,-0.26760933,-0.050147712,-0.08630384,0.18973888,0.21723518,0.032246973,0.11883873,-0.05153757,0.20730196,0.07817011,-0.10415484,0.09191827,0.075003,0.10415484,-0.05704403,-0.14971809,0.04156836,-0.1789419,-0.05542448,-0.26661336,0.07565082,-0.2421402,-0.20845364,-0.09854041,0.11487984,-0.30836168,-0.11380014,-0.13742062,0.097953096,-0.28527048,-0.052197345,0.05485578,0.060990628,0.32473803,-0.2815896,0.20040508,-0.040055454,0.2770907,0.4355743,-0.20091632,0.366864,0.34559652,-0.11298347,0.108995825,-0.11012055,0.1649252,0.090591274,-0.0996913,-0.11144976,-0.15684766,-0.17044656,-0.16431172,0.04671614,0.06920121,-0.077846035,0.0238478,0.021271387,-0.1346549,-0.023570996,-0.07205442,0.14436436,0.027552726,0.15552172,-0.35805768,0.31768677,0.3473262,-0.14530124,-0.05915106,-0.25789693,0.19827743,0.33574295,0.1704266,0.00027613944,0.011668388,0.122816175,0.27935994,-0.071969256,-0.124387324,-0.18723783,-0.14353979,-0.20023662,-0.26149687,0.002039703,0.03310196,0.052340858,-0.1645591,-0.16884594,-0.001627009,0.057319116,0.3172257,-0.10371372,0.021676168,0.12874329,0.07391331,0.09112979,0.09866632,0.07543445,0.11705822,0.060568813,-0.1866847,-8.696828e-05,0.0367838,0.03073378,0.12300422,-0.009268506,0.16073473,0.2135298,0.051378448,0.21767601,0.20993641,0.14117844,-0.049547207,-0.20468456,0.07919261,0.17759599,0.053520657,0.010685128,-0.11111842,-0.02503274,0.1681979,0.010849249,-0.18699406,0.10227317,-0.11761415,0.06716859,-0.08589564,-0.16128756,-0.25824052,0.41216844,0.11066495,-0.19819391,-0.1304576,-0.24406469,0.2915403,0.15085204,0.12303536,-0.16315557,0.26265374,0.17358683,0.12871905,-0.06596433,0.22253351,-0.3771301,0.32925332,0.2963547,0.22855154,-0.36883858,-0.24339603,0.28779575,-0.007296866,-0.32711357,-0.31614736,0.07810249,0.018797055,0.11365661,0.111966334,0.026709303,0.019919049,0.018491056,-0.058926582,0.013718936,0.082648754,0.045520928,0.0029907718,-0.28396666,0.09622926,-0.0366324,0.106662355,0.19269167,0.2974889,0.0458415,0.16879463,0.02207561,0.09832754,0.16226667,0.12612969,0.07443051,0.1918595,-0.093650796,0.16750318,-0.030302975,-0.10219687,0.43043756,-0.35010442,0.6774193,0.41192105,-0.25438833,0.38884664,-0.33870965,0.079977065,-0.15924196,-0.33101818,0.06455851,0.14599554,0.040309012,-0.26977128,0.08389402,0.32446617,-0.49681213,-0.16451204,0.10689722,-0.057401173,0.029360995,0.19875135,0.42468804,-0.079401076,0.14860766,-0.18863973,-0.5277934,-0.9349104,-0.4545256,-0.21151519,0.37131193,0.35440397,-0.07169304,0.48336858,0.35506704,-0.18565597,0.0044600945,0.1043486,-0.14404914,-0.02022324,0.109653056,0.109984584,-0.14065097,-0.15034819,0.105343185,0.10566275,0.26295432,-0.22495422,-0.011905097,0.08241373,0.1665912,-0.2493256,-0.434516,-0.18551108,0.038060233,0.10927035,0.07131033,0.59741944,0.079728074,0.14670928,-0.27193326,-0.33254102,-0.78950435,-0.3812838,-0.5057061,0.092194356,-0.0045095063,0.8606944,0.24243107,0.2552581,-0.23896013,-0.2634803,-0.07422922,0.056089874,-0.048288003,-0.08632212,-0.35375908,0.09991966,-0.0030058098,0.20730683,-0.3352575,-0.11669368,0.30828533,0.33013055,-0.1886938,0.15302812,-0.40547433,0.2886692,0.22057001,0.18401268,-0.30627912,0.14845844,0.28376517,-0.12092899,0.008944287,-0.1361829,-0.31554833,-0.24076885,0.04739544,0.0038805017,0.27320838,0.17831218,-0.0050983015,0.07546408,0.08926141,0.17346732,0.19400534,0.34145784,0.02135428,-0.097476624,-0.1157502,-0.21275288,-0.14545135,-0.38653615,-0.015245534,-0.22707683,-0.18421029,0.06361522,-0.20727606,-0.061245445,-0.0298245,-0.116339095,0.13826196,-0.024411036,-0.18802549,-0.13866544,-0.13200788,-0.0017253323,-0.24532081,0.09623193,0.020443402,0.15816736,-0.057127204,-0.050099783,-0.05534513,-0.12561932,0.10154453,-0.21626967,-0.170541,-0.06946722,-0.024965832,-0.23079525,0.08197535,-0.24841423,0.071551904,0.12652746,0.13195977,0.14791717,0.28813857,-0.168741,-0.22317724,-0.2136707,-0.5432306,-0.44228023,0.14757764,-0.0973854,0.118831694,-0.05225765,0.1208688,-0.08663396,-0.11917121,0.17179668,-0.31303662,-0.23449454,0.2750105,-0.035479747,0.20721984,0.34653583,-0.11079641,-0.010100693,-0.12953694,-0.10418654,-0.24693425,-0.03909673,-0.17323959,-0.11189878,0.07276634,-0.15138826,-0.27021378,-0.008430791,0.10618601,0.1598146,0.17752416,-0.15695821,0.029581409,0.002546197,-0.15952896,-0.0006398966,-0.0042064693,-0.117397316,-0.053592872,0.12068216,0.033026922,-0.23193824,-0.032544907,-0.13376467,0.28472275,-0.20260705,-0.04339615,0.1610678,0.12936316,0.31910956,-0.08699862,-0.35432163,0.40493903,0.10336673,0.35542202,-0.07331267,-0.4404262,0.5281813,0.14580005,0.24634707,-0.410716,-0.5441368,0.41429222,-0.22131348,0.4052141,-0.1852761,0.08472909,0.28307217,-0.13649414,0.26063237,0.15145637,-0.10830723,-0.124138236,0.19643958,-0.04457296,-0.05492586,-0.17375492,-0.34944043,0.20387243,0.03277211,-0.0051131,-0.2303218,-0.40504202,-0.15425575,0.14913963,-0.013514271,-0.034027003,-0.22124793,-0.08596042,0.19750142,-0.09575827,0.18591776,0.19981815,0.25549942,-0.042049997,0.28269482,-0.034565553,-0.1301493,0.07490156,-0.27401057,0.013619114,0.15414523,0.3464554,0.3731937,0.33045813,-0.13677676,0.108324446,-0.044820953,0.18956779,-0.19128178,-0.22567593,-0.17414184,0.25504237,0.14626086,-0.023667406,-0.26464075,-0.3366285,0.05536202,-0.0815195,-0.21952134,0.15553243,-0.14537111,0.04465035,-0.103444174,0.18464327,0.3994959,0.1001486,0.036640294,0.04103438,0.14637809,-0.15214533,0.260899,-0.015024579,-0.15736331,0.16688383,0.3117972,0.08811063,0.13173112,0.07254823,-0.15745485,0.08055829,-0.18015763,0.061059523,0.10473055,0.020148927,-0.24788179,0.19083582,-0.12647627,-0.0130181825,-0.10122002,0.5499816,-0.077670276,0.33701003,-0.48523203,0.7606129,-0.6642686,0.7512515,-0.27674606,-0.30756065,0.17084536,0.48328173,-0.05114634,-0.19103085,0.14831951,-0.27928144,-0.41658184,0.012116173,-0.0030366615,0.040803846,0.09411994,0.10628463,0.12894571,0.017221725,0.073127165,0.16877638,0.09829069,0.16099098,-0.055575255,-0.033470273,0.029768733,0.09961143,0.06846982,-0.00094330654,-0.11059441,-0.17656179,-0.46350944,-0.28694764,0.1382604,0.097456545,-0.11003831,0.0032431933,-0.046434358,-0.071528375,-0.03144195,0.23805186,0.039949533,0.16453348,0.13901073,0.2022558,0.093101874,0.3128544,0.2399781,0.117420726,0.15426017,-0.1297808,-0.439184,-0.096071504,0.17031223,-0.07977868,0.0936637,0.18315387,0.12673092,-0.038163744,0.055219043,0.065733135,-0.203861,-0.06320494,-0.11902593,-0.050639853,-0.07881093,0.10621602,-0.034525882,0.08760552,0.0031153439,0.22604948,0.12891175,0.18224673,0.12040085,0.08919422,0.19438894,-0.06950568,0.16987754,0.10218753,-0.033589683,0.10133644,-0.018965121,0.08005919,0.15546577,0.005081716,0.044114828,-0.17555149,-0.025915688,0.0010842531,0.12180733,0.16459793,-0.054248028,-0.090382986,-0.17444463,0.10800979,0.015955301,0.31849822,0.009808712,-0.071236625,-0.115121305,-0.13250498,-0.27935454,0.42328656,0.37174335,0.16715078,0.19474585,0.49184877,0.25577107,-0.16812329,-0.0027484908,0.10308644,-0.33503094,-0.21443926,-0.35034803,0.08517512,0.07435923,0.29505745,0.16591573,0.00031433676,-0.032718062,-0.19273913,0.42787656,0.4332845,0.001848841,0.10264278,0.09701852,-0.13768627,-0.18884541,0.18094982,-0.2159933,-0.13476597,-0.37466237,-0.038450483,-0.3179871,0.12124611,-0.087825015,0.29181266,0.17035024,0.19349624,0.0675628,0.16274631,-0.18508112,0.17287143,-0.02566642,0.11487537,-0.14800534,0.1885058,0.17852958,-0.06692998,-0.18984589,-0.35705915,-0.06458483,-0.20518245,-0.17972077,-0.014154686,-0.1990776,0.20637365,-0.19178157,0.0998366,0.08859475,0.10482471,-0.36837545,-0.09335951,-0.18150756,-0.009306806,-0.0730633,0.11552125,-0.0730633,0.050693575,-0.007206167,0.044349924,-0.11841485,0.08608448,0.113351054,0.18485627,0.08669659,0.118526146,-0.047215696,0.056452945,0.06883419,0.06466074,0.048579026,0.018530143,0.13967165,0.14245395,0.010238878,0.05742675,0.14690565,0.13087957,-0.0662827,-0.12819806,-0.230864,-0.037491884,-0.100179926,-0.099172086,-0.015554429,0.19579096,0.038029402,0.081769936,-0.1286012,0.11052715,0.09729077,-0.10830989,0.10716766,0.033695664,0.035173837,0.26983407,-0.06856715,0.11381945,0.20681007,0.10857865,0.11724613,0.19713475,0.17684345,-0.325111,0.13000813,-0.076110065,-0.070398405,-0.25910965,-0.071577005,-0.07837659,-0.11405177,-0.039369617,-0.27561,-0.091023825,-0.09247441,0.18150368,0.02529447,-0.18911922,-0.037125755,0.3412487,0.25675246,0.3057095,-0.13653573,-0.05507667,0.2449665,0.029215567,-0.11731557,-0.23499379,0.02557615,-0.017986748,-0.0069006598,0.013099333,0.030754957,-0.06797349,0.0038543034,-0.15215889,0.0043543032,-0.017443703,0.04039734,-0.062569514,-0.22505952,-0.05414568,0.025324496,0.061986733,0.122807905,0.26235753,0.1113642,0.053192034,0.06590726,0.15311253,0.23883435,0.17080788,0.03242383,-0.06228116,0.052015617,-0.019247895,0.040294908,0.06296906,0.042199854,0.01918175,0.03246346,0.051592298,-0.08831543,0.013850547,-0.15736973,-0.09598813,0.06460943,-0.019896107,0.04058594,-0.113661796,-0.24171653,-0.13313459,-0.024473269,-0.11546092,-0.024367439,-0.28002712,-0.11218017,-0.11281516,-0.20623745,0.120867215,0.16825567,0.077339046,-0.008413893,-0.18298693,-0.084749036,-0.1925711,0.06069983,-0.15716287,-0.16435102,-0.33420405,0.112880394,-0.25238353,0.2843308,-0.1856492,-0.10010148,-0.22256605,0.13311367,0.15734036,-0.20393014,0.023583306,0.12193212,-0.018336408,0.0427073,-0.0125858765,-0.13929856,-0.25048,-0.16781169,-0.28453735,-0.027844861,0.26216245,0.29522976,0.1782071,-0.013439786,0.62570494,0.6870874,0.13989258,0.14632784,0.2433517,-0.032671303,-0.46056637,-1.0708266,-0.59560776,0.325723,-0.11335952,0.31146643,-0.008508151,0.29582378,-0.5041281,-0.09689639,-0.0068305754,0.0035944027,0.037623838,-0.08310937,0.21036817,0.271093,0.15421319,-0.14925607,0.08558793,-0.047906008,-0.046937816,0.10045932,-0.052243493,-0.105881184,0.06548832,-0.012722008,-0.19983427,-0.016323673,-0.23809712,-0.25203905,-0.09705129,0.024688827,-0.20881908,-0.29340008,-0.0012872999,0.013392846,0.8438971,0.27388814,-0.23793736,-0.0077607553,0.22705752,-0.13513076,0.29075977,0.06508194,-0.26789635,-0.32513377,0.2786185,-0.8476814,0.17218529,-0.1050141,0.110217504,0.146799,-0.22248484,-0.19899069,0.14656247,-0.14009765,0.35067773,0.17817709,-0.0146739865,0.12261959,0.10359241,-0.8751138,-0.3090723,0.19095375,-0.025864003,-0.1222786,0.08326948,-0.039145518,-0.03880453,-0.05043225,-0.15944639,0.69179815,0.1898626,0.012045431,-0.063117035,0.013997592,-0.22805335,-0.028199777,-0.21850565,0.1650386,0.14839834,-0.6459693,-0.38681775,0.25765118,-0.08705241,-0.18140084,-0.03345671,0.11973454,-0.10564225,0.018539865,0.09729681,-0.11273837,0.26425552,0.22267827,-0.19939099,-0.193894,0.1571141,0.11123919,0.42136964,-0.2994363,0.14412121,0.22167881,0.27844778,-0.031008048,-0.17710318,-0.24626537,0.3620021,-0.2498634,0.030608267,0.10618257,0.11231082,-0.298282,-0.22656326,0.33395934,0.08215497,-0.052818242,-0.48904657,-0.2297184,-0.37667507,0.21479216,0.2829917,0.07584469,-0.5222969,0.4031297,-0.13542828,-0.29609767,-0.27838036,0.31502852,0.17947888,0.21503487,-0.019492086,-0.087737136,-0.42254594,0.25338194,0.1871068,0.22107641,-0.06263147,0.06561066,0.15053469,-0.19368157,0.029483706,0.052666593,-0.026025105,0.14587757,-0.18642195,-0.09629289,0.16971108,0.04619456,0.11136006,-0.1387549,-0.032017726,-0.25011495,-0.17902534,-0.1909421,-0.109236956,-0.081636645,-0.22217222,-0.045646664,0.12526295,0.021701243,-0.04382675,-0.03211699,0.044463154,-0.10156945,0.13873522,0.15714839,0.20873924,0.31259972,0.09427207,-0.003982804,0.1649549,0.28816196,0.015952429,0.05876094,-0.04329642,-0.101484604,-0.14017773,-0.007944395,0.08408967,-0.014181116,-0.03116239,-0.11811586,-0.16571859,-0.14671144,-0.078144535,-0.053484388,-0.16905177,-0.07311516,0.121137545,-0.23037764,-0.055485323,0.13952449,0.15120561,-0.21837206,-0.19079164,-0.28899956,0.05343031,-0.23513663,-0.22518604,0.09939768,0.15888487,-0.35454363,-0.1332513,0.39153385,0.04529138,0.047157116,0.44604576,0.022970166,0.1642928,-0.22957598,-0.21670736,-0.001745305,-0.43959165,0.049415454,0.060911413,0.23609607,0.71995574,-0.04465407,0.14369945,-0.049200978,-0.39806893,0.48969343,-0.8187866,0.025930246,-0.15270749,-0.45263186,0.42826727,0.09008026,-0.08913656,-0.061383262,-0.27881986,0.5041063,-0.37747917,-0.16094339,-0.20001863,-0.18423417,-0.1960725,0.12812537,-0.29595852,-0.36057612,-0.19089323,0.39091185,0.124919154,-0.037303105,0.0179579,0.3388725,-0.35021755,-0.045565277,0.056262944,-0.07910724,-0.0056802453,0.016555179,-0.057588592,0.08391657,-0.19323625,-0.018528236,0.59093046,0.40866938,-0.044794552,-0.02022502,0.07107151,-0.40257838,0.8638661,-0.51405627,-0.27694738,-0.12554365,0.7017165,-0.57416344,-0.25423244,0.14030835,-0.3379282,-0.07115887,0.3679818,-0.22295573,0.13856106,0.09199545,-0.49833053,0.40816975,0.026012959,-0.13227077,0.36868072,0.3234256,-0.027651055,0.013661718,-0.14008701,0.07301504,0.13561039,-0.14363742,-0.05781001,-0.16918497,0.14433207,-0.19434659,0.009078641,-0.06541253,-0.20916572,-0.13561039,-0.014307784,-0.23880395,-0.27600613,0.053371992,0.07448152,-0.22768962,0.10805609,0.03778104,0.043145254,0.052407205,-0.119633526,0.17813818,-0.25485802,-0.07366179,-0.15459341,0.15914801,-0.08237683,0.101690054,-0.26153877,0.035998806,-0.01794466,-0.14031652,0.01990445,-0.26153877,-0.34141934,0.06617299,0.19952622,0.2252772,-0.23316015,-0.26574302,-0.04983776,-0.119470485,0.16125013,-0.12227331,-0.21283965,0.3002528,0.0773405,-0.053866826,-0.1402683,-0.07037916,-0.31532803,0.09647274,-0.032096326,-0.122995086,-0.028359924,0.12642522,0.096840255,0.24292755,-0.39005613,-0.06780656,-0.27465636,0.6757379,-0.31287792,-0.2856818,0.03757843,0.22687939,0.018927032,0.12342385,-0.01148485,-0.33174372,-0.0034435408,0.24893029,-0.09873908,-0.06703301,0.19821723,0.07060392,-0.1448414,-0.09303179,0.18618888,0.16200687,-0.14997852,-0.11439464,-0.13256247,0.18506122,0.2122503,0.16626692,-0.2096191,-0.15148206,0.015043272,0.20523377,0.07179423,-0.13206129,-0.17253168,0.08325875,0.116649956,0.07549044,-0.12278943,-0.06571741,-0.15214586,-0.09351015,0.15767175,0.12881438,-0.20224717,-0.12697242,-0.03016209,0.13212991,0.2735924,-0.17645973,-0.3885307,0.09492232,0.36176088,-0.05151347,-0.22717503,-0.45827958,0.040461715,0.22999936,0.22668384,-0.14932153,-0.14797077,-0.27261004,-0.006961073,-0.25271687,-0.15877692,-0.045038152,0.16558743,-0.1957756,0.04662486,-0.18942876,-0.24508566,-0.059277855,0.11538229,-0.12441433,-0.1949619,-0.24069169,0.07726057,0.005123751,0.11578914,0.03618919,0.1446754,-0.089018494,0.24150538,-0.11163928,-0.04101035,-0.12905242,-0.06851332,-0.17754878,-0.21286324,-0.3420784,-0.03974038,0.08401388,-0.06282153,-0.11000379,-0.08718707,-0.056701817,-0.047408912,-0.24463755,0.054435253,-0.2207631,-0.0716989,0.047371138,0.023156704,-0.22378518,-0.2098836,0.09081357,0.1656101,-0.08771593,0.063048184,-0.17392083,0.0065305308,-0.08522271,0.28165805,-0.1953776,-0.18208045,0.032443386,0.031960465,0.12169562,0.12722723,0.10782267,0.17227042,0.131354,0.1442611,-0.05193576,0.18263124,0.09553018,0.077310964,0.03314581,0.036921363,0.17297284,-0.010618733,-0.025177646,-0.06414044,-0.016024135,0.0733159,0.123890705,0.032179974,-0.077969484,0.10167643,-0.016616808,0.15677914,0.29663327,-0.22648351,0.02111452,0.15922882,0.23873188,-0.0015206074,-0.10689487,0.03167874,0.23360984,0.07159729,0.041560948,-0.36678302,0.426466,0.25142565,0.014106505,0.3405047,-0.27347273,0.0070567317,-0.042702276,0.14809394,0.21946853,-0.22603811,-0.1370704,0.010536383,0.15984678,0.013022344,-0.19892801,-0.26720655,0.25925398,0.35672984,-0.12667318,0.11928864,0.07094834,0.33150882,0.4642032,-0.34059748,0.0080235815,-0.3755888,0.25175583,0.16666327,0.26266223,-0.022821052,-0.2001777,0.27834016,0.13632987,-0.07361813,0.097078234,0.015024688,0.106791735,-0.13273862,0.06880307,0.12991019,0.094653554,-0.089128256,-0.23956098,0.40887177,0.3215195,-0.01626344,-0.28968328,-0.75196624,0.46701893,0.048576545,-0.42860496,-0.49753958,-0.35388196,0.24995379,0.60462505,-0.18457113,-0.29126194,-0.21982777,0.11168987,0.28547353,0.054693837,-0.13602749,-0.07182625,0.15842915,0.11048901,-0.008506017,-0.13802731,-0.016833622,0.23844133,-0.2535538,0.64748573,-0.08605717,0.0070210057,-0.11762546,-0.77644557,1.0545151,-0.36975196,-0.14801833,0.30745497,-0.29620457,0.4241569,0.021293903,-0.085931234,0.23390758,-0.26698712,-0.13869897,-0.029490322,-0.18457273,0.04340859,0.081200175,0.07868731,-0.2134461,0.14170614,0.20083247,-0.0029039658,-0.0590278,-0.10248566,0.12919106,0.22428593,0.33583763,0.22743933,0.10849684,0.0059372704,-0.01653074,0.015939476,-0.017454589,-0.2650831,-0.0007556316,-0.2148257,-0.17264892,-0.14052361,-0.31790262,-0.2832523,0.2045871,0.2996769,-0.15531331,-0.16583082,-0.18657768,0.46766883,0.14486784,-0.28224376,-0.060907885,0.05572117,0.49590763,0.09566608,-0.29621908,-0.17159383,-0.27648073,0.29045606,0.23052068,-0.26538694,-0.3722909,-0.31149107,0.12203189,0.2274951,-0.31523705,-0.12966788,-0.043447997,0.020753013,0.052520193,-0.15350273,0.07321524,-0.13819882,-0.32138184,0.036404725,-0.24578987,-0.12138773,-0.26294878,0.16776317,-0.004434652,-0.48972473,0.21970367,-0.08724381,0.28358585,0.4716383,-0.048346404,-0.07031677,0.05562155,-0.10950402,0.32601938,-0.3197587,0.19048715,-0.26102608,-0.1847889,-0.41444165,-0.2839286,-0.2036129,0.11953238,0.14886643,0.22651541,0.11937551,-0.0010171821,0.12525801,-0.12172851,-0.10651244,0.03051056,-0.0661585,0.08298245,-0.03333416,0.13835637,0.08408052,0.19937749,0.16000396,-0.0331969,0.07913922,0.18886742,-0.021647595,0.059985273,-0.2013642,-0.02130388,-0.20184194,0.07249589,-0.28783378,-0.2240565,-0.17437233,0.27517384,0.1497691,-0.11674585,-0.41849357,0.36307663,-0.14953023,0.40655026,0.14463349,-0.25821435,-0.22978929,0.27039653,0.29476088,-0.30288234,0.14260311,-0.10999788,0.012577798,0.14917193,0.09764227,-0.026910175,-0.23455763,-0.005266625,0.022417638,0.07760038,-0.15114735,-0.15790305,-0.25203237,-0.100704856,-0.23798051,-0.27887496,0.33544263,-0.23077445,-0.19420363,-0.00033004372,-0.050667692,-0.2271714,-0.17267549,0.038552485,0.2873421,0.05643255,-0.21870428,0.16393813,0.23419733,0.040821947,0.024954833,0.2304163,0.011947126,0.014515395,0.09457882,0.013985105,-0.019184029,0.14398938,0.08651009,0.34604037,0.13883206,-0.09557701,0.004400889,0.11362767,0.0980725,0.15946138,-0.17085743,0.027512703,0.08255891,-0.18616305,0.14190982,0.26019573,-0.18067299,0.13409063,-0.14875478,0.09095341,0.003993705,0.051445793,0.13698839,0.15141726,-0.27724043,-0.13054691,-0.16086473,0.06334102,-0.092241704,-0.12616673,0.27414852,-0.21042103,0.012786298,-0.04298601,-0.12316071,-0.19856873,-0.05376472,-0.12152888,-0.0066293357,-0.18448341,0.028385367,-0.18568581,0.07476388,-0.02811825,0.19910762,0.026623677,0.10355622,0.039390884,0.11145973,0.15178789,0.035920434,0.22920175,0.112878315,0.14520164,-0.057047118,-0.070574276,0.11601945,0.114600874,-0.019834766,-0.075640626,-0.16556837,-0.004518552,0.08420276,0.0777685,0.094436795,-0.0045565497,-0.04182273,0.04813034,-0.020907342,-0.06918309,-0.20640063,-0.2086979,0.1257312,-0.062114574,-0.07947661,-0.3322202,-0.3417627,-0.014954327,-0.0062677846,0.07276152,0.34352982,-0.31507903,0.13969153,-0.07125947,-0.14393264,0.051732693,0.0028743453,0.19473758,-0.0037330594,-0.119104475,-0.124936,-0.1257312,-0.030372525,0.14910318,-0.0929579,0.2556745,0.09674388,-0.20573178,-0.0020402507,0.026763659,0.0508288,-0.08764142,-0.2524524,-0.19493772,-0.15562797,0.22522555,-0.19316556,-0.23392525,-0.14870042,-0.1364564,0.0006727415,-0.20879279,-0.2642131,0.0987577,-0.013975906,0.05405091,-0.035825845,-0.03145586,0.10404274,0.05609727,0.075082384,-0.10892309,0.085164875,0.19564325,-0.082000695,-0.031936828,0.13589913,0.03579821,0.2104452,-0.1316087,0.15971096,0.13182321,0.2550656,0.12667471,0.06612613,-0.13536282,-0.0026848656,0.054005686,-0.07384889,-0.022095673,0.089133516,0.11659222,0.13107239,0.12146136,-0.09424313,0.029741589,-0.08097424,-0.06538046,0.00875378,-0.045647245,0.2083329,0.18224876,-0.07025706,0.06107091,0.02290868,0.2265918,0.12236864,-0.026693715,-0.05908625,0.073319115,0.26492414,0.0034944243,0.16625804,-0.1401739,-0.019024411,-0.021788763,0.14652482,0.05670465,-0.043632794,0.07288548,-0.21511067,0.11405593,0.16349986,0.07726846,-0.18585798,0.011554565,0.45937553,0.2275209,-0.03237987,-0.05471336,0.1466574,0.35044128,0.16084053,-0.20388237,-0.29429975,-0.15345348,-0.3793985,-0.17334926,0.091451585,0.20742814,-0.27046424,0.21688356,-0.13838392,0.1193064,0.13654768,-0.13492115,0.032307066,0.18314794,-0.09881205,-0.0005829479,-0.033221994,-0.2501612,-0.018786488,-0.23308258,-0.21600395,0.1578553,-0.065468065,-0.083766595,0.14264719,-0.14167127,-0.2473961,-0.054204307,-0.036373407,0.1356531,-0.04562433,-0.2578059,-0.23389585,0.055342883,-0.040298752,0.11946722,0.039822407,0.10813022,0.06101974,-0.078072876,-0.055113066,0.13690144,0.066497706,-0.019232413,-0.041299075,0.19568235,0.15062015,0.06268694,-0.11051194,0.07516717,0.15300187,0.102318816,-0.037583586,0.07516717,0.07249965,0.1241354,0.13613927,0.04599107,0.117180765,0.32292026,-0.19676034,0.17696153,-0.15501401,0.269356,0.043933425,-0.4555263,-0.14780048,-0.014359899,-0.254622,0.09346884,-0.43680182,0.36927098,-0.63233435,0.13981956,0.24786893,-0.10781915,0.24786893,-0.115569845,-0.20075081,-0.066840194,-0.47302294,0.8275599,0.37541014,0.25308722,0.2144163,0.010176878,0.32916936,0.019235177,0.18230648,-0.06360549,0.2009056,0.05790293,0.062684305,0.25003538,0.15598698,-0.12212253,-0.096943535,-0.11405122,-0.22880429,0.38391396,-0.14703834,-0.21985565,-0.19581717,0.25424647,0.2340682,-0.04557662,0.294954,0.22283854,-0.12791283,-0.14719677,0.12125344,0.24329783,-0.0795701,-0.0415647,-0.09159262,-0.30657426,0.22558044,0.28379473,0.04152515,0.14711767,-0.88270605,-0.3834551,0.92257017,-0.02908738,-0.06058717,-0.31195274,0.48533013,0.029482856,-0.056632396,-0.091909,0.109151825,-0.012338902,-0.049276512,-0.058609784,-0.10147641,0.008976162,-0.020745253,0.09806283,-0.013049183,-0.017843712,0.04602126,0.011288087,0.061723724,0.026269047,-0.22951667,-0.14001882,0.050583042,-0.17129962,-0.09247697,-0.0849671,-0.15193532,-0.17589244,-0.04248355,-0.15367314,0.017874744,-0.14945272,0.01722306,-0.2127591,0.046548814,0.11236463,0.011236463,-0.023081895,0.0478139,-0.0703654,0.05390359,0.3080205,0.12729418,0.255217,0.2272437,-0.14379528,0.13672338,-0.005362857,0.24547349,-0.043570757,-0.030743118,0.067654505,-0.116136305,0.21451429,-0.098220825,0.06726162,-0.003027657,-0.029643046,-0.1232082,-0.040093742,0.12140029,-0.04911151,-0.16121286,0.24691267,0.11439104,-0.19887592,-0.042826544,0.23588479,-0.1971937,0.02469594,-0.029088408,-0.40335923,-0.08812969,0.12027881,-0.34392077,-0.28822055,0.1626147,0.2515855,-0.08331668,-0.1812126,0.07621396,-0.14270842,-0.17803507,-0.12616658,-0.020934308,0.07281669,0.14906229,0.17449337,0.1354419,-0.06986402,0.1639209,0.09877163,0.07605511,0.06810194,0.17249317,-0.03195553,0.05505304,-0.029360034,0.0003249948,-0.091961436,0.02485959,-0.04981443,0.11010608,0.03619404,0.085770346,0.12229776,-0.10639143,0.13087003,0.06919729,0.10782014,0.021875894,-0.13427137,0.11907379,0.19020472,-0.016891636,0.13380134,0.2466081,-0.7269769,-0.08460507,0.47378838,-0.18205757,-0.09361394,0.29032072,-0.081393205,0.5336386,-0.12886605,0.14273188,-0.6636797,-0.39231682,0.56936073,0.030375568,-0.02555778,-0.42333868,0.09087211,0.071405105,0.080633186,-0.10882696,0.121380016,-0.16126637,0.12542939,0.039127085,-0.12785903,0.09642574,0.35533267,0.21421194,0.03758326,-0.39177704,0.18333545,0.26199457,0.35472527,0.21340206,-0.30289325,-0.30410808,-0.09419859,0.29965377,0.27596492,-0.055071503,0.30633524,-0.13788122,-0.18971322,0.06535211,0.11040065,0.12850021,0.006557752,0.2174619,0.19582257,-0.044347268,0.20290211,0.06418332,0.19702475,0.18486933,0.06972673,-0.07086212,0.09797807,0.0620461,0.18807516,0.15347895,-0.07253183,0.20637508,0.27249524,-0.036933795,0.1129386,0.09857917,-0.12716445,0.17177887,0.0135329515,-0.2005164,0.16803733,-0.32357097,0.10185929,0.06118419,-0.3375995,0.48032448,-0.03692018,-0.106662534,0.16315784,-0.0940826,0.2755385,-0.47940958,-0.43427432,-0.111465774,-0.18511553,0.41719612,-0.29719123,-0.13083124,0.05493235,-0.12831526,-0.059316263,-0.07822427,0.07002826,0.15747763,-0.19500457,-0.35104212,0.1061428,0.14434743,-0.050699495,0.07056421,0.06370262,-0.063660264,0.1905996,-0.2649758,-0.2951329,0.07755286,0.16603343,0.30716184,0.19229382,-0.023104908,0.08420267,-0.11588456,0.42050508,-0.09902708,0.021643644,-0.20059548,0.20195086,0.2495584,0.2370759,0.04378099,0.23414902,0.21853909,0.24504347,0.040203713,0.20813248,-0.17040846,0.2465069,-0.023130346,-0.18048988,-0.2931741,0.22520584,0.1252047,-0.122196525,-0.08536684,0.061789326,-0.2507346,-0.07951311,0.14341629,0.23219779,0.10292801,-0.1026028,-0.022276679,0.19235994,-0.024869025,0.10112968,0.04445093,-0.07423719,-0.0705819,0.32915014,-0.19494878,-0.07297525,-0.030874142,0.13672523,0.37318766,-0.2006928,0.3103515,-0.24507846,-0.2666621,-0.013119879,-0.08790101,-0.12993684,-0.07297525,-0.23097949,-0.057266206,-0.15909213,-0.17754264,-0.15326107,-0.08576876,0.0024877258,-0.024228286,0.082993165,-0.032166436,-0.11677732,-0.15936494,-0.06324185,-0.16824362,-0.07479166,-0.10165346,-0.010167227,0.02531931,0.39096326,0.052406836,-0.32173958,-0.119185105,-0.12979439,-0.01830289,-0.1674912,-0.13062206,-0.093677685,-0.13965124,-0.13950075,-0.002158537,-0.1361148,-0.24998008,-0.16745241,-0.3374731,-0.21522257,-0.28781953,-0.09631082,0.08445389,0.071270004,-0.07888926,0.078461215,0.16068925,0.18097873,-0.25494543,0.20323722,0.19227919,-0.03542098,-0.10033447,0.13783148,0.08800668,0.013162479,-0.09151668,-0.058685392,0.13928685,-0.043639503,-0.19193676,-0.02700782,-0.10376856,0.071193755,0.5283226,-0.37231982,-0.40336767,0.6616757,-1.1095792,0.74463964,-0.13538903,0.14175129,-0.11712932,-0.50770885,0.7324241,-0.35170606,0.04141835,0.96706444,-0.8138611,0.8723939,-0.35221505,-0.34330788,0.3858078,-0.5191609,0.6306278,-0.32498455,0.087555856,0.332292,0.14135017,0.27709678,-0.02856072,0.15858117,-0.04636958,0.060343497,-0.5850132,0.19416386,0.045248866,0.32640824,-0.09974363,-0.020890826,-0.19220261,-0.13791798,-0.22008039,-0.6124707,-0.033884116,0.28438142,0.16026224,0.091478355,-0.47070026,-0.02034798,0.15367803,0.113419876,0.05716703,-0.5031674,-0.12542617,0.13298343,0.38858953,-0.06746685,-0.32837522,0.3008278,-0.13700585,0.35372862,0.09470956,0.26596686,-0.05293131,0.008806648,0.2727928,0.002512104,-0.1489512,0.3666491,-0.43076393,0.26596686,-0.14724472,0.0038224356,-0.07837612,0.21014065,-0.02872357,0.114483945,0.07896051,0.13107327,0.12943192,0.07767088,-0.08874997,-0.13095604,0.012236827,0.16460365,-0.06829175,-0.12474236,0.06635731,0.13787314,0.0090787,0.08880859,0.060553975,-0.061902225,0.20141672,0.09461192,0.126032,-0.013226031,0.18523772,0.19754782,0.20165119,0.044595834,0.15008013,0.06903477,0.12021032,-0.036371194,0.10882637,0.10579761,0.57107735,0.16950595,0.22433689,-0.1829787,-0.239794,-0.024177836,-0.13639851,-0.3183328,-0.10861749,-0.19091614,-0.02973926,-0.18736517,0.17378798,0.07289905,0.20303115,0.22642569,0.3212571,0.09269041,0.16180426,0.10332609,0.11159218,-0.053509727,-0.09312539,-0.011728611,-0.02926107,0.11343886,-0.19451687,-0.17710532,-0.21650115,-0.20700394,-0.02468834,-0.2979309,-0.023281347,-0.046870474,0.21245603,-0.09048728,-0.21175253,-0.19785847,0.24340989,0.19223051,-0.01795016,-0.29353404,0.20278296,-0.2570581,-0.056363154,0.1493887,-0.012912166,0.2914028,0.057574697,0.34871408,0.1432783,-0.11757249,0.3933832,-0.067109026,0.00798039,0.21428534,-0.15908106,0.06784649,-0.31458014,0.33607188,-0.28444958,-0.09634412,0.03953322,-0.28782082,0.22924528,-0.12031163,0.10661591,0.35419238,-0.022446787,-0.31208357,-0.14917393,-0.18775512,-0.11735958,-0.07736441,0.31289154,0.041939385,0.042015135,-0.09796798,0.2177515,0.118167564,0.08599973,0.74980855,0.5272091,-0.30501372,-0.10574482,-1.1174409,-0.8180831,-0.5478127,0.03189009,0.31915343,0.7005215,0.3098616,0.073122494,-0.090995595,0.017651008,0.035116218,0.0006223577,-0.09903145,-0.025106236,0.008982273,0.23763831,0.0053998153,-0.02025221,0.0023355652,0.19639069,0.1973197,-0.14520277,0.12755176,-0.06656288,0.070929185,0.06136048,0.057040628,0.10553445,-0.023387587,-0.32310635,-0.51949704,-0.1991777,-0.069117635,0.10667951,0.2820323,0.39002237,-0.24096812,0.28727454,-0.0030497801,0.23467743,0.29461366,-0.20916522,-0.5717532,-0.32379544,-0.3949151,0.16486832,0.53505754,0.6098468,-0.25564638,0.05447557,-0.34930766,-0.4424447,-0.5972654,-0.2451619,0.43929937,0.21266004,0.3037002,0.4050501,-0.036900643,-0.25648344,-0.23552515,-0.11808206,-0.14581345,-0.28574836,0.056197606,0.3557797,-0.03091028,-0.32485345,-0.42376637,0.30236164,-0.16127658,0.20766596,-0.2550777,0.014632463,0.07514313,-0.1332896,0.2548221,-0.054983556,0.061469126,0.06252343,-0.03677285,0.17763427,0.073034525,-0.003805073,0.015115428,-0.08808594,0.0045129065,-0.042185374,-0.06897069,-0.15088463,-0.13182929,-0.18983419,0.10606266,-0.13662308,0.002962414,0.051173735,0.08359176,-0.21560082,-0.030500505,-0.19846301,-0.11966505,-0.14249548,0.09617546,0.12242148,-0.18539993,-0.22123353,0.043353863,-0.031489227,0.05852359,0.1231673,0.10289442,0.06928161,0.07019006,0.04348628,0.04434692,0.3167159,0.18848039,0.088454776,0.057710763,-0.024623897,0.033612814,0.08673349,-0.049247794,0.020440225,-0.12766175,0.0015912894,-0.07750551,-0.058093272,0.012180462,0.040832635,-0.069520675,-0.09337956,-0.027444886,0.0041908957,0.10406411,-0.46444818,0.32619804,-0.07432075,0.17394218,-0.4017989,-0.84636796,-0.32589686,0.22454353,0.008414735,-0.3186681,0.49908602,0.42920795,-0.17725536,0.00042238392,-0.1893033,0.6246858,-0.13727124,-0.03480726,-0.03606853,0.1494698,-0.22424233,0.10029912,-0.13350627,-0.04544764,0.07254359,0.12271989,-0.060947124,-0.11709054,0.11183648,-0.06999162,0.16542791,0.2606015,0.15942328,0.32905445,0.1756358,0.052578155,0.21556668,-0.0020816878,-0.069841504,0.00023983388,0.017985782,-0.25910035,-0.100052364,0.110560484,0.073144056,-0.08826825,0.028390702,0.07168043,0.008060645,0.09287625,-0.0740589,0.10784209,-0.076314785,0.08847453,0.19202493,0.18971403,0.181901,0.11983676,-0.027937151,0.12489874,0.002200859,0.012139112,0.009511837,0.036726832,0.11092329,0.20456983,0.070427485,-0.07906585,0.08385272,0.11675556,-0.11400449,-0.046575677,0.07295847,-0.07523241,0.06706839,-0.047441512,0.10784104,0.026295746,0.0060874177,0.06312878,-0.017882532,0.081497826,0.08154529,-0.028526612,-0.012121437,0.09379132,0.28972784,-0.0028479146,-0.012329097,-0.008431014,0.078697376,0.2282129,0.11106867,-0.055676732,0.02598722,0.014192108,0.15084454,-0.013788654,-0.038140647,0.20616277,0.54905415,0.2366539,0.15609314,0.026184918,0.17888124,-0.14250587,0.07863499,-0.069701634,-0.06900622,-0.09543186,-0.596984,-0.069327176,0.12667188,0.017157942,-0.076013826,0.20894441,0.36824715,-0.09361309,0.18765412,-0.016047958,0.3049112,0.013801244,0.070718,-0.04252728,-0.008329159,0.0138999205,0.056751013,-0.011903081,0.09469696,0.10841698,-0.1646403,0.10937642,-0.009918235,0.06164417,-0.03322069,-0.29128668,-0.08922814,0.08783694,0.10438733,0.19524652,0.20148289,0.14650685,0.13988669,-0.13105983,0.24638478,0.5507199,0.16291331,-0.024561724,0.29352129,0.13595322,-0.45102048,-0.15846294,0.29214454,0.23308232,0.21945259,-0.54133475,-0.1847587,-0.16906385,0.02276786,0.3039845,-0.059406392,-0.04563898,-0.3414319,-0.112686284,0.056721747,0.29682544,-0.13588437,-0.06708173,0.17126663,0.17870104,0.18338196,0.115095586,0.26226923,0.07371113,-0.19012453,0.16938883,-0.00784098,-0.03597974,0.05070303,0.03190835,0.3058278,0.1362496,0.18766275,0.17156655,-0.15016808,-0.041471384,0.02707949,-0.080481,-0.101595424,-0.21549971,-0.41357765,-0.38441512,-0.04372012,0.048406955,0.14117314,-0.31889412,0.14069973,-0.10150074,-0.056446306,-0.075850785,0.35967955,0.19642363,-0.0052971514,-0.34418315,-0.40100327,0.4472206,-0.41894647,-0.1742665,0.13763247,0.10344525,-0.16339184,-0.3382021,-0.41323727,0.23353343,0.13878791,-0.00839813,-0.056106474,0.32379314,-0.04614936,0.006987822,0.3640294,0.31536528,0.009039565,0.084124215,0.14134087,0.5040345,0.109864086,0.23353735,0.0069236206,0.16702996,0.13260859,0.18693142,0.0010899467,0.03365984,-0.24836189,-0.17616838,-0.35071215,-0.040945187,0.21505743,-0.16865458,-0.0001308888,-0.024331037,0.08767804,-0.034725986,0.09351648,-0.0028874862,-0.032771382,0.18144836,0.1306724,0.038928535,-0.0046123294,-0.0777053,0.049666133,0.0011068404,0.2678708,0.0015247958,-0.014579229,-0.059341352,0.27212033,0.37881336,-0.32660508,-0.089163795,0.10145702,0.030505402,0.3408713,-0.05630599,-0.15859774,0.007033506,0.10244351,0.054143295,-0.0020512417,-0.027375182,0.030372605,-0.050551247,0.08562688,0.017565189,-0.06912929,0.12343994,0.14665337,0.09241571,0.072049215,0.28381696,0.07365517,0.007158385,0.013084926,-0.27593318,0.33754364,0.27140728,0.04113448,-0.04879929,-0.15300421,0.2587056,0.07788907,0.0848239,0.07883804,0.058252558,-0.099058546,0.09402167,0.12838393,0.17221761,0.19014071,0.09266762,-0.03474224,-0.002709164,-0.09526517,-0.12942296,0.030667333,0.12435774,0.16702251,0.19027059,-0.36651438,-0.066562235,-0.0016742025,-0.033037595,0.23274054,-0.10598007,0.13883908,0.10416178,0.17416577,0.20312846,0.08656337,0.23689662,0.080199376,0.16905987,0.06318668,-0.022785367,-0.03844892,-0.14217004,-0.056930136,-0.14527613,0.000201757,-0.09460253,0.32889023,-0.04182124,0.049431156,-0.107914336,0.43201232,0.44798648,0.08049203,-0.05613143,-0.13267429,0.18636522,0.19559473,0.112884074,-0.104453266,0.07228308,0.09327135,-0.025691777,0.063124776,-0.03279438,-0.07638333,-0.029113078,-0.055087518,0.023334462,0.10671373,-0.27174163,-0.010068579,-0.09580182,0.24850982,0.24428585,-0.7100951,-0.019433163,0.16180125,-0.09052187,0.14044677,0.71995103,0.29333076,0.028761081,0.04998356,-0.069636725,0.03842633,0.17306514,-0.06335945,-0.07886911,-0.016122827,0.15618709,-0.095215656,0.0072112735,0.066221416,0.14473258,0.012737183,-0.04492318,0.12325536,0.05363338,0.21870965,0.17575522,0.016823819,-0.033289686,0.115678675,0.117229804,0.1481928,-0.07284356,0.09086056,0.017584471,-0.103866205,0.18971542,-0.066519715,0.106610514,0.101508826,-0.21092546,-0.37136263,-0.19115594,0.049994048,0.059612673,-0.3363858,-0.15922058,-0.012137338,-0.09337291,-0.09017938,-0.14963998,0.26582387,-0.039957218,-0.11078528,0.077291176,-0.041896153,0.1823357,-0.058053922,0.052883435,0.06721633,-0.11192583,-0.18872277,0.16971363,-0.03191635,-0.25565186,-0.037790265,-0.11943448,-0.020748723,-0.24507634,-0.32071435,0.40669796,0.42646962,0.38577682,-0.27473378,0.17219716,0.45773637,-0.39842147,0.056613553,-0.112422444,-0.020446977,0.16794397,-0.28025144,-0.1624263,0.170243,0.0810982,-0.24599595,-0.43773484,-0.09328304,0.06506248,-0.012806123,0.119492255,0.0046129264,0.04059612,-0.13786112,0.12176469,0.1660772,0.08152364,0.124321185,-0.08971388,0.019860143,0.13009696,0.13937607,0.10510016,0.008462457,0.10225961,0.053591613,0.13558868,0.0037578042,-0.065711275,-0.061639823,-0.040738147,0.09780943,0.04703469,0.09264911,0.18546487,0.14965563,-0.012193303,-0.027025847,0.09881325,0.12313651,0.024534402,-0.19475502,0.07609465,0.24306372,-0.18664725,0.0716185,-0.156581,0.2574212,0.005505461,0.19965345,-0.064059705,0.15151365,0.33410704,-0.037350565,-0.05650091,0.19543065,0.37667274,-0.029707318,-0.15227376,-0.15732618,0.09812751,0.09517429,0.03406273,-0.06624614,-0.119672604,0.12457227,0.30632964,-0.09208683,0.1789384,-0.2235052,0.62662,-0.39895344,-0.47815347,0.615881,-0.109604806,0.48164365,0.49748364,-0.36378324,0.31169915,-0.18766382,0.24981572,-0.14645296,-0.20055062,-0.15195669,-0.044603083,-0.03667966,-0.06307819,-0.15506722,0.17501105,0.12461034,0.14215782,0.11255128,0.22479334,-0.14640942,0.2315959,-0.20546792,0.02927802,-0.21180667,0.24025369,0.021470549,0.104357295,-0.036602356,0.12932575,0.14702784,0.1226778,0.14640942,0.29822996,0.070615105,-0.014233176,0.13943663,-0.066890426,-0.10642648,-0.13214938,-0.13106173,0.13323703,-0.040270213,-0.30802226,0.09576751,0.02288142,0.45811784,0.11898883,0.18805455,-0.14618005,-0.04179292,0.19882227,-0.031215532,-0.054300886,0.07401453,0.10300038,0.35109317,-0.085706756,0.20393422,-0.17032586,0.1844653,-0.012296514,-0.10508342,-0.35962954,-0.37244755,0.16965711,0.21415734,0.07848002,-0.36398283,-0.25055563,-0.09952089,0.5417419,0.47160566,0.110827334,-0.06971299,-0.13313791,0.23785855,-0.1434165,-0.48780957,-0.05813447,0.26796877,0.012107569,-0.17642888,-0.09867442,0.029671857,0.071103625,-0.20650889,0.012632609,-0.20901583,-0.09581198,-0.06604211,-0.11155867,-0.25555083,0.10701485,-0.07089929,0.01407214,-0.19773461,-0.2348686,0.06141994,0.076970786,0.057659537,-0.12276154,-0.052214786,0.24567977,-0.019928185,-0.08523584,-0.15503836,0.09878896,-0.012191937,0.1012959,-0.016099233,-0.15026736,0.02111985,0.11619597,-0.040951904,0.020641526,0.13415152,0.18794459,0.17852528,0.2219424,0.039627314,0.17440434,0.059974488,-0.1330477,0.06924662,-0.048347533,0.051180683,0.16439633,0.08683423,0.264918,0.22518028,-0.16307174,0.027374858,-0.017422037,0.20030743,-0.13989142};

#endif
