#pragma once

#include "parameters.h"

#ifndef KERNEL24_H
#define KERNEL24_H

static float bias24[FEATURE_MAP24] = {-0.5326259,0.9412826,-0.67446053,0.08246371,-0.6478455,1.4675605,-0.039451122,0.38982186,-0.38377297,0.5569568,-0.24978718,-0.9007135,-1.1332576,0.6929501,0.5887247,0.4450429,0.37448192,0.9867537,0.9394053,0.57150286,1.7489974,0.17072135,1.7949373,-0.12794721,0.8613403,0.91413796,0.34909713,1.2563784,-0.184903,-1.1061538,0.065494165,1.1564163,1.1641841,0.34555453,-0.23381558,-0.4039247,0.93427575,1.854021,0.018183589,-0.17867929,0.054233253,1.7273678,0.65007484,-0.7946421,-0.006725654,0.30013952,-0.28152782,0.46901512,1.225993,0.053435106,0.67342126,-0.66086656,0.56356287,-0.33561957,0.50569063,0.90886384,0.86764467,0.24719185,0.525601,0.96791995,-1.858191,0.50222105,1.085383,1.18683,-0.008398294,1.055413,0.737928,1.529297,-0.20632952,0.4245492,0.38771585,-1.0385711,1.4014269,-0.30778116,-0.76597404,0.60812914,0.50920653,1.6140814,0.61974305,1.8477212,0.7443578,-1.6651349,-0.4046132,-0.95696676,1.1235929,-1.0709331,0.16086814,-0.21108356,0.3517926,0.9012407,0.21154985,-0.8421583,1.1629132,-0.36195767,1.3017597,-1.4699831,-1.9045904,0.50234926,0.95301366,0.7739781,0.5648135,0.12866808,1.1396778,-0.8331565,0.47945738,-0.09289342,1.4076546,-1.3866155,1.6272742,-0.3226137,-0.26456743,-0.40425134,2.33027,0.5497841,-0.5286349,0.7878673,-0.13528281,0.7436043,1.0320011,0.37912235,0.24754038,0.0850355,1.147088,-2.1354947,0.79926884,0.35232145,-1.2718486,0.75469315};

static float kernel24[FEATURE_MAP24][IN_CHANNEL24][KERNEL24][KERNEL24] = {0.029544385,0.020859422,-0.014229382,0.02477541,-0.022487853,0.012222923,-0.0132116135,-0.046449047,-0.06056211,0.03235537,0.075877115,0.012397398,0.037453905,0.051683288,0.012678497,0.033499144,0.09266546,0.044859387,-0.022022586,-0.083515234,-0.07134077,0.011243926,-0.02462032,-0.019783495,0.061919138,0.03937313,0.09289809,-0.021867499,-0.039198652,-0.014122759,-0.028167974,-0.03249107,0.06288844,-0.012106607,0.037744697,0.0024680903,-0.013822275,-0.14252646,-0.13136007,-0.061492644,-0.09088194,-0.21650374,0.02655893,-0.03357669,-0.09599987,-0.027586391,0.0051130783,0.08902088,-0.03363485,-0.012891743,-0.005127618,-0.06982866,-0.011922439,0.022856187,-0.065059684,-0.084523305,-0.024310144,0.05117925,-0.01154441,-0.008059762,0.0123198535,0.033014495,0.028788328,-0.015179301,-0.10034235,-0.006693044,-0.04055568,0.03817119,0.07607098,-0.050520122,-0.035127576,0.045363426,0.024290757,0.0051033855,0.026714018,0.037861012,0.051993467,0.033654235,-0.016245535,0.0011625589,-0.030978955,-0.01926007,-0.070914276,-0.098016016,-0.04827134,-0.08638437,-0.0010129226,-0.018630022,-0.0069838353,-0.007114691,-0.03233598,-0.0894086,-0.05749911,-0.06781251,-0.017137295,-0.029098505,-0.042106565,-0.051993467,-0.0153925475,0.038248736,0.028303677,0.01045879,-0.02368979,0.04924064,0.074093595,-0.08336014,-0.034875557,0.041796386,0.009164769,-0.09933427,-0.12531161,-0.051838376,-0.046953086,-0.08460085,0.14624858,0.087314904,0.09848128,0.041524984,-0.023767333,-0.058739822,0.008340861,0.019560555,0.09320827,0.0082196975,-0.069518484,0.019444238,-0.015799655,0.052148554,0.09530197,0.0014418396,0.105770454,0.043347273,-0.0136574935,0.03625197,-0.015780268,0.049473274,0.067734964,0.043851312,0.017050058,0.07006129,0.12120177,0.032898176,0.17556034,0.1747849,0.03150238,0.029583158,-0.021693023,-0.060213163,0.010991907,-0.0012407091,0.06777374,0.07203867,0.0139676705,0.070797965,0.07099182,0.030862639,0.06393529,0.06676566,0.11367997,0.021247143,0.09731812,0.036872324,-0.022274606,0.0050743064,-0.039935324,-0.0134345535,0.02403874,0.12717268,0.007260087,0.021072669,0.017999975,0.0053360183,-0.07254271,-0.0001659933,-0.008462024,0.014907896,-0.048038706,-0.02413567,-0.04412272,-0.019531475,-0.020529859,-0.07514045,-0.044587985,-0.031386063,-0.091269664,-0.074830264,0.039334357,-0.0043473286,0.038907863,0.0941388,0.007226161,0.06335371,-0.028555695,-0.015693031,0.018542785,-0.017815808,-0.048697833,-0.007691427,0.021499163,0.030300442,0.012067835,0.055986997,0.027450688,0.005825517,-0.048310112,-0.0014951514,0.009600956,-0.0033901406,-0.059437722,0.0067899744,-0.039140496,-0.023903036,0.050752755,-0.06459442,0.0032083963,0.060639657,0.017777035,-0.008088842,-0.018193835,0.033731777,0.042145338,-0.02611305,0.04199025,0.01077866,-0.012523407,-0.024019353,-0.035205122,-0.038345665,-0.04598378,-0.042416744,-0.09677531,0.08537629,0.023069434,0.033693008,-0.07362833,-0.04237797,-0.012474942,-0.033111423,-0.028768942,0.052691363,-0.020646175,-0.010817433,0.034255203,0.09398372,0.17788666,0.054707516,0.0508303,0.033693008,0.054707516,0.07940538,0.12065896,0.054009616,-0.08522121,-0.023030663,-0.005898215,-0.074830264,-0.010274623,0.0070953052,0.002675279,-0.013667186,0.082507156,-0.104762375,-0.068239,-0.15795778,-0.037550837,-0.07692397,-0.059243858,-0.021770567,-0.017205145,-0.047689755,-0.051605742,-0.019492703,0.016691415,0.029680088,-0.04168007,-0.016429702,-0.0054668747,-0.061841596,0.0018865078,0.045479745,0.04431658,-0.00054644514,0.0020743106,0.025104973,-0.000504341,0.030145355,0.0072019286,0.025240676,0.03555407,-0.05532787,0.004325519,0.03970269,0.037550837,0.015993515,0.047340807,0.012775427,0.043153413,-0.04827134,0.008728582,-0.01320192,-0.072310075,-0.049899768,-0.075373076,-0.012523407,-0.065447405,-0.007783511,-0.029137278,0.04509202,0.12631969,0.007579957,0.028982189,0.034313362,0.0009808145,-0.06451687,0.00913569,0.05602577,0.06440055,0.065447405,0.023747947,-0.006285936,-0.0064167925,0.036465216,-0.002403874,0.0053650974,-0.010924056,-0.033150196,-0.0054765674,-0.045867465,-0.03605811,-0.01256218,0.066726886,-0.004417603,-0.03452661,-0.012397398,-0.06552495,-0.06230686,-0.14717911,-0.10747643,-0.07529553,-0.061492644,-0.14935036,-0.043851312,0.014452322,0.0235347,0.026287524,-0.014326313,0.018310152,-0.013134069,-0.056491036,0.023011276,-0.02462032,0.036368284,0.030009652,0.093053184,0.02091758,0.12438109,0.119263165,-0.07126323,-0.08529875,-0.02413567,0.04381254,-0.06498214,-0.08359277,-0.036852937,0.011408708,-0.04896924,-0.071418315,-0.08894333,-0.006523416,-0.031308517,-0.050675213,-0.0722713,0.036155038,-0.044432893,-0.060794745,0.060523342,0.04416149,-0.006106615,-0.030222898,0.023476543,0.063431256,-0.06397406,0.084523305,-0.07599343,-0.03960576,0.019357001,0.048814148,0.013667186,-0.05241996,-0.04292078,0.036562145,0.0042843237,0.031366676,0.035961177,-0.028109815,-0.014597718,0.015373161,0.0055008,0.01135055,0.030959569,0.049279414,0.076768875,0.0028594467,-0.0477673,0.027857797,-0.009547644,-0.020006435,0.042067792,0.006038764,-0.0069111376,-0.014209996,0.067463554,0.035961177,0.041020945,0.0048029013,0.039819006,0.04935696,0.0047059706,-0.026714018,0.05939895,-0.07963801,-0.055405416,-0.08367032,-0.022526624,0.03274309,-0.019008052,-0.039140496,-0.04001287,0.021886883,0.010575106,0.022914346,0.0969304,-0.019289149,-0.016962819,0.0074975663,-0.020297226,-0.027256828,-0.00518093,-0.045518514,0.0107592745,-0.043192185,0.025046814,0.084135585,0.10546027,0.069014445,0.07917275,0.09398372,0.0069692954,0.029563772,0.03382871,-0.0011468078,-0.050946616,-0.09095949,-0.09778339,-0.14578332,-0.13143761,-0.02630691,-0.009290779,-0.10468483,-0.042998325,-0.09468161,-0.097395666,0.032723702,-0.08149908,-0.0135217905,-0.008350554,-0.016109832,-0.010487869,-0.020743106,-0.10111779,-0.11305962,-0.018523399,-0.09289809,-0.039024178,-0.0046090405,0.022972504,-0.010294008,0.015925664,0.0922002,0.06509846,-0.049628362,0.07719537,-0.033615462,0.009760891,0.0067172768,-0.014820658,-0.030436145,-0.072077446,-0.022487853,-0.004715664,-0.060407024,-0.0069402163,-0.09987708,-0.026888492,0.01342486,0.04346359,0.06350879,0.11484314,0.06292722,0.05114048,0.0832826,0.026617087,0.110112935,-0.027121125,-0.05711139,-0.035592843,-0.050481353,-0.060523342,0.05114048,-0.010022603,-0.0031114658,0.011922439,0.033208355,0.047650985,0.029292366,0.1310499,0.04974468,-0.0011086414,-0.028633239,0.0011916381,-0.0062229317,-0.013376395,-0.017592868,-0.0010056528,0.01597413,-0.0005803708,0.08475594,0.0026607395,0.017127601,0.011379628,0.047689755,-0.022875573,-0.10623572,-0.018843269,-0.036232583,-0.10390939,-0.12197721,-0.0839805,-0.017447472,-0.096232496,-0.013754424,0.10592554,0.12670742,0.05722771,0.050675213,0.054319795,-0.027567005,-0.020743106,-0.0018453124,-0.0026583162,0.048891693,0.058158237,-0.0070419936,-0.02037477,-0.040284272,-0.08219698,-0.059321404,-0.06478828,-0.04168007,-0.07669133,-0.046255186,-0.12554425,-0.13748607,-0.017970895,-0.04745712,-0.014849737,0.04617764,-0.024368303,-0.012038755,-0.0044006403,0.05455243,0.035457138,-0.018455548,0.023961194,0.029369911,-0.07025515,-0.036600918,-0.03658153,-0.08708227,-0.04896924,-0.0642067,-0.090261586,-0.033053264,-0.097007945,-0.09142475,0.022778643,-0.0097560445,-0.065176,0.05114048,0.04648782,0.09212265,0.015411933,0.079056434,0.09095949,0.026927264,0.05761543,0.040478133,0.032025803,0.021751182,-0.04199025,0.014820658,-0.020781877,-0.04040059,0.009053299,-0.018978972,0.036465216,0.053272948,0.06370266,-0.012620338,0.048503973,0.053776983,0.009067839,0.046797995,-0.012833585,-0.004427296,-0.1044522,-0.038985405,-0.053815756,-0.02650077,-0.083747864,-0.05009363,0.038849704,-0.019715643,-0.09437144,0.060213163,0.057033848,0.028167974,0.012726962,0.0037536297,0.024659093,-0.039780237,-0.07153463,-0.075373076,0.06502091,0.023030663,-0.047146946,0.05207101,0.037802856,0.04904678,0.08087873,0.12701759,-0.004987069,0.06816146,0.08157662,0.12065896,0.021925656,-0.013337622,0.03791917,0.014035522,0.1098803,0.052303642,0.015344082,-0.010061376,0.07711782,0.02764455,-0.0501324,0.03654276,0.0023760065,0.023108207,0.0637802,0.052342415,0.036484603,0.011234233,-0.038830318,0.06032948,-0.007376403,-0.013890126,0.025337607,-0.017050058,0.0484652,0.123217925,0.10600308,-0.017806115,0.10367675,0.04815502,0.06292722,-0.017592868,-0.028303677,0.011844895,0.030533075,0.034100115,0.07510167,0.07684642,0.02037477,0.011156688,-0.03753145,-0.028012885,-0.031289134,0.009659114,-0.004083193,0.0069014444,0.072193764,0.049279414,0.03322774,-0.000939619,0.023263296,0.010594493,-0.014394164,0.017515322,0.0628109,0.07122446,0.10429711,-0.07273657,-0.043773767,-0.014403857,-0.05420348,0.0028206746,0.036620304,-0.06645548,0.033169582,0.0060726893,-0.060794745,0.028962802,0.060058076,0.009596109,-0.029272981,0.08762508,-0.016264921,0.011466866,-0.031967644,-0.03140545,-0.014462016,-0.05746034,-0.10662344,-0.10243604,-0.063043535,0.0016223725,-0.0024172019,-0.019492703,-0.0090872245,-0.085686475,-0.005583191,-0.07184481,-0.06319862,-0.042145338,-0.09995463,-0.12694006,-0.009038759,0.0661453,-0.0014757654,-0.04059445,-0.016623564,0.019890118,-0.068626724,0.028051658,0.0006264127,-0.026248751,-0.051954694,-0.034584764,0.013289157,0.014936974,-0.040245503,-0.0022184944,-0.029932108,-0.036484603,-0.0103133945,-0.014287541,0.1433019,-0.040827084,0.019153446,-0.03154115,-0.06676566,0.056878757,-0.011786737,-0.06126001,-0.012329547,0.008840052,0.0057188934,-0.047418352,0.018872349,-0.03382871,0.017001592,0.024697866,-0.07188358,-0.0077301995,0.05544419,0.13461694,-0.009615496,-0.017554095,0.07707905,-0.015915971,-0.030571848,0.059166316,-0.034817398,-0.08343769,-0.021983813,-0.03956699,-0.041059718,-0.040478133,-0.006634886,-0.0029709167,-0.0318901,-0.06955726,-0.17307892,-0.09755075,0.03855891,-0.082352065,-0.059902985,-0.018552478,-0.05544419,-0.003123582,0.010846511,-0.009116304,-0.046565365,-0.08142153,0.026830334,0.056180857,0.04827134,0.041602526,0.0614151,0.036562145,0.052342415,-0.034449063,0.009925673,0.012329547,-0.048387654,0.002963647,0.0026316603,0.0052924,-0.102591135,-0.10065252,0.03881093,-0.06641671,-0.09948936,-0.014239076,-0.017428085,-0.06029071,-0.01728269,0.012281082,0.0052536274,0.05889491,0.00019098318,0.028400607,0.023747947,0.041796386,0.039741464,0.0501324,-0.084523305,0.06936339,0.0037996715,0.051838376,-0.016410317,-0.010264929,-0.058972456,-0.0015496748,-0.034197044,0.06618407,0.032840017,-0.0008487468,0.08537629,0.056878757,0.048193794,0.03233598,0.0055395723,0.0031817404,-0.009906286,-0.010739888,0.006126001,-0.07948293,-0.044239033,-0.07680765,-0.041059718,0.029001575,-0.0583521,0.074481316,0.12694006,0.07056533,-0.02027784,-0.0032083963,0.03313081,-0.024930498,0.07870749,0.049628362,-0.12298529,-0.08894333,-0.096852854,-0.043037098,-0.050869074,0.02640384,-0.03190949,-0.039198652,-0.0010238274,0.026016118,-0.08359277,-0.09095949,-0.017457165,-0.073860966,-0.13934714,-0.095457055,-0.07134077,-0.061686505,0.07234885,0.032219663,-0.0008366305,-0.02471725,0.07215499,0.00088327826,-0.024193827,-0.042843238,-0.008525029,-0.04699186,-0.09786093,-0.020801263,-0.050520122,-0.082507156,-0.011069451,-0.018261688,0.03479801,0.013541177,-0.06692075,0.0027116279,0.080180824,-0.06347003,0.02764455,0.013192227,-0.05210978,0.04144744,0.007066226,-0.044859387,-0.025492694,0.054668743,0.06226809,0.054164708,0.020995125,0.03580609,0.016759265,0.05602577,0.0018210799,-0.08878824,-0.060019303,-0.107166246,-0.08917597,-0.098791465,-0.024542777,-0.02675279,-0.07797081,0.0076090363,-0.014083987,-0.027373144,0.12523407,0.09933427,0.010894977,0.0020149406,-0.026074277,-0.00063731737,-0.016313385,-0.03070755,-0.04524711,-0.0098917475,0.00080209906,-0.050946616,0.00935863,0.015557329,-0.0037972482,-0.02828429,0.019657485,-0.00573828,0.051993467,-0.016846504,-0.052923996,0.06513723,-0.00019446661,0.035437755,0.06490459,0.00041377163,-0.011825508,0.029253595,-0.037104957,-0.02101451,-0.027760865,-0.09568969,-0.07831976,-0.037822243,0.036038723,-0.020801263,-0.049395733,0.022759257,-0.008054916,0.025473308,0.036019336,-0.034623537,0.06564127,-0.023515314,-0.07072042,-0.09576723,-0.013240692,-0.053621896,-0.058662277,-0.07300798,0.0076865805,0.08041346,-0.024639707,0.018736646,0.03631013,-0.011495945,-0.0072358544,0.0675411,0.07948293,0.0522261,0.046022553,0.026733404,0.12135686,0.009116304,-0.014704341,0.12228739,-0.012474942,-0.0042455513,0.017020978,-0.022429693,-0.10390939,-0.14787702,-0.0088012805,-0.03456538,0.002517767,0.011418401,0.013289157,0.068239,-0.049318187,0.008520182,-0.003198703,-0.01109853,0.0069644493,0.019841652,0.10910486,0.075489394,0.048038706,-0.03861707,0.019676872,-0.073201835,-0.0036276202,0.06765742,0.013143762,-0.0642067,-0.03516635,-0.010991907,-0.021964429,-0.095612146,-0.009276239,0.001018375,-0.05850719,-0.07389974,-0.028788328,-0.026772177,-0.04311464,0.0066881976,-0.06490459,-0.11119855,-0.039625145,-0.0409434,-0.05315663,0.0065573417,0.021867499,0.0099547515,0.012397398,0.033906255,0.037550837,-0.015702724,-0.0010619937,0.05947649,-0.016313385,0.016652642,0.079056434,-0.010487869,-0.057382796,-0.030125968,0.021925656,-0.07940538,-0.04935696,-0.009857821,-0.045557287,0.008980601,0.0022257643,0.089873865,0.1037543,0.011854588,0.11375751,0.03921804,0.017680105,0.041176032,0.055405416,0.006029071,-0.061802823,-0.023767333,0.007579957,-0.07300798,-0.09320827,0.017069444,-0.056180857,0.0125427935,-0.016274614,0.008806127,-0.008088842,-0.0071583097,-0.023844877,-0.033789936,-0.065214776,0.008990294,-0.016109832,-0.027314987,-0.03811303,-0.029796405,-0.010526641,-0.013919205,0.015634874,0.019870732,0.052652594,0.0128529705,0.0094701,0.06854918,0.051760834,-0.02225522,0.054707516,0.011088838,-0.06412915,0.053970847,0.016798038,-0.08134399,-0.055715594,-0.024213213,-0.018290766,-0.09398372,-0.07886257,-0.101040244,-0.07293043,-0.13888188,-0.014704341,0.03408073,0.009082378,-0.0013206766,0.008394172,0.00016690203,-0.011728578,0.022778643,0.10980275,0.025705941,0.0052439347,0.031676855,-0.034003183,-0.06312107,0.017922431,-0.0080209905,-0.04629396,0.033363443,0.0050936923,0.022235833,-0.0023081552,-0.005321479,-0.0272956,-0.026772177,-0.09460407,-0.023844877,-0.03243291,-0.03467693,-0.023969911,0.027182018,-0.034659665,-0.011579125,-0.015214331,-0.036818337,0.0741893,0.031033091,-0.014005475,-0.03709465,-0.07087357,-0.040859375,-0.10762283,-0.04344978,-0.044796795,-0.060615554,-0.10071508,-0.004546167,-0.011492779,0.04009952,0.06862855,0.034348816,-0.02543781,0.007499232,0.026370358,-0.040306754,-0.07536361,0.04275901,0.059786625,0.064898364,0.017191676,0.03643841,0.0147221545,0.010758829,-0.024626149,-0.03389981,0.040617604,-0.029530656,0.006730744,0.072393276,0.0077021476,0.025334194,0.035989407,-0.013539201,-0.081787825,-0.057058062,0.002527807,-0.010456615,-0.016483631,0.019030867,0.0054484922,-0.01555972,-0.041342918,0.066625305,0.022588361,0.012520307,0.056747213,-0.00079709024,-0.047007278,-0.028114565,-0.01285706,-0.036818337,-0.038545277,-0.0015304995,-0.008544031,-0.054916658,-0.03730188,-0.046765506,0.021880316,-0.012675731,-0.03985775,-0.06400035,0.04203369,-0.057299834,-0.031257596,-0.03445243,-0.10907346,-0.06462205,-0.08296215,-0.058405075,-0.03895974,-0.031015823,-0.016043263,-0.051704552,-0.033571694,-0.03307088,-0.07266959,0.020516034,-0.038199887,-0.028580839,0.016336842,0.029755156,0.029219806,0.090560675,0.044209637,0.012252632,-0.008785802,0.0009935296,-0.052326247,0.04244816,0.0435534,-0.050737467,0.007430155,0.13463216,-0.06914663,-0.032863647,0.03654203,0.02315825,-0.035816714,-0.03560948,0.0073783463,0.065554604,0.017174408,0.025938623,0.0067609656,0.055123888,0.035540402,0.004403694,0.004502993,0.0059449873,-0.038510736,0.02935796,-0.05622913,-0.055296585,-0.035954867,-0.0018985535,-0.014558095,-0.063171424,0.0024522531,-0.024833381,-0.07605439,-0.013021119,-0.0769524,-0.11529044,-0.0118208965,-0.035782173,0.084412776,0.027337443,0.07142619,0.0960178,0.09809013,0.06552006,0.071357116,-0.07916288,-0.005513252,0.0008537554,-0.041481074,0.027233826,0.06355135,-0.021793969,0.06624538,0.035022322,-0.009791744,0.02628401,-0.015766952,0.039685056,0.026335819,-0.007719417,0.010681117,0.024988806,-0.00431303,0.019410793,0.0033178814,0.04745628,0.038925204,0.108935304,0.08897189,0.039719597,0.062549725,0.059855703,0.040513985,0.0543295,0.033744387,-0.0011484143,-0.018219205,0.038545277,0.025904084,-0.017649315,-0.020705998,0.020982308,0.008323845,-0.022691976,0.03809627,0.026422165,0.01116466,0.051566396,0.046281964,0.06997556,0.0695611,0.025196038,0.028477222,0.0543295,0.094014555,-0.022588361,0.071357116,0.021517659,-0.030411394,-0.08579432,-0.046661887,-0.029789696,-0.017614776,-0.011492779,-0.040064983,0.02688844,0.02795914,-0.024574341,0.08144244,0.05339695,0.061444487,0.08109705,0.042275466,0.029167999,0.03053228,-0.0015920218,-0.023400022,0.055780128,0.026767554,0.0045159454,0.011138756,0.002560187,0.025247846,0.01725212,0.057299834,0.043898787,-0.014471748,-0.048147056,0.017062156,0.009316836,-0.01581876,-0.026681205,-0.00062763435,-0.055607434,-0.051048312,0.00020709775,0.04469318,0.0098090125,0.10631036,0.06817955,-0.011199199,0.07315313,0.049355913,-0.019169021,-0.0028624013,0.022139357,0.018633671,-0.02144858,0.009187315,-0.029167999,-0.0469382,-0.039719597,-0.0057852454,-0.06945748,-0.036300257,0.009342739,-0.024246221,-0.0041122735,-0.0025429176,-0.006778235,-0.024487993,0.08282399,0.032345567,-0.0032315345,0.037440035,0.023020096,0.054122265,0.0064501166,-0.062342495,-0.021137733,-0.038890664,-0.050841082,-0.052084476,0.011976321,0.039374206,0.007175431,-0.010128496,-0.00818569,0.004861333,0.0109315235,0.04179192,-0.0024090798,-0.006830043,-0.02716475,0.07460376,0.008315211,0.016509537,-0.0060831425,0.0074603762,-0.0067091575,0.054398574,0.0005823022,-0.013418315,0.04831975,-0.052119017,-0.020982308,-0.06251519,-0.017554333,0.09815921,0.08413646,0.070217334,0.12150742,0.08199506,-0.0022968287,0.038199887,0.026214933,-0.03279457,-0.011665472,0.013452854,0.011216468,0.0070156893,-0.011829532,0.02711294,0.009869455,0.016181417,-0.0041791922,0.056678135,0.044796795,-0.025420541,0.08040628,0.04438233,0.024816113,0.038614355,0.07080449,-0.007132258,-0.014523556,0.058646847,0.09781382,0.027769178,0.037163723,0.08869558,0.05122101,0.039754134,0.03139575,-0.06935386,-0.080751665,-0.13594463,-0.042310003,-0.045694802,-0.046730965,0.066210836,0.024712496,0.013202447,0.04099753,-0.008695138,-0.025852276,-0.026715744,0.01922083,-0.0057032155,0.01427315,-0.008250451,-0.050461154,0.011993591,-0.012459864,0.026370358,0.075639926,0.0043410924,-0.024194414,0.048837833,0.06928479,0.026992055,0.029427039,0.043967865,0.026715744,0.10292556,0.04265539,0.0486306,0.01920356,0.031862024,0.012485769,0.032017447,-0.017977433,-0.016207322,0.004287126,-0.037370957,-0.027475597,0.01059477,-0.06248065,0.021742161,0.014445844,-0.02688844,-0.0132369865,0.03250099,-0.018840903,-0.026042238,0.0036805386,-0.06931933,-0.060615554,-0.06900848,-0.047318127,7.7037665e-05,0.0486306,0.05004669,0.039166976,0.078195795,0.1000243,0.034089774,-0.07225513,-0.0978829,-0.08931728,-0.09905721,-0.12509945,-0.12026402,-0.03895974,-0.08945543,-0.08904097,0.021327695,0.0570926,0.061789874,0.050702926,0.072393276,-0.023607254,0.052982487,0.04866514,0.06261881,0.015896473,0.020861423,0.078195795,0.01765795,0.06793778,0.0763307,0.025386002,0.0136341825,0.01681175,0.041170225,0.018184667,-0.0039115166,-0.013746434,0.02567958,-0.012408056,-0.031015823,-0.029893313,-0.023417292,0.07999181,-0.036265716,0.09069883,0.06451844,-0.007222922,0.04158469,0.033485346,0.01397957,-0.05733437,-0.025247846,0.017027618,-0.03871797,0.015292044,0.060650095,0.04842337,-0.022847401,0.0012908868,-0.0033114054,-0.012218093,0.002249338,0.09802105,-0.02543781,-0.044036943,0.027665561,0.019289907,-0.025541427,-0.04206823,0.024764303,0.050081227,0.009040525,0.060339246,0.046040192,-0.017355736,0.0062990095,0.052326247,0.08275491,0.04997761,0.046661887,-0.010223478,0.017122598,0.040479448,0.07377483,0.0831003,0.026456704,0.028926227,-0.0689394,-0.12986581,-0.04234454,-0.038821585,-0.049045064,-0.0183919,-0.03982321,0.038510736,0.067488775,-0.072186045,-0.074811,0.023572717,-0.017942894,0.006290375,-0.005880227,-0.002909892,0.004809525,-0.024211684,-0.0017161455,-0.06797232,0.002057216,-0.011337354,-0.08386015,0.009653589,-0.112389185,-0.05284433,-0.022691976,-0.023071904,-0.08676141,-0.0007819795,0.027907332,0.043967865,-0.0020075664,0.06182441,0.093116544,-0.012321709,0.012960676,-0.01214038,-0.068317704,-0.024971537,0.036334794,0.059613932,0.0036352065,0.07308406,0.023020096,0.012969311,-0.0072099697,-0.012926138,-0.012062668,-0.03709465,0.03134394,0.069422945,0.05028846,0.03871797,-0.015214331,-0.01414363,-0.051808167,-0.043622475,-0.017908357,0.015343852,-0.018046511,-0.06417305,0.027043862,0.010845176,-0.01456673,-0.010542962,0.0050167576,-0.05595282,0.008716724,-0.08786665,-0.097399354,-0.04531488,0.016734038,-0.011389162,-0.008988717,-0.026767554,-0.014178168,0.0059018135,-0.02711294,-0.05315518,0.0035272727,0.029617002,-0.018996328,-0.060788248,-0.060028397,-0.057472527,-0.046523735,-0.036127564,0.0048829196,0.032604605,0.071080804,0.033174496,0.056367286,-0.016673595,-0.03336446,0.01653544,-0.057852454,-0.069422945,0.0040755756,-0.0310849,-0.036507487,-0.04320801,0.045383953,0.027544675,0.02856357,0.038338043,0.039408747,0.029219806,-0.008733993,-0.042275466,0.008859197,0.0109315235,0.03360623,-0.016898097,0.009636319,-0.020429688,0.015931012,0.03307088,0.010309826,-0.04669643,0.045107644,0.04807798,-0.030704973,-0.0006767442,-0.011907244,0.04859606,-0.0068688993,-0.0547785,0.038130812,-0.032103796,0.010197574,-0.023486368,-0.05429496,0.018564593,-0.061858952,-0.03761273,-0.070493646,-0.0041576056,0.0435534,-0.020308802,-0.06569275,0.02004976,0.06151356,-0.041481074,-0.01653544,0.0075035496,0.037716344,-0.025524156,0.04244816,-0.025558695,-0.04044491,-0.04749082,-0.08462001,-0.00328766,-0.06517468,-0.025196038,-0.0154474685,0.022553822,-0.015741048,0.054709423,0.05819784,-0.0015553243,-0.044485945,0.0151193505,0.035229553,-0.026957516,0.065347366,0.010266651,-0.008073439,0.03305361,0.034297008,-0.11556675,-0.051082853,0.059544854,0.022502014,-0.1181917,-0.009817648,-0.050115768,-0.05229171,-0.044589564,0.02203574,-0.021517659,-0.05847415,-0.03279457,-0.029599734,-0.07253143,-0.07184066,-0.026076777,-0.09373824,0.023555446,-0.008427462,0.03332992,-0.022432936,-0.022122087,-0.019842528,-0.060304705,-0.04531488,0.037992656,-0.032293756,-0.024522532,0.08303122,-0.018789096,-0.009377278,-0.03389981,-0.00044630578,-0.049632225,-0.04351886,-0.01624186,0.04103207,0.030273238,0.0015790698,-0.046834584,-0.008004362,0.07612347,-0.015568354,0.019963413,0.030601358,-0.03902882,0.035678558,-0.049908534,-0.08171875,-0.0938764,-0.08489632,-0.12903687,-0.17932534,-0.05546928,-0.038199887,0.024747035,-0.029271614,-0.049666762,-0.012036764,0.02089596,0.052222632,0.05733437,0.005832736,-0.0010901302,0.018720018,0.033761654,0.05305156,0.0260077,-0.023382753,0.027009325,0.020395149,0.057990607,0.00185538,-0.055607434,0.08455093,0.041930076,-0.0025580283,0.044762257,-0.0057420717,0.010672483,-0.034815088,-0.028908957,-0.09622504,0.011933148,-0.08537986,-0.0044727717,0.0058025145,-0.062031645,4.18243e-05,-0.007248826,-0.028805342,0.021604005,-0.040686682,-0.04407148,-0.08254768,-0.029806966,-0.060857326,-0.06213526,0.013729164,0.075639926,0.025783198,-0.017770201,-0.020153377,0.043346167,-0.04973584,0.031292133,-0.0014927228,-0.014618537,0.00862606,-0.0028192278,0.050944697,0.09926445,0.09753751,0.017925626,0.067247,0.12896779,0.006368087,0.046420116,0.0027803716,0.022519283,0.073912986,0.031620253,0.00833248,0.028356336,0.06189349,-0.0033783242,-0.036921952,0.0017841437,-0.0045245797,0.015007099,0.021638544,-0.020308802,-0.024695227,0.010957427,0.009757205,-0.015024369,0.0004322744,-0.017303927,-0.05256802,-0.067488775,-0.010836542,-0.07785041,-0.05546928,0.0110955825,-0.01611234,0.040583063,-0.0010172749,0.022191165,-0.033450805,0.010387537,-0.01598282,0.00032218205,-0.03978867,-0.03250099,-0.036023945,-0.022484744,0.040617604,0.041722845,0.0031689329,0.06486382,0.09470533,-0.017891087,-0.019065406,0.00064706244,0.032138333,-0.013875954,-0.01870275,0.0045720707,0.017977433,0.034935974,-0.035747636,-0.00849654,-0.027199287,-0.050115768,-0.024125336,0.005603917,-0.07322221,-0.018754557,0.019946145,-0.019169021,0.0547785,0.065347366,0.015361122,-0.0024026039,0.032380104,0.025610505,0.00847927,0.043104395,-0.035505865,-0.077297784,-0.025904084,-0.03187929,-0.067488775,-0.07142619,-0.018789096,-0.09995522,-0.096984886,-0.08917913,-0.049528606,-0.08358384,-0.050426617,-0.032086525,0.029617002,-0.0033588961,0.048285212,0.059993856,0.005163547,0.034901436,-0.016215956,0.023296406,0.086070634,0.01710533,0.017735662,0.06976833,0.024367107,-0.037958115,-0.057161678,0.00010078307,-0.030066006,-0.006778235,0.0119849555,-0.026957516,-0.019358985,0.016604517,0.0026271057,-0.01865094,0.036507487,0.004358362,0.07867934,0.09581057,0.074534684,0.13822418,0.0790938,-0.022363858,0.013729164,0.013746434,-0.040306754,0.0022536553,0.053500567,-0.035471324,0.016362745,0.013755068,-0.023520907,-0.005819784,-0.036127564,0.03282911,0.00797414,0.003015667,0.0037755203,0.014178168,0.018737286,0.01484304,-0.011285545,0.055745587,-0.031499367,-0.04158469,0.02968608,-0.030964015,-0.00081921666,0.015110715,0.04842337,0.03453878,0.05056477,0.049770378,0.052153554,0.021414042,0.042171847,-0.016837655,0.061548103,-0.027924603,-0.01074156,-0.013625548,0.043657016,-0.01681175,0.00805617,-0.0065450985,0.0018186825,0.036196638,0.032017447,0.024125336,0.036507487,0.0114582395,0.05515843,0.07405114,0.027803717,0.026957516,-0.023106443,-0.05937216,-0.106448516,-0.00088505616,-0.023486368,-0.023866296,-0.06476021,0.04210277,-0.019566217,-0.028701724,0.036507487,0.05004669,0.04331163,-0.0028343385,0.031551175,0.020291531,-0.015257505,0.02628401,0.006320596,0.07854118,0.016595883,0.0064976076,0.024988806,0.015533815,-0.034107044,0.0032531212,0.05881954,-0.03702557,0.023987181,0.010283921,-0.003015667,-0.005422588,-0.11052409,-0.034556046,0.044727717,-0.09187315,-0.053258795,-0.044831336,-0.05391503,-0.0075424057,-0.0046411483,-0.03757819,-0.070217334,-0.04918322,-0.07211697,-0.049839456,0.017390275,-0.062411573,-0.0009077223,0.0033545787,-0.00642853,0.003637365,0.0049045063,0.03084313,0.00068969623,0.015637431,-0.007382664,0.023037365,0.002797641,0.051566396,0.018599132,-0.020222455,-0.037267342,0.0026227885,0.04600565,0.008578569,-0.005871592,0.038579814,-0.016759941,-0.07702147,-0.07771225,-0.031223055,-0.03764727,-0.021103194,0.0014096139,-0.01355647,0.018322822,-0.009144141,0.003207789,0.035989407,0.0015251029,-0.008859197,0.032898188,0.041342918,0.027182018,0.017260754,0.025541427,0.02940977,-0.06793778,0.018547324,-0.041481074,-0.01357374,-0.06507106,-0.047663514,0.056436364,0.03899428,0.038372584,0.09898814,0.10582682,0.119020626,-0.047594436,0.016924001,0.012174919,-0.022398397,-0.09795197,-0.0560219,-0.0183919,-0.10852084,-0.053949572,-0.0023788584,0.07460376,0.071288034,0.052982487,0.046489194,0.06741969,0.017683854,-0.012598019,0.017424814,-0.016276399,-0.06306781,-0.014324958,-0.008867831,-0.07349852,-0.03503959,-0.038648892,-0.03414158,0.004207255,0.08040628,-0.008172738,-0.04918322,-0.04690366,0.011708646,0.041688304,-0.047214508,-0.011674107,0.06044286,-0.067488775,-0.13034935,-0.13242167,-0.049528606,-0.15735868,-0.11750092,-0.0520154,-0.12903687,-0.13200721,0.012425326,0.02940977,0.083721995,0.011933148,0.081373364,-0.025299655,-0.01679448,0.03079132,0.0027717368,-0.019410793,-0.07329129,-0.0005056693,-0.03671472,0.00054479524,-0.083307534,-0.037163723,-0.04434779,-0.028667185,0.009273662,-0.016759941,-0.06410397,0.032949995,0.023797218,0.02828726,0.00678687,0.051497318,0.06375858,0.028891688,-0.012969311,0.024971537,0.044485945,0.004787938,-0.007861889,0.017018983,0.0068084565,0.022242973,-0.05678175,-0.0701828,-0.06527829,-0.09373824,-0.03809627,-0.07957734,-0.03985775,-0.02319279,-0.046523735,-0.065140136,-0.07184066,-0.07363667,-0.0372328,-0.0041101146,-0.009480895,0.051324625,0.055987358,0.031862024,0.058957692,-0.014454478,-0.05850869,0.04749082,-0.005206721,-0.06248065,0.030186892,0.050219383,-0.029427039,0.020982308,0.029427039,0.03332992,0.0047447644,0.065347366,-0.004874285,-0.032880917,0.01870275,0.061789874,-0.018355982,-0.019128436,-0.09545924,0.06423577,0.032300837,0.029495602,0.047851585,0.016617958,-0.031934936,-0.03675262,-0.057527605,-0.0725295,-0.07378983,0.0030618713,0.024332348,-0.119852565,-0.09797988,0.035675246,0.042119153,-0.03463853,0.021608425,0.07492818,0.017918935,0.016109763,-0.06525216,-0.014696982,-0.054275163,0.07468425,0.04057424,0.044477172,0.08391306,0.014686818,0.05155124,-0.0027061352,-0.016983857,0.02595857,0.022157276,0.11139621,0.035410985,0.06386987,0.17546937,-0.00596112,-0.015479601,0.045940775,0.08537666,0.018813357,-0.08480748,0.0018955651,0.017746149,-0.035126396,0.03453689,0.018549096,-0.026060209,-0.004177358,0.027015613,-0.020642856,-0.05301484,-0.05053485,-0.119852565,-0.05081944,-0.07289541,-0.11050179,-0.0988743,-0.066105925,0.030308714,0.016089434,0.06663445,0.031873953,-0.03772835,0.08025406,0.052526973,0.053543363,0.040106703,0.08118914,0.06309742,0.10578574,0.030511992,0.028316593,-0.025369065,-0.06484561,-0.07427769,-0.07452162,-0.06439839,-0.04075719,-0.05447844,-0.14839277,-0.037708025,0.0018663439,-0.023641203,0.01087536,0.075050145,0.043826684,-0.057324328,-0.02421038,-0.088873036,-0.026893647,0.026934303,0.056999084,-0.025186114,0.01827467,0.045087006,-0.0103925755,0.021242525,0.028519869,-0.040411618,0.068667226,0.0655774,0.10578574,-0.014707146,-0.061999716,-0.006235545,-0.011251424,-0.051022716,-0.016424842,5.3201602e-05,-0.10123233,-0.03006478,0.005996694,-0.037809663,-0.024393331,-0.01453436,0.00049390143,0.1171693,0.025999226,0.006616691,-0.04020834,-0.043460786,-0.030146092,0.04577815,0.075294085,0.011342899,-0.07777407,0.01915893,-0.025795948,-0.04077752,-0.17189167,-0.12123486,-0.19270732,-0.04825814,-0.016058942,-0.061999716,0.087165505,0.098142505,0.097004145,0.07114722,-0.05764957,-0.037077863,0.03772835,-0.06736625,-0.070130825,0.038622774,-0.0068504605,-0.09602841,0.011342899,-0.09342646,-0.10505395,-0.046103396,-0.15644257,-0.15587339,-0.0020810561,-0.05675515,-0.07720489,0.0074653756,-0.039862767,-0.02971921,-0.07866849,-0.03474017,0.021893015,-0.04533094,-0.1421318,0.004263751,0.07281409,0.0335205,-0.03181297,0.10082577,0.029861502,0.049599774,0.0139143625,0.06195906,-0.020663185,0.036325734,0.0063778395,0.1054605,-0.1486367,-0.16506153,-0.007160459,-0.00071973033,-0.121885344,-0.12261715,-0.0034023614,-0.026405782,-0.043664064,0.019667123,-0.00763308,-0.021689737,-0.034394596,-0.01741074,-0.023437927,0.03384575,-0.029109376,-0.068626575,0.08391306,-0.07712358,-0.01484944,0.08553928,0.025369065,-0.025755292,-0.002355481,-0.0012755679,-0.047932897,0.02632447,-0.033967715,0.11391686,0.02504382,0.02658873,0.049681086,0.0125422375,0.029861502,0.0988743,-0.077936694,0.023011042,0.02240121,0.010082576,0.00027823643,-0.019880565,0.04342013,0.07017148,0.012440599,-0.05142927,-0.06350397,-0.06281283,0.020490399,-0.07452162,-0.094646126,0.022014981,-0.014493704,0.110583104,0.042444397,0.054356474,-0.018305162,0.009401596,-0.018986143,-0.045371596,0.044843074,0.03518738,0.038155235,0.030288385,0.037403107,0.024901526,0.021933671,0.04451783,0.06976493,0.05146993,0.031467397,0.09936217,0.038521137,-0.004774486,-0.008928976,-0.020805478,0.035410985,0.014635999,0.033113945,0.009889463,-0.03758606,0.028296264,-0.086596325,-0.087734684,0.051510584,0.013172399,0.037443765,-0.06017022,-0.14481507,-0.16685039,-0.12643877,-0.1896175,-0.20278989,-0.1039969,-0.106517546,-0.07622916,0.00077054976,0.030451009,0.050290916,0.03673229,-0.027625447,-0.000996061,0.02467792,-0.05220173,0.0043120296,-0.014392066,-0.12912203,-0.031853624,0.03134543,-0.030694941,0.0058391537,-0.028174298,0.028885769,0.018294998,0.019951712,-0.10993261,-0.0915563,-0.0071096397,0.068667226,0.055616796,0.088059925,0.19319518,0.08635239,-0.016953366,-0.06712232,-0.0015093373,-0.08464486,-0.08838517,-0.10009397,0.04772962,-0.07143181,-0.066349864,0.010270609,-0.0022474898,-0.023336288,0.006164398,-0.011251424,-0.0030440844,0.019545157,-0.055047616,-0.09423957,0.0035827705,0.012298305,0.044843074,-0.027279876,-0.025145458,-0.05273025,-0.047119785,-0.036915243,-0.009980938,0.081107825,0.06939903,0.048827317,0.01330453,0.16530548,0.046550605,0.032646406,0.076188505,-0.05675515,-0.105623126,0.0075111133,0.049396496,-0.03850081,0.04167194,0.056185972,-0.056999084,-0.004012195,-0.020114334,-0.0012120437,0.11733192,0.07228557,0.09310121,0.16075206,0.07163508,0.010179134,0.037077863,0.0021153593,-0.031589363,-0.16880184,-0.122779764,-0.1266827,-0.24572216,-0.14261967,-0.08903566,-0.16148385,-0.043907996,-0.019433353,-0.048339453,0.028662164,0.033967715,-0.014422557,0.042444397,-0.0029729372,-0.021974325,0.0113530625,0.0010297289,0.020205809,-0.058178093,-0.041834563,-0.07423704,0.045005698,0.0058645634,-0.043582752,0.053340085,-0.045940775,-0.049681086,0.0044212914,-0.13123612,-0.03530935,-0.045615528,-0.08448224,-0.042810295,-0.044721108,0.03006478,-0.028275937,-0.020185482,-0.008989959,-0.14188787,-0.06378856,-0.058706615,-0.1018015,-0.045168318,-0.012450763,-0.09537792,-0.07285475,-0.0030745761,0.022075964,0.04797355,-0.0060271854,-0.047607653,-0.04679454,0.012166174,0.1076559,0.0069520995,-0.01435141,0.034923118,-0.010179134,-0.042281773,-0.08871041,-0.04789224,0.06338201,-0.03372378,-0.021242525,0.055006962,-0.066349864,-0.11684406,0.007140131,0.048380107,-0.049111906,0.015611732,0.012023879,0.025572343,-0.07167574,-0.046672575,-0.01576419,-0.06736625,0.012664204,-0.021811703,0.007953242,-0.019179257,-0.028214954,-0.071309835,-0.087490745,-0.17205429,0.027930364,-0.16912709,-0.09708546,-0.030288385,-0.04724175,-0.033683125,-0.077652104,-0.10172019,-0.12001519,0.050860096,-0.011912077,-0.053624675,-0.06386987,0.066919036,0.02457628,-0.06541479,-0.06826067,-0.00616948,-0.054966304,-0.076757684,0.002617201,0.06468298,0.020856299,0.040086374,0.055088274,0.045737498,0.054803684,0.032687064,0.00075530395,-0.015154357,-0.06452036,-0.014910423,0.11440472,-0.010306182,0.0725295,0.10895688,0.020317612,0.14001772,0.106598854,0.07281409,0.03236182,0.031243792,0.0010646672,-0.013385841,-0.044436518,-0.107981145,-0.03831786,0.03654934,0.054153197,0.14514032,0.04797355,0.061633818,0.24360807,0.10757459,0.04051326,0.08118914,0.13806625,0.027849052,0.018000245,-0.03136576,0.00024726833,-0.027178237,-0.045574874,0.033581484,0.049599774,-0.0077448827,0.12570697,0.2416566,0.13798495,0.19140634,0.2240934,0.14091215,0.037951957,0.07452162,-0.022238586,-0.08383175,0.04927453,-0.009574383,-0.08131111,0.081107825,-0.016241893,-0.08505142,-0.04789224,0.06716297,0.11115228,-0.110827036,-0.054884996,0.043298163,-0.049925018,0.04297292,0.12107223,0.17237954,0.12969121,-0.024027431,-0.055779416,0.036203768,-0.047648307,-0.08074193,-0.018620243,0.022380881,-0.0044009634,0.003991867,0.11684406,0.24344544,0.13269973,0.20148891,0.2782466,0.20604233,0.090011396,0.14091215,0.1369279,-0.11684406,-0.13928592,0.022685798,-0.0103925755,-0.039964408,0.0053970246,-0.028072659,0.09578448,0.08480748,-0.054031227,-0.02577562,0.1332689,-0.10009397,0.03116248,0.11009523,-0.010763558,-0.004355226,0.041123092,0.043298163,0.115787014,0.075009495,0.024840543,0.20230202,0.14635998,-0.060088906,0.028214954,0.025145458,-0.055413518,-0.06846395,-0.045615528,0.01654681,-0.014361573,-0.042728987,0.079359636,0.13424464,0.06553675,-0.04451783,-0.07090328,0.0009528645,-0.0020175318,0.03282936,-0.023702187,0.008415699,0.03591918,0.03390673,-0.0154491095,-0.16132122,-0.066390514,-0.06582134,-0.18132377,-0.10155757,-0.092369415,-0.13896067,-0.12123486,-0.051388618,-0.042078495,0.030572975,0.02148646,-0.06700035,0.01050946,-0.048949283,-0.033459518,0.024515297,0.081107825,0.039191954,0.03748442,0.07403376,0.08700288,0.019860238,-0.05146993,0.019463845,0.081107825,0.0327887,-0.05439713,-0.061267916,0.051957794,0.11887684,-0.084238306,0.014605507,0.034780826,-0.010204543,-0.010733066,-0.013772069,-0.04947781,0.096109726,-0.0062965285,-0.009188155,0.13391939,0.06382921,0.067772806,0.026182175,-0.027442498,-0.05667384,0.027381513,0.05911317,0.0041062105,-0.024169726,0.024555953,0.05228304,-0.05537286,-0.109444745,-0.12172272,-0.09773595,-0.005869645,-0.01686189,0.02660906,0.11115228,0.007048656,-0.055535484,0.007704227,-0.016597629,-0.06565872,-0.10578574,0.002917036,-0.07622916,-0.020317612,-0.020917282,-0.06626855,-0.066593796,-0.008928976,-0.15660518,-0.20848167,-0.1302604,-0.088059925,0.016231729,-0.06622789,0.02585693,-0.02110023,-0.04496504,0.022238586,-0.09212548,-0.07521277,0.036671307,-0.013009776,-0.094971366,-0.057568263,0.020551382,0.031060841,-0.01416846,0.047282405,0.093751706,-0.04622536,0.13513905,0.029536258,-0.09879299,-0.008568157,-0.016668776,0.008695207,-0.12489386,-0.054275163,0.07570064,0.008441109,-0.06362594,-0.092369415,-0.076513745,-0.07927833,-0.042363085,-0.02760512,-0.053868607,-0.05419385,0.032382146,-0.05248632,0.033601813,-0.04671323,0.011017654,-0.0050438293,-0.023295632,-0.02052089,0.01411764,-0.033662796,-0.047079127,-0.09863037,-0.10025659,-0.08545797,-0.0761072,-0.105623126,-0.12985383,-0.1208283,-0.097898565,-0.15164521,0.019951712,-0.112859815,-0.07102525,-0.054275163,-0.12969121,-0.05216107,-0.040350635,-0.018752374,-0.016811071,0.0051276814,0.10196412,0.09074319,-0.018355982,0.052852217,0.07537539,0.019362208,-0.0015779436,0.025003165,-0.06350397,-0.066390514,0.011393718,-0.07094394,-0.10375297,-0.061023984,-0.01952483,-0.07513146,-0.053624675,-0.062853485,-0.06545544,-0.015987795,-0.09350777,-0.084238306,-0.101313636,-0.06870788,-0.08236815,-0.12806499,-0.0023567516,-0.05366533,0.087490745,-0.13335021,-0.08537666,0.043664064,-0.10895688,-0.07870915,0.108875565,0.04915256,-0.039618835,0.012410107,-0.0063270205,-0.08903566,-0.09367039,0.0010208355,-0.028824786,-0.034049023,0.04533094,0.023254976,0.0691551,0.02274678,0.026731025,0.08017275,0.034658857,0.027991347,0.017207462,-0.07773341,-0.017847788,-0.06594331,0.07114722,-0.06399184,-0.09245072,0.061267916,-0.030105436,-0.06086136,-0.009747169,0.09220679,-0.013274037,0.042728987,0.018823521,-0.08188028,0.06358528,0.09627235,0.03390673,-0.04577815,0.056267284,0.079318985,-0.032219525,0.041001122,0.07037476,0.031406414,-0.02467792,-0.010794049,-0.034943447,-0.05960104,-0.040167686,-0.064032495,-0.09854906,-0.06761018,-0.1244873,-0.07895308,-0.043298163,-0.057324328,-0.009244056,-0.07403376,-0.0048608794,-0.0037403107,-0.07370851,-0.0030390024,-0.037687697,0.0045229304,0.089442216,0.07220426,0.06817936,0.051795173,0.056592528,0.10993261,0.08618977,0.08464486,0.07313934,0.03016642,0.08114848,0.09708546,0.074440315,0.10212675,0.10009397,0.071553774,0.030959202,0.0988743,0.11765717,-0.015022227,0.03699655,0.098142505,0.057893507,0.030308714,0.16278483,-0.003440476,-0.0071350494,0.07212295,-0.010087659,-0.018854013,0.061999716,0.085701905,0.026792008,-0.0018371227,0.09058057,0.054600406,-0.015164521,-0.04179391,-0.08822255,-0.0736272,-0.010600935,-0.08297798,-0.067041,-0.0003042814,-0.018701553,0.0037021963,-0.052526973,-0.07537539,-0.04935584,-0.044924386,0.005061616,-0.011078638,-0.0944835,0.00052661647,0.0077245547,-0.07895308,-0.0040528504,0.067041,-0.074155726,0.04321685,0.092369415,0.061227262,0.07456228,-0.01837631,-0.072082296,-0.10147626,-0.07513146,-0.09513399,-0.12790236,-0.037057534,-0.045208972,-0.027625447,0.025206443,0.04232243,-0.004990469,0.05346205,-0.01790877,0.021039248,0.0013340103,-0.026670042,-0.031589363,0.026629386,0.042850953,-0.007150295,0.017339593,0.04398931,0.094158255,0.07578195,-0.009198318,0.02622283,-0.00010989704,-0.072976716,-0.11139621,-0.04305423,-0.17010283,-0.12855285,-0.10822508,-0.09342646,-0.14961243,0.0024749066,0.029536258,-0.014869768,0.06854526,0.13522036,0.054884996,0.0051124357,0.082856014,0.13042301,0.039374903,0.035410985,0.08968615,-0.032402474,-0.03262608,0.03654934,-0.13131744,-0.091800235,-0.010733066,0.05960104,0.03390673,0.013965182,0.1054605,0.030837236,-0.050331574,0.07671703,0.007129967,-0.03537033,0.010113069,-0.010087659,-0.043582752,-0.024047758,0.001001143,-0.024088414,-0.073545896,0.040147357,-0.008913729,-0.045940775,-0.07923767,-0.05943842,-0.03978146,-0.09432088,0.00035255987,-0.0071096397,-0.04915256,0.048949283,0.029393964,0.012115355,-0.010722902,-0.036711965,-0.08273405,-0.029150032,0.044599142,0.017563198,-0.0037809664,0.018000245,0.031142153,-0.014331082,0.072082296,-0.032300837,0.040919814,0.016445171,0.07025279,0.06293479,0.05842203,0.036711965,0.0020683513,0.052526973,-0.047851585,0.005732433,0.033662796,0.00543768,-0.12253583,0.0349841,0.048217483,0.022502849,-0.08911697,0.00562063,0.012135683,0.040635224,0.073342614,0.031101497,0.03774868,0.037525073,0.0112107685,0.026568403,0.10147626,0.1392046,0.0091220895,-0.032748047,0.077936694,0.046347328,0.12221059,0.16506153,-0.020033022,0.061267916,0.072976716,0.08017275,-0.0033998205,0.047201097,0.04378603,-0.000590776,-0.100419216,0.054356474,0.05622663,-0.008263241,0.03673229,0.072692126,0.011363227,-0.06447971,0.021181542,0.048380107,-0.01722779,0.07671703,0.04132637,-0.1003379,0.04148899,0.07724555,-0.06106464,-0.03252444,-0.020673348,0.01228814,-0.0020658101,0.032951325,-0.020165153,0.08667763,0.117494546,0.06334135,0.07809932,0.03774868,0.060251527,0.12847154,0.06712232,-0.027950691,0.066065274,-0.023661532,0.11123359,0.11912077,0.050372228,-0.02358022,0.032870013,0.011088802,-0.077896036,-0.019748434,-0.09578448,-0.05126665,-0.047851585,0.00562063,-0.09871168,0.010783885,-0.020419251,-0.080497995,-0.009132253,-0.03171133,0.00337187,-0.025267426,-0.04825814,-0.033113945,-0.092694655,-0.05090075,-0.060983326,-0.0077448827,0.03429296,-0.07033411,-0.04415193,-0.05842203,0.022014981,-0.029190686,-0.078831114,-0.033927057,-0.03728114,-0.07171639,0.01892516,0.024433987,0.04124506,-0.0045508808,0.12700795,0.047648307,0.054763027,0.027727086,0.04854273,0.026161848,-0.05273025,0.0022563832,-0.07956292,-0.06972427,-0.02248252,-0.01618091,-0.02906872,-0.0051175174,0.028662164,-0.04716044,0.00271884,-0.020033022,-0.044273894,0.01978909,-0.061552506,0.025125131,0.10464739,0.10505395,0.17124118,0.17335527,0.029515931,0.13432594,0.060007595,0.03171133,0.05821875,-0.05464106,-0.05292257,-0.056137126,0.0044102143,0.019306937,-0.036790986,0.033458825,0.042298853,0.018581701,0.02638288,-0.050139233,-0.018709108,0.08600897,-0.03522291,-0.081304744,-0.046650264,-0.0037119302,0.029087812,-0.0074826633,0.04371012,0.03312561,-0.05672515,0.05707797,-0.007855081,-0.08326484,0.033086404,0.0032807093,-0.041671623,-0.003971643,0.025246026,-0.024207175,0.010251298,0.009839677,-0.0033321618,-0.015190737,0.021561047,-0.045003783,0.08381367,0.0617822,0.033066805,0.00391284,-0.0055715702,-0.070406616,-0.033831242,-1.8375891e-05,-0.061507784,0.027127717,-0.07554207,0.007683573,0.027892154,-0.069896996,-0.06887774,0.011437155,-0.012397602,0.0007086969,0.018444495,-0.060018115,-0.025696848,-0.06139018,0.018836515,-0.0019184431,0.018189684,0.04061317,-0.019483346,0.068564124,0.060880557,-0.073464364,-0.014828119,-0.009996485,0.05088407,-0.07895263,-0.041946035,0.04837515,-0.038927488,0.024971612,0.0016979324,-0.013103236,-0.034066454,0.0926733,-0.06480075,-0.082559206,0.054020222,0.05692116,0.00080057635,-0.0016599556,0.025677247,0.027284523,0.029793447,0.022325484,0.11737049,0.031165512,0.07397399,-0.04798313,0.0006235553,-0.01790547,-0.08302963,-0.05253055,0.014514505,-0.016454998,-0.019894965,-0.038692277,0.034419272,-0.0144067,-0.050335243,-0.00473363,0.04861036,0.037771035,-0.021188628,-0.008786126,0.065976806,0.031439926,0.09204607,0.04022115,-0.05319698,-0.027598139,0.031185113,0.03994674,0.026304476,-0.17860387,-0.17844707,-0.023540743,-0.021502243,-0.19867525,-0.21216069,0.097063914,-0.053432193,-0.1318752,-0.031439926,0.09557424,0.036712583,-0.04570942,-0.012181992,-0.00041100744,-0.07644371,-0.03134192,-0.017611455,0.016474599,0.061272573,-0.008261801,0.027480533,-0.027676543,-0.0055470695,0.0453174,0.05045285,-0.0020740256,-0.027323727,-0.022129474,0.03684979,0.03110671,0.014298894,0.0761693,-0.021306233,0.0018584152,-0.01216239,0.0048046834,0.054569047,0.07303315,-0.043161295,0.043318104,0.07711014,0.042063642,-0.06715286,-0.01791527,0.00844311,0.07126906,0.06887774,-0.01812108,0.02595166,0.013789269,-0.0453174,-0.07526765,0.09518222,0.0027049312,-0.036575377,0.11415594,0.03191035,0.060488537,0.011711569,0.0018927169,0.074013196,0.015200538,0.084832914,-0.018003473,-0.08318644,0.012907227,0.045435004,0.050374445,0.015180937,0.03169474,0.039005894,0.030342273,0.04904158,0.0042117545,0.082559206,0.029950254,-0.0076100696,0.013759868,0.001504373,0.053275388,0.061311778,-0.06139018,-0.025089217,0.035360117,0.022697901,0.04433735,-0.05296177,0.046375852,0.07703174,0.015484751,-0.00781588,-0.039887935,-0.030361874,-0.020443792,-0.015925772,-0.021031821,-0.008560715,0.0070808437,-0.004694428,0.029283822,0.019032523,0.026892506,0.026892506,0.02020858,0.043945335,-0.013152238,0.045042988,0.03424286,0.0092663495,0.05664675,0.012789621,0.01338745,-0.0025971262,-0.013269844,-0.018258287,-0.03751622,0.034144856,0.0638599,0.052687358,0.035340514,-0.006282105,0.009315352,-0.021188628,-0.050570454,-0.029989455,0.023089921,0.042063642,0.0803639,0.013995079,0.0035110204,0.038378663,0.037653428,-0.040926788,-0.06421272,-0.036379367,-0.104904294,-0.01607278,0.032263167,0.04594463,-0.009712271,-0.04590543,0.09024278,-0.00803149,0.047473505,0.030381475,0.03249838,0.01979696,0.01933634,-0.0015901272,-0.005395162,-0.031969152,-0.017503649,0.03257678,0.047943927,-0.0013181639,0.027519736,0.08671461,0.012691616,-0.0012336349,0.074718826,0.0905564,0.038809884,0.062291823,-0.014573308,0.025187222,0.037163403,-0.007957987,-0.035752136,-0.029479831,0.0026804302,-0.0125740105,0.092359684,-0.11188223,-0.03816305,-0.08357846,-0.08302963,-0.034478072,-0.08718503,-0.11799773,-0.014436101,-0.051981725,-0.06303666,0.08302963,0.017444847,0.007085744,0.0049124886,-0.013583459,-0.02430518,-0.11243106,-0.07542446,0.015621958,0.013750067,0.032478776,0.08977236,0.07640451,0.040260356,0.029911052,-0.017748661,-0.1523386,-0.13556018,-0.032851193,-0.20933816,-0.2367795,0.0033150108,-0.111568615,-0.11854655,0.054961067,0.04488618,0.0067868293,-0.06436952,-0.0044347155,-0.01811128,-0.038398262,-0.0118095735,0.072758734,0.004140701,-0.051040877,-0.014151887,0.026676895,-0.04433735,-0.0103003,0.043553315,0.019532349,0.04135801,-0.007967787,-0.03994674,-0.007948186,0.065427974,0.034478072,-0.0038711878,0.07448362,0.08365686,0.06060614,-0.07052422,-0.07201389,-0.028911402,-0.06080215,-0.048335947,0.044572562,-0.024148373,-0.0041137496,0.0091683455,0.03110671,0.045787822,0.010261098,0.08024629,0.16637288,0.07801179,0.07565967,-0.0050325445,0.032321967,0.025814453,0.007105345,-0.025246026,0.034105655,0.055784307,-0.020306585,0.0073258555,0.050962474,-0.025265627,-0.08357846,-0.08193198,-0.11917379,-0.050727263,-0.03067549,-0.028264573,0.010643316,-0.023971964,0.05229534,0.035144504,-0.06158619,-0.0025971262,0.020894615,-0.013348248,-0.029911052,0.03792784,0.037986644,0.0062184017,0.04433735,0.016180586,0.06272305,0.0076590716,0.0075512663,-0.026931707,0.019346138,-0.05370661,0.039652724,-0.052452147,0.009844578,0.033458825,-0.07134746,-0.08067752,0.035752136,-0.033870444,-0.0535498,-0.009908281,-0.0101826945,0.042102844,-0.055705905,-0.0028396877,0.06652563,0.042102844,-0.0001931,0.067662485,0.07660052,0.061507784,0.17468368,0.14810479,-0.0041333507,0.09604466,0.122231536,0.021502243,0.075502865,0.0576268,0.105374716,-0.03336082,0.039691925,-0.010653117,0.051432896,0.0391627,-0.0028298874,0.024011165,0.0002620096,0.02491281,-0.008271601,-0.039005894,-0.040456362,-0.027539337,-0.008595017,0.052883368,0.026872905,-0.0055960715,0.025148021,0.021619849,-0.047081485,0.04508219,0.027911754,-0.09165405,-0.081775166,0.007041642,-0.08671461,0.0041505015,0.036771383,0.004167652,0.025657644,0.07542446,0.035928544,0.060096517,0.013995079,0.04919839,0.0040622973,0.0011374677,-0.027519736,-0.0044518663,-0.0037021297,-0.0071641477,0.031381123,0.09557424,0.008315704,0.028891802,-0.012642614,-0.10270899,0.009976884,-0.023187926,-0.024403185,0.010682519,0.049315993,0.047512706,-0.017386043,0.019689156,0.0926733,-0.053902615,-0.06538878,0.17217475,-0.0024978963,-0.034478072,0.0700538,0.019277535,-0.005659775,0.058214825,0.07750216,0.037085,0.014171488,0.0391823,0.010388505,-0.06303666,0.021267032,-0.033850845,0.02638288,-0.039887935,-0.034968097,0.009232048,-0.0742484,-0.018993322,-0.00050778716,-0.15547475,-0.0720531,0.0308911,-0.12662214,-0.14465502,-0.043004487,-0.027108116,-0.07809019,-0.026657294,0.019346138,-0.051472098,-0.06848572,0.0267945,-0.060096517,-0.06852493,0.15359305,-0.028382178,-0.06550638,0.016170785,-0.013563858,-0.06778009,-0.07028901,-0.014073483,0.0017555102,-0.08475451,-0.06115497,0.14794798,-0.1318752,-0.10153293,0.05684276,0.012779821,-0.06499676,-0.044415757,0.053432193,-0.023521142,0.047943927,-0.012201592,0.00056934636,-0.009080141,0.043396506,-0.022384286,0.023736753,-0.06139018,-0.011770371,0.02800976,-0.0039936937,-0.0064683137,-0.06813291,-0.04053477,0.0032023054,-0.09494701,-0.067466475,-0.06095896,-0.038613874,0.06346788,-0.046179842,-0.11995782,0.01999297,0.018277887,0.11721369,-0.04806153,-0.031792745,0.115096785,0.046023034,0.055157077,0.04864956,0.064918354,0.073464364,-0.0010896904,0.0056009716,-0.025579242,0.06730967,0.04986482,0.0115743615,-0.0042926082,-0.01996357,-0.034478072,-0.050531253,-0.018366091,-0.07652211,-0.05374581,0.021678653,0.025912458,0.06448713,-0.010329701,0.032243565,0.016307991,-0.06405591,-0.054686654,-0.036379367,0.0024978963,0.10286579,0.033850845,-0.008771426,0.08875311,0.08679301,0.0013659413,0.022717502,0.07075944,-0.10419866,-0.021502243,0.026676895,-0.087655455,-0.052687358,-0.042926084,-0.05276576,-0.040123146,-0.089223534,-0.025775252,-0.0030797995,0.050609656,-0.020247784,-0.07965827,-0.029146615,-0.005992991,0.0014247441,-0.046846274,0.0011099039,-0.037790634,-0.03537972,0.03030307,0.051668108,0.069504976,0.01320124,0.07240591,0.08930194,-0.005992991,-0.046611063,-0.047355898,0.08016789,-0.076874934,-0.094398186,0.018375892,-0.0015202988,-0.048767168,0.07322916,0.16292311,0.026892506,0.02616727,0.109686926,0.19836164,-0.15516113,-0.0062870053,0.17876068,-0.0742092,0.048100736,0.03953512,0.03436047,-0.018660106,0.008065792,0.06730967,0.023285931,0.0034350667,-0.019865565,0.03543852,0.0018437145,0.023501541,-0.06985779,0.011887977,-0.0113097485,-0.040083945,0.014524305,-0.0453174,0.024599195,-0.00030902124,0.09251649,0.040926788,-0.020502595,0.12458365,-0.04817914,-0.023481939,-0.13728507,-0.025344031,0.09283011,-0.08938034,-0.08828268,-0.06554558,-0.09424137,-0.043945335,-0.08890992,-0.001155231,-0.009114442,0.089693956,0.021972667,-0.06789769,-0.025814453,-0.018669907,-0.006345808,-0.069896996,-0.0016048279,-0.06636882,-0.09290851,0.06911296,-0.08953714,-0.07075944,0.108040445,-0.0070122406,0.07522845,-0.077854976,0.029068211,0.058136422,-0.06405591,-0.004696878,0.050688062,0.07068103,0.0246972,0.04182843,0.036732182,0.023756353,-0.06774089,-0.013632461,-0.04469017,-0.053902615,-0.043396506,0.012701416,-0.025383232,-0.0068946346,-0.0028568387,0.00010520198,-0.021286633,-0.057156373,-0.14261653,-0.06566319,0.008619518,-0.08397047,-0.13477615,-0.054412242,0.02042419,-0.046650264,-0.089145124,-0.0494336,-0.029519033,-0.043553315,-0.072758734,-0.04904158,-0.08404888,-0.023619147,-0.034654483,-0.040730778,-0.06546718,-0.012868024,-0.057979614,0.028303774,-0.0064781145,0.033635233,-0.052844167,-0.0556275,-0.07742376,-0.027950957,0.016778415,-0.10874608,0.032478776,-0.08365686,-0.046454255,0.034027252,-0.013475654,-0.06017492,0.03153793,-0.002099752,0.000514525,-0.021227831,-0.1360306,-0.052216936,-0.001525199,-0.013142438,-0.078129396,-0.05170731,0.014171488,-0.0045817224,-0.056568347,0.014573308,-0.0106139155,0.05374581,0.024814805,0.024991212,0.0122407945,-0.03126352,0.0073454566,0.023187926,0.015955174,0.007967787,-0.020247784,0.10443387,0.13015032,0.050648857,-0.069818586,0.05209933,0.11995782,0.091575645,-0.025265627,0.06162539,0.0022577846,0.031616334,0.06860333,-0.059234075,0.049904022,-0.040926788,-0.11141181,-0.124897264,-0.1277198,0.017660458,-0.03767303,-0.081775166,-0.023442738,0.070093006,0.06264464,-0.055666704,-0.068956144,-0.07369958,0.0042901584,-0.040730778,-0.09377095,-0.01606298,0.1070212,-0.006605521,-0.034223262,0.03361563,0.052608952,-0.09377095,-0.13265924,-0.08742024,-0.044180546,-0.040652372,-0.0034375167,-0.109216504,0.0040083947,0.11109819,-0.058018815,-0.021208229,-0.014583108,0.0075071645,-0.05249135,-0.03153793,-0.054882664,-0.0037829836,0.037379015,-0.09298691,-0.0155631555,-0.0047875326,0.017239036,0.035203308,0.01586697,0.002039724,-0.010888329,-0.029832648,0.047434304,0.095887855,0.06750568,0.034478072,0.096671894,0.061311778,-0.026520086,-0.0803639,0.026716096,-0.021737454,-0.048767168,-0.014730115,0.015308343,-0.016582405,-0.0556275,0.046728667,-0.006674124,-0.00067868293,-0.071778685,-0.013299245,-0.0804423,-0.04445496,-0.005395162,-0.07789418,-0.033066805,-0.041318804,-0.0865578,0.007193549,0.02226668,-0.02846058,0.037614226,0.028754596,-0.027794149,0.013485455,0.053236183,0.034321267,0.022501891,0.09369255,0.088047475,0.07173948,0.1256813,0.06268384,-0.10811885,-0.04614064,-0.07479723,0.024226775,-0.010055288,-0.0018535149,-0.004571922,0.068054505,-0.0057773804,0.0008771426,-0.06076295,-0.005125649,0.05233454,-0.03359603,-0.091575645,-0.01544555,-0.018856116,-0.07464042,0.050923273,0.1134503,-0.011525359,0.018228885,0.062331025,0.010751122,-0.03871188,0.03006786,0.06366389,-0.025108818,0.05217773,-0.045866225,-0.09486861,-0.031890746,-0.02244309,-0.010486509,-0.077541366,-0.014543906,0.037183005,0.09337893,0.05253055,0.0206202,0.047434304,0.045395803,-0.042612467,-0.07166108,-0.091967665,0.045238994,-0.11682167,-0.07848221,0.025383232,-0.10082729,-0.1381475,0.0639775,-0.044180546,-0.1134503,0.030009057,0.043514114,-0.03253758,0.030832296,0.040299557,-0.008315704,-0.027970558,-0.07456202,-0.084911324,0.0028862401,0.03792784,0.028872201,-0.090085976,-0.017866267,0.063154265,-0.044180546,-0.043553315,0.027794149,-0.016807815,-0.08161836,-0.015514153,-0.059665296,-0.05335379,0.011564561,-0.02452079,-0.062095813,-0.03788864,0.0055176676,-0.073621176,-0.020306585,0.021913864,-0.13140477,-0.14959446,0.051158484,-0.120193034,-0.08342165,0.0013132638,0.069896996,-0.03443887,0.0515113,-0.007683573,0.00064805645,0.021678653,-0.01731744,0.007972687,-0.07503244,-0.034066454,0.01092753,-0.040691577,0.047159888,0.0038638376,0.013113037,0.04104439,-0.0021659052,0.117527306,0.1317184,0.01423029,0.036908593,-0.04806153,-0.06527117,0.026226074,-0.14183249,-0.10153293,-0.08514653,0.029323023,0.03724181,0.034654483,-0.07232751,-0.070602626,0.06625122,-0.012819022,-0.040299557,0.09643668,0.053589,-0.0021242532,0.09228128,0.066290416,0.08593057,-0.015151535,-0.010339502,0.01567096,0.019424543,0.0035379718,0.08953714,0.025794853,-0.012799421,0.035595328,0.01874831,0.031067507,-0.06346788,-0.0886747,-0.008261801,0.04825754,-0.12246674,0.021090623,0.05190332,0.046963878,-0.038535472,0.03935871,-0.10082729,-0.04966881,-0.04222045,-0.07742376,-0.017170433,0.036712583,-0.06409511,0.04966881,0.16747053,0.025579242,-0.09541743,-0.076874934,-0.040260356,-0.084832914,-0.02636328,-0.011074537,-0.002227158,-0.009232048,0.06966178,0.014975127,0.06056694,0.06691765,0.05750919,0.019728357,-0.011878177,0.036183357,-0.0023778405,0.013230642,-0.0026926808,-0.048923973,-0.006679024,-0.054255433,-0.029127013,-0.050335243,-0.04555261,-0.059665296,0.021267032,-0.03047948,-0.015700363,0.05398102,0.022972316,0.012828822,-0.007355257,0.07714935,0.031969152,-0.021129826,0.0054882662,-0.06495755,-0.058332432,-0.017601654,0.07695334,-0.109216504,-0.1009057,0.0038662876,-0.027010111,0.038006246,-0.010535511,-0.020561399,0.042573266,0.11297988,-0.05954769,0.044572562,0.035320915,0.0226391,0.00095738395,-0.08890992,-0.04590543,-0.09573105,-0.088047475,0.046689466,0.0010039363,-0.08208878,0.07797258,0.038613874,-0.098239966,-0.0638991,0.06139018,-0.0045180195,-0.06103736,-0.039260704,0.044023737,0.11266627,0.055509895,0.051550504,0.028499784,0.07095545,0.10905969,0.06319347,0.082324,0.033066805,0.08985076,0.08836109,-0.02163945,0.041906834,-0.0039005894,0.01768986,-0.0680937,-0.028754596,-0.034262463,-0.02026462,0.006063896,0.050661553,0.022834146,-0.0034670362,0.044064615,0.04311699,0.057076253,-0.0026697544,0.10562387,0.16517852,0.1360208,0.106863074,0.12749216,0.08280795,-0.00051965675,0.002867936,0.055181,-0.007817916,0.027863855,0.07464378,-0.013676797,-0.050406422,0.0034556463,-0.063053586,-0.053832456,-0.06983276,0.002031929,-0.028902598,-0.03726722,0.011380626,-0.029795554,-0.019572124,0.07792403,-0.05299417,-0.03079785,-0.011417073,0.05452495,0.02667932,0.053941797,0.11670381,0.07872587,-0.0059226635,0.09330473,0.09541866,0.06440213,0.00659238,0.0034852596,0.047053285,0.052265227,-0.01623721,0.053212855,0.09724102,-0.04840183,-0.043044094,-0.07544562,-0.08120427,-0.006633383,-0.07930902,-0.048037358,0.016182538,0.004856584,0.010852142,-0.053941797,-0.051609177,-0.016583458,-0.025549458,-0.02718958,-0.036684066,-0.019845478,-0.07307655,-0.06793751,-0.0023781771,-0.004088916,0.029084833,-0.049349453,-0.01592741,-0.027098464,-0.026952675,-0.002644697,-0.0070297457,0.019098312,-0.10103153,-0.04734486,0.01511646,-0.012437593,0.026733993,0.06363674,0.04632434,0.0025467454,-0.0107610235,0.07712219,0.12858558,0.0017164334,0.027426487,0.04953169,-0.123920344,-0.06396476,-0.021194024,-0.05889861,0.016373886,-0.013804362,-0.015034453,0.038050834,-0.028228326,-0.039290037,-0.010305434,-0.0962205,-0.026497085,0.0022676967,0.093742095,0.053322196,0.0034078094,0.06319938,-0.025020976,-0.039727405,-0.019790808,-0.029996013,-0.059736896,-0.10052127,-0.011571974,0.01078836,-0.05171852,0.0301418,0.066771194,0.006205129,-0.037176102,-0.0301418,-0.042388048,-0.04326278,0.021467377,0.040893715,-0.085869506,-0.000629283,0.13806184,-0.018697392,0.07981928,-0.0037973386,0.09592892,0.17786214,0.20439567,-0.006473927,0.17290533,0.05849769,-0.00054727687,0.025986824,0.0060547846,0.04756354,-0.022761252,-0.041003056,-0.020082384,-0.067536585,0.06185083,0.02585926,0.06811974,0.07085328,0.037832152,0.15205754,0.04865696,0.03513506,0.07307655,0.018897852,0.029649764,0.010250764,-0.023435524,0.029704435,0.06531331,0.032310408,0.08543214,0.06370964,0.049859714,0.017421743,-0.0647666,-0.042278707,-0.036629397,-0.01836937,0.042132918,-0.004111695,0.037431233,0.04260673,0.0041413084,-0.015453596,-0.06582357,0.044647772,-0.057185594,-0.08995159,-0.024273809,-0.07406063,-0.02708024,0.034041647,0.06400121,-0.012237133,0.014141498,0.14192525,-0.03333093,-0.0416591,0.012984301,0.010278099,-0.026788663,-0.043080542,-0.052921277,0.023107499,0.016975265,0.028975492,-0.040018983,0.06298069,0.117578536,-0.02082955,0.008528636,0.073258795,0.04694394,-0.009152793,0.019663243,0.0098498445,0.08914975,0.030652061,-0.021467377,0.00852408,0.05995558,-0.00598189,-0.046470128,-0.010159646,0.03812373,-0.06637028,-0.025057422,-0.064147,-0.022086978,-0.014451299,0.017348848,-0.0330029,-0.061012544,0.03398698,-0.028775033,0.0060456726,0.024109796,0.033021126,-0.0006275745,0.0029749994,-0.06363674,-0.13842632,-0.030451601,-0.008355511,-0.062142406,-0.06272556,-0.09432525,-0.05889861,-0.032310408,-0.08863949,-0.051864307,-0.020938894,-0.034952827,-0.0070844167,0.03568177,0.009868069,0.020537974,0.06276201,0.11189278,-0.020228174,0.016127868,0.025622353,-0.004483001,-0.04195068,0.00972228,0.07661193,0.01796845,0.02977733,-0.017904667,-0.033094022,-0.110362,-0.038779777,-0.03775926,0.05375956,0.051900756,0.04967748,0.0846303,0.018050456,0.01725773,0.08740029,0.073040105,-0.04082082,-0.020847775,-0.012373811,-0.010241652,-0.034023423,-0.049604584,0.03775926,-0.028337667,-0.010205205,0.023599535,0.1129133,0.10832096,0.07610167,0.0860153,-0.015608496,0.0075172265,-0.048693407,-0.087473184,-0.013230319,0.047818672,0.01730329,0.07103551,0.060101368,-0.0015695058,0.041732,0.03023292,-0.009439815,0.018715616,-0.034788813,-0.01511646,-0.0038018944,-0.0002376184,0.01674747,0.03130811,0.015572049,0.0069067366,0.004214203,-0.07726798,-0.10248941,-0.08200611,-0.0060183373,-0.065932915,0.00302967,-0.09833444,-0.016920594,-0.031180546,0.0018622221,-0.0301418,-0.0028724917,4.1714913e-05,-0.06494884,-0.026642874,-0.064365685,-0.0054306267,-0.0012232577,-0.02804609,0.044611324,-0.017950226,-0.13040794,-0.14163366,-0.03293001,-0.148996,-0.1514744,0.0007545701,-0.026606428,-0.06892158,-0.003988686,-0.016018527,-0.052957725,0.0029704436,-0.03405987,-0.07081683,0.04322633,0.013303214,-0.00084113213,0.011735985,0.01501623,0.030980086,0.022925263,0.10329125,0.027517606,-0.033822965,0.0660058,0.023635983,-0.052447464,0.018114239,0.06407411,-0.029431082,-0.0034305889,0.017685985,-0.014651759,0.024456045,0.032201067,0.007581009,0.056565993,0.13543765,0.019316996,0.03232863,0.047162626,-0.046360787,0.036465384,0.051281154,0.019772584,-0.01415061,0.017877331,0.0025376335,0.040310558,-0.033166915,-0.005817878,0.037941493,0.007722242,-0.030761402,0.09826154,0.105259396,-0.00918924,0.087691866,0.08710871,0.022651909,-0.051135365,-0.085869506,-0.0429712,-0.054452058,-0.08492188,-0.003947683,-0.050698,-0.10576966,0.06403766,0.042533837,0.12202509,-0.0010575372,0.12989768,0.13835342,-0.038342413,0.038087282,0.025203211,-0.036647618,0.01170865,0.026132613,0.036665842,-0.043809485,-0.017184835,-0.041258186,-0.03130811,-0.010323658,-0.0057495395,0.039763853,0.08958712,-0.054488502,-0.0654591,-0.019298771,0.022086978,0.004209647,-0.05288483,-0.025349,0.10664439,-0.03074318,0.03837886,0.12268114,0.07034302,0.11305909,0.13062662,0.10941438,0.08608819,0.06658896,0.16007593,0.05284838,0.119692475,0.084557414,-0.051791415,0.050661553,0.0680104,0.056128625,0.106061235,0.051098917,0.07027012,0.09279447,0.093231834,-0.006478483,0.08761897,0.05583705,-0.018323809,0.026077943,-0.06327227,0.033203363,-0.024000455,-0.04956814,-0.033057574,0.041622657,-0.012455817,0.071764454,0.10926858,0.039581615,0.0024465155,0.055618364,0.047053285,-0.072493404,0.04668881,0.06491239,0.03513506,-0.0079181455,0.005120826,0.10343704,0.09162816,0.03436967,0.084265836,0.04719907,0.028702138,0.054597847,-0.0050980463,-0.0013120978,-0.015890962,-0.052119438,-0.056675334,-0.07023368,-0.060137812,-0.028447008,-0.028191878,0.060648073,0.042388048,0.014669982,0.002945386,0.024109796,0.051135365,0.021904742,0.016009415,-0.016310103,0.0062233526,0.017130164,-0.027062016,0.019462783,0.0705617,-0.054852974,0.015444484,0.0647666,-0.04118529,-0.13106398,-0.10037548,-0.06899447,-0.036356043,-0.06473015,-0.06057518,-0.035244405,0.037285443,-0.034278553,-0.021266919,0.045267373,-0.008319064,0.112621725,0.084338725,0.06392832,0.09126369,0.15745173,-0.094762616,-0.051900756,-0.040310558,-0.13274056,-0.019790808,0.020392185,-0.03274777,0.0532493,0.10146889,0.0056128628,-0.08521346,-0.027918525,-0.038743332,-0.05379601,-0.0011970614,0.00016031055,-0.014496858,0.005029708,-0.012228022,0.025075646,-0.010433,0.009658498,-0.022068756,-0.056420203,0.00070103834,-0.028519902,0.04158621,0.050078396,0.031581465,0.008519524,-0.004031967,-0.058169667,-0.045996316,-0.034315,-0.038743332,-0.039399378,-0.0038816226,0.053176407,-0.024401374,0.030524496,0.0033986976,0.036392488,-0.03074318,-0.037084986,-0.014587976,0.0077040186,-0.026497085,-0.00029869587,0.027426487,-0.032583762,-0.051244706,0.023836443,-0.0065787123,0.006729057,-0.073295236,-0.047928017,-0.050880235,-0.017430855,-0.04107595,-0.059335977,-0.0039545167,-0.031636134,0.01180888,-0.017485525,0.01873384,-0.006305359,-0.038524646,0.025403671,-0.0976055,-0.053030618,-0.028118983,0.039180696,0.006451147,-0.050734445,-0.0062734676,0.09301315,0.0025011864,-0.0068065072,0.0061914613,0.00042654568,-0.026169062,-0.020884223,0.11852616,0.09148237,0.03227396,0.12333719,0.15541069,0.0022927541,0.06586002,-0.007977372,0.025166763,0.063053586,0.07843429,0.021212246,0.18398526,0.14294577,0.046871047,0.08659845,0.090607636,-0.0024328479,0.041258186,0.052046545,-0.06680764,0.019080088,0.07216538,-0.0936692,-0.029230623,0.045741186,0.009248467,0.052702595,-0.068593554,0.01369502,-0.026169062,-0.089295544,0.009585603,0.055399682,-0.029121282,0.09038895,0.061814383,0.035062168,0.008806545,0.053431537,0.038743332,-0.013777026,0.0054534064,0.0019134759,0.016264545,0.0079135895,-0.025257882,0.06017426,-0.049969055,-0.019481007,-0.01405038,-0.009603826,0.05095313,-0.077996925,-0.094252355,-0.09075343,-0.057841644,-0.11058068,-0.09359631,0.025166763,-0.048438277,-0.03125344,0.014159721,-0.046178553,0.013430778,0.008806545,0.09519998,0.07843429,-0.0011765598,0.075882986,0.06892158,0.039071355,-0.01369502,-0.015152907,-0.0055764155,-0.010013857,-0.01318476,-0.05222878,-0.009530933,0.050005503,0.045158032,-0.04056569,-0.02392756,0.025968602,-0.029832,-0.051135365,-0.05532679,-0.04723552,-0.07023368,-0.013859033,0.06921316,0.050333526,-0.039435826,0.07544562,0.01395015,-0.051791415,0.028775033,0.11196567,-0.020392185,-0.01995482,-0.029503975,0.036137357,0.015553826,0.018715616,0.020629093,0.01873384,-0.023526642,-0.027007345,-0.051827863,-0.0030683952,0.028902598,-0.014442187,-0.07806981,0.022925263,0.008542303,-0.044429086,-0.0013519619,0.009421591,-0.059664,-0.039071355,0.024948081,-0.039253592,0.024802292,-0.05441561,-0.060611628,-0.013859033,-0.072748534,-0.031016532,0.028629243,-0.056529544,-0.04184134,0.0034100874,0.11065358,0.042934753,-0.0045718406,0.06316293,0.011444408,-0.023289734,0.03630137,0.040492795,0.0609761,-0.032620206,0.009549156,-0.017877331,-0.089295544,-0.069358945,-0.054087587,-0.09126369,0.012765618,-0.06119478,-0.023052828,0.036356043,-0.04927656,-0.057294935,-0.1090499,-0.012656276,0.0032073501,-0.067463696,0.045959868,-0.03023292,-0.03615558,0.032109946,0.0052165,-0.033604283,0.02773629,-0.022305662,-0.050843786,0.104749136,0.007198314,-0.071436435,0.04224226,0.0005119687,1.7796465e-05,-0.030524496,0.03263843,-0.007157311,-0.07836139,-0.049240112,-0.01710283,-0.0693225,0.032620206,0.008865772,-0.0769764,0.029832,-0.073040105,-0.008587862,-0.0041731996,-0.101833366,-0.016565233,-0.018114239,0.016009415,-0.05889861,0.035062168,0.003287078,-0.09148237,-0.026843334,-0.036629397,-0.02214165,-0.05547258,-0.020173503,-0.015289583,-0.033112243,-0.04913077,-0.055509023,-0.035062168,-0.09396078,-0.025567682,-0.031435676,0.085359246,0.004943146,-0.029686213,-0.07755955,0.04789157,-0.03568177,-0.11633933,0.0026651986,0.024620056,0.026588203,-0.0021048235,-0.07307655,0.007412441,0.019098312,-0.038087282,-0.039217144,0.07027012,-0.020337515,0.013212095,0.036064465,0.014615311,0.05660244,0.036465384,-0.08521346,0.045303818,-0.062033065,-0.031399228,0.06137702,-0.096876554,-0.027298924,-0.0545614,-0.05864348,-0.037394784,0.022706581,-0.00338503,-0.06972342,-0.12756506,-0.05401469,-0.008373735,-0.024948081,0.017066382,-0.019371666,-0.016984377,0.024674727,-0.037686363,0.028374113,0.056165073,-0.07938191,-0.059335977,-0.007726798,-0.008902219,3.0182804e-05,-0.013376107,-0.013430778,0.038779777,-0.032620206,-0.026551755,0.021649612,-0.043809485,-0.003426033,-0.02693445,-0.048183147,-0.016483229,-0.022925263,-0.06921316,-0.036100913,0.02066554,-0.004079804,0.032365076,0.024929857,-0.050479315,-0.08003797,-0.032547314,-0.04887564,-0.07996507,-0.0847032,-0.0949084,-0.07438865,-0.098990485,-0.012255358,0.04300765,0.035918675,0.049349453,0.12479507,0.019772584,0.05532679,0.09826154,-0.02157672,0.0016013971,-0.04093016,0.014469522,0.012446705,-0.04154976,-0.01068813,-0.08528636,-0.0035832115,-0.033531386,-0.05481653,-0.029139504,0.019280547,0.06556844,0.028410561,0.051645625,0.0014032157,0.01608231,0.052046545,-0.0009191518,-0.045158032,0.0074944473,-0.06276201,-0.09673076,-0.07234761,7.446041e-05,-0.057914536,0.009029784,0.007540006,0.0010552591,-0.008410182,0.051499836,0.01572695,0.0602836,-0.022633687,-0.025913931,0.0974597,-0.07493536,-0.05554547,-0.011143719,-0.014897777,0.05496232,0.09301315,-0.068338424,0.095564455,0.06786461,-0.045631845,0.04723552,0.07216538,0.01704816,0.012228022,-0.042023577,-0.040456347,-0.0007722242,-0.041877788,0.0012346476,-0.00033542776,-0.078580074,-0.05875282,-0.009280358,-0.025385447,-0.040492795,0.00936692,0.058279008,0.044501983,0.04271607,0.055509023,0.07544562,0.06199662,0.073805496,-0.02157672,0.057149146,0.06093965,0.034643024,0.05339509,0.06524041,0.083828464,0.04978682,0.06276201,0.05529034,0.031672582,0.06363674,-0.02443782,-0.015326031,0.04774578,-0.066953436,-0.04453843,-0.010186981,0.007189202,-0.065422654,-0.04905788,0.04800091,-0.026314849,0.052155886,0.0145241935,-0.002562691,-0.030816074,-0.040201217,-0.013202984,-9.01213e-05,0.01599119,0.037230775,0.044866454,0.09855312,0.06006492,0.1064986,-0.019790808,-0.053176407,-0.09913628,0.0012175629,0.024765845,-0.066260934,0.06950473,0.023235064,0.039581615,0.050114844,-0.005066155,0.053285748,-0.010032081,-0.03232863,-0.015808955,0.016510563,0.046506576,0.02219632,-0.02051975,-0.0067427247,0.015152907,-0.03420566,0.030415155,-0.040274113,-0.028756808,-0.050989576,-0.07416997,0.042169362,-0.0069659636,-0.0121369045,0.07205603,0.0029294405,-0.03486171,0.024200914,0.044173956,0.051062472,0.067791715,0.056310862,0.09009738,-0.058206115,-0.04821959,-0.027444711,-0.014606199,-0.07763245,-0.07242051,-0.017685985,-0.13711421,-0.14549707,-0.07836139,-0.016419446,0.057586513,-0.031125875,-0.1051865,0.006478483,-0.039800297,-0.002476129,-0.009120902,0.044757113,-0.09592892,-0.004430608,-0.061777934,-0.14556995,-0.04785512,-0.0037973386,-0.03141745,-0.017758878,-0.008792877,-0.064365685,-0.0699421,-0.010186981,-0.030560944,-0.096366294,-0.0025262437,0.04657947,-0.04264318,0.056894016,0.009640274,0.07646614,0.110799365,0.04340857,0.013658573,0.028775033,0.05838835,-0.00547163,-0.06341806,-0.067026325,-0.09651208,-0.012884071,0.007198314,-0.0062233526,0.050734445,0.03048805,-0.007061637,-0.03517151,-0.013531008,-0.011262173,-0.049495243,-0.063563846,-0.005685757,-0.012100457,-0.031545017,0.012628941,-0.023635983,-0.0084921885,-0.005817878,0.01216424,0.006278023,-0.0007745022,0.013248542,0.014998007,0.015717838,-0.05492587,0.0034146432,-0.01521669,0.08557793,0.009089011,-0.020902446,0.036920972,0.06112189,0.06819264,0.03059739,0.028592797,0.0039590728,-0.005002373,-0.018232692,-0.0134945605,0.05620152,-0.01497067,0.00020373393,-0.024146244,0.0001389548,-0.030105354,0.019626796,-0.0040980275,0.033622503,0.09345052,0.059226636,0.090024486,-0.02601006,-0.03909878,0.024235887,-0.038328856,-0.090181604,-0.025708787,0.041944154,-0.024018299,0.01814344,-0.060054116,-0.11160559,-0.030529184,0.001740699,-0.055267196,0.02207675,0.012770706,-0.01767479,-0.007172015,0.04164288,-0.015222748,0.006690812,-0.023081,-0.016561747,-0.020202152,0.0021287997,0.020001302,-0.009213989,-0.033592146,-0.004548413,0.030612871,-0.038462754,0.027064523,0.03355867,-0.02493886,-0.008414773,0.03929963,-0.034177955,-0.009029876,-0.048304398,-0.053459547,-0.031048046,-0.09399775,-0.02741601,-0.004514938,-0.05463117,0.017708266,0.0035546247,0.037056804,-0.018829677,0.031181946,0.024135463,-0.017239615,-0.071368665,0.026796723,0.056204494,0.048572198,-0.029073022,0.053459547,0.06889151,0.10812419,0.0045400443,0.058212996,0.09091805,0.028738271,-0.0070339306,0.06741861,0.019783715,-0.020637326,-0.018260602,0.00024988552,-0.002064988,-0.035115257,0.04984425,-0.020921864,-0.010971425,-0.0075695305,-0.02609375,-0.030880671,0.002594311,-0.041207705,-0.042847976,-0.037659355,-0.01687976,-0.03250421,-0.020001302,0.04971035,0.06751904,-0.05248877,0.0035106887,-0.025122974,0.0028788485,-0.012586594,-0.032169458,-0.042914927,0.01014292,0.010109444,0.011030006,-0.018595353,0.016929973,-0.019850664,-0.0476349,0.035583906,-0.003042039,-0.06611309,-0.03963438,-0.060321916,-0.030110747,-0.08656631,-0.0020064067,-0.039667852,-0.024001563,-0.02502255,-0.024436736,-0.06621351,0.013682899,-0.03447923,0.039935652,0.0047074193,-0.02520666,-0.0027575016,-0.0023306955,-0.003929126,-0.00336842,-0.0433501,-0.06818854,0.028654585,-0.062196516,-0.055668894,-0.04622895,-0.024922125,-0.03396037,-0.06996271,0.014377505,-0.086432405,-0.112810686,-0.05175232,-0.049911197,-0.016001042,-0.0072096745,-0.009297676,-0.0458942,-0.02055364,-0.0003650865,-0.051618423,0.030964358,0.029391034,-0.0014624383,-0.011490287,0.055267196,0.009925332,0.055133294,0.07230596,0.03242052,-0.003960509,-0.050714597,-0.025323823,-0.009816539,0.0063058496,0.052254446,0.039533954,0.06162744,-0.011314544,0.041308127,-0.011749718,0.0519197,0.034880932,0.057208743,0.049342122,-0.027365798,0.019984564,0.04930865,-0.0070088245,0.03548348,0.03709028,0.02667956,0.05469812,0.051250197,0.07056526,0.018160177,-0.02435305,-0.03715723,-0.055668894,0.022712775,0.009389732,0.03628688,-0.000976528,0.037257656,0.05898292,-0.0484383,0.028185936,-0.0033391295,-0.017256353,-0.016093098,0.0020346513,0.0017490678,-0.058782067,-0.028905647,0.06293297,-0.020654064,-0.0063727996,-0.0508485,-0.052957423,-0.072439864,-0.20379569,-0.015925722,-0.090181604,-0.0954037,0.059317667,0.046463273,0.068389386,0.043852225,0.06370289,0.085361205,0.06008759,0.107521646,0.072975464,-0.011247594,-0.011707875,-0.01380843,-0.027784236,-0.01600941,-0.012645175,0.052622672,-0.0069167684,0.02100555,-0.047534473,0.058949444,0.037257656,0.043216202,0.07163646,0.021474201,0.06484104,0.1000902,0.04037083,0.0051593315,-0.008728602,-0.01267028,0.06336814,-0.042981878,0.010653413,0.026646085,-0.04488995,-0.0414755,-0.02601006,0.007870805,0.04395265,-0.03180123,0.006577834,0.0503129,-0.04435435,-0.041408554,0.025240136,0.019984564,0.022277601,0.054329894,0.012025887,0.0441535,0.0868341,-0.03883098,-0.030663084,0.04850525,-0.027231898,-0.07665771,-0.052522246,0.00036325585,0.011348019,-0.010385613,-0.02855416,-0.03168407,-0.022511926,0.008636545,0.019331802,-0.025089499,0.019967826,0.027901398,-0.009306045,-0.05617102,-0.018160177,-0.027031047,-0.0014561617,-0.0009812354,0.016846284,0.031014571,0.022394763,-0.013841905,-0.059116818,-0.04689845,-0.02915671,0.026830198,0.00038234706,-0.036521204,-0.014821048,0.0075067645,0.014837786,0.016846284,-0.038061056,-0.04083948,-0.009774695,-0.029307347,-0.061292693,-0.028704798,-0.0893782,-0.113346286,-0.014871261,-0.038998354,-0.036855955,-0.0100843385,0.001582739,-0.031181946,0.0489739,-0.019666553,-0.008347823,-0.01921464,0.01494658,0.039400052,0.010929582,0.0004906177,0.03342477,-0.016578484,0.031918395,-0.021641577,-0.012494537,-0.02627786,-0.00082013704,-0.042145003,-0.008339455,0.01740699,-0.005858122,0.042714078,0.048940424,0.0007788164,-0.010268451,0.044053078,-0.00084785855,0.0071678306,0.0011161814,-0.013063611,0.068222016,0.05248877,0.022930363,0.02734906,0.024637587,-0.041308127,0.025440987,0.012896237,-0.027114736,0.031583644,0.02154115,0.039969128,0.035383057,0.043986127,0.014980054,0.033257395,0.03382647,0.028905647,0.085629,0.056673143,0.0051844376,0.022143701,0.040169977,-0.067251235,-0.06443934,-0.013122193,-0.099019,-0.048940424,-0.069226265,-0.015348279,-0.07638991,-0.099822395,0.030612871,-0.010176394,-0.024704536,0.027181685,-0.019599602,-0.01673749,0.02180895,-0.024687799,-0.022779725,0.001672703,0.010059232,0.015214379,-0.014737361,0.016971815,-0.04181025,-0.07853231,0.0115405,-0.050982397,0.014938211,-0.059886742,-0.014628567,-0.0087620765,-0.06343509,-0.0519197,0.042145003,0.006209609,-0.02694736,-0.02261235,-0.06842286,0.05670662,-0.04609505,-0.008050733,-0.042747553,-0.05355997,-0.048572198,-0.049944673,-0.027499698,-0.06383679,-0.054062095,0.008728602,-0.11294459,-0.1027682,0.006418828,0.042412803,0.025440987,-0.061460067,0.06715082,-0.003581823,-0.031868182,-0.0051677004,-0.017114084,-0.03441228,0.0032617187,0.037793256,-0.023733763,-0.022193912,-0.03188492,0.016896497,0.046931926,-0.029842947,0.039333105,0.06835591,-0.020135202,-0.017658053,-0.07900096,-0.060857516,-0.070297465,-0.15103912,-0.08187981,-0.04730015,0.011783194,-0.06771989,-0.006084078,0.015180904,-0.011498656,-0.067083865,0.030730033,0.027332323,-0.001852631,-0.040806003,-0.04037083,0.026378285,0.03548348,0.06775337,0.022327812,0.103169896,0.034311857,0.050614174,0.020319315,-0.034060795,-0.050881974,-0.008259952,-0.012988293,0.0051802536,0.015599342,0.022177175,-0.027432747,-0.0066280463,0.07953656,-0.014569986,-0.034111008,-0.04137508,-0.057275694,-0.054798547,-0.017222878,-0.06517579,-0.058681644,0.024135463,-0.011481918,-0.02015194,-0.022026539,-0.028236147,-0.01908074,-0.016963447,0.040203452,0.008770445,0.07009661,-0.03275527,0.014260342,0.028570898,0.014026018,0.021156188,0.021189664,-0.0006025497,-0.0053141536,0.016645435,0.013783324,-0.051551472,0.053158272,0.10136224,0.059920218,0.0012856486,0.0075402395,0.038931403,0.016653804,0.0069083995,-0.03108152,-0.010988163,-0.027600123,0.015105586,-0.03628688,0.044120025,0.006259822,0.027047785,0.040136505,0.006678259,0.016034516,0.05168537,0.021189664,0.0063058496,0.026077012,-0.0040839477,0.06430544,-0.039701328,0.031315845,0.04191068,0.014804311,-0.010226607,0.04368485,-0.024185674,0.011557237,0.006125922,0.0072933617,0.06079057,0.070833065,0.13041852,0.06551054,0.024537161,0.056740094,0.12238453,0.09198925,0.010804051,2.9944418e-05,0.016704015,-0.038663603,0.0029583515,-0.010586463,-0.034060795,-0.007029746,0.008138605,0.050881974,0.116559885,0.030160958,0.0039667855,0.08516035,0.12372354,0.007736905,0.03762588,0.09788085,0.018126702,-0.017858902,-0.018796202,0.008046549,-0.0444213,-0.026311336,-0.022260863,0.018243866,0.03601908,0.0046111788,0.03302307,0.061761342,-0.037793256,-4.7989524e-05,0.0862985,-0.018762728,0.033391293,0.082616255,0.13430163,0.1936193,0.20875,0.12994988,0.25869465,0.20071599,0.06216304,0.172597,0.14675432,-0.04137508,-0.076724656,0.011038375,0.0154403355,-0.07002966,-0.06350204,0.06517579,-0.057811294,-0.04137508,-0.0014666227,-0.015021898,-0.015088848,-0.0019813005,0.035383057,0.011021638,-0.0033914342,-0.010820788,0.00707159,0.00039202342,-0.060188018,-0.025357299,-0.049643397,-0.041241176,-0.020118464,-0.035784755,0.018578615,0.039667852,0.0013505063,-0.02140725,0.0035211497,-0.037994105,-0.019382015,-0.022595612,0.027533174,-0.055802796,-0.030043796,0.038362328,0.058514267,0.052120548,-0.014829417,-0.0001268388,-0.032738533,-0.055334147,0.023449225,-0.05202012,-0.026378285,-0.0032575342,0.01760784,-0.021206401,-0.032721795,0.011875249,-0.0229471,0.015239486,0.07277461,0.018427977,0.080942504,0.03468008,0.010561357,0.0025064393,0.010829156,0.015105586,0.0075737145,-0.015122323,-0.08080861,-0.018427977,-0.02614396,0.0069544273,-0.07478311,-0.023566388,0.06607962,-0.060589716,-0.02775076,-0.040872954,0.007038115,-0.019649815,-0.035918657,-0.070230514,-0.019833926,-0.07906791,-0.014151549,0.014929842,0.03929963,0.0023306955,-0.042211954,-0.017992802,0.02167505,-0.013699637,0.06544359,0.04462215,0.051049348,-0.08382136,-0.027399274,0.020804701,-0.015775084,-0.0010973518,-0.020670801,-0.01928159,0.06353552,0.018093228,-0.009900226,0.008025627,0.017691528,0.00974122,-0.038128003,-0.0025671127,0.018628828,0.021507677,-0.053057846,0.0058204625,-0.038897928,-0.039600905,0.0028244515,0.01894684,-0.024001563,-0.05978632,-0.03588518,-0.045860726,0.00653599,0.0011203658,-0.022696039,-0.003088067,-0.032403782,0.025892898,0.0511163,0.040538203,0.046061575,-0.0425467,0.028135723,-0.025122974,-0.01687139,0.013515524,-0.059083343,-0.061393116,-0.030328333,-0.06668217,0.03396037,0.007343574,0.0035839153,0.006092447,0.02875501,0.008205555,0.010979794,-0.0018024186,0.033525195,0.023884399,0.023733763,-0.05536762,0.0049877726,-0.031232158,-0.08127726,-0.029826209,-0.03990218,-0.0877714,0.00994207,-0.05175232,-0.03349172,0.02082144,-0.054530747,-0.06544359,-0.07900096,-0.03742503,-0.030964358,-0.032638106,-0.0452247,0.03382647,-0.05804562,0.032922644,-0.022712775,0.04144203,0.08837395,0.08663325,-0.060321916,-0.047333624,0.02507276,-0.024520425,-0.052154023,0.028236147,0.057610445,-0.02001804,0.02949146,-0.029709047,-0.02754991,-0.03709028,0.025725523,-0.006858187,-0.012963187,-0.024520425,0.031399533,-0.0012877408,-0.047768798,0.0072264117,0.004054657,-0.034060795,0.013197511,0.0029018626,0.0029039546,-0.023315325,-0.009975545,0.022277601,-0.0011590712,-0.038462754,-0.022896888,0.015532392,0.042981878,-0.08080861,0.04117423,0.03108152,-0.024503687,-0.028453736,-0.06691649,-0.01854514,-0.0079670455,-0.07310936,0.010887738,-0.0129297115,-0.061761342,0.098215595,0.12372354,0.035048306,0.027047785,-0.040872954,0.021440726,-0.020252364,-0.03168407,-0.028118985,0.02949146,-0.029273871,0.002560836,0.0066615213,-0.018511666,-0.016971815,-0.034880932,0.024704536,-0.0006993133,-0.016846284,-0.06678259,0.019783715,-0.006770315,0.046195474,-0.02301405,0.023248374,-0.04261365,-0.079871304,-0.010377244,-0.008481723,0.00011258578,-0.017557628,0.03769283,0.010653413,-0.020536901,0.018595353,0.020888388,0.015758349,0.036922906,0.008519383,0.061727867,0.02714821,0.014980054,-0.06189524,-0.0071008806,0.028001823,0.031382795,0.07223901,0.07257376,0.07920181,0.06661522,0.030512447,0.016118204,0.09600625,-0.01387538,-0.06902541,-0.049676873,0.015967567,-0.017097346,-0.07183731,0.0029499829,-0.034579657,-0.018779464,-0.026595874,-0.020235626,0.00040536112,0.026980836,-0.027231898,0.030361809,0.015917353,-0.060857516,-0.034713555,0.03668858,-0.04137508,-0.09788085,-0.023884399,-0.045057327,-0.04863915,-0.013289568,0.022779725,-0.015180904,-0.01280418,0.031114995,-0.0025524674,0.02288015,0.028520685,0.01914769,0.0057953564,-0.022110226,-0.022913625,0.04010303,0.010552988,-0.041308127,-0.04730015,0.052790046,-0.032119244,-0.0441535,0.007996337,-0.09386385,-0.06812159,-0.022428239,-0.0481705,-0.025273612,0.017507415,0.0010722455,-0.04596115,0.057141796,0.0120007815,0.017306566,-0.012209999,0.030796984,0.013398361,-0.02408525,-0.058514267,-0.010193132,-0.06611309,-0.11776499,-0.050346375,0.04462215,0.025307087,-0.056873996,0.07846536,0.082080655,-0.03208577,-0.018394502,0.023717025,0.004749263,0.06249779,-0.034044057,-0.042948402,0.011548868,-0.041308127,0.03668858,0.0030001954,0.0071594617,0.012151418,-0.042178478,-0.008962926,-0.022193912,-0.0053685503,0.014327292,0.02734906,-0.045358602,0.01007597,0.056070596,0.006544359,-0.042178478,-0.0038203322,0.0129297115,0.024319574,-0.007586268,0.0436179,0.040471252,0.015147429,0.0133899925,0.005037985,0.0845578,-0.008795552,0.03314023,0.03588518,0.034345333,0.0449569,0.042379327,0.008586333,0.028236147,-0.042747553,0.00893782,0.028738271,0.051785797,0.077260256,0.04170983,0.044923425,0.02681346,0.038094528,0.07371191,0.03709028,0.015549129,-0.011816668,0.019064002,0.017323304,0.017725004,-0.017130822,0.031600382,-0.0047199726,0.031449746,-0.009322782,-0.0022177175,0.062330417,-0.021390514,-0.012528012,0.014921473,0.009381364,0.028671322,0.014569986,-0.00023968611,-0.034161218,0.048839998,0.025775736,-0.031048046,0.085361205,0.032169458,0.020369526,0.10825809,0.02775076,-0.029524934,-0.025507936,-0.036655106,-0.06296644,-0.014059492,0.12345573,0.032052297,0.022762988,0.0933952,0.0436179,0.008586333,0.06089099,0.011331282,-0.042847976,-0.043015353,0.021507677,-0.039600905,-0.020319315,-0.009172145,-0.014929842,-0.012954818,-0.052154023,-0.05955199,-0.039533954,-0.07103391,0.01587551,-0.03481398,-0.01273723,0.0033474981,-0.010795682,0.010435825,0.010519513,-0.031315845,0.06728471,0.010168026,-0.014101336,0.07598821,0.0917884,0.056405343,0.035516955,-0.02975926,0.014795942,-0.041040327,-0.010218238,-0.026177436,-0.03347498,-0.0469654,-0.073511064,-0.063200764,0.020905126,-0.035416532,-0.01594246,0.012176525,-0.044655625,-0.031734284,0.035316106,0.025809212,0.050513748,-0.024738012,-0.057610445,0.024871912,-0.023164688,-0.07397971,-0.044588678,-0.02095534,-0.015783453,0.025173187,0.017775215,0.05382777,0.05255572,0.030847196,0.057610445,0.0505807,0.034880932,0.01467878,0.030780246,0.03822843,0.02714821,0.0057200375,0.011950568,0.06818854,0.07170341,-0.0006412551,0.055334147,0.018662302,0.014486299,-0.01333978,0.024453474,0.032905906,0.13604233,0.038897928,0.022394763,0.053760823,-0.007331021,-0.0018358935,0.035450008,0.058547743,0.06718429,0.07418056,0.01834429,0.0414755,0.054664645,0.041877203,-0.006745209,0.006929321,-0.015833667,-0.02708126,-0.036454257,-0.06895846,0.016201891,0.017641315,0.05489897,0.027800974,-0.029775996,-0.0077871177,-0.022043277,-0.053693872,-0.048940424,0.03668858,0.026177436,0.025792474,0.0005308923,0.03849623,0.06624699,0.02247845,-0.024252625,0.062732115,0.01841124,0.034111008,0.045726825,-0.0005382149,0.0020995091,0.0861646,-0.025758998,-0.012620068,-0.010385613,-0.016528273,-0.038630128,0.04823745,0.030027058,0.030060533,0.098818146,0.07230596,0.07016356,0.004228309,-0.018294077,-0.0481705,-0.06105837,0.01624536,0.015674071,0.100962214,-0.0040691304,0.012152859,0.010459769,0.08758368,-0.021251922,-0.046949506,-0.014853494,-0.042711586,-0.021999791,-0.054303546,-0.08384434,-0.041589785,-0.098718606,-0.013305822,0.048902273,-0.01801116,-0.1414302,-0.056339405,0.014084851,-0.020213217,0.0036640351,0.06406738,0.090741344,0.051187426,0.0011711409,0.018707093,-0.012589116,0.033176266,0.053306386,0.009633997,0.09123992,-0.011924343,0.049567044,0.002781135,-0.013388919,0.013762853,0.055508442,0.039221533,0.0382036,0.043584097,0.07690579,0.044913642,0.017699549,0.02829435,0.03849444,-0.010085834,0.0054428186,-0.06842995,0.026300034,0.027878866,0.02270611,0.050813492,0.061283648,0.01667123,0.11334359,0.04940085,0.015611749,-0.08608794,0.0658124,-0.025593713,-0.04520448,-0.0080551645,0.00040931505,-0.055716183,-0.1035382,-0.05870766,-0.02684016,-0.0988848,-0.106114194,0.046575572,0.0105948,0.04424887,0.038058184,-0.025946872,0.06556311,-0.0009218515,-0.032802332,0.0046508056,0.072086185,0.03022634,-0.005692108,-0.007868197,-0.043210164,0.022207532,0.025302876,0.081766926,-0.0004953329,0.036583222,-0.0347551,0.01804232,0.061325196,-0.032220658,-0.04030179,0.056090117,0.015518266,-0.043958034,-0.03228298,-0.020961085,0.008325228,-0.045287576,0.0034147457,-0.0071255225,-0.0682222,-0.046243187,-0.036437802,-0.032303754,-0.03965779,-0.06872078,-0.013285048,0.041153528,0.0045858864,-0.02567681,0.0074682953,-0.017211357,0.0104234135,0.014458786,0.06045268,-0.036707867,0.060660426,0.015144331,-0.015133944,0.106778964,0.023225464,-0.08247325,-0.018322771,-0.028522864,0.00029181145,-0.04827905,-0.050024077,0.06456596,0.10736064,0.06448286,-0.09722287,-0.11018592,-0.023370882,-0.07877546,-0.05837527,0.06739124,-0.057585854,-0.0730418,0.043708745,-0.008273292,-0.028045058,0.023827912,-0.012589116,0.052392326,-0.017772257,0.015372847,0.050564203,0.09954957,0.120406784,0.065729305,0.08991038,0.014593817,0.02310082,0.0800219,-0.02839822,-0.07910784,0.053098645,-0.001290592,-0.081102155,-0.0037445347,-0.020431345,-0.02129347,0.03350865,-0.0052376743,-0.021168826,-0.065064535,-0.0540958,-0.023807138,-0.048403695,0.0341111,0.017242517,0.032469947,0.105615616,0.06610324,0.05953862,-0.07495302,0.016016845,0.029478474,-0.124146126,-0.033882584,0.078733906,-0.09107373,-0.07258477,-0.033010073,-0.11375907,-0.11051831,-0.019506896,-0.03924231,-0.115254804,-0.056297857,0.0046404186,-0.005956978,-0.07083974,-0.042337652,-0.074994564,-0.04574461,-0.040281013,-0.0942314,-0.08218241,0.0065282667,-0.06818066,0.0007361828,0.019382251,0.06431667,-0.06751588,-0.02895912,-0.08907942,-0.06635253,-0.023682494,0.036562447,0.02694403,0.0101585435,0.015507879,0.00609201,0.050938137,0.01674394,-0.030039374,-0.0025630067,0.028211253,-0.024804296,0.02386946,-0.024326492,-0.005164965,-0.058790755,0.021605082,-0.03863986,-0.027276417,-0.048445243,-0.0540958,0.020618312,0.031119628,0.05700418,-0.018665545,0.07877546,0.04030179,-0.021044182,0.044664353,-0.012620277,0.082556345,0.14059924,0.08052048,0.07233548,0.06714195,0.063901186,-0.016297296,0.062322352,0.04227533,0.06352725,0.02076373,-0.0729587,-0.0016476472,0.03824515,-0.0388476,-0.05908159,-0.021916695,-0.06618634,-0.00059758045,0.003609503,-0.0012769591,0.004632628,0.016079167,-0.025510617,-0.01102067,-0.1106014,-0.028647508,0.09630881,0.058292173,0.09123992,0.07781985,0.03450581,-0.027504932,-0.015871426,-0.07200309,-0.015040461,0.030205566,0.0918216,-0.0013126646,0.08666962,0.06435822,0.012256729,0.026403904,-0.038016636,-0.0317844,-0.07100593,-0.035648387,0.014541882,0.0071982318,0.008013616,0.06311177,0.0027551674,0.0406134,0.02270611,-0.047406536,-0.06643563,0.0022656773,0.09356663,0.08642033,0.040239464,0.081392996,0.085589364,0.058084432,-0.042358425,-0.036790963,0.0011841247,-0.05085504,-0.0117581505,-0.056879535,-0.041735202,-0.053597223,-0.0941483,-0.022664562,-0.09979886,-0.056837987,-0.08205777,-0.07981416,-0.032075237,-0.07088129,-0.023516301,0.056879535,0.038078956,0.09364972,0.046118543,0.0717538,-0.0018683722,0.06489834,0.051187426,0.06531382,0.05621476,0.065729305,0.05554999,0.022623014,0.009218515,0.051187426,-0.0411743,0.022165984,0.02885525,-0.03269846,0.030247115,-0.04304397,0.051395167,0.02598842,0.004404113,0.028211253,-0.0024072009,0.045038287,0.060909715,-0.036292385,-0.0074111666,0.024451137,0.07877546,0.10054673,0.1390204,0.082971826,0.14284283,0.004544338,-0.028481316,-0.028543638,-0.0388476,-0.05513451,-0.13843872,-0.05866611,-0.09215399,-0.11492242,-0.10711135,-0.018925222,-0.02719332,-0.027151773,0.019226447,0.003199214,-0.011768538,-0.008273292,0.036603995,0.055965472,0.0006504896,0.01447956,-0.03693638,-0.0018670738,-0.09838622,-0.06805601,-0.109438054,0.00822655,-0.03502516,-0.059746362,-0.04566151,-0.057835143,-0.0009341861,-0.061159004,-0.036396254,0.020628698,0.009592449,0.0026512968,-0.035939224,0.049151562,0.012370987,-0.0053233677,0.06909472,0.040343337,-0.0120282145,0.017065939,-0.00087056536,0.0027343933,-0.053098645,0.048237503,-0.036645543,-0.05625631,-0.08758368,-0.050314914,-0.024409588,0.030579502,0.0565887,0.019735413,-0.08999348,0.014251045,0.042545393,-0.05625631,0.04242075,0.041298945,-0.003809454,-0.008969225,-0.031348143,0.003895147,-0.02260224,-0.0044638384,-0.059954103,0.04661712,-0.004227533,0.022623014,0.012256729,0.025240554,0.058998495,-0.056339405,-0.056297857,-0.03955392,-0.061782226,0.022290628,0.010636348,-0.015237816,0.0015918168,-0.0021864758,0.07283406,0.069302455,0.0106986705,0.0659786,0.11392526,0.050065625,0.0034355198,-0.018831737,0.033778716,-0.0014866478,-0.013897885,0.024575781,-0.012100924,0.05463593,0.08583865,-0.016359618,-0.04198449,-0.027941188,0.009769029,-0.13868801,-0.028751379,-0.0009789803,-0.08446756,0.02638313,0.017419098,0.02870983,-0.08899632,-0.030766468,-0.053347934,-0.14766243,-0.058749206,-0.12738688,-0.110102825,0.00679833,0.037310317,-0.09215399,0.053555675,0.0822655,0.03647935,0.008403131,0.077529006,0.06120055,0.006123171,-0.028647508,-0.022062114,-0.021033794,-0.017886516,0.017824193,0.042503845,-0.018478578,0.019434188,-0.0068918136,-0.10038054,0.086503424,0.004923466,0.075659335,0.00028418345,0.041008107,0.09356663,-0.03743496,-0.031161176,-0.045827705,-0.056173213,0.005728463,-0.027816543,0.032553043,-0.004643015,0.06685111,-0.03394491,-0.005448012,0.055217605,-0.040239464,-0.05442819,0.013638209,0.07956487,0.0024695233,0.0004709882,-0.02553139,-0.05837527,0.0028901992,0.022456821,-0.07578398,0.017471032,0.011145314,-0.10968734,0.065729305,0.09913409,-0.015092396,-0.00079266244,0.03400723,-0.049567044,0.13627821,0.11816318,-0.055009864,0.05135362,0.07486992,-0.05509296,-0.03238685,-0.032469947,0.018198127,-0.07221083,-0.011446539,0.0329893,-0.06240545,-0.017969612,0.0112284105,0.0071670706,0.032677688,0.04150669,0.049026918,0.02090915,0.002112468,0.059164688,-0.033882584,-0.070382714,-0.07067355,-0.027276417,-0.034588907,-0.030953435,-0.034381166,0.026424678,0.003993824,-0.10054673,-0.020524828,0.081351444,0.018156579,0.010236447,0.031909045,0.017367162,-0.0014580834,-0.007281328,0.0068035237,-0.005463593,-0.025739131,-0.061366744,-0.021376567,-0.03471355,-0.056297857,-0.0064919116,-0.0034355198,-0.04566151,-0.02069102,0.042711586,0.035731483,-0.08338731,-0.05509296,0.03969934,-0.06809756,-0.05887385,0.00091665797,-0.01140499,-0.056879535,-0.0347551,-0.027089449,0.08446756,0.051395167,-0.04223378,0.061283648,0.010740219,-0.0005962821,0.03153511,-0.012319052,0.031472787,-0.013025371,-0.033591747,0.014739237,0.049110014,-0.020898763,-0.02991473,-0.0022267257,-0.033924133,-0.048652984,-0.023703268,0.02870983,0.13486557,0.067598976,-0.030932661,0.0053701093,-0.06909472,-0.06934401,-0.020202829,-0.006751588,-0.02260224,-0.021667404,-0.041236624,-0.028626734,0.014022529,0.055217605,0.04728189,0.103455104,0.056297857,0.08093596,0.14433856,0.1199913,0.10694516,-0.022082888,0.0021786855,0.04520448,-0.035793804,-0.09489617,-0.13303745,-0.13594583,-0.14757933,-0.050938137,-0.06980103,0.055466894,0.03456813,0.043750294,-0.001368495,-0.022207532,0.0037705023,-0.06734969,-0.012111311,-0.037393413,-0.0037549217,0.041444365,-0.050522655,-0.055882376,-0.034838196,0.05368032,-0.05741966,-0.107693024,-0.0022150404,-0.044872094,0.04574461,0.0060089137,0.06647718,0.03244917,0.10777612,-0.010553252,0.052350778,0.049317755,0.026487,0.0040353723,-0.018125419,-0.018166967,-0.025095135,0.057544306,0.012454083,-0.07703043,-0.029706988,-0.051436715,-0.09273566,-0.02013012,-0.03747651,0.020774119,-0.009057515,-0.009498965,-0.1012115,-0.040592626,-0.04940085,-0.05014872,-0.063901186,0.029146086,-0.0133265965,0.016338844,0.019205673,-0.009924835,0.04304397,0.04044721,0.13760775,-0.012474857,-0.06552157,-0.025967646,-0.00361989,-0.014095239,-0.013014984,-0.05721192,-0.05442819,0.0030719726,-0.040987335,-0.00063847954,-0.012848792,-0.0020436537,0.023121594,-0.06647718,-0.0020709198,0.0191018,-0.07378966,-0.027484158,0.011259572,-0.018623997,-0.0648568,0.010116995,0.047364987,0.02532365,0.062571645,-0.010792154,0.014936591,0.07823533,-0.020514442,0.071172126,0.03743496,0.01581949,-0.071047485,-0.13503176,0.020078184,-0.14201187,-0.12821786,-0.10702825,-0.06518918,-0.13145861,-0.016048007,-0.028169703,0.013201952,0.049567044,0.02684016,0.035731483,0.056464054,0.0918216,0.071172126,-0.00056219957,-0.09207089,-0.105864905,-0.0766565,-0.05014872,-0.014084851,-0.027172547,-0.0076552625,0.039179984,0.027027126,-0.055508442,0.030039374,0.051644456,-0.07811068,-0.021667404,0.017190583,-0.07133832,-0.15057081,-0.055383798,0.030060148,0.035586063,-0.062571645,0.042150684,0.045578413,-0.037518058,-0.04965014,-0.0822655,-0.06755743,-0.0083200345,0.0382036,-0.0022228307,0.021563534,0.031493563,-0.0020994842,0.005946591,-0.04778047,0.043750294,0.07241858,0.023017723,-0.08076977,0.02789964,-0.057752047,0.022623014,0.011093379,0.046741765,-0.016328456,-0.0032771172,0.017086713,-0.060868166,-0.025261328,0.04873608,-0.08409363,-0.0730418,-0.0035134226,-0.00150093,0.005858301,-0.03371639,-0.034381166,0.07840152,-0.0041236626,-0.026964804,0.041298945,-0.031722076,0.054261997,-0.048237503,0.02090915,0.02016128,-0.031057306,-0.079647966,0.017263291,0.0050584977,-0.034194198,-0.008797839,-0.010132576,-0.022269854,-0.032075237,-0.011924343,-0.062031515,-0.030953435,0.022165984,-0.049816333,-0.004614451,0.05446974,0.0023695477,-0.040551078,0.095394745,0.0294577,-0.0071255225,0.14209497,0.08247325,-0.01077138,-0.030330213,0.050813492,0.037829667,-0.045536865,-0.019081026,0.010516897,-0.03984476,-0.06780672,-0.061616033,0.017595679,0.060951263,0.03938773,-0.06689266,-0.049359303,-0.043958034,0.053971156,0.03294775,-0.020109346,0.0044949995,-0.010906412,0.002659087,-0.025656035,-0.03107808,0.005338948,0.06847149,0.015580588,0.05347258,-0.00071865466,-0.027110223,-0.03683251,-0.0049624173,0.023495527,-0.0056869145,0.007099555,-0.04383339,0.075410046,0.020701408,-0.035087485,-0.027255643,0.0072969086,0.03945005,0.046575572,0.00776952,0.070632,0.023973333,-0.031701304,-0.04304397,-0.0483206,0.044207323,-0.040675722,-0.04873608,0.00943145,-0.006102397,-0.09514546,-0.06381809,-0.04852834,0.05151981,-0.14749624,-0.12547567,0.04007327,-0.115421,-0.14267664,-0.07578398,-0.027858092,0.005328561,-0.027567254,0.04665867,0.061616033,-0.0049052886,-0.04001095,-0.0027551674,-0.025946872,-0.015310525,-0.030039374,-0.07773675,0.037040252,-0.0021566132,0.005894656,-0.022207532,0.00591543,0.03197137,0.019735413,-0.044581257,0.007847423,-0.0022695723,0.08031274,0.106778964,-0.12048988,0.043459453,0.062280804,-0.08222396,-0.07279251,-0.06880388,-0.008185002,-0.021625856,-0.09930028,0.017159421,-0.00091730716,-0.12605734,-0.0075513916,-0.002556515,0.0056869145,-0.02280998,0.04495519,0.031098854,-0.039927855,0.09614262,0.061283648,0.00032767924,-0.041485913,0.011446539,-0.028045058,-0.02850209,-0.045869254,-0.06385964,0.037767347,0.053306386,-0.091406114,-0.065604664,0.019725025,-0.048154406,-0.018842125,0.025385972,-0.018592834,0.012786469,0.010475349,-0.014791172,-0.10927186,-0.037310317,0.032760784,-0.08991038,0.02002625,-0.003773099,-0.09747216,-0.0085952915,0.007821456,-0.056713343,-0.023620171,0.069842584,0.005816753,0.0010958347,-0.030371761,0.05534225,0.106778964,0.0061751064,-0.05343103,0.044456612,0.021376567,0.034028005,-0.007577359,-0.0045651123,0.03924231,0.06926091,-0.04545377,-0.05999565,0.006294558,-0.06531382,-0.07059045,0.022560691,-0.042919327,-0.024305718,-0.007966874,0.056837987,0.016930906,0.013160404,0.044830546,-0.024326492,-0.014448399,-0.07707198,-0.05438664,0.0048715305,-0.028792927,-0.045786157,-0.033570975,0.03496284,-0.05554999,0.028211253,-0.010667509,-0.07154606,-0.029706988,0.009057515,0.06531382,-0.0065386537,0.02341243,0.09207089,0.07840152,0.062322352,0.0988848,0.004733902,-0.01917451,-0.10785922,-0.104286075,0.0033913748,-0.03969934,-0.012776082,-0.009026354,-0.016380392,0.07939868,-0.002488999,-0.029623892,0.0423792,0.044913642,-0.053389482,0.05085504,-0.080437385,-0.011197249,-0.06099281,0.03213756,0.0671004,-0.037061024,0.09057515,-0.037040252,-0.08263944,0.022726884,-0.0764072,-0.042753134,-0.049816333,-0.09082444,-0.10927186,-0.07428824,-0.03244917,-0.112761915,-0.049608592,-0.015248203,-0.073955856,-0.059663266,0.0027343933,-0.04408268,-0.028190479,-0.0015152122,-0.007909745,-0.035502966,-0.051270522,-0.05554999,0.060660426,-0.016910132,-0.041153528,0.05787669,-0.0114984745,0.0043547745,-0.07586708,-0.062696286,-0.027671125,0.0057907854,-0.0101689305,-0.062073063,0.06373499,-0.06859614,0.0073332638,0.033861812,-0.13370222,-0.124395415,0.0141264,-0.013108469,-0.062820934,-0.017595679,-0.010205286,-0.028792927,-0.116833635,-0.00031161177,-0.047863565,0.07374812,0.029540796,0.053140193,-0.014240658,0.07852616,-0.022768432,-0.019060252,0.010740219,0.04383339,0.014012142,-0.06618634,-0.022685336,0.015237816,-0.040281013,-0.05014872,0.071712255,0.006855459,0.012651438,-0.04202604,-0.05953862,-0.03606387,-0.093151145,0.0057232697,0.043958034,-0.05700418,