#pragma once

#include "parameters.h"

#ifndef KERNEL10_H
#define KERNEL10_H

static float bias10[FEATURE_MAP10] = {1.0524766,0.62143934,5.049023,0.12088242,-1.6570494,1.6492107,0.050578803,3.703843,0.7258753,-0.89257395,-1.2654691,2.4857638,0.042497158,0.5340122,1.471497,3.1198523,0.58395904,0.49805093,-0.15703785,0.1487267,0.023389697,2.9118264,1.433083,0.26040477,1.2414,2.2214441,3.162047,4.024193,1.2583398,3.3870368,0.24684832,0.6699507,0.74382424,1.6219909,0.06725483,1.3929645,-0.3343964,1.1730541,2.3133998,1.8947031,0.73725384,1.2268777,0.9216491,-0.08397825,1.7853748,2.3644392,0.14409976,0.38835055,-0.651759,2.1028357,-0.7794995,2.3323689,2.7492342,-0.9229207,-0.1181519,0.58741385,2.3375483,1.4937575,0.23514974,2.9777298,1.1584806,0.78555155,1.1311454,2.0379024};

static float kernel10[FEATURE_MAP10][IN_CHANNEL10][KERNEL10][KERNEL10] = {-0.14919609,-0.110363394,-0.053095896,0.055181697,-0.11238784,-0.06582541,0.07576364,0.025689088,0.21949984,0.043587096,0.18232352,-0.03294338,0.1678456,-0.18232352,-0.16085203,0.26820943,0.06582541,-0.10208154,-0.14735568,-0.14281599,-0.01371874,0.40439993,-0.07281898,0.35728538,-0.19262981,-0.14551526,-0.018618837,0.1258842,0.024584841,-0.14980955,0.018848889,0.09938227,0.1698087,0.03579602,0.09717377,-0.026333233,-0.13349123,-0.0064644483,-0.09318621,0.012867549,-0.032452602,-0.06281941,-0.09766454,-0.0072159497,-0.14858262,0.048433516,-0.031869806,-0.07564095,-0.040090315,-0.0048579215,-0.09079368,0.04726792,-0.012330762,-0.21127933,-0.077604055,0.049537763,0.050304603,0.06128573,0.061009668,-0.29863757,-0.20735312,-0.14171174,-0.1783973,0.036716226,-0.005281172,-0.16751106,-0.019066533,-0.056370616,0.014707243,0.13240807,-0.08524198,-0.11422768,-0.1070813,-0.2114184,0.08312665,0.09930605,0.054741245,0.06769048,0.07689501,0.02242533,0.010155001,-0.02341153,0.18900737,0.19964117,-0.040820103,-0.054684073,-0.058485944,-0.004973878,-0.0061101518,0.41940653,0.05005322,0.084555924,-0.07969639,0.1591641,-0.041706253,-0.38327447,-0.1390399,-0.14544305,-0.08312665,-0.15390436,-0.12829176,-0.074265145,0.044507634,-0.108967945,-0.008368406,-0.071006395,-0.27099058,0.023997532,0.031501226,-0.03250172,-0.07872448,0.15173186,-0.06494627,-0.2636727,0.12303202,-0.036875304,0.032015767,-0.16602461,-0.0706062,-0.12497583,-0.20821683,-0.17951697,0.3469137,0.06911975,0.09610447,0.115028076,0.021167567,-0.047051743,0.1673381,-0.37964833,-0.048711076,-0.44135424,-0.41562602,-0.2989077,-0.09601024,-0.30748376,0.32045248,-0.021753954,0.36960804,0.03378138,0.09658547,0.15123181,0.027767668,-0.15227768,-0.25853738,-0.013870761,-0.39784634,-0.25393558,0.13083749,0.10364504,-0.09104239,-0.042252872,0.24033935,-0.016197806,-0.056372024,-0.051168855,-0.13010538,-0.24661453,-0.0909378,-0.70449346,-0.169639,0.35433844,-0.24096687,-0.54259384,-0.3357221,0.22527893,-0.17152156,0.044841383,-0.055064697,-0.22297803,-0.26795015,-0.2781996,-0.16901149,-0.15123181,-0.1842811,0.20091031,-0.35287425,0.061810512,0.13188335,0.0033402254,0.38153088,-0.20122407,0.20279287,0.17716922,-0.43968087,-0.5405021,-0.068922386,-0.040788665,-0.0756682,-0.22799817,-0.055849094,0.1979819,-0.09834433,-0.20862329,-0.10469913,0.21203317,0.07501759,0.30859506,-0.17436938,-0.19436374,-0.47025487,-0.11105392,-0.060913038,0.09741437,-0.056146942,0.059091847,-0.046149764,0.31277993,0.027744107,-0.035803847,0.17049451,0.12725091,-0.24473712,-0.102451704,-0.3453289,-0.09067208,-0.33726913,0.018211914,-0.48079452,0.18909392,-0.17607433,-0.14786524,0.110046454,-0.061998002,-0.20428342,0.20691834,0.014220792,0.00039626655,0.018454093,0.062850475,0.017543498,0.08609973,-0.08726219,-0.15724243,-0.021815548,-0.03998871,0.009609691,-0.11539379,0.031153997,-0.108574,-0.009033303,0.09129206,0.057619397,-0.052388314,-0.036869437,0.03642383,0.11957865,-0.08865715,0.026969131,-0.18583901,-0.017524123,-0.07827248,-0.015722306,-0.061339274,0.004783049,-0.043747343,0.19129308,0.006984986,0.14846216,0.0846978,-0.07581486,0.015984127,0.11003827,0.12628923,-0.0017752968,-0.13269322,-0.10425404,-0.14543231,-0.28976288,-0.17380263,0.093993895,-0.10473606,0.0337414,-0.092547834,-0.12580721,0.14212704,-0.14377968,0.05532901,-0.3189595,-0.28535584,0.24720739,0.20602912,-0.26015308,0.046859227,-0.08938028,-0.2500995,-0.10439175,0.182479,-0.0681714,-0.21043615,0.018902069,0.05684393,0.027939944,-0.02420429,0.073267035,0.05698165,0.05963276,0.05460598,-0.16361135,0.14639635,0.09358074,0.02554706,-0.06789596,0.069410875,0.16732979,-0.08166796,0.007862951,-0.1439174,0.18013775,-0.16209644,-0.0034257849,-0.060768947,0.01952181,-0.04734125,-0.088967115,0.077742934,0.116166815,-0.11210407,-0.084835514,-0.07374906,-0.07824292,-0.047611013,-0.12908095,-0.16760665,0.26372233,0.110413864,0.18498294,0.08107277,0.056745976,-0.14397492,0.013627971,-0.19878468,0.07342721,-0.055306226,-0.06677457,-0.024277149,-0.07948408,0.02869569,-0.101129964,0.1855787,-0.22936693,0.15589008,-0.01712805,-0.057589967,-0.12431489,0.24624676,-0.05907936,0.0059637884,0.02854675,0.072384626,-0.07804433,0.019746903,-0.11239973,-0.048901822,-0.13712369,-0.17535152,0.024090976,-0.10813013,-0.0054890434,-0.05168203,0.059277948,0.01849333,0.15608867,-0.18508223,-0.033784457,0.049050763,-0.11061245,0.11835731,-0.06806538,-0.11309478,-0.0884701,0.07511519,-0.0024885319,-0.05907936,0.045550685,0.056597035,-0.103066176,-0.12054175,0.16641514,0.04080944,0.04254707,-0.030557435,-0.08608707,0.023035986,-0.06447685,-0.64179987,-0.4147371,-0.098326296,0.18926725,0.014300032,-0.24415042,0.16146365,0.0047425423,-0.040148694,0.0007347999,-0.12113394,-0.14466563,-0.07559105,0.12663673,0.25341827,-0.122654445,-0.06918319,0.16464947,-0.15132691,0.01897017,0.33219516,0.056476075,-0.07776321,0.086451836,0.022608532,-0.02827424,0.1484307,0.13901803,-0.016535543,-0.09789186,-0.12004786,-0.08536576,-0.07280345,-0.068567745,0.017793583,-0.2706507,-0.02025536,0.23053823,-0.054593537,-0.097167805,-0.16479428,-0.15509199,0.090868555,0.18390927,0.31858298,0.22431138,0.25269422,-0.20997514,-0.028093226,-0.014643956,0.097819455,-0.11476228,0.0207984,0.065092295,-0.3385668,0.07595308,-0.10028123,0.009557489,-0.03245564,-0.078052826,-0.13554257,0.028382847,0.091013364,0.04809962,0.006689744,0.10437427,0.0020496997,-0.015843088,0.08041952,0.059063032,0.09556551,-0.07915207,0.024129024,0.14892504,-0.032098096,-0.072307855,0.07858172,0.030735591,0.024398357,-0.022718988,0.09062247,0.11527431,0.1254139,-0.047434207,-0.045818213,-0.089164905,0.05221882,-0.026885722,0.0038241255,-0.037041143,0.08238406,-0.02072276,-0.052599054,0.049588867,0.029167125,-0.070343316,-0.024192397,-0.10633881,0.0014575642,-0.07737765,0.032953624,-0.17579491,0.0143696815,-0.15805066,0.0476877,0.05976013,-0.1907508,0.02473106,0.07560322,-0.12275225,0.037041143,-0.00795323,0.022814047,-0.016429283,0.034949854,0.030101867,0.05288423,-0.03447456,-0.019170137,0.0029586968,-0.048448164,0.046198446,0.01698379,-0.019170137,-0.07218111,0.1547553,-0.17135884,0.09302848,-0.2111791,0.017980829,0.123315334,0.09844823,0.07179579,0.06599347,-0.11891577,0.20862862,0.088182576,0.17151926,-0.3634423,-0.02006903,-0.0016348925,-0.17827801,0.042242195,0.07064808,-0.00012453478,-0.17406973,0.24369763,0.01023377,0.16297518,-0.18503676,-0.013684878,-0.2208709,0.08187016,-0.27035007,0.00290714,0.037205014,-0.0015671457,0.025600366,0.13849065,0.06841642,-0.025998877,0.15455861,-0.01981398,-0.24025449,-0.05126449,0.112985924,-0.058437698,0.040106177,-0.0013210649,-0.08289035,-0.14206131,-0.068352655,0.16272013,0.023368701,-0.054165654,-0.061625786,0.13466494,-0.31396315,-0.058118887,-0.098830804,0.17164679,0.1163653,-0.19766161,0.031259228,0.16833118,0.023225239,-0.2657592,-0.2629537,-0.1058446,0.035419684,-0.03883094,0.08789279,-0.20181872,-0.09966969,-0.060465038,0.19413275,0.086095266,0.16090952,0.07165308,-0.04332656,-0.25785193,0.20727327,-0.048161283,0.062107604,0.014767601,0.1594219,-0.30099255,0.060403053,-0.025800688,-0.029721154,0.01435696,-0.15632273,-0.24793454,-0.05662205,-0.111694515,0.49934018,0.18086825,0.20293443,-0.50206745,0.13128135,-0.21706669,-0.06973159,-0.056715026,-0.0409092,-0.23367831,0.0040095663,-0.2185543,-0.045650948,-0.0443183,-0.010676681,-0.08057873,-0.04949393,-0.07636384,-0.12142594,-0.083058074,0.17429799,-0.030821363,0.00541582,0.06260347,-0.21867827,-0.083244026,0.027737677,0.04949393,0.112500295,0.06805803,-0.038770765,-0.0655167,-0.14714915,-0.014395699,-0.05866751,0.051260468,0.045495987,0.012303752,-0.0499898,0.015542396,-0.099116445,0.16478492,0.11614729,-0.1686207,-0.31821597,-0.33141103,0.27034548,0.07472091,0.03640151,-0.03457952,0.1670864,-0.4139569,0.21940637,0.027099755,0.11016348,0.24119358,-0.034311015,-0.042999044,-0.09512724,0.081318446,-0.33816198,0.00040185745,0.11798846,0.0060749096,0.010567562,0.0454923,-0.23689751,-0.063021794,0.24119358,-0.04890614,0.4188667,-0.09236548,0.03043688,-0.25576952,0.14345801,0.010500436,0.031108141,-0.07683059,-0.0006149228,-0.07287974,-0.084003486,-0.1973123,-0.38112268,-0.15834083,0.016158205,-0.27356753,-0.0553886,-0.2190995,-0.42960688,0.22891909,-0.13701391,-0.2540818,-0.36577958,0.051591184,-0.00795444,-0.21572402,-0.07065499,-0.020387148,0.12496957,0.0004899604,0.00448546,0.294741,-0.03849201,0.33938944,-0.030276371,0.083776355,0.03494251,-0.04409121,-0.045437504,0.051404048,0.012590932,0.04601886,-0.04149041,-0.03003159,-0.09668856,0.00234072,-0.032280516,0.07447467,0.017226474,-0.014197308,0.030077487,0.01443444,-0.037910484,0.034911916,0.07618814,-0.08750927,0.046355434,-0.032188725,0.0030827129,-0.0035913987,-0.030643543,0.039623953,0.015367668,-0.03313725,0.00043984115,-0.008995708,-0.0715373,-0.02170903,-0.15408975,-0.00039753036,-0.10317526,0.24514835,0.2223837,0.04993536,0.09980952,0.18517695,0.022167996,-0.13169228,-0.07735085,0.03561566,0.06976263,-0.018771656,0.06290876,-0.031760357,0.041643396,-0.004409886,0.021357156,-0.09858561,0.06811036,-0.026497561,-0.0011196826,-0.024814691,-0.13989244,-0.0049185716,-0.010877463,0.05997139,0.048527867,-0.052811537,0.1029707,0.08361257,0.14877585,-0.084475964,-0.10115304,-0.051394466,-0.029105354,-0.07025274,-0.14677642,-0.05262139,-0.33808562,-0.020482808,-0.14232314,0.30863944,0.12823623,-0.024879284,0.09824477,0.16077243,0.12405561,0.044373736,-0.05902866,0.080386214,-0.015665997,-0.096972406,0.06920758,-0.02953705,0.29082632,-0.039784133,-0.30009642,-0.16277187,-0.06448165,-0.20903143,-0.08474861,0.065117836,0.04276056,-0.052803155,0.21793799,-0.104879245,-0.083476245,0.11769378,-0.045714263,0.007622831,0.020130636,-0.024402147,0.10360688,0.054711703,0.010343648,0.0050752605,-0.024379427,-0.22102802,0.13523425,-0.13741544,-0.09597269,-0.13241686,-0.07543308,-0.08333992,-0.050440192,0.022391357,-0.106969565,0.024379427,0.0410565,-0.021766534,0.02077818,-0.05212153,-0.37327018,0.029392118,-0.17667605,0.10767409,-0.110454865,0.086462624,0.20991598,-0.044136677,0.20616518,-0.028810095,0.263074,0.06790258,0.2873896,0.16710502,-0.035309345,0.07068335,-0.11019619,-0.16154347,-0.0057838447,0.014607139,0.09176549,-0.09913777,-0.1210606,0.008786918,0.09170082,0.009562947,-0.1191852,0.0118021155,0.09506361,0.18637642,-0.009950962,-0.0067943,0.016619965,0.10308259,0.0806424,-0.0902781,-0.12021991,0.0674499,0.012529643,-0.022294682,-0.0007386427,0.052414328,0.22414319,-0.012335636,-0.14718693,-0.015383168,-0.01683014,-0.5902998,-0.14149605,0.12933825,-0.73257184,-0.0017137318,-0.015375084,-0.15533525,-0.022133008,0.022731198,-0.06418411,0.10282391,0.018657044,-0.9524469,-0.5846089,0.05859023,-0.19801687,-0.09512828,0.0942762,-0.104720384,0.11836745,-0.27127033,-0.028709909,-0.09070196,0.18845955,-0.045118887,0.047904003,-0.14399053,-0.07180959,-0.004917471,-0.016675886,0.00058603496,-0.055980843,-0.054495446,0.06521814,0.009214094,-0.08021136,0.23320709,0.0915375,-0.15633787,0.14157675,0.16023704,-0.17017062,0.00028648984,-0.2723844,0.047950424,0.12078122,0.017000815,-0.010310734,-0.1489109,0.030938003,-0.13331424,0.010455792,-0.13897732,0.08151108,-0.1042562,0.06772475,0.025274932,-0.078029685,-0.061133306,-0.13108616,-0.0965507,0.068328194,0.05978717,0.09785043,0.0076590707,-0.1808469,-0.13507815,-0.021874769,-0.14556876,0.0042966222,0.005065431,0.029591862,-0.12560876,-0.057559073,0.04999284,-0.06099405,0.03708847,0.046581075,-0.01965828,0.04398163,0.088984475,-0.012491693,-0.0660859,0.08771218,-0.0010153037,-0.09570888,0.015377293,-0.02536059,0.036840122,0.09596034,-0.07896108,0.012409966,-0.03814776,0.019124173,0.12221365,0.011969896,-0.07508846,0.10199559,-0.04488711,-0.15591042,-0.15460278,-0.211837,0.23275916,0.014082231,-0.042372428,0.08559985,-0.034903817,-0.33978412,0.053864535,0.06226358,-0.00035736017,-0.013340399,-0.017112425,0.03797173,-0.08806424,-0.038022023,-0.11326137,0.030201357,-0.13337885,0.23477091,-0.093345076,-0.16063802,-0.09505506,0.041919783,-0.0012864181,-0.36573565,-0.003221939,0.03814776,-0.12714243,-0.21907927,-0.058390964,-0.104107924,-0.04513858,-0.06809764,-0.08524779,0.100235306,0.04305139,-0.10682378,0.22109103,-0.03437573,-0.14987518,-0.06316886,-0.108131416,0.01738904,-0.143337,-0.032090396,-0.10433566,0.08040546,0.12223545,-0.14903727,-0.020364597,-0.08356425,0.16588412,0.093136325,0.03271258,0.056523126,-0.051784948,0.017301533,0.090504006,0.00757989,-0.06375004,-0.033598,-0.12443703,0.01142667,-0.24236503,-0.0559488,0.0010088073,-0.122809775,-0.112376206,-0.17325462,-0.078443184,0.09758735,-0.042021427,0.08083621,0.13822082,0.061309166,-0.019299705,-0.058006797,0.32391915,-0.026179636,0.022446524,-0.17105305,-0.09634297,-0.060016934,-0.004540755,-0.15774786,-0.13554063,0.09777878,-0.0005560032,0.115630716,-0.06576018,0.02558138,-0.09055187,0.0900254,0.043050423,0.061261304,0.003789945,0.01647594,-0.36086738,0.022841373,0.015758036,0.01621271,-0.11256765,0.11295053,0.021273945,0.03381337,0.083277084,-0.017540835,-0.07456649,-0.00017852525,-0.046651963,-0.009684871,0.0038217262,0.02865899,-0.19648261,-0.15647714,0.061654016,0.24028608,-0.09431672,0.08589785,-0.06051462,-0.08292276,-0.007006498,0.090075634,-0.079757765,-0.046113912,0.69528514,-0.03389705,0.1677445,-0.0039898665,-0.6436325,0.0168694,-0.14964075,-0.092860825,0.004826611,0.2025594,0.08045406,-0.04684186,0.20774998,0.079821065,0.029054614,0.016054414,0.0044270307,-0.07614967,0.008205238,-0.14039898,-0.023199381,-0.0498486,-0.01978119,0.009740259,-0.08425205,-0.08456855,0.01884752,-0.0028109073,0.11849725,0.042822324,-0.041841175,-0.023468405,-0.007884783,0.020888938,-0.08880964,-0.048424356,0.11533226,-0.034688298,-0.013411648,0.012034877,0.01849937,-0.038992684,0.056241885,0.004482418,0.0028603603,0.05478599,0.067984,-0.24829662,-0.100659125,0.07028307,0.20181018,-0.33278388,-0.087992184,-0.027501402,3.8191054e-05,-0.20857407,0.14954367,-0.4432199,0.3263889,-0.28113228,0.33106214,-0.17536947,0.076124616,-0.0045656324,0.057400912,-0.16294849,-0.20193316,-0.08577855,0.060413923,-0.068438366,-0.017432414,0.0050575524,0.13503204,0.1401972,-0.03338907,-0.12839112,-0.07544823,0.12753026,0.18729854,0.10926773,0.3541824,0.015833674,-0.08842262,-0.16134976,-0.045072168,0.0319748,-0.00014423727,-0.0584155,-0.022797417,0.060721375,-0.23649053,-0.05195905,-0.02588729,0.08750027,-0.19603011,-0.07471035,0.05650931,-0.19074197,0.0050652386,0.013105056,0.12058189,-0.017493904,-0.027532147,-0.03664804,-0.06413407,0.095309496,-0.3190101,-0.16540809,-0.0830115,-0.03634059,-0.019292487,-0.05459289,0.1586761,0.17881541,0.075274065,-0.07870588,0.056624882,-0.2237902,0.11279821,0.046781003,-0.008071529,-0.11162417,0.06678485,-0.037275787,-0.08967864,0.009900323,-0.018434696,0.010741343,0.13104099,-0.06403037,-0.05161263,-0.032511894,0.14729694,-0.065114096,0.05319307,0.2864659,-0.22415145,0.2655138,-0.09762599,0.117945924,-0.18107319,-0.055495996,0.029328438,0.043394346,0.095639154,-0.057302214,-9.9483004e-05,-0.08146036,-0.057302214,-0.029825147,-0.03077341,-0.059605137,-0.15379933,-0.0122935595,-0.021956816,0.007106332,0.049400017,-0.006570112,-0.040865645,-0.07301629,0.018254073,0.010532499,-0.047368024,0.093742624,-0.068681374,-0.047458332,-0.13889803,0.020963399,-0.042717017,0.0052888272,-0.05793439,-0.057844076,-0.030502478,-0.024338765,-0.044771586,-0.005698858,-0.23741919,0.025586355,0.06282178,-0.0068429634,0.11683742,0.13542047,-0.06296046,0.077244446,-0.0006218906,0.08487181,-0.104564294,-0.07627369,-0.024858288,0.072529346,0.032589667,-0.042955954,-0.6124084,0.06500598,0.39773262,0.023003452,0.48842895,-0.069963776,0.016234161,-0.09520343,-0.11447987,-0.04188119,0.16294833,-0.037512787,-0.20080782,0.077244446,-0.030214781,0.05633852,-0.16835684,0.1868012,-0.11926431,-0.047601715,0.05408498,-0.007588365,0.06812627,0.027406523,-0.16475117,-0.1813927,0.013183214,-0.018461699,-0.014474666,-0.03952364,0.09277654,-0.08306898,-0.057586633,-0.0134779075,0.08341568,-0.25669563,0.071697265,-0.059528146,0.008164751,-0.019397786,0.07079585,0.034583185,-0.0017053237,-0.07176661,-0.05803734,-0.09152842,-0.07010245,0.11343478,-0.17357478,-0.0593149,-0.18934318,0.14277136,0.06655737,0.17993103,-0.35668394,0.005290516,0.037587494,0.057481363,0.28432035,-0.043088105,0.049138773,-0.083364785,-0.1428936,-0.13005884,0.19032107,-0.14937209,0.070713386,-0.09564947,0.07004109,0.060903963,0.13372591,-0.10328921,-0.3559505,0.0081286775,-0.11331254,-0.060842846,-0.0466635,0.21513492,-0.22381367,0.033584274,-0.06136235,-0.1100733,0.025516713,0.08837645,-0.05592286,0.054792177,0.035815075,-0.05555615,0.008037001,0.057634156,-0.16587391,0.06765749,0.02041337,0.14582725,0.0939993,-0.2071896,-0.20621172,0.006497594,0.015860088,-0.039176557,-0.054517146,-0.04657182,0.085320555,0.03364539,-0.12144122,0.05317255,0.09167682,0.13885981,-0.080064416,0.08758192,-0.060903963,-0.01611239,-0.11323848,0.020796318,-0.05617542,0.06295958,-0.02363362,-0.19008341,-0.13885346,0.008733819,0.35556632,-0.120403074,-0.15153414,0.038010344,0.044794507,-0.17524701,0.10429861,-0.051990796,-0.19756502,-0.056112017,0.18678644,0.020130582,-0.053163756,0.03794694,0.0521176,-0.029656945,0.1396143,0.01405178,0.12940635,-0.06425935,0.08014191,0.0015930106,-0.052339513,0.22901312,0.0066652833,0.1711892,0.007980904,-0.49936524,-0.08844776,0.08578481,0.062769376,-0.12953316,0.013520776,0.10867344,0.30560443,0.17055516,-0.3558199,-0.04187795,0.037851833,0.122749,-0.32513267,0.16903348,0.009066687,-0.17524701,-0.43951243,-0.007957128,-0.08077594,0.029324075,-0.08977923,0.094471075,0.07925426,0.02174737,-0.03143224,0.33578444,0.015185116,0.016309991,0.08342554,0.034120444,-0.045133814,0.115775436,0.2525573,0.06806083,0.0578277,0.066380315,-0.17945492,0.16841155,-0.29216942,0.16024905,-0.30345288,-0.1205769,0.09164805,0.16781136,0.059088085,-0.062479123,-0.21654628,-0.07094172,-0.21762662,0.055787075,0.1584485,-0.40404367,0.21522588,0.13600163,-0.33274186,0.15340695,0.099150345,-0.07076166,0.23791282,0.04894498,0.024787586,0.031179544,-0.088647135,-0.019686025,0.019595997,-0.10929345,0.12261753,-0.1055123,-0.11931652,-0.018740736,-0.03538083,-0.061758902,0.13804226,-0.045583952,0.0356209,-0.027278349,-0.06608023,-0.077123605,0.03679126,-0.03274002,0.017885474,0.0033328952,-0.024592528,-0.019776054,0.16817148,-0.07652342,-0.107372865,-0.09248831,-0.0034285495,-0.15952882,-0.10335163,-0.039708503,-0.08234482,-0.09434887,-0.07136551,-0.07341498,-0.06291144,0.0922262,-0.06108156,-0.119528085,0.03436524,-0.035847448,0.060642388,-0.015581471,-0.107158065,0.110305466,0.06733977,0.02528901,0.04944349,-0.10408386,-0.090908684,0.00055554166,0.05218832,0.105401374,-0.016944734,0.3006867,0.026478436,-0.13497232,-0.067559354,-0.008358,-0.052590895,0.05057802,-0.045637332,0.00020872125,0.03850078,-0.13409397,0.055335723,0.046698663,-0.05215172,-0.110964224,-0.052407905,-0.095959164,0.14192587,-0.02894878,0.13219088,0.18108542,-0.04754041,0.0072920914,0.03575595,-0.2542808,-0.04505177,0.11367246,0.08058813,0.036725793,0.04849195,0.086736545,-0.021373056,0.024282573,-0.10115604,0.0715851,0.11923531,0.09171384,-0.032334067,-0.08066133,0.12970224,-0.0039590904,0.11873164,0.29135254,0.16721737,-0.16298218,-0.13830118,-0.044031475,-0.055094108,0.32625642,0.15991531,0.019113164,0.028843172,-0.17335111,-0.15962322,-0.11121051,-0.08645649,0.2897461,-0.2710528,-0.30288982,-0.1965717,0.04530934,0.1249384,-0.08207525,0.059803944,-0.09667939,-0.21190603,0.03285931,-0.089815445,0.15816282,0.15947719,0.03455704,0.08477702,0.30288982,-0.11456946,-0.33618724,-0.034611806,-0.31778604,-0.044871215,0.01187499,-0.0254112,0.021504592,0.108727805,-0.36043012,-0.42614874,0.11873164,-0.090764716,0.19861627,-0.06648534,-0.15129887,0.0885741,0.028496323,0.025739793,-0.0970445,0.44308954,0.060680192,-0.32333562,-0.02586758,0.028678875,-0.07718287,0.031964805,-0.044141006,-0.5792001,0.039832786,-0.30902356,-0.026644051,-0.26889202,-0.43559477,-0.10889869,-0.084512606,0.15147756,0.12405935,-0.23573212,0.105027884,-0.14967118,-0.0012912769,-0.17676683,-0.08283526,0.05125593,-0.085415795,0.024176413,-0.07051319,0.0063424776,-0.10825355,-0.01190273,-0.22334553,0.052642968,0.3365021,-0.041159578,0.18695995,0.13328478,-0.307084,-0.049126986,-0.1847665,0.08367393,-0.10231832,-0.18308915,-0.1262528,-0.11573712,0.12638183,-0.06754557,-0.13573629,0.10057645,-0.11244693,-0.0128865605,-0.16721885,-0.053578414,0.012338196,0.0048909253,0.033579245,-0.06425539,-0.02949877,-0.10928577,-0.30630982,-0.04625614,0.00026964603,0.03441792,-0.10160867,-0.08599642,-0.0878028,-0.11786606,-0.10064097,-0.0816095,-0.063997336,0.086189955,0.18799217,0.00636667,-0.20037875,-0.24644135,0.041206073,-0.16398904,0.06115946,0.14951122,-0.09299208,-0.015626289,-0.15461558,0.0077725416,0.016716765,-0.013445337,-0.07252826,0.01994179,-0.0007043866,-0.081623286,0.098282054,-0.04473272,0.031484596,-0.17271283,0.072389044,0.026125021,0.041391686,-0.044848725,-0.080370404,0.13865286,-0.019848984,-0.015150656,-0.024361698,-0.12036999,-0.029002022,-0.12166928,-0.039813977,-0.039929982,-0.18496329,-0.14013776,-0.03241266,-0.0932705,-0.25447533,-0.09809644,0.058978513,-0.029883683,-0.19526482,0.064222075,-0.06264437,-0.004646124,0.008509194,-0.2195801,0.122133315,0.087098874,-0.13828164,-0.02466332,0.025336167,0.054848623,-0.05554467,-0.09136797,-0.086402826,0.006287638,-0.051553994,-0.1393025,-0.0759621,-0.037540216,-0.016542753,0.04436149,-0.23739895,-0.22125062,0.06499027,-0.099997915,-0.054353975,-0.042293925,0.105413765,0.06705611,0.06817278,-0.18168241,0.19195579,-0.17788573,0.17330737,-0.35688815,0.162699,-0.17978407,0.28318784,0.0021495922,0.020239666,0.10144959,0.32629135,0.072639465,-0.24209432,0.036487233,0.0051227296,-0.20077749,-0.12830552,-0.28899452,-0.06208692,0.08380618,-0.20502084,-0.24812436,-0.16091233,-0.0142794335,-0.09279538,-0.20848252,0.089668706,-0.014600477,0.065548606,0.043410596,-0.074314475,0.043438513,-0.005569398,0.0030917835,-0.011557547,0.18257575,0.03964183,0.041847255,0.002221129,0.020993419,-0.22835927,-0.14628394,-0.031769298,-0.069066115,-0.12752385,0.022682386,0.049663953,-0.046090607,-0.07381197,-0.11959549,0.03408639,-0.008598369,-0.012464843,-0.03791099,-0.05750857,-0.08581619,-0.125177,-0.3729538,-0.19365616,0.14468987,0.39209852,-0.22936842,-0.20783062,0.27097136,0.25569242,-0.03764514,-0.24133387,-0.12554516,0.03769116,-0.07013593,-0.034446683,-0.15803595,0.2514585,0.050346922,-0.26195127,-0.2820164,0.19752192,-0.009037364,0.018719023,-0.014968315,0.14027186,0.016130343,0.06742069,0.12775417,0.0008499495,0.11744547,0.025886785,0.083159864,-0.0744619,0.08067473,-0.15168506,-0.08449447,-0.49628994,-0.2387567,0.022239625,-0.07519823,-0.4638912,-0.11615688,0.14238882,0.05209572,-0.024920346,0.38142166,0.13944349,-0.25514016,-0.14515008,-0.057480168,-0.19954684,0.27925515,0.22605492,0.10078589,0.08707164,-0.017338393,-0.040222313,0.021583827,-0.36190876,-0.45652786,-0.34368446,-0.28901157,-0.35749075,-0.039370924,-0.0631056,-0.15997702,-0.052519552,0.18498199,-0.07268779,-0.074923635,0.13935249,0.11644648,0.23763843,0.23599577,-0.028404362,-0.21683137,0.0008847845,0.029727617,0.013380851,-0.0098388605,0.08687857,-0.42636204,-0.11480382,-0.08998137,0.047682825,0.04106655,-0.045081943,-0.06803358,0.25023216,0.13834864,0.1085982,-0.08377576,-0.0014287736,-0.035956044,-0.12146573,0.055257324,0.0005211744,-0.066117145,0.03472405,-0.012262927,-0.05822324,0.05366029,-0.08377576,0.010574636,-0.0045372834,-0.0709995,0.0017196618,0.11334367,-0.20916562,0.0394467,0.011738189,-0.008264643,0.061280414,0.2504147,-0.12475105,0.0024540115,-0.03214598,-0.062238637,0.094909355,0.024890892,-0.017327802,0.08094673,-0.09737335,-0.129314,-0.2120859,-0.0031598427,0.002113216,0.009616417,0.102956526,0.09627023,-0.10481383,-0.058721747,-0.11750541,-0.21879037,0.033988655,-0.058876522,0.11843406,0.17099574,-0.378147,-0.21297081,-0.31648454,-0.15316564,0.008125703,-0.060300454,-0.2171807,0.14226945,0.13087799,-0.04531821,0.08834574,-0.008195352,-0.21272317,-0.13793574,-0.22064766,-0.0055177393,0.3107888,-0.057297815,0.13285911,-0.15774699,0.008868624,-0.035257813,0.22052385,-0.11849597,-0.048661355,-0.0027279146,-0.06989653,-0.15304181,-0.2575461,0.06884405,-0.049590006,0.15477529,-0.14796518,0.010261603,0.32960948,-0.09453675,0.034514893,-0.07509697,0.028370311,0.09750844,0.095960684,-0.14115508,-0.0679154,-0.07262057,-0.219038,-0.10852844,-0.0305836,0.00088705594,-0.062250625,0.042501297,0.07014416,-0.13694519,-0.003937097,-0.20603688,-0.055320766,-0.43339232,0.18083496,0.06605828,0.013143894,-0.0983403,-0.33442652,-0.00092085445,0.2148892,-0.18931377,0.040413346,0.091112465,0.037112173,0.20780036,0.059038933,0.111336514,-0.0034488605,0.22225603,0.10702761,0.14594674,-0.05737097,-0.038189396,0.074224345,0.018347591,0.014325367,0.10709711,-0.17652605,0.03221253,-0.011197938,-0.0491354,0.13156056,-0.096185856,0.14226332,0.08388463,-0.5095626,0.061992615,-0.18542185,-0.08166067,0.035339963,0.02705227,-0.17722104,0.22058807,-0.105915636,0.28994754,-0.10139824,0.22948387,0.22614795,-0.18430988,0.15192361,-0.17583108,-0.04743269,0.068143226,0.17263414,0.00856134,-0.068282224,-0.019424817,0.023681596,0.014872668,-0.28716758,-0.0049778265,0.009486538,0.09139046,0.22350702,-0.12787715,0.022166025,-0.15002593,-0.04027084,0.15917219,-0.15767057,-0.18920468,0.10852649,0.016031547,0.008066965,0.03226786,0.11576159,-0.042386763,-0.19917001,0.20094465,0.19998908,0.038564447,-0.11582985,-0.17063914,0.12060775,-0.22892947,0.058870506,0.21145603,-0.06559368,0.03880334,-0.12217762,-0.259235,0.45512873,0.13562399,-0.112007536,-0.20435743,0.042693913,0.04225025,0.046584487,0.14169875,-0.060303874,0.039554153,0.020613208,-0.03914462,-0.14415595,0.1556229,-0.19575723,-0.025101017,0.03682393,-0.082316324,-0.24203455,0.066890545,-0.011671717,-0.14811477,-0.03682393,-0.016893275,-0.13166516,-0.28285143,0.06439921,-0.17459796,-0.08067819,0.025800638,0.03928113,0.018667921,-0.020084227,-0.3415513,-0.09255467,-0.046311464,-0.3729489,0.02506689,0.25267413,-0.003699585,-0.05662119,-0.16501987,0.03574317,0.2883505,-0.38829777,0.099546395,-0.119188435,-0.13842961,0.16515349,-0.014764936,-0.15633461,-0.08945814,0.086251274,0.007403346,0.20136432,0.10475755,0.0032653222,-0.03243609,0.3022469,0.11658286,0.051744085,0.206041,0.14564507,0.07308977,-0.17343788,-0.17691198,0.109367415,0.03604381,-0.051877704,-0.25120434,0.0864517,0.04723443,-0.19789022,-0.13455465,0.022414641,-0.00065296004,0.029229227,-0.0049898466,-0.123664685,-0.12987798,-0.35703084,0.0050858855,-0.1729034,-0.0815746,0.13669257,0.055986498,-0.3222898,0.038415555,0.091262,0.11043637,-0.09640634,0.06874714,0.226752,0.07763283,-0.08939133,-0.06333556,0.080772884,0.04162242,0.025437778,-0.07896902,0.13936496,-0.058658883,0.07848612,0.038183153,-0.08908519,0.3366265,0.20318419,-0.11892158,0.13248838,-0.121465355,0.082089804,-0.17647453,-0.12284323,-0.033016104,-0.19173719,0.010711686,-0.009214567,-0.09867735,0.14457132,0.17742844,-0.07583635,0.072179675,-0.09512666,-0.018097913,0.013142847,0.024510352,0.07546538,0.058453877,-0.06709212,-0.03571887,-0.15686625,-0.07154373,-0.17742844,0.12061743,0.07504142,-0.39428544,0.023410698,0.06057369,0.099896245,-0.08076492,-0.04700688,-0.042157803,-0.18537775,0.09062205,-0.12369116,-0.08712436,-0.08034096,0.021502865,0.062428527,-0.040567942,-0.13418424,-0.042926237,-0.046688907,-0.12708285,0.023715422,0.58252496,-0.048649736,0.024947563,-0.029968873,0.14160359,-0.10593771,-0.0043688044,0.024735581,0.05180296,-0.2098616,-0.041203886,0.01741002,-0.043805856,-0.049562395,-0.0060759564,0.03161884,-0.16241863,-0.109233834,0.05113491,0.11827581,-0.03201197,-0.13680905,-0.17758219,0.09558662,0.059081744,0.11681561,-0.12040994,0.12973273,-0.055487417,0.07946832,-0.0714934,-0.078232765,0.2933869,-0.045968067,0.07778347,-0.033612568,-0.054532673,-0.06301304,-0.06396778,-0.03403378,-0.1271493,0.026269473,-0.09418259,0.068011396,-0.10653809,-0.12636304,-0.0675621,-0.16185702,-0.19465525,-0.15466836,0.0029326756,-0.14972617,0.016764164,-0.09833853,-0.019600311,0.26890054,0.3765057,0.00414541,-0.050292492,0.027799869,0.075873986,0.080366895,-0.005314268,-0.05694761,0.0079538515,-0.1825244,-0.14871526,-0.06531566,0.018477084,0.0348762,0.025834221,-0.0036715483,0.15129869,0.05486964,0.069022305,0.12274515,-0.029838173,-0.008943742,-0.0039148144,-0.17394036,0.04163466,0.010902112,-0.1579033,-0.09807275,0.16752553,-0.21576005,-0.03716279,0.018057106,0.023685496,-0.079938546,-0.10510439,0.13508134,-0.008920612,-0.1222517,-0.08764867,-0.0074633984,0.12693945,0.14865115,-0.26226753,0.11713218,0.082282424,-0.111272484,-0.027926063,-0.022991585,0.07876661,-0.0048265364,-0.11700881,-0.009868956,-0.38834342,0.30815816,0.012521238,-0.4448432,0.032598395,0.018997742,-0.113061234,-0.07926006,0.08382445,-0.18257569,-0.18257569,0.040246837,-0.22834298,0.1883737,0.083022594,-0.14050926,0.0998615,0.112012655,0.123546995,-0.09702418,0.12570584,0.16234434,-0.14976141,-0.03836557,0.09282987,-0.15333891,0.043762654,-0.060231473,-0.07525079,0.45545235,0.0658136,-0.058097247,-0.23303767,-0.003357417,-0.12292454,-0.042812765,-0.20968525,-0.040927544,0.010611971,0.09892344,0.106788665,-0.048894126,-0.02965676,-0.12251911,0.1694672,-0.016977128,-0.15835859,0.07678729,-0.100788385,-0.14141187,-0.09081496,-0.08246323,-0.12187043,0.13038434,-0.06859773,-0.09105822,-0.077233255,0.21195562,0.05744857,-0.1997929,0.026676895,-0.0921934,-0.07471963,0.20644186,-0.03492727,0.013774278,-0.2824994,0.05542145,-0.068759896,-0.03164334,0.08895001,-0.10930229,0.04605616,-0.028176963,0.059394605,0.02947432,-0.10573456,-0.002822764,0.0133891255,0.05696206,0.018041365,-0.05947569,-0.08335516,0.041758664,-0.021446927,-0.05440789,-0.051813178,-0.21276647,0.10200466,0.010277497,-0.03000137,-0.07942255,0.06462457,0.07711163,-0.030710863,0.09168287,-0.13168995,0.054817382,0.11296869,-0.2486337,-0.12803546,-0.025052505,-0.093990974,0.06401773,-0.06023501,-0.16977361,-0.3210824,0.09508091,0.22619383,0.15861778,-0.10097939,0.12155995,-0.022423835,-0.008310764,-0.16361867,0.066165544,0.022503978,0.052733682,0.015587691,0.04010324,0.009048074,-0.008703462,0.079373,0.10450565,0.1610541,-0.02615847,-0.040680267,-0.17323574,-0.2731252,0.11668729,-0.007333027,-0.18054473,-1.1253271,-0.15105234,-0.1374602,-0.38211882,0.3026176,0.072641045,0.13438272,0.059529755,0.025244847,-0.14233285,0.055458523,0.066422,0.097004324,0.028338343,-0.0009942664,-0.06513972,0.09969711,-0.35134417,-0.057862792,-0.06283162,0.028514655,0.2772285,-0.055779092,-0.07783427,-0.07155111,-0.21208878,-0.04119318,-0.04180143,0.016117748,-0.06922566,0.10499886,-0.17841315,0.11213085,-0.19324318,-0.10171587,0.14569652,0.3729016,-0.051169254,-0.30927965,0.07058413,0.21928063,-0.14807385,0.03350907,0.09928194,0.11988548,0.19460166,-0.118979834,-0.012495147,-0.197545,0.06345214,-0.024282753,0.08399908,-0.003983447,-0.15735677,-0.044773098,-0.053235266,0.0376694,0.0058124363,-0.028782705,0.07256524,0.08818772,-0.031612862,-0.05954652,-0.1973186,-0.08456512,-0.026136506,0.0098489495,-0.0027275647,-0.035943005,0.021735612,0.20388457,-0.06673512,-0.09764045,-0.05510317,-0.19380921,-0.19335638,0.218941,-0.055131473,-0.06424458,-0.13358344,0.083093435,0.077036895,-0.09990457,-0.0520749,-0.030395895,0.15984732,-0.067980394,-0.12328167,-0.067584164,0.1273571,0.083376445,-0.09906508,0.07624001,-1.5248935e-05,0.09206824,0.1505175,-0.098979756,-0.061606362,-0.018324053,0.116813175,-0.31332213,-0.08596733,-0.04121312,-0.14531252,-0.026046181,0.24659611,-0.15137076,0.033704314,-0.18652564,-0.13959558,0.0138976965,0.09641993,0.089849725,0.12278609,0.0121911485,-0.1140827,-0.0019411978,0.25495818,0.09855311,-0.06659801,0.12278609,0.04966053,0.14940824,-0.0529883,-0.08417545,-0.013108417,-0.010292615,-0.000107742475,-0.120311595,-0.020403909,-0.02361435,-0.06459282,0.07278425,0.052007034,-0.1761157,0.07538673,0.061350383,-0.068176575,0.09112964,0.12244478,-0.06412352,0.028797988,0.063440904,0.060198463,-0.017737428,0.062033,-0.17133737,-0.012479128,0.060795754,0.05934519,0.031208487,0.03854664,0.0031651123,-0.13191612,-0.058278598,-0.10576318,-0.11924219,-0.21102482,-0.012961789,0.05228601,-0.16601121,0.1507141,-0.041252032,-0.12250223,0.0073429244,-0.15134104,0.25127378,-0.07071777,0.19133921,0.01421565,-0.014615319,-0.036988903,0.2700817,0.29741585,-0.17290744,0.0043414943,0.047552682,0.3844338,-0.04517035,-0.07980826,0.06438577,0.14093399,-0.071658164,-0.34105024,-0.094791904,0.07629745,-0.20977096,-0.13491546,-0.011848988,-0.0046314495,-0.12826999,0.12482187,-0.057520878,-0.027553597,-0.07065508,0.04705114,-0.02035957,-0.040123556,-0.19760852,-0.020955155,0.055734128,-0.080121726,0.059871867,-0.12538612,-0.06269306,0.0020296876,-0.03015536,0.14594944,-0.13604394,0.043759752,0.07015353,-0.1453225,-0.07485551,0.05407276,-0.07817824,-0.013330111,0.022193342,-0.06291248,-0.015767304,-0.1159063,0.014182254,-0.14998882,0.05962828,-0.2400594,0.26982522,-0.021921689,0.09889726,0.03472679,-0.26364014,0.18465117,-0.10398709,0.166869,-0.18645516,0.2736909,0.113715746,-0.0592095,-0.042136032,-0.039011266,-0.11474659,0.042136032,0.0354355,0.05360425,-0.19044971,0.009108534,-0.013763471,-0.14148429,-0.16996154,0.21725184,0.07615411,0.10192539,-0.022066653,0.08974846,0.30616271,-0.28786513,0.20655675,-0.10740178,-0.0050334516,-0.022662614,0.094645,-0.12563495,-0.058533005,0.13246435,-0.15552963,-0.05969271,-0.017363396,0.12466853,-0.6612909,-0.3260066,0.074156836,-0.40744382,-0.008359557,-0.03211745,0.03891462,0.14844254,-0.005198549,0.17344067,-0.15604506,-0.12995164,-0.5339808,-0.015833225,-0.055633735,-0.056954514,0.06816502,-0.045057286,-0.20356491,0.12245613,-0.09934693,-0.04029951,-0.093909465,0.017983267,-0.15474105,-0.01652478,-0.037580777,-0.010811199,0.10857928,-0.18589316,0.10546407,0.15145592,-0.09119073,0.09657156,-0.07640764,-0.12710063,0.083147824,0.13661619,0.09929029,0.041149113,0.06270071,0.013791891,-0.2007329,0.06196439,0.35139585,-0.026125297,0.08739584,0.1417138,-0.10319846,-0.027555462,-0.012758207,-0.0096005155,-0.1411474,0.15904571,-0.014060932,-0.19484232,-0.14386614,-0.1711667,0.08688608,0.30902898,-0.008375671,0.0008770382,-0.19812745,0.052618753,-0.026804978,-0.15009655,-0.034210686,-0.017785026,0.04652993,-0.26190433,0.10433126,-0.011972324,-0.0066693844,-0.13672946,-0.0072216266,0.07544476,0.021395838,0.03486205,-0.038940143,-0.11248746,-0.07368891,-0.21744199,-0.29744887,-0.2151514,-0.2904135,-0.4388107,0.12532774,-0.046261642,-0.13007252,-0.29483104,-0.17522977,0.031372838,0.3795827,-0.0007605459,0.25294605,-0.13874403,-0.02818238,-0.21466057,0.054237787,0.08417901,0.16541298,-0.13808957,0.11379301,0.17981094,0.15314199,-0.12819096,-0.1717939,-0.11060255,-0.058778055,0.0055577373,-0.16786718,-0.14487952,-0.95746464,0.08638779,-0.093504965,-0.01551258,-0.2607995,0.13399924,-0.1397257,0.025278244,-0.052315332,-0.099722266,-0.24656515,-0.035913106,-0.10610318,-0.031434193,0.009919052,0.13391744,-0.11101158,-0.49247584,0.0029757158,0.0414146,0.016811261,-0.14782456,0.22840407,-0.048184097,-0.027118893,-0.32788092,-0.3080837,-0.16737634,-0.08466985,-0.119110435,-0.14610662,-0.111829646,0.09047812,0.0018225746,0.050428003,-0.10277707,0.2641467,-0.08152527,0.044454686,0.10806001,-0.14708167,-0.10703944,0.21275814,0.30256802,0.02973151,0.04727625,-0.12108724,-0.15344521,0.097674236,0.183702,-0.07900387,-0.30448908,-0.04847692,-0.035719834,-0.089089476,0.12931181,0.08230571,0.16449134,-0.01667426,-0.05297942,0.03559977,0.22584541,-0.111481905,-0.004003473,0.014543076,0.08314617,-0.08728847,0.11682487,0.034098934,-0.10661921,0.13603555,0.23148854,-0.098814875,0.06351527,-0.20903608,-0.0444847,-0.09083044,-0.19546854,-0.21672034,0.02857587,-0.031787653,-0.060333505,0.21684042,-0.04622567,0.011001109,-0.1761378,0.2699099,-0.024613667,0.068438,0.022557527,-0.09353194,-0.038991652,-0.008014451,-0.09047024,-0.277354,-0.05442022,0.0110536385,-0.0063782264,0.012555111,0.024937643,0.05240644,-0.13162014,-0.10510052,-0.09480331,0.124832034,0.16038327,-0.018350884,0.08433353,-0.0052996087,0.22159123,-0.21503325,-0.059367124,-0.39578083,-0.014137084,0.05649081,0.07645243,-0.05971228,0.058648046,0.025671104,0.10981767,0.018077634,0.008787139,-0.092559785,0.050105393,-0.18730557,0.16038327,-0.23148575,-0.18178305,0.0042893034,-0.1527898,0.059827335,0.14899307,-0.04110253,-0.24805333,-0.0063602496,0.10032584,0.04259821,0.14243507,-0.08738242,0.006683835,0.01684082,0.2289546,0.116433196,-0.14910813,0.08335558,-0.15371023,0.046222366,0.08093948,-0.09037379,-0.072195485,-0.1363373,-0.0014714145,0.015862873,-0.051716127,-0.0011936703,0.09204205,-0.011965467,-0.024161039,-0.034113087,-0.11723857,-0.023571394,-0.10792309,0.043237623,-0.075222895,-0.047869116,-0.008524743,-0.033166457,0.04870838,0.1396286,-0.06546257,0.030135782,0.042025354,0.12097831,-0.07397954,-0.04112392,-0.026654392,0.13975294,-0.04087525,0.11283434,-0.07634191,0.080258474,0.04314437,0.111404486,-0.2785112,-0.106493235,0.11755908,0.10860694,0.73158926,0.03254478,0.008454804,0.0054668705,-0.25227645,-0.11096931,0.08081798,-0.045879748,-0.08112882,-0.026498973,0.07882862,-0.018821266,-0.08485889,0.010801635,-0.09138649,0.02517791,0.047247436,0.028845804,-0.10133332,-0.047962368,-0.142364,0.053060114,0.16014394,-0.00090483116,0.059774224,-0.06384621,0.029125558,-0.08566707,-0.05476973,0.07223885,-0.055484656,0.033819217,0.00036159248,-0.013148464,-0.045941915,0.12806542,-0.079947636,-0.12893577,0.05164389,0.2643221,-0.014342538,0.054036554,-0.09490002,0.0033504008,0.06952166,0.08414648,0.2583001,0.0021490285,-0.14753862,-0.23141624,-0.02209853,-0.03785247,0.14097895,0.0664569,0.08307112,0.07091962,-0.09683566,0.019356377,-0.034949016,0.1024275,-0.017676136,0.094469875,-0.033362865,-0.076457694,-0.11904172,0.025391804,0.010000795,-0.11431016,0.057800293,-0.07118846,0.12807469,0.08221084,0.07221004,-0.06796239,0.044654086,-0.109256,-0.3241118,0.03742233,-0.20023097,-0.41057026,-0.10049186,-0.116998546,-0.15839969,-0.08592081,0.09979288,0.008199576,0.04911681,-0.09995418,-0.015337241,-0.09086744,-0.21528593,-0.11205192,0.110223815,0.01108287,-0.04258403,0.15517363,-0.24690135,-0.009416071,-0.057262618,-0.115600586,-0.14807628,-0.030163689,0.22135352,0.44270703,0.052801795,-0.0034003365,-0.21960415,0.15254499,-0.010372302,0.17190468,-0.057262685,-0.008557331,0.07504794,0.026065601,-0.076972246,0.10158004,-0.045512754,0.035949536,-0.031401176,-0.27640033,-0.01530698,-0.04533782,0.022479394,0.07825512,0.094990745,-0.057816654,0.037494812,0.11954023,-0.03714494,0.110560134,0.0905007,0.06245248,-0.026109336,-0.2018772,-0.103679284,0.03282983,0.075514436,0.0682254,0.2554079,-0.041285113,-0.11382563,0.090908885,-0.18018503,-0.14566414,-0.14391477,-0.011728063,-0.2563409,-0.5066173,-0.21785478,-0.23173311,-0.29832578,0.19464648,-0.09913092,-0.20525932,-0.41378415,0.040060554,0.13108607,-0.03207177,0.040527053,0.01956378,0.21283992,-0.30485675,0.017143818,0.03586207,-0.05434707,-0.028995795,-0.08761214,0.061200596,-0.043486316,0.017810205,-0.0041168113,-0.028761722,-0.060241338,-0.0964373,0.03763485,-0.005239941,0.048730254,0.0048162695,-0.010112167,-0.09496644,0.0824961,-0.0517679,0.0101761175,-0.019824645,-0.052375432,-0.036100037,-0.058706526,-0.0052559287,-0.029145425,-0.03501288,0.014836508,0.10174519,-0.17036404,0.04064052,-0.009920316,0.00420874,0.034245472,-0.0013909226,0.13480759,-0.1092274,-0.1101227,0.028873635,-0.03520473,-0.01576379,-0.06548528,-0.013021913,-0.035908185,-0.22126861,0.07795562,0.13519128,0.17599168,-0.13109845,-0.047387294,0.044957176,0.2757544,-0.00690665,0.018625572,0.0119827185,0.054773573,0.17202675,-0.029657029,-0.038785957,0.0026379568,0.029289313,-0.020847851,-0.009720471,-0.051671974,-0.20835061,-0.012030682,-0.079426475,-0.009471884,-0.2070881,-0.029861161,-0.100500874,0.041881707,-0.21986945,0.08437204,0.07238954,0.12758514,0.1809168,0.0526089,-0.11061943,-0.10932609,0.007113423,0.06854753,-0.083459094,0.076535866,0.02246244,-0.10133775,0.0023323088,0.054472845,-0.048234336,0.000890961,-0.12484628,0.058581132,0.0054919813,-0.065998875,-0.08475244,0.11472772,0.013637231,-0.035586137,-0.024022069,-0.12537883,-0.10034872,-0.14264886,-0.11799914,0.03391239,0.008725355,-0.07748686,0.077981375,0.06383061,-0.029176448,0.24893177,0.2207824,-0.060749393,0.08840425,-0.040968753,0.0013729953,-0.2340202,0.07330249,0.0034045528,-0.061966665,-0.08186143,0.06812909,0.03358905,0.035814375,-0.11419517,-0.025619736,-0.103924446,0.03484436,-0.028948208,-0.04876689,0.08840425,-0.1259114,-0.1010937,-0.07470985,0.017622551,-0.033135284,-0.005907497,0.13733819,0.17802441,0.18193313,0.24305129,-0.05925264,0.43813196,-0.21409124,0.2291931,0.12827708,-0.15359491,-0.39549136,-0.13511734,0.13680519,-0.46620366,-0.343612,-0.53194124,0.14337894,0.82864857,0.049880594,0.15297307,0.09007822,-0.12605621,-0.18939523,0.27538708,0.22439605,-0.034090254,0.22830476,0.12881008,-0.27361038,0.041197017,-0.049392004,0.018799609,0.02767196,-0.18619719,-0.05187937,0.097184986,-0.042462908,-0.13280764,-0.085281156,-0.0078729605,-0.1445338,0.034867555,0.044128556,-0.12978727,0.3580032,-0.33774891,-0.06480479,-0.15723713,0.043018125,0.09647431,0.21213688,-0.12232516,0.147643,-0.00032948592,-0.24145228,-0.14862019,0.079329245,-0.01154849,-0.13023144,0.011001997,0.024854003,0.15170336,0.010349201,0.058242116,-0.16329446,-0.042829767,0.09374784,0.25424007,-0.19921415,0.10349201,-0.1914443,0.054102436,-0.2574244,0.09120034,-0.05266947,-0.27614853,0.013469882,-0.14265975,0.17666881,0.043307424,-0.006094087,-0.05009013,0.053370032,-0.6353454,-0.028054295,-0.22519861,-0.27640328,0.03445488,-0.00042342162,-0.08706066,0.13514464,0.029519105,-0.09680483,0.04595045,-0.021494493,0.0038670185,-0.1146373,-0.1388385,-0.021956228,-0.12801164,0.00241216,0.15234023,0.079418175,0.047861073,0.056586243,0.12737478,-0.08088298,0.037830308,0.0031007796,0.07279468,-0.031764086,-0.083175726,-0.050121974,0.06391029,0.0026828311,-0.009274476,0.13488989,-0.009704365,-0.06473823,0.055280652,0.004585492,-0.14482512,-0.12788427,-0.058656495,0.108028814,0.29250878,-0.11530715,-0.2176623,0.26339546,-0.039858907,-0.010416041,-0.049859453,-0.12413285,-0.18304724,0.038770024,-0.003415301,0.17628469,-0.0069953674,-0.14407663,-0.12608138,-0.079775125,-0.035245474,-0.010903174,0.11232705,-0.52128917,0.09049204,0.009513413,0.04581912,-0.10481947,0.19829161,-0.015401986,0.16883443,0.13433398,-0.029629124,0.08241137,-0.15588243,-0.03126245,0.13055153,-0.026964221,0.08264061,-0.107856885,-0.17972328,0.049830798,-0.18568349,-0.073069885,0.025058674,-0.04742379,0.012507846,-0.1775455,0.036105122,0.16998062,0.16367655,-0.03495893,-0.050260622,0.020158693,-0.08052015,0.07679502,0.07908741,0.040919136,-0.0005663812,-0.001029784,-0.0374519,0.03839751,0.00061742263,-0.07662309,-0.032236714,-0.121725835,-0.14800768,0.03294116,0.007198221,-0.030613225,0.041482758,-0.03544413,0.048134,-0.10620986,0.06465709,-0.017398253,-0.09871846,-0.06903291,-0.046173632,-0.112651065,0.0036910027,-0.09738821,0.021301484,-0.014764011,-0.17853339,0.05145962,-0.14702749,-0.07988494,0.047153816,0.058810998,-0.014370187,0.036616847,-0.046138626,0.048974156,-0.096197985,0.011210846,0.024224529,-0.02016377,-0.080024965,0.063361846,0.16831148,0.045648534,0.11629175,0.11293112,-0.06500716,-0.10151898,-0.13183466,0.032381054,-0.016934417,0.065602265,-0.092347264,-0.06329183,0.04872911,-0.029703055,-0.18847524,0.06836779,-0.056815624,0.15892972,-0.0059729917,-0.093957566,-0.30133635,-0.08576604,0.047678914,0.014378939,-0.06955801,-0.01930611,-0.085906066,0.04246294,-0.05065447,0.040187515,0.13213833,-0.07971078,0.17035387,0.055136856,-0.09173632,-0.077334195,0.055041794,0.07053715,0.17073412,-0.05180963,-0.12919135,-0.03617168,-0.1306173,0.100482166,0.09301968,-0.016267749,0.015186401,-0.036765825,-0.0007998706,0.041923024,0.113125615,-0.12814565,0.08142193,-0.044465974,-0.0079912795,-0.06564138,0.011770055,0.025714688,-0.012405792,0.05442388,0.018145254,0.012892993,0.3867185,-0.16056232,0.015067572,0.03602908,0.051619504,-0.17139956,0.021686371,-0.10067229,-0.43387002,-0.16303398,0.13204326,0.11303055,-0.07904534,0.06354998,-0.10552053,-0.028352702,0.05708566,-0.18965177,0.027687257,-0.17767376,-0.09710741,-0.14620773,-0.15799561,-0.10295382,0.03880969,0.023587642,0.07500514,-0.009215223,0.17377616,0.14820406,-0.08612757,-0.011092727,0.042735107,-0.319391,-0.06590054,-0.49407974,0.17468874,0.33560464,-0.46932346,0.23361568,-0.13363166,-0.042844072,0.0665979,-0.14548679,-0.41353464,0.045459174,-0.2271651,0.087998144,-0.21513563,-0.20118843,-0.071697354,-0.0006170004,-0.061106194,-0.1396464,0.08690852,0.07256905,0.17381704,0.14295885,-0.23309267,0.25296745,-0.020626608,0.3546077,0.02710988,-0.47141552,-0.057619393,0.2620331,-0.06912584,-0.11393123,-0.038006134,-0.122386724,0.181488,-0.0050313454,-0.120294645,0.13267279,-0.7824382,0.0401418,-0.07540208,0.051386733,0.24006628,-0.013064609,-0.24703987,-0.12997052,0.081460394,-0.056878448,-0.36925226,-0.16649476,-0.08703928,0.43654752,-0.051822584,0.122125216,-0.014797113,0.07923756,0.101988934,0.13493921,-0.074661136,0.039662365,-0.011610304,-0.06704516,0.012205,-0.046331424,0.07787778,-0.017566416,-0.062543765,-0.0069853957,-0.12333089,0.023330398,-0.012973531,0.09961622,0.048307646,-0.2042096,0.09632252,-0.027904985,0.12625863,0.060860317,0.06733793,-0.10378825,-0.03696267,0.03240638,-0.079414845,-0.043769658,-0.09705445,0.018417291,-0.07839014,0.05518783,-0.07634072,-0.1331388,0.053431187,0.07275424,0.013110769,-0.055992953,0.015699985,0.018902197,-0.1509248,0.13167493,0.018554527,0.042086206,0.19659749,0.045892265,0.10232438,0.0037877588,-0.014748471,-0.15136397,-0.15912247,-0.0007628125,-0.26144683,-0.03849973,0.12625863,0.04673399,0.05983561,0.033357896,-0.039670825,0.0114822155,-0.017703654,-0.05449249,-0.12054954,0.07714585,0.073961936,0.030173982,-0.11118078,0.030173982,-0.08555786,-0.07299777,0.022788487,0.049836215,-0.17807974,-0.064852364,-0.23404056,0.042405862,-0.08406558,0.18106432,-0.10278136,0.077101566,-0.18914755,0.09351674,0.09755835,-0.1020974,0.13666874,0.1770849,0.14214046,-0.19001806,-0.14873141,0.09513339,0.22844447,0.14164303,0.13318674,-0.6605863,-0.320842,0.033700846,-0.23727386,0.023348095,-0.02762288,-0.0075935717,-0.00672307,0.044240132,0.1181395,-0.11708246,-0.13306238,-0.031897664,0.02826021,-0.04013634,-0.058074888,-0.16178893,-0.0069290367,0.017752014,0.099734604,-0.020472331,-0.100916,-0.057390925,-0.05002275,0.074676596,-0.06715298,0.05235445,-0.05294515,-0.17260802,0.03858187,0.0069873296,-0.10334097,-0.13045087,-0.044240132,-0.044177953,-0.077599,0.07380609,-0.010197304,-0.058789942,-0.16242929,-0.014861302,-0.08278899,-0.24038665,-0.1390855,-0.13528535,0.13333099,0.052360643,-0.099889666,0.05787086,0.07046565,-0.13561109,0.13050802,0.05184491,0.18664168,0.007912456,0.105535604,-0.24907272,-0.032056984,-0.04025445,-0.097120985,-0.13875978,0.25428435,0.027931105,-0.03031977,0.033034164,0.048696212,-0.007138854,-0.054776452,0.12898797,0.0020103473,-0.0020680283,0.023533788,0.13691399,0.006741874,0.015824912,0.23474072,-0.09809817,0.010620063,0.06742553,-0.17741273,-0.44472617,-0.0711171,-0.2477698,0.15211459,-0.038082935,-0.1793671,0.07236572,-0.14277709,-0.052224923,0.07187713,0.085937686,-0.13246238,-0.09218079,-0.054640733,0.06807698,-0.09397229,-0.10819571,-0.10727282,-0.008509623,-0.03314274,0.026221037,-0.14733726,0.20868254,-0.32180035,-0.12260405,-0.29150218,0.036437772,-0.27701175,-0.049258035,-0.11498246,-0.23259954,-0.09625782,-0.10265619,0.2568757,0.09367024,0.44073474,0.05556231,-0.12203948,0.29639503,0.24407896,-0.031615473,-0.16513439,-0.19157471,-0.055232983,0.17473194,0.055750497,-0.09103562,0.004628232,0.11771118,0.18828143,0.026534414,0.09766923,0.33779627,-0.10651403,0.20775881,-0.044623923,0.020136045,-0.0051957346,-0.11197146,-0.15205537,-0.04801129,0.02086527,-0.07014683,0.02202968,0.13991728,0.35924962,-0.061160885,0.15817146,-0.17934252,-0.21321625,-0.23880972,-0.22751848,-0.33779627,-0.36903536,0.06788858,-0.01232627,0.09479937,-0.08054418,-0.12674417,-0.10322075,-0.71360636,0.20305413,-0.42417425,-0.09249407,0.072310984,-0.11065415,0.00543685,0.017720696,-0.031842567,-0.023374736,-0.13950749,-0.054723345,-0.09695664,-0.19066729,0.09004125,-0.025315281,-0.06506115,0.012454765,-0.04212745,0.07804516,-0.03422414,-0.021910507,-0.010302525,0.033024535,0.057828214,-0.08206738,-0.045549862,0.064778894,0.121372215,-0.0038259593,-0.055358432,0.03623525,0.03489451,-0.07091807,-0.13252153,0.063932106,0.04131595,-0.10351921,0.023639357,0.110716864,0.007334375,0.2522002,-0.10485995,0.13654374,0.057157844,-0.04159821,-0.05422939,-0.08411377,0.10168451,0.10789426,-0.22411521,0.063191175,-0.00740494,-0.045197036,0.075293116,0.06788376,-0.09279329,0.0020496997,-0.030360695,0.13181587,-0.13971917,-0.11854961,0.05264167,-0.083902076,-0.044879492,0.069259785,-0.024221519,0.00036026863,-0.06640189,-0.008489881,-0.0072682197};

#endif
