#pragma once

#include "parameters.h"

#ifndef KERNEL20_H
#define KERNEL20_H

static float bias20[FEATURE_MAP20] = {0.5956999,-0.316365,-0.5143206,-0.3500406,-2.1314204,-1.1344942,-0.98087215,-0.22828409,-0.34368718,0.15643191,-0.21544951,-0.84522647,-1.0248046,-1.455623,0.057786733,-1.4300071,-0.3884207,1.1717756,0.48043624,1.7016287,0.37078246,-0.028567672,-0.2264524,0.053977042,-1.993226,0.4714365,0.26662368,-0.84324646,-1.5501121,-0.730244,-0.45031485,-0.4203294};

static float kernel20[FEATURE_MAP20][IN_CHANNEL20][KERNEL20][KERNEL20] = {0.08012183,0.17520583,0.46279922,-0.31865987,0.2944463,0.27137485,0.04194546,0.32322848,0.030381192,-0.06567363,0.38947317,-0.13271783,0.30107075,0.33282253,0.13591586,0.12872031,-0.39769664,0.06910008,0.45251986,-0.18708418,0.13271783,-0.29673058,0.5920906,0.016875267,0.24990244,0.23299861,0.039090086,-0.3022129,0.09428449,0.049112454,-0.17828962,-0.24944557,0.23817989,-0.045558237,0.056200318,-0.19996975,0.17787477,0.19429398,0.034688115,-0.06998435,0.122029185,-0.0030976054,0.18780738,-0.3285869,0.39304748,-0.21547678,-0.1356105,-0.32027593,-0.0011964422,0.2517612,0.11422499,0.13520509,0.0871637,0.11341417,0.20716582,-0.04626771,0.06800796,-0.13611726,-0.15780684,0.16814487,0.22480127,0.3928448,0.3743985,-0.35676306,-0.26353136,-0.06651306,0.16298608,-0.29320043,0.15571426,-0.27749327,-0.076160364,-0.31782773,0.1048114,-0.1215851,0.012162146,0.25209033,0.15232073,-0.12168206,0.053472236,-0.44212765,-0.24258846,-0.049424246,0.1556173,-0.4801351,-0.20128442,0.28621948,-0.23114744,0.28970996,-0.13079609,0.03648038,0.008647425,-0.21156196,0.14349757,0.19410954,0.031293135,0.048745543,-0.006118898,0.15263869,-0.18111938,-0.6078847,-0.29259458,-0.14707606,0.19435845,-0.061188977,0.24386589,-0.26211134,0.21004507,-0.6537208,0.08877964,0.10146245,-0.14774357,-0.44189566,-0.2934846,0.14963487,0.23941578,-0.05874142,0.06747475,0.35356104,-0.1005168,-0.059130803,-0.03448833,0.16988285,0.3261929,-0.09729048,0.24186334,0.003295861,-0.24030581,0.34132326,-0.021858467,0.29327273,-0.13555823,-0.11745203,-0.28445786,0.4207308,-0.15723802,0.22537449,0.18880473,0.54842716,-0.25944272,0.37570357,-0.34163532,0.05321673,-0.050536536,0.37308294,0.16605288,0.06128709,-0.074926294,0.21596403,0.1686735,-0.40453053,-0.23442759,-0.115248315,0.4750494,-0.028380271,-0.1614072,0.16104984,0.79953146,0.08546839,-0.20679182,-0.1060761,-0.29933438,0.42378715,0.073676966,-0.033802345,0.22496343,0.4811557,0.46820152,0.10814437,-0.58432657,0.2145538,-0.055836037,0.40366188,-0.06939746,-0.39764744,0.06592758,0.020457791,0.25260675,-0.34698728,-0.076857686,0.16771051,-0.025301157,-0.058236033,-0.04027944,0.42933893,-0.1791611,0.47120872,-0.32501143,0.3331078,0.01612045,0.20264058,-0.1871418,-0.2613971,-0.15788968,0.06586342,0.5646305,0.11083714,0.25939742,0.16498813,-0.078387104,0.16833453,-0.025440317,-0.057041068,0.35695034,-0.258789,0.2348571,-0.20149441,0.15545593,-0.22917834,0.013525072,-0.039548475,-0.100696504,0.13679716,0.22086301,0.21092519,0.03612601,0.091164306,-0.07813359,0.0022071726,-0.09658954,0.21295333,0.20139301,0.5699037,0.1854722,-0.027126197,0.35441625,-0.016080847,0.08268692,-0.11487412,-0.61823905,0.06876124,-0.2887156,0.06743498,-0.09584746,-0.30463067,-0.13844065,-0.110487275,-0.1994484,-0.5268294,0.053305265,-0.46194494,0.28116614,0.007472939,-0.0945212,-0.046520956,-0.37522826,0.26055816,-0.33482847,0.06575166,0.030988466,0.0006188926,0.34094965,0.15986478,0.048739884,0.40012103,-0.2997337,0.13731845,0.4228844,-0.08513989,-0.30402637,-0.28450862,0.033968378,-0.2760009,-0.2932666,0.08689149,-0.031434823,-0.6005459,-0.5850318,-0.21744767,-0.43164235,0.27399907,0.32829842,-0.5910373,-0.0149119925,0.1777866,0.35957685,-0.3943585,-0.11354071,0.1603958,0.20218378,-0.059522856,0.121485434,0.06981346,0.20381026,-0.19655366,0.8022292,-0.33655593,0.36383072,0.25272974,0.37917516,-0.14609201,-0.22998424,0.045598414,0.267614,0.060982347,-0.21194409,-0.18648866,0.4635101,-0.6051751,0.018399846,0.048752673,-0.1877061,0.053401057,-0.039926283,-0.29218403,0.26916346,0.22334369,0.42809385,-0.40795085,0.2753613,0.08405824,0.024929715,-0.043910608,-0.49804094,-0.05976491,0.0178603,-0.24083047,0.027876457,-0.22024477,0.04106071,0.17165811,0.22682932,-0.34812132,-0.13239619,-0.35723245,-0.07469233,0.18269725,-0.2909869,0.20291258,-0.043040626,0.28225538,0.32951942,0.15574348,0.41531593,0.091538444,-0.20044498,0.25226456,0.120912366,-0.08062406,0.072746724,-0.14264622,0.08100369,0.06705227,0.09566692,0.0069697816,0.21847744,0.057941128,0.048592724,0.17444028,-0.012071068,0.18013474,0.11721096,-0.22436172,0.061661445,0.26009154,-0.19223244,-0.056356672,0.09285983,-0.24454488,-0.08214523,-0.20515299,0.18319857,-0.07190334,-0.34475785,0.03555775,-0.55085623,0.36429623,0.43572688,0.5710249,0.0395232,0.15735748,0.48488796,0.022899821,-0.10499253,-0.29769766,-0.020313086,0.013865947,-0.29811785,-0.29244542,-0.08062208,0.17910181,-0.0090404395,-0.12111694,-0.19822001,0.042490724,0.18819991,-0.104696386,0.049359456,-0.2521408,-0.20051713,-0.0886206,-0.37350166,-0.059457768,-0.05139723,-0.3280366,0.4071929,-0.07417504,0.13413092,-0.23656312,0.20323417,-0.33745566,0.11456828,0.026740145,0.060454015,-0.0872168,-0.025766542,0.06629564,-0.04917832,-0.14816894,-0.17225997,-0.23764993,0.07082403,0.19689442,-0.0092605585,0.21084186,0.15088597,0.11538339,-0.0073965928,0.51848763,0.2242755,0.04339714,0.24420857,0.18099228,0.42964306,0.07836544,-0.08292157,0.38749886,0.22495893,-0.28954208,0.37178022,0.36244014,0.2833913,-0.38681546,0.25628233,0.05643906,0.21858035,0.15946455,-0.11959842,0.069025375,-0.31232274,-0.0945397,0.30639976,0.51620954,0.17677785,0.21459372,0.4023063,-0.05270873,-0.35104984,0.2485369,0.15499544,-0.11516956,-0.27322853,-0.22574383,-0.33928588,-0.16514339,-0.46527353,0.28567412,0.07500861,0.12464736,0.11737148,0.19721471,0.39979059,-0.17395103,0.3867706,0.0812314,0.037456434,0.06945596,-0.09401206,0.043774966,-0.18314162,0.08606603,-0.055191398,-0.15738882,-0.21827647,-0.099947646,0.013343107,0.07204081,-0.45110473,-0.052845884,-0.17337662,0.031808052,0.2721886,0.2311618,0.01395132,0.16135006,0.3544628,-0.16929072,0.15109335,-0.09429549,0.29645178,-0.011973045,-0.07973759,0.12385243,0.30064267,-0.0071755555,0.32468528,0.14844646,0.26005703,0.09732838,0.3434341,0.20017111,-0.27461493,-0.14348353,0.119551234,-0.1669747,0.30615705,-0.016749855,-0.082439624,0.20403117,-0.033141278,-0.23844075,0.050952647,-0.48614562,0.047618944,-0.49567997,0.10847152,0.038399693,0.05315603,0.116168074,0.066389665,-0.16677704,-0.49213624,0.5568094,0.13222562,0.4294564,-0.040476102,-0.7521578,-0.24075252,-0.23189318,0.046206985,-0.18538165,0.08349926,0.01116415,0.03532661,0.20254661,0.00028658748,0.2189364,0.42281193,0.19922437,0.010783476,0.29191518,0.0699334,0.26865944,-0.15791771,-0.3654477,0.31507826,-0.3489136,0.09633377,-0.63532877,-0.20850767,-0.097950116,-0.19827086,0.0931011,-0.4127051,0.054739997,0.017752785,-0.15204358,-0.1532289,-0.41141203,-0.27822572,-0.10829468,0.012412133,-0.0025288963,0.038199466,-0.35171527,-0.069771945,-0.025713252,-0.04757423,-0.0867435,0.30387163,-0.09951257,-0.10511588,-0.27154487,0.004428094,-0.07629117,0.36098227,-0.01010885,0.013846271,0.07902402,-0.5079384,-0.09592116,-0.06468704,-0.2928838,0.5124898,0.033026233,-0.35432798,0.24486634,0.34408727,0.3652514,-0.011243427,0.0791378,-0.086420074,-0.4237371,-0.22700202,0.099334724,0.3008488,-0.0070191417,0.053877424,-0.13460822,-0.11537848,0.40621415,-0.2687613,-0.33521202,-0.01563128,0.01844747,0.3094965,-0.27604356,0.27718142,0.15395175,0.21356232,0.03706328,-0.3745854,-0.062876835,0.047917742,-0.17257684,-0.45558342,0.21465689,-0.34685636,0.012321488,-0.25685856,-0.45971844,-0.32253262,-0.26220977,-0.080329105,-0.59398544,-0.33712685,0.115355276,0.24421021,0.007707581,-0.27072307,0.30501953,-0.034418073,-0.18376575,-0.47650182,0.18072529,0.31474903,-0.23995356,0.19738704,0.2179406,-0.27777696,0.37628806,-0.56618184,0.027393874,0.04917733,-0.26202837,-0.10073674,0.06563246,0.015499165,0.4937166,0.046105705,-0.27381337,0.23256584,0.2214077,0.03889679,0.4335378,-0.5446178,-0.33975926,-0.124996305,-0.18103777,0.009285395,0.01387716,-0.011542099,0.77981645,-0.21313311,0.21250625,0.14706184,-0.4154842,0.109074004,-0.11101728,-0.005641759,0.18743177,0.10568895,0.558158,-0.20440415,-0.2662862,-0.26067814,-0.19405824,-0.10384581,-0.008690077,0.08122019,-0.0024097136,-0.08122019,-0.14107174,-0.19840932,-0.28214347,-0.4513522,-0.01933814,-0.25623035,-0.04894967,0.08905214,-0.080881774,-0.38560253,-0.060286652,-0.29877427,0.052696433,0.09717415,-0.15025735,-0.30844334,0.25526345,0.43433464,0.26976705,-0.048828807,-0.4637286,0.12656812,-0.26783323,0.065927185,0.09788876,0.04755698,0.15117519,0.19875787,0.29022348,-0.16206884,-0.055907074,0.011272623,0.33400366,-0.26802507,-0.26823062,-0.4624666,-0.108628266,0.33770338,0.416631,-0.30831107,-0.06875337,-0.07954425,0.23452196,0.023059098,-0.14079538,-0.119830236,0.14963363,0.15158628,0.042238615,-0.044499565,-0.1733736,0.13195713,-0.09367518,0.123118885,0.13390978,-0.14365901,-0.2585182,-0.48891684,-0.04546745,0.0710925,0.13254726,0.2721244,0.07681845,0.0036265538,0.029168334,-0.11440564,0.36578056,0.028091175,0.20216575,-0.14660703,-0.16078018,0.3952607,0.25511664,-0.26123944,-0.09603724,-0.11327179,-0.32201388,0.39253944,0.0231164,0.15080227,0.09654747,0.28913218,0.0071786987,-0.3372075,0.32836345,0.12506384,-0.014952669,0.05818053,0.07560906,0.002420451,0.022067593,0.5343382,0.1842298,0.30141103,0.49168956,-0.19724995,-0.018197434,0.24707504,0.449451,0.54787093,0.23251708,0.17766848,0.41008306,0.31227824,-0.024886915,0.080530055,0.048005346,-0.2394885,0.28418756,0.33811346,-0.007983804,-0.0017684831,-0.06428052,0.024733134,0.17305504,0.29587492,0.15644668,-0.0082785515,-0.10359723,-0.10835307,0.15538774,-0.37077907,-0.059674874,-0.6483255,-0.09741617,0.08629996,0.40018323,0.1448692,-0.4224156,-0.094009586,-0.1987768,-0.57517374,-0.030255787,0.22590989,0.20355795,-0.6162917,-0.029448967,0.1345897,0.11666034,-0.03995258,0.14773789,-0.056238413,-0.44393086,-0.2959539,0.0069887135,0.14953083,-0.26487634,0.16303761,-0.06203557,-0.05988405,-0.14427155,-0.017754285,-0.1554929,-0.048085198,0.23533002,-0.13236496,-0.47248936,-0.20658343,-0.33346042,0.0592245,0.5890437,0.16437821,0.13341029,0.13798362,-0.7536832,-0.39408958,0.21612206,0.03129458,0.33973238,-0.24787398,0.01674162,-0.19704479,-0.35880968,0.036847897,0.31229246,-0.21128741,-0.28223923,0.045275874,-0.30994046,0.36638832,-0.10107039,-0.025610596,-0.07467579,0.03172292,0.45814937,0.5348155,-0.021620078,-0.13682131,-0.11996401,0.27064064,-0.016886175,-0.3724773,0.44729602,-0.056489307,-0.11061166,0.24847214,-0.34984693,0.12481337,0.07487648,-0.14848289,-0.12227323,-0.1931663,-0.10125932,0.3445357,-0.36139303,0.21083184,0.0497637,0.017044934,0.2272273,0.072567254,-0.24754845,-0.25401425,-0.102760315,0.68722403,-0.047743134,0.19281448,-0.20329353,-0.02385231,0.107584886,0.5684634,0.1981039,-0.032160696,0.12495017,-0.11766473,0.39241537,-0.31536943,0.20738535,-0.30319378,-0.17754501,0.3526948,0.25469077,0.14670667,-0.116866335,-0.25968078,0.08283438,0.24031949,0.04805392,-0.123852365,-0.17884241,-0.21177657,0.18742526,0.09845315,-0.19471069,0.27864286,0.22994025,0.21257497,-0.46267492,-0.2067736,-0.49625662,-0.39026007,0.13560735,-0.02986172,0.18649773,0.4705605,-0.08536939,-0.070664376,0.24732532,-0.100977786,-0.10178079,-0.19041239,-0.38082477,-0.23929527,-0.09751483,0.15237005,0.04878251,-0.22624645,-0.03701348,0.19081388,0.26278314,0.27763873,-0.0035288273,-0.07879479,-0.11974801,0.09048854,-0.04755291,0.027678553,0.26438916,0.18629698,-0.18077633,-0.22631846,-0.1832896,0.05887282,0.0846401,-0.039255496,-0.02143104,0.4232839,0.13292249,-0.013300587,0.20980738,-0.27218255,-0.010658191,-0.32088187,-3.1433843e-05,0.35123557,0.13951023,-0.0768432,0.10106779,0.11207517,-0.05787215,0.28052148,-0.10465352,-0.037754487,-0.023119673,0.07984522,0.050784063,-0.09147802,-0.039172105,0.2391604,-0.225151,0.103486076,0.054619968,-0.20886713,0.1134541,0.32139128,0.03252506,0.039708935,0.07918538,0.43558934,0.20644927,-0.48431882,0.14711834,-0.21798067,-0.22914009,0.04961292,0.057331517,-0.29181883,-0.24718115,0.050263885,-0.01258922,-0.06598007,0.13019323,-0.16246255,-0.1806896,0.009316953,0.036500603,0.024434479,-0.1501872,-0.19752173,0.14721134,0.192128,-0.07007185,-0.12535748,-0.04400996};

#endif
