#pragma once

#include "parameters.h"

#ifndef KERNEL76_H
#define KERNEL76_H

static float bias76[FEATURE_MAP76] = {-0.00456392,-0.12848537,-0.1801247,0.031349465,-1.0278,-0.7305968,-1.0886164,0.081790976,0.5940617,-0.21931152,0.5465201,-0.17647134,0.22761492,-0.075731926,-0.05485767,0.18067284,-0.36796674,0.25387487,0.48914078,0.083365306,0.18757169,0.28335133,0.05890243,0.19872692,0.5604254,-0.2923804,-1.2394966,0.015181743,-0.019439628,-0.25175634,-0.97416806,0.10749153,0.6180306,-0.8198765,-0.012192603,0.027931578,-0.16539046,0.22096163,0.046389822,-0.2549952,-1.021153,0.019053517,-0.012953664,0.1287093,-0.050924066,0.22030938,-0.06216991,-0.82335025,0.11193343,-0.19667174,-0.07253657,-0.87874395,0.20320043,-0.11765866,0.010712311,-0.011435304,-1.0697348,-0.46857056,0.043902084,0.12960523,-0.15086241,0.77549154,-0.0064311516,0.21321675};

static float kernel76[FEATURE_MAP76][IN_CHANNEL76][KERNEL76][KERNEL76] = {0.13206764,-0.3186428,-0.28761876,-0.47440934,0.16869324,-0.098135084,0.15231945,-0.19551612,-0.4168856,0.33630925,0.32618335,0.09808122,-0.048502002,-0.20693469,0.31519568,0.35052863,0.045001023,-0.027038317,0.11580156,0.35268307,0.11558611,-0.20855053,-0.039210945,-0.36927232,0.23160312,-0.018840237,-0.15859368,0.15442626,-0.09637171,0.07651856,-0.03310788,0.048648905,0.0053286613,0.4926823,-0.09637171,0.17294815,0.12710647,-0.5940896,0.8149632,0.26578912,0.089426,0.13729352,-0.6102963,0.27088267,0.11113135,-0.0058749123,-0.12421243,-0.47184518,-0.1045908,0.07264054,-0.11526885,0.16217953,-0.21064174,0.077165335,0.013336232,0.052569166,-0.022827888,-0.292416,-0.10477327,0.102400355,0.2511638,0.10294795,0.021150876,0.24842583,0.19348374,0.2998998,0.19914223,-0.33531097,0.10386061,0.13936305,0.15186648,0.018344449,-0.14602546,0.10376935,0.045587324,-0.0009092438,-0.0041860975,0.12529176,0.054840684,-0.21004555,0.015375416,-0.106493905,-0.027604235,0.5073785,-0.41093737,0.06632372,-0.47697502,-0.17408444,1.5378276,-0.94741166,0.021842284,-0.014874821,-0.43284094,0.7649908,-0.67345345,0.03510294,-0.057088256,0.26660255,0.07723465,-0.111315966,-0.016608212,0.045215584,-0.03556001,0.024607651,0.029294822,-0.07668213,-0.09355595,-0.01584264,-0.034372594,-0.07736958,-0.060308278,-0.022498425,-0.2669813,0.0670578,-0.015467667,-0.028138654,0.25723198,0.48796582,0.2554821,-0.056308556,0.005597264,0.14373994,0.28148028,0.0068549886,0.0656829,0.043764766,-0.080005616,-0.1667079,-0.051564425,-0.045143493,0.026589753,0.118649386,0.19538544,0.083984226,-0.07165446,0.08721439,-0.013166852,0.44686544,0.104704544,-0.05782779,-0.0684243,-0.34129426,-0.5275407,-0.3004839,-0.16481708,0.05692177,-0.07193021,-0.29622954,0.055582434,0.051721994,-0.13616918,-0.044430267,0.22776048,0.04797288,-0.11055904,-0.058010284,-0.13041243,0.068010785,-0.17919716,-0.0899676,-0.15617017,-0.02513041,0.18347782,0.14923257,-0.034189902,-0.20266697,-0.17166911,0.13764527,-0.18126369,-0.26702443,-0.30082688,0.0258131,0.24237376,-0.1865776,-0.09299359,0.17454422,0.47534913,0.13674085,-0.6797118,-0.30916408,-0.06749708,-0.3029259,-0.33261964,-0.36805248,-0.08982976,-0.2173381,0.17778806,0.41221878,0.7480823,-0.15483157,-0.053648327,-0.5013,0.20698273,0.16543648,-0.04294985,0.06182034,0.26998833,-0.24703184,-0.20561033,-0.079412,0.03965775,-0.024998903,-0.26258236,-0.12227806,0.10875837,-0.035076078,-0.028216088,-0.20499851,-0.029317692,-0.005680146,0.06494457,-0.14170635,0.73627216,0.129789,-0.16534077,-0.052876998,-0.0001975533,-0.55641025,-0.13319395,-0.046968393,0.14300825,-0.12808652,-0.5267671,-0.19478364,0.0558313,-0.08289401,0.06278438,0.02216293,-0.08822835,0.10042114,-0.006742018,-0.0920386,0.2518149,-0.6811026,0.19694737,-0.1649413,0.29567504,0.4328439,-1.5349362,0.7945632,-0.11430737,-0.06706032,0.24182358,-0.8128524,0.45722947,-0.022797968,0.05753471,0.19474588,0.045976963,-0.047162373,-0.05209669,-0.08504526,-0.2188521,-0.09809819,0.09102546,-0.062274523,-0.12040891,0.27002877,-0.2711788,0.059514433,-0.124664046,-0.17457567,0.6546013,-0.29049945,-0.10678097,-0.088495374,-0.21080184,0.17112556,-0.5294772,-0.0058472212,0.0015534488,-0.21735705,-0.17952083,-0.12857418,0.13673945,-0.05764835,0.161667,-0.17820214,-0.051852062,0.05113314,-0.07521694,0.16121767,-0.056569967,-0.25863126,-0.03147519,-0.10424331,0.4906625,0.034530595,-0.70130587,0.02902637,-0.06645511,0.1493555,-0.07800275,-0.084428094,-0.013311242,-0.08051897,0.039675362,-0.05108821,-0.01737763,0.004038305,-0.09853883,-0.14028317,-0.16167022,-0.24143597,-0.11644058,-0.11018289,-0.060992684,0.040199723,-0.06820091,-0.09750908,0.017040325,-0.012703508,-0.07418136,0.037407525,-0.11057894,-0.05635882,0.1369563,0.10028148,0.1566007,0.056081586,0.0716466,0.076755725,-0.028040793,0.08634029,-0.019466171,-0.041710798,0.05556889,-0.057139017,0.062259,-0.10547166,0.036010552,0.12042201,0.41287547,0.023056993,0.036829747,-0.093320236,-0.08478693,0.20821266,-0.083421595,-0.0925693,-0.13107158,-0.15714936,-0.12704386,-0.3096566,-0.18063302,0.07133844,-0.0821928,-0.15551096,-0.13544063,0.050960902,-0.04853959,0.06466404,-0.038690377,0.022545144,-0.022524364,0.020384135,0.029921666,-0.12733331,0.0111582875,-0.019251682,0.14345777,0.040705934,-0.042929277,0.13797213,0.062336802,-0.18917142,0.5219668,0.3560678,0.36038983,-0.07912618,-0.23388769,-0.47076753,-0.4980295,-0.41391638,-0.22092164,0.02656095,-0.0985076,-0.07870293,0.063901,0.08184898,0.034890257,-0.20980571,-0.56278265,0.330903,0.124604374,0.0007276862,-0.56237006,-0.18814436,1.098334,0.20949626,0.007761986,-0.24281348,-0.27664647,0.21393168,0.22775368,-0.028133975,-0.056319527,-0.07137933,0.04306484,0.09799185,-0.036759913,0.0066794944,0.047793474,0.08318467,0.019553145,0.013582453,-0.08318467,0.032793418,0.44603518,-0.038938694,-0.011494457,-0.008959531,-0.44826984,0.82503104,-0.050558846,-0.020307338,0.01387575,0.119888715,0.47285092,-0.023044778,-0.022360418,-0.05594993,0.1009501,0.018784987,0.03974875,0.036876727,0.012921927,0.13713722,0.0135750575,0.021643726,-0.17941985,-0.011535281,-0.10361657,-0.15835892,-0.14437188,-0.24437113,0.012057786,-0.35080117,0.033641223,-0.20176695,0.09405073,0.2461396,0.5691275,0.01949342,0.11848784,0.11768399,-0.016318204,0.07688848,0.024658171,0.16101164,-0.025158146,-0.1016824,-0.23140995,0.06966294,0.16467151,0.015391086,0.14172548,-0.25795537,0.20756409,0.42502645,0.033875387,-0.12072911,-0.2473072,0.311946,0.5351074,-0.14494991,-0.04889154,-0.3086466,-0.06306408,0.30984637,0.017350122,-0.056952644,-0.14839932,0.071762584,0.027107809,-0.10973854,-0.22787397,-0.35035262,-0.031976912,-0.022367552,-0.24669456,0.21600251,-0.11191015,0.711708,-0.3856774,-0.61557823,-0.09511639,0.10517817,0.6578522,-0.44242874,-0.3144487,-0.14260219,0.0032868178,0.40913078,-0.10872512,0.09909767,-0.12913823,0.2155682,-0.026457412,0.3674359,0.031676564,0.11100159,0.009090825,0.11223494,-0.001146631,0.13821754,-0.1922383,-0.30619994,-0.027359836,0.08078449,-0.11379719,-0.2055585,-0.100476995,-0.13681974,-0.16699572,0.012066284,-0.17760254,0.5541857,-0.13821754,-0.11757946,0.108946,0.2522614,0.5081406,0.29748425,0.16526903,-0.05307912,-0.092462644,-0.1913212,-0.10782674,0.07932322,-0.13806827,-0.24513029,-0.22288364,-0.2886503,0.0775852,-0.23831725,-0.06458481,-0.08384207,0.14557652,0.0103759775,-0.10372501,0.177278,0.4485481,0.17630471,0.037749786,0.034986336,-0.06569714,-0.049359757,0.026904544,0.06315964,0.0779756,0.22120737,0.30900967,0.21848482,0.097161084,0.16675633,0.051218014,0.08171911,0.2467313,0.010220206,-0.0013812167,-0.057088517,-0.03526556,-0.19993743,0.0038977165,-0.09665061,-0.21933562,-0.38217828,-0.13357522,-0.17254175,0.044581793,0.13340506,0.4308439,-0.0046076006,-0.048155144,0.045799725,-0.0050560995,0.21629016,0.17489088,0.067309044,0.043265074,0.038301382,-0.26177305,-0.29007664,0.07787009,0.23121643,0.5348112,-0.78405184,0.68097603,0.044849228,0.09941462,0.053438876,0.5998672,-0.601557,0.2450162,-0.010552242,-0.033865746,0.35090825,-0.23811632,0.06336626,0.11395325,-0.096068524,-0.10462209,0.05323002,0.043333337,0.24246876,-0.048387714,0.12342579,-0.23667213,0.26678634,1.0863731,-1.1214356,-0.31641114,-0.00913676,0.72500277,0.6096357,-0.3000109,-0.044181626,-0.39473632,0.40180537,0.035362974,0.33677003,-0.17206092,-0.08709082,0.012441546,0.17372784,-0.3097098,-0.7382707,-0.5377336,0.32693738,0.012944901,0.18021238,1.1923827,0.09567129,0.24660641,0.2812552,-0.78240436,-0.6840715,-0.2762224,0.22976595,-0.09581646,0.3379708,1.2194823,0.100752465,0.075443365,-0.05453796,-0.3644897,0.21815184,-0.3995256,0.061506428,-0.038242683,-0.0021529614,-0.0055191144,-0.17637987,0.0810629,-0.031810958,-0.010002489,0.14010727,-0.24011768,-0.05681356,-0.28809488,0.18078358,0.6976392,-0.042965073,-0.19793485,-0.11304768,-0.014934926,-0.5692365,-0.29551163,-0.21288426,0.0052547473,-0.07329847,0.33004594,-0.3877576,0.09450578,-0.07113311,-0.07425812,-0.05718774,-0.05648461,0.012480521,-0.13984433,-0.07332062,-0.01335943,-0.06878935,0.009995159,-0.08046909,-0.02126962,-0.0354689,0.027304802,-0.103047304,-0.14671937,-0.0686331,0.056289297,-0.093516015,-0.10914108,-0.14023496,-0.024394633,-0.07472687,-0.019482503,-0.058125243,-0.20912355,-0.4808626,-0.5969748,-0.39089084,-0.26672372,-0.054864537,0.24833423,0.1632258,0.21687451,-0.10676548,-0.047113594,0.12895446,0.45229048,0.049545262,0.0052527855,-0.0057989615,0.08115696,0.064971164,0.03117476,-0.051293023,-0.00033245477,0.0123863155,0.0029944677,-0.022587927,0.03375841,0.039482895,0.09165452,0.06574323,0.024166077,0.041371834,0.012586071,0.3065006,0.44250408,0.14339498,0.110790275,0.056832373,0.19907756,-0.4434896,0.1727967,0.053752583,-0.06397748,-0.113829,0.09592516,-0.048989177,-0.009198303,0.011682666,-0.0886158,-0.21501033,-0.028929485,0.10504134,0.0017178488,-0.03588574,0.25914976,0.1137401,0.028885609,0.038975455,0.25142547,0.1632399,0.12004827,0.05036878,0.08528899,0.1632399,-0.44260153,-0.112581454,0.076406054,0.03311787,0.18654148,-0.061021853,0.14946492,-0.051430866,0.03765589,0.12345982,0.25541636,0.0021121092,-0.02732466,0.16230425,0.06458379,0.18323267,0.11172724,-0.042701606,0.082187645,0.124589495,0.1748395,0.04499065,0.14562692,-0.079244584,-0.011363477,-0.24721695,0.12251846,-0.15739915,0.06670934,0.03253715,0.24547292,0.08573022,0.061150223,0.0054126396,0.11336227,0.20198105,-0.0006991468,-0.06376628,0.054261897,0.13224964,0.20708859,0.1714998,-0.045328088,0.09548922,0.28324562,0.09365852,0.28324562,0.008535631,0.1937611,-0.14396611,-0.23154671,-0.16139436,-0.089630984,0.088239655,0.061804373,0.18599895,-0.015744004,0.10691278,0.043277707,0.059168167,0.11137968,0.075790904,0.018068992,0.06371796,0.20423506,0.29238057,0.16344431,0.10446183,0.110557,-0.33514056,-0.34808105,-0.24455695,0.03922007,0.19035682,-0.34076685,-0.15134774,-0.23536731,0.12546672,0.16278791,0.07089151,0.22223926,0.26424903,0.21848838,0.0489489,0.1701021,0.084019564,0.12406014,0.07783063,-0.015764493,-0.5273769,0.09292013,-0.5360163,-0.14123484,-0.18433776,0.15738669,-0.17250559,0.31552464,-0.27326688,0.062588446,0.030472543,0.16583824,-0.060334697,-0.018288221,0.12451954,0.12442564,0.21673538,0.2963678,-0.091934115,0.08982123,0.07099304,0.11118487,-0.0057693585,0.04528624,-0.107708216,-0.086646244,-0.33542168,-0.110760674,-0.20756724,0.04731312,0.07430559,-0.36176005,-0.030742627,-0.06724132,0.3526899,0.012645904,-0.17032723,-0.05594722,0.20878823,0.05734263,0.13727346,-0.18175216,-0.02949984,0.048708532,0.056775745,0.31536266,0.14712855,0.3008853,0.15855347,-0.29527327,-0.046223994,0.18419561,0.070561625,0.04492832,-0.34289798,0.05511861,0.08691511,0.072137445,0.020923361,-0.4305835,0.12662573,0.06408326,0.022516686,0.027314177,-0.4059307,0.061421882,0.25073016,0.036734067,0.016616125,-0.312082,-0.00848753,0.119692124,-0.06366304,0.081382245,0.13719857,0.109395415,-0.100672856,-0.020545712,0.097038455,0.105397575,0.028757183,0.0065816697,0.35508078,0.02282857,-0.015173616,0.11430185,-0.08926993,0.3178282,-0.031233117,-0.020988654,-0.11021315,-0.3725259,-0.417229,0.028416457,-0.13456362,0.08395462,-0.15918668,-0.14265016,-0.14519425,0.06753038,0.02285313,-0.14799692,-0.008690069,0.1499871,0.09326701,-0.004339381,-0.06314294,-0.09150299,0.042087756,-0.01586489,-0.024357073,-0.12700959,0.029988373,-0.035009053,-0.0005576175,-0.1306281,-0.39405537,-0.21276818,0.141755,0.14826831,0.39116058,0.53372973,0.540243,0.17296462,0.121729955,-0.07195099,0.16304773,-0.09708751,-0.07497725,0.061482582,0.035790212,0.23604864,-0.1599597,0.16317125,-0.11901249,-0.1652711,0.18083476,0.37031597,-0.20269798,-0.25494736,-0.27718115,0.8676115,-0.7727474,-0.4656742,0.10795736,-0.3199194,0.33721235,-0.42318296,0.0024704202,-0.059615903,0.07934456,0.118276425,-0.025245998,-0.028136032,0.005042631,0.18028079,0.45094082,0.32158193,-0.028900338,0.03683002,0.39743936,-0.5002386,0.14970852,0.020122755,0.05932929,0.2157255,-0.00871787,-0.046192773,0.09200339,0.01116604,0.09878661,-0.34183607,0.12248011,0.06673351,-0.12963906,-0.03104801,-0.44338736,0.030003997,-0.0349744,0.05910016,-0.39436418,1.0806886,-0.15996079,0.14670639,0.14007917,0.26617765,-0.06595432,0.54724383,0.16440919,0.26799333,-0.40562135,-1.532428,-0.5614061,0.31774276,0.12337498,0.21515726,0.35296685,0.34915394,0.3015833,0.026584353,-0.035398163,-0.103764735,0.06803308,0.021879684,-0.06488869,0.03766117,-0.011773582,0.010761185,0.18656689,-0.12825283,-0.039519213,-0.4188703,0.36989412,0.11872439,-0.006116069,-0.15445605,0.20047842,0.5076754,0.13282648,-0.091901824,0.12463202,0.28547212,0.44059515,-0.025131267,-0.12202186,-0.14069383,-0.066957414,0.07623393,0.0133275585,-0.27020824,-0.20384549,0.0337463,0.15294358,-0.0101461895,-0.31825584,-0.086878136,0.25522313,0.117561996,0.06356792,-0.24130835,0.10406348,-0.0037555767,0.1410506,0.016902883,-0.13867202,-0.014308728,0.021719534,0.05009913,-0.03401389,0.07872427,0.15759723,0.5703235,0.068019554,-0.06872577,-0.03798688,-0.008516383,-0.0071178935,-0.060511388,-0.0006487179,-0.11775189,-0.0970115,0.09768055,-0.08400229,-0.16265222,-0.032783195,-0.14748721,-0.14540574,-0.15031207,-0.093368925,0.049026117,-0.022357248,-0.11804924,-0.053709432,0.026260009,-0.0005009975,0.087685764,0.39069146,0.13723896,0.022936875,0.07755531,0.26320064,0.21178381,0.056195345,0.21713576,0.024203181,-0.05681655,-0.6349692,-0.053662732,0.33927462,-0.043293353,0.13570985,-0.13160032,0.25517273,0.23376499,-0.13236488,0.008099584,-0.023223586,-0.01783581,-0.010399245,0.063111834,-0.024184052,0.071000814,-0.15450856,0.17451963,-0.027298756,0.17105617,0.6692164,-0.4337015,-0.2624529,-0.04882509,0.1359406,-0.1946269,-0.26610875,-0.53375685,0.028140567,0.07417565,0.2655315,-0.086874984,-0.29208466,0.10140225,0.0925512,0.2637998,-0.29054534,0.086874984,-0.13960075,-0.17611909,0.05465765,-0.15166698,-0.20712373,-0.19305977,0.019078236,0.10995457,-0.0020626471,-0.3028545,-0.14207792,0.11107329,0.8962576,0.0013422188,-0.2104799,-0.1292126,-0.096529886,-0.021036003,-0.09828788,-0.1309706,-0.067203335,-0.1508679,-0.019867336,-0.13816239,-0.0831052,-0.027884413,-0.16709082,0.03491482,0.099115826,-0.1999569,0.08483935,0.039486744,0.26206604,0.33901235,-0.20961832,-0.08151823,-0.049299125,0.02794911,0.0838042,-0.63420326,0.06754368,-0.01715549,-0.06098772,0.23014884,-0.4168213,-0.076213084,0.022147944,0.1312918,0.09419885,-0.4126807,-0.035049234,-0.24158074,-0.48316148,-0.1747282,-0.062432528,-0.10842817,-0.23343135,-0.052867368,-0.22749197,-0.10863536,0.045063302,0.10145286,0.24213323,0.30277014,-0.07451847,-0.005468889,0.05103721,0.07838597,0.03209681,-0.043751113,0.0073983236,-0.004994084,-0.040505175,-0.019354774,0.04851643,0.07494885,-0.0821863,-0.16835561,0.054110833,-0.046751954,0.12852538,0.27045703,0.40529695,0.18224762,0.18623064,-0.058093857,-0.14853764,-0.32058483,-0.052410763,-0.1482462,0.1370743,0.09967274,-0.34467727,0.051245,0.017413585,0.029872678,0.19322522,0.49350634,0.29182935,0.14912052,0.04163517,0.050669216,0.035219688,0.017315255,0.041406047,0.122614264,-0.31448954,0.0068941885,-0.35245875,0.0911915,0.15240043,-1.0605185,0.7468145,-0.1694211,-0.041864295,0.057019234,-0.44856003,0.4265641,-0.6158863,0.15370972,-0.07004659,0.027658584,-0.12267973,-0.048247047,0.0009318406,-0.24307247,-0.17715451,0.42434683,-0.23635057,-0.18777944,-0.07068834,0.3180975,0.58372086,0.6674193,-0.016167788,0.21076399,-0.18485217,-0.16143394,-0.06646004,0.23092969,0.074970834,-0.20209058,-0.12717395,-0.22962867,0.069333114,-0.056539826,-0.090203516,0.3946404,-0.18105754,-0.054046217,0.1329414,-0.01596329,-0.45891693,-0.1602965,0.07506064,0.047594935,-0.3362245,-0.14385395,0.08877506,-0.01879281,-0.11517163,0.7739062,-0.609923,1.1284165,0.12534685,0.018967928,-0.29537615,0.07292237,0.1838912,0.054894548,0.13707046,0.0009516222,-0.47838256,-0.03966859,0.10307935,-0.14280306,-0.042498276,-0.11019709,-0.0060687154,-0.23387869,-0.21674673,0.11318137,-0.025766999,0.051285308,-0.07770166,-0.27123737,0.3260596,-0.30218542,0.10251535,0.061951324,-0.13749768,0.28007966,0.48765254,0.63576096,-0.17529848,-0.09831526,-0.042719334,0.06023813,0.075601615,-0.17142998,0.39678797,-0.3204826,-0.14091061,0.21019588,0.022268454,0.21894558,-0.32516268,0.4619019,0.131347,-0.022433782,0.23929368,-1.9745798,0.72846204,0.3805095,-0.014866832,0.3505978,-1.0564735,0.59457153,0.29199526,-0.0401875,0.4907962,-0.4065551,-0.23196836,0.08714075,0.1280913,-0.13230301,0.018539771,0.35678217,0.110326655,-0.12189316,-0.1614862,0.15810521,0.78723407,0.23506695,-0.12349468,-0.27688432,0.050403267,-0.3592734,0.244854,-0.0408609,-0.21193394,0.089151055,0.14911893,0.2630045,-0.09386663,-0.10578903,0.086615324,0.065261774,0.04644396,-0.11957986,-0.0017956417,0.05547352,0.16834243,0.07335665,0.054984912,0.1467133,-0.009177725,0.11381356,0.14541034,0.04944733,0.23739931,0.2542075,-0.12801582,0.20417383,0.2512107,0.010464397,0.13016571,0.0027097496,0.1923169,0.0048128087,-0.003175965,0.054431155,0.10834113,0.13759258,-0.026824689,-0.025988968,-0.097836144,0.05841557,0.2101371,0.08345082,-0.018647283,0.15164205,-0.087424666,-0.18502237,0.082099706,0.006387961,-0.09878987,-0.040513385,0.21872061,-0.22698621,0.09330596,-0.054401983,0.11079089,0.14774768,-0.05265349,-0.29629013,-0.084563494,-0.2970849,-0.34461212,-0.25973073,0.050312728,-0.11941822,-0.011158206,0.38314807,-0.24528769,-0.017854882,0.13743964,0.06984178,0.14683603,0.013419649,0.041652627,-0.87176,-0.46056306,1.1432735,0.47795337,-0.043370623,-0.13211036,-0.13119876,0.117945656,0.08519855,0.05045297,-0.013174221,0.01484839,0.0026273937,-0.11317734,0.025607795,0.014400841,-0.0930574,0.025494402,0.04925012,-0.059077464,0.1396995,0.20455998,0.05197154,-0.10636212,-0.35680825,-0.10878116,0.46112928,-0.121254325,-0.24598601,-0.22179563,-0.19110407,-0.23479797,-0.19594215,-0.14620066,0.040632293,-0.01787821,0.008877683,0.027365377,-0.025853477,0.14277689,0.088067986,0.21443221,-0.008164637,0.074791074,0.11942553,0.12856592,0.14144252,0.19508395,0.07999509,0.20455793,-0.08019525,-0.42059135,-0.04383384,0.03659492,0.012176067,0.06768559,0.01462796,0.051339634,0.078393854,0.0803954,0.09207108,0.17146571,0.13443711,0.004340851,-0.112415835,-0.17377162,0.13493249,0.20792326,0.13811328,-0.051938962,-0.0045854654,0.04754445,0.026680974,-0.04771186,-0.09324739,-0.05624977,-0.053487506,-0.2919631,0.042605855,-0.11551292,-0.22918434,-0.043610316,0.20424025,0.10571944,-0.080356814,-0.41986436,-0.009087226,0.6241046,0.11994929,-0.025831683,-0.0044297567,-0.08085248,-0.014909746,0.008962292,-0.030312829,-0.05585673,0.14427371,-0.015526418,-0.06703904,-0.05495228,0.404975,-1.479573,2.182085,-0.28021553,-0.04445516,0.05599377,-0.25149232,0.42997077,-0.10568379,0.00231937,0.0062420857,-0.09811928,-0.10239487,-0.044509977};

#endif
