#pragma once

#include "parameters.h"

#ifndef KERNEL11_H
#define KERNEL11_H

static float bias11[FEATURE_MAP11] = {1.0802658,1.755516,1.1536303,0.9158085,0.77808315,-1.3799487,0.6138097,-0.97888136,-0.48635322,-0.9659729,-0.81329185,0.50623095,-1.201066,0.69730437,4.831466,0.3401953,1.3079097,0.119068995,3.2593558,2.3443186,0.652184,1.6469895,-0.30840182,0.7952144,1.2816833,-0.3202675,1.9724386,1.5476458,-0.45361352,1.9457612,2.5590127,0.07774907,0.92293996,1.9720693,1.3615696,2.1444404,0.7444265,1.1525347,1.3931425,1.1746957,-0.33808184,0.11705507,2.0151687,0.9589536,1.95081,0.90428895,-0.20336069,1.9360528,0.5897163,2.5454016,2.8327188,0.34270287,0.18609375,-0.9948728,0.07205783,1.5801268,-0.47874352,2.6165695,0.19860256,0.7514482,2.4031067,1.5720742,1.3141963,-0.27222586};

static float kernel11[FEATURE_MAP11][IN_CHANNEL11][KERNEL11][KERNEL11] = {0.023374857,0.034071825,0.014353417,-0.018125419,-0.041500274,-0.005443403,0.011142676,0.013098834,-0.004754208,0.005348484,-0.0053773727,-0.0042919936,-0.014865154,-0.05949363,0.0080103455,-0.024728486,-0.02207075,0.0102265,-0.0421936,0.0044529433,0.023952626,-0.0073748003,-0.0067763976,0.01061443,0.018059388,-0.01832351,-0.032305505,0.03233852,0.00511325,-0.03261915,0.01595466,-0.041929476,-0.05137186,0.000868716,0.0024782135,0.038793016,-0.035260376,0.00275059,0.014964201,-0.01567403,-0.010903314,0.013329941,-0.008534464,0.003200424,0.01588863,0.028475726,0.056951452,0.057083514,0.017679712,0.03856191,0.027963988,0.0074078157,-0.001150378,-0.02249995,-0.015574984,-0.021410445,0.035227362,0.045957346,0.068869986,0.052098196,0.01616926,0.032520104,0.022879627,-0.00047743268,-0.017778758,-0.03332898,-0.024794515,-0.005901491,-0.026164653,-0.009978885,0.006099583,-0.016466398,2.7727721e-05,0.012999788,0.01220742,0.02462944,0.039090157,-0.009813808,0.030308077,0.02385358,0.009458893,-0.026049098,-0.00080062187,0.038033664,-0.013346449,-0.019875232,-0.019346986,0.03935428,0.01789431,0.01584736,0.0056868913,-0.028129065,0.0076100347,-0.0022347255,-0.010350307,-0.016689252,0.008253833,-0.026725912,-0.024348808,-0.006107837,-0.034930225,-0.0072138505,0.010350307,-0.027683359,-0.026527822,0.014138817,-0.023638979,0.011852505,-0.017712727,-0.017745743,-0.027534788,-0.002449325,-0.057974927,-0.020601569,0.01351978,0.0036750194,0.013825172,0.014163579,0.0057735564,0.025702437,-0.02349041,0.010540145,-0.015335623,-0.038165726,-0.048565555,-0.053814996,0.010886806,-0.007242739,0.016326083,-0.002072744,0.035293393,0.08108566,0.010234754,0.05054648,0.044570703,-0.025240224,-0.011877267,-0.020271415,-0.033494055,-0.035326406,-0.048796665,-0.04764113,-0.0034418486,-0.025306255,0.018307002,0.0026866228,0.019561585,-0.037406374,-0.08550972,-0.041500274,-0.07903871,-0.101291046,-0.039156187,-0.0034913716,0.025917038,-0.0007072504,0.0029631262,-0.013907709,-0.014312147,-0.018917786,0.006165614,0.032140426,-0.0020892515,-0.027765896,-0.0023647232,-0.004254851,0.03339501,-0.016532429,0.031727735,0.032718197,-0.051206782,0.021823136,0.02809605,0.0040134266,0.004572624,-0.018736202,-0.024579916,-0.011464575,-0.060252987,-0.038396835,-0.039717447,-0.016136244,-0.0043497705,-0.013610572,0.066823035,0.059460618,0.07038869,0.07679367,0.05668733,-0.031826783,0.016334336,-0.00764305,0.020287924,0.04493387,-0.0066484627,0.011596636,-0.03263566,-0.040212676,0.0686719,0.032206457,0.03730733,0.0065246555,-0.062299937,-0.023804056,-0.06362055,-0.092310876,-0.053583886,-0.00084447034,0.03842985,0.0297138,0.0056703836,0.038859047,0.015896883,-0.012322973,0.0063224365,0.019198418,-0.027369712,-0.035392437,0.0020624266,0.041203137,0.085707806,0.034996256,0.0025710692,0.041863445,0.056555267,-0.00042687796,-0.024381824,-0.054046102,-0.0012545827,-0.0011792665,-0.021988213,0.02179012,0.031034414,0.032322012,0.029977923,-0.006842428,-0.003844223,0.046947807,-0.031116953,-0.02314375,-0.022466935,0.007151947,-0.002511229,-0.00659894,-0.04282089,-0.0014764045,0.012182659,-0.033411518,-0.020139353,-0.013008041,0.012719157,0.033246443,0.009888093,0.021476476,0.06900205,-0.0062770406,0.0413352,0.07593527,0.019941261,0.0052700727,0.03263566,0.021641552,-0.0008852237,-0.030209031,-0.0018323511,-0.00043048902,-0.011637906,-0.026874483,-0.014237863,-0.030192522,0.054178163,0.08062345,0.04889571,0.01117569,0.020700615,0.012479796,-0.024150716,-0.035854653,-0.05193312,0.009789047,-0.0202384,-0.033279456,-0.041665353,-0.069662355,-0.062365968,-0.010977599,-0.02279709,-0.047872234,0.017597172,0.0017549713,0.011126168,0.013610572,0.038132712,0.028624294,0.043712303,0.066360824,0.03634988,0.0077998727,-0.011629651,-0.043051995,-0.034666102,-0.0557629,-0.03757145,-0.024150716,-0.036547974,-0.04196249,0.02484404,-0.018307002,0.009830316,-0.0038462866,-0.0039845384,-0.02165806,-0.004717066,0.018719694,-0.009846823,-0.015327369,0.003840096,-0.005818953,0.0067763976,0.050777584,0.05681939,0.070784874,0.075010836,0.05949363,-0.015187054,0.021261875,0.0029693167,-0.0052288035,-0.005298961,-0.0020149671,-0.026643375,-0.005195788,-0.00396184,0.010754745,-0.037274312,-0.020254908,-0.014840392,-0.021592028,-0.026016083,0.020684106,-0.008051614,-0.013668348,-0.01231472,0.004919285,0.050711554,-0.020221893,-0.02547133,-0.0026474171,-0.037505418,-0.034005795,-0.005435149,-0.02732019,-0.052263275,-0.025603391,-0.020552045,-0.012752173,-0.012397258,0.0048284926,0.01881874,0.019380001,0.016359098,0.011769967,0.011984566,0.0098055545,0.0076182885,0.0036172427,-0.033345487,0.015863867,-0.012677888,0.040080614,0.0628612,0.042853903,0.08887728,0.07474672,0.034699116,0.07804825,-0.029928401,-0.024183732,0.004919285,0.046254482,0.0719074,0.027221143,0.04925888,0.0051999153,-0.0058767297,-0.025438314,-0.026230684,-0.02144346,-0.00099046,-0.017861295,-0.005360865,-0.04988617,-0.019495554,0.012875981,-0.020766646,-0.022450427,-0.01748162,0.075473055,0.061672643,0.04493387,0.0783784,0.08385895,0.028987464,0.042358674,0.0137013635,-0.013239149,-0.044207532,-0.019231433,-0.017498128,-0.053385794,0.016078468,-0.015971169,0.0075151157,0.065568455,-0.09680096,-0.08696239,-0.03984951,-0.049556017,-0.028277634,-0.00089657266,-0.04212757,-0.01280995,0.032437567,0.023275811,0.026742421,-0.00035053,-0.021839643,-0.060616154,-0.06322437,-0.021988213,-0.11456321,-0.0093763545,0.04840048,0.02377104,-0.014840392,0.013990248,-0.0342369,-0.10670556,-0.012322973,-0.0049853153,-0.041698366,0.035260376,0.024068179,0.03261915,0.009508416,-0.024035163,-0.022896135,-0.01825748,-0.05767779,-0.038660955,0.01890128,-0.0007650272,-0.02038697,0.022021228,0.0007727652,-0.037538435,0.015533715,4.887817e-05,-0.013379464,0.041566305,0.04572624,0.025322761,0.047938265,0.07243565,0.010300784,0.027997004,0.027023051,0.00055094337,0.00874081,-0.024794515,-0.012124881,0.017349558,-0.005851968,-0.04331612,0.0012721221,-0.0036647022,-0.0047211926,-0.005752922,-0.02370501,0.026296714,-0.047509067,0.016548937,0.007993838,-0.029961416,-0.018059388,0.001036372,0.050282355,0.0421936,0.0009956186,0.02030443,-0.0042300895,-0.008625256,-0.016152753,-0.0566213,-0.07613336,0.013990248,0.0040319976,-0.017234005,-0.021311399,0.0029053495,0.026032591,-0.02661036,-0.024068179,0.05606004,-0.010886806,0.031331554,0.058437143,0.0060170447,0.027782403,0.044636734,-0.0061408523,-0.017597172,0.015649268,-0.011167437,-0.020073323,0.010845537,-0.041764397,-0.060252987,-0.023341842,-0.04919285,-0.06906808,-0.047277957,0.02385358,0.008167168,0.023556441,0.032305505,-0.022912642,0.0021748852,0.068869986,0.012017582,-0.029301109,-0.024678962,0.0015857677,-0.0023399617,-0.034005795,-0.022235828,-0.018587634,-0.004083584,-0.03730733,-0.04919285,0.035557516,-0.004613893,0.019842217,0.019198418,-0.0058643487,0.024530394,-0.004696431,0.0045891316,0.01868668,0.015608,-0.003646131,-0.054442286,-0.012504558,-0.030456645,-0.013816917,0.0038070807,-0.015352131,-0.011316006,0.01631783,0.0071148043,0.0066402094,-0.015302608,0.008905887,0.009103978,-0.0018137799,0.026230684,0.0070157587,0.020254908,-0.01868668,-0.061738674,-0.007284008,-0.031447105,-0.025289746,-0.0071148043,-0.013420734,0.0015475937,0.029414944,0.0577422,-0.04303473,0.028942036,0.0030443522,-0.05603973,0.01807695,0.061005272,-0.048189435,0.027665181,-0.020193217,-0.025087828,0.008163593,0.0012842438,-0.043318473,0.031472098,0.040410083,0.009003007,0.03494798,-0.016327186,-0.0012369528,0.025253344,-0.015925214,-0.038636673,-0.0019064147,-0.034214973,-0.041545063,0.04946629,-0.022167614,-0.0033694773,0.0660654,-0.01755675,0.0059231864,0.019956764,0.0254898,0.044500746,0.05258749,0.012827659,0.0066621066,0.043625865,-0.024591273,-0.013371505,0.069044724,-0.0213282,-0.009499561,-0.007980341,-0.013182341,0.011101541,0.008807932,-0.05887718,-0.0072768885,-0.043507636,-0.078881234,0.0060709706,-0.009156702,0.041024864,0.017923255,0.047101744,0.048615053,0.052776653,0.038140118,0.017592218,0.00015822134,-0.036792327,-0.0059113638,0.006928118,-0.049702745,-0.013749831,-0.012461155,-0.062234838,-0.046534255,-0.019353805,0.055519525,-0.00971237,0.002722183,0.041308608,0.001922671,-0.07235509,0.009871977,0.013572491,-0.07131469,-0.032323334,0.02168288,0.012319282,0.0028005084,-0.05726929,-0.03307999,0.014754764,0.0076670386,0.019720308,0.0094640935,-0.0025152853,0.017308472,0.031613972,0.053911638,-0.026341036,0.0036650454,-0.02787799,0.03733617,0.006863093,-0.014707472,-0.012709431,0.061667345,-0.07642211,-0.0026394238,0.009901534,-0.0759492,0.017119309,-0.0010234048,-0.06942306,0.0034758819,0.014057223,-0.13222538,0.017284827,-0.08483989,-0.07372653,0.034569655,-0.025678964,-0.03490069,-0.031613972,-0.06682205,-0.06965951,-0.051121473,-0.08200244,-0.113403596,-0.03390758,0.038991354,-0.021233618,-0.049182545,0.027807055,-0.023740036,-0.0577422,-0.04691258,0.0023453336,-0.010392177,0.042845562,0.033481963,0.002128091,0.040126335,0.046699774,-0.033883937,0.021091746,0.089427106,-0.072780706,-0.009629611,0.012059182,0.008831577,0.010250305,0.07925956,0.046014056,0.007525166,0.033954874,0.06715309,-0.0031182442,-0.024898663,-0.010090698,-0.009286752,-0.057505745,0.03213417,-0.0074896975,-0.07088907,0.032181464,-0.036768682,-0.00793305,-0.006768511,-0.041119445,-0.026719363,-0.00596161,0.021008987,-0.08001622,-0.013572491,0.007690684,0.059255507,0.0252297,0.021730173,-0.004646332,0.0577422,0.024756791,0.036012027,0.06691664,0.013288746,-0.02943859,-0.0319923,0.06336982,0.008636503,-0.06081611,0.07925956,0.010764593,-0.06805162,0.045091882,-0.027665181,0.026388327,0.003073909,-0.057931364,0.10971491,-0.021056278,0.07859749,0.06876098,0.052256454,-0.004244359,0.012059182,0.005869984,0.011290705,0.026577491,0.002750262,0.0020645438,0.0028463216,0.048473183,0.012130118,0.020926228,0.024780435,-0.018880894,0.09141333,0.011284793,-0.048023917,0.017509459,-0.008660148,0.0048354953,-0.01205327,0.033411026,0.11170112,0.008417781,0.03490069,0.10441833,0.019826714,-0.033434674,-0.041686937,0.001913804,-0.06833536,-0.073773816,0.037217945,-0.03646129,-0.032181464,0.040126335,0.05840427,0.048094854,0.031590328,0.10602622,0.0028847454,0.009328132,0.037667207,-0.0143173225,-0.056938253,-0.029604109,0.039700717,0.030384408,-0.0998784,0.045328338,0.039440617,-0.105837055,0.0028581442,-0.0052492907,0.019389272,0.01495575,-0.059491962,0.031566683,0.015984327,-0.028705582,0.013383327,0.0025507533,-0.02527699,-0.013406972,-0.027688827,-0.046959873,-0.051168762,-0.057505745,-0.0254898,-0.008772464,-0.0655452,0.01396264,0.01633901,0.013087759,-0.11151196,0.07476693,-0.033742063,-0.089710854,0.053958926,-0.0013404017,0.016658222,0.015877923,-0.15123633,-0.015487772,0.03402581,-0.16315363,-0.011219768,0.0005545598,-0.14442644,0.01885725,0.043980546,0.049087964,-0.019412918,-0.064693965,-0.0012339972,-0.055188492,-0.0811512,0.0049537225,-0.00035006355,0.026719363,-0.082380764,0.002405925,-0.0023364665,-0.10697204,0.007365559,0.017190246,-0.08592758,0.007944873,0.013158696,0.018195176,0.003242383,0.048189435,0.0042295805,0.0051399306,0.04275098,0.0072709774,-0.046581544,-0.03468788,0.008648325,-0.03724159,-0.00663255,-0.06776787,-0.042680044,-0.012697609,-0.03000608,-0.0008394136,-0.047763817,-0.016007973,-0.035349954,0.08692069,0.056607217,-0.06630185,0.100824215,0.015937036,-0.028256318,-0.024189299,-0.021931158,-0.019495677,0.037643563,0.003753716,0.038400218,0.059964873,0.036248483,-0.0039015,-0.017627686,0.017403055,0.046794355,0.028209027,0.0070640794,0.07902311,-0.031472098,0.019495677,0.03750169,0.022179436,-0.034238618,-0.03698149,-0.023609987,0.020689772,-0.05665451,0.017568573,0.011639475,-0.0076079248,0.030620864,0.0068690046,0.060863398,-0.023574518,0.031141063,0.0046492876,-0.0148257,-0.04312931,-0.024520336,0.020488786,-0.030337118,-0.011024693,0.028540064,-0.090987705,-0.016965613,0.038021892,-0.05197271,0.05258749,0.010670011,-0.026435617,0.022545941,-0.042349007,-0.05736387,-0.005946832,-0.02995879,-0.07689502,-0.05977571,0.044311583,-0.043342117,0.048047565,-0.0029615932,-0.067531414,0.01292224,-0.0042236694,-0.06776787,-0.032630727,0.01937745,0.0102975955,0.0008852267,-0.06256587,-0.02245136,0.033269156,-0.028256318,-0.04594312,0.020512432,-0.093446836,-0.0069399406,-0.06691664,-0.06275503,0.011799082,0.015937036,-0.044855427,0.008624679,0.07552358,-0.06327523,0.035089854,0.053958926,-0.040812053,0.046014056,0.05788407,-0.009848332,0.015830632,0.07117282,0.014352791,-0.0488988,-0.028918391,0.046345092,-0.045020945,-0.100824215,0.04426429,-0.050695855,-0.03402581,0.08039454,-0.038376573,0.00036151684,0.04104851,-0.10489123,0.0218484,0.065166876,-0.0431766,0.0038394306,0.048402246,0.008902513,-0.022380423,0.027736118,-0.03844751,-0.056938253,-0.005822693,-0.040906634,-0.040220916,-0.004356675,-0.053675182,-0.0048325397,0.002629079,-0.024756791,-0.044713553,-0.0063606272,-0.06634914,-0.024543982,-0.023208013,0.038305636,-0.0067744227,-0.0053527397,-0.03750169,0.0071113706,-0.044146065,-0.0327726,-0.016007973,-0.08157682,0.012626672,-0.016504528,-0.08280638,0.08446156,0.0054680114,-0.0941562,0.086116746,0.040764764,-0.023598164,0.019341981,-0.0603432,-0.020193217,0.03478246,-0.013099582,-0.03494798,-0.0124848,-0.022746926,-0.031826783,0.050601274,0.06757871,0.11141738,0.06441022,0.11851101,0.08157682,-0.06493042,0.076800436,-0.00036022373,-0.070558034,0.030029727,0.0037596272,-0.12002432,0.050317526,-0.025702609,-0.08493447,0.06393731,-0.0005649047,0.004217758,-0.034995273,0.013643427,-0.05154709,-0.056087017,0.042088907,-0.048473183,-0.008997096,0.040646534,0.06563978,-0.0022625744,0.059964873,0.0127449,0.011012871,0.06133631,-0.046888936,-0.024875019,0.06204567,-0.014057223,-0.014624714,0.12153763,-0.015546886,-0.012733078,0.09661533,-0.0046670213,-0.008293643,-0.062660456,0.031921364,-0.027594246,-0.07925956,0.11141738,0.004321207,-0.04114309,0.019673018,-0.09027834,0.061667345,-0.008742907,-0.063700855,0.09477098,0.014009932,-0.062944196,0.04998649,0.0018147887,-0.037643563,0.09557492,0.017615864,-0.022191258,0.07060533,-0.025253344,-0.06663289,0.0072473316,-0.034995273,-0.051310636,-0.05197271,0.009440447,0.018786313,-0.066963926,0.024094718,0.032985408,-0.006260134,-0.015405013,-0.01018528,0.020713419,-0.060059454,-0.02371639,0.001838434,-0.013075937,-0.029533172,0.030384408,0.041474126,-0.06488313,-0.024424013,0.04382436,0.035798743,0.031551085,0.026343627,0.027773125,0.0063510602,-0.0068054367,0.0340425,0.0019936408,-0.042925816,0.005437202,-0.034573458,-0.07515081,0.011170514,-0.051870394,-0.011966949,-0.001210607,0.025424663,0.033491123,-0.04353846,-0.017368414,-0.0049598515,-0.028937146,0.009225374,-0.0019094023,-0.060079806,0.014264359,-0.012600013,-0.029896952,-0.019941512,0.0003136602,-0.016827246,-0.018226113,0.0057639447,-0.013764034,0.0106191365,-0.002153183,0.0049904836,-0.017868739,-0.00198343,0.021993864,0.025710562,0.010256656,0.0053606215,0.02176923,0.008668891,0.056934908,-0.030775074,0.016684297,-0.02134038,-0.051952083,0.0067288564,-0.0032750845,0.0035941692,0.012906334,0.00684628,-0.021095322,0.007606977,0.017705368,-0.027589332,-0.023035357,0.03912743,-0.08740366,-0.05697575,-0.0050747218,-0.068411745,-0.058813676,-0.01601039,-0.02754849,-0.028161133,-0.01557133,0.053749166,0.04313003,0.018501803,0.0014792763,0.0031168186,0.013753823,-0.015428379,-0.04063862,0.0017179516,-0.058201034,-0.036778968,-0.037412032,-0.035880428,-0.036288857,-0.003231689,0.0031474507,0.019839406,0.032204572,0.029161781,0.030938445,0.027099218,-0.0041557583,0.014325623,0.043252558,-0.017327571,0.022341028,0.01369256,0.01847117,0.032286257,-0.0025718221,0.013314763,-0.008183883,-0.031939093,-0.00605495,-0.0035354577,0.009184532,0.013314763,0.0032623212,-0.06506263,-0.0028589983,0.009000739,-0.036186747,-0.009853333,0.03247005,-0.020748159,0.025547192,0.016612822,0.0025360845,0.024158536,0.037248664,0.02971316,0.026874583,0.035267785,0.05121691,0.010711033,-0.028181553,0.044069417,-0.022974093,-0.0323271,-0.024566963,-0.0127123315,-0.0031142659,-0.053299896,0.034941044,0.07404805,0.012375378,0.059753064,0.023770528,0.008357464,0.055015292,-0.015030162,0.012855281,-0.0075508184,-0.008459572,0.034553036,0.014141831,-0.024138113,-0.01774621,0.00027951814,-0.049501512,0.037636667,0.057302494,-0.011435993,-0.07604935,0.03259258,-0.06600202,-0.07604935,0.028528718,-0.008837367,-0.010506818,0.009072214,0.061182562,0.03822889,0.00836257,0.09271323,0.040801987,-0.008056249,0.032224994,0.009353008,0.007857139,0.0328989,0.071474954,0.0067441724,0.051952083,0.020952372,0.010782507,0.048398755,0.018634541,0.022279764,-0.0011289214,-0.043170873,-0.0016043575,-0.0028794196,-0.037166975,0.03014201,-0.015826598,-0.0036401174,0.03765709,0.060324863,0.022565665,0.02971316,0.04888887,0.009996283,0.04545807,0.048194543,0.10529282,-0.029059675,0.006534853,0.0027058376,-0.024138113,0.012344746,-0.0071730223,-0.037820462,-0.026241519,0.025445083,0.00026260666,0.018859178,0.016377976,-0.024771178,0.012140532,-0.030223696,-0.06277543,-0.00360438,0.020094672,0.03820847,-0.0040025976,-0.07417058,-0.005432097,-0.059017893,-0.10790676,-0.039556284,-0.0934484,-0.10610968,0.026588684,0.04750021,-0.017378625,0.07118905,0.059630536,-0.021177009,0.08552489,0.02207555,-0.027017534,-0.0009942676,0.044641215,0.07135243,0.042599075,0.05681238,0.05840525,-0.03259258,-0.026895005,0.06363313,-0.058609463,-0.053136524,-0.010762086,-0.021197429,-0.027466804,0.027691439,0.009858439,0.038902797,0.091733,0.0081634605,0.03247005,-0.0475819,0.020472469,-0.023137463,-0.0065603796,-0.0036401174,-0.023872634,0.030958867,0.010782507,-0.031224344,-0.0057537337,0.0046969256,-0.02611899,-0.036881078,-0.030918023,-0.04255823,-0.061999418,0.07339457,0.017051881,-0.034593876,0.0023522917,-0.026915425,-0.017347993,-0.032653842,-0.0059783696,-0.03853521,0.03951544,0.0023995163,-0.077274635,-0.004275734,-0.028324503,-0.040720303,-0.023688842,-0.03908659,-0.047826957,0.020748159,0.06346976,-0.037166975,0.028630825,0.044314474,-0.005447413,-0.051094383,2.07405e-06,-0.0075967666,-0.05423928,0.014825948,0.00035131216,-0.032245416,0.011527889,-0.020115094,0.014519626,0.021136165,-0.026568262,0.023709264,0.026425311,-0.0054218858,-0.027160482,-0.046969257,-0.028487874,-0.021013636,-0.022565665,0.0157347,-0.050726797,-0.039474595,-0.021258693,0.0008940751,-0.012028214,-0.03679939,-0.004385499,0.01990067,-0.037636667,0.036962762,-0.0044697374,0.042721603,0.026752055,-0.016939564,-0.01644945,-0.051421124,0.0018825992,0.0349002,-0.022749458,-0.09205974,-0.026915425,-0.040046398,-0.086505115,-0.0769479,-0.022320608,-0.08139976,-0.12800144,0.012416221,0.002017891,0.00021857297,-0.039597124,0.007499765,-0.011425782,-0.057302494,-0.023709264,-0.028896304,0.017562417,0.009256006,-0.014795315,0.023280414,0.009118162,-0.05064511,0.05231967,0.04770443,-0.013100338,0.046642512,0.024138113,0.023096621,0.033205222,0.013028863,-0.024791598,0.022688193,0.020298887,-0.021891758,0.028977988,0.018287377,0.0016030811,-0.031530667,-0.080705434,-0.043170873,-0.027303433,-0.05771092,0.009138583,0.014437941,0.03906617,0.048970554,0.028630825,0.020380573,-0.03606422,-0.014121409,-0.026711212,-0.040577352,0.04155758,0.03502273,-0.007862245,0.014968898,0.010751875,0.01847117,0.0049113506,0.018501803,0.0062081106,0.0052125663,0.053299896,0.0143358335,0.027732283,0.055464566,0.094673686,0.0025207684,0.012048636,0.04427363,-0.028304081,-0.018910231,0.016490294,0.016745562,0.026752055,-0.036595177,0.023423364,0.016949775,-0.001263575,-0.04688757,-0.061958574,0.018134218,-0.018195482,0.005118117,0.017215254,-0.022157237,-0.018695805,-0.019543296,0.0031908462,-0.06661466,-0.07029051,-0.005712891,-0.038719006,-0.046805885,0.0009712936,-0.038412683,-0.026466155,-0.02756891,0.0060192123,0.002123827,-0.033021428,0.011589154,-0.03087718,-0.002805392,-0.011783157,-0.01643924,-0.06935113,-0.058772836,-0.013478135,-0.024995813,-0.04803117,-0.035798743,-0.012926756,-0.0080460375,-0.01675577,0.03608464,0.03492062,-0.026813319,0.08764872,0.059671376,-0.008776103,0.034410086,0.032633424,-0.015816387,0.02379095,0.08854726,0.065961175,0.02797734,0.06510347,0.08380949,0.03259258,0.0007224076,0.03445093,0.0018940863,0.04688757,0.009291744,0.08626006,0.10169865,0.048072014,0.09279491,0.07216928,0.044559527,0.007530397,-0.014192884,-0.028120289,-0.016919143,-0.018828545,-0.022545243,-0.0025552297,0.0042859446,-0.002386753,0.04139421,-0.009276428,-0.054729395,0.025812669,-0.030366644,0.0021876441,-0.025649298,-0.0071526007,0.053544953,-0.005554625,0.021626279,0.0450088,0.03492062,0.08854726,0.10962216,0.03185741,0.044804584,0.08797546,0.0063459547,-0.0073619206,0.0038341207,-0.019359503,0.040352717,0.024852863,0.024281064,0.071474954,0.020891108,-0.061631832,-0.025077498,0.012201796,-0.032694686,-0.012804228,0.0053861486,-0.06114172,-0.046397455,0.037779618,-0.025404241,-0.091733,-0.10610968,-0.09941145,-0.16484167,-0.09851291,-0.083891176,-0.09214143,-0.037003607,0.016061444,-0.029345574,-0.018777492,0.028671667,-0.0030070534,-0.017848317,-0.0034180344,-0.018583488,0.01212011,-9.9394856e-05,-0.010976511,-0.009296849,-0.014407309,0.012038425,-0.03794299,-0.00728534,-0.036983185,-0.04439616,-0.028079446,-0.103087306,-0.101535276,-0.070658095,-0.14401183,-0.14409351,-0.080991335,-0.17023292,-0.11043902,-0.023913478,-0.031428557,-0.003201057,-0.05914042,-0.013712981,-0.03508399,-0.004051098,-0.010435344,0.008214515,-0.005595468,-0.0019719428,0.009056898,0.029978639,0.03878027,0.026629526,-0.010282183,0.022034708,-0.008714839,-0.051885206,-0.018696211,-0.025491316,-0.025065815,0.014789348,0.0069433856,-0.020449786,-0.0031009922,0.013306544,-0.063077144,-0.00029494884,0.060807813,-0.0075365067,0.005779708,0.002225816,0.015472726,-0.0019566552,0.04724339,-0.0514726,-0.02386668,0.027541451,-0.038166057,0.024601635,0.024678998,-0.028392453,0.034865208,-0.0020936532,0.066842176,0.08112866,0.030042876,0.047552843,0.09345526,-0.03610303,0.004609583,-0.031254906,-0.02671624,0.019108817,-0.0059860107,-0.024923982,-0.016684756,0.024240604,0.021481302,0.0022032517,0.09634351,0.028005634,-0.012126748,-0.025620256,-0.048017025,0.028727693,-0.04943536,-0.09706557,0.04734654,0.0017729165,-0.08009715,-0.007768598,0.06297399,0.038191844,0.019934028,0.054360844,0.060653087,0.09391945,-0.0108244615,-0.032518514,-0.048017025,-0.04324627,-0.010418302,0.022074422,-0.05926054,-0.012049385,-0.035767786,-0.122131385,-0.03012024,-0.0006874081,0.034091573,0.014699089,0.0027012802,0.051653117,0.035664633,-0.040383816,0.05394824,0.09206272,0.034297876,-0.00082158565,-0.035019938,-0.011926893,-0.07122611,-0.05026057,-0.010747097,0.027593028,-0.040383816,0.065759085,0.054567147,0.027360937,0.06797684,0.038784966,0.015975589,0.02337671,0.009328764,-0.0684926,0.026432574,-0.044277783,-0.06617169,-0.0087872185,-0.05026057,-0.03135806,-0.024085877,-0.032518514,-0.039996997,0.06663587,0.028289301,-0.099644355,0.14121442,0.006437299,-0.15709974,0.023363816,0.0017165055,-0.057610117,0.035870936,-0.02095265,0.020217694,-0.014918286,-0.021958377,-0.009406128,0.011772166,-0.017729165,-0.037624512,-0.037005603,0.027721968,-0.02344118,0.002583623,0.061581448,0.0010162035,-0.01646556,-0.023196194,0.0112628555,-0.036489844,0.014789348,-0.017136045,-0.14451526,-0.022577286,0.013409696,-0.066274844,-0.034865208,0.037082966,-0.077415206,0.0125006735,0.058796357,-0.035277814,0.050105844,0.1363663,0.025349483,0.117592715,0.09350684,0.066223264,-0.045747694,-0.023221983,0.039790694,-0.050337933,-0.020939756,-0.0039487686,-0.052658845,-0.030197604,-0.055443935,-0.016878165,0.0770026,-0.019830877,-0.04672763,0.028598756,-0.050853692,-0.10830908,-0.05513448,0.00625356,0.03473627,0.0055508404,0.027051482,0.079478234,-0.0010847026,0.05595969,0.0684926,0.019456953,-0.031100178,0.016323727,-0.010611711,0.02514318,0.05415454,0.04164742,0.012829469,0.059569996,0.03571621,0.084532656,-0.01506012,-0.09283636,0.033704754,-0.13296229,-0.04262736,-0.035664633,-0.08066448,0.0487133,-0.056681752,-0.019895347,0.016259257,0.019637467,0.07576478,0.065501206,-0.00024256721,0.08809139,0.021210529,-0.00038681814,-0.10686496,-0.069782,-0.015640346,-0.0872146,-0.07065878,0.012739211,-0.0772089,-0.10892799,0.0069498327,0.044664603,0.049847964,-0.020746347,0.005915094,0.09660138,-0.022848058,-0.01201715,0.05611442,0.0014465387,-0.022409664,-0.07385648,-0.031822238,-0.1610195,-0.08334642,-0.009070885,-0.14224593,-0.026922543,-0.020243483,-0.002464354,0.029088724,-0.0495643,0.00087356434,0.0031477327,-0.033446874,0.021571558,0.015743498,-0.025633149,-0.0060827155,0.04675342,-0.1233692,-0.08128338,0.07664157,-0.02137815,-0.026742028,0.080303445,0.0107148625,-0.046108723,-0.02088818,0.07540375,0.01997271,0.08246963,0.052143086,0.10830908,0.13781041,-0.027335148,-0.013203393,0.017509969,0.02184233,-0.06354133,-0.06570751,0.030274967,-0.04064169,-0.050931055,-0.10799962,-0.052916724,-0.0075880825,-0.05247833,0.019560104,0.052710418,0.015524302,0.0051801396,-0.019276438,-0.0066339313,0.06292242,0.009419022,-0.02903715,0.08628623,0.005876412,-0.046108723,-0.02095265,-0.02514318,0.011765718,0.026922543,0.025040029,-0.0757132,0.044613026,0.07174187,-0.03159015,-0.05693963,0.027335148,0.04247263,0.009302977,0.0023096267,0.03061021,0.031899605,0.010818014,0.03584515,0.01567903,-0.018412543,-0.0023724847,0.0039810035,0.014608832,0.030223392,0.040822208,0.017213408,0.0109340595,0.04337521,0.030635998,0.10985635,-0.038836543,-0.03630933,0.072670236,-0.11480763,-0.0667906,0.056372296,-0.07824042,-0.034220513,0.03375633,-0.009754265,-0.03476206,0.0480686,0.013306544,0.0102119995,0.10882484,0.08308854,0.03899127,-0.0011515899,0.03932651,-0.016439771,-0.014299378,0.008825901,-0.031409632,0.013164711,-0.0004271117,0.011204832,-0.07756993,-0.01542115,0.0061761965,-0.01839965,0.010701968,-0.035303604,-0.0018809033,0.008632491,6.2253544e-05,0.033807907,-0.017432604,-0.025310801,0.025220543,-0.061890904,0.0109534,0.023350922,-0.057764843,-0.058486905,-0.08138654,0.051756267,0.013280757,-0.0065178857,0.051317874,0.046237662,0.047655996,0.050208997,-0.0026529278,0.10088217,0.08680199,-0.036876664,0.14430895,0.079014055,-0.117386416,0.06586224,-0.029398179,-0.04675342,0.019727726,0.038552877,-0.0073173097,0.07060721,0.0614783,-0.018838044,0.01669765,0.041595846,-0.07999399,-0.03135806,0.013448377,-0.011211279,-0.04141533,-0.039042845,-0.008200545,-0.007768598,-0.016517134,-0.04855857,0.00021315292,-0.058951087,-0.031280693,0.040383816,-0.06343818,-0.035638846,0.013409696,-0.08783351,-0.07829199,-0.008574469,-0.0051930337,0.054102965,0.0090837795,-0.009193378,0.02605865,0.030455481,0.022783589,0.05534078,0.019469846,-0.0037972648,0.061117265,-0.04520615,-0.050570026,0.03293112,-0.03628354,-0.04180215,-0.009767158,-0.058125872,-0.037186116,-0.034865208,0.007871749,0.02890821,-0.049409572,0.05595969,0.08582205,-0.023389604,0.06782211,0.17721428,0.047140237,-0.044974055,0.0064888746,-0.075816356,-0.09845811,-0.077621505,-0.06544963,0.013796514,-0.07215448,-0.063335024,0.11264145,0.003001064,0.0008655056,0.0124233095,0.022396771,-0.001726176,0.07999399,-0.019237757,-0.08716302,0.106246054,0.009122461,-0.12481332,0.028160362,-0.028289301,-0.14265853,-0.00273835,-0.016903954,-0.022848058,0.10284205,-0.038346574,-0.05503133,0.07679629,-0.07107139,-0.0738049,0.044277783,-0.049976904,0.021648923,0.008974181,-0.021519983,0.10155266,-0.0011733484,-0.03837236,0.0067693177,-0.014789348,-0.017561544,0.066842176,-0.0067693177,-0.079220355,0.016375301,0.023905361,-0.050956845,0.007491378,-0.028289301,-0.046443965,0.0011088786,-0.005834507,0.051317874,0.011307984,0.0150730135,0.06271612,-0.010830908,0.07071035,0.018709105,-0.14028604,0.09097963,0.008355272,-0.13873878,0.08319169,0.07101981,-0.033833694,0.041337967,-0.0438136,-0.08448108,0.052607268,-0.003777924,0.019624574,-0.016981317,0.009348106,0.016762119,-0.06740951,0.05369036,0.09520884,-0.0635929,0.058847934,0.066223264,0.051833633,0.029320816,0.037572935,0.03597409,0.0071819234,-0.05389666,-0.0019083029,0.031873815,-0.0023225206,-0.018154666,-0.039996997,-0.0025739523,-0.068389446,-0.05843533,0.030378118,0.005782931,-0.0635929,0.011217726,0.026870968,-0.021571558,0.05160154,0.0735986,0.09464151,-0.018025726,0.012242794,0.07256708,-0.017303664,-0.05838375,-0.048017025,-0.0165945,0.015898226,0.043890964,-0.06085939,0.018064408,0.0039745565,-0.096498236,-0.01548562,-0.04579927,-0.029939724,-0.02197127,0.019095922,0.07798254,-0.024201922,0.017136045,0.041441116,-0.0068466812,-0.0017729165,0.06230351,0.10155266,0.06297399,-0.05121472,0.114188716,0.06498545,-0.07695103,0.03837236,0.05038951,-0.0115142865,-0.018832449,-0.029996905,-0.045419436,-0.021030722,-0.028006343,-0.035016585,0.029183371,-0.003550557,-0.011337549,0.02151538,-0.029564174,-0.056220397,0.010671143,-0.04846586,-0.06729831,-0.009364297,-0.04278843,-0.037422568,0.018988231,0.0073996983,-0.02809289,0.044727065,0.023609798,0.0013014382,0.028491002,0.04258072,0.024388714,-0.013302147,0.036972526,0.014929215,-0.0033774646,0.003844814,0.03513775,0.014747469,-0.0069539854,0.004690803,0.0021593273,0.018261245,-0.009087348,0.028767949,-0.025721524,-0.022588553,0.03390879,-0.00092388043,-0.014210883,0.006486636,-0.008118032,0.0020652083,0.006876094,-0.017066907,0.014539758,0.012679015,0.016989015,0.039084256,-0.01257516,0.007983885,-0.017040942,0.020182569,0.018763212,-0.049262084,0.034151122,-0.017335199,-0.0108702,-0.012428031,-0.033077948,-0.024025219,0.03825341,-0.02762554,-0.05618578,0.02357518,-0.021446142,-0.042961523,-0.0060452507,-0.016997669,-0.006906385,0.005911104,0.012592469,-0.0062399795,-0.019767147,-0.012090501,-0.002598549,-0.018659357,0.012073192,0.023990601,-0.00797523,-0.023038592,-0.0050629512,0.034393452,0.023228994,0.054247145,0.03783799,0.019871002,0.019784456,0.034029957,0.036834054,0.022969356,-0.006469327,0.00013597216,0.035830118,-0.036626343,0.010324959,0.04555791,-0.019957548,0.009537389,0.019819075,0.0041022887,0.024873372,-0.04618104,-0.01583795,0.0021073995,0.013786807,-0.017136144,0.017949678,0.06612128,-0.024025219,-0.011752971,0.021619236,0.04258072,0.032402888,0.012280903,0.012999236,0.012834799,0.024527187,-0.0380457,-0.026327347,-0.018174697,-0.015361947,-0.021688472,-0.05365863,0.037041765,0.01291269,-0.04621566,0.047184978,0.01690247,-0.0444155,-0.03221249,0.015863914,0.017776584,-0.009641244,-0.020805702,-0.013103091,-0.05795132,-0.044277024,0.0037279767,-0.017932368,-0.028819878,-0.036903292,0.0018315335,-0.07318345,-0.0026245129,0.021792328,0.011129838,0.066398226,-0.02987574,0.0051841163,-0.03513775,0.017828513,-0.02672546,-0.017594839,-0.0060971784,0.0030594075,-0.03285293,0.049469795,0.05033526,0.03801108,0.008239197,0.06349028,0.12254939,0.025202246,0.066882886,0.08633847,0.0015394401,0.0011672915,-0.015041726,-0.008018504,0.04756578,0.030481564,0.02901028,0.033822246,0.008511817,0.019749839,-0.0012873744,-0.010108594,0.010463433,-0.04057285,-0.043757748,0.05369325,0.010264377,-0.030845057,0.01268767,-0.025929235,-0.04261534,0.041749876,-0.027937107,-0.11209461,0.017724657,0.011233694,-0.051062245,-0.013847388,0.0018001605,-0.013483895,0.015664859,-0.008645963,0.004266727,-0.017594839,0.018728593,-0.012402068,-0.04008819,-0.07948401,-0.069340795,-0.030689275,-0.0665367,-0.096100874,0.00152754,-0.0521008,-0.024838753,-0.0183651,0.005755321,0.045004014,0.039949715,0.03918811,0.048777428,-0.018918995,0.013483895,0.03808032,-0.046631083,-0.06629437,-0.00062908255,-0.027971726,-0.049573652,-0.06047847,-0.02310783,-0.051962327,-0.013639678,-0.029546866,-0.0466657,3.3874716e-05,-0.034358833,-0.04711574,-0.057155095,-0.004777349,-0.025288794,-0.040642086,0.040399756,0.0065428913,0.042996142,-0.01833048,-0.013648332,0.041334454,-0.005841867,-0.036834054,0.009243132,-0.029027589,-0.054904897,-0.05615116,0.008819056,-0.06286714,-0.11867212,0.009494116,-0.01596777,-0.08253044,-0.015162891,-0.010160522,-0.018970922,0.009061385,0.014903252,-0.009935501,0.0031286443,-0.0147993965,0.004591275,0.020147951,0.023194376,-0.005647138,-0.010099939,0.028196745,0.0057812845,-0.035483934,-0.009096003,0.048292767,0.0196806,0.02608502,0.010714417,-0.0029944978,0.010878854,0.033406824,0.01064518,-0.0017558056,0.020892248,-0.003249809,0.033043332,0.02601578,-0.008896947,-0.011008674,0.014911907,0.020944174,0.035726264,0.020338353,-0.033822246,0.043584656,0.059439916,-0.025894616,-0.008896947,0.027002407,-0.005036988,-0.007057841,0.020234497,0.00162815,-0.014011826,0.0324202,0.0038145229,-0.010151867,0.0073650796,0.021567307,-0.011597188,0.013890661,-0.064805776,-0.052827787,-0.06023614,-0.01756022,-0.034566544,-0.02852562,0.01641781,0.019230561,0.017776584,0.03126048,0.01969791,0.016037008,0.0337357,-0.022536624,-0.01808815,0.0026353311,-0.025081083,-0.018590119,0.002674277,-0.036557104,-0.055908833,0.017144797,0.009771064,-0.025029154,0.0023778563,0.002962043,0.009061385,-0.004439819,0.045142487,0.038184173,0.015976425,0.025790762,0.002648313,-0.018659357,-0.019265179,-0.020096023,0.017966988,0.008226214,-0.019213252,-0.026638914,-0.011346204,0.04278843,-0.006361144,0.02696779,0.03911887,0.008338724,-0.007936285,-0.014660923,0.0025336393,0.021169195,0.0063351803,-0.00017850149,0.017387128,-0.020026786,0.0019678439,-0.0037928864,0.017551566,0.027989034,-0.029564174,-0.026448512,0.033112567,0.010022048,-0.010766345,0.010229758,-0.0008746573,0.029996905,-0.022380842,0.027504375,0.032472126,0.0026721132,-0.010039357,-0.01551773,-0.0080790855,-0.00045680156,-0.017361164,-0.0023648744,0.0015134763,-0.022675099,0.0065126,-0.014513794,-0.02992767,0.0019180797,0.017032288,-0.03082775,0.0196806,-0.0021214632,-0.0014918398,-0.0049417866,-0.004829277,-0.004989387,0.019836385,0.021636544,0.0009200941,0.013431967,0.0361763,0.0031610993,0.0017179416,-0.005456737,0.029062208,0.02693317,0.011467368,-0.035449315,0.009623935,0.055908833,0.048396625,-0.006049578,0.07020626,0.05635887,-0.039326582,-0.06155164,-0.074845135,-0.062347867,-0.058124416,-0.016694758,-0.010714417,-0.0068544573,-0.006101506,0.002585567,0.021480761,0.04687341,0.0076074093,-0.0012343649,0.07339116,0.0023497287,-0.016590903,0.035068512,0.009918192,-0.022415461,-0.030308472,0.026517749,0.00053307036,0.0026764406,-0.014184918,-0.025617668,-0.016599556,-0.007819448,-0.03216056,-0.043099996,-0.025894616,-0.0068587847,-0.025946544,-0.01563024,-0.021082649,-0.0016822413,-0.028473692,-0.037318714,-0.023073211,0.012306866,-0.0027218773,-0.027504375,-0.009096003,-0.040642086,-0.04445012,-0.01643512,0.04053823,0.05795132,0.004989387,0.071729474,0.07886088,-0.03808032,0.034739636,0.043411564,0.0052490258,0.009606626,0.01688516,0.034808874,0.043411564,0.025583051,0.0052014254,0.044796303,0.055354934,0.016937086,0.039291967,0.028369837,-0.022484697,-0.05230851,-0.08149188,0.011752971,-0.010489397,-0.094369955,0.004625893,0.01857281,0.01810546,0.049746744,0.005616847,-0.0057769576,0.04618104,0.058366742,-0.0130252,-0.0040546884,0.006049578,-0.016989015,0.0039356877,0.010281686,-0.014756124,0.022623172,0.0047816765,0.0060019777,-0.011034638,-0.023419395,0.010818272,-0.0048985137,0.0063135438,-0.000901703,-0.0057077203,-0.0038989054,-0.050162166,-0.015457148,-0.031122006,-0.015863914,-0.035587788,-0.020234497,-0.035899356,0.013856043,-0.014686886,-0.046977267,-0.0067332927,-0.02537534,-0.023730962,-0.05348554,-0.018953614,-0.019645983,-0.009191204,-0.021723092,-0.011952028,0.034081884,0.042061444,0.015491766,0.004989387,0.06276329,0.037976462,0.042199917,0.027746705,0.012999236,-0.0083690155,0.016738031,0.01651301,-0.012151084,-0.014349356,0.015162891,0.00074051076,0.015284055,0.004959096,-0.011242349,-0.020321043,0.013431967,-0.0148426695,0.0014226028,0.007001586,-0.018018914,-0.01711018,-0.0023821837,0.023194376,0.014730159,0.017845822,-0.0012733106,0.016590903,0.05047373,0.007784829,0.020701846,-0.00939026,0.010444128,0.010054569,0.0422499,0.024379494,0.04583976,0.028087702,0.031223899,0.067181684,0.009635423,-0.007687628,0.028521642,-0.025839107,0.03895591,0.019458229,0.02514875,0.061422125,0.013047763,0.033571117,-0.040553592,-0.034123402,0.023846932,-0.1729445,-0.013560601,0.09167952,-0.11187742,0.0210855,0.09846476,-0.028501917,-0.003057299,-0.048246153,-0.015907817,0.0078059747,-0.06264504,-0.009734046,-0.056412097,0.013432391,0.06355237,0.024182249,0.0009973205,0.106591254,0.03232847,-0.031559214,0.081186086,-0.030474368,-0.06879909,0.005493276,0.043985657,0.030316573,0.0037895716,0.010118674,0.041263673,0.0051924773,0.015533051,0.00024208754,-0.07499259,-0.022091452,0.033275247,-0.11085174,-0.02996153,0.05148097,-0.08899699,0.0035060316,0.047536068,-0.038206376,-0.013787433,0.0012068935,0.03258489,0.02860054,0.029428968,0.060633145,0.05960747,0.06962752,-0.009482558,-0.008348399,-0.0063217054,-0.049192928,-0.03169729,-0.013767708,-0.027002854,0.00040496886,-0.021519441,0.005271375,-0.0231763,-0.030809684,0.006775369,-0.009467765,0.00922614,0.005054406,-0.028541366,0.03183536,-0.017377293,-0.010217296,-0.030079877,-0.0019354676,0.0096107675,-0.01780137,0.001672885,0.0037821748,0.014497515,-0.0023090004,0.027653763,-0.030513817,0.032210127,0.050179154,-0.088208005,0.05720108,0.06532758,-0.08781352,0.037239876,0.010532889,-0.004413359,0.009635423,-0.011647323,-0.008880961,-0.03104638,-0.0186298,-0.020355694,-0.014033989,0.01447779,-0.0075544873,-0.027081752,0.01762385,0.049981907,0.033866983,0.07029815,0.060672592,0.038679764,0.0005911189,-0.018422693,0.03144087,0.004928662,-0.059725817,-0.01163746,-0.062211104,-0.050060805,-0.027870733,0.0005356437,0.035385773,-0.077596225,0.086077765,0.103277534,-0.10201517,0.09885924,0.10264635,0.020217624,0.038462795,-0.010394816,-0.022663461,-0.03368946,0.023057953,-0.008663991,-0.015542914,0.046155352,-0.006223083,0.07163942,-0.02051349,0.10201517,0.13933393,-0.079450324,0.19109105,0.04777276,-0.04544527,-0.01722936,-0.081975065,-0.013895918,0.015227322,-0.058266204,-0.022268971,-0.0004132901,-0.031204175,0.020710735,0.0023274922,0.005882835,-0.01268286,0.048561744,0.009033825,0.019270847,0.008387848,0.03617475,0.02554324,-0.025227647,-0.0322693,-0.030415194,-0.04019855,-0.0005042078,-0.0080771865,0.05112593,0.04777276,-0.023097401,-0.010572338,-0.025622139,-0.008609748,-0.023018504,-0.02877806,-0.012219334,-0.02956704,0.011686772,-0.016420655,0.012732171,0.023551065,0.0007372036,0.035977505,0.012584237,0.011499389,0.031125277,0.027791835,0.021835033,0.010483577,-0.035149075,-0.023689136,0.03554357,-0.043551717,-0.010927378,-0.01447779,-0.09018046,0.018156411,-0.030474368,-0.022446493,-0.02895558,-0.042841636,0.007470658,0.026115252,-0.037594914,-0.003927643,0.043315023,0.012278507,0.027574865,0.03043492,0.037496295,0.010592062,-0.042368248,0.050455295,0.012022089,-0.064696394,-0.0075199693,0.018432554,0.027140927,-0.09104834,0.04710213,0.049784664,-0.092074014,0.07747787,0.101699576,-0.0052763065,0.017880268,0.0067014024,-0.075978816,-4.014246e-05,0.030020704,-0.05321673,-0.03232847,0.030415194,-0.024123076,-0.010434266,0.011440216,-0.046313148,0.04662874,0.042368248,-0.027614314,0.032959655,0.00019632051,0.012781482,0.03530687,0.008106774,0.009679804,0.009152172,0.0074410713,0.022762084,-0.054636892,-0.029251449,0.012416579,0.04591866,-0.0032422163,-0.04114533,-0.012130573,-0.013284458,-0.05960747,-0.007978564,0.0443407,0.080476,0.08765572,0.010266608,0.10509219,0.13933393,-0.07574212,0.0802393,0.14596137,-0.12947169,-0.01067096,-0.016055752,-0.010029913,-0.006045562,0.001769042,-0.06619546,-0.03952792,0.00975377,-0.040218275,0.016105063,-0.049271826,-0.06753672,0.003215095,-0.038541693,-0.039882958,-0.022485942,-0.0027441725,0.031539492,-0.0099312905,0.009951015,0.016016303,-0.03775271,0.009324762,0.048522294,-0.06544592,0.054794688,0.0008980816,-0.027574865,-0.015148424,-0.016637623,-0.048877336,-0.022032278,-0.05795061,-0.05226995,-0.012308095,-0.074282505,0.00970939,-0.007307931,0.020217624,-0.015602088,-0.004832505,-0.0101975715,0.00369588,0.026470292,-0.039961856,-0.005350273,0.029843183,-0.015513327,0.033511944,0.02471481,-0.016864456,0.052112155,0.023334095,-0.028245497,0.027219824,0.018343795,0.017347706,0.01806765,-0.052506644,0.0181071,0.014033989,-0.0523094,0.016903905,0.009714321,-0.050494745,0.004583483,-0.04540582,-0.049192928,0.043985657,-0.028186325,-0.010552613,0.057398323,0.0027441725,-0.04264439,0.017485779,-0.013175973,-0.036194477,0.022012552,0.0074065533,-0.016292445,0.025188198,0.023097401,0.018383244,-0.03376836,0.030809684,0.077004485,-0.05747722,0.0031460593,0.043630615,-0.035444945,0.010956965,-0.051678214,-0.054281853,0.007963771,-0.010966827,-0.023945555,-0.050613094,0.004728951,-0.009408591,-0.004876885,-0.0066126417,-0.00400161,0.031460594,0.047614966,-0.029310621,-0.021815307,0.031677563,-0.0023669412,-0.009724183,0.022485942,0.008831649,0.02252539,-0.022584563,0.027495967,0.07763567,0.04319668,0.04840395,-0.0038536761,0.026470292,0.047614966,-0.047299374,-0.001452217,0.06288174,-0.024517566,-0.023018504,0.042171,-0.05960747,-0.06240835,-0.011528976,-0.061619367,-0.045760863,0.04666819,-0.050494745,0.012613824,0.008106774,-0.017397018,-0.01806765,-0.026233599,-0.0281666,-0.016854594,-0.02755514,-0.019458229,-0.03215095,-0.034222025,0.01491173,-0.00084630476,-0.011667048,0.051638767,-0.022840982,-0.011075312,0.023057953,0.01792958,-0.0073769665,0.007204377,-0.0020266934,-0.033393595,0.029192274,-0.017041977,-0.03992241,0.004765935,-0.03388671,-0.012268645,0.023846932,-0.07037705,-0.08749793,0.01670666,0.008954927,-0.024892332,0.026036354,0.03534632,0.021992829,-0.003436996,0.054913037,0.06520923,0.034300923,0.11432326,-0.029409245,0.039291225,0.04757552,-0.036490344,-0.032466542,-0.05909463,-0.031066103,-0.06532758,0.03445872,0.06509088,-0.067497276,0.075347625,0.12536898,0.0023324233,0.009546663,0.033393595,-0.054873586,0.017752059,0.046825986,-0.01128242,0.027791835,0.0004139065,-0.018836906,0.012396854,-0.012643411,-0.0067803003,0.019754097,-0.04390676,0.024635913,0.04800946,-0.014862418,-0.039054528,-0.04583976,-0.025681311,-0.04319668,-0.08749793,-0.084420905,-0.001854104,-0.03437982,-0.085525475,-0.003708208,-0.0016605572,-0.02392583,-0.02956704,-0.03157894,-0.013037901,-0.05471579,-0.06280284,-0.008432228,-0.0301785,0.014448203,-0.025188198,0.018472003,-0.0039449017,-0.05199381,0.0039473674,-0.003192905,0.0021265487,0.050100256,0.04189486,0.01688418,0.090417154,0.07763567,0.0026011697,0.041618716,0.0077221454,-0.023511617,-0.012367268,-0.015030077,0.017258946,-0.023196023,0.014536964,0.0704165,0.012564513,0.036273375,-0.005261513,0.01954699,-0.024162525,-0.014645449,-0.0110654505,0.08402641,0.009349418,-0.011114761,0.08828691,0.035149075,0.01792958,0.01933002,0.007662972,0.035977505,0.042959984,0.028442744,0.0057349014,0.028304672,0.0052072704,-0.05195436,-0.007584074,0.038600866,-0.024458392,-0.00813636,0.050968133,-0.072941236,0.013925504,0.039863236,-0.013215422,-0.025484066,-0.0051776837,-0.047536068,0.050139703,0.06797066,-0.034182575,0.022209799,0.02554324,0.018693153,-0.017601984,-0.0016436417,0.0060620485,-0.017767312,-0.0010891021,-0.01647775,-0.016698187,0.004753197,0.0060400045,0.023917537,-0.013964755,-0.005538508,0.06251625,0.024380457,0.0031026667,0.03105973,0.042588644,0.007935773,0.0011304342,-0.011077016,-0.0014493807,0.0018282587,-0.012609061,0.0013095402,0.0065194573,-0.015540888,0.01907892,0.010988841,-0.0056156614,-0.019519797,0.0069548227,0.0056707705,-0.010360592,0.01023384,-0.0009816386,-0.0050067008,-0.015221252,-0.014846507,-0.042831127,-0.028833307,-0.02023622,-0.03469696,-0.028370386,-0.006701319,-0.0028271188,-0.00763267,0.007142195,-0.023630967,-0.0075389836,0.003342393,-0.016400596,-0.021735199,-0.009754387,-0.0024330858,0.007913728,0.003369948,-0.0073461006,0.00861362,1.1323286e-05,0.01323731,-0.022209141,-0.009848073,-0.0018516802,0.018869502,-0.01763505,0.018549869,0.008233364,0.018957678,0.01271928,0.0013742939,0.019475708,-0.0018613244,-0.0028960058,0.0027706316,-0.010040957,-0.038466454,-0.006464348,-0.03238236,-0.025747173,-0.009352087,-0.010856577,0.018384539,0.019784322,0.019056875,0.010074022,-0.0026673013,0.032536667,0.002000476,-0.009164715,-0.002973159,0.011683221,0.016268333,-0.007428765,0.0040560616,0.014383588,-0.016499793,-0.0002519539,0.004695332,0.026166005,0.0441758,-0.0055137086,0.028701043,0.043734923,-0.0044197845,0.019905563,0.028017685,0.0053704237,-0.001189677,0.026695056,0.025129946,0.025284253,0.07133377,0.06313348,0.032492578,0.05255245,0.060047343,0.010129131,-0.007770444,-0.018340452,0.0039045103,-0.03886324,-0.042257987,-0.014394609,-0.04624792,-0.021503739,0.014361544,0.019795343,-0.011203768,0.00026263137,0.015100012,0.0070981076,0.018362496,0.039634775,0.011374607,-0.023961624,-0.009991358,0.010851067,-0.023498705,-0.024622938,-0.0035462982,-0.019167095,-0.0046925764,0.001858569,0.0122012505,0.022925565,-0.003353415,-0.008503401,-0.022330383,-0.011815484,-0.031191995,-0.043514486,-0.014030887,0.003369948,-0.021470673,-0.0033065719,0.00046808657,0.011672199,-0.01647775,-0.0036179407,-0.020588921,-0.012046943,-0.017646072,-0.0158495,0.018494759,-0.048849087,-0.071951,-0.022969652,-0.052993324,-0.052243836,-0.028238123,0.0014989793,-0.0004894415,0.0034085244,-0.011429717,-0.023785273,-0.02191155,-0.0031302213,-0.029163964,-0.012575995,0.0011951879,0.023807317,-0.011341541,-0.008194787,0.011815484,0.029803235,0.00057451683,0.011914681,-0.00566526,0.014174172,0.019530818,0.022594908,0.0056707705,0.047173757,0.017734246,0.033021633,0.03533623,0.0124437325,0.018627021,0.011297454,-0.014714245,0.019927606,-0.0019481219,-0.019618994,-0.017304393,0.0036923385,0.011980812,0.0015981764,-0.009704788,-0.012686214,-0.032338273,-0.04805551,-0.026584838,-0.01063614,-0.037937403,-0.02995754,0.0058967196,0.004673288,0.009115117,0.04261069,0.03209579,0.019332424,0.057269823,0.043272004,0.02127228,0.021106951,-0.0046347114,0.007527962,0.020379504,0.004042284,0.00041676583,0.013711251,-0.017447678,-0.0037198933,-0.00061033806,-0.0023380218,0.0061832895,0.0010222818,-0.010862089,-0.013105046,-0.017249282,-0.0212833,-0.02180133,-0.018660087,-0.0050810985,-0.009451285,-0.02203279,-0.007770444,-0.004543781,0.0047228867,-0.0020252753,-0.0060400045,0.0020404304,-0.013204244,-0.021140017,0.00896081,0.012509864,-0.004585113,0.017337458,0.015342494,-0.005395223,-0.0247552,0.0021258502,0.019200161,-0.007263436,-0.021029796,0.015166143,0.01127541,-0.01642264,-0.0107243145,0.0043398757,-0.013755339,0.007555517,-0.022572864,-0.031125862,-0.0058085443,-0.041023534,-0.041133754,-0.0015210231,-0.019773299,-0.005557796,0.021084907,-0.0110219065,0.0010395035,0.015452713,0.005364913,0.0037694918,0.007059531,0.0035876303,0.027532721,-0.0058195665,0.0026328578,0.028612869,-0.013556944,0.016951691,0.012873586,-0.011749352,0.0024964618,-0.008365626,-0.0064037275,-0.010068512,-0.05563858,-0.04371288,-0.008712817,-0.028877394,-0.024953596,0.0084923785,-0.018759284,-0.014703223,-0.01902381,-0.03000163,0.009875628,-0.0022815345,-0.0068501146,0.009991358,0.014471763,-0.0013653387,-0.0026976115,0.04435215,0.029075788,-0.01555191,0.034189954,0.0032845282,-0.021790309,-0.03811375,-0.02643053,0.019552862,-0.05418369,-0.031434476,0.0031963529,-0.019409576,-0.02803973,-0.009401686,0.0060344934,0.01659899,0.015981764,0.014008842,0.008889168,0.0102117965,0.012697236,0.0035270099,0.018538846,0.011528914,0.006839093,0.015111034,0.018053882,0.009308,-0.0012723412,0.013193222,0.00031309103,-0.035887327,-0.023101915,-0.019200161,0.010988841,-0.02266104,-0.0004584424,0.031831264,0.006701319,0.0036262071,0.0037667365,0.004180058,0.022109944,0.0013253842,-0.039017547,-0.030023672,0.02543856,-0.043161783,-0.07600707,-0.0003537343,0.009335554,0.035578713,0.009153693,0.00740121,0.04399945,0.009396175,-0.007505918,0.0028987613,0.0076657357,0.004879949,-0.00557984,-0.009870117,-0.018825416,0.0032624842,-0.0063927057,-0.017767312,-0.0037832693,0.0011221678,-0.0040450394,-0.012917674,-0.015970742,-0.0194206,-0.012399645,-0.022407535,-0.019795343,-0.024975639,0.0058581433,0.011661177,0.020599943,0.004968124,-0.0034195464,0.00792475,-0.00051458523,-0.0075885826,-0.021922572,-0.0033561704,0.0059297853,0.0010353703,-0.0011414562,-0.0023889982,0.018142058,0.0126421265,-0.0058967196,0.016874539,0.029009657,0.016621035,0.007891685,-0.0072579253,0.027554765,0.030222068,-0.0016670633,0.023454616,0.021658046,-0.0047256425,0.012939718,0.002599792,-0.008668729,-0.0082223425,-0.007853108,-0.0016229757,-0.0021864707,0.0024385967,-0.009319021,0.014295412,-0.0033727032,-0.023256222,-0.020423593,-0.010040957,-0.028238123,-0.011771396,-0.008194787,-0.013755339,-0.005152741,0.008343583,-0.0011600556,-0.009600081,-0.028612869,-0.0009664834,-0.03452061,-0.02515199,-0.011705264,0.0038907328,-0.039811127,-0.020423593,0.0015609774,-0.031191995,-0.029362358,-0.005863654,-0.006315552,-0.0024964618,0.001563733,-0.008007415,-0.01115968,0.010272416,-0.00088795234,0.015518844,-0.026232136,0.0016780852,0.03994339,-0.020445636,-0.026011698,0.008547489,0.0016036873,-0.015662128,0.00902143,0.011495848,0.013843514,0.028877394,0.004348142,0.002437219,-0.0008617753,-0.020897534,-0.0034498565,-0.015959721,-0.007390188,-0.025107902,-0.008630153,-0.0035876303,0.0047228867,-0.005648727,0.0073571224,-0.0007143573,0.00027313663,-0.005863654,0.014868552,0.013479792,-0.023256222,-0.024380457,0.020710161,-0.0031522652,-0.017657094,-0.0123776,-0.01462607,-0.004174547,0.008828547,0.0056707705,0.023807317,0.021525783,-0.0011793439,-0.0011400784,-0.008282962,0.014350521,-0.018230233,-0.020423593,0.016279355,0.0064863916,-0.005216117,0.010558986,0.021073885,-0.00086728623,-0.018450672,-0.020346439,0.013887602,-0.0038466454,0.025879435,0.023630967,-0.015607019,0.028987613,0.0119036585,-0.016224246,0.0013246953,-0.0067894943,0.016742276,-0.0004973635,-0.009043474,0.015055924,-0.0068611368,-0.0018558134,-0.0029814257,0.012234316,0.015232274,-0.019729212,-0.010818001,-0.011914681,-0.025835348,-0.025570823,-0.009258402,-0.0042930325,-0.007290991,-0.026849363,0.0006409927,-0.0054034893,0.015562931,0.0066296766,-0.021591915,-0.0070760637,-0.0043977406,-0.011672199,0.002884984,0.01971819,-0.019927606,-0.0137222735,0.012454754,0.0025295275,-0.02515199,-2.2947954e-05,-0.035755064,-0.022165053,0.0072358814,0.012553951,0.012840521,0.022638995,0.038400322,0.014185193,0.031544697,0.051097557,0.011936724,0.030738302,0.049054526,0.0060525932,-0.002529176,0.0020617638,-0.020059118,-0.015773185,0.018918315,-0.00907889,-6.337794e-05,0.021168232,0.0028381434,0.004931596,0.011495174,0.012041809,-0.014323415,0.014988883,-0.021706944,0.036695827,0.03847041,0.027917983,0.027997205,0.054600097,0.056247924,-0.008857068,0.022087213,0.016731776,0.011922975,0.011392185,-0.026111713,0.052001603,0.072504364,0.023037883,0.047470078,0.04094215,-0.008262899,-0.0030480828,-0.0088253785,-0.043572336,-0.042716734,-0.047850344,0.002380634,-0.024749087,0.01494135,-0.0022103058,-0.0036679984,-0.014830438,-0.012897411,-0.001158628,-0.0030005495,0.011645697,0.02042354,0.01971054,0.012350776,-0.061286468,-0.0063774055,-0.026729647,-0.0071775517,0.042653356,0.029090475,-0.0053356304,0.037361298,0.04426949,-0.02077212,0.007993543,0.00019991284,-0.0074944417,0.030231278,-0.034826178,0.014814594,-0.00030228306,-0.022594236,0.0041987887,0.00681709,0.0047929566,0.0043255445,-0.018252848,-0.060779445,-0.005608948,-0.0073003466,-0.01798349,0.015630584,-0.014291726,0.012334932,0.006682412,0.030865058,0.045980696,0.0018498437,0.05361774,0.06667359,0.01607423,-0.02062952,-0.014188737,0.015123561,0.016858533,0.02878943,0.03457267,0.043001935,0.026682114,0.011225818,0.03129286,-0.021928769,-0.02476493,0.035935294,-0.0031154219,0.0043136613,0.026682114,0.010663339,-0.009673058,-0.03192664,-0.021073166,0.03422409,0.0176666,-0.06356808,0.016145531,-0.016858533,-0.046329275,0.002582651,0.038343653,0.019932363,0.05330085,0.07079316,0.035871916,0.03469942,0.02836163,-0.009886959,-0.0143154925,-0.023291394,-0.031990018,-0.04072033,-0.0474067,-0.019916518,-0.035586715,-0.042304777,-0.019964052,0.021310832,-0.007185474,0.005818887,0.05349098,-0.006484356,0.0034184477,0.014172892,0.023418149,0.019346116,-0.0030183746,-0.052476935,-0.0012408213,-0.09063046,-0.08853898,-0.07744785,-0.06686373,-0.036632452,-0.048769325,0.04160762,-0.029549966,-0.036188804,0.013293523,-0.023830106,0.021643568,-0.0376465,0.0071577462,0.030960124,0.019837296,0.01600293,-0.057071835,0.013689635,-0.0061595435,-0.046931367,-0.01910845,-0.01363418,-0.03197417,0.009173957,-0.025937423,0.027775383,-0.004971207,-0.029122164,-0.017508157,-0.022990348,-0.0005357417,0.029185543,0.011518941,0.035903603,0.030690769,0.026381068,0.0041987887,0.01833207,0.007185474,0.024083618,0.030785834,-0.0114317965,0.028916186,0.015202784,0.01593163,0.041766062,-0.0067735175,-0.03786832,-0.022340724,-0.020027429,0.034350846,0.045790564,0.026761336,0.01038606,0.02221397,0.015163173,0.019060915,-0.0031213637,-0.036474004,0.009768126,-0.02264177,0.016684243,-0.005747587,0.02384595,0.024432197,0.01720711,0.012588443,0.012818188,-0.033400174,-0.07117343,-0.03875561,-0.015693963,-0.050734043,-0.04560043,-0.050036885,-0.06794115,-0.019029226,-0.0026262235,-0.013974836,-0.010132548,0.01345989,-0.035459958,-0.011011917,-0.0172388,-0.042273086,-0.029502433,-0.036157116,-0.053744495,-0.044808205,-0.042685043,-0.086954534,-0.057705615,-0.02091472,-0.03485787,-0.009475002,-0.048927773,-0.052698757,-0.018807404,-0.017143734,-0.0382169,-0.001546818,0.0010026589,0.032861464,0.04274842,-0.023180483,-0.015099795,-0.021912923,-0.034921248,-0.024146996,-0.020613676,-0.02451142,-0.02048692,0.04677292,0.012414155,0.023418149,0.0044206115,-0.0027688239,-0.017524,-0.006064477,0.003634329,0.018538048,0.02370335,-0.021754479,-0.04316038,-0.005878304,-0.037424676,-0.05013195,-0.0028955797,0.014386793,0.0086669335,0.035586715,-0.04743839,-0.05694508,-0.020471076,-0.08492644,-0.07820838,-0.036569074,-0.037107784,-0.031958327,-0.014616538,0.046392653,-0.00039116075,0.0069557293,0.022736836,-0.0073993746,-0.06667359,-0.010750484,-0.006016943,-0.02695147,0.008005426,-0.000452063,-0.0071300184,0.033019908,0.006385328,-0.020930566,0.03637894,0.032449506,0.035935294,-0.029407365,-0.04379416,0.011819986,-0.02680887,-0.041417483,-0.02031263,-0.029787634,-0.04401598,-0.0082312105,0.032512885,-0.011003995,0.020930566,0.025778977,0.05627961,0.02451142,-0.014085747,0.027886294,0.02709407,-0.023624128,-0.05076573,0.007799448,-0.03327342,-0.036283873,0.054980364,-0.0004122042,0.046836298,0.05935344,0.017254645,0.049054526,0.058054194,0.025462087,0.034382533,0.024986753,0.005977332,0.0004245827,0.029328143,0.011265429,0.069842495,0.06125478,-0.012263631,0.055043742,0.0382169,-0.029312298,0.040149927,0.022340724,-0.0041908664,-0.041227352,-0.038692232,-0.02769616,-0.11072127,-0.055582456,-0.023053726,-0.042304777,-0.02999361,0.023909329,0.063821584,0.029692566,0.03913588,0.008500567,0.028599296,-0.007977698,0.0034224088,0.013016244,-0.0031807804,0.0075934697,-0.0016587196,0.08061674,0.09861608,0.08220119,0.06068438,0.0764338,0.05906824,0.028805275,-0.013348979,-0.03422409,0.05266707,-0.013507424,-0.017603224,0.008952134,0.040054858,0.03967459,-0.021706944,-0.036157116,-0.053712804,-0.0094591575,-0.041766062,-0.043255445,-0.0027034653,-0.01635151,0.006365522,-0.050448842,0.014592771,0.0036996873,-0.031990018,-0.001621089,0.045473672,0.03267133,-0.0071696294,-0.00019335224,0.029375676,0.015638508,0.03108688,0.0726945,0.06223714,0.03094428,0.016525798,0.022863593,0.0014260036,-0.059036553,-0.01476706,0.0009412615,-0.023766728,0.038723923,0.03324173,-0.008857068,0.013903536,0.019235205,0.0033015946,-0.04686799,-0.0021746557,-0.015503829,-0.01508395,0.0089046005,-0.0071022906,0.02235657,-0.0013002381,-0.009847348,-0.005767393,0.025382865,0.034636047,0.062934294,0.0254304,0.011146596,0.03270302,0.0048048403,-0.012849878,-0.02356075,-0.007850942,7.5942124e-05,0.0076528867,0.008207443,0.012841956,0.013943147,0.03973797,0.03571347,0.054156452,0.06825804,-0.006777479,0.0086273225,-0.018379603,-0.0074508693,-0.02967672,-0.0554557,-0.013166768,0.0025014482,-0.009791892,0.015701884,0.094369754,0.060779445,0.033083286,0.0959542,0.07808162,-0.001546818,-0.024115307,-0.011320885,0.015060184,-0.015503829,-0.03815352,-0.0034164672,-0.042399842,-0.023655817,0.0026341458,-0.022578392,0.007355802,-0.012746888,-0.024669863,-0.0031728582,-0.003394681,-0.026095867,-0.025176886,0.020534454,0.01784089,-0.0035412426,-0.04651941,-0.052825514,-0.027458493,0.005612909,-0.024717398,-0.032291062,0.018031025,0.030960124,0.025129354,-0.013174689,-0.017587379,0.046265896,-0.012525066,0.0067457897,-0.0019142119,-0.018585581,-0.0036798818,0.009379935,-0.017127888,0.03352693,0.042970244,-0.022515014,0.060304113,0.043540645,-0.0013735188,0.015741495,-0.016731776,0.001451751,0.021738634,0.04775528,-0.013047934,0.043572336,0.03317835,-0.0084688775,-0.0048127626,-0.04433287,-0.03973797,-0.04148086,-0.02680887,-0.021596033,-0.017048666,-0.008048998,0.010623728,0.03457267,0.040276684,-0.028456695,-0.0028935992,0.012453766,-0.012414155,-0.007110213,0.03973797,-0.0013032089,0.0115110185,0.04902284,0.018538048,0.06876507,0.020011585,0.023101259,0.00032555466,0.019124294,0.015527596,0.008960056,-0.017032823,0.036188804,0.07852527,0.018110247,0.017302178,0.033083286,0.011415952,0.021485122,-0.008128221,-0.0033154585,0.015630584,-0.0028619103,0.0018478631,0.016478265,0.0013289562,-0.018569738,0.013657946,0.05824433,0.05273045,0.051621333,0.11167193,0.07858865,0.05878304,0.06667359,0.050892487,-0.0138111655,0.02933328,-0.0065538874,-0.04490292,-0.047488358,-0.076384395,-0.049237326,-0.0733427,-0.04418052,0.09877882,0.0016408482,0.0029300011,0.092391275,-0.0021814608,0.011311278,0.018829951,-0.025303043,-0.00715272,-0.01762278,-0.04855295,-0.055967063,0.00019010551,-0.028534837,0.018744403,-0.025093928,-0.0007307181,0.076004185,-0.06623276,-0.033648677,-0.04045445,0.0017026325,-0.015103883,-0.006430319,0.023021778,0.05418007,0.047032103,0.035625774,0.00039981565,-0.0062877396,0.012584985,-0.09208711,-0.058932707,0.020626448,-0.058894686,-0.05307746,0.07877973,-0.020588428,0.024599653,0.07258228,0.061251994,0.031253345,0.043229993,0.0580202,0.02655774,0.021101711,0.005579597,-0.015522115,0.0087353485,0.104253866,0.08030057,0.02169104,0.093912125,0.014818724,-0.023478031,-0.075471886,-0.01798398,0.008122258,-0.006168924,-0.0050425488,-0.014448019,0.00758521,0.00690083,-0.014362471,0.037222657,0.012993712,-0.019029561,-0.011995657,0.0490092,0.038325273,0.005655639,-0.027584309,-0.042241443,-0.0717078,-0.067069225,-0.07482553,-0.15276879,-0.12463317,-0.048514925,-0.07018696,-0.066042654,-0.0029775277,0.019828005,-0.033306487,0.051252447,0.04821076,0.032241896,-0.00888268,0.042127382,0.044712815,0.00060536724,-0.013402439,0.019866025,0.027318163,-0.046803977,-0.007903636,0.030321829,-0.023325946,-0.05718374,-0.026804877,0.0029537643,0.01826914,0.05410403,0.07087134,0.03560676,0.03623411,0.07075727,0.07166978,0.006297245,0.053989965,0.012204774,-0.023440009,0.09862674,0.07725888,-0.00056170236,0.044294585,0.05041598,-0.051822763,-0.046195637,-0.04148102,-0.026082477,-0.05231704,0.027128056,-0.0026686061,0.004479361,0.005075817,0.014067808,0.035264574,-0.010560361,0.01241389,0.03281221,-0.009676371,-0.014904272,-0.004462727,-0.017831897,0.053343605,0.07087134,0.0055558337,-0.011995657,0.038306262,-0.07022498,-0.07452136,-0.1151279,-0.08813292,-0.054294135,0.030036671,0.046347722,-0.0030559462,-0.038724493,-0.041328937,0.016653243,-0.007608973,0.0124329,0.028021552,-0.00055694976,-0.05231704,0.040872686,0.037469797,-0.0641416,0.03961799,0.032698147,-0.07144165,-0.01913412,-0.058552496,-0.030169744,0.025721276,0.028230669,-0.061175954,0.022565525,0.055776957,-0.04075862,-0.037222657,-0.0015933218,0.039389864,-0.111477874,-0.05345767,0.057792075,-0.027717384,-0.06296294,-0.028439784,-0.13619159,0.011501383,0.12988009,-0.10448199,0.040834665,0.16668451,-0.041252896,0.024048347,0.0799964,0.021500934,0.037032552,0.05680353,-0.026614772,0.0012511319,0.023554074,-0.05319152,-0.1286634,-0.039846115,0.085091226,0.09702985,0.016330063,0.07847556,0.10547054,0.077334926,-0.000834682,0.0065919086,0.09596526,-0.07281041,-0.049161285,0.050225876,-0.034238003,0.007285794,0.051138382,0.0026543483,0.047108147,0.06277284,-0.060909804,0.0031414935,0.040872686,-0.09208711,-0.041975297,0.040492475,-0.02174807,0.00077289774,0.06254471,0.058172286,0.002316911,-0.050301917,0.059617087,0.011739016,-0.026804877,0.002616327,-0.010351245,-0.013725618,0.030778082,0.015370031,-0.07060519,0.0071479673,0.05011181,-0.019257689,0.03727969,0.056385294,0.010655414,-0.027831446,-0.031861685,-0.01943829,-0.12699048,-0.032260906,0.05836239,-0.093531914,-0.05456028,0.052849334,-0.012699048,0.005983571,0.031595536,0.019362247,0.0040682578,-0.008934959,0.0028040563,-0.023097819,0.00241434,0.102048635,0.07007289,0.031177305,0.006853304,0.11003307,0.0587426,-0.008046215,0.010113613,-0.030911157,0.056309253,0.025626224,0.003925679,0.026386645,-0.014543071,-0.03245101,0.0016360956,-0.0572978,-0.06513015,-0.027375193,0.022508493,0.032298926,-0.04064456,-0.01347848,-0.033059347,-0.0024297861,-0.037374742,0.0044817375,0.017413665,0.015921336,-0.016263526,0.04273572,-0.024694705,0.00023050293,0.04068258,-0.011824563,-0.025436118,0.014476535,-0.02068348,-0.030549956,0.028154626,-0.051594637,-0.08623186,0.046005532,-0.07147967,-0.11413935,-0.019808995,-0.008958722,0.03560676,-0.065814525,-0.026329614,0.041176856,-0.051518593,-0.01776536,0.024181422,0.066080675,-0.007556694,0.0020305645,0.016634231,-0.015179925,0.0030749566,-0.0041989554,-0.021025669,-0.027223108,0.004381932,0.023820221,0.059122816,-0.03653828,-0.03551171,-0.025740286,0.016501158,-0.06817184,-0.038382303,-0.016282538,-0.017527727,-0.006753498,0.01742317,0.022014217,0.020417333,0.039427884,0.0971059,0.03655729,-0.014752188,0.010959582,0.028915048,-0.04113883,0.03131038,0.0531535,-0.007547189,0.00653963,-0.010256193,0.06935049,0.019923057,-0.027337173,0.07300051,0.045435216,-0.066612974,0.023972305,-0.01551261,-0.062202524,-0.033021327,-0.109957024,-0.027394203,-0.05684155,-0.04303989,0.02861088,-0.014010776,-0.018060023,0.00074854045,-0.09254336,-0.023363966,0.04041643,-0.0917069,0.036443226,0.09581318,-0.045093026,-0.013887208,0.00074854045,0.040568516,-0.00041110316,-0.038819544,0.025417106,-0.043229993,-0.03543567,-0.004909475,-0.023287926,0.000102553015,-0.025131948,0.047108147,0.011149689,0.04783055,0.103949696,0.10729555,0.02826869,0.043001868,0.041899256,0.013373923,0.04870503,0.016339568,-0.037222657,0.0565754,0.08592769,-0.05041598,-0.0011067705,0.0327932,-0.017252075,-0.025911381,-0.0524311,0.02516997,0.0010556796,-0.0056413813,0.018944014,0.028173637,0.034028888,-0.034694254,-0.03001766,0.028439784,-0.049883686,-0.07767711,-0.0030488172,-0.012356858,-0.011349299,-0.0682859,-0.034238003,-0.020474363,0.0033648675,0.046157617,0.067677565,-0.008549996,0.009324675,0.041176856,-0.0037593364,0.037393752,0.022489483,0.02281266,-0.015968863,-0.040872686,-0.0237822,-0.039161734,-0.05425611,-0.034352064,0.03182366,0.019077089,-0.029561408,-0.03553072,0.007632736,0.033401538,-0.03632916,-0.020170195,-0.02171005,0.016957412,0.037108596,0.039427884,-0.03106324,-0.0118720895,-0.007608973,0.0073048044,-0.04376229,-0.030150734,-0.15413755,-0.082886,-0.022337398,0.008654553,-0.041290917,-0.0081983,0.066460885,0.056385294,0.008117505,-0.03553072,0.02239443,0.01965691,-0.019229172,-0.016082926,-0.0014364847,0.0026519718,-0.04859097,-0.03488436,-0.01758476,-0.04064456,-0.018155076,0.007870368,-0.06296294,0.010132624,0.019381257,-0.036005985,-0.006625177,0.025417106,0.004462727,0.016700769,0.027185088,-0.0006142784,0.0072905463,0.030511934,0.01760377,0.004106279,-0.0070148935,0.037070576,-0.027755404,0.01897253,-0.043648224,-0.04482688,0.0039161737,-0.039161734,-0.055929042,0.03518853,-0.010037571,-0.014543071,0.033933833,0.042811763,-0.0032222883,0.024200432,-0.0037355733,-0.008507222,-0.059997298,-0.06170825,-0.02444757,-0.019828005,-0.10676326,-0.07003487,-0.023877252,-0.03446613,-0.02965646,0.016643738,-0.01742317,-0.007713531,0.0048999693,0.057031654,0.09490067,-0.022641566,0.053647775,0.08942563,0.07090936,0.048058674,0.0565754,0.15208441,0.040150285,0.10182051,0.055320702,0.08615582,0.039503925,0.008996744,-0.00092201174,-0.012195269,-0.018554298,-0.026006434,-0.009571812,-0.008317116,0.007219257,-0.019561857,-0.041328937,-0.011976647,-0.02621555,-0.06596661,0.020949628,-0.0008519103,-0.056461338,-0.017090486,0.023535062,-0.09543297,-0.04855295,-0.021614997,-0.010883541,0.004386685,0.006392298,0.07839951,0.0369375,-0.006183182,0.017116863,0.0016095889,-0.003471314,-0.023026086,-0.035512164,-0.009261573,-0.014382427,-0.023466438,0.0011141942,0.017756082,0.0032511386,0.027742103,0.010021533,0.019687943,0.024105657,-0.010802801,0.022599941,0.008707583,-0.03701788,-0.004691157,0.014439246,-0.02113684,0.01646344,0.008629456,0.0071130865,-0.017841311,0.0033274898,-0.011250254,-0.05181935,-0.0035831775,0.010582625,-0.052160267,-0.023324389,-0.008544227,-0.017344141,-0.019276002,0.004105206,-0.010419269,-0.033210974,0.04125093,0.0016282328,-0.003924094,0.01316791,0.019489076,0.0039951187,-0.027344367,0.0050001126,0.01701743,-0.032102995,-0.017116863,0.009240265,-0.019276002,0.014396631,0.0052593513,0.008792812,0.020099886,0.035057608,0.02321075,-0.00034113872,0.030284774,0.012123853,0.022315845,-0.016392415,0.0475863,0.056705825,0.017045839,0.06681969,0.06108092,0.042643007,-0.0016379986,0.03363712,0.040597506,-0.025582964,0.000992565,0.05267164,0.023992019,0.054347817,0.0738653,0.009765845,0.0680129,0.076933555,-0.012329823,0.024787491,-0.009062705,0.0131466035,0.048893146,0.034290545,0.04025659,0.020270344,0.008139388,0.028452346,-0.036762193,0.0065342383,-0.008260129,-0.006001556,0.028764853,-0.008828324,0.0121948775,0.017741878,0.01348752,-0.007855291,-0.02960294,0.054319408,0.0091692405,-0.023636896,0.0069000134,0.02011409,-0.015113977,-0.018849857,0.014673626,-0.008224618,-0.017443575,0.001821774,-0.025213636,-0.01375031,-0.033296205,-0.0651151,0.018807242,0.01240795,-0.0010325161,0.013409393,-0.011633785,-0.017230501,0.02152037,-0.020398187,-0.013792925,0.0058843656,-0.022756195,-0.012684945,-0.03252914,-0.027926765,-0.008608148,-0.05801267,-0.006090336,0.035228066,-0.02542671,-0.021250479,-0.006530687,-0.030256364,-0.040597506,0.017074248,0.006963935,-0.0019957835,4.4889595e-05,0.03377917,0.0280262,0.0042081913,0.009943406,0.027188113,0.015682172,0.020369777,0.012365336,-0.005515039,-0.004211743,-0.023466438,-0.09733174,0.004627235,-0.048324954,-0.08693378,-0.018196434,-0.07704719,-0.03718834,0.0009703699,0.04326802,0.023139726,0.028537575,0.033438254,0.04414872,0.0030114315,0.04562603,0.04127934,-0.0072125206,-0.004953947,0.0055931658,-0.0039489525,0.019815788,0.021790264,-0.006005107,0.000115303556,0.01579581,-0.018025974,0.022415278,0.03701788,-0.015113977,0.054120537,0.030370003,0.001409833,0.03818268,0.017301526,-0.0067828232,-0.02113684,-0.036904242,-0.03889292,-0.06414917,-0.032614373,-0.039461117,-0.022145385,-0.036563326,-0.012031522,0.0050143176,0.009247367,-0.0037855967,-0.021818673,0.0126423305,-0.011299971,-0.024631238,-0.0016069254,0.015185001,0.012102545,0.017443575,0.034659874,0.029858628,0.017301526,0.0074575543,0.004659196,-0.00580979,-0.07863814,-0.022315845,-0.039091792,-0.05417736,-0.025128407,-0.004964601,-0.007976032,0.007187662,-0.003403841,0.0027788267,-0.014758855,-0.03718834,-0.0035458896,-0.00636378,-0.06136502,0.008821222,-0.0201425,-0.017798698,-0.025185227,-0.011015873,-0.015540123,-0.027600054,-0.011974702,0.032245044,-0.0014675402,-0.001472867,-0.0087573,0.070342496,0.022102771,-0.014020203,0.08977475,0.015710581,-0.0038814796,0.027458005,-0.024063043,0.026108542,0.02484431,0.04346689,0.008956168,0.020227728,0.05363757,0.009893689,0.003430475,-8.3398096e-05,0.02764267,0.000121518184,0.019474871,0.0003748753,0.01646344,0.06545602,0.0091976505,0.027102884,0.04230209,0.034659874,0.0041371672,0.013040067,0.008324051,0.0036399968,0.041449796,0.04877951,-0.0069000134,0.044177134,0.016008884,0.06244459,0.059092242,-0.019631125,0.023537463,0.03278483,0.021491962,0.0032209533,0.018793037,-0.013700593,0.036676962,-0.013629569,0.028722238,-0.0022923101,-0.005596717,0.003194319,-0.017940745,-0.025227841,0.008302744,0.016946405,0.020455007,0.042841874,0.025028974,0.026136953,0.019474871,0.034120087,0.016775947,0.020767514,-0.041563436,-0.018310072,0.004577518,-0.046279453,0.017543009,0.021534577,-0.0023544566,0.03392122,0.019375436,-0.02207436,0.020724898,0.0014790817,0.020483416,0.030852968,-0.020497622,0.020852743,0.03815427,0.003462436,-0.017131068,0.0034730898,0.007876598,0.0037287772,0.050938647,0.041762304,-0.012954838,0.019347027,0.025213636,-0.04025659,-0.01737255,-0.010561317,-0.013182116,0.014055715,-0.014645217,-0.003045168,0.0051173028,-0.0044425717,-0.021619806,-0.016889585,-0.009318392,-0.0065413406,0.021818673,-0.018707808,0.0072302767,0.050938647,0.031307522,0.008238822,0.05622286,0.048324954,-0.008309847,0.04218845,0.034205317,-0.03920543,0.016108317,0.02475908,-0.003991567,-0.010724674,0.025639782,-0.023125522,-0.029091565,-0.024886925,-0.03167685,-0.026023313,-0.031477984,-0.017841311,-0.013998895,-0.0097587425,-0.019489076,-0.0046201325,-0.022955064,0.008281437,0.012557101,0.005706805,-0.045995355,-0.020398187,0.010461884,-0.02207436,-0.0107388785,0.009183446,0.04002931,0.012244594,0.016917994,-0.04119411,-0.05622286,-0.035512164,-0.04352371,-0.08471782,-0.08017226,-0.006924872,-0.045057833,-0.04017136,-0.030341594,-0.04258619,-0.017543009,-0.0014897353,-0.04977385,-0.048353363,0.0072054183,-0.021974927,-0.031392753,-0.017841311,-0.009581182,0.019062929,-0.039574757,-0.008018646,0.03252914,-0.015483304,-0.0026119198,0.014467656,-0.047955625,-0.034432594,-0.0062572435,-0.03281324,-0.044006675,-0.016946405,-0.007862393,-0.020014655,0.004215294,-0.0017072473,0.025000563,0.035796262,0.017898131,0.047785167,0.036193997,0.020426597,0.04096683,0.007351018,-0.03179049,-0.0010174235,0.04224527,-0.016719127,-0.0126139205,0.0010156479,0.0022088566,-0.002995451,-0.0005144825,-0.009176344,-0.010227503,-0.030227954,-0.019829992,0.002782378,-0.0098155625,-0.034148496,-0.006963935,-0.030710919,-0.027159704,0.023992019,0.025796035,0.00045167035,0.035341706,0.034290545,0.0050072153,0.073353924,0.028040405,0.0037784942,0.00899168,0.0024858515,0.0013681061,-0.0023100663,-0.022571532,0.015596943,-0.033466663,-0.0058026877,0.0067508626,0.028693829,0.031023426,0.032046176,0.02069649,0.035171248,0.008650763,0.030313183,0.02318234,0.0016024864,0.014105432,-0.009623797,0.04866587,0.025668193,-0.007819778,0.048268132,0.014986133,0.008601046,0.017358346,-0.013934974,-0.036904242,-0.017713467,-0.0049113324,-0.008530022,0.007990237,-0.03295529,-0.016506054,0.01626457,0.0324155,-0.026406845,-0.00648097,0.0049184347,-0.036449686,-0.014261685,-0.04423395,-0.029176794,0.008352461,-0.009417826,-0.053580754,-0.013572749,-7.119079e-05,-0.026151158,-0.021562986,-0.015895246,-0.0101493765,-0.019020315,0.009204753,0.040824786,-0.0073581203,0.019673739,0.045114655,0.016449235,0.010880928,0.050199997,-0.008480305,0.037699714,0.037699714,0.027273342,0.055342156,0.06119456,-0.0026669635,0.019432256,0.017258912,-0.0046130302,-0.0057849316,0.0121664675,-0.002478749,-0.00012839866,-0.031279113,0.008018646,0.0045171473,-0.006956833,0.014787265,0.076933555,0.032131407,0.048949968,0.070626594,0.013934974,0.05707515,0.039375886,0.016236162,0.013629569,0.01757142,0.035057608,0.028125634,0.055512615,0.026605714,0.010433474,0.036364455,0.03403486,-0.006956833,0.0035778505,-0.0141551485,0.028736444,-0.011094,-0.013466213,0.028835878,0.017713467,-0.008629456,-0.013913666,0.034801923,0.10227504,0.011165025,0.022344254,0.047387432,-0.010000225,-0.0036684065,-0.022983473,0.007553822,-0.015341612,-0.03625389,0.02203755,0.024912015,-0.07322082,0.044097386,-0.0018647801,-0.0026808826,0.012333453,0.029368546,0.01357014,-0.0056319423,0.047640327,0.035563126,-0.026516365,0.04556804,0.080083884,0.0041362187,0.010879509,0.017380474,-0.0047044265,0.032889206,0.027251694,0.0141383475,0.027318541,0.015976667,-0.011575842,-0.05209686,-0.08315889,-0.081242576,-0.091180645,-0.08908608,-0.050982725,-0.031017464,0.028410392,0.009837794,-0.003267195,-0.026516365,-0.0065121073,-0.046971846,-0.01700167,0.027987022,-0.020878853,0.0096093975,0.017313628,0.028967459,0.039150633,0.016990528,0.08913064,0.033557687,0.020488907,-0.014862535,-0.007570534,-0.01842776,0.018784283,0.01038372,0.026672345,0.0850752,0.043562602,0.010227741,0.036298454,-0.025647342,-0.0029162432,-0.03527345,0.02956909,0.022004128,0.014416881,0.042604446,0.009804371,0.02537995,0.04271586,0.003818691,-0.04608054,-0.040621288,0.00870695,-0.063104495,-0.032421272,-0.030282136,9.818297e-05,-0.023419077,-0.0064174063,0.0031446405,-0.032042466,-0.03351312,-0.0026683486,0.003166923,0.053255558,0.02562506,0.022438638,-0.037145194,-0.0390615,0.0108349435,-0.020154666,-0.042337056,-0.04991316,0.005999606,-0.037925087,-0.061009925,-0.014049217,0.044119667,-0.019241078,0.015932102,0.022316083,-0.01892912,-0.04808598,-0.023664186,-0.063683845,-0.027541367,-0.0425376,-0.030103873,-0.008149883,-0.040487595,-0.0179264,0.0074758325,0.007737654,0.052007727,-0.021135103,-0.026449518,-0.051472943,-0.0016127075,0.025335385,0.010311301,0.016221777,-0.010578693,0.0045428774,-0.0072920006,0.01817151,0.029925613,-0.010305731,-0.0013682946,0.013614706,0.022717172,0.06751646,0.042626727,-0.016734278,-0.065956675,-0.059628397,-0.040866397,-0.0804404,-0.057177305,-0.017547594,-0.017792704,-0.016801126,0.0738893,0.061366446,0.05864796,0.068229504,0.10677851,0.034538124,-0.0067293635,-0.045634888,0.005186289,0.0440751,0.028499523,0.009704098,-0.008528688,-0.0026864533,-0.04414195,-0.029502243,-0.014996231,0.032644097,-0.005999606,-0.047551196,0.054146864,0.018327488,-0.07277517,0.02295114,-0.025736472,-0.022438638,-0.027162563,-0.0124337245,0.016723137,-0.032688662,0.013124486,-0.0015416816,-0.014717697,-0.005077661,-0.026070712,-0.07642952,-0.040732704,-0.05009142,-0.011336303,-0.017090801,0.027095715,-0.003946816,-0.0011900333,0.06225775,0.043072384,0.046526194,0.028700067,0.038660415,0.023664186,0.05160664,0.0639958,0.05218599,0.048843592,0.032956056,0.034471277,0.032554965,0.009765375,0.021068254,-0.003776911,-0.0028117932,0.00044112705,-0.032733228,-0.0012151013,-0.01624406,0.0009790444,-0.041156072,-0.023129402,-0.054057732,-0.085298024,-0.047060978,-0.08200019,-0.017224496,0.004849264,0.004960677,0.010506274,0.025781037,0.023931578,0.049467504,0.028766915,0.035808235,0.0827578,-0.043451186,-0.04982403,-0.06341645,0.029390829,-0.0325104,0.0073755607,0.015018513,0.025357667,-0.0005877052,0.04255988,0.060519706,-0.0010814053,0.08694694,0.054637082,0.04380771,0.06323819,0.04875446,0.024733752,-0.018806566,-0.013425303,0.04140118,-0.042693578,0.0042754854,0.06912081,0.004893829,-0.012467149,0.01725792,0.024154404,-0.0013272109,-0.02344136,-0.027652781,-0.020912277,0.024756035,-0.002161418,0.04095553,0.07451322,-0.007843496,0.03658813,0.010818232,-0.012801388,0.076563224,0.046258803,0.042582165,0.06582298,0.054592516,-0.029346263,0.020076677,-0.005955041,0.013169052,-0.07317626,-0.034627255,-0.05887079,-0.09260674,-0.07576104,0.03164138,0.048487067,0.03433758,0.05664252,0.025023427,-0.005662581,0.007347707,0.019029392,-0.027340824,0.03048268,0.060564272,0.059271876,0.01223318,0.040153354,0.04830881,-0.010283448,0.0094478475,0.026338104,-0.004515024,-0.017391616,-0.001414949,-0.017469605,-0.007949339,-0.014461447,0.060074054,0.038727265,0.036877804,0.023931578,0.054637082,0.043428905,0.048041414,-0.004019235,-0.0079549095,0.06239145,0.05254251,-0.030950615,-0.0055400264,-0.039663136,0.011575842,-0.016032374,-0.020633744,-0.042158794,-0.015898678,-0.0574447,-0.01306878,-0.033446275,0.019397056,0.03634302,0.0102221705,0.006734934,0.0064564007,-0.00048882584,-0.00645083,-0.015040795,0.026115278,0.0028020446,-0.00586034,0.009860077,0.035919648,0.022494346,0.0074535497,0.007648523,-0.009358717,0.005258708,-0.014283185,-0.052943602,0.029814199,-0.01909624,-0.07491431,0.02379788,-0.018372053,-0.0319979,-0.0041835695,0.03578595,0.025758754,0.020722874,-0.0029106725,0.017725857,0.0154196005,-0.012556279,-6.6151646e-05,0.013893238,-0.030816918,-0.028209848,0.005595733,-0.026828323,-0.0032282004,0.043183796,-0.009269587,0.0034900217,-0.054414257,0.0009316937,-0.015475308,-0.0551273,0.026115278,-0.021848148,-0.008857357,-0.04380771,-0.066045806,-0.052319687,-0.03761313,0.016689712,-0.09323065,-0.05535013,-0.01759216,-0.029680504,-0.049467504,-0.091180645,-0.0057433555,-0.0005897942,0.03618704,-0.010099616,0.037635412,0.048709895,0.038994655,-0.036654975,-0.04146803,-0.038549002,0.017681291,0.0065455316,-0.017324768,-0.0148068275,0.040353898,-0.008439558,-0.00034834066,0.004840908,-0.016277483,0.03895009,0.061722968,0.03164138,0.092874125,0.10963069,0.036409866,0.123445936,0.057266437,0.050135985,0.04875446,0.034560405,-0.00645083,0.00072209747,0.023173967,0.03202018,0.029858764,0.018795423,-0.04492184,0.034493558,0.017814986,0.007347707,0.053210992,0.031351704,0.01783727,0.021759018,-0.042626727,0.0011113477,0.019363632,-0.023575054,0.014116066,-0.02832126,-0.030571809,0.010172035,-0.033490837,-0.08284693,0.0034120323,-0.005158436,0.053745776,-0.010305731,-0.016154928,0.043339774,-0.015363894,-0.02714028,-0.020165807,0.013001932,0.059851225,0.113017656,0.07995018,0.122287236,0.12870465,0.06439689,0.09964806,0.09216108,-0.00022073761,-0.036075626,-0.0019469474,-0.02780876,-0.03306747,-0.009013336,-0.016344331,-0.03788052,0.016021233,0.026761474,0.02422125,-0.031373985,-0.006066454,-0.03661041,-0.02295114,0.026092995,0.03433758,0.029524526,-0.020500047,-0.0019427694,-0.052007727,-0.028410392,-0.061678402,-0.015230198,0.008305862,-0.033557687,-0.041668575,-0.045679454,-0.107580684,-0.06524363,-0.02932398,-0.11890028,-0.09741979,-0.010060621,-0.004236491,-0.04790772,0.038727265,0.031864204,-0.008311432,-0.015620145,0.064797975,0.00929744,0.05543926,-0.013369597,0.05084903,-0.009497984,0.013503292,-0.033802796,0.015731558,0.016433463,0.0019399842,0.026672345,0.025067993,0.06016318,0.0064786836,0.0012547923,-0.056152303,-0.018082378,-0.010823802,-0.024399513,-0.031864204,-0.032131597,-0.035028342,0.01783727,0.045033257,0.025469081,0.03257725,0.012322311,0.03516204,-0.008344856,-0.010901791,0.028945176,0.025112558,0.038415305,0.014951665,0.00083281443,0.011029917,-0.021714453,0.0028911752,-0.0127011165,0.00020332927,-0.03903922,-0.06573385,-0.04902185,-0.019564176,-0.03340171,-0.0070691737,-0.0077209417,-0.05829144,-0.030750072,0.015854113,-0.012255463,-0.0067739286,0.026182126,0.045679454,-0.022260377,-0.0013453156,0.00062704796,-0.012333453,0.0024385587,0.009124749,-0.018839989,0.0005765638,0.030460397,-0.02252777,-0.041245203,-0.0063227047,-0.037345737,-0.016366614,0.035318017,0.06680342,-0.016678572,0.052988164,0.052988164,-0.03308975,-0.0097152395,-0.03108431,-0.027622042,-0.038451232,-0.017215205,0.027419312,0.045952264,0.03410942,-0.042269327,0.038586386,0.018228859,0.0067999214,0.028551223,0.058183677,0.014571261,0.07433455,0.07142874,0.012501719,0.04348571,0.059737943,0.047540322,0.017502407,0.004417837,0.031811807,0.018043023,0.01831333,0.02817955,0.046796978,0.018211965,0.03571437,-0.001486691,-0.028027503,-0.022503095,0.004683921,-0.038417444,-0.010119635,0.03414321,0.020137904,0.001371599,0.024175622,0.015584913,0.019174933,-0.0036174739,0.03510618,0.0037631865,-0.01039839,-0.023939103,0.008109223,0.025358217,0.020492682,0.0062339655,0.025054121,-0.0065634027,-0.018431589,0.010744721,-0.017417936,0.023145074,0.042505845,0.033568807,0.02184422,0.040377174,0.009274924,-0.000100837344,-0.010153423,-0.03595089,-0.018144388,-0.004050388,-0.010187211,-0.039870348,-0.033433653,-0.006314213,-0.041221883,-0.031271193,-0.019580396,-0.023026815,-0.047743052,-0.054466948,-0.007898046,-0.0048106275,-0.0057778214,0.006470484,0.030679895,0.015703173,-0.0041179648,0.03258894,-0.009857775,0.029463511,0.041627347,0.027267262,0.014055987,0.0056637856,0.03422768,-0.027689619,-0.010204106,-0.032808565,2.6463204e-05,-0.009714174,0.0017802279,-0.032724094,-0.013101464,-0.025256852,0.005862293,0.01372655,0.05186524,0.012763579,0.0019322758,0.020695414,0.0032120126,-0.0332985,-0.0034717612,0.043992538,0.05014203,0.06595501,0.017941656,0.08278166,0.07683489,0.006436696,0.06179904,0.054973777,-0.07433455,-0.09062057,-0.07419939,-0.08866084,-0.09035026,-0.073726356,-0.058487773,-0.057068657,-0.06200177,-0.033366077,-0.0041602007,0.018076811,0.00399337,0.048959434,0.039363522,0.0037357332,0.05037855,0.038586386,0.021472547,-0.022367941,-0.01284805,0.0037526276,-0.010356154,0.0010110132,0.018989097,-0.019783126,0.029311463,-0.0015627149,-0.026963167,0.010575779,0.032521363,-0.010694038,0.015517336,0.03437973,-0.005338572,0.0034041842,0.037099697,0.006284648,-0.01903978,-0.0011942098,-0.017223652,-0.03463314,0.031693548,0.015365289,-0.012138493,-0.062103134,-0.016801298,-0.04385738,0.020779885,0.04757411,-0.004067282,0.034193892,0.07392909,0.04601984,0.0065676263,0.020391317,0.00459945,-0.019225616,-0.010837639,0.0080120815,-0.015145664,0.0026650624,-0.026422553,0.050885376,0.050682645,0.0508178,0.053689815,0.04341813,0.010491308,0.008708968,-0.0155342305,-0.0499393,-0.018380906,-0.045039978,-0.014098222,-0.05061507,-0.039498676,-0.044026326,0.01661546,-0.00855692,0.02088125,-0.0175193,-0.03373775,0.0094776545,-0.001504641,-0.035207544,0.008734309,0.022351047,-0.02280719,0.018043023,-0.0376741,-0.039870348,-0.027250368,0.011986446,-0.046121206,-0.0011181858,0.022993026,-0.0091989,0.0014022199,0.040140655,0.036559083,-0.0060903644,0.026236717,0.054466948,0.04561438,0.048080936,0.036930755,0.039532464,-0.024276987,0.008852568,-0.013895492,0.0039447993,0.029835183,-0.005127394,0.00021223357,0.007961399,0.017265888,0.035376485,0.03747137,0.0035731264,0.018009234,0.005161183,-0.02368569,-0.011859739,-0.022384835,-0.065718494,-0.04139083,0.004713486,0.011724586,0.020053433,0.0689284,0.062981635,-0.015922798,0.019276299,0.040951576,0.0060354583,0.014816226,-0.016902663,0.021945585,-0.0030240645,-0.034362834,-0.013836362,0.0022068068,-0.040343385,-0.0049542286,0.019631078,0.008358413,0.0163536,0.0045107557,0.016742168,-0.008611826,0.018380906,0.0043502604,-0.020864356,-0.09122876,-0.08156527,-0.018043023,-0.10352775,-0.06010962,0.022959238,-0.044871036,-0.03588331,-0.0376741,-0.047844417,-0.042472057,-0.030494059,-0.0327072,-0.03618741,0.007564385,-0.0041200765,-0.0063353307,-0.061292212,-0.050243396,-0.016978687,-0.031220509,-0.006846381,-0.00376741,-0.019343877,0.009139771,-0.014267164,-0.045107555,-0.022519989,-0.041694924,-0.007526373,-0.063420884,-0.05510893,-0.0005664842,-0.046391513,-0.04108673,0.027351735,-0.0030113938,-0.025881937,0.06494136,0.021472547,0.007813575,0.03350123,0.0063184365,0.006939299,0.021269817,-0.01442766,-0.023077497,0.0061875065,0.0376741,0.014976722,-0.026963167,-0.028703272,0.01799234,0.023178862,-0.0026566153,0.03595089,-0.0047852863,-0.03571437,0.00995914,-0.006901287,-0.016750615,0.0067999214,-0.012054022,-0.018009234,0.015263923,0.032538258,0.028872214,0.0055793147,0.018786367,0.03642393,-0.01915804,-0.01755309,-0.008548473,0.009283371,0.039329734,0.027520677,0.031710442,0.016759062,0.03939731,0.030037915,0.0020695413,-0.0021318388,0.0019164375,-0.00067999214,-0.0032500247,0.04541165,0.01851606,0.02099951,-0.0037420685,-0.028162656,-0.035376485,-0.02865259,-0.03466693,-0.02765583,-0.01924251,0.0030261762,-0.0060439054,-0.002658727,-0.027267262,-0.033518124,-0.003340831,-0.059095964,-0.04922974,-0.04480346,0.008362637,-0.027182791,-0.021016404,0.0028445635,0.020915039,0.008493567,-0.004924664,-0.0091989,0.0040630586,0.005520185,0.00085104606,-0.022587566,-0.042134173,-0.035241332,-0.019563502,-0.057440333,-0.076902464,-0.04676319,-0.06450211,-0.085552305,-0.04933111,-0.0009265421,-0.01489225,0.013971516,-0.0076784207,-0.007602397,0.02461487,-0.01699558,-0.009418525,-0.0024581084,0.025763677,0.038214713,0.022519989,0.018820155,0.058690503,0.06723898,-0.011640114,-0.006757686,0.039566252,-0.019276299,0.0075010317,0.04223554,0.018685002,0.06369119,0.061663885,-0.006424025,0.040343385,0.025358217,0.0030620764,-0.050243396,0.004629015,0.044296633,0.040343385,0.019901386,0.05118947,0.04027581,-0.0070828996,-0.026861802,-0.08920146,-0.07082055,-0.0019998527,-0.04716865,-0.042708576,0.00034395567,-0.003038847,0.003133877,-0.02637187,-0.0061537176,-0.002356743,-0.025746783,-0.028280916,0.010854533,0.014900697,-0.0041010706,-0.007805127,-0.010144976,0.001362096,0.006559179,0.009976034,0.011842845,0.00028377003,-0.008869463,0.013515372,-0.0009983425,-0.02637187,-0.0016725273,0.018245753,0.018296435,0.022857873,0.027030744,-0.006305766,0.0061368234,-0.0031190945,0.019276299,0.062576175,-0.015137217,-0.0070828996,0.02937904,0.023719478,-0.013000099,0.0007644632,0.0044220607,-0.00664365,-0.025003439,-0.031727336,-0.009283371,-0.07034751,-0.007712209,-0.025425794,0.014706414,0.02616914,-0.0055793147,0.013768786,-0.0071800416,-0.026625283,-0.042134173,0.016826639,0.016117081,0.00899617,0.023280228,-0.0018974316,0.020982616,-0.016902663,0.0008579094,0.020577153,0.0052583246,-0.015863668,-0.035613004,-0.009021511,-0.011488066,-0.035613004,-0.019107357,-0.017857185,-0.036491506,-0.015669385,0.05855535,0.04797957,0.048317455,-0.017705137,-0.017705137,-0.013971516,-0.0069224047,-0.04922974,-0.029193204,0.0057186917,-0.020610942,-0.0017770602,0.0011382478,0.010643356,0.000766575,0.03527512,0.04929732,-0.00734476,0.03916079,0.032538258,0.033551913,-0.009350948,-0.008810333,0.0329944,-0.02757136,-0.011994893,0.01244259,-0.031237403,0.016953345,0.030156175,-0.02032374,-0.053723603,-0.029750712,-0.04135704,-0.031879384,-0.03807956,-0.0038286515,0.0009972866,0.020644732,0.0017453836,-0.01104037,0.025459582,0.014605049,0.02108398,0.033315394,-0.043114036,0.0065929675,0.017096946,-0.023499854,-0.0019734555,-0.05794716,-0.05142599,-0.059231117,-0.07859189,-0.0350386,-0.096094295,-0.073523626,0.019681761,-0.01912425,-0.03057853,0.043992538,0.030088598,-0.022857873,0.034497987,0.016564777,0.0025468029,0.051972292,0.023477139,-0.0018187502,-0.01708141,-0.05793118,0.037142266,-0.068504855,-0.055646192,-0.016801387,-0.03776952,-0.053361207,-0.00762783,0.004264752,-0.022569863,0.00058349816,0.042361896,0.01999365,0.03366998,-0.031317785,-0.053495616,-0.005522056,0.014269978,-0.02372356,0.01551328,-0.0019825636,0.007134989,-0.022390649,-0.005908488,-0.040300928,-0.02992887,0.033266746,-0.029122405,0.008372691,0.021001734,0.048746426,0.0387552,-0.01636455,-0.017014205,-0.009503985,-0.007521421,-0.017115014,0.014874828,0.022233836,0.004032333,0.03644781,0.008400694,0.0024081988,0.003718707,-0.011671363,-0.0084735,0.05112102,-0.0043039555,0.048029564,-0.0029178408,0.05654227,0.05654227,0.062187534,-0.012130601,0.0496425,0.023118708,0.022525059,-0.0063173217,-0.029637648,-0.038575985,0.034230027,-0.015356468,0.010528869,0.10914181,0.012634643,-0.03694065,0.06966975,0.04883603,0.013833142,0.05985774,0.09462541,0.010859297,0.03355797,0.055780604,0.02470924,-0.003368678,0.026120557,0.02605335,0.03102656,0.011906583,0.008546306,0.021393767,0.05219631,0.019657623,-0.0052756355,0.0030970557,-0.008288684,0.084141344,0.008837529,0.04955289,0.07338846,0.010584874,0.021214552,0.02748707,0.010114435,0.014785221,0.08499262,0.027643882,0.027397461,0.017294228,0.052509934,0.047088686,0.07137229,0.081363514,0.016857391,0.0057460745,0.031116169,-0.028987993,0.013250694,0.003368678,-0.02943603,-0.010724885,0.03075774,-0.062232338,-0.05860324,0.016902195,-0.09847853,-0.09077229,-0.048253585,-0.008271883,-0.07822726,-0.055198155,-0.014236376,-0.028741572,-0.024037184,0.0038335165,-0.027823096,0.002263987,0.035305314,0.03221386,0.05345081,0.049104854,0.0088711325,-0.006070901,0.027554275,-0.02979446,-0.06276998,0.0029346424,-0.09417737,-0.080153815,0.02289469,0.030735338,0.025224483,0.047088686,0.04274273,0.039315246,0.048029564,0.055646192,0.028136723,-0.049597695,-0.08579908,-0.04018892,-0.095163055,-0.11711687,-0.025134875,-0.07701756,-0.047267903,0.035103697,0.06751917,0.07374689,-0.011301733,0.03122818,0.05524296,0.0014799222,0.018862357,0.019086376,0.02556051,-0.015042842,-0.04155543,0.017115014,0.020385683,0.0073198043,-0.005074019,0.036963053,0.009834412,-0.013228293,-0.012287415,-0.08884574,-0.01925439,-0.045072522,-0.109589845,-0.07119308,-0.04955289,-0.06931132,-0.11693765,-0.024193997,-0.006048499,-0.06393488,-0.02457483,0.014807623,-0.014841225,-0.022670671,0.043101158,0.028069517,0.025179679,0.036111783,-0.013709932,0.13745774,0.14973396,0.035708547,0.03944966,0.1077977,0.05259954,0.01830231,0.041353814,0.03355797,0.016633373,-0.0055808607,0.017294228,-0.026904622,0.009302368,-0.04301155,0.07379169,0.022502657,0.008512703,0.0015303263,-0.017652657,0.010512068,0.024171596,-0.015927715,-0.033737186,0.011828177,0.03344596,-0.002468404,-0.0054576504,0.04142102,0.02726305,0.021001734,0.044310857,0.0025230083,0.0056844694,0.016398154,0.016330948,0.01999365,0.040771365,0.022009818,0.0008988742,0.034610856,0.06998338,0.002481005,0.040771365,-0.033513166,0.020867324,0.05147945,0.0043571596,-0.0067261555,0.0074206125,0.010680081,0.04856721,0.0302649,0.027083836,-0.0012209008,0.02241305,0.015457276,0.00896074,-0.04155543,-0.039315246,-0.055556588,-0.05439169,-0.01830231,-0.057975985,-0.09363973,-0.019489609,-0.065144576,-0.030802542,0.0038923214,0.039068826,-0.04807437,-0.05040416,0.016442958,-0.044803698,-0.021942612,-0.005102021,-0.030668132,-0.02314111,-0.06837045,-0.008025463,-0.01756305,-0.049194463,0.012242611,0.044714093,-0.0040155314,0.037993535,-0.0067317556,-0.08669516,-0.12858662,-0.13037877,-0.14821063,-0.17464481,-0.14346145,-0.09758246,-0.12553996,-0.14561202,-0.04350439,-0.026008546,0.06613026,-0.06971455,-0.069087304,0.0078966515,-0.02288349,-0.021550579,-0.009067149,0.009453581,-0.032997925,-0.042720325,-0.04914966,-0.10089793,-0.030018479,0.009503985,-0.05425728,0.03476767,-0.03472287,-0.031317785,0.007527021,-0.11138199,-0.051165823,-0.04592379,-0.03344596,-0.009016745,-0.08530624,0.029100003,-0.026747808,0.019579217,-0.013273096,-0.042227488,-0.007583026,-0.04713349,-0.03172102,0.083469294,0.063486844,0.05076259,-0.025134875,0.057035107,0.1210596,0.06711594,0.005421248,0.02567252,0.0031306585,-0.014012357,0.01778707,0.018313512,-0.028472751,0.06321802,0.05125543,-0.014034758,-0.012074597,-0.030802542,0.033961203,0.02372356,-0.017831871,0.02338753,-0.00087507226,0.035641342,-0.0010024827,-0.0077846427,0.017742265,-0.040995385,-0.06644388,-0.06008176,-0.020923328,-0.03523811,-0.06590624,0.07226837,0.037993535,0.056631874,-0.039091226,-0.03187783,-0.016924597,-0.049732108,-0.10519908,-0.09166837,-0.0028758375,-0.05098661,-0.07531502,0.034342036,-0.01913118,-0.05604943,-0.009604793,-0.024978062,-0.0581552,0.04762633,0.014527599,-0.03075774,-0.068952896,-0.07773442,-0.07697275,-0.055063747,-0.1126365,-0.13745774,0.009414378,-0.06366605,-0.0775104,0.05242033,0.044176448,0.021281756,0.01610693,0.05295797,0.012421826,0.055511784,0.016745383,0.028181527,-0.007969458,-0.031833027,-0.025224483,-0.010170439,-0.08212518,0.009716802,-0.061157048,-0.04289954,0.032169055,-0.019220786,-0.04012171,-0.027106239,-0.050941806,-0.059544116,-0.015222057,-0.020262472,-0.07011779,-0.0038195152,0.012881064,0.031116169,0.031093767,0.013945151,0.021864206,-0.0254261,0.016588569,0.021550579,0.05291317,-0.019937646,0.013306699,0.04263072,-0.006278118,0.0039343247,-0.01561409,-0.010489666,0.008210278,0.018235106,0.0017347432,0.03237067,0.016185336,-0.01102731,0.02811432,0.019534413,-0.004309556,0.08212518,0.053495616,-0.05318199,-0.06926652,-0.029727254,-0.12374782,-0.20824759,-0.099285,-0.13360463,-0.14910671,-0.13172288,0.0011459946,-0.010943304,-0.03969608,0.009492784,0.108962595,0.04442287,0.028651966,0.013911548,-0.011296133,0.043594,0.062008318,-0.05425728,0.047267903,0.059409704,0.0002933242,0.07311964,0.08432056,-0.027509471,0.032169055,-0.020923328,0.008154273,-0.033849195,-0.012769055,-0.013295498,-0.019209586,-0.0061045038,-0.03886721,0.033894,-0.008053465,-0.00339108,0.04081617,-0.044960514,0.00057439745,0.03039931,-0.005256034,-0.011329736,0.0266358,-0.030802542,0.0070453817,0.020889726,-0.00435996,0.016375752,0.021740995,0.016252542,0.016252542,-0.059320096,-0.0678328,-0.05873765,-0.025986146,-0.03089215,-0.0072245966,0.035058893,0.020564897,0.053943653,0.037612706,0.08754643,0.05766236,0.040368132,0.081184305,0.06187391,-0.000678356,-0.005830081,0.008400694,-0.06563742,-0.06760878,-0.0057572755,-0.00593089,-0.04325797,-0.009767206,-0.02143857,0.03353557,0.01768626,-0.01925439,0.001234202,-0.006031698,-0.05219631,0.019086376,0.09740324,-0.01223141,0.0009226762,-0.0024432016,0.039068826,-0.0009779808,0.0053372406,0.030869748,-0.011984989,-0.033333953,0.0012825059,-0.002447402,0.005600462,-0.034678064,-0.034588456,0.02024007,-0.039158434,-0.035775755,0.018235106,-0.021595383,-0.028920788,-0.02108014,-0.006552541,-0.063531645,-0.037567902,0.010478465,-0.0375455,-0.010478465,-0.03127298,-0.028360741,0.00018534031,0.0016619372,-0.006367726,0.0037215073,0.031183375,-0.046819866,-0.033401158,-0.020587299,-0.05622864,0.012634643,0.05305017,0.008292004,0.086101644,-0.014637746,-0.004451926,0.025266428,0.00071855774,-0.020091938,-0.043470375,0.0369673,-0.007592748,-0.021094203,0.012073809,-0.038319193,-0.00023089995,-0.010739397,-0.034729682,0.005127873,-0.074820325,-0.10479507,-0.044356097,-0.06633603,-0.0673616,-0.015313692,0.07006539,0.073375195,0.07929556,0.014369697,-0.008169633,0.017050177,0.05547426,-0.040137257,-0.027154416,0.022842342,-0.023378437,-0.02207316,0.040836513,0.0032165747,-0.00963807,-0.027201034,-0.0427245,0.013868565,-0.03570864,0.02990482,0.005620265,-0.062513426,-0.058411133,-0.06447134,-0.01527873,0.011485269,-0.062560044,0.033074778,0.03209582,-0.040813204,0.006415668,-0.043167364,0.050020065,0.019905468,0.025149884,0.04531175,0.05323664,0.042374875,0.029671736,-0.065730006,-0.05388928,0.04153577,-0.04370346,-0.024101002,0.03400712,0.061161537,0.116169624,0.046663642,-0.051418576,-0.032189056,-0.00012901626,0.014194883,0.065030746,0.15355648,0.025499512,0.05561411,0.0632593,0.062420197,0.06563677,-0.01864681,-0.042281643,-0.007895758,-0.010413078,-0.043796696,-0.056033663,-0.02029006,-0.021653607,-0.019695692,0.01566332,0.022282938,-0.012143735,0.012889607,0.04400647,0.015803171,-0.005879572,-0.0013103754,0.04512528,-0.07934217,0.02584914,0.060648747,-0.05235092,-0.020359986,-0.00022416233,-0.026898023,-0.075193256,0.020056974,-0.035801873,-0.04076659,-0.08451667,-0.14926772,0.031676266,-0.0051366133,-0.08083392,-0.024963416,-0.06642926,0.0076277107,-0.010739397,-0.006730333,0.029648427,0.06535707,0.12092456,0.110016175,-0.035615407,-0.029508576,-0.08018128,-0.036617674,-0.03946131,-0.009352541,0.100506306,0.07943541,0.059157003,-0.07020524,0.0048714792,0.05561411,-0.07006539,-0.14870831,-0.02771382,0.015756555,0.03386727,0.011118161,0.046290703,-0.028133374,0.020861119,0.09523858,0.014089995,0.0038604722,0.016945288,-0.11010941,-0.010681125,0.0074237613,0.07878277,0.012901261,-0.007196503,0.14395337,-0.020849464,-0.1297818,-0.11980575,-0.079528645,-0.045474906,0.029415343,0.042304948,-0.0024138878,-0.040207185,-0.007417934,0.018390415,-0.05430883,-0.07794367,-0.06852703,-0.027061183,0.011957266,-0.002459048,0.04540498,0.05430883,0.003440919,-0.084609896,-0.027480736,0.0032457104,-0.0032602781,0.003714794,0.02316866,0.1601761,0.09714988,-0.02004532,0.101718344,0.057199087,-0.04477565,0.014929102,-0.017819358,-0.058457747,0.02029006,-0.074494004,-0.008123016,0.033307865,-0.014276464,-0.043610226,0.013973453,-0.030324373,0.022201357,0.05747879,0.04559145,-0.039857555,0.0057775974,0.026431853,-0.008006474,-0.017632889,-0.062280346,0.070531555,-0.011566849,-0.018844932,-0.06740822,-0.027550662,-0.015500161,-0.029205566,0.043633536,-0.06479766,-0.026851406,0.004309161,-0.026385237,0.069366135,0.03365749,0.011712527,0.06670896,0.13891873,0.06274652,0.03978763,0.11598316,-0.0074995137,-0.015593395,-0.006421495,-0.036477823,-0.080973774,-0.105540946,0.047829065,-0.04288766,-0.092208475,0.030301066,0.030161215,-0.0049414043,0.06237358,0.017924245,-0.029531885,0.0066604074,0.028599543,-0.02521981,-0.021700224,0.063212685,-0.0013613628,-0.044472642,0.056826152,0.058644217,0.031419873,-0.051465195,-0.00018865327,-0.020931045,-0.026105534,0.025313044,0.013740368,0.020301715,0.05235092,0.032818384,0.022842342,0.033144705,-0.01604791,-0.009929426,-0.071510516,-0.07617222,-0.019439299,-0.015302038,-0.07402784,0.066848814,0.06857364,0.03617481,0.016269341,0.080927156,0.021164129,-0.051465195,-0.060508896,-0.049414046,0.02883263,0.043190673,-0.04295759,-0.032049205,-0.040650044,-0.09067011,-0.0139035275,-0.003239883,0.023413401,-0.04183878,-0.002633862,0.013495629,-0.044309482,0.013868565,-0.022271283,-0.034263514,-0.034333438,0.025173193,-0.017831013,-0.025499512,-0.041745543,0.08190611,0.014241501,-0.020558108,-0.019217867,0.029392034,-0.0062175454,-0.021735188,-0.029858204,-0.0028115893,-0.022830687,-0.05183813,0.0009235998,0.0068002585,0.009142764,-0.029951438,-0.08474975,0.0067478144,-0.1046086,-0.04712981,-0.0076335375,-0.012808028,-0.009731304,-0.0070741335,-0.025639363,-0.022259628,-0.021490447,-0.02521981,-0.07943541,-0.06046228,0.0026251213,0.061814174,0.074074455,-0.062093876,0.0884325,0.11915311,0.015383618,-0.030114597,-0.009725477,-0.015884751,-0.043796696,-0.028576236,-0.005372612,0.029089022,0.018437034,-0.027014565,0.07910909,0.017120102,0.0017219164,0.03463645,0.029974746,0.003534153,-0.027550662,-0.015290384,0.03827258,-0.04309744,-0.09677694,-0.032328907,0.019707346,0.002058433,-0.035359014,-0.03913499,-0.12698478,-0.059157003,-0.041745543,-0.13733375,-0.123348646,-0.032212365,0.065403685,0.006130139,0.024567172,0.022271283,-0.04743282,0.027667204,0.064284876,-0.017294915,-0.037992876,0.012574942,0.0336808,-0.049414046,0.014276464,-0.010873421,0.02185173,0.041768853,0.056220133,0.0151971495,0.019182906,-0.025802523,0.05402913,-0.05057947,-0.05575396,-0.03356426,-0.10153188,-0.055893812,-0.04386662,-0.018961474,-0.01582648,0.03398381,0.04044027,-0.044076398,0.01692198,0.04148915,0.026874714,0.027317576,-0.009754612,0.05542764,0.102370985,0.036594365,-0.031046938,0.055893812,0.058550984,0.03678083,-0.05673292,-0.07948203,-0.049320813,-0.043656845,-0.04885464,-0.024031077,0.013693751,-0.038715437,0.016304305,0.06531045,0.012598251,-0.013950145,0.003822596,-0.058784068,0.051138874,-0.075892515,-0.0651706,-0.04890126,0.024543863,-0.0139617985,0.044612493,0.029112332,0.012271931,0.0037526705,0.06750145,-0.033937193,-0.03195597,-0.01894982,0.0073946253,-0.0009571058,0.007994819,-0.046430554,0.010244091,-0.09132275,-0.116822265,-0.05985626,-0.03789964,-0.09957396,-0.05430883,-0.0785963,-0.033028163,-0.04179216,-0.050812557,0.027014565,0.0080356095,-0.011852378,0.035615407,0.024940107,0.019427644,0.10339656,-0.02426416,-0.10861766,-0.094026536,-0.09593783,-0.030440917,0.018903203,0.023867916,-0.092534795,-0.032072514,-0.007924894,0.0082512135,0.020138554,0.03274846,0.04668695,0.04479896,0.0038459045,0.050206535,0.01582648,-0.018203948,-0.015127224,-0.02045322,-0.035289086,0.0033564258,-0.04890126,-0.09006409,-0.025662672,0.01621107,0.06880673,-0.044868886,0.01755131,0.08656781,-0.030977013,0.0099002905,-0.0104888305,0.0032165747,0.067268364,0.018378763,-0.017737778,-0.06694204,0.053516343,-0.019311102,-0.024497246,-0.026292002,-0.046453863,-0.012912916,-0.016723858,-0.054075748,-0.06689543,-0.011572676,0.08656781,0.063632235,0.04132599,0.023774682,0.0227258,0.031979278,-0.007901586,-0.0035137583,-0.028483002,