#pragma once

#include "parameters.h"

#ifndef KERNEL16_H
#define KERNEL16_H

static float bias16[FEATURE_MAP16] = {-0.7407414,0.11996645,1.7161374,-0.5633272,0.5257284,-0.08357221,-0.7318238,1.4788525,-0.24474502,1.0608683,0.29390478,-1.6565359,1.3199413,-0.52479506,-0.8828017,-0.2811125,0.6006595,1.7263666,1.3086675,-0.945859,1.4007794,0.27341312,-0.9632096,2.1346087,2.415783,-0.3045135,0.5368322,-0.6727072,-2.0136344,-0.47445667,-0.3797873,-0.029509962};

static float kernel16[FEATURE_MAP16][IN_CHANNEL16][KERNEL16][KERNEL16] = {0.03433519,-0.016894583,0.3296692,0.3409751,0.06266413,-0.26928553,-0.0038582925,0.1531433,-0.117105804,-0.09320928,0.3088561,0.0874921,0.22765933,-0.123658076,-0.08280273,0.10419397,-0.12719116,-0.11492171,0.009081641,0.09475099,-0.113829665,0.09449404,0.21519716,-0.021503657,0.067192905,0.08016898,-0.054891337,0.1568691,-0.076250456,0.070597515,0.003262084,0.04817847,0.05514296,0.30958936,0.004049451,0.18211967,-0.295786,-0.101553194,-0.15634403,0.07429863,0.004412581,-0.23409349,0.14803386,0.11028592,-0.079650946,0.08662304,0.23226243,0.13986452,-0.042536844,-0.1445126,0.12430055,0.22775522,0.16465421,0.0060785785,-0.1897256,-0.11415931,0.067784294,0.15240021,-0.0041000694,0.058910713,-0.03311747,0.25043213,0.24071346,-0.049720217,-0.0013578596,0.044852182,0.21058907,-0.1825755,-0.10529453,-0.14713222,0.024070367,-0.22386508,-0.04722725,0.00026453045,0.02397902,0.091957636,-0.04975456,-0.26722524,0.27745628,-0.018041357,0.20754412,-0.15992102,-0.004072627,0.228737,-0.007954945,-0.016503654,-0.119605824,0.042385772,0.21777517,0.24213481,-0.044882633,0.21205065,0.17356242,-0.1555363,0.17015207,-0.048597477,-0.061063115,-0.15492809,0.017037,-0.21387747,0.34915575,0.13167712,0.042157035,0.0011834648,0.31502303,0.42587608,0.047480486,-0.0072659235,0.07315831,-0.2456616,0.057070527,-0.037009727,0.01463949,0.33537742,-0.20370029,-0.11382791,0.17755274,-0.21246833,0.20213456,0.32347792,-0.020276085,-0.10067585,0.25067192,-0.08227863,0.054447945,0.0012929429,0.15117036,-0.1850682,0.093126036,-0.15148503,0.42075232,0.31556422,-0.0174057,-0.19866888,-0.14093074,-0.55095136,0.33933353,-0.06004412,0.10270472,0.052416656,-0.2440789,-0.064168274,0.09986659,-0.05015502,-0.30669507,-0.07392433,-0.16363575,0.07521036,-0.26022077,-0.009672913,0.16159585,-0.53250355,-0.053037494,0.23733836,-0.032128483,-0.13356934,0.24124078,-0.24940039,0.24993254,0.21693932,0.0011258381,-0.19229315,0.033493683,0.12241613,0.05606674,-0.29316825,0.45874152,0.20835511,0.19604595,-0.014213706,-0.03120448,-0.015273871,0.11198337,-0.10034971,-0.103427,-0.31403378,0.061620872,-0.038916472,0.08976683,0.20520276,0.1066544,-0.011042596,-0.080309786,-0.02964707,-0.34015322,0.17698176,-0.2070041,0.052351475,-0.14523312,-0.13787764,0.1954455,-0.16001913,0.07495502,0.17438143,0.054562174,0.2869499,0.32519782,-0.056148287,-0.4035063,0.11546879,0.050166387,-0.5122681,0.11465307,-0.11356546,-0.12652624,0.2039284,-0.09815753,-0.264835,-0.06793082,0.20846014,-0.0375908,0.08859556,-0.045611985,0.25214612,-0.27552992,-0.026691962,0.08066501,0.27317342,0.3329924,0.16015176,0.03233398,-0.29891372,-0.13350512,-0.34006193,-0.034471806,-0.15565874,-0.15228707,-0.1264376,-0.007779425,-0.27507204,-0.09560088,0.014039842,-0.46866205,0.11519871,0.07993666,0.20988642,-0.2610234,-0.12081815,-0.27170035,0.29417816,0.12004548,0.029186014,0.015655434,-0.025234839,-0.0550706,-0.09939401,0.016735421,-0.5178322,0.05036431,-0.112248495,-0.12145034,0.1704098,0.23854561,0.08218444,-0.020774402,0.28307974,-0.068271734,-0.018149784,0.021165157,0.3771288,0.0144668855,-0.026171599,0.13930564,0.035632044,-0.34858635,-0.39038724,-0.13525444,-0.08429234,-0.18267177,0.08931029,-0.02442222,-0.28800267,-0.064082436,-0.08562739,-0.07250707,-0.26995647,0.05888034,0.36626425,-0.49976933,0.2942636,-0.1608506,0.29702577,-0.30568057,0.13553067,-0.021901738,0.097136445,0.2951843,-0.23110189,0.07377756,0.48082614,-0.024645519,0.06439636,-0.3224588,-0.3701598,-0.13419883,-0.2707827,0.39750838,-0.23786901,-0.14532906,-0.12640767,0.28079993,0.142467,-0.4229489,0.028620603,0.076679364,-0.10637324,0.12386361,-0.009093004,0.1045447,0.17235963,-0.13570936,-0.027924964,0.1807868,0.07246578,-0.22196868,-0.07473157,-0.40196046,0.019577287,0.05887099,0.02589767,-0.08124416,-0.018079558,0.24573627,-0.33663502,0.107657626,0.26413462,-0.24136439,-0.3796252,0.04237539,0.24500763,-0.039893437,0.025570964,0.22879523,-0.018671585,-0.48855796,0.31659722,-0.13452649,0.013229501,0.014333857,-0.2770681,0.45103264,0.05141517,-0.26577407,0.12614705,-0.042102147,-0.018557735,0.23207414,-0.18799098,-0.021301547,0.0077703395,0.16203293,0.12532732,0.09086573,0.03087264,0.22552067,0.16585322,0.24561657,0.23035857,-0.16386843,0.13310434,-0.016157353,0.01434314,-0.09446314,-0.006450536,0.26620868,0.31582817,-0.12814239,-0.033555195,-0.06419524,0.1088528,-0.054054253,0.073684976,0.033462156,0.0029868619,-0.04366517,0.08844678,0.29895756,-0.0021340265,-0.007594111,0.013234454,-0.23358385,0.052379597,-0.0739951,0.24549253,0.12568964,0.21114685,0.16283856,0.048455115,-0.089201465,-0.10953793,0.3635602,-0.14955011,-0.088247046,0.27531317,0.18280794,0.13963884,0.1773751,-0.034157187,-0.008282337,-0.11607203,-0.17091441,-0.12451497,0.14595269,0.012278967,-0.39909396,0.09588239,-0.020501653,0.2982192,-0.04650957,0.1791371,-0.19631663,-0.089201465,-0.2123215,0.08619137,-0.059798017,0.16210438,0.13527276,0.15638155,0.24149548,-0.002975848,-0.052466553,0.4086011,0.031646222,-0.0833492,0.122308835,0.15814628,-0.15420958,-0.122308835,-0.36543328,0.13296504,0.16506942,0.04164066,0.053009547,-0.05565663,0.09285155,-0.30488974,-0.208373,0.05718379,0.008815127,-0.08294195,0.10153941,-0.3901394,-0.020463992,-0.09909595,0.15434533,-0.044525303,0.10812318,0.06831512,-0.018264337,0.26331168,-0.2319842,0.21961384,0.14828353,0.11253804,-0.37111044,0.025222657,0.27520007,-0.3903889,0.19921081,0.10803973,-0.1184019,0.17800449,0.15495066,-0.020463288,-0.024298899,-0.1544687,-0.09052846,-0.0029495046,0.23632185,-0.21897122,0.57160646,-0.07325817,0.075186014,0.09944475,-0.07020574,0.17382748,-0.010814014,-0.015573384,0.1452311,0.05514444,0.057605833,0.096631505,0.20247993,0.12691571,-0.330054,-0.3335652,-0.19706681,0.43656078,0.038221013,-0.05906884,0.0204455,0.12552586,-0.16941601,-0.035953354,0.035258427,-0.15932128,-0.0814894,-0.040159497,-0.04056182,-0.030284211,0.09238879,-0.09780191,-0.19970022,0.06876125,-0.025639169,-0.07479615,-0.05694748,0.045792066,0.025712319,0.15829718,-0.028674904,-0.14264302,-0.069830246,0.36070532,-0.07002476,0.21614309,-0.08068408,0.109783255,0.21894407,-0.021240843,-0.34078714,-0.5508614,-0.14938615,-0.15911181,-0.097334415,-0.024177993,-0.17117162,-0.09850149,-0.06753499,0.09834588,0.00055101945,0.13343607,-0.24493104,0.06018239,0.08231799,0.22283433,-0.004685337,0.13390289,-0.13592583,-0.12254333,0.09064316,0.07099732,-0.36288387,-0.03440939,-0.10480508,-0.2402065,-0.1161308,-0.20656744,-0.20741265,-0.017960548,0.11418683,-0.21755508,0.279931,0.26640776,0.5740614,-0.13362649,-0.05861478,0.4591139,-0.091366366,-0.34129268,-0.24138978,0.03298402,0.32100785,0.028293148,-0.114778474,-0.021024408,-0.010617854,-0.06465798,0.2535607,-0.2745217,-0.3789887,0.22161205,-0.05185316,-0.07471588,0.068038784,-0.12094845,-0.109429754,0.31031528,0.17233865,-0.057534322,0.1878456,0.25251666,-0.29974237,0.051719215,-0.19507043,-0.22115031,0.11841674,-0.09260119,0.110575154,-0.3319898,-0.07912071,-0.40282837,-0.04425209,0.019130383,0.14405608,-0.37146202,-0.13947448,-0.3217693,-0.14731607,-0.0009292608,0.23542376,0.32828927,0.19295585,-0.1099584,-0.29921374,-0.04359128,-0.32494116,-0.5289986,-0.10162647,0.37111273,-0.1499914,0.27232113,-0.22627568,-0.23606893,-0.44052455,0.28177077,0.0915755,0.07469503,0.012842906,-0.04681862,0.049395792,0.24483132,0.055409193,0.1635645,0.22593206,0.3044499,-0.1829792,0.22163677,0.15823835,0.011779822,-0.11124791,0.3013573,0.16639939,-0.09827615,-0.63535875,-0.20497106,-0.27094665,0.157637,-0.29156402,-0.18023022,-0.0038651437,-0.34990954,0.024699498,-0.08574655,-0.41802028,0.035856374,-0.6650152,0.5138244,0.32408735,0.13491164,0.40379936,0.0027088167,-0.20601626,0.025097122,-0.2473692,-0.12312325,-0.23109,-0.1037566,0.1538105,-0.059316218,-0.2032095,-0.14361261,0.018489538,0.13519232,-0.060111467,-0.28965774,-0.1424899,0.040089905,-0.06263755,0.13341472,0.15025528,0.19076619,-0.008971748,0.13438967,-0.12475648,0.015357123,-0.14449772,-0.4135484,-0.31803066,-0.31965882,0.013296504,0.094296634,0.39672425,0.0431458,0.018028295,0.38071418,-0.06634684,-0.057799086,-0.03815961,-0.04976013,-0.023268882,0.026084213,0.08120365,0.13622132,-0.094296634,-0.10040217,0.042670924,-0.033003822,-0.085002646,0.107796654,0.11145998,-0.0050116284,-0.13296504,-0.009641661,0.047466405,0.34420797,0.5712301,-0.5777631,0.31480944,0.41974592,-0.42750385,0.15250497,-0.109938316,0.036135715,0.21763091,0.28663585,0.22865537,-0.30970553,-0.4373034,0.09835243,0.36972755,-0.001284751,-0.019726628,0.08482706,0.10417089,0.16322318,0.21558934,0.13637659,-0.015388302,-0.28949404,0.3435955,0.16424397,0.08115224,-0.0012480665,0.30766395,0.032435376,0.20759073,0.013986025,0.14745905,-0.17060833,0.21511894,-0.5789203,0.1658091,-0.3318064,-0.064930916,-0.019938026,0.12685055,-0.26687548,0.27572113,-0.37584648,0.07871697,-0.22057691,0.13936621,-0.1288267,0.045192856,-0.092079565,-0.2885191,-0.16430345,-0.27270985,-0.17136115,-0.45018768,-0.14077775,-0.27892062,0.07151811,0.05020383,-0.2949181,0.16731474,0.114711285,0.0008286319,0.1277718,-0.15207833,-0.100930616,-0.33561218,-0.028124742,0.1928925,-0.3605686,0.032479122,0.009301799,0.041724052,0.058719132,-0.28361958,0.29245833,-0.0869576,-0.30571643,-0.10905446,0.05634697,-0.03675226,0.044388674,0.041236624,-0.059726488,0.092611805,-0.14713903,0.0056216987,-0.06564064,0.020650808,0.0019202732,0.33249262,-0.032284148,0.016190818,-0.061318763,0.0048775254,0.34440225,-0.16255908,-0.22372589,-0.09792715,0.10884979,-0.1557795,0.18545896,-0.2609382,0.08338874,-0.42214134,-0.17641953,-0.2348745,0.12662734,0.01531995,0.13852926,0.08127954,0.0049198978,0.072579086,-0.07495194,0.017504478,-0.14003582,-0.038059764,-0.101844236,-0.11600601,-0.29754788,0.08557326,-0.009576146,0.036572024,-0.23818897,-0.094085395,0.26139018,-0.108596034,-0.22898531,-0.052135926,-0.09753988,-0.23783024,0.12471346,-0.49452963,0.26122016,0.05975239,-0.34731075,-0.039974153,0.25552008,0.19340906,-0.36342818,0.19665219,0.1292342,0.123435855,0.3459349,0.4060804,-0.11793235,-0.011799377,0.19950221,0.2162093,0.19940394,0.10029163,0.083830245,0.2525718,0.28736183,-0.14132227,-0.2486407,-0.091299295,-0.08717166,-0.03432578,0.30944434,0.01866327,0.18956028,0.0034604813,0.073225886,-0.42830375,0.03253264,-0.111467294,-0.15194097,0.11929855,-0.10312372,-0.05968587,0.10129398,0.17448328,0.33549973,-0.050976343,-0.043876983,0.106709994,0.22117804,-0.08438726,0.17053105,0.21517652,0.1825341,-0.07231102,0.41220212,0.06550442,-0.22293459,-0.08650975,0.06180836,0.02536009,0.26304233,-0.0006194981,0.14141722,0.042703666,-0.15170632,0.20794828,0.21522029,0.24399884,0.21939783,0.13491882,0.08943014,0.01084031,-0.16864854,0.29366505,-0.38618967,0.11217449,-0.09059057,-0.15077798,0.100338146,0.16926743,0.21026914,-0.103664696,-0.103742056,-0.30232957,0.019214716,0.10652708,0.2436894,0.43972397,0.13066393,0.016826173,0.09422657,-0.09074529,-0.035276942,-0.061079077,0.093145594,-0.04844681,-0.09652345,0.06561373,0.35296303,-0.16981834,0.1329858,0.1602863,0.20803903,-0.45420623,0.24986894,-0.49566597,0.01636873,0.06973194,-0.09083199,0.019422684,-0.40830436,0.22950925,0.073850155,0.17638896,0.19249164,-0.25023913,-0.1510319,0.16389552,-0.35259286,-0.17805476,0.0348197,0.30595064,-0.15232751,0.0408582,-0.3548139,0.06960638,-0.14808415,-0.1952683,0.266337,0.58063805,-0.54593235,0.19185624,-0.2614626,-0.54281276,0.24157508,-0.10694425,-0.14759672,0.08008633,-0.025663696,-0.04009191,0.1509113,0.2599028,-0.36187518,-0.016329227,-0.20569952,-0.19897285,-0.08398584,0.11776541,0.371234,-0.35875556,0.41061914,-0.04269971,0.17177372,0.089981355,0.059175167,0.13697053,0.030952414,0.0029972133,-0.07619705,-0.16022055,-0.073428266,-0.39191273,0.15933453,0.37064844,0.034831356,0.4793326,-0.23272587,0.030844301,-0.16730864,0.21308593,-0.3916174,-0.17395373,0.23006783,-0.12463239,-0.25354716,-0.19285533,-0.0149329975,-0.06065492,0.01359475,0.04300851,-0.06940429,0.1089795,0.07221,-0.10085773,0.10779815,-0.20068176,0.04079348,0.17823613,0.07841208};

#endif
