#pragma once

#include "parameters.h"

#ifndef KERNEL3_H
#define KERNEL3_H

static float bias3[FEATURE_MAP3] = {-0.16276169,-1.1089674,-0.68398374,0.34680033,0.490772,-1.6947753,-0.37574342,0.5002361,1.9868217,-1.6506393,-0.82755274,1.241453,-0.0795039,1.8344134,0.1388824,0.09357166,-0.14407277,0.6533284,2.440771,-0.26808947,-0.09914565,-1.8967412,-0.068371415,-0.32080442,-0.6373782,0.66845703,2.2590904,-0.21268788,1.7628347,-0.523855,0.8686341,-0.14285669};

static float kernel3[FEATURE_MAP3][IN_CHANNEL3][KERNEL3][KERNEL3] = {-0.0008997667,-0.07631367,0.01703334,0.08766923,0.0075815856,-0.04297353,-0.26586002,0.07599077,0.1533808,0.033259414,0.1165694,0.54033095,0.16565125,-0.59027386,-0.3799538,-0.050723296,-0.085785605,0.0043491526,0.019428233,0.08045764,-0.024863834,0.004564424,0.022320941,-0.011725558,0.023787476,-0.026782852,-0.057322398,0.15951493,0.019676661,0.23979782,-0.16834185,-0.022881672,0.2078528,0.356229,0.02533797,0.36778808,-0.8469634,-2.2075691,1.6283554,0.5262522,-0.05963421,-0.3772455,0.19513784,0.42243087,0.117271855,-0.12252597,0.1466949,0.15289475,0.04878446,0.20449017,-0.012795515,-0.15758194,-0.011459169,0.15576452,0.05863887,0.2514469,0.6991763,-0.46568993,-0.55420953,-0.124654375,0.997235,4.05394,-1.216182,-3.7460456,-0.31045994,-0.08867993,0.3155915,0.07750808,-0.28095344,0.023706783,0.030468693,-0.16282043,-0.05056734,-0.014900261,0.112253085,0.010203367,-0.0353204,0.018401764,-0.09640328,0.047460075,0.01734435,0.18489654,0.2950874,0.10315975,-0.012283865,0.08755945,0.118540324,-0.7984718,0.06317024,0.15018037,-0.06992671,0.105027385,0.24652873,0.1955531,-0.02410082,0.0033988336,0.008672175,-0.021065902,0.009825719,0.009509867,-0.008273922,-0.013640212,-0.047591086,-0.036067456,0.015799556,0.0037761794,0.016569223,-0.07542738,-0.019434096,0.049558014,0.07127973,0.08072953,0.061359577,0.17394477,0.09193247,-0.09090624,-0.26237097,-0.57297444,-0.43717095,-0.1768524,0.009048934,0.04233169,-0.044597935,-0.0050402507,0.007985297,0.006487671,-0.01210256,-0.11644836,0.05709926,-0.017465314,-0.034988813,-0.054345153,-0.19751999,-0.10294934,-0.0024559083,-0.04829387,-0.07145166,2.1027424,-0.11241417,-0.035337925,-0.015874913,0.0071665,-0.2285522,0.008184744,-0.030799465,-0.027948381,-0.028122937,-0.08262325,0.0075592515,-0.03910058,0.025648119,0.025988957,-0.1811899,0.024097301,0.007945804,-0.0017478638,-0.0018224224,0.44063637,-0.1604669,0.008644523,-0.09482135,-0.5933322,1.3524482,-0.18050821,-0.06772467,0.07457552,0.15869454,-1.0437846,0.26544523,0.036435664,-0.04369553,-0.0029397344,-0.16769268,-0.089640595,-0.038446613,0.030915242,-0.090987764,-0.051318236,-0.193056,-0.074864246,-0.036473237,-0.10689819,-0.14717147,-0.14148916,-0.09247936,-0.13758259,-0.24078728,-0.33440313,-0.28056335,-0.22885446,-0.1420574,-0.18282788,-0.46197066,-0.29462704,-0.16691744,-0.049009804,-0.08125683,-0.18765782,-0.15597902,-0.13317882,0.02488771,-0.002318142,0.026445778,0.054270376,0.029754946,0.02266781,0.079806134,0.25745338,0.05360854,-0.010037813,0.01759375,0.118688874,-0.2739992,0.0772691,0.0124783255,0.014450039,0.05010634,0.20671277,0.038055446,-0.044811666,-0.004298473,0.037448764,0.003383281,-0.00043799097,0.027217917,-0.07347548,0.0039500967,-0.075328164,0.1377718,-0.07195966,-0.052127592,0.05532767,-0.4924752,0.07911773,0.05044334,-0.1679199,-0.594204,2.030534,0.21844745,-0.013242429,0.21440525,0.2703224,0.35234547,-0.49112782,-0.021484736,-0.100381404,0.056380328,-0.022379495,-0.02970599,-0.11596073,-0.16864873,-0.014116617,-0.14462756,-0.15588748,-0.19317037,0.09341572,0.081196606,0.45273262,-0.3643213,-0.039805938,-0.25622597,-0.66358525,1.1990575,0.2298694,-0.062430058,0.030172443,-0.34663904,-0.12269154,-0.004324126,-0.04428906,-0.14746338,-0.14471096,-0.04345499,0.056841798,-0.10609357,-0.029855832,-0.036895525,-0.07190542,-0.031071018,0.04328572,0.034067076,0.021119073,-0.34561533,0.10886379,0.023758957,0.0006763394,0.12411646,-0.74419594,0.34930277,-0.013304179,0.010077653,-0.022522822,-0.39589882,0.034360398,0.0001371666,0.007333012,0.03383661,-0.060256403,-0.009873376,-0.009847187,-0.034888193,0.04425917,-0.013935479,0.037593897,0.025517214,0.040189613,0.23440641,-0.19287495,-0.045755006,-0.064716935,-0.025143256,-0.34826598,-0.18196414,0.41425878,0.120810814,0.0011534991,0.15239936,0.4079235,-0.23986182,-0.047162853,-0.033942297,-0.041091517,0.07373595,-0.043269277,-0.00043135916,0.033308487,0.07388625,-0.18357642,0.14180519,0.026174828,-0.07182482,-0.17630714,-0.31984827,-0.2499764,-0.080179065,0.018539373,-0.15265486,-0.13063003,-0.008042318,-0.1542823,0.044266652,-0.27731755,-0.1942091,0.056798022,-0.1019869,-0.01955653,0.08663461,-0.03539705,-0.08918429,0.04841665,-0.13844204,-0.17041914,-0.57533705,-0.03451646,-0.0472446,0.04006543,-0.32905066,-1.5048048,-0.30246577,-0.032698154,-0.066963814,0.34961632,1.0965011,0.069409125,-0.17455736,0.041068632,0.42059293,0.95956385,0.248042,-0.12941322,-0.15073128,0.08859538,0.078688756,0.27412528,-0.24415459,0.0044803983,0.20737234,0.62359744,0.10112391,-0.048426736,-0.02109595,0.41907206,1.2963903,0.07692478,-0.065024495,-0.010789966,-0.0039359177,-0.083415836,-0.029209778,0.03766524,-0.08113827,-0.43547052,-1.424845,-0.24962118,0.10903845,-0.07219882,-0.19245428,-0.4837549,0.014199197,0.03757983,0.0029671781,-0.0985531,-1.054356,0.04607853,0.046168614,0.013681674,-0.8633756,-2.574272,-0.36538517,0.08170719,-0.081572056,0.11278655,0.1686393,-0.11269646,-0.020190323,0.09085082,0.69077253,2.7486765,0.33295453,-0.14008233,0.05256466,0.18629599,0.5469967,0.12440752,-0.1197231,-0.007983301,-0.007111042,-0.018221712,-0.032975662,-0.0035209495,-0.0033241594,-0.026189057,-0.18891862,-0.13181755,-0.041974824,-0.055186365,-0.31605574,-0.71346563,-0.4530643,-0.049144372,-0.028571814,-0.07999257,-0.26244372,-0.028571814,-0.008190729,-0.018296173,-0.033316053,0.0035608395,-0.03186938,0.013966788,-0.014087371,0.004941147,-0.119636975,0.00742994,-0.0024578199,-0.008300835,-0.2159529,-0.14633958,-0.10302073,-0.004682429,-0.0021262236,-0.04250261,0.71782184,0.09602442,0.03757604,-0.047691543,-0.22644737,-0.19286506,-0.17467465,-0.03696386,-0.025303338,0.015202408,-0.10383697,0.02203839,0.01582916,-0.19350328,-0.0863902,-0.34421512,-0.17479885,-0.12413544,0.18906265,0.2681864,0.39642602,-0.28554517,0.023111396,-0.1227898,-0.49062094,0.6792799,0.8773584,-0.39265823,-0.112226516,0.09190732,-0.58939105,-0.1073822,0.037947096,-0.06563367,-0.09432948,0.0068585672,0.016214982,-0.0025398985,-0.0050439076,-0.005888676,0.025807418,-0.040153656,0.021914568,-0.009583918,0.07374677,0.119986705,0.020551084,-0.006224607,-0.015462714,0.14456896,-0.16488293,0.22495532,0.036576975,-0.025649333,0.08125582,0.08504987,0.13848269,0.0012276308,-0.01203424,0.010334823,0.015205826,0.06430118,0.023613986,-0.07057614,0.005819436,-0.15188316,-0.24945158,-0.11539818,0.2129666,-0.046142764,-0.11936035,-0.32985058,-0.22699928,-0.2727293,-0.13537411,0.15345152,0.114902906,-0.08291665,-0.057781637,-0.14990208,-0.0677696,-0.119773075,-0.024123833,-0.32720914,-0.3400862,-0.17582126,-0.22617383,-0.077757575,-0.01157152,-0.0137449745,0.037009437,-0.013878538,0.012427545,0.015384172,0.024223696,0.07207612,0.060468175,-0.0040585315,0.018966122,-0.3139488,-0.2818934,-0.20398901,-0.098011866,-0.026202876,0.14007246,0.41652614,0.09670051,-0.033803895,0.0036548034,-0.0062471638,-0.086549625,-0.059156816,0.026251445,-0.011708321,0.1273921,0.07294449,0.17133959,0.014229043,0.036333174,0.13559748,0.48425686,0.34712955,0.044677634,-0.0021936805,-0.22210172,-1.7501115,-0.402203,0.035168424,0.09943815,0.25895643,0.60469526,0.23781712,0.10159381,0.077047184,0.09658713,0.0815671,0.15478975,0.020322239,0.06863692,0.09832299,-0.10302813,-0.050301403,-0.066551134,0.3731132,0.6259299,0.24447355,-0.9088207,-0.41948557,0.7097494,2.3127973,0.097158834,-2.368677,-0.89097023,0.19800417,0.4175453,0.01610421,-0.5533639,-0.20023547,0.02973458,-0.1355276,-0.104192294,-0.028036848,0.010944314,-0.011948407,-0.0155013185,0.08299401,0.0076747965,-0.03345554,0.01858641,-0.0053167245,0.022518637,-0.007946638,0.02471866,0.033177372,0.32894152,-1.0163605,0.17792378,0.03211529,-0.05694775,-0.2504487,1.0592483,-0.19501822,-0.044708535,-0.018674918,-0.03302565,0.059982263,0.005572762,0.0048647085,0.009652478,-0.014082512,0.010625702,-0.024591215,0.010498066,-0.0034435147,0.08721798,0.091047056,0.03637628,0.007908118,0.029505203,0.2608881,-0.11257501,0.27433243,-0.022676675,-0.010801202,0.06190349,0.09547178,0.049565338,0.010955429,0.021251405,-0.010716111,0.009030252,0.0035392416,0.031823926,-0.048967797,-0.12978561,-0.4776214,-0.1499659,0.021856595,0.05531846,-0.41314766,-1.8083591,-0.19999751,-0.0104447445,0.04306845,0.0077690845,-0.111217186,-0.0024500017,0.0024963422,-0.054351356,0.41443714,1.9321487,0.15112643,-0.13423431,-0.014812839,0.05644675,0.4611161,0.097935595,-0.03283325,-0.11125925,-0.15487288,-0.27532956,-0.059078664,-0.050511703,-0.08522459,0.09071338,-0.24803397,-0.104806215,-0.06890657,-0.118305676,-0.04609842,-0.112594366,-0.1780148,-0.1539828,0.019340567,-0.014537876,0.07087214,-0.017875653,-0.042501036,-0.006351049,0.0019296526,0.04702558,0.054628294,-0.046617627,-0.062166624,0.028880123,0.0074449396,0.05357419,-0.0005505101,-0.0117044365,0.1327788,-1.1715086,0.1935868,0.032919303,-0.021224044,-0.11765024,1.0340296,-0.12161598,-0.07821318,-0.034314655,-0.077919416,0.0695473,-0.15598571,-0.017864183,0.0030523334,-0.0117044365,-0.04736854,-0.061799426,0.0036421453,0.01773613,0.025168044,-0.07053235,0.02494908,-0.011218714,-0.010323536,0.1672374,-0.5737387,0.01771037,-0.040341,-0.12128061,-0.46451402,-0.21659459,0.6536994,0.025554452,-0.04374139,-0.039568186,0.41051993,0.08665845,-0.050207287,0.039490905,-0.08830712,0.078518115,-0.00024593264,0.006433694,-0.03791687,-0.0035385771,-0.037976425,-0.10418206,-0.054473244,0.0017990662,-0.054632057,-0.09044464,0.14563255,-0.0038636497,0.015633265,0.027693212,-0.74197954,1.4089988,-0.012576093,0.07122813,-0.025549222,-0.14888823,0.2993646,-0.020070134,-0.046095796,-0.018472066,-0.14817357,-0.029737944,-0.0031911712};

#endif
