#pragma once

#include "parameters.h"

#ifndef KERNEL35_H
#define KERNEL35_H

static float bias35[FEATURE_MAP35] = {-1.494843,0.638887,0.34001398,-0.01750952,-0.18567033,-0.59861505,-0.8800517,-0.7436269,0.10325986,0.035103634,-0.0484412,-0.5507082,-0.2172661,-0.612953,-0.5247376,0.42793044,0.64666337,0.13069262,-0.08558352,0.5418756,-0.32558894,-0.93441224,-0.03864932,-0.78133154,0.10729121,-0.65597486,-0.24603611,-0.34331742,0.0025989837,-0.78435993,-0.08808553,-0.11016899};

static float kernel35[FEATURE_MAP35][IN_CHANNEL35][KERNEL35][KERNEL35] = {0.023250876,-0.08931755,0.1066255,-0.07836654,-0.027003603,-0.033413954,0.012867443,-0.0700865,0.0056224116,-0.067255266,-0.0009924358,0.07355878,-0.055502955,-0.021461321,0.08621922,-0.0068577398,-0.068216816,0.015945747,-0.10123012,-0.048104342,0.029674582,-0.15555784,0.060043618,0.025815018,-0.07371903,0.090439364,0.025427725,-0.02852606,0.062981695,0.037954617,-0.032959886,-0.023077263,-0.009602171,0.055663213,-0.015157809,0.0039163237,-0.03779436,-0.056891862,-0.036966357,-0.07046044,0.034028277,-0.023811782,-0.112822175,0.0145034185,-0.018630082,-0.04775711,-0.060577814,0.0651719,0.16656227,0.022730036,-0.031544268,0.11837781,-0.04516626,-0.056945283,0.118057296,0.042495284,-0.060577814,0.009688978,-0.0032836355,0.049920607,0.0338146,0.015932392,0.1014438,-0.008620586,-0.00489457,0.008286714,-0.040732436,-0.03803475,-0.0430829,-0.11314269,-0.015451617,0.04666201,-0.04126663,0.010824145,0.036058225,-0.022235904,0.024332624,-0.06832366,0.010143044,0.02203558,-0.025320886,-0.110151194,-0.02475998,-0.033307113,0.051362935,0.009775785,0.09920018,-0.0021150818,0.018803695,0.099787794,-0.028018575,-0.012760605,-0.014022643,0.11164694,0.051496483,-0.017201107,0.054167464,0.011511922,0.07115489,-0.031517558,0.028713029,0.113783725,-0.041213214,-0.015211228,-0.012339925,0.008613909,-0.051469773,0.072330125,0.0012069489,-0.10828151,0.060310718,0.059349164,0.0046341494,0.052003972,0.05582347,-0.03656571,0.04839815,0.06121885,0.032933176,-0.05077532,0.076443434,0.0052852007,-0.044658776,-0.09385822,-0.049813766,0.05296552,-0.007338516,-0.010236529,-0.019341495,-0.033982657,0.029225465,0.0058469884,0.0033238754,-0.036541305,-0.0029661383,0.049391415,-0.031670395,0.02920651,-0.12508954,-0.0007723331,-0.015133939,0.021284174,-0.028998028,-0.021871716,0.0064013624,-0.037185706,0.016489075,0.056555633,-0.03976331,0.044160396,0.009296427,0.078313634,-0.015967868,-0.018583378,0.08695618,0.047799364,0.0044421,-0.020128043,-0.021284174,0.01671651,0.06898878,0.025851838,-0.026496239,0.0006521003,-0.025643354,-0.07907175,-0.017569395,0.04135536,0.012110941,-0.07387864,0.010187216,-0.00899318,-0.04014237,-0.057616998,0.08566738,-0.05416756,0.018668666,0.06409891,0.037432097,-0.0030064133,0.07914756,-0.041848134,0.0049467226,2.902172e-05,0.05519102,-0.10029907,0.039990745,-0.006984166,-0.0070173335,0.016517505,0.0012189122,0.015569856,0.013115448,0.01763573,0.07152847,0.037811156,-0.05223436,-0.085894816,0.038398698,-0.039725404,0.04199976,0.09969257,0.0084340675,-0.009173233,-0.063681945,0.034361716,0.0035513109,-0.015086556,-0.06011879,-0.047723554,-0.00363423,-0.072741464,0.022042293,0.04829214,0.021568468,0.06076319,-0.024942096,-0.046700094,-0.06512237,0.07095988,-0.08308978,0.009007394,0.020980926,-0.031329244,0.010973764,0.026534144,0.049846284,-0.022970987,0.08521251,0.049505133,0.045676634,0.025396967,0.036067482,0.008988441,-0.06553934,0.012603719,0.047723554,0.0054252846,0.04563873,0.097721465,0.005624291,0.020563962,0.034210093,0.06951946,-0.049543038,-0.021075692,0.04730659,-0.020848256,0.015266609,-0.054091748,0.069102496,0.026287755,0.014631685,-0.06394729,0.04309903,0.0589058,-0.050544616,0.05188759,0.08920596,-0.045498293,0.071177565,-0.016156372,-0.04387045,-0.021182345,-0.019045798,0.024580473,-0.016573505,0.021284085,0.06250928,-0.03994327,0.044643674,0.05652695,0.012035886,-0.029402968,0.030990116,0.016970294,-0.06560219,-0.049812086,-0.07618319,-0.014904964,-0.035873655,0.08200274,0.04850981,0.0023603765,-0.10784479,0.0046826005,-0.004888625,-0.017947001,-0.0074372212,0.06491036,-0.042323995,0.06560219,0.062061626,-0.07243914,0.037277672,-0.010784479,0.00076877564,0.065032445,0.012900679,0.03284179,0.026879806,0.038315423,0.07475883,0.032068565,-0.016298808,-0.07512509,-0.02492639,0.061288398,-0.0075491355,0.023522373,-0.023115411,0.014080867,-0.0017486626,0.026818762,-0.047940064,0.07451465,-0.08920596,-0.014884616,-0.021406174,-0.020592252,-0.032027867,0.06857301,-0.008205361,0.06084074,0.069346234,-0.058602452,-0.033655714,0.033024926,0.016288633,-0.045783166,0.006394382,-0.04153042,-0.009451681,0.014243652,0.08314223,-0.06914276,0.055753723,-0.0025117153,0.09685683,-0.01161875,-0.031600557,0.07569484,-0.05673043,-0.014202956,-0.006608037,0.032068565,0.034205113,-0.03518182,0.03719628,0.02144687,-0.0056618517,0.08171786,0.0015578994,-0.038783427,0.045701776,0.0044740327,0.016644724,0.003161582,-0.017102556,0.08749672,0.020531207,0.038539253,-0.08037489,0.061044224,-0.05725948,0.04236469,-0.08151438,0.0004079153,-0.034184765,0.0032277133,-0.069020666,0.012422499,0.03245518,0.035588782,-0.054247964,-0.016013933,-0.03833577,-0.055957202,0.08253179,-0.047695886,-0.012361455,0.06279416,0.00877002,0.0012157974,0.011458304,0.080976896,0.044271275,-0.014289323,0.042684928,-0.008682197,0.06901828,-0.008163584,0.058231127,0.0047803945,0.033752576,0.05920734,0.0677492,-0.06857899,0.063161,-0.052227415,-0.07316719,0.014557782,-0.06628489,-0.00933504,0.02145229,-0.000136136,-0.006192853,-0.07067785,0.029872129,0.019731712,-0.015912278,0.072532654,0.06281933,-0.07238622,0.060232364,0.08043998,-0.12729822,-0.057401344,-0.07838993,0.1152908,0.000396968,-0.028310187,-0.075070806,0.0052654506,0.04041523,-0.03990272,-0.034728788,-0.10094046,-0.048517805,-0.023514539,-0.0060464214,-0.037364565,0.015216726,0.08732228,0.061696682,0.0686278,-0.099476136,0.0028111893,-0.019573078,-0.10142857,-0.037633024,-0.05657156,-0.038536023,-0.0123124905,-0.04644335,-0.06960401,0.02178176,0.12319812,0.020927573,-0.09186167,0.040195584,-0.038145535,0.09064141,0.015289942,-0.048200533,-0.019524267,0.019890347,0.054375082,0.05481438,0.12358861,0.059353773,-0.03929259,0.01893854,-0.051397633,0.03785267,0.035485353,-0.015497386,-0.08888423,0.024612779,-0.0686278,0.04868864,0.07658394,-0.07487556,-0.05193455,0.09464388,-0.10855492,-0.07180049,-0.03070191,0.0512512,0.010927488,0.014777429,-0.036071084,-0.033386495,-0.04932318,-0.098939225,-0.038780075,-0.043685548,-0.067895636,0.0489571,0.009737728,0.00329472,-0.030091776,0.014374741,0.050177366,0.045637973,0.06369792,-0.03436271,-0.061794303,0.04290458,0.053984597,-0.005793216,-0.032776363,0.059353773,-0.047980886,0.08268527,-0.019731712,-0.0026144213,0.037511,-0.017669462,0.034997247,0.07219098,0.031873364,-0.013051506,-0.02966338,0.04264825,0.06313464,-0.09100831,-0.022333212,0.102736585,-0.0038388183,0.07193084,0.011166606,-0.0630204,-0.046303812,0.005397669,-0.0027035943,-0.045961104,-0.14066306,-0.021190848,0.09055137,-0.08316408,0.020581588,0.04546608,-0.012718317,0.019972326,-0.03274776,0.019048916,-0.14675567,-0.08826664,-0.032671604,-0.008006066,-0.0077109556,-0.002302577,0.022047622,0.033947244,-0.07928005,-0.066066705,0.037450492,0.08461108,0.051977552,0.049502432,-0.046265732,-0.0005244759,0.0038697573,-0.06663789,0.013346617,-0.026883628,-0.05989794,-0.06934148,0.0644674,0.008429693,0.014117712,0.020905258,-0.024465624,-0.067437544,0.04737002,0.014041555,-0.02838774,-0.052434497,0.023532694,0.04078239,-0.041201252,0.003850718,0.09420694,0.004321943,0.12779243,0.053196073,0.009538738,-0.021343164,-0.10357432,-0.036060616,0.054109965,-0.02305671,0.027511928,-0.03149116,-0.017382968,0.020924296,-0.041315492,0.0852965,0.005388149,-0.03219562,-0.0650005,0.071093105,0.083697185,0.028749488,-0.017525764,-0.04074431,-0.014536579,0.04771273,-0.06092607,-0.043714456,0.04672268,-0.018420616,0.007858511,-0.022447448,0.034328032,0.007353967,0.07387286,-0.008386854,0.0064210366,-0.08316408,-0.10197501,-0.06580015,-0.07063616,0.038326304,-0.04645613,-0.037983596,-0.057994,0.07680493,0.013965397,0.043409824,-0.019972326,0.07676685,0.038954604,0.06686636,0.056432772,0.0076871566,-0.03442323,0.06256346,-0.025798382,0.07162621,0.017839914,-0.064277,0.041277412,-0.12962021,0.0050977985,0.058260553,-0.07859463,0.0017908933,-0.08293561,-0.103665575,-0.02972649,-0.004034931,0.012938856,0.030500114,0.039242063,0.057248153,0.015269398,0.012271605,-0.05647453,0.022261022,-0.0031452638,-0.06285693,-0.019350262,0.024233762,0.0261098,-0.10389766,-0.0437871,-0.022783218,-0.009003046,-0.055430137,-0.07055448,0.0025505405,0.0022543878,0.06533252,0.0026690017,-0.04413523,0.048583567,0.03750141,-0.01730016,0.0014807641,0.09182913,0.031273738,-0.0026085624,-0.016603898,-0.030268027,-0.07411315,0.08556278,-0.003416032,-0.08471179,-0.0192729,-0.0789483,-0.0024852662,-0.012474682,-0.008577553,0.008045686,0.041736998,0.026980126,0.02972649,0.07036108,-0.07821336,0.07148283,-0.038758546,0.029030228,0.049821366,-0.062121984,-0.082158834,0.0631277,0.01995949,-0.060497373,-0.02974583,-0.07415183,-0.014573136,-0.006435582,-0.043864463,-0.022299703,0.015607858,0.037636794,-0.015559507,-0.018692682,0.030132642,-0.05152334,0.05094312,-0.025026726,0.011372268,-0.036128227,-0.09832757,0.009868537,0.06564197,-0.05686134,-0.0010885127,-0.07952852,0.03200868,-0.0036239435,0.027579684,-0.025974415,0.02576167,0.1476074,0.046185333,-0.021700144,-0.013664128,-0.028217925,-0.0034015267,-0.074035786,-0.014679509,-0.04931851,-0.016130054,0.07295271,-0.0822362,0.013383689,0.085794866,-0.00093499676,-0.0035272406,-0.07121206,0.08401553,0.029591106,0.06935536,-0.011275565,0.009723483,-0.044251274,-0.053689484,-0.014225005,-0.00036052073,0.038081627,-0.062160663,0.1319802,0.07001294,-0.032144066,0.04401919,-0.014969618,-0.08331927,-0.048815656,-0.074964136,-0.018799055,0.032820985,0.0005285421,0.04247194,-0.031757254,-0.021156454,-0.0047154506,-0.1257133,0.053581934,0.003877482,0.014596872,0.0020063191,0.06573999,0.059204433,-0.025589578,0.08760526,-0.032004993,0.015377775,-0.038780827,-0.040823188,-0.058003046,-0.062424153,0.009172603,-0.009142567,-0.09827359,0.056897767,-0.0102898935,0.061559156,-0.046493743,-0.000517348,0.04435527,-0.034672078,0.03186083,0.038564578,0.013984164,0.042433046,-0.07501471,0.01186972,-0.060838323,0.047310684,0.015978469,-0.048728324,0.01656715,-0.048584156,0.0032827945,-0.06376971,0.00890229,-0.09471748,0.013563678,0.03118805,-0.06646082,0.058003046,0.054206654,0.005769669,-0.06655693,-0.029698327,-0.03428763,0.01641097,-0.004820572,-0.05449499,-0.068815544,-0.006901978,0.005673558,0.005652534,0.03541694,-0.038324296,0.05569638,0.05622499,0.029482078,0.08625971,-0.07025721,-0.042793464,0.037819713,0.022417912,-0.027968328,-0.049833603,0.0034660064,-0.09635137,-0.029962633,0.028689161,-0.029049577,-0.04529235,-0.05622499,-0.12974997,-0.05901221,-0.03452791,-0.054446936,-0.0010316925,0.0016444008,0.030250967,-0.009725241,-0.03712291,-0.003171666,-0.037819713,-0.030034717,0.027728051,0.0003583517,-0.013960136,0.06862332,0.07828248,0.0051299296,-0.0039765965,0.005970902,0.0057456414,0.10495331,0.07174693,-0.0020678903,0.0114312135,-0.045172215,-0.0279443,-0.06304888,-0.0004955728,0.0033008154,0.0023622306,-0.010181769,0.054110546,0.0073224637,0.0076888874,0.028881384,0.028424855,-0.007622811,-0.012128019,-0.049353044,0.028328745,0.0066076377,0.00027106333,-0.020916177,-0.023571245,-0.031236105,-0.018405274,-0.07857082,-0.001528767,-0.04043874,-0.09380297,0.012429111,-0.022519642,0.00033935098,0.122905284,-0.052574705,-0.025832629,-0.0747912,-0.0038272566,0.010853819,-0.09016518,-0.045039285,-0.07085026,-0.028214514,0.07102349,-0.0010258347,-0.033411354,-0.012017694,-0.012201749,-0.05798808,0.0009020037,-0.028777504,0.017983234,-0.047031406,0.01539564,-0.048330616,0.046511725,0.0048666247,0.004171006,-0.016185993,0.09986596,0.055432968,-0.0933699,-0.055736117,-0.050409354,-0.031202698,0.007318884,-0.012093482,-0.07349199,-0.0772597,-0.025940897,-0.10731476,-0.053137697,-0.042354252,0.068035305,0.06755893,0.043112125,-0.07284238,-0.024684994,0.028647585,0.08574787,0.06786208,0.0140964305,0.058551073,0.050669197,0.0343208,-0.049240064,-0.0060629807,-0.058031388,-0.051578645,-0.07336207,-0.046511725,-0.056775484,-0.0047637704,0.07548411,0.12636985,-0.030033408,0.08509827,-0.055086512,-0.041206617,-0.014085604,0.039106227,-0.0686416,0.051838484,-0.024338538,-0.048417233,0.01233167,-0.03683261,0.048200697,-0.035381824,-0.004777304,0.053873915,0.014421233,-0.0133926915,-0.06149595,-0.019932048,0.10930688,0.10835413,-0.057381783,-0.043047164,0.014442886,0.020689921,-0.039084572,0.09466911,-0.048200697,-0.022606257,0.00898079,0.01573127,-0.032501906,0.011801159,-0.0355334,0.009457167,0.058464456,-0.033281434,0.021913344,0.025247984,0.024814915,-0.059460517,-0.03429915,0.028755851,-0.017636778,0.060369965,-0.0711101,-0.05175187,-0.003077504,0.024641685,-0.03449403,0.023515703,-0.051275495,0.086354166,0.008845456,0.02429523,-0.13823596,-0.0057002846,0.010972912,0.014919263,0.057381783,0.011692892,-0.00018716072,0.0096705435,-0.014472847,0.085144736,-0.104529776,0.04050639,0.012406867,0.0031841362,0.015857494,0.05270446,-0.009796919,-0.002541265,-0.09143059,-0.06611135,-0.03136333,0.032066643,-0.015637707,0.06690258,-0.09459549,-0.056308936,0.05727599,-0.0579793,0.09099102,-0.037605226,0.059385926,-0.016714655,0.07806766,0.043077875,0.0046512014,-0.018659752,0.015725622,0.02986879,-0.05863866,-0.014516803,0.04655048,0.013275018,0.04589112,-0.025517046,-0.03727555,0.0055633094,-0.018791623,-0.012879405,-0.11129916,-0.06527617,-0.0032830394,0.03857228,0.07463901,0.02268182,-0.03578101,0.014857471,0.1015407,-0.039539333,0.021692786,-0.094419666,0.04773732,0.02547309,0.00033379858,0.018220183,0.06017715,0.016275084,-0.01928614,-0.065012425,-0.010252973,0.023209304,0.036352452,0.035385396,-0.11745314,-0.026418166,-0.06435307,0.0033269965,0.009181521,-0.050726395,-0.058770526,0.026176402,0.07081475,0.047385663,-0.10751886,-0.05591332,0.05415504,0.031736962,-0.010049672,-0.0050880243,0.0010645839,-0.07292469,0.020363087,-0.023055455,0.016297063,0.022286206,-0.05622102,-0.026242338,-0.032022685,-0.13002485,-0.07085871,-0.10110113,-0.019681754,-0.051429708,0.028000617,0.030813867,-0.10118905,-0.04446252,-0.06721027,0.029978683,-0.047385663,-0.022901604,0.050023083,-0.036374427,-0.01617618,-0.029143501,0.026330251,-0.047385663,0.051122006,0.069408126,0.08787007,0.06514429,-0.012868416,0.021824658,0.03887998,0.061320033,-0.054462742,-0.08523265,0.046594433,0.04549551,-0.011648608,0.0041951477,0.045143854,0.0170773,0.053847343,0.007708961,-0.027556034,0.071010634,-0.0066003473,0.02773367,-0.041789245,-0.0793596,-0.044942312,0.04336578,0.051559314,-0.07292023,0.0034028704,0.020206276,-0.033062797,0.026667845,0.021383125,0.084733136,0.07753881,-0.03510563,0.0015751459,0.022360133,-0.012601167,-0.107826024,-0.0170088,-0.027222963,-0.016731242,0.030820124,0.028466426,0.006428261,-0.013644788,-0.08175771,0.06070765,-0.01814124,0.041367356,0.015809746,0.05546734,0.019584546,0.081269205,-0.010075383,0.033751145,-0.01582085,-0.056488756,0.022937456,0.03741492,0.049871758,-0.011502035,-0.020261789,-0.025801862,0.07340874,-0.08402259,0.00396909,0.1209712,-0.010902508,0.024291942,-0.06412718,-0.024358556,-0.059641823,-0.10596083,-0.10045406,0.022759818,0.044942312,-0.026534617,-0.011307743,0.0027700365,0.060396783,0.11057941,0.0038414132,0.0070555434,-0.019751081,0.000538117,-0.002858855,0.033884373,0.009325974,-0.068523705,0.034128625,0.10072052,-0.013877938,-0.047073964,-0.049649708,0.035793975,-0.07771645,-0.056399938,-0.06306135,-0.0061062924,-0.021860527,-0.05777663,-0.055644978,0.033329256,-0.027889103,-0.083844945,0.040212713,0.07918196,-0.043121528,-0.06936748,-0.050093804,0.09246037,0.10969122,0.012789907,-0.006905662,-0.04420956,0.010830343,-0.04645223,-0.022826431,0.0040523577,-0.01407778,0.04605255,-0.051514905,0.033395868,-0.02518013,0.00015413185,-0.07287583,0.0056288913,0.039768618,0.09556903,0.001244851,0.06523741,0.03783681,-0.09894414,0.0671026,-0.047740106,-0.054978836,0.02702312,-0.020750292,0.12736616,0.002105283,-0.01313408,-0.0883303,-0.0377924,0.08939612,-0.11333364,-0.025747601,0.022984983,-0.04137297,-0.026101217,0.036422357,-0.06899915,0.025902307,0.009182943,-0.07505481,0.020752788,0.06736368,-0.0818177,-0.019283075,-0.07505481,0.011437239,-0.0031300464,-0.030344598,-0.17963648,0.0007055036,-0.02713996,0.088315375,0.04459971,-0.011105725,-0.015581166,-0.091851525,0.021703128,0.06449056,0.057374053,-0.046190973,-0.04729602,-0.052246634,0.020664383,0.0116582485,0.016929325,-0.018608995,0.04566055,0.023272295,-0.012906952,0.021040099,0.08530965,-0.06758469,-0.019205721,0.05980516,0.009293447,0.0016810531,-0.0015042456,-0.0397817,0.06431375,-0.078988776,0.058346495,0.050655365,0.024598353,-0.054368325,0.035958238,0.039803803,-0.05816969,-0.016575709,0.023007084,0.010138809,-0.036400255,0.034654282,0.007320938,0.048091657,0.023736415,-0.002073345,-0.030919222,0.01943778,-0.029814174,-0.020830141,-0.0111444015,-0.028620724,-0.028576521,-0.09070228,-0.0468098,-0.022134097,-0.088226974,-0.026300125,0.019095216,0.0009013042,-0.05282126,0.06475577,-0.06267828,-0.115013316,0.010039355,-0.0234049,-0.066126026,-0.023692213,0.00843151,0.0065308292,0.016255245,-0.13446215,0.03414596,-0.026941052,0.029792074,0.058611706,-0.1006035,-0.067938305,0.048047453,0.0022473899,0.008044744,0.06360652,-0.024974069,-0.023183892,0.026786346,-0.03531731,-0.001939358,0.021227958,-0.00028696697,0.028090302,0.06594922,0.009840446,-0.055959594,0.028222907,-0.0013958128,0.04303054,-0.03173696,-0.06409274,0.021548422,0.016553609,-0.008503338,0.047959052,0.014332463,-0.059760954,0.057550862,-0.10900186,-0.05454513,0.099984676,-0.069217466,0.030289806,-0.0757914,0.018412763,0.00513589,-0.0016422904,0.0011227294,0.039596517,0.015851984,-0.041545767,0.03634777,-0.01861342,-0.03059557,0.023390993,-0.07544742,0.091652945,0.047890384,-0.005537206,0.0002397744,0.0022299318,-0.05087159,0.0026324422,0.045291383,-0.09562788,-0.009125163,-0.033099018,0.010147563,0.021613736,-0.083091535,0.08194491,-0.06879704,0.058018833,-0.019416053,0.10350132,0.037685487,0.03569802,0.043380354,-0.018135663,-0.10503014,0.053394146,0.038220577,-0.039940502,0.038067695,0.040169824,-0.05454076,0.070249416,-0.0012648623,0.036271326,-0.012173253,0.066618465,-0.0358509,-0.042692382,-0.0026921618,0.021843059,-0.040093385,-0.038889438,0.038239688,0.024174515,0.035870012,0.07120493,-0.025989993,0.097615354,-0.03716951,0.04177509,-0.01491558,0.06860594,0.0012141005,0.042004414,0.017132374,-0.058133498,0.043380354,-0.0029310405,-0.03514382,-0.03199062,-0.043303914,-0.11290358,0.117260724,-0.03967296,0.0069943652,-0.04980141,0.009172939,0.041507546,-0.102507584,0.031417314,-0.022932345,-0.111527644,0.030996887,0.024308287,-0.03183774,0.037589937,-0.10029079,0.05247685,-0.057560187,-0.019779148,0.0015992923,-0.04701131,-0.0065166084,-0.0807983,0.03986406,-0.03583179,-0.016750168,0.038736556,-0.031608418,0.0352967,-0.0029835938,0.042157296,0.027079279,-0.0648221,0.04093424,0.0993735,-0.008886284,-0.00090116955,-0.03369144,-0.05767485,-0.017113263,-0.06799441,0.03852634,0.0531266,-0.09853265,-0.001786812,-0.06784152,-0.075179875,0.06524252,-0.09906773,0.028913867,-0.027671697,0.040704913,0.002018524,-0.045926396,-0.098413706,-0.044634096,-0.03548858,0.080619715,0.023460237,0.03789922,-0.038222294,-0.04267079,-0.07425761,0.005700415,-0.08027179,-0.024367334,0.06377009,0.00782215,0.09851312,-0.015196965,0.020378595,0.07445643,0.09975571,-0.04008619,-0.09920897,-0.0082508465,-0.061334603,-0.076146364,-0.0060483427,0.045553617,-0.016812341,-0.01021415,-0.13191412,0.07217005,0.01635258,0.104875214,0.13111886,0.010021548,-0.022416456,0.027983291,-0.064416245,0.00998427,0.050275486,0.04687077,-0.08116645,-0.032208122,0.03692999,0.02974778,-0.010649059,-0.07470495,0.0402353,-0.10278765,0.057557106,0.05974408,0.08961612,0.027660217,0.04992756,-0.05402813,0.021993972,-0.13082065,0.06595706,0.11451777,-0.0090833865,0.04508143,0.06794522,-0.047864847,-0.016712934,0.02989689,-0.09513325,0.08066942,0.019608187,0.02654188,-0.013047271,-0.005352488,-0.011947573,-0.07833333,0.039763115,-0.09155457,0.027113473,0.0816635,-0.0043553035,-0.07321383,0.0053866594,-0.0029931064,0.029921744,0.011357339,-0.10547166,-0.059296746,0.0137555525,-0.008045818,0.079377115,-0.12197335,0.04227316,0.09846341,0.0077289552,-0.028828258,-0.07221976,0.0016728466,0.05696066,0.026740694,-0.072120346,0.059445854,-0.042844754,-0.019869132,-0.002159013,0.026069691,-0.11272843,-0.0006484805,-0.04326724,0.007859428,0.006101153,-0.044385575,-0.015333651,-0.0054829605,-0.029275592,-0.07480436,-0.0087665245,0.007399667,-0.030990377,-0.034320537,0.020167354,-0.062229272,-0.025945432,-0.01953363,0.015321225,-0.02592058,-0.065658845,0.064664766,0.08012267,-0.003016405,-0.007523927,-0.048585758,0.031044638,0.015129775,-0.056930125,0.06029479,0.016599013,-0.060339652,-0.060608823,-0.029407168,0.05029052,0.06693439,0.043269586,-0.06047424,0.060070477,0.10237553,-0.03781883,-0.022610545,0.016116744,0.054372977,0.08039305,-0.07204869,-0.00020924008,0.04297798,0.08021361,0.017227083,0.08815421,0.055315085,-0.0014061494,0.03191945,-0.087974764,0.021309542,-0.06540908,0.015937295,0.021444129,0.011753894,0.02983336,-0.04849603,-0.06881861,-0.024203153,0.031784866,-0.03781883,-0.08070709,-0.029048271,-0.0018099091,-0.04575944,-0.03983763,-0.14813496,-0.052443907,-0.049348414,0.08205295,-0.058320854,0.046970718,0.028599648,-0.064511836,0.05356546,0.04560242,0.013223132,-0.006112474,0.049617585,0.022016121,0.0054255216,-0.124986075,-0.00026829695,0.06635118,-0.05639178,0.0059722797,-0.037684243,-0.066126876,0.010907121,0.024786362,0.06321083,0.085821375,-0.0421256,0.008523817,0.011333312,0.06572311,-0.057109572,0.00695364,0.09268529,-0.01360446,0.021746948,0.051008314,0.015398948,-0.0310895,0.120769024,-0.035912186,-0.05944241,0.038805798,-0.069446675,0.02259933,-0.029339874,-0.08568679,0.03187459,-0.019369252,-0.07671435,0.034184992,0.04827172,0.006628389,-0.056795537,0.01615039,0.056974985,-0.053430874,-0.04706044,0.057289023,0.004923626,0.01058187,-0.022789994,-0.017372884,-0.027926715,-0.02065904,0.11529584,-0.04582673,-0.04786796,0.03333261,-0.0109127285,-0.10506726,-0.09156374,0.095556475,0.042192895,0.034386873,0.07447124,0.036315948,0.05293739,-0.04380793,-0.02779213,0.008523817,0.038289882,-0.04107134,-0.06745277,-0.04569605,0.04399847,-0.062498614,0.07015504,-0.10594277,0.0023926334,0.067591354,-0.035579864,0.070951864,-0.05276352,-0.017495455,-0.09284717,-0.09922175,-0.01591047,0.051550962,-0.0015784884,-0.069808595,-0.006145062,-0.004672672,-0.0023320056,0.049229786,-0.027992727,0.06499302,-0.1013697,0.050026607,0.03772782,0.021271702,0.078781515,-0.025931383,-0.026347116,-0.015243565,0.01303498,0.016395492,-0.090214185,0.007955235,0.018171022,0.022692125,-0.05501541,0.06506231,0.034731075,0.047740072,0.036584556,-0.0327217,-0.0029079698,0.010670495,0.099429615,0.06921964,-0.018448178,-0.030712318,-0.01365858,0.0560201,0.0033583478,-0.01730491,0.021271702,-0.05796019,-0.04288985,0.030591063,0.0035488924,0.009613839,-0.018015122,0.08189952,0.044726003,0.012116902,0.03561451,-0.010410662,0.036723133,-0.08342387,0.033345297,6.698832e-05,0.031006796,0.07746502,0.02723055,0.03400354,0.026399082,-0.02700536,0.008015863,-0.034194086,0.0189332,-0.062948994,0.05276352,0.017668677,0.06343401,-0.036723133,-0.012619247,-0.01567662,-0.04385989,0.07282267,0.049472295,0.051031295,-0.017625371,-0.011398029,0.02412987,0.017287588,-0.010835056,0.023523591,-0.03064303,0.034938943,-0.05401072,-0.0010485364,0.023731459,-0.0882741,-0.007803666,0.03637669,0.0102634225,-0.02932654,0.083354585,-0.013130252,0.04607714,-0.03072964,-0.026624272,-0.04638894,0.022674803,-0.012021629,-0.0907685,0.065997705,0.07084793,-0.031682365,-0.074832045,-0.015590009,-0.05903417,-0.005417528,-0.04638894,0.053976078,-0.045765337,-0.027594317,-0.037970334,-0.008557183,-0.09445858,0.037881043,-0.052184988,0.0113568045,0.025998635,-0.052485332,0.048843645,0.039908376,0.04749209,-0.0035149779,-0.05687788,-0.035046536,-0.091680385,-0.027218787,-0.04617808,-0.043137085,-0.0053968285,0.039232597,-0.08537313,-0.005908354,0.007949763,0.10084092,-0.06566298,-0.012896074,0.04831804,0.028101051,-0.006438651,-0.004676469,0.024234107,0.09258142,-0.10849972,0.050345372,0.021568542,0.027763164,0.02855157,-0.040058546,0.023520786,0.015514709,0.009343552,0.029996982,0.003400002,-0.0033460336,0.084997706,-0.04328726,-0.040771868,0.087400466,0.009733063,-0.004512218,-0.10594679,-0.008634926,-0.025360402,0.017438795,0.029171031,0.09100461,-0.051922183,-0.031930454,0.0014641831,0.04700403,0.10136652,-0.015026648,0.03889471,0.06720225,-0.07748907,-0.029752951,0.012501871,-0.05188464,-0.0559393,-0.013459221,0.029752951,0.036717206,0.03831279,0.056202102,0.00093329936,0.029996982,0.022544665,-0.014360257,-0.010690413,-0.052973393,-0.004507525,-0.005697174,0.00499324,0.082369685,0.06588824,-0.08514788,-0.015908912,-0.033244465,-0.06457423,0.027031071,0.031217134,-0.044000577,0.04339989,-0.01749511,-0.013065018,0.025360402,-0.10504575,0.014538587,0.0051340265,-0.052335158,0.012867916,0.0015709464,0.015045419,0.033113062,0.032418516,0.022188004,0.032869034,-0.032118168,-0.025660748,-0.031123277,0.028514026,0.03510285,-0.022037832,0.026017407,0.049219076,0.014238242,-0.06431142,-0.038819622,-0.001443065,-0.025266543,0.057178225,-0.00014327993,-0.027650533,-0.014181927,0.01575874,-0.0040570074,-0.053010937,0.014050526,-0.05879258,0.04565248,-0.041020457,0.02167318,0.0568084,0.06785056,-0.043369852,-0.027182514,0.022530708,0.023059323,0.09735898,0.03754335,0.068226464,-0.036133714,-0.086786695,0.057748158,-0.028545164,-0.081054166,0.026759623,0.10591078,-0.057231292,-0.16041677,0.09125055,0.0026195766,-0.01618734,-0.029696368,0.032445163,0.033102993,-0.023223782,-0.057325266,-0.02466866,-0.028921066,-0.031340946,-0.008763248,0.00049520866,0.020334024,-0.030730102,0.016434027,0.054646954,0.044427082,0.009550296,-0.004129064,-0.06413852,0.0061025564,-0.018607218,-0.054881893,0.006672285,0.04719937,-0.08537706,-0.0070951763,0.01727981,0.00349179,-0.02004035,0.09374091,-0.012733727,0.014014148,0.107132465,-0.059157796,0.025655406,0.03650962,0.039117444,0.05727828,-0.10365536,0.020709926,0.03338492,0.006214153,-0.06629996,0.009385837,-0.07701321,0.00020208478,-0.03486504,0.001088064,-0.1252698,0.027112031,-0.0610843,-0.02081565,0.09707705,-0.036133714,0.021884626,0.012768968,-0.03171685,0.008904211,-0.045813225,-0.073207185,0.044215634,0.01198192,0.034089737,-0.063010804,-0.090216815,0.040715035,-0.021579204,0.034512628,-0.0039029345,-0.047293346,0.05859394,0.081289105,-0.011488548,-0.025655406,0.035311423,0.061272252,0.03606323,-0.0077001457,-0.03185781,0.03575781,-0.07222044,-0.03420721,0.032445163,0.014636738,-0.048092138,-0.0016592611,-0.028498175,0.038060218,0.011100897,0.10619271,0.060614422,0.00059065287,-0.041678287,0.09289513,0.00041481527,0.083403565,-0.023529202,0.12339029,0.065125264,0.02310631,0.029602392,-0.038295157,-0.020733422,0.08175898,0.06221201,0.1108915,-0.023862634,-0.034655552,-0.064976424,0.075353384,-0.011427794,0.05722654,0.045798745,0.008784295,0.014711643,-0.032050364,0.09002124,-0.019506061,-0.01113772,-0.05188481,-0.080082126,0.009233088,0.011427794,0.0044523515,0.06992409,-0.0022535413,0.06716565,0.033013627,0.05205995,-0.003806528,0.010371489,-0.0027050704,0.026752422,0.058146015,0.02085244,-0.07833074,0.08266542,-0.059853617,0.06716565,-0.045536038,0.06488885,0.0385086,-0.033954997,0.09063423,-0.09352402,-0.074302554,-0.04085108,0.029094901,-0.12916471,-0.033013627,0.011789017,-0.021804756,0.038092647,0.056920044,-0.014591235,0.01591572,0.10963676,0.04209894,-0.018072115,-0.001599508,-0.02019567,-0.024606973,-0.011613878,0.055124875,0.11051246,0.021728132,-0.040128633,0.076448,0.009337077,-0.028087853,0.04680579,0.06795378,-0.06322504,-0.06423208,0.016473975,0.017054122,-0.0023452153,0.011460632,-0.03605666,-0.07255117,-0.025416989,0.017043175,-0.06887326,-0.015138543,-0.06252448,-0.01243484,0.051096685,-0.029335715,-0.019659309,0.03089007,-0.006863244,0.06064174,-0.0058233584,-0.019495115,-0.023402896,-0.009566946,0.06431965,-0.03531232,0.050877765,-0.05057127,0.050220992,0.030583577,-0.044704128,-0.0050981753,-0.042624358,-0.06265584,0.03463366,-0.11515363,-0.04115757,0.033320118,-0.07220089,-0.021410694,0.05297943,-0.0040117684,0.017240206,-0.016769521,0.0151823275,0.0018444284,0.0427776,-0.003365945,0.08511736,0.0049777674,0.045448467,0.059722263,0.02259288,0.07071221,-0.011093936,0.014897727,0.013693649,0.021958003,-0.018980647,0.0493453,-0.039296724,5.9605274e-05,-0.04878985,-0.019437913,-0.026735738,0.0039788056,-0.049799614,-0.0045238473,0.017590508,-0.037085794,0.0005461176,-0.053196084,0.027148822,0.001775689,0.020895183,-0.045278635,-0.0125187505,-0.003973068,-0.009718956,0.07944989,-0.011342607,0.023454012,0.08215789,0.06760814,-0.015192324,0.10189414,0.021044353,-0.06554272,0.012576124,-0.029168345,-0.0011926376,0.0057544946,0.0088239405,-0.011268023,0.089639306,-0.036810406,0.03910532,-0.0029805184,0.013574411,0.07100461,0.03637437,-0.023958892,0.05677615,0.0044750804,0.010734456,-0.021778725,0.00810678,0.017234797,0.021147624,-0.0030206793,0.061870858,-0.017246272,-0.073850304,0.038049657,0.016477475,-0.03621373,0.073574916,0.039747894,0.048193175,0.0475506,0.057602316,-0.013620309,0.054710727,-0.07793525,0.05751052,-0.015777526,-0.058244895,-0.016225036,0.016810238,-0.056913845,0.083029956,0.060723398,-0.0057430197,-0.069214575,0.024326079,-0.018531423,-0.05232402,-0.021445962,0.030407598,-0.034354847,-0.06829661,0.0068158917,-0.0036718608,0.012897411,-0.07628291,0.009805016,-0.02100993,-0.016282408,-0.03777427,-0.05494022,-0.008009247,0.018554373,-0.0422723,0.020390302,-0.016718442,0.039426606,-0.06742454,-0.010436117,-0.001695367,0.0714177,-0.074355185,0.05067168,0.058749773,0.005909401,-0.05888747,-0.0064773923,-0.009053432,-0.022122962,-0.018657643,-0.049524225,-0.046058904,0.063798584,0.005358622,-0.0059151384,-0.050763477,-0.030246954,-0.029902717,-0.033390984,-0.050533984,0.006236426,0.07481416,0.060677502,0.06223804,0.024762113,0.089914694,0.016924985,-0.008020721,-0.03116492,0.001109447,-0.04782599,-0.032923456,0.04832345,-0.08945385,0.024735637,0.024372159,0.036424324,0.053526923,0.105370365,-0.051537357,-0.030474763,-0.081725165,0.0009361951,-0.016404338,-0.056396484,-0.037208673,0.0038093454,0.06921387,-0.035142586,0.0451478,0.019197378,0.0672243,-0.083638206,0.03265563,0.026170418,0.034339108,0.015007816,-0.011688688,-0.014443469,-0.031507805,-0.048553012,0.057391267,0.10628863,-0.044956494,-0.075794734,0.024697375,0.009244776,-0.0508104,0.06316865,-0.0025371723,-0.063666046,-0.037438236,-0.0111052105,0.0032808674,-0.028293895,0.009168255,0.05662605,0.08930081,-0.00440478,0.028293895,0.07093561,0.004603258,-0.049318228,-0.11585384,0.06320692,-0.007178691,0.0035654325,-0.012578253,0.038873017,-0.053526923,-0.03407128,0.020278247,-0.044994753,-0.016289555,-0.07655995,-0.040365193,0.036979105,-0.019589553,-0.07300169,0.076330386,-0.039638236,-0.07759299,-0.0640104,0.05930431,-0.036079977,0.006140866,0.017246075,-0.021770421,-0.031335633,-0.008025212,0.038834758,-0.018853031,-0.01220521,0.015486077,0.03772519,0.037419107,0.039121713,-0.05735301,0.013410426,-0.0027141287,-0.017169554,-0.06110257,0.01517999,-0.0733843,0.027547808,-0.08555125,-0.05222605,0.0032258674,0.10927297,-0.054062575,0.02085216,-0.0043545626,-0.045989536,0.0140226,0.020450423,-0.0871582,0.023262594,0.00994782,-0.018824335,0.023951288,-0.0013726078,-0.060375612,0.029346067,-0.0011460319,0.04078606,-0.039485194,-0.048935622,0.017370423,0.0716243,0.0112391235,-0.0068295607,-0.028332155,-0.020986073,-0.08294951,-0.014099121,-0.015036512,0.10735993,-0.04985388,-0.048246924,-0.10002879,0.059986033,0.027389456,-0.023679383,-0.0052624466,0.0032821135,0.11570223,0.0072899694,0.026022587,0.032440364,-0.029524375,0.052279495,-0.11299452,-0.019852148,0.05899668,-0.12517919,0.039704297,-0.009047372,-0.05936118,-0.04832208,0.059309106,0.014671063,0.040068794,0.0005288482,-0.011833183,0.046473555,-0.029836804,-0.014592957,0.102944784,-0.045354024,-0.010166904,-0.016910125,-0.00020197933,0.02060718,0.008344411,0.024707789,0.020242682,-0.08622992,0.042620286,0.015673434,-0.03754334,0.03316936,-0.18287408,-0.10289271,0.002463619,-0.03725695,-0.10148679,0.06503694,0.0109284455,0.005288482,0.0014612483,-0.031424973,-0.061444025,-0.06675529,0.07055649,-0.023301866,0.022442691,-0.07716953,0.07737782,-0.025514893,0.008734945,-0.03892323,0.06029846,-0.0055748736,-0.02564507,-0.06415173,-0.056549333,0.01653261,-0.04501556,-0.025788266,-0.006769257,0.079460666,-0.013408337,0.017860426,0.033377644,-0.07680503,-0.0707127,0.10627734,0.06639079,-0.12018035,-0.0019363981,0.050899606,0.018810725,-0.07092099,0.0053405534,0.015829647,-0.030852191,-0.07607604,-0.07680503,0.021114875,0.09081219,0.010882882,0.0271291,0.033559896,0.04501556,0.01628527,0.046942197,0.016597698,-0.028873485,0.051914997,0.0252285,0.021219017,-0.092374325,-0.03600724,0.010264537,-0.017977584,-0.060454674,-0.022481745,-0.028404845,0.059152894,0.03642381,-0.00012763549,0.02494211,-0.049780075,0.046239235,0.05774697,-0.07769024,-0.06357895,-0.05863218,0.017860426,0.039652225,0.06430794,0.07810681,-0.10841226,0.06956714,0.03329954,-0.010694125,-0.008611276,-0.054026447,0.07203527,-0.048332073,-0.027868783,-0.010491117,-0.015652522,0.0040358542,0.023254376,-0.022693353,-0.08622913,0.016367827,-0.0729329,0.038289774,-0.09744958,0.008632731,-0.007987555,-0.036859166,-0.02677479,-0.014228929,-0.14014338,0.05958057,-0.016466005,-0.0364945,0.0033713935,0.017181309,0.026886994,0.019397346,-0.009263881,-0.012931565,-0.058290217,0.10485507,-0.03593348,-0.004979073,-0.042609643,-0.032539293,-0.009123625,-0.045891624,0.0452745,0.030463511,0.00011505341,-0.026368048,-0.04145955,0.049117506,-0.014123737,-0.06064651,0.01547019,-0.029734183,-0.05380204,0.016171468,0.09397124,-0.02051939,-0.03343693,0.01910281,0.0117043285,-0.03441872,0.07254019,-0.05329712,0.0016567691,0.05935616,0.07932855,-0.05304466,0.073437825,-0.081236035,-0.006763825,-0.011536022,0.072147466,0.034587026,0.07674785,-0.013836212,0.041852266,0.015652522,0.0377568,0.0528483,-0.08056281,-0.0013482068,0.05907565,-0.14014338,0.047602743,-0.018653993,0.10216217,0.033829644,0.03893495,0.050099295,-0.00969166,0.06732268,0.069454566,-0.12589341,0.036803063,0.04547086,0.0389069,0.012146133,-0.0074615967,0.056691304,0.055765618,-0.063956544,0.015708625,-0.018738145,0.038149517,0.009467252,0.15024178,0.072876796,0.016185494,-0.010694488,0.22676522,-0.053184915,0.11725366,-0.12219066,0.045891624,0.020715749,0.07220357,-0.12847412,-0.00923583,0.024109934,0.073269516,-0.1131582,-0.19411372,-0.111699544,0.116468236,-0.02652233,-0.043395076,-0.16662362,0.02753217,0.06496638,-0.04979073,-0.018078944,0.14609021,-0.011627188,-0.052343383,0.05381643,0.02598212,-0.015332023,0.043732278,0.01953804,0.010913776,0.028400257,-0.04303771,0.07146369,-0.036374968,0.020502722,0.012225744,0.056697614,-0.051578365,0.0038265744,-0.033159357,-0.015151949,-0.030921293,-0.025223235,-0.051681265,-0.034085453,-0.081959434,-0.06359188,-0.03141007,0.013325483,-0.06678177,0.0393076,0.05963025,-0.040002175,-0.054793973,0.0392047,0.024631564,0.05160409,0.014032917,-0.0048041195,-0.013917155,0.16247828,0.055411372,0.06986875,0.057880957,0.058498356,0.027860034,0.058652703,0.07413907,-0.036374968,-0.059373,-0.057932407,-0.0054054386,-0.040645294,0.03760976,-0.039744925,0.009852625,0.004633692,0.039770648,-0.00850207,-0.027345536,0.0985777,0.02888903,0.06637017,-0.095902316,-0.05206714,-0.014457377,-0.11205754,0.0696115,-0.08072464,0.06096794,0.053867877,-0.03856158,0.052375834,-0.07341878,0.04928885,-0.016605403,0.06642161,-0.06271724,-0.045352947,0.02540331,-0.03128144,0.00039833353,0.042188786,0.0442725,0.0112932185,-0.04411815,-0.024747325,0.12605186,-0.08993415,0.015434922,-0.016721165,0.046459116,-0.015126224,0.02203335,-0.046973612,-0.058807053,-0.016631128,0.057983857,0.0034374858,-0.015164811,0.03629779,-0.06287158,0.026985388,-0.036169168,0.023731193,-0.09682841,-0.0124508375,0.018187484,-0.003771909,0.060813595,0.003971277,0.025699146,0.11699671,0.055359922,-0.06148244,-0.048002608,-0.012810986,0.030561145,0.12790406,-0.0702289,-0.014187266,0.15496662,0.056903414,0.076814465,0.019036405,-0.080364496,0.019165028,0.00971757,0.020669933,0.012257901,0.07326443,0.049211677,-0.05314117,-0.030923283,-0.06863868,-0.017948896,-0.047855753,-0.049840774,0.017147712,-0.00014928765,0.021667821,-0.022421174,0.018881617,-0.083801374,-0.070934616,-0.03587388,-0.09776827,0.101499155,-0.028053371,-0.036926176,-0.091263145,-0.01623891,0.097863935,0.012854806,0.1074303,0.0033721444,0.0077248416,0.07380452,0.017853232,0.027264146,0.06543395,-0.0060148533,-0.0638555,0.02103405,0.023712633,-0.04001133,-0.02319844,0.019575179,-0.005336239,0.02747939,0.027790297,-0.0893977,0.047520928,0.008723331,-0.022014603,0.044985842,-0.025733529,0.018618543,-0.008639625,0.07442634,-0.10283845,0.025183462,0.020244824,0.0046725725,-0.026092267,0.013859275,0.07213041,-0.006947574,-0.068208195,0.04921896,0.08227076,-0.043455224,-0.035778213,0.045225002,-0.008071623,-0.040920135,0.014134307,0.014899617,-0.069786645,-0.08236642,0.015975833,0.051706214,0.02044811,-0.015868211,-0.04465102,-0.04410095,-0.086527795,0.026451005,0.04606206,-0.025829192,0.019754548,-0.09891624,-0.02724023,-0.013022217,-0.04001133,0.028962176,0.058594,-0.050701745,0.127998,0.028292531,-0.037524074,-0.04347914,-0.007904211,-0.0335062,0.028866513,-0.035252064,0.04089622,-0.0031389643,-0.024800807,-0.04154195,-0.006023822,0.08255775,-0.002414013,-0.018343508,-0.013392914,-0.08844107,0.092650265,-0.005494682,0.060889926,0.12991127,-0.07131727,0.016131287,-0.037404496,-0.008842911,-0.017733654,0.026044434,-0.023569137,-0.05892882,0.034486752,-0.07284789,-0.015593179,-0.049410287,0.0017129777,-0.019264271,-0.021165587,-0.095663674,0.018008687,0.017028134,0.027288062,-0.061272584,-0.0563316,0.024801495,-0.04221793,-0.021909013,-0.058136836,-0.025027148,-0.046607938,-0.043818027,-0.072086394,0.0033566125,-0.021970555,0.030504402,-0.03651502,0.0046925903,0.00807741,0.009662121,0.03358151,0.0319609,-0.007472245,0.030381318,-0.11200675,0.011867382,0.08780016,-0.085092306,0.059490766,-0.013559791,0.032596838,0.016339445,0.017457463,-0.020073004,0.07606612,-0.051162057,-0.021970555,0.006082418,0.0922312,-0.005825992,-0.015200916,-0.06613732,-0.012677687,-0.030401831,0.062896095,-0.06490648,-0.05112103,-0.069214426,0.024247615,-0.055059727,0.07791239,0.045787375,-0.061049834,0.01228792,0.017662603,-0.070363216,0.0025296395,-0.006154217,-0.011118619,0.016062507,-0.07011705,-0.028494025,0.019908892,0.019201158,-0.074055746,-0.07639435,0.113483764,0.043653913,0.0048720883,0.026709301,-0.05292627,0.043120548,0.081358746,-0.08016893,0.004138711,-0.019878121,-0.04853626,-0.06699891,-0.064209,-0.046402797,0.013795704,-0.005615723,-0.024145044,-0.006979908,0.03725353,0.006949137,-0.050177384,-0.044884756,-0.040515263,-0.0141547,0.11701218,-0.021088451,0.01901653,-0.10970917,-0.022278266,-0.02609388,0.04152045,0.01888319,-0.0058413777,-0.054567393,-0.06564498,0.046033543,0.030771086,0.03524315,-0.05629057,0.052105702,0.014708579,0.012913599,0.021293592,-0.04890551,0.025601543,-0.034648243,-0.032781463,0.062239647,0.03555086,6.859388e-05,0.0028360684,-0.046402797,0.034853384,-0.025375888,-0.019590924,-0.055593096,-0.00707735,0.0050413297,0.004536171,-0.030771086,-0.010564739,-0.0018667792,0.05050561,-0.0791022,-0.0098313615,0.0074055744,0.01961065,-0.016437972,0.009555508,0.021109553,0.047290396,-0.05286132,-0.004331206,0.06445284,0.035224225,-0.007825524,0.036523275,-0.008712375,0.043143433,0.046016328,0.011316719,-0.09747867,-0.002017274,0.045941383,0.0013630651,-0.18786253,-0.015900865,-0.058307335,0.042368997,0.061504997,0.121611014,0.026230806,-0.0433183,-0.0461912,-0.03062759,-0.033425543,-0.0074320617,-0.02133439,-0.07494516,-0.11551548,0.02543139,-0.101175964,-0.03192664,-0.011460364,-0.07274677,-0.016375517,-0.085737266,0.014751706,0.026680477,0.013115403,0.051362418,-0.11111869,0.027729709,0.027604802,-0.06070558,-0.021521753,-0.0079629235,-0.014027236,-0.048114795,0.07984158,0.07879235,0.0030946105,-0.025481354,0.023108091,-0.066251524,-0.01540123,0.010842066,-0.047015596,0.010860803,-0.0490641,0.10137582,0.035773825,-0.081740186,-0.04007068,-0.057158176,-0.07449549,0.050188277,-0.088984884,-0.05216183,0.04489215,0.074345596,-0.05560931,-0.027854618,0.012034943,-0.054410186,-0.065002434,0.020609919,-0.04489215,-0.017187424,-0.016512917,0.051762126,-0.0531611,0.09028394,-0.013914818,0.01726237,0.0020469397,0.040745188,-0.065152325,0.033175725,0.048164755,0.028254326,-0.027729709,-0.052361686,-0.016725263,-0.044967096,-0.09383134,-0.09622959,-0.024294723,0.026680477,-0.06620156,-0.062704116,0.0789922,0.028803924,0.06700097,0.031227151,0.0206349,0.06974896,0.04226907,-0.020934682,-0.08184011,0.07044845,0.01946076,-0.021883987,0.0138398735,0.046016328,0.028354252,0.08124056,-0.0016987569,-0.14419448,0.04241896,0.03499939,0.02730502,0.023507798,-0.04461735,-0.06276344,0.03182599,-0.09095448,0.02249629,0.052424032,-0.080978565,0.08941972,-0.03162405,0.022193378,-0.01617552,-0.056785967,-0.01873008,0.041216273,0.02429357,0.007986789,-0.014933579,-0.044346366,-0.038065985,-0.06445975,0.08118051,-0.08400769,-0.03158366,-0.06680227,0.114541255,0.08990438,0.03251259,-0.0010658728,0.058038007,0.052989468,0.07427411,-0.082392156,0.03376463,-0.0009137856,-0.0011485426,0.014660957,-0.058159173,0.043982875,-0.08513857,-0.047617823,0.008168536,-0.056624416,-0.015216297,0.0071133915,-0.10807913,-0.024939783,0.022718426,0.036834143,0.056422472,0.06502518,0.052989468,-0.06421742,0.012197271,-0.06845819,0.02774677,-0.010389893,-0.06595412,0.0077949446,-0.04571957,0.09135836,-0.048465975,0.0318058,0.02512153,-0.04693122,0.04765821,-0.019598428,-0.06349043,-0.16219947,0.04790054,-0.011389504,0.0026252402,0.08554245,0.02813046,-0.028292013,0.05052578,0.021446194,0.010117273,-0.116479896,-0.060744025,0.011752999,0.019174352,0.057068687,-0.032371234,0.010127369,0.017407363,-0.07661663,-0.019275323,0.024959978,0.010132418,-0.09588186,-0.043255884,0.103232525,0.033784825,-0.0040968894,0.037823655,-0.12189193,-0.013711832,-0.012348726,-0.029523857,-0.028796867,0.011450087,0.1365125,-0.017266003,-0.036450453,0.023768522,0.06005742,0.018306004,-0.0061036837,-0.05965354,0.03132114,0.0026706771,0.01095533,0.031099001,0.05912849,-0.020739399,0.07282013,0.014408531,-0.052827913,-0.05008151,0.0136411525,-0.047092773,0.013812803,-0.06777159,0.06631761,0.035743657,-2.9344634e-05,0.022274155,-0.029321915,0.006638829,-0.10766484,-0.045419626,0.029822877,-0.07642408,-0.043103743,-0.030957185,0.08521497,0.023619624,0.0068413015,0.028168675,-0.010563253,0.023690518,-0.03892098,-0.016778322,0.0049035237,0.03206786,0.042512957,-0.07117789,-0.02790873,0.067396864,-0.015655829,0.018184392,0.02512022,-0.020204881,0.0043659084,-0.05647914,0.012760977,-0.001075969,0.026703525,0.04272564,-0.010740489,-0.04348185,0.03499816,0.004206396,-0.041118704,-0.09107557,0.054115996,0.07250126,0.06564814,-0.13309227,-0.1038838,-0.07113063,-0.03365117,-0.02018125,-0.024044989,0.009677074,-0.0061146347,0.06007112,-0.057282608,0.0011948646,0.027365206,0.041118704,0.020831114,-0.02415133,0.012902766,0.010563253,-0.04551415,3.9693434e-05,0.045065153,-0.055581145,-0.04749919,0.009629811,-0.00039028798,0.07845638,-0.03922819,-0.003453144,0.0061855293,-0.06668792,0.044238053,0.0111245,-0.035872523,0.031713393,0.03625063,-0.04355274,0.08956315,0.016482929,0.14708208,-0.02890125,0.036841415,-0.035258107,-0.051989164,-0.037219517,0.032918595,-0.028664935,0.052320007,0.032658648,0.07996879,0.002448808,0.057755236,0.01716824,-0.106530525,-0.02727068,0.078787215,0.03729041,0.03828293,-0.0023291737,0.08521497,-0.03764488,-0.059362173,0.05269811,0.045726836,-0.05137475,0.022520762,0.006191437,0.030957185,-0.02708163,-0.022296263,0.052130956,-0.07160326,0.015147752,-0.04858624,0.00045195126,0.09811773,0.0187161,-0.06942917,0.06664066,-0.034383744,-0.0032936318,-0.16683796,0.030082822,-0.08942136,-0.045301467,0.02340694,0.019070571,-0.09745605,-0.0915482,0.06078006,0.101142555,-0.10642319,0.010650409,-0.055800516,-0.07461643,0.025842989,0.050946288,-0.020896299,-0.09810165,-0.04294837,-0.05663267,-0.0066803433,-0.0031408016,-0.061163284,-0.04567598,0.09800919,-0.008876304,-0.038672023,-0.038949408,-0.018550089,0.062365282,-0.0644919,-0.0050507095,-0.0015689561,-0.07262851,-0.09625243,-0.04863475,-0.047663905,0.036660984,-0.0051951804,0.04877344,0.04692421,0.08904043,0.06421451,-0.074708894,-0.06578636,-0.008165507,0.044959404,0.012701899,0.009812477,-0.0015530643,-0.038047906,-0.0834465,-0.05372013,-0.015313936,-0.07207374,-0.020861626,-0.052610595,-0.096529804,0.04588402,-0.013568725,-0.030419834,0.08090381,-0.00267416,0.0046982,-0.0948655,0.0035453206,0.11807334,-0.006027334,0.029911296,0.02464099,-0.05057644,0.06338236,-0.013568725,0.012898379,-0.019786762,0.0330781,0.0016484152,-0.031876102,0.025958566,-0.0063971803,0.057464823,0.033147447,0.06897628,-0.06282759,-0.030627873,-0.043664943,-0.14054148,-0.021982722,0.09153689,0.045953367,-0.07960935,0.029402757,0.19601838,-0.0518709,0.0018550089,-0.02503395,-0.06370597,0.026351528,-0.088300735,0.0396891,0.10466642,-0.017417435,-0.003533763,-0.06504667,-0.0031754747,-0.0012662892,-0.046022713,0.043318212,-0.12648733,-0.0035019794,-0.02274553,0.06412205,-0.050715134,0.07119536,0.050715134,0.0028778643,-0.022260107,-0.01744055,-0.003423965,0.020006357,-0.008968766,0.018665666,0.030165564,0.005752839,0.12528533,-0.107532725,-0.10152273,0.0351816,0.087792195,0.0026626023,-0.08811581,0.08820827,0.036845908,-0.026883181,-0.1001358,-0.011505678,-0.020306857,0.07646566,0.06725137,-0.062337197,0.06543131,-0.09132172,0.031123098,-0.041087948,-0.036333032,-0.00816185,-0.06379325,0.021408506,-0.015550174,0.09546237,0.0566495,-0.0048402334,0.03913138,-0.0038477294,-0.022079654,0.03540025,0.11584709,0.065658815,-0.031100348,-0.023319572,-0.04570636,0.08385946,0.02921203,0.037061058,-0.08649855,0.0063133477,0.009282327,0.025685657,-0.110477895,0.0028367408,0.024024848,-0.08012833,-0.01884904,-0.07262056,-0.08162988,-0.04338578,-0.058788072,0.042657755,-0.000740823,-0.060699143,-0.063292734,-0.016175821,-0.043749794,0.0028068803,0.06361125,-0.04334028,0.06406626,-0.04336303,-0.0623827,0.028848018,-0.028870769,0.040632933,0.0051758075,-0.016539833,0.021033118,0.07598768,-0.1277685,-0.05546646,0.077307224,0.02314894,0.040473677,-0.0794458,-0.04900523,0.004251556,0.027073456,-0.03571876,-0.043772545,0.13368371,-0.15343142,0.022796305,-0.012308184,-0.00801397,0.10137758,0.03232889,-0.03965465,0.022739427,-0.0044164998,0.015948312,0.071528524,-0.0068821176,0.009185636,0.02975805,-0.0039273575,-0.07430412,0.11166094,-0.079991825,-0.045797367,-0.0039643273,0.0539194,0.019713571,0.029735299,0.019190302,0.033989698,0.022227535,-0.0023404888,0.032374393,0.062428202,-0.021055868,0.056012478,-0.035331998,0.10119557,-0.034467466,0.0029177903,0.05528445,0.01855328,-0.032761157,-0.011784916,0.058606066,-0.015584299,-0.0794458,-0.020327842,-0.014139623,0.03853986,-0.058606066,0.1219443,0.022159282,0.089456156,-0.017529493,0.045160342,-0.064521275,-0.0025580435,-0.020202713,0.039791156,-0.011028452,-0.04479633,-0.00737126,0.03793387,-0.019566262,0.044726245,-0.044914268,-0.02391432,-0.0063516907,0.038051385,-0.086303085,-0.023949577,0.070838094,-0.02172854,0.005511458,0.09843064,-0.01915496,-0.06303509,-0.053821914,0.009377704,0.02912024,0.019495754,-0.00046785697,0.0013602371,-0.05814647,-0.06787672,0.0025500774,-0.05339886,0.03706426,-0.044961274,0.09471717,0.0068335026,-0.013960793,0.15286364,0.011863149,0.07426954,0.002677875,0.059697665,0.010905401,-0.09504621,0.031588055,-0.024983708,-0.062000964,0.006222424,-0.092084825,-0.07817104,-0.028838204,-0.04655948,-0.067688696,0.053069815,-0.07661984,0.042869505,-0.004647722,0.038591955,0.08066236,-0.047758132,0.00014028364,0.01230383,-0.03621815,0.01425458,-0.043974146,-0.07187223,-0.004577213,0.008302441,-0.016252337,0.062235992,0.030812457,0.014924416,0.026346883,0.0015541371,-0.08705518,0.009283693,0.036100637,-0.08221356,0.032528177,0.07638481,0.013960793,0.047241066,-0.032410663,0.030882966,-0.0190727,0.038286418,-0.051518615,-0.050813526,0.009277817,0.0552791,-0.09043962,-0.010423589,0.078923136,0.029707815,0.10303723,0.094012074,0.07013301,-0.106421664,-0.0685348,0.028368143,0.0058610654,-0.05974467,0.052035682,0.069427915,0.09095668,-0.07356445,0.008649111,-0.02172854,0.1285145,0.027827574,0.024325624,-0.0482752,0.007873511,0.016064312,-0.05184766,-0.066325516,0.014607126,-0.025030715,-0.039367557,0.003040703,0.06204797,-0.048228193,0.06999199,-0.053069815,-0.14524865,-0.10209711,0.057253353,0.009107419,0.06637252,-0.0552791,-0.03248117,-0.11234443,0.10529352,-0.07643182,0.085456975,-0.012521261,-0.02948502,0.007671535,0.030143168,0.021093637,0.030669685,0.0026099673,-0.024071755,0.005824608,-0.09878798,0.033269368,-0.026293004,0.03504637,-0.026210735,0.037975125,0.021504978,-0.021340441,-0.038468737,-0.006071413,0.031377196,0.025355143,-0.020122867,0.068578996,-0.021850506,0.012595302,0.0240553,0.029567288,0.074633956,-0.019069832,0.03978503,-0.0041134236,-0.033318732,-0.0048785205,-0.032808665,-0.08615154,0.08338732,0.00080725935,0.068842255,0.046893027,-0.10300013,-0.04886747,0.0047839116,-0.028497798,0.061010297,0.018642036,0.03300611,-0.06792085,0.06831574,-0.044194624,0.064432666,-0.04686012,-0.0032578313,0.016947305,0.0155981025,0.016552417,0.0052610687,-0.12360015,0.04626779,0.026210735,-0.023100987,-0.02708278,-0.037514422,-0.038106754,0.027115688,0.00032316084,-0.057258856,-0.029188853,-0.012743386,0.041298773,0.019744433,0.010727809,0.0051294393,-0.022163127,-0.068842255,-0.042680882,0.001430443,-0.012455447,-0.061076112,0.06400487,-0.036494292,0.027921919,-0.0011630706,-0.0033627236,0.008411951,0.0396534,0.013278131,0.022870636,-0.09582631,-0.043668102,0.049854692,0.07384418,0.0041257637,0.00410931,0.002354935,0.06571606,-0.005544895,-0.03550707,0.026375271,0.041463308,-0.0034573325,0.0026860656,0.034552757,-0.0021348668,-0.008868542,-0.039126884,-0.02369332,0.03616522,0.049492713,-0.0024989047,0.0494269,0.026342364,-0.02129108,0.06574896,-0.025848754,0.039159793,-0.15729731,0.00037406446,0.06956622,0.008539467,0.028349714,-0.025009615,0.06574896,-0.014372302,-0.0013975357,0.03201889,0.042318903,0.027740927,-0.020632932};

#endif
