#pragma once

#include "parameters.h"

#ifndef KERNEL4_H
#define KERNEL4_H

static float bias4[FEATURE_MAP4] = {0.83318424,0.9325809,0.20848536,-1.2157068,0.24843094,0.93740296,1.7715204,2.3990555,1.2422183,0.9122803,0.67894757,-0.3137225,-0.79930633,0.33607966,1.94983,0.9758278,0.8775804,-0.4221449,1.3763115,0.38542056,1.4286658,1.1468406,1.0939503,1.6203625,1.6315111,2.481102,0.38105458,-1.5876602,0.0536294,-0.06310201,0.016508192,-0.4042989};

static float kernel4[FEATURE_MAP4][IN_CHANNEL4][KERNEL4][KERNEL4] = {0.055410765,0.0073891305,0.08953343,0.27643678,-0.1290861,0.13661407,0.10076368,-0.24694197,-0.08188206,-0.19239506,0.062044013,-0.22263034,-0.04590825,-0.37170875,-0.008052455,-0.15759365,0.0009771509,0.0678134,0.18795232,0.05210957,-0.29568863,0.11008108,0.21732374,-0.5341154,0.090150476,0.12476678,-0.11008108,-0.04905519,0.1450059,0.024527594,0.20029326,-0.04445819,0.07484773,-0.015811814,-0.06454305,-1.4828858,-0.31592774,-0.09872742,-0.07904364,-0.036775965,-0.121743254,0.21201713,0.04973394,0.10076368,-0.00045892826,-0.17795618,-0.1596916,-0.18276913,-0.11180881,0.4109529,-0.36998102,0.14611658,0.20967236,-0.025885096,-0.5370772,0.4336602,-0.024249922,0.033567324,0.014415747,-0.048931777,0.064666465,0.08941002,0.044920977,0.041866597,0.00080311875,-0.0096974345,-0.04375047,0.06461756,0.017858641,-0.02454763,0.08526061,0.023107417,0.012705879,0.047046956,0.015066228,0.028180167,0.043366414,-0.02805215,0.037029475,0.095246084,0.02373151,-0.079883814,0.06605777,0.0038765732,0.047078963,0.048231132,0.02691598,0.07124253,0.017330563,0.030948577,-0.06442553,0.06144909,0.046118822,-0.03616535,0.080075845,0.02211527,-0.039173793,-0.005836863,-0.001521225,0.049191274,-0.0032284774,-0.00980945,-0.01993895,-0.028932279,0.016674466,0.05645635,-0.005908874,-0.0030264475,-0.0042366264,-0.004022595,-0.013586009,-0.0056968424,0.00885731,0.012041781,0.022963395,-0.00042981358,-0.021203136,-0.02245132,0.019986955,-0.012569859,-0.0025103712,0.011513703,-0.04179818,0.0009311377,0.073930934,-0.020547038,0.0059808847,0.030244473,-0.42470106,-0.055935245,-0.04123953,-0.32483122,-0.1808234,0.19201045,0.05456229,-0.40130997,-0.67366374,0.16231391,-0.0034673496,-0.18641692,-0.547962,-0.0796823,0.0673257,-0.079072095,0.026518391,-0.058732007,-0.117769115,0.0683427,0.113090895,0.108514376,-0.16943294,0.14929625,-0.031450864,-0.029213453,-0.26116675,0.07561428,0.47473767,0.041214105,0.22618179,-0.19963798,-0.067020595,-0.02129353,0.04853654,-0.05512164,-0.08013995,-0.3415101,-0.21092673,0.31344077,-0.3882923,-0.16424622,0.013894823,0.014479601,-0.28191364,0.11939632,-0.010557777,-0.6203727,-0.17573838,0.26604837,-0.004786277,-0.07261412,-0.2959483,0.05148585,-0.13871941,-0.82621443,0.0019481992,-0.07037671,0.028171023,-0.14024492,0.2286226,-0.30611834,-0.035925683,-0.02447167,-0.06486997,0.30819374,-0.0086427815,0.07248151,-0.04262463,0.114320435,0.15026654,0.100668766,-0.08927601,-0.043066587,-0.0870662,0.36397898,-0.1996679,-0.22373019,0.0007811037,0.2545692,-0.003027736,-0.14682908,-0.8799923,-0.015677318,0.122472145,-0.060695898,-0.03737021,0.16126645,-0.022490876,0.7625291,0.24553357,0.0113620665,-0.039015286,0.1865073,-0.2465157,-0.36810392,-0.16539142,-0.16008788,-0.05932091,-0.07960199,0.12266857,-0.13337384,0.038941626,0.03410461,-0.06899493,0.0135166235,-0.03378542,-1.3435597,-0.10047234,-0.106758,0.01729784,0.0215824,0.05244597,0.30446163,0.08382516,-0.025339065,0.007237102,-0.040709466,0.026051112,-0.064182475,-0.020133752,-0.06256195,-0.043263014,-0.034644786,-0.03552871,-0.17118602,-0.046430398,-0.084856406,-0.0685353,0.069765806,0.019576188,-0.06868445,0.0576845,0.032179523,-0.008995725,0.033801552,-0.0421727,-0.008515642,-0.055372644,0.13968076,0.03299986,-0.031303257,-0.028581234,0.08881996,-0.008813946,-0.16794504,-0.28771403,-0.014794005,-0.16764675,0.005485994,0.019240595,-0.095680945,0.010021144,-0.07964712,0.021515163,0.052576046,-0.020191438,-0.0102448715,0.0032184185,-0.14072482,0.003122868,0.020396523,0.038443904,-0.04235914,0.015921965,-0.08822335,-0.0133677395,0.019333815,0.109030046,-0.06771497,-0.059884492,-0.019576188,-0.049854025,-0.026250735,0.041054063,0.07606747,0.05026419,0.07636578,-0.08881996,0.021869399,0.09090809,-0.048586234,0.013144012,0.07651493,0.051159102,0.10373515,0.017609248,0.03126597,-0.04444727,-0.06260651,0.020415166,0.07617933,0.045490615,-0.024372555,-0.009447077,0.0026985193,0.0334309,-0.071056485,-0.41107896,0.075504296,0.054675527,-0.012629251,-0.12019937,-0.19194292,-0.049215205,-0.010333023,-0.03104427,0.055398747,-0.015169566,-0.10992963,0.0018035329,-0.019147282,-0.00043845287,0.085629396,-0.0063779075,0.04802189,0.07919273,0.1922322,-0.019418491,0.059231818,0.07123729,-0.0797713,0.13965403,0.13220485,-0.017068021,-0.17675526,-0.026415655,0.083170444,0.0039053946,-0.04907056,-0.0849785,-0.050119232,0.023341965,0.031188916,-0.0017312109,0.012059714,0.028675722,0.043320954,-0.02900117,0.040717356,0.02345045,-0.06295641,-0.12598515,0.032490715,-0.028060984,-0.0070740078,0.0075124605,-0.05004691,0.038836982,-0.03549208,-0.123743154,-0.00021484756,0.0045834146,-0.06639171,-0.05521794,0.043718725,-0.16926768,0.09084599,-0.034087155,-0.2293715,-0.0827755,-0.054316446,0.0032587214,-0.106084324,-0.071253836,-0.019685067,0.00602963,-0.03581275,0.047599897,-0.012749499,0.0062254188,-0.060847163,-0.082563125,-0.078315504,0.03066251,0.03198989,-0.102102175,0.043405373,-0.086810745,0.049829897,-0.009085926,0.0487149,0.0047520255,-0.0035905668,0.117128134,0.00744661,0.019764708,0.021198282,-0.0038460877,-0.00052348606,0.0093514025,-0.046750374,-0.03907811,0.12795956,0.031166915,-0.05216609,-0.052909423,0.038626797,0.024437092,-0.058935735,0.04019311,-0.025286617,-0.02182215,-0.056493353,-0.00077983656,0.14633052,-0.027370606,0.004390314,-0.07396169,0.005843797,-0.11394242,-0.026467985,0.011229646,0.08638598,-0.039794896,0.0025187063,-0.01632679,0.04969716,0.025167152,-0.030211201,0.023929907,-0.07376405,-0.0011175575,0.0630663,0.0107257515,0.0062625227,-0.050604265,0.023523841,0.012714076,-0.0079603,0.048923988,0.014688399,0.031001063,-0.0636824,-0.021059439,0.07622845,-0.026506329,0.07432414,0.12882103,0.060657907,0.011579891,0.030384962,-0.0026009248,0.009871612,-0.029292783,0.001040545,0.011922947,-0.02320179,0.024041926,0.05682128,0.022823727,0.02492407,0.014828421,0.044723302,0.08793436,-0.039066378,-0.008009308,0.025918232,0.024461994,-0.05976176,-0.0027882054,0.026870389,0.028522657,-0.01769889,-0.010683745,0.02425196,0.036826015,0.016858753,0.017992938,-0.08272551,0.049932156,0.014226323,-0.067379005,-0.018076953,-0.00045901246,0.009059479,0.040466607,0.003644095,-0.0067456015,0.018819073,0.013148148,0.0226557,-0.0045542438,0.01751686,-0.1280697,-0.0077764043,0.08003053,-0.041708622,-0.05160823,0.07002672,0.03147034,-0.04949805,-0.06622318,-0.086335026,0.0135989385,0.0076526594,-0.03342421,0.032798972,0.029073592,0.10962516,-0.10462325,-0.058042977,-0.031730857,0.027145773,-0.3989022,0.047466025,-0.011299884,-0.10993778,0.012146561,-0.07257978,-0.13880296,-0.035925165,-0.13682304,0.027171826,-0.08253149,-0.019577783,-0.030063553,-0.035482287,0.059501868,0.08722078,0.17225322,-0.086335026,0.005887663,0.04035394,-0.13275899,-0.08899229,-0.06757787,0.02585622,-0.052103214,0.08049946,0.025895298,-0.10040289,-0.13713565,0.12963279,-0.11639858,-0.03097536,-0.103372775,-0.0029242928,-0.06690052,-0.04754418,0.028500456,0.005483863,0.012113997,-0.100819714,-0.0037188667,-0.11004198,-0.0066138515,-0.030141708,0.092806265,0.012691513,0.09339876,-0.029543957,0.052247286,0.019202225,0.031213714,0.091405824,-0.0041945954,0.026406426,-0.044652577,-0.053917047,-0.011829701,-0.13584295,0.13961338,-0.05537135,-0.09307558,0.019902445,0.07557005,0.0196062,-0.10083188,-0.021262491,0.048800044,-0.090813324,-0.1160213,0.009331796,-0.036653895,-0.04368304,-0.18453526,-0.021047039,-0.02351128,-0.025154106,-0.008476718,-0.05801065,0.027200907,0.010052216,0.052678194,-0.022784127,-0.02116823,-0.2889221,-0.039373986,-0.0016024297,0.06361242,0.08817403,0.018946374,0.14553832,-0.2108205,-0.46623972,-0.5830151,-0.06695194,-0.16234364,0.03215632,-0.045245074,-0.029920999,0.0073321257,-0.017949905,-0.013189747,-0.014085222,0.04131306,-0.6536836,-0.14478424,0.0055479077,-0.028870666,-0.027901128,-0.083179176,0.049463224,-0.02130078,-0.21838853,0.013525872,-0.034061503,0.06481558,0.04346544,-0.028088398,0.07172661,-0.03275334,0.11531546,0.07187471,0.048081018,0.026212547,-0.021053957,-0.056176797,-0.14957441,-0.050450515,0.03470324,-0.07676179,0.01592005,-0.029470604,0.021609308,-0.030482575,0.008095778,0.045538746,-0.057015993,0.14128119,-0.1174875,0.08752325,0.007126999,-0.015846003,0.07947683,0.051240347,0.066691436,0.024484789,-0.14483543,-0.0027104192,0.020696064,-0.020634359,0.023880074,-0.011730238,0.07686052,-0.02833522,-0.056472983,0.00032048355,0.057608366,0.008404305,0.059928495,0.064272575,-0.020708406,0.024521813,-0.079032555,0.0087807095,0.025866995,0.008484523,-0.04437868,-0.01977048,-0.0246082,0.018857237,-0.06644461,0.06525986,0.044205904,0.06921487,0.07133129,0.033431645,-0.010934852,-0.024221286,-0.04424892,-0.10605631,0.031863924,-0.115619406,-0.12902342,0.08567594,-0.07630881,-0.09210359,0.0247112,0.0623169,0.08661657,-0.0019988439,0.0016608041,-0.037448928,-0.20740946,0.13223724,-0.12032257,0.018459912,0.24738634,-0.014383838,-0.05545812,-0.030727327,-0.03946737,-0.028669693,-0.06521718,0.12565282,-0.0645901,0.039330196,-0.11514909,0.016892191,-0.04299474,-0.020889878,0.045346323,-0.00993543,-0.1285531,-0.029296782,-0.12823956,-0.025651831,-0.07556414,-0.11303267,-0.043778602,0.026886411,0.052518647,0.020017834,-0.028042605,-0.063845426,-0.018459912,0.0144034345,0.062473673,0.004240195,-0.09249552,0.015285278,-0.023045495,0.047580324,0.032569397,-0.014344645,-0.015236286,-0.05157801,0.020909475,-0.15485542,-0.014095721,0.116285205,0.1142741,-0.18990617,0.25138864,-0.14185503,-0.038642026,0.0015700568,-0.15930858,0.08173722,-0.14594907,0.1423578,-0.12267766,0.0652174,0.0819527,-0.010549345,-0.302241,-0.3513695,0.02756297,0.12942924,-0.027275668,0.020524088,0.36286157,-0.051821973,0.04611186,0.009162218,-0.025246603,0.16160698,0.12583798,0.16534191,-0.16548556,-0.27035055,-0.01752538,0.020452263,-0.0018708253,-0.018270567,-0.352806,-0.15887763,-0.012255196,0.028999476,0.066115215,-0.09128999,0.023774184,0.106516965,-0.05821443,-0.058968596,0.000139863,-0.033291038,0.45336148,-0.15485542,0.027042236,-0.075919375,0.0623803,-0.027706621,-0.38383457,0.0023231006,0.005440769,-0.15916494,0.02580325,0.17080063,-0.4140012,0.042017817,-0.09703602,-0.24329828,0.07878657,0.0825916,-0.0029866712,-0.20177867,-0.10256802,0.13474293,-0.04451329,-0.06328665,0.0010290726,-0.040428475,-0.13429528,-0.17570299,0.06977759,-0.0056935605,-0.0033853601,-0.119746625,0.10133698,-0.03374169,0.065524906,0.30910298,-0.01584964,-0.20267396,0.45548484,0.008994986,-0.13552631,-0.05869823,-0.047003347,0.13172129,-0.3341714,0.041659515,-0.09658069,0.13675736,0.04512881,0.0119396895,-0.0007589082,-0.011408105,-0.029516984,0.018969208,-0.03665142,-0.085053675,-0.07570896,-0.04540859,0.06815486,-0.015220132,-0.014842426,-0.071064584,-0.025655994,0.034525078,-0.063846216,-0.06714764,0.012128542,-0.3549872,0.10172868,0.014038053,-0.22964492,-0.016353248,0.0023116975,-0.011841767,-0.02343173,0.16316877,0.036763333,0.122544445,-0.007484164,0.022894107,0.038989805,-0.032375135,0.14390582,0.06860883,-0.03531499,-0.018208716,0.039210293,0.09591272,0.043399584,-0.08635819,0.053872813,0.07856758,0.0117961615,-0.015176993,0.115462735,-0.0071612988,-0.050197996,-0.20167394,-0.020872958,-0.034635145,-0.025668595,0.05192516,0.030188618,-0.018906932,-0.028057225,0.017290013,0.008249964,0.07077697,-0.042370636,0.07375357,-0.039467532,0.019660268,0.010978514,0.0010800515,-0.051961906,-0.051814914,-0.025907457,0.012586247,-0.058650073,-0.026348434,0.037317764,-0.02726714,0.030978704,0.00050815823,0.085549735,0.026091198,0.030886834,0.024125172,0.022875734,-0.1263402,0.0020946455,0.04288511,-0.008158093,-0.02263687,-0.017749364,0.00784114,0.0062242206,0.041819412,0.029196419,0.025429731,-0.004343174,-0.031879034,-0.049205795,-0.24150379,-0.14506526,-0.046657227,-0.38059258,-0.1908396,0.024194524,0.08333103,-0.1602781,-0.24829523,0.003340542,0.082244396,-0.019525405,-0.108934775,-0.06129279,0.022123132,-0.075588785,0.022445725,-0.027097866,0.113485046,0.044144392,-0.027199738,0.02534907,-0.13229735,0.102890395,0.017878478,0.073823005,-0.0061292793,0.07029146,0.15172088,0.028167518,-0.012487769,0.1226535,0.032615915,-0.0065537444,0.03010308,0.082787715,-0.04319359,-0.048083432,0.016299468,-0.061021134,-0.031783964,-0.009533491,-0.012487769,0.028541047,0.025569791,0.0021562837,-0.0069782096,0.009635363,-0.0066046803,-0.0893075,-0.011231353,0.040544927,0.0345345,0.070087716,-0.0075427485,-0.15498078,0.007360229,-0.026198,0.0634321,-0.011469053,-0.011214374,-0.081089854,0.032717787,0.037285034,0.03692781,-0.16620772,-0.10342392,-0.06317456,-0.018040571,-0.07222741,-0.29802763,-0.04340809,-0.019799037,0.087793104,-0.08883516,-0.0534053,-0.0028676854,0.28734657,-0.00020098222,-0.067994066,-0.13299222,-0.029014708,0.19369191,-0.3050615,-0.07424639,0.09821365,0.009533172,-0.039760895,-0.1306476,0.08512284,-0.52206933,0.021541223,-0.0096308645,0.019636218,0.15682922,-0.0126837585,-0.06773355,0.02414636,-0.51633805,0.041845005,0.059331983,0.07776333,0.11892448,0.017633518,0.06766842,-0.017405568,-0.020548014,-0.006740791,-0.05698736,-0.25660595,0.05503351,-0.07470229,-0.02066199,0.038979355,-0.0062116226,-0.027305087,-0.09046337,0.0948921,0.033166643,-0.040998336,-0.96129537,0.06766842,-0.17701903,0.0042374176,-0.032026898,0.038881663,0.027874961,0.07717717,0.052531894,-0.038022738,-0.10236611,-0.008343676,0.052458987,0.0031169169,-0.027961113,0.09850186,0.055047303,-0.03501519,-0.09252322,0.08625293,0.002279587,0.109948784,0.055557676,0.03461418,-0.030184878,-0.10345976,0.071379215,-0.021071086,-0.12146862,-0.014964846,0.06973873,-0.019940976,-0.013789167,0.035051644,-0.06886381,-0.00068182556,-0.06507247,-0.021854872,-0.013816508,0.0003041728,-0.033575207,-0.034067355,-0.14946619,0.030294243,0.038460203,-0.11344848,-0.11716691,-0.010954778,-0.015283829,0.012458554,-0.01915719,0.053042267,-0.061718598,0.001983389,0.04028296,-0.006657625,0.039881952,0.017225066,-0.046589702,-0.08625293,-0.11738564,0.0021064251,0.032299276,0.073129065,-0.041449524,-0.07221769,0.09748112,0.05566704,-0.026338859,-0.11906257,0.035197463,0.010280357,0.055024665,0.4142194,-0.025264243,0.051563323,-0.0030688206,0.07465084,-0.043034855,-0.0052321604,-0.011855995,-0.047780823,-0.014541213,-0.21082082,-0.18983866,-0.041500445,0.0104554,-0.033221766,0.03721837,0.038538676,-0.2809041,-0.026870022,0.07700598,-0.23893979,0.007150173,-0.04217844,-0.024853878,0.052669525,0.0043846667,0.038788464,0.01567418,0.032936294,-0.12896183,-0.112190366,-0.0039341566,-0.12639259,-0.09634669,0.0057361964,-0.029849632,-0.07686325,-0.004496179,-0.089923576,0.016075624,-0.03009942,0.012908672,-5.9171252e-05,0.025924396,-0.006561388,0.041857284,0.058914218,0.009483012,-0.09684627,-0.12132546,0.035933748,0.0110352645,0.04282075,0.01234665,0.0022492046,-0.09149367,0.032775715,-0.03414955,-0.031705197,0.04371285,-0.033935446,0.017618954,-0.06583691,-0.3737452,0.08406034,-0.045683563,-0.16126652,-0.13268602,0.14936876,0.0571287,-0.26899308,-0.37684897,-0.06566406,-0.0082322555,-0.0761716,-0.039411366,-0.024781635,0.022744788,-0.030859843,0.03300985,-0.34451807,-0.047138453,-0.010653031,-0.084577635,0.007100674,-0.12693112,-0.05903622,-0.053798616,0.040090315,0.015623908,0.025589908,0.1469116,0.013659805,-0.09492352,-0.06498511,-0.08302575,-0.0015680486,-0.024329001,-0.09744533,0.04287077,-0.26162165,-0.08975058,0.086711474,-0.06375653,0.0018772129,-0.09000923,0.02717412,0.017798161,0.17911318,-0.087940045,-0.05580313,-0.12958224,0.2865811,-0.048334695,0.0035584196,0.0053143916,-0.0761716,-0.25412086,-0.159456,-0.026640661,-0.0128596155,0.031312477,-0.0925957,-0.03378579,-0.4746176,0.083801694,-0.027044797,-0.07638099,0.0572971,0.0011891931,0.0697925,-0.12986131,-0.10432525,-0.5169007,-0.04582405,-0.08805851,-0.17102799,0.045755893,-0.22791615,-0.08256053,-0.03514616,-0.046460178,0.03766796,0.03696367,-0.07760781,-0.0067702364,0.033487678,-0.14694594,-0.03432828,0.03680464,-0.18193306,0.065793976,0.077698685,0.12686242,0.00062796497,-0.24245624,0.04789147,-0.055933967,0.15548825,-0.015448862,-0.064339966,0.016459852,-0.062658764,0.027648918,-0.012824827,0.081197396,-0.13613173,0.08147003,-0.05793323,0.061568256,-0.027080946,0.024968086,0.115593836,0.025172556,0.031420257,0.042370774,-0.041348424,-0.017629877,0.025013525,0.15021746,0.047346216,0.0055519347,-0.045301516,-0.0064067338,0.05688816,-0.08569574,-0.011490091,-0.1209555,0.00029197356,0.03619123,-0.065157846,-0.060097124,0.109973215,-0.08306212,-0.15551506,-0.19225904,-0.023822138,-0.14710534,-0.05136396,-0.5330466,0.039590355,0.044312734,-0.032927275,-0.4636988,-0.064625435,0.03975208,0.12963901,0.0041927285,0.038328897,-0.0180162,-0.012703523,-0.2986096,0.016981158,-0.06588689,0.09412413,-0.024889525,-0.05618337,-0.02273858,0.03522377,-0.13960129,-0.00012836947,-0.06543406,-0.0023712975,-0.14956357,0.020652322,-0.007427235,-0.009363895,0.17375767,-0.03444749,-0.10376296,0.08002169,-0.25720793,-0.21308927,0.0360324,0.046415165,-0.25190336,0.06624269,0.044053975,0.0012149614,-0.017514851,-0.04939091,0.061584998,0.0066873417,0.117865406,0.03635585,-0.20946662,-0.08280336,-0.0082641635,0.021283051,0.009129394,-0.0025673893,-0.025018906,0.02338548,-0.14296517,-0.097035185,-0.006685191,0.28110448,-0.005732333,-0.02426561,0.05988959,0.044249054,0.025495594,0.003707035,0.03002072,0.01781199,-0.08673665,-0.055820014,-0.010265051,-0.015177394,0.0018867346,-0.009270434,-0.043884613,-0.11279409,-0.31463292,-0.123605795,-0.0700939,-0.041394275,0.017827176,-0.08151301,0.043307584,-0.055516314,-0.03225291,0.03358919,0.02481227,-0.054605216,0.078233056,-0.14115964,0.0058614053,-0.1245169,0.0073912926,0.056974072,-0.020271959,-0.04692161,-0.06711765,-0.11990066,0.01826754,-0.013036312,-0.07944785,-0.13824412,0.017159035,-0.06201549,-0.010280237,0.008215078,0.021653792,0.1211762,-0.033558823,-0.05627556,-0.07307016,-0.015822757,0.02493375,-0.03726396,-0.029033696,-0.045615703,-0.052995604,-0.008518778,-0.024857825,-0.032435134,-0.024827454,-0.15197136,-0.02675493,0.13506271,-0.027251756,-0.05512914,-0.16752192,0.028227003,0.08567466,-0.014831138,-0.14823776,-0.050639316,0.014904741,-0.13955253,-0.2730696,-0.10414918,-0.022577923,0.033287257,0.001027576,0.09619998,-0.19519691,0.02454682,0.03764827,-0.081552856,-0.07290442,0.111288734,0.011141754,-0.062452704,0.036875434,-0.023185153,0.043168545,0.07106433,-0.21757242,-0.10547405,0.047511164,0.0013398166,0.06451361,0.07422929,0.048983235,0.014647128,0.016818436,0.031557567,-0.018732132,-0.06650091,0.004517425,-0.1045172,-0.0704019,-0.06778897,-0.0123102125,0.036323406,0.00060032983,-0.11401207,-0.05350986,0.022909138,-0.029827883,-0.048210397,-0.018483719,0.07187397,0.040776428,-0.06650091,-0.10503242,0.05108094,0.10598927,0.026166102,-0.057042837,-0.061790273,0.038268898,-0.016229682,-0.02515319,0.07042249,-0.049501736,0.017042372,0.008098748,0.03540436,-0.037528623,-0.035307806,0.008497047,-0.09308129,-0.09160074,0.018024039,0.004489917,0.14792587,-0.040039115,0.0731261,-0.022336934,-0.013147892,0.1186368,-0.07261113,-0.010629355,-0.004695101,0.0067147594,0.022771442,-0.026231414,0.017621716,0.009671828,0.06279446,-0.13054554,0.027052151,-0.023302509,-0.009720107,-0.014185884,-0.005765279,0.0015710685,0.063148506,-0.03136505,0.0028745928,0.022964558,-0.073962934,0.025330212,0.014177838,0.035919335,0.03233062,-0.010363823,-0.0027780356,0.019826444,0.018007947,-0.04177715,0.013598494,-0.049437366,0.04290365,0.0060388576,-0.010009779,0.00092986744,-0.0059905793,-0.01023508,0.020775924,-0.05648605,0.009631596,-0.022465678,0.013590448,-0.038836,0.016102517,0.0036408748,0.051148135,0.05248488,-0.03310206,-0.020332614,0.021352764,-0.021950781,0.0066573485,-0.031167295,0.020156726,-0.014053425,-0.014035836,-0.010307018,0.0060461387,-0.021563828,0.0024580301,-0.0320995,-0.014255696,-0.032978937,0.005988975,0.009884887,-0.022460856,-0.033893555,-0.033840787,-0.012136249,-0.015733153,0.011485465,0.0094715515,-0.004254283,-0.021335175,-0.0055404617,0.029725017,-0.0062220264,0.00803367,0.006437489,0.035881083,-0.004542299,0.018784802,-0.0430573,0.023305116,-0.009656233,0.0015906842,-0.023269938,0.0042081126,0.01968183,-0.021651773,0.0055316673,0.023604125,-0.06525432,0.0053733685,-0.05807811,-0.0064990493,-0.0015489109,-0.025169525,-0.0023261146,0.01811643,-0.03834351,0.018327495,-0.025011227,0.034702636,0.12438776,0.028300326,0.016181832,-0.1489357,0.0073152096,-0.0737216,-0.0022583867,-0.041554317,0.05263023,-0.012244384,0.065944895,-0.019255202,-0.03487735,0.12340611,0.0025038635,-0.28373194,-0.12678388,0.30321297,-0.141159,0.05455477,-0.016869167,0.0012525455,-0.076628044,0.048427667,-0.0487026,-0.034150735,0.0016078732,-0.06111391,-0.0699118,-0.024449492,0.121363744,-0.02574561,-0.04426438,-0.020148737,0.029791068,0.008017273,-0.012804071,-0.0017846165,0.020188015,0.051451944,-0.0016937901,-0.21382013,0.056714967,0.06771233,-0.03028202,-0.04795635,0.0341311,-0.04583543,0.0064020357,-0.00070635957,0.02268206,-0.05934648,-0.032579683,-0.008488589,-0.01747795,-0.06987252,-0.017242292,0.04002254,-0.0090679135,-0.02372288,-0.0045216833,0.05836457,-0.051962536,0.033541955,-0.117121905,-0.021484131,0.020404872,0.62038946,-0.06769735,-0.093872584,-0.08434692,0.34324962,-0.07868851,0.07132036,-0.008507966,0.038306203,-0.10966728,-0.07889205,-0.27486023,-0.15762126,-0.044900894,-0.038591158,-0.033258412,-0.0817009,0.13612746,-0.21656641,-0.047261953,-0.019672127,0.006223231,0.06330089,0.06183541,-0.16527437,-0.450393,-0.033482306,0.20614517,0.082759306,0.012344692,-0.19523543,-0.067900896,-0.11194692,-0.29749385,-0.007617479,0.03529381,-0.41815227,-0.38591158,-0.0044244477,0.054996468,-0.17129914,-0.3150797,-0.37060538,-0.12529914,-0.26313633,0.0015303653,0.0495416,0.02798673,0.27388322,0.2865841,-0.105107985,-0.1348248,-0.1485841,0.10950445,0.109992936,-0.52659833,-0.13669737,-0.0024475667,0.011001329,0.06867435,-0.40838236,0.026338058,-0.16323897,-0.14797859,0.07224335,-0.1091022,0.06370761,-0.07468767,-0.0062223556,-0.80204856,-0.06712191,-0.11678436,-0.06118569,-0.03682005,-0.38612556,-0.08745247,0.118646696,-0.00992279,0.009874292,0.0738341,-0.061146893,-0.10529991,-0.14487468,-0.1443315,-0.08892682,-0.14906494,0.32156438,0.004105397,0.24132846,0.13758051,0.08613331,0.2084271,-0.06758749,0.13525258,0.10786063,-0.13641654,-0.07007062,-0.008836424,0.09265151,-0.023570264,-0.10817102,-0.15542795,-0.027682936,-0.09552262,-0.17800884,-0.070924185,-0.057305813,0.009801544,0.08830605,-0.023027081,-0.023453869,0.053658724,0.3075968,0.06428959,0.012658105,-0.19896019,0.06339722,0.0053105843,-0.17707768,0.0039283773,-0.105920695,-0.16698998,-0.019166602,0.10452394,-0.075851634,0.110654145,-0.12648405,-0.04441822,-0.17444979,0.048178494,0.06389106,-0.02669122,0.014260498,-0.004192536,-0.13040088,0.054221787,0.19137101,-0.11589697,0.03595761,0.0016062994,-0.090649426,0.07325817,-0.28900382,0.014428367,0.070370816,-0.03521898,-0.17727,-0.032415565,-0.15161957,-0.063991785,0.11811285,0.002331285,-0.107167765,-0.09917719,0.09588695,-0.019842153,0.026624072,0.038106333,0.0045618485,0.01745841,-0.16921227,-0.74990577,0.04347815,-0.089306474,0.035789736,-0.026271548,-0.08057727,0.11274103,-0.437266,-0.38193625,-0.11502405,-0.026791941,0.08910503,-0.087426335,0.00082151045,-0.35910603,-0.2774544,-0.03736771,-0.16813791,-0.13597414,0.029343555,0.030384345,-5.8098518e-05,-0.14101022,0.014881615,-0.054893266,-0.13194528,-0.18183604,0.053785328,-0.12160453,0.036394067,0.013983175,-0.14724429,-0.04683638,0.016228225,0.00016722959,-0.043313976,0.014679915,-0.047068626,-0.0013535618,0.020340923,0.0020623975,0.025160039,-0.002455523,-0.076912306,0.15010867,0.0076689734,-0.03355962,0.024134284,0.11565877,-0.07900252,0.0057916474,-0.059455108,0.0123671265,-0.07892511,-0.028488906,-0.027927643,-0.07555753,-0.2821021,-0.082060434,-0.0072673806,0.051249065,0.06077117,0.012425189,0.0038925484,-0.18099745,0.0539199,0.025005208,0.009768869,-0.03454667,0.06766115,0.0068319184,-0.08802143,-0.03615304,-0.014331546,-0.0030361393,-0.025334224,-0.06797081,-0.044010714,-0.091814786,-0.09769837,-0.055352084,-0.034411192,0.017815243,-0.029863032,0.036036916,0.046758965,-0.0399464,-0.013170313,0.059029322,-0.23828493,-0.10636891,0.025450347,-0.03214679,0.0026950273,-0.012965851,0.86260116,0.018466886,0.18100964,-0.017332526,-0.005857808,0.17242265,0.02099175,-0.0938713,-0.11299685,-0.1354401,-0.6260689,-0.08347911,0.14695445,-0.058108483,0.091480605,-0.084942795,-0.28668803,0.029883666,-0.12753616,-0.16334778,0.0703059,0.06986679,0.29449436,0.028249212,-1.3208336,-0.16695821,-0.068793416,0.16159135,-0.52927023,0.033616073,-0.009111469,-0.17525245,-0.004830176,-0.064451136,-0.02000376,-0.093627356,-0.0055376263,0.0740627,0.04405706,-0.016710458,0.022113912,-0.0026453142,0.14549077,0.004888114,0.042422608,0.019832997,0.036982562,0.020589236,0.36358052,0.2193583,-0.025687754,-0.059425805,-0.19915938,-0.014966227,0.035640843,-0.05010698,0.041349236,0.10265344,0.03242073,0.1812048,0.08201542,-0.091773346,-0.024833936};

#endif
