#pragma once

#include "parameters.h"

#ifndef KERNEL80_H
#define KERNEL80_H

static float bias80[FEATURE_MAP80] = {-0.18136588,-0.38985056,0.5806546,0.015291788,0.22717053,0.3896669,-0.4655999,0.81477237,0.7252166,-0.044715583,0.18120818,1.3234657,0.5593002,-1.0588281,2.1730437,-0.1802754,0.2893723,-0.2676202,0.24539942,-0.18371177,-0.20150322,-0.4293053,-0.103198975,-0.58372784,1.0414711,1.4719334,0.114741385,1.1479596,0.5861909,-0.34403074,-0.13419083,0.9063784,1.6845934,0.22964767,-0.69499695,1.4979948,0.4945902,0.8757563,-0.30402052,-0.115740985,-0.4466287,0.15172738,-0.09642911,-0.35616806,-0.04734767,1.4661443,1.7223547,1.9433835,1.156119,-1.0856498,0.45056945,0.5153787,-0.6402186,-0.59701544,-0.24605978,1.035704,1.9319179,0.21084577,0.052869305,0.42876205,-0.27862036,0.4009671,0.42569014,-0.3594676,0.776099,1.1363153,-0.3600338,-0.33553168,0.04147476,0.6265693,-0.22660637,-0.10496968,-0.051621214,0.6939411,0.050519194,-0.5647539,-0.0038504004,2.1502566,0.08311531,-0.19305947,2.6072617,-0.4893945,-0.3922214,-0.14909959,-0.25754446,-0.20322478,0.90001297,0.038355537,-0.24021165,0.25862586,-0.17591523,1.6620317,0.3888245,-0.41839588,0.35272035,0.07119917,1.783741,-0.54862684,0.2668873,-1.0478821,0.06406992,0.21864969,0.1478929,0.08039647,0.56927484,1.142696,-0.2964564,-0.046847098,-0.3268439,-0.10462481,-0.2234729,-0.40330598,-0.51710117,-0.46897352,0.9934256,-0.086007774,0.47473857,0.46557966,0.0054404214,1.2958286,0.9602913,-0.042983763,-1.0083264,0.2594903,1.0845771,0.23922434,0.18983015,0.7267321};

static float kernel80[FEATURE_MAP80][IN_CHANNEL80][KERNEL80][KERNEL80] = {-0.15648086,-0.11135907,0.09137477,-0.0044108434,-0.2931031,0.024477629,0.12355075,-0.08226243,0.24571894,-0.054516926,0.047164213,0.013260025,-1.0658295,-0.45498854,0.49344888,0.11198751,0.055868067,1.1291759,1.205594,-0.10570314,-0.117329225,-0.006798905,-0.6827342,-0.40672454,-0.20750996,0.07499912,0.21058384,0.21954139,0.15016109,0.091285564,0.15455844,-0.060015578,-0.072148986,-0.097718716,0.15814145,0.28599012,-0.08924976,-0.18566556,0.028989885,0.2157955,0.29413334,0.11994972,-0.13021019,0.19755466,0.34918153,0.08452669,0.13167597,0.06579727,0.06095205,0.0482079,0.15587968,-0.08361386,0.30602297,0.028900092,0.0011330504,-0.011464951,-0.10668405,0.8380092,-0.02308578,0.027434824,0.056023158,-0.0089474935,-0.14453164,-0.37884998,0.2333207,-0.06846236,-0.10655935,-0.2731012,-0.31774515,-0.18094513,0.12744723,-0.029882135,-0.24479344,0.14777394,0.015650319,-0.10849888,0.07058223,0.17321631,-0.103588805,0.054590415,-0.09008612,-0.034609165,0.6224876,0.423357,-0.15521273,0.006887735,-0.6208509,-0.24618538,0.33524856,0.049373467,0.13516328,-0.18153615,-0.52074003,0.23459217,-0.10904444,-0.10699858,0.084835075,0.08844943,-0.054351732,-0.008528687,-0.029963877,-0.086316764,0.06883242,-0.019856755,-0.03280752,-0.1277202,0.063827604,0.36944616,0.35332674,-0.16093397,-0.2982088,-0.35514668,-0.4027249,-0.32810768,-0.186673,-0.25089058,-0.29378897,-0.20903216,-0.10289114,-0.26012024,-0.0074625327,-0.13558492,-0.08696674,-0.07292727,-0.16899367,0.18406484,-0.37941775,-0.07849824,-0.33380467,-0.17197046,-0.1470906,0.22691347,-0.2914168,0.24971999,-0.3114589,0.4731779,-0.08408468,0.21954165,-0.40360647,-0.16390754,0.39139694,-0.29003456,0.09594869,-0.00015027978,0.017882394,0.15066132,0.273448,-0.0431078,-0.085927635,0.28289312,-0.023988925,-0.015092942,-0.011541027,-0.011821725,-0.045127682,-0.013376363,0.02093363,-0.22041309,0.054585062,-0.07570223,-0.0053494656,-0.06300601,-0.6156366,-0.15477283,0.012760986,-0.0067043756,-0.3111003,1.9940821,0.08330268,-0.044695836,0.01836416,0.056226067,-0.39453253,-0.027832335,0.01698226,0.013056468,-0.23828635,-0.2603545,-0.04205965,0.0014054106,0.108852975,-0.27200845,-0.26209018,-0.18001653,0.06012949,0.16613096,0.76519424,-0.06366287,-0.46938196,0.12267656,0.015443051,-0.013164949,-0.061741207,-0.26109836,-0.33027828,-0.07246534,0.0151641,0.2133667,-0.095835246,-0.046894804,0.33689722,-0.346299,-0.13197318,-0.19012494,-0.09924104,0.5038659,-0.160962,-0.28048652,-0.42934808,0.6334016,0.43178558,-0.15190843,-0.456857,-0.6619552,0.39731237,0.14111379,0.0444626,-0.7019998,0.039348204,0.5825623,-0.19256245,-0.43317842,0.051318064,-0.013504181,-0.23051779,0.010846978,-0.11764445,0.05001577,-0.015549381,-0.031252187,-0.15575463,0.15268618,-0.14298987,0.03412119,-0.08597803,0.751648,-0.05286943,-0.32893807,0.12040606,0.94704705,0.23725271,0.24449426,-0.30242664,0.0023301058,0.26707807,-0.22276962,-0.14262165,0.29383498,-0.08376874,0.0999088,0.1380521,-0.37834546,-0.46386915,0.20025913,0.2525236,0.34051093,0.15793724,-0.32308942,0.07756082,-0.03642675,0.4043897,-0.5247564,-0.62611777,-0.33012843,0.21345724,0.48569,-0.17359897,-0.4656289,0.44240025,0.62189436,0.10496887,0.4455678,0.44415998,-0.17562269,-0.019599175,0.016204247,0.09040264,-0.4301801,0.14814092,-0.11505015,0.29167643,-0.52126503,-0.052749086,-0.5468507,0.24050513,-0.3824202,-0.18387556,1.0070512,-0.10276904,-0.5492387,-0.15231992,-0.4813514,0.2695022,-0.5372987,0.095519766,0.2764956,0.086607434,-0.63759446,0.17619985,-0.073601395,-0.03936972,0.03884106,-0.01710375,-0.0022370927,-0.035855677,0.07506991,0.015408924,0.25525013,0.016061977,0.077246755,-0.11344451,-0.073950395,-0.32466027,-0.04185754,-0.06247533,0.0102233775,0.02242146,0.10007248,-0.026044346,-0.01047216,0.1929303,0.19094004,0.5498078,0.26171848,0.23099391,0.14944874,-0.06475225,0.09945521,-0.06537274,0.099012,-0.020974677,0.24358548,0.16673373,0.2010378,0.1902236,0.02821,0.18969175,0.034813754,0.48078883,-0.1355321,-0.0034985496,0.2996066,0.04150615,0.31680295,-0.0024473227,-0.13819133,0.14927146,0.12861809,0.024952443,0.20050596,-0.2672935,-0.07585691,0.10130755,-0.144454,0.022068216,-0.31959724,0.05325246,-0.15121883,0.04376519,-0.04046527,-0.17704071,-0.1856205,0.12960435,-0.13372926,-0.06933957,-0.2689435,-0.04508516,-0.09281025,0.017881442,-0.28791803,-0.30804753,-0.16738844,-0.09124279,-0.20789497,0.0020985429,0.056596044,-0.22620058,0.05774357,0.067382805,-0.06894344,-0.20031236,0.17993228,-0.16506033,-0.19113214,-0.053658377,0.07206471,-0.2520888,-1.3043255,0.2142663,-0.008560553,0.071605705,0.39658543,1.0208403,0.27503935,0.04961908,-0.003936019,-0.07890397,0.25943297,-0.011125277,0.05095021,-0.054808896,0.12997028,0.32183117,0.044989713,-0.026169611,-0.0068139182,0.15389338,0.3739621,-0.0326711,-0.010250633,0.062307183,0.027612735,-0.6365211,0.06956743,0.016067754,-0.009848938,0.29826513,0.7284049,-0.022985816,-0.09646604,-0.05995653,0.12473339,0.4351386,0.062723756,-0.054213796,0.10738532,-0.09068094,-0.0028591342,-0.11253982,0.03641556,-0.14251226,0.20102532,-0.27700642,0.23137958,-0.09655134,0.10118084,-0.18794818,-1.3714776,0.8361737,0.14661676,0.03350422,-0.1488122,0.37971452,0.8140285,-0.32244232,-0.06428801,0.040257566,-0.043550715,-0.2896063,0.14193954,0.00918692,-0.018195683,-0.006063248,-0.009537294,-0.019098341,-0.028766282,-0.03225814,-0.1131648,0.0145731745,-0.0096738795,0.009281936,-0.020903656,-0.622929,0.7540519,0.08608506,-0.00089449243,-0.020618606,-0.22594953,0.10204785,-0.021830069,0.0028015056,0.006324544,0.007690408,-0.055014625,-0.012174005,-0.026626224,-0.062279016,-0.07234213,0.046687666,0.0019570165,-0.035069738,-0.025913598,0.16066432,0.2109367,-0.1137607,0.016249986,-0.10909625,-1.1657665,0.94671017,0.23460445,-0.020385364,0.00096366194,-0.46817234,0.42601958,-0.04096508,-0.019014103,-0.012524907,0.08914278,-0.047594644,-0.007196422,0.029725406,-0.07772792,0.17031854,-0.0864313,-0.00084000215,0.026913544,-0.015230923,-0.06293216,-0.13162196,-0.106582984,0.07732622,-0.103570275,-1.8992125,1.0610095,-0.13711178,0.050814375,-0.13871856,1.3625484,0.46998277,-0.26525238,0.04562582,-0.28975576,0.10738638,-0.38160995,0.09024741,-0.09518845,0.10860981,-0.15142052,-0.17151816,0.14908038,0.058675453,-0.17399594,0.15431128,-0.31770778,0.105443746,0.23483947,-0.27104273,-0.8501574,-0.20428005,0.24488828,0.31991026,0.30614477,-0.19602075,0.38020316,0.36836484,0.2084097,-0.10468664,0.47078016,0.098010376,0.12444014,-0.048386775,-0.049231958,0.24425814,-0.027838243,-0.10892307,-0.060694765,-0.12244601,0.022397373,-0.010518577,0.023744384,-0.09624531,-0.5092233,0.28398177,0.009356449,0.050341263,-0.08995926,-0.22439632,0.5966998,0.36807758,-0.10047123,0.02860419,-0.23369333,0.3249732,-0.17336833,0.061645597,0.29050365,0.19889884,0.24634609,0.1840953,0.2907567,0.020165078,0.16334504,0.197254,0.08173578,0.19016854,0.44208178,-0.2317956,-0.61542237,-0.1821974,0.49952456,0.0272189,-0.07395443,0.04909208,0.04554935,-0.008912174,-0.022284389,0.25368458,-0.05396333,0.11766916,0.024783276,-0.13109699,-0.12651674,-0.11165637,-0.14402348,-0.13435405,-0.02694715,-0.18789211,-0.16641583,-0.12783992,-0.13944323,-0.36051673,0.1065672,0.0361331,-0.07521792,-0.33669943,-0.049873855,-0.26585817,-0.12234362,-0.2094702,-0.04109504,0.04814354,0.0003983865,-0.22148064,0.006953077,-0.11837407,-0.46675494,-0.39540935,-0.44397593,-0.41947773,-0.4285034,-0.38251555,0.010677664,0.30579755,0.20941652,-0.32384884,0.11400253,0.3264276,0.20425901,0.23874988,0.1513945,0.077846214,-0.08526014,-0.10997322,-0.081392005,0.018279623,-0.095790066,0.07961911,-0.22370714,0.103472605,0.03672042,-0.07675354,0.024901675,-0.010674831,-0.08291788,0.19004206,-0.039504394,0.008480664,0.061718564,-0.06194409,0.2635631,-0.12313643,0.10990565,0.005219955,-0.045180093,0.40985337,-0.12817314,0.11622034,0.05333657,-0.1659861,0.28852114,-0.09682523,-0.03832039,-0.031836554,-0.0132495705,0.30054912,0.021395769,-0.014772152,-0.013966682,-0.15277329,0.21570939,0.011260931,-0.008656841,-0.071819715,-0.30354464,0.27751938,-0.018658737,-0.02665087,0.08320577,-0.80277926,0.64112234,0.042666417,0.027323399,-0.13900994,-0.5340184,0.48071665,-0.0616536,-0.051987965,-0.07288325,-0.12987608,0.17229225,0.116763994,0.051342174,0.010233539,0.053678665,-0.10329123,0.1582747,0.12671685,0.0031728523,-0.396415,-0.2672706,0.3701977,0.29979944,-0.020725003,-0.352234,-0.3235892,0.07185477,0.21337953,-0.304169,-0.31169432,-0.30246973,0.28644806,0.07901597,0.17587425,0.04044865,0.028462742,-0.049520437,0.15627772,-0.16494177,0.045838214,-0.00024283018,0.025464172,0.18649358,-0.28244787,-0.069853865,0.15638602,0.24475929,0.3067072,-0.6086492,0.44208294,0.29912618,0.13894963,0.16245085,0.36562273,0.07472739,0.13591722,0.046190195,-0.21010311,0.15454492,-0.08685706,-0.06638825,-0.040410817,-0.030517055,-0.01664772,0.027241724,-0.15757734,-0.04034305,0.006273954,-0.34695926,0.028325971,-0.044883337,-0.07070199,0.10246141,-1.4695171,-0.00046659357,0.08357743,-0.007996327,0.36412653,0.97076315,0.56417024,-0.03358909,-0.10887654,-0.22841485,0.40153307,-0.16950406,-0.054031678,0.098935105,-0.1819965,-0.17824854,-0.06327437,-0.12831248,-0.081738584,-0.17703596,-0.325852,-0.07771504,-0.17902018,-0.16722512,-0.18861054,0.5207459,-0.23127113,-0.34900114,-0.12676921,-0.14639089,-0.24317642,-0.30270284,-0.0006450417,0.08129764,-0.1199347,-0.43784985,-0.0023424746,-0.06591999,-0.059160907,-0.04750374,-0.11494655,-0.097132646,-0.038909312,-0.2705213,0.0412845,-0.12082201,-0.26502088,-0.12988523,-0.47303724,-0.13538566,-0.022658033,0.22164245,0.5155406,-0.5485432,-0.29827347,-0.14063607,0.027986579,0.07094309,-0.09369488,-0.038002994,-0.18988995,0.0114384005,0.09994537,0.30897224,0.08795525,0.37372577,0.26804495,0.27515438,-0.052360035,0.2809188,0.021112144,0.2063658,0.1027986,-0.21059303,-0.123070106,-0.100877136,-0.15467827,-0.0031704241,0.025651615,-0.010994406,0.12383869,-0.11134914,-0.028533818,-0.3066665,-0.172644,-0.43233058,-0.37891373,-0.059757695,0.13643952,0.21732867,-0.25558046,0.27994466,-0.0637733,0.24754028,-0.108968884,-0.22719617,0.20380653,-0.06931615,0.18431517,0.11286716,-0.09355853,-0.19150262,0.4536614,0.2129431,-0.09075665,0.33890602,0.08478742,0.060849592,0.1455761,0.112197146,0.43124634,0.3486517,0.2877412,-0.08696606,-0.026526816,-0.12936562,0.06569405,-0.12972678,-0.091155455,-0.1190366,-0.1561633,-0.13687764,-0.11564175,-0.15991932,-0.086893834,0.2903684,-0.14525644,-0.23677304,-0.18101075,-0.17089842,-0.15096268,-0.18924509,-0.083137825,-0.1201923,0.14157265,-0.044638727,0.023583405,-0.15630777,-0.25523156,0.09769968,-0.15139121,-0.26058495,0.05483306,-0.20091021,-0.07758504,0.020213049,-0.23728189,0.028184114,-0.056958675,-0.19130558,-0.05132973,0.11218537,-0.21697044,-0.035781227,0.28325823,0.18784161,0.39583722,0.039678194,-0.11887713,0.23948623,0.107068144,0.07132628,0.13249682,0.068816826,-0.28393564,-0.34904435,-0.006994853,-0.1155776,-0.15150297,0.06987629,-0.095592305,0.0077232323,0.033397112,-0.1011304,-0.26351693,-0.2377046,-0.00026260797,-0.2554265,-0.17153642,-0.1695138,-0.2949155,-0.23558567,-0.11008766,0.055718035,0.14543514,0.30281332,-0.041246757,0.18858412,0.055364866,-0.011162931,0.084478445,-0.0318532,0.05671423,-0.020485818,0.06292949,-0.033468347,0.14368695,-0.06423797,0.18972893,0.025617495,-0.1544001,0.0754009,0.2378154,0.098708116,0.16912045,0.43801212,0.2834485,0.16494969,-0.07724094,-0.11359202,-0.192673,-0.17124672,-0.15832552,-0.08940815,-0.08431643,-0.2705885,0.17796768,0.059342768,-0.07764871,0.06364648,-0.2332492,0.2336129,0.08940815,-0.36078462,-0.39012262,-0.5916092,0.70168734,0.49171454,-0.039794207,-0.27592266,-0.17287597,0.38236383,0.17202735,-0.035126798,0.23543137,-0.3251426,0.25288868,-0.31301945,0.10338081,0.021052714,-0.192658,0.09495972,0.06493821,0.24427995,-0.10769405,0.6660189,0.53045994,0.33410487,0.14623934,-0.45925727,0.21798973,-0.27905974,0.31219634,-0.17869133,0.026581192,-0.5959116,-0.37025392,-0.04960225,0.21360803,-0.1178952,0.11433507,-0.09961528,-0.1760897,-0.020420993,0.004021178,-0.0328401,0.004373862,-0.00518041,-0.06346002,-0.097040184,0.09421871,0.002393627,-0.2197974,0.018085182,-0.00029125353,-1.8486664,0.9605961,0.09065718,-0.02664211,-0.04889012,0.84144664,0.6494014,-0.09713269,-0.012500052,-0.1882524,0.14699414,-0.22997321,-0.031429365,0.077566735,0.041209735,0.49205196,0.21429063,0.17454441,0.3872945,0.23539618,-0.33460766,0.19041209,0.37959173,0.2623558,-0.29624793,-0.64271784,-0.41872174,0.106837206,0.36541867,-0.068092346,-0.35586727,-0.1711552,0.34015363,0.15474834,0.18579043,0.21845011,0.2561936,0.12671031,-0.12903842,-0.134704,0.42823955,0.14730503,-0.040977757,0.22369266,0.20103034,-0.94790983,-0.14808649,-0.10618075,-0.1269871,-0.45676282,-0.9103998,0.8260022,0.1541428,0.35614994,-0.13890435,0.2781994,0.6427501,0.048767928,-0.020171411,0.25846758,0.06432385,0.022698943,0.0038492964,-0.06686037,-0.024957096,0.27694896,-0.031757575,-0.108631596,0.015702724,0.045028415,-0.30547133,-0.20353019,-0.0001980722,-0.034310505,-0.50213504,-0.2644484,-0.085171044,-0.12808669,0.084422775,-0.05964174,1.1338533,-0.123685084,0.011262605,-0.19367059,-0.20581903,0.4074125,0.36480498,0.05686873,-0.20352301,-0.011152771,0.01446846,-0.1974141,-0.097662106,-0.022345733,-0.27538303,0.042038914,0.04135568,-0.19773562,-0.1814988,-0.02027594,0.1483821,-0.29451355,-0.09557222,-0.25850317,0.121856585,-0.23278145,0.025078664,-0.21123952,0.016859775,-0.14910552,-0.22860166,-0.08488163,-0.13005538,-0.18168733,-0.13102585,-0.37336814,-0.27620915,-0.31423995,-0.24983743,-0.2617741,0.13158104,-0.290089,-0.05166777,-0.25552815,0.06877469,0.41473013,0.23984392,-0.38835838,-0.3586555,0.14337893,-0.08445893,-0.056074623,-0.36726102,-0.08855349,-0.20861425,-0.07141186,-0.07967038,0.06617222,-0.027734345,-0.15506324,-0.20532757,-0.16467129,-0.044370506,-0.101863116,-0.07406204,-0.09866043,-0.0021045408,-0.2174266,-0.17730409,0.02604404,0.1332672,-0.14625587,-0.18575561,-0.20639513,-0.117520675,-0.07570787,-0.025710428,-0.16787396,-0.057648294,0.024398217,-0.28699598,-0.1359361,-0.07406204,-0.12527812,-0.25341192,-0.4015356,-0.124595225,-0.33672372,-0.2118181,0.03858293,-0.22150263,-0.14315724,-0.026632464,0.4725555,0.31958956,-0.08356013,0.50707215,0.6555683,0.17084508,-0.20337518,-0.34516665,-0.46138105,0.028417272,-0.07182694,-0.0748068,0.03734132,-0.03917269,-0.006421434,0.031237856,-0.016459718,0.029932158,-0.09962878,-0.0105741825,-0.043088064,-0.04641166,-0.09060759,-0.03127742,0.020891182,-0.025203945,-0.105880305,-0.76790917,1.828295,-0.1839057,0.0037341008,-0.0028834182,-0.078816734,-0.06908334,0.023898246,-0.026272243,-0.020109741,0.02856711,-0.08174466,0.023482796,0.052773457,0.17945905,0.23511283,0.01249159,-0.0031000136,0.13952503,0.27299646,0.042765543,-0.103984706,-0.14059904,0.18053307,0.23921365,-0.22866872,-0.35618424,-0.1496794,-0.064636506,-0.033734005,-0.25991294,-0.1231218,0.033734005,-0.10749968,-0.07225228,0.120192654,-0.15417075,-0.020089064,0.05300915,0.08677602,0.12778659,0.13529034,0.070171185,0.09992615,0.16864859,0.3277875,0.3560194,0.11760825,-0.050260253,-0.09836596,-0.18454762,-0.24710362,-0.11790542,-0.07236288,-0.022511244,-0.03103654,-0.00659364,-0.06987401,-0.022919863,-0.00023478233,-0.0038726025,-0.042459328,0.0034709477,0.03579381,-0.0011058745,-0.024917686,0.029895812,0.0021170564,0.030085197,0.030950958,-0.034846883,0.06623072,0.0051438385,-0.011944797,-0.016909396,0.012661756,-0.07505066,0.09436796,0.0022996778,0.15951648,0.10757081,0.0021204383,0.04090721,0.10757081,0.1617891,0.38461435,0.1623302,0.052378546,0.14748633,-0.08471487,-0.019732447,-0.03256602,0.2639859,0.24190949,0.165839,0.15706164,0.2585333,0.15373687,0.12787025,0.3218367,-0.7271914,0.47397768,0.32130474,0.23725483,-0.28646126,-0.3218367,0.24975592,-0.059380203,-0.106990755,0.37157512,0.034610745,-0.08119062,-0.023855148,0.18051773,-0.1825282,-0.12549475,0.10856459,0.094226874,0.23194307,-0.044335835,-0.11237388,-0.109305285,-0.08295774,0.62980163,0.03650564,-0.42706305,0.09729546,0.043066073,0.38600746,0.024178373,0.0072614476,-0.26157084,0.06936071,0.35320526,0.03076526,-0.23913838,-0.08168798,-0.19342698,-0.0075846207,-0.35553923,0.20342995,-0.48652738,-0.05099644,-0.58398104,-0.11533255,0.53877443,-0.09337768,-0.5939858,-0.10745844,0.4131592,0.18499526,-0.030546915,-0.52617586,-0.21528743,-0.27883613,0.6102899,-0.31477913,-0.18925655,-0.34720194,-0.023228625,0.19453683,-0.44613782,-0.35590976,-0.15673879,-0.07887268,-0.24287322,-0.12603812,0.11266499,-0.22705553,-0.089585565,-0.1804653,0.033900153,-0.08699722,-0.18981211,-0.12646951,0.15300006,-0.07308485,-0.16249067,-0.16824254,0.05895679,-0.21123786,-0.22072847,0.0728332,-0.08577494,-0.21339482,-0.18751135,-0.059639826,0.09584074,0.072032064,0.065060034,0.30999842,0.17569512,0.100690775,0.21987577,-0.13628481,0.15206362,-0.029887985,0.0524003,0.29458657,0.110525005,-0.39454344,0.10369975,0.3604906,-0.0052657165,0.20828019,0.34610617,0.19844596,0.043740306,0.15485242,-0.079774685,0.37869126,0.0071784374,0.18464868,-0.10056774,0.05815439,-0.13951673,0.023006132,0.023813365,0.03968894,-0.018953152,0.05993703,0.010838781,-0.2063825,-0.1004332,-0.12646645,-0.071574636,-0.19265954,-0.2542783,0.06373775,0.1675008,0.20180818,-0.056472655,-0.072516404,0.09895328,0.20100094,0.3237003,0.29329455,-0.017641399,0.21277085,0.06029609,0.12574625,-0.29735056,0.036607157,-0.052763205,0.5003419,0.28809968,-0.4281848,-0.10651758,0.6665939,0.56774133,-0.24158081,-0.51778644,0.06723427,0.022235215,-0.29047847,-0.26920137,-0.166252,-0.089601636,-0.38140166,-0.26470807,0.07916133,-0.030676667,-0.019096514,0.08071037,0.02093957,0.00026780582,0.03924685,0.006130465,-0.06234371,-0.54181635,-0.554483,-0.054743715,-0.037584353,-0.017208843,0.0140916575,-0.44713306,-0.22752486,-0.06788538,-0.049439553,0.7409995,0.9841994,-0.30779982,-0.08439162,0.04354164,0.18889154,0.08637078,-0.12310409,0.021751028,0.07400342,0.009262937,0.12779225,0.014998327,0.11878575,-0.2776004,-0.07615498,-0.15921493,0.15371096,-0.39208305,-0.3748706,0.177328,0.28580633,-0.07980761,-0.27920154,-0.13829984,-0.27459824,0.11328178,-0.21395445,-0.13509752,0.5932282,0.38667914,0.46713722,0.42710832,0.6092398,-0.00323579,0.006093594,-0.021075588,-0.02549688,-0.011740477,-0.0026115403,-0.05071886,-0.032735884,-0.03880657,0.033995837,-0.03672192,-0.075368136,-1.1780337,1.2828618,-0.06565504,-0.010068174,-0.14468849,0.42810932,0.46146372,-0.02810842,0.0052603064,-0.0023609812,0.017215548,0.049206916,0.03630957,0.04603678,0.003063672,-0.11927897,0.07892019,-0.015001781,-0.24019189,0.1808792,-0.63659024,-0.38398024,-0.027287107,0.13153365,-0.24542056,-0.70979154,0.52057916,-0.07356898,-0.18022561,0.16878791,1.1182811,0.4019538,-0.05931269,0.055963077,-0.24264283,0.09967147,-0.17597732,-0.0057188547,-0.0074206693,0.0069102794,0.045074437,-0.0013160055,-0.013150047,-0.04335312,0.028641883,0.06733144,0.005289041,-0.04599514,-0.0369082,0.009937593,-1.0170971,-0.08718661,-0.008996874,0.021776637,0.33881885,0.6757162,0.48356944,0.049597893,-0.016162349,0.03142401,-0.19871181,0.018804366,0.033005215,-0.19423132,0.042357873,-0.09015341,0.10316315,-0.22035243,-0.19768703,-0.17746095,-0.22990645,0.056765143,-0.10326479,0.1454448,0.24555878,0.20256567,0.38338068,0.22990645,-0.3663054,0.038216103,-0.29739445,-0.32219428,-0.38561675,-0.24982761,-0.2666996,-0.0068415464,-0.40757066,-0.08613869,0.16821045,-0.11415396,-0.006506437,-0.14800435,0.113424875,-0.009543208,-0.12738165,-0.22268355,0.06369083,0.15498275,0.6936728,-0.059732933,-0.3224641,-0.052442078,0.7449171,0.5320241,0.018109962,-0.3507943,0.02176841,0.47161415,0.24288963,0.061868113,-0.07717891,-0.041167293,0.2318492,-0.005476112,-0.05059401,0.11302324,0.14053547,-0.03519583,-0.07194077,0.099514976,-0.25231943,0.40177777,-0.17808595,0.10162177,0.27685735,-0.12591185,0.69201946,0.033987526,0.15354802,-0.014972171,-0.23930687,0.61121774,-0.09424799,-0.10682678,0.21266215,-0.1492105,0.13235615,-0.21489286,-0.008821126,0.13268834,-0.034299903,0.116075456,-0.05306102,0.010141386,0.1262437,0.13734283,0.08993878,0.15825216,0.25005272,-0.094020404,-0.25205773,-0.1410664,0.24589951,0.09982059,0.10254167,0.17830221,0.23043233,0.12746102,0.03476535,0.07783715,0.16684504,-0.0041733636,0.12781905,0.1296126,0.36400643,0.5531443,0.40737385,0.18955754,0.020232296,0.005958647,0.13471876,0.0129752485,0.050327178,0.0018514211,-0.019008216,-0.08288771,-0.1470295,-0.10611025,-0.16535573,0.011340228,0.026894787,0.05938537,-0.1524854,0.025985472,0.011943524,0.11611274,0.09652746,0.02493626,0.21837777,0.15346599,0.45829955,0.004343336,0.17375092,-0.0012546929,0.03222856,0.4098955,-0.05501413,0.3637298,-0.112056755,-0.30217552,-0.31140867,-0.3519785,-0.27125847,0.19445555,0.14409296,-0.041304316,-0.31924284,0.118841715,-0.16437788,-0.051866468,0.41157424,0.14703077,0.13737795,-0.0039198813,0.028777959,0.060933046,-0.07801167,0.112120666,-0.085055396,0.06580576,-0.004091753,0.084186986,-0.0785906,0.3371339,0.13942716,0.399852,0.2626441,0.34060752,-0.1263046,-0.18477717,-0.47935927,-0.29004708,-0.02745123,-0.06792852,-0.11501534,-0.011174677,-0.16200568,0.0063502076,0.052775588,0.13570866,-0.37921426,-0.28072122,-0.06360341,0.17950116,0.31825766,0.582296,-0.01713402,-0.0258063,0.11341137,-0.13530762,-0.9098576,-0.6355528,-0.15977047,0.23484334,0.13386391,0.5688214,0.43343356,0.07928369,0.038158033,-0.014637606,0.017625282,0.011950703,-0.08277266,0.058514655,0.09169765,0.28635147,0.14636071,-0.026738975,0.110289015,0.07236559,0.16398917,0.22576287,0.07747637,0.07377291,0.14117587,-0.2939065,0.17776604,0.18502481,-0.044219304,0.14176841,0.2343549,0.17598838,0.036312416,0.01068448,-0.02999802,0.088512674,0.0480709,-0.06384764,0.25594354,-0.03944434,0.31824684,0.23402199,0.26152006,0.16816124,0.28132635,0.22921464,-0.06951434,-0.073985174,0.11768403,0.045285273,-0.2967099,0.20556246,0.050332997,-0.099319935,-0.19152498,-0.36708954,-0.36785874,-0.2207537,0.056678705,-0.2672889,0.026272189,-0.29209483,-0.11479961,-0.076063715,0.21784407,0.08938875,0.18483433,0.06001311,0.29395825,-0.16313069,0.18402675,0.025325129,0.10205762,-0.07253057,-0.24368654,-0.15273312,-0.059760746,0.016000131,0.26125136,-0.088076435,-0.22329521,0.12143949,0.24388844,0.15899184,0.25034907,0.37996528,0.25882864,0.14889713,0.49843755,0.10298296,0.06842646,-0.24029358,0.35105747,0.30963543,-0.06745384,-0.2574574,0.0072302623,-0.19520994,0.6572602,0.16179767,0.03658756,-0.15928032,0.0084388815,0.3503709,0.34236115,-0.4938605,-0.17987691,0.033440858,0.5963858,0.14417616,-0.9195234,-0.114711575,0.113796175,-0.06385405,0.111315146,0.0892288,-0.01306775,-0.019889975,-0.07558436,-0.1284934,-0.07558436,0.07578068,0.023718273,-0.36221594,-0.5194707,-0.3559336,-0.110333525,-0.049350694,-0.12898421,-0.3567189,-0.114063665,0.059682194,0.0076075164,-0.124076135,0.08471338,0.12692282,0.0062117823,0.023399249,0.21486397,0.17697613,0.5945733,0.7145515,0.5620031,-0.17132619,0.10975844,-0.04947854,-0.24128576,-0.17165853,-0.056333248,-0.26488256,-0.5985615,-0.41743103,-0.6307994,-0.3140703,-0.2627223,0.079182275,-0.083004296,0.28415886,-0.119645834,0.03454358,0.29329845,0.43936607,0.07241066,-0.010138289,-0.08106031,-0.03356044,-0.12504081,0.047062825,0.027165785,0.0041979305,0.47440064,0.40888992,-0.1472151,0.060818233,-0.24713734,-1.4279864,1.0982245,0.1678252,-0.055757716,0.13322966,-0.42324337,0.14482285,-0.17224166,0.02847692,-0.08612083,0.05980613,-0.004177803,0.059070054,-0.0855018,-0.035658766,-0.20951506,-0.07135715,-0.037402086,-0.13795981,0.046039432,-0.2160129,-0.22314464,-0.02276218,-0.04235469,-0.18209743,0.22488795,0.036867205,-0.29351127,-0.07630976,-0.1719545,-0.21220928,-0.05939166,-0.21109991,-0.17258844,0.0492091,-0.13011488,-0.21997498,0.0017259833,0.07480456,-0.03613698,0.3749338,0.1857461,-0.011963415,-0.05071324,0.27593672,0.2085215,0.2455695,0.17845798,-0.24921356,0.09246815,-0.19323668,-0.22957611,-0.2548821,-0.09570732,0.047043867,0.11043542,0.0842184,0.19971502,-0.05395241,0.40165696,0.24658175,0.22856386,0.09287305,0.21243426,0.30760482,0.27167308,0.1835432,0.2656035,0.11859901,-0.030484317,0.32848406,0.3253279,0.0756873,0.13777879,-0.012988837,-0.22578727,0.06688645,0.07404851,0.011441102,0.12806751,-0.0125715565,-0.18536407,0.20757863,0.03875408,0.1512532,-0.15695857,-0.12412231,0.14736868,-0.080422394,0.14184567,0.014640654,0.12802814,0.24655671,0.27116922,0.01095013,-0.00096732896,-0.21136518,0.5224757,0.50563556,0.12694864,-0.24806802,-0.06919564,0.30269048,0.2953499,-0.28088468,-0.23295508,-0.30290636,0.16721381,0.11226751,0.20035432,0.080962144,0.03494866,0.14411262,0.06731782,-0.13895494,-0.08048641,0.017869774,0.0024082055,-0.023914156,-0.14506517,0.9346537,0.24904434,-0.032763448,0.07290131,-0.22987087,-1.6071999,1.3299221,-0.15043795,-0.027100954,0.044088434,-0.28718057,-0.19331488,-0.04256088,-0.025902614,0.017961955,-0.020463986,0.05941667,0.017553728,0.18784575,-0.2940007,0.43561247,0.17523648,-0.27740386,-0.09058195,-0.03427134,-1.0061549,0.06504011,-0.016718056,0.08239132,-0.17685306,-0.9276972,1.0380552,0.0015508995,0.06245359,-0.035726257,0.78328335,0.35693926,-0.11811758,0.019466229,-0.217914,0.606107,-0.12307507,0.13525325,-0.009067135,-0.13513483,-0.22268131,-0.18302436,-0.14658013,-0.14778489,-0.24356396,-0.08920304,-0.32689375,-0.06982635,-0.31143257,-0.13834754,0.13423125,0.0033162497,-0.2873372,0.014419569,-0.23954806,-0.21665747,-0.15260397,-0.24778065,-0.025124436,-0.12439231,-0.2907507,-0.23513058,0.006281109,0.13568008,0.013195981,-0.2015068,-0.15318719,-0.28536585,0.01949854,0.19555438,-0.22041447,-0.1820739,-0.28974262,-0.36834952,0.24369892,-0.44608107,0.6008439,0.25665417,-0.04586862,0.11239562,0.2426485,0.847344,0.7331976,-0.13217865,-0.26785874,-0.12263728,0.098827615,-0.64181054,-0.08216902,-0.15831436,-0.11406357,0.06807518,-0.010493154,-0.03450095,0.23445971,0.096301466,0.23600425,0.11282794,-0.29191625,-0.03450095,0.32929388,0.680829,0.25994447,-0.34319466,-0.29546866,-0.31601092,0.72592926,0.2568554,-0.18905053,-0.06676233,0.008567317,0.18271795,0.16202123,-0.071241446,-0.08733418,0.19145274,0.017948695,-0.15354954,-0.082815304,-0.30728352,-0.10780745,-0.21450824,-0.13731846,-0.03165518,-0.15373397,-0.19274385,-0.24567924,-0.1694117,0.19569495,0.19403496,0.37737218,0.2655992,0.043851532,0.01532037,0.20602381,0.26910362,0.32775676,0.16553839,-0.1552267,0.15884943,0.0010281259,0.111990035,-0.13703422,-0.0065957564,0.06398868,-0.2391011,-0.07595949,0.20870155,0.12498466,-0.24303886,-0.89403015,-0.5657781,-0.034809843,-0.09450636,0.24618907,0.7075376,0.42811382,0.049852103,-0.007806619,0.11096622,0.43472925,0.32604694,-0.16995394,-0.018642053,-0.20841941,0.09128905,-0.07714389,-0.09956503,-0.05974746,-0.064434364,0.046489015,-0.20470367,-0.037009645,-0.03344169,-0.10522309,-0.16518167,0.036439616,-0.18409818,-0.21095288,-0.03770635,-0.33002555,-0.13613132,-0.26618233,-0.14837638,-0.18359149,-0.35840032,-0.25013706,-0.23307844,0.05299387,0.09636623,0.27947718,-0.047729746,0.12855548,0.16039209,-0.08296664,0.106189236,0.019331176,0.037125934,0.14245881,0.1253315,-0.6641361,0.21721442,0.22104287,0.16855274,0.18668753,0.11324166,0.047276374,0.18316132,0.03085432,-0.00818584,0.2865296,0.22063988,-0.006586453,0.107710026,0.117833145,0.047376215,0.011115189,0.16350868,0.15589608,0.008645147,0.156301,0.09353765,0.065273896,0.25251117,-0.0030799601,-0.361193,-0.061224647,0.36540422,0.20991307,-0.042193174,0.17217407,0.1898288,0.081673354,0.07187417,0.095238335,0.057256382,0.049603302,0.20683564,0.10089458,-0.08827132,-0.39808995,0.03002597,-0.1729752,-0.1055597,-0.5964031,-0.021496125,0.19300777,-0.083926365,-0.24844033,-0.33625427,0.081548065,-0.059091475,0.8364279,-0.12092714,-0.18166512,-0.607014,-0.30295816,-0.02323411,0.19099537,-0.17050543,-0.47163415,-0.37796593,-0.21203412,-0.063374296,0.3695387,0.64821196,0.36114666,0.014152507,0.36722365,0.0036127327,0.13839614,-0.019732123,0.38313958,0.08232871,-0.16060609,-0.45751032,0.046481717,0.22065252,0.05635682,-0.24496046,0.09477206,-0.22224411,0.05556103,0.11083268,0.33365554,0.059937906,0.32323784,0.15293752,-0.19981974,0.072938554,0.1783587,-0.010404257,-0.45677227,0.08185649,-0.029164547,0.12680869,0.117238216,-0.29015914,-0.021297913,0.107015215,0.15109737,0.025013719,-0.46808282,0.03317037,-0.013358776,0.19807966,0.049157396,-0.39267915,-0.10491262,0.063005574,0.04799734,0.053217594,-0.47185302,-0.0622464,0.0030212258,-0.015776409,-0.024265276,0.14116822,0.10138908,0.013938611,0.0033195694,-0.17439176,0.13480356,-0.06441039,0.09521536,-0.68840194,0.16713604,-0.073129974,-0.04582557,-0.41777647,-1.1955383,2.2403612,-0.30677676,-0.13849506,-0.2996483,0.44756308,0.17731951,0.27418968,-0.03540581,0.04196922,0.11453283,-0.16034596,0.04853263,0.086396456,0.067464545,-0.24203558,-0.036111835,0.06150256,0.33533537,0.21076132,-0.53051186,0.31504372,0.23471385,0.007204063,0.4062516,0.5075007,0.059462935,0.17352508,0.16850446,-0.07557075,-0.12854871,-0.14946796,0.04908176,-0.036930498,0.18731202,0.048612252,0.17438467,0.07177377,0.15768683,-0.14260492,0.0107559655,-0.048107278,-0.037906785,0.027941944,-0.13317871,-0.13230343,-0.09803246,0.19256376,-0.017337471,0.23605894,0.23350039,0.12496445,-0.0066614607,0.08699034,0.13257274,0.17398068,0.214648,0.044976432,0.3870403,-0.046724927,-0.018322878,-0.07443735,-0.23409146,0.20421468,-0.01064679,0.09098842,-0.10372,-0.22865932,0.3366232,0.23188466,0.12850416,0.012031351,-0.60364705,0.37787354,0.064379394,-0.064039886,-0.056782883,-0.357503,0.264138,0.16593504,-0.025887562,-0.109406784,-0.44271976,-0.0540076,0.22412214,0.094936706,0.24406919,0.06440453,0.23202568,-0.09169061,0.1127197,-0.10669795,-0.052125804,0.1620228,-0.16512777,-1.2269323,0.31068483,0.39743572,0.20831503,0.3436163,0.36168155,0.43808258,-0.012737419,-0.02395764,-0.046151094,0.3829459,-0.012737419,0.0912672,0.086760454,-0.14331709,0.061275985,0.18967995,0.081625804,-0.058104586,0.41439632,0.08917676,0.71281,0.22592452,0.10941331,0.2836138,-0.21444707,0.9761872,0.25492018,-0.0094953235,-0.23815706,0.33073175,0.08917676,-0.32620117,0.01370498,-0.054215845,-0.08109724,-0.19345541,-0.026900271,0.34850088,0.07376693,0.4599263,-0.05803789,0.56241584,0.05917767,0.11215491,0.042559598,-0.12947965,0.20972057,0.5259427,-0.15437257,-0.8556599,0.16330849,0.48253965,0.41652328,0.1579287,0.07855403,-0.48326913,0.5967006,0.3579839,0.19166636,0.057536382,0.17215323,0.27245438,-0.104207955,0.22557957,-0.24696603,-0.2327992,-0.16046663,0.5617694,0.09351472,-0.020654289,-0.1525659,0.109316185,0.000652896,0.36425108,0.22830395,0.37978008,0.08888325,-0.57321185,-0.135879,-0.32229546,-0.5337082,-0.2578636,-0.15951309,-0.15270211,-0.47295427,0.061911784,0.27543592,-0.29189536,-0.06043813,-0.07665454,-0.37617803,-0.22382912,0.16333765,0.18766226,0.11223462,0.36700293,0.22190875,0.25775555,-0.31878045,-0.17752701,-0.26586375,0.29509598,0.37980536,-0.06913311,-0.4894795,-0.14221364,0.2816534,0.25668868,0.31707346,0.45790017,0.25668868,0.4186394,0.060566336,-0.13362247,-0.03783674,-0.07250512,0.0077028074,-0.196898,0.009034441,0.16732655,0.6325715,-0.2224286,0.22408168,-0.09615308,-1.4708574,0.8448981,0.41730618,-0.11635716,0.072734706,-0.3688164,0.5194287,-0.17926534,0.055882663,0.020674748,-0.0175523,-0.0684643,0.0009958547,0.037600007,0.15915693,0.6887314,0.16276917,0.017335955,0.04058283,0.1320105,0.49783063,0.16419217,0.07853858,0.15007164,0.16495839,-0.10962564,0.3202842,0.12248735,-0.015735082,-0.12905504,-0.11438721,-0.14514588,-0.003400146,0.18641284,-0.19144806,-0.06069637,-0.15948533,0.01005677,-0.003374214,-0.0005587173,0.0013864465,0.014529084,0.027461136,-0.041444894,-0.04300297,0.023429608,-0.27032664,-0.062245242,0.025610918,-0.021579389,-0.4633726,1.2040832,0.11257118,0.00950428,-0.07572262,0.40915146,0.25272036,-0.045807514,0.04179546,-0.047560353,-0.018258734,-0.09340682,0.0103612235,-0.019036131,0.1967326,0.13985729,0.00391649,0.13915801,0.23340628,-0.08702232,0.24226391,7.1021284e-05,0.09044105,0.27256632,0.11522687,-0.018744763,0.31825304,0.1498804,0.15912652,0.17653099,0.03541109,0.14902571,0.054155853,-0.15765025,0.09191732,-0.042073734,0.19766498,-0.05621486,-0.20272055,-0.50671697,-0.106170885,0.1549521,-0.39666387,0.098322004,0.3814725,0.44966492,-0.15866555,-0.054435786,-0.058360226,-0.052958846,0.025804251,0.19782555,0.0639304,-0.35007697,-0.20255177,-0.25639677,-0.23732315,-0.47633424,-0.27378246,0.5273098,1.259872,0.6667329,-0.0516929,-0.046946414,-0.12077032,-0.07421042,0.0029973309,0.044092167,-0.12856004,0.009989864,-0.19349416,0.3163457,-0.0063960403,0.078372866,0.047838368,-0.36914927,0.9737739,0.10001757,-0.15032367,-0.12273262,-0.04858166,0.14354484,0.030683154,-0.091216974,-0.029820934,-0.024930062,0.08634097,0.12867896,0.03456639,0.03693104,0.12986973,0.09591443,0.02231804,-0.057070415,0.15208149,0.22381805,0.28014454,0.17790665,0.09272614,0.36197734,-0.065306835,0.08842195,-0.097455435,0.21159627,-0.13667142,0.5704916,0.0667947,0.09575502,-0.059142802,0.1502748,0.3541129,0.2028816,0.10388516,0.1552665,0.122086264,0.27373695,0.30627912,-0.011385767,0.13846369,0.09050123,0.15728709,-0.0012769939,0.2516168,0.26841962,-0.30883145,-0.5393916,0.177493,0.124000505,-0.012748336,0.19929412,-0.03599843,0.039374948,0.14399372,-0.063754976,0.09842407,-0.018956337,0.06768981,-0.1346352,-0.023033775,-0.12002747,-0.2809194,-0.10482209,-0.098074704,-0.18417516,0.042147413,-0.20223156,-0.16174723,-0.04858594,-0.11974237,-0.12553942,0.22047801,-0.13095634,-0.26248288,-0.1607969,-0.14549649,-0.15338427,-0.13855903,0.023366394,-0.175242,-0.023758406,-0.19747987,-0.043858018,-0.31190035,0.044013888,0.1957984,0.15721832,0.18982121,0.16319552,0.18656091,0.047591146,0.024882337,0.088707,0.23492186,0.18945895,-0.12217023,-0.4437614,0.16265213,0.07362817,0.18619867,0.18402514,-0.023682369,-0.03541035,0.2874487,-0.002140979,0.10405752,0.19507389,0.22985029,-0.015520329,0.06568458,-0.24965593,0.05711872,0.21305634,-0.06533416,-0.034360785,-0.08620372,-0.1481894,-0.2227124,-0.16571048,0.69959724,0.4229978,-0.29871494,-0.012955866,0.6628419,0.2895261,-0.47750783,0.18393241,-0.03212198,0.04991561,-0.45321193,-0.21897456,0.17396486,0.026885124,-0.47906527,0.0044671097,0.017669532,-0.03200738,0.011171918,0.038156908,0.018034194,-0.017503778,-0.044422463,0.22860993,-0.014354424,-0.04037803,0.07943002,-0.043262176,0.4492636,0.29570776,0.010218824,-0.014138941,-0.12657087,0.38190058,0.08327554,0.008291917,0.0042847786,-0.040543787,0.05635686,-0.035339065,0.061839957,-0.22085084,0.12798332,-0.12092574,0.12505701,0.15664402,0.0053173974,-0.47853884,-0.25131896,0.17798892,0.3725029,-0.29297593,-1.3619423,0.38730663,0.0400432,-0.06872541,0.28815612,0.938487,0.3384199,-0.081119224,-0.06403469,-0.31053385,0.38661808,-0.13392203,-0.033028647,-0.10977769,-0.2961046,-0.5800223,-0.21079601,-0.019506248,-0.04731961,-0.0781202,-0.2580204,-0.16976029,-0.022814812,-0.023909733,0.17242618,0.09316345,-0.105207585,0.11453821,0.033847325,-0.0062005827,0.30486396,0.19499107,-0.009616259,0.15233678,0.053175054,0.08583225,0.21593738,0.047010176,0.01541649,0.07971118,0.1542797,0.1803603,0.008408473,0.018573254,-0.029271817,0.14041288,0.11506694,0.060426213,-0.07241044,-0.124893084,-0.37063858,-0.17393199,-0.047156323,-0.021546353,-0.10331229,-0.45696175,-0.17852364,-0.1664935,-0.019548982,-0.033955306,-0.17301366,-0.08196109,-0.08912407,0.13426462,0.043685973,-0.08125008,0.086705625,-0.17091252,-0.055388317,-0.10194782,-0.3245006,-0.13826257,0.045226853,-0.24953894,-0.031109078,-0.61968285,-0.1361803,-0.13010007,-0.03827208,0.26952872,0.23221448,0.25120476,-0.020114705,0.08337399,0.26369837,1.1920565,0.17674287,0.3343289,0.03290408,0.22261515,0.23120731,0.18912524,0.18336459,0.31791005,0.21499936,0.110624105,0.20328277,0.343296,0.1479219,0.29057136,0.018465828,0.11413908,0.23608921,-0.023713883,-0.1400132,-0.054677404,-0.2562027,-0.010563235,-0.1885394,0.0717641,-0.23140259,0.13464311,-0.29330522,0.037201956,0.011882158,-0.043143038,0.010051226,-0.019162681,0.05262716,0.011158427,-0.008409328,0.019897215,0.05223829,0.047744673,-0.0030326508,-1.2374728,0.69720185,-0.11501929,-0.032081828,-0.01778003,-0.25008702,0.46042284,0.08287265,0.01189296,-0.05046677,-0.08049622,-0.045497864,0.055176422,-0.014003834,0.00024410736,-0.087461375,-0.07818112,0.04863787,0.0045065973,-0.037388068,-0.16343926,0.10755746,-0.07003586,0.114233896,-0.17919566,-0.5693669,-0.34610668,0.112965375,0.023918347,0.15449284,0.48631194,0.29269516,0.06215766,-0.006300891,0.00019820684,-0.6703146,-0.19895793,0.003352825,0.005529985,0.24571647,-0.13080971,0.20767407,0.05363354,0.40692893,-0.17352946,-0.13392794,-0.071134605,0.1699435,0.7764391,-0.31244656,-0.5266689,-0.3224249,0.86000764,0.24602829,0.17602403,-0.4608743,0.23854454,0.31369385,0.32148942,-0.13907303,-0.04092676,0.063378006,0.04213507,-0.043936864,-0.0023511453,-0.082433924,-0.032680657,0.047326278,0.03657221,-0.059586756,-0.19432648,-0.15867485,0.10151508,-0.07013161,0.11666284,-1.18504,-0.38932246,-0.08009063,-0.061930057,0.22378509,1.1140715,0.45794767,-0.14561932,-0.051552586,-0.25475013,0.664158,0.09113761,-0.08628363,0.17985238,0.2463314,0.07148398,0.42585737,0.24437293,-0.27135623,0.16929844,-0.18551017,0.089436576,-0.2791901,-0.2643928,0.08056908,0.22076255,-0.048771225,-0.30203885,-0.3549174,0.0630517,-0.080732286,-0.026398478,-0.1079876,0.004474549,-0.23479822,-0.32205874,-0.14525284,-0.2635224};

#endif
