#pragma once

#include "parameters.h"

#ifndef KERNEL45_H
#define KERNEL45_H

static float bias45[FEATURE_MAP45] = {-0.3057765,0.24165675,1.5799778,-0.8619154,0.39411026,1.1063945,-0.2716157,0.49449283,-0.5094515,1.424559,1.503108,0.20424433,-0.41880447,-0.26124275,0.5691845,-0.7727187,1.1609224,-0.7739078,1.893895,-0.16952583,0.47388488,-1.1896505,1.9205916,0.31252706,-0.5927006,0.24220338,0.6554091,0.05699563,0.47311175,-0.035142556,-0.59263325,1.4785761,1.2651356,1.1677847,0.22558895,0.2032301,0.15423593,-0.10487341,0.041583076,1.2256424,0.19187203,0.41881007,-0.26703832,-0.055481806,-0.9281204,-0.65920216,-0.08740008,-0.36955082,0.57654893,-0.41914028,1.4128206,0.497624,-0.4521526,1.592128,-0.37130073,2.3456864,0.36583763,-0.16509622,-0.14753187,-0.24841289,-0.42935565,0.771489,0.12838313,0.15625888};

static float kernel45[FEATURE_MAP45][IN_CHANNEL45][KERNEL45][KERNEL45] = {0.3110059,0.54608417,-0.61444604,-0.4909624,0.37477425,0.103083186,0.54608417,-0.39125675,0.4263834,0.43367893,-0.5193339,-1.061365,-0.18779244,0.19414225,-0.32721817,0.3834208,0.44908062,-0.43151727,-0.4709672,-0.3131675,0.17928098,0.6414665,0.37828693,-0.06593,0.25399265,0.0736064,-0.14567667,0.20840213,-0.028098444,0.17332707,0.16487834,-0.44215044,-0.3300127,-0.48951456,-0.40349108,-0.37865692,-0.40425915,-0.040099487,-0.89505386,-0.39043397,-0.21813098,0.13492373,0.3645757,-0.1931688,-0.27880824,0.13850805,0.10637725,0.0758466,-0.19009653,0.2276038,-0.03339491,-0.05243671,-0.35034356,-0.13370723,-0.37254304,-0.32839924,-0.118142076,-0.46772012,0.0035264804,-0.2686903,-0.400101,-0.25695264,0.1278384,-0.32329592,-0.18269919,0.09823909,-0.27226263,-0.30415842,0.26039737,0.13625889,-0.02830753,-0.10621304,-0.18831286,0.14327598,0.13102798,0.19885826,0.051269792,0.036033835,-0.19854194,0.5002034,-0.08598564,0.30366477,0.37515253,0.02770414,-0.006530638,0.26148912,-0.2967058,-0.4202805,0.5246653,-0.27603972,0.18009008,0.025002262,-0.20697707,0.6520358,0.07011704,0.086618274,0.14814202,0.4457968,0.36545214,0.19158296,-0.72237206,-1.2567184,-0.8870954,0.4087951,-0.4535918,-0.032919556,0.08015196,-1.175562,-0.65286684,-1.0076246,-0.2502991,-0.79187727,-0.59461105,-0.35977983,-0.03329621,0.819599,1.2454691,0.84932953,0.8878989,0.7135332,0.32060784,0.54800636,0.12645528,-0.325429,0.91843295,-0.014112665,-0.3024387,-0.16604477,-0.28981808,-0.1357857,-0.06804491,-0.14376862,-0.4625533,0.1814024,-0.0371586,-0.6726942,-0.11510613,-0.096707396,0.16300367,0.21424642,-0.23355749,-0.34577456,-0.22017659,0.11746299,0.30471954,-0.06899525,0.24268082,-0.336043,0.4300134,-0.057248954,-0.18372019,-0.3020141,0.043853827,0.4156492,-0.07023702,-0.14969043,0.17298461,-0.24205692,0.38587317,-0.08178283,0.36744037,0.42415664,0.31011644,0.02876325,-0.16650274,0.37189665,-0.14958915,0.3773657,0.25603342,0.5910645,-0.34009504,0.29553226,-0.29755783,0.18827775,-0.1638695,-0.614765,-0.66862136,-0.11057749,0.5176516,0.004887897,-0.051994335,-0.11014778,-0.12060394,0.30996072,0.22144143,-0.38243768,-0.36840063,0.06484968,0.17746827,0.4185329,0.22444938,0.006682812,-0.10735469,0.40335,-0.16916063,-0.41996527,-0.52481335,-0.17388739,0.32600304,0.20611529,0.30785537,0.23165229,-0.52340484,-0.7019305,-0.17231278,0.060924422,0.5320268,0.10295657,0.4478357,0.017576791,-0.18118834,-0.017418299,0.24585319,-0.41055834,0.058388546,0.64816993,0.43236688,-0.26956365,0.6902655,-0.08045067,0.10352714,0.009668028,-0.4934815,0.04932279,0.17662378,0.0053263055,0.19545224,0.14705235,-0.11679275,-0.0004746153,0.24794337,-0.01324822,0.16334003,-0.088926144,-0.33779582,-0.55393577,-0.22710131,0.10058226,0.15855408,-0.5875918,-0.041722726,-0.33872214,-0.45080614,-0.6490373,0.13215412,0.09139631,0.24794337,-0.31741694,-0.27418894,0.0059052515,-0.02366872,-0.28394377,-0.6163973,-0.3618828,0.14892496,0.0030116474,-0.27844602,-0.6849578,0.16428638,0.241902,0.14140594,-0.26761216,0.08739842,0.09208769,0.2422254,0.059101056,-0.03589722,-0.15005685,-0.28523737,0.1817499,-0.09621102,-0.2763439,-0.5817937,-0.42623907,0.15684822,-0.68560964,-0.50227505,-0.539335,0.17912324,0.11574225,-0.6154203,-0.8349726,0.3633001,-0.23850344,-0.57555276,0.26994827,0.38098785,0.21814853,0.085701205,0.21267375,-0.064609304,0.5575843,-0.6491112,-0.54438865,0.43573552,-0.044851,0.5219281,0.055905823,0.25422585,-0.83272654,0.11300044,-0.5527759,-0.13661939,0.11188896,-0.22136971,0.115130775,0.10049629,-0.25564033,0.4271787,0.12883903,0.11355618,0.40791306,0.28565028,-0.23266976,0.0070451605,0.4608936,0.47052643,-0.19173026,-0.26212397,0.49053305,0.061918683,0.45792964,0.45867065,0.032047667,-0.42013934,0.22378069,0.086743124,-0.07153645,0.15538025,0.17313123,0.3455524,0.2544307,0.39288837,0.33277172,0.4965541,-0.123546824,-0.22709422,0.235378,0.12248176,-0.02048759,-0.25206393,0.077867635,-0.19537912,-0.17668143,-0.28543577,-0.14425631,-0.22685753,-0.054288417,-0.1104111,0.039998878,0.08683227,-0.06468794,0.20014147,-0.3138719,0.17811748,-0.39907944,0.018398453,0.26862043,-0.11962755,0.20266882,-0.18245007,0.4864533,-0.11084203,-0.39330265,-0.06950192,0.05581215,0.46623453,0.1054263,0.5155779,0.16584182,0.39282125,0.64026016,0.4070225,0.66096026,-0.21711077,-0.26630062,-0.17155498,0.6279799,-0.17714688,-0.04486701,-0.27664033,0.37011987,0.529647,0.36779872,0.4178092,0.14285699,0.11806275,-0.4676087,0.040066425,0.031467576,0.016340455,-0.0016848209,0.44270894,-0.45283765,-0.16670164,0.22726288,0.30702645,0.2660896,0.0880459,-0.036373667,0.24528037,0.06935591,-0.1697286,-0.057452384,0.15358186,0.32924345,0.09800701,0.2535415,0.07119589,-0.011218235,-0.23311397,-0.33555195,-0.0976315,-0.086065926,-0.338556,-0.41305634,-0.35117298,-0.35297543,-0.15358186,-0.325939,-0.24002329,-0.2798269,-0.41095352,-0.19691522,-0.35597947,-0.076265186,-0.037521657,0.34029138,0.32990548,0.30994824,0.35413927,-0.36472884,0.09286228,0.22869372,-0.46105307,0.14967933,-0.3134102,0.046151128,-0.085174665,0.040525425,0.041925486,0.30139512,0.22971195,0.22462082,0.41095632,0.6211183,0.029019462,0.34008774,0.4858978,0.35230646,0.14040473,0.08978025,0.25787205,-0.09337146,0.25068963,-0.118741624,0.3025884,-0.20238206,-0.23817831,-0.20991202,-0.27362704,-0.18234079,-0.052043583,-0.42770153,-0.66912353,-0.2465192,-0.032958042,-0.022734676,-0.23284942,-0.27872422,-0.1258082,-0.18048726,-0.197169,-0.008797016,0.039590195,-0.2820175,-0.22956555,-0.49347183,0.52687174,-0.1288954,0.42549595,0.27660766,-0.3751609,0.04618948,0.55838996,-0.85616654,-0.25802603,0.32106248,0.41985092,0.56309414,-0.21651135,0.23897396,-0.16829318,-0.022903632,-0.3269427,0.12277993,-0.2220388,-0.122191906,0.061331164,0.39797634,-0.37852332,-0.40595812,-0.5195343,0.150028,-0.4028885,0.49075657,0.15194651,-0.14273764,-0.123744324,-0.5087906,0.5513817,-0.05347865,0.2183272,-0.41171366,0.06628475,-0.19952573,-0.4842336,0.22043756,-0.6131579,-0.39022627,-0.31175897,0.24441902,-4.8712336e-05,0.15472837,0.25650567,-0.07281827,0.23699036,0.22639862,0.29689994,-0.016094493,-0.052420877,0.37700003,0.36773226,0.21547587,-0.12776296,0.117667705,0.20273268,-0.03411288,0.27902636,0.4703398,-0.036140203,-0.06458484,-0.0568479,0.18701056,0.23169449,0.29640344,0.04189119,0.15010493,0.16979897,0.09755993,0.057842433,-0.15275516,-0.12633725,-0.14647025,0.31467137,-0.024899943,0.017469905,0.019214233,-0.076111265,0.17991872,-0.36963764,-0.25650936,0.06055879,-0.011604439,-0.42737356,-0.46103507,0.0376828,-0.10226286,-0.16404667,-0.38625535,-0.27078354,-0.1775752,-0.3694246,0.048708014,-0.47168747,-0.42612022,-0.16673742,-0.5776997,-0.50833696,-0.20663315,0.30752444,0.009481297,-0.0081095025,0.005362124,-0.12696297,-0.18274422,-0.0465349,0.1113806,-0.47171533,-0.28618205,-0.5844905,0.5311345,-0.18322927,-0.06517918,0.41011345,0.4491603,0.5185231,-0.0005797915,-0.25732133,0.14600135,0.3656602,-0.1461051,0.03966618,0.30111322,0.40922144,0.19491278,-0.24864893,0.075357795,0.39777467,0.4966619,-0.40794957,-0.27885562,-0.14745644,0.3424487,0.51542187,0.12933241,-0.118283115,-0.0035497854,0.2249605,0.38537404,0.18378398,0.06577909,0.092607416,-0.09531012,0.017994853,-0.3285777,-0.03579623,-0.4254854,0.2036576,-0.3109753,0.05380081,0.24775818,-0.053469583,0.017436763,0.045780372,-0.28769475,-0.36302534,-0.064258136,0.34901917,-0.050441217,0.43078503,0.47810325,0.28996602,-0.39028063,0.46674687,-0.27993456,0.37324607,0.41942865,0.22788453,-0.00014195465,-0.085510015,-0.2361589,-0.4932989,-0.35131076,0.03946147,0.14028034,-0.55331445,-0.15467432,0.46011952,-0.1227148,0.1549183,-0.022795556,0.16467692,0.07282379,-0.785082,-0.12820403,-0.35423836,-0.32789004,-0.055349745,-0.2934909,-0.35472628,-0.29007536,0.22176492,0.37375563,-0.4330393,-0.14972092,-0.5647247,-0.22836916,-0.23856175,0.31955156,0.36886165,0.107435435,-0.7724332,-0.26404324,-0.25867146,0.22327286,0.36087286,0.22258417,-0.8104488,-0.39806205,0.5917213,-0.04931011,-0.5349734,0.2577073,-0.20619339,0.32175535,-0.5079768,-0.39310348,-0.37988067,0.32533652,0.2349833,0.0779845,-0.45461312,-0.3149338,-0.12629183,0.15241148,-0.047183897,-0.3518196,-0.5040439,-0.056405354,0.41941243,0.3935736,0.27561387,-0.034943234,0.24078767,0.3065081,0.5901732,0.2235618,-0.53175503,-0.19051434,0.1401474,-0.14024103,-0.5942924,-0.51340574,-0.4759582,0.19388041,0.4314414,0.19589202,0.13985445,0.30059126,0.311703,0.49926123,0.07869207,0.21437962,-0.39887255,-0.05177488,-0.6686192,-0.28622267,-0.6119111,-0.27798465,-0.36649528,0.34657082,-0.30193233,0.2394768,0.13017958,-0.501177,-0.14636822,-0.080033146,0.2609339,-0.2981007,-0.25311118,0.21877271,0.18983337,0.18011494,-0.0070391144,-0.20127954,-0.113489695,0.03174688,-0.27190015,0.6591257,0.25829434,-0.6280267,-0.2051669,0.08455036,-0.11845689,-0.48073846,-0.5770589,0.06106415,0.61290914,0.62327546,-0.055206094,0.17773932,0.42566735,0.19544847,-0.33193845,0.08793787,-0.16293833,-0.22140083,-0.043389194,-0.0033621285,-0.26802438,0.16183986,-0.31879768,-0.2692449,-0.31952998,-0.105879396,-0.18502958,-0.15231986,-0.3317351,-0.22994442,0.010176017,-0.12620091,-0.21017213,0.07377993,-0.076831214,-0.19772291,-0.21127059,0.090623,0.08647326,-0.043541756,0.25664437,0.017778762,0.3785559,0.054110456,-0.08567489,-0.017466377,0.24860387,0.32857433,-0.10686272,-0.09425867,-0.08632682,-0.27967936,0.051557053,-0.38985607,0.10202755,-0.28489482,-0.25794825,-0.46895728,-0.10235351,-0.0230893,-0.072581895,-0.040881645,-0.2883718,-0.05883697,0.1444032,-0.57295924,-0.33089855,-0.73223925,-0.5119393,0.05457022,-0.081715114,-0.31811127,0.12282506,-0.20470843,-0.49130023,0.337853,-0.6492342,-0.36499792,-0.29836953,-0.02865918,-0.35916513,-0.14649272,-0.31654093,0.45764953,-0.028504947,-0.060627345,0.017049689,-0.061805118,0.064272836,-0.046409924,-0.3419451,-0.20072778,0.2795551,0.43696985,0.07486798,-0.15597495,0.23276263,0.27859527,-0.24368088,0.2018076,-0.46768492,0.25579894,0.20876649,0.27931514,0.22700356,-0.45568684,-0.1668932,-0.4465683,-0.19952796,-0.43265054,-0.3997758,0.28987345,-0.4914411,-0.5245558,-0.5269554,-0.2935532,-0.6812146,0.6956516,-0.595127,0.18861729,-0.66891634,0.21575359,-0.530695,0.33285403,0.2636097,0.5459341,-0.2546534,0.24168679,-0.30157378,-0.6250705,0.06473276,-0.40557396,-0.25331664,-0.037128597,-0.50289035,-0.0037867995,-0.48123476,0.77478796,0.23019063,0.45770773,-0.37340903,-0.15621123,0.4030107,0.2701598,0.17573763,-0.055280227,-0.47540995,-0.15844026,0.1674456,-0.014455334,-0.3876749,-0.60808253,-0.20614175,0.6262715,0.26177862,-0.4779065,-0.04730026,-0.4397453,0.14809752,-0.28924042,0.18420799,0.11733674,0.15282308,-0.12429135,0.11234369,-0.1699129,-0.43470785,-0.6724737,0.06426409,-0.26580432,-0.35934055,0.40689373,-0.26939327,-0.19761486,0.48181242,-0.2588508,0.2705148,0.0797413,0.4750832,0.3936596,-0.007289992,0.5944148,-0.53385174,-0.18998842,-0.2619911,0.30774984,0.16710906,-0.27746832,0.31851658,-0.15017384,0.03501132,-0.21500643,-0.45538113,0.027109731,0.34475884,-0.04805934,0.15418497,0.46702555,0.24432549,0.03826033,-0.26574296,-0.39840648,-0.061393276,0.6275526,0.46369857,0.19514848,0.18724689,-0.6866066,0.48282874,-0.23247309,-0.22332388,-0.42751762,-0.28237787,0.009727533,-0.13027227,-0.06256108,-0.39886484,-0.31961215,-0.26221028,-0.11619106,0.17376633,-0.16700298,-0.26966733,0.050941978,-0.13127856,0.41863465,-0.30903354,0.037436932,-0.20064636,0.07131877,0.22700612,0.29290554,-0.39990535,0.07721503,-0.24625568,-0.29030424,-0.2009932,0.07274948,-0.34128958,-0.18399808,0.28831235,0.18539706,0.26488853,0.0323012,0.30226696,0.18215759,0.23760226,0.2586588,0.20882088,0.33291727,0.3182151,0.47221425,-0.26762962,0.06528767,0.39770657,-0.084724456,-0.12303736,-0.23722848,-0.30650318,-0.029980622,-0.08478676,-0.11861424,0.3042605,0.24694689,-0.22352307,-0.42606384,-0.83643883,-0.38392812,-0.32139692,-0.51055944,-0.22031602,0.10914944,-0.78668284,0.15531944,0.19599834,-0.20227386,0.44175267,0.13492395,-0.62127775,0.49980137,0.31019062,0.06880673,0.5370063,0.49711183,0.43771842,0.14063917,0.116433546,0.675068,0.30301857,0.14456138,0.3197677,-0.04563849,0.033607427,0.17410238,0.3446253,0.25215515,-0.0034738448,-0.3153928,-0.48323107,0.1692303,0.5345371,0.24340528,-0.320762,0.42556152,0.06766229,-0.08536088,0.48681056,0.44902706,0.37863043,0.090730116,0.30167142,-0.05349348,-0.2957056,-0.34025034,0.33667088,-0.26073238,-0.02480003,-0.03534531,-0.42608753,-0.18479343,0.28794602,0.5103201,0.1612083,0.4971021,-0.10393011,0.7018522,-0.0640492,0.039816115,-0.722068,-0.11967513,0.3338204,0.6069933,0.07788279,-0.3426324,-0.44759923,-0.23351876,-0.03040474,0.49787962,0.31515962,-0.03463257,0.2426219,0.13509916,-0.18443312,-0.07140775,0.10847147,0.36405936,0.30536458,0.29726875,0.072103485,0.12769906,-0.05018782,0.16267557,0.1378821,0.15318827,-0.010522997,-0.12320841,0.13041876,0.2190934,0.09329179,0.21656345,0.01984427,0.08677717,0.25071773,0.15533873,-0.22997217,0.17514911,-0.075031795,0.16534868,-0.300307,0.41935086,0.436614,-0.12416885,0.20050438,-0.20625876,0.5236491,0.44452628,0.4657456,-0.60636836,-0.1933114,0.9717719,0.0367966,0.040595394,-0.13226096,-0.5905438,0.20122367,0.23826753,-0.13747586,0.25211403,-0.020544956,0.32260525,0.14574698,-0.2862887,0.28693935,-0.08003071,0.2878069,-0.18814807,0.4940649,0.14086705,0.15594059,0.07374103,0.3530894,0.3131825,-0.06002303,0.15583214,0.5023065,-0.45806193,-0.4984026,0.39429763,0.47931668,-0.6389443,-0.09114608,0.42032388,-0.5200912,0.13891509,-0.4537242,0.36699578,-0.059441257,-0.15253466,0.192135,-0.3784033,-0.12678629,0.35428455,-0.049174502,-0.18154232,-0.007812105,0.45467064,0.16720146,0.19686097,0.48693758,0.053330094,0.21283148,0.31175086,-0.21837227,0.17714228,0.03532253,0.095415644,-0.26514304,0.42338145,-0.18317196,-0.08710446,0.21584709,0.34212202,0.20055428,-0.3204936,0.0044786087,-0.551852,-0.0055470574,-0.439996,-0.20077275,-0.4142167,-0.5256357,0.09803784,-0.123325594,-0.48543748,-0.32442605,-0.36484277,0.015279156,0.0060590934,0.3255184,-0.71788824,0.49941948,0.268935,-0.4349712,0.32704768,-0.018078286,0.32596385,0.14635718,0.55257505,0.03134458,-0.11370142,-0.041957706,0.09989694,0.70101035,-0.5723664,0.34634897,0.20325737,0.3481302,-0.21315305,-0.57078314,0.29073521,-0.18871072,-0.45876396,-0.46311805,-0.06278812,-0.09445431,0.19662726,-0.011491364,-0.10439948,0.022821924,0.14675301,-0.28817415,-0.1756586,-0.30899793,-0.19614652,-0.27222046,0.035580944,0.042991016,0.006365735,-0.3133642,-0.18321562,-0.1875819,-0.28968555,0.1534074,-0.1906047,0.1387132,-0.16449101,-0.19900139,-0.43998617,-0.47491637,-0.082833275,-0.18455909,-0.10966068,-0.31924188,0.028821614,-0.11511852,0.2825549,-0.24088885,-0.26525095,0.14856331,-0.15243392,-0.05447321,0.23815665,-0.49361724,-0.22745554,0.42371848,0.92530465,0.48815283,0.31329212,-0.15345849,-0.38524002,0.4763133,0.14104976,-0.32740846,-0.6812282,-0.5723956,-0.44216082,-0.6475311,-0.20833015,-0.27936733,-0.54370755,0.113164045,-0.044940744,-0.11079518,-0.020490678,-0.13475455,-0.38632798,-0.10869704,-0.17786789,-0.27221638,-0.33380687,-0.09373935,0.2681555,-0.24920456,-0.20791863,0.14226724,0.25813857,0.35871378,0.28994903,0.50165784,0.205076,0.215499,0.21225026,0.036920447,0.23742792,0.26409456,-0.2723972,-0.05630556,-0.60317504,0.09040709,-0.10797664,-0.4155821,-0.43190655,0.0061821984,-0.29799062,-0.49443755,-0.049561344,-0.17611052,0.056443904,0.1112277,-0.40036437,-0.1453984,0.10368801,0.09939938,-0.019108614,-0.05972955,-0.30075747,0.13087238,-0.006113027,-0.24846385,0.043232158,0.39952523,0.07858636,0.18515018,0.0992576,-0.13070998,0.4904074,0.18265538,-0.06940904,-0.30597004,-0.16456804,0.5417291,0.41485044,0.05354921,0.15360871,0.10736572,-0.0019727338,0.4843486,-0.27264658,0.032944795,0.03147464,-0.291714,0.050430704,-0.42019647,-0.2427089,-0.3849128,0.07709497,-0.2789773,-0.3678796,-0.08878655,-0.12663949,-0.2674015,-0.079294376,-0.22179274,-0.033483066,-0.29240525,-0.19933565,-0.29402587,0.11575822,-0.16136695,-0.28569126,-0.08855504,-0.15546328,0.044422217,0.023021415,-0.089075945,-0.09654235,-0.10400876,-0.22561276,-0.19181137,-0.18938044,0.21842316,0.4213186,0.37701285,0.0023243045,0.01673111,0.14761679,0.27101034,0.37639174,-0.031469498,-0.2594163,-0.3103472,0.0012672878,-0.31904274,0.012519218,-0.5925375,0.063663624,-0.2341579,0.04104492,-0.022308147,-0.5581695,-0.03573962,-0.38156766,-0.19740899,-0.12732725,0.1952351,0.332402,0.50383365,0.10056426,0.36749825,0.3772847,-0.238587,-0.010166101,-0.02845243,-0.19032967,0.27570805,0.2961246,0.1979226,-0.032312173,0.14308472,-0.037985787,0.19201699,0.02108095,-0.5315057,-0.4194677,0.31198543,0.18661757,-0.24314277,-0.57976305,-0.55411583,-0.032480907,0.2293115,-0.72815454,-0.06333229,-0.6698259,0.43384284,0.13419393,0.034358602,-0.39114478,-0.4204997,0.02468482,-0.039648205,-0.089685,-0.4868342,0.14629807,-0.19766918,-0.5200015,0.1969067,0.6145472,-0.1828011,-0.2153965,0.076008275,0.32652584,1.0849884,0.68316907,-0.13867341,-0.39710632,0.11576961,-0.32094544,0.37723827,0.08278355,-0.63272107,-0.032572143,0.39175722,-0.18034078,0.04046842,-0.18849178,-0.25127992,-0.21294476,-0.612853,0.29751134,-0.54560727,0.41901213,0.17218979,-0.52217317,-0.11226723,0.6332305,0.46155015,0.6266078,-0.4857484,0.39863464,-0.18332672,-0.5411213,-0.10797412,0.040959295,-0.34226546,-0.2726451,-0.2538851,-0.26785088,0.33642903,0.15529096,0.048202734,0.28244197,0.037363634,0.11943856,-0.0602925,-0.2774393,-0.37436587,0.08874514,0.2905713,0.20312892,0.3380966,0.5548786,0.029651195,0.609491,0.0240232,-0.18218067,-0.07607824,0.31062314,-0.41402847,0.25159252,0.2923033,-0.43397674,-0.062185694,-0.3112338,0.48323676,0.34665215,0.49137893,0.3275181,-0.22085589,0.055926412,-0.12325184,-0.17342785,-0.55040956,0.38247764,0.023561355,0.19337612,-0.38858426,-0.43356964,0.0365888,-0.5780929,-0.5030945,-0.2095534,0.02290691,0.1614268,0.4897895,-0.4213936,-0.111117356,-0.2739994,0.35175034,0.43532223,-0.6789696,-0.18647757,-0.08112918,0.9446534,0.7945566,0.1881407,0.064186126,0.15986763,-0.16922268,-0.015253949,-0.07130636,-0.48604748,0.29853043,-0.483137,0.21849269,-0.03625161,-0.14049102,-0.485202,-0.39756188,-0.19406028,0.35487068,-0.14982972,-0.08645996,-0.17805107,-0.28857616,0.39386743,0.19642061,0.031300046,0.19508651,0.44004783,0.21776621,0.26312563,-0.23582788,0.013687355,-0.0955421,-0.20545144,0.3275729,0.003857987,-0.26292038,-0.028400943};

#endif
