#pragma once

#include "parameters.h"

#ifndef KERNEL65_H
#define KERNEL65_H

static float bias65[FEATURE_MAP65] = {-0.099270955,-5.077619,1.0793964,-0.6237068,2.688974,1.4618149,2.2933655,-2.382317,0.8999062,-2.9408517,-1.0343415,0.868808,1.8413182,-1.964234,1.3882809,-2.5331323};

static float kernel65[FEATURE_MAP65][IN_CHANNEL65][KERNEL65][KERNEL65] = {0.09512771,-0.077153,-0.2657887,-0.07498023,0.03363839,-0.25330517,-0.37577024,-0.8425597,-0.5154595,-0.22833811,0.009658939,0.3362654,0.5296812,0.3621806,0.012651432,-0.008370093,0.01725375,0.3947326,0.08264417,-0.046694748,-0.019219115,0.0037702452,0.04807742,-0.029431123,-0.025500389,-0.16340187,0.07993049,0.12393131,0.08852237,-0.12830536,-0.058008187,0.097426675,0.16267286,0.094250284,-0.09560416,0.030800577,0.11351692,-0.041267045,0.13809489,0.053087384,0.120911136,0.15923612,0.019878479,0.1596527,0.117995106,0.02947274,0.18704255,0.16527647,0.23723994,0.059101697,0.015342728,0.09327428,0.3414908,0.17252772,0.0151867755,0.0059298975,0.19023201,0.2858827,0.21922426,0.002994654,-0.012795508,0.16539846,-0.48502627,0.24096847,-0.033032164,-0.02171449,-0.0038022636,0.13711913,0.012164273,-0.018194426,0.008087236,0.023630474,0.12808876,0.104146376,0.025501901,0.1512712,0.33313367,-0.25859988,0.03878998,0.0013894072,0.026491903,-0.11730971,-0.1485491,-0.010086367,0.07667259,-0.19923207,-1.0929896,-0.29632044,0.9504031,0.3279487,-0.29787594,-0.66315633,0.0027383068,0.8918131,0.20895387,0.08056131,-0.18886216,-0.26339597,0.2522483,0.034155924,-0.040544186,-0.11216629,-0.20075624,-0.19932736,-0.06827957,0.042100634,0.1571757,-0.012394171,0.159319,0.059400167,-0.01645752,-0.1143096,-0.025247622,-0.122780755,-0.03993181,-0.016291669,-0.11390135,-0.20861502,-0.11277866,-0.10645081,-0.017350564,-0.11410548,-0.2353553,-0.17656751,-0.024750069,-0.0096043935,-0.045396544,-0.009272061,-0.04576211,-0.031770933,-0.13113819,-0.13299924,-0.09059369,-0.11691438,-0.11970597,-0.11033421,-0.0808896,0.05639673,-0.07251483,-0.14622606,-0.09198948,-0.071451366,-0.065004125,-0.08281712,-0.11638265,-0.014539523,-0.030690854,0.018494273,-0.056529664,0.022548722,-0.010448807,-0.011315453,0.12584354,-0.0252799,-0.016220996,-0.012999689,0.005473769,0.059487887,0.008527469,-0.044771258,-0.013441188,0.04650455,-0.042482004,0.073910184,-0.005616847,0.0325401,0.01467575,0.789073,0.15580006,-0.026440877,-0.11236964,-0.37831548,-0.81680566,-0.5426185,-0.069331676,0.015683899,0.18440336,0.43400827,0.2012889,-0.0007817133,-0.00065893796,0.17721447,0.39923412,0.24241602,-0.004571423,-0.0697573,0.06628824,0.12998514,0.16526085,-0.06336253,-0.07105297,-0.03617432,0.051826872,-0.025955232,-0.07957933,-0.012768636,-0.10507481,-0.031911142,-0.0818781,-0.005788727,0.09687095,-0.08334392,0.017317865,0.026654057,0.08996199,0.005522626,-0.26544967,-0.1825421,-0.20537806,0.035435714,-0.023308663,-0.46951866,0.056180786,-0.43402842,-0.024926815,0.08392573,-0.39941087,-0.20828709,-0.37439314,-0.004529462,0.106979854,-0.020508714,-0.11367064,0.027835853,0.06818057,0.001336529,-0.11226843,-0.17229769,-0.09202957,-0.013527582,0.1347985,0.14220668,0.1515242,0.14610171,0.111199215,0.15427363,0.20681831,0.14174844,0.20040298,0.15809229,0.110053614,0.1558011,0.15671757,0.17153396,0.10501299,0.023217417,-0.064802565,-0.089280136,-0.07732775,0.030186461,0.18165717,0.14769456,0.2445879,0.07045815,0.18351227,-0.046163466,-0.1265036,0.21847378,0.037316065,-0.02003152,-0.12329285,-0.34619033,-0.005195174,-0.070351124,0.06664093,0.037530113,-0.15796895,0.2615692,0.15254636,-0.02131582,-0.011175198,-0.036602564,0.30109712,0.052121196,0.1449119,-0.04443142,0.1304527,-0.301462,-0.019277293,-0.035906784,0.10713913,-0.006102862,1.5478666,-0.2735632,0.011826313,-0.36940074,1.381507,-0.81319827,-0.4378561,-0.020859517,0.12606123,-0.06538781,1.5055017,-0.25754723,-0.030934082,-0.063288935,0.10145604,-0.16558452,0.0551195,-0.12108853,0.04477316,-0.06726058,-0.4649417,-0.0015892875,-0.007844547,0.0074579916,-0.10541189,-0.68302596,-0.08443707,-0.031210119,-0.0012605056,0.24336162,0.6561352,0.26137844,0.02630255,0.0037983237,0.045512658,0.46574843,0.0890085,0.05606729,-0.045008454,0.021260528,0.055159725,0.049142912,-0.035394996,0.00867458,0.10894322,0.0866032,0.121206455,0.080138855,-0.08018639,0.31390095,0.40915495,0.46048945,-0.010587741,0.034199234,0.17025942,-0.29412767,0.17482248,0.11816441,-0.0015388466,0.0030539273,-0.009833171,-0.022874748,-0.07842771,-0.0003793272,0.010231251,-0.0785703,0.01333271,0.057180926,-0.047857076,-0.15533853,-0.22101174,-0.13378632,-0.11630057,-0.29583448,-0.451783,-0.47008204,-0.37350374,-0.36232102,-0.096324116,-0.432264,-0.90519255,-0.31901327,0.016113322,0.19468147,0.95236343,0.91413873,1.0816766,0.25882977,0.075483546,0.12758498,0.8193904,0.23829418,0.08097325,-0.005533161,0.0738141,0.12931953,0.06535503,-0.03091038,0.0821573,-0.035632398,-0.055534396,-0.067614645,0.071264796,-0.02458056,0.04203464,-0.15898423,0.10168269,-0.085865386,-0.011174957,0.20834814,0.26976332,0.12931953,0.032677516,0.034444652,0.26744577,0.61044383,0.15573965,0.00304179};

#endif
