#pragma once

#include "parameters.h"

#ifndef KERNEL79_H
#define KERNEL79_H

static float bias79[FEATURE_MAP79] = {0.67002344,0.7850263,2.960418,2.1074257,-0.24103999,0.8864561,1.9102483,1.6145105,-0.051841825,-0.62095845,-0.3931867,0.6920871,1.2984126,1.7019188,1.351597,1.8278477,1.2345964,0.2164346,1.3181506,0.8178357,1.4197813,1.2724211,2.717813,0.1365131,0.55628085,0.047137614,1.800868,2.0686154,0.46863768,0.4734899,1.2843888,0.71954083,0.36778912,0.8135172,1.4785235,0.35283554,-0.44059104,0.7460153,1.6779921,1.4719391,-0.1225785,1.0607533,0.4742126,-0.014239579,0.48512155,1.2238225,0.7100646,0.5499817,0.85167277,3.0766823,2.236232,1.6793225,-0.06661236,0.4823386,1.2210332,-0.97541887,2.120759,0.0843398,1.4870652,0.5724808,0.83405757,0.5306107,1.9596124,1.6985373,-0.010189831,1.277296,0.9290583,0.44199482,0.51279646,0.4252535,0.7176741,1.4179726,0.6277189,-0.13697979,0.30255267,1.2012632,0.98382807,1.6100532,0.18898766,1.4891936,2.1760638,-0.7543947,0.1984341,-1.3563986,1.8890759,0.9821646,-0.5112317,0.97202057,0.25302708,-0.0041157156,0.5515549,-0.21745074,-0.7342196,0.9826596,-0.2920667,-0.16010687,0.8346648,1.6783184,-0.15565872,2.8745217,0.033334464,0.58991164,0.5675482,-1.171026,0.9899243,-0.68133396,1.4356774,0.37459838,1.7767528,-0.16288653,0.6017158,1.0233753,0.76622134,0.34852445,0.38792083,0.22572882,0.894975,0.86930543,2.100614,2.1704686,0.84086514,1.4265857,0.6740258,-0.99060965,1.2656639,0.086433634,2.3304393,0.8123956};

static float kernel79[FEATURE_MAP79][IN_CHANNEL79][KERNEL79][KERNEL79] = {0.0034039016,0.002748481,-0.0034735512,-0.006447054,-0.0035521304,-0.0053005144,-0.0023252256,-0.00867227,0.0066470737,0.0009938465,-0.010808191,-0.016773056,-0.017401688,0.016287295,-0.010701038,-0.013772765,-0.00044356982,-0.020273395,-0.0057791322,-0.00565412,-0.0058684265,0.0037182178,-0.0041646897,-0.0053648064,-0.0018430359,-0.011129651,0.0056291176,0.0049969135,-0.0014019217,0.0027841986,0.0027431233,0.0020466272,0.0005719305,0.0064041927,-0.0072507034,-0.00038910026,-0.016501602,-0.005989867,0.0035646316,-0.01483001,0.008972299,-0.004632592,-0.015630089,0.01955904,0.0072006984,0.00768646,-0.023130815,0.0022895078,0.0045397263,-0.03686072,0.024402367,-0.014644278,-0.029774318,0.052062195,0.023988042,0.00686138,0.009572357,-0.0348891,0.0076936036,0.0014108511,-0.0133941565,0.011786858,-0.0027020478,0.007593594,-0.0050862078,-0.0011492186,0.0061648837,0.010522449,0.0059720078,-0.006839949,-0.011658274,-0.0036610696,0.0041789766,-0.0031074444,-0.0064899153,-0.0036646412,-0.006775657,-0.0245881,0.009908104,0.019644763,0.005525536,0.0059720078,0.008765136,-0.009693798,-0.024659535,-0.0078507615,-0.007014966,-0.0010081335,-0.00014700087,0.010572454,0.0038932348,0.008700844,-0.0032467435,-0.00997954,0.0076364554,0.008479394,0.0031699503,0.003746792,0.010115267,-0.0056041153,-0.015387207,-0.011822576,-0.017758865,-0.02843133,-0.034317616,-0.019344734,-0.018816112,-0.01690164,-0.006047015,0.0057898476,-0.015730098,-0.0012001165,0.0036128506,0.0064899153,0.0037182178,-0.0048826165,-0.016373018,0.0073650004,0.007222129,0.0042182663,0.00676137,0.0043147043,0.011758284,0.014229952,0.007114976,0.017258817,-0.00877228,-0.0058827135,-0.0071221194,0.0017841017,-0.008986586,0.005114782,-0.0102367075,-0.014415684,-0.0057541295,0.0077578956,0.006111307,0.008150791,-0.005039775,-0.0055648256,-0.004621877,0.0022770066,0.00028038435,0.007336426,0.012822673,0.0042182663,-0.008436533,-0.00768646,-0.0037825098,-0.0022377172,-0.0030913714,0.00040450352,-0.006493487,-0.007557876,-0.0058362805,-0.018616091,0.0025591769,0.008736562,-0.0062006013,-0.01714452,-0.012694089,-0.0018626807,-0.0042611277,-0.0011447539,-0.00702211,0.0037253613,0.011351101,-0.0038825194,0.0020698437,-0.0045325826,-0.0009947394,0.0113653885,0.00597558,0.0063649034,-0.03408902,-0.030517247,-0.008650839,-0.003128875,-0.0049004755,-0.009322333,0.00438614,-0.011015355,-0.008900863,0.013837057,0.004793322,-0.002730622,0.005464816,-0.003111016,-0.0056362613,0.0031163737,0.005289799,0.0076150247,0.0027841986,-0.005796991,0.010658177,0.005000485,0.013301291,0.022645054,-0.0017394545,-0.0031985247,0.005496962,-0.004632592,0.0054505286,0.0056041153,-0.0015331844,0.0061398814,-0.008965155,-0.009465204,-0.013594176,-0.010458157,-0.022873648,-0.023245113,-0.017473124,-0.03000291,-0.016658759,-0.009322333,0.0023859458,0.014129942,-0.0042111226,-0.03251744,-0.00953664,-0.004382568,-0.03020293,-0.013244142,0.012451208,-0.0054112393,0.0020376977,-0.0028949238,-0.021887837,-0.0079150535,-0.004925478,-0.008522255,-0.009072308,-0.017330253,0.020573424,-0.0011081432,-0.002477026,0.00033329127,-0.003161021,-0.00609702,-0.0026770455,-0.0013956712,0.009872386,0.008515112,0.0020734156,0.004143259,0.01197259,-0.002191284,-0.0044361446,0.010029544,-0.0066113556,-0.012329767,-0.0066935066,0.0023430844,-0.008929438,-3.2927303e-05,0.0009465204,0.0031503057,0.0014733572,-0.008143648,-0.008657983,-0.0113653885,0.0046111615,0.0021055613,-0.0015787246,0.0022019993,-0.0041825487,0.0062006013,0.004600446,-0.005736271,0.0019394739,0.0049647675,-4.5986606e-05,-0.003986101,0.00015146559,0.002971717,-0.009072308,-0.004493293,0.0005308551,0.0005308551,0.0070292535,0.0021037755,0.0013429874,-0.00022078035,0.0042646993,0.0076007373,0.0036967872,0.011343958,-0.016030127,-0.008307949,-0.009586644,0.0044754343,0.018358923,0.0046040183,0.00076793163,0.00889372,-0.003523556,-0.030117208,0.0034664078,-0.0028038435,-0.022287877,0.020530563,0.0066006402,-0.023073668,0.030288653,0.001238513,0.0011795787,0.0032663883,0.003953955,-0.000849636,-0.012044026,0.0018626807,-0.009272329,0.0008005241,-0.010815335,0.01744455,0.0077078906,0.023888031,0.02418806,0.027531242,0.03440334,0.024859555,0.011572551,0.016515888,0.0001552606,0.005175502,0.0038575171,0.0079793455,-0.0054040956,-0.0018501795,0.00488976,0.01704451,0.0069649615,0.0015983693,-0.0021894982,-0.007097117,0.019744772,0.02685975,0.011779714,0.024430942,0.002332369,0.013051266,-0.008729419,0.0011706493,0.0030467242,-0.0068863826,-0.0030342229,0.002080559,0.026831174,0.017301679,0.0010545666,0.015601514,0.011772571,0.0025591769,0.011065359,-0.0062363194,-0.0026163252,0.005136213,0.008179365,-0.0069792485,0.005254081,0.0020412696,0.008736562,-0.0055469666,-0.0054576723,-0.0014867514,-0.00120726,0.005168359,0.0039789574,-0.027616965,-0.04726173,-0.031803086,-0.0035199844,-0.0033021062,0.0017430262,-0.010872483,-0.031060155,-0.017315965,-0.0055469666,0.001255479,0.001730525,0.0007353392,0.007147122,0.001111715,-0.015044317,-0.0021019897,-0.009486634,-0.0026877609,0.0015519363,-0.012144036,-0.008729419,0.012215471,-0.015001455,-0.009529496,0.01305841,0.0031788799,6.3510626e-05,-0.008215083,0.0025913229,0.010908201,0.019544754,0.009515209,0.008743705,0.0072292727,0.015315772,-0.016830204,0.014129942,0.0101081235,-0.017916024,0.01843036,0.006957818,-0.021816403,0.0142013775,-0.00072149857,0.014244239,-0.004875473,-0.017801726,-0.016244434,-0.0066792197,-0.013044123,0.0028145588,0.012594079,0.0055862563,-0.017716004,-0.016687334,-0.002175211,0.006047015,-0.0043325634,0.011958303,0.0020430554,-0.019201864,0.0027734833,0.0038610888,-0.007950772,0.016687334,0.004811181,-0.003968242,-0.0011894011,-0.008007919,0.0004826361,-0.006039872,-0.004982626,0.007865049,-0.009443773,-0.017901737,-0.0020609142,-0.0032753178,0.0012590507,-0.0026073959,0.0052469377,-0.0024520236,-0.040118176,-0.001176007,0.064977735,-0.02937428,0.019544754,0.04780464,-0.025873939,0.004679025,-0.0038682325,0.007829331,0.02094489,-0.027331224,0.009279472,0.010165272,-0.010401009,-0.0037717945,0.004071824,0.013208425,0.014758575,0.014244239,0.007657886,0.009158031,0.028188448,-0.0010063476,0.0030752984,-0.0011518975,-0.009629506,-0.004871901,-0.004632592,-0.010351004,-0.0029663593,-0.001509968,-0.016987363,-0.00049960206,-0.0113653885,0.0011947588,0.012929826,-0.0018323206,-0.0035164126,-0.009786664,-0.011736853,0.0071399785,-0.02044484,-0.019930504,0.001779637,-0.000119319615,-0.010315287,0.000388877,0.010451014,-0.0069006695,0.0071578375,0.02394518,0.003448549,0.010158128,0.008629409,0.019187575,-0.015215762,-0.0057719885,0.0035217702,-0.04429001,0.0019144715,0.005557682,-0.012036882,-8.304377e-05,-0.006764942,0.0066685043,-0.0023270114,0.010572454,0.006432767,0.002491313,0.0053790933,0.011572551,-0.0029431428,0.000456964,0.0077936132,0.00967951,0.00085544016,0.01867324,0.014358536,-0.0059791515,-0.034860525,-0.013115558,-0.0119440155,-0.017958885,0.01911614,-0.019287586,-0.020187672,0.024016615,-0.017916024,0.0072507034,0.0033074638,-0.0076650293,0.0060577304,-0.0036860718,0.010272426,-0.014472833,-0.0052933707,0.005839852,0.030460099,-0.025859652,0.0046361643,-0.004811181,0.0013590604,0.02330226,-0.03286033,-0.0010376007,0.016730195,-0.003950383,-0.00036722314,-0.013851344,0.033003204,0.0062684654,0.020973463,0.015387207,0.015058604,0.03403187,-0.007207842,-0.0003632049,0.00029802,-0.0013554887,0.0056469766,0.00877228,-0.008600835,-2.6230224e-05,0.0028038435,0.0073650004,-0.0012885178,0.0061648837,0.0017528486,-0.006272037,0.0027359796,0.0076435986,-0.0064434824,0.014058507,0.003175308,0.008457963,0.0045683,-0.015572939,0.0008415995,0.005575541,-0.009472348,-0.0074364357,0.0077078906,0.004814753,-0.0073292824,0.008807997,0.009465204,0.0043789963,0.011036785,-0.003412831,0.010286712,0.021002037,-0.009193749,0.008929438,-0.00079784525,0.0025431039,-0.008765136,-0.0021252062,0.005832709,-0.009250898,-0.0057076965,-0.0012653014,0.014015646,-0.016544463,-0.00043932835,0.02641685,-0.002096632,-0.0067149373,0.023645151,-0.008865146,-0.0025698922,-0.0077721826,-0.010265281,-0.0028663494,-0.006847093,-0.0008224012,-0.003384257,-0.008200795,-0.0005116568,-0.015015743,0.010522449,0.0011063573,-0.011472542,-0.011565408,-0.0059184316,0.0006554207,-0.0041968357,-0.010715325,-0.0019234009,0.00935805,0.016315868,0.017158808,0.021416364,0.0060434435,0.01891612,0.015387207,-0.0030735126,-0.004704028,0.010901057,-0.005418383,-0.0014581772,-0.0010974279,-0.00867227,-0.004864758,-0.00857226,-0.009715228,-0.021616383,-0.003936096,5.346501e-05,-0.019030418,-0.0064113364,0.0063934773,-0.017301679,0.004671882,0.0022305734,0.007872192,-0.014122799,-0.0044575753,-0.060691603,-0.026302552,-0.011693992,-0.05509106,-0.03740363,-0.024130912,0.0155872265,0.016030127,0.023873745,0.0047897506,0.0037860817,0.010186703,0.0011313597,0.0080436375,0.0044361446,-0.0075864503,-0.011201086,-0.00444686,-0.0043325634,-0.018544657,-0.018073183,0.0021394934,-0.0009188391,0.0073650004,-0.0022591478,-0.011958303,-0.0010143841,0.012665515,4.8777052e-05,0.0006268465,0.0026127535,-0.008279375,-0.0021394934,-0.0035860622,-0.0076293116,-0.011743996,0.009600932,0.00032324565,-0.0046933126,-0.00241452,0.002935999,-0.0011295739,-0.004904047,-0.0025306027,0.005575541,-0.0053148014,-0.013551314,0.0014206736,-0.00014566146,-0.0065006306,-0.006897098,0.009786664,0.0041325437,0.015558653,0.015830107,0.009036591,0.0036610696,-0.008429389,-0.0015117538,0.013551314,-0.014358536,-0.010408153,0.0116297,0.013186994,0.0011135009,-0.0053398036,-0.0057076965,0.009222323,-0.010136697,0.0075507327,0.016987363,0.008100786,-0.00365214,0.0025323885,0.002235931,-0.005807706,-0.0028502764,-0.0031985247,-0.003907522,-0.0029306414,-0.0007299815,-0.020873453,-0.008922294,-0.008879432,-0.017887449,-0.00119208,-0.017458837,0.009822382,-0.0027574103,-0.00082775886,-0.018858973,-0.006775657,-0.018016033,-0.03277461,-0.005429098,-0.011679704,-0.0026538288,0.003493196,-0.0073292824,-0.0032163835,-0.012844103,-0.011472542,0.005625546,0.0014653207,0.009800951,-0.005889857,0.005461244,-0.004911191,0.0022948654,0.001921615,-0.0062684654,0.003509269,-0.011115364,-0.00040495,-0.012529787,-0.0012778025,-0.010815335,-0.008000776,0.011165369,-0.0134013,-0.0005259439,0.006129166,0.0053255167,-0.0060434435,-0.0031556634,-0.008422245,0.0102367075,-0.002984218,0.013858488,0.000952771,-0.005146928,-0.0019287586,-0.007872192,-0.0018269629,-0.015672948,0.011043929,0.021002037,0.014015646,-0.008393671,-0.008465107,-0.006857808,0.006047015,-0.0022091428,0.00023529069,0.0061398814,0.00023372803,0.008193652,0.0054826746,0.0036574977,-0.007214986,0.0037039309,-0.01372276,-0.011358244,0.0001838348,0.012236902,-0.0028609917,-0.009600932,-0.013551314,0.00041097737,0.014172804,-0.0074721533,0.0003243618,0.0014930019,-0.013858488,0.001811783,0.0031181597,0.00086436956,-0.012544074,6.239444e-05,0.010401009,0.00044736484,-0.0038932348,-0.0011777928,-0.003464622,-0.008536543,0.004000388,-0.008515112,-0.008357953,-0.01197259,-0.007222129,0.003494982,-0.0009545569,0.010586741,-0.00021698534,0.0022752208,-0.0009313403,0.0073721437,-0.0075650197,0.00899373,0.0033288945,0.0022287876,0.011865437,0.013215568,0.007836474,-0.00086794136,-0.0076793167,0.00025136367,-0.005607687,0.006168456,0.025202446,-0.0008478501,0.009729516,0.01748741,-0.0071721245,-0.005796991,0.015601514,0.014415684,0.0010295642,0.008536543,-0.0061541684,-0.01414423,0.014758575,-0.008307949,-0.00472903,-0.0073650004,0.0057148403,0.03414617,0.015430069,0.026445422,0.019330448,0.008193652,-0.011772571,-0.02153066,-0.008157934,-0.0020859167,0.0145228375,0.0020734156,-0.00040584293,0.0028074153,0.013994215,-0.0062970393,0.028502766,0.026716879,0.014615703,-0.007004251,0.015730098,-0.006050587,-0.0050862078,0.004654023,-0.008115073,-0.005464816,-0.0012340483,-0.005957721,0.0011456469,0.011372532,0.006179171,0.0026645442,-0.012765524,0.011236805,0.00014231291,0.003428904,0.0043897117,-0.0011143938,0.00020571193,0.0069149565,0.014244239,0.007000679,0.003428904,0.0078079,0.0018519654,0.002587751,0.0070935455,0.0013394157,-0.0055469666,0.016144423,-0.008329379,0.0040289625,0.008607978,0.0060255844,-0.011401106,-0.009372338,0.008715131,-0.00083892065,0.0064363386,-0.0121368915,-0.004750461,-0.0018180335,-0.017515985,-0.020916315,0.045061514,0.0021502087,-0.01155112,0.019530466,0.0023752304,-0.0063077547,0.001571581,-0.0033628263,-0.008329379,-0.021544948,0.0116225565,0.002175211,-0.024359506,-0.011786858,-0.0072042705,-0.011043929,0.007943627,0.0056041153,0.0036110645,-0.003336038,-0.0063148984,0.02108776,0.004875473,0.0032842471,-4.900029e-05,0.00010938561,0.010893914,-0.0038075123,0.0037825098,-0.00708283,0.0070899734,0.009050878,-0.007111404,0.014229952,0.035117693,0.03074584,-0.012886965,0.00676137,0.01195116,-0.013629894,0.0076435986,0.009529496,0.008915151,0.009493778,0.004400427,-0.016658759,-0.0001775842,-0.02217358,-0.03563203,-0.03448906,-0.029602872,-0.0038039405,0.010936775,0.00488976,-0.0034360476,0.032746036,-0.0034985538,0.0024538096,0.021959273,0.0037825098,0.025388177,0.056034006,0.018830398,0.011358244,0.008100786,0.021216344,-0.021744967,0.022830786,-0.0005536251,0.0044218577,0.009815238,-0.00074516155,-0.0029806462,0.008872289,-0.011736853,0.001698379,0.015730098,-0.010829622,0.037232183,0.0046111615,0.040375344,0.047718916,0.0019894787,0.028859943,0.04148974,-0.0066042123,0.03251744,-0.012594079,-0.005889857,-0.0032253128,-0.04217552,-0.019787634,0.015930116,-0.033517536,0.008057925,-0.0025145297,-0.007929341,0.0038253712,-0.006975677,0.014701426,0.0031681645,-0.013194137,-0.0009750946,0.017944599,0.0033003201,-0.03897521,0.017758865,0.0033378238,-0.034717653,0.012251189,-0.008422245,-0.037517924,-0.009279472,-0.008765136,-0.018016033,0.0048861885,0.00029266233,-0.027945569,0.011343958,0.01690164,0.008465107,0.0054219547,0.023802308,0.03508912,2.8797436e-05,-0.021659244,0.023588004,-0.019744772,-0.046347354,0.023573715,-0.002460953,-0.01571581,0.0016573037,0.0014858585,-0.007736465,-0.008379384,0.0039575268,0.0013599533,0.004846899,0.007765039,0.0035449867,0.002428807,-0.01032243,0.0075150146,0.0073650004,-0.006168456,0.010951063,0.006179171,0.012879821,0.0055469666,0.0056469766,-0.0031056583,0.0063899057,0.0044218577,-0.010129554,-0.0013920993,0.011593982,0.004039678,0.00016497137,0.009636649,0.012479782,-0.006289896,-0.009808094,0.0052040764,-0.0045504416,-0.014844297,0.0154586425,0.0037682226,0.00577556,-0.018730389,-0.0052969423,0.000100791025,-0.002587751,0.00019153644,0.001509968,0.0029770746,0.0063756187,-0.0009634863,-0.0016135494,-0.002794914,-1.8528583e-05,0.0148157235,-0.0043647094,0.0013385228,0.001032243,0.0062684654,-0.0035771327,0.012786955,-0.008750849,-0.005350519,0.009772377,0.005679122,-0.016030127,0.01076533,0.007893623,-0.00031409296,0.0020787732,-0.003603921,0.006736368,0.0056898375,0.0049326215,0.007822188,0.005871998,0.0029913615,-0.0052469377,0.0065720663,-0.0102367075,0.0029252837,0.021102047,0.009243754,-8.103465e-05,-0.0054362416,0.0029610016,0.0023537998,0.008522255,0.008093642,-0.0030663689,-0.0009965253,0.0052433657,-0.0033413956,-0.019544754,0.0034039016,0.015901543,0.0026538288,0.014308531,0.002268077,-0.0053612343,0.0025216732,-0.0042468407,0.004875473,0.0030288652,0.019630477,0.014629991,6.060856e-05,0.013108415,-0.006957818,0.0036324952,-0.005864855,0.0026574007,0.012765524,-0.006879239,-0.01577296,-0.012615509,0.00060139765,-0.0037717945,-0.0040575364,0.00011563622,-0.010572454,-0.005736271,0.024659535,-0.013565602,0.03340324,0.06343473,0.014372823,0.014251383,0.055205356,0.0031145879,0.029574297,0.0026306123,0.009529496,0.010965349,0.012644084,0.008500825,0.006286324,0.016001552,0.02207357,0.0031842375,-0.0075150146,-0.004600446,0.0011768999,0.0043432787,-0.025002426,-0.004879045,0.00030694943,-0.008986586,0.0057577016,-0.0014590701,0.012358342,0.0057469863,-0.00037436667,0.018001746,0.0055326796,-0.0048683295,0.013515597,-0.005857711,0.007557876,0.0006589925,-0.00788648,-0.015630089,0.0018305348,-0.009772377,-0.0038932348,-0.010486731,-0.0021198485,0.018216053,-0.011579695,0.0026895467,-0.011936872,-0.0024859554,-0.0020984178,0.017415976,0.0035949915,0.021016324,0.0076293116,-0.0013778122,-0.0042182663,0.012229758,-0.02217358,-0.019787634,0.02108776,0.0036610696,0.0120725995,0.0067899446,0.0024377366,-0.005193361,-0.008365097,0.0035378432,-0.004432573,0.0016117635,-0.0064041927,-0.008557973,-0.004986198,-0.0045468695,0.007672173,0.0059398618,-0.009700941,0.008929438,-0.010551023,-0.008986586,0.002525245,-0.00734357,0.0012322624,0.011451111,0.0013376297,-0.008579404,-0.010401009,-0.0040753954,-0.000634883,-0.017730292,-0.0070435405,-0.009808094,0.00822937,0.015644375,-0.005511249,0.016201572,-0.009529496,-0.00014309424,-0.0072185574,0.020930601,0.006768514,0.0121368915,0.00027480346,-0.004128972,-0.00030828884,-0.0050433464,0.005796991,-0.0024966707,-0.0093009025,0.009408056,-0.0023145103,0.009729516,0.0045325826,-0.0120083075,-0.00390395,-0.0028699213,-0.029917188,0.034831952,0.0031860233,0.009972396,0.06880668,0.0010518878,0.009665224,0.057376996,0.00581485,0.0064220517,-0.001984121,0.018844685,-0.0011108221,-0.0018501795,-0.0062756087,0.010993924,-0.015644375,-0.0020430554,-0.0093009025,0.0026091817,0.016444452,-0.00788648,-0.0028324176,0.0020894883,0.016673045,0.0019698339,-0.0036432105,0.009179462,-0.0014421042,-0.00498977,-0.0070435405,-0.0128155295,-0.006750655,0.008007919,-0.018116044,-0.0063899057,0.008722275,0.0005500534,-0.0028020577,-0.00320924,-0.0040575364,-0.012708376,-0.0148157235,0.009929535,-0.018958982,-0.006179171,-0.019344734,0.0012010094,-0.0027199066,-0.046347354,-0.012065456,-0.00359142,-0.039289527,-0.0015126468,-0.013337009,0.002764554,0.0016653402,0.0015046103,0.010686751,-0.007150694,-0.005568397,0.0114296805,0.013222711,0.01438711,-0.0069078133,-0.013358439,0.00033708627,0.011243948,0.010279569,0.0051326407,0.0021180627,-0.0034414052,0.0021377073,-0.005221935,0.0038860913,0.0015474715,-0.0102367075,-0.03340324,-0.006736368,0.000421023,-0.020559138,0.010979637,-0.0010715325,0.008543686,0.0008764243,-0.00029333204,0.006829234,-0.0075007277,0.005525536,0.0069221,-0.005796991,-0.012644084,-0.0028252741,0.00820794,-0.0032306705,0.0005098709,0.00955807,-0.0102367075,-0.0030217217,0.012779811,0.0071006888,-0.0031145879,-0.011258235,0.028102726,0.01645874,0.0064756284,0.0091723185,0.01625872,-0.024802405,0.004686169,0.018316062,0.011158225,-0.010908201,0.007593594,0.011101077,0.0006040765,0.0043789963,0.0052433657,-0.002955644,-0.0028163446,-0.008429389,-0.0037682226,0.0034199746,-0.019501893,-0.00820794,-0.0028895661,-0.01640159,0.0041825487,0.0023752304,-0.0043789963,-0.005861283,0.0059648645,0.0054862467,-0.008872289,-0.00012847228,0.00476832,0.0030627972,0.008257944,-0.005607687,-0.0017010579,0.007893623,0.0009983111,-0.007879335,0.008343667,-0.0055719693,-0.010043832,-0.0030342229,0.003668213,0.029102823,-0.0057791322,-0.01044387,0.034117594,0.006032728,-0.0060041538,-0.007247132,-0.003084228,-0.005318373,-0.0312316,0.008643696,0.011801145,-0.023245113,0.00977952,0.0044218577,0.01054388,0.0014474619,0.019587616,0.032060254,0.010358147,0.028102726,0.020187672,0.014744287,0.015530078,-0.0051397844,-0.013458448,-0.013472736,-0.012301194,-0.006807803,0.008972299,-0.009665224,-0.0109439185,0.025802502,0.0029252837,0.007700747,0.0075150146,-0.005943434,-0.0023930892,-0.0072685624,0.0019162573,0.0076150247,0.011579695,-0.003986101,0.005429098,-0.006686363,-0.003080656,-0.006732796,0.017330253,0.01406565,0.011708279,0.013229855,0.0009224109,-0.0031895952,-0.0015251479,0.0074507226,-0.009143745,0.0011143938,0.005911288,-0.0037253613,-0.008379384,0.011772571,-0.0016715907,0.009129457,0.010279569,0.0010313501,0.0028199165,0.0028342037,0.0075078714,-0.015087178,0.0027449091,0.023716586,0.03908951,0.03748935,0.013729904,0.015530078,0.023802308,0.012886965,0.03040295,-0.026159681,-0.0009179462,0.0030449382,0.026131107,-0.00026297194,0.0030735126,0.019587616,0.00025627486,-0.006111307,-0.023373697,-0.021116335,-0.015187188,-0.0075221583,-0.02980289,-0.013222711,-0.013972784,-0.042146947,-0.012436921,-0.017230242,0.002493099,-0.0020609142,-0.0014322818,-0.0008398136,0.0064256233,-0.008272232,-0.0020984178,-0.00071212265,0.012086887,-0.002335941,-0.00026542754,0.007000679,-0.007993633,-0.0004906726,-0.0033288945,-0.021787828,-0.0069078133,-0.009322333,-0.00060229056,-0.00730428,0.0032628165,0.00394324,-0.002364515,-0.0013099485,0.0029806462,-0.0026341842,0.022745064,0.006829234,0.009100883,-0.0038039405,-0.001414423,0.006336329,-0.0025163156,0.014294244,0.009865243,-0.0056041153,0.025202446,0.0109439185,0.00039825292,-0.010008113,0.018116044,-0.0132012805,0.010622459,-0.0069221,0.01965905,0.015872968,0.0030985149,0.007607881,0.011543977,0.013172707,-0.0154586425,-0.009200892,0.016230145,0.006911385,-0.012708376,0.0024698824,0.012158322,-0.01941617,-0.00071881973,0.0119440155,0.0037432204,-0.0014010288,-0.020216247,-0.0044432883,-0.004161118,-0.023316547,-0.00931519,-0.017273104,-0.014701426,0.0010572454,-0.030317226,-0.00048308258,0.019830495,-0.0045647286,0.01635873,0.024630962,0.005575541,0.0160587,0.022902222,0.0027181208,0.0006567601,0.0017573134,0.004368281,-0.0074221487,-0.0081079295,-0.0033003201,0.0080436375,0.0021466368,0.0021412792,-0.0022859361,-0.009443773,0.008486537,-0.010901057,-0.0069006695,-0.002064486,-0.012615509,-0.005039775,-0.0027752693,-0.0015483645,0.010579598,-0.005529108,0.025659632,0.006839949,0.0065649226,0.020044802,-0.015044317,0.00058844994,-0.022245016,-0.015987266,-0.022002134,0.0054505286,-0.019144714,-0.0020144812,-0.0090437345,-0.0070935455,-0.018258914,-0.0017992817,0.03291748,0.0012340483,-0.008007919,0.02197356,0.0022305734,0.013872774,0.028059864,-0.008407959,-0.0056755506,-0.0007907017,0.008686557,0.011565408,0.0033288945,-0.004096826,-0.0009000873,-0.012822673,-0.0043397066,0.002684189,0.004414714,0.005686266,-0.0015858682,0.02611682,0.015072891,-0.016172998,0.012601223,0.008307949,0.010272426,-0.00079695234,0.0063434727,0.008215083,0.0051183538,0.0038860913,-0.0027967,0.004796894,0.0043718526,-0.00077418226,0.0020984178,-0.0073721437,-0.022330739,-0.023973754,5.1679122e-05,-0.016430166,-0.01935902,-0.011815432,-0.005418383,0.013858488,0.008179365,-0.02340227,0.008557973,-0.013015549,-0.023002231,0.008622265,0.0051719304,-0.0006911385,-0.0017903523,-0.00788648,-0.0060255844,-0.00074516155,-0.005114782,-0.010008113,-0.0012108318,0.0076507423,-0.0008590119,0.0056291176,0.015972978,-0.008565117,0.016715907,0.00055094634,-0.0010420653,-0.006686363,-0.011936872,0.0076650293,-0.008065068,-0.0016626613,-0.012722663,0.004750461,-0.00990096,-0.0081079295,-0.005161215,-0.009529496,-0.018844685,-0.023173677,-0.019301873,-0.03154592,-0.007836474,-0.024773832,-0.014029932,-0.0041789766,-0.009593788,-0.0077864695,0.006589925,-0.0013001261,0.0004964767,-0.0021180627,0.0060934485,-0.0053112297,-0.001191187,0.0027431233,0.0036092787,-0.005071921,-5.8599435e-05,0.0037360766,-0.0072292727,-0.0042682714,0.0064113364,0.00011385033,0.014322818,-0.009850956,-0.004496865,-0.0045468695,-0.027474094,-0.012544074,0.0006933708,-0.013801339,0.005904144,0.03788939,0.0045325826,-0.0074292924,0.002714549,-0.0065684943,-0.00802935,-0.00034422983,0.008722275,0.003448549,-0.008015064,-0.0028092011,0.0011447539,-0.0050612055,0.017701717,0.014972881,0.018544657,0.011836863,0.0041682613,0.009343764,0.0034378336,-0.0069792485,0.0059791515,-0.008943724,-0.021659244,0.025502475,-0.0033074638,-0.009015161,0.0142871,-0.0035949915,-0.0029342133,-0.0051326407,0.021216344,-0.0050897794,0.0028359895,0.00019321071,0.00043821216,0.0041325437,0.004575444,-0.012179753,0.002316296,0.0029663593,-0.010915345,0.0051969327,0.008015064,-0.03143162,0.021444937,0.008622265,-0.002794914,0.009322333,0.008900863,0.0064541977,-0.010679607,0.024359506,-9.699602e-05,-0.005418383,-0.0014287101,-0.007815044,0.0036289236,0.0004161118,0.0053148014,-0.0025663204,0.013215568,0.0022162865,0.011458254,0.0025520334,-0.0053290883,0.0018305348,-0.00038485878,-0.013872774,-0.007386431,-0.012022595,-0.0005022809,-0.0101724155,-0.00015492574,-0.0012420848,0.010415296,0.0072006984,0.008793711,0.0016867708,0.0036003492,-0.0031806657,0.0010143841,0.021416364,0.011436824,0.017301679,0.039775286,0.0075364453,0.018858973,0.0041218284,-0.00043575655,0.013808482,-0.01372276,0.009186606,-0.007943627,-0.02345942,0.016473027,-0.0021948558,-0.0034360476,-0.0015742598,0.0064899153,0.021559235,-0.027659826,-0.009386625,0.050976373,-0.04291845,0.0091366,0.03551773,-0.028759932,-0.026102532,0.00025314957,0.0033949723,0.00037414345,-0.0038503734,-0.013565602,-0.0035628458,0.002348442,-0.007893623,-0.0014028146,0.01229405,0.018058894,0.012894108,-0.025702493,0.01394421,0.0010313501,-0.04277558,0.0023377268,-0.0013519169,-0.010250995,0.0044861496,0.00422541,-0.017601708,0.019087566,0.035174843,-0.034174744,0.0025984664,0.025531048,-0.029488575,-0.0055541103,-0.01798746,-0.023788022,0.0029377851,0.009708085,0.0036449966,0.0060362997,0.0016653402,0.006839949,0.0012778025,-0.01229405,0.008093642,0.009086596,-0.013665612,0.0032449577,0.006032728,-8.907114e-05,0.0038539453,0.011844006,-0.0029163545,-0.011343958,-0.015230049,-0.00043821216,0.0101081235,0.0051326407,0.0031717364,-0.015201475,-0.014108512,-0.014479976,0.0044432883,-0.012108318,-0.014730001,0.021902125,-0.0021734252,-0.001334058,0.0017278462,0.012308337,0.0228165,0.0045825876,0.010165272,0.029288556,0.014158516,-0.011858293,0.025145296,0.007800757,0.011894011,-0.014972881,0.010343861,0.014415684,-0.0037575073,-0.015687237,0.0022645055,-0.019430457,0.0027984858,0.0004781714,0.01054388,0.022787925,0.013544171,0.018030321,0.023759447,0.0155872265,0.0032521011,-0.00288778,-0.010815335,0.008365097,0.00061523827,0.0019412597,0.011279666,0.0105581675,0.012708376,0.029774318,-0.0091080265,-0.009486634,0.0014608561,0.0022377172,0.0042611277,-0.006889954,-0.010286712,-0.012472639,0.002094846,-0.008779423,0.006386334,-0.006904241,-0.013987071,0.005529108,0.00013561583,0.004321848,0.006050587,-0.003464622,-0.0102367075,0.024230922,-0.01591583,-0.01995908,0.026774026,-0.0061398814,-0.017415976,0.030231504,-0.014644278,-0.000793827,0.011401106,-0.003428904,-0.0010447442,0.0040896824,0.0066327862,-0.014301388,0.0065042023,-0.0020716295,-0.0060684457,-0.0045468695,-0.0021627098,0.0009974182,-0.011479685,-0.015701523,0.0016501601,-0.005257653,-0.0029270698,-0.023545142,0.0076793167,0.0007192662,-0.028531339,-0.008365097,0.021444937,0.036889292,-0.008707988,-0.011172513,0.0047718915,0.011786858,0.009850956,0.0129441125,0.0110082105,-0.0032967485,0.013036979,0.023830883,-0.004504008,-0.012865534,-0.00044513246,-0.00012255654,-0.003448549,-0.008950869,-0.0022484325,-0.014872871,-0.017115947,-0.021616383,0.0028217023,0.002478812,0.0062327473,-0.005193361,-0.006929244,-0.008100786,0.0016733767,-0.0049719107,-0.0026466853,-0.010801048,-0.01450855,0.00018852275,-0.017601708,-0.027616965,-0.031460196,-0.02010195,-0.018687528,-0.014358536,0.013229855,0.014887159,0.008357953,-0.017058797,-0.004871901,-0.013765621,0.0015438998,0.00011864991,-0.010229564,-0.0015349704,0.0037360766,0.0066827913,0.0064720563,0.0042182663,0.0009188391,-0.0010831408,0.0044897213,0.0160587,0.0069078133,0.00022993302,0.01641588,0.011222517,0.007557876,0.003573561,0.0056362613,0.0006255071,0.011279666,-0.013444161,0.01748741,0.00965808,-0.014622848,0.0082365135,-0.0019126856,-0.00565412,0.0021323496,0.00802935,-0.003159235,0.019759059,0.011179656,0.0071721245,-0.018030321,0.0056755506,-0.0036146364,0.0014894302,0.00010704163,-0.0042432686,-0.006079161,0.0027270503,0.0043647094,0.008807997,-0.011515403,0.019087566,0.025659632,-0.02527388,0.01219404,-0.014672852,0.010858196,0.009958109,-0.018558944,-0.00023640686,-0.0044218577,-0.027116917,0.0006072018,0.0036271375,0.00613631,0.009550926,-0.010815335,-0.005007629,0.01690164,0.005925575,0.0016760555,-0.00054290984,0.020559138,-0.016687334,0.0066685043,0.031745937,-0.015072891,-0.012301194,0.020516276,-0.002935999,0.0041718334,-0.007189983,-0.011865437,-0.006497059,0.014715713,-0.0065399203,0.0012992332,0.020816306,-0.012458351,-0.00899373,0.00812936,0.010843909,0.008365097,0.019644763,0.005464816,0.002732408,0.026173968,0.0038825194,0.015872968,0.0055791126,0.005957721,-0.006464913,0.054262407,-0.011222517,-0.0021716394,0.053205162,-0.008936581,0.01076533,0.011829719,0.00097062986,0.0076507423,0.00788648,-0.005711268,-0.0049326215,-0.0017849946,0.000936698,-0.007400718,-0.011265378,-0.005446957,-0.01611585,-0.029631447,0.008600835,-0.017801726,-0.022016421,-0.002428807,-0.004861186,0.0064506256,-0.005897001,0.0073292824,-0.00179571,-0.006954246,0.02261648,0.0028181307,-0.0056362613,-0.003207454,-0.002935999,0.014887159,0.017515985,0.011765427,0.022530757,0.003975386,0.00802935,0.014772862,-0.00011452004,0.033717558,-0.027402658,0.042289816,0.080922134,0.025688207,0.028459905,0.040975403,-0.020387692,0.013537028,0.0071006888,0.0030860137,-0.020316256,-0.018730389,0.004561157,-0.013937066,0.007950772,0.0068828105,-0.011122508,-0.013772765,-0.003412831,-0.027816985,-0.010893914,0.018401785,-0.017101659,-0.030688692,0.008665127,-0.01985907,0.0043897117,-0.012208328,0.006807803,-0.01165113,-0.011451111,-0.004857614,-0.00967951,0.00444686,-0.0021502087,-0.015572939,-0.0019751915,0.028988527,0.007765039,0.025302455,0.016744481,0.002509172,0.015172901,0.024059476,0.005175502,0.00034177423,0.0018108899,0.0103652915,-0.0011018927,-0.0026645442,0.009772377,0.010129554,-0.006168456,0.018658953,-0.0079150535,-0.011015355,-0.013537028,-0.04054679,-0.023216538,-0.026945472,-0.01921615,-0.015601514,0.0033771133,-0.001556401,-0.0037896533,0.0015983693,0.0033378238,-0.013829913,-0.007386431,0.0005549645,-0.0008514219,-0.007023436,-0.0029623867,-0.013335188,-0.008789304,0.0017247229,-0.008931641,-0.010595202,-0.010817604,-0.010844292,0.007681744,0.011920715,0.010888772,0.008437909,0.0019693645,0.008789304,0.006672042,0.00505296,0.0063028554,0.007312558,0.0052798092,0.0036940873,-0.00063050794,-0.00083734124,0.0060404222,0.0011309112,0.003182564,0.0010391705,0.0013833367,-0.001919324,0.002880098,-0.010301633,0.005070752,0.0040899618,-0.0009880182,0.0064852247,0.0070857084,0.00019418422,-0.0039943294,0.002091685,-0.0027288652,0.004312363,-0.0013933447,0.0037074313,0.004594813,0.0035228382,0.009136249,0.002993523,0.0089449845,0.0024953438,0.0024286234,0.0059292214,0.0010591866,0.0026399046,0.008073171,0.014482779,0.0011653834,-0.0019282202,0.00032331602,-0.006333992,-0.0059559094,0.00022045539,-0.0059114294,-0.015986213,0.011662729,-0.0006988964,0.0010819829,-0.00027966977,-0.003949849,-0.0074237585,0.007850769,0.0017992273,0.01213422,-0.001918212,-0.0152211515,-0.00078618893,0.0016402103,-0.009198522,-0.007147981,-0.0054532825,-0.0054488345,-0.0035406302,-0.0057868846,-0.009847934,-0.016092965,-0.00814434,-0.010693059,-0.0097500775,-0.008931641,-0.004643741,-0.009349755,0.010764228,0.00793973,0.027079595,0.01587946,0.00918073,0.022329101,0.023983767,0.012570127,0.013228435,-0.0034294296,-0.014553947,-0.0029112343,-0.002090573,-0.011386951,-0.0034227576,-0.00735259,-0.0081799235,-0.010257153,-0.00060771185,-0.0029001143,0.0039187125,0.0054532825,0.0023463347,0.008491285,-0.0018603877,-0.0019526843,0.001919324,-0.007161325,-0.0028378419,-0.006801035,0.0002671597,-0.004448028,-0.003040227,0.0035851107,-0.0026265606,-0.0022395821,0.0029712827,-0.0018081234,0.007779601,-0.0035561984,-0.0023530067,0.014687388,0.0010341665,0.005875845,0.0053554256,0.008731479,-0.0024686556,-0.001583498,0.011689418,0.014874206,0.007806289,0.013957912,-0.0003797504,0.0042011626,0.012214285,0.014100249,0.031919047,-0.0015456898,0.0025909764,0.01937561,-0.002209558,0.006236135,0.012587919,-0.0038564403,-0.012018572,-0.013433045,-0.004392428,-0.013006034,-0.010959941,-0.008869368,-0.007775153,-0.0089538805,-0.0024375194,0.0052753612,-0.008033139,0.0023263185,0.0013255123,-0.00041922665,0.0022773903,0.0044969562,-0.0020038367,0.006213895,0.01301493,0.006209447,0.00017069308,0.008873816,-0.0019793725,-0.004754942,0.0014667372,-0.0020994693,0.008099859,0.009500988,0.0002731367,-0.0028044817,0.007859666,0.0017625311,0.0059559094,0.0029557147,0.006209447,0.007152429,0.0037274475,-0.0026621448,0.0020572129,0.0058046766,0.003489478,0.0020594369,0.0050396156,-0.0004606489,-0.013824471,-0.010363906,-0.01878847,-0.0073881745,-0.0082421955,-0.0035228382,-0.012152012,-0.00348503,-0.0065919776,-0.0021906537,0.0012988242,0.011600457,0.0026599208,0.008033139,0.0055066585,0.008006451,-0.0044791643,0.003676295,-0.008126548,-0.0024864476,-0.0014934253,-0.008393429,0.000635512,-0.0040054494,-0.0015612579,0.005404354,-0.0017803232,0.013655446,0.0048038703,0.017427374,0.008033139,0.0042300746,0.016866922,0.010426178,0.0081221,0.015096607,-0.0036184709,-0.0056223073,-0.0053598736,-0.0031002755,-0.011137862,-0.011698314,0.0017981153,-0.021350535,-0.018895224,0.013183955,0.017898865,0.017035948,0.0031581,0.007944178,-0.002207334,0.014429403,0.0050351676,0.009990271,-0.0042367466,-0.0017892192,0.009305274,-0.0036229189,6.950044e-08,0.014242586,-0.009189626,0.005088544,0.016946986,-0.0028978903,-0.008126548,0.004445804,0.0016446584,-0.0047015655,0.0019404523,0.00026424066,-0.0037296715,-0.008139892,0.0004106086,-0.0003027439,0.007010092,0.0015723779,-0.003324901,0.0054755225,0.0018047873,-0.007454895,0.006694282,0.0020005007,0.006974508,-0.0004303467,0.007846321,0.007819633,0.004634845,0.0061560706,0.0074993754,0.0006344,-0.0024175032,-0.0032893168,-0.003155876,-0.002381919,-0.0031202917,0.003178116,0.0035784384,-0.00067999226,-0.0025954244,-0.00058046763,0.012587919,0.0044858363,-0.004299019,0.006769899,0.0020171807,0.00733035,0.0058002286,-0.0016913626,-0.018859638,-0.024659866,-0.02747102,-0.018076785,-0.021830922,-0.01583498,-0.025994275,-0.022044426,-0.02460649,-0.0001433099,0.0021828697,0.008353396,0.011378055,-0.002711073,0.006889995,0.00443246,0.0050173756,0.010097023,-0.0051196804,-0.008691447,-0.004065498,-0.007161325,-0.0038964725,-0.010381698,-0.009403131,-0.0045814686,-0.0024086072,0.0069211316,0.0013377444,-0.0033560372,-0.0024441914,0.003500598,0.0027644495,0.009803453,0.00444358,0.00061438384,0.014064665,0.004281227,0.0027911377,0.0066097695,-0.0043546194,0.0010202664,0.0023596787,0.0008084291,0.0036963113,-0.007650608,-0.0056756837,0.00043813075,-0.0019560202,0.0027933617,0.0032248204,0.008731479,0.015061023,0.008099859,-0.010470658,-0.0046748775,-0.0065875296,-0.005880293,-0.0048350063,-0.0049106227,-0.002544272,-0.01057741,-0.009056185,0.0018470436,0.001266576,-0.0019482363,-0.0052575693,-0.003038003,0.0025998724,-0.004723806,-0.0024130552,-0.0046748775,0.024019351,0.017338414,0.020816771,0.017089324,0.004441356,0.018806262,0.010426178,0.02291624,0.026065445,-0.007659504,-0.01603959,-0.014198106,-0.0010169304,-0.008713687,-0.005769092,-0.00509744,-0.008807096,-0.0069211316,-0.0014211449,0.006645354,0.0052753612,0.0064763287,0.0035717664,0.005092992,0.009127353,0.0089761205,0.009936894,0.005898085,0.006018182,0.0010041423,-0.0047060135,-0.0040988578,-0.002377471,0.0014912013,-0.0011442552,-0.00011731674,-0.0042545386,-0.0050396156,-0.0094743,-0.006809931,0.0026443526,-0.0047060135,-0.0055822753,-0.0041188737,9.994163e-05,0.007357038,0.0034383256,0.005422146,0.0017647551,0.009483196,0.0026821608,0.0002219844,0.0010236024,0.00062772795,0.010728643,0.006694282,0.0007233606,0.0012954882,0.0020016127,-0.0056934757,0.0050351676,-0.0036162469,-0.01010592,-0.002695505,0.0067387624,0.008130996,0.0061694146,0.002989075,0.009883518,0.015861668,0.008544662,0.020959107,0.0009263018,-0.0003522282,0.0010819829,0.00789525,0.00081343314,0.00038280842,-0.0047860784,-0.0034071894,-0.004519196,0.007868562,0.0069122356,0.009927998,0.0056712357,0.0056667877,0.009323067,-0.002203998,0.0064407447,0.009670013,-0.0009791221,-0.00032859808,-0.009394235,-0.005724612,0.0058269165,-0.0032403884,0.0019493483,0.0034071894,0.0024797756,-0.01748075,-0.026012069,-0.027328685,-0.015950628,-0.016297575,-0.025816355,-0.0015056574,-0.0075305114,-0.009278586,0.004723806,0.003980985,0.004777182,0.0035584224,0.0066053215,0.0036229189,0.008077619,-0.00349615,0.0013777766,0.005399906,0.01010592,0.0009791221,0.0039253845,-0.00036418228,-0.003153652,-0.009963582,-0.0026866088,-0.0012354398,0.0032559566,-0.0062895115,-0.0072636297,0.0033649332,0.0004959551,-0.0017358429,0.0045436607,0.0036384868,-0.0007494927,-0.010951045,-0.008660311,-0.009670013,-0.008446805,-0.017356206,-0.010924357,-0.011271303,-0.009385339,-0.0076684,-0.0015935061,-0.0020483169,0.00796197,-0.0053287377,0.0017703151,0.0007695088,-0.0010030303,-0.0016368743,-0.0028022577,-0.004946207,-0.003669623,-0.011280199,-0.006783243,-0.010088127,-0.005769092,-0.015861668,-0.009065081,-0.0018414836,-0.013077202,-0.0010480667,-0.0021183733,-0.0034094134,0.0048572468,0.0016568904,0.0007016764,0.0019048679,0.0027711214,-0.003340469,-0.007574992,-0.0019827085,-0.007686192,0.0014689612,-0.0030913795,-0.0058135726,-0.005297601,-0.0072458377,-0.0016958107,-0.0058180206,-0.012187596,-0.0055822753,-0.0013066082,0.00033721613,-0.001100887,-0.0024997918,-0.004612605,0.00015526397,-0.0017291709,0.002868978,0.001745851,0.0028022577,0.003954297,-0.011440328,-0.013183955,-0.022026634,0.00015415197,-0.0032270444,0.004519196,-0.0019571322,0.0007572768,0.012018572,0.009260794,0.012685776,0.013139475,7.095995e-05,0.0005273693,-0.0005721276,-0.002366351,0.0040321373,0.0044969562,-0.006809931,0.00093297387,-0.0074015185,-0.00189486,-0.0013688806,0.0064362967,0.008411221,0.0041255457,0.0023196465,0.010728643,0.0039253845,0.006356232,0.009207418,0.0041055297,0.00018431515,0.022738319,0.010008063,0.0038453203,0.021919882,0.009349755,0.0045392127,-0.008744823,-0.0072058053,-0.002868978,-0.0062583755,-0.0077529126,-0.008606934,-0.005101888,-0.0029824027,-0.0104973465,-0.0032203724,-0.009198522,-0.013264019,-0.005898085,-0.0051330244,-0.009643325,-0.018468212,-0.010283841,-0.0053643216,-0.010657475,-0.020407552,-0.015069919,-0.0053598736,0.0061605186,-0.007317006,-0.002711073,-0.0043991,-0.0021584055,0.010844292,0.00072614057,0.008130996,0.0070501245,0.010283841,0.004321259,0.011155654,0.008882712,0.0070545725,-0.008509077,-0.009696701,-0.010746435,0.000788969,-0.0012343278,-0.0022518141,0.0024464154,0.00069611636,-0.0019449003,-0.00076672883,-0.008469045,-0.0039253845,0.0006977844,-0.0072191493,-0.003794168,0.005875845,-0.0016502184,-0.005208641,-0.005858053,-0.006018182,0.0046659815,0.0031870122,-0.004407996,0.0035851107,-0.0010302744,0.0029646107,0.012258765,0.0056712357,0.007570544,0.007761809,0.002377471,0.0003505602,0.0062405835,-0.0056000673,-0.001589058,-0.004181146,0.0033893974,-0.0058135726,-0.0010180424,0.0023352148,-0.0064362967,-0.010595202,-0.009643325,-0.0019304442,-0.008135444,-0.0003947625,0.0051241284,-0.007570544,-0.0030913795,0.004928415,-0.003002419,-0.00091629376,-0.006503017,-0.007828529,-0.0023307668,-0.0034538938,0.0014044648,0.00287565,0.00024589256,0.009483196,-0.0020472049,-0.0029512665,0.0027310892,-0.0041967146,0.0024286234,0.0027399852,0.011271303,0.0046971175,0.020674434,0.009216314,0.015754916,0.028520755,0.0015245616,-0.006854411,-0.0073614866,0.0007350366,0.0035695424,-0.0016435464,-0.0008912736,-0.0049906876,-0.0057913326,-0.0052753612,-0.0033115568,-0.017240556,-0.009803453,0.0048572468,-0.0053376337,-0.020033918,-0.014020184,-0.010363906,0.017338414,0.01272136,0.012312141,0.020247424,0.0042278506,0.011947403,0.007641712,0.009634429,0.0045636767,0.022168972,0.0097856615,0.007597232,0.0064985687,0.0097856615,-9.660561e-05,0.001438937,0.0018181314,-0.0012576799,0.0019827085,0.00413889,0.0010097023,0.0034249816,0.002997971,-0.0016591145,0.008291124,0.0072013573,0.0121075325,-0.00089961366,0.0025598402,0.014776349,0.0064941207,-0.0013466405,0.0005471074,0.0012020796,-0.007686192,0.0009390899,-0.010070335,-0.009127353,-0.020176254,-0.0050218236,-0.009171833,-0.0062450315,-0.010248257,-0.011253511,-0.010274945,-0.0017758752,-0.0037585837,0.006974508,0.0019537963,0.0007795169,0.0034739098,0.001577938,0.0051330244,0.0035361822,0.0056801317,0.00048233304,0.0013066082,0.0033716052,-0.0068988916,-0.00825554,-0.0004912291,0.0017725391,0.00013156433,-0.001435601,-0.012054156,-0.009091769,0.0059425654,-0.007935282,-0.0026154404,0.010853188,0.000945206,-0.0034071894,0.007632816,-0.0014622892,-0.010737539,0.0014789694,-0.004154458,-0.0048439023,-0.008682551,-0.00857135,-0.01103111,-0.0013210643,-0.0038920245,-0.01664452,-0.011102278,-0.003814184,-0.009839038,-0.017249452,-0.011974092,-0.015754916,-0.0019059799,-0.003829752,0.0040388093,0.0030802593,0.007112397,0.004959551,0.0082288515,0.012596815,0.019606907,-0.008931641,-0.0115026,-0.010230464,-0.0077484646,-0.010363906,-0.01247227,-0.0050396156,-0.0073792785,-0.015283424,-0.0010575186,-0.0041099777,0.0033604852,-0.0047015655,-0.008117651,0.0026287846,-0.0072058053,-0.009572157,-0.008740375,-0.0048172143,-0.004932863,-0.006560841,0.00025367658,-0.0010080343,0.0012109756,-0.0021784217,-0.007810737,-0.0048038703,-0.00066275615,0.0030735873,-0.0038986965,-0.0018281395,-0.0065697376,0.0028044817,-0.0105062425,-0.009581053,-0.0009752301,0.0031981322,0.006173863,0.0011386952,0.0019326682,0.007913042,0.0035228382,-0.0006838843,0.0032025801,-0.0006660922,-0.00884268,-0.0072235973,-0.009278586,-0.0035873346,-0.003662951,-0.009100665,-0.0064007123,-0.00032943208,0.00056378753,-0.010390594,0.0028311699,-0.0060404222,0.0013255123,-0.0033849494,0.0031314117,-0.0032248204,0.008451253,0.0030224351,-0.0055911713,-0.0052575693,-0.011013317,-0.007810737,-0.008442357,-0.011653833,0.0032559566,-0.0020227407,-0.0035161662,-0.0036407108,0.0018448196,-0.0064185043,-0.00069222436,-0.0006015958,0.00085346535,-0.008375636,-0.0041099777,-0.012703568,0.01238331,-0.0064896727,-0.00083344924,-0.0018804038,-0.0008751495,0.0009212978,0.0040855138,0.0041967146,0.010177088,-0.0041010818,2.557616e-05,0.010986629,0.002550944,0.0005490535,0.0021661897,0.0013388564,0.0040143454,0.008882712,-0.0009424259,0.0007378166,-0.001895972,0.005221985,0.005546691,0.0028511859,0.009839038,-0.00018584417,0.0049862396,-0.009830141,-0.0041144257,0.0039053685,0.006792139,-0.00029356984,-0.001273248,0.0035450782,-0.009527676,-0.00886492,-0.00030858195,0.0036985353,0.003787496,-0.0035295102,0.0072413897,-0.0009057297,0.0014845293,0.00636068,0.004403548,-0.0012554559,-0.00097189413,0.007134637,-0.0022618223,0.0024197272,0.007637264,0.0031136195,0.009874622,0.005733508,0.0005120792,0.0037296715,-0.0065919776,0.0019504603,-0.0031870122,0.0049061747,0.0011409192,0.006365128,-0.0070946044,-0.010835396,-0.0072502857,0.0051330244,-0.011004421,0.0048305583,0.0021072533,-0.0059381174,0.0019849325,0.0082199555,0.002379695,0.005711268,-0.0074059665,-0.002550944,0.0064274003,-0.0042523146,-0.0028467379,-0.0032537326,-0.00095577,-0.009154041,-0.004069946,-0.004950655,-0.010257153,-0.012748049,-0.006872203,-0.0024619836,-0.005226433,-0.002884546,0.009954686,0.012730256,0.002528704,0.0043857554,0.010933253,0.0062494795,0.0059292214,0.016902506,0.0052842572,-0.011529288,-0.013895639,-0.021386119,-0.0027533292,-0.004441356,-0.009847934,-0.00509744,0.0003953185,-0.0081977155,0.00028189376,-0.0037430155,0.0019704765,-0.003160324,-0.0056000673,-0.003000195,-0.0026265606,0.0017792112,-0.0007711768,-0.006311752,-0.0043479474,-0.0015657059,-0.0037207755,-0.0018359235,0.007472687,-0.004777182,-0.0051330244,0.0038675603,0.014491675,0.004732702,0.009981375,-0.0018014513,-0.0003619583,0.0011965196,0.003320453,-0.002991299,-0.005061856,0.0034227576,-0.00443246,0.007815185,0.005195297,-0.0040832898,-0.00478163,0.004937311,0.00028689782,0.00042033865,-0.0045258687,-0.012650192,-0.003992105,-0.013566486,-0.014927582,-0.012018572,-0.0097500775,-0.012418894,-0.013824471,-0.0023463347,-0.005737956,-0.010977733,0.004630397,0.0052664652,0.0035450782,-0.014998751,-0.007881906,-0.0072324937,0.0023485587,0.0043679634,0.005186401,-0.00010167914,0.0046926695,0.0069478196,-0.016822442,-0.009883518,-0.005884741,0.0032781966,0.008135444,0.008833784,0.01170721,-0.0024397434,0.0069344756,0.0021517335,0.007134637,0.00505296,0.004074394,-0.011858443,-0.0025064638,-0.0044813883,-0.010203776,-0.0044813883,0.00505296,0.0024597596,0.0082332995,0.0061204867,0.0017825472,-0.009598845,-0.0017747632,0.0019749245,-0.007018988,-0.0006872203,-0.0073881745,-0.0025665122,-0.0043879794,0.0026354566,-0.0058135726,-0.00541325,0.0020227407,0.0024241752,-0.00382308,0.0007044564,-0.00060937984,-0.006351784,-0.0018214674,0.0019382281,0.00608935,0.000956326,0.006035974,0.009029496,0.0020194047,0.01815685,-0.011733898,-0.0019893805,-0.009385339,-0.016342055,-0.018236915,-0.013726614,-0.0097767655,-0.012934865,-0.015345696,-0.00541325,-0.0032025801,-0.0021228213,-0.0039120405,-0.004285675,-0.0043501714,-0.00543549,-0.0054844185,-0.00852687,-0.004634845,-0.013264019,-0.018574964,-0.011929611,-0.010337217,-0.01853938,-0.012783633,-0.021439495,-0.024464155,0.0097589735,0.014936478,0.014295962,0.00669873,0.005288705,0.003825304,-0.0025687362,0.007868562,0.008308916,-0.0064585367,-0.010693059,-0.007850769,0.0012054156,-0.005542243,-0.009589949,0.0014189209,-0.00057879963,-0.003669623,-0.009385339,-0.005092992,-0.0008568014,-0.00019390622,0.003178116,-0.0028978903,0.0030735873,0.008847128,0.00081398914,0.005573379,0.0011192351,0.012321037,0.008108755,0.00380084,0.00441022,0.006511913,-0.0075082714,0.00031358597,0.002072781,0.012258765,0.01335298,0.010008063,0.0035917826,0.0035784384,0.01603959,0.008037587,0.0055867233,0.018183539,0.010728643,0.010114816,0.017018154,0.01702705,0.009438715,0.016786858,0.007450447,0.00956326,-0.004512524,-0.005524451,0.006881099,0.0061338306,0.002691057,0.001756971,-0.0007166885,-0.0050351676,-0.00020391429,-0.011849547,-0.008050931,-0.005288705,-0.004434684,0.00072502857,-0.006511913,-0.0036162469,-0.0072458377,0.0072058053,0.010114816,0.00034639018,0.00039087047,0.011111174,7.165495e-05,0.008544662,0.013530901,0.0041055297,0.017703151,-0.0019382281,-0.00956326,-0.006009286,-0.0032737486,-0.010363906,-0.0055111065,-0.006667594,-0.005288705,-0.002704401,-0.015194464,-0.00665425,-0.015754916,-0.00019515723,-0.0024108312,-0.0048394543,-0.0073926225,0.0040944098,-0.004419116,0.0064941207,-0.00020196827,0.014678492,0.0039276085,0.0014634012,0.014055768,0.0011259071,0.0015312337,0.0069478196,-0.0032181484,-0.0042211786,-0.0005882517,-0.0061160387,-0.0049106227,-0.003344917,-0.003173668,-0.007948626,0.0018759558,-6.3245396e-05,-0.0032003562,-0.005711268,0.006191655,-0.0105240345,-0.0040588253,-0.0030735873,-0.004959551,-0.00048122104,0.007334798,0.0048928307,0.006058214,-0.011449224,-0.0018703957,-0.007757361,-0.0005268133,0.0013510885,-0.0081621315,0.00037085434,0.0015145536,0.0044991802,0.0028912183,-0.007655056,0.0072814217,-0.008722583,-0.0023285428,-0.0047860784,0.0041967146,-0.003660727,0.0006672042,-0.0021417255,-0.0036029026,-0.00791749,0.0031425317,-0.0071702213,-0.005310945,-0.004981791,-0.007806289,-0.0018648357,-0.0039209365,-0.0014578411,8.757055e-06,-0.0001759751,0.00090294966,0.006093798,0.0037496877,0.00071112846,0.006347336,0.0072147013,0.010274945,0.009883518,0.005382114,0.011822859,0.009554364,0.003827528,-0.004639293,-0.0035361822,0.006849963,0.0048750388,-0.007792945,0.00633844,0.003166996,0.0011309112,0.00994579,0.0010747547,0.012365518,0.00475939,-0.0071791173,0.017400686,0.009625533,0.009278586,0.024464155,0.0018659477,-0.013486421,-0.0034739098,0.0054844185,0.003989881,-0.0048083183,-0.0010063663,-0.0067476584,-0.005217537,-0.005742404,-0.010212672,-0.008838232,-0.0075038234,-0.012347726,-0.010435074,0.007597232,-0.008157684,-0.011182343,0.0045547807,-0.0044702683,-0.0013388564,-0.0012421118,-0.0015512498,-0.0017725391,-0.009287482,-8.9377565e-05,-0.00069000036,-0.002997971,-0.0040477053,-0.006076006,-0.0016491064,0.003947625,0.00442134,-0.0018348115,-0.00043618475,0.003182564,0.0023040785,-0.0042189546,-0.0048883827,-0.001748075,0.006543049,-5.129132e-05,-0.0013555365,-0.00011293821,0.0032292684,0.0022773903,-0.0010447305,0.003965417,0.0024908956,0.0010447305,-0.004141114,0.0032604046,-0.002695505,-0.0045347647,0.011636041,0.014135833,0.0133085,0.008655863,0.01062189,0.017854385,0.012854801,0.020959107,0.020567682,0.014963166,0.018174643,0.0070857084,-0.004452476,0.008113203,0.005720164,0.0067076264,0.019695869,0.003327125,0.0026443526,0.0039231605,0.007294766,0.002370799,0.005537795,0.0026132164,0.006876651,0.0032915408,-0.0005690696,0.012481167,0.008509077,0.007005644,0.005084096,0.006035974,-0.00027827974,0.004303467,0.0019827085,0.009527676,0.0010130383,-0.009456508,-0.007993107,-0.0010391705,-0.0053687696,-0.0036073506,0.0054977625,-0.0018826278,0.0015490258,0.005186401,0.004132218,0.021101445,0.010034751,0.0070946044,0.007899698,0.002384143,0.009874622,0.011475912,0.008517974,0.004136666,0.0013410804,-0.0075438553,0.0075082714,0.006672042,0.0027755694,-0.0019171,0.012659088,0.0012610159,-0.0025642882,-0.008353396,-0.004919519,-0.011191239,-0.0067565544,-0.0064229523,-0.0021306055,-0.0069478196,0.004639293,0.004167802,0.009696701,0.0056890277,0.0026043204,-0.00038253042,0.0014267049,0.007953074,-0.0023040785,-0.0029090103,-0.005769092,0.008709239,0.0019649165,0.001278808,-0.008691447,-0.0075038234,-0.002857858,0.0005104112,0.0044769403,0.0019404523,0.0006861083,-0.0009869062,0.0061605186,0.009189626,0.0014567291,0.011787274,0.0048439023,0.004516972,0.0054666265,0.006084902,0.0035984546,0.0034583418,0.0047060135,-0.0026576968,-0.004599261,0.0010097023,0.0062583755,0.0051463684,0.0051597124,0.009670013,0.0026754888,0.0057957806,0.012863697,5.3098334e-05,0.0058402605,-0.008424565,-0.0014233689,-0.0007778489,0.0034138614,-0.0027978097,-0.0005154152,-0.0030936035,-0.002072781,-0.013112786,-0.0075438553,-0.012454478,-0.013637654,-0.014847517,-0.007784049,-0.010701955,-0.01019488,-0.009981375,-0.0126324,-0.0011876235,0.005382114,0.00035973426,0.0023952632,0.0021506215,-0.009051737,0.002200662,0.0070412285,0.0014000168,-0.00011411972,0.00024533653,0.008033139,-0.0043724114,0.010114816,0.017062636,-0.0067165224,0.00023393847,0.0029067863,0.004750494,0.009990271,0.006182759,0.012071948,0.013192851,0.011564873,0.0004300687,0.0010764227,0.004754942,0.014331547,0.016413223,0.016261991,0.0033071088,0.0069389236,0.0009235218,0.0028044817,0.0033538132,0.001591282,-0.001437825,0.0027355372,-0.002711073,0.0014945375,0.0064807767,0.0042167306,0.005399906,-0.0010836509,0.0050084796,-0.013130578,-0.0015545858,-0.018859638,-0.0015657059,-0.008139892,-0.012187596,-0.014696284,-0.012694672,-0.014411611,0.0074148625,-0.0024308474,0.00024172252,-0.0036829673,0.0009068417,0.003513942,0.0097589735,-2.5993164e-05,0.006845515,0.0011431432,-0.011520392,-0.011520392,-0.0032759726,-0.0064496407,-0.0050218236,-0.0034739098,-0.011885131,-0.007445999,-0.007303662,-0.0027377612,-0.0089360885,-0.010470658,-0.004612605,-0.009492092,-0.0024731036,-0.0074015185,-0.007459343,-0.008682551,-0.0027377612,-0.0031492037,-0.0021773097,-0.009385339,-0.0055911713,-0.0065830816,-0.012490063,-0.006867755,0.010097023,-0.0017591951,0.0048350063,0.010435074,0.00904284,0.008002003,0.010363906,0.0033093328,0.002704401,0.004290123,-0.0037407915,-0.0046837735,-0.0033827252,-0.0035206142,0.0019304442,0.0025843042,0.0032137001,-0.0038119599,0.0036384868,-0.00033026608,-0.0022796143,0.004652637,-0.0056089633,-0.0028445139,-0.0019437883,-0.00475939,-0.00086792145,-0.0061427266,-0.011698314,-0.013121682,-0.009581053,-0.006996748,-0.021048069,-0.00349615,-0.011378055,-0.010328321,0.011698314,0.002711073,-0.0045080762,0.0007595008,-0.011040006,-0.01486531,-0.003166996,-0.01087098,-0.008046483,-0.014509467,-0.020941315,-0.0075438553,-0.009554364,-0.008090963,0.0005726836,-0.011280199,-0.01829029,-0.0017914433,-0.003940953,-0.00412777,-0.00025325958,0.0003347141,-0.0026109924,-0.0022818383,-0.0053153937,-0.012739152,0.0027266413,-0.006894443,-0.0019615802,-0.007130189,-0.008482389,0.0011453672,-0.0013544245,-0.0034694618,0.0031447557,0.005092992,0.005524451,-0.0017369549,0.006333992,0.0021673017,-0.004163354,0.0026287846,-0.00956326,-0.0064896727,0.0020071727,-0.01373551,-0.009243002,-0.011787274,-0.015843876,-0.002877874,-0.01980262,-0.010835396,-0.0018626117,-0.0082155075,-0.011938507,-0.0048839347,-0.011778378,-0.008558006,-0.002370799,-0.006365128,-0.01272136,-0.008784856,-0.008669207,-0.0053376337,-0.004768286,0.003965417,0.0006883323,-0.008504629,-0.002882322,-0.0045458847,-0.002699953,0.0067298664,-0.0023997112,-0.000634956,0.005386562,0.0050129276,-0.00050707516,0.013824471,0.006356232,0.012160908,0.009162937,0.0016791306,-0.0015634819,0.007926386,-0.0033760532,-0.0023952632,0.0016012901,0.00081510114,-0.008611382,0.0010753107,0.021439495,0.019268857,0.0082377475,0.018913016,0.018210227,0.009812349,0.014082457,0.011440328,0.003649607,0.0081843715,0.0126324,0.0027844654,0.004621501,0.006035974,0.011244615,0.002528704,0.009465404,0.0022974066,-0.0045436607,-0.0067387624,-0.012436686,-0.0027444332,-0.0024308474,-0.0069433716,-0.008673655,-0.00830002,-0.004274555,-0.0051196804,0.00012405828,-0.0013199523,0.0033693812,-0.0038097359,-0.0066231135,-0.0011370272,0.0033093328,0.0007717329,-0.012445582,-0.009314171,-0.010595202,-0.0032003562,-0.0029801787,-0.009954686,-0.0108265,-0.012908177,-0.011431432,-0.015701538,-0.016537769,-0.0152478395,-0.009598845,-0.012258765,-0.008495733,-0.015256736,-0.01937561,-0.014874206,-0.003173668,-0.006551945,-0.0005999278,0.004296795,0.0042256266,-0.0037185515,0.0027844654,0.003493926,-0.004316811,-0.0009935782,0.0040499293,-0.0018848518,-0.0024330714,0.0032515086,-0.00093186187,0.00085068535,0.0026799368,0.0056667877,0.0034605658,-0.0006344,0.008713687,0.0008890496,-0.0070412285,-0.0075305114,-0.0054577305,-0.0037185515,-0.010968837,-0.0026376806,-0.004281227,-0.00665425,0.0019026439,-0.002071669,-0.0021773097,0.00091184577,0.0005988158,-0.0007239166,-0.0052798092,-0.0115026,-0.0019938285,-0.0019949405,-0.006876651,-0.0015590338,-0.010079231,-0.011413639,-0.01461622,0.0034561178,-0.006342888,0.0010452865,-5.247283e-05,-0.0024842236,-0.00190042,-0.0063784723,-0.009936894,-0.0034427736,-0.016760169,0.0032515086,-0.0121075325,-0.005742404,-0.0016368743,-0.0157905,-0.0024330714,0.0070456765,0.00032359402,0.009189626,0.001912652,0.007637264,0.0033538132,-0.0024086072,-0.012748049,0.004276779,0.01062189,0.0020027247,-0.008624726,-0.0022373581,0.0013232883,0.001746963,-0.0012977122,-0.00012357178,-0.0058046766,-0.0029067863,-0.0027866894,0.00191154,0.0043479474,-0.0009780101,0.00444358,-0.007574992,-0.0046837735,0.0047193575,-0.008664759,0.0029090103,-0.0067076264,0.0049150707,-0.00349615,0.008807096,0.0047015655,0.013762198,-0.0012421118,0.012490063,0.007886354,0.0001897362,-0.00888716,-0.006872203,-0.007659504,-0.00633844,-0.012810321,-0.00062550395,-0.009910206,-0.00572906,-0.0034583418,-0.004390204,0.002214006,-0.0069611636,0.009051737,0.0035606464,-0.0066320095,0.0051641604,0.005226433,-0.0053687696,-0.0070901564,-0.0052798092,-0.0089716725,-0.0022462541,0.0013244003,-0.0043412754,0.0046659815,0.005057408,-0.0048394543,-0.00044285678,0.0015434658,0.0021617415,0.008313364,0.012899281,0.0020127327,0.007926386,0.012552335,-0.0004270107,-0.002064997,0.004276779,-0.0030735873,-0.00079675304,0.005217537,-0.0012799201,-0.0023151985,0.00541325,-0.008602486,-0.0038942485,-0.0001276723,-0.0034227576,0.002202886,-0.0021528455,-0.0011203471,-0.0021039173,0.00034388815,0.0059336694,0.0073792785,-0.009492092,-0.005755748,0.01057741,0.0030824833,0.00095076597,0.01301493,-0.00078340893,0.01364655,0.012943761,0.014740765,0.012329933,0.0104973465,0.009625533,0.009287482,0.003493926,-0.00083622924,-0.008317812,-0.00030496792,-0.0019949405,-0.006881099,-9.792612e-05,-0.0024330714,-0.0025665122,-0.001130355,0.008371188,0.0105685145,0.0064941207,0.006342888,-0.009198522,-0.0077484646,-0.0029690587,-0.0071969093,-0.007486031,-0.006093798,-0.0075038234,-0.013575382,-0.016493287,-0.00011585723,-0.003969865,-0.012143116,-0.007161325,-0.0067343144,-0.0061115907,-0.006547497,0.0002071113,0.001744739,-1.758361e-05,0.0032737486,-0.0012409998,0.0021161493,0.0013800007,-0.0024419674,-0.009429819,0.0018837398,0.0071702213,-0.006658698,-0.0008573574,-0.006685386,-0.0040010014,0.0031202917,-0.005057408,0.006231687,0.0022495901,0.010835396,0.003825304,0.01154708,0.005084096,0.0018581637,0.001433377,0.00539101,0.0017692031,-0.009927998,-0.006832171,0.0018804038,-0.003943177,0.0018047873,0.01574602,0.0059247734,0.0010664148,-0.0051552644,-0.0020082847,-0.006974508,-0.002699953,-0.0021617415,-4.4063276e-05,0.0054888665,-0.00013545636,-0.0028356179,-0.004754942,-0.008259988,-0.019073144,0.0019838205,0.0033071088,-0.008860472,-0.005386562,0.0014756332,-0.009696701,0.004319035,0.0050129276,0.007477135,0.010755331,0.013637654,0.01204526,0.0064229523,0.009625533,0.010977733,-0.009554364,-0.0072636297,-0.012792529,-0.00287565,-0.005386562,-0.0031870122,-0.00757944,-0.0055911713,-0.012027468,0.0058402605,0.0040210173,0.003160324,0.0032359404,0.0067165224,0.002702177,0.0074015185,-0.001921548,-0.00020182927,0.00037085434,0.00042033865,-0.00017152708,-0.0041166497,0.0055911713,0.005769092,0.0063162,0.009972479,0.0031002755,-0.0010458425,0.003336021,-0.0014689612,0.0019727005,0.0056356513,-0.0033738292,-0.001102555,-0.004617053,-0.0024864476,0.0077395686,-0.0017391789,0.003972089,-0.008433461,-0.007486031,-0.007152429,-0.0058180206,-0.0005899197,-0.00667649,0.012018572,0.0038497683,0.008477941,0.009082873,0.00037474636,-0.0032359404,0.011173447,-0.002370799,-0.0032559566,-0.0105596185,-0.0015990661,-0.002222902,0.0015045454,-0.0015935061,-0.0026510246,-0.0027777934,-0.0048839347,0.00011523173,-0.007677296,-0.008629174,-0.004316811,-0.007005644,-0.009589949,-0.0036807433,-5.3793337e-05,-0.009447612,0.0013155043,-0.009572157,0.00040060052,0.0054844185,-0.008869368,-0.002993523,0.011591561,-0.0024664316,0.0027644495,-0.0005087432,-0.006534153,-0.0024575354,-0.008135444,-0.011386951,-0.004977343,-0.009572157,0.00473715,-0.0015601459,-0.011102278,0.0021205973,0.0035317342,0.00028773182,-5.0179315e-05,0.0008890496,0.0039120405,-0.006342888,0.0013377444,0.0017858832,0.0035561984,0.0033515892,0.009145145,0.00475939,-0.0015468018,-0.0003488922,0.0014533931,-0.0061160387,0.003654055,-0.01964249,-0.013450837,-0.014553947,-0.011813962,-0.014927582,-0.015932836,-0.018005617,-0.014411611,-0.0178188,-0.0058091246,0.008415669,-0.0017736511,-0.007317006,-0.0038097359,-0.0023952632,0.0033849494,-0.010853188,-0.00010320815,-0.003825304,-0.006965612,-0.0053198417,-0.00013886187,0.0066186655,0.0061382786,0.01175169,0.009847934,0.016350951,-0.0039053685,-0.0072147013,-0.007775153,0.00189486,-0.0023374388,-0.0019415643,-0.005213089,-0.010088127,-0.0061605186,-0.007481583,-0.003838648,-0.0011170111,-0.007632816,-0.009972479,0.0014155849,-0.015621474,-0.0058180206,-0.0056267553,-0.003011315,-0.004634845,-0.0023374388,-0.006658698,-0.0021228213,-0.007317006,-0.0076906406,-0.0061516226,-0.001592394,0.0042300746,0.0018125714,0.003791944,0.00827778,-0.0030847073,0.0026043204,0.0025820802,-0.0075527513,-0.0005373774,0.008642518,0.002256262,0.007841873,0.009581053,0.0011475913,0.005982598,-0.00056295353,0.00040226855,0.00043312673,0.005568931,0.012036364,0.009696701,0.0042278506,-0.00017945013,0.01204526,0.010132608,-0.0035450782,0.0011192351,0.0051330244,-0.005195297,-0.008375636,0.0058135726,0.002206222,-0.002095021,0.006516361,0.0051241284,-0.005733508,-0.0056801317,0.007770705,-0.002868978,-0.005297601,0.0064229523,-0.00043896475,0.004296795,0.003836424,0.0046793255,0.008562454,0.0144382985,0.02240027,0.006507465,0.008153236,0.016902506,0.0037519117,0.0033026608,0.017169388,0.0034583418,-0.00083511724,0.0015223376,5.768536e-06,0.0032893168,0.0023174225,-0.0032092521,-0.004176698,-0.0058358125,0.0029868507,0.003011315,0.0069923,-0.0016568904,-0.0040210173,0.001741403,0.008353396,0.006974508,0.011182343,-0.0063759414,-0.0041573537,-0.007535204,-0.002007472,-0.003670164,-0.0028881617,-0.0056613963,-0.005141727,-0.0068956106,-0.001974993,-0.0076451334,-0.007250385,-0.0054315426,-0.0041073854,-0.0042298078,-0.004939356,-0.0038450526,-0.00262333,-0.0002168932,-0.0009419005,0.0018675613,-0.0035902148,-0.0042622867,-0.002688289,-0.0058762594,-0.0058162976,-0.0095239375,-0.00355024,-0.0042248107,-0.0059662024,-0.0010811868,-0.00079262047,0.0023160258,-0.002317275,-0.0015627552,0.0015140363,-0.0021848592,0.0015190331,-0.00022673068,-0.0022360766,0.003292904,-0.0017338963,-0.0035677291,0.0033028976,0.0019512579,-0.0019175294,-0.0015040427,-0.0027607428,0.008794402,0.001079313,0.0020999133,-0.0017488868,0.0011111677,-0.0031579898,-0.007994911,-0.006950576,-0.006775687,-0.0066807475,-0.0066857445,-0.0024834191,-0.004904378,-0.0050043147,0.00015958592,-0.0017876121,-0.0027482507,-0.00073328323,-0.0014865538,-0.00073515705,0.002378486,0.00042129433,-0.0022310799,0.0023322655,-0.007300353,-0.0029356314,-0.0073153437,-0.0022398243,-0.0011448963,-3.060552e-05,-0.0016127235,-0.0045670928,-0.0028232029,-0.006695738,-0.0051017525,-0.002281048,-0.0056563993,-0.0032654214,-0.0021486324,-0.0033378752,-0.0047394834,-0.007495229,-0.0007282864,-0.002970609,-0.00063240994,-0.00016395813,0.0006495865,0.004617061,0.007225401,0.010803124,0.014250929,-0.010163531,-0.005866266,-0.007245388,-0.010483327,-0.0067007346,-0.0074002896,-0.011792494,-0.008019895,-0.00622104,0.0038075764,0.0005761957,-0.004274779,0.0015540108,8.1900995e-05,-0.0057163616,0.0047594705,-0.002537135,-0.007380302,0.0010330924,-0.0036801575,0.0007901221,0.004647042,-0.0010661964,-0.0044246837,0.00047813315,-0.002024961,-0.0074202768,-0.0030655486,-0.003952484,-0.00474448,-0.0048019434,-0.0030580536,-0.007410283,-0.0017663756,-0.002568365,-0.0031854725,0.0039674747,-0.00032135795,-0.00029840381,-0.0010505812,-0.0017701233,-0.0023809844,0.0027657396,-0.000936279,-0.0005462148,-0.0023672432,0.00030589904,-0.00091254414,-0.0018987914,0.003530253,-0.0025933492,0.0010574519,0.002633324,0.004067411,-0.0023485052,-0.0017738709,-0.0039349953,-0.0014828062,-0.002169869,-0.002164872,-0.0027257649,-0.0035202592,-0.010403378,0.00023547512,0.00081697997,-0.001347892,0.004447169,0.004514626,0.0039200047,-2.2837026e-05,0.0026283269,0.00043035107,-0.0012292175,0.0054665203,0.0017101615,-0.00686563,0.0011742526,-0.0022610608,-0.00063240994,-0.0033453705,0.00013233763,0.0018962929,0.00041817132,0.0043097567,0.007640137,0.0004431554,0.0013378984,0.007220404,0.00028903477,0.002323521,0.00862451,0.009294084,0.013251565,0.005616425,0.009578902,0.008094847,0.0038350588,0.0013691285,0.0032654214,0.003475288,0.0044746515,0.00022938524,-0.00023984733,0.0026433174,0.0008525823,0.0066857445,0.003572726,0.007445261,-0.003085536,0.0008176046,-0.0026133365,6.784744e-05,-0.002092418,0.0003922503,-0.0008344688,-5.434041e-05,0.0042048236,-0.0048669023,-0.0013391476,0.002147383,-0.0022423228,-0.005266648,-0.002189856,-0.0076201498,-0.004249795,-0.002683292,-0.0022585623,0.0013641317,0.0009556417,-0.00035696028,-0.0023072814,-0.0008176046,-0.00028216414,-0.004427182,-0.0076701175,0.003507767,-0.0027132728,0.0046745245,0.005306622,-0.0024909144,-0.00012859002,0.0024109653,-0.00043097566,0.0016164711,0.0046570357,-0.002543381,-0.0052416637,-0.003992459,-0.0019924818,-0.0006149211,-0.0019462612,0.0010330924,0.0022897925,0.0026982825,0.0010849345,0.002793222,0.0036326877,0.001798855,0.0028306982,0.00015849287,-0.0028706726,-0.0017738709,0.0005465271,0.0006939333,0.0006951825,-0.0011386502,0.00047469785,0.00474448,-0.00074202765,0.0029855997,-0.0016289632,-0.0024371985,-0.0013329015,0.0026857904,-0.0019375167,-0.0007214158,-0.0008963045,-0.00300059,-0.0011255336,0.0004643919,0.0007045515,-0.0012510787,-0.002640819,0.005069273,0.00177512,-0.0036751607,0.0050842636,-0.0014753109,-0.0010799376,-0.0020624371,-0.002224834,0.0033828467,0.00030230757,0.0033803482,0.0057063675,-0.0017214043,-0.00300059,0.0015477648,-0.0022073449,-0.0025146494,0.010603251,-0.002585854,-0.00035414958,0.008534567,-0.0007726332,0.0005274767,0.010073588,-0.004024938,-0.0040849,-0.001640206,-0.0054565268,-0.00016926725,-0.0037101384,-0.006091123,-0.0075002257,-0.010283454,-0.0016302123,-0.00010735354,-0.0020524436,-0.0036876528,0.00083571806,0.0029006538,-0.0019612515,0.0005943092,0.003250431,0.0007189174,-6.1601415e-05,0.0034802847,-0.0014078539,-0.0019587532,-0.00092690997,8.4555555e-05,-0.0038625414,-0.0052766413,-0.0032829102,0.0045271185,-0.002683292,0.004944353,0.00600118,0.0057963105,0.00069205946,0.004532115,0.0031679834,0.002512151,0.00045564747,0.0046495404,0.0065958016,0.0029406282,0.0002702967,0.006325973,0.0054365396,0.0077800476,0.0075152162,-0.0007738824,0.0061011165,0.006500862,0.0011292811,0.006191059,0.0112928115,0.0016564457,0.00468202,0.0024047194,-0.0020999133,-0.0012941762,-0.00033010237,-0.00501181,-0.009054237,-0.0004106761,-0.006261015,-0.014710636,0.0019737436,0.0014490776,-0.008564549,0.0035102656,0.0081548095,0.0008475855,0.008979284,0.005476514,0.007145452,0.0038325605,0.0010774392,-0.003830062,0.00043316177,-0.006021167,-0.000978752,-0.003292904,-0.008519577,-0.011192875,0.0005009311,0.004449668,-0.0006714476,-0.0010624487,-0.0072653755,-0.009324065,-0.007275369,-0.0033803482,-0.008174797,0.0118924305,0.0008575791,0.0078100287,0.004402198,0.003952484,0.0054665203,0.0051142448,0.0038250652,0.0096288705,0.0045421086,-0.0032154534,-0.0013628824,0.0020099706,-0.0038025796,0.0034003356,0.007020531,-0.0010643225,0.0047844546,0.00069205946,-0.0022298307,0.0025571224,0.0031180154,-0.00068331504,0.002427205,-0.0050218035,-0.009034249,-0.0107131805,-0.0018825517,0.0019600024,0.0067856805,0.0011555145,0.0022485687,0.005486508,-0.00087819103,0.0029831012,0.0099236835,-0.00028091494,0.0008769418,0.0018001042,-0.0014203459,-0.0023160258,0.0003622694,-0.0013366492,-0.0052366666,-0.0035152624,0.00073765544,-0.0014465792,0.005171708,0.0021136545,0.00082385057,0.0033178881,0.007385299,0.008684472,0.014890522,-0.0075701815,-0.01252203,-0.0130816735,-0.008904332,-0.0066207857,0.00086507434,-0.008179793,-0.008329698,-0.010173524,0.0011992366,-0.001786363,0.0014478284,-0.00055371004,0.0037651034,0.0066857445,-0.001402857,0.005741345,0.0012210978,0.0002980915,-0.0010605749,-0.0013628824,0.00091504253,-0.002116153,-0.008559552,0.0019125326,0.006081129,0.0047819563,0.002568365,-0.0012760628,-0.0037276272,0.0023197734,-0.0011680066,0.0010156035,-0.001021225,0.0028706726,0.0026133365,-0.00042223124,-0.00096313696,0.0037276272,-0.001371627,-0.0062110466,0.0016264647,-0.00034415594,-0.0010580765,0.007959933,0.0032054596,0.0015202822,0.004014944,0.00019175294,0.0030455615,0.0013316524,0.00047532245,-0.0014765601,-0.00066020474,-0.0016127235,0.0008769418,0.00721041,0.0007982419,-0.0017201551,0.0018900469,-0.0022822972,0.0076801116,0.009419004,0.0009262854,-0.004402198,-0.000103449776,0.002342259,-0.001280435,-0.0024984097,-6.218698e-05,0.001354138,-0.0014528253,0.0015627552,-0.002878168,0.0029056505,-0.0019025389,0.00093128224,0.0002079926,0.0007482737,0.00425729,-0.0030755424,-0.0037975828,0.004751975,0.00033166388,-0.0040524206,0.0028157078,0.0029556185,-0.01123285,0.0049743336,0.0029531203,-0.0031554915,-0.0074602515,-0.006141091,0.00080386334,-0.001409103,-0.004014944,0.0017526344,0.0022398243,0.0036601701,-0.00015825864,-0.0026732984,0.0012435834,0.0063209767,0.00044940144,-0.0006152334,0.004464658,-0.004829426,-0.00397497,-0.004329744,-0.0017151582,-0.0023622464,0.0006558325,-0.0032004628,0.0014303395,-0.0033578626,-0.007380302,-0.008544561,-0.0014303395,0.0019487595,0.0036601701,0.0019699961,-0.0029606156,0.00027232667,2.7482507e-05,-0.005196692,-0.0004353479,0.0062060496,0.001768874,0.002730762,-0.0018638136,0.0052116825,0.002072431,-0.0021936037,0.006006177,0.0019237754,0.0032154534,0.0029431267,0.0005452779,0.00032042104,-0.002463432,-0.0025146494,-0.0046745245,-0.0029056505,-0.003128009,-0.0029781044,0.0017538836,0.0005805679,-0.0021323927,0.003949986,0.0054915044,0.0005643283,0.00463455,0.009019259,0.0032004628,0.00207368,0.0022935402,0.006300989,-0.0010437106,-0.00055995607,0.0040449253,-0.0048644035,-0.003949986,-0.00578132,-0.0010993002,-0.0031804754,-0.0018925454,-0.004299763,-0.0022460704,-0.0062710084,-0.004469655,-0.005141727,0.005866266,-0.000103527855,-0.001817593,0.004377214,0.00086132676,-0.0018987914,0.003762605,-6.320196e-05,0.00015162224,-0.0040873983,-0.0048044417,-0.001866312,-0.0002329767,-0.0016701869,0.0013741254,0.0020749292,-0.004294766,-0.00262333,-0.0003657047,0.0026208318,0.0070505124,-0.001347892,0.009793766,0.007820022,-0.00019799896,0.0087444335,0.006720722,-0.0016764329,0.0012492049,0.005261651,-0.0038050779,0.00256087,-0.00023172749,-0.005141727,0.004164849,-0.001027471,-0.006860633,0.004709502,-0.00070954836,-0.0076151527,0.0037226304,0.0003863166,-0.010983009,-0.0019012898,-0.0060561453,0.00048344227,-0.004269782,-0.0005252906,-0.0015115378,-0.0037775955,8.689781e-05,-0.004274779,-0.0016377076,0.0052966285,0.003972471,0.0041123824,0.011972379,0.0111129265,0.008704459,0.01406105,0.0056314156,0.0073902956,0.0068806205,0.0041998266,-0.0002959054,-0.0039774682,-0.0026208318,-0.007270372,-0.0034478053,-0.0003616448,0.002500908,0.00065645715,0.0020749292,0.0035452433,0.002860679,0.00029168933,0.0033678561,0.0016501996,0.0024059685,-0.0012479556,-0.0034802847,0.008424638,0.009458979,0.008634504,0.004177341,0.0036976463,0.0043147537,0.002878168,0.0004853161,0.0065408368,-0.0045820833,-0.00055308547,-0.004402198,-0.0010774392,-0.005051784,-0.005056781,0.0013591349,-0.0011942398,0.00028747326,0.00095126947,0.00097562897,0.001234839,0.0030605518,0.0061011165,0.0081548095,0.0028406917,0.0029656123,0.0015590077,-0.003140501,-0.0006439651,-0.00025936615,-0.0039025159,-0.0010562027,-0.004969337,0.001365381,-0.002329767,-0.003085536,0.00077763,-0.00043909551,0.005741345,0.0020112197,0.001280435,7.417154e-07,-4.719652e-05,-0.0017126598,0.0020511944,0.0069605694,0.0073753055,0.0048943846,0.0012891794,0.010773143,0.00981875,0.0046970104,0.010773143,0.007465248,0.0042647854,-0.0047619687,-0.0034553006,0.005461524,-0.0066807475,-0.009149176,0.00027341972,-0.003347869,-0.0057463422,0.00025109018,-0.0022648084,-0.002243572,0.00044284313,0.0018325835,-0.0034727894,-0.003322885,-0.0019649991,-0.0042472966,-0.0024746747,-9.525187e-06,-0.005896247,0.0025346365,0.006720722,0.0022773005,0.0013816205,0.0037975828,-0.0019625009,0.0040948936,-0.0024996588,-0.0013728761,0.0009475219,0.0043047597,0.0010555781,-0.0019724944,0.0049293623,0.0016339599,-7.440576e-05,-0.00021658088,-0.0022723037,-0.0018575676,0.0042048236,0.0013304031,-0.00086569897,-6.195275e-05,-0.0020949165,0.0012329652,-0.0028856632,-0.0034652941,-0.00089817826,0.003992459,0.003872535,-0.0019437628,-0.0022460704,0.0007401539,0.0017388931,0.0032654214,-0.000768261,0.0023609973,0.003944989,-0.0012017351,-0.0029481235,-0.007530207,-0.008414644,0.00010587011,0.0014753109,-0.0032954023,-6.628593e-05,0.00066645077,-8.97866e-05,0.0018200915,0.0016289632,-0.0015477648,-0.0017001678,-0.004017443,-0.004831924,0.0017526344,-0.0005065526,-0.0006814412,0.0042847726,-0.0033203864,-0.00019846742,-0.0014415823,-0.0013366492,0.0019287723,0.007250385,0.004139865,0.0037725987,0.0037226304,-0.0024322018,-0.0009056735,-0.0050193053,-0.0017513852,-0.01049332,-0.0055164886,0.001957504,-0.0015327743,-0.0015964838,-0.0010924296,-0.002708276,-0.006281002,-0.0042647854,-0.0077350764,-0.004989324,-0.0025833556,-0.002268556,-0.0021798625,-0.005251657,-0.0073453244,0.001883801,0.0023135273,0.0062310337,-0.0027682378,0.0021336419,-0.0007114222,-0.0013953618,0.004874397,0.003542745,-0.003085536,0.003262923,0.0018463248,0.001311665,0.002091169,0.009349049,-0.002298537,0.0060461513,0.003250431,-0.0018001042,-0.0006452143,0.0016414551,0.00034259443,-0.0005484009,-0.0012285929,-0.00021845469,0.0014865538,0.0025046556,-0.0021973513,-0.004339738,-0.004062414,0.0032279454,0.0025084033,0.0031130186,0.0015952346,0.0014190967,0.0033803482,0.0006514603,-0.0032604246,-0.005956209,0.00078262686,0.00078512524,-0.005996183,-0.003182974,-0.004921867,-0.0066357763,-0.0010081083,0.002397224,-0.0008706958,0.0030105836,-0.004152357,0.001701417,-0.003098028,0.00032635476,-0.0009999885,-0.0025933492,-0.0013891158,-0.0037401193,-0.0047794576,-0.0042597884,-0.0033953388,-0.0015502633,-0.0033303802,-0.0002952808,0.004617061,0.0030580536,-0.0028956567,0.0036601701,0.0067956746,0.0076751146,0.0048494134,0.002645816,0.005416552,0.0032754152,0.0016626916,0.0060961195,0.0063359668,-0.0016339599,0.010373397,0.012102297,0.011862449,0.018408282,-0.0045895786,-0.009653855,0.002224834,-5.6526518e-05,-0.004042427,-0.0057913135,0.003445307,0.00355024,-0.0017476375,0.0018950438,0.0010505812,-0.0009462727,-0.00065083575,-0.0004150483,-0.0038750335,-0.0027482507,0.00012523278,0.0041623507,0.00033947141,0.0007845006,-0.0010537043,-0.0028981552,-0.0026133365,-0.002458435,-0.00081260776,-0.00207368,-0.0031754787,-0.00042504194,0.0025583715,-0.0008344688,0.0025508762,0.005486508,0.0038825287,-0.004097392,-0.004252293,0.0031155169,-0.007365312,-0.010993003,-0.0015802442,-0.004312255,-0.0082597425,-0.0056613963,-0.0031080216,-0.014740617,-0.004334741,-0.0025084033,-0.005481511,-0.004856908,-0.0024109653,-0.0033553643,-0.0034303165,-0.0028531838,-0.006136094,-0.0049143718,-0.0011655082,-0.007750067,-0.0033303802,0.0010424615,-0.0014503269,0.0013516396,-0.00083696726,-0.0026083398,0.0029106473,-0.0007426523,-0.005141727,-0.00490188,0.00026123997,-0.0058512753,-0.0028831647,0.0044721533,-0.004034932,-0.00039100111,0.0066357763,0.001329154,0.004339738,0.0052766413,0.007295356,0.0011149154,0.0051017525,0.005501498,-0.00030386908,-0.006176069,-0.011722539,-0.008149812,0.002281048,-0.012821838,-0.006670754,-0.003410329,-0.021866081,-0.012731896,-0.0023609973,0.0009525187,0.00094439887,-0.008339692,-0.002750749,-0.0042048236,-0.0033553643,0.0014765601,0.00075389515,-0.00094439887,0.0010724424,0.0021086577,-0.00075389515,0.0008788156,-0.001494049,-0.009164167,-0.009683836,-0.0043047597,0.00012890232,0.011992366,0.00664577,0.00083509344,0.009149176,0.011552647,0.0071804295,0.015080401,0.017318975,0.005181702,0.00015607254,-0.0019412644,-0.0031080216,-0.009034249,-0.0075601875,-0.006945579,0.0026133365,-0.001542768,-0.003647678,-0.0042622867,-0.0067856805,0.000826349,-0.0010062346,0.006086126,-0.0035452433,-0.0067557,-0.009443989,-0.0020049738,-0.0006292869,-0.003390342,0.0023684923,-0.0011804986,-0.0042398013,-0.0012666937,-0.0014765601,-0.006720722,-5.3442545e-05,0.00080511253,-0.0021298942,-0.0007201666,0.0037151352,-0.0009924932,-0.0025508762,-0.0027232666,0.0002924701,0.0020774277,-0.0015140363,-0.0031080216,0.0018688104,-0.0051916954,-0.0073703085,-0.0048818924,-0.008654491,-0.011182882,0.00042066973,-0.002615835,0.0013628824,0.0037051416,0.0017126598,0.001069944,0.0017576312,-0.0012454572,0.0011567636,0.00055089936,-0.002548378,-0.0023934764,-0.0015602568,-0.0066857445,-0.0034977735,-0.0018026026,-0.000515297,-0.0041548554,-0.0012641953,0.0012198485,0.0017676249,-0.0027832284,0.0025296398,-0.0035577354,-0.0041298713,-0.002658308,-0.0073153437,-0.002818206,-0.0014903013,-0.003627691,-0.0033253832,-0.0016277139,-0.006305986,-0.0014365856,-0.0013066683,-0.0079549365,-0.0066007986,-0.004362223,-0.0019924818,-0.0009187902,0.0006395929,0.0033178881,-0.0010930542,0.0036601701,0.0035577354,-0.0011036724,-0.001247331,-0.00278073,0.0013628824,0.008704459,0.0022423228,0.0029281361,0.008019895,0.00507427,-0.002171118,0.001088682,0.00029356315,0.0023085305,-0.0017526344,0.0025783589,-0.001179874,-0.0049993177,-0.0049343593,0.0008513331,0.0010012377,-0.0056913774,0.002219837,-0.0014590713,-0.0008544561,0.0007657626,-0.001786363,-0.004562096,0.0053016255,0.0023747385,-0.0010805622,0.006310983,0.0010849345,0.008289724,-0.0018925454,-0.00050124346,0.0034428085,-0.0033403737,-0.007440264,-0.0048694005,-0.0015265283,-0.00037944596,0.0048893876,0.003517761,0.0055464697,0.0075002257,0.010853091,0.0061610783,0.010643225,0.014880528,0.007165439,0.008309711,0.02232579,0.019497588,0.017498862,0.00022095311,0.0009306576,0.00611111,0.0015215315,0.00074077846,0.0023947256,-0.0024434447,-0.0018925454,0.002243572,0.0019662485,-0.0030755424,-0.0043147537,-0.004127373,0.0015602568,-0.0020412006,0.00016473889,0.0027407554,0.0023122781,-0.0031554915,-0.0021448848,-0.004042427,0.0039275,0.0013753745,-0.0010899312,0.0014215951,0.0039349953,0.0024996588,0.0033078943,-0.004292268,-0.00057432195,0.0026782951,-0.0049118735,-0.003610202,0.0050193053,-0.001798855,0.0028931585,0.0005362212,0.0012267191,0.0027557458,-0.00490188,-0.0059711994,-0.0032879072,-0.0028132093,-0.008834377,-0.010433359,0.0015889886,-0.00079949107,0.0008257244,0.00016661269,0.00278073,0.006665757,0.003347869,0.005741345,0.0047294893,-0.00014311203,-0.00042660345,0.0031454978,0.005306622,-0.002945625,0.005336603,0.0065308427,0.0067407093,0.014190967,-0.0038200684,-0.0018613152,-0.0004094269,-0.0011848708,-0.000820103,0.003152993,6.894049e-05,-0.00090817193,0.0010499567,0.00019456366,-0.002958117,-3.388468e-05,-0.0029431267,-0.0032304437,0.0034553006,0.005641409,-0.0021486324,0.01014854,0.003677659,0.0005964953,-0.0008988029,-0.003830062,-0.006365948,-0.00055495923,-0.0013403968,0.0012548263,-0.0005871263,-0.0084396275,-0.004507131,-0.0017101615,-0.0016327107,0.0006527095,0.0030155806,-0.0024134638,-0.003885027,-0.0024097161,-0.0015889886,-0.0058812564,-0.003885027,0.002298537,-0.0017738709,0.0002058065,0.0044546644,0.00065645715,0.00578132,0.0011742526,-0.008704459,-0.01167257,-0.002439697,-0.0067906776,-0.01373126,-0.0060761324,-0.0077650575,-0.020786768,0.0029406282,0.0037925858,0.0042847726,0.002329767,0.0032829102,0.0039849635,-0.0010106068,0.00037319996,-0.0020536927,-0.0007170436,-0.0011467701,0.00055589614,-0.0031030248,-0.0021798625,0.0016614425,0.0015377712,-0.00829472,-1.8972298e-05,-0.0052966285,-0.0046720263,-0.005201689,-0.0020012262,0.0020387024,0.0018937945,-0.0012604477,-0.0016339599,0.0015015443,0.0064009256,0.003262923,-0.003360361,-0.0007726332,0.00065958017,-0.0041748425,-0.0010405877,-0.0033203864,-0.0008863108,-0.01321159,-0.0074852356,-0.004182338,-0.0074152797,-0.001024348,-0.0044421726,-0.013741253,-0.0068556364,-0.008754428,-0.003347869,-0.0017838646,-0.0002493725,-0.0032679199,-0.0053515937,-0.0055414727,-0.0040724077,-0.0070455153,-0.012322157,-0.000534972,-0.005461524,-0.0007357817,0.0049568447,0.0013441445,-0.00091504253,0.0034153261,0.002134891,0.003500272,-0.0092691,-0.0054965015,-0.0062460243,-0.008504586,-0.0070704995,-0.01079313,-0.01035341,-0.0058612693,-0.010163531,-0.0024734256,-0.0021598751,-0.0065308427,-0.0011717541,1.5380834e-05,-0.0029656123,-0.0026932857,-0.002743254,-0.0059312247,-0.0033153896,-0.0023797352,-0.0041973284,-0.0053615873,0.00013007346,-0.004529617,-0.00884437,-0.010963022,-0.012072315,-0.0003076167,-0.0042223125,-0.0107131805,-0.004719496,-0.0025933492,-0.0017351456,-0.0004078654,0.0026683016,0.0063409638,0.0005708866,0.0014303395,0.0037775955,0.00088381243,-0.0021873577,0.0047169975,-0.00030964665,0.0004631427,-0.0015477648,-0.0013641317,0.0020049738,-5.6604593e-05,-0.00029481234,0.0006452143,0.001082436,-0.0034228212,-0.002915644,-0.0011049217,-0.002738257,-0.0011917414,-0.0068506394,-0.00092003937,-0.0019674976,-0.0038450526,-0.007974924,-0.0038525478,-0.0035402465,-0.004719496,-0.0070655025,-0.014450802,-0.0005849402,-0.0013391476,-0.0043097567,-0.0022148401,-0.002568365,-0.010038611,-0.00070829917,-0.0011199121,-0.00077513163,0.002067434,0.0049543465,0.0039849635,0.0018200915,-0.0004113007,0.0047369846,-0.007665121,-0.0068456423,-0.007380302,-0.0022822972,-0.0068106647,-0.007575178,-0.004142363,0.0013341508,-0.0067357123,-0.00041817132,-0.00047750855,-0.00063584524,0.0016477011,-0.0010774392,0.0028157078,0.001506541,-0.00103684,0.005171708,-0.002573362,-0.0016214679,-0.0009531433,0.0021423863,-7.17512e-05,0.002188607,0.0025084033,0.00020705571,-0.009109202,0.00032604247,0.0030180789,0.000719542,0.0023472558,0.0057963105,0.006256018,0.0046495404,0.0028331967,0.0012442081,-0.0015390203,0.0005677636,0.0038925223,-0.0032979008,0.003207958,0.00021392632,-0.0005674513,0.0022885434,0.0040449253,-0.00047532245,0.0013591349,0.0036127004,-0.0021211498,0.007605159,0.0037226304,0.0015240299,0.0029831012,0.0028456887,0.00091441796,-0.002633324,0.0025096526,-0.0036002083,-0.0012716905,0.0032754152,-0.0017101615,-0.0047169975,-0.0029481235,-0.0023934764,0.00096563535,0.0064858715,-0.0021736163,0.0048893876,0.0068156617,-0.0008919323,0.0052766413,0.002311029,0.0034378117,0.0074352673,0.010813117,0.009683836,0.013971107,0.019237755,0.0033978373,0.012811845,0.015470153,-0.0030905327,0.003767602,0.0035402465,-0.0065908046,-0.0058162976,-0.0025208953,-0.0017276503,0.005611428,0.0015827426,-2.2329537e-05,0.0019899833,0.0020649356,0.0040824013,0.002543381,0.0051567177,0.002878168,0.0030530565,0.0046195597,-0.002415962,0.0002791973,3.3689492e-05,-0.0017763693,0.00048063157,0.0073753055,0.0012542016,-0.0015777458,0.0023285178,-0.00524666,-0.0022210863,-0.0006726968,0.0020112197,-0.0037651034,-0.0007201666,0.0016177202,-0.003665167,0.002017466,-0.0010736915,-0.0027857267,-0.0035902148,0.0013403968,0.00035165116,9.376844e-05,-0.0015602568,-0.0024097161,-0.0048144353,0.00070517615,-0.003030571,-0.0037176337,-0.0011761263,0.0016327107,-0.0016876757,-0.0009281592,0.00030543059,-0.0051142448,-0.00014279973,-0.0013878666,-0.009498954,0.0039125094,-0.004364722,-0.0072653755,-0.0061011165,-0.0076751146,-0.011402742,0.0036926495,-0.0003326008,0.0043897056,-0.0036127004,-0.0047644675,-0.0014078539,-0.0057113646,-0.0051667113,-0.005196692,-0.0030055868,0.0034178244,-0.009089215,-0.008574542,0.0018650629,-0.0028531838,-0.005261651,-0.00076076575,-0.0032304437,-0.0002915332,-0.0009843734,-0.002658308,0.0020237118,-0.0005240414,-0.0062909955,0.0018950438,-0.00096251233,-0.0019287723,-0.001688925,0.003787589,-0.002590851,-0.0021961022,0.0056514028,0.0017938581,-0.0018001042,-0.00047344863,0.00035820948,-0.0018488232,0.002633324,-0.00044596614,-0.00037507375,0.0039175064,8.94743e-05,-0.0038125732,-0.0062959925,-0.010103568,0.003964976,0.001354138,-0.0050417907,-0.0019587532,0.00018816147,0.00063865597,0.0009999885,-0.0010655717,-0.0053515937,-0.009054237,-0.0067107286,-0.011542653,-0.007869991,-0.010813117,-0.014021075,-0.005281638,-0.0075701815,-0.010253473,-0.001121786,0.0019162802,0.004664531,-0.0021573768,-0.0031579898,-0.00038131978,-0.0055764504,-0.004057417,-0.005676387,0.0034278182,8.0729864e-05,-0.001262946,0.004362223,-0.0006495865,0.0023322655,0.0015764965,-0.004622058,-0.003445307,-0.012322157,-0.010503314,-0.015719993,-0.0049118735,-0.018528206,-0.021326425,-0.005051784,-0.013791221,-0.015680019,-0.0030380662,-0.00052341685,-0.004109884,0.002730762,0.00013249379,0.0004425308,0.00103684,-0.0046670293,-0.004097392,4.1926436e-05,-0.0042422996,-0.001591487,0.0006414667,0.0010649471,-0.0009874965,0.0026757969,0.0013641317,-0.0022610608,-0.010593257,-0.009199144,-0.011572634,-0.0041923313,-0.009998635,-0.008994275,-0.0069255917,-0.014750611,-0.017968563,-0.0041973284,-0.0055564633,-0.0048019434,-0.0030205774,0.001805101,0.004032433,-0.0004403447,0.0039824652,0.0065908046,-0.0015277775,0.0010449599,0.0065758144,-0.0015477648,0.0024234573,0.0054915044,-0.0036601701,0.0029406282,0.0017301487,-0.003140501,0.0023897288,0.0029905965,0.00068393967,-0.001134278,-0.0045670928,-0.0022273322,0.001536522,0.0030255741,-0.003720132,0.0037950843,0.001347892,-0.0049618417,-0.003555237,0.0031305074,-0.0007357817,-0.0010174774,0.0042173155,-0.0027282634,-0.0069555724,-0.007580175,-0.003702643,-0.0070455153,-0.0065708174,-0.010323429,-0.008024892,-0.0074552544,0.004109884,0.00452462,0.0031804754,-0.0029506218,-0.002470927,-0.0026383207,-0.002139888,-0.002037453,-0.006455891,-0.0045446074,-0.0014041063,-0.0007813776,-0.0076751146,-0.008119832,-0.0075851716,-0.006261015,-0.011312799,-0.0048044417,0.00512174,-0.0007445261,0.001974993,0.0037401193,0.0018975422,0.0019837373,0.00026670523,0.00096251233,-0.0014865538,0.0032829102,0.00040599157,-0.00030714824,0.0022847957,-0.0030755424,0.0013703777,0.0034503038,0.003830062,0.0055514663,0.0051567177,-0.006455891,0.0023385114,-0.0023060322,-0.0054665203,-0.00016442659,-0.0046070674,-0.003292904,-0.003897519,0.0010874328,0.0014041063,0.0051866984,-0.005396565,-0.0034702912,-0.0036426813,-0.0060711354,0.0007832514,-0.0036976463,-0.0026782951,-0.0010818114,9.2519236e-05,-0.0033303802,-0.0051267366,-0.003507767,0.0019862356,-0.00300059,-0.0065408368,0.00053216127,0.0005187323,0.002031207,0.0017201551,0.0036526748,-0.0006208548,-0.00049936963,0.0029980915,0.00020283964,0.0001953444,-0.0021873577,-0.002738257,-0.003542745,-0.00032666707,-0.00081510615,-0.007140455,-0.004557099,-0.0054515298,-0.0061011165,-0.0057463422,-0.0021199007,0.00025468162,-0.0039050144,-0.000933156,-0.0044621597,-0.0026508127,-0.0005137355,0.009034249,0.0040099476,0.009184154,0.007225401,0.009633868,0.010423365,-0.0025321383,0.0042722807,0.009104205,0.0026633048,0.009688833,0.0061211037,0.011972379,0.02015717,0.02510402,-0.0007613904,0.00589125,0.004062414,0.0028007173,-0.004104887,-0.0028756696,0.009124192,0.00066020474,-0.010343416,0.012292176,0.0031355042,-0.0039050144,-0.0072853626,0.0070954836,-0.00020424499,-0.005921231,0.004062414,0.005286635,-0.008009901,-0.0016489504,0.0015864902,-0.007335331,-0.0015015443,-0.004599572,-0.0049143718,-0.0036027068,-0.003969973,-0.0024109653,-0.0018775549,-0.0005240414,-0.0097238105,-0.007230398,-0.015889885,-0.0013791221,-0.009314071,-0.015180337,-0.003964976,-0.010563276,-0.01373126,-0.002274802,-0.0054715173,-0.002006223,0.0013991094,1.1320919e-06,-0.0029406282,-0.00337785,-0.0024059685,-0.008609519,0.0015190331,0.004102389,-0.0012485803,0.003712637,0.0031080216,-0.0022773005,-0.004337239,-0.0009525187,0.0062360307,-0.0009506449,0.0013916142,0.0007588919,0.00079511886,-0.0007601411,-0.005086762,0.0013891158,0.007984918,0.001451576,0.0004166098,0.00026483144,-2.9356313e-05,-0.0039599794,0.0011111677,0.0015152855,-0.006470881,-0.0023909782,-0.008314707,0.0010287202,-0.0070455153,-0.003495275,-0.002700781,-0.0066357763,-0.014530751,-0.004704505,-0.01560007,-0.02326519,-0.0009743798,-0.0054065585,-0.0046120645,-0.00033166388,-0.005936221,-0.006970563,0.0026133365,-0.008164803,-0.0036976463,0.0013928633,0.014820566,0.013991094,-0.0001365537,0.01252203,0.009548922,0.005956209,0.014121012,0.01872808,0.0019887341,-0.0029606156,0.00069205946,0.00032198254,-0.003622694,-0.0017513852,0.0031155169,0.0038075764,0.0069006076,0.00041692212,0.00081697997,0.0050817654,0.0028281996,-0.00037819677,0.003635186,-0.0003613325,-0.00086257595,0.008309711,-0.00600118,-0.00633097,-0.0024047194,-0.0017663756,-0.008454618,-0.01417098,-0.006610792,-0.012292176,-0.01776869,0.0043272455,-0.0025158986,0.00012999537,0.00041973282,0.00020986641,0.0017413916,0.0013778729,0.0035102656,0.001063698,-0.0024446938,0.010563276,0.013971107,-0.0039175064,0.014340872,0.010473333,-0.004104887,0.014270917,0.014890522,-0.0017351456,0.0012654446,-9.587647e-05,-0.0034428085,-0.0014278411,-0.0017701233,-0.0025233938,0.0038950208,-0.004449668,0.0044171885,-0.0022585623,-0.0011017987,0.0027532475,-0.001143647,-0.0031055233,0.002568365,-0.0006995547,0.0026008445,0.0021486324,-0.0057113646,-0.0051916954,-0.00057931873,0.006585808,0.0027332602,0.0008007403,0.001439084,-0.0038400558,0.0031130186,-0.0008706958,-0.0019025389,-0.00075826736,0.0007832514,0.0015377712,-0.0021248974,-0.002665803,0.0021311434,-0.0034053323,-0.0067407093,-0.005611428,-0.006475878,-0.009154174,-0.0117825,-0.00063365913,-0.008144815,-0.008269736,0.00067894283,-0.005069273,-0.001817593,0.0016576948,0.00051248627,-0.0040524206,0.00072079117,-0.0036027068,-0.0028506855,-0.0034128276,-0.0032654214,-0.004139865,-0.0038400558,-0.0038925223,-0.004534614,-0.008254746,-0.009538928,-0.0049718353,-0.0075152162,-0.0064658844,-0.012422093,-0.0039000176,-0.0003828813,-0.0056064315,-0.0057913135,-0.0019562547,-0.0077400734,0.0014990458,0.0005615176,-0.00014482968,0.000521543,0.0012329652,-0.0053016255,-0.0038475508,-0.0035652306,-0.0064059226,-0.0033853452,0.0016014806,0.0033853452,0.0015927362,0.0054115555,0.0065358398,-0.0008563299,0.004342236,0.004856908,-0.00012015789,-0.0011555145,-0.0019437628,-0.00033166388,-0.0014328379,-0.00038912732,0.00012000174,-0.005486508,-0.0053565903,0.005116743,0.0039200047,0.0043722168,0.003647678,0.0078050317,0.0059612053,0.0013853682,0.011222856,0.010503314,-0.003860043,-0.006176069,-0.0044771503,-0.00057994336,5.016338e-05,-0.00067769364,0.00485441,-0.0033978373,0.0032529293,-0.00589125,-0.0016864266,-0.0014703141,-0.0022710543,-0.0013016715,-0.0074352673,-0.006305986,-0.0057513393,-0.0074852356,0.0016789313,-0.0022710543,-0.00032885317,-0.0077900416,-0.0032704184,-0.0080598695,-0.004529617,-0.0009556417,0.0036326877,0.00289066,0.0021423863,-0.00094814645,0.0030180789,0.0052716443,0.00359771,0.0020412006,0.0051267366,0.00013171304,-0.0019175294,0.0005861894,0.0014465792,-0.0063809385,-0.00088131404,-0.004689515,-0.005056781,-0.0014815569,-0.009843734,0.0011904922,-0.0013266555,0.00024015963,-0.0017713725,0.006345961,0.0071204677,-0.0008919323,0.002573362,0.0018213406,-0.001149893,0.0019462612,-0.0012904286,0.0040873983,0.006370945,-0.0011854954,0.008894338,0.010373397,0.0026258286,0.004647042,0.0062959925,0.0073952926,0.0021086577,0.0018475739,0.008619513,0.0022860449,0.004379712,0.0101235565,-0.001439084,0.00485441,0.006106113,0.00016973571,0.004592077,0.010693193,-0.00055464695,0.0070055407,0.001737644,-0.0007801284,-0.005054283,-0.0042398013,-0.005201689,-0.0037226304,-0.001439084,-0.0075951656,-0.0061810655,-0.008244752,-0.0014440808,-0.0031155169,0.0017051646,-0.0007738824,0.0016064774,-0.0017338963,0.0036526748,-0.002793222,-0.0029556185,-0.0030805392,0.006890614,0.00862451,0.0063809385,0.0069405823,0.0058412817,0.008339692,0.0017039154,0.0020436991,-0.0007969927,-0.0015090394,0.0024871668,-0.008119832,-0.00047126252,0.0047594705,-0.007815026,-0.0036201957,0.0023572496,0.0010230987,0.008244752,-0.0018463248,-0.0011967382,0.005826291,0.003745116,-0.0003344746,0.012651946,0.011922411,0.0034228212,-0.0029556185,-0.00311052,0.0017626281,0.0024371985,-0.0005078018,0.00086070213,0.0017838646,-0.004579585,-0.0022460704,-0.005951212,-0.0035227577,0.0005043665,0.0036876528,0.007640137,0.0077400734,0.0086494945,0.013371489,0.0031380025,0.002878168,0.00057119894,0.002945625,0.0030080853,0.008954301,0.001241085,0.008554555,0.00904924,0.0005405934,0.0021211498,0.0002949685,-0.00035414958,0.0025758604,-0.0039349953,-0.00523167,-0.00052591524,-0.0015827426,0.009354046,0.0034777862,0.0040724077,0.0076201498,0.0002570239,0.0027882252,-0.00048437918,-0.0036451798,-0.006196056,-0.001793717,-0.0012964127,-0.00198433,-0.0043840986,-0.008313659,-0.0065883663,0.003936891,-0.0018377046,0.004476961,0.008108383,0.011896205,0.0039320034,-0.007947095,0.0030473638,0.009628399,-0.012863932,-0.0028885198,-0.008401633,0.00020466457,-0.001392941,0.0040517477,0.002262918,-3.7420014e-05,0.0076294066,0.009599074,0.007106443,0.012277431,0.010390851,-0.0031646641,-0.0034212586,-0.005351826,-0.00045973161,-0.0024608625,-0.0049143936,-0.0044940673,-0.009256948,0.0047628805,-0.00047867073,0.0031597766,-0.008137708,0.0060556275,0.0018865797,-0.0036436403,0.0012744188,-0.0011730029,-0.0032575268,0.005742827,0.003245308,0.0029764948,-0.008567809,-0.011036003,-0.007443681,0.010586351,-0.004188598,0.0063146655,-5.131888e-05,0.0048777373,-0.0024681936,-0.007766257,-0.006114278,-0.00073984714,-0.017116068,-0.011505203,-0.0027003505,-0.0049608247,0.0013098533,-0.002184718,0.003963772,0.010840502,0.0058650146,0.0064955037,-0.0020478675,0.0012310421,0.008220796,0.010488601,0.0054446887,6.9570684e-05,0.012619557,0.0037242842,0.018777821,0.03196433,0.004540499,0.005381151,-0.008406521,0.0113488035,0.0002689659,-0.0062169153,-0.007727157,-0.0026221504,-0.009437786,-0.0024596406,-0.0031524454,0.0033601646,-0.0063293283,0.0022067118,0.00065614854,-0.007003805,1.8862742e-05,-0.012600007,-0.0019488955,0.0057574892,-0.013587284,-0.0042839046,-0.010381076,-0.020332051,-0.007194418,-0.019569598,-0.033352382,-0.0025170688,-0.004648024,0.004137279,-0.004518505,-0.006910942,-0.003477465,-0.007585419,0.0026172628,0.004239917,-0.00976525,-0.027311418,-0.02799567,-0.0077711446,0.0025879377,0.001512685,0.008719321,0.0007306831,0.0030815764,0.0032477519,-0.0064564035,-0.005620639,-0.0028274257,-0.0023191245,0.0013391783,-0.016343841,-0.0090467855,-0.015512964,0.00044170892,0.0036387527,0.0062266905,-0.00056145294,-0.004599149,-0.002895851,-0.0067985295,-0.00599209,-0.007121105,-0.0022690275,0.0006897502,-0.0053078383,0.0010776964,0.0048948433,-0.0037120655,0.0075169937,0.0010361526,-0.004308342,0.009501324,0.011730029,0.011055552,0.017018318,0.008181696,0.004220367,0.017829645,0.019031972,0.026803117,0.011778904,0.0033039583,0.015581389,0.0056450767,-0.010166026,0.011133753,0.018777821,0.0106059015,0.030732676,-0.0006671454,0.0014063816,-0.0018596984,-0.013802335,0.0033112895,0.00032318674,-0.0036411965,0.0024510873,-0.009633287,0.0035898776,-0.005390926,0.0035312276,0.007106443,-0.0060067526,-0.009232511,0.0101758,-0.0030107074,-0.0035287838,-0.015464089,-0.022247955,-0.025982015,-0.0048484122,-0.015747564,-0.013166958,-0.010928477,-0.011016453,-0.0063586533,-0.004098179,0.004711562,0.0021285117,-3.1234256e-05,-0.007673394,0.006251128,-0.004034641,0.0032697457,0.0037120655,-0.004325448,-0.011602954,0.001983108,0.00060605153,-0.0046040365,-0.011446553,-0.0052638506,-0.008235458,-0.019188372,-0.003237977,-0.0074730064,-0.003648528,-0.0073214932,-0.008509159,-0.013860985,-0.015737789,-0.020077901,-0.012560907,0.0025635,0.0058796774,0.0049877064,0.0047164494,-0.0016079915,-0.000931682,-0.006612804,-0.015786665,-0.013440658,-0.0018438139,-0.0048777373,0.000911521,-0.008313659,0.0015151288,-0.0025659439,-0.012267656,-0.0100389505,0.00073679246,0.00087547564,-0.0028885198,0.0035361152,-0.007741819,0.013186508,0.011397678,-0.0032086517,0.006040965,0.0038147033,0.0028005445,-0.00016327345,-0.004325448,-0.0017766107,-0.010029175,-0.0035141213,-0.0041299476,-0.019501174,-0.012560907,0.0013184064,-0.0060263025,-0.009369361,0.0003124953,0.01387076,0.008313659,0.0023386746,0.010987127,-0.0050879,-0.002476747,-0.0068669547,-0.0029642761,0.0007441237,-4.200206e-05,0.00082110206,0.003716953,0.009359586,0.013391783,-0.002734563,0.006461291,-0.0016446479,-0.00021810523,0.00715043,0.003587434,-0.009657724,-0.0093546985,-0.0202343,0.003567884,0.0050341375,0.005733052,0.0027907696,0.0019525611,0.0012163796,0.00060849526,0.0013196283,0.006412416,0.008851284,-0.0085042715,0.00502925,0.007213968,-0.00019168212,0.008861059,0.013665484,-0.0095550865,-0.004809312,-0.0014234879,0.005229638,0.00012066046,-0.004757993,-0.009740812,-0.00024498656,0.005127,-0.0033503897,0.006143603,0.009838562,0.024750361,0.020508,0.01811312,0.007727157,0.0122578805,0.024965413,0.01850412,0.028758122,0.008279446,-0.0072872806,0.00013585757,0.00878286,-0.00056878425,-0.010410401,0.008592246,-0.00051043957,-0.0067985295,-0.0054740137,-0.0042741294,-0.012404506,-0.012443606,0.005151438,0.00913476,-0.0017399543,0.0017057417,0.010126925,0.0061289403,0.008039958,0.0045649363,0.0028176508,0.0071455427,0.01651979,0.00095856335,0.01381211,0.0153272385,-0.0053469385,-0.0075707566,0.0006738657,0.0030986827,-0.0023191245,0.0056450767,0.016060365,0.018445471,0.035033688,-0.0128834825,-0.0075316564,-0.006822967,-0.0012695313,-0.00593344,-0.0070380177,-0.0039124535,-0.01577689,-0.014056485,0.009139648,0.005728164,-0.004388986,-0.0015249038,0.0071162176,0.0016910792,0.011202178,0.0027907696,-0.00044842926,-0.0016813042,0.007829795,0.013284259,0.0074583436,-0.0042643542,-0.0034725773,0.009550199,0.01007805,0.0064173033,-0.0071015554,-0.009467111,-0.0064417413,0.0010196572,-0.0014357067,-0.014740737,-0.006778979,-0.00793732,-0.017438643,-0.008689997,-0.0046553556,-0.003648528,0.0024791905,0.006422191,0.003897791,-0.007155318,-0.00039680488,-0.015454314,0.010293101,0.006172928,0.004296123,-0.003958885,-0.01019535,0.0024804124,-0.0022702494,-0.006862067,-0.004819087,0.0007386253,0.0068425173,-0.0004918059,-0.012648881,-0.012648881,-0.020840352,-0.007326381,0.0026881318,-0.0049657123,0.0052931756,0.0021297333,0.013469984,-0.006984255,-0.0008999132,-0.0048752935,0.0009677274,-0.009647949,-0.0019562268,0.0015359008,-0.00010996903,-0.005386038,0.0057526017,0.0005901671,0.0062364656,-0.0064564035,0.001141845,0.0048948433,0.00046278632,-0.003037589,-0.006754542,0.0017851639,-0.0003186047,-0.0054495763,0.0002210072,-0.013166958,-0.009740812,-0.00085409277,-0.010214901,-0.0009530649,0.006304891,0.009481774,0.0032892958,0.018924447,0.01955005,-0.0010941918,0.0056499643,-0.0039320034,0.002715013,-0.01214058,-0.0073605934,-0.0021712773,-0.01754617,-0.016480692,-0.014545237,0.002102852,0.005170988,0.0045233928,-0.0119157545,-0.007062455,0.001683748,0.0039711036,-0.0109480275,-0.0049437187,-0.0012903032,-0.009002797,-0.011710479,-0.008440734,-0.0013257377,-0.0043010106,0.0007422909,-0.014877588,-0.0131083075,0.0022409244,-0.00071968616,0.0015578945,-0.0079617575,-0.0049730437,0.002134621,-0.00029691638,0.002663694,-0.004997481,0.00048539107,-0.0036509717,-0.00036992357,-0.004518505,-0.013010558,-0.00060605153,0.008426071,-0.002002658,0.003555665,-0.007468119,-0.010390851,0.0015798883,0.0033528334,-0.010723202,-0.00011455107,0.0032086517,0.0067154416,0.0052443007,-0.0023802184,-0.0034114835,0.0025463938,-0.005571764,-0.0049754875,-0.0056450767,0.0028103194,0.0024315373,0.00024559748,0.008861059,0.014887362,0.014946013,0.009643062,0.0050097,0.009418236,0.003406596,0.013606834,0.010351751,0.00074168,-0.011192403,-0.008440734,0.0031695517,-0.004107954,-0.01579644,0.0055962014,-0.007443681,-0.012805282,-0.0046162554,-0.0046015927,-0.0051954254,-0.008470058,-0.0014748068,-0.009423124,-0.0074094683,-0.00699403,-0.014603887,-0.0020148768,0.0016275416,-0.00150291,-0.00027706084,-0.0033112895,0.015806215,0.00044170892,0.004748218,0.0068278546,0.008826847,-0.002844532,-0.0032819645,0.002045424,0.00028454486,-0.0048313057,-0.0028249822,0.017477743,0.00614849,-0.011075103,-0.0045844866,0.00018969657,-0.0012658656,-0.0066372417,-0.0061533777,-0.0005892507,-0.0011076324,-0.0057574892,0.00601164,-0.002856751,-0.0032844082,-0.00976525,0.0051074503,-0.006192478,0.0005947491,-0.002526844,-0.005342051,-0.0031622204,-0.014193336,-0.005591314,0.0017766107,-0.013714359,0.0064270785,0.0036216464,-0.003338171,0.00152246,-0.0010080494,0.00089258194,0.007595194,-0.0040444164,0.004266798,0.0031084577,0.003345502,0.0047653243,0.001703298,-0.0019366767,-0.0033919334,-0.00705268,-0.008142595,0.0030937952,-0.0017118511,-0.008670446,-0.011036003,-0.011818005,-0.00597254,-0.00809372,-0.011622504,-0.0039148973,-0.0079617575,-0.013675259,-0.009691937,-0.005420251,-0.006754542,-0.008802409,-0.014594112,0.0020979645,-0.0017546169,0.0014992444,0.0004737832,-0.00999985,-0.009745699,