#pragma once

#include "parameters.h"

#ifndef KERNEL87_H
#define KERNEL87_H

static float bias87[FEATURE_MAP87] = {0.08744705,0.80123866,-1.4860262,-0.6114627,0.7620654,0.85624045,0.6239159,0.7324487,2.1826472,0.84788185,0.11252159,1.434537,-0.13082045,3.7133844,-0.29224017,2.296638,-0.5080675,-0.2961317,0.59289986,1.4937785,1.9122746,0.8645333,0.80895996,1.1685133,-0.34781882,-0.097760975,2.2093081,-0.47762355,1.5784116,0.23356786,-1.2197835,1.7844483,0.16167533,1.0599862,1.0343995,-1.1707582,1.8591084,1.4486718,-1.2220813,-0.0420606,2.2918968,2.4272285,1.2728729,1.2229304,0.7933959,1.2620895,-0.010863565,1.5211048,-0.26338038,0.5494424,0.98932374,-1.218239,1.28651,-1.8471563,-0.2838254,0.9958063,2.3865206,1.6126262,2.8674455,-0.62549007,1.0760785,-0.739382,1.1778299,1.4197694,2.3935292,3.424055,1.5107864,-0.30104822,-0.41005132,-0.35027912,3.217617,2.0059686,1.6539648,0.48394942,0.55331206,0.66678005,1.2132459,0.1880529,0.8830879,0.51533425,0.5964381,1.5556142,-0.9427227,1.0705844,0.6061081,2.7308881,0.025707364,2.4319625,0.84150845,-3.6666915,0.6430249,-0.619774,1.5971713,-0.528211,2.0267916,2.679192,0.04565695,1.6363043,1.0648627,-1.7571988,1.3714594,-0.1962286,0.71663845,0.8166914,0.90217066,1.0996804,1.4145013,0.7806856,-1.1227093,1.5440509,0.5667843,1.4995323,1.7639947,-1.5539975,0.07855119,1.057771,0.4092245,1.3954564,1.3829138,2.4946961,1.4136826,0.6310015,-1.2843001,1.0144792,2.0448985,0.776783,0.0388723,1.1220663,-1.0099902,0.62177396,2.9618566,1.8288976,0.93876797,-0.7861407,-0.73186505,1.4625022,0.99744225,2.7094066,1.9591725,2.127109,0.2276226,-0.07753819,1.2303759,1.4747689,1.1095076,0.17265284,0.89494914,0.12857509,2.4339583,1.2158773,1.7528803,2.5287576,1.7109512,0.6934052,1.012451,1.8756485,0.90719223,1.562108,2.3229318,-0.4360891,1.5257859,1.5926702,1.3328724,1.9978786,-2.216343,1.3655591,1.202739,0.82391685,1.7408298,1.638278,-0.9517896,-3.41679,0.076993704,-0.6035017,0.87967354,1.8325016,2.7778165,-0.90319467,-0.3393607,2.66216,1.2426629,-1.3901703,1.9287261,-0.39318722,2.053858,-0.59628755,1.1623882,1.1118441,1.703488,2.118158,-0.26983947,-1.2791306,0.47245246,0.5592717,1.4984978,2.4066849,-1.0873517,2.0188506,1.1806998,-1.6785913,0.078648925,0.7311759,0.31952858,1.6610575,1.4806266,-2.4020603,1.914008,0.4217708,0.17391604,2.7142162,0.6006227,0.10887733,-1.2600126,-0.61421764,1.3242937,1.2160811,-1.2617147,-0.2217766,-0.49897134,0.97037697,2.0552678,1.9687418,-1.9112694,-0.4134409,0.05044362,2.2131996,-0.78177094,3.2761931,0.4808786,0.5367146,1.503136,-1.2780573,-1.4422696,2.0625296,0.7392012,0.18535203,-1.0592942,1.0019733,1.6074256,1.4433894,-0.14162138,-0.7348589,2.3244932,1.6535017,1.9215782,-0.27947256,0.46311074,1.6134402,-0.5949692,0.7986653,-1.173502,2.5340657,1.0687666,0.97501326,1.3740201,1.4668417,-2.8491209,2.480935,-0.26811516,0.3561318,0.002281338,1.4007313,-1.4753429,0.21527115,0.70396686,1.7745084,-1.1251916,-2.4366474,-2.3073514,0.6957164,-0.3924092,0.36178574,1.2992144,-1.0936214,1.0571556,-1.34865,-0.95524156,-0.00735116,1.063331,1.6479163,0.86495864,2.0845346,0.9115858,2.0361547,-0.38247395,3.5466502,1.393224,0.088162675,1.9444537,0.26753786,1.2176412,-2.8866053,0.7277342,1.1589825,1.2798387,-1.7052717,1.1566664,2.055675,-0.97212386,0.74899644,-0.13000387,1.6453984,-1.1875377,-0.71891725,1.0043141,2.515438,0.030342817,2.2855806,-1.0440881,-1.0253589,1.9668257,-0.4711582,1.6865913,1.7302591,1.3990353,0.31280118,0.79184645,2.1712027,0.11459183,0.36197102,2.1215184,0.12837416,-1.0678658,0.6979542,-1.172498,-1.7565935,-1.2104385,0.5385074,1.445202,1.8233317,1.6464082,1.1700724,1.6711569,1.1584302,-1.1895636,2.8092217,1.2527591,0.2355544,1.7613307,1.4787704,0.68895423,-0.24784195,-0.16826227,-0.7630166,0.8986734,1.2570498,-0.6117481,-0.074599594,0.25439182,-0.13010025,-0.58796245,0.6735988,0.9054017,-0.409686,1.5668646,-0.76185775,0.3440088,2.5190783,-0.41727805,2.3906908,1.7520542,2.32128,1.4220444,2.8612723,1.3457973,1.3971244,2.6759799,0.48244423,-0.58234674,1.0840734,1.1284006,0.7805703,0.810944,0.9254157,1.795131,1.844082,1.2700531,0.42529464,0.44163772,0.8425132,-0.46756268,-0.06890861,0.29327583,0.44897085,0.36401844,-0.21702506,-0.21098512,1.0763813,1.1573377,-0.2541145,-0.8633817,0.47202826,1.3203086,0.8340671,1.1671387,-0.2525601,0.97104925,0.39826185,1.2914025,1.5567223,-0.24589053,1.7038387,0.38314658,-1.5441017,1.6199273,4.295647,-0.111920774,-0.73204917,0.7178766,-1.7898135,0.4183768,1.7680552,0.12707865,-0.41246247,3.2299328,0.8716768,0.61009383,1.4951217,-0.30074894,1.237292,1.114566,1.0744861,0.83283883,2.7750676,0.0542534,-0.12677637,0.9034208,1.8573298,0.58248365,1.042583,0.83175695,-0.2579788,1.9634099,2.2620537,0.71493995,0.6535271,-1.1187723,0.62035865,0.59242785,1.2370234,1.358401,-0.7808366,0.5499248,0.7707244,1.9742959,0.8734184,1.8901885,1.9567327,-0.54426885,-0.5380284,1.3621125,-0.5334995,-0.50669247,0.82007587,0.7161541,1.1093228,0.60620487,0.17317083,-0.15594396,2.2784657,0.58416915,3.8065965,-0.2712059,2.0946412,0.45315677,-1.0179895,-0.5818467,0.079004645,-0.52088857,0.03649801,0.46892864,1.3342121,0.8266548,0.79537994,-0.08038616,2.2771416,0.8390387,0.82174957,0.2427598,-0.20643972,1.3250473,2.0390875,3.07113,1.0843377,0.94889295,1.6822238,2.042153,1.359822,1.644284,1.7104902,-1.2711674,-0.6750456,1.5711751,2.5734515,2.4744868,1.3069687,0.2853184,2.3251257,1.1745931,1.556007,3.6904812,-1.8730499,2.1265664,-0.021524966,-0.69727373,0.7876848,-0.52182126,1.0871824,0.9980278,2.7134852,2.0883784,0.9380307};

static float kernel87[FEATURE_MAP87][IN_CHANNEL87][KERNEL87][KERNEL87] = {0.064452276,0.109624386,-0.057032946,0.02056719,-0.13395171,-0.24993552,0.012264607,0.15565452,0.04936126,0.11123948,-0.006293182,0.10164987,0.097107425,-0.1882592,-0.10281072,-0.06808624,0.15656301,0.0734867,-0.024289474,0.013034299,0.018977335,0.09882346,-0.009059658,-0.16090357,-0.14788188,0.020239126,0.17856865,0.046004895,-0.20511672,-0.19673842,-0.008119624,-0.02420115,0.04628249,-0.113763064,0.06581501,0.025071785,-0.02932402,-0.097561665,-0.048175175,-0.06399803,-0.18220259,-0.03805561,0.019053042,-0.011034361,0.07373906,0.039519288,-0.06329143,-0.25437704,-0.16161017,0.0025156955,0.17937618,0.043607492,-0.18220259,0.040352073,-0.018472617,0.033286043,-0.0656636,-0.024466125,0.12537153,0.073082924,0.1558564,0.013614723,-0.062635295,0.043758906,0.034068353,-0.049134135,-0.11800268,-0.040402543,-0.120122485,-0.08055273,-0.06914614,0.011753581,-0.25074306,0.15181868,0.003709665,0.01327404,-0.07222491,-0.0779282,0.091050826,0.016302338,0.035203964,-0.0629886,-0.031570006,-0.15737055,0.079038575,-0.09872252,0.076414056,-0.24327327,-0.0024289475,0.03583486,0.046257254,0.061878223,-0.18926862,0.13708095,-0.1432385,0.07782726,-0.05506455,0.051304415,0.18957146,-0.07166972,-0.05122871,-0.03268038,-0.029273547,0.019671319,-0.093523934,-0.07222491,0.043657962,0.03510302,-0.06919661,-0.0106999865,-0.05531691,-0.1063942,0.0051134075,0.24488837,-0.07732254,0.07015557,-0.07807962,-0.08181452,0.078634806,-0.1378885,-0.09988336,0.015936418,0.031469062,0.05779002,0.012781941,-0.018624032,-0.026977088,-0.1581781,-0.072426796,0.15151584,-0.0062647914,-0.10881684,-0.15434225,-0.084792346,-0.004113438,0.12082909,0.014762953,-0.012239371,-0.0264219,-0.03921646,0.008857772,0.119819656,-0.05153154,0.09599705,0.043355133,0.09685507,0.04025113,0.12648192,-0.013349747,-0.034774955,0.17029129,0.09862157,-0.059405115,0.031771895,0.070508875,-0.04108391,-0.0213495,-0.12133381,0.025563883,0.1259772,0.16817148,0.1777611,-0.027708927,-0.037979905,0.07828151,-0.0061323033,-0.052288614,-0.031140998,-0.01327404,-0.072376326,-0.009993384,0.01622663,0.021639712,-0.013703048,-0.0660169,0.2017856,0.10225553,-0.12204041,0.001259425,0.0062458646,-0.0846914,-0.0055361073,-0.13597058,0.117497966,0.07984612,-0.15030453,0.41386738,-0.1640328,0.004211227,0.040326834,0.078685276,0.03141859,0.23762046,-0.12506871,-0.087164514,-0.0014337099,-0.040553957,-0.1483866,-0.097511195,0.099227235,-0.2144035,0.09826827,-0.03154477,-0.19825257,0.009394033,-0.09619893,0.12839983,0.014952222,-0.07005463,0.08635697,-0.039670706,0.1798809,-0.19754598,-0.14656962,-0.06758152,0.12850077,-0.09907582,-0.25296384,-0.08625602,0.06122209,-0.09473526,0.08635697,-0.14969887,-0.009923985,-0.027128503,-0.024945606,-0.06954991,-0.01061797,-0.091050826,-0.039292168,0.0884263,-0.16302338,0.12254512,0.019885823,-0.08792158,0.019646084,-0.037727546,0.074698016,0.12173758,0.0053846925,-0.61050487,-0.26568267,0.21157709,0.046963856,-0.03987259,-0.10235647,0.07207349,0.06218105,0.120021544,0.1604998,-0.039317403,0.053903706,-0.05466078,-0.0230403,0.021021435,-0.0148008065,0.0026339884,-0.01019527,0.023873083,-0.010201579,0.02932402,0.030030621,-0.30767506,0.018195024,0.027532276,0.0036907382,0.017059412,-0.017740779,-0.074798964,-0.004892594,-0.013728284,0.0020851095,-0.01514149,-0.07161925,-0.0030267208,0.038686506,0.006630711,-0.05466078,0.01514149,0.011494915,0.14424793,0.023481928,-0.08156216,0.032226138,-0.11023005,-0.07570745,-0.0025677443,0.003121355,0.014094204,0.0075328914,-0.033639345,-0.044793576,-0.039317403,0.019166604,-0.0004092934,0.03848462,0.0013248804,0.030787697,-0.041512918,-0.003206526,-0.031317648,0.03197378,-0.09428101,-0.011324572,0.010088018,-0.06949944,-0.011873452,0.028264115,-0.00410082,-0.031317648,-0.0039557144,0.13354795,0.011431825,0.014094204,-0.011015434,0.06364473,0.00039273239,-0.053853232,0.013324511,0.0009700017,0.0035708682,-0.046686262,-0.07999754,0.01846,0.04113438,-0.08413621,0.017829105,-0.13445643,-0.017362243,0.0072174435,-0.02859218,-0.054509364,-0.043657962,-0.03136812,0.06753105,0.007577054,-0.0070660287,-0.010964963,0.0027349317,-0.024037115,-0.021765891,0.034068353,-0.0072426796,0.014573684,-0.0030961193,0.042724237,-0.03257944,-0.020340068,0.015292905,-0.21036577,0.021639712,-0.03401788,0.052036256,-0.002657647,0.0007610176,-0.013450691,-0.01791743,-0.077070184,-0.007318387,0.0023768984,0.052389555,0.017185591,-0.01375352,0.0065297675,0.008536015,0.009381415,-0.068338595,0.050648283,0.018661886,-0.0031529,-0.03553203,-0.016857525,-0.19744503,0.035330143,-0.02093311,0.018485235,0.026951853,-0.0042837798,-0.10235647,0.041613862,0.02008771,-0.011545386,0.032276608,-0.04597966,-0.021816364,-0.05723483,0.025197962,-0.19966578,0.045525413,0.07606075,0.00029336638,0.0070723374,0.018119317,0.051733423,0.0050219274,-0.2265167,0.040150184,0.0010859288,-0.006088141,-0.10780741,-0.05647776,-0.03909028,-0.010056473,-0.014687246,0.00038405758,-0.040553957,-0.013980643,0.011816671,-0.028995954,-0.006261637,-0.025387231,-0.22348839,-0.033286043,-0.042976595,0.094937146,-0.2113752,-0.005091326,-0.021753274,-0.21722992,0.07373906,0.028339822,0.048730362,-0.017526275,0.0027743627,0.042623296,-0.020895256,0.034421653,-0.0029478588,-0.007930355,0.033740286,0.0012878153,-0.031216705,-0.017690308,0.006479296,-0.10932156,0.0025062321,0.018409528,0.10407251,-0.06556265,-0.02967732,-0.1523234,-0.086912155,-0.02345669,0.0015788157,-0.3730863,0.03492637,0.16019696,-0.06359426,-0.011431825,0.008674812,-0.119617775,-0.017892195,0.014384416,0.031443827,-0.005044009,0.105182886,-0.016087834,-0.040478252,-0.01224568,-0.06364473,-0.16685922,0.018636651,-0.0028327205,-0.14061397,0.0010654246,-0.031771895,-0.04247188,0.04953791,-0.03909028,-0.02551341,-0.00067742396,-0.03204949,-0.022737471,-0.017702926,-0.051834367,0.0047758785,0.08963762,-0.0057096034,0.05809285,0.13072152,0.20420823,-0.14162341,-0.17301676,0.056174926,-0.1768526,-0.005665441,0.007312078,-0.03962023,-0.03987259,0.058244266,-0.1385951,-0.013337129,-0.046736732,0.0067127272,0.08464093,-0.05188484,-0.010201579,0.028137935,-0.027431333,-0.016062597,-0.0063657346,-0.025589118,0.011665257,-0.1355668,0.041437212,0.0029904442,0.0051481067,0.00030519566,-0.0531971,-0.062584825,-0.024453506,0.033740286,-0.023002636,0.06112293,-0.013026513,0.063233264,-0.007808234,-0.051952574,0.0135732815,-0.038810953,-0.09093619,0.05225953,-0.017707616,-0.008992898,-0.050379418,-0.001028188,-0.04347287,0.061967067,0.04512277,0.062197283,-0.0048393784,0.06868176,0.035741378,0.044623964,-0.16452928,-0.019779582,0.021678882,-0.043012433,0.06292631,-0.063233264,-0.07274895,-0.03859992,-0.01993306,0.042667106,0.04193808,0.07428374,0.029851627,0.016422233,0.036930837,0.03464784,-0.02298345,-0.002435277,-0.05122355,0.0044149137,0.0070024705,0.015108069,-0.014897036,0.03714187,-0.0027842014,-0.0069449157,-0.0796555,-0.041976452,0.06906546,-0.0031031496,-0.044125155,-0.041707866,-0.016546933,0.003789008,-0.042820588,-0.097612515,-0.090629235,-0.050724745,0.035146646,-0.033611856,0.026724497,-0.030945163,0.070830464,0.06971774,-0.06872013,-0.01736229,-0.034436807,-0.018331125,0.021851545,0.0526816,0.021544587,0.022676494,0.022120133,0.019280775,-0.026513463,-0.00236813,-0.0080480445,-0.01724718,-0.075895265,-0.080039196,0.022714863,0.0019340727,0.019760396,-0.03752557,-0.029448746,-0.03677736,-0.026551833,0.00091967377,0.13229872,0.048115604,-0.07209667,0.073362865,-0.08280181,0.069986336,0.038235407,0.014849074,-0.06403903,-0.025937917,-0.11035126,-0.06856666,-0.01993306,-0.053487364,-0.01989469,0.0063070194,0.028662166,-0.028316839,-0.044393744,-0.0156068755,0.045851793,-0.04193808,0.046772666,-0.03687328,-0.041631125,0.043089174,-0.01728555,0.02033594,-0.008316632,-0.045621574,0.028777275,-0.024038617,-0.027472707,0.004585179,-0.013611651,0.006177522,-0.050379418,-0.04232178,0.06461458,-0.011798683,-0.0058993413,0.0628112,0.0013129632,0.020508604,0.01158765,0.020796377,0.10252384,-0.111272134,0.03927139,0.023443887,-0.009832236,0.005333388,0.024230465,0.006335797,-0.01605772,0.022331165,0.03437925,0.07056188,-0.016700413,-0.0027098602,0.085103996,-0.04259037,0.05502215,-0.05797662,0.0037362496,-0.059204448,0.01119436,-0.057055745,0.061698478,-0.10398189,-0.027050639,0.10144949,0.14058658,0.01902178,-0.0009316643,0.01693063,-0.07827419,-0.014474969,-0.029256897,-0.034187403,-0.013026513,0.013285508,0.01993306,-0.046580818,-0.0064796833,-0.07574179,0.009352614,-0.011952162,-0.027683739,0.0039185057,-0.026244875,-0.015482174,0.0022722057,0.014369453,-0.022945082,-0.012441375,0.03132886,0.0104269665,0.05271997,0.014455785,0.004642734,0.015472582,0.055559326,0.060202062,0.04366472,-0.016585303,-0.031424783,0.04995735,0.07052351,0.008076822,-0.08479704,0.0015983379,-0.048806258,-0.035952408,0.013736353,-0.021218445,-0.014129642,-0.050763115,-0.0054245163,0.019328736,-0.00406479,-0.020892302,-0.018599713,0.048307452,-0.010455743,-0.050571267,-0.081497245,-0.004417312,-0.007242281,0.042513628,0.039137095,-0.07566505,0.037007578,0.0072758547,-0.056979004,0.009242302,0.0014508544,0.018849116,-0.047770277,-0.034686208,-0.0814205,0.0036978798,-0.11948325,0.0067626596,-0.030484727,-0.06561219,0.0018009779,0.09131989,-0.09784274,0.012028901,-0.03301713,-0.032153808,0.01736229,0.03088761,0.100758836,0.0060959863,0.05252812,0.09791948,-0.0070216553,0.019347921,-0.011213545,0.016853891,-0.015693208,-0.032902017,0.048998106,-0.057938248,0.0011816669,-0.01740066,-0.0059664883,-0.010091231,-0.0117219435,0.0075300536,-0.008743496,0.00036181428,0.012594854,-0.097152084,0.022561384,0.0013117641,0.021813175,0.0030599837,0.0044125156,-0.025400741,-0.019079333,-0.046504077,0.015261549,0.024307206,0.0050120424,-0.008254282,0.00020383904,-0.21947469,-0.017429436,-0.011127213,-0.02622569,0.013371841,0.00753485,-0.17174278,0.022216057,0.14780009,-0.022177687,0.0023777224,-0.03125212,-0.021582957,-0.026436724,0.016287938,0.0024700495,-0.02223524,0.03528094,-0.08840379,0.021582957,-0.011626019,0.012211157,-0.03460947,-0.029928366,-0.007333409,0.02183236,0.013179992,-0.027818033,-0.007060025,0.023597365,-0.035300124,-0.016853891,-0.053448994,0.036220998,0.019990614,-0.0013801102,0.010062454,0.024633348,-0.0041199466,0.015510951,0.011021697,0.0017302337,-0.030542282,-0.026244875,0.03428333,-0.001163681,0.014705188,-0.03282528,-0.11365105,-0.02052779,-0.009889791,0.009136785,-0.012940181,-0.0027698127,0.0590126,-0.10628407,-0.012345451,-0.020412682,-0.0025659737,-0.015990572,-0.009098415,-0.021870729,0.06649469,-0.023750845,0.013506135,-0.014695595,0.008302244,0.08863401,0.034302514,0.012652408,0.020546975,0.039520793,-0.010762701,0.059473038,0.01625916,0.012412598,0.017870689,0.0054724785,0.026609387,-0.33489075,-0.0018405466,0.05245138,-0.0060959863,-0.018292755,0.020412682,0.010263895,-0.4236015,0.020892302,0.0134677645,0.017295143,0.0012805888,-0.010829848,0.009678757,-0.012326267,-0.008882586,-0.0038705436,0.047885388,0.008431742,-0.008604405,-0.005285426,0.0015947407,-0.008364595,-0.023002636,-0.014762742,0.035894856,-0.0052470565,-0.021621326,-0.023386333,-0.046887774,0.00083154335,0.03405311,-0.000756003,0.034667026,0.014686003,-0.005083985,0.0033477563,0.042897325,-0.020240016,0.0072518736,-0.034820504,0.0029520688,-0.0054964595,0.00038519583,-0.031041088,-0.022695677,0.009285468,0.0031918795,-0.079962455,-0.024940306,0.01376513,-0.0052710376,-0.016681228,-0.064844795,-0.06238913,0.0034604673,-0.02954467,-0.015136847,-0.004577985,-0.018494196,-0.02004817,0.0051990943,0.007381371,0.0069449157,-0.03136723,0.0038153871,-0.017141664,0.01720881,-0.06396229,0.020355126,-0.0036643064,-0.029525485,-0.014417415,-0.013074475,-0.00092806714,0.031060273,-0.0005413725,-0.019232813,0.008134376,0.042551998,0.009160766,-0.014647633,-0.04259037,0.08625509,-0.021103336,-0.0028105807,-0.012412598,0.005251853,-0.048806258,-0.049496915,-0.024844382,0.0035396048,-0.0057122894,0.030925978,-0.012115233,-0.005122355,0.009755496,-0.053295515,-0.023405517,-0.0712909,-0.0072710584,0.043933306,-0.00083813816,-0.0098993825,0.005601976,0.010359819,0.024748458,-0.021371923,0.010522891,-0.009726719,-0.03971264,-0.01878197,0.006067209,-0.01648938,-0.012863442,0.024652533,-0.03758312,-0.017256772,-0.022753233,0.00072482764,0.02749189,-0.06319489,-0.053487364,0.010657185,-0.028566241,-0.008882586,-0.07071536,0.010465336,0.009985714,-0.003208666,-0.004666715,-0.15808317,-0.047117993,-0.014820297,0.016096089,-0.028374394,0.009908975,-0.029813258,0.053026926,0.021544587,-0.18647675,0.003405311,0.015232771,-0.019060148,-0.008868197,-0.029870812,-0.023520626,0.007765068,0.02131437,0.059127707,-0.21026596,0.018580528,0.0014604467,-0.01712248,-0.027372794,-0.009614837,-0.05662389,0.08420284,-0.00870432,-0.08278266,0.035137963,0.009265519,0.0066599497,-0.024944747,-0.109033056,0.031037772,0.021932594,-0.01328554,-0.048011195,0.039833717,0.0044895965,0.009557572,0.059876557,0.07971324,-0.018576851,0.06276272,0.08438609,0.009626291,-0.030533837,-0.011561856,-0.021840971,0.01733992,-0.014190332,-0.027143734,-0.04244501,-0.014350674,-0.037955415,-0.10738382,0.028014166,-0.0337636,-0.116179764,-0.03557318,0.06487009,-0.0016091538,-0.016171709,0.020764384,-0.040956113,-0.030442212,-0.028930409,0.026891766,-0.045720585,0.051767796,0.027739292,0.029274002,0.013743662,-0.0006728668,0.05845638,0.076094076,0.008973466,-0.14870644,-0.02428047,0.012598357,0.0075132023,-0.013434431,-0.036718484,0.011166726,0.050897364,-0.07627733,0.0127128875,0.017202483,0.08177479,0.030144433,0.043132193,0.023100806,-0.061938107,0.0040314742,0.023203883,0.00012956266,0.11929499,0.021256864,-0.014762985,-0.115630016,-0.007587647,-0.096847005,-0.054470714,-0.049385563,-0.03051093,0.06349572,0.030029902,0.055341147,0.07426159,-0.0033872402,0.020111559,-0.035183776,-0.0013292698,-0.015003499,0.026639799,-0.04521665,-0.018931895,0.12662494,0.009042185,0.019046426,0.05437909,0.0645494,0.0065912316,0.00096563547,0.065603085,0.03969628,-0.0050908816,0.16116735,-0.049889494,-0.03126683,-0.026616894,0.04143714,0.034175906,0.053829346,-0.0589145,-0.06505334,0.05520371,-0.025746461,-0.101886354,0.026502363,-0.02499056,0.0069749085,0.07471971,0.103352346,-0.0030636915,-0.022688497,0.05314216,-0.039009094,0.016687097,0.111048795,-0.061892293,0.023501663,0.04480434,-0.014659907,0.024761498,0.035870958,0.05410422,-0.033007696,0.01482025,-0.0034645484,0.02734989,-0.08282847,-0.04097902,-0.10417696,-0.023891067,0.011579036,0.03145008,-0.003003563,0.012334937,-0.035206683,-0.0041975435,0.004257672,0.05268404,-0.15585314,-0.02345585,0.007982777,0.10454346,-0.053737722,-0.05034762,-3.0780076e-05,-0.034725655,0.13432139,-0.0008460942,-0.01396127,0.043956812,0.07650639,-0.006333538,0.027487325,-0.09075399,0.048194442,-0.0035189502,-0.0200772,-0.0006807408,-0.07366603,-0.010015694,0.01590829,-0.024624063,-0.07197098,-0.04633905,0.07646058,-0.043292537,0.06496171,-0.14046024,0.09519777,-0.0065167868,0.027075015,0.038711317,0.03951303,-0.06826019,-0.004973488,0.05699039,0.028495194,-0.10023711,-0.08566883,-0.013354259,0.03516087,-0.13981886,0.0073070475,0.008372181,-0.024692781,-0.04633905,-0.046820078,0.022951916,0.019527454,0.019298393,0.001779518,0.09996224,-0.15640289,-0.060655363,-0.08846337,0.042605355,-0.0401544,-0.022677043,0.033076413,0.04769051,-0.06134255,-0.02322679,0.0084409,0.05034762,-0.051584546,0.008738679,-0.008858936,-0.094739646,-0.019069333,0.020981992,0.029709218,0.005800971,0.039833717,0.04345288,-0.052729852,-0.034725655,0.00379955,-0.012014252,0.028976223,0.015003499,0.061296735,-0.01569068,0.0033299748,-0.031312644,-0.022035671,-0.0061102035,0.028128697,-0.012884684,-0.050714117,-0.04487306,-0.007977051,0.0089677395,0.10436021,0.040589616,-0.007106619,0.006030032,0.025013465,-0.024326283,-0.10023711,-0.015736494,0.053966783,0.08708901,0.014316315,-0.06619864,0.15438715,0.1782095,-0.08489002,0.05021018,-0.058227316,-0.003954166,0.23620775,0.018118728,-0.0013672081,-0.06102186,-0.020019935,-0.024143035,0.021337036,-0.080446236,-0.102436095,0.07380347,0.03598549,0.119753115,0.09199092,0.24133871,0.0077651693,0.008773038,-0.058227316,0.024853123,-0.27340725,-0.17958386,0.057173636,0.05868544,-0.022070032,0.08763876,-0.0023478756,-0.0018153088,0.0003815298,0.0027487325,-0.014980592,-0.04233048,0.17069629,-0.098862745,0.040772866,0.023730723,-0.10060361,0.108025186,0.16483232,-0.023478758,-0.019069333,-0.093044594,0.16153385,0.025723554,-0.0303964,0.06835181,0.24188846,0.053417034,0.03550446,0.15429552,-0.022562513,0.027624762,-0.07362022,0.008355002,-0.05575346,0.018393602,0.12616682,0.14531633,-0.13074805,0.1433006,0.012186048,-0.13413815,0.07220004,0.009339964,0.13496277,-0.14916456,-0.049660433,0.115171894,0.20853718,0.13496277,0.1061927,-0.17445289,0.01884027,-0.036008395,-0.10005386,0.06587796,-0.08539396,0.10848331,0.18434833,-0.2649778,0.024967654,-0.06876413,-0.11847037,0.069038995,-0.0022061442,0.09758,0.13212241,0.044529468,-0.02986956,-0.13954398,0.06748138,-0.14733206,-0.08360728,0.08342403,-0.13807799,-0.021852424,0.0491565,-0.013228275,-0.022642683,0.083561465,0.03374069,0.092952974,-0.06899319,0.21861586,0.03951303,-0.07481134,-0.060655363,-0.15053892,-0.06629027,-0.36723065,0.030419307,-0.012518186,-0.036260363,0.028770067,0.119753115,-0.06290016,-0.07155867,0.013904005,0.012586905,0.036145832,0.08365309,-0.027075015,-0.05955587,-0.16684806,0.007106619,-0.027968353,0.003765191,0.015095123,0.19241127,0.18929605,0.15942648,-0.13972723,0.29722962,0.05767757,0.004300621,0.06477846,0.023020634,-0.041253895,0.02570065,-0.01973361,-0.04491887,0.03561899,0.06830601,-0.055341147,0.036695577,-0.058227316,-0.014911874,0.108025186,0.26479456,0.14165135,0.06633608,-0.004778786,-0.041230988,0.031976923,-0.010324926,-0.04210142,-0.27817172,0.09299878,-0.18608919,0.05469978,0.04604127,0.03674139,-0.13239728,0.05644064,0.038505163,0.07856794,-0.12763281,0.058364753,-0.03985662,-0.015358543,0.06968037,0.028082883,-0.24793567,-0.02416594,0.19882499,-0.040062778,-0.17555238,-0.042009797,0.022012766,-0.044002626,-0.01669855,-0.12763281,-0.14614095,-0.04269698,0.0799423,0.015564698,-0.106467575,-0.04498759,0.032778636,-0.010679971,0.045239557,0.049522996,0.15173003,0.08388215,0.0510348,0.15411226,-0.14632419,0.08800525,0.010897579,-0.038001228,-0.06322085,-0.079667434,-0.043842282,0.14036861,-0.022825932,0.013652038,-0.13313028,-0.0412768,0.18132472,0.10316909,-0.07238329,-0.020764384,-0.12066936,0.0089276545,-0.044644,0.124884084,0.16794756,0.025311245,-0.029274002,0.016091539,0.036443613,0.020111559,-0.11764575,-0.020730024,0.03275573,0.008744406,0.038299005,0.05896031,0.019790875,-0.00132068,0.017351374,0.057127826,-0.1797671,-0.118562,0.20212346,-0.033603255,-0.14742368,0.033488724,-0.02221892,0.15924324,-0.07013849,0.013445883,0.004692888,-0.042376295,-0.034427874,0.07247491,0.1137059,-0.0154501675,0.097396754,-0.16281658,0.04627033,0.02521302,-0.049270615,0.010501986,-0.01408174,0.01399921,-0.01922957,-0.02154042,0.05847275,-0.01691872,0.0109455865,0.026471607,0.000107353924,0.041636556,-0.023046598,-0.0036390724,-0.018631225,0.016186263,0.017465483,-0.02735881,0.019693803,0.0044437433,-0.011358239,0.05607937,-0.02329419,-0.04159529,-0.0098469015,0.011874053,0.023727473,0.0092072915,0.017290106,-0.011832788,0.0057203844,0.023789372,-0.037798896,-0.0633833,-0.03280581,0.006117562,0.021334093,-0.009650892,-0.008072499,-0.032413792,-0.028576132,-0.021251563,0.0413477,0.011812155,-0.012235124,-0.034415152,0.021829275,0.03736561,-0.009888167,-0.004307052,0.028514234,0.006133036,-0.029153844,0.028225377,0.02434645,-0.03094888,-0.004503062,0.07056344,0.035137292,0.016454488,-0.024305185,-0.06111372,-0.012235124,0.0014571764,0.010997168,-0.011791523,0.013473079,-0.062434204,-0.020519106,-0.061856493,0.021416623,0.0027931363,0.035776902,-0.0028344016,0.015061787,0.0038892424,0.015990254,-0.02265458,0.0063857855,0.037798896,0.015185583,-0.0015603394,-0.026739832,-0.006664325,0.0009981013,0.033074036,0.007046028,-0.04180162,-0.039552666,0.039779626,0.012678724,-0.002362431,0.0008639895,-0.012493031,-0.013225487,-0.004928609,0.013019161,0.03103141,0.027111217,0.026616035,0.022035602,0.028617397,-0.017909085,-0.00397951,-0.0086656865,0.02201497,0.027709562,-0.058266424,-0.010780526,-0.019600956,0.020333413,0.019693803,0.00016989645,-0.0013694878,-0.019600956,-0.0021470785,0.00045681835,0.037613206,-0.03183608,-0.01900261,0.022076868,0.046464585,-0.019208938,-0.018146358,0.003455958,-0.008779165,-0.030577492,0.0077681686,-0.0078042755,-0.015691081,0.04803266,-0.012658091,-0.027565135,-0.02031278,0.01416427,-0.024614675,0.038830526,0.04460765,-0.046382055,0.029710924,0.0132667525,0.05719353,0.02234509,-0.005212307,0.0016493173,-0.04675344,0.035322987,-0.022695845,0.03567374,0.015237165,0.036107026,0.028617397,0.0056275376,0.028225377,0.03486907,0.020333413,-0.0011534905,0.005385105,-0.038603567,-0.03831471,0.046959765,0.01480388,-0.03887179,-0.022365723,0.009124761,-0.10803222,-0.0068758093,-0.010966219,0.014009526,-0.07341074,-0.02201497,0.01775434,0.025357448,0.019456528,-0.019301783,0.08657433,0.006906758,0.009547729,-0.010718629,0.005292258,-0.025893895,-0.03534362,0.05504774,0.10010931,0.02649224,-0.031567857,0.0042116265,-0.021210298,0.0069016,0.015330011,0.03264075,0.06206282,0.0056223795,-0.06594174,-0.036499046,-0.032207467,0.013834149,0.054552555,0.026450975,0.022613315,-0.018992295,-0.063878484,0.031567857,-0.0032908975,-0.04762001,0.046010666,0.028947517,-0.029153844,-0.006019557,-0.018208258,-0.02847297,-0.031237734,-0.029318905,-0.04103821,0.008505783,0.041306436,0.030598124,0.018971663,-0.062351674,0.02362431,0.04563928,0.025419345,-0.013184222,-0.05220044,0.01388573,0.06713843,-0.00823756,0.00937751,0.05385105,-0.0023998276,0.00264355,-0.021251563,-0.04246186,-0.041636556,0.0017898768,-0.01828047,0.011451085,0.027173115,0.013452446,0.12123708,-0.037943326,0.012658091,-0.05880287,0.015897408,0.09631291,0.021169033,-0.015691081,0.010135758,0.027152482,0.035694372,0.01416427,-0.010063544,0.021045238,0.015691081,-0.01129634,0.012575561,-0.012276389,0.008412937,-0.0030149366,-0.006411576,0.022613315,-0.30915865,-0.013452446,0.013968261,-0.0040671984,0.016031519,-0.014937992,-0.01168836,-9.2201866e-05,-0.005643012,0.011874053,-0.007969337,-0.017331373,-0.008758533,-0.008603788,0.025790732,0.18338242,0.0029453016,0.02927764,-0.038500406,0.01232797,-0.024387717,-0.02426392,-0.011543931,-0.008479993,0.008794639,-0.015134002,0.022778375,0.018156676,0.032661382,0.0023469566,0.0042425753,-0.008361355,-0.014515024,0.01992076,0.038355976,0.022406988,-0.012874734,0.0035668584,-0.028101582,0.09169121,0.018682806,0.020467525,0.009604469,0.02098334,-0.0032599485,0.018497113,-0.004260629,0.0017395848,0.006071138,0.05950438,0.025398713,-0.016567966,-0.002640971,0.0058544963,-0.0036055443,-0.0038273446,0.01444281,-0.0031877344,0.0073142517,-0.04811519,0.0049543995,-0.0020335992,0.01280252,-0.030494962,0.0052380976,0.07324568,0.00037525516,0.010244079,0.0055089006,0.007824908,0.018414583,-0.008614104,-0.16258478,0.0075773173,-0.011141596,-0.024078228,0.0074844705,-0.013865097,0.0072059305,-0.013101692,0.019796966,-0.017847186,0.0002482358,0.010558725,-0.007355517,0.010280186,-0.008774007,0.08822494,-0.019332733,0.012503347,-0.00020503633,0.03119647,0.0050910907,0.028988782,0.020601638,0.014968941,-0.036024496,0.010290503,-0.065487824,0.014319015,0.021086503,0.029401435,-0.002991725,0.032908976,-0.023644943,0.012534296,0.014824513,-0.00968184,0.000268546,0.0044721127,0.15078294,0.016103733,-0.015752979,-0.004149729,0.02370684,-0.02983472,-0.016052151,-0.01795035,0.01121381,-0.054593824,0.018992295,0.014401545,0.026389077,0.0037396562,-0.009006124,-0.11166356,0.03016484,-0.01527843,-0.009248557,0.006514739,0.058596544,0.012183542,-0.049353145,-0.015577602,0.028576132,-0.009135078,-0.005710068,-0.10984789,-0.010424614,-0.058183894,0.023892535,-0.00086914765,-0.02832854,-0.00397951,-0.025708202,0.0064167343,-0.014700717,-0.022035602,-0.0017370058,-0.1528462,-0.032516956,-0.027895257,-0.012534296,0.05240677,-0.009924274,-0.0038608727,-0.034683377,0.027193747,0.0010458142,-0.0033399,0.001884013,0.002780241,-0.008418095,0.0025416766,0.038974956,-0.0066024275,0.0025145963,-0.003912454,-0.0031593647,0.004330264,0.0012211911,-0.007009921,-0.017207576,0.0188685,0.015010206,-0.06457999,0.017455168,-0.06189776,-0.01928115,0.013782567,-0.0042915777,-0.006029873,-0.022922803,0.0051529882,0.015845826,0.022530783,-0.01783687,-0.0084438855,0.028514234,0.02106587,1.2895366e-05,-0.0202612,0.0078042755,-0.13749555,-0.010873373,0.0011341474,-0.008149872,-0.014700717,-0.30800325,-0.02345925,-0.013555609,-0.004998244,-0.014535657,-0.04262692,-0.007891964,0.009367194,-0.0067004324,0.020271515,0.02139599,-0.14302509,0.011843104,-0.040914416,0.012235124,-0.015237165,-0.01691872,-0.005921552,-0.01547444,0.09672556,0.19741258,-0.024284553,-0.15218595,-0.013452446,-0.0029865669,0.010646414,0.0051349346,-0.0046964926,-0.0020632586,0.0066488506,0.03103141,0.0016789767,0.021272196,0.017300423,-0.064910114,0.023810005,-0.012152593,-0.010615465,-0.00079048594,-0.008975175,0.006525055,-0.007365833,-0.06953181,-0.028287275,-0.014855462,0.004116201,-0.035632476,0.029649027,-0.009635418,-0.01819794,0.0023714579,-0.0037938168,-0.12941457,0.06485942,-0.08276042,-0.10436332,0.08372393,-0.16836067,-0.036816217,-0.0008383169,0.06617791,0.0026021104,-0.114099845,0.050153222,-0.14057101,0.10081355,0.05689779,0.09706093,-0.05598499,0.0404167,-0.08519455,0.07398741,-0.16836067,-0.021856459,0.02292139,0.011650862,0.032379,0.05689779,-0.019498395,-0.0049062935,-0.03334251,-0.09214196,-0.16521658,-0.025000544,0.12109797,0.016227534,0.048429046,0.07195897,-0.02287068,-0.071249016,-0.010408442,0.043941118,-0.06546795,0.057607744,-0.119475216,-0.07135043,0.06643146,0.052993037,-0.10578323,-0.061157517,-0.049823597,-0.13154444,-0.027891073,0.100103594,0.14483073,0.05598499,-0.054412946,0.077080786,-0.09974862,-0.0060948334,0.038743235,-0.015048502,0.07692865,-0.06257743,0.09614813,0.07236466,0.098227285,-0.029463116,0.0070044626,0.04607098,-0.034331374,-0.0021362025,0.07753719,0.023618668,0.047795158,0.04460036,-0.027130408,0.046527382,0.08904859,-0.04721198,0.15973978,-0.031161936,0.20527829,0.040771678,-0.1217065,0.0831154,-0.063084535,-0.030325202,-0.1676507,0.005891989,0.03108587,-0.037729014,0.012544644,0.13458711,-0.08874432,-0.029463116,0.014173736,0.12474916,0.04738947,0.15162602,0.050254643,-0.08316611,-0.1015235,-0.14990184,-0.000653697,0.07824714,0.06790209,-0.0107253855,-0.03724726,-0.027054342,0.016088078,-0.06379449,0.019435007,-0.050812464,0.02953918,-0.016506445,0.006300847,0.03899679,0.07865283,-0.12241645,0.08524526,0.018255975,0.026750075,0.07231394,-0.032505777,-0.056137122,0.055883568,-0.022896035,-0.07398741,0.060903963,-0.007517912,0.029463116,-0.005365862,0.03894608,-0.05055891,0.1694763,-0.0054260814,-0.06409875,-0.027840361,-0.058672674,0.004041036,-0.03220151,0.003983986,0.086259484,-0.004411861,0.12870462,0.08874432,0.07986989,0.024328623,-0.024975188,-0.025013221,-0.008177156,-0.06572151,-0.03955461,0.018585596,0.024049712,0.14168665,-0.038692527,0.10370408,-0.11044865,-0.045589227,0.005391218,-0.027612163,0.048479754,0.063084535,-0.07895709,0.022224113,-0.05360157,-0.0068396516,-0.104261905,-0.02796714,-0.008411694,0.0052961344,0.07099546,-0.008012344,0.09219267,-0.00730239,-0.0493672,0.0987344,-0.055782147,-0.027891073,0.0927505,0.1929048,0.019219484,-0.071705416,0.119475216,0.033038244,0.02751074,-0.019726595,0.039148923,0.02230018,-0.11937379,0.007460862,-0.035649862,-0.14777197,-0.015771134,-0.07413954,-0.021755036,0.016062722,0.04901222,0.07550874,-0.023796156,-0.077841446,0.02020835,0.019688562,-0.007676384,-0.005026732,-0.06414947,0.010490847,-0.09442396,-0.0018477836,-0.03521882,0.0106683355,-0.006979107,-0.09462681,0.05129422,-0.01024363,-0.08352108,0.0006457734,-0.0044277078,-0.0031171443,0.043256517,0.06516369,-0.035447016,0.058266986,-0.031035157,0.011505067,-0.027079696,0.024493434,0.037906505,-0.02099437,0.056694943,0.08595522,-0.08139122,-0.012627049,-0.009926686,-0.1281975,0.05735419,0.02541891,-0.055782147,0.00077809754,-0.057303477,-0.0319226,-0.010921891,-0.02971667,0.009242088,-0.0031995499,-0.025051255,-0.07373385,-0.0171023,-0.12018517,0.022097336,-0.03752617,-0.13752834,0.109231584,0.046755582,0.08737513,-0.003866717,0.023022814,-0.23489355,-0.04353543,0.025900664,-0.1368184,0.14503358,0.014794947,0.03894608,-0.05933192,0.10720314,-0.059027653,-0.43368083,0.102892704,0.25842348,0.06323667,0.08991068,0.022832647,-0.05699921,-0.047364112,0.0895557,-0.24544144,-0.057252765,0.012550983,0.011302223,-0.1226193,0.399603,-0.0059585474,-0.090214945,-0.02723183,0.04211552,-0.07307461,-0.102436304,-0.011055007,-0.09685809,-0.13793403,-0.09614813,-0.17404029,-0.023960967,-0.045487806,0.03549773,-0.035244174,0.057810586,-0.0063103554,-0.0578613,-0.034458153,0.0032581845,0.11795388,-0.185501,-0.16176823,-0.05791201,0.003356437,-0.4018343,0.08940357,0.08210117,-0.055731434,-0.012189667,-0.09062063,-0.14290372,-0.08722299,-0.0812898,-0.013527171,0.07591443,0.09264907,-0.123532094,0.085295975,0.10167564,-0.08732441,0.0051154764,0.057404898,-0.2600462,-0.19422328,-0.039630678,0.012367155,0.19260053,-0.07008266,-0.16470946,-0.29960084,-0.04574136,0.07109688,-0.021514159,-0.07241537,-0.23347363,0.03955461,-0.1051747,0.24463007,-0.16815782,-0.26592872,-0.03674015,-0.117142506,-0.19138347,0.019866051,0.39290914,0.02269319,0.098176576,-0.16846208,0.1772858,-0.07226323,0.056137122,-0.22515702,-0.14432362,-0.23489355,0.09685809,-0.023758123,-0.38337547,-0.15831988,0.15821844,-0.010047125,0.042495854,-0.059534762,0.03159298,0.015619,0.21623188,-0.10137137,-0.122112185,-0.024468077,0.14756913,0.039478544,0.091634855,0.13012454,-0.17769149,-0.07449452,0.008196172,0.0936633,-0.18357398,-0.17718437,-0.042673342,0.041253433,0.0071249013,-0.66938573,0.06714142,0.01703891,-0.020043539,0.015669713,-0.006503691,-0.21846317,0.022781935,-0.2971667,0.11237567,0.02303549,0.03504133,-0.17617016,-0.31238002,0.06698929,0.0025054424,-0.19757022,-0.0629324,-0.038743235,-0.58743674,-0.016785355,0.076675095,-0.11450553,-0.17434455,0.073632434,-0.034610286,0.018103842,0.01703891,0.011067685,0.068003505,-0.04460036,0.039047502,-0.19138347,0.305889,-0.028220695,0.07703007,-0.19939582,0.15051037,0.27749082,0.1772858,0.021235248,0.051497065,-0.008912466,-0.044067897,-0.05304375,-0.00039618002,-0.0022249469,0.10598607,-0.27160835,-0.29777524,-0.03242971,-0.013083449,0.09447467,-0.1258648,-0.24037033,0.018433463,-0.08473815,-0.027181119,-0.26268318,-0.16278245,0.11511406,-0.18042989,0.26674008,0.04482856,-0.1070003,-0.102841996,0.14655492,-0.08235473,-0.07540732,-0.13245724,-0.19716454,0.033646777,0.064758,-0.16846208,0.2856046,0.12647334,-0.026851496,-0.19665742,0.37485602,0.047364112,-0.07652296,-0.039072856,0.12789325,0.05197882,0.011638184,-0.0115747955,-0.2935155,-0.07921065,0.10416048,0.035345595,-0.113897,-0.2699856,-0.26268318,-0.28357613,0.15872556,0.07682723,0.028702449,0.014363903,-0.005429251,0.23245941,0.03770366,-0.07495092,0.060244717,-0.00033437595,0.15081464,-0.05593428,0.032505777,-0.06622862,-0.3537602,0.31400278,-0.12718329,0.3200881,0.26937705,-0.12292357,-0.08494099,-0.039503902,0.24564429,-0.14341083,-0.028753161,-0.00017352685,0.19452755,-0.05185204,-0.0073150676,0.15355304,-0.015378123,0.054666504,0.031161936,0.18063273,-0.00045606587,-0.01428291,0.035905797,-0.03616334,0.004383598,-0.018146057,0.024874369,0.033330366,-0.005944953,0.012651804,0.0022602088,0.034682468,0.020646371,0.002276305,-0.043932557,-0.011653824,-0.00018896553,0.042558994,0.003264895,-0.010011987,-0.02534653,-0.004021428,0.009051566,0.03403861,0.05558638,0.020453213,-0.010950946,0.008563307,0.0074204598,0.00048557602,-0.016439833,-0.006615638,0.004906732,0.01696565,-0.023157416,-0.03159195,-0.007919449,0.014411681,-0.0061971303,-0.004311164,-0.01830702,0.00971152,-0.027943423,0.022899872,-0.019605467,0.008879871,-0.033180133,-0.02199847,0.058848593,-0.006781968,-0.013027388,-0.024187587,-0.008960353,-0.057646725,-0.030776398,-0.036442347,0.035412174,-0.027084947,-0.002551286,-0.020367365,-0.01551697,0.02689179,0.049748737,-0.0036699888,-0.0074955765,-0.06992295,-0.010671942,0.014916036,0.024123201,-0.022298938,-0.016579336,-0.014744341,0.03034716,-0.011482129,-0.010639749,-0.010076373,-0.01740562,0.002464097,-0.023586653,-0.0019959589,0.00831113,0.010510976,-0.031162713,0.007678003,0.01573159,0.005373529,-0.042601917,-0.011374819,0.045155887,0.032944053,-0.010865099,0.0006572714,-0.013639052,0.04811763,0.028737515,-0.061080635,0.013488819,0.017512929,-0.032729432,0.0043970114,-0.02599039,0.0055801,0.018446524,0.000692147,0.012995195,0.0091857035,-0.10911242,-0.048589792,-0.023908582,-0.015645742,-0.010741693,0.0039409455,0.00095103146,0.026312318,-0.029853536,-0.03013254,-0.013628321,0.010087104,0.029896459,-0.036807198,0.01829629,-0.03478978,-0.0039033873,-0.00017773155,-0.022384785,0.02779319,0.013735631,0.0100388145,-0.024809983,0.0029322351,0.04277361,-0.021622887,0.02433782,-0.028050734,0.01076852,-0.0068570846,0.018221173,0.005783988,-0.013327855,0.027600033,0.019465964,-0.010130027,-0.0023500805,-0.040005025,0.03002523,-0.017437812,-0.002362153,-0.027471261,-0.009716886,0.0014607521,-0.010747058,-0.007849698,0.015538433,0.016235946,0.0070448765,0.032514814,0.005590831,-0.009298379,-0.003441956,0.009196434,0.027385414,0.0062990743,-0.0072380337,-0.011128007,0.029531606,0.01405756,0.008472094,0.028394124,0.016697377,-0.011439205,0.023243263,-0.004284336,-0.014443874,-0.00014973045,-0.013145428,0.019777162,-0.0651584,0.004474811,0.010081738,-0.03637796,0.006116648,-0.0077745817,0.0026357924,-0.03429615,0.035412174,0.0223204,-0.006760506,-0.004287019,0.0036351131,0.011814789,-0.027406875,0.017555853,-0.02197701,-0.052839253,0.0038202223,-0.009491536,0.014068291,-0.03549802,0.006240054,-0.049233653,-0.005923491,-0.00847746,0.03478978,0.027514186,0.032665048,-0.0033131845,-0.004402377,0.0046760165,0.010366109,-0.01529162,0.023286186,0.014325834,0.012887885,0.017877782,0.010108566,0.0102748955,-0.026870327,0.0053708465,0.0039328975,-0.013928788,-0.0030234484,-0.007221937,0.004410425,-0.009164241,0.014068291,0.0057196026,0.011128007,0.0012092452,-0.0053171916,-0.17178123,0.012544494,0.02957453,-0.0028758978,-0.001152237,-0.008166262,-0.015871093,0.027321028,0.016321793,0.028823363,0.011342626,-0.039017778,0.011525053,-0.03069055,0.03526194,0.017684625,0.012662535,-0.012125987,-0.002097903,-0.0069858558,0.0232218,-0.033995688,0.019455234,0.009191069,-0.019594736,0.013188352,0.02890921,-0.0031361235,-0.019702045,0.01631106,0.027278105,0.024809983,0.0023675184,0.039876252,0.007243399,0.009700789,0.009019373,-0.006191765,0.032750893,0.019508889,0.022728177,-0.014819458,-0.018060207,0.018328482,-0.0283512,-0.008509653,0.008005298,0.014100484,-0.0419366,0.042666305,-0.04114251,-0.0770483,0.0029993039,0.018049477,0.008831581,-0.008788657,0.011460667,0.010929484,-0.07979543,-0.03448931,-0.0020442482,-0.00591276,-0.056788247,0.010076373,0.0017276849,0.00093225227,-0.007211206,-0.00091079035,0.008354054,0.022406248,-0.010881195,-0.011213855,0.01138555,-0.004364819,0.008252109,0.007345343,0.010612921,0.0054218182,-2.8504116e-06,0.013553204,-0.014916036,0.009196434,0.015098463,-0.0016243993,-0.00580545,0.014594108,-0.0019423041,0.04275215,0.027921962,-0.0008182358,-0.0137249,-0.007366805,-0.0059288563,0.012125987,-0.010961677,0.009673961,0.01305958,-0.00061032345,-0.006728313,-0.0007746413,0.013199083,-0.008423805,-0.006046897,0.022256015,0.0081448,0.0073721707,0.02343642,-0.02912383,0.017480737,-0.0034956108,0.013424433,0.005075745,0.01829629,-0.020109821,0.015871093,0.01305958,0.0057517956,-0.015001885,0.008574038,0.01316689,-0.08181285,-0.0032353848,0.029166754,0.020657102,-0.002924187,-0.019326461,0.0012387554,0.021901892,0.0070341453,-0.00086719583,-0.03558387,0.07352855,0.0021072926,0.026526937,0.035970185,0.007731658,0.009958332,-0.033738144,-0.007919449,0.014851651,-0.007790678,-0.009722251,0.0019007216,-0.24432254,0.009641769,-0.005724968,0.020839527,0.016139366,-0.014400951,-0.025088988,0.036571115,0.0073399777,-0.060951862,0.017781204,-0.021483386,0.032944053,-0.019830817,-0.011117276,-0.02946722,0.0016297648,0.029595992,0.023951506,-0.006127379,0.021751659,-0.0045606587,0.009078394,-0.012233296,-0.0007464725,-0.01088656,0.026591323,-0.019326461,0.0061112824,-0.023307648,0.0218697,-0.0012360726,-0.0109080225,-0.025689922,-0.032064114,-0.004383598,0.033738144,0.023007182,0.016386177,-0.036978893,7.5787415e-05,0.006749775,-0.030475931,-0.033845454,0.021365345,0.0141756,-0.08438828,-0.04232291,-0.02500314,0.009802734,-0.025732845,0.013467357,-0.008826216,0.015924746,-0.0432887,0.013531743,0.005301095,0.0074472874,-0.025432378,-0.0035895067,0.0070717037,-0.021290228,-0.11477836,0.01907965,0.0372579,0.03395276,-0.017824126,-0.0074258256,-0.020957569,-0.013338585,0.044039868,0.008713541,-0.10748131,0.00630444,0.0053467015,-0.021719467,0.0025164105,-0.020367365,-0.000388662,0.022706715,0.0024077594,-0.002278988,0.008176993,0.013145428,-0.0029644282,-0.023243263,0.011203124,0.010060277,-0.008160897,0.015334544,-0.0148409195,-0.1558994,0.00882085,-0.004815519,0.0055854656,-0.04084204,-0.0026948126,0.030518854,0.017502198,-0.01283423,-0.0038711943,0.0028437048,-0.011503591,0.015592087,0.025646998,-0.01919769,-0.007366805,0.009582749,-0.03938263,-0.01416487,-0.048461024,0.005778623,-0.0022454537,-0.008134069,-0.012480108,-0.011460667,-0.037751522,0.03605603,-0.06575933,0.019626928,0.004794057,0.00910522,0.04811763,-0.007699465,0.004270923,-0.0066317343,0.007023414,0.008745734,0.002278988,-0.01043586,-0.019905934,-0.032643586,0.0037504712,-0.010596825,0.058891516,0.0024681212,-0.004678699,0.0051723234,0.029274063,0.030411545,0.029731974,0.00036035737,0.023355143,-0.05723206,-0.019170348,0.02872231,-0.0015493707,-0.016619615,-0.021694511,-0.010222857,0.0069547314,-0.017589426,0.009571889,-0.026636554,-0.011810423,-0.022372048,0.014334585,-0.037277892,-0.0046663787,0.005164569,-0.007931184,-0.0053339535,-0.0028629315,0.005656116,-0.0057125776,-0.0035504336,0.009439038,0.0044372114,-0.0077651204,0.02447109,0.016646186,0.003557076,0.015264539,0.00071573287,0.012899797,-0.012607526,0.004719519,-0.009306188,0.0024992528,-0.0065960344,-0.045275502,0.00080001,-0.028562889,0.0026354247,0.007386496,-0.002982497,-0.03496629,-0.01125245,0.004403999,0.00038464414,0.011119599,0.019887742,-0.0036832842,0.007911256,0.015968647,-0.0023066194,-0.012753662,0.0059351027,-0.0136570465,-0.0019313162,-0.0073665683,-0.0033411938,0.015995217,-0.014281444,-0.03289382,-0.007931184,-0.020445714,-0.014653427,0.0054369126,-0.026596699,-0.0013941014,0.018253678,-0.011179382,-0.07227075,-0.019715035,-0.0018017868,-0.018864792,-0.009492178,0.0014862666,0.02253147,-0.0037098543,0.013411272,0.00029808364,-0.0025905876,-0.003493972,-0.001319373,-0.00033295693,-0.029067721,-0.0011998074,-0.0024510943,-0.020631704,0.0011815404,0.023421569,-0.010329138,0.005224352,-0.0054369126,-0.0014862666,-0.00923312,-0.002575642,-0.010654622,-0.00082616496,-0.0046863067,-0.013723472,0.01429473,0.019223489,-0.0055797272,0.00089425093,0.0110000335,-0.104367465,0.003932379,-0.0074263513,-0.00718722,-0.019183634,0.0057192203,-0.013882892,-0.0061078086,0.018997643,0.0064332928,-0.0042478996,-0.0039357003,-0.012102694,0.013557408,-0.0137367565,-0.009824305,0.011504866,-0.010189645,-0.0142150195,-0.004815836,0.02172108,-0.0064200074,-0.0060114916,-0.0051379986,0.0045003155,-0.0056328676,0.00095320336,-0.015862368,-0.001169916,0.0020973796,-0.011365373,0.009272975,-0.0028297189,0.0014115381,-0.016818892,-0.0041349763,0.02059185,-0.02850975,-0.019196918,0.0030572254,0.002172108,0.011186024,0.00558637,-0.014201734,-0.0078049754,0.0058188583,0.01075426,-0.01873194,-0.006875021,-0.023992827,0.01180378,-0.0006654987,0.004281112,-0.013265137,-0.017921552,-0.0125078885,0.0068218806,0.006987944,-0.004231293,-0.0044338903,0.0039888406,0.0053073834,-0.0038393836,0.010448704,0.00041142185,0.016287489,0.011013319,-0.0022568004,0.024524229,0.01660633,-0.025719885,0.012049554,0.030236807,0.006536252,0.00038671994,0.008137102,0.009977084,-0.031379323,-0.014812847,-0.0059716366,0.0040220534,0.011073101,0.008356306,-0.0014970608,-0.020897407,-0.0086220065,0.007871401,0.008037464,0.058773126,-0.050669238,0.028190907,0.009439038,0.024510944,-0.014241589,0.00217709,-0.0031734698,-5.500847e-05,-0.0076588397,-0.005988243,0.0012770268,0.0059184963,0.018904647,-0.003032316,0.01017636,0.029359993,-0.007937826,0.0012570992,0.017908268,0.0016730878,0.002253479,-0.010734332,-0.003706533,-0.0033910128,0.005629546,-0.001222226,-0.01345777,-0.002059185,0.006004849,0.0002962154,0.000111262416,0.010156432,0.009027202,0.0039489856,-0.012394966,0.00826331,-0.11276363,0.010202929,-0.007001229,-0.012541101,-0.010873825,0.021707796,-0.014826132,-0.09783121,0.010136505,0.012401608,-0.008807998,-0.004915474,-0.025108771,-0.003656714,-0.0015244612,0.022398619,0.009558604,-0.004583347,0.00073566043,-0.01873194,-0.0001004683,-0.007612342,0.004131655,-0.004081836,-0.023222294,0.007114152,0.0029027867,0.005018433,-0.0034341891,0.053963933,0.0030854563,0.0063502607,0.019276628,-0.012820087,0.002977515,-0.0009523731,0.0063203694,0.012972865,-0.008648577,0.0133382045,0.09257033,0.012096051,-0.0025856057,-0.0041881166,-0.064990535,-0.0013700223,-6.123584e-05,-0.027074961,-0.0070942244,-0.0034972932,0.0040984424,0.015742801,0.039403502,0.0064166863,0.002711814,0.054070212,0.0091002695,-0.00461656,0.0019628683,0.0008112193,-0.0035138996,0.008821283,0.004002126,0.0063203694,0.0036268227,-0.01442758,0.0033578002,0.024936067,-0.054628186,0.009219835,-0.0061808764,-0.0029808364,0.040492877,-0.0049453652,-0.003430868,-0.0015269521,0.00050607795,-0.005795609,0.10872497,0.010953535,-0.0011350428,0.007831546,-0.0054402337,-0.0032199675,-8.033313e-05,0.014932413,0.012175762,0.0059816004,0.008887708,-0.024085822,-0.0067189215,-0.0085422965,0.0071606496,0.0025225016,-0.009346043,0.006875021,0.00015651467,-0.011670929,-0.012262114,-0.007917899,0.014573716,-0.012687237,0.0086220065,-0.007990967,-0.007087582,-0.0024128999,0.0023780265,-0.007147365,-0.010501844,0.0038958453,-0.00073566043,0.0015186489,0.007725265,0.029439703,0.007904613,0.0008643595,0.033876915,0.0032913748,0.0069480888,-0.0024245244,-0.007858115,0.002851307,-0.0024726826,0.0048025507,-0.0018881398,0.019303199,0.0077186227,-0.015902223,-0.0019429408,-0.013371417,-0.0043342523,-0.010568269,0.0056062974,-0.003444153,0.0065860706,-0.00359361,-0.00110183,-0.0017253978,0.0007012023,-0.02269089,0.0009490518,-0.017483145,-0.003972234,0.014175164,0.005157926,-0.022013351,-0.021242818,-0.0059450665,-0.044292405,0.017642565,-0.02560032,-0.0027134744,-0.0028728952,0.0047228406,0.079125844,-0.00096150656,-0.0021239498,-0.018692086,-0.0024162212,-0.0138563225,0.004682985,-0.08024179,-0.030980771,0.0045966324,0.0046697003,-0.008469229,0.050483245,-0.0029227142,-0.011624431,-0.001466339,-0.008794713,-0.01571623,0.0051678903,0.018333388,-0.0012604205,0.003915773,0.0019578864,-0.006197483,0.035524264,-0.0035371485,-0.017151019,0.016101498,-0.111700825,-0.007871401,0.0007369059,-0.15378791,0.016712612,-0.0028762165,0.0019379588,0.0003950231,0.010714404,0.0038493474,0.008203527,-0.10840613,-0.01293301,-0.012680594,-0.008821283,0.01280016,-0.0135374805,0.008974061,-0.006340297,0.025228338,0.00066010165,-0.0051379986,0.009452323,-0.0031219902,-0.0828988,0.016566476,0.005420306,-0.0072802156,0.002945963,-0.080507495,0.00045874988,0.0052077454,-0.0022833706,-0.003213325,-0.0010553324,-0.0037364245,0.017151019,0.0062140888,-0.0051844963,0.00052891165,-0.025733171,-0.0026636554,0.014414295,0.008774785,-0.0002119383,-0.056753796,0.003000764,-0.0025092165,0.038260985,-0.0014156897,-0.0032830716,0.007964396,0.0022318908,-0.014945698,-0.0063834735,-0.0025042347,0.21054171,0.016021788,-0.013006078,-0.01078083,0.0041748313,0.0073200706,-0.002022651,-0.00025822845,0.009067057,-0.10186987,-0.1320004,0.016911887,0.0048590126,0.016460195,0.010608124,0.011544721,-0.0065329303,-0.005593012,-0.04325617,0.0038393836,-0.0060347407,0.0009490518,0.0076322695,-0.0011915042,0.00048905646,0.004277791,0.0007597396,0.007964396,0.0020791127,-0.02691554,0.014161879,-0.13720815,-0.0020625063,-4.8988677e-05,-0.0018997643,-0.017855126,-0.008024179,0.020910691,-0.0013293368,-0.015862368,-0.0049221166,0.13238178,-0.063561946,0.036279384,0.019220479,-0.08535295,0.05710644,-0.08301611,-0.25588357,0.052374344,0.07933559,0.04886909,0.036600698,-0.094174504,-0.0075070867,-0.11450498,0.019191269,0.059998274,0.06502247,0.04372805,0.06163406,-0.06169248,0.011099973,-0.06800194,0.07618087,0.1511933,0.08330821,-0.12700705,-0.029458743,-0.0528125,-0.05482802,0.10428132,-0.083834,-0.07401929,-0.037652276,0.05669749,0.06841088,0.014057531,-0.08780663,0.047934357,0.000937473,0.02802743,-0.13027863,-0.029487953,-0.020491134,0.01142859,-0.015204041,-0.08149717,0.038937535,0.012275693,-0.060290378,0.061458796,0.12981126,-0.06058248,0.047204092,0.013195823,-0.021031527,0.1103571,-0.05993985,0.14850596,-0.046152517,0.035812017,0.03595807,0.055120125,0.10048396,0.16509749,-0.045159362,-0.100133434,0.02799822,0.05669749,-0.046210937,0.00030670976,0.0720914,-0.019059822,-0.045801993,0.13308282,-0.12291759,0.022389812,0.034614388,-0.0108443815,-0.026596118,0.033971757,0.013363782,-0.054331444,-0.11397919,-0.027034275,-0.058041174,0.08307453,0.10667658,-0.07647297,0.031751763,-0.09662818,-0.09288924,0.030787818,-0.009822016,0.036980435,-0.29070243,-0.04177095,-0.04308542,0.15259542,0.03528623,0.027238749,0.025004148,0.021133764,-0.027691511,-0.032657288,-0.016255617,-0.054185394,0.05070935,0.053601183,0.031255186,0.10276238,-0.10445658,-0.0449841,0.036483858,0.025033358,0.082840845,0.025442306,0.07810876,-0.076998755,-0.058917485,0.08301611,-0.049219616,0.033066235,-0.030992292,0.08558663,0.15131015,-0.07799191,-0.00079872337,0.061283533,0.19185427,-0.035490703,0.027224144,-0.16474696,0.049131986,-0.14172912,-0.22865944,0.022711128,-0.026566908,0.05211145,-0.04886909,0.25307938,0.02436152,-0.17012168,0.14687017,-7.3026135e-06,-0.10480711,0.06782667,-0.14710385,0.0035107315,0.069228776,-0.040018324,0.033767287,-0.025383884,0.05608407,0.00041442332,0.16544801,0.0075070867,0.037360173,-0.15107647,0.042355157,0.076823495,0.040368848,0.035636753,-0.13097967,0.128526,-0.045159362,-0.033884127,-0.06280248,-0.009004123,0.07273403,-0.038178064,-0.060056694,0.025588358,-0.15773645,-0.15621752,0.03674675,-0.018314954,0.038207274,0.065139316,-0.14091124,-0.10772815,-0.04682436,-0.2014353,-0.15960592,0.024244677,0.019293506,0.04673673,-0.027866773,-0.1369386,0.037593853,0.13203125,0.01640167,-0.056931175,0.017351009,0.09545977,-0.0027476083,0.027472433,-0.13471861,0.01072754,0.25588357,0.015072594,-0.0757135,-0.01014333,0.042764105,0.13016178,-0.008164322,-0.13331652,0.01765772,0.11368709,0.009712476,0.013444112,-0.09826397,-0.009675963,0.006922878,-0.16533117,-0.0874561,-0.10755289,-0.02414244,0.038820695,-0.027253354,-0.05290013,-0.07594718,0.07980296,-0.20435634,0.09721239,-0.21230158,0.07238351,0.2028374,0.025749015,-0.07361034,0.067300886,0.020388898,0.17549641,-0.03876227,0.20716055,0.075070865,-0.019746266,-0.008931097,0.11409603,-0.13483545,-0.018826138,0.0360457,0.0104573425,-0.07057246,0.08307453,-0.06665826,0.0019424952,-0.0038849905,-0.06169248,-0.24466677,-0.017526273,-0.06788509,-0.09090293,-0.048168037,-0.01930811,-0.03210229,-0.063620366,0.06245195,-0.084593475,0.08108822,0.0021816557,-0.018344166,-0.13144705,-0.08874136,0.009084451,-0.1156734,-0.031313606,-0.016109565,-0.094408184,0.021279816,0.012188062,-0.093940824,-0.15025857,0.27598038,0.055587493,0.23602048,0.040018324,0.11397919,0.13565335,-0.037535433,0.092246614,0.018826138,-0.21744262,-0.019439558,0.27621406,-0.09767976,-0.18496059,-0.17981955,0.24466677,0.055441443,-0.084651895,-0.020856265,-0.02053495,-0.019775478,0.08798189,0.02900598,-0.13565335,0.05076777,-0.07355192,-0.062043004,0.2170921,-0.04384489,-0.040105954,-0.08149717,-0.023923362,-0.03280334,-0.02276955,-0.02154271,0.07834244,0.07769981,0.075187705,0.048927512,-0.10393079,0.024054809,0.07384403,-0.014086742,0.06245195,0.18180586,-0.15294594,-0.0032642682,0.041245162,-0.037623066,0.15469857,-0.01467095,-0.05722328,0.07951085,0.17619745,0.14243017,-0.017394826,-0.02864085,0.116608135,0.055441443,0.08377558,-0.08552821,-0.028538615,0.05678512,0.15107647,0.015277067,-0.06402931,-0.021352842,-0.072850876,0.018110482,0.056989595,-0.045246992,-0.18542796,-0.06443826,-0.10153554,0.006882713,0.03403018,0.15656804,0.05021277,-0.052315924,0.22889312,0.07997822,-0.010530368,0.04626936,0.04504252,0.13144705,-0.045276202,-0.0014842562,0.008953004,-0.055558283,0.02900598,0.040076744,-0.030524924,0.00085714424,-0.10772815,0.15037541,-0.08120506,0.0027275262,-0.47507882,-0.0063642277,-0.027793746,-0.11590708,0.04647383,-0.12023023,0.035841227,-0.083834,0.0011026947,0.035578333,-0.013378388,0.028115062,-0.13752282,-0.1407944,-0.0547696,0.054419078,0.016562328,-0.026859013,0.030612556,0.06379563,-0.10556658,0.035724387,0.12560496,-0.041478846,-0.020520344,-0.12794179,0.035665963,-0.07361034,0.09160399,-0.090493985,-0.12408601,0.27738246,-0.01802285,-0.018869953,0.067242466,0.008712018,0.011063459,0.02411323,-0.00063715305,0.048021987,0.12163233,-0.013853058,0.015817462,-0.18706375,-0.26149198,-0.08728084,0.07647297,0.015320883,0.0037644973,-0.014247399,0.061341953,-0.00037152047,-0.023003232,-0.041508056,0.027647695,0.033913337,-0.002592428,0.058099594,0.078926645,-0.084535055,0.09183767,-0.19559321,-0.019278899,-0.00067457894,0.068995096,-0.10632605,0.11760129,-0.15890487,-0.040339638,-0.04635699,0.07623929,0.034702018,-0.05211145,0.011099973,0.07951085,-0.058304068,-0.065372996,0.31640765,0.15738593,-0.044224627,-0.015948908,0.045393046,0.078692965,0.12700705,-0.022126919,-0.041362002,0.08015349,-0.22924365,-0.04171253,-0.52017975,-0.07594718,0.13950913,0.02833414,0.120463915,-0.058245644,-0.03598728,0.029487953,-0.14885648,0.00059790147,-0.04480884,0.14231333,-0.08920873,0.1570354,0.122683905,0.19290584,-0.10428132,0.019454163,0.03537386,0.0022419023,0.015978118,-0.045188572,0.015189436,-0.086521365,-0.07951085,-0.18741427,-0.09271398,-0.10948078,0.04959935,0.10837079,0.08587874,0.19664478,-0.21837735,0.05076777,0.006784128,-0.151427,0.016796011,0.04691199,-0.0067512663,-0.049833033,0.028290326,-0.08617084,-0.018855348,-0.051848557,-0.111058146,-0.054360654,-0.006619819,-0.08570347,-0.018782321,-0.07057246,-0.04819725,0.03677596,0.088566095,0.012398403,-0.043991923,-0.05278035,0.058755483,0.06826591,0.08390084,-0.103071064,0.08439877,0.020875623,0.019929562,-0.054473303,0.07374311,-0.0841996,0.025070665,-0.052879937,0.0641829,-0.1152205,0.010500053,0.012622471,-0.015410867,0.016020829,0.047651693,-0.0026872542,-0.0051037604,-0.006877628,0.03878858,-0.024747014,-0.02648976,0.09191748,0.016618341,0.04795045,0.10366858,0.019693045,-0.02020342,-0.15166882,0.09570173,0.048249207,0.113129206,0.118705995,0.09375981,0.08265602,0.10934495,0.007836139,-0.11024122,-0.10107935,-0.037991893,-0.019506322,0.08589255,0.08225768,0.025792662,0.023141196,-0.036871556,-0.044464957,-0.21490565,0.015834104,0.075734824,0.0052251304,0.072149746,-0.08245685,-0.04112884,-0.03393378,-0.11780973,-0.054124754,-0.015336177,0.06263932,0.03291303,-0.06652316,-0.007120368,0.04010809,-0.044116408,0.0025985609,0.16561079,-0.09953577,0.056564603,-0.15346135,-0.04892141,-0.008470997,-0.055170402,0.07902115,0.05332807,-0.034705568,-0.05955217,-0.124581546,0.017365234,-0.06562689,-0.15644893,0.0074626934,-0.07130326,-0.027137067,0.006410821,0.0351786,0.07971825,0.01324488,0.0039803106,-0.11153583,-0.0938594,-0.0175893,0.04635708,-0.031842485,0.093112506,0.040307257,-0.056564603,-0.020800935,0.04772638,-0.020390145,0.018610053,0.026888102,0.006158745,-0.008222033,0.075734824,-0.12876414,-0.007755226,-0.12527864,0.026614243,0.056116465,-0.0060622715,-0.17307971,0.11741138,-0.03084663,0.037892308,0.059352998,0.054323927,0.011564374,0.0026732502,-0.05990072,-0.062041808,0.032016758,0.057361286,0.012740728,0.055718124,0.018435778,-0.07264767,0.046282392,-0.12199232,-0.016058173,0.09834075,0.1014279,0.019195117,0.02228227,0.018236607,0.026116315,0.032987718,0.06632399,-0.010985533,-0.023788502,0.071353056,-0.12119564,0.10092997,-0.08594234,0.06582606,0.17128718,-0.088431984,0.0071701608,0.04242345,0.068913214,0.17507142,-0.124282785,0.043344617,-0.14111274,-0.13981813,0.030722147,0.071353056,-0.028083129,-0.007836139,0.133843,-0.019244911,-0.03622425,-0.03913713,0.09878888,-0.10814992,0.04217449,0.059950512,0.04304586,0.026265694,0.008825771,0.0140789095,0.073294975,-0.07065596,0.027535409,0.039510574,-0.16102986,-0.09057307,-0.060697403,-0.011657735,-0.032813445,-0.122589834,-0.034332123,-0.037842516,0.055070817,-0.025991833,0.08066431,-0.096498415,-0.11482216,0.11930351,-0.01599593,-0.021012554,-0.033336267,-0.11482216,0.058855068,0.055518955,-0.088183016,0.041452494,0.0035881924,0.010867275,0.2172957,0.048498172,-0.17785983,-0.007991741,0.027137067,-0.013481396,-0.10924537,-0.0071701608,0.063585386,-0.03704583,-0.047352936,-0.021572724,-0.013854842,0.025369423,0.013929531,-0.086490065,0.074539796,-0.006809163,0.0080228625,-0.045510605,0.020539522,-0.07444021,0.024074811,-0.023987673,-0.16670623,0.023776054,-0.049518924,-0.08390084,-0.035576943,-0.04125332,-0.034033366,-0.04456454,-0.085046075,-0.051635116,0.039410986,-0.04939444,0.013419155,0.030124635,0.19070636,-0.06064761,-0.008757305,0.006616216,-0.020452386,-0.010238641,0.04319524,-0.02091297,0.010693001,-0.14957751,-0.0035477357,0.016506307,-0.020178525,0.10755241,-0.03856451,-0.11611677,0.20315455,0.0206889,-0.1048636,0.11103791,-0.010892171,-0.19777693,0.13762726,0.032514688,-0.07444021,-0.0007313315,-0.12398403,0.20096368,-0.3435702,-0.1007308,0.17288055,0.0772784,-0.073294975,-0.08564359,0.035203498,-0.0058537642,-0.1062578,0.0023309246,-0.12438237,0.19349475,0.047502317,-0.24677303,0.0096100075,-0.01717851,0.0077241054,-0.017016683,0.095054425,0.13274756,0.048323896,-0.036049973,-0.06931155,-0.035452463,-0.058805276,0.0028739772,0.024473153,0.07767674,0.18961091,-0.01134653,0.10914578,-0.015174351,0.08927846,0.012000061,-0.090124935,-0.0023013602,0.04284669,-0.046730526,-0.14031607,-0.054821853,-0.01497518,-0.0033641248,0.039361194,0.112830445,-0.18024987,0.19548647,-0.0469297,0.07837384,0.11422464,-0.13543637,-0.019356944,-0.022991817,-0.044041716,-0.38619283,0.0772784,-0.019058188,-0.07434063,0.046133015,-0.29995173,-0.10386775,-0.024261534,-0.17327888,-0.27864042,-0.037966996,-0.02386319,-0.10934495,-0.056166258,-0.18562749,0.070406996,0.2380095,-0.2808313,0.018249055,-0.13603388,0.014900491,0.018722087,0.23721282,-0.061942223,-0.017477266,0.09510422,0.12985958,-0.059850924,-0.0420749,-0.010792586,-0.08733654,0.23542027,0.13513762,0.2380095,-0.06632399,-0.06956052,-0.15694685,-0.28043294,-0.1469883,-0.2822255,-0.30672354,0.12587616,0.055568747,-0.093809605,-0.015672278,-0.23303023,-0.15256509,-0.047128867,-0.1241832,0.1055607,0.018037437,-0.14459825,-0.0063516917,-0.05990072,-0.19787651,-0.010500053,0.043145448,-0.24219209,0.021771895,-0.13971855,-0.0007554499,-0.06363518,-0.11532009,0.07219954,0.066274196,-0.053726412,-0.10147769,0.14997587,0.083303325,-0.088880114,-0.14589286,0.034058265,0.16949463,-0.25135398,0.083054364,0.047776174,0.11880558,0.026514657,-0.001083771,-0.1145234,-0.35910556,-0.55847585,-0.038713887,-0.050315607,-0.047900658,0.13643223,0.23342857,-0.045759566,0.0331122,0.017302992,-0.15963566,-0.049917266,-0.0020757366,-0.0058755483,-0.45371184,0.026166108,0.22446586,0.07857301,-0.10102956,-0.06931155,0.0031867381,0.09515401,0.0834527,0.009298802,-0.47362894,0.04058112,0.13105461,0.005670153,0.1441999,-0.115519255,-0.08997556,0.10446526,0.01986732,-0.15107131,-0.12059812,0.012784297,-0.004182594,0.07907094,-0.027112171,0.057660043,-0.20873135,0.0043133,-0.013580982,0.01034445,-0.05671398,0.070904925,0.096747376,-0.107950754,-0.20335373,-0.35412627,-0.04200021,-0.041153736,-0.0055083265,0.22725426,-0.21590151,-0.30254096,-0.15216674,0.0143278735,-0.1380256,0.0096037835,0.14370197,-0.14658995,-0.004574712,0.057012737,0.05711232,-0.11761055,0.21988493,-0.15007545,0.03634873,0.05636543,-0.15883897,0.008763529,-0.4146743,-0.24796806,0.05706253,-0.03069725,0.018572709,-0.039958708,0.022506338,-0.02103745,0.09346105,-0.008315395,0.05016623,0.14898,0.14031607,0.004565376,0.064083315,-0.02042749,0.03303751,-0.25055727,-0.0072821947,-0.13683057,-0.048871618,0.14987628,-0.3830061,0.077228606,0.032016758,0.032863237,-0.004008319,-0.015647382,-0.026937896,-0.18502998,0.022780199,-0.2477689,-0.26250756,-0.010997981,-0.15465638,0.0022500113,-0.07130326,0.06921573,-0.09810484,-0.021787653,-0.063738614,0.057939313,0.052703835,0.07093404,0.16270262,0.11566384,0.07163211,-0.19245088,-0.048891332,0.16076952,0.044541854,-0.04311888,0.050126366,-0.09005026,-0.057563435,0.019733733,0.015196317,-0.008504299,-0.03823243,0.11501947,-0.039762802,0.049508847,-0.08999656,-0.029775117,0.16259523,-0.0056012925,0.060785268,0.06733633,-0.10632052,0.045347314,-0.10003795,-0.21371499,0.07410218,0.07275975,0.015612471,-0.010692461,0.066853054,-0.10438742,0.09864182,-0.044112276,0.10922017,-0.046045378,0.12522195,-0.06583281,0.056167305,-0.023573086,-0.012585289,-0.044139124,-0.04333367,0.104118936,0.018230211,0.0051180176,0.047656294,-0.052891776,-0.035923447,-0.08715061,-0.109273866,-0.10444112,0.011961059,0.11598603,0.07388739,-0.05474433,0.08945959,0.053643536,-0.012598713,0.06035569,0.027291618,-0.08747279,-0.008276086,0.016672991,0.022096412,0.03836667,0.13134344,-0.044971433,-0.13553181,0.027627226,0.065886505,0.11458989,-0.112656794,0.0387694,0.019277306,0.019277306,-0.16646142,-0.033856105,0.024042936,0.02337172,-0.04285039,0.0012358754,-0.033882953,0.014162645,0.07351151,0.0047421367,0.1454121,0.07979409,0.04446131,0.043602154,-0.026070006,-0.09971576,0.002310659,0.05960393,0.0475489,0.046287015,-0.01386731,0.013269928,0.13241738,0.0028006462,-0.17666389,0.024781274,0.08553969,-0.053213958,0.07721662,0.14498253,0.09783636,-0.020740556,0.008685527,-0.058744773,-0.01990825,-0.08505642,0.09939358,-0.017330782,-0.118993066,-0.063738614,0.14466034,-0.0015354053,0.009933988,0.010578355,-0.044568703,0.01679381,-0.09665502,0.07689444,-0.1571181,-0.04636756,0.017975148,-0.02990936,-0.010954236,-0.036970545,-0.105085485,-0.099823155,0.11888567,0.067228936,0.054985967,0.026405614,0.051683586,0.008551285,0.034070894,0.07501503,-0.038903646,0.0562747,0.009759472,-0.0044535142,-0.08677473,0.019143064,-0.08425096,-0.011014645,-0.009276197,-0.07555201,-0.04285039,-0.06556432,0.02754668,-0.00053026015,-0.09933988,-0.06808809,-0.030956455,-0.011927498,-0.010605204,-0.046716593,0.06368492,0.06916203,-0.07603528,-0.0038259279,0.036540966,0.00046481667,0.02321063,-0.07270605,-0.013229656,-0.0025892134,-0.008108282,-0.11029412,0.03707794,-0.049750485,-0.021129861,-0.043494757,-0.034768958,-0.060785268,0.021733955,0.05724125,-0.04303833,-0.12554413,-0.10497809,0.01305514,-0.047817387,-0.08886892,0.020217009,0.1299473,0.020539192,-0.0023207273,-0.06116115,-0.020203585,0.037910245,-0.057294946,-0.005611361,-0.07904233,0.003913186,-0.0475489,0.108038835,0.077914685,-0.038205583,-0.1843963,0.020297553,-0.008396905,-0.043790095,0.055200756,0.06728263,0.06996749,0.036567815,-0.06841028,-0.052918624,-0.022754202,0.057885617,-0.07544461,0.10546137,0.0051582903,-0.016740112,-0.085647084,0.103474565,-0.08677473,0.03586975,0.09933988,0.14498253,0.038527764,0.09042614,-0.09423865,0.031681366,-0.031037001,0.028969657,-0.031520277,0.016901204,-0.0398165,-0.020794254,0.069537915,0.09638653,-0.025908915,-0.06228879,-0.021948744,0.011612027,0.08505642,-0.06894725,0.073457815,-0.07238387,0.05103922,0.007108171,-0.062074002,-0.0139210075,-0.52322584,-0.23519388,0.07104144,0.10164886,0.10503179,-0.18117446,-0.011262994,-0.12586631,0.11587863,-0.15013747,0.14014977,-0.0003087591,0.05858368,0.11233461,-0.10256171,-0.20039807,0.020190159,0.03143973,-0.0021009042,-0.16152127,0.08962068,-0.06556432,-0.13016209,-0.10234693,-0.11018672,-0.41046163,0.085754484,0.4050919,0.050502248,-0.042877242,0.06341643,-0.20200899,0.06169812,-0.119422644,0.2719228,-0.001135193,0.102776505,-0.1107237,-0.11770433,0.114804685,-0.29039463,-0.06706785,-0.070611864,-0.33034536,0.018981973,0.033104345,-0.04054141,-0.21554069,-0.09633283,0.029077051,0.01863294,0.13467266,0.1883699,-0.13091385,0.25645798,-0.006705442,0.04209863,-0.20125723,-0.034473624,-0.15765508,0.0659402,-0.23820093,0.0011452613,-0.094399735,-0.037990794,-0.12339624,-0.36449683,0.13467266,0.0058932714,-0.06502735,-0.24915516,-0.008504299,-0.22359528,0.36256373,0.13338393,0.09638653,-0.52537376,-0.056972764,-0.054798026,-0.10073601,-0.18729594,0.20608997,-0.19298786,0.17698608,-0.28395095,0.1222149,-0.3627785,0.054851722,-0.08473423,0.1242554,0.036540966,0.31122917,-0.076142676,0.013632385,0.0854323,-0.12865856,0.029184446,-0.20920442,0.28803197,0.17516038,-0.16173607,0.15164098,-0.11222722,0.0030792006,-0.36406723,0.118993066,-0.013014867,0.050851278,0.24743685,-0.18643679,0.05681167,-0.18278538,0.0014271718,-0.10782404,-0.12361103,0.075337216,0.15668853,-0.062396184,0.0011578465,-0.029614024,0.028029956,0.15561458,0.012075165,0.15819205,0.04792478,0.14487514,0.09198336,-0.010450824,-0.2908242,-0.02747956,0.30414113,-0.045374162,0.20404948,-0.4867117,-0.06449038,0.04188384,0.19245088,-0.01629711,-0.07227647,0.17204593,-0.098964,0.17258291,0.2639756,-0.048676543,-0.10959605,0.16313219,0.15464804,-0.16055472,0.067927,0.06663827,-0.08113652,0.18794031,0.1533593,-0.07539091,0.06325534,-0.015733289,-0.009980973,0.0095111225,0.07286715,-0.03723903,-0.18890686,-0.30800733,-0.020606313,0.09933988,0.12565152,-0.06094636,-0.30242282,-0.16968326,0.29597914,-0.78870493,0.004873024,-0.07093404,0.22832063,0.22617275,-0.17107938,-0.0757131,-0.15969557,-0.10154147,0.009880291,0.06894725,0.33485594,-0.28352138,0.046823986,0.01990825,-0.019035669,0.033131193,0.03028524,0.197928,0.014981528,-0.4673807,-0.029157598,0.17784524,0.12393321,0.014914406,-0.40487713,-0.30371156,-0.2618277,0.16807234,-0.007833084,-0.0009002677,0.20909703,-0.08865413,0.064382985,-0.2485108,-0.024002664,-0.14670084,-0.51463425,0.073726304,-0.056221005,-0.022700505,-0.22531359,-0.23712698,0.018579243,-0.092520334,0.012498031,-0.011222722,-0.15797725,0.09407755,-0.21489632,0.20737872,-0.065618016,0.14627126,0.0147130415,0.030902758,0.035923447,0.13080646,0.019465247,-0.32690877,0.031010153,-0.047092475,-0.062342487,-0.25581363,0.024781274,0.00047152882,-0.017867755,0.0043528317,-0.0018794031,-0.19481356,-0.051925223,-0.066154994,-0.013934432,-0.1356392,-0.03995074,0.028620625,0.035064295,0.092520334,-0.022203805,0.043790095,0.2871728,0.071309924,-0.054824874,-0.5111977,-0.029936207,-0.030983303,-0.38361302,-0.11910047,0.03322532,0.0012656044,-0.039186735,0.026238432,-0.0018766153,-0.018335454,-0.14919947,-0.10604756,0.059559464,0.087397635,-0.10364112,-0.04159318,0.0044266246,0.10818055,0.047882747,0.0239277,0.074873194,-0.061965905,0.02972504,-0.11430604,-0.028932007,0.029478926,0.009598426,0.007239838,-0.042769056,0.032131482,0.0741622,-0.013741336,0.05411762,0.05633264,-0.038393702,-0.007745738,-0.023257725,0.02379097,-0.112993434,-0.024789097,0.061637755,0.025007864,-0.010049634,0.02816632,0.04468327,-0.052312788,0.03902266,-0.0015672643,-0.052340135,0.022943245,-0.04873047,-0.012893612,-0.07268552,0.037108444,-0.003828432,-0.063333206,0.009659954,-0.097898476,-0.03645214,0.03423712,-0.034756694,-0.025322342,0.081326835,0.024310542,0.052449517,0.058465626,-0.01569657,0.0036780294,-0.08657725,0.02752369,-0.023955045,-0.009133545,0.041155644,0.054008238,-0.04170256,0.1125559,-0.044081658,0.029779732,0.0047342665,0.0059477426,0.0151223065,0.016229818,-0.1435115,-0.06584903,0.08263944,-0.14504288,0.01396694,-0.030982953,0.059559464,-0.033608165,-0.042276826,0.061747137,0.010090653,0.027646748,-0.019319909,0.0061733467,-0.005065836,0.045175496,-0.0144660035,-0.0289867,0.09467165,-0.08958531,0.096640565,0.07153699,0.05917662,0.04473796,0.004744521,-0.072083905,-0.048621085,0.0003503699,0.036917023,-0.03390897,0.016681025,-0.08138152,0.098664165,-0.0023534603,0.013160235,-0.015887992,0.014452331,-0.009283948,0.039870385,-0.060817376,-0.076131105,0.048074167,-0.04670687,-0.02388668,-0.03544034,-0.031229066,0.052996438,-0.053598046,-0.050918147,0.008135418,-0.04588649,0.04602322,-0.06010638,-0.05406293,0.029533619,-0.0139601035,0.030518072,0.033444088,-0.009475369,-0.019579696,0.017241618,0.009407004,-0.021890428,0.036178682,-0.03754598,0.002365424,0.027797151,0.026375161,-0.08996815,0.011191327,0.02070088,0.048292935,0.07810001,-0.030326651,-0.030982953,0.02130249,0.06152837,-0.069185235,-0.027086155,-0.025691513,-0.035002805,0.012585971,-0.025185613,0.03612399,-0.022437345,0.055758376,0.046460755,-0.019579696,-0.0579734,-0.028494472,0.049660232,-0.03060011,0.038967967,-0.042085405,0.015833301,0.031693947,-0.04030792,-0.008231129,0.018827682,0.058137473,-0.06568495,0.09833601,0.033252668,0.001760395,0.0340457,0.011362239,0.011505805,0.014889866,-0.049085967,-0.013666135,0.016216144,-0.020974338,-0.030764185,0.051054876,-0.075912334,0.07722494,0.041866638,0.020564148,-0.005626428,-0.060215767,-0.018581567,0.04036261,0.17402957,0.047144406,0.045913838,0.0208923,0.09871885,-0.020331709,-0.084006734,-0.0103094205,-0.06262221,0.00943435,-0.08920246,0.00416342,-0.01244924,-0.052312788,0.023244051,-0.041265026,0.065356806,0.01655797,-0.03760067,0.036917023,-0.02085128,-0.02301161,0.0660678,0.00020338545,0.026129048,0.07870162,-0.026840042,0.027879188,0.059887614,0.12677579,0.005783667,0.06349728,-0.06295036,-0.018608915,-0.083733276,-0.01385072,0.022574076,-0.008347349,-0.02305263,0.047554594,0.005626428,-0.07263082,0.088546164,0.048703123,0.0023602967,-0.067161635,0.013953268,-0.015751263,-0.005390569,-0.04569507,-0.023175687,-0.06656002,0.044109005,0.023353435,0.016817754,0.066286564,0.056660794,-0.095273264,0.23889415,-0.016257163,0.059395388,-0.3018992,-0.031037645,0.043179244,0.039104696,0.030080536,-0.033526126,-0.15248097,-0.074982576,-0.022451019,0.070333764,0.06579434,0.04859374,0.09762502,-0.0033174048,-0.21625172,0.2633961,0.05264094,-0.1833272,0.037901476,-0.034838732,-0.14285521,-0.078811005,0.025691513,0.052066676,0.02254673,0.079522,-0.05605918,0.042276826,0.1415426,0.033389397,0.07629518,-0.119665846,0.24436334,-0.032869823,0.04637872,-0.11080576,-0.03869451,-0.10495373,-0.3659981,-0.005824686,-0.0008340512,-0.17676418,-0.10391458,-0.10112529,-0.011369076,-0.09467165,0.22237721,0.08843678,0.050097767,0.006631391,0.07109945,-0.07957669,-0.3404023,-0.055484917,0.036151335,0.028631203,0.11332159,-0.2014849,-0.11507173,0.119447075,-0.029232813,-0.1354171,-0.41150174,-0.19393742,-0.038667165,-0.16856039,-0.02180839,0.08756171,-0.30846223,0.065520875,0.028303051,-0.10128937,-0.025253978,0.043507393,0.07662333,-0.06584903,-0.12644763,0.20246936,0.05075407,-0.18595241,0.0082858205,-0.39006254,-0.053543355,0.015764937,-0.3121813,-0.0055546444,-0.2157048,-0.007191983,0.08302228,-0.04689829,-0.04777336,0.04542161,-0.27477202,-0.090077534,-0.12546319,0.06989623,-0.03612399,0.048156206,-0.06508335,-0.17162314,0.007971343,0.06934931,-0.07985015,0.13640156,0.02135718,0.06409889,-0.17424835,-0.09543734,-0.26120844,-0.05417231,-0.26230228,0.0053529684,0.1617786,-0.15620002,0.06721633,0.06787263,-0.06913054,0.05581307,0.033006553,-0.32443225,0.09089791,-0.08444427,0.07935792,0.060817376,-0.12633826,0.1435115,-0.011663045,0.030299304,0.10949315,0.2001723,-0.45109868,-0.17687356,0.13760479,0.023079976,0.112227745,0.19459373,-0.022738151,-0.119994,0.022560403,0.072849594,0.017282635,-0.070552535,-0.20345381,-0.10834462,-0.07219329,0.038311664,0.1509496,-0.068419546,0.014903539,-0.04156583,0.05687956,-0.019675406,-0.09035099,0.0007631227,0.0014450621,-0.20312566,0.12075968,-0.0058622863,0.16735718,0.03954223,0.042112753,-0.22489303,-0.05020715,-0.21800186,-0.24873869,0.0626769,-0.032131482,-0.0855928,-0.050425917,-0.007691046,0.19153099,-0.271053,-0.16670087,0.056606103,-0.117150016,0.005547808,-0.13049483,-0.071591675,0.022437345,-0.0012356947,0.051793214,-0.021097396,0.1301667,0.02530867,-0.14843377,0.033252668,0.0198805,-0.05201198,-0.100195535,-0.13858923,0.24567595,-0.14198014,0.072958976,-0.047882747,0.030326651,-0.052285444,0.024160141,0.14679302,-0.2257681,0.011205,0.032131482,-0.040198535,-0.021562276,0.07126353,0.016434912,-0.13104175,0.10035961,-0.13902678,0.24458212,-0.27652216,-0.017610786,0.009967596,-0.1739202,-0.038858585,0.04542161,0.04859374,0.0006588663,0.030436033,0.048238244,0.06147368,0.0024901899,0.03902266,-0.076896794,0.018185051,0.084225506,0.05742648,0.025746206,0.1374954,-0.0101590175,0.026115375,0.078428164,0.21964261,0.03248698,-0.14001122,-0.004713757,-0.13158868,-0.06634126,-0.054582503,-0.10845401,-0.037026405,-0.23801908,0.011533151,-0.03412774,0.3390897,0.15784079,-0.07022438,-0.1557625,-0.028002245,0.03492077,-0.024214832,-0.14504288,0.07036009,-0.038785756,0.02373922,0.05215612,-0.005330605,-0.050947722,0.005535254,-0.008195683,0.007620719,0.09862107,-0.04143644,-0.07928666,-0.034088586,0.0005024851,-0.04720558,0.014539786,0.05433904,0.010524778,-0.0009988794,-0.09347562,0.02956683,-0.03886372,-0.08926571,0.03247089,0.01751206,0.009355358,0.047517423,-0.047985192,-0.016040541,0.022511331,-0.021010576,0.005749647,-0.01983141,0.04081275,-0.048413977,-0.04673781,-0.00090569124,0.02064026,-0.10524778,-0.084977835,-0.019909373,0.009296888,0.008960679,-0.048219074,-0.029216005,0.0578473,0.029976128,0.0041343863,0.07499879,0.01060274,0.050947722,-0.06696877,-0.06096575,-0.038688306,-0.079481564,0.008224919,0.046854753,0.0016079522,-0.10976954,-0.039506897,0.01715149,-0.018408617,-0.045724314,-0.015105005,0.01979243,-0.0108853495,-0.04541247,0.005861717,-0.054767825,-0.03071676,-0.08341861,0.07694782,-0.0006584077,0.014734689,-0.043463435,0.039350975,0.08279492,0.017921358,-0.027091559,-0.076519035,-0.0041465675,0.10119379,-0.031126056,0.029216005,0.048336018,-0.031204017,0.041670326,-0.032958146,-0.11553867,-0.07386835,0.09277397,0.055820305,-0.03720704,-0.04611412,-0.07640209,0.030502366,-0.024284951,-0.052234083,-0.0012875799,0.050479952,0.03913658,-0.025006093,0.05430006,0.019217465,-0.011255666,0.033523366,-0.061823327,-0.052935734,0.00960386,-0.067358576,0.022024073,-0.04198217,-0.035803735,0.09901088,0.050635878,-0.0683331,-0.0336598,0.062330075,0.021770699,-0.05371535,0.049544416,-0.02303757,0.0029966382,-0.062797844,0.047400482,-0.059055697,0.07706476,-0.031048095,-0.014286412,-0.006919067,0.012395849,-0.010563758,-0.030599818,-0.06661794,-0.11374556,-0.004092969,0.029644791,0.029254984,-0.020211471,0.01386737,0.018203968,0.02120548,0.0032037229,-0.046270043,0.0023461485,0.023758711,-0.08716075,0.01717098,0.015855383,0.029820204,0.03420553,-0.011372607,-0.002241388,0.0360766,-0.016800664,0.09261805,-0.020854652,0.013896605,-0.017541297,0.01358476,-0.028670276,-0.07390733,-0.058237106,0.0019368515,-0.03685621,-0.0052428986,0.02188764,-0.0015994252,0.008858355,0.037577357,0.05332554,0.00048543102,-0.021790188,0.07297179,-0.035277497,-0.05858793,0.018837404,-0.035745263,-0.06911271,-0.057223607,-0.17135897,-0.011859866,0.025532331,0.044593874,-0.065331586,0.06883984,-0.038727283,-0.006914194,-0.08318473,0.054222096,-0.03194465,-0.006558496,0.05387127,-0.068528,0.013165718,-0.06653999,0.02424597,-0.013204698,0.085211724,-0.09628223,0.040539887,-0.010914585,0.025688255,0.02777372,-0.057691377,0.06950252,-0.017404864,-0.02245286,0.015504558,-0.028631294,-0.0058519715,0.010612484,0.0878624,0.011655217,-0.005184428,0.036252014,0.044321008,-0.0045534284,-0.03718755,0.015212202,0.02954734,0.015202457,0.06724164,-0.11982655,-0.034380943,-0.028007604,0.02488915,-0.036797743,-0.01298056,0.050557915,-0.04669883,-0.038844228,-0.06997028,-0.03484871,-0.05675584,-0.058276087,0.05075282,0.050713837,-0.041319497,-0.0045217564,0.015494812,0.044866737,-0.034595337,-0.048375,0.06911271,0.033347953,-0.011167959,-0.07523267,-0.01749257,0.04315159,-0.048725825,0.022706235,0.043073628,-0.036992647,-0.046542905,-0.01275642,0.19880137,0.026156023,0.005535254,-0.19505922,-0.04311261,-0.044165086,-0.060536962,-0.123880535,-0.039292503,0.032256495,-0.04139746,0.2588316,-0.08170346,-0.09261805,-0.049271554,-0.14617747,-0.20332311,0.12146373,0.053481463,-0.12208743,-0.1312089,0.037382454,0.029079571,0.016137993,0.03900015,-0.20207573,-0.08037812,-0.072426066,-0.05445598,-0.0051893,-0.0118501205,-0.004402378,0.095268734,0.006066365,-0.02007504,0.11460314,-0.11281003,-0.1394728,0.28830096,0.051220585,-0.2341958,0.024440873,-0.028631294,0.043853242,-0.0038956297,0.021185989,-0.059991233,-0.049934223,0.029274475,-0.038064614,-0.0878624,0.028455881,-0.022667253,0.033386935,0.051961217,0.03944843,-0.1977099,-0.20644157,-0.026156023,0.014130489,-0.0037884328,0.043502416,0.087082796,0.041592363,-0.031165037,-0.05628807,0.013682212,-0.111016914,-0.09604835,0.10275302,0.054144137,-0.06794329,-0.0382985,-0.07449204,-0.15444137,-0.07039907,0.17120306,0.027481364,0.037518885,-0.035355456,-0.06786533,0.16964383,-0.025707744,0.072893836,-0.18726309,-0.10049214,0.093709506,0.12411442,0.11242022,-0.28299958,-0.011791649,-0.07476491,0.03420553,-0.01720996,0.08965552,0.06307071,0.087238714,-0.12029432,0.012532282,0.00501876,0.110393226,-0.10134971,-0.0013740682,0.16449839,-0.06860596,-0.1660576,-0.0723481,0.12629734,-0.05246797,0.006383083,-0.15592264,0.015290163,-0.063967265,-0.08209327,-0.10860012,-0.027910152,-0.12699899,0.028962629,-0.19443552,-0.0042123473,0.03069727,-0.021439362,-0.0071383333,-0.025220487,-0.19552699,0.049466457,0.215641,-0.039234035,-0.004175803,0.06291478,-0.1525703,0.030911664,0.0626809,-0.027637288,-0.0898894,0.019051798,-0.163251,-0.05745749,-0.01507577,0.09737369,-0.1680846,-0.109457694,0.02664328,-0.012035279,-0.08926571,-0.016352387,-0.09838718,0.27738637,0.024518834,-0.03560883,0.04428203,-0.054222096,0.20269942,-0.008288262,-0.22359306,0.025239976,-0.0019709596,0.13152075,0.036349464,0.023193492,0.10563759,0.16979975,-0.033679288,-0.041670326,-0.108989924,0.065292604,-0.17120306,-0.0449447,-0.17135897,-0.01032013,0.020269943,-0.0045899726,0.02305706,0.10267506,0.03178873,-0.036427427,0.01271744,-0.03134045,-0.033231013,0.06887882,0.066462025,0.028260978,-0.048219074,0.066695906,0.032977637,-0.0018942164,0.20472643,0.04564635,-0.012785656,-0.16839644,0.055235595,-0.1618477,-0.015514302,-0.119514704,0.011820885,-0.05133753,0.14797059,-0.024733229,-0.06088779,0.009462555,-0.14851631,-0.14664523,-0.075817384,0.092540085,0.01573844,-0.11733178,-0.033386935,-0.013955076,0.009413829,0.040773768,0.007060372,-0.057535455,-0.04665985,0.1481265,-0.049583398,-0.015874874,0.05075282,-0.00011085125,-0.054494962,-0.19365591,-0.05601521,-0.07464796,0.0677094,-0.005608342,-0.02424597,-0.023953615,-0.044632856,-0.08879794,-0.0011334845,-0.10891196,-0.15568875,0.10665108,-0.12122985,0.02188764,0.05328656,0.013243679,-0.2273352,0.08310676,-0.09464504,0.039195053,0.21501732,-0.1769722,0.02368075,-0.09105882,-0.071919315,0.017083274,0.04365834,0.012619988,0.075583495,-0.11413537,0.043541398,-0.0109828,-0.01866199,-0.068294115,0.24448669,0.3573747,-0.059843857,0.039128676,-0.053792648,0.09897253,0.004329584,0.016548013,-0.0322793,-0.08211824,0.08352896,0.023146803,-0.07031282,-0.018348528,-0.052270565,0.005559316,-0.07974231,0.069644585,0.06942184,0.02294262,-0.0031207346,0.08716711,0.072874375,0.044326033,-0.0102555,-0.029346507,-0.015629197,-0.08753835,0.07346836,-0.018979635,-0.13713598,-0.06166293,0.0100049125,0.028956704,0.11211442,0.118425496,-0.10617458,0.03890593,0.024483265,0.03430256,0.01688213,-0.10669432,-0.068419494,-0.04662772,-0.084568426,0.0671944,-0.0037820055,0.06444723,0.008325052,0.03795927,0.0031044928,-0.07602991,0.064669974,-0.03608451,-0.15035212,-0.08998853,-0.021104982,0.057393674,-0.04562537,-0.120430194,-0.13520554,0.095631376,0.02697057,0.03385707,-0.012436533,-0.047815688,-0.057022434,0.15993011,-0.077366374,-0.13483429,-0.060660582,-0.08954304,0.053681277,0.03751378,-0.0057495763,-0.009874979,0.0060419277,-0.08300922,0.015443576,-0.0335972,0.04792706,-0.025392802,-0.005466506,-0.10379865,0.0075779324,0.0060744113,-0.024910191,0.0100513175,-0.046516348,-0.07357973,0.015722007,-0.0024965876,-0.028232787,-0.10439263,-0.1602271,0.18903531,-0.07387672,0.13795272,0.06596931,0.059732486,-0.013550253,-0.06073483,-0.070275694,-0.058247525,0.002228599,-0.0068122502,-0.0729115,0.03957416,0.0017865916,0.017095594,-0.024446141,0.08323196,0.07417371,-0.10231369,0.10580334,-0.038126327,-0.16393949,0.057505045,-0.044920016,0.018729048,-0.07766337,0.06559807,0.004206611,-0.12072718,-0.08813233,-0.013772997,0.073245615,-0.044845767,0.016204618,-0.04105912,-0.044808645,-0.1091445,0.025986787,0.04105912,-0.036529996,-0.043435056,-0.0023898561,-0.1199847,-0.0034641314,0.13386907,-0.076623894,-0.050302994,-0.013503848,0.0346738,-0.079965055,-0.028139977,-0.07788611,-0.0070489156,-0.014478352,0.0014571162,0.044845767,-0.058284648,0.014543319,-0.0054618656,-0.015443576,0.0944434,-0.045588247,-0.1346858,-0.007861003,0.04569962,-0.2404149,-0.10654582,-0.049486265,-0.10958999,-0.049931753,-0.017754544,0.044029042,0.06422449,0.06600644,-0.0040720366,-0.008803024,-0.056279954,0.055723093,0.0033272367,-0.123548605,0.034618113,-0.057727788,-0.058990005,-0.03957416,0.032687664,-0.030905714,-0.064781345,0.16171207,-0.009197466,-0.027100505,-0.017021345,0.034989353,-0.0764754,0.020288255,-0.045551125,0.06166293,0.015963312,0.045068514,-0.053607028,0.12139542,0.017141998,-0.058655888,0.04822405,-0.01995414,-0.018951792,-0.14084838,0.06418736,-0.04213572,0.019248784,-0.059101377,-0.048075553,-0.007916689,-0.15963311,-0.030441664,-0.03640006,0.046107985,0.047147457,-0.017680295,0.008784462,-0.0481498,-0.08412294,0.10119997,-0.019935578,-0.016733633,-0.016186055,0.06032647,0.07328273,0.004018671,0.049968876,-0.043435056,0.0077728336,0.09934377,-0.02351804,-0.07391384,-0.0004449077,-0.014023583,0.0049374895,0.03059016,-0.07305999,-0.1893323,-0.004624256,-0.04336081,0.03957416,-0.022812685,0.08902331,0.051231094,-0.05717093,0.051008347,0.043732047,0.1603756,-0.037495222,-0.11070371,0.052010696,0.039128676,0.038683187,0.009847136,-0.0010777556,-0.024873067,0.08872631,0.017838072,-0.07766337,-0.05353278,-0.031128457,-0.048521042,0.011239285,-0.02732325,0.054312382,0.036882676,0.03777365,-0.03105421,-0.02006551,0.008334334,-0.4217284,-0.007123164,-0.017875196,0.030738655,-0.032409236,0.0027355733,0.01613965,-0.018701205,-0.015128022,-0.02815854,0.030423101,0.0069143414,-0.038757436,-0.04113337,-0.16290003,-0.0007424796,0.022961183,-0.04562537,-0.023109678,-0.11025822,0.067751266,-0.019452965,0.15814815,-0.08085603,0.04866954,-0.02695201,-0.017680295,-0.089320295,0.0009101176,-0.0019478488,-0.051528085,0.016557295,-0.03957416,0.04607086,-0.03040454,0.0026914885,-0.010422558,0.014366981,0.039388545,0.021698967,-0.067045905,-0.027824422,0.0013202216,0.012974831,-0.03077578,-0.029439317,-0.05427526,0.041541733,-0.033281647,0.015963312,0.012492219,0.044103287,0.028455531,0.03580608,0.034283996,0.030515911,-0.036140196,-0.025634108,0.023555165,-0.0013643063,-0.010970136,-0.03628869,-0.15502974,-0.012353005,0.0015858901,0.01820003,-0.0065245396,0.022868372,-0.39202923,0.029495003,0.009540863,-0.028102852,-0.004457198,0.025170058,-0.055537473,0.004188049,0.048558164,-0.09384942,-0.020566685,0.08976579,-0.02966206,-0.19601461,0.00062878744,0.025058687,0.2402664,0.0069514653,0.0041834083,0.017940164,-0.026914885,0.04796418,0.011712615,-0.014478352,-0.051008347,0.24724571,-0.018255718,-0.018497024,0.0003869015,0.048001308,0.04703608,0.05527761,0.1998755,0.009401648,0.00671944,0.041653104,-0.025299992,-0.025504174,-0.028789647,-0.04755582,0.0427297,-0.0074758413,0.037532344,-0.0061254567,0.04076213,0.008872631,0.0108680455,0.028845333,-0.022682752,-0.012557186,-0.02678495,0.013912211,0.027174754,-0.04885516,-0.021383412,-0.054163888,0.008371457,0.01017197,0.02312824,-0.011898235,-0.009642954,0.029327944,0.023852156,-0.014274171,-0.00023086475,-0.096373856,0.14389254,0.02388928,-0.08412294,0.014728939,0.018032974,0.062331162,-0.012260195,0.08041054,-0.023629414,0.017021345,-0.021216355,0.01147131,0.03608451,-0.22838673,0.0008799544,-0.025504174,0.0035035757,-0.069644585,0.018302122,-0.03972266,0.024743132,0.059918106,-0.021680405,-0.0029606374,-0.012854178,-0.030256044,0.03235355,0.06333351,-0.0009188185,0.095779866,0.029977614,-0.017828792,-0.010209095,-0.02797292,0.0041138013,-0.058321774,-0.015554948,-0.041838724,0.029884804,-0.01846918,0.008645247,-0.01119288,0.015991155,-0.0008550117,0.022515694,-0.06125457,0.0070906803,-0.15168859,-0.048186928,-0.029606374,-0.034395367,-0.016928535,0.06634055,0.044548776,0.046219356,0.069644585,-0.097784564,0.0070164325,-0.0110072605,0.026989134,-0.06942184,-0.0013271823,-0.035193533,-0.0087659,-0.13082491,0.04235846,-0.15072335,0.022348637,0.012046732,-0.08011355,-0.04774144,0.030608721,0.022738438,-0.5562657,0.009123218,-0.014060708,0.019935578,-0.04224709,0.02060381,-0.038126327,-0.019360155,0.028826771,0.04120762,-0.2108642,0.010292623,0.016919253,-0.015619915,-0.068790734,-0.026617894,-0.044511653,-0.11189168,-0.14819893,-0.0114527475,0.036233004,-0.097413324,-0.0032112242,-0.003665993,0.041356113,-0.012473658,-0.15963311,0.022868372,0.04777856,0.036511436,-0.042878196,0.030571599,0.013262542,-0.05316154,0.02788011,0.007322705,-0.011239285,-0.0124086905,0.044623025,-0.032297865,-0.06087804,0.01475995,0.014381491,-0.07455667,0.032169122,-0.015287092,-0.05741783,-0.033034176,-0.0010889181,0.008873542,0.086343005,0.0052950648,-0.03195286,0.015341157,0.042117223,0.10596888,-0.052849274,0.0571475,-0.011664686,-0.009515572,0.015287092,-0.008711345,-0.01612511,-0.023248274,0.0013170079,-0.03684581,0.029438803,0.039603163,0.03738647,-0.012381057,-0.094561,0.03400736,-0.04557743,0.003578477,0.04819962,-0.0012435123,0.0021085644,0.009907549,-0.10461723,-0.0806661,-0.022707617,-0.00956288,0.051092137,-0.00960343,0.025208157,-0.044712376,0.04490161,0.026005628,-0.00937365,0.06087804,0.0028671746,0.021126192,-0.0025089888,0.03400736,0.043036338,0.06255408,0.014259842,-0.0029550313,-0.020963995,-0.013165011,-0.004132651,0.029006276,-0.0053187185,0.0073191514,-0.04006272,0.0187473,0.031168906,0.00010306284,0.009231728,-0.051389497,-0.06769032,-0.00020612568,0.028735947,-0.010427932,0.06568989,-0.009191178,0.009758868,0.038008224,0.033899225,-0.03533197,-0.10969941,0.04746973,-0.009907549,0.005680283,0.041873924,0.010630678,-0.085910484,-0.027451886,0.034629114,0.02588398,0.010914524,-0.0009148939,0.013347482,-0.0015932502,-0.020788282,0.016030496,0.026343537,-0.062175617,0.07547579,-0.041225135,0.006974482,0.026884196,-0.037521634,-0.018504003,-0.062391877,0.0049267416,0.022207508,-0.06747406,0.01343534,-0.023897063,-0.0091776615,0.026843647,-0.027154524,0.015584453,0.021761466,-0.025248706,-0.030925611,-0.035926692,0.05260598,-0.0012941989,-0.079855114,0.024586402,0.032655716,-0.043739196,-0.029601,-0.015097861,-0.034142524,0.08515356,0.003517653,-0.004071827,-0.015111378,0.033520766,0.020180043,-0.034899443,-0.051173236,0.05703937,-0.06466264,-0.010880733,-0.015868299,-0.022369705,-0.0573097,-0.02739782,0.012110729,0.052200485,-0.057850357,0.03260165,0.010035955,0.016868515,-0.005207208,-0.02941177,-0.007920633,-0.022437287,0.0018534416,0.062716275,-0.028871112,-0.041765794,-0.019233892,0.018301258,0.049875658,0.060445514,-0.06450044,-0.028627817,-0.027059909,0.0236808,0.0138138,-0.037467565,0.061689023,-0.043198537,-0.029844295,0.02819529,0.004598968,0.014638303,-0.015489838,-0.06969076,0.0072921184,0.03684581,-0.009779143,0.009434474,0.033223405,0.02933067,0.039359868,-0.003058094,0.03638625,0.036980975,0.02800606,-0.008907333,0.023410471,-0.023004977,-0.06212155,0.015625002,0.018274225,0.0064034127,0.04033305,0.042766012,-0.032926045,0.034439884,0.022072343,0.039819427,0.04098184,-0.02584343,0.007271844,0.008359917,-0.07428634,-0.018612135,0.012462156,0.02941177,0.023653766,0.0532007,-0.059147935,-0.0532007,-0.01503028,0.0065183025,-8.109863e-05,0.004615864,-0.01847697,-0.034602083,0.03779196,-0.00047560968,-0.022856297,-0.0094750235,-0.029546933,0.015016763,-0.0012333749,0.05133543,-4.3083648e-05,-0.0061195674,0.02132894,-0.014678852,-0.015192477,0.09731836,0.037008006,-0.029384736,0.039711297,-0.0019565045,0.0098467255,0.018003896,-0.00047898878,-0.020234108,0.0009520641,0.012948748,0.0049267416,0.00046209325,-0.0040177614,-0.029844295,-0.0070826137,-0.057958487,0.014705885,-0.042955242,0.01028601,-0.028519684,0.027870895,-0.0012021182,0.019625869,0.034791313,-0.06606835,-0.0016143696,-0.14911334,0.004906467,-0.06547362,-0.045171935,-0.013611053,-0.13775954,0.05290334,-0.11169984,-0.039413933,-0.023532119,-0.061040234,0.0054437453,-0.14424743,-0.122945525,-0.087099925,0.047496762,-0.20891006,0.0030631628,0.05628245,-0.11926905,-0.107158326,0.041387334,-0.15397927,0.05601212,-0.007278602,-0.016152143,-0.121539816,-0.05298444,0.046118088,0.02401871,0.07693557,0.06698747,0.04557743,-0.086343005,-0.017976863,-0.016841482,-0.23248273,0.0007146817,0.022721132,-0.100886695,-0.08742432,-0.021869598,0.047037207,-0.13970591,0.016706318,0.0038116355,0.018760817,-0.017219942,-0.017598402,0.031844728,0.0035582024,-0.05601212,-0.10294119,-0.054200917,-0.02451882,0.003612268,-0.06796065,-0.059796724,0.0068595926,-0.047496762,0.027451886,-0.0022758304,-0.0041394094,0.06823098,-0.02311311,0.020828832,-0.005213966,0.044766445,-0.06558176,-0.092506506,-0.055579595,0.014219293,-0.11397061,-0.19679934,-0.009826451,0.060769908,-0.09693989,0.029384736,-0.01988268,-0.22188585,-0.015570937,-0.08261247,0.009833209,0.03484538,-0.16511682,-0.0911008,-0.06639274,-0.06617648,-0.07450261,-0.10321152,0.06833911,-0.06428418,-0.05217345,-0.06087804,-0.16857702,-0.08580235,-0.06963669,-0.28200698,-0.04473941,0.06212155,0.029492868,-0.19020332,0.002113633,-0.14284173,-0.4372838,-0.1959343,-0.14132787,-0.023099594,0.002052809,0.04003569,0.015151927,-0.07731403,-0.23118515,-0.09504759,-0.07953072,-0.025721783,0.03676471,0.035250872,-0.03881921,0.03408846,0.003950179,-0.049875658,-0.0059472327,0.0021491137,-0.048091486,0.05460641,-0.11007787,0.059256066,-0.061580893,0.05741783,-0.06071584,0.031871762,-0.085477956,-0.09980538,-0.19463672,-0.153763,-0.017747084,0.042522714,0.06704153,0.070880204,-0.0012426676,-0.049848624,0.00740025,0.042684913,-0.108401835,0.034331754,-0.04030602,-0.007832776,-0.37910905,0.04068448,0.06033738,-0.03806229,-0.17387547,0.013104187,-0.07142086,0.0019176446,0.05655278,0.026519252,0.02288333,-0.018355323,-0.115051925,0.07434041,0.040116787,0.37694642,-0.034710214,-0.05639058,-0.070069216,-0.07369162,-0.008332884,0.009461507,0.017557854,-0.14403117,-0.2309689,-0.11862026,0.0138138,0.017030712,-0.079206325,0.08255841,0.035575267,-0.07179932,-0.005673525,-0.047253467,0.07217778,0.01423281,-0.03776493,0.019652901,-0.05866134,0.064067915,0.061040234,-0.11013194,-0.0001647316,-0.022977944,-0.05703937,-0.18825695,-0.07763842,-0.24762115,-0.17149657,-0.079584785,-0.09942692,0.013293417,-0.11797147,-0.11115919,-0.15971023,-0.1640355,0.051173236,-0.02827639,-0.036224056,0.0068900045,0.077584356,-0.0034602082,-0.029492868,0.21604675,-0.08926256,0.004815231,-0.034899443,0.031790663,-0.08758652,-0.0512273,-0.15506057,-0.077746555,-0.024559367,-0.061148368,0.13029847,0.004879434,0.0011995839,0.071366794,0.015665552,0.071150534,0.006116188,0.021788498,0.055795856,-0.22253464,-0.047821157,0.0071704704,-0.03487241,-0.14565314,-0.09596671,0.046469513,-0.14511248,-0.020058393,0.04181986,-0.10796931,0.011313259,-0.006724428,-0.013489406,-0.102022074,0.03357483,0.026100243,-0.043009307,-0.06882571,0.02701936,-0.22491354,0.063310996,0.039522067,-0.017544337,-0.17787632,0.011822487,0.021006694,0.017024383,-0.18026598,-0.006500294,0.007010528,-0.054922715,-0.003028216,-0.12856229,-0.026150513,0.023064222,-0.038362935,-0.01566376,-0.043241266,-0.049612965,-0.06613956,-0.05332979,0.017804252,-0.015589091,-0.014477362,-0.0050318167,-0.0031008103,0.024026614,-0.009507769,-0.0062472513,0.06009972,0.04068595,-0.06398247,0.05747803,0.06587407,-0.024640553,0.015190859,-0.021056473,-0.04214613,-0.02988393,0.05399351,-0.012519392,0.03323571,-0.013788754,0.006604,0.029220212,-0.008985091,0.00034793373,0.05422581,-0.030746764,0.059568744,-0.031310923,-0.01426995,0.009101241,0.0052599697,0.00062794,-0.011523814,-0.0636838,0.017936995,0.0011013581,-0.0025221307,-0.04573021,-0.010611201,-0.0100304475,-0.06604,-0.073739134,-0.000876316,0.030514462,-0.025553167,-0.00518945,-0.07865065,0.034679297,-0.01636896,-0.012270498,-0.038230192,-0.022317538,-0.044070914,-0.06836302,0.14893845,-0.03603992,0.040088605,0.018899387,0.009980668,-0.026449187,0.030580835,-0.007433648,0.1035401,-0.02417595,0.030265568,-0.008852347,-0.009267171,0.017986774,-0.07891614,0.029502291,0.044635076,-0.049546592,-0.07811968,0.013614528,-0.011913748,0.06786523,-0.070155054,-0.0032459989,-0.041781086,-0.048020042,-0.006670372,0.017488984,0.01952992,-0.028191447,0.022765549,0.028523307,-0.030481277,-0.030846322,-0.055055458,0.17986774,0.013058663,-0.021189217,0.0038786056,-0.126903,-0.06700239,-0.01648511,-0.047920484,0.014601809,0.014162095,0.04997801,-0.01667593,-0.06428114,-0.09238963,-0.11269942,0.048020042,0.055486877,0.037135057,-0.016833562,0.025420422,-0.022367317,0.002750284,0.031825308,0.04964615,0.011922046,-0.016974604,0.019181468,-0.00481196,-0.0025532425,-0.0074543897,-0.01259406,-0.07765508,-0.0055669397,-0.04566384,0.00017474467,-0.051239077,-0.0130254775,0.00013015106,-0.026830824,0.0038039372,0.014170392,-0.018069739,0.027245648,-0.04320808,-0.02507197,-0.020160453,0.03759966,0.011050914,0.00028778423,-0.01651,0.024657145,0.0092920605,0.00934184,0.03391602,-0.025105156,-0.030199196,-2.9556219e-05,0.03391602,-0.0036234888,-0.04095144,-0.0014518844,0.018667085,0.047323138,-0.038528863,-0.04752225,0.0023271632,-0.026996754,-0.012652135,-0.031775527,-0.01653489,0.037201427,-0.032870665,0.03842931,-0.033252303,-0.081305526,-0.015688648,-0.06361743,-0.04470145,-0.11966846,-0.04068595,-0.0195797,-0.005276563,-0.0027253944,0.031194774,0.050276686,-0.022350725,-0.0031858492,-0.0026922086,-0.08070818,0.057278916,0.056051034,0.00806833,-0.020044303,0.06683646,-0.02780981,0.091128565,-0.038993467,-0.03144367,0.006844598,0.047820926,-0.04818597,-0.0025926507,0.011689744,0.03217376,-0.0006175694,0.005446641,0.02551998,0.003835049,-0.005658201,-0.054989085,-0.07652675,0.04957978,-0.00835041,-0.031144995,0.014004462,-0.05618378,0.0028456936,-0.0054258998,0.0046543265,0.02434188,-0.019928152,-0.045962512,0.015987322,-0.006185028,0.014701367,0.2790273,-0.013788754,0.020658242,-0.021338552,-0.0046335855,0.065044425,0.0129010305,-0.026930382,0.04018816,-0.045199238,0.08522147,-0.03238947,-0.14615084,-0.028971316,-0.028689237,-0.0012061012,0.022914885,0.02613392,-0.048451457,-0.0009468361,-0.008250852,-0.024026614,0.0151576735,-0.02585184,-0.033932615,0.008080774,-0.008835753,0.04745588,-0.02160404,-0.25407147,-0.013979573,-0.008669824,0.025088564,-0.0032356281,-0.007968771,0.034115136,-0.019546513,0.010362307,-0.00025563536,0.02742817,0.084889606,0.021355147,0.014726256,0.017555358,0.08356217,0.02726224,-0.0040984624,0.029452512,-0.0027440616,-3.111181e-05,0.012768286,-0.087544486,-0.019812,-0.010246156,0.033716906,-0.1316154,-0.023644974,-0.0032542953,0.0039802375,-0.025586352,0.032041017,-0.022184795,-0.032887258,-0.00849145,0.00094165077,-0.008221814,0.015746724,-0.042112947,-0.296284,-0.025951397,0.014485658,0.03212398,0.09703566,-0.012104568,-0.0186339,-0.05399351,0.036736824,-0.008454116,0.02926999,0.012370056,0.013448598,0.025752282,-0.005587681,0.028672643,-0.025553167,0.021952493,-0.005832427,-0.0006595704,0.21517757,-0.00457551,0.029800965,0.019430362,0.0023126446,-0.011233437,0.20893861,0.0011065434,-0.0008970572,-0.010528237,0.036471337,-0.01188886,-0.019762222,0.012552578,0.026233478,-0.06059751,-0.0021404924,-0.013888312,-0.022748955,-0.006346809,-0.020409347,-0.036770012,-0.007906548,0.007201347,-0.008669824,0.011805895,0.025022192,0.013896608,-0.10028788,-0.036006734,-0.008346261,-0.045033306,-0.014767739,0.02742817,0.00010733574,0.003559191,0.017671507,0.022251166,0.0065085907,0.041117366,0.027627287,-0.013830236,0.0053636758,0.010719055,0.015091302,0.0030406609,-0.024192544,0.009657105,-0.04370587,0.022367317,0.008520488,0.070022315,-0.024706924,-0.023761125,0.0022960515,0.02064165,0.012237311,0.052798815,-0.034281068,-0.001359586,0.13619506,0.008454116,-0.053362977,-0.0030344385,0.0062223617,-0.011756116,0.10599586,-0.013888312,0.023196965,-0.009018277,-0.0032024423,0.030232383,0.03995586,-0.17787659,0.034745667,-0.03710187,-0.011266624,-0.03441381,0.03905984,-0.0042063165,-0.120664045,0.0062513994,-0.013888312,-0.006189176,0.017372834,0.026333036,-0.013050367,0.012353462,-0.010594608,-0.035708062,0.023910463,-0.032920443,-0.046128444,-0.008342113,0.019662663,0.02047572,-0.020011116,0.02674786,0.05137182,0.05747803,-0.016028805,-0.023545418,0.018335227,-0.028739015,0.03280429,0.02495582,-0.003505264,0.013896608,-0.005529606,0.028257819,0.007914844,0.034612924,-0.009283764,-0.11137198,0.020608462,0.050774474,0.026648302,-0.033434823,-0.23004487,-0.008852347,0.05147138,0.007997809,-0.015265528,0.14163755,-0.04095144,0.0071764574,-0.06454664,0.015879467,0.012917623,-0.01660126,0.0019548587,0.008275742,0.015696945,0.041615155,0.055387318,0.0011843229,0.018700272,-0.010984543,-0.023246745,0.29946983,-0.061924946,0.009242281,-0.1257083,-0.04509968,0.039823115,-0.020060895,-0.044203658,-0.0039947564,0.02646578,-0.00027896924,-0.04606207,0.026150513,-0.0059983567,0.024474623,0.03333527,0.013788754,-0.0072096433,0.012112864,0.22898291,-0.4441605,-0.07174798,-0.028125076,0.048882876,0.055818733,-0.014908779,0.020956915,0.023628382,-0.04052002,-0.017422613,-0.06849576,-0.024690332,0.024142765,-0.023412673,0.05064173,-0.028241226,-0.0122041255,0.004745588,0.009723477,0.0042104647,-0.071615234,-0.0055793845,-0.51610756,0.009607327,0.03313615,0.020575278,-0.10665958,0.0015317381,0.014153799,-0.010976247,0.006139397,-0.008412633,0.14004724,-0.053019315,0.012577667,-0.035864532,0.0016882038,-0.011336202,0.0024500117,0.047200736,0.14636743,0.012282976,-0.07624348,-0.060894467,0.017217483,0.0028732382,0.05402252,0.04399048,0.0035645082,0.03719378,-0.05088751,0.014483754,-0.07408659,-0.10212614,0.0011184154,-0.023600368,0.03260412,-0.015098216,0.022772724,0.0215438,0.0755914,-0.04293712,-0.09465227,-0.027688423,0.018371169,-0.01088476,0.08888385,-0.008295241,-0.007517758,0.026509658,-0.09921685,0.090689614,-0.13603443,0.05111323,0.007699589,-0.12118701,-0.07338435,