#pragma once

#include "parameters.h"

#ifndef KERNEL25_H
#define KERNEL25_H

static float bias25[FEATURE_MAP25] = {1.8442945,0.21851215,-0.17050403,-0.28359175,-0.44164366,-0.28081554,-0.018465385,0.3305537,0.056694686,-0.0899006,-0.33627722,-0.072472446,-0.834714,-0.20136744,-0.11368041,1.1421816,1.2749312,-0.08538218,0.070316255,2.1495028,-0.06209846,0.0038811266,-1.8164271,-0.6797433,0.7666028,0.21415398,-0.07034638,0.57033575,0.39162904,-0.5178825,-0.11290951,0.26654574,-0.305268,0.4499725,-0.39043462,-0.68089485,0.11647396,-0.35975367,-1.1118425,-0.16648771,1.0673863,0.3611248,-0.9667798,-0.32660067,-0.15358905,0.48690695,0.5461137,-0.90951777,-0.7325211,-0.05923775,0.33366477,-0.31944376,1.0505407,-0.59203434,1.4433105,-0.22594422,-1.0302336,-0.12377136,-0.6935149,-0.34763098,0.19492625,-0.27670175,-0.5143843,1.1492419,0.8054492,0.61343926,-0.7534493,-0.3673308,-0.0026502237,-0.03286314,-0.8013294,-0.22200839,-0.06100695,-0.106834754,0.8236103,-0.32482225,0.095226765,-0.15871194,0.09371665,-0.505453,-0.29298434,-0.8168273,-0.27727985,-0.30535877,-0.42571133,1.4767032,0.05741158,-0.60592467,-0.4172954,1.1815615,-0.86373943,0.0068748593,-0.27174717,-0.12744409,-0.43515164,-0.20487493,-0.69405884,-0.33639693,1.4646084,-0.34283507,1.2569876,-0.25265372,0.75900775,-0.24603458,-0.10350877,-0.1806047,0.17276917,0.06114912,0.5632016,-0.90876627,-0.15009075,-1.4058425,0.22022429,-0.36537802,0.20000808,0.045084246,1.0323284,-0.5696474,-0.31312943,-0.48081115,-0.24545574,0.37697518,-0.50578594,-0.023711987,1.4241478,0.2395879,0.27382714,-0.3853921};

static float kernel25[FEATURE_MAP25][IN_CHANNEL25][KERNEL25][KERNEL25] = {-0.07272321,-0.05368383,-0.18581474,-0.1342397,-0.015107991,-0.09995676,-0.10351158,-0.3725935,-0.13255267,-0.06338427,-0.109295696,-0.13014261,0.3041481,-0.009384126,-0.26245427,-0.098510735,-0.12375599,0.092666365,-0.22232698,-0.19955201,-0.019099634,-0.053864583,-0.18557373,-0.17689756,-0.056606013,-0.05171222,0.04110371,0.229635,0.08923428,-0.03211547,0.18720096,0.023519509,0.48655877,0.19224939,0.1975707,0.08752873,0.18433565,0.39404985,0.024048228,0.16768949,-0.049529117,-0.24177851,-0.59816986,-0.30044937,-0.040864933,-0.07947854,-0.14149228,-0.736251,-0.28107435,-0.023076067,0.0059311665,0.03761495,0.1368044,0.009630805,-0.002989073,-0.00087841944,0.045350913,0.23013708,0.24617277,0.01619228,0.12089401,0.35729504,-0.0769838,0.20157354,0.096840486,0.053932507,0.108992524,0.574779,0.3049285,0.024585957,0.020639677,0.099533975,0.25556868,0.218862,-0.03310491,-0.09470613,0.18958946,0.40504813,-0.19082975,0.023255715,-0.17568032,0.11667725,1.0723321,-0.04194888,-0.1264225,-0.3873295,-0.2735758,-0.03129555,-0.01205975,-0.22343205,0.001823082,-0.07060878,-0.22821608,-0.10232515,0.19100694,-0.14573582,-0.09040936,0.12589094,0.062103834,-0.06188235,-0.13516471,0.111562945,-0.36751312,0.052211456,-0.052310623,0.052161872,-0.24157096,-0.8568034,-0.23958762,-0.10020831,-0.29174948,-0.07298695,-0.04675727,-0.05166604,-0.2655694,-0.07640822,-0.01908966,1.1900047,0.2947245,-0.07214404,0.05364938,0.05166604,0.1372472,-0.1415114,0.16074981,-0.20164993,-0.08076919,-0.16759484,-0.26787373,-0.174942,0.20472781,-0.14515619,-1.0985007,-0.7819768,0.050635878,-0.035469938,-0.17027555,-0.18645918,0.34452254,-0.11765395,-0.06989737,0.31473672,0.89834005,0.47180724,0.0835492,0.04276746,0.019931672,0.43646142,-0.025938477,0.09149209,-0.022086151,-0.0071664504,-0.17668921,-0.43987522,-0.05962886,-0.10122923,-0.21454404,-0.66760355,0.18537883,0.15571423,0.06976677,-0.12395212,0.073012896,1.2281348,0.12734807,0.032636065,-0.074261405,0.017991036,-0.06951706,-0.23831569,-0.11356451,0.1193576,0.1496215,-0.23851544,-0.15241817,-0.17429967,0.17328434,0.20662126,0.07560037,0.056901228,-0.16321556,0.12107904,0.8488225,0.15695432,0.081015505,0.059524186,-0.15136996,-0.22929715,-0.12903252,0.08308849,-0.009545234,-0.38345927,-0.5564052,-0.4968387,0.014722399,-0.004992078,-0.20679049,-0.018001094,-0.2946172,-0.029529411,-0.053648163,0.04337429,-0.24286512,0.17257018,-0.035862003,0.009148963,0.029585669,-0.30713478,0.26403084,-0.018027559,-0.08280897,-0.5092134,-0.23390445,0.7885392,0.057471897,-0.07392555,-0.41898867,-0.13224716,0.684101,-0.16376401,-0.04198384,-0.19759828,-0.24255612,0.12529492,0.12753509,0.44073138,-0.19042557,0.31726864,-0.23597963,-0.02021159,0.32998514,0.42656618,0.3129225,-0.22937992,-0.055574328,0.44684818,-0.11879466,0.13513294,-0.07971958,-0.18044554,-0.3332045,0.035574008,-0.40113318,-0.18398684,0.1297405,-0.1455959,-0.07549416,-0.17674327,0.19219624,-0.1567832,0.07780752,0.06178299,0.032434933,-0.08007729,-0.05905927,-0.075810134,-0.104863115,-0.22606854,0.3980259,0.101322286,-0.10241177,-0.14698994,0.29543254,1.1810038,0.32975137,-0.14317673,-0.13173713,-0.11385138,0.20591304,0.17649688,0.06691266,-0.109765805,-0.2120868,0.1396359,-0.069364004,0.017752962,-0.17432451,-0.21428429,-0.029720081,0.065226,0.15617612,0.70196,0.011415591,-0.3015298,-0.1495994,0.30119678,0.8198413,-0.2657325,-0.15384513,-0.031842943,-0.063311264,-0.33965808,-0.058316294,-0.08216728,0.020916443,0.0013150824,0.006748415,0.0030177953,-0.0331125,-0.1933054,-0.03368588,0.3385863,0.5620072,-0.017130855,0.06538255,-0.201016,-0.12312229,0.7085814,-0.16133627,0.124378644,-0.07375821,-0.048788257,-0.038606588,0.23493744,0.5385553,-0.12071429,-0.4698749,-0.11265271,-0.07941178,-0.45521745,0.103334785,-0.11275741,-0.17986743,0.30675876,-0.15704374,-0.23211043,0.16298006,0.33894825,0.22394046,-0.02358026,0.034774665,-0.19995433,1.0021807,0.94687647,-0.25515386,-0.037314683,-0.5446634,0.17502551,0.17607293,-0.491454,0.08169951,-0.46003112,-0.5748294,-0.35654506,0.025229963,-0.10537142,0.16779824,-0.2991459,-0.2723317,-0.13710855,-0.0064919624,0.058470152,0.17329526,-0.17797892,0.113163166,-0.11127459,0.10931048,-0.16151057,0.19338965,-0.12948042,0.19958417,0.03701599,-0.66659,0.55388004,0.10734636,0.042341758,0.37257725,0.23901753,0.38436192,0.26001844,0.15863995,-0.12230385,0.069726035,0.024079278,0.04207736,0.13205297,0.12559462,-0.31989524,-0.1255259,-0.051014222,-0.15472597,0.15376408,-0.2098282,-0.20625548,-0.23291342,-0.054105993,-0.26946503,-0.10168491,-0.2726255,-0.048162922,-0.029612295,-0.08052346,-0.30175686,-0.06437755,-0.121334836,0.014711677,-0.013526498,-0.3146736,-0.18756744,-0.09337149,-0.032175273,-0.10850448,0.19207662,-0.2635308,-0.19346948,-0.10780805,0.17146216,0.31172407,-0.17090501,-0.14374407,0.085243575,0.26603794,0.09708296,-0.26910228,-0.3560173,-0.035309225,0.0013536945,0.11741885,0.24653779,0.063619286,-0.24876638,-0.14318693,-0.5214901,-0.30225253,-0.3131169,-0.0647167,-0.10072902,-0.00010918353,-0.018655963,0.077750444,-0.028968068,0.15881583,0.08581178,-0.13048816,-0.010726472,-0.48126924,-0.57378626,-0.42401114,0.71542466,0.44359943,-0.17750005,-0.49272084,-0.2320459,0.75701207,0.16393892,-0.05725808,-0.017233929,-0.020906733,0.07473686,-0.017959073,-0.12634803,-0.38589054,-0.7788943,-0.3432114,-0.17729625,-0.3037332,-0.35370335,-0.5085931,0.009619478,-0.1961462,-0.03309856,0.30515584,1.0029597,0.32720673,-0.07242116,-0.32489493,0.44208476,0.41469896,0.14679845,0.009241589,-0.034610115,-0.15586777,0.17836323,-0.13666216,0.057261176,-0.06458518,-0.027697396,-0.15320674,-0.19532092,-0.070240796,-0.1509849,-0.15825641,-0.078623235,-0.11119355,-0.17825307,0.03299954,-0.018582756,0.06852391,-0.14159252,-0.074936986,-0.01889836,-0.13290711,-0.20592521,0.015805442,-0.14856106,-0.1179601,-0.123918705,-0.23470828,0.040801268,-0.1150313,-0.1640287,-0.16483553,-0.5328311,0.06382032,-0.0054309797,-0.1658844,-0.0073018186,-0.44375694,-0.36823758,-0.24898799,-0.061157774,-0.24640612,0.10529142,-0.23769236,0.1415988,0.112068795,0.29110456,0.7674574,-0.12433262,0.06313451,-0.07785917,-0.1897666,0.2783566,0.04032137,0.068217546,-0.042855054,0.10278708,0.44725388,0.15271688,-0.15385534,-0.20980273,-0.3160052,0.8008284,-0.04157428,-0.05428036,0.050011117,0.6290829,-0.04883199,-0.026509957,0.0069934246,0.13783552,0.48466057,-0.50938153,0.04468473,-0.06753534,0.0572485,0.15442456,0.052166067,0.07546393,0.012136844,0.101246506,-0.13413763,0.0973309,0.1280964,0.022179138,-0.013473896,0.08603156,0.22374919,0.096659645,0.0024892096,0.096379966,0.18548808,-0.108518355,0.071543805,0.22520356,0.06723663,0.15259695,0.47121578,0.35643247,0.1307814,0.04617624,0.044022653,0.09084217,0.081165016,-0.07355755,0.029752934,0.30915692,-0.5267855,0.14612204,0.13853613,-0.06448024,-0.086305276,-0.4685854,-0.43326738,0.117892504,0.038924426,-0.26040813,0.09874119,0.22322473,0.30592358,0.23168115,0.5516573,0.6909396,0.34820572,0.5979189,-0.10670018,0.2111619,-0.817786,-0.34770828,-0.089600794,-0.108405665,0.17417896,0.14290969,0.121842325,-0.00068621844,-0.3636193,-0.15012567,0.47177613,-0.07373576,-0.19176273,-0.080827326,-0.14564678,-0.07431635,-0.12665299,-0.4127212,-0.26558143,-0.40774465,0.14324145,-0.26110256,0.043337382,-0.084850036,0.04203104,-0.2410305,-0.099199064,-0.3689276,0.030969337,-0.028263517,-0.056084264,-0.032519035,0.015693754,-0.04895074,0.23024066,0.09062036,0.26034907,0.09839345,0.04154663,0.33965418,-0.2355539,0.24283502,0.13420866,-0.06287341,0.052886475,0.40124846,0.2930157,-0.036233384,-0.07896074,0.07148284,-0.08643864,0.008646324,-0.04228458,0.01894332,0.011101667,-0.24374326,-0.14957292,-0.004484721,0.24205157,0.39669955,-0.33438924,-0.11249688,-0.09367692,0.17297454,0.38936892,-0.5120159,0.051913507,0.012890268,0.11630317,0.42404842,-0.3544075,-0.024423666,-0.041692924,0.15958205,0.19933659,0.00718084,-0.04993988,0.10220582,-0.31862462,-0.13804834,-0.26353922,-0.14533167,-0.040811744,0.02555443,-0.20761667,-0.1654236,-0.14842917,-0.12900697,-0.18601784,0.14918262,-0.081916496,1.006606,0.06944275,-0.023189442,-0.012735357,0.5223903,0.5615696,-0.059396785,-0.11259855,-0.3253219,-0.5732899,-0.30807635,-0.37203568,0.05315029,0.11341224,0.29195228,0.036306888,0.07560816,0.16749828,0.37336206,0.6613842,0.29906395,0.0057957675,-0.4630064,-0.6351834,-0.55920094,-0.7332494,-0.21615699,0.034762908,-0.24460362,-0.3937613,-0.06330312,-0.052074183,0.16731112,0.10171543,0.22289436,0.109014235,-0.028540209,-0.10491888,-0.06175973,-0.1444451,-0.42955709,0.2400637,-0.7422793,-0.87422717,-0.049298797,-0.3784055,0.083339304,0.6074251,0.99745595,0.15171096,0.4193849,0.15926744,0.14618891,0.5545297,0.36939585,-0.024213446,0.45978302,0.20882055,0.13318305,-0.17234598,0.016538892,-0.25837365,-0.050819106,0.15769875,0.2504949,-0.1694578,0.14776282,0.12907597,0.38576946,0.1875977,-0.02431569,-0.043389946,0.28531626,0.50828224,-0.4667154,-0.5028129,-0.49223888,0.14202003,0.5381812,-0.3133921,-0.4871342,0.11704347,0.111300685,0.24940103,-0.3748308,0.24265555,-0.028964613,-0.1386274,0.12838903,-0.4021628,0.39622453,0.15388255,-0.075251944,-0.38107178,-0.7228282,-0.24551588,0.42796347,0.14558949,0.16094702,-0.58972955,0.19626936,0.21234359,-0.017993918,0.04527915,-0.3601855,0.123577006,0.35301867,0.29302186,0.065883845,-0.51724195,0.24490157,0.18848822,-0.08541491,-0.14403544,0.23322421,-0.09453505,0.036732186,-0.10252305,-0.018130226,-0.2203931,0.024608677,0.005550711,0.19523408,0.22165106,0.06868415,0.20982632,0.10497605,0.052771065,-0.016856551,0.67476517,0.44707596,0.160892,-0.15183474,-0.11290115,0.22756343,0.1167379,-0.075728685,-0.03856136,-0.033830367,0.09649727,0.06758564,-0.01680254,-0.06210369,0.030676369,0.47430098,0.23639953,0.018266896,0.028385967,0.1192511,0.47189793,-0.22768849,-0.13111614,0.05496965,-0.005866809,-0.8164345,-0.38989404,-0.09364365,-0.13817509,-0.18233103,-0.3652628,-0.015338184,-0.0055382675,0.06976129,0.1784233,-0.15820263,-0.27519363,-0.06643933,-0.28713346,-0.059795395,0.2503511,0.27846745,-0.08738216,-0.4279078,-0.574652,-0.7221666,1.1708728,0.39112544,-0.18160082,-0.21684256,-0.03406219,0.11785759,0.10351054,-0.056088272,-0.3316189,0.17370515,0.059265807,-0.055606827,-0.084564954,0.067992836,0.32172397,0.116403736,-0.018620972,0.10479962,-0.13968448,1.0083972,0.28705668,-0.029934978,0.11814435,-0.2732768,-0.13264948,-0.24528189,0.040324286,0.037894674,-0.092107624,0.24223581,0.127065,-0.06287977,-0.04815706,-0.045219768,0.32752603,0.025764752,0.03341621,-0.00981151,-0.060886383,0.03261569,-0.012661152,0.088479936,-0.07945137,0.0022254002,-0.14603703,-0.044437468,-0.02061052,0.06889924,-0.06590852,-0.104900636,0.57331383,0.106480636,0.11122063,-0.10986634,0.52004534,0.54126245,0.050870318,-0.023925696,-0.008732315,0.055271745,0.18452129,0.106762774,0.036170207,0.0018151308,-0.5949657,-0.11431462,-0.07256109,-0.091804795,0.08121193,-0.45867085,-0.40853134,-0.093481995,-0.11616837,-0.10875337,-0.76339215,0.020203674,-0.11872831,0.008661871,0.38310847,0.744325,0.43571967,0.10425141,0.051551923,0.20320638,0.53670496,0.23074782,-0.016507208,0.16493778,0.7064539,1.0546559,0.4037724,0.2539096,-0.04877192,0.74015087,-0.72655386,-0.16035616,0.109293446,-0.1854811,-0.5075236,-0.42594147,0.08003029,-0.26558527,-0.028173175,-0.092666656,-0.32514614,-0.022538539,0.021411613,0.009828282,-0.117200404,0.12821104,-0.10899786,-0.077074416,0.12368144,-0.036821015,0.19829917,0.10323823,0.023637466,0.26557595,0.00872902,0.80063057,0.3525525,0.06932108,0.026041867,-0.077916525,-0.6571564,0.196069,0.069925085,-0.21223773,0.10955704,0.19002897,-0.43674138,-0.2494072,-0.14059356,-0.20220196,0.064024426,0.027087258,-0.08423533,0.11509019,-0.2392377,-0.28561732,-0.18083371,0.11430939,-0.05848206,-0.13390751,-0.2568838,-0.2723437,-0.077767864,-0.052352764,-0.24501562,-0.34199122,-0.4909682,-0.22049844,-0.09744407,-0.064142875,-0.22362165,-0.117198355,-0.091197655,0.11790108,-0.09541399,-0.32575053,-0.005582733,0.08971413,-0.09807341,-0.09742819,0.051438354,-0.16259539,-0.135066,-0.21808429,-0.334654,-0.0068644215,-0.37508777,-0.15556966,0.039394252,0.23629382,0.45882297,-0.08868188,0.07269476,-0.06423521,-0.19055492,0.6933962,-0.05903761,-0.2372975,-0.14825717,-0.033963654,0.3819701,-0.101729654,-0.17750713,-0.00041830292,0.03430149,0.05516528,-0.027145812,0.112327494,0.07704834,0.062986605,0.022132676,0.12688847,-0.10225962,0.24628843,0.848031,-0.3180116,-0.7435248,-0.11873432,0.36909983,0.4822594,-0.26509288,-0.48592043,-0.0839544,-0.043807723,0.07297127,0.1963651,-0.106586315,0.057162214,-0.06198746,-0.024528695,0.073846884,-0.18184452,0.019065674,-0.12924577,0.016636139,-0.6887252,-0.8894569,-0.25937003,-0.10788783,-0.029785825,0.15988262,1.17013,-0.092404686,0.12397492,0.10398959,-0.02318353,0.60878384,0.20644185,0.025626792,0.010926045,-0.1145313,-0.009580879,-0.04776713,0.21690619,0.07796192,0.03837294,-0.009458119,0.18105543,0.3003178,0.56136185,0.21906805,0.0532357,0.39778146,0.3006781,0.23366058,-0.53830206,-0.8056516,-0.1366473,-0.19853042,0.1473665,-0.11601959,-0.20951985,-0.12772964,0.29094976,-0.06598164,-0.064720556,0.016619267,-0.005475012,-0.08105641,-0.10361416,-0.43364757,0.10799104,-0.0721764,0.17743188,0.09250362,-0.35587382,-0.1929193,-0.242075,-0.07272351,0.20604993,0.39021546,-0.6511447,-0.23567802,0.09528126,0.13669325,0.17440173,-0.41176316,-0.012709779,0.15394825,0.1293704,-0.20402983,-0.23550968,-0.14351109,-0.015948793,-0.0031178354,0.05561129,-0.01798778,-0.0205016,-0.0303055,0.0029083502,0.18289438,0.05664475,0.04393599,0.050471924,0.025221996,-0.68644047,0.3543928,0.10317835,-0.037791096,0.17093977,0.36131975,0.4086913,0.12993658,-0.037204538,-0.033126563,0.16367762,0.20859121,0.0069514113,-0.15673184,0.11019175,-0.17657132,0.11523428,-0.08473109,-0.17541401,0.062329013,0.105314545,-0.29031762,0.12474069,-0.33743638,-0.3501667,-0.1696275,0.027630601,-0.5564973,0.57633674,0.10175997,0.39315224,0.15838513,0.5743528,-0.16177438,-0.013525975,0.16036908,0.105066545,-0.13143651,0.07493567,-0.11925967,0.1377944,-0.12689163,-0.018356513,-0.13812988,0.019803228,-0.36364976,0.09896372,-0.028284336,-0.5333977,-0.9688381,0.12060156,0.73132515,0.32959953,-0.29722664,-0.30980676,0.28632385,0.6122332,0.19457275,0.0041435817,-0.08328049,0.1212725,-0.08340629,0.028053699,-0.03517301,-0.09755484,-0.07776186,0.004527187,-0.03932484,-0.09964381,0.07295723,0.32525244,0.10042717,-0.05655883,0.040761,0.25151184,-0.101053864,0.16179062,0.0008143714,0.12220467,0.47879165,0.3553336,0.22581752,0.08956453,-0.04520006,0.17233992,-0.0044325306,0.020262998,0.036478616,-0.053401634,-0.13335575,0.15011793,-0.17770877,-0.10613575,-0.42365298,-0.48298812,0.013749067,0.0037200358,0.03179993,0.29712075,-0.14166267,-0.062301908,0.30335096,0.09226616,0.121711224,0.33643028,-0.006698382,0.4892183,0.09797716,0.014156995,0.11266261,0.23912065,0.054996267,0.05247452,0.033245977,0.102025725,0.00094842917,-0.044392873,0.04130192,0.017292289,-0.022853568,0.29751015,0.014846301,0.12013335,0.098423675,0.16793357,-0.07515635,0.34969124,0.15225977,0.11380541,0.0154425865,0.34423947,0.13785155,0.11779688,0.064204164,0.07710341,0.15255183,0.051402275,-0.007855154,-0.036090724,0.026524778,-0.32080644,-0.07894706,0.0053458405,-0.123662814,-0.21434888,-0.13647716,-0.20269948,-0.10090169,-0.6050517,-0.39249504,0.17599548,-0.05309436,-0.5613217,0.11828617,-0.24768408,0.041041717,0.024127692,0.07737887,-0.11290953,-0.10986277,-0.34500134,-0.11308875,-0.2930271,-0.07694858,-0.43082976,-0.48802683,-0.15245695,-0.019957252,-0.3728097,-0.28763133,0.31417242,-0.155646,-0.18414167,0.3452399,-0.46827534,0.13682035,-0.14988513,-0.12509288,0.30429667,-0.13599735,0.33392394,0.70405895,0.23784107,0.13198534,-0.14114098,0.39132676,0.3172586,0.14618173,-0.15315634,-0.070841044,-0.35121194,-0.085059136,-0.14218096,-0.16063954,0.014748157,-0.021030935,-0.12409654,-0.15141025,-0.27089214,-0.08081865,0.30606323,0.5163414,-0.19169486,-0.18109365,-0.29009905,0.73235667,0.21751194,-0.23721771,-0.20329383,-0.19967695,-0.19443871,-0.26889664,-0.14891586,0.04245525,-0.12584239,-0.55741554,-0.032454092,0.043415625,0.060834862,-0.18796879,-0.57225174,-0.21353467,-0.09583892,-0.006768168,0.23671617,-0.119285345,0.27923766,0.16770154,0.06557051,-0.011714933,0.83188444,0.018512078,-0.07027304,-0.117894456,0.04791946,0.5197953,0.11358932,0.01813124,-0.01640146,0.22759998,0.5581251,0.17269075,-0.22011237,-0.13667884,0.5296008,0.81104034,-0.3453815,-0.11902944,-0.21583372,0.42120853,0.5124862,-0.488716,-0.30259508,-0.20145273,-0.012769072,-0.10756031,-0.38911873,0.079214305,0.116177015,-0.058742188,-0.12586339,0.055889763,0.011216579,-0.1251141,-0.28502217,-0.44024298,-0.25527602,-0.05611205,-0.006084439,-0.1805501,-0.7030907,-0.14909129,-0.06629785,0.19794708,0.41211933,0.36398467,0.3556918,0.3059346,-0.1463871,0.29583895,0.7982784,-0.018039236,0.04926142,-0.21669617,-0.04443894,0.1330464,-0.017464593,-0.22859463,-0.10972606,-0.09858882,-0.32114,-0.06503182,-0.019102793,-0.036123406,0.101397336,-0.545047,-0.21809627,-0.1692861,0.36627004,0.5446596,0.6597122,-0.3759546,-0.2744604,-0.20724957,-0.09166435,0.8553403,0.15688986,-0.08929164,-0.109048136,-0.29809073,0.2483121,0.0069244597,-0.22138903,-0.052771643,0.25912696,-0.042922452,-0.04173964,0.039578732,0.29897866,-0.123467445,-0.33937624,-0.10945566,-0.41016304,0.33992216,0.0095193675,-0.14885242,-0.5579236,0.26404017,0.5200736,0.51243085,-0.014637306,-0.6878511,-0.06519117,0.24766277,0.31444618,-0.07415325,-0.13675134,0.16759545,0.12192092,-0.11317822,0.05694677,0.120251864,0.054165,-0.07045821,0.060324628,0.6339252,0.4412679,-0.0018218098,0.00045452104,-0.024141774,-0.23843727,0.7814384,0.5150245,-0.019452507,-0.042998187,-0.12549749,0.20028731,0.11429093,0.03600403,-0.14020112,0.20235376,0.107694164,-0.03320239,-0.2848478,-0.31966767,-0.18729089,0.049622115,-0.03464728,-0.27917233,0.043908287,0.17962132,0.24527283,0.03710154,-0.012271311,-0.35157305,-0.65283376,-0.20585124,-0.035989456,0.010526484,0.14971,0.6101909,0.12984581,-0.0091219945,0.11473676,0.23775665,0.44268754,0.07753935,0.057828553,-0.25783327,-0.08412438,0.17675301,0.12089558,0.024244348,0.069386914,-0.1234082,0.3564052,0.28083336,-0.22536251,0.27561486,0.7595837,0.43332997,-0.26981652,0.0076707327,0.4580696,0.44106108,-0.2591862,-0.0024431585,-0.058225088,-0.07987226,0.0614625,-0.23367347,-0.29281664,-0.1118115,-0.021117417,-0.06857755,-0.38025767,-0.09578515,-0.04843312,0.04875745,-0.097154535,-0.27070656,-0.17802055,0.020594887,-0.03201847,-0.21881393,-0.25038195,-0.13585779,-0.20584077,-0.19084956,-0.10270416,-0.3038602,-0.20180467,-0.06064951,-0.11286647,-0.103641115,-0.13492084,-0.065190114,-0.11798366,0.060463157,-0.10511649,0.1425707,0.17117895,0.18840037,-0.05312288,0.32240742,0.47316536,0.21587935,0.16045086,-0.48332882,-0.39336342,-0.17315519,-0.20063417,-0.31356147,-0.1797426,-0.532264,-0.4407929,-0.34875712,-0.35816774,-0.00360838,0.013480696,-0.1409709,0.056416593,0.024020577,-0.04933546,0.054864436,-0.12582506,0.063959435,-0.06461375,-0.039324418,-0.123338655,0.06556251,0.11208441,0.022263117,0.033566434,-0.112477,-0.45645118,0.27010185,0.0361837,0.014992026,-0.018042777,0.55329,0.6092995,-0.01355253,-0.12039423,0.03500593,0.33396313,0.20689486,-0.06405758,0.20685281,0.030966971,0.21229136,0.04228949,-0.0945653,-0.16325057,-0.06254344,0.33343998,0.44221115,0.09967567,0.23292038,-0.26086333,-1.5633047,0.04843131,0.810908,0.028247692,0.24117199,0.019023238,0.088611014,-0.021801123,0.015495207,-0.047001347,0.30962282,-0.0023222298,-0.110927865,0.09256544,0.018760335,-0.1584977,0.051748157,-0.037043527,-0.17437351,-0.17281196,-0.49865618,0.51531273,0.22312869,-0.4840817,-0.64856535,-0.3924705,1.1583259,0.32324165,-0.20560458,0.034332495,0.28003865,-0.0051563806,0.22521076,-0.0017784362,0.029994845,-0.025722262,0.008561435,0.024420965,0.060359035,-0.27695513,-0.008248584,-0.482408,-0.029744236,-0.2667405,-0.57851815,-0.38002977,-0.09674857,0.14811179,-0.57666093,-0.4441032,0.19976519,0.6175194,0.3254745,-0.18409505,0.05182752,0.57155365,0.4454961,0.524195,-0.16099612,-0.37213668,0.00929326,-0.112476744,-0.028090166,0.0007876708,0.08301667,-0.12107526,-0.030843772,-0.09555449,0.15460835,0.32791215,-0.2636651,-0.3086232,-0.19926968,0.5127893,0.6837191,-0.21989402,-0.6878736,-0.41219002,0.15193757,0.1562405,-0.17909048,-0.23636383,-0.060611814,-0.0012078778,0.14333174,-0.09065806,-0.05949899,0.010534734,0.2404376,-0.15832417,0.7198699,0.87097967,-0.1382549,-0.13497561,0.22548404,0.24607798,0.5073719,0.37095338,-0.22036834,0.41030487,0.3323889,0.07621072,0.25171837,0.29671022,0.14678106,-0.50789654,-0.7440055,0.31376255,-0.094771504,-0.6096858,-0.9213495,-0.52048904,-0.33343828,-0.022409666,-0.11378063,0.1377902,0.19137038,0.020313242,-0.02056702,-0.090742044,-0.109455384,0.7520644,-0.34513754,-0.081561916,0.028908579,-0.19754931,0.9166006,0.50985026,0.038397655,-0.1781298,-0.25174737,-0.07829591,0.2660472,0.054595284,-0.07798696,-0.3034739,0.19631353,0.24980544,-0.042815506,0.04976845,-0.16327779,-0.05732022,0.048171606,-0.049602114,-0.08789322,-0.17139511,-0.16567306,-0.084832594,-0.0763826,-0.09541171,-0.43727043,0.019045748,0.018047718,-0.029075954,0.10885186,0.99696594,0.3747272,-0.05079975,-0.03918933,-0.0047032186,0.46574757,0.043314524,-0.010762095,-0.162136,0.005878414,-0.4328874,-0.064539574,-0.16685842,0.031370282,-0.4308635,-0.5401535,-0.006876304,-0.20958497,0.08573419,0.1606743,-0.93818504,-0.2581583,-0.024089903,-0.12997866,0.36160153,1.1630616,0.011946567,-0.43536103,0.00897398,0.08938844,0.6822755,0.35867813,0.10805319,0.033910424,-0.04512395,-0.04836208,-0.06991964,0.019473758,-0.03939726,-0.0029214385,-0.4725272,-0.230387,0.037088588,0.055647876,0.17030169,-0.19248888,0.4190381,0.10110164,0.052199867,0.2463378,0.5799852,0.36938676,0.06728116,0.023536412,-0.037118573,0.2712834,0.108957104,0.06050507,0.07985421,-0.13117413,-0.3373945,0.05753893,0.10765686,0.41599447,0.3468014,-0.6212741,-0.33509502,-0.047348112,0.0021900462,0.13828157,0.13598211,-0.14173077,0.011379748,0.5058827,0.97079307,0.12187174,-0.7768017,-0.9289846,0.09945194,0.04909884,0.07112669,-0.19179644,0.029814677,-0.3030689,-0.22024643,0.11830322,0.4077729,0.21922393,0.38773188,-0.42167887,-0.38445988,0.7468338,0.1667697,-0.3537849,0.04478549,-0.39448038,0.23394793,0.3552164,0.12362021,0.13773072,-0.6499008,-0.54519683,-0.11871222,0.11799647,0.13077772,-0.21901944,-0.27443892,-0.07157498,0.010036444,0.26877204,0.5146217,0.036650732,0.11996503,0.0048686597,0.11889448,0.3219219,0.28967935,0.044113126,-0.271291,-0.22897263,-0.25995573,-0.09162684,-0.037721287,0.0020702626,-0.14005366,-0.21448866,-0.14509156,0.027818663,-0.058974937,-0.061777268,-0.23325485,0.013696795,0.044931784,-0.098582834,-0.095259815,-0.1011674,0.15082803,-0.11132106,-0.0031326355,-0.14473584,-0.29242548,-0.055245154,-0.263626,0.14805886,-0.014976652,-0.71703315,-0.14002824,0.1579356,0.1487973,0.39913124,0.8063854,0.46226856,0.04179155,0.10984416,0.1456589,0.4966064,-0.19568877,0.24922626,-0.15271227,0.009420305,-0.25709084,0.014060898,-0.033905145,0.056959055,-0.14388819,-0.23149306,-0.28793538,-0.13872094,-0.13029434,-0.17409676,-0.38539776,-0.29429507,0.03495847,0.18204638,0.42005813,0.45153865,0.41687828,0.2834836,0.08569694,0.08537896,0.08983075,0.18792911,0.05878747,-0.20437317,0.019210672,-0.098374866,0.06954365,-0.22205307,0.05194485,-0.17517701,-0.16982438,-0.13219376,-0.022485103,-0.12781434,0.29974732,-0.37241334,0.024715366,0.16341744,0.09942917,0.3334851,0.7123865,0.419776,-0.039455377,0.070597954,0.26487413,0.30250475,0.026641503,0.0060419845,-0.029581899,-0.079719596,0.20107786,0.054947227,-0.015886271,-0.09652001,-0.031838425,-0.15087427,0.21754885,0.022449961,0.23942232,0.109565035,-0.010928502,0.082354955,0.11371572,0.1367751,0.12669486,0.7452794,0.12998906,0.0025035907,0.047864698,0.026221817,0.27275962,0.17801847,-0.124586575,-0.10865746,-0.032896295,0.28709492,0.061846692,-0.03972892,0.042823333,0.018535318,0.6795245,0.4233321,0.1388124,-0.02361306,-0.18973519,0.10101488,-0.016468914,0.029843418,0.20036833,0.020591335,-0.64629585,-0.22711734,0.052127335,0.14030768,-0.10790981,-0.51770127,-0.37049866,-0.07277059,-0.05613941,-0.2522194,-0.14149462,-0.20031473,-0.108005226,-0.25812474,-0.47739863,-0.83731246,-0.23901013,0.03401388,0.25874633,0.40591317,0.06989259,0.5476409,0.37638655,0.050117534,-0.07152432,0.37514335,0.0389285,-0.13908587,-0.08057656,0.15804505,0.3095632,0.103964746,-0.14436957,-0.00053810846,-0.02821691,-0.07174002,0.20234044,-0.014334003,0.056060497,0.011876301,0.2080647,0.3514203,-0.01017302,0.21266901,0.04451863,0.1485821,0.46739894,0.264063,-0.12755163,-0.29392874,-0.5450499,-0.11653864,0.03291454,-0.0404432,-0.1351425,-0.2877067,0.025401441,0.05058511,-0.16427858,0.001468837,-0.22499694,-0.10864578,0.024560882,0.00090116763,-0.29819798,-0.2593629,-0.18862757,-0.078633346,-0.19494598,-0.16643609,0.6133478,0.0058320053,-0.2861776,0.017462306,-0.2573595,-0.4382817,-0.24441448,-0.23994537,-0.06846225,0.0080473,-0.16566555,-0.23193178,0.0026077877,0.07140363,0.099417895,0.30287778,0.122153,0.060498487,0.03560548,0.24399772,0.7602001,0.56198084,-0.030653851,0.17802739,0.1385685,-0.6412069,-0.53392804,-0.02051939,0.07807002,-0.04469952,-0.62918425,-0.5897254,-0.022118555,-0.014980119,-0.09725999,-0.19806512,-0.19282448,-0.01860232,-0.0083088055,0.10057476,0.07677966,0.079776525,-0.021382626,0.041116975,-0.023705196,0.23555352,0.22788155,0.00044414462,0.14444885,0.16926289,0.1555972,0.51162463,0.043544438,0.12562855,0.18101059,0.106029056,0.22512443,0.096558966,-0.16099155,0.06724963,-0.12850554,0.10680824,-0.107287735,-0.05028819,0.14279145,0.22686931,-0.14396572,-0.039778456,0.06153184,0.06887104,0.22499049,-0.15171592,-0.109970555,-0.022046953,-0.044181976,-0.2588095,0.13997321,-0.05853745,0.21982369,0.35744834,0.2552867,0.18987976,0.088246524,0.06311711,0.13703752,0.36496368,0.013416056,-0.03105949,0.023200067,-0.089029774,-0.17036466,-0.08802944,-0.006098193,0.014485613,0.028701907,-0.13750753,-0.038705252,-0.008464369,0.059596855,0.21638006,-0.24669789,-0.019564236,-0.06983104,-0.09864838,-0.24177316,-0.42906657,-0.45799932,-0.3170291,0.20345266,-0.2643961,-0.37581798,-0.08164269,-0.1199632,0.030045502,0.04348999,0.61316204,-0.07112718,-0.03261749,-0.021639775,0.24915554,0.17648518,0.6812496,0.012158491,0.15647043,-0.3636324,-0.407403,0.25551537,0.49157715,-0.13318224,-0.16909656,-0.69396925,-0.49606642,0.37504268,-0.058080178,-0.015583912,-0.2622493,-0.10175722,0.06869548,-0.011649505,-0.03718281,-0.1937081,0.43230993,0.13767408,0.15696175,-0.22546625,0.25805578,0.7495589,0.089787446,-0.008776099,0.0347095,-0.46855745,0.46589708,-0.09610582,-0.043563537,-0.021511575,0.472548,-0.17425415,-0.14789988,0.08338594,-0.0028630141,0.32356736,-0.008053851,-0.07631933,0.00908618,0.20430236,0.36383316,0.11044935,0.15412734,0.06908713,0.35071045,0.05628607,0.13418598,0.077449635,0.12157791,-0.18526158,-0.39651126,-0.026357962,0.17921485,0.13187023,-0.26708543,-0.5393171,-0.16583484,-0.041233566,0.05477439,-0.160946,-0.12280013,-0.09989973,0.15194023,-0.09760804,0.28118187,0.29415044,-0.22125143,-0.050130345,0.262908,0.4641171,0.53013885,0.4499696,0.306333,-0.25504827,0.27823448,-0.10060456,-0.496342,-0.36724594,-0.32342792,-0.3538844,-0.5717954,-0.06616911,-0.027582744,0.09903261,-0.14275236,-0.36351255,-0.08370613,0.05162861,0.034339286,0.12352549,-0.27359498,0.052928075,-0.20163837,0.1982804,0.09722136,-0.17653352,-0.2433732,-0.06424125,0.2528075,0.29246357,-0.07155684,-0.40711442,0.042774197,0.29662108,0.52416384,-0.50817347,-0.22178622,0.2432133,0.01677988,0.0066110124,-0.020337733,-0.17797264,-0.11712935,0.08565086,-0.039397705,0.39270753,0.040942296,0.15192026,0.3480201,-0.18281212,-0.22800735,-0.14591116,0.094114386,0.007701807,-0.34395763,-0.91067517,0.40726477,0.371718,0.27269474,0.25238228,-0.41369706,-0.18399702,0.3520826,0.11925106,0.14311819,-0.15665983,0.46041572,0.0672427,-0.034439094,-0.15290554,0.15078466,0.1661358,0.092207894,0.047164388,-0.2765227,0.343381,0.24602239,0.32116222,0.20804848,-0.69443756,-0.19845402,0.05675886,-0.13543351,0.026940258,0.5663766,0.013444881,0.103923246,0.09897452,-0.02656153,0.18896054,0.759074,0.3231821,0.041836936,-0.041791055,-0.028861357,0.41261575,0.11648548,-0.025575748,0.098520994,0.055264417,0.61268336,-0.16792062,0.20990077,0.2721146,0.35115832,-0.24469514,0.107503235,0.3545621,0.08665498,-0.30917817,-0.2743838,0.066090375,-0.08504763,-0.23883304,-0.49960166,-0.21179177,-0.2753293,-0.5279666,-0.055990916,-0.17193307,-0.121199846,-0.033816464,0.07927494,-0.16647054,-0.09675503,0.046772897,-0.30535534,-0.2249196,-0.28569022,-0.18067312,0.031750944,-0.19105193,-0.020262565,0.051347766,-0.07128599,-0.052645117,-0.114713095,-0.25783134,-0.13779227,-0.2253293,0.049982134,-0.29224527,0.05462528,0.03908484,-0.059138,0.022902535,-0.29396963,-0.19859615,-0.052767225,-0.20687547,0.12666285,0.05091244,-0.17386572,-0.24708931,-0.7801915,-0.46235162,1.1431913,0.22407925,-0.27633575,-0.5453599,0.54622006,0.29224923,0.13526474,0.12246942,-0.08048144,-0.0639228,0.016410794,-0.3270869,-0.018902143,0.021466611,-0.13358283,-0.06166248,0.07428312,-0.099697284,-0.24227016,-0.13427438,-0.13623375,-0.101771906,-0.3075056,-0.14407122,-0.2724675,-0.18210602,-0.20884565,-0.018311452,-0.19190286,-0.06425577,-0.17726523,-0.02563027,-0.11715872,0.024405664,-0.10015831,-0.07318818,-0.025687898,0.15624703,0.25218427,-0.19868726,-0.56557184,0.4550039,0.2595555,0.07265096,0.30869678,-0.27206418,0.49856094,0.47443703,-0.29261416,0.1668571,-0.38620603,0.21264786,-0.2901571,0.22493319,-0.7616903,0.09638398,0.16875573,-0.006537051,0.15122122,0.0418818,0.081418216,0.3064631,0.030600954,-0.22684579,-0.11721656,-0.111022815,-0.05260809,-0.12441678,-0.0821445,-0.40414163,-0.079976685,-0.21074206,-0.14206895,0.26865354,-0.31417754,-0.16723102,-0.07904763,-0.06449234,0.10405486,0.78722453,0.38927665,-0.22823937,-0.250382,0.08601559,-0.19835457,0.0052259695,-0.12116507,-0.1051629,-0.009829836,0.043522123,0.10983266,-0.09650829,-0.059741743,0.11356846,0.2724647,0.36760318,0.15254536,0.12925884,0.048689988,0.19164678,0.6515243,0.13473803,-0.07683305,0.05329748,0.37756532,0.18367706,0.124215506,0.05261258,-0.16512257,0.13847382,-0.02837655,-0.18218274,0.06057293,-0.04490681,-0.2626331,0.0063925562,-0.04802363,0.023704235,-0.055118497,-0.63320655,-0.36680046,-0.099820256,0.16445325,0.41043594,-0.49901924,-0.41699767,-0.4570242,-0.0066027367,0.59350806,0.42487174,0.09227427,0.035105232,0.22523123,0.14058498,0.15543088,0.0071922666,0.13763219,0.13956596,0.2627124,0.6850905,-0.21496366,0.3072527,-0.07912512,0.4499327,0.28630367,0.32461587,0.16513889,-0.039444603,0.1864654,0.013800893,-0.2985711,-0.10248048,-0.07468996,-0.16164738,0.2953627,0.069547065,-0.40124032,-0.085400395,-0.12692103,0.16598818,0.2583716,-0.12427881,0.08914172,-0.22886285,0.098020025,-0.05501856,0.114610784,-0.06891893,-0.115955986,-0.33952773,0.28571984,0.16411404,0.0051033413,-0.52982825,-0.47135705,1.1737292,0.4057114,-0.10358017,-0.08461289,0.22635181,0.30293837,0.029818533,0.083312534,0.049861968,-0.13200867,-0.099723935,-0.029616755,0.06062194,0.08379971,0.31819364,0.018640326,-0.019171739,0.15770698,0.4172817,0.50394285,0.45325425,0.06916542,-0.23218653,0.32146388,-0.55986387,-0.5817744,-0.4130304,0.033887785,-0.14863208,-0.49805644,-0.15517254,-0.24216074,-0.05436762,-0.32587868,-0.17217775,-0.11110616,-0.08886857,0.015187068,-0.16207872,-0.34599015,-0.2083274,0.13041295,-0.13066295,0.076247826,-0.5646506,0.040123858,0.09866386,-0.08941412,0.058581665,0.31765762,0.3299906,0.08008105,-0.3116578,0.2879918,0.39798868,0.026728405,-0.28649184,0.019936932,-0.33982366,-0.4263212,-0.2704923,-0.21282728,-0.09536328,0.13148783,-0.039204136,-0.010363317,0.18657431,-0.68595123,-0.5691347,0.38698944,0.8127332,0.46754304,-0.7894806,-0.50795823,0.17384075,0.9444978,0.23114176,0.102006875,-0.10159165,-0.62228346,-0.6399997,0.2573009,0.35792372,0.37010363,0.22117637,-0.8077505,-0.544498,-0.0666326,0.102720894,0.04333211,0.052589543,-0.042887542,0.020633092,-0.0430706,0.11475033,-0.014631452,0.049059168,0.09226052,0.33745176,0.027458489,0.26443833,0.23452164,0.08739644,0.24247153,0.43305957,0.433478,0.06056558,-0.035434525,0.016239734,0.04754241,0.07170588,-0.030361243,-0.18180852,0.055666093,-0.012024619,0.01572718,0.027252708,-0.22730708,-0.026208097,-0.009540769,0.033775713,-0.19536524,0.92111367,-0.020485958,0.57866734,0.108268,0.84608746,-0.28469098,0.06820141,-0.15878068,-0.1372385,-0.21802166,-0.054551844,-0.01677179,-0.033241805,-0.04707708,-0.055851802,-0.21016815,-0.119473964,0.10480006,0.073606186,-0.04073191,-0.0011219914,-0.28420034,0.40481037,0.06811531,-0.21849914,0.4199576,0.8952027,-0.23629716,-0.90050423,-0.5441651,0.040542573,0.052778713,-0.08349924,0.13036105,-0.07171278,-0.14030144,-0.11985265,-0.21982452,0.066742584,-0.1282783,0.17776565,-0.054722946,-0.1322751,0.08372107,0.1355484,-0.1599723,-0.20814863,-0.4626271,-0.25196055,0.1667707,0.1744084,-0.09601695,-0.49687093,-0.34294164,0.55394393,0.015799992,0.26522166,0.5861734,0.25783572,0.39783245,0.14268252,0.020510614,0.073985085,-0.09014179,0.11658002,0.18757427,-0.08161509,-0.032829396,-0.03241976,-0.05145808,-0.013147364,-0.09839066,-0.026021637,0.010377444,0.009221686,0.31896988,0.72283196,-0.58300954,-0.119457655,-0.14169504,0.17306145,0.8339408,-0.0036135744,-0.23158087,0.07927431,0.19678132,0.17025252,0.025221871,-0.062342692,0.008646245,0.053928193,-0.059412416,0.07518949,0.011862612,-0.016005585,0.14521268,0.20538017,0.3732451,0.17199795,0.22334298,0.3366836,0.45590582,-0.30377826,0.47466347,0.4148934,0.17152105,-0.31506464,-0.39772537,-0.3722913,0.23351662,0.056869008,0.034892377,-0.25624833,0.007977955,0.08925772,-0.06432944,-0.06785742,-0.18450613,0.04961699,-0.14554816,-0.17745017,-0.2693279,-0.37952116,-0.39873743,-0.19231275,-0.12565634,-0.38702753,0.11086883,-0.25791827,-0.27713454,-0.27638388,-0.13173649,0.5815922,0.119351,-0.42035574,-0.053895608,0.022200037,0.29334825,0.029875282,-0.119426064,0.063928954,0.051830668,-0.32714483,-0.08642909,-0.026584981,0.25821584,0.39464524,-0.29268032,-0.42250255,-0.089196965,0.37643084,0.87000525,-0.19392973,-0.7003614,-0.40678817,0.30535898,0.35464498,-0.24875149,-0.26089442,-0.15759024,0.08125049,-0.015892953,-0.020580482,-0.18134038,0.0031557109,-0.0014028423,0.17678705,-0.14855666,-0.03862396,-0.007718043,-0.031103568,-0.06297846,0.008826818,0.28785744,-0.054879576,-0.4711236,-0.84722036,-0.47297478,1.0304865,0.5220309,-0.014809387,-0.17061648,-0.007896411,0.26178676,0.012775024,-0.034381688,0.11639252,-0.017913958,-0.16799398,-0.031122852,0.21597268,0.4780543,0.6007216,-0.4156332,-0.2773063,-0.09406665,0.26577905,-0.022619493,0.3308101,0.12875712,-0.30949557,-0.2173864,-0.42824793,-0.48457918,-0.3486447,0.1739961,-0.21129653,0.7716727,-0.02275543,-0.11929608,0.16181639,0.08966237,0.35603955,0.48501414,0.47283444,0.14934203,0.05433733,-0.011420181,0.03403479,0.1407477,0.18645957,-0.1791108,-0.14984025,-0.25147754,0.19455567,-0.028398652,-0.13663737,-0.29943138,-0.25533876,-0.0011521382,0.30242074,0.43669155,0.059537522,0.37839958,0.04524478,0.118825935,0.031092163,0.06943969,0.16615702,0.048202973,-0.08163865,-0.07376278,0.19713178,0.19125426,0.0071815858,-0.0014601946,0.22005408,0.2792994,0.24591513,0.0342659,0.09721406,0.052045375,-0.30845186,0.34113085,0.096449986,-0.018690491,-0.039878923,0.028726343,0.34912425,0.11020336,-0.025831668,-0.12671918,0.29199484,0.21899612,-0.09739038,-0.07020393,0.08498611,0.07395668,-0.017837016,-0.0046394547,-0.22626352,-0.21711047,-0.146815,0.35587078,0.07542118,-0.6564571,-0.89333814,-0.1339092,0.99512017,0.5356368,0.10919595,0.3811332,0.29198244,-0.73480725,-0.14873715,0.10745686,0.24804778,0.20026885,-0.2842939,-0.18983436,0.0056775203,-0.015231416,0.29601416,-0.02278839,-0.12067667,-0.09452092,0.2225588,0.37714395,-0.37839693,0.06906997,0.14926004,0.5553789,-0.50087476,-0.28614703,-0.1680546,0.1363388,0.1120625,-0.11527324,-0.13868812,-0.0075618695,0.11824904,0.16006692,-0.089665666,-0.34394026,-0.3295311,-0.10321093,0.14339526,-0.24447079,-0.056038037,-0.015926514,-0.1395127,-0.20965733,-0.13821852,-0.14080688,0.028633755,-0.1780793,-0.2502946,-0.3030972,-0.43769202,-0.22829352,0.036916513,0.20305699,-0.0030393032,-0.18351486,-0.11990587,0.10042845,-0.13550074,-0.018717093,-0.10812882,-0.06234717,0.039220504,-0.030849889,-0.0043744734,0.010640611,-0.0098602995,0.042121056,-0.04095453,0.4043117,0.4368483,-0.05753812,0.15448591,-0.25676188,-0.076234065,0.6880613,0.35109288,0.084116,0.17668143,-0.15145925,0.04095453,0.03256815,-0.059902698,0.023898024,-0.1462887,0.109464295,-0.009797244,0.100932136,-0.11182669,-0.26182932,-0.2402203,-0.08175413,0.26182932,0.14198928,-0.1578359,-0.1516233,0.16152744,0.5110534,0.49808794,-0.7390285,-0.30612782,-0.37995863,0.36735335,-0.09201842,0.37923834,0.13622688,-0.1690906,0.11542819,-0.11434774,0.019774506,0.28487894,0.06761823,-0.014259425,-0.23252821,-0.021898013,0.04696965,-0.06277211,-0.087986015,-0.12563176,-0.38591278,-0.46470624,-0.050777998,0.16765495,0.60408306,0.3852124,0.82715607,0.046707004,0.116264105,0.2377811,0.48886955,-0.0570377,0.1621394,-0.09927974,-0.055724476,0.031189073,-0.066186495,0.027227513};

#endif
