#pragma once

#include "parameters.h"

#ifndef KERNEL74_H
#define KERNEL74_H

static float bias74[FEATURE_MAP74] = {-0.56302303,-0.49858093,0.27597934,2.5722861,-1.7963133,-0.8299387,-0.5724064,0.24102418,1.5222968,-0.8276074,0.6443286,-0.69406956,-1.1791799,-0.5475824,1.1519046,1.2011064,-0.5344107,0.8810264,-0.12035875,-0.4648527,1.1707071,-3.911768,-0.19620913,-0.14086801,-0.104553886,-1.048271,-0.97172886,-2.1532779,1.0115612,1.4764278,-0.11555294,0.79470426};

static float kernel74[FEATURE_MAP74][IN_CHANNEL74][KERNEL74][KERNEL74] = {-0.18955083,-0.0994365,0.004458306,0.080061,0.06456975,-0.23177478,-0.06511811,0.1348973,0.13115016,0.1306932,-0.3425441,-0.040578865,0.2880734,0.16268104,0.1410207,-0.30891117,-0.05524758,0.15674044,0.15363304,0.1142423,-0.26156917,-0.15390722,0.0025918721,0.100533225,0.06009145,0.020124877,0.060732726,0.08197281,0.15723391,0.02911815,0.068958655,0.1212199,0.14372866,0.035093203,0.10460434,0.08422369,-0.048741695,-0.042357393,0.19856818,0.032514926,0.06277898,0.022324597,0.05025592,0.17761457,0.003527225,0.034704413,0.003583497,0.115654096,0.054143798,0.016523475,-0.15396391,-0.37380713,0.10871136,-0.18627213,0.042069085,-0.1427034,-0.10113419,-0.26835814,0.11586758,0.13554718,-0.17448542,-0.083243646,0.42853114,0.2797239,0.038780384,-0.20321552,-0.38117382,-0.30245543,0.17785305,0.0306244,-0.24541616,-0.104975395,-0.025520334,-0.18995547,-0.0653531,-0.18488385,-0.21254896,-0.18803272,-0.07725985,-0.05299666,-0.14518556,-0.055161513,0.1416993,0.035256136,-0.09480358,-0.121119164,-0.23020513,0.28879666,0.091486014,-0.018021677,-0.024741147,-0.19950362,-0.1016074,-0.06415829,0.005897109,-0.028143056,-0.12415558,-0.003661971,-0.023686837,-0.011906677,0.028461045,0.067408845,-0.03758452,-0.018991508,0.008688274,0.027726972,0.03135539,0.06971593,-0.1976543,0.04106612,-0.018593011,0.0687092,-0.31745496,-0.16166377,-0.06585681,-0.04786154,-0.13028741,0.1795332,1.0020301,0.1473179,-0.023951743,-0.011755649,0.24664842,0.59766096,0.14471719,-0.078775525,-0.34373167,-0.61641955,-0.3789001,-0.08937907,-0.050720304,-0.16320626,-0.3393135,-0.26190764,-0.009244968,-0.036692694,0.056110438,0.30131748,0.06547691,0.024211433,0.019793289,0.17964177,0.3884433,0.33153757,-0.0292923,0.105328575,0.271981,0.5057892,0.31457192,0.15675578,0.20780967,0.313523,0.53760886,0.38471094,0.18824531,0.044430826,0.26535192,0.52083945,0.29675353,0.060337145,-0.054089703,0.046198197,-0.14525305,-0.073243044,-0.06937949,-0.004654756,-0.026510531,-0.05709012,0.053925294,-0.01882453,0.036107752,-0.0009755207,0.011744781,0.0669545,0.0055333027,-0.024433665,-0.06909494,0.026376158,-0.08662553,-0.0048401775,-0.01870251,0.10710999,-0.23438339,-0.02485106,-0.041771613,0.0050849956,0.15565625,-0.84506446,0.3398238,-0.031850453,-0.088359326,0.20201921,1.0736686,0.32338485,-0.16143557,0.0049645933,-0.09060684,-0.3120831,-0.2147337,0.014705149,-0.0065900167,0.004839004,-0.10426717,-0.030845417,-0.02513522,0.0055764993,0.0017693418,-0.22785586,-0.010566453,-0.015793612,-0.03250155,-0.29092678,-0.05130552,-0.18645261,-0.165889,-0.13856286,-0.13952893,-0.3384025,-0.23461838,-0.08080533,0.028792506,0.04544006,0.0032497235,0.1186893,-0.0019386207,0.04630045,-0.26486582,-0.9959136,-0.32818848,-0.099239565,0.008128112,-0.21663618,-0.38061693,-0.16534254,0.002425667,0.05308097,0.1680661,0.62959534,0.22310463,0.09095542,0.07847246,0.28915086,0.23944595,0.17374016,0.09453008,0.13254638,0.09759409,0.23422581,0.18054906,0.06650016,0.05085849,0.029509103,0.17467004,0.049293615,0.003316048,-0.043034106,0.18391027,0.7964477,0.30641776,-0.006166359,0.023305485,0.107827455,-0.30731195,0.23428439,0.06892909,-0.033328146,0.03422236,-0.04225167,0.025783205,0.00356056,-0.029453214,0.033067334,-0.1433725,0.0434067,0.005612132,0.08485701,-0.04493351,-0.13894944,-0.05863275,0.21777879,0.2849442,0.06904417,-0.15030023,0.09777343,0.24517725,0.35289243,0.14255038,-0.38608372,0.06884847,0.4408807,0.32846865,0.10411423,-0.13346975,0.019041944,0.2854139,0.18881467,-0.01197705,-0.02336699,0.024991328,0.15272696,0.22209935,0.10652565,0.09880465,0.04846736,-0.010186591,0.110929035,0.10743046,0.03598106,-0.048949923,-0.05857101,0.12287245,0.21992782,0.22583921,0.09928721,-0.025017845,0.17167157,0.10767174,-0.06966995,0.015849158,0.061677508,0.14995627,0.011181876,-0.012765284,-0.10218259,-0.036433462,-0.058671433,-0.09861151,-0.014184468,-0.021495739,-0.051118467,0.018550083,0.034773853,-0.22260098,0.062901095,0.05420008,-0.04951724,-0.2644142,-0.8120948,-0.114684224,-0.04386762,-0.07764448,0.099094905,1.359292,-0.017522879,0.059608,0.05894334,-0.1158927,0.2733569,-0.05311245,-0.03782525,0.04046892,0.049549934,-0.04178774,-0.017615661,-0.05392088,0.06635547,0.12939504,0.0581411,0.042579032,-0.013668623,0.4256396,0.49738336,-0.39097348,0.08500734,0.08139001,0.31169358,0.43136704,-0.09412604,-0.011577352,0.0500021,0.067711964,0.2271384,0.057613574,0.0036620793,-0.0606657,-0.1010371,-0.34401372,-0.32469115,0.6291568,0.31602308,-0.3136755,-0.5301965,0.12740245,0.7288396,0.6472153,-0.373449,-0.44532168,-0.51647204,1.4706812,1.026443,-0.20351887,-0.48938432,-0.29074124,0.6793594,0.5417539,-0.16017856,-0.1174703,-0.16767283,0.39836967,0.33299804,0.045111295,0.024830528,0.038823184,0.057644594,-0.008858081,0.04614143,0.10679058,-0.06000532,0.055713095,0.044424538,0.0885057,0.121126615,0.007951349,0.16001418,-0.0057998705,0.006572471,0.11692023,0.23469892,0.07610117,0.0701779,0.028328693,0.017630318,0.06665827,0.071122184,-0.056142315,-0.13910837,-0.11545,0.116799876,0.16596381,0.08440283,0.022841338,0.1312933,-0.020514578,0.22493212,0.04411966,0.12639111,0.05253863,-0.101596,-0.023622846,-0.05619751,0.2846109,0.24695642,-0.027850091,0.19480856,0.11182664,0.25903428,0.29668874,0.28532135,0.2050392,-0.09086803,0.2558061,-0.2226861,-0.22801192,-0.5419028,-0.036531836,-0.18706964,-0.46367973,-2.0837293,-0.6048141,0.22917694,-0.46035108,-1.0119069,-3.0969677,-1.7402136,-0.07880558,0.84946924,1.330125,2.528436,1.8280897,0.6707212,0.08450588,0.50162625,1.5551412,0.994598,-0.2554732,0.005072209,0.10719947,-0.78225386,-0.008712864,0.029590309,0.13149957,0.82922626,-0.25881347,0.10342075,0.1273139,0.096212104,0.092200845,0.27323076,-0.0017721849,0.0693541,0.070865594,-0.17975095,0.15952025,0.19440077,-0.016844384,-0.10371142,0.09766546,0.28881073,0.2532326,-0.004883273,0.047301847,0.003623067,0.06692039,0.041753747,0.06274501,0.0014710331,0.09546165,0.20876874,0.077959396,0.05296434,0.06480411,0.048074007,-0.23862553,0.28987396,0.07561432,-0.0033102713,0.07309765,0.28461185,0.073726825,0.040095035,0.04244011,-0.010266846,0.055309415,0.11588095,0.069208264,-0.00033579275,0.09629818,0.003981665,-0.16000481,0.046207815,0.009679033,0.24454598,0.00847599,-0.053644814,-0.10116504,0.503966,0.35369486,0.1620828,0.30097967,0.20637669,0.3186972,0.38519272,0.24498345,0.285012,0.27713752,0.20998581,-0.07546365,-0.21097012,0.071909204,-0.029228494,0.07410017,0.087572925,-0.03608356,-0.09296203,-0.21954738,0.21732144,0.19564787,0.061974686,-0.0842926,-0.36294436,0.26453465,0.21650136,0.16952243,-0.035966404,-0.43698597,0.1886186,0.17362285,0.070878424,-0.11522137,-0.3688021,0.12418368,0.13379034,-0.029845087,-0.20338006,-0.30014962,-0.010240976,-0.01721147,-0.37232238,-0.030308466,-0.06703732,-0.08017953,-0.044581026,1.2375379,-0.1095385,-0.052327693,0.021958943,-0.33253404,-1.0214752,-0.7451271,0.077647544,-0.0148151275,0.051815268,2.0641708,-0.47456637,0.02620906,-0.08886062,-0.16578475,-1.0137587,-0.28888744,0.004841668,0.020783007,0.0975875,0.04681069,-0.12983835,0.050829,-0.037547704,-0.16918646,-0.3826265,-0.025479732,0.12086239,0.08386263,-0.414773,0.8216137,0.19767992,0.20081107,-0.057300042,-0.097430944,-0.16344602,-0.3536112,0.13432632,0.076869726,0.18484221,0.042531453,0.02331402,-0.12545474,0.074445695,0.34407488,0.55461484,0.42174765,0.21143022,0.11033319,0.31714532,0.37879393,0.30423695,0.17882545,0.08657511,0.16547197,-0.12841603,0.20430836,0.18772778,0.13487023,0.13409127,0.10337825,0.14477406,0.15434407,0.009834287,0.0017656857,0.044289067,0.10716174,0.057253078,0.011519546,0.15749146,0.33827254,0.17133161,0.06977349,0.00891855,0.15453252,0.29799291,0.26725823,0.010636639,0.03565034,0.05287895,0.24377768,0.07449823,0.045696385,0.04190227,-0.057460517,-0.17849031,-0.117879964,0.018564902,-0.22296973,-0.30715606,-0.39592397,-0.3275822,-0.20578884,0.12951352,0.4349191,0.7547578,0.57039833,0.36333063,-0.028818201,0.0055116615,0.18041445,0.181088,-0.042289145,-0.017752782,0.07596651,0.07418642,0.12383648,0.028986588,-0.017536284,0.043203246,0.006603169,0.13894318,-0.08602161,-0.041687764,0.031151561,0.29809278,0.058887277,0.035000402,-0.3218266,-0.43037164,-0.34634444,-0.3153996,-0.21387662,-0.54367745,-0.3384892,-0.2920719,-0.14615497,-0.5193977,-0.19388148,-0.12687394,-0.27564734,-0.14579792,-0.2411319,0.0473992,-0.2258975,-0.19328639,-0.3111149,0.16495994,0.10437941,0.09319165,-0.08456279,-0.05025565,0.07272043,0.025541792,0.005131902,0.052687105,-0.03344486,-0.014533496,0.06439535,0.085215665,0.13194683,0.11311183,0.07844525,-0.0034424786,0.05594505,0.34534234,0.08119414,0.030746872,-0.017409652,-0.092902385,-0.092851475,-0.08918629,-0.05497785,-0.22866713,-0.20280717,-0.25065827,-0.26674438,-0.18763736,0.0510758,-0.1092176,0.16339023,-0.21860966,-0.15876679,-0.03823052,0.02184134,0.292759,0.14620502,-0.037750732,-0.070354626,0.066559926,0.052471556,-0.35905722,-0.06991845,-0.016018435,0.049767286,-0.089938775,0.03511189,-0.025908647,0.30828673,0.08640578,0.2538524,0.31264848,0.24635024,-0.00091600034,-0.106253415,-0.28166386,-0.04368476,-0.04381065,-0.1259766,-0.43206364,-0.7815417,-0.47067073,-0.16131048,-0.07226239,-0.6623633,-0.49987784,-0.6771347,-0.15249799,-0.027570495,-0.16449976,-0.64322764,-0.20612827,0.03000442,0.0066828025,0.07817935,-0.10163735,-0.08556505,-0.047125824};

#endif
