#pragma once

#include "parameters.h"

#ifndef KERNEL47_H
#define KERNEL47_H

static float bias47[FEATURE_MAP47] = {-0.040606946,0.42577508,-0.20013316,0.045364395,0.094477616,-0.33715323,0.080074556,0.03736006,-0.18705626,0.1157531,-0.06417424,0.03556791,0.03678543,-0.06627145,0.13775124,-0.8351486,0.036564365,-0.084649034,-0.03137247,-0.013683122,-0.23649202,0.07481211,0.16453457,0.12542655,0.19044486,-0.26373714,-0.19399247,0.043554425,-0.048836835,0.1608843,0.07306083,-0.013119911,-0.51372194,-0.27218276,0.15520775,0.065770864,-0.05423702,-0.055174354,0.5748981,-0.61359555,-0.026154757,-0.04169889,-0.32929486,-0.04683695,-0.015228175,0.16735399,-0.032174475,0.06554836,-0.07421556,0.009952547,0.0055714487,-0.05601887,0.58964944,-0.09180701,-0.56791645,0.04104877,0.017373538,0.25095904,0.2564386,0.07212416,-0.1911528,-0.10045936,-0.35370803,0.3743901,-1.2799225,0.12597078,0.8168068,-0.09560591,0.36515367,-0.034088034,-0.23200993,-0.5957759,0.16179092,-0.29305837,0.20449069,0.025009591,0.004825027,-0.11594406,-0.049145184,0.30984467,-0.023464872,-0.05693818,-0.23957175,0.79793257,-0.5731654,0.07252727,-0.012949468,0.0538235,0.16446562,0.3898485,-0.027051358,0.04407473,-0.021167012,0.0038275374,0.26691562,0.26817322,-0.44035444,0.0004935203,0.045861408,-0.43232983,0.80454516,0.053724043,0.0068721976,0.114458345,0.14830273,-0.37780795,-0.34882703,-0.005606038,0.04544255,-0.016354898,-0.096991405,0.029956944,-0.717309,-0.07117811,-0.47880372,-0.055239312,-0.0025430084,-0.09182475,0.009566004,-0.21752898,0.007940863,-0.014794524,-0.0696768,0.064495005,0.10451041,0.07813482,0.6030252,-0.23604219};

static float kernel47[FEATURE_MAP47][IN_CHANNEL47][KERNEL47][KERNEL47] = {-0.0369833,-0.14033698,0.10905085,0.09218466,-0.1474182,0.12231205,0.23754287,0.36564866,0.39938104,0.063731015,0.28376395,0.059804153,-0.21127798,-0.17278187,0.2968964,-0.33552125,-0.050180126,-0.3038489,0.04548077,-0.0021344258,-0.16788939,0.20084926,0.008875671,-0.18964805,-0.0323966,-0.11428747,0.028747875,-0.31587464,0.07362977,0.22388142,0.11657557,-0.0017298227,-0.16145746,-0.18633318,-0.15840666,0.051482167,-0.08348618,0.059373163,-0.40059286,0.07673923,0.229983,0.20628068,-0.123087846,0.046289947,0.2640111,0.042887136,0.067058824,0.39660335,0.39965415,0.04552725,-0.015990485,0.43135902,0.17895854,0.21268189,0.079362266,0.24220854,-0.24895321,0.057741858,0.38789338,-0.047474973,0.023156695,0.12859835,-0.301112,0.15115552,-0.1906493,-0.18989989,-0.078388035,-0.18750179,0.29181933,0.019990448,0.08925445,0.5158922,0.06789633,-0.07703911,0.062350713,0.111657366,0.24760161,0.018900173,0.13949387,-0.045210958,0.27051845,0.09720979,-0.008772857,0.40951413,0.21497001,0.113712415,-0.1605425,0.044183437,-0.11296512,-0.113151945,0.18482937,0.06557457,-0.21534365,-0.2094899,-0.14821224,-0.22530751,-0.15456419,0.27574947,-0.2553236,-0.07012058,0.15413177,-0.15405416,-0.04392678,-0.35017246,0.16918795,-0.22708437,-0.18890066,-0.02553341,-0.30252045,0.29677737,-0.006839306,-0.2376392,0.16670445,-0.14737977,-0.1747758,-0.32037055,0.05448162,0.02553341,-0.043771558,-0.28110033,0.30950528,-0.09522642,0.5355031,0.051338453,-0.30950528,0.07844053,0.078484796,-0.1333312,-0.17733225,0.13147199,0.47878823,-0.018116131,0.061265063,-0.23142612,0.07268586,0.28737918,-0.10774506,0.09738666,-0.16998398,0.23284265,0.5432405,-0.46426877,-0.27215144,-0.2755157,0.58077866,0.502161,-0.4486869,-0.37786025,0.37502718,0.23301972,0.22001585,0.0055258195,-0.3747089,-0.34790978,0.049410846,0.18867047,-0.15409485,0.043518633,-0.056529358,-0.030582683,0.41251478,-0.048184548,-0.020562928,-0.23281722,0.039091997,0.094873615,0.052371908,0.05551243,-0.105760746,-0.2749301,0.19848086,0.07429573,0.17586912,-0.1995576,-0.15648763,0.27584016,-0.30448338,-0.27300566,0.0042960164,-0.047328442,0.23377043,0.010200417,-0.1954303,0.15992463,0.013724876,0.10748666,0.1881203,-0.31089827,0.41771358,0.51140076,-0.1682789,0.04087626,-0.044419367,0.14433497,0.061016023,-0.24883795,-0.2069174,0.19826478,0.35953206,-0.3258166,-0.094302885,-0.22099604,0.25642288,0.25237408,-0.2979229,-0.07426985,0.2985977,0.23162408,-0.29100624,0.367427,0.15511897,-0.28341475,-0.0017120339,-0.41904896,-0.46830916,-0.24630092,0.23989035,0.008772362,0.23533547,0.15419112,0.45278883,0.33604893,-0.085235305,-0.01443433,0.22504482,-0.1657532,-0.15861098,-0.13327634,0.10046261,-0.29512155,0.20375514,0.16103664,0.1843499,0.10955882,0.19499584,-0.040596057,-0.21669199,-0.1311202,0.1696612,0.33662722,0.23313254,-0.22855075,0.14176615,-0.19499584,0.09891288,0.14702174,-0.025334634,0.31587437,0.19890383,0.11292779,0.036799166,-0.0071001877,0.09469054,-0.01320667,0.038754523,-0.101229765,-0.2833664,0.02126851,0.07167503,-0.35875982,-0.16899408,-0.10379417,0.23938692,-0.4395385,-0.4051755,-0.058532473,0.22348763,0.2674671,0.0018662035,0.13834949,0.087317884,0.11975757,0.24977274,0.011716112,0.280802,0.22739527,-0.27307293,-0.3554913,0.008135297,-0.21696885,-0.3137856,0.22127181,-0.026272925,-0.26066053,-0.20290145,-0.4716714,0.21945134,0.046670645,0.39289403,-0.018970294,0.25370958,-0.12346206,0.06694424,-0.0042305617,0.24924111,0.196778,-0.27025944,-0.09632027,-0.053580217,-0.103436716,-0.029730711,0.15926293,0.01847464,-0.15912311,-0.20638463,-0.09095745,-0.18960539,0.028087744,-0.0026152015,0.024329895,-0.0554414,0.11130228,-0.122838005,-0.23546864,0.4379381,-0.22735867,-0.15101314,0.1855504,0.38983762,0.4804455,-0.01052198,-0.2855267,0.12171939,-0.029888017,0.30454317,-0.19586083,-0.035042007,-0.12870187,-0.053586774,0.27378395,-0.20264693,0.019378405,-0.024131598,-0.18076761,0.10027045,-0.26348782,-0.20838001,0.25061762,0.11431065,0.2489796,-0.044021886,-0.011985361,-0.12811685,0.1106836,0.21645314,-0.26348782,-0.16415337,-0.15104918,-0.27752802,0.16310036,-0.43581957,0.17397036,-0.38398594,-0.01980998,-0.12087067,0.009472112,-0.22416556,0.15773511,-0.15445827,-0.073244795,0.06106836,-0.048631266,0.14991538,-0.009811898,-0.33989754,0.45726797,-0.14917064,0.16071405,-0.21537767,-0.262445,0.30132023,0.17903456,-0.18097088,0.27197763,-0.14455327,0.101654224,-0.23437268,0.20829263,0.073893465,0.10849299,0.16830324,0.2069017,0.14384595,0.15798712,-0.07331391,0.26288685,-0.059143748,-0.108956635,-0.1680714,0.26335052,-0.27679622,0.05401467,0.36512065,0.085368685,0.095279105,0.10136445,0.057868723,0.27470982,0.17386697,-0.19055821,0.1754821,0.25298986,-0.1480038,-0.40554178,0.16486979,-0.36081848,-0.035224337,0.021023266,0.10621783,0.12564215,0.27269843,-0.23858742,-0.038753875,0.23024918,-0.2647392,0.49006122,0.50749576,-0.38450667,-0.38412765,-0.42449233,0.09276295,0.5435018,-0.18145151,-0.15814234,0.08267178,0.13395812,-0.19693106,0.10823478,-0.3407287,0.17626807,-0.24458249,-0.18821606,-0.23952216,0.20311591,-0.04262623,0.46892366,-0.06704934,-0.19173017,0.11765261,0.3145837,0.30305737,0.10254191,0.0077925525,-0.1996018,0.43012783,0.3781189,-0.25793612,-0.28084818,0.034332916,0.16685024,0.09431374,0.058195863,0.13103893,0.23778494,0.077880286,0.074950844,0.116748974,0.34867504,0.043655828,0.0120124975,0.36267918,-0.093099095,-0.26364976,0.014048818,0.039833266,0.30751994,-0.087811805,-0.4304136,0.112104736,0.19434346,-0.16619223,-0.31466493,0.15976176,-0.3249537,-0.19977364,0.2611868,-0.2733107,-0.047223177,-0.1487792,0.19293399,-0.028083196,-0.09429667,-0.1125573,-0.11839471,-0.19203593,-0.0767096,-0.24606942,-0.03784964,-0.111210205,-0.24651845,0.216583,0.30833516,0.41789892,-0.07985282,-0.047747046,0.11734697,0.26822165,-0.03715738,-0.19697528,-0.115550846,-0.074448064,0.084674835,0.2626064,-0.17807461,-0.18966019,0.08381665,-0.24601473,0.32840106,-0.0012325321,-0.2804854,-0.016824119,0.2571712,-0.028016359,0.18579833,-0.006016276,-0.2400074,-0.06979953,-0.29750618,-0.20782524,-0.34985584,-0.23113942,0.17921887,-0.09011005,-0.08817912,0.09275614,0.0717354,-0.120645896,0.15734966,-0.4427863,-0.17708108,0.2698856,-0.0049328534,-0.17356956,0.037372638,-0.17223184,-0.27155778,-0.04916132,0.26269534,0.13343787,-0.2511575,-0.04861787,-0.4621833,-0.039755456,-0.12031146,-0.25550508,0.12541153,0.15174796,-0.37690344,0.037059106,0.43342224,-0.0038941796,-0.29741362,0.4266545,-0.29549894,0.17279986,0.23582473,0.23773941,0.1991267,0.12086417,0.41165617,0.2134868,-0.45377913,0.10570628,-0.05333181,-0.07570963,-0.10091959,0.36538476,-0.25592887,-0.04974179,-0.07898054,0.15213728,-0.0699257,-0.04906367,0.24827015,0.3029981,-0.043461416,-0.09324987,-0.2736591,-0.044407517,-0.022647241,-0.18259709,-0.036247414,-0.20849654,-0.32853284,-0.25804847,0.03459174,0.14215136,0.002306116,-0.13304515,0.106140465,0.05262675,0.09183072,0.07113481,-0.17467351,0.10460306,0.14593576,-0.12133718,0.02236637,0.14463487,0.1875641,-0.3338419,-0.17179455,0.15961054,0.0027519788,-0.3295098,-0.26168546,0.1237354,-0.41479787,-0.14715578,-0.39530346,-0.05726485,0.30053893,0.18438469,-0.12881206,0.22689335,-0.0037609672,-0.3349249,0.22526881,-0.056012604,0.24950145,0.12204317,0.09483221,0.062172297,0.018039104,-0.29052097,-0.0041665593,-0.23180558,-0.5199783,-0.029580226,-0.20579,-0.2137948,0.0474451,0.19161484,0.33870298,0.21979839,-0.09097119,-0.34654102,0.09497359,0.3495428,-0.22780319,-0.03245695,-0.086635254,-0.005435549,-0.2646586,0.18411033,-0.30751762,0.022867871,0.14808875,-0.3805614,0.35921526,0.032897744,-0.14622553,-0.30876496,-0.29988828,0.13518964,-0.027529743,0.09068621,-0.04351379,0.11293792,-0.15438248,0.01521933,-0.21064152,0.29772907,0.013577442,-0.016133988,-0.28165507,0.0722131,0.008989151,-0.16745761,-0.38241753,0.0067999666,-0.23955075,-0.12931181,-0.11695643,-0.16038024,-0.22220072,0.07898285,-0.03660331,-0.4506283,-0.2931542,0.2680829,0.40540162,-0.0062831924,-0.27562067,0.32035577,-0.09520547,0.15042792,-0.13576202,-0.044284474,-0.01174706,0.17517151,0.459477,-0.090125665,-0.33100697,0.18074292,-0.122407034,-0.3215028,0.13707294,-0.12429148,0.12191544,0.114763655,0.16120873,0.2187351,-0.0017254297,0.08672316,0.26421657,-0.10628406,0.093757376,0.089565754,0.07270292,0.2750088,0.16438858,-0.05901993,-0.14608036,0.1880929,-0.20312493,-0.20331764,-0.14396045,-0.0048992564,-0.14299686,-0.14559856,-0.21006277,-0.17884244,-0.074870996,-0.029654505,-0.031037798,-0.1621035,-0.18405631,0.15788658,-0.21543519,0.16793278,0.10157825,0.09457071,-0.16607238,-0.22845805,0.19397849,0.23143469,-0.2852625,0.11577936,-0.15602617,0.25313944,0.24768226,0.12012031,-0.021332672,0.0056277327,-0.090539835,0.15937491,0.3155251,0.24272117,-0.044184677,0.19414306,0.14607398,0.0149146365,-0.045657843,-0.26087973,-0.23692298,-0.23801193,-0.24687904,0.19616538,-0.067047805,-0.35406217,-0.037510213,0.1421849,0.27876952,-0.141796,-0.29619262,0.009956054,0.05611948,-0.016956406,-0.341306,0.082526356,-0.42033216,0.002773403,0.1689418,-0.3123712,0.050821878,0.04850586,-0.16127302,0.14391921,0.17849636,0.068762854,-0.05731325,-0.30323502,0.15266135,0.20002551,0.2758343,0.077244036,0.0005392485,0.28131443,0.3854373,0.008660596,-0.20981151,-0.37813044,-0.21411733,0.18580322,0.16153398,-0.06811045,-0.20981151,-0.2982768,-0.14731169,0.17780596,0.09470971,-0.076355115,0.42102104,0.06651038,0.1230759,0.18688315,-0.118470564,0.097179234,0.271915,-0.02891683,0.079492085,-0.26110247,-0.23974438,-0.016118672,-0.0051726587,-0.07722279,0.13529006,0.17660457,0.21171191,-0.030351825,0.1984966,0.12988378,0.33772454,0.10992734,0.17506905,-0.108190484,-0.4206022,0.06029203,0.15480281,0.24584495,0.030340884,-0.26735833,0.13749857,0.38318762,-0.26954085,0.09431592,0.14498149,-0.1289244,-0.26392865,-0.32924828,-0.1682097,-0.046573352,0.056979284,-0.5671426,0.02681378,0.14950241,0.16072679,-0.2785827,0.16665076,-0.12135955,0.010092005,-0.31221342,-0.38255936,-0.14750507,0.44762513,-0.30250466,-0.19400495,0.045435313,0.2042247,-0.20814228,-0.2568564,0.13438973,-0.2568564,-0.09913159,-0.06370312,0.20677964,0.4159439,-0.1373705,0.31766394,-0.0726454,-0.33384523,0.065832235,0.23249935,-0.05539957,-0.041165844,0.22549391,-0.042919777,0.24810933,-0.36712918,-0.08361103,0.43580082,0.26824862,0.012442608,0.17151403,0.26263604,-0.3380758,0.30687642,-0.3138096,-0.14815576,-0.36745933,0.08006189,-0.27221045,-0.17002834,-0.16879028,-0.36944023,0.2159195,-0.000717694,0.32321894,-0.23638892,-0.21426082,-0.10876474,0.1238823,-0.33667222,0.30039006,0.35072747,0.26476166,0.29957289,-0.022962352,0.23844892,0.4955292,-0.32588562,0.066190414,-0.35824537,-0.0141778225,0.10108338,0.3149356,-0.52102476,-0.39844993,0.08694641,0.22570112,-0.20657946,-0.3288274,0.17699806,0.100511365,-0.014097915,0.17234913,0.15735637,-0.017339591,0.15654595,-0.03738058,0.2065218,-0.1841002,0.115619786,0.12142779,0.15641087,0.2392087,0.078272976,0.09407615,-0.15438484,-0.15114315,-0.075774185,-0.27878416,0.12669551,0.000807781,-0.4130436,0.19409537,-0.4130436,-0.079421066,-0.2866182,0.095857985,0.0025476452,0.2108271,0.26344314,0.2127624,-0.04321169,-0.049350232,-0.107469805,0.16486365,-0.065014094,0.2044164,0.0015724339,-0.30432642,0.22352752,-0.030798536,0.02183264,0.24251768,0.094285555,0.012526552,0.23985665,-0.11611819,0.31085807,0.0056395945,0.07100144,0.18857111,0.18042429,-0.1837601,0.07074112,-0.104860745,-0.19478282,0.059319563,0.19101189,-0.21392752,0.34489468,0.27237687,0.47629693,0.23959883,-0.24061407,-0.14409287,0.36026844,0.28093398,-0.19985907,-0.11631855,0.19449274,0.052031524,-0.31124642,0.24177435,-0.26585028,0.041443925,-0.028426979,0.20963569,-0.37464827,0.17043552,0.18035178,-0.075456455,-0.10807162,0.21505864,-0.19212732,-0.36566168,-0.3275461,-0.1570331,-0.1995645,0.28447238,0.3108124,0.1887186,0.13231994,-0.38921276,0.01910621,-0.06937501,-0.41679233,-0.1636181,-0.050317217,0.21769264,-0.17152011,-0.16563234,-0.21091677,0.08523455,-0.19758919,-0.2997157,-0.25182936,-0.067645244,0.3279206,0.17155391,0.09430041,-0.33783877,-0.05888933,0.05811447,0.18658619,-0.23819183,0.09693494,-0.21649577,-0.18100719,0.0780671,-0.06698661,0.11436927,0.35240614,-0.1500903,0.3945585,0.31536785,-0.16473515,0.23008524,-0.27839285,0.1803093,0.097496234,0.2396293,0.03211943,0.022006398,0.14778608,-0.17796,0.3597376,-0.3156881,-0.3077592,0.12847772,-0.2855876,0.22024752,0.15784405,-0.013884771,-0.40819207,0.070515916,0.24021663,0.21613623,0.2924887,-0.37794474,0.39703286,0.2961595,0.3191695,-0.17233028,-0.017514048,0.23968689,0.06731237,-0.049875762,0.31315076,0.30766308,-0.27084264,0.2945635,0.32359502,-0.2189754,-0.12453452,-0.0510264,-0.090546414,0.24535158,0.20552178,-0.47689548,-0.29297033,0.088023864,0.36785036,-0.16073538,-0.5374368,-0.0986894,0.37953377,0.30503678,-0.145267,0.029921975,-0.008720602,-0.03633667,-0.28878093,0.22917603,0.034464058,0.3640042,0.065661006,-0.21833877,0.101599246,-0.19347684,0.22439489,0.34073597,-0.37866637,0.26854074,0.17243981,-0.18423331,0.30694926,-0.009930829,-0.33212993,-0.372929,0.018148415,-0.104149185,-0.25146273,0.36881202,-0.16114143,-0.3852341,-0.16798395,0.14497598,0.012893881,0.30637398,0.28430685,-0.00963299,-0.028118495,0.41499907,-0.25454187,-0.17037883,0.23007986,-0.09288726,0.07223139,0.1849192,-0.10888166,0.36025888,-0.092716195,-0.18919578,-0.19826213,0.3944715,0.2952549,0.042759437,0.030431133,-0.08384047,-0.11716885,-0.34751034,0.47442994,-0.42231938,-0.25272027,-0.12444195,0.025635682,0.5262208,-0.13203475,-0.22634529,0.10997567,0.42455727,0.14098626,-0.08719728,0.34878913,0.2690248,-0.2845301,0.11117454,-0.27445963,-0.16344495,0.30387175,-0.43478754,0.15405062,0.18937333,-0.20213309,-0.28584948,0.3280189,0.0027279798,0.23169835,0.21006903,0.084805645,0.15202773,0.49700776,-0.35789537,-0.12370732,0.16945568,0.22282878,-0.25457254,-0.17132296,-0.06589943,0.108769074,0.38963914,0.20166627,-0.09733198,0.22703016,-0.20057702,0.04372548,0.045005143,0.18358403,0.0016590285,0.12947227,-0.13244182,0.067408726,-0.18054849,0.19018303,-0.09548745,0.28534052,-0.07654834,-0.17408147,0.20588863,-0.0846651,0.22740135,0.05467267,-0.36584824,-0.1870155,0.12155348,-0.1523048,-0.006203055,-0.387229,-0.3629447,-0.06658386,0.07931992,0.22671162,0.0678162,-0.19120058,-0.20583245,-0.033640947,0.25285167,0.24002825,-0.23082168,-0.26830554,0.022995858,-0.16793758,0.39127892,-0.084996305,0.029469222,-0.4004855,-0.10505346,-0.23657578,-0.11738368,-0.14270173,-0.21832706,0.26189384,0.18314484,0.26699033,0.114917636,0.39588222,0.34043124,0.1472532,-0.23443028,-0.3062546,0.24310794,0.2897003,0.3065216,0.14311461,0.066183835,0.11888392,-0.112208806,-0.19745012,0.07723116,-0.099926576,-0.027167747,-0.037514187,-0.14591818,-0.23643282,-0.3673987,0.05330085,0.25405514,-0.01410954,0.06471531,0.23349577,-0.020309059,0.1034617,-0.054387297,-0.094513655,-0.1644202,0.07978668,0.044250846,-0.07960026,-0.4440464,0.32921326,0.24196988,-0.26527205,0.21214308,-0.12387441,0.26322147,0.15407404,0.33778846,0.06436063,-0.32567132,-0.32250223,-0.117815845,-0.12489971,0.28298172,0.3008778,0.29267544,0.42801452,0.038295656,-0.38105538,0.049397323,-0.31777248,0.043863468,0.20967552,-0.15467644,0.036088906,0.20831752,0.10619576,0.36475936,0.069869205,-0.3919194,0.28572363,0.29821724,0.09186884,0.15630603,0.16418245,-0.029349819,-0.04586652,0.28653842,-0.25272417,-0.11033767,0.18373768,0.2027497,0.41044822,0.024277192,0.028665895,0.25788856,-0.12079383,0.29258022,-0.1267151,0.45308134,-0.19937252,0.4154639,0.39958096,-0.09529755,-0.20355223,0.08289772,0.03084283,0.121838756,-0.15952587,-0.06273059,-0.2640188,-0.061894644,-0.22347555,0.20550276,-0.12567016,-0.22751594,-0.20898587,-0.06043676,-0.0023910725,0.23113479,-0.020574497,0.0017161997,-0.34574708,0.07492248,0.12968168,-0.104530655,-0.18104497,0.13392659,-0.011176025,-0.24408172,0.26976338,0.053193897,0.16300415,-0.03109389,0.32706952,0.108775556,0.16809802,0.25915113,0.14284088,0.008788269,0.26445726,0.13191025,-0.21774758,0.21306916,0.1879393,-0.28043857,-0.1752407,0.10860646,0.089157544,0.37373987,-0.29139948,0.26212585,0.33390638,-0.00052397395,-0.065431215,0.08147155,-0.07452074,0.032180928,-0.237798,-0.18165682,-0.3341737,-0.4445847,-0.33497572,0.06890662,0.18740462,-0.053033367,-0.115356766,-0.10452774,0.28625986,0.25448853,-0.09150149,-0.020274093,0.03204935,-0.058856428,0.18157327,0.16679959,0.09007178,0.14336821,-0.23145428,0.20111266,-0.20556064,0.035643484,0.2490874,0.22621202,-0.32915118,-0.43812692,0.15035792,-0.034213774,-0.20746692,0.009298084,-0.26529077,-0.40572014,-0.30266958,0.051902715,-0.25728565,0.34458783,-0.2764294,-0.07636878,-0.12352681,-0.2798951,-0.093490906,0.11387242,0.08944761,-0.3534996,0.2757693,-0.044393737,-0.0777303,0.5096203,0.49509746,-0.17658477,-0.07554362,-0.24210265,-0.006988094,0.142258,-0.19622363,-0.09992717,-0.29392284,0.18631054,-0.23679017,-0.12535536,0.06239646,0.011846539,0.2958471,-0.20332457,0.36699665,0.29753444,-0.1964346,0.27292737,-0.08521071,-0.05114752,-0.2660374,-0.3172201,0.22441633,0.323407,0.32115722,-0.26153782,-0.17393672,-0.23200937,0.31609517,0.15621965,0.2935973,-0.251695,0.04070176,-0.057758756,-0.26892364,0.098852225,-0.18687914,-0.12107261,-0.25809833,0.09116055,-0.24470912,0.07962304,-0.024481595,-0.3293175,0.08104743,-0.36264807,-0.3270385,0.020137224,-0.04109347,0.29342303,0.41648978,0.15383343,0.027401581,0.119933106,0.23188967,0.07193138,0.06797871,-0.23623054,-0.19696434,0.067726284,0.020682046,-0.27011347,-0.12183606,0.07303038,-0.3019381,0.035288125,0.17273962,-0.20868087,0.17653957,-0.026164273,-0.08549899,-0.5294604,0.38189548,0.32679614,-0.08344068,-0.050349403,-0.3070047,0.43477818,-0.13869835,-0.3603624,0.36226237,0.19158107,0.21088672,0.15274563,0.13858628,-0.01948478,-0.09303826,0.29947668,-0.07656078,-0.09134666,0.002695995,0.33105332,0.19948405,0.18194148,-0.033675466,0.1516179,0.2346945,-0.12467753,0.06998231,-0.060459208,-0.2811823,-0.02322824,-0.29195845,-0.0023553246,-0.02661145,-0.13482717,-0.3032358,-0.121044226,-0.07536613,-0.34730634,-0.23794086,-0.17212512,-0.088518366,-0.18031116,0.13294128,-0.16983302,-0.2717765,-0.008438442,-0.039756864,0.26348132,0.018514091,-0.07536613,-0.06559746,-0.005085577,-0.040084302,-0.09304798,-0.15029567,-0.16732264,0.053209253,-0.111220986,0.080004886,0.045950964,0.047864035,-0.10009194,0.31586108,-0.024538111,-0.03847825,0.31142792,-0.21750082,-0.25241178,0.061856125,-0.087693006,0.104455814,0.061163448,-0.34855548,-0.07640236,0.28455204,0.2501952,0.3191859,-0.113391355,0.27998036,0.5333619,0.19159468,-0.075363345,0.21473011,-0.20738773,-0.03969044,0.15091172,0.02597684,0.099269144,0.18496302,0.060636196,0.12873879,0.24571234,-0.025453627,0.07404177,-0.019825546,0.3070273,0.16573139,-0.20215836,0.07387208,0.10809307,0.06798946,-0.19095877,0.12353493,-0.12557122,0.075964935,0.1316801,-0.08665546,0.26019263,-0.17874102,0.24277103,-0.04248337,-0.16795175,0.32335255,0.0021623583,-0.3187285,-0.37223527,-0.15936425,0.30287465,-0.006564486,0.12501423,-0.32153594,0.22195394,-0.005537495,-0.24573472,-0.04966715,0.359354,-0.4468805,-0.3679415,-0.17653926,0.3063427,0.18512677,-0.16035512,-0.10602264,0.33986697,0.40955788,-0.16675493,0.24004303,-0.12653758,0.07763213,-0.29119056,0.00204612,-0.025854021,-0.34752288,-0.36686087,0.17894627,0.34752288,0.021737697,-0.03315831,0.09388723,0.012217602,0.037274633,0.08526923,-0.17824562,-0.22841223,-0.12471588,-0.17123911,-0.046102837,-0.23513848,-0.35985434,0.26008165,-0.29146057,0.20376039,0.20422277,0.2190193,-0.023986543,-0.23212038,0.39241597,0.21393299,-0.034428876,0.19543734,-0.32028297,-0.17216365,0.075100034,-0.028591188,-0.31519666,0.30641124,0.022079179,-0.25647298,-0.3316886,0.07876063,0.22487624,0.21747799,-0.07051466,0.35326687,0.34895122,-0.11223647,-0.048974846,-0.19684008,-0.048239928,-0.14627782,0.0036341627,-0.16121131,-0.056970738,-0.081899114,-0.049650967,-0.060321957,-0.022326767,0.12793429,0.08936586,-0.025501607,-0.047387425,-0.03845084,0.03889179,-0.15439129,-0.2815025,0.15850683,-0.3287723,-0.09659744,-0.16979514,-0.23728989,-0.3130513,0.3828438,0.0919637,-0.2051618,-0.17580836,-0.14996797,-0.077208914,0.13490091,0.089231335,-0.13763328,-0.29899913,0.24763061,-0.13583772,0.31976512,-0.5402282,0.15644759,0.19423233,0.5439754,0.008865559,-0.29384667,-0.2025075,0.021546673,-0.18330286,0.28619602,-0.067645624,0.3043251,0.10500839,0.24425705,-0.18477936,0.22256172,0.16072261,-0.12832719,0.036324933,-0.08242753,0.44778,-0.011908454,-0.23658252,-0.23215489,-0.22315206,0.40557003,0.20603193,-0.2193148,0.3347281,0.1049346,0.2016043,-0.09585798,0.058592174,0.43243092,-0.4176722,-0.029997127,-0.090303175,-0.09584811,-0.12696762,-0.087870196,0.20142815,0.27611497,0.021019818,-0.059806053,0.10082723,0.039380334,0.23288715,0.20640726,-0.41371983,0.17279819,0.24126112,0.30440545,0.07395129,-0.14258397,0.031147806,0.08509773,0.022236308,0.21896823,0.14880787,0.30553707,0.097432375,-0.22996867,0.23049612,-0.17924546,0.2127386,-0.3892589,0.12579708,0.009224899,-0.18443206,0.13608238,0.006527207,0.19744252,-0.26900005,0.36991903,-0.056041677,-0.48595825,-0.16307029,-0.022856213,-0.3398543,-0.26689026,-0.25985757,0.17291604,-0.10962191,-0.2252216,0.39172032,0.42688373,-0.14062412,0.087681405,-0.18601495,-0.2397526,-0.19809797,0.22178707,-0.07746648,0.2829971,-0.13187984,-0.39905772,-0.3163844,-0.11677606,-0.07897686,-0.03147945,-0.11447074,0.26360068,0.23053135,0.35962892,-0.2360959,0.058547013,-0.26439562,-0.16630055,0.21701744,0.10000291,-0.28824368,-0.0028079627,0.08060505,0.24438839,-0.023941578,0.16301832,0.30461615,-0.02065548,0.30072153,0.3749978,0.033712942,-0.098478645,-0.215735,-0.07302442,0.06624358,-0.29432318,-0.006867773,-0.13958097,-0.4075458,0.2059984,0.22199424,0.21726504,-0.010153872,-0.3435625,-0.17192034,0.19654001,0.026843956,-0.07720186,0.3484957,0.13734591,-0.053076275,-0.04522697,-0.061978955,0.4993655,0.36969903,-0.057731494,-0.122055046,0.11974443,-0.101327434,0.1550833,-0.3267487,-0.43249348,0.30554536,-0.35556346,-0.19585893,-0.12959854,0.049950145,-0.20754795,0.041828997,-0.054367505,-0.08257065,0.2691221,-0.08243759,-0.24739698,0.0697646,0.3044886,0.33867618,-0.37825298,-0.2975837,-0.06963829,-0.2320715,0.082900725,-0.39610463,0.16142274,-0.041050386,-0.20546244,-0.23089263,0.016809607,0.11881455,0.33918142,-0.16883287,0.040460944,-0.1124991,0.029914152,0.47559503,-0.27636382,-0.14429608,0.43799606,-0.19792825,0.41628778,-0.34350127,-0.086433984,-0.24517563,0.40032583,-0.37191355,-0.44916943,0.26337227,0.05977752,0.065444015,-0.24693145,0.026197558,-0.047247387,0.24756992,0.29274225,0.105907574,-0.20830351,-0.39904886,-0.11277121,-0.00955722,-0.25842404,-0.003778494,-0.08705316,0.1804241,-0.24595271,-0.14383973,0.15500604,0.18483184,0.24756889,-0.013682405,-0.1711678,0.0905059,0.029036084,0.034692705,0.0137375025,-0.50894874,-0.32352918,0.14655785,0.3247046,0.039449405,0.045436606,-0.21406996,0.3270554,0.054545965,0.06743865,-0.18115872,-0.20863372,-0.039657757,0.15000801,0.3223057,0.29415888,-0.22663899,-0.34069064,0.16546436,0.18775405,-0.16823024,-0.26975408,-0.20044453,0.21459931,-0.08118655,-0.12381355,0.29611126,-0.045677602,-0.12291871,-0.38071448,-0.099815525,-0.057757962,-0.083464324,0.23021837,-0.13886316,-0.2582025,-0.18043262,0.16391288,-0.540362,-0.45167783,-0.10496846,-0.21039562,0.18012068,0.22262792,-0.05909732,-0.1428886,0.28088427,0.2584074,-0.07419657,0.046100494,0.016876757,0.15206283,0.25749,-0.34128127,-0.09655875,-0.1509925,0.1449528,-0.0826445,0.2905172,0.1570322,0.04009902,0.2859301,-0.16750036,-0.24912623,0.2276254,-0.14136465,-0.071841046,0.10241856,0.19376484,0.00531083,0.20573835,-0.043774117,-0.19930097,-0.13492727,-0.25054243,0.07827842,0.24603628,0.12565747,0.1466433,0.24668002,0.24178761,0.13904719,0.06212062,0.19724102,0.3718225,-0.19762726,0.21951433,0.10986435,0.110693306,0.123569764,0.047858413,0.16159123,0.31544554,0.21552865,0.19375473,-0.011004396,0.122575015,0.14877003,0.16457547,-0.13152774,-0.011598481,0.006403688,0.038187258,-0.19994427,0.07659557,-0.14213839,0.17209134,0.040674124,-0.21033385,-0.20016533,-0.116274945,0.18203881,-0.014685237,0.21290258,-0.020193126,0.31668517,0.063811466,-0.35084444,0.04898538,0.27540934,0.09625094,0.14956553,-0.27683264,-0.09678468,-0.05168373,-0.0683779,-0.15015858,0.028036125,0.27232552,-0.14612588,0.13509528,-0.030571386,0.19736484,-0.23947091,0.24362221,0.319769,0.22737283,0.014309088,-0.29080886,0.3405024,0.13196687,-0.13285425,0.1607435,-0.04820404,-0.038442798,0.0006447409,-0.04034434,0.17126536,-0.1888863,0.27179345,-0.20473246,0.15757428,0.17570229,-0.1429958,-0.41935295,-0.11865609,0.18774538,-0.20777494,-0.24022788,-0.31920516,-0.09767577,-0.2839633,-0.16223164,0.28531414,0.4229293,0.09386895,-0.13590978,-0.24186455,0.2331153,0.2692986,0.16638383,-0.1629731,-0.20835051,-0.0035613293,0.026785275,0.026136497,0.039853524,-0.12078398,-0.08282118,-0.18684815,-0.046415452,-0.122785926,0.24290259,-0.018638473,-0.4567399,-0.26870543,-0.10899475,-0.12661724,-0.044082653,-0.36155185,0.0013451693,0.121579215,0.023078566,-0.17114443,-0.2736829,0.077570654,0.07075451,-0.4848351,-0.29902115,0.28390712,0.041415468,0.15736397,-0.20892955,-0.1822577,0.08253458,0.3953362,0.31028262,0.30998626,0.04308246,-0.035469867,-0.051417414,-0.11557805,0.16510381,-0.0007719016,-0.0809699,0.21774143,-0.16553526,-0.22996601,0.028997434,-0.012008857,-0.20810558,0.24564224,-0.59368336,-0.27800143,0.29799223,-0.014274,-0.342576,-0.14928375,-0.1912788,0.22306272,0.43174356,-0.30633372,-0.15748142,-0.019631244,0.30805954,0.24391642,0.07543288,0.2553682,-0.049005207,0.33513802,-0.28259817,-0.060743768,-0.08478817,-0.01949517,-0.27055413,-0.3477057,0.32257035,0.007947528,-0.25868466,0.09739949,0.32798144,0.26915774,-0.49642318,0.118171066,0.24157865,0.42590457,-0.15290672,-0.13894264,0.062838376,-0.4328866,-0.45243633,-0.12855685,-0.03966878,0.15661441,-0.10593953,-0.24260245,0.4301276,-0.47359,0.3834805,-0.31041875,-0.23698233,-0.34151682,-0.15989281,0.46871918,-0.010912427,0.27519923,-0.36605808,-0.3345853,-0.22480537,0.23754434,-0.15708275,-0.10659521,-0.019553384,0.015326574,0.14050336,-0.1521183,0.0057196575,0.19215265,0.12479287,0.1759863,-0.29950288,0.31028044,0.19144359,-0.07983907,0.27823135,0.33070108,0.2744025,0.20732632,-0.2551163,-0.0542069,-0.075726576,0.049775336,-0.16932122,-0.12131852,0.13067798,-0.27709687,0.076435626,-0.10834289,0.06884879,0.096076325,-0.26376674,-0.16776131,-0.024535026,-0.21872152,0.14676295,0.12684223,0.09683916,-0.0004903956,0.303283,0.25709942,0.2629537,0.18294552,0.24587877,-0.1418031,-0.26685652,0.22441316,-0.08464279,0.23612168,0.273036,0.093993336,-0.061307073,-0.17985576,0.1927026,-0.18310814,-0.37499765,0.12798055,-0.09773356,0.38793135,0.067417026,-0.44933054,-0.18681405,0.3711861,0.3427541,-0.251353,-0.14329389,-0.49119365,-0.1115477,0.28641334,-0.19414009,0.011087179,-0.060701486,0.08233075,-0.28222704,0.114076935,-0.08826136,0.11756552,-0.3427541,0.0048131654,-0.13614227,0.048229773,-0.11355364,0.11460022,0.09078539,-0.29656053,0.2843438,0.11529516,-0.14644776,0.2321174,0.082386404,-0.16294031,-0.29014674,0.15599206,0.35947657,0.31610724,-0.22417654,0.07085689,0.42147633,-0.42483592,0.17362992,-0.15568663,0.03180161,0.25059518,-0.076698005,-0.27793005,-0.2651025,-0.22356571,0.11460797,-0.020431817,0.08440792,0.22478268,-0.098007336,-0.21732914,-0.07473141,-0.19248405,-0.10108028,0.12004101,-0.26937306,0.10637621,0.20425278,0.1463245,0.25538138,-0.15024741,0.054986104,-0.20542966,0.06593756,0.0017561147,-0.19653773,-0.16803126,-0.30441773,-0.042628944,-0.24884318,-0.28794152,-0.40296355,0.31686023,0.13721739,-0.3347071,-0.32061747,0.37071395,-0.055693194,-0.20570867,0.34378707,0.21118797,0.3137292,0.27944443,-0.06649525,-0.21463211,0.5272654,0.0151365725,-0.19475006,-0.06500801,0.115535006,-0.01013671,-0.095887795,0.2902465,0.15733425,-0.07858885,0.07463592,0.28558883,0.11579846,-0.2361436,-0.1322802,0.001991396,-0.06606906,-0.0074016885,0.04063602,-0.25774038,-0.07793307,-0.097824834,0.29610306,-0.08773687,0.17547373,-0.33077154,-0.08887354,0.23046024,0.53650916,0.38249013,-0.04092019,0.10990197,0.08738166,-0.028896334,-0.14499672,0.037758823,-0.4568541,-0.0064158845,-0.11360968,0.0068579875,0.052232847,0.3445384,0.19581926,0.11645639,-0.011548592,0.29277998,-0.45719916,-0.16183124,0.23946884,-0.38301215,-0.33332407,-0.13094874,0.04779025,0.25430626,0.071081534,-0.46272007,-0.010362462,-0.16053729,0.0344409,-0.0048577413,-0.0398324,-0.27164787,-0.16545594,-0.33472714,0.079866506,0.15731667,-0.1873302,0.078658335,-0.28919816,-0.18478668,-0.037326146,-0.124123745,-0.15286551,0.1677451,-0.20170109,0.0719816,0.20704247,-0.03742153,-0.006080601,-0.041999865,0.25269866,0.086034544,0.2064066,-0.22077748,0.29301342,0.2668152,0.03591472,0.07938641,0.007914787,0.3602922,0.11854529,0.117247626,0.21464865,-0.2758678,0.5373849,-0.015829574,-0.034597974,-0.13923156,-0.07167677,0.026411248,0.004537048,-0.031086652,-0.054272827,0.23907524,-0.005295608,-0.29372972,-0.15694083,-0.24640322,0.5212023,0.38532943,-0.099385686,-0.047074724,-0.29764462,-0.13536437,-0.14467277,-0.15442978,0.026032688,-0.12807466,-0.053887803,-0.16407463,0.048841078,-0.20579422,0.17540172,0.31401843,0.14983165,-0.008039713,-0.09140179,-0.28216797,-0.30841094,-0.21476617,-0.063420504,-0.0596635,-0.18325217,0.20186898,-0.06269153,-0.07295321,0.067538284,0.15125196,-0.23756094,-0.07013359,0.1109342,0.1740665,-0.054742828,-0.3319576,-0.21522924,-0.13616298,-0.11262417,-0.12179827,0.03025341,0.13519728,0.15946037,0.35465145,0.11678873,0.13688725,-0.019736389,0.27812013,-0.23828521,0.23080108,0.23224962,0.19989884,0.16247816,0.53365755,0.29011378,0.13289694,0.021840462,-0.09641712,-0.45293626,0.14324583,-0.1715328,-0.008456981,-0.46052542,0.12789498,0.26562142,0.16471978,-0.29960024,0.26096442,-0.14186598,0.087232485,-0.016277935,-0.17886324,0.03719131,0.0961584,-0.31891817,-0.24940816,-0.21146224,0.19559395,-0.096084654,-0.17196822,-0.06484419,-0.41541722,-0.011290271,-0.34393644,-0.13286099,-0.06015003,-0.1948887,0.10482551,-0.015676886,0.24707483,0.08831501,-0.14762333,-0.22402488,0.11136497,-0.113372125,0.41489926,0.20460075,-0.2166437,-0.30223933,0.02283953,0.105019756,-0.080610104,-0.014818986,0.24286944,-0.20346153,0.32343668,0.095892556,0.0472165,0.20798615,-0.24695617,0.27366596,0.026855754,0.14894727,0.09720615,0.062286377,-0.123988934,0.048238188,-0.39553857,-0.1901796,0.10837173,0.22039233,0.12552147,-0.21966256,0.21718131,0.027220642,0.2012722,0.15733969,0.38678125,0.028433336,-0.04327256,0.29768255,0.041843746,0.13430822,-0.1370842,0.24624535,-0.4167229,-0.13267529,0.20427914,0.25343022,-0.1416564,-0.16819145,0.21766913,-0.25571632,-0.17504975,0.09658761,0.2139134,0.32233974,0.12908286,0.26567718,0.24085669,-0.21015766,0.35532486,0.120754935,-0.22358446,0.26819053,-0.009090911,0.1274459,-0.16706496,-0.27567104,0.043671004,0.053645033,-0.34105635,-0.0012348488,-0.21388748,-0.30226845,0.045922086,-0.22247623,-0.059047632,-0.24810395,-0.10590478,-0.0027489183,-0.15972297,0.19754116,0.0973853,0.20668402,-0.12647621,-0.33800873,-0.035671003,0.15019798,0.09414957,-0.3889554,0.2642072,-0.20242158,0.1756478,-0.1675568,-0.19800831,-0.16623284,0.17976683,0.28509668,0.37659827,-0.16799814,0.3209912,0.06538982,0.06064556,-0.18844625,-0.30245548,0.06082945,0.20918858,-0.3227565,-0.13916484,-0.37600985,-0.09334047,0.31981432,0.23608139,0.12919085,0.09825547,-0.14218539,-0.4252148,0.27866995,0.107728906,0.35143936,-0.08651847,0.34674454,-0.14537114,-0.25821403,-0.12826866,-0.019303175,0.067865014,-0.47752827,0.210763,-0.055750757,-0.18393558,-0.24681237,0.10529767,0.20321779,0.12692729,0.2677713,0.107896574,0.053673968,0.22486712,-0.36286628,0.11490765,-0.24383514,-0.14981979,-0.1551803,-0.01705231,0.32630473,-0.2960659,0.19435337,0.0370426,-0.011640241,-0.3568185,-0.189955,-0.120817974,0.27902216,0.43104115,-0.060408987,-0.18088333,0.21483332,0.32685453,0.1768973,0.17744711,-0.17923394,0.08692657,0.20131437,-0.06737702,-0.34280613,-0.14680025,-0.0168953,0.24051556,-0.14782111,-0.21274805,-0.16507371,0.33606842,0.09621643,-0.144146,-0.028609714,-0.08759013,0.3256556,-0.16537997,0.10091241,0.07544185,0.095757045,0.09871755,0.09458305,-0.29992986,-0.09249028,-0.05961846,-0.30209258,-0.22629158,-0.3432163,-0.10103097,-0.0731891,0.046319753,-0.036483403,-0.31520772,-0.17916603,-0.1660509,0.11714702,0.21539935,0.04437471,-0.04004005,-0.0498764,0.1291507,0.31409627,-0.0691323,0.31254023,0.4012341,0.06941016,-0.12970643,0.022631938,-0.07974666,0.006779856,0.1066933,-0.26999405,-0.14373596,0.026347244,0.17269184,-0.12723632,-0.13460572,0.095410936,0.13930127,0.020477809,-0.15182273,0.08041127,0.29712388,-0.173344,-0.1574313,-0.1496054,-0.19251749,0.09430227,-0.30573237,-0.20008254,-0.27547216,0.18860453,-0.20125642,-0.27755907,-0.12743197,-0.05026643,-0.066146724,-0.07880861,0.3243815,0.22444151,-0.014271093,0.21580264,0.33047953,0.06932279,-0.113745265,0.22884566,0.16879696,-0.28914842,0.15160389,-0.031739417,-0.48174465,0.20987399,0.094688915,0.13466491,0.23223345,-0.23020077,0.242905,-0.18378796,-0.33047953,-0.3879027,0.32840645,-0.01318782,0.22782207,-0.10407471,0.22179335,-0.04545336,0.19069786,-0.028001808,-0.4781725,0.11993975,-0.1700733,-0.045374032,-0.07682649,-0.06314289,0.16182348,0.32301235,0.2508264,-0.14024702,-0.12937945,0.2697058,-0.32840645,0.39789537,0.08868561,0.08908223,0.42327943,0.11286844,-0.35255075,-0.28069413,-0.027289707,0.034502845,0.16844396,-0.10338832,0.11458586,-0.35282552,-0.13608788,0.24758239,-0.080443665,-0.004310709,-0.16239867,-0.04726323,0.027135141,0.33606356,0.19262515,0.42262122,-0.16404738,0.04492755,-0.095556915,0.08113063,0.36189348,0.1018083,0.2809147,0.30526882,-0.23710795,0.23281917,-0.19100362,0.12062177,0.2626874,0.13754712,0.10093936,0.25671378,-0.37036628,-0.10086278,0.16986609,-0.2233226,0.041317742,-0.005719961,-0.04667871,-0.18947192,-0.100250095,0.25579473,-0.33115464,-0.02647935,-0.12146421,-0.27402204,0.05962162,-0.044074625,-0.2894245,-0.13928555,-0.22054705,0.16711482,-0.36512017,0.031290546,-0.109160356,0.06884268,-0.36289382,0.023411382,-0.21066765,-0.11041267,0.38126114,-0.15960093,-0.03899578,-0.11382176,0.43469337,0.21094595,-0.1282234,0.34257844,0.24879377,0.31113136,-0.31419256,-0.08710565,-0.07204488,0.5399094,-0.2675139,-0.4533417,0.057359274,0.09153076,0.4452056,-0.11968155,-0.109918274,-0.3589633,0.36937746,0.03234087,-0.038381897,-0.2987564,-0.06150867,-0.14506608,0.12342414,0.31291315,0.19998454,-0.09283253,0.09616832,0.1508427,-0.29241025,-0.13082796,-0.046172183,0.23831493,-0.09476131,0.20559368,0.09772939,0.14579777,-0.19792011,0.35298407,0.03710097,-0.20950286,-0.28044716,-0.118288755,-0.06508053,-0.12038813,0.35211536,-0.15549831,-0.06953265,0.2578608,0.014885634,0.10352076,-0.40278986,-0.032666955,0.20660716,0.4569392,0.23918363,0.061822888,-0.030575654,0.24474686,-0.031779557,0.2252011,-0.05920381,0.26429263,-0.21556987,-0.003545324,0.32632914,0.21854421,0.33624366,0.27548185,-0.20579699,0.08257374,-0.25140375,0.013650161,0.18285197,-0.09284234,-0.16132331,-0.027477367,0.08646873,0.3065001,-0.26882496,0.18625122,-0.29205325,0.25937623,-0.21614684,-0.3470193,-0.23302408,-0.31326488,0.095637575,0.18520528,-0.27891827,0.10296585,-0.41008684,0.29031777,-0.08749506,0.080907024,-0.22680615,0.06040268,-0.19704895,-0.23554085,0.3798855,0.00640298,0.24383141,-0.29461113,0.13590603,0.5101658,0.102891825,0.087347016,-0.18434232,-0.39755437,-0.11931928,-0.12534484,-0.135873,-0.19361243,-0.15745908,0.11759769,-0.070452675,0.2232767,0.04105325,0.024284322,-0.18884495,-0.1313704,0.21202017,-0.09786565,0.26327053,0.1424945,0.33319348,0.06422847,-0.29055107,0.108327605,0.27280545,0.09991831,-0.059427887,0.27028736,-0.10628035,-0.17650129,0.114425346,-0.08287337,0.23913078,-0.22853437,-0.47161904,-0.3805216,0.12083063,0.2068671,0.21224439,0.26348668,0.06583214,-0.30998436,-0.26396117,0.33528918,0.06535767,-0.1587879,-0.15934144,0.32769772,-0.043097313,0.007685358,0.08927865,0.3827358,-0.06350733,-0.18786356,-0.00095948175,0.03492083,-0.3799281,0.3124495,0.30929878,0.14808533,0.18326871,0.0062974,0.13587616,0.2058491,0.04824588,0.025796779,-0.19770965,-0.28199226,-0.18550049,-0.29328245,-0.061275553,-0.090846665,0.11598704,-0.10620658,-0.039253112,-0.036594667,-0.25731137,-0.085832335,0.083446264,0.40854868,-0.2762542,-0.1725926,-0.020480458,0.10207089,-0.11406753,0.13494566,-0.07801132,0.3107197,-0.043844085,-0.1305712,-0.26843318,0.22349548,0.07821016,0.15668544,0.1676879,-0.19539285,0.19724868,0.2887148,0.012866566,0.19035558,0.24205382,0.26326334,0.41134283,-0.33783728,-0.045580648,0.030158894,0.2506395,0.15248798,0.2925809,-0.1449933,0.31304717,0.2768709,-0.22498463,-0.0019277191,-0.23737969,0.16387413,0.14816412,0.10247538,0.13108489,0.38280538,-0.124094665,0.044391587,-0.19572654,0.067380086,0.30987632,-0.11515869,-0.2026447,0.15744744,0.3103229,-0.15387559,0.20645332,-0.10158361,0.0072464044,-0.09915474,0.25388756,-0.23017044,-0.22002637,-0.42490807,0.25303033,-0.060721565,-0.39747623,0.24817261,0.007831296,0.22774158,0.1910229,-0.19888099,0.040719166,0.29860723,0.15444708,0.22031212,0.17273499,-0.021502577};

#endif
