#pragma once

#include "parameters.h"

#ifndef KERNEL19_H
#define KERNEL19_H

static float bias19[FEATURE_MAP19] = {1.6896659,0.025688991,-1.0815473,-0.3936553,0.44053885,0.3059631,0.31049287,1.3081516,-0.5306145,-0.9925553,0.7055297,0.2410129,0.26069373,0.5898696,-0.7248236,-0.5446305};

static float kernel19[FEATURE_MAP19][IN_CHANNEL19][KERNEL19][KERNEL19] = {0.046575647,0.049065884,-0.047697622,0.08532484,0.060531925,-0.015242442,-0.03694308,-0.1759038,-0.12697475,-0.114715114,0.0027108698,0.20403527,0.21169755,0.16408202,0.09933584,0.0662239,0.19265133,0.70536655,0.29729602,0.13168156,-0.087623514,-0.09676351,0.37807822,-0.06655228,-0.028240934,0.14582464,-0.18189104,-0.5433865,0.10388577,0.37438375,-0.021982832,0.08086356,-0.893033,-0.35962456,0.16869095,-0.020059984,0.68765205,0.18085167,-0.57415205,-0.40057606,-0.09006205,0.058049228,0.56500554,0.02689389,-0.28790754,0.012388079,-0.28250277,0.32740387,-0.00064270874,0.1564263,-0.053661626,0.11753546,0.15235843,-0.21794486,0.15045553,0.083346784,0.04535232,0.014509571,-0.53230304,0.09026063,0.1914312,0.5414369,0.28619534,-0.079604425,-0.043512855,0.25790563,0.12628877,0.40899548,-0.017030906,-0.054676503,0.1010437,0.08772344,0.027179677,-0.0033538516,-0.018822799,0.18513715,-0.08291948,0.2295387,0.14607008,0.11963312,-0.032006763,0.06087561,-0.1587002,0.08315483,0.0037336322,0.0028388351,0.23628522,0.28806087,0.88991356,0.21714392,-0.0053148484,-0.17054585,0.4098121,0.2295387,0.089038424,-0.16207346,-0.36619502,0.060757935,0.015768038,0.016209308,0.1585421,-0.15763006,0.099867836,-0.0071015228,-0.043017652,-0.2761946,-0.39947134,-0.4195361,-0.046931803,-0.3356289,-0.2520257,-0.25172168,-0.115828454,-0.20110373,-0.23484902,0.07455887,-0.031104196,0.077902995,-0.01768018,0.041535597,0.034771338,-0.2967154,-0.16705441,-0.14083341,-0.037621446,-0.011279867,-0.009344193,0.02900357,-0.04928085,-0.039999705,-0.23808147,-0.08867526,0.02653196,0.2441344,0.12267249,0.07556061,0.13982242,-0.09170172,0.65976816,0.6884186,-0.09962096,0.11611516,-0.19752692,0.037048906,0.17624082,0.035787884,0.008965886,0.025056561,0.056746114,0.05896552,0.11375449,-0.10052421,0.11959138,0.20117813,-0.033756677,0.2111657,0.17705232,0.5385503,-0.012160187,0.06809705,0.07075607,0.7709882,-0.3011835,-0.36084947,-0.050489094,-0.20403172,-0.7087281,-0.38419703,0.016570281,0.026314644,-0.09086091,0.025147267,-0.007275845,-0.08859101,-0.049192008,0.015226522,-0.071990415,0.031867452,-0.16730411,-0.10183729,0.08226652,-0.064427674,-0.0583082,-0.21233422,-0.029125234,-0.09196531,-0.1773493,-0.20598382,-0.20032619,-0.050572257,-0.1347439,-0.12700796,0.11228658,-0.28288135,-0.17411636,-0.04194149,-0.16083826,0.21845369,-0.32329297,-0.24200788,-0.06469118,0.033044536,0.07715569,0.0874457,-0.007251547,0.015920399,0.13450795,0.11400558,0.2682393,-0.007698095,0.11913118,0.19151074,0.13373135,0.26886058,0.04846014,-0.05467298,-0.02654047,0.11478219,0.28765443,-0.02036646,0.044305302,-0.062400196,-0.08760102,0.14359422,0.004193666,0.01382936,-0.0485627,-0.19401275,0.0015910459,0.07076109,0.1965123,-0.01417156,-0.16151859,-0.09236435,-0.095042445,-0.027123101,0.80842614,0.24709845,0.48586506,0.21389014,-0.17627785,-0.0046271444,0.14033192,-0.008011953,0.09724443,-0.034696147,-0.08433008,-0.15866196,0.008733549,-0.110099256,-0.010261459,-0.11037075,-0.0039917594,0.04931678,0.119842865,-0.010192821,-0.08861233,-0.31299168,0.030526984,0.028948298,-0.2177214,-0.32013008,-0.5548738,0.74129605,0.2332337,-0.02798736,0.0070654782,0.12155883,0.5411461,-0.01444841,0.068981715,0.070423126,0.100212246,-0.17626373,0.027747124,0.01927943,0.086099304,-0.2529296,0.06968469,0.039281517,-0.08109233,-0.010626915,-0.13905966,-0.11221816,0.0068458756,-0.0488309,-0.19914335,-0.42781237,-0.3867242,-0.01761474,0.21886154,0.38569185,0.6751672,0.33964834,0.19831747,0.046843596,0.19697538,-0.1318331,-0.023666985,0.013807892,-0.042193845,0.06679774,0.03207687,-0.049244512,-0.015267268,0.021041838,-0.024089783,-0.1977125,-0.15937448,0.07061685,-0.09459647,0.0025935075,-0.12169747,-0.05941657,-0.012586544,-0.03800751,0.27130383,0.7403202,0.16392803,0.03540023,0.016176144,0.10436458,0.22033338,0.1247087,-0.029010562,0.17185597,-0.48506418,-0.24634506,0.05896485,-0.019507423,0.17212833,-0.39709353,-0.27358055,-0.11976809,-0.11418481,0.12957287,-0.47199115,-0.23122935,-0.12419386,-0.13842441,0.0021618174,-0.19691263,-0.60190445,-0.13488379,-0.11295922,0.11118891,-0.0014830579,-0.077280715,-0.0033810313,-0.05773925,0.07794184,-0.21635833,0.07063938,0.12263731,0.07467592,-0.18421283,-0.14414103,1.0586,0.16278249,0.23764189,0.23470622,0.8055458,-0.33701408,-0.7074947,-0.21019344,-0.05089705,-0.072804436,-0.5818483,0.23896293,-0.06047465,0.043190937,0.058493078,-0.22046827,0.05170436,-0.04429181,0.04212418,-0.1274221,0.017034054,-0.04147175,-0.06183886,0.09860178,0.019388469,0.25257486,-0.05633577,-0.08158191,0.26301372,0.7534129,0.14081106,-0.40666142,-0.32768923,0.042804975,0.3869184,0.096843064,-0.16339076,0.006417909,-0.0037408257,-0.23203756,0.029004695,0.08504262,0.017119152};

#endif
