#pragma once

#include "parameters.h"

#ifndef KERNEL62_H
#define KERNEL62_H

static float bias62[FEATURE_MAP62] = {1.2586565,1.4309226,1.561321,0.34607607,1.7046173,-0.06055548,0.828774,0.18345946,0.29865706,0.3584471,1.6901522,-0.08218317,1.6321948,2.064542,1.6922839,1.3030647,0.5442765,0.5886412,1.0489486,2.1661296,1.156612,1.148825,1.3147287,1.3387328,1.217562,0.99369246,0.44214505,0.76396036,1.3099806,2.8381634,1.0176549,1.3706977,2.0671072,1.8240373,0.7538611,0.9280001,0.23648715,0.52131325,-0.19164722,1.1794459,1.3495591,1.3085607,0.2381782,4.699328,1.2725794,2.9716814,1.1496955,1.6832396,0.17504795,1.4426941,2.495157,2.0469549,1.784984,0.4030649,1.4273405,0.82318836,0.9612527,-1.1950452,0.58625364,1.2437098,0.40835804,1.2607383,1.3494307,1.7673053};

static float kernel62[FEATURE_MAP62][IN_CHANNEL62][KERNEL62][KERNEL62] = {-0.048449203,-0.17880063,0.20558868,-0.049987275,-0.031226024,0.007934678,-0.30581957,0.38195404,0.04540511,0.002477334,-0.031914953,-0.777238,0.23609374,-0.035247438,-0.016678447,0.10843393,-0.3947713,0.28736275,0.031722695,0.034830876,-0.04389908,-0.19302778,0.19559123,-0.06402216,0.0043538595,-0.016420545,0.04423494,-0.113207325,0.034882236,0.016009271,0.19643725,0.12685557,-0.38117602,0.06909425,0.23202018,0.44210568,0.31049758,-0.3614348,0.10662692,0.44966096,0.118691,0.21983425,-0.38288203,0.12155469,0.22166213,-0.028058114,0.08140204,-0.08182855,0.02942903,-0.010236184,0.03248872,0.080434255,0.14112747,0.101393364,0.05552694,0.062457304,0.15826437,0.34105805,0.21975563,0.08711261,0.055736948,0.31871286,-0.19069009,0.36793947,0.10492155,0.06594349,0.18749791,0.37533185,0.21874757,0.104249515,0.030325605,0.042779263,0.08660858,0.08287039,0.013293703,0.04697855,0.08427218,0.18616553,0.1412383,0.031324636,0.073174894,0.17177267,0.38497525,0.18656906,0.062346622,0.059353713,0.040252917,-0.4312476,0.15132675,0.034805153,0.04364936,0.08359962,0.27279168,0.14917454,0.06359086,0.04748297,0.109358795,0.1837443,0.08864385,0.04842456,0.015030545,-0.079108134,-0.14525759,-0.067505606,-0.038254432,-0.0950051,-0.17162697,-0.3574181,-0.25480354,-0.077751994,-0.12265527,-0.24606396,0.11512117,-0.3522949,-0.11158014,-0.06279679,-0.14149055,-0.33089802,-0.19347589,-0.03985543,-0.054132566,-0.08603951,-0.090786,-0.09515578,-0.034562718,-0.040501874,-0.010681084,-0.2749218,-0.03562573,-0.06110111,0.037615992,-0.37682334,-0.8481179,-0.38849956,0.04776634,-0.10057468,-0.11238358,0.25037524,-0.18257356,-0.06773532,0.013890385,0.23405506,0.6321079,0.31260416,-0.0008391244,0.014885517,0.033253998,0.33038384,0.07237927,-0.023684144,0.14384177,0.11587253,-0.12519561,-0.02210267,0.03169529,0.431779,-0.012200864,-0.25850928,-0.09164522,0.45613316,0.4198556,-0.4548647,-0.26231462,-1.0208453,0.48632216,0.45689422,-0.07039875,-0.56927854,-0.20548823,0.47008607,0.111559816,0.14967662,-0.28996673,-0.0662763,0.11961445,-0.08472778,0.1964144,0.52120423,0.14880851,-0.08889998,0.1551203,0.18560946,0.78736925,0.24498309,0.014616077,-0.22101969,0.11757049,-0.18678623,-0.017290564,-0.13885942,-0.09761881,-0.2020843,-0.33099464,-0.2800724,-0.26209983,-0.016528336,-0.123240404,-0.2250849,-0.037950985,0.0621551,0.0011300198,0.07018393,0.07073069,0.05104738,-0.03986368,0.09677629,0.10259181,0.020329483,0.14195845,0.0689413,0.17396867,0.20418952,-0.2932615,0.13152032,0.2123412,0.09399279,0.14225668,-0.052985888,0.17605631,0.11074349,-0.013184341,0.04128028,0.11879575,0.06715191,-0.028605422,-0.08648069,-0.055788264,-0.1760706,-0.005207941,-0.05907515,-0.08004017,0.021287043,-0.026139645,0.015812596,-0.118594475,0.09354306,0.3492985,-0.47366723,0.34787714,0.08910132,0.041219354,0.23310256,0.47402257,0.23683362,0.12285855,0.09842897,0.05823122,0.26366174,0.16496626,0.0108100865,0.03789272,-0.019879822,-0.026064008,0.022038452,0.060324978,-0.017502412,0.009371082,-0.042385004,0.004018262,-0.0027347517,0.028747711,-0.19170974,-0.019281823,-0.21714659,-0.02301567,0.012988248,-0.27467117,-0.72576666,-0.36194986,-0.0060456246,-0.015854267,-0.0029407698,0.029097758,0.058020495,0.0150812445,0.031616755,-0.03767684,-0.27836654,-0.231078,0.07967521,-0.05444142,-0.26167646,-0.41804653,-0.17216602,-0.110174336,-0.006414004,-0.04358791,0.2652529,0.055434875,0.04170034,-0.0954215,0.2263094,0.4963309,0.1899489,-0.10312079,-0.008090462,0.12378469,0.030598462,0.18975021,0.017633853,0.10809209,-0.12919578,-0.20674758,-0.089304656,-0.002682196,-0.061724015,-0.20434552,-0.23093961,-0.21652733,-0.05932197,-0.2120664,-0.3023147,0.4817819,-0.2520433,-0.22476292,-0.13580142,-0.30763352,-0.044180498,-0.22939543,-0.11581296,-0.02683,-0.045553096,-0.18924695,-0.15750562,-0.0064876704,0.020337671,0.04169598,0.09371839,0.053523347,0.041906107,0.053073063,0.11551197,0.2821758,0.17482892,0.06988354,0.10338441,0.26368427,-0.33572915,0.3016279,0.13244252,0.023279503,0.15957943,0.3189187,0.21481383,0.053583384,0.039384536,0.06357961,0.16234115,0.07744825,0.01643524,0.023297848,-0.059288528,-0.13527961,-0.08915402,-0.038355034,-0.088600956,-0.20773108,-0.39156976,-0.23073857,-0.12598813,-0.17687008,-0.4174532,-0.20242165,-0.48669687,-0.20308533,-0.0701839,-0.23538432,-0.48802423,-0.27055922,-0.115479894,-0.00228312,0.010259349,-0.08356807,-0.024625203,-0.017960774,-0.07364632,0.07284582,0.21096346,0.03999439,0.0036022658,0.052833233,0.121861264,0.24852555,0.18583997,0.009344339,-0.061977446,-0.18239164,0.30690074,-0.13128258,-0.03596108,-0.0918116,-0.13817923,-0.3394135,-0.28153092,-0.008951784,0.024492329,-0.054896068,-0.1682289,-0.044212423,-0.0459058,0.04555268,-0.027693266,-0.23243651,-0.011347534,0.04067639,0.3174465,0.21033067,-0.41025856,0.064001314,0.39172867,0.3101321,0.14124988,-0.06737408,0.025864657,0.36832246,0.22853547,0.059368838,-0.22138359,-0.080743246,0.16489989,-0.006400131,0.03340259,-0.07070621,0.06172571,-0.00775127,-0.0033792814,0.03119125,-0.14161323,0.024377627,0.020124275,-0.024997048,-0.17497933,-0.5664529,-0.2466669,-0.0039195535,-0.14161323,-0.51447666,-0.38431585,-0.66952443,-0.10549415,-0.042120576,-0.22288117,-0.65983397,-0.3587682,-0.05467416,0.011239036,0.026497422,0.015471741,-0.030392885,-0.006507354,0.057519425,0.052970696,0.12900786,0.032486737,0.04730679,-0.025120728,0.15847188,0.23195589,0.13241206,0.0069294767,0.05834113,0.3272738,-0.4418431,0.26130253,0.10165678,0.017079748,0.12959479,0.15952836,0.12172989,0.071664505,0.005711591,-0.019222053,0.053322855,0.015480355,0.0066176686,0.042987566,-0.072970904,-0.18500356,-0.12346657,0.014316921,-0.08950836,-0.3362452,-0.6139959,-0.43969017,-0.08607328,-0.118264884,-0.40180618,-0.14594181,-0.5013253,-0.2055159,-0.009716368,-0.14682512,-0.3307491,-0.2094417,-0.03233882,0.04806658,-0.07984106,0.028094044,0.03609287,-0.017985094,-0.043852594,-0.08293441,-0.141774,-0.06997139,-0.03831078,-0.13107589,-0.16663986,-0.31708798,-0.20625176,-0.1253895,-0.17926554,-0.30282384,-0.028166858,-0.3444597,-0.2293828,-0.13444917,-0.21588969,-0.43756214,-0.28335524,-0.14408709,-0.0652488,-0.06149001,-0.13136503,-0.07339286,-0.048936605,0.0090929065,-0.0796132,-0.0076363017,-0.08361343,-0.0020721282,-0.11644138,-0.34384555,-0.21618615,-0.37115145,-0.12557232,-0.2862771,-0.49637592,0.2523621,-0.5635102,-0.20192447,0.22209953,0.14279069,0.37323853,0.22036031,0.118267566,0.10748435,0.1702705,0.24505736,0.111571535,0.1486171,0.013363248,-0.13796347,-0.42008397,-0.14918366,0.110316925,-0.022597466,-0.30806157,-0.6046337,-0.37699842,-0.07239267,-0.11749785,-0.13176993,0.53067017,-0.19101255,-0.15008128,0.04977277,0.124319725,0.24648517,0.14137441,0.023293117,0.099186495,0.0400112,-0.017368857,-0.00063779776,0.1537615,0.012277624,-0.026866648,-0.058791187,-0.04486839,-0.02187674,-0.066840306,-0.17436129,-0.33806294,-0.21330161,-0.07010346,-0.18752268,-0.33566993,-0.07439995,-0.4041962,-0.21612968,-0.09490345,-0.2527858,-0.4383506,-0.3265331,-0.16228761,-0.048920143,-0.14020692,-0.15674025,-0.12922096,-0.102028,-0.022438092,0.032777563,0.10777464,-0.003513805,-0.0095047755,0.009105378,0.115960054,0.20549701,0.16097984,0.03726518,0.07761785,0.26695943,-0.3831349,0.27399603,0.06253945,0.03866532,0.20664585,0.39577204,0.21741614,0.05270259,0.064657606,0.06472941,0.20190692,0.09255264,0.05722611,0.0152421575,-0.08960765,-0.12705489,-0.08886953,-0.017518025,-0.036438476,-0.16317351,-0.3964191,-0.16268143,-0.03732422,-0.14604914,-0.35016367,-0.09251092,-0.4578306,-0.1457539,-0.1023525,-0.22478184,-0.44917002,-0.31493077,-0.13315667,-0.02189753,-0.037422635,-0.13866796,-0.08301379,-0.043573625,0.045974605,0.040026084,-0.08125632,-0.028658869,-0.038340267,-0.042940136,-0.009362299,-0.08978173,-0.05201946,0.02499824,0.029260946,0.1889077,-0.30209818,0.23485823,0.021060657,0.063916504,0.30190554,0.76526403,0.48898292,0.017532485,-0.06931111,0.059726045,0.5267452,0.17050824,0.01866439,-0.116882995,0.01335914,0.23740594,-0.00023895103,-0.08366841,0.039407566,0.26308784,0.72151995,0.38017306,0.058239277,0.00014574039,0.44164786,-0.2944319,0.4873495,0.03268376,-0.041834205,0.11293971,0.33062923,0.16268577,-0.0697658,-0.066429175,-0.003440895,0.016190216,0.0020901302,-0.08523561,0.030670008,0.003017094,0.001005698,0.0035539703,-0.016554948,0.03353335,-0.0813834,0.057105497,-0.007909474,-0.08146406,0.0151938535,0.1779304,0.10630656,0.115582176,0.058879964,-0.12469647,-0.21600074,-0.4971727,-0.21212918,-0.10049922,-0.0066492013,-0.30859554,-0.68462074,-0.34231037,-0.10622591,0.0012700675,0.015529931,0.0005289601,0.014486091,-0.017332245,0.026448945,0.0074908636,0.06067787,0.0041978876,0.017557533,0.00973249,0.065964654,0.33835423,0.086991645,0.03871969,0.019344827,-0.22312635,-0.4770122,-0.2374247,-0.0038073864,-0.029107356,-0.05971664,-0.29005224,-0.07942193,-0.013750147,0.0014460126,-0.050696857,-0.0224541,-0.0021073762,-0.059545763,-0.063490905,0.06503946,0.04188482,-0.009383528,-0.04011504,-0.057222925,0.29570094,-0.43153167,0.3412728,0.028205888,-0.10626061,0.14910407,0.8294375,0.29245636,-0.12963648,-0.09652682,-0.15824793,0.2007227,-0.18464717,-0.0687265,0.03845609,-0.09778975,-0.09266884,-0.13580269,0.036757324,-0.06494697,-0.17942892,-0.34507078,-0.12930307,-0.054261986,-0.023191828,-0.32360235,-0.012217564,-0.47388145,-0.08582454,0.021012979,-0.3397529,-0.6089948,-0.36220613,0.06790134,0.056133088,0.04271531,-0.15086998,-0.055985373,0.07587815,0.00863323,0.022312902,0.12451802,0.054806706,0.016591646,0.010327602,0.11066964,0.27602863,0.15479667,0.05433727,0.11489458,0.27344674,-0.25983307,0.3128794,0.11419042,0.05351576,0.1314422,0.30607256,0.15878688,0.05964777,0.019290905,0.023105076,0.07070886,0.044772502,0.014347152,-0.027495753,-0.10990063,-0.09424762,-0.09630722,-0.045723274,-0.08048944,-0.1435958,-0.29477096,-0.21255144,-0.099684976,-0.11105401,-0.28043607,0.08790403,-0.3479912,-0.16600432,-0.10611095,-0.20629023,-0.31108305,-0.28010654,-0.097542986,-0.03536345,-0.098696366,-0.08197236,-0.051490173,0.005406468,-0.019459747,-0.04764237,-0.08920273,-0.034971524,-0.028089257,0.023754494,-0.121746786,-0.42360628,-0.20486751,0.027822502,-0.06060664,-0.3324829,-0.42766094,-0.5002182,-0.063807696,-0.030490048,-0.37068215,-0.5962498,-0.3132766,-0.021833863,-0.05057667,-0.028409362,-0.0993394,-0.02008662,-0.012717525,-0.0036718177,-0.013915881,-0.014702699,0.039124917,-0.024576494,0.0028078607,-0.15168619,-0.5030699,-0.2549908,-0.0046591973,-0.1198432,-0.4778917,-0.38680595,-0.6526579,-0.20105517,-0.027970612,-0.25819975,-0.72769874,-0.3441018,-0.08275475,0.070967905,-0.031333875,-0.16230051,-0.038476948,0.04085283,0.041825052,0.14007612,0.12879092,0.14391541,-0.013401177,-0.11192128,0.18987061,0.7078265,0.441868,0.02766038,0.070677936,-0.0632902,0.34902686,-0.09860009,0.15217571,0.066489615,-0.41231707,-1.3244406,-0.6077721,0.034524575,0.13053605,-0.32436228,-0.41604,-0.36717626,0.11482984,0.04835002,0.15223335,0.18702656,0.17783196,0.030848933,0.033617765,0.07972138,0.05469743,0.12966478,0.032259468,0.12350022,0.09560296,-0.40999565,0.014013931,0.1978929,0.09826731,0.047409665,0.008521985,0.07162386,0.06389204,0.051406182,0.11952982,0.037065737,0.12715717,0.03202438,-0.036145657,-0.016203595,-0.140481,-0.05144134,-0.0554148,-0.011856289,-0.32266197,-0.6463493,-0.23259689,-0.049005993,-0.038495556,-0.10202817,-0.24387638,-0.19123873,-0.057465617,0.09211589,0.19363135,0.9994317,0.3640201,0.06336172,0.02779285,0.026147924,0.15415312,0.08113547,0.013266226,0.021192191,-0.03510389,-0.045130532,0.0042123604,0.0010657299,-0.036104426,-0.15046349,-0.32647258,-0.19227311,-0.064800635,-0.1550617,-0.39885175,-0.15225169,-0.46458903,-0.20691924,-0.04496023,-0.22088416,-0.49626556,-0.30365187,-0.094092906,0.01713683,-0.025332706,-0.029739318,-0.029185832,0.022799434,-0.088701576,-0.1320148,-0.086405665,-0.10684809,-0.058060016,-0.03746306,-0.16548209,-0.44187427,-0.21422601,-0.16451074,-0.09581006,-0.3694648,-0.22252661,-0.49061817,-0.1887944,-0.087862685,-0.23206346,-0.4930907,-0.28486937,-0.06742027,-0.009244347,-0.060267624,-0.07112904,-0.050642464,-0.016236937,-0.038084686,-0.04906039,-0.13902561,-0.101525284,-0.076016925,-0.09370001,-0.16097702,-0.4093532,-0.27825448,-0.17703408,-0.13424915,-0.34045014,0.1612819,-0.4321176,-0.22459547,-0.15914774,-0.2039652,-0.43984127,-0.23170935,-0.103354566,-0.034578554,-0.048857138,-0.07840516,-0.046621345,-0.026295962,-0.05668721,-0.063623786,-0.13295098,-0.041542362,-0.035395786,-0.014191071,-0.2185791,-0.3106043,-0.23075664,-0.06678378,-0.09780567,-0.051793072,-0.11059979,-0.033546034,-0.13803779,0.027283851,0.20131475,0.3906061,0.2319898,0.07194767,0.043777477,0.119386114,0.51731414,0.0828535,0.08231399,-0.05423147,0.5593076,2.3708425,0.23984195,-0.15332407,1.0588002,1.5924729,4.7012906,1.6934589,0.8133264,-1.2685406,-0.63660073,0.39151528,-0.4105473,-1.2421288,-0.14186603,0.35539335,3.9027238,1.2087258,0.24547388,0.075399704,-0.09836433,0.80089736,-0.58222365,-0.17371549,0.08191103,0.061823983,0.118224,0.074464574,0.06118046,0.079474844,0.15904161,0.35853314,0.22633553,0.112064585,0.13982792,0.3241507,0.06867288,0.407073,0.16023673,0.07055748,0.22192281,0.4195757,0.25961477,0.123923756,0.00874499,0.091012254,0.10572131,0.036749646,0.057824958,0.036224015,-0.017905649,-0.07663871,-0.08038493,0.05165335,-0.061050642,-0.096957184,-0.08959174,-0.1485788,-0.0900997,-0.22490002,-0.32966712,0.1948033,-0.35328734,-0.20585147,-0.07041619,-0.15518229,-0.21220098,-0.20242272,-0.086988434,0.04295451,-0.044637132,-0.0642889,-0.07378143,0.00576219,-0.032912157,-0.08118618,-0.17146933,-0.06608178,0.003301407,-0.031560484,-0.13791353,-0.33538646,-0.18880507,-0.053165793,-0.093973435,-0.31908056,0.051535204,-0.3824161,-0.17713349,-0.06174784,-0.1910364,-0.29333442,-0.2366929,-0.13010386,-0.028599678,-0.06320679,-0.10847709,-0.06668252,-0.07530748,-0.03085306,-0.06222502,-0.19285865,-0.08440809,-0.021869564,-0.06382497,-0.18870743,-0.38191202,-0.24215436,-0.06840861,-0.17236201,-0.34939414,0.0196318,-0.397825,-0.20185295,-0.095218554,-0.24077062,-0.41408396,-0.2774397,-0.10853704,-0.011805025,-0.029836876,-0.11761783,-0.060971007,-0.024474887,-0.08091573,0.05385249,0.36603865,0.21017389,0.04599837,-0.09522363,0.13893881,0.6999302,0.41304162,0.023379713,-0.13455512,0.06879968,-0.4583398,0.27227625,-0.06295475,-0.009330576,-0.053608954,-0.04042742,-0.05969742,-0.032268874,-0.029879153,-0.024049446,-0.109470636,-0.07318337,-0.026256515,0.028693268,-0.006503007,0.01569726,0.009899578,0.019819165,0.025851954,0.09564423,0.23098682,0.118134625,0.043219987,0.057946797,0.30766228,-0.37809485,0.4011455,0.07003239,0.08988156,0.20937683,0.46069303,0.29693732,0.050063152,0.045421004,0.040538747,0.16727735,0.021870114,0.06567037,-0.016899584,-0.05017096,-0.11300885,-0.037628222,-0.015688773,-0.07790573,-0.14753243,-0.360966,-0.22436188,-0.063376024,-0.14513151,-0.40534163,-0.2131024,-0.43514615,-0.20316756,-0.07012344,-0.1589575,-0.36891386,-0.23413114,-0.11383675,-0.043340754,-0.059236504,-0.09901728,-0.08241781,-0.011621698,-0.05532035,-0.088089,-0.18899927,-0.14961965,-0.029677808,-0.073493354,-0.107320905,-0.28916544,-0.13737077,-0.09593058,-0.1583198,-0.09226736,0.15190916,-0.054146975,-0.19094536,-0.08700148,-0.17011079,0.12489291,-0.10703471,-0.13027327,-0.03640325,-0.086887,-0.16953841,-0.07967504,-0.0062460764,0.030650912,0.042571686,0.053004548,0.072679944,0.040891223,0.049783662,0.13485701,0.25851095,0.16678578,0.060496606,0.12722492,0.27713606,-0.13996841,0.33385164,0.1490009,0.11308104,0.20599654,0.33105087,0.22322127,0.12484427,0.038020436,0.051604163,0.1016679,0.059376296,0.016218202,0.04106253,0.047105175,0.058332138,0.041749194,0.04525118,0.069696434,0.05376582,-0.07697508,0.09894833,0.061593793,0.110827625,0.08439105,-0.21533795,0.1196856,0.13080956,0.17001809,0.2260499,0.492201,0.18237805,0.17221542,-0.0055319397,0.011913626,0.25516447,0.04449585,-0.009364385,0.058111884,-0.019991579,-0.08450985,-0.040278487,-0.027238525,0.13530664,-0.12703739,-0.35512313,-0.17138235,0.12131253,-0.040732842,-0.50269735,-0.047798045,-0.52377933,-0.10204792,0.023989893,-0.22790399,-0.55322146,-0.2533478,0.01820824,0.0585208,-0.08105676,-0.1207673,-0.08332853,0.044617567,-0.042056613,0.07159825,0.26677704,0.15323986,-0.029639713,0.14366728,0.19411953,0.40644264,0.31526768,0.1125956,0.14311802,0.066851184,-0.46325046,0.09776594,0.16540176,0.06449727,0.07618838,-0.021361778,0.056847047,0.09125344,0.048843734,0.082543954,0.20949844,0.039663468,0.073442146,-0.0723835,-0.009495239,0.026362453,-0.037505344,-0.03032588,0.023757914,0.20890659,0.4641966,0.34443316,0.028196953,-0.04210292,-0.19133161,0.0049174805,-0.31218216,-0.052906092,-0.08520236,-0.23535962,-0.7095214,-0.3290324,-0.03118651,0.027358972,-0.030756194,-0.02057585,-0.04627018,0.010474772,-0.3018058,0.17152436,0.6352183,0.21797085,-0.11447806,0.08465402,0.24996305,1.2596442,0.515344,0.03760527,0.052565474,-0.037171643,-0.23550874,0.04806055,-0.10937087,-0.12103068,-0.72541314,-0.5870373,-0.7389038,-0.19889118,-0.018898997,-0.42592007,-0.90888643,-0.3482523,-0.012804101,0.033858772,-0.0022874682,0.050351586,0.008901267,0.026291482,0.011957289,0.035532307,0.117487036,0.082852125,0.058209926,0.099199414,0.1964585,-0.2310934,0.24758622,0.123308025,0.09235975,0.12942007,0.2081975,0.16842072,0.098859854,0.05015755,0.07804981,0.085908145,0.06703843,0.017523613,0.04390537,0.06430318,0.10309593,0.08169667,0.0465671,0.080906056,0.16392042,0.4389483,0.26353765,0.028330296,0.10409737,0.39720392,-0.07995732,0.5110522,0.13450961,0.06340715,0.21177885,0.53972507,0.3326899,0.084173925,0.028883725,0.012998994,0.1546439,0.05167973,0.0006864332,0.011984375,0.046342,-0.023588005,0.044819023,0.034611456,0.049533,0.17202383,0.25513482,0.18638332,0.0881876,0.17274906,0.27283037,-0.24860778,0.3489792,0.25542492,0.07049206,0.20552932,0.20552932,0.18391755,0.069114126,0.0072341384,0.07346549,0.05460959,0.07038327,0.06189812,0.013570912,0.05385588,0.06335231,0.04021011,0.015421005,0.06292454,0.15553613,0.30183247,0.17033687,0.059630737,0.06707388,0.34700468,-0.56328374,0.45822415,0.074987575,0.025345203,0.14612524,0.36616865,0.17393011,0.040402606,0.05428365,0.03353694,0.019805618,0.021313496,-0.011121945,0.04183177,-0.03848785,-0.20102854,-0.08917117,-0.03763548,-0.051175073,-0.1824075,-0.32914653,-0.18070276,-0.029751044,-0.1835877,-0.26082566,0.058944765,-0.27066073,-0.20732297,-0.060715076,-0.16339305,-0.24404052,-0.16575347,-0.06950106,0.029226506,-0.051404558,-0.13303553,-0.08012292,-0.0026308773,0.00829398,0.059258472,0.12944548,0.051350553,0.0079842815,0.0050400244,0.12876669,0.2731456,0.1673899,0.028628018,0.07907917,0.30056873,0.019430397,0.3605739,0.10154716,0.070458524,0.15856563,0.35324293,0.21707742,0.092247725,-0.0096048955,0.024249814,0.07263066,0.03536502,0.026812252};

#endif
