#pragma once

#include "parameters.h"

#ifndef KERNEL53_H
#define KERNEL53_H

static float bias53[FEATURE_MAP53] = {0.08696829,0.41928944,0.60477424,-0.27503845,-0.21045598,-0.28965902,-0.1220617,-0.6048593,-0.48131955,-0.12767982,-0.3232596,0.1786937,0.8680936,0.34906614,-0.48360196,-0.07401411,-1.873323,0.55718714,-0.13941069,0.15013695,-0.76033074,-0.0008248091,-0.20639493,-0.53283656,0.12581259,0.61228096,-0.45070475,0.042661592,-0.8294455,0.7788818,0.68964136,-0.6239875,0.76867735,0.3913967,-0.34206334,0.12312217,-0.4021965,-0.046730712,-0.62947917,0.62371767,-0.18119588,0.18301521,0.31247756,0.6552363,-0.6878085,0.10471073,0.350956,0.038766716,0.37529105,-0.33991194,0.43875682,0.11853307,0.5422827,-0.91371864,0.28842145,0.45445555,-0.707444,-0.1456078,-0.629643,-0.32043487,-1.0404209,-0.68270445,-0.17583798,-0.21198235,0.2488598,-0.20922431,-0.30740744,0.28249553,-0.6858408,0.27556318,0.4738012,0.06898224,1.5027238,-0.3115492,-0.3364706,-0.55484545,0.07665312,0.20682201,-1.2780222,0.7515063,0.25438783,-0.08813022,0.59324974,-0.16934396,0.31360546,0.21127492,0.31563285,-0.11577195,-0.5909966,-0.47628942,-0.10570749,2.1345992,0.04307379,-0.60802835,0.8162253,-0.41123694,0.6008671,-0.099950574,-0.06374508,0.054660708,0.78975415,1.13533,1.2001729,0.4268775,0.32213604,-0.27187565,-0.4111309,0.21152224,-0.118775696,0.3069613,0.10961178,-0.09467577,-0.1264737,0.37426955,-0.5085402,0.2568131,-0.39234132,-0.4078432,-0.11048514,-0.2778496,-0.18071003,-0.46180344,0.2330479,0.29089665,-0.7662466,0.42667428,-0.8840445,-1.0049363};

static float kernel53[FEATURE_MAP53][IN_CHANNEL53][KERNEL53][KERNEL53] = {0.16069148,0.054038443,-0.87112415,0.025324164,0.2283582,0.060411863,-0.44505438,-0.86624235,-0.17628601,0.23066346,0.58201504,-0.37915054,-1.0940582,-0.64330834,0.32029814,0.29344842,0.34280849,-0.6829049,-0.0585812,0.7463679,0.11756921,0.07153144,0.31433153,0.23690128,-0.011068728,0.06451438,-0.20114416,-0.09774526,-0.21207455,0.14837681,-0.3517824,0.16181992,-0.3809301,-0.18858051,-0.31409144,-0.7593475,-0.27212882,0.32715765,0.13480805,-0.71763617,-0.22287929,0.13455677,-0.2424786,-0.24071969,-0.32992166,-0.26886228,-0.077078044,-0.47038335,0.08160096,-0.055782642,0.18408747,-0.30771676,-0.50123465,-0.5172535,-0.001902439,-0.41700658,-0.06691741,-0.30539143,-0.13822709,-0.2393783,-0.31960168,-0.05490328,0.44491035,0.2539761,-0.4436185,-0.1764656,0.16677679,-0.36843333,0.010641548,-0.31986007,-0.27180353,0.18460421,0.14081077,0.3064249,-0.086359635,0.119815394,-0.59459895,-0.6496463,0.09764354,-0.42159292,-0.11500967,-0.31280884,-1.1577423,-0.94366914,0.49717382,0.63959795,-0.1422057,0.114135906,0.28790647,0.50023204,0.50023204,-0.68809205,0.010294076,-0.13729075,0.21844193,0.8881849,-0.2918384,-1.1594898,-0.18567564,0.56663835,-0.38753736,0.39605466,0.1583891,-0.3521578,-0.5103831,-0.4153824,0.11613017,-0.4930209,0.058065087,-0.082347594,0.386227,-0.6525566,-0.65616006,-0.010636394,0.23242414,-0.334468,0.1415183,-0.013574454,-0.4504344,0.028623058,-0.10892323,-0.28336418,-0.42357212,-0.44945163,-0.20998432,0.1966255,0.34829852,0.044203278,-0.4951433,0.10880166,0.6543084,0.19962233,0.33930802,0.3198286,0.6046942,0.10172581,-0.15267196,-0.93767554,-0.39225206,0.41922355,0.59137493,-0.41889057,-0.044661127,0.008355752,0.5417607,0.1090514,0.52977335,0.12420205,0.10422317,0.36061883,0.06140839,0.19711068,-0.1821225,0.18611217,0.08399848,0.39486834,-0.18384777,-0.063511044,-0.14556861,0.39400572,0.24304567,0.18557303,-0.61332905,-0.108852975,0.21781377,0.08626288,0.34979597,-0.18028942,-0.09294825,0.22557743,0.26116088,0.06022227,0.21317714,0.36855817,0.24110475,0.14228502,0.27701506,-0.07346408,0.0015591935,0.48131368,-0.24065684,-0.07181144,-0.49705318,-0.1613298,0.44196495,0.04773001,-0.21830676,-0.13260522,-0.5307357,0.29070842,0.33713993,0.3006243,-0.053789716,0.063115366,0.49705318,0.3815253,0.042732723,0.21972331,0.5713436,0.43881705,0.16858763,0.30874252,0.44132563,0.48799244,-0.17492318,-0.26346645,0.8047703,0.07637437,0.5584562,-0.25094986,-0.48273855,-0.5136437,-0.40732998,-0.19470249,-0.06559619,0.11751686,-0.1815678,-0.6440635,-0.3079699,0.09464704,-0.38693255,-0.34922826,-0.59059757,-0.4237097,0.30966967,-0.3973354,-0.006122218,0.1750518,-0.17477612,-0.5465659,-0.591041,-0.52745265,0.42122698,-0.32198504,-0.8534809,0.27622345,0.18139225,0.19664611,0.21024592,0.123960555,-0.007753278,-0.54289025,-0.74504983,-0.5373768,-0.06515051,-0.3392605,-0.27842882,-0.04328052,-0.3300714,0.43445924,-0.72480583,-0.024084274,-0.3701639,-0.07980288,0.18255119,0.5422547,-0.24801318,-0.5047996,0.44811088,-0.22962308,0.5753231,0.32562274,-0.08566578,0.5867958,0.18170762,0.025286378,0.38433605,0.4143676,0.4626205,0.5047996,-0.18120146,-0.34131336,0.1980731,-0.33355242,-0.19908541,0.10858422,0.31493154,-0.24950737,0.22139737,-0.026648533,0.07525023,0.067352064,-0.97912365,-0.07972793,0.28557774,0.32587704,-0.28806534,-1.4617202,-0.77762717,0.0498766,0.35846472,0.14316201,-0.40224668,0.071767576,0.38284332,0.21791472,0.4002566,0.012399185,0.41791862,0.35075313,-0.19243519,-0.20963907,0.044362076,-0.17487659,-0.31605482,-0.2644432,-0.10747993,-0.14561224,0.11847623,-0.3382248,-0.4827729,0.0272247,0.16725011,-0.09231568,-0.30239815,-0.21478249,0.024120908,-0.08282694,-0.049660694,-0.353123,-0.3460286,-0.04163517,-0.3403531,0.009261497,-0.37032688,0.19323207,0.37883464,-0.19543289,0.1873632,0.1485554,-0.04207236,0.081503734,0.41316742,0.035011392,0.31281,-0.049298387,-0.40641823,0.18296157,0.0063457,-0.5220347,-0.2379821,-0.47567073,-0.74123645,-0.5276101,-0.18501566,-0.27701,-0.23079275,-0.13028859,-0.31046245,-0.24678537,-0.13377473,-0.11373279,0.25048953,-0.4524346,-0.24230632,0.11366344,0.098337255,-0.8233144,-0.37809217,0.33509564,-0.012976981,-0.055375386,-0.01420793,-0.4859996,-0.41443118,-0.23134914,0.44133872,-0.098337255,0.39334902,0.46880102,0.52927357,0.29431826,0.5156811,0.75452,0.3001436,-0.10423705,-0.46183702,-0.82871693,-0.39594254,-0.028523114,-0.1526508,-0.25508943,-0.49061194,-0.51679707,0.09632395,-0.26400965,0.37608784,0.669304,0.29523042,-0.34443548,-0.1594129,-0.54672295,-0.032497644,0.405726,-0.43766612,-0.17955533,0.21653107,-0.27235436,0.015340615,-0.1837277,-0.16380684,-0.12604915,0.16791342,0.099869706,-0.2605396,0.25939885,0.32761368,0.23886597,-0.032624483,0.22882767,0.22608995,0.24867614,0.12992758,0.26829645,0.27240303,0.019620318,-0.13791259,0.28997007,0.3387927,-0.12091592,0.19871277,-0.07106662,-0.047026023,-0.027976064,0.31985682,-0.1961548,-0.12947328,0.2673929,-0.10663486,-0.083074056,-0.26939332,-0.42676172,-0.33296305,-0.5134477,-0.18804188,0.025741845,0.113136314,-0.13125145,0.111635976,0.04673263,-0.04223163,-0.22149378,-0.15225613,-0.2578352,-0.14647707,-0.33340758,-0.117359474,0.25027797,-0.1843744,-0.24072029,-0.020100882,0.14344373,0.2151656,0.39926916,0.109589614,0.10086433,0.7189637,0.99956894,0.49385127,0.13986637,0.4369624,-0.09938103,-0.8878853,0.012106337,-0.31742597,-0.24936873,-0.3064321,-0.9863065,-0.6802234,0.17363322,-0.26838985,0.10086433,0.2701349,0.1331479,0.4271901,0.23043448,-0.0083119115,0.29498443,-0.100892454,0.35847327,0.009345374,0.31514522,0.80996925,0.27270144,-0.089529894,-0.8127988,-0.14846489,-0.008676663,-0.062118273,-0.61295927,-0.26421267,-0.18604533,-0.24582036,-0.31408414,-0.4322194,-0.026836863,-0.12008059,0.18321575,-0.15872213,0.059288688,0.16071583,0.18608133,0.23640649,0.07584286,0.18902373,0.23234801,0.37561238,0.4772773,0.28754336,0.2989071,0.054282177,-0.19034274,-0.11647839,0.14346729,-0.0677259,0.21834625,-0.1089702,-0.017426101,-0.03074299,0.031529322,0.26359832,-0.25426382,-0.22402813,0.1570632,-0.030311776,0.08386087,-0.25102815,-0.2004344,-0.31797823,0.19890966,-0.39671043,-0.06362337,0.085524224,-0.16467224,-0.3102159,-0.6830849,-0.32047325,0.1801969,-0.6254219,-0.65536225,0.055064015,-0.07900941,-0.28096855,0.09522713,-0.13847439,-0.35401762,0.1749296,0.05561847,-0.34015632,0.11892996,0.58625036,0.010154694,-0.111247994,-0.06846567,0.41791278,-0.024357308,0.22626473,-0.28084186,-0.11390007,0.46620864,0.042328674,0.07698026,-0.7766422,-0.0007055506,-0.09484694,0.17057094,0.59406704,-0.17796887,0.53097534,0.35845023,0.12771884,0.07942297,0.33109188,0.24189807,-0.06912869,-0.084940754,-0.026147518,-0.22248599,-0.13112439,0.20670465,-0.0046367366,-0.36018595,-0.5548225,-0.69747347,-0.10907693,-0.109850526,-0.63496697,0.098323956,-0.49262545,0.16230027,0.8391961,0.26193935,0.4369266,0.65229553,0.6659108,-0.019194832,0.1307376,0.4298095,-0.12191861,-0.07639253,-0.20873973,-0.21214141,-0.2923387,-0.29914206,-0.30244067,-0.11091553,-0.4712879,-0.5203546,-0.6960052,-0.026195547,0.11174018,-0.27172244,-0.04672162,-0.41933492,0.21007977,0.056385495,0.17833072,0.7017778,0.15060185,0.13194412,0.0859183,0.138129,0.19698845,0.27316555,-0.013258838,-0.17465706,0.048909936,-0.017570022,0.124107845,-0.22055669,-0.34716815,-0.40487054,0.09668729,-0.40224773,-0.116775826,-0.20362747,-0.07469123,0.31474036,-0.24606973,-0.2351015,-0.0799369,0.16392727,-0.3137866,0.08619594,-0.096448846,0.17382252,-0.32737765,-0.7291485,-0.32141668,-0.09287225,-0.23009656,0.41087377,-0.52873254,0.14043325,0.3767854,0.32927924,0.22520089,-0.4761494,-0.03404305,0.23408563,0.2817731,-0.13716947,-1.0480363,0.10924601,0.33852664,0.14070523,0.4942815,-0.00035343462,-0.028150111,0.06881139,0.25131115,-0.026495555,0.7731535,0.38766468,-0.05099658,0.03270009,-0.31685722,-0.2515905,0.1871246,-0.19580014,-0.36170304,-0.11151399,-0.3350091,-0.12719668,-0.28936243,-0.5552342,0.23864393,0.17818213,-0.30457798,-0.4863638,-0.38652843,-0.042309914,-0.20634425,0.17497885,-0.15442452,-0.5122569,-0.0074034007,-0.28962937,-0.09276148,-0.4431196,0.25237197,0.08466672,-0.04643295,0.27842325,-0.081003256,0.28167966,0.33168885,0.021966245,0.5275388,0.06035993,0.2591174,0.04026903,0.109380566,0.24213752,0.08745793,0.30052033,-0.042914864,0.023056563,0.1859644,-0.074257836,0.13921162,-0.40123653,0.17410176,-0.45357174,-0.14642225,-0.13520162,-0.13066863,-0.16338505,-0.14958896,-0.26843238,-0.47103772,0.067206636,0.16860785,-0.028454421,-0.38550198,-0.5222803,-0.18289664,0.28479058,0.008345399,-0.52622205,-0.16890348,-0.034293123,0.028922504,-0.26547605,-0.08282577,-0.16456756,-0.22152568,-0.31238276,-0.2845935,-0.16062583,0.14858842,-0.22099754,-0.3490719,-0.21900158,0.07340711,-0.104788095,0.13228804,-0.22931406,0.018116143,-0.029329577,-0.49012,-0.3220155,0.26923335,-0.07013595,-0.5198377,-0.059269033,-0.15646137,-0.21911247,-0.3945355,-0.20303386,0.07052405,-0.07728815,-0.29296312,-0.09308953,0.15402187,-0.10344408,-0.019466499,-0.74787575,0.050401635,-0.23088174,-0.008214788,-0.6476761,-0.7756419,-0.40502393,-0.120948836,-0.04572364,0.3120676,-0.6814784,0.0033387311,0.36578912,0.11898709,0.23525794,0.5592469,0.38782096,0.35281146,0.38872638,0.029501555,0.2871686,0.39234805,0.058437224,-0.0735081,-0.046977192,0.04461232,-0.057200335,0.048578408,-0.20337898,-0.0013448668,-0.32300207,-0.2045614,-0.31630158,-0.24673495,-0.43395397,0.15253423,-0.25323835,-0.57742286,-0.07740028,-0.18889412,-0.31236014,-0.052125715,0.13588159,-0.10622215,0.19401802,-0.25185883,0.06340812,-0.15686983,0.19555677,-0.13642544,-0.053088475,-0.052849494,0.20716456,-0.44191462,0.01607164,0.39002106,0.0039560306,-0.28432208,-0.117443316,-0.3140926,-0.031204415,-0.23078978,-0.14789665,-0.35478806,-0.076406434,-0.52849495,-0.4326284,-0.65276635,-0.15581724,-0.2566,0.28541458,-0.24116848,-0.08398563,0.27834097,-0.031673893,0.9052717,0.42821687,-0.21941692,0.30824536,0.10855828,0.03171813,0.6033965,0.21092336,0.12687252,-0.09015558,-0.024750758,0.061755244,0.19145896,-0.61542904,-0.6196758,-0.073920496,-0.65612733,-0.4197233,-0.3066528,0.23551928,0.1589003,-0.12660709,-0.6094128,0.012286102,-0.27320382,-0.75368917,-0.43427175,0.08304003,-0.34898052,-0.45907757,-0.7978639,0.3829611,-0.6592232,0.23378636,-0.6738348,1.039126,0.112900466,-0.058489066,-0.43393195,0.37990284,0.6728154,-0.20541258,0.27099508,-0.3720873,-0.115449004,0.41694167,-0.47980574,-0.59669894,-0.11799476,-0.271857,-0.6397284,-0.4326168,-0.35959432,0.022359686,-0.73611075,-0.91084963,-0.5495999,-0.060376897,0.31765696,0.14926383,0.6080915,-0.4826473,-0.46278226,0.02795823,-0.329061,0.9652946,-0.04283403,-0.20324896,-0.49331558,0.2394843,0.8836272,-0.016611693,-0.24702567,-0.014386786,0.0092375185,-0.08066691,-0.038849518,-0.16180868,-0.23754892,-0.21439947,-0.13925281,-0.22021651,-0.3326397,-0.5370671,0.14673187,0.29583803,-0.19148746,-0.26948327,-0.2799302,-0.51142466,-0.13224863,-0.22199723,-0.4418576,-0.33358943,0.0987116,-0.13925281,-0.06790504,-0.22793299,0.1084942,0.13876542,-0.47415984,-0.3436989,0.080031216,0.06275251,-0.19502167,0.29735446,0.08759902,0.1636789,0.33030456,0.012239083,-0.33807328,0.29413983,0.31074882,0.06904785,0.38709658,0.60917485,0.22730204,0.29628292,0.09443013,-0.0077687204,0.17184944,0.10735568,-0.50041276,-0.2934661,-0.037945785,-0.13597824,-0.14542377,-0.28935122,-0.31366643,0.12597159,0.010526857,-0.09398771,-0.18797542,-0.34770778,-0.123633586,0.099505395,0.09412799,-0.45600405,-0.44066676,0.05124902,-0.09024691,-0.15645914,-0.046082035,-0.20724057,-0.15973234,-0.22706683,-0.11306581,-0.45076692,0.09342699,-0.07426387,-0.4256058,0.035476197,0.11313297,0.5936767,-0.20998001,-0.03542191,-0.52636147,0.5515504,0.17100233,0.3337531,-0.83861715,0.17860244,0.14613913,-0.28967252,0.22138016,0.20780855,0.56327623,-0.4890124,0.345479,0.28446102,0.7686962,0.4108399,0.27143228,0.34604362,-0.28235462,-0.77882564,0.022632346,0.22154677,0.4515854,0.29266617,0.14117731,-0.012529297,0.56258625,0.62233263,0.25323963,-0.9086299,0.20941554,0.7127104,-0.23868215,0.11251725,-0.19819413,0.043293364,-0.07278744,-0.0303281,-0.16240698,-0.8297768,-0.48403648,-0.061945144,0.30128896,0.032795202,0.04547553,0.017690958,0.251653,0.023407055,-0.36351484,-0.39853495,-0.33312544,-0.2237237,-0.1349433,-0.5785558,0.34817544,-0.66219896,0.11475608,-0.08646501,-0.272202,-0.5664001,-0.4344234,0.014018909,-0.087695055,-0.11902506,0.010645326,-0.00012775297,-0.29868415,-0.4900427,-0.31434813,0.21173449,-0.09498019,-0.35264054,-0.019646758,0.08259147,0.70077604,-0.1852051,-0.14453506,-0.27054963,-0.022368522,0.47752884,-0.048491202,-0.25353077,-0.16455723,-0.15880087,0.07971328,-0.44073808,-0.058158156,-0.17344208,-0.28206238,-0.56712806,-0.02889137,-0.27580544,-0.05694774,0.038158733,0.021655127,-0.011192854,0.11959026,-0.10078251,-0.118166566,-0.06522764,-0.08796927,-0.111123025,0.041212182,-0.07215878,-0.30482027,0.057097603,-0.029110786,0.03686617,0.32999718,0.79067445,0.2324367,0.08632079,-0.014930049,-0.13854785,0.75111073,-0.0071512503,-0.14911316,-0.09946368,0.035897125,0.24995938,0.011244515,-0.035795547,-0.3751016,0.23305705,0.43458477,0.6936454,-0.8587681,-0.7723062,-0.023586057,0.021595158,-0.073703885,-0.28636438,-0.26149845,-0.68454415,0.09361287,-0.8035105,-0.49276778,0.57955474,-0.3474728,-0.069722086,-0.5096701,0.5096701,0.019058356,-0.1376593,0.04590345,-0.25448588,-0.19505137,-0.24488649,-0.23610407,-0.19076228,-0.10783992,0.0642342,-0.20077015,0.05376678,-0.28430524,-0.16370018,-0.09359402,-0.4252324,-0.14776929,-0.0074484604,-0.09941492,-0.2894113,-0.30146158,-0.11478416,0.20465076,-0.23324467,-0.30064464,-0.18714564,-0.3061045,-0.34166953,-0.25925678,-0.12404837,-0.08051187,-0.3409337,-0.33725458,0.04105308,-0.02432832,-0.07266303,-0.13649613,-0.36521605,-0.5945492,0.018395703,0.13882625,-0.40838462,0.19438127,-0.58964366,0.02664311,0.032223143,0.2693131,-0.15084477,-0.11386941,0.2671056,-0.14586785,-0.37021303,-0.22249739,-0.4078213,0.070651345,0.18532391,-0.14217225,-0.11684645,-0.12043337,-0.082009904,-0.432821,-0.27586633,-0.17141102,-0.41499513,-0.45173383,-0.092064135,-0.1353245,-0.2897792,0.01735034,-0.0014011384,-0.064781845,-0.16717194,0.008940112,0.26738816,-0.18521522,-0.022033514,-0.11101181,0.005440007,0.020035872,-0.13821779,-0.20375948,-0.1680873,-0.39762586,-0.23438998,-0.02489918,-0.073341995,-0.35101423,0.11405584,-0.27320132,-0.25779092,0.082664326,0.39382082,1.0311637,0.45013532,0.11234357,-0.094983116,0.015576851,0.6917549,-0.008763465,-0.019702932,-0.3303132,0.09563799,-0.2625625,0.09358494,-0.21328926,-0.08360483,0.09307168,-0.21671101,-0.14987278,0.2502442,-0.17450939,-0.077103496,0.15181176,-0.45965546,-0.31092328,-0.51235044,-0.4749393,-0.08993507,-0.29449886,-0.29997367,0.089878045,0.07927061,0.15181176,-0.3371567,0.18021232,-0.3551592,-0.22987203,0.13594499,0.07958878,-0.5723031,-0.38429573,0.17911309,0.7440554,0.4888806,-0.2752637,-0.6747411,0.1325713,0.972854,0.46925178,-0.82686454,-0.8931119,0.08196571,-0.067129076,-0.22741842,-0.72013277,-0.12521048,-0.12804747,-0.2709699,-0.244747,-0.2191375,-0.027244477,0.11999738,0.12614936,0.41049245,-0.13791248,0.16495416,-0.06729994,0.13216613,-0.5210929,0.3318012,0.3656033,-0.08423478,-0.4356412,0.03562739,0.40048704,0.0027400812,0.30151457,-0.0117800245,0.09640353,0.3783129,0.44970286,0.0113744,0.24012998,0.26284498,0.19375353,0.4900824,0.24118373,1.027924,0.3023522,0.6528309,0.16495277,-0.311904,0.052994292,-0.22795813,0.16164637,0.029872432,-0.59515256,-0.44416013,-0.57825315,-0.19048555,0.13583806,-0.13142952,-0.6627501,-0.33504885,0.2619406,0.39015555,0.23714258,0.016761627,0.35709152,0.18019897,-0.14953297,-0.10402058,-0.31668365,-0.11032815,-0.2068449,-0.08096531,-0.0148309525,-0.31342113,0.018542089,-0.1557318,-0.30711356,-0.1378966,0.118756376,-0.4758955,-0.44675016,-0.13637407,-0.2777507,-0.14105038,0.17954832,-0.071667075,-0.13974537,-0.13670033,-0.30515602,-0.020866647,-0.05149372,-0.14962375,0.025030253,-0.11441406,-0.15394652,0.0761366,-0.3313197,-0.058148276,-0.27651808,-0.33187747,-0.07439354,-0.44510624,-0.1274521,0.60128385,0.108557396,-0.671006,-0.4484529,-0.37900963,-0.34414855,-0.15143652,-0.3042675,0.0007168309,0.014284327,-0.20261258,-0.2473742,0.053825505,-0.015535952,-0.22341013,0.72028095,0.080668114,-0.2368315,0.00766749,0.47478145,1.2123984,0.58327097,0.00043580178,-0.18454403,-0.13714977,0.09311085,0.017196149,0.16469157,0.27513838,-0.26772866,-0.50721645,-0.45129403,-0.23599267,-0.052042816,0.03416511,-0.54803985,-0.09590697,0.27388012,-0.3624216,0.34476516,-0.14705953,-0.36211184,0.07488497,-0.20273927,-0.44946474,-0.4767238,-0.6505003,-0.26050988,-0.770688,-0.4088859,0.035854958,-0.18647675,-0.93672043,0.36768755,0.0789506,0.7669708,0.44017187,-0.118561424,-0.059784077,-0.042011477,0.6944865,0.027375221,0.1301775,-0.24989954,0.059586834,-0.50670385,-0.5778761,0.22560006,-0.22068706,-0.5927479,-0.42384663,-0.12514895,-0.15788022,0.21351671,-0.16093424,0.00038642227,0.7404038,0.0432212,-0.27154335,0.17235367,0.68304104,0.2876102,0.0019315927,-0.33647472,0.34603518,0.2719417,0.43101695,-0.32824212,-0.17498343,-0.06550206,0.03265766,-0.21083915,-0.052242916,-0.06489513,-0.2110259,-0.24109243,0.026378237,-0.20467645,0.11457026,0.32120755,0.11811848,0.2967435,0.17162195,0.061113473,0.10980817,0.792561,0.35276806,0.1220402,-0.0167957,0.007224836,0.3479126,0.12157333,-0.11401001,0.10880781,0.16700257,0.20829217,-0.017430253,0.18288319,0.26433536,0.2778595,0.012640456,0.16546574,0.039573465,0.25081122,-0.16505592,-0.19579259,0.14886793,0.28851488,0.09277352,0.056965295,-0.032913852,-0.05337935,0.10614397,0.22745135,0.12724982,0.23933621,0.15306862,0.16126506,0.3897314,-0.34098095,-0.39000374,-0.034894716,0.15646449,0.16626906,-0.4264985,0.030400956,0.24443322,0.15401335,0.34370443,-0.84700537,0.17975034,0.87696373,-0.04023956,-0.30149034,-0.43630308,-0.23449248,0.42922202,0.37529692,-0.34642792,-0.40008065,-0.6127852,-0.0054725125,-0.124259226,0.18317382,-0.099098355,0.062628314,-0.15115134,-0.080780976,0.24352893,0.23496325,0.35844088,0.001642099,0.2689624,0.2034679,0.39823833,-0.4388265,0.049219728,0.7284783,0.6019698,-0.3133722,-0.5661257,-0.45622143,0.60302407,-0.25367597,-0.22916494,-0.032187197,-0.37003747,-0.27331117,0.27054965,-0.07527474,-0.55867565,0.2707589,0.2101834,-0.5277079,0.28791675,-0.34943384,-0.6959383,0.01605931,-0.6277254,-0.28791675,0.34943384,-0.7281615,-0.6444648,0.6934274,-0.0015088296,0.37140423,-0.18308659,0.014607694,0.08997398,-0.27306056,-0.970882,-0.15023562,-0.37265968,-0.3719515,-0.30789867,0.288114,-0.39321998,-0.17027168,-0.2599209,-0.11091772,0.14442797,-0.23605564,-0.36799455,-0.5233041,0.15901916,0.7666553,-0.19784653,-0.12860025,-0.22369024,-0.35834953,0.599475,-0.0052514346,-0.4998098,-0.29281288,0.051440097,0.14306778,-0.010000524,-0.25349087,-0.1352171,-0.13599719,0.21981445,-0.035559494,-0.28568944,-0.20317236,0.062191196,0.5907947,0.07653634,0.16009358,-0.44656312,-0.40253088,0.08637425,-0.22206807,-0.44413614,-0.019957524,-0.10245295,0.9194762,-0.07462943,-0.24425754,-0.20473255,0.0077088913,0.78564596,-0.15541299,-0.202999,0.24499586,0.16656455,0.20763898,0.41636604,0.027881654,-0.2179756,-0.15124097,0.18560567,-0.6930971,-0.27437362,0.27219748,-0.56942046,0.4845514,-0.40077043,-0.5654309,-0.54729646,-0.5436696,-0.3840868,-0.8559441,0.024254773,-0.651388,-0.2118099,0.3396575,-0.22123979,0.039056983,-0.10518814,-0.10526088,-0.09282162,-0.17313124,-0.09500395,-0.14730704,-0.28312048,-0.5351065,-0.40329394,-0.2969419,0.0116208885,-0.08503799,0.033153176,-0.02175052,0.0039122747,0.20019208,0.29854226,0.43210065,0.3925278,0.17676845,-0.123883404,0.0007592678,0.24834876,-0.10038702,-0.11319,0.09183125,0.4235987,1.0871335,0.44400564,0.10837324,-0.27812192,-0.019044548,0.45018956,0.021817653,-0.14872333,-0.03178923,-0.495023,-0.38525838,-0.5488231,-0.26776385,-0.09329993,0.057085335,0.11625774,-0.041316334,0.024039999,-0.019092862,0.14493568,0.1511196,0.049548678,-0.036253247,-0.26945928,-0.2030317,-0.20525767,-0.051812332,-0.5403244,-0.2715681,-0.3324893,-0.04311348,-0.0025444862,-0.51783043,-0.6551375,-0.45972094,0.17139952,-0.37630573,-0.58999866,0.086578436,0.31608742,0.09928988,0.09759112,0.11604322,0.13941588,0.0666033,0.3402216,0.14375067,0.18358377,-0.29047307,0.070985764,-0.083145104,-0.0020476663,-0.2079472,-0.33708388,-0.2735851,-0.3237987,-0.10363584,-0.4616045,-0.5827475,0.12328218,0.3618529,-0.07926087,-0.33010352,-0.33573285,-0.08325769,-0.06890292,0.06479351,-0.54131573,-0.15413088,-0.14039533,-0.3726612,-0.033860378,-0.09935755,-0.14938128,-0.11352397,-0.28932643,0.27103484,-0.36612207,-0.6027513,0.017493144,-0.15925294,-0.38789776,-0.45728967,-0.40880242,0.118314624,0.15939811,-0.04068426,-0.41373825,-0.5272622,0.0078800805,0.065617435,0.010506774,-0.45583794,-0.18944857,-0.21688595,-0.4317395,0.052116502,-0.46019307,0.033850376,0.09550709,0.14670368,0.010011029,0.028573535,0.10935412,-0.028723232,-0.059392534,0.083980374,0.12859027,0.37005255,0.07065728,-0.3718489,0.0443105,0.26810846,0.015671471,0.10299197,0.12492268,0.16870923,0.18023595,0.12050659,0.047828395,0.16152374,0.07548503,0.11871022,-0.34902444,-0.009366986,0.44294795,0.42671424,-0.3376222,-0.4603412,-0.40313676,-0.37356824,-0.07155387,0.14146505,-0.096629135,0.16069426,-1.02968,-0.24563126,0.24853013,0.5940759,0.41241315,0.60760397,0.49203554,0.30959976,-0.06580444,-0.0011595496,0.701914,0.41009405,-0.03229829,-0.42839587,0.45960867,0.7061899,-0.157137,0.12153489,-0.5021361,0.04133259,0.07066776,0.3427557,-0.36089814,-0.10466047,-1.2407093,0.6582002,-0.6273775,-0.92311895,0.03801623,-0.89580774,0.82948047,-0.49199197,-0.039893877,-0.29144964,-0.37923568,0.3907454,0.34704745,-0.5758764,0.16248219,0.09815622,0.8056207,0.24335952,0.20661914,-0.036406923,0.06935807,0.54176897,0.058020692,-0.03558845,-0.2982882,-0.14817406,-0.32375184,-0.33320975,-0.26069903,-0.059900153,-0.08372683,-0.1285307,0.013565444,-0.018051893,0.058202576,0.004592547,-0.09736806,-0.036194727,0.04819901,-0.31408772,-0.11188358,-0.5740645,-0.033132795,-0.28540483,-0.42719185,-0.36311308,-0.47886172,-0.36616445,-0.621259,-0.057213195,-0.17484352,0.43166718,-0.090625696,-0.16202776,0.20495038,-0.12256338,0.30961236,0.17535208,0.115138374,-0.16111235,0.11198529,0.4127487,0.11951201,-0.11493495,-0.22412202,-0.014622263,-0.4921943,-0.14678414,-0.022309003,-0.050324257,-0.16268879,-0.3103228,0.05645544,0.099980764,0.1310009,-0.18879184,-0.03265917,-0.13464318,-0.21465208,-0.0050650546,-0.51477647,-0.5050637,-0.19255555,0.19850461,0.18490674,-0.24330473,-0.36058635,0.058913983,-0.39603794,-0.1608561,-0.24308142,-0.3945018,0.17175208,0.12547225,-0.2119661,-0.4028142,0.01683541,0.49604785,0.07885543,-0.36956462,-0.30755866,-0.20904553,0.7085756,0.26442406,-0.25656098,-0.36731803,-0.009955217,0.49380127,-0.08778564,0.014869641,0.2448787,-0.22230043,0.05341276,0.13535726,-0.4302431,-0.060782537,-0.4014565,-0.18740472,-0.4395793,-0.3397987,-0.12360737,0.025869047,0.057330087,-0.3837566,-0.44152433,-0.0039751776,0.17145538,-0.04984168,-0.4971525,-0.22037317,-0.042158768,-0.20247878,-0.00079549145,-0.27211127,-0.47264498,-0.062970705,-0.28241998,-0.042863846,-0.32404387,0.02217778,0.31228662,0.5024762,0.1555563,0.15907834,0.4291006,-0.33811486,-0.11035693,0.14733824,0.038889077,-0.2320137,-0.30964512,-0.7989137,-0.10602777,-0.1901896,0.32901627,0.35924703,0.38390124,0.37157413,0.3806727,0.17345996,0.19752716,0.11894187,0.20354396,0.110577054,-0.07223741,0.15882427,0.699825,-0.06354753,-0.06925166,0.2550814,0.28074998,0.4834247,0.31675726,0.22923458,0.654905,-0.6238888,-0.31533122,-0.40000185,0.5721952,-0.060249835,-0.52977073,-0.9711275,-1.1550856,0.33493918,0.5639955,-0.2167568,-0.4695209,-0.6370796,0.5244231,-0.03491298,0.13687612,-0.11399962,0.08772515,-0.07867984,0.2632233,0.10069488,0.2534601,0.28810987,0.2888756,0.07140531,0.09442538,-0.404311,-0.116201125,0.041972153,-0.29385293,-0.22895642,-1.032984,-0.42307165,-0.18693641,-0.043862574,-0.16099694,-0.19545527,-0.21211013,0.09744048,0.23669787,0.14919983,-0.062282797,0.06594307,-0.12747057,0.2616807,0.25494114,-0.22135957,0.27144143,0.4306344,0.29468128,0.19684152,-0.08465115,0.09046111,0.40553537,0.14385466,0.17487986,0.17464747,0.13943909,0.21775739,0.3214071,0.08279196,0.12235781,0.08906672,0.17127769,-0.20157132,-0.32180357,-0.42670292,-0.3143241,-0.1330408,-0.34629878,-0.2539275,-0.16725932,-0.26982135,-0.4764413,0.028071329,0.20250624,0.41510975,0.15033704,0.104805864,0.26701656,-0.19390488,0.55908924,0.1565076,0.0332602,-0.20475008,0.12322402,-0.0066555464,0.13491067,-0.18838878,-0.3807049,-0.56190866,-0.01816833,-0.50377,0.16703796,-0.40785596,-0.40195355,0.049100604,-0.54272586,-0.03279522,0.35650507,-0.32286137,0.1488143,-0.27903605,-0.3877878,-0.21514255,-0.41021693,0.08846225,-0.013907534,-0.25572157,0.3234516,-0.03500862,-0.078649506,0.35650507,-0.3497173,-0.26629686,-0.10250416,-0.23080741,-0.07053847,-0.1530326,0.16234544,-0.42411175,-0.7596257,-0.59149116,0.13377768,0.14472656,-0.2947388,-0.35061583,-0.010288171,0.16234544,0.40624115,0.40422758,0.22829042,0.34658864,0.43594158,-0.21130078,0.24603516,-0.011601722,0.0690912,0.04442476,0.19182822,-0.09330726,0.24504392,-0.10184694,0.33313748,-0.5274826,-0.74358153,-0.16414167,-0.44334432,-0.044159144,-0.28351742,-0.6295993,-0.06939615,-0.43039995,0.19254735,-0.20567149,-0.20477258,0.69252324,-0.4217704,-0.4181747,-0.05123809,-0.19038996,0.2660785,0.0009740574,-0.4163769,-0.035975743,0.07554638,-0.22513679,0.012890637,-0.2420918,0.041636355,0.39533076,-0.39747697,-0.5069334,0.13102575,0.80139256,0.77993053,-0.09024788,-0.3135604,-0.23844326,0.054111168,0.5232445,-0.2725679,-0.32643762,-0.3189259,-0.040348634,0.05902061,-0.30046853,0.005442639,0.01566729,-0.53306615,-0.29352832,-0.17348945,-0.33834043,-0.55070305,-0.028457489,0.15243316,-0.3793732,-0.0709975,0.20462397,0.4815952,0.193106,-0.108790845,0.18095814,-0.41608673,-0.31764406,0.5445841,0.46431825,0.29388824,-0.22514035,0.01641086,0.20786339,0.44776115,0.26671302,0.52154815,-0.23152566,-0.5009406,-0.0730918,0.18962881,0.6171589,0.18744288,-0.5282647,-0.3111297,0.74467105,-0.0627542,-0.33790722,-0.11967927,0.36996743,0.8721832,-0.5555887,-0.32187712,-0.5111416,0.5191567,-0.07632514,-0.62845284,-0.006967629,0.30129302,-0.3825365,-0.42953384,-0.70714605,-0.015043669,-0.1155489,0.06943752,-0.06274393,0.06382573,0.041615184,-0.36537522,0.091343805,-0.30371308,-0.14577146,-0.29559964,-0.17781955,0.52223504,-0.20445868,-0.2383999,-0.07998499,-0.16916521,-0.047159366,-0.30236083,0.03617242,0.16875954,-0.07586066,-0.30641755,-0.017410088,0.1695709,0.16901578,-0.24304749,-0.032633316,-0.2596697,-0.042812675,-0.2469586,-0.58666635,-0.2572951,-0.49224102,-0.36177757,-0.1214539,-0.13744755,-0.061634887,-0.6207489,-0.63248223,-0.24570146,-0.08332059,-0.2183237,0.20002529,0.074520595,0.4366474,-0.11698406,0.27601254,0.28076175,0.26791096,0.08074652,0.074762955,0.9432604,0.20243315,0.18719083,0.17497177,0.35624203,0.9729892,0.36354828,0.331552,-0.33205587,-0.3265132,-0.7114763,-0.2506795,-0.33054423,0.08647813,-0.4562619,-0.38974994,-0.38420728,0.039680425,-0.12987466,-0.004814401,-0.30434257,0.08553336,0.0002174944,0.33057573,-0.10949496,-0.02576433,-0.05348196,0.1563742,0.10250709,0.06459653,-0.1931293,-0.055682864,0.299543,-0.5330589,-0.46923268,-0.479797,-0.4296164,-0.543183,-0.3519245,0.07714167,-0.12082961,-0.029024417,-0.22262141,-0.067402676,-0.015144968,0.16385728,-0.20391373,-0.11098057,-0.24479944,-0.26376468,-0.104981296,-0.08245168,0.03150784,0.3061338,-0.12751092,-0.18951781,-0.017199852,0.2569049,0.47587934,-0.22462367,-0.8979566,0.19557054,-0.049598787,0.0934811,0.17310818,0.27385256,0.2258342,0.43418273,0.08715936,0.21480478,0.5401728,0.37822857,-0.025186095,-0.24466234,0.010556648,-0.29789114,-0.1418167,-0.21728754,-0.25378728,-0.1843047,0.08630668,0.17679563,-0.42925218,-0.62201643,0.17641543,0.0839304,-0.08250463,-0.4706946,-0.13468786,0.008019963,-0.032673925,0.04156123,-0.32431543,-0.38628894,-0.09866337,-0.2148162,0.023109375,-0.36632815,0.56452256,0.309043,-0.44836813,-0.06691669,0.3340192,-0.3355238,-0.16053987,0.23080426,-0.33582473,0.11374708,-0.13165171,-0.3454541,-0.16309766,-0.32288525,0.017199356,-0.43031305,0.030430354,-0.72762024,0.15136185,-0.33432013,-0.34154218,-0.23607033,-0.4841774,-0.17062062,0.2553291,-0.44252306,-0.44696417,-0.3730517,-0.5081878,-0.05238109,-0.3517979,-0.29628426,-0.5418132,0.1492524,-0.34037796,-0.13910134,-0.022126153,0.47836903,0.06328556,0.04766243,-0.23950173,0.18367086,-0.231254,0.46060467,-0.4628252,-0.18636724,-0.42285538,-0.20603493,0.08517379,-0.62904894,0.19212314,-0.009446055,0.016979773,0.25901046,0.14942911,0.32390538,0.08873243,0.23695187,0.091009445,0.2563065,0.10844284,0.035542782,-0.16849911,-0.07635116,0.06838161,0.011616334,0.13797288,0.021133546,0.0815456,0.20094657,-0.026648192,-0.049952015,0.23567106,0.14957142,-0.06094573,0.18945491,-0.027267722,0.702676,0.32011697,-0.08879749,0.19736154,0.03965984,0.32842907,0.030334074,0.12670875,0.10825995,0.09482883,-0.24165893,0.17009382,0.27044713,-0.3470806,0.2672034,0.4966983,-0.17759497,-0.18631254,0.3476888,-0.05853944,0.82269454,0.22341286,0.26233777,-0.08704281,-0.0251603,-0.29114997,-0.12277963,-0.14071374,-0.23439151,-0.22624561,-0.1571369,-0.30481407,-0.085072026,0.23189518,0.25541317,0.6106792,0.39494443,0.2156034,-0.06582407,-0.18485922,-0.13480139,-0.07213057,-0.1221884,-0.085006334,-0.15411504,-0.11864099,-0.053145383,-0.23150103,-0.2987719,-0.15619859,0.022654131,-0.30730823,-0.10424184,-0.16292918,0.038249366,-0.1827105,0.116553865,-0.15357202,-0.047319226,-0.0016672538,0.07674497,0.17729321,-0.32864907,-0.36345106,-0.1408496,0.12270988,-0.15504947,-0.31715783,-0.37888214,-0.022264251,-0.045267224,0.02573214,-0.3752706,0.16583212,-0.31193537,-0.5046207,-0.30272856,0.057652146,-0.17405248,-0.027031293,-0.6909489,-0.26568213,0.012666209,-0.3625728,0.024304872,0.25910583,-0.075298525,-0.59537345,-0.30185172,0.13996537,0.16188635,0.1903836,-0.03901932,0.09393135,-0.052610323,-0.10489183,0.02514061,0.14654167,0.13863564,0.03857926,-0.2467075,0.19986305,-0.070266694,0.13134427,-0.18158472,-0.2602914,-0.078107394,-0.1274489,-0.28046748,-0.27727127,-0.4089152,-0.15481645,-0.06976728,-0.40991402,-0.1350399,-0.36636564,-0.0397279,-0.22892858,0.0059054983,0.17479277,-0.15911137,-0.38853934,-0.18378212,-0.23747544,0.23176038,0.9823873,0.08143949,0.014033835,-0.028575258,0.19340938,0.9829889,0.3892251,-0.13806361,0.28033832,-0.2853014,-0.9300495,-0.25883168,0.300341,0.0849738,-0.64971113,-0.58774793,-0.31703496,-0.09768227,0.14686179,-0.0029327238,-0.6139169,-0.40336233,0.25236464,-0.03358014,-0.15698051,-0.065472834,0.07429575,-0.22081411,-0.09276121,0.2142572,-0.15736622,0.0060537057,0.07265652,-0.38242304,-0.25745577,-0.45512778,-0.5106688,-0.32398927,0.28252634,0.1645017,0.5484676,0.33826023,0.09931814,0.2173428,0.29621875,0.6634066,0.3606309,0.19998623,-0.5179041,-0.21970735,0.25170204,-0.58283913,-0.22932152,-0.58756745,-0.7300462,-0.42838204,-0.2800717,-0.54721946,0.042515106,0.4970997,0.7161766,0.32168058,-0.3071805,0.3391752,0.38771886,0.2611586,0.13964184,0.3713275,-0.24066938,0.14468533,-0.46715394,0.09196502,0.11276945,0.41845334,-0.34854466,-0.118678294,-0.22570513,0.42844027,0.4447523,0.64315975,-0.6514822,-0.5399613,0.6604705,-0.26765034,-0.32890365,0.27047998,0.16004092,-0.1809303,0.01159943,-0.71440005,-0.73370814,-0.64615583,0.061294924,0.4024742,0.38582927,-0.56559443,-0.48003954,0.06828579,-0.05117945,0.14782105,-0.08186503,0.2655918,0.06551412,-0.39220086,-0.0074504353,-0.040849652,-0.07479436,-0.32701817,-0.5126231,-0.169254,-0.21896961,-0.49538836,-0.41606435,-0.30646905,-0.21178846,-0.022689648,0.134895,-0.3665697,-0.0902062,0.24239118,-0.2295756,-0.3442529,0.12417853,0.17193095,-0.31399962,0.632902,0.0018333127,-0.038330685,0.15744552,0.19020487,0.85709196,0.023510972,0.39935225,-0.35500455,-0.116552025,-0.042620603,0.101453744,-0.50543016,-0.40158078,-0.25382936,-0.5691661,-0.50052744,-0.3792955,-0.14763999,0.06256593,-0.10552081,0.1898706,-0.14763999,0.08670511,-0.6807388,-0.086781904,-0.43621346,-0.357265,0.19460651,-0.10843898,0.2661824,-0.36218005,-0.32531697,0.26280326,-0.5667703,0.014476451,-0.27386218,-0.38798425,-0.21319166,-0.5971824,-0.17033829,0.033848785,0.31978747,0.3741606,-0.18784827,-0.6279017,-0.4518803,0.45802414,-0.5100838,-0.76312065,-0.865378,0.22737226,-0.48201317,0.26887673,0.22175813,-0.48482022,-0.07057764,-0.0035902862,-0.21694602,0.47639903,0.2762954,-0.37454268,-0.5016626,-0.9552041,-0.29514283,0.259453,0.00021616906,-0.63279265,0.19719632,0.47399297,-0.39018202,-0.5557989,0.36872804,-0.18971965,-0.16009592,-0.31827548,-0.20217599,-0.24146137,-0.38518837,-0.20600872,-0.5135845,-0.25870863,-0.38518837,-0.31779638,-0.08200424,0.21223688,-0.37241265,-0.35708177,0.23251836,0.20600872,0.38231385,0.2834616,0.3026252,0.058289286,-0.0744985,0.267971,0.09222483,-0.15107305,0.1251417,0.19083242,0.26328287,-0.011840363,-0.108762346,-0.06014428,0.10347589,-0.52517915,0.35393262,-0.4277697,-0.28321543,-0.51200634,-0.016671838,0.13051482,-0.3937977,0.0021557477,-0.35947907,-0.74669033,-0.43608934,-0.71271837,-0.39345104,-0.30886772,-0.49502033,-0.21995127,-0.40385064,-0.24571227,0.122648254,-0.18137391,-0.058050044,-0.2089178,-0.19135207,-0.22534019,-0.044901736,0.0069314456,-0.282091,-0.42989254,-0.06678094,-0.19977115,-0.2993449,-0.40993622,-0.23698138,-0.13979822,-0.14728184,-0.16931696,-0.40099743,-0.26400557,-0.11516464,-0.25174075,-0.015655842,-0.21515414,0.11723407,0.37621036,-0.5636173,-0.037285883,-0.1667391,0.22734612,0.14278957,0.18126245,-0.12191226,-0.32509938,-0.23963511,0.24927078,0.51529926,-0.6150076,-0.3798412,-0.015369953,-0.08804775,0.5125063,-0.061200514,-0.027720029,0.40441915,-0.43151078,0.10696998,-0.4521786,-0.42620417,0.082624875,-0.15618294,-0.3538977,-0.16188626,-0.002206148,0.2655695,0.030198295,-0.68381226,-0.07626349,0.29861945,0.44456568,0.50013644,-0.4264321,0.43111172,0.5557071,0.22038174,0.17636389,-0.582615,0.1088016,0.3849003,0.05436424,-0.30212918,-0.25021443,-0.20224814,-0.037729587,0.40564167,-0.559227,-0.75322956,0.022263903,0.2871458,0.330135,-0.47508577,-0.3047824,-0.37294048,0.6815809,0.4085811,0.36228505,-0.93033034,-0.003714478,0.5077869,0.76866156,0.65071684,-0.7620478,0.13447903,0.41299024,0.4640629,0.1455019,-0.71024036,0.34997618,0.8428822,0.018931938,0.014837567,-0.037429076,0.12732407,-0.048697654,-0.12362827,-0.1438465,0.06409684,-0.09869971,-0.24450281,-0.6585778,-0.19189195,-0.20232716,-0.32378143,-0.49567255,0.32639024,0.3101577,0.5936476,0.43827888,0.2305892,0.16768806,-0.10420718,0.40726313,-0.04750195,0.13428089,0.00157792,0.1402429,-0.24740288,-0.11585023,0.15031163,-0.07167971,0.042372536,-0.26010865,-0.44877732,-0.42216712,-0.54227257,-0.3284321,-0.035360392,0.16469552,-0.43511263,0.15582545,-0.11099567,-0.14863351,-0.15942143,-0.21503912,-0.15163015,-0.44877732,-0.4655585,-0.2301422,0.13221191,0.2602144,-0.02990686,-0.33693415,0.23015924,0.29053319,0.5383564,0.35169807,-0.51462865,0.29923338,0.7060326,0.5652479,0.066174075,-1.0129116,-0.5910848,0.2918514,0.21644986,-0.17202623,-1.0266209,-0.51700145,0.42736325,0.27471468,0.30661532,-0.084563084,0.22963195,0.5715753,-0.21764755,-0.034409095,-0.106413804,-0.04817273,-0.19740376,-0.17448223,-0.41880018,-0.39609286,-0.019186081,-0.48885012,-0.25299385,-0.10464649,-0.2127205,-0.4691419,-0.14299187,0.16698451,-0.054251224,-0.36160344,0.0153033445,0.17812397,0.10684224,-0.23971222,-0.1603437,-0.043272447,-0.027527275,-0.2335988,0.2795715,0.18417814,0.16147912,-0.44018865,-0.21319841,0.07068303,-0.1554452,-0.22066897,-0.24968925,-0.5289734,-0.44823387,-0.12398264,-0.3539898,-0.30715513,-0.43271807,-0.4582904,-0.061847653,-0.124772795,0.02693713,0.28847873,-0.22742122,0.41863894,-0.2633374,-0.045505792,-0.42193767,-0.47078064,0.06654343,0.1607919,0.39628485,0.34395307,-0.66163766,-0.37124768,0.8282784,0.23395377,-0.5820113,0.03968492,-0.15761095,0.9899939,-0.22656575,-0.83771867,-0.84141266,-0.30167723,-0.30208766,-0.7535774,0.22307697,-0.21753596,-0.1462211,0.48842978,0.73387605,0.24956915,0.023027193,-0.06818762,0.056103736,0.31788006,0.5346501,0.45006293,0.32749784,0.34599358,0.34278765,-0.5504331,-0.6027144,-0.25918692,-0.07589417,-0.57608056,-0.116153225,-0.5267586,-0.025616596,-0.33070377,-0.51294845,0.12207186,-0.3491995,-0.6224432,-0.3265114,-0.06202237,0.18982936,0.0673309,-0.065447874,0.35156602,-0.065804124,0.01066836,0.7499532,-0.35869098,0.0508417,-0.92909515,0.6575323,1.2800505,0.117663674,-2.2343884,-1.3223931,-0.17639372,0.9136238,0.026769504,-0.8264957,-0.9022239,-0.03208778,0.2829628,-0.05934076,0.17211874,0.27115571,0.06394496,0.056571193,0.19101556,0.11509312,0.15715088,0.21598491,0.0624624,0.3689222,-0.03152381,0.27341443,0.2832461,0.0048890193,0.27934465,0.33895898,0.090279825,-0.016103283,0.07346452,0.3904583,-0.030255836,0.11439086,-0.07252817,0.11977487,0.044320606,0.07810726,0.04194071};

#endif
