#pragma once

#include "parameters.h"

#ifndef KERNEL28_H
#define KERNEL28_H

static float bias28[FEATURE_MAP28] = {-0.7562881,1.4353179,-0.77600956,-1.2154284,1.7147216,-0.9487083,-0.850799,0.7417981,-0.1370869,-0.27403474,2.1569452,1.205341,0.39381975,0.006278813,0.48117682,-0.73053896,2.3619053,0.7059879,-0.23390394,-0.54118395,-0.18500373,-0.6136931,1.7299592,0.5931902,-1.0855749,-0.014746968,-0.41329378,0.55893874,0.5568521,-0.083812445,1.3779964,-0.08763464};

static float kernel28[FEATURE_MAP28][IN_CHANNEL28][KERNEL28][KERNEL28] = {-0.05597509,0.1113749,0.14071436,0.09831596,-0.00478564,0.13277544,-0.07657024,-0.15969871,0.20445578,-0.060404774,0.032129586,0.2593378,0.05344384,-0.019502113,0.07340618,-0.007600934,-0.18489614,0.4712723,0.47633478,-0.08537208,0.022220327,-0.06742323,0.211014,0.08893884,-0.07145022,-0.026084043,-0.050575618,-0.24347073,0.19899957,0.04146316,0.091596425,0.1243305,0.050605107,0.002596977,-0.043055627,0.070304535,-0.057387844,0.20737478,-0.14638914,-0.14945611,-0.09342482,-0.30882093,-0.37794584,-0.20466168,-0.23438777,0.102566764,-0.012960924,-0.30103552,-0.20949808,-0.15594395,-0.007981848,0.080662124,0.01936284,0.094619095,0.073061146,-0.039151598,-0.046556,0.73860556,0.14127338,-0.11316286,0.048194144,-0.20797853,0.4269654,0.57190824,-0.059366275,0.024359174,0.012433499,-0.48724902,-0.52866125,-0.060840603,-0.025833502,0.1374729,-0.33496732,-0.16748366,0.11742203,-0.031424396,0.05039805,0.082165755,0.02410043,-0.09978905,0.083539,0.27684596,-0.36986035,-0.2662262,-0.08578197,0.058362864,0.5079171,0.18145129,-0.06852487,0.16176812,0.010076177,-0.13073282,0.4214943,0.22795849,0.13814834,0.05525018,0.046026558,-0.013263247,-0.010516759,-0.016398821,-0.15112849,-0.097663715,-0.20075911,-0.15070246,0.007162361,-0.00808761,-0.3086472,-0.3391072,-0.24431905,-0.16742352,-0.011642165,-0.071783364,-0.2274915,-0.040897347,-0.19351688,-0.0029954112,0.09335033,-0.030699637,0.04230852,-0.03133866,-0.108686835,0.05444992,0.116301835,0.02509489,-0.053837523,0.052282583,-0.054629557,-0.026241163,0.021472313,-0.16039318,-0.19994219,0.16768378,0.16458777,0.103466585,-0.082992986,0.021709507,0.061520673,-0.08509028,0.4542143,-0.088785514,0.10476491,0.007290599,0.6052196,0.20283845,-0.056676917,0.05016032,-0.2231123,0.26366,0.07100844,-0.048812058,0.013214225,-0.020799989,-0.12035949,0.027363282,0.012454675,0.057219446,0.14232801,0.11996997,-0.27063355,0.000113506496,0.14341865,0.5752326,0.4471608,-0.7790258,-0.3105197,-0.10174077,0.32999533,0.19537967,-0.3293721,-0.031998485,0.010156549,0.17948754,-0.07552655,-0.017849429,-0.019280888,0.026303476,-0.051186968,-0.23855697,-0.146461,0.11589757,-0.011723303,-0.23044279,-0.3007657,-0.3624335,-0.24085599,-0.09696448,-0.34079567,0.112787135,-0.31347793,-0.2739889,-0.19798605,-0.05815164,-0.21678391,-0.16363601,-0.07424477,0.042667076,0.026303476,-0.09473308,0.089594096,-0.005684154,-0.09580334,0.07644365,0.06830172,0.09734126,-0.06255714,-0.08105741,0.22779304,0.5637832,0.35770202,-0.1043976,0.111453936,0.27013105,-0.20173886,0.27935857,-0.00031910418,-0.05355579,-0.15569174,0.087073386,-0.054686613,-0.06536158,-0.0021612858,-0.05663163,0.083590455,-0.06432123,-0.028949074,0.06948784,0.06135882,0.19509655,-0.19047084,0.023672804,-0.01841785,-0.017286928,0.5616169,-0.4375387,-0.028145468,0.017133873,0.16217232,0.7471899,-0.7488225,-0.17740998,0.14162867,0.14190078,-0.023638792,-0.685695,-0.03443781,0.041903585,-0.084691495,-0.09503134,-0.13292144,0.11333015,-0.053068236,0.04388115,-0.10904666,-0.043196402,0.06984464,0.07315428,0.024907833,-0.018117381,-0.14813456,-0.14756393,0.19161627,0.32571343,0.2501625,-0.9148279,-0.17506811,-0.08947419,-0.14117292,-0.2645423,-0.21809332,0.008459534,-0.037147764,-0.07058646,-0.08217017,0.011562313,-0.033809602,-0.014909566,0.049788263,-0.31089404,-0.26804924,0.007999763,0.13068746,-0.0039326,-0.21443939,-0.31541535,0.11303281,-0.07513991,0.16018364,-0.30766454,-0.043652195,0.15803063,-0.075678155,0.18332845,-0.24393557,-0.20937982,0.088380896,0.046316538,-0.04276408,-0.32208967,-0.330917,0.0817604,-0.15445644,-0.23652041,-0.5086625,-0.13243227,0.20013265,0.2905275,-0.023340829,-0.5216855,0.2853566,0.11318507,0.077419735,-0.06612038,-0.36809087,-0.29952866,0.012412533,-0.10456692,-0.132145,-0.48759592,0.3606218,-0.028751114,-0.10858872,-0.14890252,-0.5454333,-0.08373971,0.17418243,0.87287,0.2528587,0.9196467,-0.343323,1.0582114,0.16140153,-0.52954704,0.0873201,-0.3592094,-0.14077125,2.0246348,1.2188407,1.1800073,1.7122021,1.0008439,-0.5242516,-0.692824,-0.17772922,-0.65090156,0.20464785,-0.46335363,-0.51630837,-0.9505369,0.0125560565,-0.4942439,-0.06405066,-0.30736384,-0.003907115,-0.38232097,0.12016935,-0.008973042,-0.5822066,-0.6900814,-0.75274396,0.18164212,0.20761932,-0.084425904,-0.10579265,0.091316804,-0.3730009,-0.06623195,0.23557952,0.16210964,0.5175611,0.21654278,0.24470128,0.09637344,0.13672733,-0.071288586,-0.044790845,0.1165881,0.190346,0.12033691,0.121555276,-0.16607244,-0.0612931,0.12849058,0.5330813,-0.247984,-0.35351312,0.091471046,0.03601204,0.15098347,-0.6631651,0.051967926,0.21180797,-0.08505121,-0.0117267575,0.043392517,-0.20393546,-0.32146075,-0.2442352,-0.5926874,0.5791917,0.5975609,0.06044955,-0.17283463,-0.059780594,-0.34518278,0.04035038,-0.3656164,0.064828195,-0.43226904,-0.021801976,-0.17210487,-0.097911246,-0.1912006,-0.1549552,-0.246785,0.07510583,-0.026439078,-0.12041259,0.027047222,0.1503333,-0.27488127,-0.058108196,-0.11603395,-0.016222252,-0.038465135,0.088241756,0.009537304,-0.059939712,-0.12385286,0.34898606,0.0419113,0.018060114,0.21084575,0.08289265,0.4044451,0.03125911,-0.06560397,-0.13518138,-0.16756065,0.07786244,0.058164347,-0.11768135,-0.22606316,-0.23417912,0.04949887,-0.16417901,0.10432384,0.046074953,-0.2717154,0.12562822,-0.033520587,-0.03446687,-0.03074631,0.02839512,0.08071552,-0.038058247,0.03364008,-0.09311739,-0.04028025,-0.007072943,0.062371086,0.34725243,0.90864384,-0.22075333,-0.114820674,-0.03978934,0.05518833,0.2554786,-0.22943464,0.0226205,0.035164475,0.14158805,0.023343941,-0.044310857,0.037696525,-0.06547155,-0.088258564,-0.016487673,0.01461131,0.09638947,-0.25574136,0.013968482,-0.07206625,0.015870906,-0.13919835,-0.14232562,-0.16275713,-0.021578178,-0.1947248,-0.31105933,-0.19972844,0.66159177,-0.12509088,0.3113373,0.2016743,0.5690245,0.020796359,-0.20334217,0.0298307,0.0101202,0.04708282,-0.15241571,0.1447869,0.34466186,0.20220378,0.056132026,0.25247365,0.19722496,0.40954697,0.22581296,0.022424703,-0.25151002,-0.51233524,-0.5001291,-0.52100796,-0.2150523,-0.06725404,-0.011091897,-0.20734319,-0.2126432,-0.10118219,0.18148552,-0.22886448,-0.20445226,0.069582835,-0.16060665,-0.24735008,-0.61288923,0.10769834,-0.3185715,-0.053127334,-0.46659657,-0.32569364,0.20538719,-0.24908249,-0.2629418,0.23791805,0.82924837,0.26351926,0.30548215,0.1860419,0.07502311,-0.18161462,0.5836307,-0.10808332,-0.06106756,0.090470456,-0.02065662,-0.36958143,-0.17122015,0.046486415,-0.029463261,-0.0047557997,-0.1155422,-0.05760604,-0.027193682,-0.026120791,-0.21787958,-0.19939283,-0.02814278,-0.030948805,-0.19224022,-0.04484138,-0.24252859,-0.26783782,-0.243629,-0.019284545,-0.22019042,-0.117192805,-0.12104421,-0.15174542,-0.09424943,-0.04013716,0.3061318,-0.0037688767,-0.12478558,0.006326668,-0.06647878,-0.16208754,0.13285352,0.11131815,0.05810391,-0.22658965,0.10965358,-0.16323194,0.058520053,0.2885949,0.19402649,-0.004376,0.59966147,0.30066302,0.03175688,0.11225447,0.11267061,0.029936258,0.06486623,-0.17717272,-0.094152264,0.03688064,0.113919035,-0.01987081,0.02963616,-0.07603485,0.37762636,-0.07509615,-0.00036947418,0.17361514,0.092618585,0.063831724,0.102095,-0.20740841,0.25443292,0.63045007,0.07862746,0.7055462,0.3407935,0.06637963,-0.29269618,0.10352541,-0.15519871,0.05922762,0.12247825,0.012840101,-0.305391,0.04396254,0.032631066,-0.16314924,-0.014925226,-0.23892826,-0.07465729,-0.005254209,-0.03281057,-0.11977572,-0.43024534,-0.14233494,-0.25376,0.18558381,0.45791465,-0.21861249,-0.26248455,0.16751151,0.23643552,0.4205237,0.109119296,0.1043831,-0.008335069,0.018087879,0.1872041,0.07945579,-0.069360234,0.10045705,-0.16839734,0.15174131,-0.089893565,0.06870612,-0.017008131,0.13300328,-0.09669069,-0.19534092,-0.027111972,-0.0003757844,-0.05321356,-0.22105978,0.18603314,0.4333017,0.05348912,-0.013479442,-0.072747655,0.8666034,0.34732717,-0.1970555,0.0047610523,-0.12296068,0.31548476,-0.036649387,0.10783554,0.03563046,0.14497572,0.25697118,-0.096094266,0.06223061,0.14733146,0.5606644,0.6753101,-0.30133748,0.0018296805,0.09555441,-0.0052819946,-0.4059713,-0.19297378,0.08127278,-0.03489429,-0.1655884,-0.13417862,0.1543005,-0.07356758,0.050132938,-0.039213136,-0.025397744,-0.0015566854,-0.025814906,-0.043864116,0.11858985,-0.05876511,0.14402087,0.0049228473,0.11364492,0.016181378,0.04154618,-0.016369019,0.1409303,0.029515008,0.017285155,0.0745712,0.12786157,0.0966909,-0.027152924,-0.12715515,0.71877986,0.16300584,0.123976275,-0.086491995,-0.04596129,0.21898943,0.013565425,-0.07421799,-0.11348723,-0.14079899,-0.1643694,0.08941796,0.0065356484,-0.14902993,-0.43249857,-0.58314973,-0.31776422,-0.30205062,0.06135793,-0.010397799,0.37887275,0.043493044,0.13680823,-0.064849846,0.20228162,0.62904346,0.10843642,0.025020191,0.10332326,0.020717654,0.19492367,-0.034233235,0.081872925,-0.031702977,-0.13368133,-0.10413187,-0.019940436,-0.053674255,-0.00527815,-0.08526819,-0.09595397,-0.058281135,-0.12561247,-0.14981905,-0.1301921,-0.31599388,-0.25296956,0.0424978,-0.15090944,-0.19474295,-0.36833242,-0.11427246,-0.06907596,0.12670286,0.102005616,-0.10255081,-0.15428963,0.12910171,0.029499324,-0.07644173,-0.035249554,0.25360867,0.07494538,-0.114491574,0.11825381,-0.46138653,0.0077382284,0.115432136,-0.28678474,0.4384711,0.8215348,0.30012354,-0.018105743,-0.32748523,-0.13458532,-0.24762331,0.0711404,-0.042111352,-0.018928733,-0.38340572,-0.29943952,-0.3150015,0.020243376};

#endif
