#pragma once

#include "parameters.h"

#ifndef KERNEL18_H
#define KERNEL18_H

static float bias18[FEATURE_MAP18] = {0.36580718,-0.3636007,-0.05540788,-0.18798888,-0.43027812,-0.8095835,-0.7942613,0.24197108,1.0583229,-0.2264483,1.288368,1.5922086,0.24617875,-1.071238,0.6010625,-0.052497834};

static float kernel18[FEATURE_MAP18][IN_CHANNEL18][KERNEL18][KERNEL18] = {0.19454764,-0.048378203,0.05697302,0.107277155,0.027466057,0.023527961,0.088420294,0.023427352,0.09066242,-0.07904935,0.11572825,0.048665654,-0.119235165,0.025195183,0.16752714,0.013158124,0.044928778,-0.2398501,0.03138978,0.044353873,-0.26054665,-0.29136154,-0.05266124,-0.03317198,-0.09267458,-0.0051813256,-0.18143982,0.0020984008,0.12728383,0.065941535,-0.07462259,-0.019302415,0.09957343,-0.003005672,-0.1491302,-0.12659395,-0.065366626,-0.12935348,0.008357672,0.059790056,0.061399788,0.04412391,-0.017103406,0.2656058,-0.22329286,-0.18787874,-0.13257295,0.14361112,0.07203552,0.1208449,0.060939863,-0.132228,0.0107075935,-0.0199923,-0.14050663,0.061284807,0.047084667,0.15039498,-0.072265476,0.22639734,0.0052711545,-0.15545414,0.10836948,0.16315787,-0.046084456,-0.09459745,0.09899195,-0.037700206,0.14964437,0.05513366,-0.20966403,0.090376414,-0.07580517,-0.007166364,0.06666923,-0.05198234,-0.015583137,0.07707726,0.23649363,-0.015843337,-0.12304607,0.036543757,-0.044667806,0.09766204,0.074417435,-0.070832446,-0.0456797,0.14386214,-0.1313725,0.10251912,-0.019587338,-0.0769038,-0.24840504,0.1827188,-0.0004569325,0.030385673,-0.076614685,-0.021509934,0.035965536,0.06545496,-0.11443053,-0.043193337,0.05180887,0.16583465,0.13229765,0.06493456,-0.12177398,0.0008321005,0.04599772,-0.18283443,0.14420907,-0.028087232,0.05816934,-0.113447554,0.15265115,0.04067806,0.1107299,0.04952489,0.21128306,-0.004961885,-0.020382397,-0.08829481,0.1625966,0.06713181,-0.04064915,-0.12998477,0.1045429,-0.13495749,-0.064831324,0.01708989,0.061567705,-0.06196463,0.033187464,-0.034686964,-0.013197805,0.1422761,0.02729972,0.051688645,-0.05265891,-0.19458218,0.039472133,0.0944685,-0.018181438,0.112550706,-0.025447397,0.04225062,-0.09826135,0.027387926,0.0510271,0.07184369,0.032746434,0.14007095,0.116431765,0.059274353,-0.030519234,-0.08485406,-0.08692689,-0.043242935,-0.04723425,0.027432028,0.061655913,0.15718289,0.0018068424,0.050277352,0.121724114,-0.02608689,-0.0885587,0.0143885845,0.016549628,-0.0155462865,0.02882127,-0.057554338,-0.1306329,0.045051154,-0.03120283,0.0020108183,0.12710467,-0.01672604,-0.0026351507,-0.03795058,-0.05146813,0.07660681,-0.031776167,0.15012641,-0.21539876,0.02037556,0.044874743,0.053629175,0.1636219,0.05115941,-0.049218882,0.0050635687,-0.05806976,0.03417419,-0.088642046,-0.0038791876,0.07524471,-0.068787634,0.087719604,0.10594877,0.09083833,0.036612064,-0.045067757,-0.09479164,-0.062330555,-0.02231425,0.01698826,-0.019393193,-0.040938742,0.06593246,-0.09646082,-0.014352719,0.08438125,0.014330757,-0.073355906,0.06575676,0.15048942,0.09654867,-0.071159616,-0.069797926,-0.18747485,0.056137033,-0.05433608,0.0027686912,-0.08420555,-0.038874235,0.015923062,0.15198289,0.053457566,-0.037073284,0.045111686,0.022116585,0.05894828,0.030198913,-0.17702053,-0.12018069,-0.05503889,0.2591616,0.13748741,0.040938742,0.08688502,0.06869978,0.0101248715,0.084249474,0.09171684,0.010448824,0.05719125,0.07911017,0.07542041,-0.15338852,0.10436744,0.18009533,-0.1554091,-0.06004642,0.0045380727,-0.024137167,-0.042284682,0.04118742,-0.13402638,0.10667515,0.033399545,-0.11465036,-0.11807596,0.077504076,-0.09447147,0.035674356,0.10587228,-0.10608638,0.034817956,0.04565675,-0.008978805,0.0094939815,-0.047021635,0.033934794,-0.07038526,0.06974296,0.047423072,0.05700403,-0.04316784,-0.08226779,0.14387497,0.19183329,-0.1508332,-0.016659629,0.012016343,-0.023055857,-0.08398059,-0.01209663,-0.052454416,0.13274178,-0.17063743,0.14419611,0.1469794,-0.034496807,0.13670263,0.08028737,-0.007105432,-0.19536594,0.07108109,-0.05406016,-0.2952434,0.10630047,0.08965423,-0.07166986,-0.06845836,-0.1201099,0.15896899,0.17363481,-0.11272347,-0.12085925,-0.07011764,-0.039126713,-0.082749516,-0.083712965,-0.055719435,-0.010878938,-0.05893093,-0.09147408,0.049938742,-0.19590119,0.09910998,0.08907957,0.0076372395,-0.05210239,0.08231302,0.18500529,-0.0435049,-0.00018440078,0.114872046,0.035982095,-0.09473162,-0.13103214,0.03753442,-0.10245344,0.090194054,0.071287535,0.022707727,-0.06889934,-0.032539118,-0.061854176,-0.05532645,-0.08844271,-0.005617227,0.061416343,0.09465201,-0.020458845,-0.06933718,0.06627233,-0.09807509,-0.07892975,0.13071372,0.03556416,0.04633093,0.069655605,-0.09266186,0.023463989,-0.07494943,-0.13198742,-0.11495165,-0.022389302,0.0932987,-0.033474494,-0.041673955,-0.07049147,0.053216882,-0.1279275,-0.07857152,-0.020299634,0.07877054,-0.07558628,-0.053376094,0.0034827802,0.0003136057,0.044698995,0.07534746,0.13628617,0.029175747,-0.07530766,-0.037614025,0.022170383,0.048520103,0.020558354,0.047445416,0.031583842,-0.0045029293,0.09742643,-0.02962675,-0.12037162,-0.07971253,-0.122236244,0.03449548,0.20376159,-0.10182901,0.13166294,0.033122912,-0.20459032,0.034754455,-0.15196659,0.012858113,-0.016172994,0.1663656,0.055317078,0.06583147,0.14285065,0.13549577,0.15548864,0.08686025,0.0013013498,0.06681557,0.0467709,-0.01985044,0.048998088,-0.18242206,-0.21401702,-0.057026315,-0.0997572,0.044750895,0.08142177,-0.078521244,0.089449994,-0.062050432,0.055317078,0.01912531,0.086549476,-0.1122916,0.07328995,-0.030584957,0.052882712,0.0956136,-0.048842702,-0.1362209,-0.018102359,0.011796315,0.0002140591,0.034780353,-0.095820785,-0.026117638,0.08613511,-0.028849825,0.020873392,0.041953966,-0.26809102,0.05883914,-0.4178822,0.083856136,0.12762292,-0.03584215,-0.046097565,0.15981518,-0.055250082,-0.10715494,0.0045828163,-0.019235013,-0.10434928,0.11945672,0.17341188,0.030026047,-0.10844987,-0.076076776,-0.16078638,-0.08535706,-0.036365777,-0.2144178,0.10024869,0.010575211,-0.06431455,0.1703904,-0.123988956,0.021865329,-0.009388197,0.018074978,-0.028461346,-0.0089700455,-0.008760969,0.051769976,-0.07699401,0.04926106,-0.109960616,-0.024603553,-0.17298023,0.07769543,-0.1129821,-0.13024776,-0.031051194,0.023389561,0.12625507,-0.036069024,-0.009165633,-0.067659765,0.032049365,-0.055223104,0.0039724484,-0.22812241,-0.06296567,-0.010399857,0.098899804,0.0011667802,-0.014918601,0.1526931,0.0018884306,0.01414974,-0.23546031,-0.09123817,0.13402462,-0.11794598,0.052876055,0.19013798,0.18355545,-0.21841048,0.047129832,-0.25553164,0.08983534,-0.0569672,-0.001758679,-0.13005067,-0.025639547,-0.06774012,0.18443237,-0.008359785,-0.18029557,0.09299184,-0.0012563918,-0.07269566,0.066921376,-0.05425242,0.10764301,0.069248326,-0.07308348,0.06037144,-0.0807969,-0.02904379,-0.000981009,0.009566353,-0.14254726,-0.04203593,-0.11117653,0.02609201,0.10928049,0.1496143,0.068731226,0.07678937,0.17236671,-0.018712562,0.13280855,0.10238583,0.10402331,0.020716324,0.0060166754,-0.025811914,0.0004830981,-0.025208632,-0.20528875,0.11927776,-0.05675174,0.009307803,-0.044987712,0.15366492,0.036261648,0.07778048,-0.042186752,-0.10548843,0.08609717,-0.050718904,0.049986344,0.07110127,-0.04369496,-0.011667072,-0.08501988,0.05373532,-0.14849392,-0.087476104,0.005601918,-0.0077726613,0.008252056,0.016579524,0.14280581,0.061169423,0.009633974,0.031089548,-0.06015975,-0.16213684,0.0813629,0.09087067,0.06352533,0.19638161,0.05166166,-0.112073824,-0.06461914,0.114429735,-0.056794167,0.037967954,0.08456021,-0.007572556,0.10483783,0.0006737734,0.13807294,0.020372279,0.14387856,-0.23525406,0.09356313,0.01235799,-0.055658285,-0.12570442,-0.117290474,0.0028475965,0.07122409,0.08977686,0.14488824,0.08325604,-0.08683197,-0.0317837,0.06840542,-0.11501871,0.048842985,0.098359086,-0.04472015,-0.094404526,-0.027113957,0.012526269,-0.018384483,-0.027177062,-0.053975496,-0.0070361663,0.021119017,-0.05170373,-0.095498346,-0.061043214,-0.036074813,-0.09726527,-0.13958745,-0.12991141,0.005979164,-0.025304956,-0.10323918,0.12208643,0.05145131,-0.12284368,-0.057551425,-0.105342664,-0.11140071,-0.079202235,-0.15223941,0.11329883,-0.019501742,-0.117702454,-0.18910399,-0.049697988,0.20294394,0.07725206,0.051239256,0.13965763,0.054510515,-0.16343719,0.10468032,-0.2169097,0.006400975,0.046678364,-0.2637139,0.009255464,0.23842452,0.025635354,0.1713637,0.12009299,-0.15702048,-0.1855811,0.09618763,0.121917345,-0.08618512,-0.16947643,-0.067312464,-0.05894559,-0.07272263,-0.27830875,0.010089006,-0.028812252,0.1657019,0.09323091,-0.213261,-0.08429785,0.13412166,-0.06262576,-0.11782827,0.058536682,-0.037210584,-0.08769493,-0.058473773,-0.06693501,0.0020484694,-0.13412166,-0.055328332,0.05630342,-0.09272764,-0.024377178,0.0055281147,-0.1507296,0.09090328,0.026201535,0.28686434,-0.073917896,0.014500489,0.23049802,0.04372165,-0.058347955,0.11046793,0.009457414,-0.0075991987,-0.0013960379,-0.025511255,-0.16363703,-0.069119915,-0.015939783,-0.041061338,-0.077446245,0.042430047,0.008806326,0.06512784,-0.06497576,0.029066104,-0.0006026725,-0.050033998,0.0062542497,-0.07706605,0.04687836,0.05744785,-0.089498505,-0.025606306,0.09999196,-0.004617024,-0.05299954,0.19344452,-0.006672467,0.033837583,0.10607512,-0.014656616,-0.039920744,0.039692625,0.04953974,-0.16226833,-0.004659796,-0.024446703,-0.043912817,-0.0754312,-0.14569171,-0.004576628,0.09208385,-0.012632064,-0.10896462,0.049045485,-0.1247048,0.002856234,-0.08113416,0.012613054,-0.046992417,-0.019133443,-0.080601886,-0.0055603893,0.004980588,-0.2532116,0.016186912,-0.004990093,0.15770595,-0.09892741,0.05813221,0.038475994,0.079689406,-0.12166322,-0.0082217725,0.04379876,-0.21932083,-0.11846586,-0.027781997,0.14341463,-0.042967316,0.06942442,0.028434252,0.019944742,-0.108029775,-0.0132285515,0.006461404,-0.07195191,-0.06979131,0.020912934,-0.09963199,-0.028882679,-0.07798527,-0.006196425,0.10003965,-0.070076674,-0.026029062,0.046187826,-0.008097137,0.053240336,0.08438552,0.05499327,-0.007556989,-0.16828185,0.10289327,0.05580859,-0.038584974,-0.11683522,-0.15393224,-0.04086787,-0.1563782,-0.03465106,0.022074765,0.07484629,-0.06791608,0.13990875,0.049775228,-0.13615829,0.045168675,0.1655913,-0.1793702,0.08536391,-0.17773956,-0.0991428,0.074601695,-0.06926136,-0.102077946,0.11887352,0.014278275,-0.019210955,0.05923293,0.0276597,0.011526573,0.025437955,0.07468323,-0.042967316,-0.0034039572,-0.08234723,0.073134124,0.029697997,0.052874807,0.035953898,0.118276425,0.021970477,0.047946624,0.0109852385,-0.034594398,0.09356268,-0.1286669,0.12390864,-0.08045322,0.044256553,0.0993891,-0.11400372,0.10584672,-0.029690491,0.10604093,0.09516494,0.006017605,0.058312804,-0.024568092,-0.1014769,-0.19479682,-0.08215259,0.124199964,0.120995425,0.022128277,0.032458045,-0.069819994,-0.07176214,0.04534901,0.06564439,-0.09608746,-0.21344137,-0.03585679,0.11944171,0.020659532,-0.12604499,0.010275143,0.18324107,-0.09132921,-0.07035408,0.010269074,0.114295036,-0.2373297,0.03685214,0.092980035,-0.039595414,-0.11041076,-0.091474876,-0.039255537,0.019385003,-0.047096934,0.1000203,0.092980035,0.0062209223,0.21985044,-0.0051193642,-0.02714143,0.0527777,0.15673083,-0.078753844,-0.017782735,-0.24024293,-0.04233024,-0.25958082,-0.03204081,0.009098968,0.0495807,0.12423889,0.04522564,0.055084348,-0.0793004,-0.16137657,-0.03419441,-0.07379676,0.036778733,0.048551757,0.0031915184,0.009260488,0.04591958,0.07580678,0.047857817,-0.0073042996,0.0093980795,0.093083456,-0.06690523,0.08030542,-0.12213315,-0.1792754,-0.04316775,-0.17975396,-0.09159987,0.044412054,0.069968134,0.0142137725,-0.011432037,-0.1193574,0.059535127,0.021823166,0.036515515,-0.20119427,-0.059535127,-0.052595742,0.03689838,0.060635857,0.009110932,-0.031873308,-0.10586149,-0.10270288,0.27776676,0.08676623,-0.05154287,0.043550614,0.025986796,-0.31433016,0.016750237,-0.046158865,0.13716051,-0.00827342,0.060875144,0.072983176,0.0881541,0.21555161,0.0063830367,-0.040942363,-0.085426204,-0.035007995,0.060815323,0.12695199,0.24364139,0.048010845,0.017318113,0.015382,0.07093537,-0.059865084,0.16306108,-0.008278961,-0.09872987,-0.061623026,0.026440412,-0.07972509,0.036109097,0.06437872,-0.12590672,0.0738336,-0.033044577,0.09103294,-0.115644135,0.11421878,-0.09359858,-0.00024535478,0.012519404,0.011747335,-0.08362107,-0.069129914,0.06561403,0.06537647,-0.0013733929,0.07402365,-0.017757598,0.032973308,0.04456623,0.028293379,-0.13331859,-0.21570435,-0.1603054,-0.031025317,-0.11440883,-0.16125563,0.20962282,0.05311838,-0.0647113,-0.14738213,0.03527764,0.047654506,-0.26777747,0.06409365,-0.046347927,-0.18985784,-0.02940991,-0.0018707839,-0.1790251,-0.020691464,0.068037145,0.14985275,-0.055826567,0.0686548,0.0075425254,0.014609931,-0.058012117,-0.06846475};

#endif
