#pragma once

#include "parameters.h"

#ifndef KERNEL72_H
#define KERNEL72_H

static float bias72[FEATURE_MAP72] = {0.6223372,1.6688621,0.01985085,-0.07100323,0.6483438,2.3891318,-0.25337505,-0.010654613,0.1556406,-0.82973444,-0.6901828,0.74563813,0.2089212,0.2784468,-1.0628319,0.056809366,0.14167613,0.33211482,-1.9918356,-0.25755656,0.55113137,1.8549455,-0.09912026,-0.95727175,-0.24793416,-0.87200165,0.9560029,0.08108569,-0.780758,0.042028427,0.09779668,-0.7355406,-0.4483037,-1.1853399,1.6974791,-0.45828635,-0.16690391,0.25605428,2.1961646,0.37487775,1.453845,-0.08023822,-1.2543075,-0.18342322,-2.0449014,-0.40243337,-1.2153088,-0.91987306,1.1648865,0.080964506,-0.4793396,-0.14212406,0.83541965,-1.5878955,-0.085313335,0.46095908,-0.35843644,-2.205077,-0.3645192,-0.7704507,-1.7545389,-2.2134385,-1.286495,-1.0860279,-1.0557213,0.48583245,0.78828263,-0.36045521,0.49404675,1.4316288,-0.19386983,-0.27095652,0.5459441,0.66593766,-1.956222,0.56136096,1.1140014,-0.35725617,-1.5976508,0.79974985,0.91233456,-0.029398337,0.9196639,0.7366284,-1.6078457,0.539853,0.95015013,-1.7756531,-0.18200403,0.6148168,1.057447,-0.80186677,-4.4258995,-0.14656126,-2.259985,1.1824182,-1.581845,-1.013139,0.831333,-2.2444584,-1.2396528,0.67018014,0.15213442,-0.429834,0.8128891,0.5009772,0.83798146,-1.3443364,-1.4094908,-3.244465,-1.2423548,-0.22798795,-0.85477877,-0.23602754,-0.37156582,-0.5591985,-2.125901,-1.2567967,1.5259956,0.33307087,2.585806,-1.7806756,0.58009684,0.35020864,0.24518237,-2.0624,-0.9017746,-4.2359695};

static float kernel72[FEATURE_MAP72][IN_CHANNEL72][KERNEL72][KERNEL72] = {-0.08702649,0.0105501665,0.04678231,-0.005513453,0.050620988,-0.025174282,-0.032195345,0.016729197,-0.07286054,-0.08578821,0.021149864,0.013509662,0.074098825,-0.009126142,-0.03712371,-0.071473666,-0.03222011,0.04878833,-0.010760675,0.0067919795,-0.062260844,0.04239879,0.0061078286,0.05493021,-0.009615264,0.028455732,-0.00092871184,-0.046287,-0.07320726,-0.041531995,0.05334521,0.07028492,-0.014413608,-0.03506816,-0.030536046,-0.041804418,0.021954749,0.01928006,-0.01793033,-0.025409557,0.028430967,0.052453645,-0.037495192,-0.013373451,0.03400324,0.05106677,-0.08083508,-0.16533548,-0.015528062,-0.04247309,0.043240823,0.014153569,0.06731304,-0.049457002,-0.013645873,0.08474805,0.010680187,-0.0079250075,-0.07127554,0.00086370204,-0.06127022,0.047946297,-0.111940734,-0.06780835,0.110058546,-0.053097554,-0.014153569,0.03472144,-0.03011503,0.031625737,-0.04777294,-0.03358222,-0.03068464,0.09683369,0.072513826,-0.05720865,0.034572847,-0.10708667,-0.084500395,0.06453928,-0.004857163,-0.09584306,-0.03808957,0.07157273,-0.034944333,-0.064242095,0.001495226,-0.0068167453,-0.02117463,-0.016035758,-0.031650502,-0.3970429,0.02744034,-0.011732726,-0.047351923,-0.106096044,-0.041531995,-0.028208075,0.064935535,-0.12868232,-0.040739495,-0.031650502,-0.06765976,0.04923411,-0.00714489,0.01568904,-0.028381435,-0.115606055,-0.024480846,0.22784398,0.024332251,-0.21318272,-0.00018767719,-0.07300913,0.02279678,0.051215366,0.032665893,0.03155144,-0.07845758,0.04371137,0.056218024,0.009212822,0.101192445,-0.16266079,0.01656822,-0.10490729,0.10698761,0.023576899,-0.011899895,0.0276137,0.006711491,-0.041432932,0.030313155,0.004117289,-0.02704409,-0.026697371,-0.06860085,0.005141968,0.016469156,0.04532114,0.014958452,0.0070767845,0.010370616,0.06280569,-0.015528062,-0.03444902,-0.0625085,0.028257607,0.018400878,-0.04982849,-0.019044785,0.042745512,0.02095174,0.008568915,0.00885372,-0.026994558,-0.015565211,-0.062954284,-0.044157155,-0.022611039,-0.049630363,0.00092871184,-0.019800138,0.016159587,-0.003151429,-0.0116646215,0.055078804,-0.020084942,-0.035613004,-0.0066991085,0.0015958366,0.021645177,0.011633664,-0.02388647,0.024579907,-0.032616362,-0.03804004,0.0077144997,-0.00071123854,0.01955248,-0.008228387,0.06572803,0.008048836,-0.03506816,-0.030957062,0.01775697,0.051562082,-0.050571457,0.074990384,-4.7016038e-05,0.023155883,0.034523316,0.03120472,0.06404397,-0.00041792035,-0.028827216,-0.0007174299,-0.017868416,0.059288967,0.09108806,-0.01315056,-0.05151255,-0.021310842,-0.011813215,-0.011206456,0.04366184,0.0039872695,0.063895375,0.020431662,-0.017942714,-0.025880104,-0.0105501665,-0.080587424,0.042844575,-0.0046899947,0.05557412,-0.0013984853,-0.0300655,0.0007925008,0.027960418,-0.13066357,0.10976136,-0.04395903,-0.011701769,-0.036058787,-0.010940226,-0.0022428392,0.00390059,0.06245897,-0.015924312,-0.032071516,-0.032418236,-0.06607475,-0.025929635,0.012283762,0.07186992,0.022338616,0.094357125,0.004798345,-0.0552274,0.10669042,0.05379099,0.022611039,-0.0143888425,0.0029269902,-0.00026816555,0.016308181,-0.014351694,-0.060824435,-0.015156577,0.030560812,0.024542758,0.026053464,-0.04816919,0.08053789,0.031625737,0.022181215,-0.007457138,0.03145509,-0.0077981856,0.04932074,-0.042919535,0.00037261096,0.015858715,-0.11585126,-0.11312288,-0.000183846,-0.020489093,-0.013346769,-0.09460137,-0.017275374,0.008139233,0.13767831,-0.014743752,-0.032032244,-0.047877844,-0.07130519,-0.036570802,0.0021528632,-0.048900988,-0.030510647,-0.013287741,0.029067753,0.046513654,0.051130913,-0.042263675,0.061493516,-0.03087793,-0.014310884,0.076289736,0.076866895,-0.13830794,-0.0802249,-0.017734477,0.036072347,-0.06432683,-0.07109532,0.020397274,0.0967526,-0.06558609,-0.09764457,0.009778885,-0.079175524,-0.11543151,-0.05698119,0.02313877,0.002630002,-0.02555234,0.044441134,-0.01772136,0.022273036,-0.13316599,0.035862472,0.019570889,0.08358291,0.115221635,-0.08641623,-0.0051649045,-0.11889446,0.02168276,0.06889162,0.013602555,0.07571258,-0.055144783,-0.04501829,-0.019347895,-0.025237527,-0.09591309,-0.03987634,-0.10504267,-0.015898068,-0.16118437,-0.06563856,0.00029575225,-0.008696715,-0.024411142,-0.25730732,0.037069257,0.035705067,0.037174195,-0.054200344,-0.06485152,-0.09591309,-0.0021266288,-0.009437838,-0.09145324,0.009267314,-0.1849003,-0.07497802,0.039010603,-0.28123313,0.015215972,0.018180463,-0.24345556,0.056351565,0.07886071,0.056508973,-0.05388553,-0.40338066,0.18343116,0.0523377,0.02121054,-0.013641906,-0.38554126,0.09486371,-0.16643125,-0.30662808,-0.15425847,-0.014888042,-0.17619047,0.0080736475,0.0023676578,-0.0037121726,0.03780382,0.045280635,0.008965618,0.087203264,-0.02437179,-0.057610817,0.019242957,-0.2986528,0.030379476,0.001842969,-0.044755947,-0.04011245,0.057243537,-0.0027644536,-0.0074309036,-0.007240704,0.04265719,0.010808587,0.032504465,-0.014835573,-0.05052752,0.068104595,-0.01381243,0.06584843,0.019623358,0.045621682,-0.07964774,-0.10089763,-0.03394736,-0.021984456,-0.014061657,0.045988966,0.11154882,0.024542313,-0.05275745,-0.030563116,0.07245951,0.0881477,0.0050140563,0.10026801,-0.09691,0.006253633,0.059079945,0.02041039,0.045988966,0.028149549,-0.034288406,0.09764457,-0.048245125,-0.1071939,-0.06138858,0.031376384,-0.01673757,-0.031507555,-0.005827324,-0.01036916,0.103416145,-0.080172434,0.04863864,0.013366444,-0.012120309,0.009641155,0.051865477,-0.00083417306,-0.01597677,-0.02342735,0.011759586,0.0053419867,0.044677243,0.064379305,-0.017944353,0.12886354,0.019715177,0.09344706,-0.018167347,0.08673104,-0.039351653,-0.016344054,-0.02055468,0.09722482,-0.05892254,0.025788449,-0.059971917,0.02917269,-0.024437375,0.041791454,0.05246887,-0.005765017,0.015727544,-0.09423409,-0.05482997,0.10997475,0.022364855,-0.029566208,0.07497802,0.009057439,0.007607986,0.011352952,0.11417226,-0.022377973,-0.029330097,0.11658583,0.025001416,0.03956153,-0.13001786,0.12351172,0.055144783,0.021420415,0.01606859,-0.05194418,0.055564534,-0.0082572885,-0.115641385,-0.06312005,0.020056225,0.0052140937,-0.004935353,-0.041004423,0.04294577,0.031691197,0.034524515,0.045831557,0.020541562,0.07560764,0.07639468,0.008440929,-0.06957372,-0.046592355,-0.010946318,-6.1077044e-05,-0.02121054,-0.052495103,0.015347145,-0.10189454,0.011687441,-0.0013797673,0.005807648,-0.05283615,-0.05435775,-0.032719832,0.016498169,0.014746967,-0.005161438,-0.14986604,-0.016567295,-0.07161496,0.006094645,-0.04025461,-0.008508309,0.008341253,0.009182291,-0.013110975,-0.1130908,0.008456464,-0.0061522503,-0.034816667,0.0014098907,-0.07972579,0.047973726,-0.15373713,0.03928684,0.087790534,0.028180532,0.026659751,-0.0079725785,-0.001899536,0.17244734,-0.0063826717,-0.020680316,0.21493705,0.025162011,0.011843658,0.012673175,0.020703359,-0.07456435,-0.028457038,-0.01812264,0.1048878,-0.023249514,0.040853705,-0.0032719832,-0.023756443,-0.10424262,0.0029551538,-0.013998098,-0.1860883,-0.09166162,-0.018998241,-0.032512452,-0.029977819,-0.06986375,0.06055473,-0.022673462,-0.0020809928,-0.11244562,-0.06345804,-0.017869176,-0.022304786,0.023030614,0.046038188,-0.005590598,-0.035231426,-0.0109392535,0.14147872,-0.037097838,0.029378723,0.018537398,-0.25088277,0.013191623,-0.03723609,-0.002213485,0.04541605,-0.094242334,-0.020046659,-0.015933637,-0.08272126,-0.22378522,0.009176531,0.031798147,0.14313775,0.020956822,0.022627378,0.25530687,-0.065624,-0.046130355,-0.07230622,0.019055845,0.09203029,0.06000172,-0.026152823,0.08078573,0.026728878,-0.038756873,-0.18590395,0.0047495603,0.020323163,-0.20553584,-0.08156916,-0.018168723,-0.031636853,0.01920562,0.048711076,-0.14931303,-0.0028845873,0.02774273,-0.013640944,0.18424492,-0.17760879,-0.05133788,-0.19465996,0.077836335,-0.013203144,-0.045277797,-0.0030127591,-0.17217083,0.039102506,0.014090266,0.03873383,-0.009095883,0.07414959,-0.02935568,-0.13899016,-0.0123275425,0.08940349,-0.006820472,0.06732912,-0.01983928,0.0104956925,-0.052904744,0.02977044,-0.053688176,-0.037097838,0.055162873,0.022304786,0.02178634,-0.06331979,-0.045277797,-0.0282727,0.036314406,0.03290417,-0.0031510121,0.006204095,0.027558394,-0.024194242,0.011146633,-0.014493504,0.057974014,0.0030214,0.10451913,0.015829947,-0.060047805,-0.07318182,-0.005835421,-0.028364869,-0.0017123187,0.021555917,-0.015910594,0.0120856,0.017339207,-0.0019787434,-0.020645753,0.011538349,-0.016463606,-0.091108605,-0.028433995,0.06350412,0.0013774877,0.04089979,-0.014159393,0.05115354,0.00094112725,0.029908692,0.087790534,-0.039586388,-0.028111406,0.056038473,-0.005893026,-0.021060511,0.0064402767,-0.029378723,0.026636709,-0.0071142595,-0.04672945,0.010334398,0.024355538,0.02093378,0.0123275425,0.03659091,0.050093602,-0.027904026,-0.031982485,0.009395431,-0.024678128,0.017304644,-0.012004953,0.007736397,0.09751432,-0.016371436,0.044909123,-0.06516316,-0.009666176,0.022926925,-0.0024741492,-0.03903338,-0.061891176,-0.028065322,0.033457182,0.03541576,-0.03831907,-0.030346492,0.015899073,0.02707451,0.029010048,0.029309597,0.091984205,-0.05405685,0.03518534,0.009130446,-0.015484315,-0.053089082,0.14516546,0.026521498,-0.07580863,-0.062305935,-0.016256226,-0.00809355,0.03454016,0.009262938,-0.038180817,-0.03258158,0.019240184,-0.0026570463,0.010656987,0.015668653,0.032235947,-0.020818569,-0.053780343,0.0735505,0.020012096,0.03421757,-0.06055473,0.04087675,0.049264085,-0.018963678,0.0109680565,-0.06470232,0.045946017,0.03820386,0.030300409,-0.083366446,0.042351447,0.0074080466,0.07806676,0.043319214,-0.0039776484,-0.12265105,-0.013753151,-0.06423602,0.069401145,-0.07341845,0.055381536,-0.02557963,-0.033901207,-0.045461234,-0.007373615,0.0015667011,-0.092972115,-0.11969955,0.09084048,-0.011232081,-0.10445015,-0.010986123,-0.03154411,0.020967918,-2.017624e-05,-0.07731279,0.09592361,0.008116613,0.042427752,-0.12002749,0.116584085,0.03558192,0.10133468,-0.13388312,0.015618332,-0.05730821,-0.017749967,0.026645448,-0.0073172497,-0.008562412,-0.038410436,0.04751088,0.005569923,0.08961069,-0.10633583,-0.0872331,-0.0930541,-0.031831063,0.018241884,0.0035561423,-0.08411763,-0.024308847,0.06751546,-0.033573262,-0.010750413,-0.048658688,-0.012912794,0.022587141,0.0012195416,0.0066459896,-0.027239846,-0.11256677,-0.049314573,-0.0025748727,-0.12839006,0.0033998566,-0.01474723,0.005062635,0.08797097,0.067023546,0.10305639,-0.03207702,0.00020976884,0.21841069,-0.011375557,-0.03857441,0.07075391,-0.09051254,-0.06329319,0.028469635,0.010606938,0.093382046,0.09157836,-0.06854029,-0.04435442,0.06431801,-0.07997733,-0.08805296,-0.04665003,0.05066734,0.021316359,0.025969064,-0.00320514,-0.0054520685,0.111582935,0.07546811,0.02715786,0.068745255,-0.006666486,0.00048903364,0.02365296,-0.037959516,-0.06903221,-0.032876384,0.013179248,-0.029043538,-0.02037352,-0.03838994,0.057923105,-0.0707949,0.051610183,0.033614255,-0.051118266,0.18823984,-0.0872331,0.07514016,0.0111808395,-0.014788223,-0.02545665,-0.037385613,0.033429787,-0.04488733,-0.03722164,-0.05882495,-0.0725986,-0.0044631124,0.017237555,0.03119567,0.029105028,0.014234818,0.014409038,0.07690286,0.077517755,0.01767823,-0.027239846,-0.036032844,-0.02510821,0.0056262887,-0.09674347,-0.029535454,-0.057677146,-0.006989306,-0.012769318,-0.0049140356,-0.1105991,-0.03820547,-2.1617401e-05,0.05509459,0.045215275,-0.084609546,-0.0060567153,0.015720814,-0.0013008871,-0.023079056,-0.12224112,0.013138255,0.092972115,0.013455951,-0.004614274,-0.0245753,0.032036025,-0.060300697,0.050708335,0.048863653,-0.057021257,-0.0022879215,-0.031113684,0.030457797,0.05583246,0.03472107,-0.009751209,0.052020114,-0.013056269,-0.027116867,0.0073838634,0.015105919,-0.005098504,-0.016192233,-0.07386938,0.037857033,-0.007450477,0.044231445,-0.00017085753,0.013250986,-0.061899424,0.0036560628,-0.06472794,-0.08231394,-0.0251697,-0.040521577,0.008188351,0.042591725,0.017176066,0.03759058,-0.013753151,0.07427931,-0.0016230665,-0.0044246814,-0.0033050603,-0.0024839193,-0.022279693,-0.02100891,0.0075222147,0.019276956,-0.09026658,-0.006553755,0.004270958,-0.013035772,-0.00591324,-0.05923488,0.024944238,0.0047039464,-0.07928046,-0.074894205,-0.015895035,0.031359643,0.07128682,0.058783956,0.06858128,0.010791406,-0.065465815,0.046609037,-0.030129852,0.0012426001,-0.026727434,0.05513558,0.045051303,0.028244175,0.052225076,0.0021905631,0.00075452734,-0.010647931,-0.04751088,-0.0043657543,-0.07673889,0.0016627784,-0.011959706,0.041771863,-0.01569007,-0.05681629,-0.03533596,-0.06255531,0.0251697,-0.13609675,0.0026184276,0.06407205,-0.013087014,-0.04015264,-0.031339146,-0.0005066478,-0.13470298,-0.00024964093,0.004855108,0.018826034,0.015249395,-0.075304136,-0.003617632,-0.011519032,0.009182431,0.014593506,0.037426606,-0.01393115,-0.035244618,0.012137167,-0.12319741,-0.10351122,-0.046326034,-0.020098958,-0.07372793,0.039816894,0.002538168,-0.049850494,0.032736216,0.0026036564,-0.030227816,0.00619956,-0.0799513,-0.044643182,0.042388797,0.03480009,0.08541263,-0.0664885,-0.039880395,-0.09544624,-0.008533325,0.018892385,-0.04731034,-0.022702614,-0.044389166,-0.061281182,-0.040674195,-0.09455718,-0.043690626,-0.03154552,-0.047532607,-0.03714973,0.056042116,0.020575237,-0.052517656,-0.046326034,0.121355794,-0.050866555,0.052612912,0.030942235,0.031624902,0.030783474,0.025099883,-0.122562364,-0.06023337,0.0053263824,0.055851605,0.046897568,-0.09208053,0.02754478,0.0076641166,-0.009303309,0.0058105993,0.0011539834,-0.09684332,0.042198285,-0.09709734,0.017844573,-0.025734922,0.026623975,-0.012081601,-0.029402267,-0.071949825,0.028560841,0.07836371,0.04194427,0.02903712,-0.09754186,-0.00018356572,0.005112057,0.115386434,-0.0815389,-0.00096744095,0.037213236,-0.087762274,-0.0037645856,0.049151953,-0.061598703,-0.08458708,-0.0074537606,-0.01023999,-0.041086968,-0.043849386,-0.080459334,-0.042547558,-0.06979069,0.021908816,0.01361363,-0.030227816,-0.16117269,-0.03476834,-0.13183393,0.05289868,0.006215436,-0.06293228,-0.045055956,0.02844971,-0.05689942,-0.022432722,0.06744105,-0.07252136,-0.0882068,0.081983425,0.010763897,0.00313947,0.018035084,-0.058614023,-0.028560841,-0.0069893887,0.0135818785,-0.010057417,0.016526869,0.014661443,0.009795464,0.039531127,0.15202813,0.012716639,0.007247373,0.025401527,0.027719416,0.057185188,-0.00027683694,-0.09576376,0.02471886,0.021527793,-0.077601664,0.02644934,0.015598125,0.013462809,0.027608285,0.036673453,0.016733255,0.04140449,0.041372735,0.009509697,-0.030497707,0.014605878,0.058391757,0.033720527,0.049691737,-0.0012859523,-0.0043301666,0.014851955,0.013280235,-0.0007962783,-0.03543513,0.006894133,0.022337466,-0.05445452,-0.0457545,0.013343739,0.05108882,0.011740268,0.07969729,-0.0799513,0.00054573594,0.03905485,-0.0034212682,0.030672343,-0.0026572377,-0.006132087,-0.014685257,0.025957184,-0.057820223,0.003304183,0.022591483,-0.015868016,0.022273963,0.011200486,0.032863226,0.015486993,-0.01706665,0.023004258,-0.06502791,0.052517656,0.033212494,-0.08090386,0.056835916,0.025719045,0.048961442,-0.10922656,-0.06328155,-0.044801943,0.07150529,0.027798796,0.043182597,0.092334546,-0.03943587,0.016653875,0.08369803,0.016939644,0.020765748,-0.054137003,0.07087026,0.008287248,-0.06642499,-0.06744105,-0.06509141,-0.029656282,0.06515492,0.042642813,-0.04642129,-0.008533325,0.018860633,-0.06693302,-0.004790569,-0.109734595,0.004568306,-0.06124943,0.010803587,0.111131676,0.015098033,0.027417773,-0.10738495,-0.10465429,0.11957768,0.0898579,-0.053692475,-0.03476834,-0.11252876,-0.11957768,0.0018505409,-0.05826475,-0.039721638,0.049501225,-0.023337653,-0.025099883,-0.031132746,-0.019575052,-0.036863964,0.063853085,-0.021750057,-0.024893496,-0.042706314,-0.0124785,0.032275815,-0.04658005,-0.031370886,0.006973513,-0.019162277,0.13729525,0.031624902,0.077792175,0.023909187,-0.14707483,0.02036885,0.018431982,0.029243506,0.005770909,0.019416291,0.0144391805,-0.01781282,0.05445452,-0.06840181,-0.106427334,-0.106427334,0.030799203,-0.051264584,0.07531554,-0.03074404,-0.060826126,-0.09186437,-0.05045553,-0.032067947,0.009290326,-0.022543177,-0.014820392,-0.000854448,0.051080707,-0.052625265,0.07009347,0.035671912,0.08347963,0.013018409,-0.09230567,0.031222116,-0.0770072,-0.03326314,-0.042953394,0.12694788,0.09237922,-0.09223212,0.0069183283,-0.17137228,-0.021954775,-0.041041087,-0.23683208,-0.08215573,-0.06979927,-0.06659983,-0.06487139,0.08377383,-0.08156732,-0.10385307,0.037694547,-0.0075527,0.038613927,-0.075683296,-0.03195762,0.21447277,-0.11223781,0.093335375,-0.22565243,-0.03484447,0.05023488,-0.044608276,0.07145415,-0.01655802,-0.021072172,-0.08134667,-0.06108355,-0.09134951,-0.033336688,-0.039974608,-0.03957008,0.10157301,-0.24389291,0.019141475,-0.040158484,-0.19093667,-0.08002277,-0.035414487,0.039827507,0.01316551,-0.035101898,-0.018387584,0.025944881,-0.09201147,-0.030376289,0.022451239,0.016410919,-0.4854322,-0.17946282,0.1313609,-0.07101285,-0.0045486283,-0.03372283,0.050786506,-0.23859729,-0.109369345,-0.111281656,0.05755314,-0.033814766,-0.10289692,-0.060311273,0.06156163,-0.040489458,0.0549421,0.08936366,0.087377794,0.11422367,-0.051080707,0.039312653,0.0018755335,-0.08995206,0.029622396,-0.038687475,-0.092526324,-0.018672591,-0.06593788,0.03263796,-0.03129567,-0.14070179,0.057920888,0.0771543,0.049646474,0.18755335,-0.040305585,-0.03236215,0.017596917,-0.022506403,0.046520587,-0.022671891,-0.014388285,0.045968957,-0.16725346,-0.12562397,-0.19505548,0.012760983,-0.033796377,-0.14048114,-0.1430554,-0.14960138,0.0015480047,-0.082082175,0.03173697,0.07796335,0.11790118,0.062297132,-0.090687566,-0.011896767,0.014682486,0.017514173,-0.046998665,0.019472452,-0.10878094,-0.02861108,0.10760414,0.0029213273,0.10495633,-0.043100495,0.007074623,-0.012319681,0.039864283,-0.12591818,-0.017275134,0.022488015,0.18225773,0.027140073,-0.067298554,-0.058840267,0.011409496,0.009487993,0.022708666,-0.020869907,-0.07266773,0.015344438,-0.026055206,-0.06998314,-0.15136659,0.07119673,-0.019637939,-0.00079813605,-0.10061686,-0.0009584528,0.018902436,-0.07362389,-0.0009676466,-0.049572926,-0.028372042,-0.020943457,-0.025540354,-0.010260272,-0.06652628,-0.027195236,-0.066158526,0.050418753,0.07060832,0.044166975,-0.08090537,-0.051889762,-0.08708359,0.055383403,0.021329597,-0.023499332,-0.10951645,0.05637633,-0.03964363,-0.022671891,-0.09340893,-0.05950222,-0.0177716,0.07693365,-0.008127312,0.04997745,-0.11973994,0.044240527,0.031865682,-0.046814788,-4.740549e-05,-0.018120963,0.06417267,0.01825887,0.029585622,0.07318258,-0.06641595,0.029640784,-0.20108661,0.028592693,-0.09149662,-0.05472145,0.10517698,0.0011124489,0.009782194,-0.03690388,0.0003019586,0.059649322,0.0007826215,-0.08377383,0.06306941,0.05700151,0.020152792,-0.04846967,-0.0009929296,0.029659173,0.01619946,-0.039901055,0.0058426545,-0.053691745,0.03964363,0.111502305,-0.0759775,-0.02565068,0.05144846,0.015629446,-0.01665915,0.03311604,-0.038246173,-0.07980211,0.05380207,0.061120328,-0.085539035,0.043468248,-0.08921655,-0.012641463,-0.20991266,-0.010058008,-0.07395486,-0.00078894227,-0.008672194,0.045677513,-0.02389308,0.0631407,0.020893453,-0.013416655,0.034629375,-0.020715257,-0.12129191,-0.06896176,0.038698178,-0.03528276,0.045736913,-0.007350575,0.013624551,-0.031807944,0.040361337,0.033322606,0.011679247,-0.013706224,-0.00015104875,0.014136864,0.0064001977,0.024902858,-0.028689517,0.017745327,0.032609824,0.12158891,-0.13234004,0.01196139,0.012169286,0.01930454,0.035520356,-0.014359608,0.01682465,0.0024334858,0.008560821,0.013825021,-0.016527656,-0.07121891,0.006247989,-0.008731592,0.013082539,-0.06646702,0.05761663,0.014248236,-0.020863753,-0.053458728,0.023625787,-0.040361337,0.016304912,0.0008858742,0.01051355,-0.0018636306,0.03703502,-0.0014042197,0.015124365,-0.0419651,0.025541391,-0.09634451,-0.062903106,0.01554758,-0.063794084,-0.004844697,-0.106323466,-0.011916841,0.1717807,0.05301324,0.042291794,-0.00043852863,0.014411582,0.029654743,-0.11042197,0.07905952,0.007376562,-0.010966464,0.02983294,0.026358122,0.05072639,0.031392153,0.03269892,0.011478777,-0.010142309,0.002507734,0.005115703,0.02396733,0.03617374,-0.022319019,0.026773913,0.008182155,0.04080683,0.0713971,-0.023343645,0.013424081,0.0052345004,0.011070412,-0.00304789,-0.04235119,0.093196385,-0.019200593,-0.022363568,0.028927112,-0.09866105,0.10038361,-0.033530504,0.06420987,0.013513179,-0.054201208,0.10994678,-0.07329786,0.083514415,0.026610566,-0.03430268,-0.02015097,0.020284617,0.06949635,0.00315555,0.041341417,-0.05553768,-0.0071018436,-0.004840985,-0.020180669,-0.021903228,0.024219774,-0.012451429,-0.008293527,-0.057824522,-0.062903106,0.017982922,0.016616754,0.0111298105,-0.033975992,-0.01637916,-0.025348347,-0.013891844,-0.014909045,-0.00025638842,-0.027679741,0.0151986135,0.0026283874,0.012659323,-0.010676896,0.04119292,0.02349214,-0.012317781,0.029743843,-0.004662789,0.013758197,0.025526542,-0.031273354,0.014233386,-0.012562801,-0.02775399,-0.05827001,-0.011864868,0.030976363,-0.044370744,0.02019552,-0.0047259,-0.0118722925,-0.011805469,-0.016943447,-0.0050006183,0.0011527038,-0.001713278,0.022497214,0.02693726,-0.011033287,0.017537432,-0.0189036,-0.021650784,-0.025689889,0.017893825,0.05628016,-0.040985025,0.015183764,-0.012265808,0.03329291,-0.040064346,0.002002846,-0.047607966,0.0016121147,0.020002473,-0.007818338,-0.028630119,0.02646207,0.0060660806,-0.0023796558,-0.02732335,-0.0062071523,0.04579631,0.008434599,0.02346244,-0.008256404,-0.02607598,0.009993812,0.033530504,-0.016958296,-0.009823041,0.019898526,0.060200468,-0.082445234,-0.007996535,0.0037402548,-0.032134634,0.022497214,-0.02643237,-0.06141814,-0.03658953,-0.03703502,-0.053102337,0.06260611,-0.00014617621,-0.0027805963,0.034094788,0.01765623,-0.010892216,0.024650414,0.023046652,-0.017463185,0.11446107,-0.0073283007,-0.0018098006,0.06420987,-0.033678997,0.021086497,-0.032609824,-0.030412076,-0.022333868,0.03154065,0.020240068,-0.0038980322,-0.009808191,0.0013104813,-0.007833188,0.060586557,-0.0005554696,0.0024910283,0.019883677,0.020002473,0.024026727,0.018131418,-0.019586684,0.020967701,-0.00072716863,0.02772429,-0.038341787,0.0037755226,0.01134513,-0.015785174,0.021561686,0.032639522,-0.025066203,-0.035876747,0.019646082,0.040598933,-0.07037202,0.017572097,-0.05686628,-0.029917516,-0.0671942,-0.002851154,0.0206872,-0.02874674,-0.05456654,0.007578686,0.004126464,0.035541423,-0.037903883,-0.078274764,-0.08308331,0.051806852,0.08559211,-0.076142274,-0.0025388598,0.039137382,-0.09391299,0.032133628,-0.013359394,0.009214637,0.093996614,-0.039492793,-0.018303834,-0.016997164,0.0678214,-0.036294065,-0.011164188,-0.014206116,-0.02696967,-0.08830999,-0.0050751064,0.037506655,-0.022725604,-0.02793138,0.043945927,-0.08049087,0.048754472,-0.1256912,-0.045283955,-0.01909829,-0.035374172,0.015596413,0.03823839,-0.08688833,-0.022934671,0.01863834,-0.0052554267,0.05092877,-0.007191912,-0.019809118,-0.0035619824,0.02186843,-0.038907405,0.008676289,0.0715428,0.07835839,-0.013045793,0.01456153,0.008529942,0.013411661,0.082832426,0.0022121924,-0.012742646,-0.05088696,0.01182275,-0.04055904,0.054273847,0.0123558715,0.030544719,0.043527793,-0.0014608571,-0.06297104,-0.014049316,0.13422114,-0.14333647,-0.04862903,0.112896286,0.007740713,-0.0339107,-0.009073516,-0.06150757,-0.06175845,0.0141643025,0.0812017,0.010395867,-0.004933986,-0.044782195,-0.18331012,0.037820257,0.007495059,0.08697195,0.008336554,0.012596299,0.06974482,0.11498696,0.004233611,0.021826616,-0.04921442,-0.10319557,0.05272675,-0.08713921,-0.036252253,-0.009805252,0.07079016,0.025548013,-0.22345103,0.006162256,-0.090484284,0.06631611,-0.12084084,-0.05845519,-0.047249187,-0.015136465,-0.040245436,-0.03811295,-0.11389981,0.058873326,0.011498696,-0.12159348,0.11373256,-0.1123109,-0.039179195,0.21007073,-0.13213047,0.049130794,-0.11440157,-0.05214136,-0.030774692,0.0056918547,0.04582753,0.04250336,-0.028349513,0.073006265,-0.06025317,-0.017812526,-0.010808774,0.011038749,-0.021084428,-0.0003209508,-0.0009499491,0.024021821,-0.08814273,-0.021784803,-0.035227824,0.036294065,-0.010646747,0.087891854,-0.016568575,0.013202594,0.004502785,0.021847522,0.036356788,-0.020415412,-0.020844,0.007526419,-0.006679697,-0.039304633,-0.024774464,-0.03257267,0.06895036,0.04716556,-0.03646132,0.022997392,-0.035290543,0.005135213,0.04436406,-0.02448177,0.008853996,-0.00506988,-0.03679583,-0.06430907,-0.0059427354,0.056824464,-0.045158517,0.04591116,0.038970128,-0.003235315,0.029812982,0.019035568,0.09224045,-0.024586303,-0.039910927,0.08412864,-0.008289514,-0.041207146,-0.0021612323,-0.017206231,-0.0011041361,0.03543689,-0.05272675,0.020645386,-0.077731185,0.0001844038,-0.027805937,0.02650972,-0.017394392,0.06681788,-0.043193284,-0.0029609143,0.028035913,-0.02983389,-0.063765496,-0.015345532,0.022349283,-0.04812727,-0.03232179,0.045033075,0.093662106,-0.05954234,-0.0715428,-0.06648337,-0.03148552,-0.004304171,0.030356558,0.02588252,-0.012868086,-0.014080676,-0.03915829,0.011279176,0.07396798,-0.042461548,-0.048461776,-0.0131921405,-0.09140418,-0.09775982,-0.14024228,0.045033075,-0.012063177,-0.035478704,0.048838098,-0.06978663,0.052350428,-0.00015222706,0.07978004,0.016558122,-0.050677888,0.05143053,-0.013171234,-0.04214795,-0.018523354,-0.0008957223,-0.033638913,-0.011320989,0.02049904,-0.019892745,-0.00391217,0.0022030456,-0.0068887644,-0.031799123,0.063598245,0.042984217,0.042085227,0.13911675,0.16975498,-0.053377554,-0.08856366,0.0034138896,-0.008634957,-0.037005246,0.03650259,0.027861647,-0.10235086,0.0039464682,-0.04334832,0.012398912,-0.021458734,-0.049930755,0.043132894,-0.031236641,0.0097300345,0.027215373,0.06907965,-0.03006377,0.0608935,0.0020046504,-0.03322334,-0.21695702,-0.03798663,-0.03439621,-0.019531876,0.06113286,-0.017030552,0.026162183,0.07338815,0.10646788,0.06419668,-0.059313715,0.05265947,-0.0009836251,-0.021961393,-0.08377643,0.093063645,0.07870197,-0.017916188,0.023864316,0.00072406774,-0.040116943,-0.03643078,-0.0171622,0.0152473105,-0.001748833,-0.08420728,0.038106307,0.0703722,0.0011040537,0.00080784416,0.03252919,0.0874626,-0.016587734,-0.08071261,0.04217545,-0.108095534,0.05069671,-0.03408504,0.17674434,0.031140897,-0.030398877,-0.006558498,-0.16305287,0.0012573944,0.055579677,0.023230007,-0.007563815,0.059457332,-0.024355005,0.04569406,-0.033845678,-0.059505202,0.04538289,-0.027646223,-0.083393455,-0.034156848,0.12102104,0.023636922,-0.029968027,0.054670107,-0.0053586997,0.091675356,-0.11604232,1.7578092e-05,0.017605018,0.08736685,-0.06931901,0.06539349,-0.04155311,-0.0317393,-0.037005246,-0.10551043,-0.02982441,0.05304245,-0.030039836,-0.0012753466,-0.03489887,-0.042534493,0.07448921,-0.022081073,-0.03315153,-0.119010404,-0.022763254,-0.09995725,-0.085739195,0.0023128279,-0.07884559,-0.033247277,-0.0380345,-0.0039404845,0.048925437,-0.071281776,-0.006043871,-0.021638256,0.0032493288,-0.011130298,-0.014182153,0.045311082,-0.05964882,-0.04377917,0.048255224,-0.028747285,0.02198533,-0.0036592348,-0.0033271213,-0.018873634,0.005840414,0.05117543,0.033558443,-0.046699375,0.012267264,-0.10072321,-0.033630252,0.02556378,-0.02302655,0.022033202,-0.10771255,0.036478654,-0.0067380187,-0.06879242,-0.058834992,0.04342013,0.03394142,0.0072825653,-0.02439091,0.027478669,-0.084063664,-0.036718015,0.011178169,0.03978184,-0.05289883,-0.018658208,0.008670861,0.024307134,-0.04940416,0.07937218,-0.020956077,0.054813724,0.03944673,-0.048422776,-0.06639881,0.040835027,0.092393436,0.020716716,-0.01481646,-0.0071209967,0.02963292,0.0027496621,-0.030327069,0.042438745,0.0030608317,-0.020142248,0.00089461263,0.021374958,-0.06496264,-0.008383627,-0.0048141526,-0.009526577,-0.02427123,0.037436098,0.03190685,0.10129768,-0.023110326,-0.019280547,-0.042343,-0.042007897,-0.055292446,0.00068442355,-0.024678143,0.05725521,0.046148844,-0.026712714,-0.025108993,-0.04581374,-0.041600984,0.042343,-0.022140915,-0.015462736,-0.03209834,-0.021829745,0.18057412,0.050983943,0.022799157,0.054957338,0.06840944,-0.031523876,0.016180819,-0.04612491,0.056106273,0.07654772,-0.049164798,0.010579767,-0.028866965,0.05648925,-0.017652892,0.03635897,0.07501581,0.005041546,-0.12226572,-0.05749457,0.027095692,-0.033007912,-0.020788522,0.09976576,0.07085092,0.062186047,0.00855118,-0.032960042,0.0015393919,0.007994665,0.02532442,0.16056351,0.011794525,-0.037124928,-0.08171792,0.02241618,-0.043803107,0.023708731,0.020178152,0.013200772,0.0066781784,0.01685103,-0.03729248,-0.026210055,-0.0308776,0.028005265,0.008569133,-0.023624953,-0.0443297,-0.020022567,-0.114031695,-0.07626049,-0.21713187,-0.07491903,0.036819637,0.061321624,-0.03855264,0.0107446145,0.037006266,-0.04988381,-0.15783653,0.14813171,0.01844981,-0.01471719,0.1630622,-0.011691101,-0.02200913,-0.23910101,0.0066920556,0.001912968,0.018609779,-0.10483331,-0.03639305,0.027461423,0.14653201,0.08771658,0.079611465,-0.04788419,0.0004944889,-0.020529414,-0.03759282,-0.048604053,-0.0003749284,-0.47052348,0.033513602,-0.06964003,0.020129489,0.01211102,0.074172504,0.026301645,0.11997709,-0.04009901,-0.055562723,0.13693385,0.04247189,-0.0992877,0.011264515,0.068093665,0.022302408,0.008218431,-0.0046124524,0.18033889,0.003252712,0.03809939,0.004035896,-0.050230406,-0.032073874,0.15506372,0.05161681,-0.12648252,0.12765563,-0.019796219,0.122323304,0.028021315,-0.2619233,0.053429797,-0.10904584,-0.123816356,-0.06569412,-0.009284894,-0.04737762,0.009211575,0.055776015,0.061748207,-0.085423686,-0.02096933,-0.0027378106,-0.013997327,-0.05281658,0.0064587668,-0.026341636,0.098274566,0.079184875,-0.027781362,0.03194057,0.023208901,0.07294607,-0.090596035,-0.0054289633,0.01980955,0.02522185,-0.0778518,0.005885543,0.29562354,0.0008348406,0.030847443,-0.043245073,-0.09000948,-0.01490382,0.01928965,0.027568068,-0.022808978,-0.046284493,0.09368878,-0.07859832,-0.009698148,-0.031460658,0.021849161,-0.030260887,-0.066334,-0.057589002,0.10627304,-0.028394578,-0.031407334,-0.034073494,0.018609779,0.04412491,-0.004539133,-0.0030710802,-0.067560434,-0.0015380397,-0.11037892,-0.012530941,-0.057855617,-0.0048257452,-0.010471334,-0.076572046,0.055242784,0.095875025,0.009524847,-0.010438006,0.032233845,-0.021489229,-0.0008473382,0.0034693375,-0.03929916,-0.074705735,-0.03585982,-0.028847825,0.0027811355,-0.04740428,-0.026514936,-0.010991234,0.01337078,0.011544462,-0.03911253,0.07118641,0.032900386,-0.0036859629,0.003156064,0.0051390184,0.00041137976,-0.018569788,0.03537991,0.0113445,-0.045591295,-0.07897159,-0.010111403,-0.057269063,0.018063217,-0.033193663,-0.012984187,0.0044591483,0.01192439,-0.024288695,-0.01625023,-0.00469577,0.01455722,-0.016010275,-0.041858673,-0.013957335,0.015983615,-0.041565396,0.026274983,0.011804412,-0.011984378,-0.04841742,0.020689383,0.00016934266,-0.006765375,-0.034420095,0.045431323,0.051643472,-0.023155577,-0.027941331,0.010917915,-0.010917915,-0.04673774,-0.008871639,-0.0005390637,-0.0017946573,-0.002439534,-0.023248894,0.027301453,0.012144348,0.0070319907,-0.0047557587,0.052549966,-0.047270972,-0.013890681,-0.06548083,0.051003594,-0.009484855,-0.04777754,0.01286421,-0.029381055,0.067133844,0.018889725,0.009011612,-0.073745914,-0.027488085,0.048204128,0.019689573,0.047857527,-0.038152713,-0.004342504,-0.03727288,-0.031007413,-0.016703477,0.0031027407,-0.029541025,-0.10621972,0.04236524,-0.05924202,-0.019023035,0.056735832,-0.031354014,-0.060361806,0.0002553679,-0.059775252,-0.021622537,-0.033167,-0.018369826,0.025648436,0.034580063,0.02623499,0.025835067,-0.00012101856,-0.05956196,0.064787626,0.028554548,0.039992362,-0.010398014,-0.03772613,-0.038019408,-0.0043724985,-0.012757564,-0.037139576,0.0027694711,0.0338602,-0.04532468,-0.03031421,-0.07091979,0.040872194,-0.004795751,-0.037352867,0.031433996,0.049323913,0.062295012,0.009457357,-0.06159898,0.08944033,-0.14700231,-0.024987608,-0.0011908701,-0.02397836,0.051715303,0.024639592,0.02088101,-0.007734674,0.015582453,0.090971604,0.041831624,-0.06737606,0.021142023,0.029720638,0.0111626405,-0.056726746,-0.04235365,0.008783075,0.04172722,0.013311644,-0.045973025,0.04280607,0.0022621094,0.04670386,0.054847453,0.0087308725,0.036437362,0.067654476,-0.020776605,-0.021333432,0.02829377,0.033775035,0.017331239,-0.0017150705,-0.057074763,-0.022273079,-0.0016052277,0.011606362,0.0025448732,0.013677062,0.04945319,0.04861795,-0.033357415,-0.033809837,-0.042527657,-0.08923152,0.00495924,-0.024569988,-0.0063774087,0.031512924,-0.008504662,-0.09772313,0.005485615,-0.0134247495,-0.07043861,0.05025363,-0.0970967,-0.06650602,0.021263829,-0.031582527,0.035184503,1.3730351e-05,0.0017792361,0.053594593,-0.09695749,0.015817365,0.03946511,0.006842881,0.038177446,-0.035462916,-0.0013714038,-0.008944033,-0.014433999,0.063199855,-0.003286584,0.075380445,-0.09041478,0.046007827,0.05523027,-0.09946321,0.03017306,0.037968636,0.013972876,0.037307404,0.0061120456,0.043919723,-0.030503675,0.07134345,0.0024665694,-0.055682693,-0.058188416,0.070195,-0.019471543,-0.076215684,-0.10343061,-0.017853264,-0.037098594,0.03168693,0.014007677,0.019506345,0.033305213,-0.060485326,-0.017279036,0.026814697,-0.059441276,0.02004577,0.002088101,0.05683115,0.023943558,-0.007604168,0.041692417,-0.059858896,-0.027945751,-0.009083239,0.02871139,-0.006864632,0.01757485,0.06873333,-0.027058309,-0.037725024,-0.07545005,-0.065566376,-0.0021098522,-0.04625144,0.018966917,-0.023003913,0.047852315,0.001487772,0.06779368,0.0012234967,-0.015486749,-0.011554159,0.012563407,-0.006420911,-0.012824421,-0.018758107,0.0151648335,-0.009231146,-0.04030035,-0.0120413825,0.03984793,0.027267119,-0.008970134,0.031582527,0.033705432,-0.006268653,0.032539573,0.020306783,-0.0037912084,0.04092678,-0.0144949015,0.005059295,0.07085623,0.049905613,0.011197442,0.002044599,-0.029303018,0.021838056,0.0036759279,-0.017165931,0.02730192,0.045973025,-0.020063171,0.04322369,0.036263354,0.010579712,0.06908134,0.0206548,0.0289376,0.0077477247,0.072874725,-0.0035127949,-0.004815683,-0.009622665,-0.006973387,0.014503602,-0.01572166,0.054047015,-0.005481265,-0.004693877,-0.037933834,-0.021751052,0.052654948,0.0060511427,0.028554782,0.018357888,-0.003595449,-0.010692817,-0.021629246,0.0351497,-0.0039630416,0.0124155,-0.04924438,-0.01981956,0.010692817,0.035706528,-0.0020130598,0.051123675,0.030555878,0.028450377,0.064661525,-0.019541146,0.01509523,0.05202852,0.06400029,-0.010066387,0.059580483,0.016974522,0.031234512,0.042249244,0.011127838,-0.03807304,-0.0043958877,0.050914865,0.018253483,0.002871139,-0.021159424,0.00010617232,0.055265073,-0.028554782,-0.01571296,0.04833954,-0.044337343,0.014268691,-0.043710914,0.017209433,-0.0024839703,0.016382894,0.02025458,-0.027580334,0.01614798,0.09020597,0.046599455,0.01922793,0.038316652,-0.0268843,-0.02335193,0.008365455,0.046843067,-0.0011147414,0.030886494,0.036019742,0.017244235,-0.040613566,0.056135114,-0.0050505945,-0.03530631,0.06737606,-0.0016237161,0.0030255714,0.04385012,0.020776605,0.14686377,-0.036810268,0.054095294,-0.010664602,-0.020633558,-0.045346666,0.04461565,-0.001783329,-0.027212717,0.09107063,-0.00057000207,-0.060792357,0.018935712,-0.09375889,-0.085835606,0.00072512217,0.10356867,-0.017591583,0.013570986,-0.01967852,-0.100267306,-0.007935077,0.03431066,-0.0023610685,0.0080117155,0.0011282135,0.0008032349,0.0063492404,-0.041007724,0.019525241,-0.2286434,0.06145263,0.04544099,0.007156897,-0.0951266,0.08979724,-0.00517018,-0.059188835,-0.01852304,-0.075695686,0.056028955,0.033060856,0.016825194,0.027542852,0.19015887,-0.0055887466,0.11611388,-0.05480273,-0.06649901,-0.069328755,0.000143698,0.064801164,0.028745495,-0.042799894,-0.06456535,0.060933847,-0.049662028,-0.030797059,-0.13752562,0.007292489,-0.054944217,0.008949069,-0.05796261,-0.036527295,0.047091674,-0.035961345,-0.011890825,0.07437514,-0.22807746,0.026858998,-0.050558113,0.008666094,-0.21430603,-0.040253125,-0.06805537,-0.0052674524,0.077252045,-0.047634043,-0.0065202042,0.020385956,-0.07762934,0.08097787,0.05966046,0.11969822,-0.07800664,0.012044103,0.03001888,0.007722846,0.017320398,-0.07149823,-0.1394121,-0.018605575,0.061829932,0.014384538,-0.032235514,-0.008766315,0.030066041,-0.015705086,-0.025113989,0.03841379,-0.049426217,0.0010980001,-0.06635752,0.07777083,-0.061122496,-0.09970135,0.0026352,-0.4127655,0.04504011,-0.012509831,0.16223872,-0.012993246,0.015563598,-0.0028754338,0.0013706578,-0.075884335,0.0006282182,0.046101265,0.041974552,0.059566136,-0.06272602,0.0037612028,-0.03919197,0.05692504,-0.05367083,-0.021765456,-0.0036374016,-0.004259356,-0.025231894,-0.030183949,-0.005677176,-0.0052939816,-0.04350733,0.0038584755,0.0032158874,-0.014938696,-0.04699735,-0.0074516623,0.016247453,-0.0011510578,-0.024807433,-0.013948285,0.059141673,0.09456065,0.089372784,-0.033414572,-0.017709488,-0.001344129,0.04112563,-0.034027684,-0.03765919,-0.067725234,-0.006125219,0.004309466,-0.019654939,0.056642067,-0.008530502,0.0021149397,0.065272786,-0.0009786201,0.034853026,0.027000485,-0.0005854772,-0.050935414,0.015410321,0.02222529,-0.032046862,0.036951754,0.04428551,-0.031645983,-0.05749099,7.663893e-05,-0.0033573748,0.0029977614,-0.0122976005,0.020433119,-0.013264431,-0.02203664,-0.037753515,0.056217603,-0.02301526,0.06602739,-0.019206895,-0.0068090744,0.0007833383,0.056642067,-0.047681205,0.009585761,-0.0025968808,0.06272602,0.04272915,-0.012120741,-0.043365844,-0.041833065,0.028556844,0.0639994,-0.004733928,0.040654004,-0.034805864,0.042399015,0.009255624,0.0818268,-0.08361897,0.025797844,0.10432327,0.047492556,-0.0031274578,0.016707286,-0.0072630127,-0.0038260513,-0.005423678,5.0478528e-05,0.017025633,-0.032990113,0.00022494263,-0.042045295,-0.007540092,-0.00604858,-0.02537338,0.03709324,0.02591575,0.075884335,0.045700382,0.043224357,0.024241483,0.052963395,0.014514235,-0.020916533,0.018063206,0.15167435,0.063244805,0.028627587,0.046903025,-0.04353091,0.08192112,-0.0401588,-0.011478154,-0.026670348,0.007369128,0.01383038,-0.04114921,0.08701466,-0.016282825,0.00028518526,0.0051642847,0.056453414,0.12441446,-0.0014060296,-0.03721115,-0.018464087,-0.040418193,0.020421328,-0.013028618,-0.012592366,0.009963061,-0.04520518,-0.048484772,0.018305792,0.0117491875,0.063923016,-0.034410547,0.021808848,0.085437365,-0.005506463,0.009633403,0.14743835,0.027109932,-0.16455062,-0.12493199,0.004638449,-0.09287748,-0.0812213,0.059861954,-0.018491795,-0.031077996,0.016213259,0.02004182,-0.16045856,0.09703155,0.039804634,-0.0874834,-0.027373437,0.10750972,-0.11749187,0.08884741,0.03400754,0.06159798,0.05338285,0.00083410705,-0.056668904,0.008835141,0.009563653,-0.029589972,-0.014391979,0.06776708,-0.13553417,-0.00077549677,0.19232707,0.032829523,-0.12176994,-0.06863509,-0.030008478,-0.08190331,0.09070744,0.0140974745,-0.021111337,-0.05967595,0.042780682,-0.03447255,0.00532046,0.09281548,0.029992979,-0.05573889,0.03642558,-0.04898078,-0.011865439,-0.038409613,0.024939898,-0.12201794,-0.10174362,-0.12604801,-0.19083904,-0.21464743,0.017081272,0.10093761,-0.049197786,0.014012223,0.0020750957,0.01948381,-0.038781617,-0.0061845984,-0.063675016,-0.123257965,-0.111725785,0.010943174,-0.30430084,0.16690665,-0.004119191,0.045105718,0.023606876,-0.07942326,0.023699878,-0.15177841,-0.07074313,0.0068201087,-0.20137921,-0.054808874,0.088103406,-0.0075602457,0.0016275259,0.0057544666,0.057474915,0.05759892,0.099263586,-0.09331149,-0.110671766,0.024009883,-0.024862396,0.007037112,0.07347117,-0.09944958,0.15041439,-0.07942326,0.043028686,0.06795308,-0.13913022,-0.028923461,-0.0941175,-0.083577335,0.008261632,-0.023668878,-0.02320387,-0.0006650575,0.010013159,-0.05766092,0.037944604,-0.1066417,0.13330212,-0.0816553,0.26313218,-0.032984525,-0.02197935,-0.17062671,0.0071766144,-0.018956803,-0.04891878,-0.047833763,-0.05902494,0.017747782,0.026567424,-0.048670776,0.050406802,-0.09461351,-0.042904682,0.0041230656,-0.0689451,-0.012128944,0.03636358,0.043462694,0.10354165,0.07061913,-0.015725,-0.054219864,0.0008360446,0.023017867,-0.061814986,0.039835636,-0.018011287,0.06776708,-0.022444358,0.000101235986,0.05536688,0.013903722,-0.033139527,0.05775392,0.045601726,-0.02267686,0.034937557,-0.067395076,0.05443687,0.05530488,-0.06559704,-0.028504955,-0.07743923,0.008602637,0.0016372136,-0.007645497,-0.011787938,-0.015407246,-0.09033544,0.006192349,-0.025947414,0.11426782,-0.0013766157,-0.039835636,-0.04516772,-0.048019767,0.0376966,-0.018584797,0.02768344,-0.004270318,0.04588073,-0.036053576,0.016151257,0.05530488,-0.021436842,0.08692539,-0.022258354,0.04147866,0.09529552,-0.046283737,-0.039742634,-0.13913022,-0.023482874,0.06689907,0.051274817,-0.08531336,-0.007951627,-0.11432982,0.074835196,0.078679256,-0.01692627,-0.053599853,-0.1129658,0.07954727,-0.0018580921,-0.017019272,-0.0440827,-0.049197786,0.037882604,-0.108687736,-0.022847364,-0.11786388,0.027977945,-0.066837065,0.058094926,0.0024645394,0.12772204,-0.052266832,-0.010013159,0.011098177,-0.062807,0.035557568,-0.09585353,-0.1063317,-0.020909833,0.112655796,0.0687591,-0.014236977,-0.002565291,0.075207196,-0.099387586,0.022320356,0.03710759,0.0018445294,0.023033367,0.1439663,-0.08103529,-0.0019220307,-0.00818413,-0.006835609,0.06041996,0.054529868,0.0753312,0.073347166,0.054746874,-0.116623856,0.054746874,-0.12896205,-0.07353317,0.03518556,-0.008215131,-0.02016685,-0.008566654,-0.08401048,0.053613175,0.014540871,-0.0012652647,0.009696494,-0.021884823,0.004813423,0.05655385,-0.008187463,-0.028926969,0.02617202,0.075776584,0.05903021,0.18523166,0.002263547,0.016761856,0.01937751,-0.010911457,-0.06299239,-0.03730016,-0.022457482,-0.002683367,0.007676713,0.04014797,0.049279545,0.015577846,-0.0027336683,-0.0119406935,0.022457482,0.027100654,0.014912325,-0.03757875,-0.015461767,-0.000112935515,0.0050223656,-6.517371e-05,0.0027859039,-0.009464335,-0.020739507,-0.008806552,0.032378394,-0.038321655,0.04909382,-0.0007917578,0.08004831,0.015322472,0.023896866,-0.0014838808,-0.02683754,-0.0046431734,0.010454878,-0.013999168,-0.0048559853,-0.037547793,-0.027394723,-0.045007825,-0.047700867,-0.0382907,-0.013349123,-0.0056917565,-0.039095517,-0.03813593,-0.09756855,0.05537758,0.020925235,-0.04234574,0.037826385,0.0014887174,0.0009837723,-0.014564087,0.08883938,-0.040921833,-0.032099806,0.045781687,0.01634397,-0.059958845,-0.007266566,0.026976837,0.020368053,-0.037609704,-0.0044845315,0.08271039,-0.018944146,-0.020151371,-0.0051655304,0.0040627765,0.02117287,-0.004801815,0.03723825,0.008628564,-0.025166,0.023556367,0.017272605,0.023927819,-0.027735222,0.08388666,0.004960457,-0.0039447625,0.018000035,-0.029577013,-0.01903701,-0.12028914,-0.025011227,0.05336554,0.05577999,-0.046741277,0.052251175,-0.03661916,0.07001905,-0.086239204,0.013294953,-0.039962243,-0.020135894,0.06989524,-0.0035017265,-0.016080856,0.0013919846,-0.027719744,-0.017396422,-0.018061943,-0.004182725,0.1468481,-0.030242534,-0.02611011,-0.06088748,0.0071930494,-0.017210696,-0.09013947,0.0096578,0.008798813,0.016576128,0.018897716,0.0716906,0.008558916,0.040859926,-0.0038286834,0.050115317,0.009023233,-0.026419656,0.015043882,-0.018340534,0.0002899565,-0.033740394,0.0012759053,-0.013596759,-0.008907154,0.0003354209,-0.010253674,0.022442004,0.031480715,0.0014954887,0.01589513,0.0222408,-0.047422275,0.021374075,-0.06293047,0.021126438,-0.0034514253,-0.005498291,-0.017427377,0.008349974,0.03937411,0.03677393,-0.041479014,0.014556348,-0.029669877,0.007634151,0.024020683,0.0062915,0.0038847884,-0.03606198,-0.073176414,0.02628036,0.015361165,-0.0031747697,-0.03219267,-0.0018766159,0.012234761,-0.0036971266,-0.025150523,0.0014587303,0.025166,0.044388738,0.018123852,0.0051771384,0.014889109,0.0006495606,-0.0048056846,0.015585585,-0.0123508405,0.07701477,-0.03640248,0.0074136,-0.0033121302,0.0005968412,-0.0096655395,-0.007649628,0.037083477,0.01662256,0.019222738,-0.033368938,0.052529767,-0.049960546,0.0013194351,0.0060129096,0.017210696,-0.010764424,0.025429113,0.008024951,0.019934691,0.018325057,-0.006744209,0.005215831,-0.02106453,0.03677393,-0.04661746,-0.025970817,0.010269152,-0.06599497,0.13347575,-0.0065043117,0.007641889,0.007510333,-0.006159943,0.05571808,-0.029886559,-0.032718893,-0.10252126,0.019934691,-0.012753249,0.001047616,-0.03921934,0.026079157,0.048660457,0.0077308835,0.046153143,-0.07249541,0.001738288,-0.0338023,-0.012459181,-0.03247126,0.008806552,-0.0024221886,0.03206885,0.0115537625,0.013565805,0.02600177,-0.01696306,0.010423924,0.005637586,0.016854718,0.041479014,-0.048010413,-0.017613104,0.009238213,0.01980334,-0.07287986,0.013291431,0.046698414,0.017751642,-0.02910288,0.0076213866,-0.05459299,-0.05526202,-0.009673084,0.01962493,0.015577288,-0.11525186,0.029593503,-0.07064975,-0.01518702,0.020717682,0.0058707534,-0.06511909,-0.054860603,0.061729327,-0.023148498,0.017628986,-0.04763506,0.051114023,-0.0067181936,-0.00039654068,-0.040030397,0.006935629,0.03099847,-0.009890519,0.002206411,0.07707246,-0.0030663954,-0.08269232,-0.07867813,0.0042622895,-0.14950629,-0.055574235,-0.04199289,-0.07261224,-0.029236685,-0.030686256,-0.09794624,0.06427165,-0.011011147,0.028300041,-0.029392794,-0.08804458,0.028589956,-0.04910693,-0.023237702,-0.056332473,0.02783172,0.006305624,-0.0072088167,-0.011875313,-0.019256962,-0.15887274,0.059543822,-0.0148413535,-0.13184385,0.084922425,0.0145402895,0.07069435,-0.12809728,0.034009114,0.12399388,-5.5055734e-05,0.03945057,-0.023706025,-0.0033479463,-0.02234566,0.0056867697,0.006523059,-0.03666294,-0.0118418615,0.05164925,0.15860511,-0.11819561,-0.022903185,-0.011228583,0.038246315,-0.088669,-0.1941084,0.005499998,-0.042461213,0.03690825,0.022234155,-0.01309072,-0.10017635,0.05187226,-0.00074499473,0.07635882,0.007236693,-0.0060435864,-0.21444696,-0.008240241,0.21480379,0.025869226,0.013815505,0.07907955,0.035302576,0.122299,0.07720626,-0.010576276,-0.01562189,0.097589426,0.06409324,0.16565226,-0.26689905,-0.013347183,-0.02910288,-0.002069817,-0.007638112,-0.011323362,-0.015242773,-0.054994408,-0.011875313,0.0043905205,0.043598566,-0.005159907,-0.21569583,-0.010080078,-0.023036992,0.04263962,0.0039026851,-0.012377087,0.038469326,0.006283323,-0.005770399,-0.017272169,-0.0991059,0.037711088,0.04718904,-0.0991951,-0.042215902,-0.04201519,0.02635985,-0.022390261,0.022903185,-0.00080283807,0.022903185,-0.046832222,-0.03331778,0.034053713,-0.010448045,-0.04937454,0.015577288,0.025133291,0.041903686,-0.015253923,-0.04785807,-0.006372527,0.06248756,-0.05356714,0.07073896,-0.05932081,0.006155092,-0.064494655,0.002257982,0.01309072,-0.031355288,-0.02972731,0.11141609,0.007587935,0.0078611225,0.05102482,-0.04955295,0.02676127,-0.003373035,0.02593613,0.07328127,0.015644193,-0.007838822,-0.002000126,0.011418141,-0.08411959,0.065921925,0.026426753,0.060480468,0.039762784,-0.07778609,-0.015253923,-0.0020600602,0.051158626,0.011473894,-0.017796244,0.06980231,0.042907234,0.03273795,-0.020004049,0.06391483,0.035257973,0.013681699,-0.03481195,-0.006935629,0.036016207,-0.00057529757,-0.0024754175,-0.041368462,0.050088175,0.058161158,0.010715658,0.015978707,-0.005594778,0.023148498,0.10865075,-0.017015707,-0.07091736,-0.042104397,0.04304104,0.0400527,-0.013224527,0.01962493,-0.012968065,0.038670033,-0.020985296,0.01898935,-0.048571702,-0.027474903,-0.038558528,-0.05566344,0.0057926998,0.00073314726,-0.06257677,-0.021877337,0.1263132,0.11828481,0.049508348,0.05566344,-0.035703994,0.01519817,0.028411547,0.10570701,0.005876329,-0.06944549,0.004220475,0.010871765,0.05566344,0.023862131,0.041591473,-0.030485546,0.009082106,0.004677647,-0.09651898,0.013960462,0.054637592,0.048794713,0.030597052,0.009968572,-0.018208813,-0.002652432,0.032002017,-0.0029298014,0.0770588,-0.054354582,0.040833708,0.030091563,0.0400882,0.0049347794,0.017265374,0.025618494,-0.09833977,-0.038902156,0.017172184,-0.009310424,0.046052292,-0.11006464,-0.043917418,0.011962074,0.077262126,-0.014833989,0.042900812,0.01302104,0.050491475,0.0012591099,0.0118011115,0.0241783,-0.018061716,-0.02707563,0.0034861143,0.029735751,-0.010428692,-0.007675382,0.04181643,-0.043510776,0.012665227,-0.015257575,0.0071120122,0.05174529,-0.021552065,-0.006836681,0.020264363,0.08024417,0.045239005,0.024432452,-0.039681554,-0.0442224,0.04408685,0.0025351634,0.014325685,0.043205794,0.07326347,0.061436944,0.020061042,0.060623657,-0.0013152352,0.018248094,-0.035174597,-0.06729937,0.00013144409,0.009810257,-0.010691316,-0.043714095,-0.047882184,-0.006713841,0.07156912,0.043849643,-0.009700124,0.030498207,-0.06980701,0.048424374,0.07475449,-0.047577202,0.025618494,0.02063712,0.00479076,0.07902424,0.024635773,-0.09867864,-0.018214207,-0.015952256,-0.02575404,0.056048926,-0.060047578,0.00386946,-0.015359236,-0.087834835,0.026889252,0.0343952,-0.10891248,-0.007582193,0.029278278,-0.081667416,0.017621186,0.020603232,-0.05076257,0.0007100364,0.060589768,0.03690283,-0.00165834,0.1823115,-0.09068134,0.07272128,-0.0067350203,0.052355252,0.09156239,-0.029651035,-0.024415508,0.05784493,0.026075967,-0.061538603,0.018468358,-0.034767956,-0.04839049,0.14422263,-0.05208416,-0.07665216,0.02816001,-0.03985099,0.008912253,-0.040528726,-0.005366837,0.053337973,0.01685873,0.06136917,0.06482563,0.0283125,-0.12300943,-0.0062224814,0.054828998,-0.02128097,-0.037106153,-0.041104805,0.012716058,0.029718807,0.019349417,0.06394457,-0.009183349,0.0047314577,0.004875477,0.012241641,0.059640937,0.021552065,-0.0030794716,0.016816372,-0.008573385,-0.02722812,0.03937657,0.019129153,0.00084505446,0.02285671,0.011140317,-0.03207395,0.059878144,-0.023958035,-0.038190532,0.011241978,-0.04947487,0.026262345,0.017333148,-0.03537792,0.03315833,0.001964381,0.011928188,-0.0030540565,0.014190137,-0.08614049,0.01970523,-0.05598115,-0.0026219985,0.019603569,0.044730704,-0.0027427205,0.021552065,0.008065081,0.03649619,-0.033039723,0.03375135,-0.01621488,-0.017180657,-0.01179264,0.00039923,1.3766551e-05,-0.0021031054,0.04181643,-0.015376179,0.010547296,0.005345658,-0.0063410853,-0.01768896,0.004081253,-0.0034013973,0.020230478,0.011674035,0.00057237083,-0.0319384,0.005862433,0.00656135,-0.03397161,0.009005442,0.025381286,0.025669323,0.054185145,-0.035513468,0.04279915,-0.01061507,0.023314184,-0.01906138,-0.00079369463,0.01843447,0.020416854,0.017417865,0.018366698,-0.024737434,-0.05208416,-0.017722847,-0.00079951895,-0.0040600738,0.03136232,0.06336849,0.034056332,-0.04723833,0.07156912,0.035987884,0.0063665006,0.03219255,0.005913263,-0.012961738,0.02348362,-0.01307187,0.051372536,-0.021738444,-0.00068303273,-0.021399574,-0.039444346,-0.010555768,-0.018570019,0.049203772,0.06316517,0.017621186,0.07570332,-0.006925634,-0.023771657,0.021789273,0.049678188,-0.05554062,0.02363611,0.036089543,0.014656083,0.039817102,-0.044730704,0.04279915,0.010886165,0.041206464,0.015189801,0.013334493,0.00051359826,-0.00025044533,0.0007682795,0.06548448,0.10229529,0.0021865063,0.040907044,0.012662362,0.03368327,-0.023594894,0.00163815,0.069248594,-0.07151813,0.024134602,0.008808299,0.027663456,0.16130328,-0.012669282,-0.04420064,-0.0031707801,-0.0067082844,0.008559204,-0.05718129,0.047328174,0.0019668178,-0.0066044945,0.004286521,0.03479036,0.040740978,-0.043757804,0.031081602,0.00450102,0.043425675,-0.05922941,0.02875671,-0.018848239,-0.08884412,0.017436696,0.13971499,0.07306806,0.017187601,0.027303651,-0.011195466,0.039440148,0.0072583705,-0.009043557,-0.037115254,0.039993692,0.017242955,-0.040464208,-0.0421802,-0.06886111,-0.015789896,0.111594856,0.06089005,0.0070750085,-0.015679188,0.006518003,0.10838429,0.078935646,-0.08314259,0.07157349,-0.021546774,0.12886548,0.018709851,-0.020619584,0.012247203,0.03600816,0.0059021832,-0.013471924,-0.018280854,0.0072722095,-0.041903425,0.008573042,-0.0056530875,0.0082824305,0.03603584,-0.03144141,-0.022902962,0.040049046,-0.089785144,0.0070369523,-0.0068985657,0.053860016,0.006590656,-0.01238559,-0.0069331625,0.04984681,0.045473795,-0.06055792,-0.00045278325,-0.0362019,0.07157349,0.017159924,-0.03816699,-0.04757727,-0.018820561,-0.06160966,-0.007279129,0.00036521055,0.018446917,-0.017229116,0.011852802,-0.05978296,0.032520823,0.10140961,-0.08579961,0.05906335,-0.047743335,-0.070743166,-0.034430556,0.09161185,-0.029531674,0.0107803065,-0.02723446,-0.0126000885,0.006794776,-0.0832533,0.05186725,-0.009956907,-0.028701356,-0.045584504,0.0016770711,0.03520552,-0.020813325,-0.044089932,0.014080824,-0.026459495,-0.0548564,0.046304114,-0.048047785,0.029005805,-0.07926777,0.0039370954,0.020204425,-0.017644275,-0.0017704819,-0.009334167,0.0145029025,0.040021367,-0.0017955645,0.019166527,-0.02773265,-0.001136499,0.010939451,-0.00071052805,0.021519097,0.039246406,-0.0014504633,0.012309477,0.025947465,0.007735804,-0.056849163,-0.007901868,0.023069026,0.022377092,0.018972786,-0.0145029025,-0.008732187,-0.020827165,-0.024646632,-0.01003302,-0.009541747,0.010904854,-0.034347523,0.010904854,0.01861298,-0.022155674,-0.09399209,-0.019941492,0.018336209,0.008406978,-0.001555983,-0.011409965,0.0071960967,0.0037987088,-0.04082401,0.01595596,0.011271578,0.008476172,0.007888029,-0.005812232,-0.098863296,-0.011894317,-0.0370599,0.004359174,0.029227223,0.04040885,0.0015594426,-0.0062896656,-0.0025307427,-0.022017289,-0.0200522,0.037834864,0.012966813,0.018585304,-0.0251725,-0.01678628,-0.0061685774,0.00010043831,-0.015568479,0.0134511655,0.06376849,0.0077012074,0.01790721,0.047023725,-0.0010223301,0.01955401,-0.016966183,0.0020792568,-0.035980485,-0.018239338,0.051839575,-0.024632793,0.047217466,0.01861298,0.018142467,0.008759864,0.011624464,-0.013340456,0.050317325,-0.0076596914,-0.02618272,-0.005891804,0.14846101,-0.035371583,0.028562969,-0.03481804,-0.004099699,0.018363886,-0.021948095,-0.02825852,-0.039052665,0.05444124,-0.024314504,-0.015665349,-0.012136494,-0.014392193,0.04359174,-0.006659849,0.06271675,-0.032797594,0.00084372505,-0.014779676,0.0009868685,-0.016454153,0.0139078405,-0.0064418903,-0.014156937,0.0012861294,0.054884076,0.01053813,0.021242324,-0.06825221,0.0068605095,0.033738624,0.0061997143,0.002413114,-0.014046228,0.01842489,0.121703856,0.043987345,-0.026259616,0.04292501,-0.051124915,0.056137815,-0.06676117,-0.035057086,-0.0061208806,0.020864941,-0.11645857,-0.0021578697,0.06032076,-0.023304993,0.080936715,-0.08140149,0.00679729,-0.028566876,-0.13551423,-0.00044557938,-0.14168905,0.0381445,-0.0597232,0.01742895,-0.023271795,0.10311298,0.053315982,-0.010083891,-0.025047889,-0.006187277,0.039339628,0.06779031,-0.050992124,0.081799865,-0.010971938,0.036683787,-0.00895516,-0.026508601,0.022757227,0.06722595,0.012880823,0.06101792,-0.1541715,0.1061008,-0.11420111,0.0047182655,0.09707095,-0.009021556,0.14235301,0.095079064,-0.052917607,0.06536686,-0.009502927,-0.020499764,-0.0398044,0.06184787,0.018043112,-0.040700745,0.1442121,-0.053415578,-0.090032965,0.047107957,-0.012474148,-0.005739104,0.10888943,-0.17860523,0.007892824,0.13571341,0.04196227,-0.055307865,0.03528947,0.023653572,-0.0154038705,0.06818869,0.024964893,0.085119665,-0.004755613,0.114267506,-0.08299499,-0.34579033,-0.02801911,-0.03943922,-0.09268881,-0.14275138,0.24579798,0.021678293,-0.1476647,0.0054112733,0.08565083,0.21831003,0.020931337,-0.01955362,-0.02637581,0.038078103,0.09899643,-0.0679563,0.098398864,0.025230478,-0.005187187,-0.058428474,-0.031737287,0.032085866,0.08604921,-0.018142706,-0.0613499,-0.07635539,-0.044983286,0.044186532,0.46556872,0.062744215,0.039671607,0.03711536,-0.28922096,-0.07164128,-0.109487,-0.019786006,0.017628137,0.027388347,-0.09647338,0.049000245,-0.155765,0.06340817,0.07137569,-0.091692865,-0.13172965,0.0020976984,-0.075359456,-0.02403535,0.039240032,0.03665059,-0.044518515,-0.015727552,-0.08578362,-0.17382471,-0.029878197,-0.057631724,-0.07363316,0.014764809,0.071043715,-0.0019441578,0.023437787,0.06911823,0.08299499,0.08193266,0.0076355394,-0.021064129,-0.026940174,-0.09640698,-0.08160068,-0.038078103,0.037347745,-0.095079064,-0.076023415,-0.055739436,0.060752336,-0.16625556,0.025496062,0.0066313,0.01854108,0.014432829,0.11732172,-0.070246965,-0.044717703,0.058793653,0.07635539,-0.048369482,-0.043987345,0.00679314,0.011727192,-0.068520665,0.008656378,0.0021267468,-0.008473788,0.05072654,-0.015868643,0.08658037,0.033463582,-0.07403153,-0.15403871,-0.004942352,-0.07389874,-0.019454027,-0.01757834,0.0018912484,0.02303941,0.030940533,0.07111011,0.014549023,-0.022093266,0.0063076196,0.05188847,0.035953432,-0.013619479,-0.036219016,-0.06553285,-0.111744456,0.08332697,0.034924295,-0.046742782,-0.071840465,-0.07874565,-0.10045714,-0.038210895,0.07894484,-0.0042057713,0.0001276048,-0.1476647,0.11220923,-0.009893003,-0.033247795,0.0005851147,0.04229425,0.040036786,-0.03731455,-0.110084556,-0.02036697,-0.029529618,0.020582758,0.01905565,0.14832865,0.020151185,0.14022835,0.051788874,-0.046444,0.041829478,-0.010092191,0.00273261,0.02040017,0.087775506,0.024682712,0.05935802,-0.006083533,0.021445906,-0.072703615,0.13876763,-0.008079562,-0.036783382,0.051988065,-0.052419636,0.09242322,-0.046809178,-0.027537739,-0.03874206,-0.05567304,0.043190595,-0.08731073,-0.086978756,-0.03545546,0.06812229,-0.07482829,0.02186088,0.0729028,-0.07801529,-0.057299744,-0.033612974,-0.14797916,-0.12822406,-0.0012174384,0.065829866,0.057148665,-0.020169215,0.08135172,-0.04662693,-0.029693993,-0.063437164,0.05285408,0.019908473,0.042669777,0.07288525,0.21534279,0.021135496,-0.045706663,-0.06938823,0.057363395,0.026825823,-0.14368457,-0.04975584,-0.024417788,-0.04487842,-0.0977325,-0.038866002,0.119328134,-0.087977655,-0.06773175,0.0065760845,-0.016610844,-0.10816221,0.0049886215,-0.036105197,-0.09527845,0.045553282,-0.052946106,0.06033893,0.083867125,-0.06662743,-0.08846846,0.10871437,0.12141407,0.071351476,-0.1750964,0.072394446,0.047853954,-0.031718582,-0.002131955,-0.046442878,0.004520818,0.018957527,-0.09472629,-0.026135622,0.03193331,-0.0008474138,0.008566164,-0.10595357,0.061473925,-0.18209043,0.12245704,0.028267577,-0.0050653103,0.050031923,-0.045675986,0.06082974,0.029141832,-0.09926628,0.053436916,-0.0024751385,0.06030825,0.008535489,0.09380602,-0.042608425,0.013543283,-0.063805275,-0.10534005,0.16343966,-0.17288774,-0.021150835,0.18478988,0.03656533,0.055338804,0.006971033,-0.061627306,-0.13742673,-0.08932738,-0.10736464,0.014601591,0.019187596,-0.052608676,0.033436418,-0.017577125,-0.015161421,-0.17742774,-0.11331571,-0.05181111,-0.22761305,-0.10693518,0.30503827,0.12711973,-0.10098411,-0.023512857,-0.13730404,-0.117733,0.021564955,0.09178143,-0.043037884,0.22295035,-0.26405567,-0.26626432,-0.13423648,-0.0003513316,-0.022899345,-0.0440195,-0.0069365227,0.014893009,-0.10994139,0.04963314,0.009701163,-0.12981918,0.120984614,-0.021212185,-0.10239519,-0.047301795,0.0069288537,-0.027439335,0.074050926,-0.021120159,0.0012452381,-0.02601292,0.020445295,-0.015560204,-0.0501853,0.09196548,0.034264658,-0.0727012,0.039724916,0.022868669,0.0020341766,-0.04006235,-0.07349876,-0.06736364,0.07067661,-0.13006459,-0.027071228,-0.02355887,0.02564481,0.026933188,0.047056388,-0.0071627554,0.11675138,0.0338352,-0.018574083,0.022408534,0.04963314,-0.050430708,0.036872085,0.025000624,-0.07362147,-0.018205976,0.060983118,0.04751652,0.052485973,0.03674938,0.0539584,0.019693743,-0.0778547,0.002914183,0.09135197,-0.01970908,-0.02300671,-0.013781019,0.09012495,-0.0061964737,0.0577315,0.02894244,-0.011142916,-0.007906639,0.13865377,0.009379068,-0.10503329,-0.0056864917,-0.06398933,-0.016227398,-0.021733671,-0.030384194,-0.004831409,-0.084296584,-0.028328927,-0.003805693,0.0012577001,0.011541699,0.083499014,0.027669402,0.0027377983,0.011633726,-0.068283916,0.18344016,0.10570816,0.0539584,-0.13386837,-0.039694242,0.10122952,0.06227149,0.00779544,-0.09116792,0.032914933,-0.0009020547,0.07374417,0.051136244,0.0652777,0.02279198,0.0072816233,0.0036465633,0.031212436,0.0121858865,0.032669526,-0.010260992,-0.021979077,0.011250281,0.017853206,-0.02404968,-0.04340599,0.057700828,-0.008167381,0.03585979,-0.09589196,0.00088815484,-0.024095694,-0.00465119,0.016319426,0.056443125,0.08987954,0.093131155,0.1152176,-0.0059050554,0.1651575,-0.0269792,-0.054142457,-0.013435918,-0.081044964,-0.027531361,0.08638252,0.054940023,0.038344514,-0.0022105612,-0.037792355,0.008627516,-0.001780144,-0.027101902,0.036013167,-0.031994663,0.05334489,0.04159613,-0.019110907,-0.07101103,-0.025417183,-0.051890593,-0.072636,0.022018295,0.01211277,-0.05790297,-0.00012737367,0.02998063,0.10253538,0.020393329,0.10524365,-0.014394494,0.033068065,0.0066928305,-0.004570218,-0.13292225,-0.0016909806,-0.050753117,0.045526143,0.114289306,0.049561474,-0.07507345,0.0036697157,-0.18827944,0.021544347,0.07794422,-0.032743074,0.009350328,-0.04411784,-0.1223058,-0.04465949,-0.029655637,0.022356829,0.016967358,-0.049398977,0.11168936,0.05216142,-0.13671383,0.061261233,0.06180289,0.11309766,0.06922357,-0.0077998387,-0.14473034,-0.0028843153,-0.080435835,-0.018186083,0.052486416,-0.028274415,-0.07783589,0.002549166,-0.055438437,0.05332598,-0.013446596,0.05909461,0.01748193,0.11385598,-0.022099543,0.096468836,0.13270558,0.07485679,0.03653466,0.011692988,0.028166084,-0.015085105,0.100043766,-0.14949691,-0.24504493,-0.052730158,0.06640696,-0.10556865,-0.08823568,-0.07046938,-0.058769617,0.043711595,0.004218142,-0.0642945,0.008828984,-0.022424536,0.10269788,0.047340687,0.029845215,0.055898845,0.0515656,-0.13313891,-0.0081857685,-0.00076551153,-0.028978568,0.03388055,0.005870191,-0.112772666,0.015829882,-0.026134877,-0.104431175,0.02237037,-0.0051118736,-0.016926734,-0.023670344,-0.11591427,0.040678326,-0.019851673,-0.08780235,-0.095168866,0.06992772,0.04279078,0.009891983,-0.19358766,-0.08092333,-0.034422204,-0.011997668,-0.18784611,0.039567932,0.08168165,-0.08438992,0.04140956,0.004563447,-0.028382747,0.031795174,-0.10286037,0.008280558,0.0066386648,-0.050238546,0.035722177,0.095168866,-0.037238814,0.023250561,0.027529638,-0.018822527,-0.03653466,0.0072243297,-0.037861716,0.056711327,0.009648238,0.036399245,0.042709533,0.06494449,0.06765277,0.021720383,-0.05224267,0.03623675,0.015030939,-0.008768048,-0.0058160257,0.015938211,0.025038024,-0.04168039,-0.026554659,-0.014110125,0.06640696,0.04376576,-0.044578243,0.056982156,-0.0075967177,0.04414492,-0.026798405,0.06380701,-0.066569455,-0.037347145,0.013135145,0.0057110796,0.01377159,0.02881607,0.010514887,0.039134607,-0.036670074,0.038538788,0.04541781,-0.025214061,0.01952668,-0.094789706,0.0025559368,-0.059527934,-0.01719756,0.032066002,-0.024834903,-0.024103668,0.0033227177,0.05040104,-0.048748992,-0.044713657,-0.077619225,0.03477428,-0.01592467,0.05115936,-0.027719218,0.033149313,0.0023562012,0.03350139,-0.018416286,-0.029357726,-0.032553494,-0.013446596,-0.006310286,-0.012288808,0.0111987265,0.07187768,-0.029222311,-0.0056095193,0.005636602,0.011564344,0.041734554,0.032770157,0.030143127,0.04089499,0.025078649,0.028139,0.01532885,-0.061857052,-0.016588198,0.008835754,0.017332975,0.059852928,0.043278273,0.08964398,-0.020014169,0.014435118,-0.050211463,0.0060868533,0.024983859,-0.013676801,0.11055188,-0.07393597,0.0062358086,0.058336295,-0.0014540064,-0.026784863,-0.0109820645,-0.06624446,-0.088506505,0.033095147,-0.0185517,-0.037347145,-0.027895257,-0.010007084,-0.040028337,-0.005030625,0.014922608,-0.10876442,0.0021801633,-0.056278,0.0029757197,-0.045526143,-0.03680549,0.02705569,-0.009831047,-0.025647387,0.036074255,0.028057752,-0.0008205234,-0.028761905,0.016154874,0.0205152,-0.033338893,-0.043278273,0.051051028,-0.07181776,-0.014324442,-0.0060927765,0.010963331,0.014886664,0.03666666,0.0063616657,-0.014947775,-0.052115545,-0.05895999,0.01739222,-0.014703331,-0.078808874,0.05939999,-0.054755546,-0.031386662,0.13815998,-0.04690888,0.026082218,0.02444444,-0.029504439,0.08599554,0.025837773,-0.037693325,-0.038451105,0.030311106,0.008653332,-0.009551665,0.05597777,0.09880443,-0.034002215,-0.021339996,-0.019885551,0.040651105,-0.095382206,-0.0048369435,0.016279997,0.0037858326,-0.014324442,-0.067173325,0.07093777,0.025617773,-0.055097766,0.03622666,-0.08379554,0.07875998,0.029088883,0.015008886,-0.06986221,-0.04646888,0.027939996,0.0019204164,0.006312777,0.0075166654,-0.044928882,-0.02064333,-0.038939994,-0.122417755,-0.0668311,-0.011415553,-0.067173325,0.053337768,0.017184442,0.07616887,0.014116664,0.09831554,-0.11312887,-0.05719999,0.029504439,-0.00044381936,0.026937773,-0.001827222,-0.035028882,0.08301332,0.021926662,-0.092693314,-0.10100443,-0.06668443,-0.0027927773,-0.09513776,0.045173325,0.0646311,-0.07201332,-0.097191095,-0.10207998,0.19330662,0.08198665,-0.010016109,-0.08007999,0.049426656,0.025202218,0.04360888,-0.00996111,-0.073039986,-0.098999985,0.0010534025,-0.0121244425,-0.10716443,0.00580861,-0.3737066,-0.045271102,0.064582214,-0.030506661,-0.0076938877,-0.009282776,-0.021816663,-0.058226656,-0.00072111096,-0.048473325,-0.00042663186,-0.20963551,-0.2553955,0.065364435,0.2035733,0.0059247212,0.069764435,0.023649996,0.06702665,0.049891103,-0.081791095,0.06511999,-0.0019876384,-0.13786665,-0.15135998,0.07509332,-0.0038897216,0.043242216,-0.09381776,0.027768884,0.033513326,0.03573777,-0.032853328,0.0063372212,-0.03573777,0.034857772,-0.011470553,0.0110244425,-0.14793774,0.036128882,-0.0006760415,0.03771777,0.008476109,0.004167777,-0.05191999,0.021547774,-0.07108443,0.03231555,-0.013749997,0.003138055,0.017269997,0.12515554,-0.050599992,0.05372888,-0.0041708327,0.003996666,-0.014825553,0.06912888,0.010327776,0.018748885,-0.010107776,0.06096443,-0.004705555,-0.010706665,0.012588887,-0.04822888,0.03016444,-0.06448443,-0.03473555,0.032339994,-0.05592888,-0.065608874,0.02279444,-0.07567999,0.0030265271,-0.030873328,-0.027182218,-0.078808874,0.02559333,-0.00068788184,0.092839986,-0.007864999,-0.023332218,0.045099992,0.013578886,-0.011867776,-0.030628884,0.009539443,0.041555546,0.10178665,0.010229998,-0.055537768,-0.0035352772,0.030922217,0.026057772,0.05372888,0.029651105,0.025617773,0.034613326,0.03512666,-0.012148887,0.16944885,-0.024481107,0.04458666,0.004167777,0.032828882,0.034711104,0.024346663,-0.07069332,-0.10951109,-0.019237773,0.016243331,0.03336666,-0.00726611,-0.051333323,-0.053973325,-0.11391109,0.07861332,0.07284443,-0.008139999,-0.00627611,0.056564435,-0.17463107,0.009851109,0.011824998,0.020716663,-0.054755546,0.018235553,-0.058666658,0.03368444,0.08555554,-0.039575547,-0.03402666,0.022586662,-0.029308883,-0.13571553,-0.07396887,0.054755546,0.064239986,0.051284436,0.029259995,-0.06917776,-0.013371109,0.019237773,-0.12153775,0.022488885,0.04365777,-0.10804442,-0.040211104,-0.01255222,0.0022611108,0.07900443,-0.0545111,-0.07509332,0.028159995,-0.020081107,-0.011714998,-0.0063477466,-0.069952495,0.03752199,-0.07973699,0.10528294,-0.08195068,-0.041993637,-0.11661701,-0.064329736,0.022092592,-0.06570222,-0.0049531236,-0.003168339,0.06397554,0.049453758,-0.036968566,-0.07809886,0.053438395,-0.019735016,-0.07756758,0.0084452145,-0.014422168,-0.057423033,-0.034223594,-0.07716911,-0.097402215,-0.09208936,-0.076460734,-0.07756758,0.04024482,-0.01476529,-0.083190344,-0.13202427,-0.1710737,0.02466047,0.03862883,0.0074656582,-0.10271506,-0.07818741,0.08575822,0.0036166105,-0.057555854,-0.021085365,-0.16452119,0.017122867,0.063178614,0.029397758,-0.009114855,-0.055917725,-0.13069606,0.033360258,-0.11378349,-0.061274845,0.06490529,-0.048568286,-0.05038351,-0.017964067,-0.029264938,0.01800834,0.038739517,0.04068756,0.016491966,0.008290256,-0.02727262,0.026187913,-0.080002636,0.118033774,0.0155732855,0.03271829,-0.0029054638,-0.063488536,0.025988681,0.035352577,0.01257374,-0.028689379,0.041418076,0.014211868,0.05481088,-0.0603451,-0.005113616,0.04265774,-0.017709494,0.029198527,0.00985644,-0.022236483,-0.067340344,-0.04296766,0.0038407464,-0.025900133,-0.005085945,-0.051180433,-0.051268984,-0.0017875519,-0.09226646,0.0689342,0.05064915,0.004396935,-0.105725676,0.1169712,0.032983933,-0.006541444,-0.045048524,-0.048966747,0.037898317,0.061761856,-0.05352694,-0.04017841,-0.067473166,0.030327506,0.05503225,0.10253797,-0.042392097,0.048789654,0.06888993,-0.037854042,0.037699085,-0.035153344,-0.10271506,0.019115184,0.04416305,0.012131003,0.044450827,0.1311388,0.037610535,-0.047461443,-0.095631264,0.007720232,0.034068637,-0.030903066,0.0227567,0.045336302,-0.08863601,0.05149035,0.015761448,0.05481088,0.047372892,-0.009535455,0.08770627,0.023155162,-0.01800834,-0.08451856,-0.038828064,-0.019524716,0.021561308,0.022502124,0.010570354,0.027737493,-0.03156717,0.009734687,0.042480648,-0.016923634,-0.0002371066,-0.040421918,0.044140913,0.06601214,-0.009790029,0.05883979,0.02006707,0.030836655,0.04380886,-0.021295665,0.01589427,-0.008959897,0.0014375128,0.05361549,0.007105934,-0.07101507,0.032895382,-0.028977158,-0.015827859,-0.04219287,0.014222937,0.0039209924,0.043343984,-0.0035861724,0.034710605,-0.1206902,0.046531692,0.030106138,-0.1134293,0.011411554,0.026807746,0.010348985,-0.023287984,-0.0069620446,0.0032900919,-0.04569049,0.08279188,0.039093707,-0.0005074185,-0.005008466,0.03234196,0.08057819,-0.079869814,-0.0016837853,0.01017189,-0.1393737,0.057732947,-0.05087052,0.023398668,0.06003518,0.06525948,0.0022814807,-0.05720166,0.12476338,-0.10599132,0.02063156,-0.0129500665,0.075752355,-0.042436372,0.013735926,-0.021727335,-0.048125546,-0.050781973,0.023752857,-0.025457397,-0.1050173,-0.07924998,-0.020786518,-0.0138023365,-0.002441973,-0.063178614,0.00409532,-0.09784495,-0.05587345,-0.09226646,-0.06729607,0.028158095,-0.0070339893,-0.09200082,0.044118773,-0.07283029,-0.023088751,-0.009020773,0.035795312,0.06711898,0.02132887,-0.023774995,-0.047284346,-0.11573154,-0.176298,0.008351133,0.0837659,-0.008566967,0.0011289802,0.03305034,0.042901248,-0.008412009,-0.006214925,0.01695684,-0.05835278,0.0943916,-0.046797335,-0.026940566,0.08004691,0.029132117,-0.045720514,0.027028387,0.022323128,-0.008932474,0.008277175,0.0072727418,0.03377474,-0.012031714,0.013385282,0.0047589727,0.008733735,-0.0059460304,-0.014975187,0.016382469,0.01845579,-0.12564547,-0.009023786,-0.011075622,0.045591604,0.062736794,-0.087788545,0.09401926,-0.048599534,-0.06436967,-0.1768662,-0.017220391,0.0003675984,0.028188588,0.0027715913,-0.015318951,-0.024965808,-0.022989169,0.076960005,0.030938694,-0.111379296,0.008551111,-0.03957575,0.02266689,-0.022473523,-0.030702356,0.06815107,-0.015383407,0.039167527,0.007492965,-0.011408644,0.008492027,-0.015995735,0.015630485,0.034870487,-0.047869034,-0.024965808,0.02836047,-0.030723842,0.006279051,0.028381955,-0.024084914,-0.07184652,-0.077475645,-0.056978762,-0.01312746,-0.04413061,0.011602011,0.066904925,0.13011439,-0.23083703,0.12289537,0.19010109,0.019315198,0.06840889,-0.040026937,0.09530836,0.005516326,-0.045419723,0.021474462,0.042626645,-0.018595444,-0.054013804,0.0010111474,-0.19078861,-0.40082797,0.014706623,0.006655042,-0.011344188,0.047954977,-0.10648067,-0.08413606,-0.07154573,-0.1966326,0.03822218,0.16328755,-0.035815835,-0.27174488,0.027200269,0.026512742,0.010962825,-0.026684623,-0.022366097,-0.19061673,-0.05134964,-0.021281095,0.07455366,0.04752527,-0.078592874,-0.009850966,0.0021176354,-0.1473885,-0.0017456729,-0.006832295,0.009372921,0.25421295,-0.02464353,-0.09324579,-0.10407433,0.071330875,-0.0040016193,0.019164803,-0.041638326,-0.01630727,-0.048126858,-0.00085873675,-0.01969119,0.030745327,-0.02930582,0.15357624,0.007014919,0.018992921,-0.1501386,-0.0023768006,-0.037019007,0.04045664,0.021495948,-0.01664029,-0.023311447,-0.024213824,0.027758883,0.0034268901,-0.065400966,-0.023289962,-0.05809599,0.032270778,-0.006085684,0.009716684,-0.04380833,-0.038329605,0.019100348,-0.04963082,-0.018552475,-0.008255689,-0.024428677,0.034612663,0.0047992575,-0.01489999,0.0135249365,-0.037061978,0.011537555,0.0060427138,0.03495643,0.013514194,-0.043743875,-0.010538492,-0.008470542,0.014212463,0.033538405,-0.07103009,-0.010559978,0.061490655,-0.010124902,-0.04073595,-0.017188163,0.0007022976,0.022065304,0.00061568536,-0.014276918,0.0750693,-0.0017161306,-0.021495948,0.07494039,0.008674651,-0.034655634,0.056334205,0.0055539254,0.012214338,-0.019712675,0.009260123,-0.0057687773,0.013138202,-0.008271804,0.039790597,0.032528598,0.02109847,-0.03231375,0.0069289785,0.017338559,0.0853822,0.0054921554,-0.009399777,-0.012547359,-0.0010118189,-0.04718151,0.009125841,-0.07872179,-0.014137264,0.044904076,-0.020862134,0.043829817,-0.013449738,-0.0020088665,-0.013675333,0.06699087,-0.0023620296,0.0131059745,0.018359108,0.03753465,0.011720179,-0.0252666,-0.0021659771,0.003120726,0.03059493,-0.028747203,0.017972374,-0.023590755,0.021162927,-0.026555713,-0.013718303,0.017392272,-0.026706109,0.036009204,0.0016704747,0.014932217,0.066518195,0.0110648805,0.0029864435,-0.027973736,0.0045306925,0.074123956,0.037620593,-0.03293682,0.050189435,0.049931616,0.009163439,-0.017821977,-0.0024425993,-0.02159263,-0.033087216,0.01411578,0.004659604,0.064928286,0.043077834,-0.010635176,-0.054099746,0.01077483,-0.018187225,-0.012031714,-0.0011588582,0.010850028,0.029005026,0.022035005,0.03268984,0.017032733,0.018583437,-0.04006819,-0.048196882,-0.009204179,-0.01024215,0.021659834,0.019896533,0.031639364,-0.034990884,0.008285011,-0.15587077,-0.030864013,-0.116753004,-0.0042831944,-0.009835715,0.0068531116,-0.019796487,-0.022122543,0.124956734,0.012455655,-0.03574123,-0.108149104,-0.032564785,-0.025586616,0.012305587,-0.06442925,-0.015644602,-0.008710205,-0.047121394,0.014218955,-0.01074863,-0.062428344,0.0084538385,-0.03686674,-0.012618229,0.012468161,0.024423588,0.11105042,0.02968848,0.05867664,0.012930871,-0.005552521,0.04371985,-0.09349245,-0.04191903,-0.0077097504,-0.13095945,0.0031717524,0.019483846,-0.04719643,0.03309002,-0.047846723,-0.015081847,-0.06432921,-0.073933564,-0.0035609917,-0.0830377,0.0075096595,-0.04369484,-0.035165966,-0.049197335,0.15737145,-0.023935867,-0.10834919,-0.020621862,0.033340137,-0.04797178,-0.07283307,-0.044395156,0.050347857,-0.06978168,-0.002460492,0.054374687,0.02251022,0.08839013,0.13846286,-0.00039627365,0.11595264,-0.0142689785,0.025424043,0.010811158,0.06863116,0.07238286,-0.044345133,-0.080186404,0.04832194,-0.04519552,-0.015782164,-0.02861299,-0.04194404,0.051823527,0.036766693,-0.041493837,-0.071582496,0.085138656,-0.1310595,-0.091041334,0.017282847,0.036641635,-0.04194404,-0.05372439,-0.10444742,0.06888127,-0.0046833763,0.04081853,0.024523634,0.08068663,0.03706683,-0.005621302,-0.027937684,0.05662571,-0.030363785,0.015982255,0.016382437,-0.023923362,-0.027437456,0.0030576382,0.017708039,0.03694177,0.0064904466,-0.25911763,-0.01724533,0.010892445,0.02169735,-0.04409502,0.008247495,-0.0398681,0.0063872747,-0.011467706,0.0056588193,0.038117304,-0.004151885,0.09304224,-0.039217804,0.038117304,-0.014769205,0.02693723,-0.011173823,-0.00086367334,-0.02861299,0.10684851,0.018095715,0.012130507,0.0021494133,-0.024623679,-0.011699062,0.053074095,0.04839697,-0.018120727,0.049347404,0.00021298732,-0.019984072,-0.034390613,0.007253293,-0.01649499,-0.032539774,-0.023248054,-0.04649611,0.0040268283,-0.04832194,0.017770568,-0.061527934,0.015106859,0.06032739,0.0040518395,0.0034797047,-0.034190524,0.07778531,-0.049972687,0.05262389,-0.025986798,-0.018533414,-0.05502498,-0.005092937,-0.0019946557,-0.00433947,-0.07773529,-0.023685753,-0.04777169,-0.0050585466,0.026962241,-0.07518414,-0.011699062,0.019546375,-0.015907222,0.019658925,-0.02123464,0.006087139,0.0036766692,-0.0048209387,0.029963603,0.009172915,0.03361526,-0.0031498675,-0.017470432,0.0867894,-0.04171894,-0.05777623,-0.01268701,0.08683942,0.004545814,0.057075914,0.09079122,-0.03509093,-0.04814686,0.021109585,0.013806269,-0.059527025,-0.0052086147,-0.0014881756,0.006477941,0.081687085,0.07063207,0.008360046,-0.0053618094,-0.060477458,0.0016695079,0.0039424147,0.041768964,0.015094353,-0.019108675,-0.012880848,0.016582528,0.029863559,-0.018733505,-0.0066530206,0.024948826,0.03654159,-0.0059276912,-0.041593883,-0.02563664,0.056025434,0.041969053,-0.029463377,-0.041218713,0.054374687,0.0150568355,0.11565251,-0.0295134,-0.030663922,0.012499425,0.01568212,0.013318547,-0.010829917,0.053624347,-0.0048459503,0.03599134,-0.032514762,0.0008574205,-0.012211794,0.0036110145,0.025273975,0.004883467,-0.036415022,0.16471042,-0.062555715,0.013384729,-0.02878954,0.08182009,-0.008956597,0.069351755,0.038261194,-0.030341394,0.016495124,0.054903474,-0.11804782,0.14223531,-0.075077556,-0.077753164,-0.08722482,-0.02709053,-0.03480966,-0.06592698,-0.19553342,0.045217775,0.06496376,0.042542167,-0.010073664,0.022408215,0.09573325,0.18429588,-0.092629544,-0.114944115,0.07620131,0.023933312,0.023344679,-0.1368841,-0.12607464,-0.12885727,0.049605772,-0.019197486,-0.11890402,0.09707105,-0.023371436,0.041685972,0.0026873136,-0.10969993,-0.20184787,0.021057034,-0.055438597,-0.087599404,0.067585856,-0.0008545223,0.021177437,0.027532006,0.04224785,0.017766036,0.056936935,-0.11226851,0.069351755,0.026528653,-0.15914516,-0.16396125,-0.042007044,-0.07443541,0.017511854,-0.04264919,0.012816162,-0.14512497,-0.13891757,0.026421629,0.0981413,-0.04222109,0.05950552,-0.060950346,-0.08503082,0.0391709,0.017752659,-0.04066924,-0.0849238,-0.0017424896,-0.00021028606,0.008709104,-0.08577999,-0.03537154,-0.046823137,-0.06464269,0.04374619,0.06341191,-0.12532547,0.061592493,-0.037966877,0.1941421,0.06876312,-0.008367964,0.01555866,-0.0075652814,0.03242837,-0.004374619,-0.05656235,-0.011551937,0.09150579,-0.104241684,-0.020281108,0.032187562,0.10156608,0.09145228,-0.0031271167,0.2152259,0.022903204,-0.071866825,-0.096749984,0.0013269343,8.194049e-05,-0.050007112,-0.06143196,0.082622774,0.04449536,-0.14854975,0.011518492,-0.13549279,-0.02592664,-0.16620876,-0.08380004,-0.12543249,0.064375125,-0.06651561,-0.06721127,0.024575459,0.026381494,0.12864323,-0.07646888,-0.0345421,-0.05383323,0.041043825,-0.03895685,-0.05800718,0.010408115,-0.017659012,0.028093884,0.036388267,0.028468467,0.0002341157,0.013712491,0.06828152,-0.01958545,0.111626364,0.09557272,0.03111732,-0.054609157,-0.035532072,-0.015986757,0.046180993,-0.015291099,0.024789507,-0.052094087,-0.06282327,0.0020618904,-0.019612206,-0.15839599,0.031037051,0.04858904,-0.032321345,0.024950044,-0.058328252,-0.079144485,-0.029993564,-0.037859853,-0.0055251303,-0.029726004,-0.050943576,-0.0402679,0.051906794,-0.037645802,0.0023461736,0.03794012,-0.09230847,0.000321282,-0.0015342939,-0.016936598,-0.04032141,-0.05351216,0.085084334,0.026568787,-0.048803087,0.026916616,0.033418342,0.09642891,0.058114205,-0.04872282,0.03719095,0.05444862,-0.055492107,-0.070422,-0.008468299,-0.036468536,0.011324511,0.00996664,0.071064144,-0.10038881,0.17990787,0.06025469,-0.064428635,0.055438597,0.03290998,-0.040053852,0.0031940069,-0.054582402,0.020080438,0.0011429862,-0.07989365,0.090167984,0.035853148,0.06710424,0.0124148205,0.01412721,0.0391709,-0.14673033,0.033739414,0.019170731,0.013438241,-0.0016764356,-0.022501862,0.22282463,-0.19970737,0.010093731,0.0070435377,-0.033338074,0.034675878,-5.4348286e-05,-0.066141024,-0.10440222,0.09348574,0.024107227,-0.025712593,0.10060286,-0.034167513,0.16781412,-0.06485674,-0.0031371503,0.090167984,-0.1417002,0.040134117,0.021913229,-0.100121245,-0.0038796314,-0.07909097,-0.021819582,-0.009491719,0.0011772675,0.025284495,-0.01699011,0.052174356,-0.06699722,0.0506225,0.037137438,-0.10643568,0.04872282,-0.0016363014,0.15386352,-0.035231363,0.1647116,0.09763268,-0.034659103,0.0389635,-0.018772643,-0.022741148,0.09280578,0.012471555,0.04752253,0.011718907,0.128485,-0.039709926,0.017142944,-0.19317536,0.018324787,0.036848623,-0.027568044,-0.08021604,-0.008714537,-0.033439938,0.08185818,0.084595084,-0.16789636,0.08245532,-0.01622235,0.024681859,0.019357346,0.05921656,-0.025154596,-0.21716055,0.035579696,-0.015326639,0.12181692,0.09997148,0.07653367,0.0030090346,-0.08036533,0.007520254,0.16361684,0.048791457,0.04747277,0.032544225,-0.00082106993,-0.03732136,-0.060311317,-0.012415572,0.016869254,-0.062202267,0.10639076,0.14440878,0.011625604,-0.04911491,0.00013937196,0.044561703,0.08658555,-0.11086932,0.012129442,-0.10380314,0.052100617,0.041874565,-0.07389629,0.08464485,-0.020787997,0.04538277,-0.1647116,-0.031648513,-0.08812817,-0.009448525,0.009230817,0.017329551,-0.01622235,-0.04687563,0.016856814,0.05787299,-0.0054551386,0.039560642,-0.08922293,0.009697333,-0.09106412,-0.049637407,-0.0014905218,-0.03520648,-0.078573905,-0.022056924,-0.08295294,-0.015513245,-0.05274752,0.018561156,-0.09813029,0.048940744,-0.036674455,-0.028115425,-0.033240892,0.015015627,0.005514231,0.037694573,-0.0037165855,0.09862791,-0.02935947,-0.03237006,0.040754925,-0.07847438,0.0043977,-0.29040995,0.0136720585,-0.0956422,-0.0648894,-0.06583488,-0.036400765,0.03421125,-0.047671817,0.026423523,-0.03841612,0.0439148,-0.06727797,-0.00062241143,0.019295143,0.0041520013,-0.0020713354,-0.01757836,-0.05239919,0.14062688,-0.05025943,-0.02169615,0.036574934,-0.009479625,0.013895987,0.038615167,0.089123406,0.12938072,-0.01920806,0.008982007,-0.038441002,-0.031748038,0.0037041449,-0.05130443,-0.026672332,0.013547653,0.040406592,0.05762418,-0.021099009,-0.06936797,0.011631824,-0.06454107,0.053643234,0.016309435,-0.06493916,0.048990507,-0.008048973,-0.0012160543,-0.016695088,0.015040508,0.08001699,-0.0009921262,-0.00850927,0.03650029,0.011507419,-0.04418849,-0.028936494,0.005921656,0.042297542,0.024010075,-0.106888376,0.09285554,-0.027244592,-0.0013855555,0.0023481355,-0.006394393,-0.08016628,-0.056827992,0.028314471,-0.021447342,0.06180417,-0.009224596,-0.017192706,0.04826896,0.004876658,0.004606078,0.04284492,-0.033041842,-0.05379252,0.027518282,0.031971965,0.065387025,0.011171527,-0.006257548,-0.036027554,0.008347544,-0.022467459,-0.010481082,0.09763268,-0.049836457,0.02193252,-0.015973542,0.013000274,-0.033315536,-0.022579422,-0.080265805,-0.0110968845,0.031947084,-0.09599054,-0.022678947,-0.033390176,-0.047945507,0.018735323,0.02911066,-0.04224778,-0.03548017,0.08355008,-0.030304944,-0.04063052,0.06946749,0.026846498,0.025453167,-0.011028462,-0.01592378,0.0202655,-0.028637923,-0.028613042,-0.051254667,3.557192e-05,-0.025726857,0.037570167,-0.034261007,0.039486,0.07379677,-0.010182511,-0.015724733,0.039685044,-0.012975393,-0.026323998,0.014020391,-0.030304944,-0.176953,-0.02499287,0.10758504,-0.046900507,0.11574598,-0.025726857,0.061107505,-0.055036563,0.05702704,-0.020476986,0.074792005,0.11574598,0.049861338,-0.05324514,0.056628942,-0.005791031,-0.04142671,-0.07091058,0.04224778,-0.014331402,0.0697163,0.050878294,-0.09403592,-0.09212745,0.011548461,-0.076599374,-0.04680109,-0.060811054,-0.006207976,-0.06189542,-0.024116224,-0.008083924,-0.02691388,-0.061201427,-0.032661002,0.00690739,-0.08106695,-0.059119448,-0.01282801,-0.008853821,0.07087394,-0.0962914,0.066015996,-0.03899368,-0.010214696,-0.052613273,-0.05235303,-0.007807411,0.019670337,-0.10444581,-0.026545197,-0.069225706,-0.08796349,0.003011817,0.009916496,0.01163521,-0.015170233,-0.011233997,-0.014140088,0.06935583,0.0010409881,0.0022419197,0.0010145567,-0.021307725,0.026675321,-0.005720013,0.03348512,0.10435906,-0.0138906855,-0.026805444,-0.045109484,-0.06926908,0.035480343,0.01219908,0.0590327,-0.012687042,0.012600293,-0.0025550295,0.018249823,0.01800042,0.018857066,0.029147668,-0.010388194,0.055432618,-0.008674901,0.07087394,0.030123593,-0.04072866,-0.027087377,0.087573126,-0.033832114,-0.016005192,-0.048275825,-0.006245929,0.035350222,0.0031094097,-0.025200587,-0.0023015596,-0.026176514,-0.019713713,0.003914549,0.11667742,0.09099971,-0.053090394,0.120928116,0.003282908,0.019453466,-0.04562998,-0.011971363,-0.017544987,0.03463454,0.052613273,0.0005933497,0.023010174,0.03519841,0.035827342,-0.051962655,0.00637063,-0.079028346,-0.025590958,0.084883906,-0.057818215,0.014302743,-0.058382083,-0.06271953,0.05673385,0.017273897,-0.03092602,-0.014335274,0.10947725,0.020895667,0.09880712,-0.032509193,0.02281499,0.07664275,-0.019930584,0.06271953,0.040772036,0.025547583,-0.03465623,0.0057850746,-0.023855977,0.0071730586,-0.06939921,-0.117024414,0.0076664435,-0.0068802806,0.030557338,-0.033203185,0.0241596,-0.07911509,0.019822149,0.06909559,-0.06527863,-0.014389492,-0.0745174,-0.00027854566,-0.009114068,-0.032053757,-0.04923006,-0.08627189,0.029689848,-0.021936655,0.014508772,-0.10331807,0.010350241,-0.020310111,0.035306845,-0.039037053,0.047798704,0.04706134,-0.023942726,0.016612435,-0.027803058,-0.038928617,0.018922128,0.030535651,0.045326356,-0.04350463,0.02676207,-0.03489479,-0.019485997,-0.018683568,-0.006582081,0.092994936,0.007574273,0.008788759,-0.029733222,0.0013053014,0.0073194476,0.02580783,0.058121838,0.009504438,0.00030802676,0.09932762,0.015322044,-0.022207746,0.056690477,-0.020429391,0.0059314636,-0.004372692,-0.024983715,0.059162825,-0.0503578,0.036890015,-0.0126328245,-0.013120787,0.029342853,-0.0071242624,0.03151158,-0.0024018632,0.061548423,0.015810007,-0.053133767,0.008826711,-0.038928617,0.11155923,0.08592489,0.058121838,-0.0090706935,-0.0007563429,-0.0019410091,0.032248944,0.009824325,0.017913671,-0.008154407,-0.0072598075,0.034461044,0.034287546,0.030340467,0.02880067,-0.033897176,0.034677915,-0.0154955415,-0.02888742,0.047321584,0.038278,-0.020451078,0.024333097,0.032704376,-0.01468227,-0.002176858,0.04105397,0.013185849,-0.024680093,-0.008186937,0.025460834,-0.013175006,-0.021253508,0.022359557,-0.13012351,-0.013066569,-0.019919742,0.017295584,0.028757297,-0.0251789,0.061765295,-0.07182818,0.02574277,-0.024658406,0.046670966,-0.0012415951,0.0459336,-0.046497468,-0.0026417784,-0.020505296,0.00068958686,-0.0015153968,-0.01788114,0.027260875,-0.014389492,-0.039167177,0.008533934,0.013120787,0.05278677,0.0032341115,0.06432439,-0.029064046,0.01233827,0.0037027493,0.045168467,0.08379372,-0.003208204,0.00899692,-0.005189555,-0.05341089,0.058229536,0.045903947,-0.019287266,0.06299746,-0.022660319,-0.06538142,-0.12812527,0.01311179,0.04793285,0.025272531,-0.029444465,-0.14455938,-0.10803912,0.15186344,0.13289319,-0.124473244,-0.05143271,-0.0066066175,-0.06791755,-0.10996658,0.0020273186,0.051001567,-0.10428565,0.03837164,-0.027948149,-0.066852376,-0.037103575,-0.008381909,0.02835393,-0.044788048,-0.040755603,-0.0036108145,0.049555972,0.007912724,-0.027364839,-0.057925202,-0.09393824,0.09358318,-0.032208845,0.018995611,-0.018551787,0.033197936,0.03225957,-0.06796827,0.040755603,0.003030675,0.050190005,0.042530894,-0.077301234,0.013847267,-0.0019227032,-0.05417173,0.028100315,-0.13776256,-0.013720461,-0.290539,-0.1558198,-0.16302241,0.0016342185,-0.022203814,0.06822189,0.015546475,0.028886516,-0.02349724,-0.09449619,0.044382267,-0.02954591,-0.0073674563,-0.11970532,0.03347691,-0.15521114,0.03778833,-1.1689973e-05,-0.004872539,-0.022292579,-0.06857695,-0.05828026,0.067765385,0.1241689,-0.014557384,0.04808502,0.0007687643,-0.020529969,-0.006375196,0.041795418,0.04461052,0.028151039,0.034364555,0.046867676,-0.05599774,0.061729394,-0.013428806,0.033552993,-0.072482586,-0.054526787,0.11169115,0.02545006,0.03578479,0.016522884,-0.04245481,-0.09267017,0.04209975,0.04199831,-0.058990374,-0.10032929,-0.09672798,0.03776297,-0.059193265,0.054881845,0.009085684,-0.05914254,-0.008534076,-0.06680165,-0.04757779,0.13735677,0.025513465,-0.0884602,-0.2676124,-0.037661526,-0.031574816,-0.021113278,-0.018222092,0.083438665,-0.033324745,-0.038980313,0.031524092,0.02797351,0.008457992,0.01075953,-0.035886236,-0.00081235403,0.052345715,0.023814257,-0.04755243,-0.0410853,0.110473804,-0.005379765,0.01799384,0.015419668,0.06010627,-0.035657983,0.03327402,-0.02486675,0.07963447,0.016928665,0.046259005,-0.020174911,0.03717966,0.026096774,0.08830804,0.011691557,-4.557108e-05,-0.029495187,-0.008445311,-0.0008464333,-0.036089126,-0.03776297,-0.0033318403,0.03033211,0.01292158,0.0422012,0.1043871,-0.011907129,-0.0027104886,0.010702467,0.036926046,-0.009428062,-0.053867392,0.0026661062,0.0075259646,-0.023332393,0.017930437,-0.061780117,-0.025538824,0.061070003,0.0062071774,-0.019908618,-0.08379372,0.0060423287,0.040654156,0.016954027,0.030230666,-0.028328568,0.0700479,0.025158405,0.031853788,0.073497035,0.006419578,0.005991606,-0.016801858,-0.011678877,0.07562739,0.009320277,-0.016307313,-0.041744694,0.042150475,-0.00899692,0.04892194,-0.082119875,0.011983212,0.041846137,0.021772673,0.011888107,-0.0066953823,-0.018729318,0.00094629335,-0.05003784,0.05848315,0.01192615,0.09627148,0.018298175,0.028886516,-0.03269071,0.019084375,0.04717201,0.0056619095,0.05062115,-0.005598506,0.021240085,-0.020010063,-0.038118027,0.032716073,-0.054678954,0.0067968275,-0.00073468505,-0.08435167,0.016713094,0.040273737,0.023028057,-0.07603317,0.015381626,-0.09890906,0.0026930526,0.011723259,-0.033299383,-0.017740227,-0.021823395,-0.017790949,0.019223863,0.034161665,0.045346,0.102662526,0.0061406037,0.015901532,0.02329435,-0.0034332855,0.01467151,-0.08217055,0.0235326,-0.2018224,-0.013528241,-0.011599449,0.04928097,-0.10128494,-0.05429984,-0.06732753,0.03443795,-0.041912854,-0.086228356,0.004955461,0.18644546,-0.032355655,-0.09268881,-0.12269521,0.0098708775,-0.031047547,-0.05910513,-0.01835356,0.01002438,0.0045984006,-0.049334366,-0.08681567,0.06631307,-0.031394597,0.064123996,-0.0415925,0.0009677331,0.03435786,-0.14116889,-0.023505904,-0.040631443,-0.043114178,-0.0024577084,0.028484723,-0.010571649,0.057022836,0.0027880725,-0.09930944,-0.045863874,0.00073706225,0.11041501,-0.025187757,-0.015310205,-0.054460015,-0.019007612,-0.031047547,-0.043754883,0.09076669,-0.08788351,0.08569443,-0.03198191,0.008128958,0.034197684,-0.15772048,-0.12055952,-0.00030137377,-0.13123795,-0.029472478,0.08585461,-0.019901931,-0.049494542,-0.02939239,0.04807965,0.0381754,-0.06711396,-0.12589873,-0.021610482,0.00020939742,-0.003473828,0.039830558,0.09706697,0.009810811,-0.099095866,-0.0132813025,-0.06444435,-0.044368893,-0.005068919,0.040951796,0.06561898,-0.05093613,-0.07934076,-0.14501314,0.010137838,-0.10075103,-0.019608274,0.03395742,0.11244391,-0.051576838,0.19360001,0.085961394,-0.01807325,-0.053685825,-0.035959627,0.00921015,0.15953581,0.027189963,0.07015731,-0.05750337,0.0035972975,-0.0070010484,0.06855555,-0.06193492,-0.12130701,0.021236736,-0.06198831,-0.002681288,-0.14202318,-0.079607725,0.15707977,0.018633867,0.018940872,-0.06620629,-0.1206663,0.06492488,-0.047705904,-0.066526644,0.01827347,0.044235412,-0.05830425,0.03804192,-0.011038831,-0.11361854,0.041432325,-0.040631443,0.037214343,-0.0033269997,-0.0057530063,-0.014162273,-0.033290017,-0.06300276,-0.031207724,0.080462,-0.004681826,0.072293,0.016725097,-0.018994264,0.029072037,-0.04677154,-0.0715989,0.037668176,0.010918699,-0.07079802,0.022691673,-0.07154551,0.029152125,0.07384137,-0.0048787096,0.014482626,0.022851849,-0.031341203,0.0681818,0.059639055,-0.02720331,-0.08574782,0.048319913,-0.022731716,0.03756139,-0.043327745,0.04928097,0.01827347,0.0064137345,0.021250084,0.024787314,0.111803204,0.042393383,0.046611365,0.046264317,-0.17790271,-0.0051823775,-0.0063369833,-0.0071812468,-0.0094370665,-0.06519184,0.042500168,-0.051977277,0.013828572,0.06396382,-0.00022524822,-0.043114178,0.031020852,0.04255356,-0.069036074,0.0064571155,-0.008829731,-0.05448671,-0.014576063,0.042954,0.021810701,-0.0027296748,-0.16006972,0.07122515,-0.05686266,0.0014591079,-0.0123335915,0.0019788472,-0.101498514,0.077311866,0.07426851,0.011692885,-0.14565384,-0.024400221,0.013788528,0.0020072118,0.04391506,0.028751684,0.11639493,0.027603753,0.055954993,0.048400003,0.047225375,0.08783012,-0.060172975,-0.04193955,0.042580254,-0.012994319,-0.06524523,0.03553249,-0.05400618,0.042793825,0.03198191,0.05563464,-0.016351352,0.010478213,0.117035635,0.008222395,0.010571649,0.02713657,-0.032489136,0.0143624935,0.042660344,-0.029632654,-0.0009151752,-0.086174965,-0.027870713,0.077311866,0.045516826,0.08644193,-0.107958965,-0.0063136243,-0.03694738,-0.09663983,0.02570833,-0.07805935,-0.012520464,0.08783012,0.03900298,0.035025265,-0.021930834,0.036306676,-0.08665549,0.026615998,-0.043034088,0.048533484,0.14520061,-0.0010828925,0.027118819,0.14052358,0.22003314,0.012828623,0.064628094,-0.030134974,0.22045833,-0.15391691,0.028327938,-0.022388637,0.08509011,-0.012197489,-0.0070554106,0.015107348,0.03345673,0.016250033,0.03398821,0.08429289,0.23321387,0.03180914,-0.07371642,-0.008882376,0.1260673,0.120539896,-0.019266186,-0.112142496,0.1233036,0.035662375,-0.006138606,0.0062648323,0.059100688,-0.08891677,0.11958323,-5.667747e-05,0.009314205,0.022614518,0.096676394,-0.006640191,0.05431736,0.07552345,0.040631723,-0.113736935,-0.05131449,-0.08089141,-0.09497566,-0.05553977,0.066116236,-0.026427893,-0.02666706,0.13127582,0.045547925,-0.054795694,0.06271476,-0.15742467,0.015040913,-0.030161548,0.3305812,0.066381976,0.04541505,-0.0021840548,-0.015399663,0.085993625,-0.008703002,0.044777274,0.016050726,-0.08094456,0.09040492,-0.031171361,0.043767463,0.04140237,-0.56719655,0.083283074,0.022906832,-0.061545502,-0.04257163,0.006753131,0.052404027,-0.02872655,-0.1314884,-0.032579787,0.022122897,-0.08806641,0.0060588834,0.0993338,-0.1424369,-0.020315861,0.018375956,-0.14892098,-0.009945339,-0.104542315,0.043581445,-0.026946088,-0.025232062,0.022481646,-0.006218328,-0.03672534,0.1261736,0.035077747,0.0033666,-0.005723386,0.014084247,0.028912567,0.057612542,-0.066807166,0.041163206,0.058888096,-0.05333412,0.010204435,-0.027211828,-0.061279763,-0.053759307,-0.029470623,-0.040365983,-0.0091016125,-0.008862446,-0.04533533,-0.0057698907,-0.17156208,-0.008463835,-0.05936643,-0.19834872,0.050676715,-0.0030311027,-0.057612542,0.007859276,-0.03675191,-0.012815336,0.050331254,-0.0026491007,0.010410384,-0.06404346,-0.01915989,-0.018747993,0.020555029,-0.008656497,-0.012204133,-0.019399058,0.0056536295,0.035795245,-0.0101446435,-0.034147654,-0.03680506,-0.013253808,-0.028965715,0.029523771,0.0099386955,-0.0046571023,0.007925711,-0.027238403,-0.059472725,0.033377007,0.0026474397,-0.006367807,0.021764148,-0.01741929,-0.0018003919,-0.046451442,-0.009108256,-0.022840397,0.020276,-0.008244599,-0.006613617,0.009081682,0.035901543,0.02331873,-0.055646062,0.016529059,-0.011526494,-0.0009159743,0.01185867,-0.044378664,-0.03962191,0.028354513,-0.009387284,-0.033164416,0.0036140708,-0.004677033,0.049826346,-0.014722024,-0.012290498,-0.023478175,0.022680953,0.025364932,0.01541295,-0.019598363,0.009234482,0.02362433,0.024102664,-0.018243086,0.0032137993,0.03212803,0.015705263,0.016635356,0.025178913,0.0008046955,0.09295603,0.007048767,-0.02505933,-0.010224367,-0.00703548,-0.008550201,0.014908043,-0.046478014,0.046238847,0.030320993,0.007865919,0.0118786,-0.024115952,-0.02456771,-0.05011866,0.03252664,0.007799484,-0.052749492,0.013340173,0.0102908015,-0.013659062,0.03595469,0.024394978,-0.06686031,0.0019448884,-0.0009300918,-0.0049826344,0.02814192,-0.042412184,-0.020847343,0.041349225,-0.014934616,0.002087724,-0.053440418,0.014389848,-0.005686847,0.03622043,-0.039276447,0.0005269136,0.045547925,-0.0074340906,0.024182387,0.030427288,0.037522558,-0.018841002,-0.030799326,0.033430155,-0.023890072,0.02282711,0.06781698,-0.025497802,-0.014031099,-0.003135738,0.068826795,-0.027171968,0.08647196,-0.011167745,0.014323413,0.022255767,0.043117054,-0.13075064,0.034003828,0.038618755,0.001423421,-0.07030679,-0.09929585,-0.047182187,-0.0073763817,-0.06580849,-0.023940962,-0.062576376,-0.011220763,0.0094547635,-0.0961637,0.11568966,0.14128,-0.051147357,-0.07597132,-0.14154656,0.07683766,-0.018293094,-0.026390037,-0.024490753,0.015869008,-0.010279452,0.03935181,0.0956972,-0.029822074,-0.018426377,0.0301053,-0.04278385,-0.0061226883,0.03322079,0.10975856,0.07950332,-0.11648935,-0.027989432,0.18219788,-0.0062934575,0.02249151,-0.027756188,0.062609695,0.091232225,0.12022128,0.00075804716,-0.12195396,-0.1133572,0.022408206,0.03268766,0.082568824,-0.07330566,0.06011064,0.08390166,-0.011795547,0.010271123,-0.03185464,0.045249585,-0.1506098,0.033937186,-0.13928075,0.01681865,-0.035086755,-0.047448754,0.04648245,-0.04551615,-0.0025636156,-0.011312396,0.021158678,-0.04691562,0.0059394245,0.019792527,-0.025040546,0.06017728,0.042517282,-0.016377151,0.098096296,-0.05567898,-0.0992292,-0.019725885,-0.50967425,0.121754035,0.124486335,-0.014786084,0.026756566,-0.17193508,-0.025123848,-0.01505265,0.09529736,-0.13274989,-0.11462339,-0.0019503053,-0.062243167,-0.019742547,-0.2525713,-0.013753141,0.016235538,-0.11675592,0.024157546,-0.009138216,0.0557123,0.04474977,0.010737613,0.040518038,-0.059044376,0.019342698,-0.042750526,-0.03975166,0.14114672,-0.14541177,-0.108692296,0.1106249,-0.016452122,0.016960263,-0.10942535,-0.026606621,-0.010770934,-0.022674773,0.074172,0.061843317,0.04021815,0.07677101,0.067108,-0.048814904,-0.103094414,-0.014003047,0.0075888014,-0.09696339,0.004964792,-0.074838415,0.034520302,0.041684262,-0.06494215,-0.08323524,-0.010679302,-0.03183798,0.022075,-0.0513806,0.026006848,-0.081902415,-0.104560524,0.053413168,0.02072551,0.039551735,-0.08310196,-0.0831686,-0.046149243,-0.043916754,0.036286302,0.003596559,-0.06014396,-0.03488683,0.00242825,-0.07203947,0.07703758,0.041750904,0.08250219,-0.022774735,0.03851879,0.01672702,0.113490485,0.03498679,-0.05298,0.0155691225,-0.0145694995,-0.09089901,-0.0036652829,0.002813521,0.015993962,-0.033054188,-0.112224296,-0.027789509,0.029022377,0.051847093,0.02742298,0.006181,-0.087100446,-0.029555509,0.019092793,0.025007226,0.06750785,0.06767445,0.014436216,0.028039414,0.044483207,0.0082760425,-0.037419207,-0.015302556,0.07024015,-0.03615302,0.010429396,-0.031004962,0.0060268915,-0.081102714,0.030271905,0.05397962,0.049248073,-0.027689546,-0.0026885683,-0.025990188,0.02653998,0.043183696,0.06104362,-0.022924678,0.1475443,0.017026905,0.012137084,-0.013519896,-0.05364641,-0.00057790685,0.059744112,0.0018513844,0.0780372,-0.162472,0.015827358,0.073972076,-0.0239243,-0.040618,0.06560856,0.005493759,-0.06997358,-0.18486354,0.013220009,0.02832264,0.07763736,-0.013161697,0.032537717,-0.023574432,0.0023532782,-0.035619885,0.001579612,0.0610103,0.041684262,0.00028426768,0.032637678,-0.02872249,-0.0066183344,-0.08030301,0.0637426,0.026373377,-0.112024374,0.019242736,-0.0031154905,-0.015402518,0.015777377,0.11195773,-0.039185207,-0.035986412,0.02249151,0.01672702,0.14954354,-0.06564189,-0.03262102,-0.0037256768,-0.042384,-0.052846715,0.080722705,0.13815603,0.028113628,0.09565287,0.0139736375,0.085338995,-0.019775191,-0.017342282,0.017654194,-0.058473017,-0.043709204,-0.036223326,-0.053731963,-0.13366449,0.02761457,0.008572369,-0.11860956,0.041629795,-0.007038804,-0.10629945,-0.14514284,-0.0010559505,0.1092938,0.12276839,0.18698058,0.008556773,-0.04612132,0.04466573,0.0026980347,0.007948546,0.04470732,0.05011379,-0.030920831,-0.2704897,-0.0103814555,-0.038281944,0.11885909,-0.0342063,-0.0366808,0.012102168,0.0042757876,-0.010594595,0.07402701,-0.03755415,0.059887018,-0.18381988,-0.024037983,0.027240274,-0.11578157,-0.16876493,0.01886025,-0.040215794,-0.011322389,0.009242979,-0.016448135,-0.09032958,0.06870372,-0.07032566,0.03345771,-0.15612212,0.14273073,-0.0260966,-0.12526368,-0.084465645,-0.01781015,-0.14497648,-0.30742002,-0.15628847,0.023289395,-0.08350912,0.0024809963,-0.008650347,-0.025701512,-0.092159465,-0.0987304,0.060136545,0.034497418,-0.059595898,-0.28962028,0.011218418,-0.3262179,-0.085921235,-0.020960456,-0.046038143,-0.058473017,-0.15886694,0.1117891,-0.10455275,0.12293474,0.09581923,0.059471134,-0.12418238,-0.04129709,0.04202488,-0.12043945,0.024100365,0.015044534,0.2506937,0.015917886,0.19097304,7.3429175e-05,0.028716655,-0.20178598,0.029818743,-0.10322193,0.119274974,0.02559754,-0.0916604,-0.1554567,