#pragma once

#include "parameters.h"

#ifndef KERNEL56_H
#define KERNEL56_H

static float bias56[FEATURE_MAP56] = {-0.055974036,-0.54437745,-0.67905015,-0.6777837,0.5245895,0.46895307,0.9748388,1.2486614,0.21165511,1.4792224,0.03663315,-0.0054889023,0.40643656,-0.6418797,2.264277,-0.06226574,0.38588524,-0.63378435,-0.57318735,-0.5143444,0.20381013,1.4799297,0.8174979,-0.009312495,-0.344806,0.36385977,0.49927464,-0.47010309,1.0045872,0.450967,0.99727,-0.18165493};

static float kernel56[FEATURE_MAP56][IN_CHANNEL56][KERNEL56][KERNEL56] = {0.024902238,-0.17037591,0.28049088,0.08117386,-0.046608068,0.14202948,-0.04556738,0.5383839,0.12240503,0.25947884,-0.22637497,-0.40240034,0.19198263,-0.46979746,-0.38079363,-0.042742647,-0.17701651,0.91342896,0.032013625,-0.24163844,0.018571371,-0.19614539,0.41389748,-0.053967237,-0.09381082,-0.04372538,-0.045596182,-0.12303266,-0.07211753,0.021422502,-0.06485442,-0.092146106,-0.34276003,-0.28421497,-0.1356514,0.37093207,0.38090968,0.45750245,0.4123098,0.28670937,0.0796741,0.15670706,0.3301413,0.24709241,0.13403736,0.010656227,-0.13763224,-0.057297856,-0.03182195,-0.05905861,0.010992659,0.008643321,0.036143664,0.051448636,-0.02809235,0.24727252,0.17338988,0.17727844,0.18874471,0.25385314,-0.052944236,-0.037315216,-0.17628138,0.04678735,-0.14287965,0.11127263,0.13839285,-0.08514949,-0.019056436,0.1482638,0.021511711,0.033451583,0.006418616,0.015142949,0.04693691,-0.146629,0.124930546,-0.49533865,-0.014095781,-0.15397142,0.088985614,0.2943539,0.42279127,0.4429555,0.05487629,-0.4848182,0.075835034,0.5496944,0.18893005,-0.55758476,-0.0556982,0.18049176,-0.488325,0.2581898,-0.06909536,-0.007835556,-0.113095015,-0.20547786,-0.19528617,0.056218743,0.0423428,0.047550578,-0.08054305,0.13007613,-0.22133063,0.06509724,0.1021435,0.47840557,0.10421477,0.0153866215,0.07977372,0.4552073,-0.7385578,0.683166,0.026423564,0.23612547,0.26678035,0.2036952,0.39437094,0.14640962,-0.29826373,-0.4526034,-0.21186194,-0.17895825,-0.16167788,-0.2601165,0.012168439,-0.33877915,-0.35408014,-0.013290266,-0.04156273,-0.084743835,-0.19616628,-0.06600995,-0.10024097,-0.40292552,-0.23755737,-0.23775353,-0.37997407,-0.3797779,-0.052131187,-0.1431033,-0.15967935,-0.19959919,0.0016888691,0.02716903,0.022546861,-0.05492656,0.11210903,-0.109460786,0.029360551,0.13722679,0.06487503,0.059296235,-0.0059130886,-0.08857052,0.124688886,0.034450483,0.20313706,-0.07718288,-0.11117326,0.08149638,0.075687535,-0.14654395,-0.00024420695,-0.14654395,-0.17461045,-0.19048412,-0.3025201,-0.15862174,-0.03465178,-0.16172747,-0.061999362,-0.19059916,-0.13998742,-0.0092463335,0.15350984,0.065354556,-0.10218939,-0.11355212,0.1367291,-0.011522643,0.2629232,-0.021615539,-0.010074083,-0.118142374,-0.4596265,-0.037060585,-0.32357466,0.032733716,0.26186973,-0.2603647,-0.4566165,-0.33802262,-0.09248215,0.0030828952,0.038979456,0.028632594,-0.15065034,0.19956279,-0.0238959,0.17787118,-0.280546,-0.010175148,-0.16782531,0.30004683,-0.105407886,0.08745826,0.16915491,0.0228433,0.1162663,-0.10614655,0.026315037,0.012224951,0.2897055,-0.20667922,0.0020382614,-0.10186228,-0.04099606,-0.26311344,0.21317951,0.3852891,0.060164485,0.32560474,0.057172883,-0.01483894,-0.036742415,-0.26301274,-0.0029378536,-0.03356081,0.10625879,-0.09729555,-0.3188448,-0.049913578,0.006914861,-0.07847961,-0.14696966,-0.07259535,-0.3796032,-0.045671437,-0.040197708,-0.12822214,-0.42722464,-0.052342545,0.016840274,0.022733087,-0.09161656,-0.18391734,-0.14751703,0.026171273,0.03492696,-0.08534071,0.102853194,0.12128051,0.07318652,0.14297509,0.30633786,0.23654929,0.10089284,-0.027542962,0.14402062,0.07769533,0.09586127,0.07423204,0.07560429,-0.016246427,0.108342186,-0.096645415,0.26216456,-0.05132858,-0.2377255,-0.024324715,-0.089522794,0.1789149,-0.20675191,0.05258422,0.0313922,-0.067534335,0.1130241,-0.0789829,0.097008295,0.24991968,0.30082923,0.063758746,0.22483027,-0.043023452,-0.017431654,-0.2638041,-0.14749159,-0.111258104,0.28499612,-0.015345945,0.09085774,0.18183728,0.13896605,-0.077277794,-0.047408007,0.045885593,-0.023353849,0.026353007,0.121414706,-0.31545916,-0.15385374,-0.12764974,-0.020485045,0.04189692,0.069638625,-0.208958,0.122594304,0.04916411,-0.10936592,-0.23541477,-0.20238593,-0.4283639,-0.33938822,-0.027172964,-0.18165864,-0.22715756,-0.1728959,-0.103046626,-0.2704658,0.123268366,-0.12124619,0.16674511,-0.0068248375,0.08647726,0.17255385,0.30610946,0.1047076,0.124941275,-0.07519181,0.068580806,-0.09682782,-0.07946559,-0.18150207,0.023505788,0.066544086,-0.08621015,-0.07899815,-0.07425692,0.17402297,0.25949857,0.24641012,0.14691117,0.18697786,-0.09228693,-0.03472446,-0.240133,-0.103505604,-0.09395637,0.023984993,-0.015757713,-0.008435209,0.011801425,-0.010188564,0.061906904,-0.076248445,-0.065818235,-0.06536866,0.09755845,-0.12300457,-0.31290635,0.3528289,-0.33250797,-0.1392793,0.0012391497,-0.23665792,-0.26543093,-0.25014526,-0.06662747,0.04823973,-0.04313702,0.05831028,-0.009778324,0.0003863562,0.16767266,0.39610288,0.19841418,0.25354937,0.1924291,-0.039923143,-0.13792868,-0.29399395,-0.20113465,-0.012094831,-0.4146022,-0.15561184,0.07173017,-0.33697763,-0.40843576,0.120064154,0.03105889,-0.05953332,0.3037877,0.13928893,0.31612056,0.42113137,-0.07245563,0.17438321,0.19115955,-0.21914685,-0.20756799,-0.23906928,-0.21318714,-0.2773817,-0.10940315,-0.2930472,-0.28061694,-0.1813453,-0.13366766,-0.14277749,-0.019060412,0.26018366,0.06725952,-0.23855846,-0.14635332,-0.02028428,0.04478292,0.02403038,-0.20569494,-0.15214275,-0.0021284658,0.102762334,-0.050061516,-0.005581902,0.06412143,-0.10096034,0.05385301,-0.056139044,0.027807191,-0.22650494,-0.10972972,-0.03528365,-0.12696868,-0.18288288,-0.06753175,-0.076001324,-0.05141707,0.02911885,-0.24074581,0.24899054,0.34387976,0.47849354,0.40294194,0.09451447,0.075776465,-0.02359114,0.18663047,0.05055512,-0.038975038,-0.058503468,-0.12568386,0.14295004,0.006189974,-0.07375381,0.094131425,0.028703948,0.06363074,0.15635984,-0.002829311,0.28292015,0.49362028,0.4231532,0.62929577,0.24803717,0.15627219,0.057977594,0.20807077,-0.049081564,0.11332582,-0.1369025,-0.11779575,0.018953372,-0.091326766,-0.09623492,-0.12350967,-0.008270737,-0.12707606,-0.052041117,-0.06705749,-0.23256607,-0.001712805,-0.36827654,-0.01871181,-0.14087234,-0.08653185,-0.30426925,-0.36058065,-0.1709051,-0.18207352,0.2137956,0.31196514,0.54434353,0.4985436,0.16977887,0.16020593,0.15579487,0.13749367,0.09957732,0.036203537,-0.22086096,-0.07871691,-0.14210494,-0.004223262,0.04540007,-0.016423797,-0.38165775,-0.35162565,-0.3082981,-0.12802741,0.019894302,-0.11387166,-0.1709639,-0.31768316,0.110665105,0.111290775,-0.29281282,-0.08986163,0.032124165,-0.04031651,0.02541778,0.07429813,0.30548263,0.08164973,0.114028074,0.07132692,-0.018398587,0.30344713,0.0144305825,-0.1120759,0.026593734,-0.04567255,0.119526036,-0.18528154,-0.0789714,-0.057463195,-0.10682842,-0.3003375,-0.4459714,-0.056102734,0.083506264,-0.15586972,0.0378985,-0.27571967,0.0052515334,0.021589188,-0.07113257,-0.024067167,-0.0626459,-0.008988746,0.08079235,0.00037000809,-0.1740905,0.03952944,0.067605555,0.010679449,0.0892121,-0.28008017,0.13942099,0.019114666,-0.17322376,-0.16207999,-0.19464457,0.14338322,-0.19340637,-0.21457954,-0.15366025,-0.3110351,0.117071524,0.040334266,-0.10995189,-0.08035898,-0.22126581,-0.053056743,-0.0251354,0.09578177,0.0012981147,-0.12497035,-0.13080806,0.11199765,-0.034080364,-0.11610567,-0.3375064,-0.07394439,0.009270076,-0.17675304,-0.61533844,-0.09686283,-0.3703706,-0.39328903,-0.105295084,-0.3189122,-0.5716637,-0.40020782,-0.25253522,0.11729483,0.069890425,-0.1446456,-0.10891663,0.22529256,0.044234768,0.08168219,0.56358373,0.15267627,-0.56015104,-0.05554701,0.07228133,0.5891728,0.12771131,-0.49493012,0.17428654,0.04595111,0.25386232,-0.40224776,-0.53643435,0.15376848,0.06904369,0.26416036,-0.34264392,-0.35138166,-0.009800693,0.03350764,0.08035593,-0.0973633,-0.42034733,-0.16153626,-0.32564217,0.24925408,-0.025462694,0.064649545,-0.03717203,-0.39315334,0.69006234,0.3546089,-0.019432824,-0.14962253,-0.7582744,-0.2943394,0.8587235,0.08438897,0.24318041,-0.11715175,-0.643809,0.09706192,0.0347776,-0.09671152,0.16176987,-0.53027815,0.2609342,-5.1556846e-05,0.051495835,-0.08539351,-0.0007851591,-0.005774398,-0.06943855,0.056504954,0.0934505,0.28899157,0.06541005,0.10627808,0.052608974,0.09435161,0.0869837,0.010554924,0.15562715,0.1405733,0.120324805,0.13262232,0.16856074,0.13039604,-0.07611737,-0.02550939,0.09451063,-0.0055656848,0.019453393,0.015109806,0.08580064,-0.12340361,0.034199487,0.04141816,0.15809715,0.19926828,0.09573661,0.24219605,0.10946032,0.087612174,0.38184854,-0.19740187,0.33815223,0.20322071,0.04885641,0.029945137,0.034968015,0.054373343,-0.0074382513,0.000611134,0.067355976,-0.06197628,0.042323925,-0.015809715,0.07377973,-0.14001304,-0.25199652,-0.3199143,-0.02644616,-0.04254968,-0.04858008,-0.38325033,-0.2092784,-0.15834007,-0.020112557,0.037496276,-0.14149538,-0.12700894,-0.11562194,0.041774824,-0.067884095,-0.06899584,-0.10389803,0.053599797,0.1417649,0.14755946,-0.10800814,-0.03180277,0.04352667,-0.17194329,0.052064724,0.094618216,0.06491106,-0.12018737,-0.0049640597,0.23802781,-0.04690766,0.2702672,-0.105549954,0.15082094,1.0484588,-0.12685758,1.0830451,0.20961764,-0.22085819,-0.07448405,-0.5074303,-0.05089126,0.035975922,-0.05533807,-0.48618448,-0.61860055,-0.39008397,0.019439349,0.067113556,-0.03094441,-0.15264833,-0.09447606,0.04923097,-0.07745529,-0.05098152,0.006369324,-0.24367714,-0.16665275,-0.09679218,-0.012624188,0.020912388,-0.18130355,-0.17236225,-0.2333354,-0.13433483,0.06199655,0.021302897,-0.18852122,-0.013977502,-0.0840266,0.22579455,0.072230555,-0.034068476,0.1210612,0.10047858,0.0153170815,-0.042382486,0.03400927,0.21172799,0.1286598,-0.097822756,0.32548568,0.118110284,0.21187553,-0.13884045,-0.4063407,-0.074510545,0.3549948,0.068166085,0.18015322,-0.123126835,0.26823798,0.22869574,-0.03862007,-0.10579022,-0.29332072,-0.051087677,-0.034912985};

#endif
