#pragma once

#include "parameters.h"

#ifndef KERNEL67_H
#define KERNEL67_H

static float bias67[FEATURE_MAP67] = {-0.013012355,1.6718907,0.12037779,2.3776565,-0.6147948,0.84657216,0.3835756,0.27276108,0.04543184,2.2549925,-0.54670465,0.08158418,0.9167725,0.34151438,0.46319383,0.019698564,-0.3833724,-0.24106222,-0.3742303,0.13469626,-0.5870277,0.029441552,-0.71615785,0.1517465,0.016050741,-0.0047573033,0.35583758,-1.1777585,0.14897509,0.55090994,-0.859014,0.007807516};

static float kernel67[FEATURE_MAP67][IN_CHANNEL67][KERNEL67][KERNEL67] = {0.07137822,0.065214746,0.15050693,0.10149437,0.044399172,-0.012585302,-0.094777286,0.14541376,-0.09160329,-0.023638962,-0.02498607,-0.14371602,-0.085329086,-0.15264754,-0.041926403,0.0044265385,-0.114338025,-0.37320402,-0.1849781,0.019671455,0.052850887,0.313267,0.65842164,0.40893003,0.023509787,0.011849437,0.07078538,0.113558955,0.081234224,0.039994627,0.046730798,0.0798114,0.13748014,0.035303764,0.025988728,0.10217638,0.07732146,-0.33276242,0.0131611,0.002305138,0.075943105,0.19154736,0.17696345,0.08608071,0.0798114,0.054600783,0.09337267,0.14921843,0.09577368,0.071585715,0.1403923,0.10279437,-0.34270123,-0.076795794,0.25470605,0.36765987,-0.036757987,-0.33310175,-0.19214948,0.34206125,0.58684784,-0.16655087,-0.07347597,-0.20382884,0.55100983,0.4434957,-0.12431319,-0.5068522,-0.19598927,0.44893542,0.17199057,0.046277463,-0.48477346,-0.09207495,0.2828645,0.043959096,0.06345295,0.007174613,0.049051,0.032027774,0.08906312,0.2177768,0.29840362,0.24609864,0.08713482,0.040614713,0.23079279,-0.745286,0.27815655,0.06712876,0.03136492,0.121844135,0.38734624,0.26297122,0.0066209813,-0.007750842,-0.0042068465,-0.09129271,-0.032690626,0.005845144,-0.04494278,0.048488647,0.050282944,0.08138403,0.08193941,-0.10611965,-0.12542966,0.0048622154,0.32092223,0.18951158,-0.32194754,-0.09398681,-0.8332358,0.4026053,0.26709342,-0.046438027,0.21172665,-0.05592215,0.21411903,0.19173309,-0.017643888,0.014354349,0.06591893,0.1600339,0.068055,0.02290337,-0.019579524,-0.066615395,-0.04047474,0.027629463,0.017718518,-0.15760565,-0.29083645,-0.2100947,-0.06872742,-0.009123262,-0.23253067,0.45785967,-0.43154588,-0.05889438,-0.0017279234,-0.123674735,-0.37836435,-0.25081182,-0.012040283,0.013944569,-0.0076041613,0.0154420305,0.024253681,0.0284258,0.026468689,0.117647,-0.0142247975,0.03782589,-0.17628184,0.11749607,0.46817318,-0.54786223,0.58348083,-0.7679127,0.15175633,-0.12149562,-1.1114208,2.2663083,-1.2176728,0.16390589,0.29445708,-0.68158287,0.98041683,-0.8445832,0.074595295,0.16707535,0.004013695,-0.09380066,-0.25793293,-0.11657848,-0.3350519,-0.7906869,-0.5308325,-0.14271964,0.05962411,0.30012286,0.8859075,0.4979058,0.063739955,0.015128505,0.037459735,-0.25451484,-0.03843308,0.054340255,0.019202635,0.065464154,-0.2689759,-0.03170312,0.03826622,-0.00730006,0.06579787,0.13838133,0.055814173,-0.04482932,0.22674644,-0.35415635,0.21364553,0.0019334183,-0.018661592,0.41433415,-0.92195827,0.52317244,-0.06600841,0.029674992,0.53152245,-1.5686535,0.7889337,0.046752956,-0.074142486,0.3331373,-0.94268936,0.47220847,-0.0012158378,-0.009897662,0.15058844,-0.30175272,0.13770348,-0.019507393,0.0372512,-0.00024164055,0.03567709,0.030254846,0.06072068,0.010127146,0.059201606,0.2168897,0.037386045,0.29301208,0.07768364,0.10169342,0.19747934,-0.6525257,0.38820726,0.1779002,0.046795852,0.20034869,0.21047585,0.24490814,0.10481595,-0.03411582,0.08861253,0.008871801,0.15460776,0.015454446,-0.010538956,0.017857904,0.10310598,0.054411568,0.047445837,0.025053637,-0.0023184882,0.027172927,-0.11217458,0.015919328,-0.026844354,-0.12006031,0.07057732,-0.19451478,-0.15140611,-0.08687451,-0.24012062,-0.2928236,-0.40979534,-0.062297303,0.033021513,0.1177603,0.08805737,0.14522895,0.056580145,0.10710078,0.28696302,0.58996564,0.393116,0.13815928,-0.074256055,-0.010617121,0.19320427,0.075459026,0.030438786,-0.08085416,-0.12591086,-0.049722757,-0.39690718,-0.042796567,-0.033373304,-0.12080735,-0.20574431,-0.3260413,-0.07028261,0.032389056,0.008730645,-0.016057827,-0.00013727072,-0.011993246,0.023699882,-0.051691867,-0.25334612,-0.08360273,0.043368917,-0.007758445,-0.09853179,-0.2190093,-0.13831773,-0.0064381566,-0.060537335,-0.06841241,0.87902296,-0.19482422,-0.010067784,0.06766596,-0.24916598,-0.4347342,-0.19527209,0.076250166,0.04892999,-0.08196053,-0.3409797,-0.13921347,0.09748676,-0.021665797,-0.05330043,-0.13733573,-0.07369513,-0.037618794,-0.0275357,-0.22954033,-0.82584244,-0.37955847,-0.04024668,0.003102765,0.10860034,0.3893845,0.12591013,-0.014867564,0.028435465,-0.041703444,0.27878466,-0.009219032,0.037161767,0.031563222,0.033648398,-0.010490131,0.029992204,0.054328736,0.13808271,0.2172772,-0.43374217,-0.015166254,0.013935185,0.34439453,0.56654525,-0.9308399,-0.19930615,0.10914626,0.45648518,0.8869783,-0.2085455,-0.37993053,0.23798962,0.3129198,0.6035027,-1.3662065,-0.098840825,0.16620691,0.08356035,0.26174796,-0.2806328,-0.010273709,0.0046323705,0.029768283,-0.14745104,0.15885925,-0.042281657,0.06078434,0.2006418,-0.803708,0.74039245,0.057254925,0.14231735,0.26823542,-2.2348673,0.949733,0.12734409,0.116434984,0.2124778,-0.90923387,0.74951905,0.032174703,0.15144391,0.088556185,-0.03743317,0.04067738,-0.04363638,0.06477721,-0.03510578,0.017712982,-0.25943974,0.13401946,0.092898816,0.00044275308,-0.29072618,-0.78746724,0.50351065,0.2782848,0.051686686,-0.28267586,-0.31579193,1.04215,0.463625,0.014739854,-0.19046316,-0.7772214,0.5141224,0.15277304,-0.058730714,0.020800462,-0.2074786,0.16530591,0.10602632,0.37265596,0.09456433,-0.49127322,-0.17084183,0.46820876,0.47743455,-0.03084873,-0.651736,-0.2584868,0.50478244,0.60890204,-0.27990383,-0.0704702,-0.37792784,0.55914867,0.48039997,-0.073723935,-0.68139035,-0.30247405,0.48929626,0.22191316,0.09184602,-0.27314922,-0.08846872,0.32109037,0.17171183,0.29375777,0.6431142,0.3134207,0.17544103,-0.2549404,-0.97501135,-0.064879276,-1.1750311,-0.14789593,-0.026464473,1.0333222,-0.54717255,0.90517396,0.08649158,-0.15654086,-0.08661871,0.27307776,-0.5322558,-0.0967892,0.21595348,0.30697942,0.008825023,0.041656647,0.32477778,-0.097149014,-0.12537654,0.046749067,-0.058903825,-0.052047294,0.008971368,0.2993721,1.0414802,0.5371245,-0.008097606,-0.026424352,0.08147694,-0.43525606,0.023419056,2.5391977e-05,-0.06251018,-0.12929456,-0.30792052,-0.20854536,-0.1315207,0.0005398404,-0.01708567,0.0090604145,-0.105252184,0.0105352355,0.13075314,0.11824924,-0.1074932,0.04352836,0.13236655,0.26567423,0.21754095,-0.29014423,0.012495496,0.22224672,0.43830872,0.00223524,-0.4307795,-0.05441885,0.35763842,0.20839833,0.08611556,-0.19844899,-0.03307483,0.16295405,0.111056134,0.06282201,-0.14386207,-0.0029411053,0.08900625,-0.014967103,-0.13471328,0.008494463,-0.09510054,-0.0030561346,-0.044480097,-0.06870452,0.35344452,-0.065409705,-0.08379331,-0.009449212,0.05331621,-0.3777064,0.031132322,-0.032611247,-0.027444368,0.036037114,-0.02877353,0.045753095,-0.0537655,0.122357704,0.25849375,0.54394513,0.2057766,0.17327768,0.023403108,0.05280955,0.16571842,0.09565753,0.017515223,-0.07738364,-0.2682369,-0.27628532,-0.23274465,-0.12653181,-0.13998984,-0.32668695,0.5757923,-0.5858199,-0.19870377,-0.040275116,-0.043045886,-0.08866463,-0.11406335,-0.1067406,0.055712264,0.08325503,0.2707438,0.1421009,0.044629183,-0.046531886,0.3692219,0.7649152,0.5040609,-0.034864444,0.1360799,0.17964755,-0.07148676,0.13773438,0.2295573,-0.04163742,-0.26705855,0.06759187,-0.32013938,-0.060043365,-0.027677855,-0.038156144,-0.12753183,-0.08355059,-0.076588035,-0.021697646,-0.06890166,0.060250174,0.027746791,-0.0772774,-0.0043021655,0.030871771,-0.19870766,0.3149861,-0.29931515,0.0068560406,0.008408444,-0.3167099,0.75596666,-0.2490114,0.046346836,0.030382054,-1.0048213,1.342687,-0.47671032,-0.019040205,0.006665051,-0.5227829,1.0161045,-0.332851,-0.05433902,-0.03091095,-0.10750272,0.24274302,-0.16689561,0.12310983,0.34251028,0.12577559,0.34864962,0.26835358,0.08643538,0.3161758,-0.31310612,-0.0043040984,0.2665764,-0.12924917,-0.0043293424,0.18854222,-0.14944436,-0.15267558,-0.11608191,-0.50536424,-0.0058010663,-0.12125187,-0.37708443,-0.03574547,-0.16802391,0.15372573,-0.12448311,-0.10129903,-0.061733652,0.012798946,-0.12910964,0.10952745,0.06575796,-0.042773787,0.13798799,-0.14346437,0.20942976,0.2069405,-0.005289678,0.21092331,-0.57153416,0.28477138,0.49320543,-0.010216339,0.08787089,-0.24610487,0.28858823,0.29290295,-0.057833813,-0.031509887,-0.098574705,0.100400165,0.0057304846,-0.058238026,-0.09491388,-0.13269806,-0.09859154,-0.043477006,-0.025126485,-0.14811401,-0.15577161,-0.17189287,-0.05007664,-0.04360295,-0.17672923,0.31335685,-0.20161642,-0.052696347,-0.040151995,-0.11980106,-0.11859197,-0.18116258,-0.059144847,-0.059195228,-0.051285736,-0.0762233,-0.09063167,-0.047784403,0.0038871043,-0.08921679,0.036865816,-0.12620912,-0.042457677,-0.09280975,-0.031299256,-0.75624263,-0.116897784,-0.109205805,0.0337536,-0.2530255,-0.008969754,-0.43520385,0.029907614,0.08714198,0.40261418,1.2631032,0.5704207,0.066343285,-0.016244236,-0.29816526,-0.43034577,-0.32265812,-0.08410568,-0.0039706915,0.085736096,0.0076843803,0.084605284,0.044538565,0.02297604,0.11102516,0.1717806,0.12809014,0.026239974,-0.03163703,0.10033385,0.34376678,0.12737054,-0.03127723,-0.03729109,-0.1913128,-0.41819477,-0.2489842,-0.03536357,0.037316788,-0.21279822,-0.6176289,-0.30984244,0.06281146,-0.005523243,-0.025913082,-0.1082874,-0.11939119,-0.026205959,-0.025263663,-0.10818553,-0.18122604,-0.2129075,-0.02225851,-0.021838298,-0.15005393,0.15361938,-0.20730466,-0.065756835,-0.032216266,-0.07115593,-0.25752637,-0.15504555,-0.0069335005,-0.008837189,-0.04337099,-0.12061362,-0.07558725,0.018361997,0.10027014,-0.049172357,-0.09619713,-0.07286988,0.10782372,-0.016051369,-0.17787953,-0.56607455,-0.26674524,-0.036120206,0.003705052,-0.25978407,0.5121627,-0.36849645,-0.011756192,-0.015773663,-0.064316556,-0.23327248,-0.11145241,0.01146923,0.09604902,0.069685526,0.10086258,0.045988,0.13270612};

#endif
