#pragma once

#include "parameters.h"

#ifndef KERNEL15_H
#define KERNEL15_H

static float bias15[FEATURE_MAP15] = {2.4134426,0.763323,0.5800405,1.9767969,1.4416666,0.644199,0.5297187,-0.12316847,0.15349251,0.70018387,-0.7811043,2.7161937,0.8408661,0.3533444,0.8207028,-0.42690706};

static float kernel15[FEATURE_MAP15][IN_CHANNEL15][KERNEL15][KERNEL15] = {-0.121272534,0.5488281,0.24400471,0.12364446,0.6787369,-0.4554106,0.8534083,-0.40675563,0.6237568,-0.058264337,-0.6227837,0.7648562,-0.16785967,-0.6339744,-0.28925383,1.2407019,1.4937078,2.043509,0.86751825,1.1317148,-0.56050533,-0.2780632,0.327448,0.8816282,0.61402583,-0.067869306,-0.17034678,-0.06403547,0.02556756,-0.03025624,-0.08382636,-0.32183522,0.5500004,-0.070097074,0.028287513,0.11802006,-0.8786744,0.6001512,0.087971054,0.0732574,0.06268844,-0.41509074,0.16817081,0.04825974,0.02437596,0.015400115,-0.1500378,0.13304457,-0.05250805,0.011248949,-0.032028783,-0.10497317,-0.075229555,-0.025971245,0.006787527,-0.3218113,-0.29917714,-0.2795899,-0.24041538,-0.35402146,-0.37897706,-0.48083076,0.4254061,-0.02898188,-0.018970616,0.18542598,0.4050934,-0.06420266,-0.035202645,0.32210147,-0.11520206,-0.047408406,-0.033425283,0.15103948,-0.04381741,0.066702925,-0.059435837,-0.28223902,0.03802026,0.050869606,-0.09248281,-0.28386298,-0.43976024,-0.21403398,-0.08010035,-0.0150924,-0.03913671,-0.072102495,0.16515368,0.1417691,0.024216857,-0.1692135,0.032559797,0.059476435,-0.03361535,0.068042666,-0.1602819,0.013204581,0.1323503,-0.0077441162,-0.057555605,-0.030681815,-0.14394341,0.09411266,-0.0424051,-0.08296058,-0.07267891,-0.15362668,-0.21281429,0.026329784,-0.093296655,-0.12512088,0.709381,-0.26264504,-0.13882977,-0.16755317,-0.10684235,-0.20889747,-0.01578971,-0.16602996,-0.05576039,0.031198619,-0.16679157,0.042133097,0.01288609,0.08035659,-0.034786627,-0.28741738,-0.010511161,-0.0005844484,0.0095131835,-0.4421168,-0.62418926,-0.2963344,0.018948603,-0.04253715,-0.18736047,0.27642667,-0.1267042,-0.06293736,-0.046425372,0.22831641,0.37472093,0.49520397,0.00594898,-0.026854655,-0.017976547,0.11726878,0.116128236,0.09663528,0.07078091,-0.044095695,0.06423164,-0.06707915,-0.019027455,0.05109243,-0.041817687,0.44421124,-0.1605181,-0.057967126,0.10560187,0.43575007,0.3387721,-0.7068328,-0.12423271,-0.082537055,-0.042875335,-0.035085365,-0.19900014,-0.022841083,0.013118876,0.072814845,0.08387945,-0.15498579,-0.02412246,-0.052629206,-0.007869399,-0.13114475,-0.004214262,-0.04925066,0.030240381,-0.058482185,-0.5070677,-0.18662907,-0.01226508,-0.0722343,-0.20632933,-0.3110167,-0.30930364,-0.14513479,0.007685006,0.30740026,1.0217489,0.33880645,0.03970983,-0.04934583,0.03261964,0.06176556,0.07623146,0.066095814,-0.028412756,0.0541811,0.010996354,-0.20379615,0.019362984,0.02659105,-0.111711785,-0.59234864,0.20168062,-0.0037150339,-0.060939044,-0.054680597,-0.48798248,1.1687133,0.1757066,0.040635824,-0.029602742,-0.11846973,-0.08479753,-0.023667503,-0.0051051877,0.0011716222,0.02945583,-0.06710934,0.089792535,0.033934806,0.032492507,0.064059764,0.15533268,-0.045064986,-0.0073407483,0.21498393,0.55122966,0.031050209,-0.058018446,-0.13595693,-0.70405877,-1.3410642,-0.4994158,0.021457572,-0.044711214,0.17753862,0.24230593,0.28867716,0.067325346,0.045772526,-0.006190993,-0.03796235,0.092796855,-0.0450922,0.03763875,0.0024775828,0.1886763,0.018867629,0.048689097,-0.055782557,-0.3194468,0.4698088,0.10625708,0.0018517781,-0.012847842,-0.9782214,0.5169055,0.36268312,0.14746669,0.01909684,-0.29358223,0.12440089,0.19900282,-0.0042976937,-0.044466805,-0.08801676,0.016877118,0.008673801,0.061910916,-0.055060454,0.005015048,-0.009552473,0.04986391,-0.0594928,-0.006681955,-0.18203193,0.17240304,-0.106452756,0.0123609,-0.034981154,-0.23384453,0.21000156,-0.1669008,-0.16781785,-0.11829782,-0.26899764,0.08788275,-0.20679194,-0.100415595,-0.025199423,-0.1201319,0.09583041,-0.0022925935,-0.035821773,0.037540406,0.05397288,-0.15858293,-0.06195671,0.19303371,0.038716108,-0.061300505,-0.45803124,-0.37053722,-0.10061814,0.022816803,-0.24126479,-0.48777923,-0.333571,-0.13430333,0.056761753,-0.06529242,-0.40619105,-0.1465525,0.10089155,-0.049488813,0.00972004,0.040712066,0.033630516,0.013110434,-0.14346847,0.2052362,0.46288884,-0.07111902,0.0036912984,-0.08705312,0.15577279,0.6944563,-0.008359253,0.0034548247,0.32729512,-0.101879835,-0.4195776,-0.049340356,0.078317046,0.1139996,-0.44960016,-0.9213481,0.028422998,-0.033437014,-0.11664503,0.035005815,0.02666963,-0.042819064,0.0494634,-0.003644213,0.033179693,-0.016936915,-0.053150974,0.0014700806,-0.00735784,-0.12494445,0.16310209,0.048986156,0.029451191,-0.12637238,0.3315986,0.12518243,0.019663876,0.004588734,0.12470646,0.5587992,0.05037443,-0.32906005,-0.026159005,0.11431426,0.14430092,0.082027026,-0.054380585,0.043076087,0.032846145,0.012624224,0.0119756395,0.09867742,-0.016307253,0.040304862,-0.081443615,-0.020140849,0.2082881,-0.06550698,0.034490768,-0.3741403,-0.029278934,0.5333213,-0.11591122,0.029371588,-0.0014245684,0.80869156,0.029649552,0.06796233,-0.10432936,0.0054174135,0.21217962,0.06156915,-0.10395875};

#endif
