#pragma once

#include "parameters.h"

#ifndef KERNEL14_H
#define KERNEL14_H

static float bias14[FEATURE_MAP14] = {-1.6505951,2.6220555,0.19149777,1.904503,0.4032278,-0.62439835,2.1942654,1.4899114,0.7532003,1.6300514,1.1559039,0.5114924,-0.7515006,0.6845668,-0.19792674,0.10116105};

static float kernel14[FEATURE_MAP14][IN_CHANNEL14][KERNEL14][KERNEL14] = {-0.08502372,-0.08705172,-0.4311519,-0.3887668,0.51389414,-0.6489587,-0.3315773,-0.92719966,0.08122123,-0.28493342,0.45467666,-1.005886,0.47820142,-0.55364287,0.8184991,1.8073498,0.13171832,0.5301181,-0.29568177,0.39180878,-0.7053369,-0.3877528,-0.46076065,0.7483305,-0.85662544,-0.5710836,0.08989091,-0.15159269,-0.20391497,-0.051587142,-0.20188698,-0.38957798,-0.53823006,0.9166541,0.22003755,0.4814462,-0.85905904,-1.1162089,0.9134093,-0.030445287,-0.4421031,-0.066061966,-0.37031204,-0.08857272,0.15534447,-0.2900034,0.5860908,-0.482663,-0.16376066,-0.11884055,-0.18728541,-0.37152883,-0.10951177,0.5414749,0.1865756,0.18708262,0.40701875,0.01692109,-0.26708704,0.6315179,-0.05739228,-0.05272789,0.36361966,0.5463421,0.3490828,0.15355425,0.41067323,-0.2773679,-0.3733393,-0.5610636,-0.40307987,-0.019787509,0.7201019,0.21704301,0.3096396,0.11084169,0.6665267,0.27251658,-0.55431396,0.023874205,-0.9052951,0.011858005,-0.5049572,-0.49905127,-0.44716346,-0.5581106,0.3081631,-1.0377567,0.97785366,-0.027341302,-0.7234767,-0.46994346,-0.36490226,-0.13014144,-0.4547568,0.08321037,0.31596738,-0.06728544,-0.89854544,0.058162887,0.06828734,-0.9044514,0.6977437,0.09502223,0.25036934,0.15271054,0.22590192,-0.28981254,-0.6412155,0.17612334,0.76017785,0.3307322,0.7530064,0.37439394,-1.1314079,-0.34570798,0.45770976,-0.11664216,-1.0909101,0.2676653,0.63657516,-0.35309038,-0.123602726,0.39168987,0.19668864,-0.15017942,0.2210506,0.29403105,0.27587613,-0.61373174,0.16791728,-0.81381774,0.62215286,-0.72893274,0.5362574,-0.31393963,-0.1845911,0.44497237,-0.63495296,0.004736884,0.2361284,0.52783626,-0.09945351,0.65112156,-0.34189776,0.5214362,0.12715901,1.1883894,-0.0045737247,0.18897009,-0.08576918,-0.12901166,-0.0866534,0.100800894,-0.15755929,-0.10071668,0.9990825,0.14105389,0.85087067,-0.18374899,-0.3287608,-0.4789937,-0.74375397,0.9054396,0.93508196,0.9748297,-0.79293334,-0.43284592,0.44867766,1.078578,0.4453092,0.17583314,0.28463408,0.15048555,0.14602235,-0.13246433,-0.64808995,-0.66661644,0.84615487,-0.87512356,-0.017568577,1.2092738,-0.118653685,-0.0041974057,-0.7181537,-0.066021636,0.62653184,0.24977063,0.16008563,0.72489065,-0.034210827,0.92093444,-0.2590154,0.0019807834,-0.27691483,-0.41379288,-0.02727032,-0.12677014,0.017215047,0.08675963,0.018373247,-0.15067115,0.028217938,0.41337174,0.16425367,1.0141611,0.65954167,-0.09897336,-0.19752556,0.25964713,-0.38557497,-0.24890748,-0.38452205,-0.20015784,-0.42579603,-0.905501,0.14119498,-0.50034195,0.5399313,-0.7850483,0.47380865,0.5306657,0.7235585,-0.12108444,0.07217685,0.4367463,-1.1127133,-0.307028,-0.5104498,0.4674912,0.41695163,0.1329823,0.09834162,0.15667273,0.040063154,-0.37609878,-0.27902064,0.074440606,0.06749141,0.34640676,0.45569864,1.1034477,-0.33314013,0.28512752,-0.77536154,0.32113698,-1.1674645,-0.49023402,-0.3710448,0.27838892,0.03711501,-0.23079745,-0.36072633,0.063069195,0.3047116,-0.13308759,0.46769708,-0.18877207,-0.37136614,0.20925097,-0.43543422,0.72396946,0.36106947,-0.1142357,-0.860343,-0.44298512,0.6274097,0.36541694,-0.4285698,-0.5477822,0.6104774,-0.6933083,-0.028530324,0.57661283,-0.39287472,-0.91159743,-0.19220428,-0.2798403,-0.83974963,0.7386136,-0.78666466,0.16497535,-0.9221229,-0.13385655,-1.0076996,0.6942236,-0.6873591,0.24139942,0.4491631,-0.10576956,0.16932282,0.9280721,-0.7587493,0.113549255,0.7610374,-1.0900729,0.30844212,0.7399865,0.59446037,-0.055916574,-0.0027868906,-0.26176393,0.13019551,0.18877207,-0.2736623,1.0379031,0.23236124,0.18236525,-0.1535346,-0.71618974,0.7976478,0.2284714,-0.10342421,-0.15319139,-0.5363415,-1.019598,0.10594117,-0.5587653,-0.1720686,-0.40797648,0.0265854,-0.29630786,0.0640903,0.10743904,-0.82746714,0.5978834,-0.3325233,-0.60754085,-0.6970917,-0.05350003,-0.5803245,0.15265343,-0.2212432,-0.6189542,-0.6830445,-0.29257658,0.12850982,0.15857959,-0.9236026,-1.1659166,-0.40341768,-0.074351326,-1.0675863,0.985937,-1.0860232,-0.5653993,0.028053222,0.27874887,0.5399388,0.14661752,-0.864341,-0.2541663,0.23638783,-0.20544012,-0.1102375,0.5438895,-0.5114054,-0.4758485,1.0263226,-0.37049457,-0.66855836,-0.56803316,0.7528415,-0.38937047,-0.17010267,0.4047346,-0.37137252,0.7041153,0.10337852,0.08005799,-0.48682284,0.24955706,0.8542446,-0.05270439,-0.38958997,0.21641448,0.23177859,0.24648425,-0.20851295,-0.5579367,-0.47453156,-1.0272006,0.66855836,0.44051102,0.55155224,0.47253332,-0.23132797,-0.46028537,0.7060343,0.3723768,0.8905436,-0.5073016,0.13966599,-0.9347942,0.43816006,0.18144727,-0.2548361,1.0185542,-0.23942742,-0.15072864,0.7435683,-0.16870545,-0.72539395,0.2977039,-0.28288785,0.35044903,0.24732931,-1.184494,-0.2568116,0.32713845,0.022804374,-0.48478124,-0.096452504,-0.3551902,-0.3010622,0.2443661,-0.41603476,-0.41168872,0.035978314,-0.6471652,0.39983588,-0.7238136,0.37000623,0.22006777,0.2890118,0.022816721,-0.80915403,0.45554423,-0.13304816,0.58395004,-0.05822709,0.013235674,-0.5183643,0.41840532,-0.27794915,0.37751302,0.56972665,1.0936222,-0.3457079,0.21749966,-0.02837274,0.46384123,0.67126596,0.5479964,0.19083077,0.07161092,-0.15932195,-1.2603523,0.77145404,0.2017195,-0.09899015,-0.19325711,-0.41209817,-0.13943245,-0.317044,-0.23340422,-0.09712055,0.40619418,-0.5246675,-0.802942,-0.18951793,0.5978769,-0.37942946,-0.40737498,-0.5101043,-0.2373402,-0.3558135,-0.3192088,-0.57977134,-0.6789583,0.24068579,0.3146824,0.33219758,-0.5951217,0.22651623,-0.5494642,-0.49947715,-0.79507,-0.24816418,-0.89661855,0.6258224,-1.0021031,-0.32412878,0.5561554,-0.723435,0.34262794,0.034218512,0.094266966,-0.050306875,-0.88795936,0.29401845,-0.5226995,-0.14021964,-0.11542291,-0.29913524,0.30858162,-0.05899065,0.25957856,-0.33534637,0.7923148,-0.398519,-0.37313187,-0.7171374,0.13185567,-0.088953376,0.3546327,0.3162568,0.10705893,0.10715733,-0.24816418,0.16550839,-0.016900158,-0.66801083,0.96875316,0.8917807,-0.11037298,-0.5624486,-0.12116287,1.4646755,-0.117726594,0.07188676,-1.4184921,-0.5302851,0.041303962,0.30898938,-0.46870717,-0.79391575,-0.051578406,0.33977833,-0.60258424,-0.12439296,-0.2709155,-0.25991943,-0.42912135,-0.5970862,0.9989923,-0.7686248,-0.32355914,0.2184093,0.29524428,-0.38678652,-0.99074525,-0.26019433,-0.37469083,1.0105382,-1.443783,0.16659035,-0.18212229,0.15586919,-0.13229638,0.33620462,-0.16700271,0.8989281,-1.2128657,-0.92092025,-0.6570147,-0.33592972,1.4360858,0.09332908,-0.22940536,0.53715765,0.81535804,-0.7026484,-0.4208743,-0.67515826,0.17813621,-0.9841476,0.05247184,-0.88463324,1.3591133,0.43104565,-0.40328062,1.1270964,-0.012576747,0.69330174,-0.28314862,-0.17646354,-0.55481493,-0.10687627,0.7250637,0.0030750467,0.46291077,-0.074012995,1.0260122,-0.07895661,0.43692148,-0.3429457,0.08484186,-0.5985071,-1.0388185,-0.20791435,-0.675345,0.12156587,-0.08498311,0.9808134,0.48287356,0.4003858,-0.27721915,-0.0782033,0.7879653,0.30603337,0.16864793,-0.0224346,0.44520792,0.19228312,-0.090162136,0.20904432,0.28738886,-0.03641797,0.4410647,0.9529408,-0.07194138,0.19105898,-0.38550788,0.04053765,0.085501015,-0.467054,0.0334518,0.15744239,0.8602833,-0.5050963,0.045669593,-0.6339128,-0.45989752,0.07895661,0.16572884,-0.00652675,0.08309983,0.39850253,0.7205438,-0.45876756,0.26403618,-0.51225275,0.12683906,0.7024643,-0.10593463,0.22542888,0.11469189,-0.10329803,0.23804687,0.092919685,-0.033598248,-0.29457,0.52540976,0.75503325,-0.5794102,-0.46703088,-0.3069755,0.5161664,0.083797984,0.11213606,0.14886609,-0.24239388,0.30600253,-0.075223595,0.33154327,-0.20031247,0.9043858,0.68254614,1.0196841,0.34978667,0.33202976,1.0070354,-0.26805627,0.5789237,0.13414976,-0.1617581,-0.1758663,-0.056736954,-0.6285457,0.8401691,-0.14363632,-0.38311127,1.0449816,-1.1072524,-0.69957334,0.6300052,-0.49330136,-0.8766559,0.46678764,0.35902998,0.19471782,-0.8474664,-0.16747434,-0.3901654,-1.0780629,0.665519,-0.60324824,0.03840234,-0.4283549,0.43516573,-0.36632735,-1.1695231,0.52784216,-0.20785306,-0.072487086,-0.15142016,-0.15640669,0.5113015,0.5424369,-0.089757495,0.17185277,0.08398042,-0.16479865,0.37997293,-0.41298535,-0.23438817,0.1254472,-1.1415695,0.3902068,0.18486954,-0.7625869,0.18949129,-0.35818475,-0.69788253,-0.63251793,-0.49551642,1.2274017,0.18123819,0.6275661,0.4737282,0.73749745,0.61898285,1.4683924,0.09028897,-1.0108403,0.57771736,-0.60247666,-1.230703,0.49716705,0.8008813,-0.4364242,0.13898228,-0.24940883,-0.11884471,0.6285565,0.63251793,0.9633024,-0.060495257,0.40407202,-0.13411295,0.6932608,-0.27449825,-0.6589279,-0.011213906,-0.41694686,-0.82729125,-0.06565345,-0.28687793,-0.7269335,0.49848753,-0.3981298,-0.12239355,-0.7929583,0.67345333,-1.64798,-0.56880397,0.20418182,0.30734563,0.1262725,0.22167839,-0.7355167,0.06928482,-0.032599766,-0.9085018,0.09771676,-0.4585425,-0.72429246,-0.13658346,1.0700526,-0.052074306,-0.094849624,-0.83914024,-1.1265904,-0.12445759,-0.6820246,-0.8641359,-0.657029,0.7951003,0.6784538,1.1230196,-0.027357608,-0.29682353,0.042477753,-0.30798233,-0.6272722,-1.8949096,0.6016814,-1.3271508,-0.80581266,0.11657205,-0.23582222,-0.3282169,-0.67428786,0.6850003,-0.07684679,-0.76296294,1.4806957,-0.20279223,-0.7040446,0.074131496,-1.437846,-0.88734615,-0.17169642,-0.23745883,0.18716992,0.35529554,-0.90222454,-0.7635581,-0.6463165,-0.8421159,0.05196272,0.06535325,-0.06561363,0.58829087,-0.14387387,1.1837233,-0.21469492,-0.57400763,0.38564742,0.10742185,0.03950208,-0.20889236,-0.27673775,0.0074019907,0.9920899,-0.4656931,-0.34428555,0.93495697,0.3410123,-0.021480652,-0.16068643,-0.4008629,-0.23607135,0.46939236,0.81501913,-0.2580741,0.5986586,-0.17682432,0.6949207,0.77605593,0.32385322,-0.11264958,0.34150127,-0.2690755,-0.25303182,-0.047472116,0.556945,-0.38894475,0.16192661,0.18885708,-0.0911625,-0.44830638,0.08921435,0.27090907,0.21234962,-0.25555298,-0.82143664,0.06497692,-0.41415626,0.020871114,0.4776434,-0.65229034,-0.3046008,-0.09488693,0.7824734,-0.47626823,-0.61332715,-0.32637438,-0.60003376,0.2580741,0.8173111,0.21567295,-0.6848361,0.32568678,0.027002094,0.22128825,-0.31147668,0.7013382,0.4627457,0.63945544,0.3955914,-0.6348715,0.8626918,-0.70867246,-0.7352591,-0.23469618,-0.6257037,0.060679507,-0.8228118,-0.40911394,-0.638997,-0.477185,-1.1964004,0.79072446,-0.014797433,-0.029367726,-0.7540279,0.16836472,-0.10517029,-0.4652709,-0.5882771,-1.0307919,-0.033538405,0.6165685,-0.5907372,0.14729992,-0.46311828,0.5446099,0.0800309,1.6802645,-0.30567038,-0.4412847,0.44220725,-0.16436702,0.7933899,-0.77432394,0.22387126,-0.78047425,-0.015270065,0.28675818,1.2183763,0.55383533,0.17082484,-0.03173175,0.5209312,0.18512431,-0.5916598,0.4194511,1.1101308,-1.3100159,0.14983691,0.35917807,-1.0264866,-0.09409973,0.28752697,0.9459176,0.2833755,-0.5550654,-0.21479955,0.66915363,-0.54983765,0.2844518,0.39915508,-0.7441874,0.34287974,-0.27630264,-0.046434835,-0.005198933,-0.6322518,-0.5725938,1.7208565,-1.4883748,-1.3087858,-1.1107459,-0.038208798,0.6820693,-0.6574681,0.6187211,-0.5049404,0.07713157,-0.21119489,-0.44384867,0.39720842,-1.0992206,0.26451364,-0.13915433,-0.2669223,0.030190248,0.4808543,0.44384867,-0.8662384,0.51019603,-1.1649112,-0.45019874,-0.39983603,0.16116063,-0.44735214,-0.11375401,-0.88682145,-0.3076504,0.30786937,-0.6993846,-0.23582882,-0.20188873,-0.5767624,0.8185033,0.67223257,-0.36720976,0.88594556,-0.945067,0.007862329,0.35253888,0.07592724,-0.5334067,-0.07269746,-0.077241056,-0.031969365,0.98185366,-0.17681687,1.0414131,-0.65690476,0.2014508,0.13335167,0.15393469,0.84828305,-0.45063668,-0.32100746,-0.27852762,-0.16740124,-0.4291778,-0.08988647,-0.62318367,-0.22104846,-0.13773103,0.19006445,-0.23911333,-0.21962516,-1.2279739,-1.0431647,-0.12612572,-0.8228827,0.025838254,0.6980708};

#endif
