#pragma once

#include "parameters.h"

#ifndef KERNEL27_H
#define KERNEL27_H

static float bias27[FEATURE_MAP27] = {2.4200315,1.7108922,-1.8112593,2.4147754,-2.3279285,-0.018536866,-1.7060606,-0.75299364,0.7760575,-0.5312854,1.2372563,-0.79387724,0.57562464,-4.723076,0.74544334,-0.036524355,-0.94778347,0.07007992,-2.8352747,-1.0890269,-1.7766124,-2.1839087,-0.91180193,-3.9745047,-0.7860893,-1.388649,-3.3271933,-2.8500109,-2.7939186,0.44633865,-1.8608674,1.8936393};

static float kernel27[FEATURE_MAP27][IN_CHANNEL27][KERNEL27][KERNEL27] = {-0.05005467,0.65173405,-0.16070886,0.21837184,-0.3740975,0.060510535,0.5506459,-0.28350967,-0.7780943,0.5741382,-0.026651332,0.44991362,0.45810035,0.7916202,1.323401,-0.08796274,-0.04800799,1.0842065,0.3037985,0.05601674,-0.3911828,-0.300595,-0.06593869,-0.79802716,0.28084007,0.030588966,0.21125296,-0.009527072,-0.19167602,0.22086346,0.33458766,0.42250592,-0.7837894,0.41787863,0.84002864,-0.31162927,0.034326382,-0.28813693,-0.74534744,0.761009,-0.48693183,0.111677535,0.5257298,0.29312015,-0.46379545,0.34295237,0.13285622,-0.20039666,0.20377813,-0.25966138,0.27585685,-0.78307754,0.30148485,0.35701215,-0.0908103,0.022869423,-0.22905017,0.5823249,0.23065193,-0.27478904,0.016696014,0.71117675,-0.35434258,-0.05837487,-0.18758266,-0.10731722,1.055019,0.217304,0.65173405,0.13534783,-0.011145507,0.25343236,0.48942345,-0.19363372,-0.71900755,-0.2900946,-0.18170957,0.91904825,-0.3829961,0.53035706,0.5057969,0.19772707,-0.5171871,0.46201575,-0.0933464,0.3336978,0.90623426,-0.4968983,-0.17165415,0.13801742,-0.26571244,0.9866777,-1.3490291,0.3356555,0.016696014,0.7667041,-0.28101805,0.53178084,-0.505085,0.58979976,-0.36697862,0.27603483,-0.7859251,-0.43104857,0.38264015,-0.8229433,-0.19968477,0.4968983,-0.15056445,-0.088496655,-0.9105056,0.14211078,0.7581614,-0.13125446,0.74321175,-0.5392557,0.06015459,0.016395686,-0.9767112,-1.0528833,0.97955877,0.0517899,0.74534744,-1.2280079,0.31892613,0.3983017,0.748195,-0.7403642,0.5750972,-0.60770756,0.52108634,0.733733,-0.13477248,-0.53161675,0.37230155,0.04454201,0.40728974,-0.21128793,-0.21808176,-0.22878203,-0.16101363,0.33085924,-0.34088013,0.13698047,-0.5553951,0.023884539,0.42325523,0.38792735,-1.010921,-0.15566349,0.08713079,-0.41136605,0.687535,-0.2919646,0.5285595,-0.080379434,-0.69704634,-0.05243983,0.25680655,-0.91648686,0.26597822,0.7181072,-0.029956518,0.51089555,-0.038937103,-0.03946787,-0.014373184,-0.015402873,-0.9749138,0.12993188,0.08369142,-0.27362126,-0.09511354,-0.530258,-0.57781476,-0.14207585,0.14912444,0.47420892,-0.25612718,0.48032337,-0.28398186,-0.66987103,0.1385091,-0.6365813,-0.09502862,0.49594915,0.29230428,-0.14878474,-0.63997823,0.11150364,-0.24865396,0.3213479,-0.2715831,-1.1454388,-0.96268487,-0.14946413,0.1813951,0.6807412,0.92124254,0.62706995,0.10921072,0.118297465,0.24644597,0.010790504,0.6579819,0.20619257,-0.33459583,0.7276186,0.80506814,0.32491463,0.088659406,1.2317203,0.5645668,-0.1873397,0.3106476,-0.42767122,0.19770028,-0.2257248,-0.21111809,0.090442784,-0.52380383,0.26037332,0.11405132,0.46028158,0.056770895,0.60838693,-0.18003634,0.48100275,0.50783837,-0.006252441,0.1526912,-1.0795387,0.16194779,-0.1344328,-0.3284814,0.31540328,-0.327802,0.9762725,0.15303089,-0.6277493,-0.016559945,0.3159128,0.82952595,0.40457222,0.3899655,0.2982489,-1.3227576,-0.3035141,0.65424526,0.16780746,0.3478438,0.077237286,0.8390373,-1.3723525,-0.29519165,-0.25833517,-0.7065062,-0.2008157,-0.5604584,0.020633053,-0.72780484,-0.46735293,-0.010763418,-0.8209103,0.32008806,-0.5787144,-0.040543474,0.48043638,0.15365444,1.209154,-0.28509745,0.0056907292,-0.6444359,-0.15220918,-0.86107343,0.051763292,0.2659287,-0.16293457,0.0918884,-0.21055223,-0.63469934,0.3477763,-0.11995696,-0.34534216,-0.57080346,0.21815889,-0.15449117,-1.3302519,-0.094474666,-0.31765395,-0.051763292,-0.17632228,-0.9529618,-0.03993494,0.08610734,-0.47708943,-0.49291128,0.5847997,-0.14475466,-0.021184536,0.7655338,-0.7734448,0.13235581,0.28098986,-0.32282647,-0.7491034,-0.87993795,0.10649318,-0.32556486,0.61400926,0.43236232,0.27612162,0.21861528,-0.47526383,0.083140746,0.47952357,0.23930539,-0.41867033,-0.115697235,0.66269183,0.3514275,0.49656248,0.5558944,-0.7886581,-0.52577204,0.2292646,-0.36694506,-0.26942775,0.2090309,-0.0337165,-0.5778016,0.08975854,-0.69676965,0.66634303,-0.1366916,-0.23215513,-0.7917007,-0.30563542,-0.7917007,0.21511622,-0.4764809,-0.361164,0.56776077,-0.22044088,0.54037684,-0.48591316,0.14916652,1.1148314,-0.6161391,-1.5359359,-0.08549881,0.59088504,-0.9292291,0.07850069,0.18042988,-1.1196997,0.5072118,-0.49656248,0.89880246,-0.4448372,-0.82577854,0.66634303,0.13250794,-0.42019168,0.18575454,-0.2599955,-0.47313398,0.025710497,-0.8081311,-0.12566195,0.5379427,-0.18712373,0.6876417,-1.0150322,0.5820613,0.17023696,-0.1617175,0.93714,0.4153234,-0.17982134,0.40923807,0.032670587,-0.6639089,-0.35568723,0.45046142,0.48797584,0.92574006,-0.72777945,-0.2628894,0.19767205,-0.20257778,0.0007665203,0.36158115,-0.46027288,-0.15150048,0.99153453,0.46142715,-0.38784122,0.54713315,0.3370525,-0.037586547,0.020795245,0.58580184,0.047398005,0.38582122,0.019244168,0.538476,-0.104030326,0.1846863,-0.091261,0.16607338,-0.16188908,-0.18930346,0.6169677,-0.29044807,0.7196994,0.028117767,0.3338782,0.5560789,0.59388185,0.53876454,0.09659959,-0.015817372,-0.024961507,-0.35667542,0.16506338,-0.7606767,0.8882257,0.26332226,-0.5895533,-0.08859171,0.82243115,0.40861842,0.041121557,0.13057898,-0.1267554,-0.34195822,-0.41265845,0.75721383,0.09688816,-0.2628894,-0.7906882,1.0884949,-0.14212188,0.25740653,-0.273278,0.093713865,0.1307954,-0.089673854,-0.5286645,0.25740653,0.21094638,0.06770629,-0.41669846,-0.11297607,-0.48768726,0.55838746,0.47960722,0.92862576,0.21354353,-0.13988544,-0.67352784,0.25076935,0.43949568,-0.6769907,-0.8691799,0.594459,0.55665606,-0.08152168,-0.40198126,0.101144604,0.10258747,0.43343565,-0.31021526,-0.9730659,-0.14803761,-0.46027288,0.19651777,-0.69719076,1.2270095,-0.11304821,0.21960355,-0.09869174,0.2513465,0.38639835,-0.18612915,0.8876485,-0.65563637,-0.29174665,0.3546554,0.23345502,-0.22306642,0.761831,0.30906096,-0.38206977,0.4236242,0.16261052,0.5280874,0.21036923,-1.089072,-0.9118886,0.31136954,0.17530769,0.24874936,0.17343198,0.6169677,0.08931314,-0.11247107,-0.4161213,0.054540172,0.06009519,-0.65852207,0.23952138,0.03756131,-0.79221934,0.023620784,0.6740681,-0.5687923,-0.91718704,0.32567334,0.47828537,1.5094581,0.37963665,-1.0285219,-0.24368697,-0.09722864,0.40822774,0.09571388,0.41807368,-1.1315255,-0.31488067,-0.5570529,0.046791874,-0.7418536,-0.6521041,0.2573198,0.2425509,-0.47942147,0.29481012,0.20752208,-0.7721488,0.20695405,0.21395981,-0.2088475,0.78085864,0.0053046173,-0.06996296,0.6388499,0.6774763,-0.4888887,-0.7043633,0.058507595,-0.14797309,0.7494274,0.29121256,-0.8119112,-0.03360873,-0.20203108,-0.6422581,-0.054768033,-0.03240166,-0.8475081,-0.6308974,-0.08672,0.2879937,-0.010425807,-2.1524737,-0.11625781,-0.07824681,-1.2678539,-0.31525937,-0.22721396,-0.8058522,0.86417043,0.4964625,-0.0035650106,-0.015041091,-0.8831049,-0.021561658,-1.020948,-0.85205233,-1.0701778,0.17078915,-0.04908768,0.11379632,0.0781048,0.7339011,-0.56008244,0.4104999,1.0004988,-0.84523594,0.47260505,-0.54039055,0.3478267,0.054768033,-0.69792557,-0.24027877,-0.11322829,0.2505034,-0.1025303,-0.28231335,-0.5574316,0.13878986,-0.8990099,-0.2703846,-0.537361,0.8399343,1.3822182,-0.0363069,-0.6494532,0.25031406,-0.12941729,0.56159717,-0.20222043,-0.92854774,0.276633,0.64831716,0.13235213,-0.4703329,0.14437553,-0.19445728,-0.9558134,-0.056661483,0.16122724,-0.82402927,0.66725165,-0.4362508,0.071099035,0.70057636,-0.38929325,0.58810544,0.9027968,0.026105937,0.74261093,0.9368789,-0.6437729,-0.4699542,0.36903334,0.14068331,-0.31525937,0.01654042,-0.4262043,-0.43287173,-0.5000592,0.25182468,-0.5077524,-0.16130114,0.19553596,0.42594784,-0.1080256,-0.25810745,0.24451612,-0.21682052,0.21079418,-0.56827235,0.7990689,-0.5128812,-0.26541603,0.5400639,0.3397838,0.31208822,0.10655107,1.2114254,0.036991555,-0.429538,0.04555026,0.73495877,0.24618298,-0.14168343,0.13309267,0.064366594,0.44954038,-0.33875802,-0.16617352,0.27695584,0.6467432,0.7749635,-0.1692508,0.16873792,-0.62879235,-0.6800805,0.39363632,-0.6159703,-0.2802896,0.12995127,-0.53698665,0.1086667,-0.44697598,-0.39312345,-0.73906183,1.1067977,0.22515485,0.08943366,0.2431057,-0.05753886,-0.04869166,-0.49800766,-0.020611413,0.18502189,-0.39491853,-0.34004024,-0.14706868,-0.5380124,0.39876515,0.44671953,-0.3441433,0.038049374,-0.033177003,-0.8739496,0.16566063,-0.18925317,-0.451079,0.033305224,0.50288004,0.41363868,-0.4667219,-0.5333965,-0.9662682,-0.2992662,0.16155759,-0.10623052,-0.06164191,0.1231556,0.6441788,0.08392019,0.73547167,0.17014834,-0.45800292,-0.6964927,-0.21117884,0.41133073,0.66777134,-0.20284452,-0.42543495,-0.21310215,0.4074841,-0.69187677,-0.13604175,-0.44697598,-0.59083915,-0.013070457,-0.08962599,0.29849687,0.21989782,0.032167267,-0.47467154,-0.3100367,0.08533061,-0.41928038,-0.81189096,0.21066596,0.6041741,0.44979683,-0.011411607,-0.17412317,-0.6098158,0.3985087,-0.9072868,0.25220934,-0.02213403,-0.38748175,0.11405196,-0.6416144,-0.8421509,-1.0616641,0.33337277,0.72982997,0.6313568,-1.4135536,-1.3220092,0.6626874,-0.76264584,-0.6559562,0.6667261,-0.28489837,0.27042627,0.51123524,-0.7599534,0.06525064,-0.056920778,-0.82793856,0.28422526,0.39209285,-0.007220272,-0.5499397,-0.5452278,0.5738355,0.42844138,0.012389629,0.3252856,0.5788839,-0.8232267,-0.35237873,-1.3314329,-0.5395063,0.018584443,-0.25040093,-0.8286117,-0.07278118,-0.37964013,-0.11081251,-0.6596584,-0.632397,-0.22970247,0.11426225,-0.17332861,0.20092656,-0.5273901,-0.6616777,0.3067748,-0.18544477,0.42877793,-0.80505246,0.74649096,0.3449744,-0.1487597,0.15952963,0.26537788,0.046066705,-0.5738355,0.40656495,0.6152324,-0.89188504,-0.3560809,-0.7680308,0.06184297,-0.24703532,-0.5684505,-0.42877793,0.024127172,0.35035938,-0.07917583,0.10265092,0.584942,-0.5862882,0.38132292,-0.28254244,0.024968574,0.6721111,-0.57046986,-0.06689138,-0.17433828,-0.55296874,-0.123265244,-0.06457753,-0.65225405,-0.32646358,-0.2243175,-0.014577272,0.2488864,1.348934,-0.86294085,0.31232804,1.0729545,0.3883907,0.90871304,0.07690405,-0.0036600942,-0.81649554,-1.1214192,-0.2717725,-0.13605455,0.29364893,0.68759286,0.93833035,0.1649146,0.030521821,-0.31889096,-0.09634041,-0.5277267,0.41430584,-0.11156977,-0.2379482,0.028754879,-0.17265548,-0.3611293,-1.2109443,-0.51729333,0.56441176,0.62162703,0.12351766,-0.118132696,0.5923463,-0.8905388,-0.16457804,-0.38435197,0.94977343,0.115019515,-1.014393,-0.03634852,-0.21640833,-0.06727001,0.8205342,-0.024000963,0.117038876,0.73975974,0.7350666,-1.1438997,0.4990679,-0.0929245,-0.15470064,0.21101062,0.1477595,-0.32918352,-0.33282763,0.023686636,0.99605346,0.24051046,-0.29864252,0.33733934,-0.68404925,-0.37655678,-0.8155838,0.18845193,0.82738376,1.2112287,0.29586604,0.07288196,0.39772725,-0.63650244,-0.75311357,-0.2169106,-0.11504938,-0.05670043,-0.55320877,0.8551483,-0.11990818,-0.4837974,-0.16320354,-0.4924738,0.18324608,-0.48726797,-1.0099357,-0.09891123,-0.18949309,-0.08138485,-0.69272566,-0.66218466,-0.012374749,-0.4497858,0.5427971,-0.5400206,0.8197485,0.8475131,1.0231239,-0.2894455,-0.6958492,-0.271225,0.4473564,0.24588984,0.06923786,0.2778191,0.03850163,0.14619774,0.3345629,-0.5716028,-0.31946594,-0.5209325,-0.4924738,-0.62747896,-0.3083601,-0.22281057,1.1251587,0.08719806,0.5674381,-0.22940464,0.65663177,-0.19157544,0.14446245,0.5514735,0.8482072,-0.5854851,0.05691734,0.26914266,-0.31946594,-0.43659765,0.059563648,0.39946255,0.061993048,0.3626745,0.5129502,1.5228859,0.12667578,-0.054097503,0.32137474,-0.21951352,-0.700708,-0.80100745,-0.4837974,-0.35365105,-0.051277664,-0.54245,-0.0013719595,-1.0349238,-0.16979761,-0.049672525,0.51156193,0.14854038,-0.62262017,0.4667916,-0.5136443,0.22107528,0.15886532,0.34601578,0.39217436,0.4064037,0.31356594,0.6788434,-0.8787482,-0.4605446,-1.1952641,0.21066357,-0.56153816,-0.5344677,0.2389487,0.12997283,0.4320859,-0.20892829,-0.059910707,0.073315784,0.49143264,-0.6469142,-0.43868,0.75797236,0.88572294,0.2261449,-0.03845406,0.5748579,-0.27692312,0.36177796,0.077985644,-0.76665676,0.700928,-0.63681537,0.16230172,0.2909309,-0.75211024,-0.3019755,0.16499554,0.04885888,-0.55600125,-0.058556575,0.10930112,-0.73810244,-0.2533523,-0.3612392,0.5045496,0.5401078,-0.13118829,0.42831492,0.47330147,1.1195452,0.39221793,-1.2553129,0.21132897,-0.3297217,-0.12815775,0.033941936,0.030288465,-0.2812332,0.78928477,-0.17873393,0.32325655,-0.47384024,0.1861419,-0.3378031,-0.23139781,0.13071686,0.32217902,0.11697847,1.1033823,0.038925476,0.17401977,0.34238255,0.09980546,-0.520443,0.16984437,-0.21685126,-0.47168517,-0.1985334,-0.41834784,-0.014260327,-0.5624664,0.08081414,-0.39868307,-1.0069442,0.25766242,0.62388515,0.034413353,0.40757263,0.49673757,-0.13859625,-0.36958998,-0.16149358,-0.19260703,-0.25658488,-0.2328794,-0.42373547,-0.565699,-0.13819218,-0.7117032,-0.5034721,0.38225088,0.15677942,0.1053951,-0.19812933,-0.30143672,-0.24688719,-0.45633048,0.6454356,-0.6680635,0.6255014,-0.224798,0.6659085,-0.5428016,-0.16715057,0.3531578,0.35342717,-0.023469772,-0.21860224,-0.14492668,0.09381174,-0.32460344,0.11111944,-0.37794077,-0.25995213,-0.23247534,-0.21658188,0.087481305,0.09482192,-0.17577074,-0.28311887,-0.26129904,0.2425771,-0.10229723,-0.113476515,-0.0060063424,-0.07758157,0.01796431,0.44205332,0.45983243,-0.33888063,0.98593247,1.0462737,-0.5387609,-0.51909614,-0.51316977,-0.59910214,0.11731519,-0.43343315,0.29820415,0.32379532,0.31363165,-0.4919095,-0.49791887,0.349974,-0.9059834,-0.81784606,-0.39289805,0.2174818,-0.5242456,-0.8779397,0.103089236,0.38774717,1.1062956,0.10602238,0.19115506,0.16396983,0.1562435,-0.49877736,-0.7960979,-0.17627473,-0.21404788,-0.3390999,0.41722167,-0.19401667,0.8384496,0.2376561,-1.089126,0.6072321,-0.70567125,-0.86821026,0.90541106,-0.07797867,-0.6181062,-0.39347038,-0.46272117,0.9082727,0.11396333,-0.31019774,-0.16983612,0.23851459,0.1583897,-0.0799818,0.42323104,-0.55715406,0.83444333,0.028133132,-0.2405177,-0.5391259,-0.43725288,-0.24523935,0.010122919,-0.50879294,-0.11861343,0.007824695,-0.35283563,0.20703696,-0.10566468,-0.050900757,0.42552033,0.1357115,0.38946414,0.04152901,-0.37572843,0.21905568,-0.84016657,0.13485302,-0.45385018,-0.624974,-0.5700313,-0.27471387,0.19072582,-0.5004943,0.13957468,-0.19931063,-0.06456491,-0.6358481,-1.2201874,-0.04306712,-0.06853539,-0.21333247,0.16811916,-0.38545787,-0.10137228,-0.7108221,-0.071647376,0.42952657,-0.94947976,-0.16797608,0.38574404,0.21791105,-0.32851198,0.077549435,0.42036945,-0.05247464,-0.12118887,0.6335588,-0.6450052,-0.20417535,-0.22706817,-0.3370968,-0.1987383,-0.26269513,0.012582109,-0.40863687,-0.15853278,-0.44097298,-0.6295526,-0.08062565,0.5259626,-0.83959424,-0.12025885,-0.23951614,-0.22864206,-0.5085068,0.50078046,-0.42952657,0.024967484,-0.53569204,0.18772113,-0.33194593,-0.34024456,0.8916754,-0.23779918,0.5545786,0.78407913,-0.46815822,-0.08262878,0.5597295,-0.26607716,0.066372044,0.5710278,-0.53274333,0.3056869,0.37047604,0.17095496,0.7986733,0.7327061,-0.27888775,0.299208,0.13878126,0.11441171,-0.13657254,0.34073192,0.5380443,-0.4903359,-0.14621729,0.030958897,-0.334253,0.24472621,0.23250462,0.08901143,-0.20688348,-0.39374122,0.023578089,-0.61961967,0.061181553,0.743308,0.058052532,0.35486773,0.29685202,-0.12884203,0.003982599,0.35045028,0.5957655,-0.19274767,0.1931894,0.45970833,-1.0160114,-0.5474681,-0.13907576,0.69913363,0.41317794,-0.9995196,-0.4308477,-0.4915139,-0.16668476,0.13863401,0.102926366,0.17198569,-0.08717083,-0.7780585,0.84755963,0.065488555,-0.24796566,-0.23441885,0.32689062,0.57839024,-0.5339213,-0.118534654,0.18891922,-1.0925803,-0.6319885,-0.6802859,0.028290026,-0.7645117,0.5121286,0.26813865,0.28698638,0.16653751,0.34426588,-0.2507634,-0.4170064,-0.031603105,0.5362773,-0.18435453,0.83106786,0.5424617,0.10461972,-0.06721872,0.19304216,0.42495778,0.61255175,0.030057002,0.279035,-0.893501,-0.18597426,-0.9624131,-0.07093673,-1.2474853,0.45587987,0.14128448,0.56955534,0.43261468,-0.26224872,-0.24487346,0.1373824,0.14187346,-0.83460176,0.68794274,-0.37047604,0.6184417,0.3357255,0.8016182,0.12611793,-0.34190992,0.6119628,0.35280627,-0.49681482,-0.8446146,-0.13208148,-0.7986733,0.19981557,-0.78571546,0.08179627,0.6914767,0.25503358,0.31687775,-0.38078338,-0.8098641,-0.061476048,0.063832015,0.30715936,-0.23677482,0.068139024,0.22793993,-0.36753106,-0.65003306,-0.14531124,-0.7810009,0.30489075,-0.63861847,-0.43826166,-0.3117996,0.04592135,0.52927834,0.28716803,0.13885295,-0.21853006,0.26493955,0.2736507,-0.6019715,0.0012367412,-0.05722334,0.3379331,-0.55451065,-0.41212818,0.73894703,-0.36346582,-0.40491894,-0.27304995,0.20951852,0.09454617,-0.06811229,0.020482501,0.37007427,0.03938798,0.25037086,0.23925664,-0.9930727,0.115573116,0.4839202,-0.08823808,0.44456977,0.17016809,-1.0591574,0.5316814,-0.21732853,0.063606516,0.7918148,-0.44246706,0.47220516,-0.07937673,0.26283684,-0.52236944,-0.19209619,0.46980208,-0.1617573,-0.11880226,-0.7119124,-0.39200237,-0.30428997,-0.46469554,0.4616917,0.50284445,-0.064207286,0.49653634,-1.0255142,-0.37848505,1.1817144,-0.2656905,0.14163151,0.46709862,-1.1606876,-0.30504093,-0.33042347,-0.21807949,-0.022622744,-0.23760451,-0.65664154,-0.45508322,0.47671095,0.49863905,0.25247356,-0.13494794,-0.39500624,-0.56262106,0.5740357,-0.4755094,0.011686853,-0.34634387,0.11579841,-0.24751721,-0.3517508,0.5175633,-0.19404869,0.5605184,0.16235808,-0.5833476,0.37518084,0.21056986,-0.47911403,0.607078,0.4821179,-0.41302934,-0.8332679,0.098451175,-0.6115838,0.3256173,0.24271105,-1.1432652,0.5932603,-0.26644146,-0.5334837,0.4839202,0.64883155,0.46920133,-0.01523515,-0.29077265,-0.038017474,0.36917314,-0.4136301,0.65664154,0.940205,-0.65544003,-0.28656727,-0.5815453,0.18608849,0.1359242,-0.527476,-0.12405899,0.053318333,-0.29437727,0.54249525,-0.32021037,-0.7319193,-0.19977297,0.44752634,0.3548369,0.22070988,0.59931886,-0.9508844,0.039256696,0.9718213,0.51426274,-0.6499164,0.2647646,0.053705342,0.89854217,-0.9657147,0.35418263,0.35025695,-0.15931676,0.17643704,-0.3157983,-0.9447778,-0.246881,-0.06853565,-0.30467558,-0.12911092,0.38449752,0.09034492,0.90639347,0.7772826,0.39932784,-0.57053065,-0.53476346,-0.5905952,0.566605,-0.15898962,-0.8850204,0.12638475,-0.42244565,-0.8549236,-0.029633353,-0.38144422,-0.3162345,-0.0616112,0.35745403,-0.26934454,-0.8941803,-0.8967974,0.08309334,0.019696502,0.608915,-0.39562026,-0.11777009,-0.18439743,-0.26890838,-1.3460685,0.18865024,0.09846888,0.30314893,-0.6084788,-0.25146094,0.10664736,-0.35265598,-0.6965883,0.25211522,0.58492476,0.63072425,0.029687876,0.53999764,-0.41350386,0.18865024,1.0293978,1.4446464,0.6180749,0.0147076305,0.060084555,-0.10479357,-0.6656191,-0.3670501,-0.6638743,0.8483808,0.17207518,0.40412587,0.43204173,0.30881935,-0.5020495,1.1462955,1.3460685,0.42877036,-0.7908043,0.25974846,0.3461132,-0.33280954,-1.2972157,0.24012013,0.3253944,0.33499047,0.38406134,-0.6106597,0.3609435,0.54348713,1.2221918,0.64860785,-0.53519964,0.3343362,0.7245041,0.22856121,-0.35112932,0.2499343,0.051606197,-0.7249403,0.36007115,-0.64904404,-0.016561419,0.045854002,0.24470007,0.7990919,0.15233779,0.5203693,-0.18636025,-1.0337597,0.5932123,-0.06264714,-0.20871477,0.84183806,-0.9299475,-0.013160535,-0.32713914,0.5059752,0.4982114,-0.63595045,0.87465787,-0.77459365,-0.03569686,-1.3357973,-0.41924503,-0.95603544,0.02494071,-0.95362425,0.27080637,0.026767937,0.55788827,-0.72094476,0.23313159,0.066496,-0.34148428,1.875903,0.33244234,-0.74686503,0.7643461,0.68899655,-0.32490736,-0.8945502,-0.43310937,-0.9481991,0.48555267,0.0047682156,1.1422995,-0.7709769,0.017339822,-0.114682056,0.6413756,-0.38066608,0.26010674,1.5443649,-0.07776076,0.32129058,-0.09848189,0.23765257,-0.7776076,-0.093282774,-1.235733,1.0850339,0.15717922,0.817995,-0.6739266,-0.5102673,0.84873766,0.32581156,-0.70828605,-1.4177777,-0.8481348,-0.323099,-1.0428381,0.13992417,-0.43431497,0.19379911,-0.13336875,-0.04430555,1.4647958,0.113627166,0.027427247,-0.23750186,-0.18927814,-0.19681309,-0.07783611,-0.4089975,-1.0416325,-0.14158185,1.1965513,-0.4249716,-0.25407878,-0.7631405,-0.08356268,0.1588369,-0.61666095,1.3201246,-0.4123129,-0.077685416,-0.3013983,-0.12440215,-0.54191417,1.2345275,-0.20374526,-0.22273335,-0.31465983,-0.2643263,0.0033860216,-0.6037008,-0.056060087,-0.49248484,-0.13721158,-0.743851,-0.0038852126,0.10579081,-0.8029251,0.50815755,-1.0114927,-0.24458472,-0.037542928,0.9295124,0.007756297,-0.8059391,-0.2525718,0.7631405,-0.088309705,1.1905233,-0.7709769,-0.38337865,0.6094274,0.27110776,-0.5162953,-0.19304562,-0.5729582,0.68718815,-0.3878996,-1.526281,-0.20721133,-0.35956818,-0.03694013,-0.27984834,-0.114682056,0.005067259,-0.22167845,0.17239983,-0.9656802,0.90660614,-0.26380068,0.016475586,-0.1776207,-0.6419979,0.20124605,0.1555257,-0.20641111,0.6488846,-0.2079415,0.3648063,-0.5352533,-0.5861387,-0.28120884,-0.492785,0.16872531,-0.5578265,0.35065022,0.35026762,-0.3512241,-0.08082363,-0.61330307,-0.29708663,-0.1430913,-0.4426648,-0.7169869,-0.13840449,0.17121218,-0.70015264,-0.70627415,0.25500095,0.4935502,-0.1755164,0.16164726,0.8310008,-0.7257866,-0.6171291,0.07905412,1.2725178,1.0712718,0.23912317,0.24620122,-0.4055529,-0.07149783,0.6718404,-0.7284648,0.34663293,-0.8723213,0.52683616,-0.72043025,-0.20564592,0.25385314,-0.03170773,0.30875584,0.14490864,0.3125818,0.43769103,-0.39369237,-0.6224854,0.2330016,0.1496911,0.918233,0.5490268,-0.19646358,0.3489285,-0.09354498,0.38164058,0.3514154,-0.10043173,-0.3112427,0.5034977,0.68025756,-0.0027319822,-0.16202986,0.59302545,0.38565785,1.1225398,0.4667684,0.28962597,-0.68140537,-0.8516611,-0.5486442,-0.13639586,-0.21004578,-0.4304217,-0.13582195,-0.22707136,0.7188999,0.2737482,-0.49163723,0.0906755,0.42200455,-0.41397002,0.069919616,0.516506,0.109135814,0.24849679,1.1003492,0.13792624,0.34605905,0.4285087,-0.42353496,0.36098033,-0.59379065,-0.11898769,-0.2747047,-0.99781317,0.5628003,0.48513308,-0.41052666,0.5842257,-0.44419518,0.415883,-0.60106,0.053037517,1.1286614,0.59111243,-0.71469134,0.9174678,-0.26418328,0.44113442,0.22305408,-0.18536828,0.2580617,-0.0881408,0.043520417,-0.88073844,0.3257814,0.650415,-0.5972046,0.54920566,0.023499498,0.95302314,-0.15086634,0.017988747,-0.16947465,-0.25234243,0.23199505,-0.28173313,-0.07708531,-0.55511856,0.5057283,-0.8723292,-0.08312866,-0.128519,0.75754905,-0.18017006,0.06012915,-0.059303083,-0.58642226,0.020119136,0.60520446,0.3711225,0.1528663,-0.1099107,0.34607956,0.1996479,-0.314602,-0.48172885,-0.30973253,-0.27860275,-0.7610272,0.5311191,-0.207126,-0.6538991,-0.29129812,-0.9265889,-0.1622574,-0.2107781,-0.044955563,-0.97180533,-0.9161543,-0.6639858,1.3613622,-0.28068966,-0.4215562,0.18590908,0.2519946,-0.64589924,-1.2771901,0.65876853,0.019347413,-0.042825174,-0.08495471,-0.2366906,0.36416614,-0.024847295,-0.54677093,0.09834573,1.0024134,0.24903816,-0.19669145,-0.8312866,0.3297321,-0.3742529,0.90711105,-0.42851257,0.48798957,0.48033756,0.3239931,0.6403341,-0.096171856,0.55059695,-1.4719685,0.15564884,-0.17025723,-0.21860403,-0.092345856,-0.08982417,0.4625988,-0.868851,-0.51964104,-0.08482427,-0.111997604,0.039173078,-0.6177259,0.22834295,-0.34660128,-1.20067,0.28642866,0.6072914,0.10278041,0.09008503,-0.17086591,1.3822314,-0.30608043,-0.49703285,0.3579054,-0.72485405,-0.197561,-0.39407852,-0.13104068,0.4525121,0.5373798,0.77215743,-0.67615944,0.03506447,-0.77911377,-0.30103704,0.7645054,-0.44764262,0.30555868,0.15817054,-0.26155964,0.08212868,-0.060390014,0.17808315,0.14869247,-0.14356215,0.26955947,-0.09425885,0.4330342,-0.21564756,0.466077,0.3672965,0.025608148,-0.06873766,0.13726461,-0.26280874,-0.17129901,-0.16108118,0.5015755,-0.14237352,0.25123855,0.51780385,0.5529652,-0.11495065,-0.0894812,-0.30578375,-0.15762514,0.29541567,-0.27708367,-0.21878189,-0.8643087,-0.031573866,0.16619009,-0.88173914,0.083620965,-0.17685872,0.09256157,0.053230416,0.7909807,-0.30984086,-0.9724975,-1.5458984,-0.58872765,0.65634567,-0.4303512,-0.4781346,0.39999822,0.27558103,-0.4207344,-0.034560326,0.13538632,0.09278697,0.5646857,0.29165912,-0.34770694,-0.256648,-0.6773824,-0.27633235,0.5574731,-0.19233572,0.2175798,0.14117143,-0.16378589,-0.27708367,-0.6936107,0.13380857,0.5346332,-0.51690227,0.4426727,0.45168844,-0.012161854,0.83666044,-0.3873762,0.097520225,0.26235795,-0.5334311,-0.61787856,0.32486707,-0.5968418,0.36694053,-0.8576971,-0.3498106,0.10142705,-0.17144927,0.6695688,0.49346137,0.32546812,0.22584422,-0.48083934,-0.18271895,-0.37265047,0.7248653,0.64372367,0.4008998,-0.5580742,0.038260534,-0.09684405,0.044665467,0.10871477,-0.052892327,0.37114787,0.2371139,0.50908864,0.11855695,0.28189206,-0.2646119,0.33839068,-0.86010134,0.22344002,-0.39038143,0.11074331,0.35522005,-0.29195964,-0.5451516,-0.53192854,0.62509114,0.6857971,0.02541311,0.4985703,-0.6298995,-0.20585933,-0.1290753,0.305934,-0.14635547,-0.5247159,0.12877478,0.41893128,-0.42614385,-0.16333511,-0.040533252,0.26070508,-0.77655554,0.43726328,-0.8522877,-0.12524362,0.48384458,-0.42373967,0.25033697,0.13020228,-0.8384636,-0.1384667,-0.36633947,-0.13054553,0.6797218,0.4637685,-0.16388257,-0.37821326,-0.011708532,-0.23306432,0.20916785,-0.37172285,0.61245763,-0.12110495,-0.20902035,-0.38352358,0.12715282,-0.5888562,-0.6100975,0.23778462,-0.20931537,0.49887568,0.27421936,0.4962205,-0.1351183,-0.2908879,0.18822157,-0.24929033,-0.53575295,0.5142166,0.20769277,-0.19087674,-0.34133598,0.2488478,-0.06615782,0.7410856,-0.4021097,-0.14175622,0.0682967,-0.63664913,-0.21005291,1.0148624,0.14234625,0.07935988,-0.33042032,0.101264976,0.3493015,-0.21639581,-0.67382145,-0.5074312,0.28410247,-0.43721688,-0.2992959,-0.5286725,-0.53221273,0.309179,-0.04642848,-0.59918183,-0.17937103,-0.17140554,-0.23439191,-0.5319177,-0.056385342,-0.4619984,0.25002787,0.44518238,0.69506276,0.40535492,-0.29988593,0.47232404,-0.8425718,0.17951854,0.585906,0.21772338,0.05247635,0.6242584,0.42689124,-0.34281108,-0.67618155,0.023177363,-0.8980352,-0.3773282,0.23852216,0.4015197,0.6083274,-1.1611913,-0.090718076,-0.22642642,-0.12707907,0.6714613,-0.35992214,-0.49681056,0.40535492,-0.585906,0.34104097,0.42807132,0.37467304,0.8756138,-0.37260792,-0.1659477,-0.41125527,1.3830451,-0.07581966,-0.49179524,-0.536343,-0.50861126,0.43072647,0.86794335,-0.2731868,-0.023785837,0.3870638,-0.18748403,0.45226282,0.12737408,0.07677847,-0.090718076,0.5448985,-0.119482346,0.17420821,-0.57469535,0.21624829,-0.023951786,0.55551916,-0.20621768,0.09632342,-0.9033455,-0.82074046,0.11859729,-0.33514062,-0.86617327,0.06652659,0.44117218,0.58991873,-0.53149325,-0.6414882,0.54252255,-0.43342188,-0.58127415,-0.82570744,-0.09904017,-0.13779178,0.11603127,-0.11252872,-0.15724212,0.020605424,-0.076608956,0.33028296,-0.042477727,-0.47098112,1.2805917,-0.35591865,0.31120524,-0.09702808,-0.22222559,-0.2833339,-0.28348294,-0.44504735,-0.14949179,0.8137838,0.37261164,-0.0014729804,-0.048812125,0.39019892,-0.75774306,0.44802824,-0.8406119,0.33058107,0.8996336,-0.3490626,-0.30166638,-0.85193926,-0.5198678,0.23146635,-0.7786093,0.53268564,-0.5070499,-0.01489515,-0.43163332,-0.05376786,0.50675184,0.13205357,-0.65460414,-0.17468034,0.14710708,0.52016586,0.6426806,0.2509912,-0.23310585,-0.5180792,-0.894268,0.027051605,-0.69574046,-0.67666274,-0.21074915,0.057643022,0.22252367,-0.18928672,0.34190845,0.14956632,-0.45607665,-1.1673177,-0.008160195,-0.7929176,-0.7464157,0.520762,0.022449851,-1.5488721,-0.037596516,0.5085404,1.1470476,-0.47604865,-0.4235849,-0.6188334,-0.45667285,-0.14897014,0.047582507,-0.49780917,-0.674278,0.15135485,-0.75655067,-0.1942052,-0.6891825,0.22371604,0.196888,0.26455426,-0.5049633,0.5100308,1.1011419,-0.27141032,-0.82451504,0.0837631,-0.09322743,-0.5723315,-0.16380008,-0.14196503,1.0385432,-0.34190845,-0.065840475,-1.1208159,-0.33862945,0.11461534,-0.115360565,-0.54252255,-0.17676696,-0.090991765,-0.10805738,-0.67904747,-0.9348081,-0.9616361,0.27990586,-0.4524996,0.08234718,-0.21343195,0.38691995,-0.54639775,-0.6492385,-0.067256406,0.15277077,-0.30390206,0.3477841,-0.38825563,-0.009476439,-0.27013296,0.5073465,-1.2021401,0.2974367,-0.37683064,-1.3276212,-0.8016849,-0.0029697078,-0.28523716,-0.39600137,1.2563603,-0.22617584,-0.060223192,-1.9922065,-0.07435918,-0.39057934,-0.50347364,-0.8690729,-0.58674043,0.012290324,-0.25773978,0.107375436,-1.4887328,0.4612593,1.1727062,0.3340354,-0.61656153,0.78967905,0.2916274,0.8102053,-0.07256798,-0.041536573,0.0118485745,0.32048032,-0.47132877,0.06608091,-0.16595265,0.12751438,-0.28078339,-0.41943225,-1.060393,0.7184181,0.22423941,0.018735029,-0.2556097,-0.3807035,0.17185879,0.12916034,-0.51780325,-0.42485428,-0.6115268,-0.04482852,-1.149469,-0.1945151,-0.11541165,0.0890761,-0.4767508,0.013373518,-0.08225016,-0.5499481,0.099629685,0.57086164,-0.18531702,-0.21358901,0.107278615,0.040205274,0.20390682,-0.55498284,-0.66303605,-0.3109918,-0.83808994,-0.60997766,0.25251138,0.034710634,-0.1599497,-0.26664737,-0.5212889,0.08801106,0.8272459,-0.20623055,-0.6401861,0.34623495,0.582093,-0.4682305,-0.3605646,-0.2091352,0.56505233,-0.9798371,-1.4205703,-0.003204198,-0.44112036,-0.019751659,0.7629562,0.7730257,-0.1404885,0.6436717,0.37063405,-0.32590234,0.936461,-0.024532236,0.079781204,0.28078339,0.81097984,-0.15617365,0.32067397,-0.7281003,-0.34972054,0.42020684,-0.71454525,0.24921945,0.5139304,-0.4829474,-0.32803243,0.16217661,0.051993333,-0.1900613,-0.78270787,0.52399987,-0.3229977,0.31389645,0.4267907,-0.6401861,-0.14232813,0.46280846,-0.25909528,0.7722078,-0.655337,-0.25148734,0.0883253,0.30920577,-0.34774446,-1.1077633,-0.5165977,0.17109385,-1.1005933,0.08223081,0.24539287,0.24521361,0.47250226,0.07761513,-0.2841108,-0.23194914,-0.3161965,-0.2844693,1.0131195,-0.5882976,0.1867782,-0.5911656,0.22693014,1.0037985,-0.44274682,-0.68796045,0.25435534,0.11095557,-1.5773976,-0.13192779,-0.49688023,-0.27030858,-1.290598,-0.65426147,0.8919466,0.9120226,-0.7722078,-0.7015834,-0.73026335,0.09849772,0.55603266,-0.8195297,0.25937435,-0.5800521,0.21079767,-0.6954889,-0.67505443,0.9507405,-0.2267509,-0.72954637,-0.5782596,-0.102082714,0.6072981,0.04411784,0.16858436,-0.13775341,-0.38251892,-0.7636038,-0.54993814,-0.26224235,0.47931376,0.23929837,0.042347748,0.43593532,0.1513764,-0.30149803,-0.29289404,-0.22872265,-0.32731,-0.36710343,-0.37104693,-0.11382357,0.0014620055,-0.27694082,0.08926636,0.8281337,0.4556528,0.11122445,0.3558107,-1.0597243,-0.55101365,0.73922586,-0.37678292,-0.54814565,0.62414753,-0.073850885,-0.23696813,1.1572362,-0.32175323,-0.24252488,-1.1299902,0.8145107,-0.5732406,-0.17826384,-0.41765186,-0.8302847,-0.5399002,-0.55173063,-0.5456362,0.04026397,-0.33322522,0.55782515,-0.04189962,-0.30669627,-0.3731979,-0.36853743,-0.84677565,-0.27962956,-0.4362938,1.1235373,1.1558022,0.30848876,-0.34398022,0.6384875,-1.0303274,-0.3807264,-0.5194657,0.041832402,-0.41514236,-0.47752124,0.73779184,-0.17172123,-0.20613718,-0.68509245,-0.109969705,0.8245487,0.05771841,-0.36682847,0.3055757,-0.18496276,-0.40984306,-0.7343452,-0.0049009756,0.7494863,-0.06959762,0.15837973,-0.51583105,-0.25980815,0.053209055,-0.0051348675,-0.38885194,0.15751944,0.19287744,0.35994613,0.36992553,0.2133524,0.6445307,1.2340027,0.7577451,0.38678724,-0.5024105,0.20612594,0.38437843,0.4638694,-0.10306297,-0.5808691,-0.9566446,0.1488305,0.20973916,-1.0275327,-0.10968722,0.15158343,-0.05024105,-0.096266665,-0.6163131,-0.061639916,0.007946947,-0.4576753,-0.47694585,-0.5240898,-0.14478713,0.0074576554,-0.47694585,0.44425476,0.30075806,0.36097848,-0.25464642,-0.4308342,-0.62835723,0.34015942,0.40296072,0.53613394,-0.5505868,-0.48898992,-0.5354457,-0.041745666,-0.5034428,-0.13282907,-0.8148685,-0.21989061,-0.113386475,-0.9807328,0.066715635,-0.0892983,-0.8465272,-0.46249294,-0.98210925,-1.0034444,0.25137728,0.49724874,0.49415168,0.04654179,0.017646737,0.5457692,0.8224391,0.43152243,0.87680954,-0.03238999,-0.9993151,-0.36889318,-0.13721655,0.9160388,0.7949097,-0.56331915,-0.433243,-0.7143864,0.7522392,-1.0454267,-0.20302889,0.036153767,-0.5044752,0.37715197,-0.159154,-0.39676663,0.10392326,0.067661956,-0.2720243,-0.7522392,-0.21111563,-0.024002144,-0.3200286,-0.07127518,-0.07428621,0.1190644,0.5199604,0.40674603,-0.53888685,0.5729544,1.096356,-0.15149741,0.31108156,0.6768777,-0.40089604,-0.6940835,-0.76669216,-0.2923272,0.6077102,-0.7777039,0.26238903,-0.22040679,0.024690378,0.51376635,-0.5292516,0.4353077,-0.20062007,0.14060573,-0.57586867,0.33483022,-0.712949,-0.16823497,-0.4856842,-0.021172848,-0.1779093,0.25022084,-0.10756544,0.654903,-0.38795707,-0.21709855,0.73852855,0.0071840105,-0.26661798,0.041915268,0.18987924,-0.93398285,-0.7490228,-0.09543154,-1.0048187,0.21545883,0.9143062,0.15044405,0.69064885,0.17069454,-0.5686539,-0.61358213,0.3077749,0.28678653,-0.21234336,-0.718852,0.25874737,-0.40501013,0.14003184,-0.25727162,0.48502833,-0.9956362,0.35450682,-0.16921881,0.36893633,-0.24940097,0.4040263,0.021767244,0.4509222,-0.5178227,0.99957156,0.5122476,0.06669549,-0.14741057,-0.22496918,1.3576858,-0.17282619,0.46272817,0.8710177,0.6827782,0.60636735,-0.6867135,0.47486207,-0.33532214,0.2543201,-0.29022992,0.6650692,0.020670684,-0.70639014,-0.7109813,-0.4689591,-0.7864083,0.5889864,-0.87364125,-0.0047039385,-0.56767005,-0.3338464,-0.76935524,-0.32138455,0.4046822,-0.82117033,-0.3041675,0.12125708,-1.0107216,0.63588226,0.17626959,0.051487118,-0.46567965,-0.57849216,-0.70573425,-0.039435197,0.070425846,-0.4004189,-0.82772917,-0.7195079,-0.7044225,-0.04566612,0.28711447,0.5866908,0.38107026,0.1895513,0.4646958,0.3089227,0.43616474,-0.30383956,-0.34171703,-0.7332815,-0.042222716,-0.69851947,-0.8703618,0.28957403,-0.65096766,0.64244115,0.25579587,-0.32187647,0.0730494,-0.23152806,-0.7031107,-0.27317688,0.9595624,0.15593709,0.29432923,-0.18610789,-0.06903209,-0.13183326,0.48961952,-0.2995763,1.164855,-0.45059425,-0.5122476,0.10485991,0.044573892,-0.32993618,-0.37251908,-0.46061042,-0.7937972,-0.28117713,-0.051237624,0.81395096,-0.22624195,-1.2033732,0.27467594,0.06253347,-0.0047920994,0.14140122,-0.8451567,1.0531952,-0.275001,0.14733356,0.0846782,0.5851085,0.5057938,0.027183166,-0.42972967,0.30506906,-0.7996483,-0.060217418,-0.84645694,0.38519642,0.66377306,-0.728135,-0.4271292,-0.19454858,-0.14904013,-0.7209837,1.1422619,-0.26459906,-0.5009179,-0.5330989,0.24883364,-0.64361936,-0.16269267,-0.7274849,-0.6988796,-0.6153391,0.03874312,-0.41542703,-0.884164,-0.8028989,0.45053354,0.120678626,0.03195749,-0.6800261,0.85230803,0.6179396,-0.6250909,-0.33416197,-0.47913885,-0.40567523,-0.733336,-1.18647,-0.28231484,-0.16212381,0.3634174,-0.28247738,-0.28556547,0.46386102,0.05355368,0.16041724,-1.0109375,-0.22965509,-0.7157827,-0.83800536,-0.07110693,-0.098005675,-0.026756523,-0.33091137,-0.58705884,0.9082184,0.055747837,0.2561475,0.1935734,-0.43720606,-0.043598708,-0.66897404,-0.1300241,0.65889716,-0.5646297,-0.9927341,-0.3942981,0.9797317,-0.32278484,-0.5207466,-0.21649015,0.3877969,-0.1930858,0.5272478,0.10141881,0.18463424,0.11799688,-1.2332786,0.47751355,-1.0609968,0.19503616,-0.2545222,-0.98818326,0.08057432,-0.6280165,-0.006618024,-0.5194463,0.03270919,-0.65792197,0.50026774,0.36276728,0.5171709,0.23046774,1.1039047,-0.28621557,-0.8100502,0.58218294,0.37576967,-0.7950974,1.2072738,-0.65499645,-0.11937839,-0.5630044,-0.83865553,-1.0018358,0.7651919,-0.6669259,-0.16435352,0.20377275,0.1301475,0.42254496,-0.7338746,0.46388483,0.21365044,0.7089975,0.21035787,0.15584774,-0.7002173,-0.27913576,-0.3568767,-0.49242035,0.31901228,-0.28791592,-0.19115128,-0.9914258,0.3753516,0.6281469,-0.51363903,0.2096262,-0.81289595,0.056796625,-0.060820863,0.33163375,0.13408028,0.5326627,-1.0170345,-0.37041277,0.37425408,0.1319767,0.2262719,-0.020029727,-0.14286043,0.09456958,0.5666858,-0.7865555,0.2549903,-0.57985604,-0.3164514,-0.42144743,-0.7137534,-0.25572202,-0.36364475,0.18374303,0.6182692,-0.054372936,0.16078658,0.08949356,-0.045615647,-0.9124044,-0.7079,-0.11725165,-0.3983995,0.82826126,0.47339666,0.42839837,-0.31315884,-0.21950386,-0.48290852,0.18502347,-0.14999431,0.17788959,-0.22828402,0.3735224,-0.10499602,0.06516521,0.34699902,0.5985139,-0.2795016,1.057277,0.2088945,1.4926263,-0.18173091,-0.28187954,0.35669377,-0.01874929,-0.7371671,0.5469305,0.12475137,0.35120618,0.22938155,-0.17002404,-0.27236772,-0.5915629,-0.03315423,-0.24364929,0.67899865,0.21657714,-0.19572428,0.0843718,0.6775353,-0.13170232,0.18685266,0.2555391,-0.19151713,-0.58095354,0.004290043,-0.35888883,0.053458337,0.5392478,-0.445227,-0.9343548,0.28096494,-0.31059796,-0.31517097,0.26175836,-0.74850816,-0.52498007,0.7254603,0.88972235,0.43937358,-0.9226479,0.008014178,0.3918144,0.057345387,0.17907856,-0.72875285,-0.032765526,-0.4737625,-0.17249346,-0.46754324,0.21767467,0.17176178,-0.36785188,0.3027324,-0.6612506,-0.55262697,-0.55482143,0.1396197,0.28673697,-0.49996102,0.26278126,-0.84192413,0.03559068,-0.8763033,0.6685653,0.65283865,-0.19932608,0.3384886,0.83899826,0.9545708,-0.8148597,-0.08677085,0.23644829,-0.4344943,-0.39206892,-0.4754567,0.19091415,0.8221744,0.24650602,-0.24924904,-0.19950895,-0.99480176,-0.37707373,0.057329107,0.24211718,-0.28179953,-0.12544742,-0.61736226,-0.468142,0.42717957,0.6839262,-0.121515766,0.052940276,-0.33720854,0.21834435,-0.26460996,-0.24211718,-1.3371305,-0.253455,-0.53287727,-1.4497772,0.5687194,-0.8770348,0.57896,-0.8916642,-0.027773073,-0.6122419,-0.046425603,0.10405187,-0.8528962,0.3225791,0.034379177,-0.29825765,0.42791104,-0.2009719,-0.7234257,0.19768028,0.41876763,0.2488833,-0.8192485,-0.21541846,0.69855565,0.5160534,0.09349125,-0.65101,-1.2061971,-0.45387828,0.4407118,0.2814338,-0.1595523,0.6074874,0.24815182,0.6210196,0.6725884,-0.50727576,-0.5376318,-0.50032675,0.13980256,1.3715098,-0.7102592,0.106337726,0.14163125,-0.28161666,0.5767656,0.016892428,-0.48825747,-0.07607307,-0.27430195,-0.3191046,0.4140131,0.43778592,0.383657,0.7724343,-0.61151046,-1.3758986,-0.029533176,-0.26973024,0.93335813,-0.20883521,-0.4374202,-0.30447516,-0.07717028,-0.22383039,-1.1162261,-0.20590933,-1.0035794,-0.38621715,0.13038486,-0.0291903,-0.50837296,-0.8806921,0.1353223,0.011132088,0.6451582,0.25327215,-0.5197108,-0.69855565,-1.4475828,-0.122247234,0.47216508,-0.34104875,-0.71830535,-0.81816393,0.51489395,-0.014129952,0.8013959,0.36282533,-1.0835613,-0.6076963,-0.079648115,0.34519002,-0.20844388,0.12792847,-1.2570236,-0.07444424,-0.11853258,0.5461172,-0.14397372,0.033915497,-0.61347836,-0.03584888,-0.03808943,0.3584888,-0.29719877,-0.6111656,-0.3301566,-0.5406242,-0.010172842,0.12879577,0.02827797,0.28968206,0.032885563,0.6666735,-0.9314926,-0.36427087,0.10834167,-0.1163643,-0.23330681,-0.24429277,-0.08065998,0.5432262,-0.899113,-0.3743895,-0.6082745,0.30269173,-0.08969447,-0.27869612,-0.5920847,-0.6412324,-1.1251922,0.4050345,-1.07431,-0.85806024,-0.985266,-0.05998905,-0.21422596,-0.14758752,0.56375253,-0.33825153,0.23056033,-0.4038781,0.017346231,-0.03295784,-0.10928126,0.49118745,0.88061035,0.117231615,-0.73027635,0.13024129,-0.6973185,-0.11918306,-0.04640117,-0.25383317,0.43018654,-1.2697442,-1.0182238,-0.12655522,-0.09641614,0.15842892,-0.17967805,-0.2390889,0.07610659,-0.24848476,0.8534346,-0.8158511,-0.09807848,0.16045265,-0.117087066,0.059194017,-0.39173573,0.28187627,-0.39115754,-0.012368225,-0.07017996,0.2958978,0.01073298,0.31165397,-0.29213944,0.27797335,1.6525177,-0.73663664,-0.15336959,-0.5461172,-0.35877788,-0.47962332,-0.16912577,-0.12937398,-0.32697648,-0.40272167,-0.45418218,-0.75745213,0.0035979878,0.9025822,0.30413726,0.03848695,0.44030517,-0.37959337,-0.1942778,0.3206162,0.11144954,0.39983064,-0.18835117,-0.044088338,0.2953196,-0.40243256,0.48771822,0.1804008,-0.75918674,-0.7343238,-0.1608863,0.11658988,0.22393742,-1.0115062,-0.68060005,-0.37333003,-0.8921133,-0.53241956,0.24833114,0.31181544,-0.57908577,1.1599897,0.06980999,0.2740885,0.285149,-0.36029986,0.15969557,-0.29590648,-0.745448,0.06689335,-0.09530219,0.4312083,-0.19393769,0.12174135,-0.49090475,-0.2806036,-0.31939113,-0.025492199,0.4572687,0.9115071,-0.15128654,-0.06712062,0.09590825,0.6284793,-0.10628694,0.011742321,0.24893719,-0.44363245,-0.47302613,-0.60393405,-0.09098405,0.8496895,-0.2721188,-0.1853014,-0.64787304,0.13537759,-0.6199945,0.8363562,-0.41181454,-0.09060526,-0.3003004,-0.362118,-1.4436237,0.57060105,0.2007558,0.71150887,0.59150994,0.9484765,-0.8872649,-0.15249865,0.19257405,-1.0042336,-0.33302736,-0.6563578,0.0893174,0.86484087,-0.71332705,0.08969618,-0.38545114,0.26848248,-0.8654469,-0.008191216,0.1819681,-1.0515059,-0.07598418,0.16181675,-0.5624193,0.18439232,0.023806607,0.23545247,1.0690814,-0.18363474,-0.6218127,-0.08469622,-0.30530033,-0.10765056,-0.25817955,-0.60302496,-0.96423393,-0.21621022,-0.4627232,-0.41423878,0.21014966,0.42605683,0.95150673,-1.2448375,-0.7302966,-0.67211527,-0.2556038,-0.46999586,0.17908932,0.107196026,-0.12196862,0.56969196,-0.20984663,0.47575337,0.44938996,-0.29484588,-0.35423928,-0.658176,0.34939086,-0.54757094,-0.012566177,0.20772544,-0.31757295,0.8127201,-0.614237,-0.13742302,-0.37484518,0.27666423,-0.25211897,-0.32302746,0.71150887,0.1360594,-0.74847823,-0.756963,-0.031003514,-0.23575549,0.006387254,-0.31092212,-0.1582529,-0.49870968,-0.34795064,0.021967323,-0.50899535,-1.0832314,-0.11909375,-0.58834225,-1.251917,0.28124052,0.9257133,-0.27007318,-1.0209296,0.10799988,0.7423339,0.55601573,-0.9462847,-0.044375464,-0.04411832,0.0051474436,-1.1619906,0.313567,-0.24479973,0.25890586,-0.58657897,-0.43670157,0.14201617,0.67885643,-0.3561792,1.2342844,-0.18528959,0.0685836,-0.94393367,-0.50546885,-0.10564887,0.4622689,-1.2295823,-0.8663501,-0.054991778,-0.66651356,-0.26125687,0.8046359,-0.021802017,0.28403234,-0.73234206,-0.113142736,-0.36470166,-0.16192636,-0.490775,-0.13760802,-0.58540344,-0.15428555,0.017081615,-0.4337628,0.63359934,-1.1543498,-0.2827099,-0.7053054,-0.011553049,-0.17603247,-0.1780896,-0.060244832,1.3083415,0.11409784,-0.064542785,0.10858764,0.47431785,-0.20189366,0.5442606,-0.24950178,-1.3259741,-0.33355066,0.6529952,-0.722938,-0.10138765,0.4184812,-0.006883156,-1.0291581,-0.13422842,-0.6547585,-0.45786074,-0.33355066,-0.0058913203,0.43082404,-0.14686514,-0.45639136,-0.2796242,-0.12239987,-0.22437528,0.1750039,0.20644876,-0.06711421,0.034383636,-0.5842279,0.4493383,0.3006364,-0.48137093,-0.14062026,-0.1898447,-0.54455453,0.04672648,-0.16310187,-0.26272625,-0.38115877,-0.44081587,-1.1614028,-0.0066673397,-0.07861216,-0.98331326,-0.00261964,0.1625141,-0.046836685,-0.35206494,-0.65417075,-0.048526477,0.4014363,-0.55689734,0.53221166,0.1613386,-0.5848157,0.10550193,-0.1860243,-0.37763226,-0.64359117,1.0479662,0.2637548,1.0832314,-0.08016558,0.27459493,0.20097065,0.09554456,0.14683105,-0.039456494,-0.62239665,-0.0835754,0.10118121,-0.67250013,0.5862108,-0.07459852,0.3501677,-0.3754978,-0.014213385,-0.15072799,0.8679037,-0.32372418,-0.11906537,0.011525542,-0.6702733,0.19526441,-0.29282704,-0.876811,-0.09039504,-0.057062306,-0.7097994,0.5135607,-0.27334234,0.6390978,0.010733976,-0.45037466,-0.86456347,0.28197128,-0.24829061,-0.16645491,0.47347796,-0.9313681,0.6012418,0.30201268,-0.6580258,-0.3960959,0.24453285,-0.45037466,0.64633495,0.32678607,-0.23506886,0.12978195,-0.22811005,-0.5984583,-0.92079073,-0.07738205,-0.17981584,0.77660406,-0.20765111,0.5795303,-0.98536855,0.13757582,-0.024321068,-0.1259546,-0.0058584544,0.2989508,0.19735207,0.44341585,0.11892619,0.42337444,-0.54250944,-0.23548639,0.40416813,-0.4815502,-0.617943,-0.12470201,-0.2590072,0.15545999,-0.50882876,-0.80054235,-0.7649132,0.048746515,-0.0894208,0.0033445817,0.64633495,-0.6997787,0.054835483,-0.6769538,0.35601312,-0.04777228,0.20291913,1.0209978,0.11134108,-0.10027656,-0.34153876,-0.29922915,-0.28030118,0.0829491,-0.742645,-0.31760043,-0.57006633,-0.08350581,-0.27431658,0.7131396,-0.21488829,0.052121542,-0.20236242,0.39748767,-0.11022767,-0.29143527,-0.11704731,-0.37577614,0.16436727,0.7643565,0.24508956,0.3220541,0.36352864,-0.029209636,-0.6569124,-0.6196131,-0.5280351,-0.59233457,0.2329812,-0.51745766,0.08914245,0.15810433,-0.018510455,-0.42977658,-0.035768323,0.47292125,0.34042534,0.13611448,-0.58261293,0.0017513295,0.23641154,0.27256185,0.4506356,-0.021386541,-1.1560448,-0.037321847,0.67557085,-0.71191245,0.0992699,-0.26204193,1.2868745,0.009001714,0.4533134,-0.3681976,-0.5669287,0.55927783,-0.95482725,-0.5451237,-0.088128336,-0.33682907,-0.74251586,1.0741806,-0.0843029,-0.99078625,0.83011824,0.3379767,-0.40052247,-0.18218608,-0.6246927,0.24693148,-1.0275104,0.8033402,-1.1239113,0.7826829,0.06350213,0.8523057,0.81558156,-0.10491241,0.08678944,-0.0569989,-0.56578106,-0.7520795,0.48047397,0.39860976,-0.31502414,-1.1208509,0.40817335,0.13082969,-0.18323807,0.2817429,-0.30794707,0.058242165,0.36724123,0.78038764,-0.30584309,0.015194128,-0.14813976,0.43801168,-0.4540785,0.631961,-0.249418,1.4574887,-0.1270999,1.0672948,-0.7673812,-0.032946512,0.49195024,-0.32879567,0.029575352,-0.2748571,0.09008887,-1.9601501,-1.0474026,-1.5003334,0.013042324,0.43801168,-0.6201021,0.26338083,-0.78421307,0.6507056,-0.5787875,0.39593196,-0.28518578,-0.6357864,0.06417158,-0.10969419,-0.4835343,-0.35653004,0.25113946,0.39401925,0.12968206,-0.83011824,-0.70732194,0.52331877,0.8415945,0.56845886,0.30603436,0.48009142,-0.24597512,-0.68207407,-0.748254,-0.34218466,0.089658506,0.48009142,-1.095603,0.06694502,0.007620973,0.10338224,-0.06464976,-0.42232743,0.085928716,0.99537677,0.997672,-1.0787711,0.28652468,-0.81940705,0.5409157,-1.4674348,0.3398894,0.04662242,-1.2080706,0.5386205,-0.6480278,0.3245877,1.095603,-0.45293087,0.3348521,-0.11288574,0.026297728,-0.24623467,-0.0608822,0.77117455,0.7001453,-0.37138143,0.7305864,0.36394027,-0.45560178,0.17452897,-0.47893998,-0.025938354,0.23980822,0.24014646,-0.4951752,0.48976347,0.2288156,0.5215575,0.13182688,-0.95720345,-0.57263094,0.13123496,-0.44274887,1.3096437,-0.3170948,-1.2873203,0.49348405,0.15719445,0.5706015,0.30001396,-0.91458595,0.21579358,0.029933749,0.27955076,0.16742605,-0.3994549,0.7610275,-0.11001075,-0.45120475,0.0060565104,0.42752835,0.09411374,-0.49077818,-0.02505049,0.33620504,0.32571977,0.3906608,-0.21258035,0.2866537,-0.004891187,0.54929274,-0.16455106,-0.34381533,-0.3683373,0.17689662,0.24927878,-0.019247653,-0.32825652,0.20006567,-0.18027896,-0.65346897,-0.37848434,-0.08954757,-0.5144546,0.4860429,0.29105073,0.91120356,0.75155693,0.1777422,-0.68289536,-0.30779335,0.10223136,1.0451444,0.1679334,0.29646248,-0.20463184,0.10197768,-0.31692567,0.07766709,-0.17402162,0.37171966,-0.30897716,0.23016854,0.6470425,-0.76779217,-0.1718231,0.7914686,0.6511013,0.7238217,-0.5969838,-0.33755797,0.3094845,0.26838902,0.28174928,-0.7380276,0.76170397,-0.28817573,0.5354251,0.3595432,0.59664553,0.17190766,0.105106354,0.56417507,1.2480851,1.0437915,0.22949207,-0.029003603,0.31117567,0.0986799,-0.5476016,0.4288813,0.21072006,0.3652932,0.07821672,-0.68188065,0.50329286,-0.35852852,0.7474981,0.20108038,-0.41298425,-1.0485268,-0.64467484,0.5580868,0.47149882,-0.59867495,-0.5310281};

#endif
